tree
version=v3
num_class=1
num_tree_per_iteration=1
label_index=0
max_feature_idx=169
objective=regression
feature_names=is_mobile sem_impressions_w2 sem_clicks_w2 sem_adspend_w2 sem_qty_w2 sem_gmv_revenue_adjustment_w2 sem_orders_w2 sem_margin_w2 sem_ctr_w2 sem_cpc_w2 sem_rpc_w2 sem_roas_w2 sem_convrt_w2 sem_ordersize_w2 sem_mpc_w2 sem_mpo_w2 sem_impressions_w1 sem_clicks_w1 sem_adspend_w1 sem_qty_w1 sem_gmv_revenue_adjustment_w1 sem_orders_w1 sem_margin_w1 sem_ctr_w1 sem_cpc_w1 sem_rpc_w1 sem_roas_w1 sem_convrt_w1 sem_ordersize_w1 sem_mpc_w1 sem_mpo_w1 sem_impressions_v2 sem_clicks_v2 sem_adspend_v2 sem_qty_v2 sem_gmv_revenue_adjustment_v2 sem_orders_v2 sem_margin_v2 sem_ctr_v2 sem_cpc_v2 sem_rpc_v2 sem_roas_v2 sem_convrt_v2 sem_ordersize_v2 sem_mpc_v2 sem_mpo_v2 sem_impressions_v3 sem_clicks_v3 sem_adspend_v3 sem_qty_v3 sem_gmv_revenue_adjustment_v3 sem_orders_v3 sem_margin_v3 sem_ctr_v3 sem_cpc_v3 sem_rpc_v3 sem_roas_v3 sem_convrt_v3 sem_ordersize_v3 sem_mpc_v3 sem_mpo_v3 sem_impressions_v4 sem_clicks_v4 sem_adspend_v4 sem_qty_v4 sem_gmv_revenue_adjustment_v4 sem_orders_v4 sem_margin_v4 sem_ctr_v4 sem_cpc_v4 sem_rpc_v4 sem_roas_v4 sem_convrt_v4 sem_ordersize_v4 sem_mpc_v4 sem_mpo_v4 sem_impressions_v5 sem_clicks_v5 sem_adspend_v5 sem_qty_v5 sem_gmv_revenue_adjustment_v5 sem_orders_v5 sem_margin_v5 sem_ctr_v5 sem_cpc_v5 sem_rpc_v5 sem_roas_v5 sem_convrt_v5 sem_ordersize_v5 sem_mpc_v5 sem_mpo_v5 sem_impressions_v9 sem_clicks_v9 sem_adspend_v9 sem_qty_v9 sem_gmv_revenue_adjustment_v9 sem_orders_v9 sem_margin_v9 sem_ctr_v9 sem_cpc_v9 sem_rpc_v9 sem_roas_v9 sem_convrt_v9 sem_ordersize_v9 sem_mpc_v9 sem_mpo_v9 sem_impressions_v12 sem_clicks_v12 sem_adspend_v12 sem_qty_v12 sem_gmv_revenue_adjustment_v12 sem_orders_v12 sem_margin_v12 sem_ctr_v12 sem_cpc_v12 sem_rpc_v12 sem_roas_v12 sem_convrt_v12 sem_ordersize_v12 sem_mpc_v12 sem_mpo_v12 sem_impressions_v18 sem_clicks_v18 sem_adspend_v18 sem_qty_v18 sem_gmv_revenue_adjustment_v18 sem_orders_v18 sem_margin_v18 sem_ctr_v18 sem_cpc_v18 sem_rpc_v18 sem_roas_v18 sem_convrt_v18 sem_ordersize_v18 sem_mpc_v18 sem_mpo_v18 uber_curr_item_price_w1 uber_num_appr_reviews_w1 uber_avg_overall_rating_w1 uber_price_change_ratio_w1 uber_price_change_value_w1 uber_avg_margin_w1 site_total_page_views_w2 site_total_add_to_carts_w2 site_total_orders_w2 site_total_revenue_w2 site_atcpv_w2 site_convrt_w2 site_rpv_w2 site_mpv_w2 site_total_page_views_w1 site_total_add_to_carts_w1 site_total_orders_w1 site_total_revenue_w1 site_atcpv_w1 site_convrt_w1 site_rpv_w1 site_mpv_w1 bc_bounce_rate_w1 bc_bounce_rate_w2 bc_bounces_w1 bc_bounces_w2 bc_sem_bounce_rate_w1 bc_sem_bounce_rate_w2 bc_sem_bounces_w1 bc_sem_bounces_w2 bc_sem_visits_w1 bc_sem_visits_w2 bc_visits_w1 bc_visits_w2
feature_infos=none [0.42857142857142849:9738098] [0.071428571428571397:112436.64285714286] [0.00071428571428569997:3238.4421428571441] [-0.5714285714285714:20942.857142857141] [-6.5821428571428564:283104.44714285713] [0:6323.8571428571431] [-13.21214285714286:143204.60428571427] [0.0052008090147355997:0.1666666666666666] [0.01:2.7625177304964543] [-1.6166666666666665:45.71544502617801] [-6.5540540540540544:111.41572030113562] [0:0.3647058823529411] [-30.716666666666665:646.29933962264147] [-2.9707017543859648:30.16657142857143] [-56.443333333333328:636.10066037735851] [1:9565554.7142857164] [0.14285714285714279:109876.42857142857] [0.0014285714285713999:3179.0771428571429] [-1:20812] [-4.7985714285714289:267997.26428571431] [0:6245.8571428571431] [-50.680000000000028:128466.28857142858] [0.0049504950495049002:0.14285714285714279] [0.01:2.7625177304964539] [-0.60677419354838669:35.68752380952381] [-2.6492957746478858:84.300333789590326] [0:0.31645569620253161] [-33.590000000000003:701.2347222222221] [-3.0964516129032256:30.223619047619049] [-47.994999999999997:690.97805555555544] [0:9384669.7142857164] [0:103998.28571428572] [0:2971.360000000001] [-0.071428571428571397:19369] [-3.2107142857142859:268985.57642857142] [0:5905.5714285714284] [-3.2107142857142859:142838.63642857145] [0.0034722222222221999:0.14999999999999999] [0.028571240185277701:1.1309438244751275] [0:199] [0:674.57627118644075] [0:0.5] [-44.950000000000003:628.32354430379746] [0:199] [-44.950000000000003:619.31316455696196] [0:9709171.4285714291] [0:105632.5] [0:3000.3321428571426] [-0.21428571428571419:20060.5] [-4.4914285714285711:271495.76428571425] [0:5961.9285714285716] [-4.4914285714285711:144002.8957142857] [0.0023094688221708998:0.14705882352941169] [0.028403494595480899:1.1093250805494319] [-4.8369230769230764:34.2571724137931] [-35.128491620111731:124.89033637305012] [0:0.33333333333333331] [-31.440000000000001:516.59578059071725] [-4.8369230769230764:11.826828117237952] [-31.440000000000001:502.2659282700422] [0:10300389.214285716] [0:113892.42857142857] [0:3297.499285714287] [-0.14285714285714279:20554.357142857141] [0:290661.77714285714] [0:6275.2857142857147] [-0.42285714285714399:155608.40000000005] [0.0030391279796460001:0.1666666666666666] [0.028952752409228202:0.96475864169331516] [0:40.476865671641789] [0:104.42626107046593] [0:0.29665071770334928] [0:544.76394904458607] [-0.0416901408450705:20.793571428571429] [-1.480000000000004:532.28946921443742] [0:9685873.6428571437] [0:99026.214285714275] [0:2905.5071428571428] [-0.21428571428571419:16216.857142857143] [-72.428571428571431:248058.35571428569] [0:5459.8571428571431] [-48.285714285714285:139020.7542857143] [0.003094670033124:0.1666666666666666] [0.029340787828908199:0.97161502966380997] [-0.043203592814371201:15.740597014925372] [-0.051029970824860799:85.375235206049595] [0:0.29230769230769232] [-507:561.50491582491588] [-0.0463323353293413:14.526666666666666] [-338:552.28218855218859] [0:9865627.1428571437] [0:84519.571428571435] [0:2448.1064285714288] [0:15427.928571428571] [0:230040.55071428567] [0:4990.2142857142853] [-8.3100000000000023:129793.03857142858] [0.0023821475836261:0.20000000000000001] [0.028964965003879:0.95852713178294602] [0:15.666549295774647] [0:93.966727928786923] [0:0.29999999999999999] [9.3814285714285717:677.06739130434778] [-0.59357142857142875:15.594657947686116] [-14.542500000000004:675.15699999999993] [0:11009568.142857144] [0:91877.428571428565] [0:2593.0885714285714] [-0.21428571428571419:14204.357142857143] [-303.59714285714284:227152.64214285719] [0:4742.1428571428569] [-571.42071428571421:140866.04142857145] [0.0021019923231583998:0.25] [0.01:0.89499215070643623] [-17.878611111111109:124] [-239.26765799256492:12400] [0:1.5] [-64.362999999999985:600] [-18.5:124] [-86.955326086956518:553.2547368421051] [0:8506367.2857142854] [0:152074.78571428571] [0:4332.1907142857144] [-0.8571428571428571:24626.642857142859] [-187.69999999999999:352839.56785714289] [0:8361.5714285714294] [-188.44857142857143:191691.96428571429] [0.0032291207984734998:2] [0.01:0.90317718940936875] [-326.56800000000004:1061.9200000000001] [-27214:106192] [0:10] [-656.95000000000005:889.96000000000004] [-653.9699999999998:40.452727272727273] [-659.57000000000005:889.96000000000004] [0:1190.4300000000001] none [1.7:5] none [-55.009999999999991:164.49000000000001] [1.28:1190.4300000000001] [45:464646] [9:38788] [3:54787] [127.95999999999999:2633710] [0.0065392354124748:0.44444444444444442] [0.0015247001423053001:1.892731292752021] [0.064366197183098495:42.906442340910438] none [33:188382] [3:15221] [1:25973] [49:1363768] [0.0066023362112747003:0.5871794871794872] [0.0013272077590607001:1.9297867597889888] [0.064987303199593699:43.615039007355698] none none none none none none none none none none none [15:76364] [27:196687]
tree_sizes=238 541 444 541 541 542 443 444 546 548 446 548 544 546 542 541 542 547 544 544 545 543 549 548 544 544 549 543 546 641 545 548 544 548 547 549 548 550 652 550 550 548 547 442 546 440 441 546 549 549 549 647 651 650 545 653 555 556 553 550 549 537 446 550 550 446 543 545 444 545 548 654 546 550 535 547 547 639 549 550 549 551 549 547 553 549 550 545 547 639 540 442 445 544 445 543 445 548 444 546 532 545 545 542 546 544 441 546 544 644 545 547 524 527 541 537 544 547 541 547 548 645 543 547 646 645 650 528 547 545

Tree=0
num_leaves=1
num_cat=0
split_feature=
split_gain=
threshold=
decision_type=
left_child=
right_child=
leaf_value=51.678349363553998
leaf_weight=
leaf_count=
internal_value=
internal_weight=
internal_count=
is_linear=0
shrinkage=1


Tree=1
num_leaves=4
num_cat=0
split_feature=13 13 43
split_gain=3.14282e+06 171582 21412.6
threshold=144.90272935779819 84.92777138157895 40.946614372469639
decision_type=10 8 8
left_child=1 2 -1
right_child=-2 -3 -4
leaf_value=-1.3606253683874932 2.5307333462316515 -0.29466793768272637 -0.9930451378699634
leaf_weight=120.99999976158142 151.57142663002014 139.2857129573822 133.14285635948181
leaf_count=20 18 23 21
internal_value=0 -0.858849 -1.16805
internal_weight=0 393.429 254.143
internal_count=82 64 41
is_linear=0
shrinkage=0.02


Tree=2
num_leaves=3
num_cat=0
split_feature=13 58
split_gain=3.01836e+06 168504
threshold=144.90272935779819 71.630747126436788
decision_type=10 8
left_child=1 -1
right_child=-2 -3
leaf_value=-1.1908338342483245 2.4801186746761696 -0.35101481999700057
leaf_weight=229.85714221000671 151.57142663002014 163.57142686843872
leaf_count=35 18 29
internal_value=0 -0.841672
internal_weight=0 393.429
internal_count=82 64
is_linear=0
shrinkage=0.02


Tree=3
num_leaves=4
num_cat=0
split_feature=13 13 73
split_gain=2.89883e+06 159746 19180.2
threshold=144.90272935779819 69.062029616724757 50.807719298245622
decision_type=10 10 8
left_child=1 2 -1
right_child=-2 -3 -4
leaf_value=-1.2573808571261531 2.4305162763774066 -0.23574889658963472 -0.91801559619182727
leaf_weight=144.14285707473755 151.57142663002014 125.42856955528259 123.85714244842529
leaf_count=21 18 20 23
internal_value=0 -0.824838 -1.10054
internal_weight=0 393.429 268
internal_count=82 64 44
is_linear=0
shrinkage=0.02


Tree=4
num_leaves=4
num_cat=0
split_feature=13 136 13
split_gain=2.78404e+06 195800 22376.9
threshold=144.90272935779819 77.000000000000014 44.219080671580677
decision_type=10 8 8
left_child=1 2 -1
right_child=-2 -3 -4
leaf_value=-1.3238239778680332 2.3819059205681365 -0.18196953191905452 -0.95266270532080666
leaf_weight=121.99999928474426 151.57142663002014 132.42857027053833 138.99999952316284
leaf_count=18 18 22 24
internal_value=0 -0.808341 -1.12616
internal_weight=0 393.429 261
internal_count=82 64 42
is_linear=0
shrinkage=0.02


Tree=5
num_leaves=4
num_cat=0
split_feature=13 13 43
split_gain=2.67379e+06 148842 19144.8
threshold=144.90272935779819 84.92777138157895 40.946614372469639
decision_type=10 8 8
left_child=1 2 -1
right_child=-2 -3 -4
leaf_value=-1.2622510269698053 2.3342678204385581 -0.26670756603182161 -0.91468061125781253
leaf_weight=120.99999976158142 151.57142663002014 139.2857129573822 133.14285635948181
leaf_count=20 18 23 21
internal_value=0 -0.792175 -1.08016
internal_weight=0 393.429 254.143
internal_count=82 64 41
is_linear=0
shrinkage=0.02


Tree=6
num_leaves=3
num_cat=0
split_feature=28 58
split_gain=2.28475e+06 123760
threshold=125.20597701149426 71.630747126436788
decision_type=10 8
left_child=1 -1
right_child=-2 -3
leaf_value=-1.1021822929236316 1.9541894884683968 -0.34716316419541315
leaf_weight=229.85714221000671 175.57142639160156 139.5714271068573
leaf_count=35 22 25
internal_value=0 -0.816933
internal_weight=0 369.429
internal_count=82 60
is_linear=0
shrinkage=0.02


Tree=7
num_leaves=3
num_cat=0
split_feature=13 58
split_gain=2.48142e+06 138686
threshold=144.90272935779819 71.630747126436788
decision_type=10 8
left_child=1 -1
right_child=-2 -3
leaf_value=-1.0801386249195255 2.2484986837183105 -0.31824196194813203
leaf_weight=229.85714221000671 151.57142663002014 163.57142686843872
leaf_count=35 18 29
internal_value=0 -0.763373
internal_weight=0 393.429
internal_count=82 64
is_linear=0
shrinkage=0.02


Tree=8
num_leaves=4
num_cat=0
split_feature=15 136 50
split_gain=1.99317e+06 318342 4864.67
threshold=65.394690934065963 77.000000000000014 231.59535714285718
decision_type=10 10 8
left_child=1 2 -1
right_child=-2 -3 -4
leaf_value=-1.1538418381682622 2.1556761202898249 0.093611002630656123 -0.97891761239576935
leaf_weight=120.57142853736877 137.42857003211975 152.42856931686401 134.57142782211304
leaf_count=27 20 22 13
internal_value=0 -0.629548 -1.06158
internal_weight=0 407.571 255.143
internal_count=82 62 40
is_linear=0
shrinkage=0.02


Tree=9
num_leaves=4
num_cat=0
split_feature=28 75 12
split_gain=2.04272e+06 98732.8 8283.43
threshold=117.29450000000001 43.121216517857142 0.062478174236355009
decision_type=10 10 2
left_child=1 2 -1
right_child=-2 -3 -4
leaf_value=-0.92882214204889157 1.8190642279845861 -0.36052748431186066 -1.1700423485589748
leaf_weight=123.42857146263123 179.42856931686401 136.42856955528259 105.71428537368774
leaf_count=23 23 19 17
internal_value=0 -0.786494 -1.04011
internal_weight=0 365.571 229.143
internal_count=82 59 40
is_linear=0
shrinkage=0.02


Tree=10
num_leaves=3
num_cat=0
split_feature=28 28
split_gain=1.96183e+06 73880.8
threshold=117.29450000000001 47.104615384615393
decision_type=10 8
left_child=1 -1
right_child=-2 -3
leaf_value=-1.0681629868513947 1.7826829461547113 -0.49894501412789255
leaf_weight=174.57142853736877 179.42856931686401 190.99999785423279
leaf_count=27 23 32
internal_value=0 -0.770764
internal_weight=0 365.571
internal_count=82 59
is_linear=0
shrinkage=0.02


Tree=11
num_leaves=4
num_cat=0
split_feature=141 141 98
split_gain=4.50069e+06 286810 13221.5
threshold=298.50000000000006 67.360000000000014 0.027949578748761254
decision_type=8 10 8
left_child=1 2 -1
right_child=-2 -3 -4
leaf_value=-1.1118816136395353 3.4774016172736406 -0.0025341826295566671 -0.83847658088476862
leaf_weight=141.57142806053162 142.28571534156799 212.14285492897034 141.42857098579407
leaf_count=19 16 31 26
internal_value=0 -0.558491 -0.975248
internal_weight=0 495.143 283
internal_count=92 76 45
is_linear=0
shrinkage=0.02


Tree=12
num_leaves=4
num_cat=0
split_feature=141 141 78
split_gain=4.32247e+06 275453 17719
threshold=298.50000000000006 67.360000000000014 22.756785714285716
decision_type=8 10 8
left_child=1 2 -1
right_child=-2 -3 -4
leaf_value=-1.1028086484552224 3.4078535704240598 -0.0024834947620461139 -0.78544833308138184
leaf_weight=151.85714244842529 142.28571534156799 212.14285492897034 131.14285659790039
leaf_count=27 16 31 18
internal_value=0 -0.547321 -0.955743
internal_weight=0 495.143 283
internal_count=92 76 45
is_linear=0
shrinkage=0.02


Tree=13
num_leaves=4
num_cat=0
split_feature=136 136 84
split_gain=4.1513e+06 264545 19216.7
threshold=298.50000000000006 67.360000000000014 0.34192771084337353
decision_type=8 10 8
left_child=1 2 -1
right_child=-2 -3 -4
leaf_value=-1.0824691271899287 3.3396964558419002 -0.0024338290664401344 -0.75038784265709513
leaf_weight=158.71428537368774 142.28571534156799 212.14285492897034 124.28571367263794
leaf_count=27 16 31 18
internal_value=0 -0.536375 -0.936628
internal_weight=0 495.143 283
internal_count=92 76 45
is_linear=0
shrinkage=0.02


Tree=14
num_leaves=4
num_cat=0
split_feature=30 136 77
split_gain=4.05197e+06 263189 19702.3
threshold=86.51336206896552 67.360000000000014 70.071428571428584
decision_type=10 10 8
left_child=1 2 -1
right_child=-2 -3 -4
leaf_value=-1.0782104804149293 3.3220976837188041 0.014277483578317705 -0.74703610636555839
leaf_weight=148.42857122421265 140.42857146263123 209.2857129573822 139.28571367263794
leaf_count=27 16 30 19
internal_value=0 -0.525353 -0.917885
internal_weight=0 497 287.714
internal_count=92 76 46
is_linear=0
shrinkage=0.02


Tree=15
num_leaves=4
num_cat=0
split_feature=30 141 78
split_gain=3.89152e+06 252767 19219.5
threshold=86.51336206896552 67.360000000000014 24.875357142857144
decision_type=10 10 8
left_child=1 2 -1
right_child=-2 -3 -4
leaf_value=-1.0439614482292112 3.2556556731697368 0.013991935909923108 -0.71452784059607855
leaf_weight=161.5714282989502 140.42857146263123 209.2857129573822 126.14285659790039
leaf_count=29 16 30 17
internal_value=0 -0.514846 -0.899528
internal_weight=0 497 287.714
internal_count=92 76 46
is_linear=0
shrinkage=0.02


Tree=16
num_leaves=4
num_cat=0
split_feature=136 136 76
split_gain=3.75311e+06 223939 15292
threshold=298.50000000000006 67.360000000000014 2932.928571428572
decision_type=8 10 8
left_child=1 2 -1
right_child=-2 -3 -4
leaf_value=-1.0124631268197781 3.1723202780973652 -0.021915375299244921 -0.71647819536387358
leaf_weight=157.71428632736206 142.28571534156799 212.14285492897034 125.28571271896362
leaf_count=28 16 31 17
internal_value=0 -0.513172 -0.881429
internal_weight=0 495.143 283
internal_count=92 76 45
is_linear=0
shrinkage=0.02


Tree=17
num_leaves=4
num_cat=0
split_feature=13 88 136
split_gain=3.6863e+06 304927 65337.6
threshold=199.96987340085292 101.76678571428572 59.490000000000002
decision_type=8 10 10
left_child=1 2 -1
right_child=-2 -3 -4
leaf_value=-0.89539875835528282 3.5254960316702735 0.37979438534726073 -0.34016624838445048
leaf_weight=252.71428489685059 116.14285755157471 140.99999904632568 127.57142782211304
leaf_count=39 13 20 20
internal_value=0 -0.414599 -0.709139
internal_weight=0 521.286 380.286
internal_count=92 79 59
is_linear=0
shrinkage=0.02


Tree=18
num_leaves=4
num_cat=0
split_feature=30 136 103
split_gain=3.51197e+06 221701 12040.6
threshold=86.51336206896552 67.360000000000014 74.602240301526038
decision_type=10 10 8
left_child=1 2 -1
right_child=-2 -3 -4
leaf_value=-0.97078619400100286 3.0900417955263606 0.003403237348160444 -0.71105139682562146
leaf_weight=156.28571438789368 140.42857146263123 209.2857129573822 131.42857050895691
leaf_count=25 16 30 21
internal_value=0 -0.491872 -0.852139
internal_weight=0 497 287.714
internal_count=92 76 46
is_linear=0
shrinkage=0.02


Tree=19
num_leaves=4
num_cat=0
split_feature=28 43 73
split_gain=3.3383e+06 179024 24474.2
threshold=153.52399590163938 92.547459677419383 56.861415094339627
decision_type=10 8 10
left_child=1 2 -1
right_child=-2 -3 -4
leaf_value=-0.9488405427483233 2.9843205721978774 0.017704140024189123 -0.59633244951507902
leaf_weight=158.5714282989502 142.85714244842529 179.42857027053833 156.5714282989502
leaf_count=32 16 25 19
internal_value=0 -0.486585 -0.773705
internal_weight=0 494.571 315.143
internal_count=92 76 51
is_linear=0
shrinkage=0.02


Tree=20
num_leaves=4
num_cat=0
split_feature=13 13 58
split_gain=3.34533e+06 246459 49700.1
threshold=199.96987340085292 106.6789307692308 71.630747126436788
decision_type=8 10 8
left_child=1 2 -1
right_child=-2 -3 -4
leaf_value=-0.87024234673137757 3.3550243697863538 0.21292934302772065 -0.35427978540621718
leaf_weight=237.14285635948181 116.14285755157471 175.14285564422607 108.99999976158142
leaf_count=38 13 22 19
internal_value=0 -0.398429 -0.707766
internal_weight=0 521.286 346.143
internal_count=92 79 57
is_linear=0
shrinkage=0.02


Tree=21
num_leaves=4
num_cat=0
split_feature=13 73 28
split_gain=1.4267e+06 143349 34867.2
threshold=144.90272935779819 73.630939031862752 39.881428571428579
decision_type=10 10 8
left_child=1 2 -1
right_child=-2 -3 -4
leaf_value=-0.97515669515546255 1.6032178211731587 0.024876397115840075 -0.58150042488674647
leaf_weight=154.28571391105652 164.28571248054504 130.71428561210632 215.99999833106995
leaf_count=23 20 20 33
internal_value=0 -0.544521 -0.745524
internal_weight=0 501 370.286
internal_count=96 76 56
is_linear=0
shrinkage=0.02


Tree=22
num_leaves=4
num_cat=0
split_feature=30 136 40
split_gain=1.15499e+06 247477 10620.5
threshold=72.634411764705902 67.360000000000014 3.1005905308111945
decision_type=10 10 10
left_child=1 2 -1
right_child=-2 -3 -4
leaf_value=-0.91525776459077979 1.5971721187912298 0.063742805279104434 -0.67513499854982106
leaf_weight=177.71428513526917 140.42857074737549 221.28571224212646 125.85714221000671
leaf_count=29 23 28 16
internal_value=0 -0.44492 -0.815706
internal_weight=0 524.857 303.571
internal_count=96 73 45
is_linear=0
shrinkage=0.02


Tree=23
num_leaves=4
num_cat=0
split_feature=30 136 88
split_gain=1.10925e+06 237676 14113.6
threshold=72.634411764705902 67.360000000000014 45.37859804072631
decision_type=10 10 8
left_child=1 2 -1
right_child=-2 -3 -4
leaf_value=-0.95516206412350413 1.5652286953709191 0.062467955088150173 -0.68000637478565273
leaf_weight=131.71428513526917 140.42857074737549 221.28571224212646 171.85714221000671
leaf_count=18 23 28 27
internal_value=0 -0.436022 -0.799392
internal_weight=0 524.857 303.571
internal_count=96 73 45
is_linear=0
shrinkage=0.02


Tree=24
num_leaves=4
num_cat=0
split_feature=28 43 28
split_gain=1.17055e+06 89938.3 17732.9
threshold=117.29450000000001 67.916483851514371 43.29025208137967
decision_type=10 10 8
left_child=1 2 -1
right_child=-2 -3 -4
leaf_value=-0.92016797288776564 1.2079381453783586 -0.15565795323723289 -0.62129813419303925
leaf_weight=161.28571391105652 213.28571271896362 134.28571319580078 156.42857050895691
leaf_count=24 27 18 27
internal_value=0 -0.589605 -0.773018
internal_weight=0 452 317.714
internal_count=96 69 51
is_linear=0
shrinkage=0.02


Tree=25
num_leaves=4
num_cat=0
split_feature=13 58 28
split_gain=1.25254e+06 124704 21897.3
threshold=144.90272935779819 71.630747126436788 38.85324981844591
decision_type=10 10 8
left_child=1 2 -1
right_child=-2 -3 -4
leaf_value=-0.96940287036447204 1.5023862702631894 -0.088362859558338461 -0.62397580878869119
leaf_weight=113.57142806053162 164.28571248054504 179.85714221000671 207.57142758369446
leaf_count=20 20 24 32
internal_value=0 -0.509997 -0.746135
internal_weight=0 501 321.143
internal_count=96 76 52
is_linear=0
shrinkage=0.02


Tree=26
num_leaves=4
num_cat=0
split_feature=30 141 40
split_gain=1.00529e+06 209769 8993.19
threshold=72.634411764705902 67.360000000000014 3.1005905308111945
decision_type=10 10 10
left_child=1 2 -1
right_child=-2 -3 -4
leaf_value=-0.84791769671949935 1.4902175209418804 0.053372160799250848 -0.62695582994731702
leaf_weight=177.71428513526917 140.42857074737549 221.28571224212646 125.85714221000671
leaf_count=29 23 28 16
internal_value=0 -0.414939 -0.75631
internal_weight=0 524.857 303.571
internal_count=96 73 45
is_linear=0
shrinkage=0.02


Tree=27
num_leaves=4
num_cat=0
split_feature=141 141 43
split_gain=900328 158398 17251.6
threshold=188.00000000000003 67.360000000000014 37.407471042471052
decision_type=8 10 10
left_child=1 2 -1
right_child=-2 -3 -4
leaf_value=-0.89282737544646695 1.1837987983886389 0.019106679273046205 -0.59381029887156989
leaf_weight=147.28571391105652 182.57142782211304 173.28571271896362 162.14285588264465
leaf_count=25 25 24 22
internal_value=0 -0.46502 -0.73614
internal_weight=0 482.714 309.429
internal_count=96 71 47
is_linear=0
shrinkage=0.02


Tree=28
num_leaves=4
num_cat=0
split_feature=13 136 28
split_gain=1.13655e+06 130944 18953.4
threshold=144.90272935779819 77.000000000000014 43.29025208137967
decision_type=10 10 10
left_child=1 2 -1
right_child=-2 -3 -4
leaf_value=-0.87058722104577169 1.4312846883396666 -0.046557690686344827 -0.56481493740340016
leaf_weight=168.85714268684387 164.28571248054504 176.14285659790039 155.99999856948853
leaf_count=26 20 25 25
internal_value=0 -0.485662 -0.723752
internal_weight=0 501 324.857
internal_count=96 76 51
is_linear=0
shrinkage=0.02


Tree=29
num_leaves=5
num_cat=0
split_feature=43 43 43 63
split_gain=689112 172646 29761.1 8250.08
threshold=155.61455256821833 118.91891715727503 65.868824074074084 12.897500000000003
decision_type=10 8 8 10
left_child=1 2 3 -1
right_child=-2 -3 -4 -5
leaf_value=-0.82081335995906213 1.2243974881846096 0.22520493054800689 -0.32271804163864093 -0.59107472423276686
leaf_weight=121.71428537368774 141.8571412563324 150.28571343421936 122.85714149475098 128.57142877578735
leaf_count=26 18 22 15 15
internal_value=0 -0.34714 -0.577656 -0.702797
internal_weight=0 523.429 373.143 250.286
internal_count=96 78 56 41
is_linear=0
shrinkage=0.02


Tree=30
num_leaves=4
num_cat=0
split_feature=13 141 28
split_gain=1.06155e+06 122670 17467.9
threshold=144.90272935779819 77.000000000000014 43.29025208137967
decision_type=10 10 10
left_child=1 2 -1
right_child=-2 -3 -4
leaf_value=-0.84069820889028624 1.3833277074474599 -0.044285322080382689 -0.54715322204571404
leaf_weight=168.85714268684387 164.28571248054504 176.14285659790039 155.99999856948853
leaf_count=26 20 25 25
internal_value=0 -0.46929 -0.699735
internal_weight=0 501 324.857
internal_count=96 76 51
is_linear=0
shrinkage=0.02


Tree=31
num_leaves=4
num_cat=0
split_feature=13 141 13
split_gain=3.61488e+06 153366 9795.06
threshold=177.64280111336035 67.360000000000014 45.89452413635324
decision_type=10 10 10
left_child=1 2 -1
right_child=-2 -3 -4
leaf_value=-0.84948464223659503 3.0098641966201529 -0.045121364956560321 -0.62482199487702528
leaf_weight=143.5714282989502 156.71428489685059 227.1428554058075 168.99999928474426
leaf_count=22 15 32 25
internal_value=0 -0.440614 -0.728015
internal_weight=0 539.714 312.571
internal_count=94 79 47
is_linear=0
shrinkage=0.02


Tree=32
num_leaves=4
num_cat=0
split_feature=28 88 88
split_gain=3.6138e+06 168275 23627.2
threshold=181.81470915032682 101.76678571428572 56.67413145539907
decision_type=10 10 8
left_child=1 2 -1
right_child=-2 -3 -4
leaf_value=-0.78303849673303672 3.1195623334040583 0.1722735418990112 -0.47746788519749522
leaf_weight=193.57142782211304 146.57142782211304 144.14285588264465 212.14285635948181
leaf_count=22 13 20 39
internal_value=0 -0.414714 -0.623259
internal_weight=0 549.857 405.714
internal_count=94 81 61
is_linear=0
shrinkage=0.02


Tree=33
num_leaves=4
num_cat=0
split_feature=28 76 136
split_gain=3.47069e+06 164195 32251.4
threshold=181.81470915032682 8608.9285714285743 44.955000000000005
decision_type=10 10 10
left_child=1 2 -1
right_child=-2 -3 -4
leaf_value=-0.78680174493291644 3.0571710515667734 0.18010341101279786 -0.43122308483288324
leaf_weight=205.28571462631226 146.57142782211304 141.71428346633911 202.85714197158813
leaf_count=32 13 14 35
internal_value=0 -0.406419 -0.61007
internal_weight=0 549.857 408.143
internal_count=94 81 67
is_linear=0
shrinkage=0.02


Tree=34
num_leaves=4
num_cat=0
split_feature=30 43 103
split_gain=3.00782e+06 144091 14255.7
threshold=104.68430232558141 92.547459677419383 83.850648854961847
decision_type=10 10 8
left_child=1 2 -1
right_child=-2 -3 -4
leaf_value=-0.77732955665749714 2.68567546993902 0.074362544626986507 -0.52550346170985229
leaf_weight=159.14285778999329 163.85714268684387 166.71428322792053 206.71428418159485
leaf_count=24 18 18 34
internal_value=0 -0.412974 -0.635044
internal_weight=0 532.571 365.857
internal_count=94 76 58
is_linear=0
shrinkage=0.02


Tree=35
num_leaves=4
num_cat=0
split_feature=15 103 69
split_gain=2.81506e+06 216623 23407.9
threshold=108.55075418379333 111.59028846153848 0.42885359116022109
decision_type=10 10 8
left_child=1 2 -1
right_child=-2 -3 -4
leaf_value=-0.72068158880209843 2.7971847772712626 0.26730449887473728 -0.40066817678125261
leaf_weight=239.57142949104309 144.28571438789368 164.71428346633911 147.85714054107666
leaf_count=39 16 17 22
internal_value=0 -0.340252 -0.598553
internal_weight=0 552.143 387.429
internal_count=94 78 61
is_linear=0
shrinkage=0.02


Tree=36
num_leaves=4
num_cat=0
split_feature=141 141 103
split_gain=2.72133e+06 179092 21807.2
threshold=298.50000000000006 118.99500000000002 83.850648854961847
decision_type=8 10 8
left_child=1 2 -1
right_child=-2 -3 -4
leaf_value=-0.75350697884418827 2.6710781806634731 0.22586924376592282 -0.45250804389815535
leaf_weight=169.42857193946838 151.85714411735535 152.14285445213318 222.99999737739563
leaf_count=25 17 20 32
internal_value=0 -0.35663 -0.582462
internal_weight=0 544.571 392.429
internal_count=94 77 57
is_linear=0
shrinkage=0.02


Tree=37
num_leaves=4
num_cat=0
split_feature=28 103 136
split_gain=3.07489e+06 139402 26801.6
threshold=181.81470915032682 111.59028846153848 59.490000000000002
decision_type=10 10 10
left_child=1 2 -1
right_child=-2 -3 -4
leaf_value=-0.70268148945304676 2.8714853475927327 0.12858571767756791 -0.35679779464776618
leaf_weight=262.71428513526917 146.57142782211304 151.14285564422607 135.99999928474426
leaf_count=39 13 18 24
internal_value=0 -0.388636 -0.584702
internal_weight=0 549.857 398.714
internal_count=94 81 63
is_linear=0
shrinkage=0.02


Tree=38
num_leaves=5
num_cat=0
split_feature=28 103 13 42
split_gain=2.95313e+06 133882 19896.9 7513.82
threshold=181.81470915032682 111.59028846153848 66.478174812296388 0.087239064182763865
decision_type=10 10 10 8
left_child=1 2 3 -1
right_child=-2 -3 -4 -5
leaf_value=-0.57097433713270163 2.8140556535082313 0.12601401001488025 -0.37217792889823231 -0.78350319707057114
leaf_weight=139.42857122421265 146.57142782211304 151.14285564422607 131.99999809265137 127.28571510314941
leaf_count=27 13 18 19 17
internal_value=0 -0.380863 -0.573008 -0.672401
internal_weight=0 549.857 398.714 266.714
internal_count=94 81 63 44
is_linear=0
shrinkage=0.02


Tree=39
num_leaves=4
num_cat=0
split_feature=28 118 57
split_gain=2.83618e+06 120019 19661.3
threshold=181.81470915032682 79.187833333333359 0.051994130985727603
decision_type=10 10 10
left_child=1 2 -1
right_child=-2 -3 -4
leaf_value=-0.39827110249773595 2.7577744729781561 0.13336493324591467 -0.67570453280594589
leaf_weight=192.42857098579407 146.57142782211304 139.5714271068573 217.85714197158813
leaf_count=36 13 18 27
internal_value=0 -0.373246 -0.545585
internal_weight=0 549.857 410.286
internal_count=94 81 63
is_linear=0
shrinkage=0.02


Tree=40
num_leaves=4
num_cat=0
split_feature=13 136 83
split_gain=2.61559e+06 107949 7296.97
threshold=177.64280111336035 67.360000000000014 0.022328375582581453
decision_type=10 10 10
left_child=1 2 -1
right_child=-2 -3 -4
leaf_value=-0.7290699124491582 2.5545959774994271 -0.048659471002259799 -0.53470769104393134
leaf_weight=139.7142858505249 156.71428489685059 227.1428554058075 172.85714173316956
leaf_count=26 15 32 21
internal_value=0 -0.380465 -0.621584
internal_weight=0 539.714 312.571
internal_count=94 79 47
is_linear=0
shrinkage=0.02


Tree=41
num_leaves=4
num_cat=0
split_feature=30 141 106
split_gain=479791 105110 8613.86
threshold=72.634411764705902 67.360000000000014 80.107142857142875
decision_type=10 10 10
left_child=1 2 -1
right_child=-2 -3 -4
leaf_value=-0.68267058836431105 0.97091014990566993 -0.011553461668727673 -0.46863789907726555
leaf_weight=166.14285802841187 140.71428537368774 219.85714054107666 137.42856979370117
leaf_count=25 23 28 16
internal_value=0 -0.344584 -0.585777
internal_weight=0 523.429 303.571
internal_count=92 69 41
is_linear=0
shrinkage=0.02


Tree=42
num_leaves=4
num_cat=0
split_feature=30 136 102
split_gain=460791 100948 7804.77
threshold=72.634411764705902 67.360000000000014 0.057815631318978801
decision_type=10 10 8
left_child=1 2 -1
right_child=-2 -3 -4
leaf_value=-0.4675104893411352 0.95149194678556359 -0.01132239299751904 -0.67057801300511122
leaf_weight=144.28571319580078 140.71428537368774 219.85714054107666 159.28571462631226
leaf_count=16 23 28 25
internal_value=0 -0.337692 -0.574061
internal_weight=0 523.429 303.571
internal_count=92 69 41
is_linear=0
shrinkage=0.02


Tree=43
num_leaves=3
num_cat=0
split_feature=28 73
split_gain=482044 21085.8
threshold=117.29450000000001 56.861415094339627
decision_type=10 10
left_child=1 -1
right_child=-2 -3
leaf_value=-0.5739325782935204 0.70643276965855362 -0.29868473730461087
leaf_weight=229.57142806053162 218.42857027053833 216.1428554058075
leaf_count=38 28 26
internal_value=0 -0.440455
internal_weight=0 445.714
internal_count=92 64
is_linear=0
shrinkage=0.02


Tree=44
num_leaves=4
num_cat=0
split_feature=28 58 29
split_gain=462955 41256.4 8027.38
threshold=117.29450000000001 71.630747126436788 0.92926617959914914
decision_type=10 10 8
left_child=1 2 -1
right_child=-2 -3 -4
leaf_value=-0.45126207726673001 0.69230412477887793 -0.12146259195073217 -0.65102539488632039
leaf_weight=161.14285683631897 218.42857027053833 123.85714149475098 160.71428513526917
leaf_count=25 28 17 22
internal_value=0 -0.431646 -0.551011
internal_weight=0 445.714 321.857
internal_count=92 64 47
is_linear=0
shrinkage=0.02


Tree=45
num_leaves=3
num_cat=0
split_feature=136 136
split_gain=409618 14671.1
threshold=118.99500000000002 44.955000000000005
decision_type=8 10
left_child=1 -1
right_child=-2 -3
leaf_value=-0.57622319875487971 0.54664518061798517 -0.33202141175974481
leaf_weight=219.85714173316956 266.14285588264465 178.14285612106323
leaf_count=29 37 26
internal_value=0 -0.46692
internal_weight=0 398
internal_count=92 55
is_linear=0
shrinkage=0.02


Tree=46
num_leaves=3
num_cat=0
split_feature=136 136
split_gain=393398 14090.2
threshold=118.99500000000002 44.955000000000005
decision_type=8 10
left_child=1 -1
right_child=-2 -3
leaf_value=-0.56469873940116766 0.53571227753237305 -0.32538098631261336
leaf_weight=219.85714173316956 266.14285588264465 178.14285612106323
leaf_count=29 37 26
internal_value=0 -0.457581
internal_weight=0 398
internal_count=92 55
is_linear=0
shrinkage=0.02


Tree=47
num_leaves=4
num_cat=0
split_feature=28 58 29
split_gain=422111 35372.1 7547.97
threshold=117.29450000000001 71.630747126436788 0.92926617959914914
decision_type=10 10 8
left_child=1 2 -1
right_child=-2 -3 -4
leaf_value=-0.42511867035916262 0.66190842006390305 -0.12410561623573982 -0.61882507575989332
leaf_weight=161.14285683631897 218.42857027053833 123.85714149475098 160.71428513526917
leaf_count=25 28 17 22
internal_value=0 -0.411318 -0.521843
internal_weight=0 445.714 321.857
internal_count=92 64 47
is_linear=0
shrinkage=0.02


Tree=48
num_leaves=4
num_cat=0
split_feature=13 136 83
split_gain=447730 62866.5 8017.72
threshold=144.90272935779819 77.000000000000014 0.026145872470691552
decision_type=10 10 10
left_child=1 2 -1
right_child=-2 -3 -4
leaf_value=-0.62092408231240026 0.84757140177934742 -0.053294179822674197 -0.42127405642780735
leaf_weight=162.28571391105652 164.5714271068573 177.71428489685059 159.57142782211304
leaf_count=29 20 26 17
internal_value=0 -0.355228 -0.521941
internal_weight=0 499.571 321.857
internal_count=92 72 46
is_linear=0
shrinkage=0.02


Tree=49
num_leaves=4
num_cat=0
split_feature=28 141 102
split_gain=390685 26622.1 8652.29
threshold=117.29450000000001 77.000000000000014 0.066060667443155863
decision_type=10 10 8
left_child=1 2 -1
right_child=-2 -3 -4
leaf_value=-0.39017705106322548 0.63688892924204366 -0.16462939451770481 -0.60230749848174525
leaf_weight=149.85714173316956 218.42857027053833 137.85714149475098 158.00000023841858
leaf_count=18 28 20 26
internal_value=0 -0.395614 -0.499048
internal_weight=0 445.714 307.857
internal_count=92 64 44
is_linear=0
shrinkage=0.02


Tree=50
num_leaves=4
num_cat=0
split_feature=13 136 114
split_gain=416664 57957.7 7782.83
threshold=144.90272935779819 77.000000000000014 0.060531632653061211
decision_type=10 10 10
left_child=1 2 -1
right_child=-2 -3 -4
leaf_value=-0.59595955114611332 0.8178821920953141 -0.052530946524722538 -0.39900605256616728
leaf_weight=169.14285802841187 164.5714271068573 177.71428489685059 152.71428370475769
leaf_count=25 20 26 21
internal_value=0 -0.342437 -0.502509
internal_weight=0 499.571 321.857
internal_count=92 72 46
is_linear=0
shrinkage=0.02


Tree=51
num_leaves=5
num_cat=0
split_feature=76 136 4 28
split_gain=2.2547e+06 48299.2 8559.8 10933.1
threshold=15475.821428571429 127.85000000000001 28.892857142857149 43.29025208137967
decision_type=10 10 2 10
left_child=1 2 3 -1
right_child=-2 -3 -4 -5
leaf_value=-0.53723834372963419 2.4413447592088309 -0.059820472973642166 -0.59941216582397139 -0.28036933655329915
leaf_weight=126.57142901420593 145.85714244842529 163.2857129573822 132.71428489685059 139.14285635948181
leaf_count=25 13 21 9 25
internal_value=0 -0.349517 -0.468242 -0.402727
internal_weight=0 561.714 398.429 265.714
internal_count=93 80 59 50
is_linear=0
shrinkage=0.02


Tree=52
num_leaves=5
num_cat=0
split_feature=76 136 17 67
split_gain=2.16542e+06 46386.6 13904.8 11597.9
threshold=15475.821428571429 127.85000000000001 144.92857142857147 42.570000000000007
decision_type=10 10 8 8
left_child=1 2 3 -1
right_child=-2 -3 -4 -5
leaf_value=-0.53243882454551161 2.3925179030426369 -0.058624069076685492 -0.63347618627719293 -0.26834499232566822
leaf_weight=114.42857074737549 145.85714244842529 163.2857129573822 125.14285755157471 158.85714197158813
leaf_count=23 13 21 10 26
internal_value=0 -0.342527 -0.458877 -0.378925
internal_weight=0 561.714 398.429 273.286
internal_count=93 80 59 49
is_linear=0
shrinkage=0.02


Tree=53
num_leaves=5
num_cat=0
split_feature=76 136 108 51
split_gain=2.07967e+06 44549.7 8476.8 6299.36
threshold=15475.821428571429 127.85000000000001 0.78857142857142881 5.1428571428571432
decision_type=10 10 8 8
left_child=1 2 -1 -4
right_child=-2 -3 3 -5
leaf_value=-0.57835867092234072 2.3446675931032006 -0.057451586802719543 -0.49172475669652094 -0.29503121819369177
leaf_weight=135.28571510314941 145.85714244842529 163.2857129573822 118.42857098579407 144.71428418159485
leaf_count=16 13 21 26 17
internal_value=0 -0.335676 -0.4497 -0.383554
internal_weight=0 561.714 398.429 263.143
internal_count=93 80 59 43
is_linear=0
shrinkage=0.02


Tree=54
num_leaves=4
num_cat=0
split_feature=13 73 73
split_gain=1.70199e+06 47269.9 8038.4
threshold=177.64280111336035 73.630939031862752 56.861415094339627
decision_type=10 10 8
left_child=1 2 -1
right_child=-2 -3 -4
leaf_value=-0.51485254990451901 2.0889347111387746 -0.022071749958369819 -0.33230425418018905
leaf_weight=190.85714244842529 151.85714197158813 169.71428513526917 195.14285612106323
leaf_count=29 14 25 25
internal_value=0 -0.300255 -0.422565
internal_weight=0 555.714 386
internal_count=93 79 54
is_linear=0
shrinkage=0.02


Tree=55
num_leaves=5
num_cat=0
split_feature=76 141 108 64
split_gain=1.95707e+06 37926.9 8081.51 9302.09
threshold=15475.821428571429 127.85000000000001 0.78857142857142881 9.5357142857142865
decision_type=10 10 8 8
left_child=1 2 -1 -4
right_child=-2 -3 3 -5
leaf_value=-0.55856147239289411 2.2724121085691276 -0.071018364934202924 -0.49528096336768301 -0.25695139670733197
leaf_weight=135.28571510314941 145.85714244842529 163.2857129573822 122.99999952316284 140.14285564422607
leaf_count=16 13 21 26 17
internal_value=0 -0.327731 -0.432938 -0.368353
internal_weight=0 561.714 398.429 263.143
internal_count=93 80 59 43
is_linear=0
shrinkage=0.02


Tree=56
num_leaves=4
num_cat=0
split_feature=76 68 83
split_gain=1.87957e+06 38572.1 13834.1
threshold=15475.821428571429 0.015477721645512253 0.021129521916235253
decision_type=10 10 10
left_child=1 -1 -3
right_child=-2 2 -4
leaf_value=-0.050298581469898365 2.2269638283651014 -0.58082480135647307 -0.33702062365265018
leaf_weight=152.99999809265137 145.85714244842529 143.42857146263123 265.28571367263794
leaf_count=25 13 24 31
internal_value=0 -0.321176 -0.422578
internal_weight=0 561.714 408.714
internal_count=93 80 55
is_linear=0
shrinkage=0.02


Tree=57
num_leaves=4
num_cat=0
split_feature=147 141 148
split_gain=1.64706e+06 55168.4 7243.01
threshold=0.010233519526752602 127.85000000000001 3.6344984533495204
decision_type=8 10 10
left_child=-1 2 -2
right_child=1 -3 -4
leaf_value=2.1245454180119729 -0.49004584347183849 -0.00034209341525461847 -0.31044918054705162
leaf_weight=142.14285635948181 235.2857141494751 184.85714173316956 145.28571343421936
leaf_count=13 37 26 17
internal_value=0 -0.283799 -0.421484
internal_weight=0 565.429 380.571
internal_count=93 80 54
is_linear=0
shrinkage=0.02


Tree=58
num_leaves=4
num_cat=0
split_feature=76 28 83
split_gain=1.75638e+06 26231.5 11123.9
threshold=15475.821428571429 105.18951391690199 0.020042344123225805
decision_type=10 10 10
left_child=1 2 -1
right_child=-2 -3 -4
leaf_value=-0.50946081305762281 2.1514634896393181 -0.088656464738213148 -0.29989981057633153
leaf_weight=186.28571367263794 145.85714244842529 153.28571248054504 222.14285707473755
leaf_count=34 13 19 27
internal_value=0 -0.311752 -0.395481
internal_weight=0 561.714 408.429
internal_count=93 80 61
is_linear=0
shrinkage=0.02


Tree=59
num_leaves=4
num_cat=0
split_feature=76 68 77
split_gain=1.68682e+06 35884.2 10099.5
threshold=15475.821428571429 0.015477721645512253 45.250000000000007
decision_type=10 10 10
left_child=1 -1 -3
right_child=-2 2 -4
leaf_value=-0.0442478401115248 2.1084341178891264 -0.52003778612997498 -0.31863595225352137
leaf_weight=152.99999809265137 145.85714244842529 171.85714387893677 236.8571412563324
leaf_count=25 13 30 25
internal_value=0 -0.305517 -0.403322
internal_weight=0 561.714 408.714
internal_count=93 80 55
is_linear=0
shrinkage=0.02


Tree=60
num_leaves=4
num_cat=0
split_feature=76 103 148
split_gain=1.62003e+06 27192.3 30090
threshold=15475.821428571429 111.59028846153848 3.2201342844301877
decision_type=10 8 10
left_child=1 -1 -3
right_child=-2 2 -4
leaf_value=-0.46169535231851661 2.0662655256672977 -0.40848338791174138 -0.017296403770048201
leaf_weight=238.00000047683716 145.85714244842529 134.71428513526917 188.99999761581421
leaf_count=33 13 23 24
internal_value=0 -0.299407 -0.18009
internal_weight=0 561.714 323.714
internal_count=93 80 47
is_linear=0
shrinkage=0.02


Tree=61
num_leaves=4
num_cat=0
split_feature=57 126 83
split_gain=210450 29773.3 8527.49
threshold=0.023222376722759803 0.10714285714285711 0.025033614229269151
decision_type=10 10 10
left_child=-1 2 -2
right_child=1 -3 -4
leaf_value=0.4434161619782031 -0.55730799668318742 -0.092500595969819313 -0.34616907408645231
leaf_weight=201.99999904632568 143 139.99999856948853 164.57142758369446
leaf_count=28 23 21 19
internal_value=0 -0.334281 -0.444334
internal_weight=0 447.571 307.571
internal_count=91 63 42
is_linear=0
shrinkage=0.02


Tree=62
num_leaves=3
num_cat=0
split_feature=13 147
split_gain=193379 20363.8
threshold=144.90272935779819 0.037595616729842456
decision_type=10 8
left_child=1 -1
right_child=-2 -3
leaf_value=-0.14018694110878183 0.49365871829023106 -0.40408463525896571
leaf_weight=200.14285635948181 167.99999833106995 281.42857050895691
leaf_count=35 20 36
internal_value=0 -0.294408
internal_weight=0 481.571
internal_count=91 71
is_linear=0
shrinkage=0.02


Tree=63
num_leaves=4
num_cat=0
split_feature=57 126 17
split_gain=198862 28319.6 10723.3
threshold=0.023222376722759803 0.10714285714285711 134.28571428571431
decision_type=10 10 8
left_child=-1 2 -2
right_child=1 -3 -4
leaf_value=0.43211519265937426 -0.31757717655443168 -0.088064176301249533 -0.55393675510370588
leaf_weight=201.99999904632568 159.71428513526917 139.99999856948853 147.85714244842529
leaf_count=28 29 21 13
internal_value=0 -0.323868 -0.431201
internal_weight=0 447.571 307.571
internal_count=91 63 42
is_linear=0
shrinkage=0.02


Tree=64
num_leaves=4
num_cat=0
split_feature=155 103 141
split_gain=186579 26692.1 13681.8
threshold=0.023000662227417104 111.59028846153848 77.000000000000014
decision_type=8 8 10
left_child=-1 -2 -3
right_child=1 2 -4
leaf_value=0.48491483627079496 -0.48286493636661559 -0.31435773819468099 -0.045496233212779395
leaf_weight=168.85714173316956 177.28571510314941 144.99999904632568 158.42856931686401
leaf_count=25 26 18 22
internal_value=0 -0.287894 -0.173978
internal_weight=0 480.714 303.429
internal_count=91 66 40
is_linear=0
shrinkage=0.02


Tree=65
num_leaves=3
num_cat=0
split_feature=57 110
split_gain=187028 17175.7
threshold=0.023222376722759803 11.530000000000003
decision_type=10 10
left_child=-1 -2
right_child=1 -3
leaf_value=0.41989416528406315 -0.42511228465171158 -0.17602640288660992
leaf_weight=201.99999904632568 246.57142901420593 200.99999713897705
leaf_count=28 33 30
internal_value=0 -0.31325
internal_weight=0 447.571
internal_count=91 63
is_linear=0
shrinkage=0.02


Tree=66
num_leaves=4
num_cat=0
split_feature=13 136 28
split_gain=176550 33019.6 6206.23
threshold=144.90272935779819 77.000000000000014 43.29025208137967
decision_type=10 10 10
left_child=1 2 -1
right_child=-2 -3 -4
leaf_value=-0.48824483071401203 0.47469121632524691 -0.036275989390100828 -0.31329135381061207
leaf_weight=146.85714292526245 167.99999833106995 153.57142782211304 181.14285612106323
leaf_count=23 20 23 25
internal_value=0 -0.278305 -0.391624
internal_weight=0 481.571 328
internal_count=91 71 48
is_linear=0
shrinkage=0.02


Tree=67
num_leaves=4
num_cat=0
split_feature=61 60 169
split_gain=172829 17031.2 5785.15
threshold=12348.071428571429 46.451747252747261 13588.000000000002
decision_type=8 8 10
left_child=1 2 -1
right_child=-2 -3 -4
leaf_value=-0.49202797459882458 0.39779928382311325 -0.15322181835222917 -0.30450161954811306
leaf_weight=142.85714316368103 205.42857003211975 179.28571343421936 121.99999856948853
leaf_count=27 28 22 14
internal_value=0 -0.303752 -0.405649
internal_weight=0 444.143 264.857
internal_count=91 63 41
is_linear=0
shrinkage=0.02


Tree=68
num_leaves=3
num_cat=0
split_feature=58 58
split_gain=170090 30669.4
threshold=210.48677283653848 71.630747126436788
decision_type=8 10
left_child=1 -1
right_child=-2 -3
leaf_value=-0.38772453445365218 0.52693643120551426 -0.073076231100163536
leaf_weight=288.85714197158813 143.71428513526917 216.99999809265137
leaf_count=38 23 30
internal_value=0 -0.252748
internal_weight=0 505.857
internal_count=91 68
is_linear=0
shrinkage=0.02


Tree=69
num_leaves=4
num_cat=0
split_feature=58 84 24
split_gain=163355 34141.1 19092.3
threshold=210.48677283653848 0.48595579353853752 0.353302482966175
decision_type=8 10 8
left_child=1 2 -1
right_child=-2 -3 -4
leaf_value=-0.23896584831264567 0.51639771347225094 -0.015427206919256902 -0.54519974457640763
leaf_weight=199.57142782211304 143.71428513526917 168.71428370475769 137.57142853736877
leaf_count=32 23 20 16
internal_value=0 -0.247693 -0.363925
internal_weight=0 505.857 337.143
internal_count=91 68 48
is_linear=0
shrinkage=0.02


Tree=70
num_leaves=4
num_cat=0
split_feature=155 153 102
split_gain=164302 23370.9 14546.9
threshold=0.023000662227417104 123002.58000000002 0.025985805132176805
decision_type=8 10 10
left_child=-1 2 -2
right_child=1 -3 -4
leaf_value=0.45961920926361799 -0.2239741450297757 -0.045507372080496176 -0.48446934084390125
leaf_weight=168.85714173316956 171.85714173316956 137.71428418159485 171.14285755157471
leaf_count=25 26 16 24
internal_value=0 -0.265588 -0.353951
internal_weight=0 480.714 343
internal_count=91 66 50
is_linear=0
shrinkage=0.02


Tree=71
num_leaves=5
num_cat=0
split_feature=13 78 27 27
split_gain=1.75319e+06 27549.2 8528.86 9623.81
threshold=177.64280111336035 94.252857142857152 0.085230024213075059 0.045310733465234558
decision_type=10 10 8 10
left_child=1 2 3 -1
right_child=-2 -3 -4 -5
leaf_value=-0.38674442583421004 2.175062683217579 -0.021308380564626649 -0.48128089706100147 -0.15680392028158749
leaf_weight=167.14285612106323 148.71428489685059 138.85714149475098 129.28571486473083 128.99999976158142
leaf_count=32 14 14 16 19
internal_value=0 -0.265913 -0.34575 -0.286582
internal_weight=0 564.286 425.429 296.143
internal_count=95 81 67 51
is_linear=0
shrinkage=0.02


Tree=72
num_leaves=4
num_cat=0
split_feature=15 141 2
split_gain=1.575e+06 22739.2 5570.62
threshold=88.568888888888907 77.000000000000014 67.928571428571445
decision_type=10 10 2
left_child=1 2 -1
right_child=-2 -3 -4
leaf_value=-0.4531481540562764 2.0155894728952428 -0.087123542239565185 -0.29128838234144466
leaf_weight=138.71428537368774 155.85714268684387 198.5714271068573 219.85714197158813
leaf_count=30 17 28 20
internal_value=0 -0.258821 -0.353904
internal_weight=0 557.143 358.571
internal_count=95 78 50
is_linear=0
shrinkage=0.02


Tree=73
num_leaves=4
num_cat=0
split_feature=43 84 24
split_gain=1.65764e+06 26381.5 17160.6
threshold=347.93652725563913 0.48595579353853752 0.38556547619047621
decision_type=8 10 8
left_child=1 2 -1
right_child=-2 -3 -4
leaf_value=-0.25900035164723095 2.0818022288157776 -0.058831141706415985 -0.53346635751914429
leaf_weight=250.28571343421936 152.57142806053162 166.8571412563324 143.28571438789368
leaf_count=39 19 21 16
internal_value=0 -0.269577 -0.358924
internal_weight=0 560.429 393.571
internal_count=95 76 55
is_linear=0
shrinkage=0.02


Tree=74
num_leaves=4
num_cat=0
split_feature=13 78 63
split_gain=1.60118e+06 26084.8 9693.28
threshold=177.64280111336035 94.252857142857152 6.8174999999999999
decision_type=10 10 10
left_child=1 2 -1
right_child=-2 -3 -4
leaf_value=-0.46374688921670598 2.0751095240724484 -0.019628709281214071 -0.26435864422443139
leaf_weight=151.42857074737549 148.71428489685059 138.85714149475098 274
leaf_count=33 14 14 34
internal_value=0 -0.257643 -0.33533
internal_weight=0 564.286 425.429
internal_count=95 81 67
is_linear=0
shrinkage=0.02


Tree=75
num_leaves=4
num_cat=0
split_feature=30 73 68
split_gain=1.43502e+06 22991.8 5239
threshold=104.68430232558141 68.132001633986945 0.022537815547031152
decision_type=10 10 10
left_child=1 2 -1
right_child=-2 -3 -4
leaf_value=-0.41040318202766196 1.9207578693681391 -0.063051505799364277 -0.261548583371423
leaf_weight=195.57142686843872 155.85714268684387 178.42857050895691 183.14285707473755
leaf_count=32 17 24 22
internal_value=0 -0.25023 -0.338418
internal_weight=0 557.143 378.714
internal_count=95 78 54
is_linear=0
shrinkage=0.02


Tree=76
num_leaves=4
num_cat=0
split_feature=43 84 89
split_gain=1.5312e+06 23103.1 13607.8
threshold=347.93652725563913 0.48595579353853752 2.5321630764982053
decision_type=8 10 8
left_child=1 2 -1
right_child=-2 -3 -4
leaf_value=-0.25126125871762006 1.9961811603639721 -0.066526630640591583 -0.49127776536167461
leaf_weight=235.9999988079071 152.57142806053162 166.8571412563324 157.57142901420593
leaf_count=35 19 21 20
internal_value=0 -0.263744 -0.347355
internal_weight=0 560.429 393.571
internal_count=95 76 55
is_linear=0
shrinkage=0.02


Tree=77
num_leaves=5
num_cat=0
split_feature=22 133 6 28
split_gain=1.37258e+06 39492 11284 8752.89
threshold=1078.197142857143 41.614648243600044 10.035714285714286 80.052767857142882
decision_type=8 10 2 8
left_child=1 2 3 -1
right_child=-2 -3 -4 -5
leaf_value=-0.29595685437872687 1.9941190654875889 0.094386281045345979 -0.17308992008720694 -0.52533346284529325
leaf_weight=177.57142806053162 139.57142877578735 126.57142853736877 162.85714101791382 106.42857074737549
leaf_count=35 10 21 9 20
internal_value=0 -0.217475 -0.305809 -0.381915
internal_weight=0 573.429 446.857 284
internal_count=95 85 64 55
is_linear=0
shrinkage=0.02


Tree=78
num_leaves=4
num_cat=0
split_feature=141 73 83
split_gain=1.26349e+06 28360.7 7158.87
threshold=298.50000000000006 68.132001633986945 0.023819330935218503
decision_type=8 10 10
left_child=1 2 -1
right_child=-2 -3 -4
leaf_value=-0.40799168650380674 1.8295542557435769 -0.028227124059184715 -0.23137420512486692
leaf_weight=204.28571271896362 151.85714411735535 190.14285492897034 166.71428537368774
leaf_count=33 17 26 19
internal_value=0 -0.226836 -0.328626
internal_weight=0 561.143 371
internal_count=95 78 52
is_linear=0
shrinkage=0.02


Tree=79
num_leaves=4
num_cat=0
split_feature=43 84 24
split_gain=1.42151e+06 20544.1 19209.6
threshold=347.93652725563913 0.48595579353853752 0.38556547619047621
decision_type=8 10 8
left_child=1 2 -1
right_child=-2 -3 -4
leaf_value=-0.23215353411814918 1.9184460009967543 -0.073055184523045547 -0.52254324832974508
leaf_weight=250.28571343421936 152.57142806053162 166.8571412563324 143.28571438789368
leaf_count=39 19 21 16
internal_value=0 -0.259029 -0.337874
internal_weight=0 560.429 393.571
internal_count=95 76 55
is_linear=0
shrinkage=0.02


Tree=80
num_leaves=4
num_cat=0
split_feature=43 74 73
split_gain=1.36522e+06 19348.1 28111.7
threshold=347.93652725563913 2.583497169187118 60.022395851878237
decision_type=8 10 10
left_child=1 2 -1
right_child=-2 -3 -4
leaf_value=-0.33408544708654797 1.8800770694399498 -0.42886980607095743 0.0079737423439574778
leaf_weight=206.57142686843872 152.57142806053162 174.14285707473755 179.71428513526917
leaf_count=32 19 20 24
internal_value=0 -0.253849 -0.174947
internal_weight=0 560.429 386.286
internal_count=95 76 56
is_linear=0
shrinkage=0.02


Tree=81
num_leaves=4
num_cat=0
split_feature=28 63 57
split_gain=1.20377e+06 23935.8 4736.99
threshold=153.52399590163938 12.897500000000003 0.047239475500345053
decision_type=10 10 10
left_child=1 2 -1
right_child=-2 -3 -4
leaf_value=-0.49723888670011712 1.7765125373589188 -0.12170806622972478 -0.29880181002176548
leaf_weight=98.428571224212646 155.57142806053162 343.71428442001343 94.142856597900391
leaf_count=21 16 36 20
internal_value=0 -0.22172 -0.400228
internal_weight=0 536.286 192.571
internal_count=93 77 41
is_linear=0
shrinkage=0.02


Tree=82
num_leaves=4
num_cat=0
split_feature=155 84 54
split_gain=1.18689e+06 31706.9 15927.4
threshold=0.015440701926918403 0.48595579353853752 0.36120103967908179
decision_type=8 10 8
left_child=-1 2 -2
right_child=1 -3 -4
leaf_value=1.8398338938264545 -0.19063303838344797 0.017569425566723754 -0.45511971460164968
leaf_weight=143.85714149475098 206.85714292526245 178.42856979370117 162.71428608894348
leaf_count=17 34 21 21
internal_value=0 -0.201375 -0.307081
internal_weight=0 548 369.571
internal_count=93 76 55
is_linear=0
shrinkage=0.02


Tree=83
num_leaves=4
num_cat=0
split_feature=43 74 84
split_gain=1.1751e+06 18673.7 21926.1
threshold=347.93652725563913 2.583497169187118 0.34192771084337353
decision_type=8 8 10
left_child=1 2 -1
right_child=-2 -3 -4
leaf_value=-0.30400100120415474 1.7266310223955432 -0.39030534122664934 0.016412484057315914
leaf_weight=170.42857050895691 159.14285659790039 190.99999976158142 171.28571343421936
leaf_count=28 20 24 21
internal_value=0 -0.231921 -0.143392
internal_weight=0 532.714 341.714
internal_count=93 73 49
is_linear=0
shrinkage=0.02


Tree=84
num_leaves=4
num_cat=0
split_feature=30 136 106
split_gain=1.08484e+06 19223.2 10136.1
threshold=104.68430232558141 77.000000000000014 80.107142857142875
decision_type=10 10 10
left_child=1 2 -1
right_child=-2 -3 -4
leaf_value=-0.40046291594430322 1.6699717927129538 -0.047341940273575349 -0.18615112228812064
leaf_weight=191.57142901420593 157.99999976158142 178.57142782211304 163.71428370475769
leaf_count=31 17 25 20
internal_value=0 -0.216625 -0.301709
internal_weight=0 533.857 355.286
internal_count=93 76 51
is_linear=0
shrinkage=0.02


Tree=85
num_leaves=4
num_cat=0
split_feature=28 58 73
split_gain=1.0699e+06 26645.1 9774.74
threshold=153.52399590163938 71.630747126436788 60.022395851878237
decision_type=10 10 8
left_child=1 2 -1
right_child=-2 -3 -4
leaf_value=-0.23548667124613151 1.6701806873948364 -0.017794864564344776 -0.45408909174631762
leaf_weight=224.57142758369446 155.57142806053162 182.99999856948853 128.71428608894348
leaf_count=33 16 24 20
internal_value=0 -0.213669 -0.315131
internal_weight=0 536.286 353.286
internal_count=93 77 53
is_linear=0
shrinkage=0.02


Tree=86
num_leaves=4
num_cat=0
split_feature=133 136 92
split_gain=1.07741e+06 29725.5 10123.3
threshold=89.624736842105264 108.49500000000002 116.28571428571431
decision_type=10 10 8
left_child=1 2 -1
right_child=-2 -3 -4
leaf_value=-0.22205380590924367 1.7299210128647908 0.017960643216513063 -0.43657334443884971
leaf_weight=237.28571343421936 146.28571319580078 168.4285717010498 139.85714197158813
leaf_count=33 14 24 22
internal_value=0 -0.202949 -0.301605
internal_weight=0 545.571 377.143
internal_count=93 79 55
is_linear=0
shrinkage=0.02


Tree=87
num_leaves=4
num_cat=0
split_feature=155 35 55
split_gain=1.06218e+06 29576.2 21320.7
threshold=0.015440701926918403 1831.211785714286 3.1432831739008891
decision_type=8 8 8
left_child=-1 2 -2
right_child=1 -3 -4
leaf_value=1.7311036940492601 -0.3258076017274617 -0.45473313688230454 -0.016730772544288335
leaf_weight=143.85714149475098 130.99999928474426 136.71428632736206 280.28571319580078
leaf_count=17 24 15 37
internal_value=0 -0.199888 -0.115176
internal_weight=0 548 411.286
internal_count=93 76 61
is_linear=0
shrinkage=0.02


Tree=88
num_leaves=4
num_cat=0
split_feature=43 74 52
split_gain=1.05143e+06 18772.6 21457.4
threshold=347.93652725563913 2.583497169187118 110.39250000000003
decision_type=8 8 10
left_child=1 2 -1
right_child=-2 -3 -4
leaf_value=-0.28689326403849102 1.6240665459643715 -0.38736033901788847 0.030957456209453876
leaf_weight=183.57142686843872 159.14285659790039 190.99999976158142 158.14285707473755
leaf_count=30 20 24 19
internal_value=0 -0.228557 -0.139794
internal_weight=0 532.714 341.714
internal_count=93 73 49
is_linear=0
shrinkage=0.02


Tree=89
num_leaves=5
num_cat=0
split_feature=20 82 141 113
split_gain=983769 22911.9 25418.4 2635.02
threshold=1650.9657142857145 729.74107142857167 98.000000000000014 0.029285712885565255
decision_type=10 8 10 8
left_child=1 2 3 -1
right_child=-2 -3 -4 -5
leaf_value=-0.29871616130568157 1.6098210365444396 -0.40803923605056652 0.11858221989315539 -0.17112352987189941
leaf_weight=128.14285635948181 152.85714340209961 160.71428370475769 119.2857141494751 130.85714268684387
leaf_count=17 10 24 19 23
internal_value=0 -0.207985 -0.122991 -0.234251
internal_weight=0 539 378.286 259
internal_count=93 83 59 40
is_linear=0
shrinkage=0.02


Tree=90
num_leaves=4
num_cat=0
split_feature=155 109 25
split_gain=981053 23719 13419.3
threshold=0.015440701926918403 0.78571428571428581 3.7231279883954671
decision_type=8 10 8
left_child=-1 2 -2
right_child=1 -3 -4
leaf_value=1.6596800166178367 -0.1826713874321764 -0.0028518934824106469 -0.42484513901358989
leaf_weight=143.85714149475098 215.1428587436676 173.5714271068573 159.2857129573822
leaf_count=17 31 26 19
internal_value=0 -0.196108 -0.285695
internal_weight=0 548 374.429
internal_count=93 76 50
is_linear=0
shrinkage=0.02


Tree=91
num_leaves=3
num_cat=0
split_feature=84 105
split_gain=84407.7 15916.5
threshold=0.50824276448988137 641.71406008793372
decision_type=10 8
left_child=1 -1
right_child=-2 -3
leaf_value=-0.35045749337603382 0.28436497814002915 -0.11707364986071425
leaf_weight=269.71428561210632 157.85714077949524 206.28571271896362
leaf_count=36 22 31
internal_value=0 -0.249315
internal_weight=0 476
internal_count=89 67
is_linear=0
shrinkage=0.02


Tree=92
num_leaves=3
num_cat=0
split_feature=133 103
split_gain=72585.1 19862.3
threshold=-74.219999999999985 264.85970085470092
decision_type=10 8
left_child=1 -1
right_child=-2 -3
leaf_value=-0.38789614648900972 0.19325834901585295 -0.1139524119343004
leaf_weight=232.42857050895691 206.9999988079071 194.42856979370117
leaf_count=26 34 29
internal_value=0 -0.263118
internal_weight=0 426.857
internal_count=89 55
is_linear=0
shrinkage=0.02


Tree=93
num_leaves=4
num_cat=0
split_feature=68 68 148
split_gain=77941.9 17596 14578.3
threshold=0.019698425219562502 0.024364055560171401 3.3577063882598916
decision_type=8 8 10
left_child=-1 -2 -3
right_child=1 2 -4
leaf_value=0.27968872135094791 -0.43015211607801312 -0.29098352543654599 -0.030585739045409524
leaf_weight=153.9999988079071 135.85714244842529 172.71428608894348 171.28571176528931
leaf_count=28 18 25 18
internal_value=0 -0.237436 -0.161325
internal_weight=0 479.857 344
internal_count=89 61 43
is_linear=0
shrinkage=0.02


Tree=94
num_leaves=3
num_cat=0
split_feature=136 56
split_gain=68020.7 10993.5
threshold=118.99500000000002 7.1715676505728219
decision_type=8 10
left_child=1 -1
right_child=-2 -3
leaf_value=-0.41347726203863461 0.15559603164308872 -0.19277982553675432
leaf_weight=140.28571248054504 240.28571224212646 253.28571438789368
leaf_count=26 33 30
internal_value=0 -0.271446
internal_weight=0 393.571
internal_count=89 56
is_linear=0
shrinkage=0.02


Tree=95
num_leaves=4
num_cat=0
split_feature=13 65 34
split_gain=66590.9 13814 9605.69
threshold=144.90272935779819 52.553571428571438 29.750000000000004
decision_type=10 10 8
left_child=1 -1 -3
right_child=-2 2 -4
leaf_value=-0.40000178179354046 0.25716833219285862 -0.06918171228273734 -0.28061794161877923
leaf_weight=128.71428513526917 152.2857129573822 204.71428489685059 148.14285612106323
leaf_count=27 19 33 10
internal_value=0 -0.222646 -0.157951
internal_weight=0 481.571 352.857
internal_count=89 70 43
is_linear=0
shrinkage=0.02


Tree=96
num_leaves=3
num_cat=0
split_feature=84 94
split_gain=76290.8 15313.2
threshold=0.50824276448988137 1.0000000180025095e-35
decision_type=10 10
left_child=1 -1
right_child=-2 -3
leaf_value=-0.1018680810525364 0.27579260102188935 -0.33078585199631089
leaf_weight=206.28571271896362 157.85714077949524 269.71428561210632
leaf_count=31 22 36
internal_value=0 -0.231579
internal_weight=0 476
internal_count=89 67
is_linear=0
shrinkage=0.02


Tree=97
num_leaves=4
num_cat=0
split_feature=125 17 21
split_gain=64199.1 20938.5 31917.7
threshold=1.0000000180025095e-35 193.78571428571431 2.5000000000000004
decision_type=10 10 10
left_child=1 2 -1
right_child=-2 -3 -4
leaf_value=-0.36243307478318981 0.18921017136853405 -0.43693299286460596 0.061532739388398081
leaf_weight=136.57142853736877 203.85714173316956 145.42857074737549 147.99999809265137
leaf_count=28 33 11 17
internal_value=0 -0.241706 -0.141937
internal_weight=0 430 284.571
internal_count=89 56 45
is_linear=0
shrinkage=0.02


Tree=98
num_leaves=3
num_cat=0
split_feature=103 124
split_gain=63351 13197
threshold=264.85970085470092 -0.57142857142857129
decision_type=8 10
left_child=1 -1
right_child=-2 -3
leaf_value=-0.39459614815297245 0.14576901432242365 -0.15819183177493865
leaf_weight=169.71428513526917 251.14285564422607 212.99999833106995
leaf_count=20 38 31
internal_value=0 -0.263025
internal_weight=0 382.714
internal_count=89 51
is_linear=0
shrinkage=0.02


Tree=99
num_leaves=4
num_cat=0
split_feature=28 58 151
split_gain=63054.8 18960 6299.26
threshold=158.59001349527668 40.812435897435911 1414.5000000000002
decision_type=8 10 10
left_child=1 -1 -3
right_child=-2 2 -4
leaf_value=-0.38335532705733882 0.27391044831737787 -0.036539275383041282 -0.21122433714338798
leaf_weight=161.57142806053162 140.99999928474426 174.71428394317627 156.57142782211304
leaf_count=25 19 28 17
internal_value=0 -0.205729 -0.119098
internal_weight=0 492.857 331.286
internal_count=89 70 45
is_linear=0
shrinkage=0.02


Tree=100
num_leaves=4
num_cat=0
split_feature=68 83 7
split_gain=68860.1 24521.5 15081.6
threshold=0.019698425219562502 0.025033614229269151 140.22107142857146
decision_type=8 8 2
left_child=-1 -2 -3
right_child=1 2 -4
leaf_value=0.27091769008603722 -0.42716012770570183 -0.24440886319693875 0.026789795097156982
leaf_weight=153.9999988079071 149.99999928474426 177 152.85714101791382
leaf_count=28 19 29 13
internal_value=0 -0.215146 -0.118734
internal_weight=0 479.857 329.857
internal_count=89 61 42
is_linear=0
shrinkage=0.02


Tree=101
num_leaves=4
num_cat=0
split_feature=133 92 9
split_gain=892211 17857.4 15874.4
threshold=89.624736842105264 288.85714285714295 0.46172687866742385
decision_type=10 8 2
left_child=1 2 -1
right_child=-2 -3 -4
leaf_value=-0.16147206236679587 1.5794589787266082 0.0030705049426815499 -0.41512461752193675
leaf_weight=246.85714244842529 142.57142758369446 133.85714197158813 164.42857003211975
leaf_count=34 14 28 17
internal_value=0 -0.197577 -0.26288
internal_weight=0 545.143 411.286
internal_count=93 79 51
is_linear=0
shrinkage=0.02


Tree=102
num_leaves=4
num_cat=0
split_feature=30 62 34
split_gain=774971 19853.7 6422.92
threshold=86.51336206896552 15.607142857142859 29.750000000000004
decision_type=10 10 10
left_child=1 -1 -3
right_child=-2 2 -4
leaf_value=-0.36674990381892991 1.4574381020560454 -0.027414874343791501 -0.1929039267937743
leaf_weight=162.71428394317627 146.57142853736877 206.57142758369446 171.85714197158813
leaf_count=31 17 32 13
internal_value=0 -0.182005 -0.102569
internal_weight=0 541.143 378.429
internal_count=93 76 45
is_linear=0
shrinkage=0.02


Tree=103
num_leaves=4
num_cat=0
split_feature=13 84 9
split_gain=783905 19807.2 5638.53
threshold=199.96987340085292 0.32962686567164184 0.32690793901278697
decision_type=8 10 2
left_child=1 2 -1
right_child=-2 -3 -4
leaf_value=-0.23162725611216772 1.4679665845053602 -0.069615794544708495 -0.42008258951170718
leaf_weight=149.71428513526917 145.42857122421265 282.28571176528931 110.28571391105652
leaf_count=23 14 39 17
internal_value=0 -0.185619 -0.311565
internal_weight=0 542.286 260
internal_count=93 79 40
is_linear=0
shrinkage=0.02


Tree=104
num_leaves=4
num_cat=0
split_feature=155 35 52
split_gain=812525 29808.8 30320.3
threshold=0.015440701926918403 1831.211785714286 91.281785714285732
decision_type=8 8 10
left_child=-1 2 -2
right_child=1 -3 -4
leaf_value=1.5390891790120882 -0.26550662463011188 -0.4399483450818284 0.076292778016108828
leaf_weight=136.99999856948853 211.99999761581421 135.28571486473083 203.42857098579407
leaf_count=16 32 15 30
internal_value=0 -0.182102 -0.0981331
internal_weight=0 550.714 415.429
internal_count=93 77 62
is_linear=0
shrinkage=0.02


Tree=105
num_leaves=4
num_cat=0
split_feature=25 87 75
split_gain=747075 32657.7 22566.4
threshold=7.1323424188400848 0.027926699984855353 54.767496985772858
decision_type=8 8 8
left_child=1 -1 -3
right_child=-2 2 -4
leaf_value=0.046111568644532037 1.3943384284326752 -0.15369275928172163 -0.46473695044810359
leaf_weight=159.42857074737549 152.1428554058075 204.71428513526917 171.42857074737549
leaf_count=24 14 28 27
internal_value=0 -0.193776 -0.295452
internal_weight=0 535.571 376.143
internal_count=93 79 55
is_linear=0
shrinkage=0.02


Tree=106
num_leaves=3
num_cat=0
split_feature=73 86
split_gain=698615 22946.2
threshold=371.09567634746207 6.8678985296475057
decision_type=8 8
left_child=1 -1
right_child=-2 -3
leaf_value=-0.020438212706458733 1.376215715489904 -0.28581362454501219
leaf_weight=219.2857129573822 147.14285707473755 321.28571200370789
leaf_count=34 21 38
internal_value=0 -0.178163
internal_weight=0 540.571
internal_count=93 72
is_linear=0
shrinkage=0.02


Tree=107
num_leaves=4
num_cat=0
split_feature=155 67 67
split_gain=760654 24456.9 28268.8
threshold=0.015440701926918403 738.02142857142871 89.555000000000021
decision_type=8 8 10
left_child=-1 2 -2
right_child=1 -3 -4
leaf_value=1.4849135468989068 -0.2343377984823157 -0.39671510110920227 0.10994696933950707
leaf_weight=136.99999856948853 241.42856979370117 151.57142758369446 157.71428608894348
leaf_count=16 35 17 25
internal_value=0 -0.180432 -0.0982997
internal_weight=0 550.714 399.143
internal_count=93 77 60
is_linear=0
shrinkage=0.02


Tree=108
num_leaves=4
num_cat=0
split_feature=155 9 52
split_gain=730533 20986.2 33774.1
threshold=0.015440701926918403 0.4311318259913659 91.281785714285732
decision_type=8 2 10
left_child=-1 2 -2
right_child=1 -3 -4
leaf_value=1.4552153725368129 -0.24664314689120478 -0.3243373615051966 0.1674231844354632
leaf_weight=136.99999856948853 188.42857027053833 226.85714077949524 135.42857241630554
leaf_count=16 30 27 20
internal_value=0 -0.176823 -0.0734915
internal_weight=0 550.714 323.857
internal_count=93 77 50
is_linear=0
shrinkage=0.02


Tree=109
num_leaves=5
num_cat=0
split_feature=118 10 73 68
split_gain=694302 30927.2 24978.4 7618.91
threshold=132.90000000000001 6.8377819089498626 116.79831439393941 0.025573396006136156
decision_type=10 2 8 10
left_child=1 2 3 -1
right_child=-2 -3 -4 -5
leaf_value=-0.2643050004524069 1.377062095011631 0.098297659607274032 -0.48144140603436042 -0.055757962533547818
leaf_weight=133.42856955528259 144.57142806053162 121.71428537368774 140.42857050895691 147.57142853736877
leaf_count=22 12 14 27 18
internal_value=0 -0.182527 -0.263632 -0.154783
internal_weight=0 543.143 421.429 281
internal_count=93 81 67 40
is_linear=0
shrinkage=0.02


Tree=110
num_leaves=4
num_cat=0
split_feature=133 150 73
split_gain=777148 23683 29787.6
threshold=89.624736842105264 18223.500000000004 116.79831439393941
decision_type=10 10 8
left_child=1 2 -1
right_child=-2 -3 -4
leaf_value=-0.16050333851432258 1.4570938590666387 -0.042962259383237472 -0.5567137136752236
leaf_weight=199.71428489685059 142.57142758369446 222.99999856948853 122.42857098579407
leaf_count=33 14 22 24
internal_value=0 -0.201402 -0.311081
internal_weight=0 545.143 322.143
internal_count=93 79 57
is_linear=0
shrinkage=0.02


Tree=111
num_leaves=4
num_cat=0
split_feature=133 150 55
split_gain=785947 25035 18762.5
threshold=89.624736842105264 18223.500000000004 2.1099717631364414
decision_type=10 10 10
left_child=1 2 -1
right_child=-2 -3 -4
leaf_value=-0.46598996576753138 1.4656304599121337 -0.0049654567574748355 -0.16094287941704313
leaf_weight=127.42857050895691 148.42857050895691 233.14285516738892 219.7142858505249
leaf_count=26 15 23 33
internal_value=0 -0.165263 -0.272919
internal_weight=0 580.286 347.143
internal_count=97 82 59
is_linear=0
shrinkage=0.02


Tree=112
num_leaves=4
num_cat=0
split_feature=13 75 103
split_gain=904692 20708.1 14702.9
threshold=199.96987340085292 72.341817276574545 152.15769230769232
decision_type=8 8 8
left_child=1 2 -1
right_child=-2 -3 -4
leaf_value=-0.21489783896620457 1.5671352656538198 -0.39281493459052569 0.02339624902358935
leaf_weight=260 146.71428489685059 149.85714101791382 172.14285612106323
leaf_count=35 14 25 23
internal_value=0 -0.190227 -0.119974
internal_weight=0 582 432.143
internal_count=97 83 58
is_linear=0
shrinkage=0.02


Tree=113
num_leaves=4
num_cat=0
split_feature=28 75 103
split_gain=840463 19010.3 12864.6
threshold=181.81470915032682 72.341817276574545 152.15769230769232
decision_type=8 8 8
left_child=1 2 -1
right_child=-2 -3 -4
leaf_value=-0.2105998811721802 1.4724444133234229 -0.38495863676929531 0.015244701628270792
leaf_weight=260 153.99999928474426 149.85714101791382 164.85714173316956
leaf_count=35 16 25 21
internal_value=0 -0.19128 -0.122966
internal_weight=0 574.714 424.857
internal_count=97 81 56
is_linear=0
shrinkage=0.02


Tree=114
num_leaves=4
num_cat=0
split_feature=28 90 73
split_gain=807180 18061.2 9217
threshold=181.81470915032682 75.90189340813464 56.861415094339627
decision_type=8 8 10
left_child=1 2 -1
right_child=-2 -3 -4
leaf_value=-0.22218981791122705 1.4429956077120318 -0.36179879715998636 -0.030475559379502956
leaf_weight=179.99999952316284 153.99999928474426 168.14285564422607 226.57142758369446
leaf_count=26 16 31 24
internal_value=0 -0.187455 -0.115353
internal_weight=0 574.714 406.571
internal_count=97 81 50
is_linear=0
shrinkage=0.02


Tree=115
num_leaves=4
num_cat=0
split_feature=13 75 58
split_gain=804461 18484 9598.42
threshold=199.96987340085292 72.341817276574545 71.630747126436788
decision_type=8 8 10
left_child=1 2 -1
right_child=-2 -3 -4
leaf_value=-0.18197633464273341 1.4774837300607058 -0.3710721000924791 0.016067096728570616
leaf_weight=282.28571367263794 146.71428489685059 149.85714101791382 149.85714244842529
leaf_count=39 14 25 19
internal_value=0 -0.179672 -0.113299
internal_weight=0 582 432.143
internal_count=97 83 58
is_linear=0
shrinkage=0.02


Tree=116
num_leaves=4
num_cat=0
split_feature=58 156 115
split_gain=686833 18639.1 23652.2
threshold=150.10157579318448 3.0286899952269395 4.1354259896729779
decision_type=10 10 8
left_child=1 -1 -3
right_child=-2 2 -4
leaf_value=-0.30454953598700873 1.3219101309987207 -0.24472933870072552 0.093935616812836256
leaf_weight=241.57142686843872 157.14285612106323 162.99999952316284 166.99999952316284
leaf_count=39 16 20 22
internal_value=0 -0.171062 -0.0733443
internal_weight=0 571.571 330
internal_count=97 81 42
is_linear=0
shrinkage=0.02


Tree=117
num_leaves=4
num_cat=0
split_feature=134 154 41
split_gain=622235 19053.1 32664.4
threshold=1.6848700328270889 0.096452159392732675 10.064356479535704
decision_type=10 8 8
left_child=1 2 -1
right_child=-2 -3 -4
leaf_value=-0.20720490784560078 1.3140063033010869 -0.28503536695465431 0.18877853771385247
leaf_weight=211.99999785423279 146.2857141494751 233.14285492897034 137.28571510314941
leaf_count=29 14 28 26
internal_value=0 -0.145022 -0.0515648
internal_weight=0 582.429 349.286
internal_count=97 83 55
is_linear=0
shrinkage=0.02


Tree=118
num_leaves=4
num_cat=0
split_feature=13 75 156
split_gain=750707 17218.5 9133.73
threshold=199.96987340085292 72.341817276574545 3.7742546780356552
decision_type=8 8 10
left_child=1 2 -1
right_child=-2 -3 -4
leaf_value=-0.1994691874191809 1.4234462907234697 -0.36211904226527386 -0.015182815937928418
leaf_weight=230.14285635948181 146.71428489685059 149.85714101791382 201.99999976158142
leaf_count=33 14 25 25
internal_value=0 -0.177387 -0.113327
internal_weight=0 582 432.143
internal_count=97 83 58
is_linear=0
shrinkage=0.02


Tree=119
num_leaves=4
num_cat=0
split_feature=28 83 56
split_gain=693697 17033.7 10605.7
threshold=181.81470915032682 0.022873012396821452 7.1715676505728219
decision_type=8 10 10
left_child=1 2 -1
right_child=-2 -3 -4
leaf_value=-0.4068020319977334 1.3340854711691381 -0.062545295697482101 -0.16955753709762381
leaf_weight=141.71428418159485 153.99999928474426 271.99999928474426 160.99999928474426
leaf_count=26 16 32 23
internal_value=0 -0.177411 -0.280622
internal_weight=0 574.714 302.714
internal_count=97 81 49
is_linear=0
shrinkage=0.02


Tree=120
num_leaves=4
num_cat=0
split_feature=30 73 83
split_gain=692491 20388.9 7754.39
threshold=104.68430232558141 32.712500000000013 0.022873012396821452
decision_type=10 10 10
left_child=1 -1 -3
right_child=-2 2 -4
leaf_value=-0.38597493472199473 1.3451167990594775 -0.21073436580436081 -0.039255552640513461
leaf_weight=140.1428554058075 150.99999976158142 177.42857050895691 260.14285635948181
leaf_count=25 16 27 29
internal_value=0 -0.176028 -0.108788
internal_weight=0 577.714 437.571
internal_count=97 81 56
is_linear=0
shrinkage=0.02


Tree=121
num_leaves=5
num_cat=0
split_feature=14 86 73 73
split_gain=639082 31968.1 31879.9 22129.7
threshold=5.8598506063931461 8.4504591039055885 116.79831439393941 73.630939031862752
decision_type=2 8 8 10
left_child=1 3 -3 -1
right_child=-2 2 -4 -5
leaf_value=-0.21920903269056616 1.2562516968429531 -0.14816112407561247 -0.59752543466942698 0.11058409270908386
leaf_weight=175.57142758369446 152.99999952316284 130.42857122421265 122.42857074737549 151.71428489685059
leaf_count=25 13 17 24 18
internal_value=0 -0.196828 -0.365735 -0.0663324
internal_weight=0 580.143 252.857 327.286
internal_count=97 84 41 43
is_linear=0
shrinkage=0.02


Tree=122
num_leaves=4
num_cat=0
split_feature=43 24 116
split_gain=668089 23059 6393.43
threshold=347.93652725563913 0.39859327507598791 62.102939372510527
decision_type=8 8 8
left_child=1 2 -1
right_child=-2 -3 -4
leaf_value=-0.19208987963174906 1.2443631810788685 -0.36316964755210307 -0.015805575289921287
leaf_weight=169.28571200370789 160.57142806053162 243.1428554058075 160.14285850524902
leaf_count=22 21 27 27
internal_value=0 -0.215434 -0.106394
internal_weight=0 572.571 329.429
internal_count=97 76 49
is_linear=0
shrinkage=0.02


Tree=123
num_leaves=4
num_cat=0
split_feature=133 49 71
split_gain=652129 14977.7 16507.9
threshold=89.624736842105264 8.9285714285714306 7.5826252559512097
decision_type=10 8 10
left_child=1 -1 -3
right_child=-2 2 -4
leaf_value=-0.35274433367051666 1.2839642520625441 0.0063168630421648834 -0.24912639274922252
leaf_weight=176.57142734527588 148.85714173316956 186.57142853736877 221.14285635948181
leaf_count=35 15 27 20
internal_value=0 -0.198873 -0.132235
internal_weight=0 584.286 407.714
internal_count=97 82 47
is_linear=0
shrinkage=0.02


Tree=124
num_leaves=5
num_cat=0
split_feature=43 28 19 73
split_gain=632614 21456.7 3834.84 7558.68
threshold=347.93652725563913 117.29450000000001 36.857142857142868 56.861415094339627
decision_type=8 8 10 10
left_child=1 2 3 -1
right_child=-2 -3 -4 -5
leaf_value=-0.19816069231163827 1.2095523047157211 -0.41539893490649982 -0.22370260748551812 0.0087232474735713921
leaf_weight=142.14285683631897 160.57142806053162 151.14285612106323 138.85714149475098 140.42857146263123
leaf_count=29 21 17 8 22
internal_value=0 -0.21096 -0.137639 -0.0953463
internal_weight=0 572.571 421.429 282.571
internal_count=97 76 59 51
is_linear=0
shrinkage=0.02


Tree=125
num_leaves=5
num_cat=0
split_feature=42 17 20 66
split_gain=579550 27643.6 33544 12951.8
threshold=0.027692073306224804 166.14285714285717 211.95500000000001 0.85714285714285732
decision_type=8 8 10 10
left_child=-1 2 3 -2
right_child=1 -3 -4 -5
leaf_value=1.1996281740869088 -0.41377825868207985 -0.37350909117831749 0.13110895296926459 -0.10070983819729634
leaf_weight=151.57142853736877 101.99999928474426 208.28571271896362 161.57142782211304 109.71428561210632
leaf_count=17 21 17 20 22
internal_value=0 -0.188915 -0.085916 -0.25154
internal_weight=0 581.571 373.286 211.714
internal_count=97 80 63 43
is_linear=0
shrinkage=0.02


Tree=126
num_leaves=5
num_cat=0
split_feature=133 40 168 34
split_gain=609230 17019.4 22980.7 17166.2
threshold=89.624736842105264 5.5574612334298426 7427.5000000000009 1.3571428571428574
decision_type=10 10 10 10
left_child=1 2 3 -1
right_child=-2 -3 -4 -5
leaf_value=-0.43235455600794309 1.2384232026253839 -0.36301884918565519 0.051434574538646985 -0.09464338950862039
leaf_weight=112.14285612106323 148.85714173316956 170.42857098579407 171.71428537368774 129.99999976158142
leaf_count=24 15 17 18 23
internal_value=0 -0.194812 -0.125543 -0.251046
internal_weight=0 584.286 413.857 242.143
internal_count=97 82 65 47
is_linear=0
shrinkage=0.02


Tree=127
num_leaves=4
num_cat=0
split_feature=43 13 89
split_gain=592750 22350.8 4721.77
threshold=347.93652725563913 117.4152391304348 1.0313997610451933
decision_type=8 8 8
left_child=1 2 -1
right_child=-2 -3 -4
leaf_value=-0.044936700479129746 1.1681389742054729 -0.41159742823397422 -0.18345946648324182
leaf_weight=159.14285659790039 160.57142806053162 155.42856931686401 258
leaf_count=22 21 19 35
internal_value=0 -0.206888 -0.130612
internal_weight=0 572.571 417.143
internal_count=97 76 57
is_linear=0
shrinkage=0.02


Tree=128
num_leaves=4
num_cat=0
split_feature=13 90 141
split_gain=544014 24452.3 7102.42
threshold=177.64280111336035 122.22743303571428 59.490000000000002
decision_type=10 8 10
left_child=1 2 -1
right_child=-2 -3 -4
leaf_value=-0.17963915187571769 1.1822572160021974 -0.40843760439785032 -0.019031616961442923
leaf_weight=243.42857050895691 146.57142782211304 141.99999976158142 201.14285588264465
leaf_count=27 13 29 28
internal_value=0 -0.179953 -0.106974
internal_weight=0 586.571 444.571
internal_count=97 84 55
is_linear=0
shrinkage=0.02


Tree=129
num_leaves=4
num_cat=0
split_feature=22 54 52
split_gain=604842 26650.7 15988.4
threshold=1078.197142857143 0.50186397923875437 91.281785714285732
decision_type=8 8 10
left_child=1 2 -1
right_child=-2 -3 -4
leaf_value=-0.24266358322784945 1.2751978723953574 -0.40863124486866403 0.0018051646254886328
leaf_weight=192.28571248054504 139.57142877578735 159.99999833106995 241.28571438789368
leaf_count=33 10 24 30
internal_value=0 -0.188025 -0.106615
internal_weight=0 593.571 433.571
internal_count=97 87 63
is_linear=0
shrinkage=0.02


end of trees

feature_importances:
sem_ordersize_w2=35
sem_ordersize_w1=31
uber_curr_item_price_w1=29
uber_avg_margin_w1=21
sem_ordersize_v2=18
sem_ordersize_v4=18
sem_ordersize_v3=14
sem_mpo_w1=13
sem_ordersize_v9=12
sem_impressions_v5=10
sem_cpc_v5=10
sem_ctr_v5=9
sem_ordersize_v18=8
site_convrt_w1=8
sem_ctr_v4=7
sem_mpo_v4=6
sem_convrt_v3=5
sem_clicks_w1=4
sem_cpc_w1=4
sem_margin_v3=4
sem_adspend_v5=4
sem_ordersize_v5=4
sem_cpc_w2=3
sem_mpo_w2=3
sem_qty_v2=3
sem_rpc_v2=3
sem_adspend_v4=3
sem_margin_v4=3
sem_mpc_v4=3
sem_convrt_v9=3
site_rpv_w2=3
sem_gmv_revenue_adjustment_w1=2
sem_margin_w1=2
sem_rpc_w1=2
sem_convrt_w1=2
sem_mpc_w1=2
sem_gmv_revenue_adjustment_v2=2
sem_convrt_v2=2
sem_cpc_v3=2
sem_rpc_v3=2
sem_roas_v3=2
sem_clicks_v5=2
sem_roas_v5=2
sem_mpc_v5=2
sem_mpo_v5=2
sem_clicks_v9=2
sem_impressions_v12=2
sem_adspend_v12=2
sem_ordersize_v12=2
sem_orders_v18=2
site_convrt_w2=2
site_total_page_views_w1=2
site_rpv_w1=2
sem_clicks_w2=1
sem_qty_w2=1
sem_orders_w2=1
sem_margin_w2=1
sem_rpc_w2=1
sem_convrt_w2=1
sem_mpc_w2=1
sem_qty_w1=1
sem_orders_w1=1
sem_roas_v2=1
sem_qty_v3=1
sem_gmv_revenue_adjustment_v3=1
sem_orders_v3=1
sem_mpo_v3=1
sem_impressions_v4=1
sem_clicks_v4=1
sem_qty_v4=1
sem_gmv_revenue_adjustment_v4=1
sem_orders_v4=1
sem_cpc_v4=1
sem_roas_v4=1
sem_margin_v5=1
sem_convrt_v5=1
sem_qty_v9=1
sem_ctr_v9=1
sem_mpo_v9=1
sem_qty_v12=1
sem_gmv_revenue_adjustment_v12=1
sem_ctr_v12=1
sem_cpc_v12=1
sem_rpc_v12=1
sem_roas_v12=1
sem_qty_v18=1
sem_gmv_revenue_adjustment_v18=1
sem_mpc_v18=1
site_total_add_to_carts_w1=1
site_total_revenue_w1=1
site_atcpv_w1=1
bc_visits_w1=1
bc_visits_w2=1

parameters:
[boosting: gbdt]
[objective: regression]
[metric: rmse]
[tree_learner: serial]
[device_type: cpu]
[data: ]
[valid: ]
[num_iterations: 4000]
[learning_rate: 0.02]
[num_leaves: 63]
[num_threads: -1]
[deterministic: 0]
[force_col_wise: 0]
[force_row_wise: 0]
[histogram_pool_size: -1]
[max_depth: 10]
[min_data_in_leaf: 20]
[min_sum_hessian_in_leaf: 0.001]
[bagging_fraction: 0.9]
[pos_bagging_fraction: 1]
[neg_bagging_fraction: 1]
[bagging_freq: 10]
[bagging_seed: 400]
[feature_fraction: 0.33]
[feature_fraction_bynode: 1]
[feature_fraction_seed: 30056]
[extra_trees: 0]
[extra_seed: 12879]
[early_stopping_round: 200]
[first_metric_only: 0]
[max_delta_step: 0]
[lambda_l1: 0]
[lambda_l2: 0]
[linear_lambda: 0]
[min_gain_to_split: 0]
[drop_rate: 0.1]
[max_drop: 50]
[skip_drop: 0.5]
[xgboost_dart_mode: 0]
[uniform_drop: 0]
[drop_seed: 17869]
[top_rate: 0.2]
[other_rate: 0.1]
[min_data_per_group: 100]
[max_cat_threshold: 32]
[cat_l2: 10]
[cat_smooth: 10]
[max_cat_to_onehot: 4]
[top_k: 20]
[monotone_constraints: ]
[monotone_constraints_method: basic]
[monotone_penalty: 0]
[feature_contri: ]
[forcedsplits_filename: ]
[refit_decay_rate: 0.9]
[cegb_tradeoff: 1]
[cegb_penalty_split: 0]
[cegb_penalty_feature_lazy: ]
[cegb_penalty_feature_coupled: ]
[path_smooth: 0]
[interaction_constraints: ]
[verbosity: -1]
[saved_feature_importance_type: 0]
[linear_tree: 0]
[max_bin: 255]
[max_bin_by_feature: ]
[min_data_in_bin: 3]
[bin_construct_sample_cnt: 200000]
[data_random_seed: 175]
[is_enable_sparse: 1]
[enable_bundle: 1]
[use_missing: 1]
[zero_as_missing: 0]
[feature_pre_filter: 1]
[pre_partition: 0]
[two_round: 0]
[header: 0]
[label_column: ]
[weight_column: ]
[group_column: ]
[ignore_column: ]
[categorical_feature: ]
[forcedbins_filename: ]
[precise_float_parser: 0]
[objective_seed: 16083]
[num_class: 1]
[is_unbalance: 0]
[scale_pos_weight: 1]
[sigmoid: 1]
[boost_from_average: 1]
[reg_sqrt: 0]
[alpha: 0.9]
[fair_c: 1]
[poisson_max_delta_step: 0.7]
[tweedie_variance_power: 1.5]
[lambdarank_truncation_level: 30]
[lambdarank_norm: 1]
[label_gain: ]
[eval_at: ]
[multi_error_top_k: 1]
[auc_mu_weights: ]
[num_machines: 1]
[local_listen_port: 12400]
[time_out: 120]
[machine_list_filename: ]
[machines: ]
[gpu_platform_id: -1]
[gpu_device_id: -1]
[gpu_use_dp: 0]
[num_gpu: 1]

end of parameters

pandas_categorical:[]
