tree
version=v3
num_class=1
num_tree_per_iteration=1
label_index=0
max_feature_idx=169
objective=regression
feature_names=is_mobile sem_impressions_w2 sem_clicks_w2 sem_adspend_w2 sem_qty_w2 sem_gmv_revenue_adjustment_w2 sem_orders_w2 sem_margin_w2 sem_ctr_w2 sem_cpc_w2 sem_rpc_w2 sem_roas_w2 sem_convrt_w2 sem_ordersize_w2 sem_mpc_w2 sem_mpo_w2 sem_impressions_w1 sem_clicks_w1 sem_adspend_w1 sem_qty_w1 sem_gmv_revenue_adjustment_w1 sem_orders_w1 sem_margin_w1 sem_ctr_w1 sem_cpc_w1 sem_rpc_w1 sem_roas_w1 sem_convrt_w1 sem_ordersize_w1 sem_mpc_w1 sem_mpo_w1 sem_impressions_v2 sem_clicks_v2 sem_adspend_v2 sem_qty_v2 sem_gmv_revenue_adjustment_v2 sem_orders_v2 sem_margin_v2 sem_ctr_v2 sem_cpc_v2 sem_rpc_v2 sem_roas_v2 sem_convrt_v2 sem_ordersize_v2 sem_mpc_v2 sem_mpo_v2 sem_impressions_v3 sem_clicks_v3 sem_adspend_v3 sem_qty_v3 sem_gmv_revenue_adjustment_v3 sem_orders_v3 sem_margin_v3 sem_ctr_v3 sem_cpc_v3 sem_rpc_v3 sem_roas_v3 sem_convrt_v3 sem_ordersize_v3 sem_mpc_v3 sem_mpo_v3 sem_impressions_v4 sem_clicks_v4 sem_adspend_v4 sem_qty_v4 sem_gmv_revenue_adjustment_v4 sem_orders_v4 sem_margin_v4 sem_ctr_v4 sem_cpc_v4 sem_rpc_v4 sem_roas_v4 sem_convrt_v4 sem_ordersize_v4 sem_mpc_v4 sem_mpo_v4 sem_impressions_v5 sem_clicks_v5 sem_adspend_v5 sem_qty_v5 sem_gmv_revenue_adjustment_v5 sem_orders_v5 sem_margin_v5 sem_ctr_v5 sem_cpc_v5 sem_rpc_v5 sem_roas_v5 sem_convrt_v5 sem_ordersize_v5 sem_mpc_v5 sem_mpo_v5 sem_impressions_v9 sem_clicks_v9 sem_adspend_v9 sem_qty_v9 sem_gmv_revenue_adjustment_v9 sem_orders_v9 sem_margin_v9 sem_ctr_v9 sem_cpc_v9 sem_rpc_v9 sem_roas_v9 sem_convrt_v9 sem_ordersize_v9 sem_mpc_v9 sem_mpo_v9 sem_impressions_v12 sem_clicks_v12 sem_adspend_v12 sem_qty_v12 sem_gmv_revenue_adjustment_v12 sem_orders_v12 sem_margin_v12 sem_ctr_v12 sem_cpc_v12 sem_rpc_v12 sem_roas_v12 sem_convrt_v12 sem_ordersize_v12 sem_mpc_v12 sem_mpo_v12 sem_impressions_v18 sem_clicks_v18 sem_adspend_v18 sem_qty_v18 sem_gmv_revenue_adjustment_v18 sem_orders_v18 sem_margin_v18 sem_ctr_v18 sem_cpc_v18 sem_rpc_v18 sem_roas_v18 sem_convrt_v18 sem_ordersize_v18 sem_mpc_v18 sem_mpo_v18 uber_curr_item_price_w1 uber_num_appr_reviews_w1 uber_avg_overall_rating_w1 uber_price_change_ratio_w1 uber_price_change_value_w1 uber_avg_margin_w1 site_total_page_views_w2 site_total_add_to_carts_w2 site_total_orders_w2 site_total_revenue_w2 site_atcpv_w2 site_convrt_w2 site_rpv_w2 site_mpv_w2 site_total_page_views_w1 site_total_add_to_carts_w1 site_total_orders_w1 site_total_revenue_w1 site_atcpv_w1 site_convrt_w1 site_rpv_w1 site_mpv_w1 bc_bounce_rate_w1 bc_bounce_rate_w2 bc_bounces_w1 bc_bounces_w2 bc_sem_bounce_rate_w1 bc_sem_bounce_rate_w2 bc_sem_bounces_w1 bc_sem_bounces_w2 bc_sem_visits_w1 bc_sem_visits_w2 bc_visits_w1 bc_visits_w2
feature_infos=none [0.42857142857142849:9738098] [0.071428571428571397:112436.64285714286] [0.00071428571428569997:3238.4421428571441] [-0.5714285714285714:20942.857142857141] [-6.5821428571428564:283104.44714285713] [0:6323.8571428571431] [-13.21214285714286:143204.60428571427] [0.0052008090147355997:0.1666666666666666] [0.01:2.7625177304964543] [-1.6166666666666665:15.50128205128205] [-6.5540540540540544:197.56535947712419] [0:0.64102564102564108] [-30.716666666666665:646.29933962264147] [-2.9707017543859648:14.379754745148221] [-56.443333333333328:636.10066037735851] [1:9565554.7142857164] [0.14285714285714279:109876.42857142857] [0.0014285714285713999:3179.0771428571429] [-1:20812] [-4.7985714285714289:267997.26428571431] [0:6245.8571428571431] [-1422.05:128466.28857142858] [0.0049504950495049002:0.14285714285714279] [0.01:2.7625177304964539] [-0.60677419354838669:24.128823529411765] [-2.6492957746478858:369.54054054054058] [0:1.1764705882352942] [-33.590000000000003:701.2347222222221] [-3.9407561361836896:12.643175698998965] [-88.091592920353989:690.97805555555544] [0:9384669.7142857164] [0:103998.28571428572] [0:2971.360000000001] [-0.071428571428571397:19369] [-3.2107142857142859:268985.57642857142] [0:5905.5714285714284] [-3.2107142857142859:142838.63642857145] [0.0034722222222221999:0.14999999999999999] [0.028571240185277701:1.1463667523564696] [0:199] [0:674.57627118644075] [0:0.5] [-44.950000000000003:628.32354430379746] [-0.0349489051094884:199] [-44.950000000000003:619.31316455696196] [0:9709171.4285714291] [0:105632.5] [0:3000.3321428571426] [-0.14285714285714279:20060.5] [0:271495.76428571425] [0:5961.9285714285716] [0:144002.8957142857] [0.0034633853541416:0.14705882352941169] [0.028403494595480899:1.0267273477622889] [0:23.723616751269045] [0:124.89033637305012] [0:0.33333333333333331] [0:572.68171428571418] [0:13.715102328863791] [0:555.26571428571413] [0:10300389.214285716] [0:113892.42857142857] [0:3297.499285714287] [-0.14285714285714279:20554.357142857141] [0:290661.77714285714] [0:6275.2857142857147] [-0.42285714285714399:155608.40000000005] [0.0030391279796460001:0.1666666666666666] [0.028952752409228202:0.93040597401396397] [0:20.793571428571429] [0:88.146122851970688] [0:0.29665071770334928] [0:616.52647058823527] [-0.0416901408450705:20.793571428571429] [-1.480000000000004:600.05705882352936] [0:9685873.6428571437] [0:99026.214285714275] [0:2905.5071428571428] [-0.21428571428571419:16216.857142857143] [-72.428571428571431:248058.35571428569] [0:5459.8571428571431] [-48.285714285714285:139020.7542857143] [0.003094670033124:0.1666666666666666] [0.029340787828908199:1.0394410936871734] [-0.043203592814371201:14.526666666666666] [-0.051029970824860799:85.375235206049595] [0:0.29230769230769232] [-507:561.50491582491588] [-0.12433333333333289:14.526666666666666] [-338:552.28218855218859] [0:9865627.1428571437] [0:84519.571428571435] [0:2448.1064285714288] [0:15427.928571428571] [0:230040.55071428567] [0:4990.2142857142853] [-8.3100000000000023:129793.03857142858] [0.0023821475836261:0.20000000000000001] [0.028964965003879:1.0189183755528752] [0:15.666549295774647] [0:93.966727928786923] [0:0.29999999999999999] [9.3814285714285717:677.06739130434778] [-0.59357142857142875:15.594657947686116] [-14.542500000000004:675.15699999999993] [0:11009568.142857144] [0:91877.428571428565] [0:2593.0885714285714] [-0.21428571428571419:14204.357142857143] [-303.59714285714284:227152.64214285719] [0:4742.1428571428569] [-571.42071428571421:140866.04142857145] [0.0025043177892918001:0.25] [0.01:0.89499215070643623] [-17.878611111111109:54.545454545454547] [-239.26765799256492:1016.9491525423728] [0:0.5] [-64.362999999999985:600] [-18.5:24.434999999999999] [-103.32764705882352:553.2547368421051] [0:8506367.2857142854] [0:152074.78571428571] [0:4332.1907142857144] [-3.0714285714285721:24626.642857142859] [-187.69999999999999:352839.56785714289] [0:8361.5714285714294] [-188.44857142857143:191691.96428571429] [0.0032291207984734998:2] [0.01:0.90317718940936875] [-32:71.269999999999996] [-3200:1583.0000000000002] [0:1] [-656.95000000000005:889.96000000000004] [-32:40.452727272727273] [-659.57000000000005:889.96000000000004] [0:899] none [1.7:5] [0.46854082998661312:1.5221904761904763] [-55.009999999999991:164.49000000000001] [1.28:899] [206:464646] [9:38788] [3:54787] [127.95999999999999:2633710] [0.0065392354124748:0.3689610944848225] [0.0014762458620380999:1.892731292752021] [0.064366197183098495:42.906442340910438] none [128:188382] [3:15221] [1:25973] [49:1363768] [0.0066023362112747003:0.5871794871794872] [0.00078759889736150003:1.9297867597889888] [0.064987303199593699:43.615039007355698] none none none none none none none none none none none [60:76364] [113:196687]
tree_sizes=238 532 543 547 548 541 547 546 546 548 548 546 549 542 547 643 647 544 650 546 545 544 648 547 547 550 549 549 545 547 551 547 550 551 550 542 550 547 549 547 550 548 631 645 552 551 650 549 648 546 650 557 545 651 551 547 554 535 652 647 550 544 552 543 644 544 638 643 543 545 545 549 550 642 545 640 549 537 545 544 535 627 644 547 552 547 640 546 547 546 650 536 642 548 543 643 545 545 539 544 545 645 639 642 545 546 636 541 545 545 548 545 544 550 647 547 551 544 546 543 546

Tree=0
num_leaves=1
num_cat=0
split_feature=
split_gain=
threshold=
decision_type=
left_child=
right_child=
leaf_value=52.225501927224073
leaf_weight=
leaf_count=
internal_value=
internal_weight=
internal_count=
is_linear=0
shrinkage=1


Tree=1
num_leaves=4
num_cat=0
split_feature=136 136 76
split_gain=7.72944e+06 379878 18360.6
threshold=286.50000000000006 89.995000000000019 2962.6071428571436
decision_type=8 10 10
left_child=1 2 -1
right_child=-2 -3 -4
leaf_value=-1.2990684646743913 4.1904012820795815 -0.016829239586457288 -1.0146299373009833
leaf_weight=222 158.71428537368774 159.14285588264465 153.57142782211304
leaf_count=36 17 24 13
internal_value=0 -0.835754 -1.18276
internal_weight=0 534.714 375.571
internal_count=90 73 49
is_linear=0
shrinkage=0.02


Tree=2
num_leaves=4
num_cat=0
split_feature=58 57 58
split_gain=5.63536e+06 622594 53733
threshold=156.44132678132681 0.031575313848796659 58.977743879472698
decision_type=10 10 10
left_child=1 -1 -3
right_child=-2 2 -4
leaf_value=0.41458657337499361 3.7297129451067299 -1.3310293351228482 -0.85687660411196176
leaf_weight=158.14285588264465 150.7142858505249 177.85714197158813 206.71428537368774
leaf_count=24 16 25 25
internal_value=0 -0.64177 -1.07616
internal_weight=0 542.714 384.571
internal_count=90 74 50
is_linear=0
shrinkage=0.02


Tree=3
num_leaves=4
num_cat=0
split_feature=141 141 28
split_gain=7.25347e+06 347776 23430.5
threshold=286.50000000000006 89.995000000000019 39.642400000000002
decision_type=8 10 10
left_child=1 2 -1
right_child=-2 -3 -4
leaf_value=-1.3498356296437231 4.0567139455173677 -0.028672173006288541 -1.0228685527020771
leaf_weight=139.42857122421265 158.71428537368774 159.14285588264465 236.14285659790039
leaf_count=21 17 24 28
internal_value=0 -0.812231 -1.14425
internal_weight=0 534.714 375.571
internal_count=90 73 49
is_linear=0
shrinkage=0.02


Tree=4
num_leaves=4
num_cat=0
split_feature=141 141 88
split_gain=6.96623e+06 334004 21630.4
threshold=286.50000000000006 89.995000000000019 48.482275641025645
decision_type=8 10 10
left_child=1 2 -1
right_child=-2 -3 -4
leaf_value=-1.2619556559905738 3.9755797006922506 -0.028098734388157364 -0.95750345967895012
leaf_weight=202.14285683631897 158.71428537368774 159.14285588264465 173.42857098579407
leaf_count=32 17 24 17
internal_value=0 -0.795987 -1.12137
internal_weight=0 534.714 375.571
internal_count=90 73 49
is_linear=0
shrinkage=0.02


Tree=5
num_leaves=4
num_cat=0
split_feature=15 57 88
split_gain=6.49518e+06 389655 48414.6
threshold=77.221470588235277 0.031575313848796659 49.654817258883263
decision_type=8 10 10
left_child=1 -1 -3
right_child=-2 2 -4
leaf_value=0.1441004974831592 4.1461179928007583 -1.2467163345083014 -0.80216240257928051
leaf_weight=161.85714149475098 139.57142925262451 194.14285635948181 197.85714197158813
leaf_count=23 17 26 24
internal_value=0 -0.681459 -1.02233
internal_weight=0 553.857 392
internal_count=90 73 50
is_linear=0
shrinkage=0.02


Tree=6
num_leaves=4
num_cat=0
split_feature=13 141 13
split_gain=6.88379e+06 214461 23912.1
threshold=156.12949940582294 89.995000000000019 45.383312295465167
decision_type=10 10 10
left_child=1 2 -1
right_child=-2 -3 -4
leaf_value=-1.2536084212575176 3.8484974129382459 -0.17589052936189489 -0.93575020522116859
leaf_weight=171.42857098579407 165.14285683631897 145.42857027053833 211.42857098579407
leaf_count=24 16 23 27
internal_value=0 -0.829718 -1.07807
internal_weight=0 528.286 382.857
internal_count=90 74 51
is_linear=0
shrinkage=0.02


Tree=7
num_leaves=4
num_cat=0
split_feature=13 13 102
split_gain=6.61119e+06 184166 24181.5
threshold=156.12949940582294 74.038799663299685 0.048014056354374855
decision_type=10 10 10
left_child=1 2 -1
right_child=-2 -3 -4
leaf_value=-0.92565011524762963 3.7715274612515333 -0.2555239540044974 -1.2560088939558911
leaf_weight=212.8571412563324 165.14285683631897 163.57142782211304 151.85714316368103
leaf_count=33 16 23 18
internal_value=0 -0.813124 -1.0632
internal_weight=0 528.286 364.714
internal_count=90 74 51
is_linear=0
shrinkage=0.02


Tree=8
num_leaves=4
num_cat=0
split_feature=136 136 88
split_gain=6.03099e+06 282364 20518.5
threshold=286.50000000000006 89.995000000000019 48.482275641025645
decision_type=8 10 10
left_child=1 2 -1
right_child=-2 -3 -4
leaf_value=-1.179123195643494 3.6967037702415868 -0.036990151141797531 -0.88259957879807149
leaf_weight=202.14285683631897 158.71428537368774 159.14285588264465 173.42857098579407
leaf_count=32 17 24 17
internal_value=0 -0.743025 -1.0422
internal_weight=0 534.714 375.571
internal_count=90 73 49
is_linear=0
shrinkage=0.02


Tree=9
num_leaves=4
num_cat=0
split_feature=136 136 73
split_gain=5.79217e+06 271182 16768.9
threshold=286.50000000000006 89.995000000000019 56.587313432835828
decision_type=8 10 10
left_child=1 2 -1
right_child=-2 -3 -4
leaf_value=-1.1302446227892209 3.6227696078468927 -0.036250345904108611 -0.85734031758342144
leaf_weight=225.71428537368774 158.71428537368774 159.14285588264465 149.85714244842529
leaf_count=36 17 24 13
internal_value=0 -0.728164 -1.02135
internal_weight=0 534.714 375.571
internal_count=90 73 49
is_linear=0
shrinkage=0.02


Tree=10
num_leaves=4
num_cat=0
split_feature=15 42 103
split_gain=5.51493e+06 227040 26267.1
threshold=77.221470588235277 0.049156566925628455 78.555259009009021
decision_type=8 8 8
left_child=1 -1 -3
right_child=-2 2 -4
leaf_value=-0.092291585297589657 3.8153769943517597 -1.0909203594222807 -0.74481656788803319
leaf_weight=198.99999785423279 139.57142925262451 196.28571534156799 158.57142663002014
leaf_count=28 17 23 22
internal_value=0 -0.633024 -0.93626
internal_weight=0 553.857 354.857
internal_count=90 73 45
is_linear=0
shrinkage=0.02


Tree=11
num_leaves=4
num_cat=0
split_feature=30 73 88
split_gain=5.67236e+06 299043 37070.9
threshold=105.6043023255814 71.478585858585873 54.831523612261819
decision_type=10 10 8
left_child=1 2 -1
right_child=-2 -3 -4
leaf_value=-1.0868378525055575 3.4525870405081549 0.098356761545612695 -0.69633657161952056
leaf_weight=256.99999952316284 175.85714316368103 151.99999904632568 156.42857217788696
leaf_count=29 17 24 28
internal_value=0 -0.660197 -0.939084
internal_weight=0 565.429 413.429
internal_count=98 81 57
is_linear=0
shrinkage=0.02


Tree=12
num_leaves=4
num_cat=0
split_feature=136 136 136
split_gain=5.24125e+06 460907 22927.1
threshold=304.00000000000006 98.500000000000014 44.955000000000005
decision_type=8 10 10
left_child=1 2 -1
right_child=-2 -3 -4
leaf_value=-1.0293974797323824 3.4714630536657558 0.36269145876341713 -0.72195278206544189
leaf_weight=277.14285731315613 163.42857217788696 151.42857050895691 149.28571391105652
leaf_count=35 17 24 22
internal_value=0 -0.585172 -0.921766
internal_weight=0 577.857 426.429
internal_count=98 81 57
is_linear=0
shrinkage=0.02


Tree=13
num_leaves=4
num_cat=0
split_feature=13 136 88
split_gain=6.0956e+06 332727 24091.8
threshold=199.96987340085292 89.995000000000019 49.654817258883263
decision_type=10 10 10
left_child=1 2 -1
right_child=-2 -3 -4
leaf_value=-1.0698205246889343 3.8384706071968169 0.094813874673224177 -0.75793394398073077
leaf_weight=240.5714282989502 154.42857146263123 177.85714244842529 168.4285717010498
leaf_count=37 13 29 19
internal_value=0 -0.627346 -0.941384
internal_weight=0 586.857 409
internal_count=98 85 56
is_linear=0
shrinkage=0.02


Tree=14
num_leaves=4
num_cat=0
split_feature=15 136 43
split_gain=5.38596e+06 245237 19864.3
threshold=102.40820610687025 89.995000000000019 48.038245448838673
decision_type=10 10 8
left_child=1 2 -1
right_child=-2 -3 -4
leaf_value=-1.0879395284140734 3.3136619364476325 0.0058030454885496276 -0.80497518690982472
leaf_weight=173.57142806053162 179.4285717010498 156.57142782211304 231.71428632736206
leaf_count=25 18 25 30
internal_value=0 -0.666452 -0.92616
internal_weight=0 561.857 405.286
internal_count=98 80 55
is_linear=0
shrinkage=0.02


Tree=15
num_leaves=5
num_cat=0
split_feature=28 141 58 73
split_gain=5.5464e+06 353499 48057.2 5697.02
threshold=203.711196969697 108.49500000000002 70.459270935960589 49.346873706004153
decision_type=10 10 8 10
left_child=1 2 3 -1
right_child=-2 -3 -4 -5
leaf_value=-1.0632416321893774 3.733976482174826 0.33658893714450977 -0.54956876862490855 -0.89059469087148191
leaf_weight=165.4285717010498 149.42857146263123 131.4285717010498 152.85714244842529 142.14285659790039
leaf_count=25 12 24 21 16
internal_value=0 -0.578265 -0.839409 -0.983454
internal_weight=0 591.857 460.429 307.571
internal_count=98 86 62 41
is_linear=0
shrinkage=0.02


Tree=16
num_leaves=5
num_cat=0
split_feature=28 103 28 102
split_gain=5.32676e+06 267964 41709.1 7494.31
threshold=203.711196969697 84.178843299406296 60.079143145161297 0.051604426965510007
decision_type=10 10 8 10
left_child=1 2 3 -1
right_child=-2 -3 -4 -5
leaf_value=-0.84211272885461275 3.6592969937854933 0.18036888208181737 -0.53533007462224347 -1.0427047268416909
leaf_weight=144.5714271068573 149.42857146263123 144.99999952316284 148.57142901420593 153.71428680419922
leaf_count=21 12 23 23 19
internal_value=0 -0.5667 -0.809115 -0.945483
internal_weight=0 591.857 446.857 298.286
internal_count=98 86 63 40
is_linear=0
shrinkage=0.02


Tree=17
num_leaves=4
num_cat=0
split_feature=30 58 84
split_gain=4.47704e+06 243539 27430.2
threshold=105.6043023255814 77.71939907872698 0.47908870214752569
decision_type=10 10 8
left_child=1 2 -1
right_child=-2 -3 -4
leaf_value=-0.96681034643086328 3.0665025391414971 0.1120356169035757 -0.63657966826097334
leaf_weight=249.57142925262451 175.85714316368103 147.28571343421936 168.57142806053162
leaf_count=35 17 22 24
internal_value=0 -0.587335 -0.83368
internal_weight=0 565.429 418.143
internal_count=98 81 59
is_linear=0
shrinkage=0.02


Tree=18
num_leaves=5
num_cat=0
split_feature=45 58 38 156
split_gain=4.27759e+06 238378 73914.4 6441.64
threshold=114.3158135775862 70.459270935960589 0.026097116136081854 3.3323563149180617
decision_type=10 8 10 10
left_child=1 3 -3 -1
right_child=-2 2 -4 -5
leaf_value=-1.0170034869065609 3.0604919558027741 0.22354976281138958 -0.44983075887844443 -0.83473874189674557
leaf_weight=160.28571462631226 169.85714316368103 132.14285683631897 128.71428561210632 150.28571367263794
leaf_count=23 16 26 14 19
internal_value=0 -0.554434 -0.108715 -0.928805
internal_weight=0 571.429 260.857 310.571
internal_count=98 82 40 42
is_linear=0
shrinkage=0.02


Tree=19
num_leaves=4
num_cat=0
split_feature=13 136 43
split_gain=4.89702e+06 258823 16892.4
threshold=199.96987340085292 89.995000000000019 48.038245448838673
decision_type=10 10 10
left_child=1 2 -1
right_child=-2 -3 -4
leaf_value=-0.97101972362417954 3.4372857417060567 0.071461838116615564 -0.71395432131227066
leaf_weight=204.42857098579407 154.42857146263123 177.85714244842529 204.57142901420593
leaf_count=32 13 29 24
internal_value=0 -0.565468 -0.842442
internal_weight=0 586.857 409
internal_count=98 85 56
is_linear=0
shrinkage=0.02


Tree=20
num_leaves=4
num_cat=0
split_feature=28 136 88
split_gain=4.60613e+06 291019 33308.8
threshold=203.711196969697 108.49500000000002 54.831523612261819
decision_type=10 10 8
left_child=1 2 -1
right_child=-2 -3 -4
leaf_value=-0.91741124482917646 3.4006332226326923 0.30095463263272282 -0.57486589714536429
leaf_weight=256.99999952316284 149.42857146263123 131.4285717010498 203.42857122421265
leaf_count=29 12 24 33
internal_value=0 -0.529122 -0.766066
internal_weight=0 591.857 460.429
internal_count=98 86 62
is_linear=0
shrinkage=0.02


Tree=21
num_leaves=4
num_cat=0
split_feature=45 141 88
split_gain=3.82905e+06 236568 19437.7
threshold=114.3158135775862 89.995000000000019 54.831523612261819
decision_type=10 10 8
left_child=1 2 -1
right_child=-2 -3 -4
leaf_value=-0.95350815953064272 2.9159021789682136 0.017497472741918756 -0.66338771266225782
leaf_weight=218.28571438789368 165.14285731315613 201.57142686843872 160.14285755157471
leaf_count=25 15 27 28
internal_value=0 -0.535943 -0.830735
internal_weight=0 580 378.429
internal_count=95 80 53
is_linear=0
shrinkage=0.02


Tree=22
num_leaves=5
num_cat=0
split_feature=46 28 88 27
split_gain=3.69932e+06 200923 49864.4 16304
threshold=13176.964285714288 105.12687055476532 54.831523612261819 0.075876504447933021
decision_type=10 10 10 8
left_child=1 2 3 -1
right_child=-2 -3 -4 -5
leaf_value=-0.75895662248902729 2.8906123118860143 0.089241786546173818 -0.44231443940800858 -1.0638943520862976
leaf_weight=150.57142853736877 162.7142858505249 157.71428322792053 142.85714364051819 131.28571486473083
leaf_count=24 14 20 20 17
internal_value=0 -0.520346 -0.746712 -0.900993
internal_weight=0 582.429 424.714 281.857
internal_count=95 81 61 41
is_linear=0
shrinkage=0.02


Tree=23
num_leaves=4
num_cat=0
split_feature=45 57 40
split_gain=3.56682e+06 156354 17880.3
threshold=114.3158135775862 0.031575313848796659 3.0152695371352363
decision_type=10 10 10
left_child=1 -1 -3
right_child=-2 2 -4
leaf_value=-0.033311803472822685 2.8131970930293386 -0.91181613286232777 -0.63559375237961613
leaf_weight=182.28571319580078 165.14285731315613 151.28571343421936 246.42857217788696
leaf_count=28 15 21 31
internal_value=0 -0.518354 -0.740665
internal_weight=0 580 397.714
internal_count=95 80 52
is_linear=0
shrinkage=0.02


Tree=24
num_leaves=4
num_cat=0
split_feature=58 43 58
split_gain=3.41247e+06 224283 34552.5
threshold=199.70781250000002 83.605524242424266 70.459270935960589
decision_type=10 10 8
left_child=1 2 -1
right_child=-2 -3 -4
leaf_value=-0.86708141026673136 2.8083299618680262 0.14508425268147374 -0.49123989612785252
leaf_weight=271.85714316368103 159.57142901420593 160.85714077949524 152.85714316368103
leaf_count=38 13 22 22
internal_value=0 -0.490929 -0.731814
internal_weight=0 585.571 424.714
internal_count=95 82 60
is_linear=0
shrinkage=0.02


Tree=25
num_leaves=4
num_cat=0
split_feature=103 136 136
split_gain=3.4147e+06 224956 27683.9
threshold=222.17194042132988 127.85000000000001 44.955000000000005
decision_type=10 10 10
left_child=1 2 -1
right_child=-2 -3 -4
leaf_value=-0.83533690329261123 2.8546262529586732 0.19321071119954702 -0.51150961813018281
leaf_weight=268.28571462631226 154.85714221000671 147.85714268684387 174.14285659790039
leaf_count=36 11 22 26
internal_value=0 -0.482168 -0.707876
internal_weight=0 590.286 442.429
internal_count=95 84 62
is_linear=0
shrinkage=0.02


Tree=26
num_leaves=4
num_cat=0
split_feature=103 141 73
split_gain=3.27948e+06 216047 32829.5
threshold=222.17194042132988 127.85000000000001 62.749827798861496
decision_type=10 10 8
left_child=1 2 -1
right_child=-2 -3 -4
leaf_value=-0.84606291118258181 2.7975337139075847 0.18934650454008237 -0.49888869700491439
leaf_weight=248.28571438789368 154.85714221000671 147.85714268684387 194.14285683631897
leaf_count=33 11 22 29
internal_value=0 -0.472525 -0.693719
internal_weight=0 590.286 442.429
internal_count=95 84 62
is_linear=0
shrinkage=0.02


Tree=27
num_leaves=4
num_cat=0
split_feature=46 136 28
split_gain=3.13024e+06 185325 12814.2
threshold=13176.964285714288 70.240000000000023 41.959002081379666
decision_type=10 10 10
left_child=1 2 -1
right_child=-2 -3 -4
leaf_value=-0.89676336159035119 2.6554146775408816 -0.029070192276865862 -0.65645080791365917
leaf_weight=159.57142853736877 162.7142858505249 222.8571412563324 200.00000047683716
leaf_count=22 14 31 28
internal_value=0 -0.482233 -0.763097
internal_weight=0 582.429 359.571
internal_count=95 81 50
is_linear=0
shrinkage=0.02


Tree=28
num_leaves=4
num_cat=0
split_feature=45 141 28
split_gain=3.00359e+06 171337 12306.8
threshold=114.3158135775862 70.240000000000023 41.959002081379666
decision_type=10 10 10
left_child=1 2 -1
right_child=-2 -3 -4
leaf_value=-0.8788281070191043 2.5785252538575794 -0.039656964371832373 -0.64332178954286146
leaf_weight=159.57142853736877 165.14285731315613 220.42856979370117 200.00000047683716
leaf_count=22 15 30 28
internal_value=0 -0.478693 -0.747835
internal_weight=0 580 359.571
internal_count=95 80 50
is_linear=0
shrinkage=0.02


Tree=29
num_leaves=4
num_cat=0
split_feature=58 43 58
split_gain=2.87882e+06 173725 28936.5
threshold=199.70781250000002 83.605524242424266 70.459270935960589
decision_type=10 10 8
left_child=1 2 -1
right_child=-2 -3 -4
leaf_value=-0.78984365609733387 2.5762759609334287 0.10570323453870534 -0.44589935384440771
leaf_weight=271.85714316368103 159.57142901420593 160.85714077949524 152.85714316368103
leaf_count=38 13 22 22
internal_value=0 -0.454053 -0.666056
internal_weight=0 585.571 424.714
internal_count=95 82 60
is_linear=0
shrinkage=0.02


Tree=30
num_leaves=4
num_cat=0
split_feature=105 136 88
split_gain=2.78252e+06 180314 12091.6
threshold=105.90926282051284 70.240000000000023 39.892000000000003
decision_type=10 10 10
left_child=1 2 -1
right_child=-2 -3 -4
leaf_value=-0.83174485731350278 2.5496833584363192 -0.0020995517746675626 -0.59951882595791883
leaf_weight=188.42857122421265 157.7142858505249 227.8571412563324 171.14285778999329
leaf_count=29 15 30 21
internal_value=0 -0.442277 -0.721214
internal_weight=0 587.429 359.571
internal_count=95 80 50
is_linear=0
shrinkage=0.02


Tree=31
num_leaves=4
num_cat=0
split_feature=15 141 13
split_gain=2.847e+06 156199 14008.7
threshold=102.40820610687025 89.995000000000019 44.219080671580677
decision_type=10 10 10
left_child=1 2 -1
right_child=-2 -3 -4
leaf_value=-0.79452609277968389 2.5670561353972694 0.0068513817614267395 -0.55827260581235638
leaf_weight=185.5714282989502 158.85714316368103 208.85714101791382 218.7142858505249
leaf_count=27 15 29 28
internal_value=0 -0.437276 -0.666715
internal_weight=0 613.143 404.286
internal_count=99 84 55
is_linear=0
shrinkage=0.02


Tree=32
num_leaves=4
num_cat=0
split_feature=13 136 84
split_gain=2.6136e+06 145393 15945.8
threshold=199.96987340085292 89.995000000000019 0.3508101418705134
decision_type=10 10 10
left_child=1 2 -1
right_child=-2 -3 -4
leaf_value=-0.76311456882777706 2.3886300442757888 0.0055757341950091448 -0.50960800022344321
leaf_weight=229.28571438789368 167.42857050895691 200.28571367263794 174.99999976158142
leaf_count=37 13 31 18
internal_value=0 -0.435078 -0.653381
internal_weight=0 604.571 404.286
internal_count=99 86 55
is_linear=0
shrinkage=0.02


Tree=33
num_leaves=4
num_cat=0
split_feature=15 141 84
split_gain=2.64293e+06 141582 15314.3
threshold=102.40820610687025 89.995000000000019 0.3508101418705134
decision_type=10 10 10
left_child=1 2 -1
right_child=-2 -3 -4
leaf_value=-0.7478522794011141 2.4727856441506657 0.00096305913246855256 -0.49941583058413891
leaf_weight=229.28571438789368 158.85714316368103 208.85714101791382 174.99999976158142
leaf_count=37 15 29 18
internal_value=0 -0.421873 -0.640314
internal_weight=0 613.143 404.286
internal_count=99 84 55
is_linear=0
shrinkage=0.02


Tree=34
num_leaves=4
num_cat=0
split_feature=13 136 13
split_gain=2.42129e+06 132474 14219.3
threshold=199.96987340085292 70.240000000000023 44.219080671580677
decision_type=10 10 10
left_child=1 2 -1
right_child=-2 -3 -4
leaf_value=-0.77282883109414724 2.2986990702406285 -0.026512023738060404 -0.52925542084419297
leaf_weight=178.99999952316284 167.42857050895691 219.14285659790039 206.4285717010498
leaf_count=26 13 34 26
internal_value=0 -0.419139 -0.642375
internal_weight=0 604.571 385.429
internal_count=99 86 52
is_linear=0
shrinkage=0.02


Tree=35
num_leaves=4
num_cat=0
split_feature=31 99 73
split_gain=2.13271e+06 126355 21821.3
threshold=14650.428571428574 0.64734443704197209 49.346873706004153
decision_type=10 8 10
left_child=1 2 -1
right_child=-2 -3 -4
leaf_value=-0.73994693619396812 2.2474251983918578 0.057160916681623423 -0.44435940106258037
leaf_weight=163.4285717010498 157.00000023841858 194.57142758369446 256.9999988079071
leaf_count=22 14 30 33
internal_value=0 -0.364239 -0.55926
internal_weight=0 615 420.429
internal_count=99 85 55
is_linear=0
shrinkage=0.02


Tree=36
num_leaves=4
num_cat=0
split_feature=13 136 13
split_gain=2.26388e+06 121559 13265.5
threshold=199.96987340085292 70.240000000000023 44.219080671580677
decision_type=10 10 10
left_child=1 2 -1
right_child=-2 -3 -4
leaf_value=-0.74624425053261978 2.2216059013241711 -0.030296762223465692 -0.51098170184629543
leaf_weight=178.99999952316284 167.42857050895691 219.14285659790039 206.4285717010498
leaf_count=26 13 34 26
internal_value=0 -0.406401 -0.620242
internal_weight=0 604.571 385.429
internal_count=99 86 52
is_linear=0
shrinkage=0.02


Tree=37
num_leaves=4
num_cat=0
split_feature=30 103 99
split_gain=1.99928e+06 82812.6 19722
threshold=70.433461538461557 78.555259009009021 0.5009367027406717
decision_type=10 10 8
left_child=1 2 -1
right_child=-2 -3 -4
leaf_value=-0.63950953769708341 2.0224606601030017 -0.014484862606571162 -0.3537301169552679
leaf_weight=283.2857141494751 177.57142877578735 164.57142758369446 146.57142782211304
leaf_count=35 20 21 23
internal_value=0 -0.396001 -0.542065
internal_weight=0 594.429 429.857
internal_count=99 79 58
is_linear=0
shrinkage=0.02


Tree=38
num_leaves=4
num_cat=0
split_feature=43 43 83
split_gain=2.03659e+06 116496 4686.11
threshold=340.1956170207398 71.957731036451904 0.026098576923546755
decision_type=8 10 10
left_child=1 2 -1
right_child=-2 -3 -4
leaf_value=-0.71423042598035491 2.1890245361894309 -0.077578139335409635 -0.55967742313996893
leaf_weight=141.42857098579407 157.14285683631897 297.14285635948181 176.2857141494751
leaf_count=24 21 35 19
internal_value=0 -0.362243 -0.628476
internal_weight=0 614.857 317.714
internal_count=99 78 43
is_linear=0
shrinkage=0.02


Tree=39
num_leaves=4
num_cat=0
split_feature=15 58 84
split_gain=2.17763e+06 72476.4 22051.1
threshold=102.40820610687025 70.459270935960589 0.47908870214752569
decision_type=10 10 8
left_child=1 2 -1
right_child=-2 -3 -4
leaf_value=-0.67881228569208507 2.2407816699239347 -0.097237159687695668 -0.37529635010670576
leaf_weight=225.71428632736206 158.85714316368103 221.14285659790039 166.28571224212646
leaf_count=32 15 29 23
internal_value=0 -0.386741 -0.550061
internal_weight=0 613.143 392
internal_count=99 84 55
is_linear=0
shrinkage=0.02


Tree=40
num_leaves=4
num_cat=0
split_feature=15 136 84
split_gain=2.0914e+06 108114 14512.5
threshold=102.40820610687025 70.240000000000023 0.3508101418705134
decision_type=10 10 10
left_child=1 2 -1
right_child=-2 -3 -4
leaf_value=-0.68803679692953357 2.1959660297752941 -0.033491713163330543 -0.43955969170767961
leaf_weight=222.71428561210632 158.85714316368103 227.71428394317627 162.71428561210632
leaf_count=36 15 32 16
internal_value=0 -0.379006 -0.583139
internal_weight=0 613.143 385.429
internal_count=99 84 52
is_linear=0
shrinkage=0.02


Tree=41
num_leaves=4
num_cat=0
split_feature=147 136 83
split_gain=2.1865e+06 127264 13997.5
threshold=0.016009053193479953 136.50000000000003 0.022328375582581453
decision_type=10 10 10
left_child=-1 2 -2
right_child=1 -3 -4
leaf_value=2.2829710648348884 -0.66455694548299937 0.13479352124208027 -0.43619401447212652
leaf_weight=158.57142806053162 178.42857098579407 156.85714221000671 269.5714282989502
leaf_count=20 32 17 29
internal_value=0 -0.355486 -0.527146
internal_weight=0 604.857 448
internal_count=98 78 61
is_linear=0
shrinkage=0.02


Tree=42
num_leaves=5
num_cat=0
split_feature=28 103 13 146
split_gain=2.76661e+06 136569 18018.3 9229.2
threshold=247.04575000000008 107.95783318623127 66.515025641025673 0.10020102188309371
decision_type=8 10 10 10
left_child=1 2 3 -1
right_child=-2 -3 -4 -5
leaf_value=-0.49587592917428897 2.9590217267506351 0.12195569508135379 -0.34836624039780639 -0.71877510006356171
leaf_weight=142 121.28571438789368 186.14285588264465 158.14285612106323 155.85714316368103
leaf_count=21 12 22 19 24
internal_value=0 -0.334553 -0.520904 -0.61251
internal_weight=0 642.143 456 297.857
internal_count=98 86 64 45
is_linear=0
shrinkage=0.02


Tree=43
num_leaves=5
num_cat=0
split_feature=28 135 31 109
split_gain=2.65705e+06 87415.6 78421.2 6994.5
threshold=247.04575000000008 472.63726804123718 6740.9642857142871 0.60714285714285732
decision_type=8 8 8 8
left_child=1 2 -1 -3
right_child=-2 3 -4 -5
leaf_value=-0.38655422583280741 2.8998413875219473 -0.65469028620968406 0.25256965552973737 -0.47042772619371387
leaf_weight=162.71428561210632 121.28571438789368 147.85714316368103 145.42857098579407 186.1428554058075
leaf_count=24 12 16 17 29
internal_value=0 -0.327862 -0.0849186 -0.551998
internal_weight=0 642.143 308.143 334
internal_count=98 86 41 45
is_linear=0
shrinkage=0.02


Tree=44
num_leaves=4
num_cat=0
split_feature=155 141 156
split_gain=1.89545e+06 103219 13929.6
threshold=0.018688675780403053 136.50000000000003 3.5701542838400613
decision_type=10 10 10
left_child=-1 2 -2
right_child=1 -3 -4
leaf_value=2.0811896869936151 -0.61286993501415343 0.097908339882723794 -0.3880623729570124
leaf_weight=164.71428513526917 216.5714282989502 157.57142806053162 224.57142806053162
leaf_count=22 32 17 27
internal_value=0 -0.341482 -0.498428
internal_weight=0 598.714 441.143
internal_count=98 76 59
is_linear=0
shrinkage=0.02


Tree=45
num_leaves=4
num_cat=0
split_feature=13 136 84
split_gain=1.80828e+06 78230.8 13425.8
threshold=199.96987340085292 70.240000000000023 0.3508101418705134
decision_type=10 10 10
left_child=1 2 -1
right_child=-2 -3 -4
leaf_value=-0.63811360662457006 1.9354875336188093 -0.048270423180223981 -0.39795001272315428
leaf_weight=211.57142853736877 179.14285635948181 206.42857050895691 166.2857141494751
leaf_count=35 14 32 17
internal_value=0 -0.361372 -0.532423
internal_weight=0 584.286 377.857
internal_count=98 84 52
is_linear=0
shrinkage=0.02


Tree=46
num_leaves=5
num_cat=0
split_feature=147 141 13 72
split_gain=1.86547e+06 96486.7 14290.5 12732
threshold=0.016009053193479953 136.50000000000003 66.515025641025673 0.065172960983729253
decision_type=10 10 8 8
left_child=-1 2 3 -2
right_child=1 -3 -4 -5
leaf_value=2.1049235099358286 -0.42873756477183195 0.094740109582646961 -0.31617413829219537 -0.68694154405176877
leaf_weight=158.57142806053162 151.71428465843201 156.85714221000671 142.42857050895691 153.85714411735535
leaf_count=20 21 17 17 23
internal_value=0 -0.332158 -0.481627 -0.558745
internal_weight=0 604.857 448 305.571
internal_count=98 78 61 44
is_linear=0
shrinkage=0.02


Tree=47
num_leaves=4
num_cat=0
split_feature=42 136 156
split_gain=1.62495e+06 152248 13366.6
threshold=0.026018968088724701 136.50000000000003 3.3323563149180617
decision_type=8 10 10
left_child=-1 2 -2
right_child=1 -3 -4
leaf_value=2.0321152646575351 -0.5911036960129582 0.24130419453124585 -0.37308098429422026
leaf_weight=150.5714282989502 211.14285659790039 160.99999952316284 240.71428513526917
leaf_count=19 33 17 29
internal_value=0 -0.286793 -0.474958
internal_weight=0 612.857 451.857
internal_count=98 79 62
is_linear=0
shrinkage=0.02


Tree=48
num_leaves=5
num_cat=0
split_feature=28 136 148 99
split_gain=2.33066e+06 98530.7 12075.6 6158.53
threshold=247.04575000000008 136.50000000000003 3.3188653419171437 0.38113201442694539
decision_type=8 10 10 8
left_child=1 2 3 -1
right_child=-2 -3 -4 -5
leaf_value=-0.46925516852759003 2.709859151365738 0.083643779793172668 -0.35847754028748219 -0.66957714732885243
leaf_weight=130.57142782211304 121.28571438789368 180.14285635948181 215.57142806053162 115.85714292526245
leaf_count=19 12 21 25 21
internal_value=0 -0.313102 -0.467801 -0.563436
internal_weight=0 642.143 462 246.429
internal_count=98 86 65 40
is_linear=0
shrinkage=0.02


Tree=49
num_leaves=4
num_cat=0
split_feature=15 103 8
split_gain=1.57334e+06 63235.4 10522.2
threshold=102.40820610687025 84.178843299406296 0.028001414563472656
decision_type=10 10 2
left_child=1 2 -1
right_child=-2 -3 -4
leaf_value=-0.54535128154631896 1.8018287032093536 0.012292014388312168 -0.34502502105019739
leaf_weight=253.85714149475098 179.4285717010498 151.42857003211975 178.71428632736206
leaf_count=38 18 20 22
internal_value=0 -0.339454 -0.462588
internal_weight=0 584 432.571
internal_count=98 80 60
is_linear=0
shrinkage=0.02


Tree=50
num_leaves=5
num_cat=0
split_feature=46 145 145 148
split_gain=1.51878e+06 59739.7 13808 3088.89
threshold=13176.964285714288 209743.96500000011 46293.384999999966 1.6559348573542445
decision_type=10 10 10 10
left_child=1 2 3 -1
right_child=-2 -3 -4 -5
leaf_value=-0.63108689241426885 1.8436026934412109 -0.0070017256138416193 -0.32899591949903423 -0.47633218677013101
leaf_weight=111.14285707473755 167.4285717010498 179.28571343421936 209.28571319580078 96.285714149475098
leaf_count=19 15 20 23 21
internal_value=0 -0.312272 -0.443611 -0.559252
internal_weight=0 596 416.714 207.429
internal_count=98 83 63 40
is_linear=0
shrinkage=0.02


Tree=51
num_leaves=4
num_cat=0
split_feature=147 156 102
split_gain=1.90317e+06 39662.4 27831.2
threshold=0.016009053193479953 3.5701542838400613 0.027129572273565654
decision_type=10 10 10
left_child=-1 -2 -3
right_child=1 2 -4
leaf_value=2.2534769377591726 -0.51338768345286134 0.0031080180115213092 -0.35434383827992344
leaf_weight=142.14285683631897 249.5714282989502 167.14285492897034 182.00000023841858
leaf_count=19 36 24 20
internal_value=0 -0.320851 -0.183223
internal_weight=0 598.714 349.143
internal_count=99 80 44
is_linear=0
shrinkage=0.02


Tree=52
num_leaves=4
num_cat=0
split_feature=15 141 156
split_gain=1.72088e+06 65238 19203.2
threshold=159.23194444444445 118.50000000000001 3.5701542838400613
decision_type=8 10 10
left_child=1 2 -1
right_child=-2 -3 -4
leaf_value=-0.53531543298268669 2.254908735949956 0.04777365366464318 -0.2688464606428671
leaf_weight=226.42857074737549 130.42857241630554 176.8571412563324 207.14285588264465
leaf_count=36 15 22 26
internal_value=0 -0.275956 -0.408007
internal_weight=0 610.429 433.571
internal_count=99 84 62
is_linear=0
shrinkage=0.02


Tree=53
num_leaves=5
num_cat=0
split_feature=15 97 15 89
split_gain=1.65273e+06 46029.9 18429.2 12205.9
threshold=159.23194444444445 187.18178571428578 30.020681818181824 0.7096519734452561
decision_type=8 10 10 8
left_child=1 2 3 -1
right_child=-2 -3 -4 -5
leaf_value=-0.33554837740901716 2.2098105952866347 0.0073246910817774047 -0.21251833877688697 -0.60366442817561339
leaf_weight=126.14285635948181 130.42857241630554 171.57142901420593 165.57142543792725 147.14285707473755
leaf_count=17 15 19 22 26
internal_value=0 -0.270437 -0.379027 -0.479908
internal_weight=0 610.429 438.857 273.286
internal_count=99 84 65 43
is_linear=0
shrinkage=0.02


Tree=54
num_leaves=4
num_cat=0
split_feature=147 28 73
split_gain=1.73864e+06 36846.1 18845.6
threshold=0.016009053193479953 83.77147434292867 41.09010714285715
decision_type=10 10 10
left_child=-1 2 -2
right_child=1 -3 -4
leaf_value=2.1513398145172604 -0.60714001341585577 -0.12039596794841652 -0.31254640097557274
leaf_weight=142.14285683631897 152.71428608894348 244.57142734527588 201.42857003211975
leaf_count=19 24 29 27
internal_value=0 -0.309196 -0.439582
internal_weight=0 598.714 354.143
internal_count=99 80 51
is_linear=0
shrinkage=0.02


Tree=55
num_leaves=4
num_cat=0
split_feature=42 54 73
split_gain=1.44871e+06 52536 8217.15
threshold=0.028762197026731901 0.70808576149601044 45.004566563467492
decision_type=8 8 10
left_child=-1 2 -2
right_child=1 -3 -4
leaf_value=1.8409094333677618 -0.55005916598545201 -0.0090808998918779776 -0.36235455978573894
leaf_weight=160.57142806053162 143.14285731315613 169.28571343421936 267.85714149475098
leaf_count=22 22 17 38
internal_value=0 -0.305597 -0.427728
internal_weight=0 580.286 411
internal_count=99 77 60
is_linear=0
shrinkage=0.02


Tree=56
num_leaves=4
num_cat=0
split_feature=147 156 54
split_gain=1.62934e+06 33186.9 16742.7
threshold=0.016009053193479953 3.5701542838400613 0.54947213575061593
decision_type=10 10 8
left_child=-1 -2 -3
right_child=1 2 -4
leaf_value=2.0813707651522502 -0.47668584461865687 -0.30728939781950659 -0.030033747593182284
leaf_weight=142.14285683631897 249.5714282989502 182.14285564422607 166.99999952316284
leaf_count=19 36 28 16
internal_value=0 -0.300566 -0.174674
internal_weight=0 598.714 349.143
internal_count=99 80 44
is_linear=0
shrinkage=0.02


Tree=57
num_leaves=4
num_cat=0
split_feature=147 93 127
split_gain=1.56481e+06 30292.7 10861.1
threshold=0.016009053193479953 55.128571428571441 25.782499999999974
decision_type=10 8 8
left_child=-1 2 -2
right_child=1 -3 -4
leaf_value=2.0397433313047921 -0.54961097680860094 -0.12963149431568535 -0.32164240479624034
leaf_weight=142.14285683631897 144 255.42857050895691 199.2857129573822
leaf_count=19 23 33 24
internal_value=0 -0.294555 -0.41727
internal_weight=0 598.714 343.286
internal_count=99 80 47
is_linear=0
shrinkage=0.02


Tree=58
num_leaves=5
num_cat=0
split_feature=15 99 15 29
split_gain=1.43626e+06 59648.1 9246.33 8990.37
threshold=159.23194444444445 0.5009367027406717 30.020681818181824 0.64014810426540325
decision_type=8 10 10 10
left_child=1 2 3 -1
right_child=-2 -3 -4 -5
leaf_value=-0.31992137641968221 2.0553083384901534 0.094898629789215663 -0.25595099589408027 -0.54551266724353631
leaf_weight=133.71428537368774 130.42857241630554 146.57142686843872 180.28571271896362 149.85714292526245
leaf_count=19 15 15 25 25
internal_value=0 -0.256806 -0.367939 -0.439138
internal_weight=0 610.429 463.857 283.571
internal_count=99 84 69 44
is_linear=0
shrinkage=0.02


Tree=59
num_leaves=5
num_cat=0
split_feature=73 13 73 10
split_gain=1.25469e+06 77741.8 24385.4 3923.34
threshold=191.02696332737034 111.68478968792404 37.39468028169015 3.656562225921602
decision_type=10 10 10 2
left_child=1 2 -1 -4
right_child=-2 -3 3 -5
leaf_value=-0.58894268583118936 1.8228970954719614 0.13945286800796106 -0.35152141980838109 -0.20456461060180556
leaf_weight=157.42857122421265 144.00000047683716 148.57142615318298 149.14285755157471 141.71428489685059
leaf_count=26 13 20 24 16
internal_value=0 -0.257037 -0.388442 -0.27992
internal_weight=0 596.857 448.286 290.857
internal_count=99 86 66 40
is_linear=0
shrinkage=0.02


Tree=60
num_leaves=4
num_cat=0
split_feature=15 136 73
split_gain=1.34895e+06 48708.5 12360.9
threshold=159.23194444444445 70.240000000000023 37.39468028169015
decision_type=8 10 10
left_child=1 2 -1
right_child=-2 -3 -4
leaf_value=-0.54304801634161926 1.9905516160550289 -0.041785972253301822 -0.30275850946355254
leaf_weight=147.28571367263794 130.42857241630554 258.57142639160156 204.57142782211304
leaf_count=23 15 34 27
internal_value=0 -0.250191 -0.403343
internal_weight=0 610.429 351.857
internal_count=99 84 50
is_linear=0
shrinkage=0.02


Tree=61
num_leaves=4
num_cat=0
split_feature=61 136 34
split_gain=1.10968e+06 70847 12661.3
threshold=10973.642857142859 70.240000000000023 9.571428571428573
decision_type=10 10 10
left_child=1 2 -1
right_child=-2 -3 -4
leaf_value=-0.57877905166782784 1.6000708094059437 0.010068343116028524 -0.34385215952613735
leaf_weight=160.57142901420593 159.85714316368103 216.2857129573822 214.14285612106323
leaf_count=34 13 32 21
internal_value=0 -0.278158 -0.444522
internal_weight=0 591 374.714
internal_count=100 87 55
is_linear=0
shrinkage=0.02


Tree=62
num_leaves=4
num_cat=0
split_feature=73 136 49
split_gain=1.06677e+06 85055.9 14091.2
threshold=157.85441666666671 70.240000000000023 8.8928571428571441
decision_type=10 10 10
left_child=1 2 -1
right_child=-2 -3 -4
leaf_value=-0.58610496174676019 1.6602328078496329 0.052207659067666043 -0.33566656542177326
leaf_weight=149.57142806053162 145.00000023841858 231.14285588264465 225.14285707473755
leaf_count=32 13 32 23
internal_value=0 -0.249514 -0.435632
internal_weight=0 605.857 374.714
internal_count=100 87 55
is_linear=0
shrinkage=0.02


Tree=63
num_leaves=4
num_cat=0
split_feature=42 136 84
split_gain=1.04853e+06 65073.3 17523.1
threshold=0.027692073306224804 70.240000000000023 0.3401020408163265
decision_type=8 10 10
left_child=-1 2 -2
right_child=1 -3 -4
leaf_value=1.645548354349132 -0.53338501773394509 0.0022042584580258388 -0.24836969554870869
leaf_weight=144.85714268684387 216.5714282989502 245.99999928474426 143.42857098579407
leaf_count=19 34 30 17
internal_value=0 -0.24851 -0.419831
internal_weight=0 606 360
internal_count=100 81 51
is_linear=0
shrinkage=0.02


Tree=64
num_leaves=5
num_cat=0
split_feature=31 80 103 29
split_gain=1.00289e+06 29932.5 12406.3 7015.67
threshold=17544.107142857145 772.73392857142869 121.07553846153847 1.406741308934141
decision_type=8 8 8 8
left_child=1 2 3 -1
right_child=-2 -3 -4 -5
leaf_value=-0.36207165313420175 1.4067990544947975 -0.039879161461307155 -0.24010717030710799 -0.56476019698032753
leaf_weight=138.5714282989502 182.00000047683716 135.85714244842529 159.71428418159485 134.7142858505249
leaf_count=21 18 16 26 19
internal_value=0 -0.298881 -0.380145 -0.461986
internal_weight=0 568.857 433 273.286
internal_count=100 82 66 40
is_linear=0
shrinkage=0.02


Tree=65
num_leaves=4
num_cat=0
split_feature=103 136 33
split_gain=911362 62472.5 14402
threshold=174.8773529411765 70.240000000000023 14.128214285714288
decision_type=10 10 10
left_child=1 2 -1
right_child=-2 -3 -4
leaf_value=-0.58970262945801211 1.411536458679139 0.016152985094341831 -0.32739360752742847
leaf_weight=126.28571438789368 167.71428513526917 208.42857098579407 248.42857074737549
leaf_count=28 14 31 27
internal_value=0 -0.261408 -0.415797
internal_weight=0 583.143 374.714
internal_count=100 86 55
is_linear=0
shrinkage=0.02


Tree=66
num_leaves=5
num_cat=0
split_feature=103 148 63 64
split_gain=875272 68928 12024 9027.83
threshold=174.8773529411765 5.5212051772085626 12.192142857142859 17.964285714285719
decision_type=10 10 8 10
left_child=1 2 -1 -4
right_child=-2 -3 3 -5
leaf_value=-0.53334277018653764 1.3833057080249764 0.128865674723743 -0.194341376933195 -0.41270192915380499
leaf_weight=138.57142782211304 167.71428513526917 140.99999976158142 144.85714292526245 158.71428561210632
leaf_count=28 14 16 27 15
internal_value=0 -0.25618 -0.378971 -0.308505
internal_weight=0 583.143 442.143 303.571
internal_count=100 86 70 42
is_linear=0
shrinkage=0.02


Tree=67
num_leaves=5
num_cat=0
split_feature=61 68 58 17
split_gain=917367 57620.8 9916.48 9910.11
threshold=10973.642857142859 0.0081359332373696011 48.190751152073737 144.92857142857147
decision_type=10 10 10 8
left_child=1 -1 -3 -4
right_child=-2 2 3 -5
leaf_value=0.15555990693839181 1.4519799969113609 -0.50401868164749264 -0.21079746490831519 -0.42645463556392094
leaf_weight=110.71428442001343 159.85714316368103 124.71428537368774 213.85714244842529 141.7142858505249
leaf_count=17 13 22 34 14
internal_value=0 -0.255754 -0.35057 -0.296748
internal_weight=0 591 480.286 355.571
internal_count=100 87 70 48
is_linear=0
shrinkage=0.02


Tree=68
num_leaves=4
num_cat=0
split_feature=42 72 38
split_gain=928647 52013 18513.1
threshold=0.027692073306224804 0.025571511322457652 0.024135275876791405
decision_type=8 10 10
left_child=-1 -2 -3
right_child=1 2 -4
leaf_value=1.5442749520675143 0.079813395113946597 -0.47708973237252139 -0.22114889245088698
leaf_weight=144.85714268684387 153.5714282989502 220.99999833106995 231.42857193946838
leaf_count=19 22 29 30
internal_value=0 -0.238218 -0.34617
internal_weight=0 606 452.429
internal_count=100 81 59
is_linear=0
shrinkage=0.02


Tree=69
num_leaves=4
num_cat=0
split_feature=31 80 29
split_gain=872751 25698.7 9851.08
threshold=17544.107142857145 530.45607142857159 1.5998117730496455
decision_type=8 8 10
left_child=1 2 -1
right_child=-2 -3 -4
leaf_value=-0.30407923018763799 1.3090386853138467 -0.081529676807474319 -0.51953398595117362
leaf_weight=268.42856907844543 182.00000047683716 176.28571367263794 124.14285802841187
leaf_count=36 18 23 23
internal_value=0 -0.282131 -0.372212
internal_weight=0 568.857 392.571
internal_count=100 82 59
is_linear=0
shrinkage=0.02


Tree=70
num_leaves=4
num_cat=0
split_feature=42 53 98
split_gain=878319 50456 13452.6
threshold=0.027692073306224804 0.015188533105138751 0.027302947866477602
decision_type=8 10 10
left_child=-1 -2 -3
right_child=1 2 -4
leaf_value=1.5005649056502406 0.077188931902990615 -0.43728720623092726 -0.21703601565131028
leaf_weight=144.85714268684387 155.85714149475098 251.99999976158142 198.14285731315613
leaf_count=19 23 35 23
internal_value=0 -0.232954 -0.340338
internal_weight=0 606 450.143
internal_count=100 81 58
is_linear=0
shrinkage=0.02


Tree=71
num_leaves=4
num_cat=0
split_feature=155 136 77
split_gain=971627 26317.8 11874.7
threshold=0.017869701758489152 64.995000000000019 70.392857142857153
decision_type=10 10 10
left_child=-1 2 -2
right_child=1 -3 -4
leaf_value=1.5457465670906363 -0.48923821148076524 -0.097802744853932103 -0.26014225361572779
leaf_weight=148.71428561210632 164.71428632736206 252.28571271896362 200.85714221000671
leaf_count=19 29 34 16
internal_value=0 -0.25493 -0.363365
internal_weight=0 617.857 365.571
internal_count=98 79 45
is_linear=0
shrinkage=0.02


Tree=72
num_leaves=4
num_cat=0
split_feature=72 141 83
split_gain=909063 30857.6 23329.9
threshold=0.023186717023547854 127.85000000000001 0.022328375582581453
decision_type=8 10 10
left_child=-1 2 -2
right_child=1 -3 -4
leaf_value=1.4472911777142725 -0.53849222273164876 -0.020701452753008897 -0.23641203484708498
leaf_weight=157.42857241630554 158.14285659790039 161.57142734527588 289.42857050895691
leaf_count=21 27 18 32
internal_value=0 -0.257621 -0.343148
internal_weight=0 609.143 447.571
internal_count=98 77 59
is_linear=0
shrinkage=0.02


Tree=73
num_leaves=5
num_cat=0
split_feature=28 113 86 43
split_gain=879939 41516.7 13233.1 11534.3
threshold=203.711196969697 0.018593487384050252 13.278370284510656 55.955172515656393
decision_type=10 8 8 10
left_child=1 -1 3 -3
right_child=-2 2 -4 -5
leaf_value=0.037223618435327302 1.3620869947103509 -0.41633226754998581 -0.51819225713234873 -0.17396694326705167
leaf_weight=135.57142686843872 169.57142758369446 148.28571343421936 146.14285802841187 167.00000095367432
leaf_count=16 12 22 26 22
internal_value=0 -0.270473 -0.360876 -0.287957
internal_weight=0 597 461.429 315.286
internal_count=98 86 70 44
is_linear=0
shrinkage=0.02


Tree=74
num_leaves=4
num_cat=0
split_feature=46 54 84
split_gain=832858 30138.3 16473.8
threshold=13176.964285714288 0.66731235646104714 0.3401020408163265
decision_type=10 8 10
left_child=1 2 -1
right_child=-2 -3 -4
leaf_value=-0.43826386003193596 1.4214547498472074 0.020162489509870471 -0.20238795604418008
leaf_weight=223.57142853736877 150.71428632736206 140.42857050895691 251.85714149475098
leaf_count=35 13 17 33
internal_value=0 -0.237271 -0.313309
internal_weight=0 615.857 475.429
internal_count=98 85 68
is_linear=0
shrinkage=0.02


Tree=75
num_leaves=5
num_cat=0
split_feature=28 113 98 103
split_gain=820440 39124.1 14307.5 12466.5
threshold=203.711196969697 0.018593487384050252 0.027302947866477602 174.8773529411765
decision_type=10 8 10 8
left_child=1 -1 3 -3
right_child=-2 2 -4 -5
leaf_value=0.03705868467087093 1.3147591309937119 -0.60831229926220742 -0.23509693695856729 -0.31784652282244064
leaf_weight=135.57142686843872 169.57142758369446 114.14285826683044 224.71428608894348 122.57142806053162
leaf_count=16 12 19 26 25
internal_value=0 -0.26164 -0.3494 -0.457908
internal_weight=0 597 461.429 236.714
internal_count=98 86 70 44
is_linear=0
shrinkage=0.02


Tree=76
num_leaves=4
num_cat=0
split_feature=57 57 83
split_gain=843888 27598.9 21509.7
threshold=0.027437377257131506 0.032771787590935804 0.025591835944983505
decision_type=8 10 10
left_child=-1 -2 -3
right_child=1 2 -4
leaf_value=1.4034467150674428 -0.019985884894729009 -0.48548611650972739 -0.20776973229765039
leaf_weight=155.00000047683716 156.8571412563324 196.28571367263794 258.42857146263123
leaf_count=21 23 27 27
internal_value=0 -0.24874 -0.327651
internal_weight=0 611.571 454.714
internal_count=98 77 54
is_linear=0
shrinkage=0.02


Tree=77
num_leaves=4
num_cat=0
split_feature=28 73 5
split_gain=774211 30813.7 15109.7
threshold=203.711196969697 62.749827798861496 157.76285714285717
decision_type=10 10 2
left_child=1 2 -1
right_child=-2 -3 -4
leaf_value=-0.51172959810056751 1.2762217153877056 -0.057687577535900751 -0.25783700855450808
leaf_weight=156.5714282989502 169.57142758369446 206.71428632736206 233.71428465843201
leaf_count=34 12 31 21
internal_value=0 -0.255121 -0.359691
internal_weight=0 597 390.286
internal_count=98 86 55
is_linear=0
shrinkage=0.02


Tree=78
num_leaves=4
num_cat=0
split_feature=43 53 16
split_gain=747874 32166.2 25568.3
threshold=340.1956170207398 0.020062572796482905 6152.4285714285725
decision_type=8 10 8
left_child=1 -1 -3
right_child=-2 2 -4
leaf_value=-0.0010035596743365139 1.2734421117134438 -0.2002056519627885 -0.50688645957761491
leaf_weight=158.42857003211975 165.28571391105652 251.00000071525574 191.85714221000671
leaf_count=28 21 34 15
internal_value=0 -0.245574 -0.333068
internal_weight=0 601.286 442.857
internal_count=98 77 49
is_linear=0
shrinkage=0.02


Tree=79
num_leaves=4
num_cat=0
split_feature=155 90 73
split_gain=803818 29501.8 41890.5
threshold=0.017869701758489152 122.22743303571428 62.749827798861496
decision_type=10 8 10
left_child=-1 2 -2
right_child=1 -3 -4
leaf_value=1.4003922292481183 -0.2943550597085699 -0.47906549085064676 0.10630803311532651
leaf_weight=148.71428561210632 307.57142663002014 152.2857141494751 158.00000047683716
leaf_count=19 33 24 22
internal_value=0 -0.237423 -0.158383
internal_weight=0 617.857 465.571
internal_count=98 79 55
is_linear=0
shrinkage=0.02


Tree=80
num_leaves=4
num_cat=0
split_feature=43 53 83
split_gain=702255 30619.1 19844.8
threshold=340.1956170207398 0.020062572796482905 0.026098576923546755
decision_type=8 10 10
left_child=1 -1 -3
right_child=-2 2 -4
leaf_value=-5.6520468768897032e-05 1.2332857165518243 -0.48517680493381288 -0.21280228614807128
leaf_weight=158.42857003211975 165.28571391105652 180.85714292526245 262
leaf_count=28 21 22 27
internal_value=0 -0.238673 -0.324037
internal_weight=0 601.286 442.857
internal_count=98 77 49
is_linear=0
shrinkage=0.02


Tree=81
num_leaves=5
num_cat=0
split_feature=127 67 17 64
split_gain=636428 47074.8 96028.9 20992.3
threshold=68.902857142857158 434.65535714285721 86.785714285714292 4.7857142857142865
decision_type=10 10 10 10
left_child=1 2 3 -1
right_child=-2 -3 -4 -5
leaf_value=-0.55475800291936206 1.195950835253095 -0.51478940137888685 0.20848581061696661 -0.19377335722185748
leaf_weight=133 155.42857050895691 172.85714316368103 194.71428394317627 125.0000011920929
leaf_count=28 16 13 23 20
internal_value=0 -0.234017 -0.126811 -0.379862
internal_weight=0 625.571 452.714 258
internal_count=100 84 71 48
is_linear=0
shrinkage=0.02


Tree=82
num_leaves=5
num_cat=0
split_feature=91 153 12 99
split_gain=667577 42013 15959.5 4551.73
threshold=10964.750000000002 114411.64999999995 0.029074179639335101 0.38113201442694539
decision_type=10 10 2 10
left_child=1 2 -1 -4
right_child=-2 -3 3 -5
leaf_value=-0.55506855882158634 1.1982980509429284 0.0096331419898829547 -0.20913575116481464 -0.35892090265750981
leaf_weight=115.5714282989502 160.71428561210632 179.71428513526917 168.14285707473755 156.85714268684387
leaf_count=20 14 18 30 18
internal_value=0 -0.248084 -0.35321 -0.281428
internal_weight=0 620.286 440.571 325
internal_count=100 86 68 48
is_linear=0
shrinkage=0.02


Tree=83
num_leaves=4
num_cat=0
split_feature=43 68 27
split_gain=734278 52366.6 52052.7
threshold=340.1956170207398 0.018497966555757552 0.044638949585652753
decision_type=8 10 10
left_child=1 -1 -3
right_child=-2 2 -4
leaf_value=0.06401716616097658 1.2546797472361295 -0.65905637642178649 -0.21561453637032116
leaf_weight=148.71428442001343 160.42857146263123 160.42857074737549 311.42857217788696
leaf_count=25 20 22 33
internal_value=0 -0.263241 -0.366382
internal_weight=0 620.571 471.857
internal_count=100 80 55
is_linear=0
shrinkage=0.02


Tree=84
num_leaves=4
num_cat=0
split_feature=155 27 136
split_gain=648740 22042.1 32826.7
threshold=0.018688675780403053 0.036700336700336657 44.955000000000005
decision_type=10 10 10
left_child=-1 -2 -3
right_child=1 2 -4
leaf_value=1.1768540400532757 -0.41833213866938468 -0.30962988669334346 0.051661248841821189
leaf_weight=161.42857122421265 201.71428489685059 249.14285731315613 168.71428537368774
leaf_count=20 30 27 23
internal_value=0 -0.246638 -0.163755
internal_weight=0 619.571 417.857
internal_count=100 80 50
is_linear=0
shrinkage=0.02


Tree=85
num_leaves=4
num_cat=0
split_feature=43 68 87
split_gain=691804 50080.1 44478.8
threshold=340.1956170207398 0.018497966555757552 0.037468955836302754
decision_type=8 10 10
left_child=1 -1 -3
right_child=-2 2 -4
leaf_value=0.064022305607875335 1.217353095512069 -0.62238800535354488 -0.21486625564168349
leaf_weight=148.71428442001343 160.42857146263123 164.42857074737549 307.42857217788696
leaf_count=25 20 22 33
internal_value=0 -0.256011 -0.356876
internal_weight=0 620.571 471.857
internal_count=100 80 55
is_linear=0
shrinkage=0.02


Tree=86
num_leaves=5
num_cat=0
split_feature=43 18 50 4
split_gain=664408 38915.2 26046.2 7497.62
threshold=340.1956170207398 175.5285714285715 595.64392857142866 7.2500000000000009
decision_type=8 8 8 2
left_child=1 2 3 -1
right_child=-2 -3 -4 -5
leaf_value=-0.37960864268400557 1.1930060279331127 -0.51068543572919434 0.081911400148145061 -0.17854198012735528
leaf_weight=116.71428561210632 160.42857146263123 168.14285659790039 132.14285731315613 203.57142782211304
leaf_count=27 20 12 15 26
internal_value=0 -0.250891 -0.15434 -0.251812
internal_weight=0 620.571 452.429 320.286
internal_count=100 80 68 53
is_linear=0
shrinkage=0.02


Tree=87
num_leaves=4
num_cat=0
split_feature=135 153 26
split_gain=602614 41960.7 20838.8
threshold=38.453402061855677 151573.95500000005 7.5480994441874634
decision_type=10 10 10
left_child=1 2 -1
right_child=-2 -3 -4
leaf_value=-0.4783231124064401 1.1722891339412649 0.067750241339263953 -0.2104762809889705
leaf_weight=195.28571391105652 152.57142806053162 146.28571486473083 286.85714197158813
leaf_count=32 17 13 38
internal_value=0 -0.228945 -0.318964
internal_weight=0 628.429 482.143
internal_count=100 83 70
is_linear=0
shrinkage=0.02


Tree=88
num_leaves=4
num_cat=0
split_feature=58 23 27
split_gain=573920 46065.5 30735.1
threshold=397.37624157674526 0.020653826308790851 0.039374580857017304
decision_type=8 8 10
left_child=1 -1 -3
right_child=-2 2 -4
leaf_value=0.03484268251993785 1.1455046477596378 -0.57455154044653567 -0.21819114620381988
leaf_weight=192.42857003211975 152.28571391105652 144.99999928474426 291.28571557998657
leaf_count=28 19 19 34
internal_value=0 -0.222933 -0.336628
internal_weight=0 628.714 436.286
internal_count=100 81 53
is_linear=0
shrinkage=0.02


Tree=89
num_leaves=4
num_cat=0
split_feature=43 23 72
split_gain=614032 42128.8 29557.9
threshold=340.1956170207398 0.020653826308790851 0.046388930836605204
decision_type=8 8 8
left_child=1 -1 -3
right_child=-2 2 -4
leaf_value=0.020980268929700938 1.1459656718564977 -0.54493295432801425 -0.21243354027869807
leaf_weight=174.85714101791382 160.42857146263123 178.14285564422607 267.57143068313599
leaf_count=25 20 23 32
internal_value=0 -0.242113 -0.345327
internal_weight=0 620.571 445.714
internal_count=100 80 55
is_linear=0
shrinkage=0.02


Tree=90
num_leaves=5
num_cat=0
split_feature=58 113 34 50
split_gain=532623 36467.8 18194.5 9859.71
threshold=397.37624157674526 0.018593487384050252 33.464285714285722 229.29571428571433
decision_type=8 8 10 10
left_child=1 -1 3 -3
right_child=-2 2 -4 -5
leaf_value=0.027353402657797777 1.1033929911378453 -0.32524853549835536 -0.49516674416421375 -0.096743779411062492
leaf_weight=178.14285492897034 152.28571391105652 168.99999952316284 145.00000190734863 136.57142853736877
leaf_count=22 19 28 10 21
internal_value=0 -0.214892 -0.310669 -0.223121
internal_weight=0 628.714 450.571 305.571
internal_count=100 81 59 49
is_linear=0
shrinkage=0.02


Tree=91
num_leaves=4
num_cat=0
split_feature=43 156 103
split_gain=794119 45605 39266.1
threshold=213.65348675710595 2.380486883149485 107.95783318623127
decision_type=10 10 8
left_child=1 -1 -3
right_child=-2 2 -4
leaf_value=-0.5473321233049756 1.3835426869816132 -0.31144919298741175 0.08325787329210306
leaf_weight=152.85714316368103 150.28571391105652 236.0000011920929 175.99999761581421
leaf_count=25 13 33 24
internal_value=0 -0.252298 -0.142836
internal_weight=0 564.857 412
internal_count=95 82 57
is_linear=0
shrinkage=0.02


Tree=92
num_leaves=5
num_cat=0
split_feature=43 17 17 48
split_gain=762672 29508 36249.3 34326.7
threshold=213.65348675710595 224.07142857142864 84.428571428571445 4.1046428571428581
decision_type=10 8 10 10
left_child=1 2 3 -1
right_child=-2 -3 -4 -5
leaf_value=-0.59355730137288809 1.3558717870246753 -0.49889999503335947 0.048574012154814987 -0.1137795080338876
leaf_weight=106.42857098579407 150.28571391105652 140.14285707473755 182.5714282989502 135.71428561210632
leaf_count=22 13 13 21 26
internal_value=0 -0.247252 -0.164216 -0.324655
internal_weight=0 564.857 424.714 242.143
internal_count=95 82 69 48
is_linear=0
shrinkage=0.02


Tree=93
num_leaves=4
num_cat=0
split_feature=60 148 98
split_gain=709106 43531.4 15988.7
threshold=96.121339364518988 3.3188653419171437 0.028422162975302652
decision_type=10 10 10
left_child=1 2 -1
right_child=-2 -3 -4
leaf_value=-0.57459770059168302 1.3169430756305582 -0.072522276094824326 -0.2615381263737262
leaf_weight=135.85714221000671 148.71428632736206 304.99999833106995 125.57142901420593
leaf_count=28 17 37 13
internal_value=0 -0.234847 -0.424226
internal_weight=0 566.429 261.429
internal_count=95 78 41
is_linear=0
shrinkage=0.02


Tree=94
num_leaves=4
num_cat=0
split_feature=28 55 92
split_gain=684743 43651.9 17760.6
threshold=165.55966917293236 2.0619586806577099 115.75000000000001
decision_type=10 10 8
left_child=1 -1 -3
right_child=-2 2 -4
leaf_value=-0.51746168355893185 1.2604889239531232 -0.23564112982579061 0.037486768747577268
leaf_weight=161.42857027053833 155.42857050895691 240.71428561210632 157.57142949104309
leaf_count=26 15 35 19
internal_value=0 -0.24003 -0.127585
internal_weight=0 559.714 398.286
internal_count=95 80 54
is_linear=0
shrinkage=0.02


Tree=95
num_leaves=5
num_cat=0
split_feature=43 156 142 119
split_gain=688432 40559.9 24833.2 10168.3
threshold=213.65348675710595 2.380486883149485 54008.000000000007 3.0498283450704236
decision_type=10 10 10 8
left_child=1 -1 3 -3
right_child=-2 2 -4 -5
leaf_value=-0.51394399514031275 1.2873943292780379 -0.35505190978434287 0.08959138455653895 -0.11211768188765397
leaf_weight=152.85714316368103 150.28571391105652 146.85714268684387 135.28571367263794 129.85714244842529
leaf_count=25 13 24 16 17
internal_value=0 -0.235707 -0.132478 -0.241047
internal_weight=0 564.857 412 276.714
internal_count=95 82 57 41
is_linear=0
shrinkage=0.02


Tree=96
num_leaves=4
num_cat=0
split_feature=58 29 72
split_gain=656486 31864.1 20799.9
threshold=137.80010362210609 2.2339226753389076 0.033566258255627611
decision_type=10 10 10
left_child=1 2 -1
right_child=-2 -3 -4
leaf_value=-0.50703226367137 1.2225588595390853 -0.005232726365954273 -0.21268593179934445
leaf_weight=166.28571343421936 157.57142877578735 163.99999904632568 227.28571462631226
leaf_count=27 18 20 30
internal_value=0 -0.239451 -0.337049
internal_weight=0 557.571 393.571
internal_count=95 77 57
is_linear=0
shrinkage=0.02


Tree=97
num_leaves=4
num_cat=0
split_feature=15 84 72
split_gain=661477 37752 13588.7
threshold=159.23194444444445 0.3401020408163265 0.033566258255627611
decision_type=8 10 10
left_child=1 2 -1
right_child=-2 -3 -4
leaf_value=-0.51447381724085572 1.3944942149777972 -0.041910452132860307 -0.23989557724138094
leaf_weight=129.99999833106995 126.28571534156799 296.99999928474426 161.85714292526245
leaf_count=19 14 38 24
internal_value=0 -0.200656 -0.362199
internal_weight=0 588.857 291.857
internal_count=95 81 43
is_linear=0
shrinkage=0.02


Tree=98
num_leaves=4
num_cat=0
split_feature=13 55 43
split_gain=651890 38389.6 20441
threshold=199.96987340085292 2.0619586806577099 71.957731036451904
decision_type=10 10 10
left_child=1 -1 -3
right_child=-2 2 -4
leaf_value=-0.48764594676008521 1.2708915956070479 -0.23759424425047582 0.052183654594240798
leaf_weight=161.42857027053833 146.14285635948181 246.71428608894348 160.85714316368103
leaf_count=26 13 32 24
internal_value=0 -0.226615 -0.123227
internal_weight=0 569 407.571
internal_count=95 82 56
is_linear=0
shrinkage=0.02


Tree=99
num_leaves=4
num_cat=0
split_feature=43 26 78
split_gain=606307 31720.7 23776.3
threshold=213.65348675710595 6.0805379576748928 92.536785714285728
decision_type=10 10 8
left_child=1 -1 -3
right_child=-2 2 -4
leaf_value=-0.44533644114119475 1.2068103132852841 -0.23893443646577894 0.086943978073579883
leaf_weight=175.99999952316284 150.28571391105652 248.99999976158142 139.85714268684387
leaf_count=29 13 35 18
internal_value=0 -0.222559 -0.121728
internal_weight=0 564.857 388.857
internal_count=95 82 53
is_linear=0
shrinkage=0.02


Tree=100
num_leaves=4
num_cat=0
split_feature=15 40 73
split_gain=603307 31418.1 18372.8
threshold=159.23194444444445 3.0152695371352363 62.749827798861496
decision_type=8 10 8
left_child=1 -1 -3
right_child=-2 2 -4
leaf_value=-0.36564783612583435 1.3306480901462214 -0.21143156945837591 0.081198034217372719
leaf_weight=245.28571271896362 126.28571534156799 176.71428489685059 166.85714292526245
leaf_count=39 14 18 24
internal_value=0 -0.192751 -0.0693146
internal_weight=0 588.857 343.571
internal_count=95 81 42
is_linear=0
shrinkage=0.02


Tree=101
num_leaves=5
num_cat=0
split_feature=57 17 7 53
split_gain=474576 33559.7 29347.4 6178.82
threshold=0.027437377257131506 269.35714285714295 160.03535714285718 0.025745704093117803
decision_type=8 8 2 10
left_child=-1 2 3 -2
right_child=1 -3 -4 -5
leaf_value=1.0401533564113541 -0.31905619868087653 -0.45721924359724309 0.10113998849630135 -0.13213631319145477
leaf_weight=153.28571462631226 162.71428394317627 157.2857141494751 158.42857050895691 125.14285755157471
leaf_count=20 31 11 16 17
internal_value=0 -0.20601 -0.117475 -0.237795
internal_weight=0 603.571 446.286 287.857
internal_count=95 75 64 48
is_linear=0
shrinkage=0.02


Tree=102
num_leaves=5
num_cat=0
split_feature=135 18 18 47
split_gain=484263 43968.5 31601.5 14823
threshold=38.453402061855677 175.5285714285715 51.146428571428579 42.071428571428584
decision_type=10 8 10 10
left_child=1 2 3 -1
right_child=-2 -3 -4 -5
leaf_value=-0.39242147199247507 1.0469766220414551 -0.48768515341548851 0.1392600649441659 -0.10434709740931077
leaf_weight=121.71428513526917 153.85714221000671 165.57142806053162 142.71428608894348 172.99999928474426
leaf_count=24 17 13 14 27
internal_value=0 -0.210096 -0.105025 -0.223319
internal_weight=0 603 437.429 294.714
internal_count=95 78 65 51
is_linear=0
shrinkage=0.02


Tree=103
num_leaves=5
num_cat=0
split_feature=40 51 47 57
split_gain=484560 22512.3 31642 7519.42
threshold=9.3068569684153584 8.821428571428573 80.250000000000014 0.053616751269035506
decision_type=8 10 10 10
left_child=1 2 3 -1
right_child=-2 -3 -4 -5
leaf_value=-0.3882759893302522 0.97820309947279671 -0.39749384417511963 0.094373158641288882 -0.16075276756340701
leaf_weight=124.42856979370117 171.85714316368103 206.85714268684387 144.71428489685059 109.00000023841858
leaf_count=21 18 16 20 20
internal_value=0 -0.229747 -0.137984 -0.282034
internal_weight=0 585 378.143 233.429
internal_count=95 77 61 41
is_linear=0
shrinkage=0.02


Tree=104
num_leaves=4
num_cat=0
split_feature=155 90 22
split_gain=457876 16672 7155.65
threshold=0.018688675780403053 61.89505277973258 84.55714285714275
decision_type=10 8 10
left_child=-1 2 -2
right_child=1 -3 -4
leaf_value=0.99160732618305392 -0.059609842886913622 -0.38583079421364253 -0.22223133950061194
leaf_weight=160.57142806053162 200.42857241630554 160.5714282989502 235.28571200370789
leaf_count=21 29 25 20
internal_value=0 -0.211625 -0.147425
internal_weight=0 596.286 435.714
internal_count=95 74 49
is_linear=0
shrinkage=0.02


Tree=105
num_leaves=4
num_cat=0
split_feature=44 53 155
split_gain=486293 48413.2 34825.4
threshold=7.3902298589247968 0.019665049816955455 0.040377859664007656
decision_type=8 8 10
left_child=1 -1 -3
right_child=-2 2 -4
leaf_value=0.10903675059635784 1.0860712361196905 -0.54176164116379066 -0.1776867133450607
leaf_weight=149.71428513526917 144.5714271068573 161.42857074737549 301.14285778999329
leaf_count=28 15 20 32
internal_value=0 -0.203566 -0.304742
internal_weight=0 612.286 462.571
internal_count=95 80 52
is_linear=0
shrinkage=0.02


Tree=106
num_leaves=5
num_cat=0
split_feature=135 18 7 34
split_gain=450461 39268 35382 11392.4
threshold=38.453402061855677 175.5285714285715 160.03535714285718 5.9642857142857144
decision_type=10 8 2 10
left_child=1 2 3 -1
right_child=-2 -3 -4 -5
leaf_value=-0.37011252219750296 1.0078622157127373 -0.46687615263002147 0.14284500474358169 -0.11744947381049553
leaf_weight=134.14285635948181 153.85714221000671 165.57142806053162 150.71428608894348 152.57142806053162
leaf_count=29 17 13 17 19
internal_value=0 -0.204544 -0.105248 -0.235661
internal_weight=0 603 437.429 286.714
internal_count=95 78 65 48
is_linear=0
shrinkage=0.02


Tree=107
num_leaves=4
num_cat=0
split_feature=40 62 62
split_gain=444201 25309.6 18226.3
threshold=9.3068569684153584 274.85714285714289 52.964285714285722
decision_type=8 8 10
left_child=1 2 -1
right_child=-2 -3 -4
leaf_value=-0.29105545144848938 0.93501782485965879 -0.44671069035067407 -0.030481397786359974
leaf_weight=191.14285564422607 171.85714316368103 148.85714292526245 244.99999904632568
leaf_count=34 18 14 29
internal_value=0 -0.221534 -0.14468
internal_weight=0 585 436.143
internal_count=95 77 63
is_linear=0
shrinkage=0.02


Tree=108
num_leaves=4
num_cat=0
split_feature=13 88 26
split_gain=424747 21503.5 3862.2
threshold=135.20266900790168 92.752257551669317 11.419708128394424
decision_type=10 8 10
left_child=1 2 -1
right_child=-2 -3 -4
leaf_value=-0.096015542063544304 0.80626859532034445 -0.45046166099911028 -0.22450014529081777
leaf_weight=155.57142925262451 209.42857050895691 156.9999988079071 234.85714221000671
leaf_count=22 20 29 24
internal_value=0 -0.252791 -0.173304
internal_weight=0 547.429 390.429
internal_count=95 75 46
is_linear=0
shrinkage=0.02


Tree=109
num_leaves=4
num_cat=0
split_feature=44 68 27
split_gain=446248 46126.7 46848.1
threshold=7.3902298589247968 0.019779097827472402 0.036700336700336657
decision_type=8 8 10
left_child=1 -1 -3
right_child=-2 2 -4
leaf_value=0.10237703071291229 1.038871980192043 -0.58431976184393009 -0.15472413566559146
leaf_weight=154.42857098579407 144.5714271068573 151.99999856948853 305.85714411735535
leaf_count=29 15 18 33
internal_value=0 -0.196526 -0.297342
internal_weight=0 612.286 457.857
internal_count=95 80 51
is_linear=0
shrinkage=0.02


Tree=110
num_leaves=4
num_cat=0
split_feature=13 73 83
split_gain=404752 21034.5 3155.81
threshold=135.20266900790168 81.479164759725435 0.026098576923546755
decision_type=10 8 10
left_child=1 2 -1
right_child=-2 -3 -4
leaf_value=-0.22989774529605161 0.78642666150790452 -0.43509795122604078 -0.11407403245856701
leaf_weight=169.28571367263794 209.42857050895691 166.28571319580078 211.85714340209961
leaf_count=25 20 30 20
internal_value=0 -0.247405 -0.165517
internal_weight=0 547.429 381.143
internal_count=95 75 45
is_linear=0
shrinkage=0.02


Tree=111
num_leaves=4
num_cat=0
split_feature=11 34 48
split_gain=418568 61995.7 36890.6
threshold=15.842375086852776 33.464285714285722 43.665714285714294
decision_type=2 8 10
left_child=1 2 -1
right_child=-2 -3 -4
leaf_value=-0.24002281471823395 0.93962791931956491 -0.52137626313216745 0.17724670514077931
leaf_weight=219.99999928474426 154.99999976158142 196.57142853736877 137.85714268684387
leaf_count=37 19 18 20
internal_value=0 -0.236023 -0.0792783
internal_weight=0 554.429 357.857
internal_count=94 75 57
is_linear=0
shrinkage=0.02


Tree=112
num_leaves=4
num_cat=0
split_feature=58 71 83
split_gain=402030 39391.5 43008
threshold=397.37624157674526 7.438353905058845 0.022873012396821452
decision_type=8 10 10
left_child=1 -1 -3
right_child=-2 2 -4
leaf_value=0.029178401269869238 0.95744828894321399 -0.55138799823068485 -0.13116187558746265
leaf_weight=173.57142853736877 145.57142806053162 187.42857146263123 202.85714221000671
leaf_count=29 18 23 24
internal_value=0 -0.22149 -0.332969
internal_weight=0 563.857 390.286
internal_count=94 76 47
is_linear=0
shrinkage=0.02


Tree=113
num_leaves=4
num_cat=0
split_feature=58 27 147
split_gain=386110 44768.5 11194.9
threshold=397.37624157674526 0.036700336700336657 0.047957290009196858
decision_type=8 10 10
left_child=1 -1 -3
right_child=-2 2 -4
leaf_value=-0.46284764852093546 0.9382993726183998 0.052187265312518105 -0.17437335493686582
leaf_weight=194.28571438789368 145.57142806053162 141.14285731315613 228.42857050895691
leaf_count=31 18 17 28
internal_value=0 -0.21706 -0.0878477
internal_weight=0 563.857 369.571
internal_count=94 76 45
is_linear=0
shrinkage=0.02


Tree=114
num_leaves=5
num_cat=0
split_feature=26 49 93 30
split_gain=355720 49474.1 45648.5 24238.6
threshold=18.504379065262409 40.714285714285722 38.116071428571438 16.904948547215493
decision_type=8 8 10 8
left_child=1 2 3 -1
right_child=-2 -3 -4 -5
leaf_value=-0.027335792271926854 0.93152073969360194 -0.44941928670332437 0.25724313350328504 -0.42462809788187794
leaf_weight=128.28571462631226 137.85714197158813 204.71428561210632 120.71428537368774 117.85714268684387
leaf_count=19 16 19 15 25
internal_value=0 -0.200328 -0.0613299 -0.217566
internal_weight=0 571.571 366.857 246.143
internal_count=94 78 59 44
is_linear=0
shrinkage=0.02


Tree=115
num_leaves=4
num_cat=0
split_feature=58 71 83
split_gain=365693 36535.7 40771.6
threshold=397.37624157674526 7.438353905058845 0.025591835944983505
decision_type=8 10 10
left_child=1 -1 -3
right_child=-2 2 -4
leaf_value=0.029911560827795187 0.91289832183808761 -0.51883750614962165 -0.10990452653010109
leaf_weight=173.57142853736877 145.57142806053162 199.42857146263123 190.85714221000671
leaf_count=29 18 26 21
internal_value=0 -0.211499 -0.318861
internal_weight=0 563.857 390.286
internal_count=94 76 47
is_linear=0
shrinkage=0.02


Tree=116
num_leaves=4
num_cat=0
split_feature=43 27 113
split_gain=374403 46274.4 8011.62
threshold=340.1956170207398 0.036700336700336657 0.018593487384050252
decision_type=8 10 10
left_child=1 -1 -3
right_child=-2 2 -4
leaf_value=-0.49490840184549323 0.89244010995252443 0.0035848068880309832 -0.18080513199763576
leaf_weight=172.42857122421265 153.71428561210632 167.14285612106323 216.14285731315613
leaf_count=28 19 22 25
internal_value=0 -0.222807 -0.100397
internal_weight=0 555.714 383.286
internal_count=94 75 47
is_linear=0
shrinkage=0.02


Tree=117
num_leaves=4
num_cat=0
split_feature=28 27 103
split_gain=370872 43266.3 11778.3
threshold=203.711196969697 0.036700336700336657 78.555259009009021
decision_type=10 10 8
left_child=1 -1 -3
right_child=-2 2 -4
leaf_value=-0.47665866502400778 0.90370902967186117 -0.19955615885907713 0.023112022039942413
leaf_weight=176.71428537368774 149.42857146263123 209.14285707473755 174.14285635948181
leaf_count=35 12 26 21
internal_value=0 -0.217756 -0.0983886
internal_weight=0 560 383.286
internal_count=94 82 47
is_linear=0
shrinkage=0.02


Tree=118
num_leaves=4
num_cat=0
split_feature=153 34 62
split_gain=363903 23754.6 28011.6
threshold=180398.74500000002 33.464285714285722 52.964285714285722
decision_type=10 8 10
left_child=1 2 -1
right_child=-2 -3 -4
leaf_value=-0.32137312163552151 0.87935725818791965 -0.42197907452827321 0.018515186569936535
leaf_weight=177.28571343421936 153.71428680419922 164.28571391105652 214.14285612106323
leaf_count=35 15 16 28
internal_value=0 -0.22014 -0.135427
internal_weight=0 555.714 391.429
internal_count=94 79 63
is_linear=0
shrinkage=0.02


Tree=119
num_leaves=4
num_cat=0
split_feature=11 75 99
split_gain=358893 47845.9 11839.1
threshold=15.842375086852776 93.527408088235305 0.43222676430210943
decision_type=2 8 8
left_child=1 2 -1
right_child=-2 -3 -4
leaf_value=-0.19534144114742458 0.86850495481261125 -0.51760978380062606 0.0260211289243562
leaf_weight=234.42857098579407 154.99999976158142 155.57142949104309 164.42857003211975
leaf_count=28 19 23 24
internal_value=0 -0.220119 -0.104085
internal_weight=0 554.429 398.857
internal_count=94 75 52
is_linear=0
shrinkage=0.02


Tree=120
num_leaves=4
num_cat=0
split_feature=153 55 115
split_gain=345078 22510.4 15061.6
threshold=180398.74500000002 2.0619586806577099 5.2443634165770119
decision_type=10 10 8
left_child=1 -1 -3
right_child=-2 2 -4
leaf_value=-0.42139315303252672 0.85606835011784754 -0.24681501401745329 -0.0010389721641365956
leaf_weight=152.71428465843201 153.71428680419922 221.71428442001343 181.28571438789368
leaf_count=25 15 32 22
internal_value=0 -0.214613 -0.136255
internal_weight=0 555.714 403
internal_count=94 79 54
is_linear=0
shrinkage=0.02


end of trees

feature_importances:
uber_curr_item_price_w1=32
sem_ordersize_w2=19
sem_ordersize_v2=19
sem_ordersize_w1=17
sem_ordersize_v3=17
sem_mpo_w2=16
sem_ordersize_v4=15
uber_avg_margin_w1=15
sem_ordersize_v9=13
sem_ordersize_v5=10
sem_cpc_v5=9
sem_convrt_w1=8
sem_ctr_v5=8
site_rpv_w1=8
sem_convrt_v3=7
site_convrt_w2=7
sem_convrt_v2=6
sem_convrt_v4=6
sem_cpc_v9=6
site_convrt_w1=6
sem_clicks_w1=5
sem_qty_v2=5
sem_ctr_v3=5
sem_adspend_w1=4
sem_roas_w1=4
sem_mpc_w1=4
sem_mpo_w1=4
sem_impressions_v2=4
sem_rpc_v2=4
sem_mpo_v2=4
sem_impressions_v3=4
sem_ctr_v4=4
sem_ctr_v12=4
sem_mpo_v18=4
site_rpv_w2=4
site_total_revenue_w1=4
sem_cpc_v3=3
sem_rpc_v3=3
sem_clicks_v4=3
sem_ctr_v9=3
sem_convrt_v9=3
sem_margin_w2=2
sem_roas_w2=2
sem_ctr_w1=2
sem_ctr_v2=2
sem_mpc_v2=2
sem_clicks_v3=2
sem_adspend_v3=2
sem_qty_v3=2
sem_gmv_revenue_adjustment_v3=2
sem_impressions_v4=2
sem_qty_v4=2
sem_roas_v4=2
sem_gmv_revenue_adjustment_v5=2
sem_mpo_v5=2
sem_adspend_v9=2
sem_margin_v18=2
site_total_revenue_w2=2
sem_qty_w2=1
sem_gmv_revenue_adjustment_w2=1
sem_ctr_w2=1
sem_rpc_w2=1
sem_convrt_w2=1
sem_impressions_w1=1
sem_margin_w1=1
sem_adspend_v2=1
sem_orders_v3=1
sem_mpo_v3=1
sem_adspend_v4=1
sem_margin_v4=1
sem_mpo_v4=1
sem_impressions_v5=1
sem_clicks_v5=1
sem_adspend_v5=1
sem_roas_v5=1
sem_convrt_v5=1
sem_mpc_v5=1
sem_impressions_v9=1
sem_clicks_v9=1
sem_margin_v9=1
sem_mpo_v9=1
sem_qty_v12=1
sem_rpc_v12=1
sem_mpc_v12=1
site_total_page_views_w2=1
site_atcpv_w2=1

parameters:
[boosting: gbdt]
[objective: regression]
[metric: rmse]
[tree_learner: serial]
[device_type: cpu]
[data: ]
[valid: ]
[num_iterations: 4000]
[learning_rate: 0.02]
[num_leaves: 63]
[num_threads: -1]
[deterministic: 0]
[force_col_wise: 0]
[force_row_wise: 0]
[histogram_pool_size: -1]
[max_depth: 10]
[min_data_in_leaf: 20]
[min_sum_hessian_in_leaf: 0.001]
[bagging_fraction: 0.9]
[pos_bagging_fraction: 1]
[neg_bagging_fraction: 1]
[bagging_freq: 10]
[bagging_seed: 400]
[feature_fraction: 0.33]
[feature_fraction_bynode: 1]
[feature_fraction_seed: 30056]
[extra_trees: 0]
[extra_seed: 12879]
[early_stopping_round: 200]
[first_metric_only: 0]
[max_delta_step: 0]
[lambda_l1: 0]
[lambda_l2: 0]
[linear_lambda: 0]
[min_gain_to_split: 0]
[drop_rate: 0.1]
[max_drop: 50]
[skip_drop: 0.5]
[xgboost_dart_mode: 0]
[uniform_drop: 0]
[drop_seed: 17869]
[top_rate: 0.2]
[other_rate: 0.1]
[min_data_per_group: 100]
[max_cat_threshold: 32]
[cat_l2: 10]
[cat_smooth: 10]
[max_cat_to_onehot: 4]
[top_k: 20]
[monotone_constraints: ]
[monotone_constraints_method: basic]
[monotone_penalty: 0]
[feature_contri: ]
[forcedsplits_filename: ]
[refit_decay_rate: 0.9]
[cegb_tradeoff: 1]
[cegb_penalty_split: 0]
[cegb_penalty_feature_lazy: ]
[cegb_penalty_feature_coupled: ]
[path_smooth: 0]
[interaction_constraints: ]
[verbosity: -1]
[saved_feature_importance_type: 0]
[linear_tree: 0]
[max_bin: 255]
[max_bin_by_feature: ]
[min_data_in_bin: 3]
[bin_construct_sample_cnt: 200000]
[data_random_seed: 175]
[is_enable_sparse: 1]
[enable_bundle: 1]
[use_missing: 1]
[zero_as_missing: 0]
[feature_pre_filter: 1]
[pre_partition: 0]
[two_round: 0]
[header: 0]
[label_column: ]
[weight_column: ]
[group_column: ]
[ignore_column: ]
[categorical_feature: ]
[forcedbins_filename: ]
[precise_float_parser: 0]
[objective_seed: 16083]
[num_class: 1]
[is_unbalance: 0]
[scale_pos_weight: 1]
[sigmoid: 1]
[boost_from_average: 1]
[reg_sqrt: 0]
[alpha: 0.9]
[fair_c: 1]
[poisson_max_delta_step: 0.7]
[tweedie_variance_power: 1.5]
[lambdarank_truncation_level: 30]
[lambdarank_norm: 1]
[label_gain: ]
[eval_at: ]
[multi_error_top_k: 1]
[auc_mu_weights: ]
[num_machines: 1]
[local_listen_port: 12400]
[time_out: 120]
[machine_list_filename: ]
[machines: ]
[gpu_platform_id: -1]
[gpu_device_id: -1]
[gpu_use_dp: 0]
[num_gpu: 1]

end of parameters

pandas_categorical:[]
