tree
version=v3
num_class=1
num_tree_per_iteration=1
label_index=0
max_feature_idx=169
objective=regression
feature_names=is_mobile sem_impressions_w2 sem_clicks_w2 sem_adspend_w2 sem_qty_w2 sem_gmv_revenue_adjustment_brand_w2 sem_orders_brand_w2 sem_margin_brand_w2 sem_ctr_w2 sem_cpc_w2 sem_rpc_brand_w2 sem_roas_brand_w2 sem_convrt_brand_w2 sem_ordersize_brand_w2 sem_mpc_brand_w2 sem_mpo_brand_w2 sem_impressions_w1 sem_clicks_w1 sem_adspend_w1 sem_qty_w1 sem_gmv_revenue_adjustment_brand_w1 sem_orders_brand_w1 sem_margin_brand_w1 sem_ctr_w1 sem_cpc_w1 sem_rpc_brand_w1 sem_roas_brand_w1 sem_convrt_brand_w1 sem_ordersize_brand_w1 sem_mpc_brand_w1 sem_mpo_brand_w1 sem_impressions_v2 sem_clicks_v2 sem_adspend_v2 sem_qty_v2 sem_gmv_revenue_adjustment_brand_v2 sem_orders_brand_v2 sem_margin_brand_v2 sem_ctr_v2 sem_cpc_v2 sem_rpc_brand_v2 sem_roas_brand_v2 sem_convrt_brand_v2 sem_ordersize_brand_v2 sem_mpc_brand_v2 sem_mpo_brand_v2 sem_impressions_v3 sem_clicks_v3 sem_adspend_v3 sem_qty_v3 sem_gmv_revenue_adjustment_brand_v3 sem_orders_brand_v3 sem_margin_brand_v3 sem_ctr_v3 sem_cpc_v3 sem_rpc_brand_v3 sem_roas_brand_v3 sem_convrt_brand_v3 sem_ordersize_brand_v3 sem_mpc_brand_v3 sem_mpo_brand_v3 sem_impressions_v4 sem_clicks_v4 sem_adspend_v4 sem_qty_v4 sem_gmv_revenue_adjustment_brand_v4 sem_orders_brand_v4 sem_margin_brand_v4 sem_ctr_v4 sem_cpc_v4 sem_rpc_brand_v4 sem_roas_brand_v4 sem_convrt_brand_v4 sem_ordersize_brand_v4 sem_mpc_brand_v4 sem_mpo_brand_v4 sem_impressions_v5 sem_clicks_v5 sem_adspend_v5 sem_qty_v5 sem_gmv_revenue_adjustment_brand_v5 sem_orders_brand_v5 sem_margin_brand_v5 sem_ctr_v5 sem_cpc_v5 sem_rpc_brand_v5 sem_roas_brand_v5 sem_convrt_brand_v5 sem_ordersize_brand_v5 sem_mpc_brand_v5 sem_mpo_brand_v5 sem_impressions_v9 sem_clicks_v9 sem_adspend_v9 sem_qty_v9 sem_gmv_revenue_adjustment_brand_v9 sem_orders_brand_v9 sem_margin_brand_v9 sem_ctr_v9 sem_cpc_v9 sem_rpc_brand_v9 sem_roas_brand_v9 sem_convrt_brand_v9 sem_ordersize_brand_v9 sem_mpc_brand_v9 sem_mpo_brand_v9 sem_impressions_v12 sem_clicks_v12 sem_adspend_v12 sem_qty_v12 sem_gmv_revenue_adjustment_brand_v12 sem_orders_brand_v12 sem_margin_brand_v12 sem_ctr_v12 sem_cpc_v12 sem_rpc_brand_v12 sem_roas_brand_v12 sem_convrt_brand_v12 sem_ordersize_brand_v12 sem_mpc_brand_v12 sem_mpo_brand_v12 sem_impressions_v18 sem_clicks_v18 sem_adspend_v18 sem_qty_v18 sem_gmv_revenue_adjustment_brand_v18 sem_orders_brand_v18 sem_margin_brand_v18 sem_ctr_v18 sem_cpc_v18 sem_rpc_brand_v18 sem_roas_brand_v18 sem_convrt_brand_v18 sem_ordersize_brand_v18 sem_mpc_brand_v18 sem_mpo_brand_v18 uber_curr_item_price_w1 uber_num_appr_reviews_w1 uber_avg_overall_rating_w1 uber_price_change_ratio_w1 uber_price_change_value_w1 uber_avg_margin_w1 site_total_page_views_w2 site_total_add_to_carts_w2 site_total_orders_w2 site_total_revenue_w2 site_atcpv_w2 site_convrt_w2 site_rpv_w2 site_mpv_w2 site_total_page_views_w1 site_total_add_to_carts_w1 site_total_orders_w1 site_total_revenue_w1 site_atcpv_w1 site_convrt_w1 site_rpv_w1 site_mpv_w1 bc_bounces_w2 bc_visits_w2 bc_bounce_rate_w2 bc_sem_bounces_w2 bc_sem_visits_w2 bc_sem_bounce_rate_w2 bc_bounces_w1 bc_visits_w1 bc_bounce_rate_w1 bc_sem_bounces_w1 bc_sem_visits_w1 bc_sem_bounce_rate_w1
feature_infos=[0:1] [0:6785.2142857142835] [0:103.78571428571428] [0:39.510000000000012] [-20.571428571428573:12.5] [0:199.9428571] [0:1] [-280.18428571428569:199.94285714285712] [0.0018726591760299626:2] [0.01:1.3300000000000001] [0:1399.5999999999999] [0:26694] [0:14] [1.74:3499] [-1307.5266666666666:1399.5999999999999] [-405.698125:3498.9999999999995] [0:6744.5714285714284] [0:108.85714285714286] [0:42.315714285714272] [-2.5714285714285716:20.571428571428573] [0:199.85714300000001] [0:2] [-560.36857142857139:199.85714285714286] [0.0018726591760299626:2] [0.01:1.24] [0:513.90999999999997] [0:26694] [0:14] [1.98:1399] [-3922.5799999999999:513.90999999999997] [-212.25546058879391:1399] [0:9227.8571428571431] [0:176.07142857142861] [0:47.935000000000002] [-20.571428571428573:35.928571428571431] [0:199.9428571] [0:0.91071429999999998] [-256.31928571428568:199.94285714285712] [0.0010626992561105207:2] [0.01:1.3300000000000001] [0:1399.5999999999999] [0:13500] [0:4] [1.74:3499] [-581.82999999999981:1399.5999999999999] [-622.43999999999983:3498.9999999999995] [0:22102] [0:532.35714285714289] [0:216.15857142857143] [-4.5714285714285712:105] [0:279.9353643] [0:2.9294785999999999] [-628.18000000000018:125.73607857142858] [0.0015600624024960999:2] [0.01:1.8999999999999999] [0:787.97000000000003] [0:59999] [0:4] [2.6099999999999999:2870.37037037037] [-477.99000000000001:599.99000000000001] [-916.13348879070554:2870.3703703703704] [0:22747.571428571428] [0:593.5] [0:292.95928571428567] [-6.7142857142857135:116.21428571428572] [0:365.21528569999998] [0:2.9892929000000001] [-626.52357142857159:166.2252428571428] [0.0012529085376767493:2] [0.01:1.8999999999999999] [0:951.99000000000001] [0:59999] [0:4] [1.2202220222019999:1076.26] [-535.21000000000004:951.99000000000001] [-2053.4506866416973:951.99000000000001] [0:23368.357142857134] [0:400.28571428571433] [0:184.8692857142857] [-5.6428571428571423:69.785714285714292] [0:361.03985710000006] [0:1.8142856999999999] [-446.17785714285714:285.92214285714283] [0.0014302741358760429:2] [0.01:1.4739999999999998] [0:676.66335000000004] [0:26970] [0:4] [1.2202220222019999:4319.9899999999998] [-535.21000000000004:676.66335000000004] [-2053.4506866416973:4002.9099999999999] [0:18871.583333333328] [0:328.5] [0:182.71333333333337] [-3.25:46.833333333333343] [0:275.75520829999999] [0:1.8166667000000001] [-208.30583333333331:155.12354166666668] [0.00097925754473426516:2] [0.01:1.98] [0:1673.52] [0:167352] [0:4] [1.9199999999999999:1229.95] [-267.36000000000001:1673.52] [-1037.7531123443828:1229.95] [0:33826.571428571428] [0:231.35714285714286] [0:213.0107142857143] [-6.8571428571428577:28.285714285714285] [0:180.23168570000001] [0:2.2059000000000002] [-131.94299999999998:92.909492857142851] [0.00047862156987874921:2] [0.01:1.99] [0:736.78999999999996] [0:44936] [0:3] [1.0800000000000001:736.78999999999996] [-409.38:736.78999999999996] [-2963.7347893915758:736.78999999999996] [0:3831.9285714285716] [0:88.428571428571431] [0:40.445] [-0.5:16.357142857142858] [0:107.03928569999999] [0:1.5089286] [-68.085057142857153:99.222857142857137] [0.0046231474387763176:2] [0.01:1.677257142857143] [0:1498.55] [0:14985.499999999998] [0:3] [4.2699999999999996:1498.55] [-276.72000000000003:1389.1199999999999] [-573.55999999999972:1389.1199999999999] [0:35599] [0:0] [0:5] [0.99999999999999978:1.0000000000000002] [-3.637978807091713e-12:1.8189894035458565e-12] [0:35599] [1:327053] [1:25257] [1:1166033] [0:7940889.9100004826] [0.00015684121787205678:5] [4.2027401866016636e-05:12.415073775989267] [0:287.66000000000003] none [1:140791] [1:10698] [1:613930] [0:4259391.0300001223] [0.00015933715742511153:5] [0.00010602767322271112:12.275502799087706] [0:354.98750000000001] none [0:85497] [1:184569] [0:1] [0:1113] [0:2499] [0:1] [0:37718] [1:79202] [0:1] [0:421] [0:1022] [0:1]
tree_sizes=5454

Tree=0
num_leaves=48
num_cat=0
split_feature=42 15 82 16 19 143 143 23 1 143 38 23 136 106 48 136 136 48 15 99 1 108 48 47 108 108 143 58 114 69 37 136 1 30 99 160 160 160 1 1 35 1 1 1 47 1 1
split_gain=0.0812725 0.0284279 0.0215844 0.0240898 0.0235808 0.0138747 0.0559846 0.0110003 0.0145758 0.00725624 0.00539872 0.0247143 0.00984961 0.0363271 0.00531801 0.00498259 0.0309215 0.0102041 0.00501102 0.00293697 0.00231292 0.00184944 0.0110203 0.00821236 0.00419205 0.0208688 0.00606781 0.00162635 0.00133525 0.00128571 0.000920595 0.000816994 0.000439628 0.000409291 0.000373885 0.00242132 0.000527374 0.00012132 1.35525e-19 5.42101e-20 5.42101e-20 2.71051e-20 1.35525e-20 1.35525e-20 1.35525e-20 5.0822e-21 1.69407e-21
threshold=0.046164772727272756 121.5061510951095 2.5667857142857149 17.214285714285719 0.35714285714285715 872.50000000000011 900.00000000000011 1.2500000000000002 0.10714285714285715 7.5000000000000009 0.018214996682149969 0.010075630678645756 3.9850000000000008 7.5357142857142865 5.8407142857142862 156.99500000000003 161.87000000000003 0.015357142857142859 27.15666666666667 0.01013888888888889 603.25000000000011 0.035357142857142865 0.026071428571428575 0.10714285714285715 0.060714285714285728 0.060357142857142866 41.500000000000007 14.952500000000002 0.11833333333333335 0.16000000000000006 0.39946428571428577 10.575000000000001 603.25000000000011 41.390000000000008 0.15008064516129035 0.99734042553191504 0.17027121814355861 0.083398950131233607 5.3928571428571432 35.321428571428577 1.0000000180025095e-35 603.25000000000011 24.571428571428577 0.82142857142857151 0.10714285714285715 0.75000000000000011 1.1785714285714286
decision_type=10 10 8 8 10 10 10 10 8 8 10 8 8 10 10 10 8 8 10 8 10 10 8 8 10 10 10 8 8 8 10 8 10 8 8 10 10 8 10 8 8 10 10 10 8 10 10
left_child=5 2 39 9 29 7 -7 10 -9 -4 19 -12 13 38 15 18 -17 -18 28 20 -1 27 23 46 25 26 -24 31 -14 -5 34 -21 37 -32 35 -29 -36 -26 44 -2 -8 42 43 45 -13 -31 -23
right_child=1 -3 3 4 -6 6 40 8 -10 -11 11 12 14 -15 -16 16 17 -19 -20 21 -22 22 24 -25 32 -27 -28 30 -30 41 33 -33 -34 -35 36 -37 -38 -39 -40 -41 -42 -43 -44 -45 -46 -47 -48
leaf_value=0.0037173106002484336 0.0037173105958480729 0.006717310656652614 0.0065744534847106684 0.0043839772949944532 0.0048359546136728833 0.0087173107795280209 0.003717310595406169 0.0037173106002484336 0.0080028105630365123 0.0050506438913624236 0.006217310651239108 0.0037173106002484336 0.0039354924200193384 0.0054950884082762153 0.0039563030507113444 0.0087173107795280366 0.0053839773266749612 0.0037173105984768442 0.0039995686628907954 0.004109467478253903 0.00451731056846585 0.003717310597610708 0.0038423105986686128 0.0068126440243200942 0.0038415714703467323 0.0078083103939109617 0.0048937811483439446 0.0037491071013596258 0.003748337548944498 0.0037173106002484327 0.0038463428556075553 0.0037173105960809695 0.003885389030358882 0.0037658542857175606 0.0037601461590122441 0.0041428425154383768 0.0037291030504411167 0.0037173105967486723 0.0037173105963674005 0.0037173105971348521 0.0037173106002484336 0.0037173105980893586 0.0037173105975792549 0.0037173106000850738 0.0037173106002484336 0.003717310597610708 0.003717310600248434
leaf_weight=2.4285715371370316 4.428571492433548 2.2857143133878699 3.000000074505806 1.2857142686843872 25.285714626312256 1.1428571939468373 2.8571429252624512 0.71428574621677399 0.57142859697341808 2.1428571939468384 1.7142857462167738 1.0000000447034836 15.71428596973419 6.4285713732242575 75.71428394317627 0.57142859697341641 1.7142857909202573 10.285714566707609 35.428571596741676 7.285714149475095 3.5714285373687744 0.4285714328289032 22.857143476605422 0.85714286565780617 3.2857144027948371 0.571428582072257 2.4285714924335471 89.857144594192505 514.14286111295223 0.57142859697341364 44.285715103149414 3.0000000000000009 7.2857141494750968 58.857141196727753 278.00000973045826 6.7142858356237403 1029.7143070548773 72.285715103149414 12.285714298486708 8.2857142239809018 1.285714343190193 3.5714285373687753 2.1428571939468384 4.85714291036129 2.8571429848671022 0.4285714328289032 0.1428571492433548
leaf_count=2837 30 38 30 32 4 12 36 344 35 29 9 329 789 21 36 149 775 2900 33 78 1 201 3936 31 598 63 215 18535 60639 925 2 93 1 51 146607 1133 112641 4400 25 71 328 1 9 143 681 9 5
internal_value=0.00379317 0.00453104 0.0044418 0.0046546 0.00448136 0.00377488 0.00479839 0.00377254 0.00562198 0.00593953 0.00377151 0.00381896 0.00381288 0.00422364 0.00379869 0.00377804 0.00417186 0.00395541 0.00376929 0.00375182 0.0041935 0.0037502 0.00382933 0.00557451 0.0038064 0.00402871 0.0039433 0.00374445 0.00375389 0.00378398 0.00374274 0.00399509 0.00373702 0.00380041 0.00373851 0.00377648 0.0037357 0.00372271 0.00371731 0.00371731 0.00371731 0.00371731 0.00371731 0.00371731 0.00371731 0.00371731 0.00371731
internal_weight=0 58.2857 56 43.2857 38.1429 2318.29 5.28571 2313 1.28571 5.14286 2311.71 677.857 676.143 22.5714 653.571 577.857 12.5714 12 565.286 1633.86 6 1627.86 110.143 1.42857 108.714 25.8571 25.2857 1517.71 529.857 12.8571 1507.43 10.2857 82.8571 103.143 1404.29 96.5714 1307.71 75.5714 16.1429 12.7143 4.14286 11.5714 8 5.85714 3.85714 1 0.571429
internal_count=359890 1321 1283 1182 1123 358569 376 358193 379 59 357814 66386 66377 1056 65321 65285 3824 3675 61461 291428 2838 288590 9450 237 9213 4214 4151 279140 61428 1119 278969 171 4999 53 278916 19668 259248 4998 1035 101 364 1087 1086 1077 1010 934 206
is_linear=0
shrinkage=1


end of trees

feature_importances:
sem_impressions_w2=10
uber_curr_item_price_w1=4
site_total_add_to_carts_w2=4
sem_adspend_v3=3
sem_adspend_v12=3
bc_bounce_rate_w2=3
sem_mpo_brand_w2=2
sem_ctr_w1=2
sem_clicks_v3=2
sem_cpc_v9=2
sem_impressions_w1=1
sem_qty_w1=1
sem_mpo_brand_w1=1
sem_gmv_revenue_adjustment_brand_v2=1
sem_margin_brand_v2=1
sem_ctr_v2=1
sem_convrt_brand_v2=1
sem_ordersize_brand_v3=1
sem_cpc_v4=1
sem_margin_brand_v5=1
sem_impressions_v12=1
sem_cpc_v12=1

parameters:
[boosting: gbdt]
[objective: regression]
[metric: rmse]
[tree_learner: serial]
[device_type: cpu]
[data: ]
[valid: ]
[num_iterations: 4000]
[learning_rate: 0.02]
[num_leaves: 63]
[num_threads: -1]
[deterministic: 0]
[force_col_wise: 0]
[force_row_wise: 0]
[histogram_pool_size: -1]
[max_depth: 10]
[min_data_in_leaf: 20]
[min_sum_hessian_in_leaf: 0.001]
[bagging_fraction: 0.9]
[pos_bagging_fraction: 1]
[neg_bagging_fraction: 1]
[bagging_freq: 10]
[bagging_seed: 400]
[feature_fraction: 0.33]
[feature_fraction_bynode: 1]
[feature_fraction_seed: 30056]
[extra_trees: 0]
[extra_seed: 12879]
[early_stopping_round: 200]
[first_metric_only: 0]
[max_delta_step: 0]
[lambda_l1: 0]
[lambda_l2: 0]
[linear_lambda: 0]
[min_gain_to_split: 0]
[drop_rate: 0.1]
[max_drop: 50]
[skip_drop: 0.5]
[xgboost_dart_mode: 0]
[uniform_drop: 0]
[drop_seed: 17869]
[top_rate: 0.2]
[other_rate: 0.1]
[min_data_per_group: 100]
[max_cat_threshold: 32]
[cat_l2: 10]
[cat_smooth: 10]
[max_cat_to_onehot: 4]
[top_k: 20]
[monotone_constraints: ]
[monotone_constraints_method: basic]
[monotone_penalty: 0]
[feature_contri: ]
[forcedsplits_filename: ]
[refit_decay_rate: 0.9]
[cegb_tradeoff: 1]
[cegb_penalty_split: 0]
[cegb_penalty_feature_lazy: ]
[cegb_penalty_feature_coupled: ]
[path_smooth: 0]
[interaction_constraints: ]
[verbosity: -1]
[saved_feature_importance_type: 0]
[linear_tree: 0]
[max_bin: 255]
[max_bin_by_feature: ]
[min_data_in_bin: 3]
[bin_construct_sample_cnt: 200000]
[data_random_seed: 175]
[is_enable_sparse: 1]
[enable_bundle: 1]
[use_missing: 1]
[zero_as_missing: 0]
[feature_pre_filter: 1]
[pre_partition: 0]
[two_round: 0]
[header: 0]
[label_column: ]
[weight_column: ]
[group_column: ]
[ignore_column: ]
[categorical_feature: ]
[forcedbins_filename: ]
[precise_float_parser: 0]
[objective_seed: 16083]
[num_class: 1]
[is_unbalance: 0]
[scale_pos_weight: 1]
[sigmoid: 1]
[boost_from_average: 1]
[reg_sqrt: 0]
[alpha: 0.9]
[fair_c: 1]
[poisson_max_delta_step: 0.7]
[tweedie_variance_power: 1.5]
[lambdarank_truncation_level: 30]
[lambdarank_norm: 1]
[label_gain: ]
[eval_at: ]
[multi_error_top_k: 1]
[auc_mu_weights: ]
[num_machines: 1]
[local_listen_port: 12400]
[time_out: 120]
[machine_list_filename: ]
[machines: ]
[gpu_platform_id: -1]
[gpu_device_id: -1]
[gpu_use_dp: 0]
[num_gpu: 1]

end of parameters

pandas_categorical:[]
