tree
version=v3
num_class=1
num_tree_per_iteration=1
label_index=0
max_feature_idx=169
objective=regression
feature_names=is_mobile sem_impressions_w2 sem_clicks_w2 sem_adspend_w2 sem_qty_w2 sem_gmv_revenue_adjustment_seller_w2 sem_orders_seller_w2 sem_margin_seller_w2 sem_ctr_w2 sem_cpc_w2 sem_rpc_seller_w2 sem_roas_seller_w2 sem_convrt_seller_w2 sem_ordersize_seller_w2 sem_mpc_seller_w2 sem_mpo_seller_w2 sem_impressions_w1 sem_clicks_w1 sem_adspend_w1 sem_qty_w1 sem_gmv_revenue_adjustment_seller_w1 sem_orders_seller_w1 sem_margin_seller_w1 sem_ctr_w1 sem_cpc_w1 sem_rpc_seller_w1 sem_roas_seller_w1 sem_convrt_seller_w1 sem_ordersize_seller_w1 sem_mpc_seller_w1 sem_mpo_seller_w1 sem_impressions_v2 sem_clicks_v2 sem_adspend_v2 sem_qty_v2 sem_gmv_revenue_adjustment_seller_v2 sem_orders_seller_v2 sem_margin_seller_v2 sem_ctr_v2 sem_cpc_v2 sem_rpc_seller_v2 sem_roas_seller_v2 sem_convrt_seller_v2 sem_ordersize_seller_v2 sem_mpc_seller_v2 sem_mpo_seller_v2 sem_impressions_v3 sem_clicks_v3 sem_adspend_v3 sem_qty_v3 sem_gmv_revenue_adjustment_seller_v3 sem_orders_seller_v3 sem_margin_seller_v3 sem_ctr_v3 sem_cpc_v3 sem_rpc_seller_v3 sem_roas_seller_v3 sem_convrt_seller_v3 sem_ordersize_seller_v3 sem_mpc_seller_v3 sem_mpo_seller_v3 sem_impressions_v4 sem_clicks_v4 sem_adspend_v4 sem_qty_v4 sem_gmv_revenue_adjustment_seller_v4 sem_orders_seller_v4 sem_margin_seller_v4 sem_ctr_v4 sem_cpc_v4 sem_rpc_seller_v4 sem_roas_seller_v4 sem_convrt_seller_v4 sem_ordersize_seller_v4 sem_mpc_seller_v4 sem_mpo_seller_v4 sem_impressions_v5 sem_clicks_v5 sem_adspend_v5 sem_qty_v5 sem_gmv_revenue_adjustment_seller_v5 sem_orders_seller_v5 sem_margin_seller_v5 sem_ctr_v5 sem_cpc_v5 sem_rpc_seller_v5 sem_roas_seller_v5 sem_convrt_seller_v5 sem_ordersize_seller_v5 sem_mpc_seller_v5 sem_mpo_seller_v5 sem_impressions_v9 sem_clicks_v9 sem_adspend_v9 sem_qty_v9 sem_gmv_revenue_adjustment_seller_v9 sem_orders_seller_v9 sem_margin_seller_v9 sem_ctr_v9 sem_cpc_v9 sem_rpc_seller_v9 sem_roas_seller_v9 sem_convrt_seller_v9 sem_ordersize_seller_v9 sem_mpc_seller_v9 sem_mpo_seller_v9 sem_impressions_v12 sem_clicks_v12 sem_adspend_v12 sem_qty_v12 sem_gmv_revenue_adjustment_seller_v12 sem_orders_seller_v12 sem_margin_seller_v12 sem_ctr_v12 sem_cpc_v12 sem_rpc_seller_v12 sem_roas_seller_v12 sem_convrt_seller_v12 sem_ordersize_seller_v12 sem_mpc_seller_v12 sem_mpo_seller_v12 sem_impressions_v18 sem_clicks_v18 sem_adspend_v18 sem_qty_v18 sem_gmv_revenue_adjustment_seller_v18 sem_orders_seller_v18 sem_margin_seller_v18 sem_ctr_v18 sem_cpc_v18 sem_rpc_seller_v18 sem_roas_seller_v18 sem_convrt_seller_v18 sem_ordersize_seller_v18 sem_mpc_seller_v18 sem_mpo_seller_v18 uber_curr_item_price_w1 uber_num_appr_reviews_w1 uber_avg_overall_rating_w1 uber_price_change_ratio_w1 uber_price_change_value_w1 uber_avg_margin_w1 site_total_page_views_w2 site_total_add_to_carts_w2 site_total_orders_w2 site_total_revenue_w2 site_atcpv_w2 site_convrt_w2 site_rpv_w2 site_mpv_w2 site_total_page_views_w1 site_total_add_to_carts_w1 site_total_orders_w1 site_total_revenue_w1 site_atcpv_w1 site_convrt_w1 site_rpv_w1 site_mpv_w1 bc_bounces_w2 bc_visits_w2 bc_bounce_rate_w2 bc_sem_bounces_w2 bc_sem_visits_w2 bc_sem_bounce_rate_w2 bc_bounces_w1 bc_visits_w1 bc_bounce_rate_w1 bc_sem_bounces_w1 bc_sem_visits_w1 bc_sem_bounce_rate_w1
feature_infos=[0:1] [0:27842.357142857134] [0:804.14285714285711] [0:609.70928571428578] [-14.285714285714285:189.71428571428569] [0:697.9345857000003] [0:44.7639286] [-525.2397000000002:151.01571428571432] [0.00092850510677808728:3] [0.010000000000000002:2.1699999999999999] [0:1057.1099999999999] [0:64226] [0:96] [0:4228.4399999999996] [-1163.2:1099] [-4049.6999999999998:4228.4399999999996] [0:27041.428571428569] [0:782.14285714285711] [0:591.05857142857144] [-28.571428571428569:159.57142857142858] [0:624.78620000000001] [0:39.481929000000001] [-510.75665714285736:302.03142857142848] [0.00092850510677808728:3] [0.01:2.1699999999999999] [0:1057.1099999999999] [0:64226] [0:96] [0:4228.4399999999996] [-1163.2:1057.1099999999999] [-7605.8083832335342:4228.4399999999996] [0:44892.857142857145] [0:1244.9285714285713] [0:967.87928571428608] [-6.0714285714285712:193.35714285714286] [0:1402.5222214000007] [0:57.281807100000002] [-275.27571428571429:120.53834285714285] [0.0017406440382941688:2] [0.01:1.25] [0:606.32000000000005] [0:60632.000000000007] [0:38.5] [1.8400000000000001:729.99000000000001] [-543.09000000000003:279.72800000000001] [-9766.7444444444445:699.99000000000001] [0:53193.214285714275] [0:1984.7142857142856] [0:1605.4721428571427] [-4.5714285714285712:278.07142857142856] [0:2236.4803857000002] [0:79.433449999999993] [-660.75320714285738:331.78502142857138] [0.0016339869281045752:2] [0.01:1.45] [0:250] [0:8333] [0:21.375] [1.9201960097999999:1135.54] [-489.25999999999999:250] [-9766.7444444444445:1000] [0:56834.357142857145] [0:2020.5] [0:1671.4021428571432] [-6.4285714285714288:329.07142857142856] [0:2273.6226000000001] [0:88.255314299999995] [-520.33902857142857:831.47157857142872] [0.0013742556115437471:2] [0.01:1.3200000000000001] [0:281.79000000000002] [0:3996] [0:28.5] [0:1459.98] [-294:281.79000000000002] [-8188.7346938775509:1290.3533333333332] [0:41428.928571428572] [0:1237.2142857142858] [0:1042.0628571428572] [-3.8571428571428568:186.85714285714286] [0:2350.2252070999998] [0:66.388942900000004] [-505.91547857142882:672.58338571428578] [0.0014925373134328358:2] [0.01:1.5] [0:179.97999999999999] [0:9998] [0:8] [2.4216000000000002:926.76136905329406] [-294:179.97999999999999] [-4851.485148514852:699] [0:36607.916666666657] [0:1061.8333333333333] [0:355.04333333333329] [-2.1666666666666665:146.25] [0:652.60760829999981] [0:13.0645167] [-676.09107499999982:168.00684999999999] [0.00041450777202072539:2] [0.01:4.0449999999999999] [0:299.94] [0:14967.5] [0:6.5] [0.96999999999999997:895.01406475923397] [-827:208.41] [-3393.6558935361213:774.21782178217836] [0:30754] [0:730.71428571428578] [0:460.23500000000001] [-0.5714285714285714:99.571428571428569] [0:1062.3132714000001] [0:25.898021400000001] [-452.05108571428565:457.13541428571432] [0.00016524373450839988:2] [0.01:1.3607142857142858] [0:249.09] [0:12106.999999999998] [0:23] [1.1642298537910001:865.43677816109209] [-409.38:249.09] [-17704.969696969696:865.43677816109209] [0:4534.7857142857147] [0:209.64285714285717] [0:50.815000000000012] [-0.5:39.214285714285715] [0:146.92205709999999] [0:5.3211429000000008] [-210.45987857142865:23.326907142857145] [0.0043668122270742356:2] [0.01:3.4004102564102565] [0:133.31999999999999] [0:1976] [0:6] [2.4500000000000002:159.99000000000001] [-162.25:133.31999999999999] [-377.61359773371112:159.99000000000001] [0:169248.29999999999] [0:0] [0:5] [0.99999999999999978:1.0000000000000002] [-2.9103830456733704e-11:3.637978807091713e-12] [0:169248.29999999999] [1:327053] [1:25257] [1:282624] [0:1077133.0800000068] [0.00028951939779965256:3] [7.096728408203818e-05:8.48951048951049] [0:746.6633333333333] none [1:140791] [1:12089] [1:114986] [0:532627.50000000268] [0.0003714710252600297:3] [6.154224875376947e-05:8.5714285714285712] [0:746.6633333333333] none [0:85497] [1:184569] [0:1] [0:1113] [0:2499] [0:1] [0:37718] [1:79202] [0:1] [0:421] [0:1022] [0:1]
tree_sizes=6867 7178 7181 7182 7193 7220 7178 7191 7174 7206 7201 7179 7175 7221 7195 7186 7208 7180 7218 7214 7177 7231 6413 7169 7140 7184 7205 7199 7196 7170 7216 7136 7231 7178 7178 7190 7189 7207 7186 7151 5973 7187 5159 6586 7181 7220 7180 7213 7196 7166 7224 7165 7259 7204 7216 7217 7213 6577 7246 7186 7197 7198 7266

Tree=0
num_leaves=63
num_cat=0
split_feature=6 106 13 165 13 19 19 16 136 143 143 5 30 143 23 1 1 69 47 167 5 48 38 111 30 136 136 167 38 112 74 117 50 42 35 25 69 58 58 93 13 5 69 35 69 69 136 30 59 30 38 35 25 160 19 6 1 1 13 23 41 1
split_gain=1.48188 1.12318 0.852013 0.587721 0.166989 1.04312 0.217562 0.278748 0.163511 0.163228 0.155149 0.118593 0.105318 0.0955555 0.0961648 0.362652 0.338014 0.0817646 0.0722255 0.145499 0.0684582 0.0739664 0.118957 0.0590759 0.0544964 0.0522559 0.592216 0.429242 0.0841515 0.0459012 0.0375427 0.029141 0.0252301 0.0216438 0.0216388 0.0184678 0.017426 0.013506 0.116932 0.0113061 0.00678459 0.0205312 0.00667579 0.00623583 0.00507128 0.0160294 0.00412476 0.00306064 0.00213983 0.00133746 0.00086903 0.00148944 0.000779545 6.2799e-05 3.46945e-18 1.73472e-18 8.67362e-19 8.67362e-19 8.67362e-19 8.67362e-19 8.67362e-19 4.33681e-19
threshold=0.85378215000000013 472.25000000000006 25.930101596516504 1085.5000000000002 15.155000000000003 13.000000000000002 -0.21428571428571425 341.28571428571433 11.505000000000001 461.50000000000006 32.500000000000007 10.877092850000002 497.78741512075607 1.5000000000000002 0.0083045022471006109 54.142857142857146 52.178571428571438 0.37775000000000009 0.75000000000000011 1.5000000000000002 5.0474178500000013 0.069285714285714298 0.010315189633973329 0.073810750000000022 -147.64500000000001 163.99500000000003 151.09000000000003 1.0000000180025095e-35 0.0047301070598399124 1.0000000180025095e-35 -7.9690909090909079 0.20110294117647062 7.1417857500000004 0.077519809051270525 10.136121450000003 10.245000000000003 0.21697826086956526 40.272394434861006 37.923118339897009 2.7654166666666673 19.487500000000001 0.029082150000000008 1.0000000180025095e-35 2.4536607000000008 0.2050409836065574 0.18978260869565225 10.395000000000001 31.911546654665468 0.35946500000000009 -4.6780062308989505 0.016676599125943586 14.992542900000002 0.51879166666666676 0.27277311694860867 0.6428571428571429 4.0714285500000011 40.892857142857146 369.21428571428572 5.9900846330105013 0.0071086915537277159 1.3449058110515393 211.50000000000003
decision_type=10 10 8 10 8 10 10 8 10 10 10 8 10 10 8 8 10 10 8 10 10 8 10 10 8 8 10 10 8 10 8 10 10 8 10 10 8 8 8 10 8 8 10 10 8 10 8 8 10 10 8 10 8 8 10 10 10 10 10 10 8 10
left_child=1 4 -3 8 5 6 7 -1 10 11 17 18 13 37 15 16 56 36 19 24 21 22 -17 25 -8 26 30 -28 -27 -25 -16 34 -23 49 -20 -30 -2 38 42 40 41 -39 48 -43 45 -42 -31 -46 -6 -10 -35 55 -38 -4 60 58 59 -55 -52 -15 -44 -48
right_child=3 2 53 -5 12 -7 9 -9 33 -11 -12 -13 -14 14 23 20 -18 -19 31 -21 -22 32 -24 29 -26 28 27 -29 35 46 -32 -33 -34 50 -36 -37 52 39 -40 -41 44 43 54 -45 47 -47 61 -49 -50 -51 51 -53 -54 57 -56 -57 -58 -59 -60 -61 -62 -63
leaf_value=0.012724385055355419 0.012853545994468828 0.016232580887052241 0.012534513771851979 0.013329437105584947 0.01331677121495746 0.017185407876427042 0.013430520119783507 0.017331906130286366 0.012693448213278913 0.015012156897628569 0.01346473040599102 0.014679491721953436 0.01420719314052288 0.012483421185828035 0.013332477837830897 0.012483421188285155 0.015360133649218507 0.013223726879328435 0.012599879467794842 0.013904465821254031 0.013147561519099561 0.012512349780130078 0.014182097197251985 0.013971194797098746 0.012643689229833114 0.014983421229389889 0.012755160330337889 0.016194134775147088 0.012551553989144681 0.013197076364699778 0.012625594245435388 0.013311823534946187 0.01296587909593723 0.012483421191041727 0.013347057532261375 0.013169700604587557 0.012566388376165364 0.015526920987228724 0.016187124900812269 0.013099355924805586 0.012519734019396739 0.012483421192714787 0.012483421192471575 0.013594532322523917 0.012646157039155214 0.012967292158276326 0.012483421191010187 0.012502844316608374 0.012483421194932141 0.012744554195380408 0.012483421190020223 0.012643165597421593 0.012483421190388658 0.012483421190487076 0.012483421199382923 0.012483421193708507 0.012483421194269097 0.012483421196349639 0.012483421185573055 0.01248342119517707 0.012483421185532166 0.012483421191523994
leaf_weight=11.857142418622972 96.142858982086182 60.857143402099609 15.428571194410322 1920.4285637438297 5.714285582304 21.571428298950195 41.857143402099609 9.4285717010498029 380.57142162322998 12.428571894764898 248.57142342627048 12.142857551574705 16.28571417927742 15.28571449220181 30.285714581608772 36.000000089406967 41.714284092187881 142.99999618530273 1159.0000044107437 54.428570970892906 122.14285755157471 510.14285480976105 30.428571581840515 22.714286088943481 221.71428649127483 5.7142857313156128 26.285714596509933 32.428572282195091 3917.8571545183659 4.142857193946841 3912.8571667969227 24.142857372760773 54.285714864730835 164.57142835855484 15.714286148548124 19.428571656346321 82.714284420013428 1.1428571939468355 3.8571429252624503 13.142856791615484 162.57143071293831 9.428571477532385 20.428571566939354 2.5714285373687753 60.571430876851082 39.85714291036129 9.0000002831220609 3746.2858215123415 1.5714286267757414 443.57143920660019 11.71428567171097 44.714285373687744 100.14285483956337 8.8571430444717425 14.428570985794066 22.999999523162842 6.1428572684526435 16.714285731315613 14.142857030034063 5.4285715967416754 9.142857179045679 5.8571429252624503
leaf_count=35 13 3 45 21 18 2 1 29 10 13 24 1 28 131 37 29 8 8 2499 14 6 204 15 47 133 13 257 37 29074 22 35327 3 9 8 5 345 7 1 17 103 1628 393 59 1 784 323 69 287354 76 30 28 3 36 71 3 4 27 6 15 72 121 1
internal_value=0.0127382 0.0126383 0.0147312 0.0130877 0.0126236 0.0128174 0.0127571 0.0147653 0.0128229 0.0127294 0.0130684 0.0127108 0.0125999 0.0125978 0.0126349 0.012841 0.0142334 0.0128349 0.0126951 0.0129631 0.0127142 0.0126303 0.0132615 0.0126137 0.0127686 0.0126098 0.0126607 0.0146545 0.0125581 0.0133644 0.012631 0.012624 0.012556 0.0126709 0.0126099 0.0125546 0.0126356 0.012518 0.0128288 0.0125137 0.0125118 0.0129655 0.0125763 0.0127215 0.0125103 0.0126079 0.012639 0.0125051 0.013137 0.012721 0.0125111 0.0125598 0.012521 0.0125026 0.0124834 0.0124834 0.0124834 0.0124834 0.0124834 0.0124834 0.0124834 0.0124834
internal_weight=0 14601.3 101.857 3673.29 14499.4 1584.29 1562.71 21.2857 1752.86 1541.43 670.571 1529 12915.1 12898.9 8808.14 821.571 68.5714 422 1516.86 318 753 630.857 66.4286 7986.57 263.571 7944.86 4001.86 58.7143 3943 41.7143 3943.14 1198.86 564.429 1082.29 1174.71 3937.29 279 4090.71 55.1429 4035.57 4022.43 13.1429 51.2857 12 4009.29 202.429 19 3806.86 7.28571 824.143 258.143 93.5714 182.857 41 44 48.8571 26.8571 25.5714 25.8571 20.7143 29.5714 14.8571
internal_count=359706 359499 125 207 359374 2735 2733 64 186 2669 88 2656 356639 356611 65730 501 238 64 2655 148 263 257 44 65229 134 65090 35658 294 29432 139 35364 2507 213 98 2504 29419 56 290881 294 290587 290484 395 277 394 290089 1951 92 288138 94 40 58 50 43 122 183 47 230 77 43 203 180 70
is_linear=0
shrinkage=1


Tree=1
num_leaves=63
num_cat=0
split_feature=19 15 154 34 61 61 23 159 19 72 154 159 64 91 1 34 99 15 154 100 57 58 20 15 55 46 1 61 100 169 39 39 1 60 34 61 46 1 56 46 15 64 39 146 39 46 8 2 2 146 39 34 159 63 63 9 55 15 107 146 34 23
split_gain=1.21297 0.573363 0.351436 1.6655 0.237556 0.478318 0.469706 0.169964 0.167939 0.167099 0.144013 0.621477 0.161538 0.125925 0.109477 0.0936293 0.0929486 0.0919488 0.0888337 0.0713289 0.111815 0.0656069 0.167018 0.044692 0.0403144 0.0379632 0.0404735 0.0360014 0.0324718 0.0319929 0.0230651 0.0260632 0.02301 0.0222975 0.0171405 0.016192 0.0111515 0.0258994 0.00664246 0.00678933 0.00528835 0.0218623 0.00849109 0.00877796 0.0051242 0.0167362 0.0171513 0.00462303 0.00368031 0.00357707 0.00224185 0.00442278 0.00271524 0.00221451 0.0364595 0.00219523 0.00214469 0.00196057 0.00190727 0.00158341 0.00425886 0.00122712
threshold=29.857142857142861 -580.56999999999982 0.012356647249006852 18.678571428571434 12.035714285714288 10.250000000000002 0.014495937444283133 683.50000000000011 -0.21428571428571425 0.007252017234625951 0.013340961098398172 71.500000000000014 4.6071428571428585 185.58333333333334 52.178571428571438 0.10714285714285715 0.28510290556900736 -3.9324999999999997 0.016960215957870516 0.22994840525328333 0.0023211690760528004 4.3204272500000007 4.273571500000001 -11.856773949050178 0.13262635993899344 516.64285714285722 249.50000000000003 599.17857142857144 17.197500000000002 0.49285714285714294 0.16200000000000006 0.16000000000000006 78.321428571428598 14.995799579957998 0.8928571428571429 27.892857142857146 144.82142857142858 900.75000000000011 2.334521859360676 1181.464285714286 1.9591460000417105 0.25000000000000006 0.20888461538461542 0.034249833817759999 0.19989795918367348 121.03571428571429 0.0065083318507976051 0.53571428571428581 3.1071428571428581 0.020423904231958886 0.060000000000000012 1.0000000180025095e-35 55.500000000000007 0.013928571428571431 0.013214285714285717 0.13509259259259263 1.557035460992908 2.3299116551165509 10.214285714285717 0.0038095376309755327 1.0000000180025095e-35 1.3666666666666669
decision_type=10 8 10 10 8 10 10 10 8 10 10 10 10 10 10 10 8 10 10 10 8 10 10 8 10 10 10 10 10 10 8 10 10 10 8 8 8 10 10 10 10 10 8 10 8 8 10 10 10 10 8 8 10 8 10 10 10 10 10 8 8 10
left_child=1 -1 24 4 5 7 -7 8 -4 10 11 14 19 33 -6 -8 49 18 -9 23 -21 22 34 -12 28 26 -23 -27 36 30 31 -26 -30 -10 -18 -13 37 44 -32 56 50 42 48 -44 45 46 -3 -20 -42 -11 51 55 -53 54 -46 -38 -40 -55 -37 60 -52 -61
right_child=-2 2 3 -5 9 6 15 17 13 16 12 35 -14 -15 -16 -17 21 -19 47 20 -22 25 -24 -25 29 27 -28 -29 32 -31 38 -33 -34 -35 -36 58 40 -39 39 -41 41 -43 43 -45 53 -47 -48 -49 -50 -51 59 52 -54 57 -56 -57 -58 -59 -60 61 -62 -63
leaf_value=0.00076528811631873853 0.00049443231741016938 0.00075093125692936346 0.0015811810630130354 0.0042549437512091884 -0.00021804677068713646 0.0028929595049392281 -0.00018591142345953933 0.0017030461252368909 -0.00015379523308011687 -8.9952565242722103e-05 2.9885349979387098e-05 0.00027055873033935774 0.0041406822599476083 0.0023036708801716745 0.002620555486908161 0.0010849101242364349 -9.0344961952530545e-05 0.00094367671006092212 0.00032731987421273103 0.0007151418389230946 -9.9498760924249664e-05 0.00039995988166845604 0.001765664202667468 -0.00014746199979056033 -0.00025253381848723609 0.00059873733487504144 -4.4875883186341213e-05 0.0002074996682563103 -0.00025027477377238426 5.5665257456437886e-05 -0.00022194187398304159 0.00055357492802120658 0.0014007237162221419 0.00056219667650661412 0.00065697838760921242 -0.00024982086691048843 -0.00020875898303780824 0.00024759268407554673 -0.0001146277537015935 5.117641045831435e-05 -0.00025195747811293192 0.0014880993499517643 -0.00023197658141796599 0.00083403516377740907 -0.0002413508822979208 0.00074748802730436345 -0.00015887555809781067 -0.0001313638485529851 0.00019139660723271917 -0.00023482281186328302 0.00017522088035793823 0.00099896894027431569 -0.00025053633653955126 -0.00022932958148774639 0.002922472336489141 0.00019438756052125712 -0.00023976191384773138 -0.00013391245091673977 -1.6008786855070893e-05 -0.00023373457452023256 -0.00020137158416772639 3.9791495358997106e-05
leaf_weight=328.42857351899147 1730.8571307659149 8.4285715967416746 24.428571298718452 36.714284092187881 6.1428572982549658 50.428572207689285 43.142857119441032 12.71428571641445 676.71429067850113 117.71428698301315 635.14285379648209 31.14285671710968 3.5714285373687735 8.5714284926652891 47.142855405807495 50.142855584621429 48.571428894996643 124.28571338951588 9.8571431934833509 104.57142828404903 189.57142788171768 105.57142913341522 38.142856597900391 5407.4286136478186 28.000000089406967 125.571428835392 363.57142353057861 375.14285813271999 5.5714285373687735 434.85714499652386 546.42857336997986 37.57142972946167 8.5714285373687726 17.857143238186836 16.428571864962578 146.14285814762115 33.85714365541935 60 147.14285477995872 80.999997138977051 9.5714285373687726 3.2857143878936759 183.00000290572643 3.1428572833538047 20.000000447034839 8.5714285373687726 497.57143530249596 81.142857059836388 34.428570747375488 162.00000061094761 13.428571626543999 2.2857143878936763 1.0000000447034834 638.42857621610165 1.5714285969734181 6.4285713732242575 87.285713493824005 99.571431532502174 15.428571164608 4018.8572359085083 113.85714204609394 6.5714288502931586
leaf_count=37 8 2226 38 6 200 41 41 14 2726 46 268 5 39 17 3 8 50 18 155 81 263 168 2 75083 109 13 24 63 92 28 68 2 2 65 27 493 1439 4 33 12 176 3 1607 150 848 9 1504 36 2 207 35 74 7 4005 71 10 212 39 5 263951 436 2302
internal_value=0 -6.20253e-05 -7.87819e-05 3.80769e-06 -1.34608e-05 0.000262087 0.00133785 0.000100297 -4.90185e-05 -5.1615e-05 -9.3198e-05 0.000381587 -0.000111619 -0.000105655 0.00229332 0.000497179 0.00015085 0.00057678 0.00013711 -0.000114016 0.000190116 0.000235496 0.000715052 -0.000128821 -0.00018375 0.000184496 5.52257e-05 0.000305616 -0.000206825 -8.58781e-05 -0.000152246 0.000209354 0.00075033 -0.000135387 9.8539e-05 -0.000147008 -0.000209174 -0.000158483 -0.000179757 -0.000106678 -0.000224441 -0.000131788 -0.000154915 -0.000213978 -0.000177605 -0.000128875 -0.000143721 -8.16791e-05 9.49527e-05 -0.000173856 -0.000229595 -8.6881e-05 0.000618685 -0.000210617 -1.08737e-05 -0.000144427 -0.000161219 -0.000216456 -0.000227494 -0.000231092 -0.000161641 -0.000233288
internal_weight=0 16543.7 16215.3 9075 9038.29 1099.29 143.714 955.571 727.571 7939 6586.29 246 6340.29 703.143 53.2857 93.2857 1352.71 228 103.714 6336.71 294.143 1073 103.143 6042.57 7140.29 969.857 469.143 500.714 5778 1362.29 927.429 65.5714 14.1429 694.571 65 192.714 5763.86 1334.14 861.857 315.429 4429.71 233.429 230.143 186.143 1274.14 514.571 506 91 44 279.714 4196.29 43.5714 3.28571 759.571 21.5714 40.2857 234.429 738 161.571 4152.71 127.286 4025.43
internal_count=359706 359698 359661 80205 80199 3159 90 3069 2846 77040 76440 706 75734 2808 203 49 600 223 205 75695 344 347 79 75351 279456 268 192 76 278992 464 436 111 94 2791 77 503 278898 8706 325 257 270192 1938 1935 1757 8702 3739 3730 191 178 253 268254 1530 81 4963 919 1449 245 4044 498 266724 471 266253
is_linear=0
shrinkage=0.02


Tree=2
num_leaves=63
num_cat=0
split_feature=5 156 98 19 148 140 145 144 148 9 11 144 145 5 2 144 29 19 67 2 38 69 69 89 2 41 145 41 97 58 111 58 142 29 146 2 143 77 98 69 142 16 2 9 11 69 16 61 16 61 146 89 31 141 114 114 83 11 2 2 41 111
split_gain=1.165 0.800887 0.458709 1.39847 0.214108 0.247423 0.63331 0.192758 0.146169 0.53819 0.155953 0.175119 0.21671 0.142765 0.335299 0.112163 0.0964191 0.995348 0.0770944 0.0779677 0.0684407 0.0659036 0.0595591 0.0572716 0.0530281 0.0507253 0.073347 0.0494931 0.0494103 0.0439841 0.0370074 0.0377717 0.0795968 0.0368024 0.0227991 0.0245726 0.0167151 0.0105642 0.0186351 0.00933444 0.00736978 0.00970439 0.00574274 0.0146984 0.00543099 0.0527916 0.00525065 0.00517787 0.00474329 0.00380957 0.00374026 0.0035784 0.00185125 0.00571983 0.000185394 0.000381419 0.000184168 0.000109031 0.0001262 0.000295946 4.99226e-05 2.16848e-05
threshold=28.721982150000006 1.7411606708799228 0.005251806051729928 4.3571428571428585 0.12937034813925571 2.1316282072803012e-14 154.52000000000007 16.500000000000004 8.128208333333335 0.72166666666666679 0.3004835002682657 51.500000000000007 1481.8199999999995 0.32325715000000005 3.8214285714285716 21.500000000000004 -2.0273314606741573 13.000000000000002 -15.923210714285714 7.8571428571428585 0.0065880370072987429 0.35303652968036531 0.3650000000000001 2.8287030339805832 27.000000000000004 9.1464361864148653 7.1949999999999994 1.0000000180025095e-35 6.8421375000000006 4.5976190476190011 0.29761785000000013 39.460000000000001 570.50000000000011 -11.033999999999997 0.002826189981735598 78.607142857142875 26.500000000000004 0.25000000000000006 0.013616138279211059 0.98530120481927719 1.5000000000000002 0.50000000000000011 0.17857142857142858 0.32970674486803525 4.2522128993591819 0.13348484848484851 2499.2142857142862 34.821428571428577 1246.214285714286 1.392857142857143 0.0052770815928710668 -3.5043518518518506 39.750000000000007 70.440000000000012 0.1781666666666667 0.18000000000000002 0.090730766431326895 2.4459512244563819 1.0357142857142858 1.3214285714285718 14.693848322743355 0.29761785000000013
decision_type=10 8 8 8 10 10 10 8 10 10 10 10 10 10 8 8 8 10 8 10 8 10 8 10 10 10 10 8 10 8 10 10 10 8 8 10 10 8 8 8 10 8 10 10 10 8 10 10 10 8 8 8 8 10 10 8 10 8 8 10 10 10
left_child=2 -2 3 39 16 8 -7 -3 10 40 18 13 21 14 36 46 17 28 19 -6 -15 24 47 -22 -13 29 42 -24 52 -18 31 33 -33 -20 35 -31 -12 38 48 -1 41 -10 43 -27 49 -46 57 -14 -36 -39 -40 -42 53 -4 61 -56 -54 -8 -59 -60 -44 -53
right_child=1 7 4 -5 5 6 15 -9 9 -11 11 12 22 20 -16 -17 25 -19 30 -21 23 -23 27 -25 -26 26 -28 -29 -30 34 -32 32 -34 -35 37 -37 -38 44 50 -41 51 -43 60 -45 45 -47 -48 -49 -50 -51 -52 54 56 -55 55 -57 -58 58 59 -61 -62 -63
leaf_value=-0.00024659177072665898 8.9128415086778268e-05 0.00051576766565406842 -0.00024861679286734535 0.0034092022138317792 -0.0002613389107452074 0.0033268242743407397 -0.00024919879284509221 0.0010397018046128927 0.003250025998799832 0.0024990280613570374 -0.00016947017571518517 -0.00021841204359668219 5.798512543793167e-05 0.00053335572169394181 0.004470223456578588 0.0018881779203467229 0.00023187411234683843 0.0042881279303051091 0.00062353396489252266 0.004057868614748654 -9.5217658649054263e-05 0.0017100998189034172 0.00086214954398225463 0.00051808906110375553 0.0010794892309771123 -0.00024566462562242245 0.0017615592621735233 0.00024104773204151262 0.0016133534908294679 -0.00024622915770439549 0.00059916926098278072 0.00095241130302895763 -5.8996545789353825e-05 -0.00012458885980806456 -4.5095353654006553e-05 0.00020732229505965923 0.0017434494981631787 -8.8331341534154479e-05 -4.9501431090044391e-05 6.5595011952649588e-05 0.00046358073751131678 -0.00024676254964936263 -0.00018347055050733709 0.0041812806409470089 0.0024784569938877993 -0.00014997923217428152 0.00010463059678233574 -0.00016992864882543543 0.00023415899727329434 -0.00021910934834784281 -0.00020977606398954606 -0.00024607074701612434 -0.00024839331637890058 0.00046672913198805513 8.3770703703823178e-05 -0.00024689559845658102 -0.00013959744806819186 -0.00025259529057602477 -0.00024635639199360851 0.0001854373361906108 -0.00025153644291658997 -0.00014499228458859239
leaf_weight=106.42856959998608 1672.1428356915712 557.85714642703533 16.428571745753292 60.857143402099609 3.1428572833538055 31.142857998609543 64.714285671710968 565.71428394317627 0.57142859697341797 41.99999837577343 21.142857238650326 17.14285734295845 58.000000402331352 78.142856478691101 9.4285717010498029 12.142857551574705 95.85714016854763 21.857142567634583 26.428572207689285 3.5714285373687744 1618.1428613066673 48.571428298950195 60.428572371602058 63.285711839795113 47.428569793701172 1.000000044703486 12.999999657273291 340.42857776582241 5.9999999999999991 83.571427091956139 29.4285718947649 40.71428582072258 132.14285680651665 5495.714313596487 40.285714566707611 111.57142639160156 2.0000000596046439 90.57143047451973 71.285712793469429 59.857143715023994 3 0.7142857462167741 6.2857143282890346 0.42857143282890309 3.1428572237491608 111.28571678698063 23.285715103149414 127.57143001258373 61.428571701049805 5476.1429706811905 318.28571915626526 89.142859533429146 195.28571590781212 6.1428571939468375 2.1428570747375488 4.0000001192092887 6.428571254014968 2.5714285373687735 1.4285714626312256 1.1428571939468384 13.714285939931868 0.8571428656578054
leaf_count=30 37 25 86 40 98 28 297 20 221 17 237 107 37 8 1 17 12 7 354 1 3171 3 34 10 1 244 17 185 1 220 44 102 114 59223 52 1 12 2294 17 27 4 86 9 7 2 1824 1 27 3 281717 3605 3023 1726 15 3 74 6 18 49 1 50 4
internal_value=0 0.000366609 -7.69995e-05 0.000815153 -9.02863e-05 -2.35155e-05 0.000821344 0.000779567 -3.72943e-05 0.000597935 -4.82971e-05 8.37981e-05 0.000352158 -2.09573e-05 0.00129106 8.02389e-05 -0.000174385 0.000209341 -0.000105728 0.00203611 -4.52441e-05 0.00115355 0.00019754 -7.2134e-05 0.000734914 -0.000189275 0.000576373 0.000334678 -0.000177789 -0.000193353 -0.00010824 -0.000111896 0.000179228 -0.000121008 -0.000199755 1.30854e-05 -4.15613e-06 -0.000206484 -0.000117508 -0.000134215 -0.000197117 0.00130737 -0.00014264 0.00108242 -0.000214178 -7.77875e-05 -0.000155459 -9.86946e-05 0.000123555 -0.000216982 -0.000180448 -0.000216627 -0.000225705 -5.3934e-05 -0.000237852 -0.000131547 -0.000244926 -0.000242155 -0.000153522 -5.44481e-05 -0.000230144 -0.000245108
internal_weight=0 2795.71 15478.9 227.143 15251.7 8501.71 136.429 1123.57 8365.29 142.429 8222.86 2491.71 699.571 1792.14 32.5714 105.286 6750 252.143 5731.14 6.71429 1759.57 113.143 586.429 1681.43 64.5714 6497.86 34.4286 400.857 230.286 6463.43 5724.43 5695 172.857 5522.14 6367.57 195.143 23.1429 6172.43 491.286 166.286 100.429 1.28571 21.4286 1.42857 5681.14 114.429 93.1429 185.571 101.714 5566.71 389.571 99.1429 224.286 22.5714 96.1429 6.14286 201.714 69.8571 5.14286 2.57143 20 90
internal_count=359706 82 359624 97 359527 67612 411 45 67201 3432 63769 3833 394 3439 250 383 291915 1841 59936 99 3189 111 283 3181 108 290074 327 219 1834 289747 59837 59793 216 59577 289735 221 249 289514 3677 57 3415 307 310 251 285837 1826 366 64 55 284011 3622 3108 1833 101 3104 77 1732 365 68 50 59 3027
is_linear=0
shrinkage=0.02


Tree=3
num_leaves=63
num_cat=0
split_feature=4 107 107 12 151 19 12 37 28 147 13 147 4 23 151 147 23 47 104 84 147 19 162 109 154 22 103 60 37 61 63 98 98 153 153 155 59 54 18 162 22 57 61 54 54 54 59 162 54 61 142 77 154 104 18 13 153 23 18 165 59 91
split_gain=1.37795 0.440546 1.34719 0.309317 0.308418 0.170263 0.295737 0.138379 0.116309 0.0972828 0.190895 0.142362 0.757067 0.153794 0.319565 0.121841 0.192334 0.0753102 0.0703292 0.0584319 0.058317 0.0514777 0.0400942 0.0329616 0.0325761 0.0642407 0.057193 0.0575644 0.0315748 0.0293301 0.0287696 0.0275807 0.0239213 0.0231592 0.131486 0.0178276 0.0168967 0.0161489 0.0338266 0.0160054 0.0136172 0.0131723 0.0140009 0.0123206 0.0121668 0.129859 0.0138793 0.0101814 0.00882997 0.014423 0.0426662 0.00803161 0.00677295 0.00587353 0.0085174 0.00415379 0.00316352 0.00253424 0.0019964 0.00169944 0.00168829 0.00151264
threshold=15.535714285714286 4.4642857142857153 4.7500000000000009 0.013521432794223203 18.500000000000004 -0.21428571428571425 0.090910795454545459 1.0000000180025095e-35 6.5550000000000006 0.0023612783799455829 9.695484548455001 0.0027567208131471454 2.9642857142857149 0.0083045022471006109 1.5000000000000002 0.047635651192136551 0.0071086915537277159 4.9642857142857153 1.1550427350427355 0.56062500000000015 0.0068752156629182685 0.2142857142857143 17.500000000000004 1.0000000180025095e-35 0.025653364921892356 -45.572585714285701 89.413455664269009 -68.264148709628344 -22.890049999999999 0.25000000000000006 0.0075000000000000015 0.021287925135386222 0.0062349885024045332 14.995000000000003 13.505000000000001 0.052702798945944027 2.5822727272727279 0.20449494949494953 20.420000000000005 120.50000000000001 3.5695928571428577 0.14448370786516859 432.78571428571439 0.098869047619047634 0.17987804878048783 0.17839743589743592 -6.2013636363636353 4.5000000000000009 0.18007812500000003 1.7500000000000002 72.500000000000014 0.17857142857142858 0.0051880761725321325 -0.86625380145909325 7.3557142857142859 246.98373012268254 510.92000000000002 0.029421454503171806 6.1857142857142859 300.50000000000006 -4.2286249999999983 845.08333333333337
decision_type=10 10 10 10 10 10 10 8 8 10 8 10 10 8 8 10 10 8 10 8 10 10 10 10 10 8 10 8 10 8 10 8 8 8 10 10 10 8 10 10 10 10 8 8 8 8 8 8 10 8 10 8 8 8 8 10 10 10 10 10 10 10
left_child=1 3 -3 9 5 6 -5 8 -6 10 -1 12 32 14 -13 20 -17 30 22 -10 21 -16 29 35 39 -26 27 -27 47 -7 -9 -21 -11 34 -31 56 -35 38 48 44 57 53 -43 -33 45 -15 -46 -4 52 50 -50 -51 -12 54 58 -34 -19 -37 -39 -22 -54 -58
right_child=-2 2 28 4 7 18 -8 17 19 11 37 13 -14 24 15 16 -18 23 -20 31 59 -23 -24 -25 25 26 -28 -29 -30 33 -32 43 55 36 -36 40 -38 41 -40 -41 -42 42 -44 -45 46 -47 -48 -49 49 51 -52 -53 60 -55 -56 -57 61 -59 -60 -61 -62 -63
leaf_value=0.00059615635039625479 0.00047539532390555091 0.0033410180379212246 0.00043630845778989014 0.004380818876185015 0.0010967101178450426 0.001131557229018691 -0.00025062816098007657 0.00081126585827939344 0.00084521813121673898 0.0003514611124992371 8.9465141453561156e-05 0.0015880613065655685 0.0033614668748567634 -0.00011453754024575002 -7.092687414787864e-05 0.002203014953896393 -0.00024997618409399808 -7.1568786640532036e-06 0.0012938883322594647 0.00051619959000428724 -0.00023410749045966374 0.00077537415443223654 0.0011911104948516282 0.00039678565681718959 0.00070403469818865975 0.00095777990467886 0.0011052406107598376 -9.7054705920676958e-05 -0.0002096114722658787 -0.0001994339433758611 0.00025322073503896157 0.00031661479781284698 -0.00024442225264849772 -0.00012609484089244797 0.0010213161128792827 -0.00025775889030021882 0.00029974363767014915 -0.00024197657216210502 0.00020317584787631743 0.0010390182752198708 0.00065302138516535918 -0.00024860394586966419 0.0003575678670388314 -8.9607329744078909e-05 0.00030586989176305398 0.0023715396752785126 -0.0001828928257847973 9.4668628855286877e-05 -0.00024575215806671343 0.00010883490386976654 0.0019439044774417938 -0.00020906870082323991 4.3935846105479759e-05 -0.00022099627024072804 0.00048304843525065006 1.728653499848395e-06 -0.00022786029470528419 0.00011054065031708558 7.8726652914157708e-06 -0.00012139996047958304 -0.00022392196916042059 -0.00011703505212713246
leaf_weight=122.42857056856155 2081.8571335077286 60.857143402099609 58.714284688234329 9.4285717010498065 150.1428547501564 7.8571428656578064 13.285714045166968 80.142857402563095 90.142858237028122 45 29.857143238186836 61.714284256100655 30.285715103149414 431.14286006987095 61.857143595814705 25.57142873108387 25.571428298950195 56.714283660054207 15.000000074505804 86.428569078445435 225.71428710222244 53.714284181594849 9.8571427613496763 77.714287921786308 42.285714834928513 20.857142865657806 16.142857030034065 2646.4286012649536 116.00000058114529 134.42857487499714 68.571429237723351 46.428570687770844 102.57142989337444 1630.8571463674307 47.857141643762589 9.2857146114110929 38.142855450510979 29.285713821649551 111.57142639160156 4.4285714179277411 20.714286133646965 28.428571671247482 32.857143729925156 83.714286223053932 23.428571179509163 8.5714287757873517 2884.285718113184 86.000002384185791 9.8571431189775449 48.57142835855484 5.571428731083869 92.000000819563866 9.5714284777641279 5020.8572472929955 10.857142448425291 37.428569793701172 106.42857213318348 38.285715043544769 22.714284896850586 70.142856568098068 566.42857451736927 91.714285850524902
leaf_count=12 12 7 75 5 24 17 169 10 25 2 29 44 1 1004 53 36 28 27 15 5 187 7 5 14 9 37 43 42762 97 915 41 9 233 4992 133 16 12 99 1 20 33 73 43 53 16 3 22156 50 201 28 16 519 55 280699 84 1 59 125 1 30 4227 2
internal_value=0 -7.12232e-05 0.000661654 -8.60723e-05 0.000100143 -4.9366e-05 0.00167186 0.000383394 0.000640608 -0.000127936 -0.000185675 -7.59255e-05 0.000430192 -9.24299e-05 0.000236231 5.58759e-05 0.000976519 0.000169572 -7.01178e-05 0.000417337 -5.85652e-05 0.00032241 -8.10648e-05 2.69695e-05 -0.000120782 -6.94348e-05 -8.16232e-05 -8.88063e-05 3.6224e-05 -8.78099e-05 0.000553954 0.000239242 -4.96772e-05 -9.29851e-05 0.000121061 -6.19695e-05 -0.000116363 -0.000201579 -0.000122066 -0.000162537 0.000225018 -0.000215077 7.63833e-05 5.53127e-05 -0.000164127 -6.6076e-05 -0.000178955 0.000233281 -0.000169696 -3.55137e-05 0.000544957 -9.9224e-05 -0.000204246 -0.000218591 -2.64586e-05 -0.000178615 -0.000138864 3.86503e-05 -0.000132839 -0.000207386 -0.000219471 -0.000176563
internal_weight=0 16192.7 321.571 15871.1 2913.14 1906.71 22.7143 1006.43 456.857 12958 6140.86 6817.14 215.286 6601.86 524.286 462.571 51.1429 549.571 1884 306.714 411.429 115.571 1869 400.857 6077.57 2725.71 2683.43 2667.29 260.714 1859.14 148.714 216.571 185 1851.29 182.286 323.143 1669 6018.43 873.429 3351.86 68.2857 5145 61.2857 130.143 3347.43 439.714 2907.71 144.714 761.857 156 15.4286 140.571 605.857 5083.71 62.8571 140 254.857 47.5714 52 295.857 576 198.143
internal_count=359706 359694 229 359465 6706 6263 174 443 116 352759 286087 66672 237 66435 385 341 64 327 6089 92 277 60 6074 276 66050 42851 42842 42799 222 6069 51 67 236 6052 1048 262 5004 286075 5076 23199 174 280999 116 62 23179 1007 22172 125 5075 764 217 547 4311 280883 184 234 88 141 100 217 4282 61
is_linear=0
shrinkage=0.02


Tree=4
num_leaves=63
num_cat=0
split_feature=36 45 152 152 12 88 152 63 144 140 63 152 101 5 3 144 106 52 167 33 20 5 152 3 3 12 152 103 57 140 99 44 17 64 16 63 44 7 78 17 43 63 63 140 93 78 140 99 64 99 97 33 7 33 3 5 144 97 5 16 169 17
split_gain=1.28153 0.882749 0.872553 0.263726 0.195418 0.123464 0.108381 0.146003 0.107934 0.132283 0.623013 0.105555 0.103823 0.0603499 0.0846424 0.0494812 0.0561948 0.0407157 0.037712 0.0334584 0.0280859 0.0437437 0.0273228 0.0637298 0.177017 0.0339194 0.0575069 0.0251544 0.0229817 0.0214478 0.0193574 0.0169705 0.0138492 0.010486 0.00584241 0.00534944 0.00384613 0.00749987 0.00385286 0.0115588 0.00628291 0.00346953 0.0257109 0.0258301 0.0227099 0.003112 0.00446905 0.00337078 0.00275501 0.00246188 0.0104055 0.00181318 8.47343e-05 3.01298e-05 0.000333617 2.24888e-05 1.64653e-05 1.18313e-05 3.35983e-06 1.4987e-06 5.68304e-07 2.79192e-08
threshold=1.1090535500000003 -596.19299999999987 13.500000000000002 145.50000000000003 0.012386180124223602 289.54000000000002 31.500000000000004 0.013214285714285717 1692.0000000000002 2.1316282072803012e-14 0.054642857142857153 37.500000000000007 5.3421759127952049 0.88702500000000006 0.77821428571428575 1431.0000000000002 16.178571428571434 -16.884442857142854 12.500000000000002 7.9360714285714282 8.1828575000000026 4.8525 6.5000000000000009 0.63821428571428584 0.58750000000000002 0.0051097065063649008 2.5000000000000004 89.413455664269009 0.077349871794871808 -2.6645352591003753e-15 0.14334699453551916 -1.0000000180025095e-35 4.5000000000000009 0.60714285714285732 238.92857142857144 6.9789285714285727 -18.167499999999997 -1.0000000180025095e-35 0.039642857142857153 11.785714285714288 8.115000000000002 0.014642857142857145 0.013214285714285717 1.332267629550188e-15 0.017083333333333336 0.038214285714285721 -1.0000000180025095e-35 0.37937500000000007 -1.0000000180025095e-35 0.82564102564102571 -2.3887499999999995 0.19178571428571431 1.0125000000000004 1.0000000180025095e-35 0.031785714285714299 34.776175000000009 3748.0000000000005 -0.10889166666666675 0.39715355000000002 38.357142857142868 0.50781250000000011 0.6428571428571429
decision_type=10 8 8 8 10 10 10 8 8 10 8 10 10 10 8 10 10 8 10 10 10 10 8 8 10 10 10 10 10 8 8 10 10 10 10 10 8 10 8 10 8 8 10 10 8 8 10 10 8 10 10 8 10 10 8 10 10 8 10 8 8 8
left_child=1 -1 33 -4 8 6 7 -6 9 15 -11 -8 18 14 34 17 61 19 20 58 30 -22 25 24 -24 29 -27 -25 31 -19 -9 32 -15 -2 56 52 37 -10 39 40 -38 42 53 44 -44 47 -47 -42 -43 51 -51 -50 55 54 -40 59 -13 -33 -3 -12 -55 -17
right_child=2 4 3 -5 5 -7 11 12 36 10 35 13 -14 28 -16 16 -18 22 -20 -21 21 -23 23 27 -26 26 -28 -29 -30 -31 -32 57 -34 -35 -36 -37 38 -39 41 -41 45 48 43 -45 -46 46 -48 -49 49 50 -52 -53 -54 60 -56 -57 -58 -59 -60 -61 -62 -63
leaf_value=0.0011151701057308689 -8.5580740264177475e-05 -0.00024227069181733597 0.00043080931079100831 0.00090392295482023713 0.0013187955206181992 0.0015941306282884254 0.0013549812860187333 0.00033961333406871784 -0.000237960552630063 0.0028664750899120247 -0.0002456155056055388 -0.00027366284550096875 0.00088916407841583406 -0.00026074022969903082 0.0024804949156261745 -0.00024409172683202696 0.0044960337877273538 3.4027123330610554e-05 0.0011888849159081359 0.00073819342489444195 0.00032340097306487358 -4.1616949814661271e-05 4.6922446353218056e-06 -0.00014438727552933871 0.0015288833161625564 -0.00016016983420594956 0.00031017943462027179 0.00039527997983077636 0.00042314856037310001 -0.0001765818828672324 -0.00015644610781235843 -0.00024116034975861671 0.00021978792677528123 -0.00022380569321733528 0.00083200568400496489 0.00010395651672521778 0.001201082520875416 0.0014203374319241694 -0.00024054705839292968 0.00019835304569553684 -0.00023428639853476208 7.7152124940075971e-06 0.0020896468603824616 0.0035506629999868082 -0.00024681218704760848 -0.00023685485137754176 0.0016735707065015342 0.00014700227160725221 -0.00018256451843063116 0.0004733874709375584 -0.0002381555524271211 -0.00021937522642958917 -0.00015493445831591296 -0.00024695608576248961 0.00047467742321592016 -0.00020996011092245102 -0.00020406290796972309 -0.00026092672254243282 -0.00025896624928993208 -0.00023848948386815565 -0.00024021336267014145 -0.00025084460080550828
leaf_weight=242.57142652571201 488.28570874035358 12.857142806053163 1286.1428350061178 743.85715483129025 32.428571730852127 20.714284896850586 37.142856582999229 32.571428388357162 3.000000074505806 34.42857226729393 14.142857223749159 6.5714287012815493 47.714285776019096 27.714286476373672 11.142857551574705 1.7142857909202569 1.9999999999999998 206.28571639955044 9.7142856121063215 41.428571701049805 151.8571445196867 971.28571449220181 1429.0000217556953 2040.5714169889688 31.142856881022453 265.28570978343487 170.99999971687794 35.142856359481812 107.28571723401546 3099.8571620583534 927.00000497698784 20.000000476837158 178.5714316368103 398.85714799165726 2.5714285373687735 23.285715103149414 1.2857143282890318 1.7142857313156126 3.0000001192092891 37 156.8571449816227 22.714284896850586 2.4285714775323868 1.2857142984867094 5.2857144325971586 1.142857149243355 0.85714288055896659 9.8571430742740613 617.00001287460327 10.857142448425291 33.857143417000771 4039.4286642223597 5.4285713434219351 5.7142859101295471 0.28571429848670948 11.571428298950194 1.714285761117935 30.714286103844643 7.7142858505249015 71.428571656346321 40.000001028180122 0.28571429848670948
leaf_count=32 29 64 33 34 39 1 28 91 226 17 307 83 23 143 1 130 7 2823 2 16 135 668 26042 5092 17 27 22 11 20 31076 5350 3 13 16 1 3 3 29 153 2 2656 38 4 26 148 25 24 73 15187 4 83 267533 2 26 658 1 19 50 1 98 205 33
internal_value=0 -8.17674e-05 0.00037551 0.000604173 -0.000100976 5.61883e-05 4.39166e-05 -1.31335e-05 -0.000133882 -8.59383e-05 0.000482451 0.000336635 -3.33156e-05 0.000238717 0.00125596 -9.83431e-05 0.00212549 -9.9555e-05 -5.43511e-05 0.000410801 -6.01499e-05 7.73615e-06 -0.000103902 -6.4036e-05 3.72012e-05 -0.000141568 2.41812e-05 -0.00013525 0.000177284 -0.000163441 -0.000139608 7.46468e-05 0.000155229 -0.000147726 -8.04526e-07 -0.000169705 -0.000205934 0.000365057 -0.000206473 -0.000121997 -0.00019172 -0.00021013 -5.63847e-05 0.000926157 0.00048874 -0.000202334 0.000581899 -0.000211742 -0.000212018 -0.000213079 -6.53847e-05 -0.000214498 -0.000231831 -0.000236852 -0.000178354 -0.000236129 -0.000259263 -0.000253132 -0.000248532 -0.000239667 -0.000241056 -0.000245056
internal_weight=0 15357.4 2917.14 2030 15114.9 2616.71 2596 2172.57 12498.1 7504.57 160.286 423.429 2140.14 386.286 22 7344.29 4 7340.29 2092.43 62 2082.71 1123.14 7278.29 3535.86 1460.14 3742.43 436.286 2075.71 364.286 3306.14 959.571 257 206.286 887.143 10.8571 125.857 4993.57 4.71429 4988.86 207 170 4781.86 58 9 7.71429 168.714 2 166.714 4723.86 4701.14 44.7143 4656.43 102.571 49 3.28571 97.1429 8.28571 50.7143 20.5714 85.5714 45.7143 2
internal_count=359706 359594 112 67 359562 6670 6669 6308 352892 65789 428 361 6269 333 104 65361 170 65191 6246 81 6244 803 65110 31162 26059 33948 49 5103 229 33899 5441 209 156 45 103 411 287103 255 286848 2783 2781 284065 1220 178 152 2778 49 2729 282845 282807 87 282720 408 1042 811 406 102 53 65 405 231 163
is_linear=0
shrinkage=0.02


Tree=5
num_leaves=63
num_cat=0
split_feature=6 164 75 98 148 154 154 154 154 155 160 69 28 19 151 5 3 83 7 146 14 14 105 153 153 150 28 5 160 76 168 146 155 3 17 14 125 14 83 40 93 155 98 69 168 146 155 93 55 154 28 32 141 6 154 64 18 3 163 32 28 108
split_gain=1.21516 0.529275 0.518715 1.22439 0.235244 0.395871 0.194277 0.117512 0.289387 0.685826 0.33272 0.113379 0.0966848 0.342914 0.137585 0.0995538 0.0945263 0.0902643 1.01804 0.0852746 0.0833834 0.0770267 0.0627106 0.0512037 0.0953385 0.222455 0.0500086 0.0442476 0.0536922 0.0429103 0.0263445 0.0260219 0.0374633 0.0645827 0.0276622 0.0233484 0.0224885 0.0216089 0.0206305 0.0197737 0.0717792 0.0187937 0.018111 0.0160931 0.0102081 0.00936882 0.0092939 0.00911539 0.00860304 0.00821423 0.00839324 0.00548145 0.00457846 0.00418361 0.00411274 0.00173381 0.001433 0.00983806 0.00107142 0.000476957 0.000466512 0.000463881
threshold=0.85378215000000013 570.50000000000011 -39.292762757206667 0.005251806051729928 8.128208333333335 0.013340961098398172 0.025653364921892356 0.020841528979805929 0.021703302571990091 0.028544269418794132 0.48356152044676642 0.35504901960784324 12.955000000000002 -0.21428571428571425 319.00000000000006 11.329642850000001 3.9721428571428583 0.038272043320979166 -23.673571428571424 0.025647231116737407 -7.0583333333333327 0.072208571428571441 79.999099909991017 89.995000000000019 119.80500000000002 372.50000000000006 10.220224408976502 7.7966214499999991 0.49104469632164244 289.32142857142861 4.5000000000000009 0.0038095376309755327 0.0072408578650507193 0.43142857142857144 100.64285714285715 -0.69591269841269832 3.5264285500000008 -43.979999999999997 0.040681437348724647 1.7975033333333337 0.33208333333333345 0.0051298498379960863 0.017067273848304931 0.72051629557921915 59.000000000000007 0.0052770815928710668 0.0016090198312017814 0.030416666666666668 12.975000000000003 0.76136363636363646 25.521681250285503 0.8928571428571429 35.595000000000006 0.75595355000000009 0.013340961098398172 0.46428571428571436 0.22571428571428576 0.20357142857142857 0.98412698412698429 4.9642857142857153 286.69000000000005 0.11464285714285717
decision_type=10 10 8 8 10 8 10 10 10 8 10 8 8 10 10 10 10 10 8 10 8 10 10 10 10 10 10 10 10 10 10 8 10 8 10 8 10 8 10 10 8 8 10 10 10 8 10 10 10 10 8 10 8 10 10 10 8 10 10 10 10 10
left_child=2 6 3 -1 7 -6 27 17 9 52 19 -8 13 -10 15 26 49 31 -19 -11 -20 41 23 37 25 -25 -15 28 -2 -26 54 32 34 -34 35 -4 39 47 51 43 -41 -5 -13 44 -33 59 -45 -14 -39 61 -51 -22 -9 -47 -29 -43 57 -54 -37 -40 -42 -7
right_child=1 -3 4 21 5 16 11 8 12 10 -12 42 22 14 -16 -17 -18 18 20 -21 38 -23 -24 24 29 -27 -28 30 -30 -31 -32 36 33 -35 -36 58 -38 48 45 40 60 55 -44 46 -46 53 -48 -49 -50 50 -52 -53 56 -55 -56 -57 -58 -59 -60 -61 -62 -63
leaf_value=0.0032518943531242841 0.00056373552568145496 0.00056601153895250388 0.00073188751200715246 0.00046960891514067997 0.0022493861029188218 -0.00023702951254955034 0.00080472178597660335 7.325871177946669e-06 0.0035272276818309688 -0.0002434631473705013 0.0032771620968035792 4.8621139602666898e-05 -0.00024221886088931382 -0.00013501965573558346 0.002204982044344233 0.0018350213218569591 0.0014846232582219137 0.00445155248975161 0.0019970882056429698 0.001460830955014851 0.00033833835349755261 0.00067644365794885999 0.0010469126206598708 0.00011423626808404389 -0.00011088521439643083 0.0023859037009725196 0.00033121104517606979 -0.00024365914461270996 -7.3494620943581138e-05 0.00015683201608910561 7.4897602184107705e-06 -0.00019879127336114885 -0.00023767709499777329 0.0022260326929436362 0.00020200007487747789 -0.00023084252596022842 0.0030515269631989105 -0.00018848714346379703 3.4567289510244665e-05 0.0012959512955242772 -0.0002444556411328646 -0.00010429988152006683 0.00031810241615724377 -0.00014193312542896204 0.00057324275180629946 -0.0002126609841293585 5.6222575906455213e-05 0.0027466068931025047 0.0010793932763003393 0.0031906762410397961 -0.00023722928586694816 6.4699915972229431e-06 -0.00024129976421185677 0.00043759564286851058 -0.00013936892360384668 -0.00023961207735789285 -0.00020233552534203343 0.0014282661534521352 -0.00013648705412719133 0.00016312739064752819 -7.1553454848896378e-05 1.5697370905625243e-05
leaf_weight=60.857143402099609 96.428571730852127 1766.2857022285461 11.000000059604643 22.428571701049805 44.857141315937042 91.857145369052887 180.71428328752518 115.85714173316956 12.000000238418577 17.428571611642838 42.428572162985802 174.28571318089962 0.57142859697341952 318.42857003211975 12.142857596278189 12.142857551574705 15.285714149475096 20.571428298950195 7.5714287608861923 35.999999642372131 41.142857789993286 73.714283674955368 18.714285716414452 106.5714305639267 2101.14287532866 20.571428626775742 129.42857152223587 287.28571610152721 117.14285384118557 270.28571431338787 498.42857423424721 7243.7143928259611 9.2857145220041293 7.8571429252624503 111.57142639160156 202.57142788171768 0.8571428656578054 2124.428599268198 24.285714417695999 16.571428403258324 43.571428418159485 130.14285731315613 233.28571324050426 256.28571654856205 6.8571428060531607 374.14285948872566 150.14285504817963 1.428571432828903 2.1428572088479987 0.57142859697341919 0.57142859697341808 38.571428030729294 8.0000002831220591 4.0000000745058051 319.42857053875923 53.428571358323097 90.142858400940895 1.7142857313156135 63.142855882644653 21.999999523162842 7.2857141494750968 2.9999999403953543
leaf_count=2 24 13 13 9 16 3183 26 87 9 214 57 34 156 772 8 1 1 3 21 102 52 11 49 2339 15559 89 312 43 19 169 6 281461 50 9 1 434 12 49198 42 31 356 35 14 98 12 3617 14 6 47 162 191 14 179 2 28 153 64 2 54 2 1 18
internal_value=0 0.000316559 -9.03978e-05 0.000680977 -0.00010882 0.000663216 8.55129e-05 -0.000117366 -4.45275e-05 0.000547289 0.00195491 0.000387749 -8.04716e-05 0.000188494 0.000103637 4.81662e-05 2.38615e-05 -0.000163119 8.91973e-05 0.000904885 -8.61737e-05 0.000121625 -0.0001085 -0.000113173 -5.17658e-05 0.000481787 -2.81213e-07 -4.93164e-05 0.000214218 -8.03719e-05 -0.000100245 -0.000179637 -2.34538e-05 0.000891523 -6.38501e-05 -0.000171041 -0.000187834 -0.000185255 -0.000117461 -0.000188193 0.000152801 -7.69095e-05 0.000202867 -0.000191196 -0.000198061 -0.000172908 -6.87304e-05 0.00189266 -0.00018721 -0.00020873 0.00147672 0.000177757 -7.82159e-05 -0.000205783 -0.000188751 -0.000143683 -0.000177464 5.33295e-05 -0.00020842 9.5673e-05 -0.000219686 -0.000229037
internal_weight=0 3673.29 14601.3 340.571 14260.7 156.143 1907 14104.6 5441.57 311.571 95.8571 588.286 5130 484.143 472.143 460 111.286 8663 532.286 53.4286 511.714 279.714 4645.86 4627.14 2498.57 127.143 447.857 1318.71 213.571 2371.43 1105.14 8130.71 405.429 17.1429 388.286 276.714 7725.29 2128.57 504.143 7724.43 67.4286 206 407.571 7657 7250.57 424.429 406.429 2 2126.57 96 1.14286 79.7143 215.714 378.143 606.714 183.571 99.8571 9.71429 265.714 46.2857 50.8571 94.8571
internal_count=359706 207 359499 210 359289 3571 194 355718 69419 705 373 74 68714 1102 1093 1085 3555 286299 3753 316 3750 208 67612 67563 18156 2428 1084 120 43 15728 77 282546 561 59 502 501 281985 49407 3729 281973 388 197 48 281585 281473 3663 112 162 49245 3554 353 66 332 3619 71 188 245 181 488 44 357 3201
is_linear=0
shrinkage=0.02


Tree=6
num_leaves=63
num_cat=0
split_feature=150 106 22 72 68 68 150 63 140 22 68 63 63 90 100 106 22 73 3 91 144 78 40 3 9 150 99 67 67 81 99 9 115 40 163 5 9 49 22 73 40 141 5 9 37 151 54 151 5 5 37 118 98 99 144 159 141 9 49 141 63 141
split_gain=1.0782 0.597781 1.04125 0.55171 0.602979 0.167322 0.165101 0.171965 0.532912 0.217626 0.162114 0.112167 0.162128 0.108231 0.0945781 0.118568 0.895464 0.129968 0.0874921 0.277618 0.0726376 0.0683428 0.0632947 0.0737615 0.0549704 0.548286 0.0830117 0.056921 0.0457545 0.0429152 0.0370613 0.0345377 0.0337993 0.0286964 0.0458415 0.0237875 0.0183403 0.0171707 0.0109867 0.0107628 0.0100837 0.00685351 0.00570905 0.0050789 0.00973679 0.0139262 0.00682105 0.00504183 0.0167969 0.0411574 0.0267668 0.0145768 0.0048452 0.00422077 0.0217071 0.0130835 0.0159418 0.00434186 0.00377861 0.00295787 0.0105539 0.00222239
threshold=2023.5000000000002 472.25000000000006 -3.8985714285714281 0.14958883396886757 0.010419688886979384 0.035426387771520518 60.500000000000007 0.059285714285714289 2.1316282072803012e-14 0.61928571428571433 0.065390018935923291 0.040357142857142862 0.042142857142857149 275.53125000000006 0.19554334239130436 9.3214285714285747 -45.572585714285701 4.3342060069230008 0.43142857142857144 62.708333333333336 222.50000000000003 3.2782142857142862 1.0000000180025095e-35 0.66821428571428587 0.71166666666666678 80.500000000000014 0.29755952380952383 -8.2620142857142849 -15.120178571428569 1.0000000180025095e-35 0.43583333333333341 0.063541666666666677 2.3965000000000005 1.7975033333333337 0.80625000000000013 17.312585700000003 1.2199940119760482 -1.0000000180025095e-35 -70.357678571428551 12.590000000000002 0.16082398093504638 70.440000000000012 46.909285700000005 0.18352713178294569 -5.1121428571428558 18.500000000000004 0.16016129032258067 1.5000000000000002 4.0778571500000007 4.1782821500000003 2.7939285714285718 14.065000000000003 0.015631211900344558 0.13026315789473689 4.5000000000000009 65.500000000000014 19.995000000000001 0.49975000000000008 1.0000000180025095e-35 70.440000000000012 0.011785714285714287 64.995000000000019
decision_type=10 10 10 10 8 10 10 8 10 10 10 10 8 10 8 10 8 8 10 10 10 10 8 8 10 10 10 8 8 10 10 8 10 10 8 10 10 8 8 8 8 10 10 10 10 10 8 10 10 8 10 8 8 8 10 10 10 10 8 10 8 10
left_child=1 6 -3 4 -2 20 38 8 9 11 -11 43 -13 14 28 24 -17 -18 19 -14 31 -19 23 32 26 -26 27 -16 30 -28 -9 -6 52 36 -35 41 37 -30 -1 -4 -27 -24 -41 -8 45 -45 -46 53 50 -50 51 -49 -22 54 55 57 -57 61 -33 -53 -61 -40
right_child=3 2 39 -5 5 -7 7 13 -10 10 -12 12 18 -15 15 16 17 21 -20 -21 22 -23 35 -25 25 40 29 -29 33 -31 -32 58 -34 34 -36 -37 -38 -39 47 42 -42 -43 -44 44 46 -47 -48 48 49 -51 -52 59 -54 -55 -56 56 -58 -59 -60 60 -62 -63
leaf_value=0.0030059457023347775 0.00076167032258477225 0.0031868565412811805 0.00035367147024132917 0.0019154464822094253 0.00054008025774041773 0.00034580229148744348 -0.00021996522894643633 -0.00024325535963336278 0.0025446071903657257 0.00022788110626110851 0.0013777701914890771 0.001922265702494069 0.0003013776733788495 0.0012412411848623827 0.00052103513485961435 0.0043625215604904174 0.0017780505551189586 -8.6764508438042195e-05 -6.0772493980801116e-05 0.0040295773074141656 0.0007448210086401434 0.0006992731609145235 -0.00023632117934467662 0.0023532995371219364 0.00228811681077835 -1.1401639582056274e-05 0.00093851014333891456 -8.8467177593411756e-05 0.00014963828694527064 0.00018371673547177729 0.00091934444637839052 -0.00012626555041980107 0.0023654379414896403 -0.000241753537766249 0.00096003309791822073 0.00023147265793160954 0.00030861128364585716 -0.00017792753283883109 -0.00023127747671734502 -0.00021196318369841555 -0.00023852530070207057 0.00056213489975759216 0.00010461991049017227 -1.6605633638300735e-05 0.00023401252111508969 0.0012273218119006832 -0.00017269210535876705 0.0019690292625459682 0.0027001368355718432 -0.00025230879884614448 0.0037167547055064511 -0.0001832150501006667 -0.00020363851655938418 -0.00020844200516364618 0.003097550849559259 -0.0002366594126781852 0.0020549385029813064 0.00048504657384887444 -0.00022718792967473656 0.0015794745163180005 -7.9042681637532978e-05 7.6256145272009086e-05
leaf_weight=0.4285714328289032 814.28572310507298 60.857143402099609 55.285713195800781 89.285713508725166 26.428571447730064 660.1428404301405 395.4285706281662 17.85714253783226 37.000000834465027 119.57142800092697 83.142855554819107 22.571428686380386 71.142857655882835 24.999999091029167 62.000000864267349 20.571428298950195 17.428571701049805 346.85714475810528 202.28571435809135 9.000000059604643 2.5714285373687744 50.714284375309944 72.428572535514832 11.28571470081806 43.714284151792526 244.28572060167789 42.142857193946838 5344.0000126063824 65.142856985330582 105.71428325772285 28.428571611642838 213.42856967449188 2.7142857313156119 27.714285582304001 23.428571552038193 179.000004529953 32.000000834465027 3682.0000103116035 70.000001966953278 32.28571429848671 114.9999974668026 4.5714286416769019 77.428573608398438 12.000000268220903 18.000000506639481 5.142857313156127 197.28571467101574 1.285714343190193 2.8571429252624485 5.5714287161827096 0.71428573131561179 416.85715270042419 13.285714671015745 3420.1429620981216 0.85714288055896659 2.4285714775323859 2.4285714775323868 4.0000000447034827 486.99999758601189 1.571428596973419 65.714286953210831 10.857143208384512
leaf_count=9 26 20 3 29 86 135 1145 48 22 28 24 34 207 11 46 1 1 782 34 9 4 17 1320 22 21 20 44 31056 24 33 9 45 7 44 15 6 2 3876 3953 80 99 29 1 54 42 11 210 11 4 136 12 14514 166 298505 43 36 20 10 384 9 1554 558
internal_value=0 -7.06612e-05 0.000950836 0.000370776 0.000315324 9.80593e-05 -8.55725e-05 -4.6958e-05 0.000182528 0.000105565 0.000699506 -2.35013e-05 0.000291154 -7.30983e-05 -7.62981e-05 -2.90317e-05 0.000289506 8.76075e-05 0.000160797 0.000720052 -6.34333e-05 1.35026e-05 0.000206662 0.0010781 -5.23235e-05 0.00017322 -6.86895e-05 -8.1477e-05 -0.00015424 0.000398851 0.000470811 -0.000169656 0.000303167 -0.000161793 0.000308786 0.000105027 -0.000168161 -0.000172233 -0.000196109 0.000126122 -8.40993e-05 -0.000188917 1.14587e-05 -0.000176354 -0.000102159 0.000356573 -0.000138688 -0.000196451 -0.000136666 0.00074852 -0.000152013 -0.000157706 -4.98343e-05 -0.000204873 -7.01154e-05 -0.00010038 0.00090914 -0.000158164 -0.000196436 -0.000163354 -4.03087e-05 -0.000189983
internal_weight=0 15698.1 225.857 2576.43 2487.14 1672.86 15472.3 11466.6 1172.57 1135.57 202.714 932.857 305 10294 10269 6392.43 435.571 415 282.429 80.1429 1012.71 397.571 285.857 29.8571 5956.86 403 5553.86 5406 3876.57 147.857 46.2857 726.857 18.5714 3830.29 51.1429 256 3779.14 3747.14 4005.71 165 359.286 77 109.714 627.857 232.429 17.1429 215.286 4005.29 494.571 8.42857 486.143 485.429 15.8571 3510.71 90.5714 89.7143 4.85714 84.8571 700.429 484.143 67.2857 80.8571
internal_count=359706 357447 104 2259 2230 2204 357343 37969 1820 1798 52 1746 284 36149 36138 32120 801 800 250 216 2069 799 1554 199 31319 140 31179 31102 4018 77 57 515 177 3961 59 1355 3902 3900 319374 84 119 1349 81 1462 317 65 252 319365 16240 140 16100 16088 170 303125 4620 4577 56 4521 429 16077 1563 4511
is_linear=0
shrinkage=0.02


Tree=7
num_leaves=63
num_cat=0
split_feature=158 152 138 7 20 138 86 61 17 145 75 151 138 61 138 8 151 120 53 29 78 145 16 43 44 43 26 140 146 145 8 138 1 26 53 49 7 26 1 151 53 120 145 164 145 39 143 137 1 78 24 1 94 39 147 31 146 138 151 43 26 37
split_gain=1.15289 0.543494 0.469747 1.6828 0.426859 0.624428 0.303146 0.196223 0.481675 0.143782 0.08663 0.0820319 0.0989169 0.0790824 0.239213 0.0782416 0.354335 0.0699434 0.0681308 0.0694619 0.0639008 0.0498642 0.382513 0.0446152 0.100572 0.0358548 0.0353335 0.0241958 0.0215996 0.0209549 0.0289812 0.0164048 0.0255403 0.0146403 0.0800747 0.0136106 0.0100802 0.00998015 0.00723471 0.00624108 0.0055422 0.0054281 0.00502611 0.0179832 0.0376553 0.00482565 0.00817468 0.0142534 0.00838669 0.00501178 0.00744629 0.00535738 0.00436749 0.013977 0.00433744 0.003801 0.00341997 0.00167543 0.00165195 0.00149888 0.00137819 0.00176308
threshold=1178.5000000000002 215.50000000000003 2.4500000000000006 -23.673571428571424 17.415000000000003 4.7987000000000011 0.51180412118782848 12.035714285714288 15.714285714285717 8.5850000000000026 191.84549055427274 236.50000000000003 2.8285500000000003 10.964285714285715 4.4015000000000013 0.0080344955381781488 1.5000000000000002 14.052228228912918 0.0083217913204062816 -11.033999999999997 0.80750000000000011 29.965000000000003 341.28571428571433 4.4822192697495007 -0.095744138634046863 5.4620764864755005 1.1749233323463477 2.6645352591003761e-15 0.052631861438989729 3101.3299999999999 0.025034818941504184 4.7416500000000008 0.25000000000000006 10.613726321036891 0.014311942562407408 3.4642857142857149 1.0125000000000004 11.175232974910395 34.750000000000007 10.500000000000002 0.23303167420814483 55.460000000000001 331.1350000000001 18.500000000000004 417.40000000000009 0.10250000000000002 1.5000000000000002 inf 26.321428571428573 0.028214285714285716 0.3253571428571429 746.10714285714289 0.12500000000000003 0.68122976338729779 0.051385011187124817 16.035714285714288 0.023562350141049484 4.5969000000000007 34.500000000000007 5.4620764864755005 0.13302129545513633 -1.2919642857142855
decision_type=10 8 8 8 10 10 10 8 10 10 10 10 10 10 8 8 8 8 8 8 10 8 8 8 10 8 8 10 10 10 10 10 8 10 8 8 8 8 10 10 10 10 10 8 10 8 10 8 10 8 10 10 10 10 10 10 10 10 8 8 10 10
left_child=2 6 3 -1 5 28 57 8 13 33 11 15 -13 18 -15 16 -11 26 -4 -20 58 22 25 24 -19 -21 35 -25 41 42 -31 39 -33 45 -35 -17 -28 -36 -30 -23 -39 -3 59 44 -44 46 -9 -48 55 50 51 -47 60 56 -14 -49 -54 -2 -18 -5 -51 -62
right_child=1 4 7 29 -6 -7 -8 9 -10 10 -12 12 54 14 -16 17 20 23 19 21 -22 31 -24 27 -26 -27 36 -29 38 30 -32 32 -34 34 37 -37 -38 40 -40 -41 -42 -43 43 -45 -46 49 47 48 -50 52 -52 -53 53 -55 -56 -57 -58 -59 -60 -61 61 -63
leaf_value=0.0029708494676792658 -0.00022792848579936465 -0.00024433928964044611 0.0013687688787224947 2.8162143608373107e-05 0.0007356473895030795 0.0040891379175900669 0.00041602447569330693 -0.00019902331166119365 0.00087611196763751715 0.0016182857003301226 0.001043261408634684 0.0021000112117209803 0.00035137630773909211 0.0028940054851973596 -0.00024703373372079172 3.5137734719845767e-05 -0.00021384966006605518 -0.00019074650396954952 0.0014000648210851776 0.0012816861733090748 0.00026011989863159444 -0.00019524444281174039 0.0041687264465931273 -0.00010991496308709376 0.00059120358751194144 -0.00019820264202864054 0.0018483469149868557 5.2574560199354517e-05 0.0030031441484867916 0.0033951272399886561 -0.00023437488474883643 0.0023666323456991954 1.0264238332585694e-05 0.0018724421964734432 0.0024531458339178934 0.00038538642692802856 0.00081973656225320921 -0.00023848570500156397 0.00081614887802003259 -6.8521972106871376e-05 0.00096674014356458774 0.00072992459078529933 0.0037367629106600281 -0.00023626380149349588 -0.00023652954087226717 -0.00023052986361126249 -0.00023095456945948378 -0.00023127531904530615 0.00084556224884823391 -0.00020944543133424921 0.00059502097169466671 0.00017289162535328551 -0.00022864645204302518 0.00052495278880795588 0.00014185023609315407 0.00034065063583920476 4.5462558224387761e-05 -0.00011503197691211703 -6.3108501979156599e-05 -0.00021218216266009887 -8.4605720021916947e-05 -0.00019732122662927563
leaf_weight=92.714285731315613 398.57142648100853 20.714286133646972 13.142857134342192 10.857143282890318 627.57144194841385 37.857141241431236 921.2856937199831 102.28571626543999 284.28571224212646 59.428569778800011 28.428570836782455 12.285714745521544 72.714287906885147 14.571428537368773 29.000000223517418 96.142859742045403 271.28571660816669 146.28571309149265 12.571428775787352 7.1428570747375488 203.71428593993187 716.00000736117363 9.4285717010498029 7828.1428796947002 119.57142776250839 78.714286208152771 5.1428571492433548 384.57142770290375 1.1428571492433539 1.5714285373687737 2.0000000894069672 1.8571428954601277 198.42857433855534 8.8571429252624494 0.57142859697341819 82.428570777177811 14.714285999536516 53.000000402331352 1.2857142686843872 198.57142840325832 1.5714285671710957 2.5714285373687735 1.5714286118745775 11.285714447498322 2.4285715222358704 40.857143238186836 28.428571626543999 6.8571430742740676 10.571428835391997 4173.7143840938807 6.8571430295705786 19.428571701049805 75.428571045398712 13.428570985794066 86.571430996060371 14.428571701049805 23.999999240040779 60.571428373456001 32.571428745985031 235.71429061889648 81.142858982086182 175.71428909897804
leaf_count=8 179 180 11 5 6 18 31 4492 10 30 14 171 6 16 69 30 226 20 30 3 17 5963 262 59589 27 269 34 3016 40 29 58 47 623 2 13 102 46 2091 2 553 5 4 30 77 83 1016 330 137 10 274127 17 1 308 3 223 2 55 18 45 4697 157 23
internal_value=0 0.000436015 -6.50575e-05 0.000651218 0.000893841 0.00245551 0.000206794 -8.12476e-05 0.000131451 -0.000104537 -5.912e-05 -6.24485e-05 0.000370868 -3.40111e-05 0.000803412 -7.0491e-05 0.00015713 -8.53649e-05 -6.35354e-05 -7.89311e-05 -1.39483e-05 -9.42955e-05 0.000344843 -9.40517e-05 0.000160942 -7.50838e-05 0.000285809 -0.000102306 5.04441e-05 -0.000159029 0.00136261 -0.000131828 3.21136e-05 -0.000193209 0.000107277 0.000196813 0.00108614 -0.000176247 0.00184532 -0.000167731 -0.00020378 -0.000136752 -0.000179783 0.000172136 0.00132441 -0.000197238 -9.01446e-05 9.4588e-05 0.000385095 -0.000201014 -2.94836e-05 -0.000100517 -0.000203549 -8.06861e-05 0.000237499 0.000156406 -0.000162482 -0.000213035 -0.000197691 -0.000201599 -0.000206678 -0.000161714
internal_weight=0 2071.57 16203 358.143 691.143 63.5714 1380.43 15844.9 1563.71 14281.1 9444 9415.57 171.571 1279.43 43.5714 9244 567 8677 1235.86 1222.71 507.571 1210.14 95.2857 8478.57 265.857 85.8571 198.429 8212.71 25.7143 265.429 3.57143 1114.86 200.286 4837.14 64 178.571 19.8571 55.1429 2.42857 914.571 54.5714 23.2857 261.857 15.2857 4 4773.14 162.571 60.2857 31.8571 4610.57 67.1429 60.2857 4543.43 112.857 159.286 21.2857 99.4286 459.143 303.857 246.571 4430.57 256.857
internal_count=359706 478 359228 4987 250 244 228 354241 7856 346385 63596 63582 400 7846 85 63182 318 62864 7761 7750 288 7720 534 62652 47 272 212 62605 226 4979 87 7186 670 282789 2111 132 80 2109 42 6516 2096 184 4892 190 113 280678 4971 479 149 275707 1034 1017 274673 366 229 139 363 197 271 4702 274307 180
is_linear=0
shrinkage=0.02


Tree=8
num_leaves=63
num_cat=0
split_feature=27 67 165 84 98 79 141 63 145 155 155 9 9 9 1 142 142 27 78 17 76 97 168 25 98 29 54 41 32 41 154 154 32 1 142 41 93 166 111 30 30 155 84 141 59 9 25 59 98 141 1 17 1 141 84 9 54 141 97 29 54 154
split_gain=1.13464 0.770627 0.428333 0.424098 0.368969 1.15756 0.205598 0.168563 0.0933655 0.126219 0.175745 0.205285 0.166535 0.344046 0.299169 0.189702 0.334017 0.113235 0.0911683 0.901621 0.0621756 0.0561184 0.035705 0.0342365 0.0337937 0.0336431 0.172803 0.0327359 0.0777494 0.0314588 0.0291368 0.0509892 0.0523944 0.0764177 0.0447454 0.0269015 0.040988 0.0315666 0.0263586 0.0237346 0.0608034 0.0934339 0.0598252 0.0183682 0.0165408 0.0239853 0.015986 0.0148861 0.0139899 0.0135145 0.0358126 0.0121339 0.0116857 0.0445717 0.0113377 0.022629 0.0110345 0.0109289 0.00838423 0.00775162 0.0051827 0.00467126
threshold=0.018100030712530701 22.702500000000004 417.50000000000006 0.98070312500000012 0.0056980519480519494 0.3928571428571429 186.96000000000001 0.013214285714285717 50.015000000000008 0.04243228036331486 0.042870460800852363 0.20504716981132079 0.26011194029850754 0.26505102040816331 1178.0000000000002 94.500000000000014 92.500000000000014 0.013520614035087702 0.03392857142857144 20.785714285714288 151.75000000000003 0.13944583333333335 17.500000000000004 0.13681418249933103 0.0068848651467033235 -11.033999999999997 0.11550000000000002 2.8544119300612811 13.535714285714288 19.482845398875934 0.025653364921892356 0.028175334541804768 3.4642857142857149 143.53571428571431 108.50000000000001 0.31528999928359319 0.036250000000000011 0.68430384471817851 0.29761785000000013 -1.7010256410256397 -3.7194579108417831 0.005750433183868366 0.54050000000000009 119.99500000000002 1.6925428913192071 0.60083333333333344 0.48259320843091341 1.422917783891946 0.32051282051282054 277.42500000000007 1629.3928571428576 11.785714285714288 0.25000000000000006 163.99500000000003 0.4801169590643275 0.22758720930232559 0.66887755102040836 34.995000000000012 -6.7066666666666652 -266.47999999999996 0.66887755102040836 0.036839740861587929
decision_type=10 10 10 8 8 10 8 8 10 8 8 10 10 10 10 10 10 10 8 10 10 10 10 10 8 8 10 8 10 10 10 10 8 10 10 10 8 10 10 10 8 10 10 8 8 10 10 10 10 10 10 10 8 8 10 10 8 10 10 8 10 8
left_child=4 2 7 6 5 23 -4 -2 18 24 11 -11 38 14 -14 16 48 20 19 51 -17 22 29 -1 -10 26 -26 -5 -29 39 43 32 33 -32 -34 59 -37 -38 46 40 42 -42 -9 47 61 -46 54 57 -15 56 -51 -6 53 -45 58 -56 -33 -27 -12 -20 -54 -41
right_child=1 -3 3 27 8 -7 -8 21 9 10 12 -13 13 15 -16 17 -18 -19 35 -21 -22 -23 -24 -25 25 30 -28 28 -30 -31 31 49 34 -35 -36 36 37 -39 -40 44 41 -43 -44 52 45 -47 -48 -49 -50 50 -52 -53 60 -55 55 -57 -58 -59 -60 -61 -62 -63
leaf_value=-0.00022178707038175222 0.0015476728043088037 0.0026578405738524099 -2.6266099354070827e-05 0.00075728076045870928 -0.00019441852177275011 0.003063702354397999 0.00041369176265035969 -8.9648915835333128e-05 0.00023021280798070747 -0.00010951260962750922 -8.9000512004686243e-05 0.003705483671586538 0.00038293228613532897 -0.00015952156246239397 0.0031029505611918856 -0.00016611250290382733 0.0023319866179888479 0.001567624726905638 0.0021335507735647081 0.0042158541310608937 0.00019439457631595814 0.00057635568802231281 0.0011340448554899222 0.00036811052345677976 -0.00023402232450359898 -0.00016169744567737799 0.0042597773378993059 -0.00011736189571287928 0.00077519335049705887 0.0011681665290681068 -7.9360405051618046e-05 -0.00015294576061463506 0.0019849187861956594 0.0010526340991178554 -8.8823197797987841e-05 0.00073927958934972269 -0.00020045788722208505 0.0001860169192873034 0.0019712846406827107 -0.0002292780518911245 0.0023689448813542869 -0.00025490854783204869 0.00075061182214824498 0.0045448723435401921 -3.6353286175614838e-05 0.0010117161573726236 0.0011709861305733765 0.00051541559554855792 0.0019544776192314882 -0.00014013873979874011 0.0010899459586546226 0.00019740883563015913 -0.0002062447352355741 -0.00023222970652779683 -0.0002352551789691991 0.0047539225330685362 -3.5460283009197406e-05 -4.6238233046387994e-05 -0.0002103775577677668 -0.00019597565504667083 -4.9621452421950419e-05 -0.00012327733508922978
leaf_weight=155.28571279346943 26.857143148779869 53.571426391601562 833.28571879863739 885.42858111858368 217.14285950362682 60.857143402099609 866.8571245521307 441.14285486936569 110.85714161396027 11.142857074737551 864.5714436173439 11.428571328520773 34.714286491274834 48.000001311302185 30.285715103149414 404.00000469386578 41.428569793701172 19.000000238418579 0.571428582072258 20.571428298950195 363.57142487168312 55.000000864267349 9.7142856121063215 52.714286804199219 16.999999806284908 724.42856624722481 4.2857144027948371 61.000000819563866 108.42856979370117 8.0000002533197385 41.714286014437675 962.57142925262451 4.2857142984867087 55.714286282658577 144.14285625517368 26.000000223517418 272.42857207357883 122.57142646610737 2.4285714775323859 483.14285536110401 10.857142910361292 10.857142537832258 36.714284613728523 0.999999999999999 195.42857323586941 9.1428573131561262 3.8571429252624503 15.428571552038191 1.2857143282890309 30.571428939700127 13.714285850524901 37 1975.5714364051819 3.5714286863803864 1.0000000298023213 0.57142859697341908 478.85714940726757 599.14285372197628 309.00000137090683 5543.0001231729984 88.285712331533432 253.5714286416769
leaf_count=106 26 3 39 33 2880 9 15 392 22 111 20501 21 41 1057 1 1687 21 3 32 1 20 24 2 2 96 2036 9 87 2 19 157 1150 69 9 687 29 477 67 26 101 19 21 5 29 5103 48 3 31 14 233 1 2 3557 508 137 3 7248 1302 2444 306811 13 104
internal_value=0 0.000273907 0.000244175 0.000393516 -9.61609e-05 0.00063756 0.000198057 -2.29145e-05 -0.000110606 -6.26443e-05 6.66483e-05 0.00182213 4.79905e-05 0.000246302 0.00165028 0.000142278 0.00100829 4.24014e-05 -0.000167623 0.000188609 4.64694e-06 -5.07834e-05 -7.44316e-05 -7.22869e-05 -0.000115289 -0.000122711 0.00067077 0.000708543 0.000453843 -8.25342e-05 -0.000125998 -5.91937e-05 0.0002076 0.000567968 -2.89461e-05 -0.00018403 -2.99022e-05 -8.05319e-05 -0.000110179 -8.94784e-05 2.1944e-05 0.00105702 -2.50908e-05 -0.000159946 -0.000148614 1.04878e-05 -0.000114467 -0.000102233 -0.000104374 -0.000103343 0.000240791 -0.000137373 -0.000197308 0.000812761 -0.000118686 0.00157899 -0.000113916 -0.000109432 -0.000120959 -0.000195736 -0.000199545 -0.000192793
internal_weight=0 4349 4295.43 2755 13925.6 268.857 1700.14 1540.43 13656.7 7417.43 2146.29 22.5714 2123.71 942.286 65 877.286 90.7143 786.571 6239.29 274.714 767.571 1513.57 1458.57 208 5271.14 5160.29 21.2857 1054.86 169.429 1448.86 5139 1731.57 245.857 97.4286 148.429 5964.57 421 395 1181.43 1440.86 499.571 21.7143 477.857 3407.43 941.286 204.571 1179 1339 49.2857 1485.71 44.2857 254.143 2068.43 4.57143 1175.14 1.57143 1441.43 1323.57 1173.57 5543.57 2063.86 736.714
internal_count=359706 6043 6040 176 353663 117 54 5864 353546 43247 26090 132 25958 2844 42 2802 1092 1710 310299 2883 1707 5838 5814 108 17157 17135 105 122 89 5812 17030 9554 922 166 756 307416 573 544 23114 5793 437 40 397 7476 5356 5151 23088 3369 1071 8632 234 2882 4107 537 23085 140 8398 3338 22945 306843 3570 205
is_linear=0
shrinkage=0.02


Tree=9
num_leaves=63
num_cat=0
split_feature=27 45 67 154 151 148 154 10 55 154 154 155 145 67 6 2 144 85 10 46 75 86 111 136 158 42 161 15 145 13 163 145 145 40 136 125 145 58 136 59 53 145 13 147 2 75 136 13 2 154 148 46 27 163 145 106 158 158 37 136 53 136
split_gain=1.08971 1.3008 0.74011 0.409132 0.406291 0.154007 0.393943 0.146254 0.103795 0.100419 0.160332 0.589986 0.294672 0.135147 0.104975 0.0845231 0.0681049 0.0648767 0.0577807 0.0532161 0.0460105 0.0421652 0.0556573 0.0417732 0.0765527 0.0374055 0.0335845 0.0311781 0.0307016 0.0531285 0.0249132 0.0236658 0.0374912 0.0227335 0.0225898 0.0214532 0.0207797 0.0177343 0.0165143 0.0126064 0.0121623 0.0366343 0.00906415 0.00629457 0.00617368 0.00322691 0.0014897 0.000492701 0.0002786 3.98299e-05 6.3481e-05 1.32655e-05 1.23303e-05 6.32606e-06 8.39757e-06 3.55991e-06 3.36232e-06 1.89322e-06 1.14745e-06 1.09629e-06 9.55321e-07 4.43662e-07
threshold=0.018100030712530701 -596.19299999999987 22.702500000000004 0.0032664362076691637 21.500000000000004 8.128208333333335 0.013340961098398172 0.068132775600442161 0.25623744619799144 0.020841528979805929 0.021703302571990091 0.03844209380104225 259.56500000000005 -15.923210714285714 1.8250000000000002 15.464285714285715 65.500000000000014 7.0089104651162808 0.47330615859603514 595.607142857143 -173.65849723308119 0.87886178131475468 0.073810750000000022 335.04500000000002 66.500000000000014 0.53465476190476202 12.500000000000002 -284.82586271567885 13.985000000000001 44.57500000000001 0.98412698412698429 56.255000000000003 69.985000000000014 0.45756999177631585 4.995000000000001 3.5264285500000008 253.54499999999999 3.4781012187210005 15.895000000000001 12.985000000000001 0.017293331883348747 11094.664999999995 2.4890000000000003 0.020414116638487367 2.3928571428571432 -77.861717974180721 52.595000000000006 99.992549877494014 44.071428571428577 0.026670450245932658 17.017428442028997 176.07142857142858 0.16665833333333338 1.0000000180025095e-35 1050.9249999999995 35.607142857142868 25.500000000000004 497.50000000000006 1.0464285714285715 10.665000000000001 0.066352201257861662 39.955000000000005
decision_type=10 8 10 8 10 10 8 8 8 10 10 8 8 8 10 10 8 8 8 10 8 8 8 10 10 10 10 10 8 10 10 10 10 10 8 10 10 8 10 10 10 10 8 10 10 8 10 8 10 8 10 10 10 8 10 10 10 10 10 10 10 8
left_child=1 -1 3 -2 7 9 -7 -5 15 20 11 43 36 -12 19 17 38 -6 -18 31 -3 22 -21 25 -25 26 27 -9 29 30 55 39 -33 44 -29 37 -13 -30 -10 -15 42 -42 -39 48 52 -8 -23 -47 61 50 -49 57 -20 56 59 58 -14 60 -22 -55 -51 -11
right_child=2 5 -4 4 8 6 45 23 16 10 13 12 53 14 -16 -17 18 -19 33 21 28 46 -24 24 -26 -27 -28 34 35 -31 -32 32 -34 -35 -36 -37 -38 40 -40 -41 41 -43 -44 -45 -46 47 -48 49 -50 51 -52 -53 -54 54 -56 -57 -58 -59 -60 -61 -62 -63
leaf_value=0.0017599585179169878 0.00071620670211489383 0.00049443047636786304 0.0026046837753930163 0.0015811986625157383 -0.00018428959233245226 0.0020898132241182637 0.0004324553697049169 0.0013078194502411985 0.00023617145251220598 -0.00023599517230699917 0.0037351651499375389 0.0027213831094167491 -0.00023634505653096085 -0.0001889331811899188 0.0013016637348595014 0.00082307722034304955 0.00084475540230384918 0.00067032115113021553 -0.00023340634001228804 -3.7572055054357231e-05 -0.00022347719457117569 -0.00024119792551790988 0.00039804318765181514 0.0026234332554882535 -0.00023552106754088709 0.0012514933295431636 0.0011113639424271157 0.00021353520957534462 0.00030038431865722068 0.0015172709356071968 0.00019647597051791247 0.00022956079346376544 -9.8653094694552091e-05 0.00035353726878610818 -8.8170452909909058e-05 0.0029904722870342706 0.0037370787978426045 0.00015339189082922086 -0.00010848948840569438 0.0016909306759701587 -0.00013693853835214595 0.0013923850122916817 -0.00019104024415591018 2.343652115482473e-05 0.00012791248262985995 7.9903540568464269e-05 -0.00011554083164714442 -0.00022216537413377797 -0.00016146706845576446 -0.00022724612314020565 -0.00010295921463111116 -0.00025812968386128304 -0.00026547750092064656 -0.00023596871597821468 -0.0002674214993992953 -0.00025044102204322836 -0.00027723899419028984 -0.00023876837737901575 -0.00021805518654485371 -0.00022132645071002401 -0.00023687429261005263 -0.00022889594781071995
leaf_weight=149.71428598463535 616.28572781383991 42.285712823271751 53.571426391601562 22.285714745521545 71.857143133878708 44.857141315937042 3.1428571492433548 6.5714285820722571 82.142855688929558 3.8571429401636115 3.7142856866121292 35.428572461009026 1.1428571939468386 1231.0000229924917 21.857143104076385 324.71427837014198 93.142858818173409 70.285714656114578 21.857143402099613 234.99999882280827 87.571429893374443 101.7142865806818 234.28571450710297 6.5714285671710941 8.714285597205162 8.7142858356237394 9.7142856121063215 104.8571406006813 31.428572252392769 9.5714282989501935 118.57142645120621 146.28571645915508 2878.7143034636974 755.42855677008629 1862.000003695488 0.8571428656578054 10.428571298718451 30.71428519487381 172.14285436272621 1.4285714775323857 1938.7142952382565 6.2857142239809027 6158.4286662191153 121.71428471803665 52.000000834465027 2.1428570747375488 59.999999523162842 5.8571429103612882 52.714286804199219 59.571430444717407 2.571428656578064 6.8571430742740622 6.1428573578596106 3.1428571194410306 2.5714286267757407 1.8571428358554829 2.7142857909202576 7.1428571194410315 18.999999910593033 5.8571427911520004 4.4285715520381919 40.428571790456772
leaf_count=28 8 39 3 5 24 16 6 18 30 53 75 105 28 37574 11 7 17 35 50 22 2500 34 37 39 7 8 4 237 5 5 94 2119 25769 16 5369 12 4 4 37 23 9139 17 272482 132 9 28 22 82 1 2600 18 14 120 58 31 10 39 62 15 46 107 197
internal_value=0 -9.42377e-05 0.000268429 0.000239292 0.000159405 -0.000114389 0.00055389 -3.00878e-05 0.000392513 -0.00012108 -5.18817e-05 0.000413627 0.00214795 -7.84064e-05 -8.12911e-05 0.000645029 0.000292849 0.000238292 0.000372264 -8.74745e-05 -0.000163639 8.39313e-05 0.000179904 -4.79782e-05 0.000993562 -5.59711e-05 -6.17164e-05 -6.74909e-05 -0.00016695 5.76592e-05 -3.88517e-06 -0.000112879 -8.2781e-05 0.000319586 -7.20859e-05 -0.000173457 0.00295237 -0.000173789 2.84761e-06 -0.000186754 -0.000175621 -0.000131996 -0.000189331 -7.23467e-05 -1.01171e-06 -0.000197325 -0.000194576 -0.000219672 -0.000192534 -0.0002271 -0.000185797 -0.000231563 -0.000240442 -0.000242941 -0.000235547 -0.000222989 -0.000265122 -0.000229002 -0.000222511 -0.00022644 -0.000227912 -0.000229514
internal_weight=0 13925.6 4349 4295.43 3679.14 13775.9 136.571 2029.43 1649.71 13639.3 5194 280 61.2857 4914 4910.29 466.857 1182.86 142.143 928.571 4888.43 8445.29 631 469.286 2007.14 15.2857 1991.86 1983.14 1973.43 8403 236.571 227 4257.43 3025 835.429 1966.86 8166.43 45.8571 8165.57 254.286 1232.43 8134.14 1945 6189.14 218.714 80 91.7143 161.714 88.5714 97 86.4286 8.42857 78 28 15.4286 11.5714 108.429 3.85714 71.1429 106.571 9 64 44.2857
internal_count=359706 353663 6043 6040 6032 353635 2933 5687 345 350702 66380 694 311 65686 65611 66 279 59 212 65600 284322 115 59 5682 46 5636 5628 5624 284283 2624 2619 65485 27888 195 5606 281659 109 281647 67 37597 281642 9156 272486 383 179 2917 56 2911 251 2883 100 2783 170 202 135 2525 67 2769 2515 104 2707 250
is_linear=0
shrinkage=0.02


Tree=10
num_leaves=63
num_cat=0
split_feature=6 86 15 144 6 12 68 12 100 144 68 12 165 159 24 47 15 63 69 16 18 49 160 70 68 36 160 18 160 34 33 43 43 86 159 165 144 144 79 97 160 109 43 34 14 63 167 159 32 30 34 18 120 69 68 120 86 16 57 31 79 150
split_gain=1.28806 0.445975 1.05357 0.372873 0.143538 0.134424 0.273897 0.259921 0.0982003 0.0810381 0.0905181 0.073465 0.0612684 0.163379 0.381297 0.064548 0.101195 0.0599603 0.357198 0.307992 0.0871128 0.0503912 0.0426036 0.0410737 0.0314539 0.0295083 0.0246083 0.0329412 0.0204712 0.0196102 0.0647836 0.0385666 0.0573981 0.0258821 0.0141437 0.208667 0.0130295 0.0297859 0.0110085 0.00770914 0.00752952 0.02907 0.0075141 0.0107821 0.00740455 0.00618996 0.0058734 0.00567213 0.00552471 0.00520196 0.00530763 0.0124926 0.00885009 0.00502045 0.00242242 0.00221552 0.00150066 0.00126383 0.000643756 0.000221227 0.000168274 0.000136151
threshold=2.8928571500000007 3.0527814934326503 -580.56999999999982 19.500000000000004 0.5178571500000001 0.013521432794223203 0.068246514182987481 0.027748217247097851 0.50549120370370382 68.500000000000014 0.011604668089318279 0.014842657342657351 37.500000000000007 58.500000000000007 0.72086956521739143 18.821428571428573 -148.7524107410741 0.059285714285714289 0.37409011981246754 1246.214285714286 0.4042857142857143 3.5357142857142865 0.38468357883251508 0.21767188012328678 0.012950069876762801 0.14881070000000002 0.28004149377593368 2.051428571428572 0.83363417569193754 0.25000000000000006 9.5846428571428586 38.985474761869007 45.005395274789507 0.82621946316370132 170.50000000000003 149.50000000000003 69.500000000000014 71.500000000000014 17.428571428571434 -19.618749999999995 0.12856797624801494 1.0000000180025095e-35 39.45000000000001 1.0000000180025095e-35 -293.2949999999999 0.23392857142857143 10.500000000000002 1652.5000000000002 32.321428571428577 19.345000000000002 1.0000000180025095e-35 0.057857142857142864 1.0000000180025095e-35 0.48027777777777786 0.023274280719465208 44.973103568929325 3.1462823691303741 192.35714285714289 0.096320614035087723 23.464285714285719 4.0714285714285721 147.50000000000003
decision_type=10 10 8 8 10 10 10 10 10 10 8 10 10 10 10 8 8 8 10 10 8 10 10 10 8 8 10 8 10 8 10 10 8 10 10 10 10 10 10 8 8 10 10 10 8 8 10 10 8 10 10 8 8 10 10 8 10 8 10 8 10 10
left_child=1 5 -3 -2 26 12 8 -8 9 29 -11 -12 36 14 61 16 -15 18 20 -20 -18 28 24 47 -17 -9 27 45 -19 30 31 33 -33 -7 35 -26 42 -38 54 -31 41 -41 44 -44 -1 -4 -36 -13 -42 50 52 -52 -46 56 55 -24 -28 -47 60 -45 -58 -14
right_child=3 2 4 -5 -6 6 7 25 -10 10 11 23 13 15 -16 22 17 21 19 -21 -22 -23 38 -25 34 -27 53 -29 -30 39 -32 32 -34 -35 46 -37 37 -39 -40 40 48 -43 43 59 49 57 -48 -49 -50 -51 51 -53 -54 -55 -56 -57 58 -59 -60 -61 -62 -63
leaf_value=0.0020946688437663199 0.00014238839728526433 0.0029672291091486515 0.00042593821780972083 0.00061285862462419425 0.00061110148997080022 -0.0001120784174606362 0.0018982429990070354 -0.0002489625592876626 0.0009109726570302243 0.0012707305655269741 0.0014556643212153295 -0.00021898893316378955 -0.00021808688847206687 0.00027918514297442797 0.0021534757526768442 0.00054601107073987685 0.00025000871865244471 -0.00013425625444526498 -0.00022553590299407092 0.0029864636550814166 -0.00020380835949567133 0.00028316113828466002 0.00015477222244461342 0.00037779176584892951 -5.3520634696502362e-05 0.00070892844466267566 -4.7710506515657083e-05 0.002293318982954057 0.00011381681007476583 0.0004654321202398516 0.00087007559278625194 0.0018331986327829116 2.1381397436286607e-05 0.00024163779874387739 -0.00013918133276128052 0.0030025293647427359 0.0034684926399720069 -0.00022693949057712789 -0.00041913152621989448 8.8984286615487258e-05 -0.00019554352667663924 0.0046512322283730409 0.0025151025313108395 -0.00023871462546394372 0.0011427074578358053 -0.0002449649231707598 0.00051286038624764223 4.7705967425193413e-06 -9.196905205647568e-05 0.00046257448017508409 0.00043054970895248479 -0.00013217165577348631 -0.00018803998819574589 -3.3547110928883438e-05 -9.7445507269606528e-05 -0.00020527810055978338 -0.00022979413527552989 0.00012369893801710146 -0.00034882300423007474 0.00018197732900895666 -0.00015152333963972827 -8.9046709855112463e-05
leaf_weight=0.571428582072258 1228.428578466177 60.857143402099609 21.142857477068901 1492.571403503418 190.28571504354477 699.00000189244747 60.714285179972649 41.857143312692642 46.000000849366188 32.000000551342964 16.428571939468384 89.571429684758186 71.000000298023224 349.28571537137032 42.999998360872269 33.285714864730835 275.5714323669672 3263.7142850905657 19.714285999536514 30.285715103149414 438.28571036458015 125.99999874830246 6.8571430593729019 114.71428823471069 397.00000658631325 18.571428835391998 18.571428298950195 3.2857143878936759 138.71428315341473 8.2857141494750977 32.285713195800781 10.71428544819355 20.142857477068901 93.857142925262451 675.42857733368874 9.1428571641445142 1.2857142686843861 2.71428582072258 95.571431905031204 25.000000551342968 556.28571270406246 0.57142859697341819 1.0000000298023217 1.0000000298023222 2.0000000447034836 9.4285717010498011 5.5714286863803855 91.714286491274834 327.14285738766193 5.0000000596046439 17.714286103844643 144.57142944633961 4064.0001186430454 88.142855256795883 88.428572729229927 2229.2857260257006 130.14285716414452 6.1428570747375497 18.428570926189423 1.0000000298023226 11.999999999999998 3.4285715520381919
leaf_count=33 27 1 67 32 13 667 10 61 29 6 3 245 352 31 5 25 751 2475 54 1 367 34 46 12 8610 29 5 115 30 2 1 16 104 7 9261 7 4 302 13 2253 149 2 17 46 44 105 88 53 3038 26 640 315 321358 37 104 7336 257 1 36 8 26 65
internal_value=0 -7.16037e-05 0.000483242 0.000400459 0.00017943 -9.25032e-05 4.8586e-05 0.000974019 -3.22749e-06 -2.30853e-05 0.000257639 0.000153875 -0.00011821 -8.66093e-05 0.0006541 -9.72398e-05 -4.81782e-05 -7.48174e-05 8.58405e-05 0.00172002 -2.86206e-05 -0.000109598 -0.000161558 8.16233e-05 -5.95944e-05 4.54247e-05 -8.78814e-05 0.000374773 -0.000124143 -7.7611e-05 -8.762e-06 -4.32083e-05 0.000650485 -7.02061e-05 -7.81366e-05 1.52754e-05 -0.000180053 0.000960878 -0.000208763 -0.00014186 -0.000147396 0.000190934 -0.00018113 0.000819455 -0.000181839 0.000203075 -0.000133847 -0.000105787 -0.000157189 -0.000182146 -0.000182909 -7.07478e-05 -0.000187385 -0.000157119 -0.000200114 -0.000204174 -0.000217919 -9.95287e-05 -0.000237606 -2.83686e-05 -0.000223186 -0.000212143
internal_weight=0 15383.7 558.429 2721 497.571 14825.3 2284.86 121.143 2163.71 2117.71 344.429 312.429 12540.4 8299.57 117.429 8182.14 4641.57 4292.29 763.857 50 713.857 3528.43 3540.57 296 1120.43 60.4286 307.286 40 3402.43 1773.29 856 823.714 30.8571 792.857 1087.14 406.143 4240.86 4 2420.14 917.286 909 25.5714 4236.86 3 4233.86 36.7143 681 181.286 883.429 4233.29 4228.29 162.286 4066 267.286 2324.57 2236.14 179.143 15.5714 160.571 2 142.143 74.4286
internal_count=359857 359798 663 59 662 359135 6687 100 6587 6558 319 313 352448 29655 422 29233 3743 3712 1173 55 1118 2539 25490 310 17991 90 649 288 2505 6239 795 794 120 674 17966 8617 322793 306 7499 5444 5442 2255 322487 71 322416 173 9349 298 3187 322383 322357 955 321402 361 7486 7382 324 106 319 54 283 417
is_linear=0
shrinkage=0.02


Tree=11
num_leaves=63
num_cat=0
split_feature=13 67 113 166 151 114 158 97 114 3 11 46 72 27 7 158 151 67 49 152 19 156 156 60 152 40 27 60 146 166 166 142 49 99 79 29 67 142 4 3 142 3 152 78 40 13 19 29 54 46 68 30 13 28 161 0 28 109 146 156 146 14
split_gain=1.14386 0.730602 0.557697 0.345575 0.275951 0.493935 0.189423 0.177186 0.326086 0.404887 0.168287 0.140039 0.127404 0.0982073 0.0779776 0.0778337 0.0598898 0.0964546 0.057514 0.0395652 0.172676 0.108245 0.400778 0.0556508 0.0553851 0.0393954 0.037029 0.0364027 0.0323982 0.0288481 0.33227 0.181917 0.0273355 0.0263159 0.025769 0.0256455 0.0250221 0.0242234 0.0186198 0.0554205 0.0179426 0.0168322 0.016708 0.0726556 0.0156583 0.0367566 0.0584157 0.0161894 0.0150101 0.0142331 0.0128162 0.012252 0.00994932 0.00918105 0.00879127 0.00772784 0.00686085 0.0064425 0.00576945 0.00470678 0.003746 0.00340688
threshold=25.930101596516504 22.702500000000004 0.010947089370664924 0.66789758739537175 21.500000000000004 0.090769230769230783 649.50000000000011 -0.23975000000000005 0.20025000000000007 3.9721428571428583 0.60879918147149115 2.2500000000000004 0.039644780219780261 0.026717861463041951 0.32522500000000004 146.50000000000003 38.500000000000007 -15.923210714285714 -1.0000000180025095e-35 6.5000000000000009 5.9285714285714297 0.55315586343394363 0.53710060807075755 -17.944884024308752 9.5000000000000018 0.86233722272086177 0.029204594594594603 -49.592717059428658 0.002826189981735598 0.32354428121096773 0.31582379265848509 108.50000000000001 -1.0000000180025095e-35 0.28035714285714292 1.5357142857142858 -0.40406396396396399 -8.2620142857142849 165.50000000000003 1.0000000180025095e-35 0.58750000000000002 4819.5000000000009 30.480714285714285 8.5000000000000018 0.30714285714285722 0.70146463203463216 99.992549877494014 0.78571428571428581 -42.274999999999991 0.17023809523809527 2.8928571428571428 0.14142857142857146 -200.23251291989664 38.397071464267505 29.945000000000004 7.5000000000000009 1.0000000180025095e-35 36.945000000000007 1.9285714285714286 0.0068356599108307563 1.0567002332406394 0.0098789830673888662 4.2801785714285723
decision_type=8 10 8 10 8 8 10 10 8 10 10 8 10 10 8 10 8 8 8 8 10 8 10 8 10 10 10 8 8 10 10 10 8 10 8 8 8 10 10 10 8 10 8 10 10 8 10 8 8 8 10 8 8 8 10 2 10 10 8 8 8 8
left_child=1 2 -1 4 5 -4 41 8 9 -6 -10 14 54 16 -7 18 17 25 -15 32 21 22 23 -21 -25 -2 -17 -13 48 30 40 -32 -19 58 35 -29 -34 -36 39 -24 -23 -5 43 -31 47 46 -46 49 -18 -38 -49 -30 -53 -28 -12 -47 -55 -44 -9 61 -61 -20
right_child=13 -3 3 6 7 11 -8 33 10 -11 12 27 -14 15 -16 26 28 19 59 20 -22 29 38 24 -26 -27 53 34 51 42 31 -33 36 -35 37 -37 44 -39 -40 -41 -42 -43 57 -45 45 55 -48 50 -50 -51 -52 52 -54 56 -56 -57 -58 -59 -60 60 -62 -63
leaf_value=0.00090617011492057683 -0.00026967020431145096 0.0025464877147516976 0.0023373526315053259 -0.00019154689255851282 -0.00024209577703271175 0.0011755658962782178 0.00074097479395117351 -6.0072046740058476e-06 0.00070570909850477335 0.0040907539141277994 -0.00017680915211153449 0.0001094680811368319 0.00034769653940219228 0.0041577350188726986 -0.00022523611487834712 0.0013572429589854326 0.00022036595088645381 0.00046558291265619571 6.3906981974767255e-05 0.0023779884140646742 0.00076510736474029179 -0.00010783760792516227 0.00068048283685668762 0.0004917563290065981 -0.0001734266836003396 0.0038130545979791113 0.00060412716891970167 0.0001008682695713522 -0.00041285648344709141 -2.3465839404227733e-05 0.0020859707321453824 -0.00013069811642233889 0.00036415617720418674 0.00017856955811537692 0.00018433229888485011 -0.00011232478258598902 0.0029188090686783929 -0.00022341034395181159 0.0046845530006817213 0.0037150770586739253 0.0015649214552829194 0.00023772009290840598 -0.00016144069549619896 0.0023411710454696775 -0.00018813772543917662 0.00012494496844029713 0.001222105318620046 -0.00016329126784093314 -0.00017468210028539124 -0.00026259112860600042 8.6788594333513661e-05 3.615420638454546e-05 -0.00018635261570215677 0.00062786581662186553 7.4231295136332597e-05 -0.00016177841124516025 -9.3799537425401559e-05 0.00086938679313818435 -0.00014706959125168785 0.00069867883576080181 -0.00017576287378800147 0.00081015715596667321
leaf_weight=417.42857559025288 1.285714343190193 53.571426391601562 34.428572311997414 104.14285585284233 14.857142835855482 54.57142947614193 544.71428680419922 194.42856752872467 363.99999561905861 20.571428298950195 255.00000160932541 300.85715156793594 791.57141238451004 1.2857142984867094 22.428571730852127 24.571428537368774 117.14285509288311 30.285714581608772 24.857143878936768 4.2857141494750977 104.00000125169754 1017.0000163316727 3.142857253551484 80.14285771548748 133.42857223749161 3.5714285373687744 63.428571447730064 289.14285582304001 94.142860412597656 122.14285741746426 44.714284226298332 22.142857313156128 39.28571417927742 208.99999830126762 62.00000125169754 1028.5714251846075 1.2857142984867094 971.42856305837631 3.2857143878936759 10.285714149475098 2.5714285373687735 56.285713195800781 1731.5714311897755 5.4285715073347083 23.714285910129547 47.285713091492653 23.285714149475098 3176.428604349494 57.285714417695999 1.0000000447034838 84.142858028411865 81.85714490711689 4465.0001008361578 7.8571428954601314 71.428570404648781 183.57142548263073 16.000000223517418 2.4285714626312247 287.42857287824154 1.9999999999999998 97.000002950429916 2.7142858058214214
leaf_count=18 89 2 34 299 54 27 4 3 27 1 1324 15 13 3 35 4 12 33 48 5 16 23990 99 763 1692 5 13 35 2 566 39 238 29 24 1997 135 2 404 4 1 14 1 14226 15 46 69 3 33334 93 97 600 37 277000 13 17 52 46 10 95 10 1826 149
internal_value=0 0.000221057 0.000200616 0.000148735 8.99683e-05 -4.32292e-05 0.00056308 0.00025665 0.000377531 0.00227375 0.0003322 -7.32622e-05 0.000210593 -0.000114635 0.00076754 0.0002861 -0.000122833 -8.50643e-05 -5.09822e-05 -8.70485e-05 -3.68419e-05 -6.3048e-05 0.000350448 0.000121465 7.61838e-05 0.00273233 0.000671399 -9.76746e-05 -0.000176966 -9.59497e-05 -1.40535e-05 0.00135182 -0.000132753 -8.85702e-06 -0.000124181 -6.55443e-05 -0.000137815 -0.000198948 0.00333505 0.00300485 -0.000103619 -4.09403e-05 -0.000143745 7.7157e-05 -0.000143385 7.4233e-07 0.000510554 -0.000155658 9.06245e-05 0.00152695 -0.000156838 -0.000187023 -0.000182347 0.00047833 -0.000121877 -0.00010305 0.000143875 -0.000159997 -9.01511e-05 -9.37344e-05 -0.000158097 0.000137372
internal_weight=0 6147.86 6094.29 5676.86 4971.71 2763.43 705.143 2208.29 1517.43 35.4286 1482 2729 1118 11956.9 77 239.714 11717.1 6901.71 127.857 6896.86 3286.57 3182.57 234.571 217.857 213.571 4.85714 111.857 2652 4815.43 2948 1086.43 66.8571 3610.29 690.857 2351.14 1317.71 3580 1033.43 16.7143 13.4286 1019.57 160.429 1861.57 127.571 3540.71 277.857 47 3262.86 174.429 2.28571 3260.57 4641 4546.86 87.2857 326.429 230.857 23.8571 1734 481.857 126.571 99 27.5714
internal_count=359857 4564 4562 4544 4240 2682 304 1558 1436 55 1381 2648 1354 355293 62 2112 353181 76037 2036 75943 41678 41662 2564 2460 2455 94 76 2586 277144 39098 24281 277 34265 122 2571 170 34232 2401 104 100 24004 300 14817 581 34203 170 49 34033 105 99 33934 277039 277037 72 1341 121 59 14236 98 2033 1836 197
is_linear=0
shrinkage=0.02


Tree=12
num_leaves=63
num_cat=0
split_feature=82 82 45 97 28 143 55 40 37 144 45 28 144 152 62 154 154 62 87 84 103 30 146 118 45 45 32 64 28 152 103 76 98 68 46 69 70 28 25 144 32 110 114 154 66 46 87 64 151 32 32 146 32 30 55 46 70 114 55 154 45 98
split_gain=0.945462 0.616133 0.613638 0.350099 0.328966 0.323122 0.219277 0.199248 0.884578 0.152354 0.132309 0.128865 0.0997493 0.0918656 0.0934138 0.177083 0.682472 0.0853508 0.085251 0.0759639 0.0714189 0.0653122 0.0541033 0.0512845 0.0539558 0.0409608 0.0686137 0.038987 0.0498267 0.0345596 0.032248 0.0272488 0.0599534 0.0228974 0.185683 0.0464706 0.0198236 0.0178063 0.0168052 0.100012 0.0161468 0.0157359 0.0291207 0.01535 0.0138748 0.0136417 0.0132943 0.0123183 0.0122722 0.0118824 0.00908594 0.00872692 0.00857599 0.00815074 0.00707503 0.00565934 0.00478162 0.00456048 0.00403499 0.0109385 0.0107955 0.00371447
threshold=0.34435357142857154 0.42678571428571432 -303.76751018811996 -27.407158333333328 6.5550000000000006 2.5000000000000004 0.25623744619799144 1.7975033333333337 -15.886324999999998 75.500000000000014 -596.19299999999987 6.0565384615385005 240.50000000000003 6.5000000000000009 0.46428571428571436 0.021703302571990091 0.0212827167446074 91.892857142857153 0.053610227272727261 0.39677083333333335 80.872143618425014 7.0982423351532988 0.01177626256789553 35.708333333333506 67.205000000000013 -3.5867961538461532 1.7500000000000002 4.0714285714285721 5.1401851851850004 8.5000000000000018 212.99333333333354 124.96428571428574 0.0056980519480519494 0.097887630662020927 171.53571428571431 0.021666666666666671 0.12804501054852321 38.755000000000003 2.4026153846153848 1.5000000000000002 3.9642857142857149 0.99607145000000019 0.20855990783410139 0.054666041646829623 0.086507150000000019 1.2500000000000002 0.0086247232791421512 1.0000000180025095e-35 354.50000000000006 135.07142857142858 15.571428571428573 0.034486215885440076 21.321428571428573 -2.6408333333333327 0.83918089575706956 0.96428571428571441 1.0006102489019038 0.17236111111111113 3.9169668497254126 0.058314648729446937 33.867261654766914 0.016682360326428128
decision_type=10 10 8 10 8 8 8 10 10 10 8 10 8 8 8 8 10 10 10 10 10 8 10 10 10 10 10 10 8 8 10 10 10 10 10 10 10 8 10 8 8 10 8 10 10 8 10 8 8 10 10 8 10 10 8 10 8 8 10 10 8 8
left_child=4 -2 -3 6 5 40 36 10 -9 19 -6 52 13 31 15 16 22 23 54 38 29 -10 -15 24 -16 26 -23 47 -29 -17 37 33 -33 41 35 -35 -4 43 56 -40 -1 45 -43 48 57 -12 58 50 -14 -39 61 -50 -11 -38 -8 -45 -7 -34 -27 -60 -61 -5
right_child=1 2 3 27 7 9 18 8 21 11 12 -13 30 14 17 20 -18 -19 -20 -21 -22 25 -24 -25 -26 46 -28 28 -30 -31 -32 32 44 34 -36 -37 53 49 39 -41 -42 42 -44 55 -46 -47 -48 -49 51 -51 -52 -53 -54 -55 -56 -57 -58 -59 59 60 -62 -63
leaf_value=0.0011154927584425508 0.0021529079124538528 0.0019519738531161945 0.00052887000049023087 2.4115987199362501e-05 0.00056239228909566916 -0.00018972864619458632 -0.00023362334842336093 0.004791136359607249 0.00068029929838203597 -0.00028345811865014624 4.1871019798913803e-05 0.0016286212423102446 -0.00017849486823562301 0.0012127091260021696 -7.0764640158356245e-05 0.00041759615497906572 0.0030049839960720076 0.00078373947310524832 0.00031748128613557947 0.00033026624094162495 0.0012701905682710915 -0.00022498313556260964 -6.7410123750524185e-05 0.00063665674319256943 0.00032566249079042355 -0.00020857682377340968 0.0017055954649697767 0.00085371029472156035 -0.00021940028155304433 -0.00010348119665740199 0.0012133468638748238 0.00050661808202974727 1.424009224809856e-05 0.0017030701406826106 0.0038417717992169564 -0.00012175753371028996 0.00067624933453276864 -0.00017776342022573715 0.0022448675642692244 -0.00017631785614312056 0.00067832761467968784 -0.00023152073676936341 0.0032242599264993743 -0.00025438841401552697 1.7347193304257091e-05 -0.0001614734122306508 0.00060183123224859757 -0.00019118985018363001 0.00093545293334349855 -0.00040459935732367613 0.00042372703834523822 6.7468498113044069e-05 0.00033270786790286791 0.00084419979719167358 -3.0042261600637752e-06 0.00069427139449988338 -4.3855437022281617e-05 -0.00022262155674931424 -8.3524050031696907e-05 -7.1770975572671555e-05 0.0021291668734775872 -0.00023965883688090069
leaf_weight=37.285714760422707 74.428570866584778 87.285715103149414 239.85713800787926 81.000000551342964 120.42856954038143 515.71428300440311 129.28571426868439 17.428572252392769 71.571428716182709 19.285714626312256 137.00000298023224 42.428571298718452 139.42857180535793 14.857143148779867 3230.8571418076754 59.142857447266579 41.714286416769028 50.42857027053833 644.57141226530075 176.28571033477783 17.571428537368774 15.714285761117937 118.85714277625084 43.571430280804634 143.4285740852356 141.85714340209961 13.857142448425291 36.571430206298828 32.8571417927742 365.85714602470398 6.7142857462167731 81.000000834465027 38.428572073578835 5.8571428954601279 5.1428570747375479 118.85714396834373 254.14286154508591 4910.4286825209856 8.1428571045398712 42.142857670783997 361.00000886619091 2.5714286863803864 1.5714286118745793 3.0000001043081292 289.14286130666733 3592.1428809016943 9.7142858505249006 568.42856991291046 4.8571428954601288 94.142860412597656 19.428571701049805 100.57143074274063 17 211.99999153614044 90.428569912910461 15.571429014205933 108.85714228451252 211.28571552038193 39.142857059836388 1.7142857909202573 1.8571428805589669 28.999999716877937
leaf_count=21 23 7 56 29 18 39 13 7 12 56 759 7 90 47 28128 103 11 12 140 8 4 87 188 76 7 499 6 2 43 1066 21 36 13 27 1 744 59 289518 8 197 193 55 50 121 47 35175 15 226 14 1 3 1176 1 4 33 5 87 117 179 34 12 121
internal_value=0 0.000360519 0.000305503 0.000244023 -5.847e-05 0.000242601 0.000415116 -8.64771e-05 0.000412686 3.8436e-05 -9.76603e-05 0.000880265 -0.000103402 -6.12827e-05 7.30622e-06 0.000233841 0.000771573 -3.3059e-05 0.000201512 -3.94169e-05 2.06917e-05 0.000154383 7.48254e-05 -4.51105e-05 -5.3914e-05 -1.37622e-05 0.000679684 -0.000106127 0.00034586 -3.09682e-05 -0.000171829 -0.000123802 -7.06044e-07 -0.000143553 0.000117522 -3.60554e-05 0.000676611 -0.000173594 -0.000135985 0.000215749 0.000719253 -0.000152634 0.00107929 -1.33266e-05 -7.69661e-05 -0.000154003 -0.000119309 -0.000151094 -5.53721e-05 -0.000182031 2.49999e-05 0.000107457 5.21807e-06 0.000752633 -0.000138707 0.000541026 -0.000164304 -0.000186171 -0.000157264 1.31516e-05 0.00107272 -4.54246e-05
