tree
version=v3
num_class=1
num_tree_per_iteration=1
label_index=0
max_feature_idx=169
objective=regression
feature_names=is_mobile sem_impressions_w2 sem_clicks_w2 sem_adspend_w2 sem_qty_w2 sem_gmv_revenue_adjustment_seller_w2 sem_orders_seller_w2 sem_margin_seller_w2 sem_ctr_w2 sem_cpc_w2 sem_rpc_seller_w2 sem_roas_seller_w2 sem_convrt_seller_w2 sem_ordersize_seller_w2 sem_mpc_seller_w2 sem_mpo_seller_w2 sem_impressions_w1 sem_clicks_w1 sem_adspend_w1 sem_qty_w1 sem_gmv_revenue_adjustment_seller_w1 sem_orders_seller_w1 sem_margin_seller_w1 sem_ctr_w1 sem_cpc_w1 sem_rpc_seller_w1 sem_roas_seller_w1 sem_convrt_seller_w1 sem_ordersize_seller_w1 sem_mpc_seller_w1 sem_mpo_seller_w1 sem_impressions_v2 sem_clicks_v2 sem_adspend_v2 sem_qty_v2 sem_gmv_revenue_adjustment_seller_v2 sem_orders_seller_v2 sem_margin_seller_v2 sem_ctr_v2 sem_cpc_v2 sem_rpc_seller_v2 sem_roas_seller_v2 sem_convrt_seller_v2 sem_ordersize_seller_v2 sem_mpc_seller_v2 sem_mpo_seller_v2 sem_impressions_v3 sem_clicks_v3 sem_adspend_v3 sem_qty_v3 sem_gmv_revenue_adjustment_seller_v3 sem_orders_seller_v3 sem_margin_seller_v3 sem_ctr_v3 sem_cpc_v3 sem_rpc_seller_v3 sem_roas_seller_v3 sem_convrt_seller_v3 sem_ordersize_seller_v3 sem_mpc_seller_v3 sem_mpo_seller_v3 sem_impressions_v4 sem_clicks_v4 sem_adspend_v4 sem_qty_v4 sem_gmv_revenue_adjustment_seller_v4 sem_orders_seller_v4 sem_margin_seller_v4 sem_ctr_v4 sem_cpc_v4 sem_rpc_seller_v4 sem_roas_seller_v4 sem_convrt_seller_v4 sem_ordersize_seller_v4 sem_mpc_seller_v4 sem_mpo_seller_v4 sem_impressions_v5 sem_clicks_v5 sem_adspend_v5 sem_qty_v5 sem_gmv_revenue_adjustment_seller_v5 sem_orders_seller_v5 sem_margin_seller_v5 sem_ctr_v5 sem_cpc_v5 sem_rpc_seller_v5 sem_roas_seller_v5 sem_convrt_seller_v5 sem_ordersize_seller_v5 sem_mpc_seller_v5 sem_mpo_seller_v5 sem_impressions_v9 sem_clicks_v9 sem_adspend_v9 sem_qty_v9 sem_gmv_revenue_adjustment_seller_v9 sem_orders_seller_v9 sem_margin_seller_v9 sem_ctr_v9 sem_cpc_v9 sem_rpc_seller_v9 sem_roas_seller_v9 sem_convrt_seller_v9 sem_ordersize_seller_v9 sem_mpc_seller_v9 sem_mpo_seller_v9 sem_impressions_v12 sem_clicks_v12 sem_adspend_v12 sem_qty_v12 sem_gmv_revenue_adjustment_seller_v12 sem_orders_seller_v12 sem_margin_seller_v12 sem_ctr_v12 sem_cpc_v12 sem_rpc_seller_v12 sem_roas_seller_v12 sem_convrt_seller_v12 sem_ordersize_seller_v12 sem_mpc_seller_v12 sem_mpo_seller_v12 sem_impressions_v18 sem_clicks_v18 sem_adspend_v18 sem_qty_v18 sem_gmv_revenue_adjustment_seller_v18 sem_orders_seller_v18 sem_margin_seller_v18 sem_ctr_v18 sem_cpc_v18 sem_rpc_seller_v18 sem_roas_seller_v18 sem_convrt_seller_v18 sem_ordersize_seller_v18 sem_mpc_seller_v18 sem_mpo_seller_v18 uber_curr_item_price_w1 uber_num_appr_reviews_w1 uber_avg_overall_rating_w1 uber_price_change_ratio_w1 uber_price_change_value_w1 uber_avg_margin_w1 site_total_page_views_w2 site_total_add_to_carts_w2 site_total_orders_w2 site_total_revenue_w2 site_atcpv_w2 site_convrt_w2 site_rpv_w2 site_mpv_w2 site_total_page_views_w1 site_total_add_to_carts_w1 site_total_orders_w1 site_total_revenue_w1 site_atcpv_w1 site_convrt_w1 site_rpv_w1 site_mpv_w1 bc_bounces_w2 bc_visits_w2 bc_bounce_rate_w2 bc_sem_bounces_w2 bc_sem_visits_w2 bc_sem_bounce_rate_w2 bc_bounces_w1 bc_visits_w1 bc_bounce_rate_w1 bc_sem_bounces_w1 bc_sem_visits_w1 bc_sem_bounce_rate_w1
feature_infos=[0:1] [0:8820.1428571428569] [0:70.428571428571431] [0:76.372142857142862] [-2.9285714285714284:10.285714285714286] [0:85.642142899999996] [0:6] [-280.18428571428569:85.642142857142858] [0.0021141649048625802:2] [0.01:1.26] [0:605.91999999999996] [0:29495] [0:81] [1.48:1817.9417941794181] [-1307.5266666666666:605.91999999999996] [-458.84107946027001:1817.9417941794181] [0:10146.142857142857] [0:75.714285714285708] [0:86.49857142857141] [-2.8571428571428568:20.571428571428573] [0:78.569999999999993] [0:12] [-560.36857142857139:78.570000000000022] [0.0020466639377814161:2] [0.01:1.3899999999999999] [0:549.99000000000001] [0:11242] [0:81] [1.53:888.92889288928893] [-3922.5799999999999:549.99000000000001] [-406.1084674597621:888.92889288928893] [0:7598.8571428571431] [0:199.78571428571428] [0:78.837142857142879] [-2.9285714285714284:35.928571428571431] [0:147.92788569999999] [0:4.5714285999999991] [-232.04325:105.08217142857143] [0.0021510713990237451:2] [0.01:1.46] [0:605.91999999999996] [0:29495] [0:26] [1.48:1817.9417941794181] [-332.75999999999999:605.91999999999996] [-3495.2000000000012:1817.9417941794181] [0:21825] [0:603.35714285714289] [0:401.15999999999991] [-4.5714285714285712:105] [0:331.89882139999997] [0:8.2534714000000005] [-520.55146428571436:176.19596428571427] [0.0014321518080916578:2] [0.01:1.46] [0:1599.99] [0:59999] [0:49] [1.973308504035:1599.99] [-398.99000000000001:1599.99] [-4805.2400000000016:1599.99] [0:28695.857142857134] [0:593.5] [0:406.78142857142859] [-4.5714285714285712:116.21428571428572] [0:274.92004289999994] [0:9.0709856999999996] [-456.43307142857162:145.02004285714284] [0.0013742556115437471:2] [0.01:1.4450000000000001] [0:1599.99] [0:59999] [0:50] [1.22:1599.99] [-535.21000000000004:1599.99] [-2607.492997198879:1599.99] [0:25327.785714285717] [0:414.5] [0:275.45642857142855] [-2.5:87.285714285714306] [0:197.88800000000001] [0:11.558578600000001] [-483.21702142857146:99.990857142857138] [0.0014816503305219964:2] [0.01:1.4739999999999998] [0:622.47500000000002] [0:26970] [0:50] [1.22:1244.95] [-535.21000000000004:622.47500000000002] [-3059.6920923722882:1244.95] [0:50352.916666666657] [0:1567.916666666667] [0:819.79750000000001] [-8.1666666666666661:215.58333333333329] [0:102.4958333] [0:3.6666666999999999] [-1252.4245416666668:102.49583333333334] [0.00092336103416435823:2] [0.01:1.6299999999999999] [0:1229.95] [0:33598] [0:25.5] [1.9333333333330001:1229.95] [-1508.22:1229.95] [-5007.5157421289359:1229.95] [0:15223.285714285714] [0:405.14285714285722] [0:374.94357142857137] [-1.1428571428571428:65.142857142857139] [0:183.54607139999999] [0:7.7049285999999997] [-298.19857142857148:81.42714285714284] [0.00090415913200723324:2] [0.01:1.99] [0:1139.98] [0:113998] [0:26] [0.95999999999999996:1139.98] [-574.44000000000005:1139.98] [-4499.4244120940648:1139.98] [0:2703.7857142857142] [0:69.857142857142861] [0:40.445] [-0.5:13.642857142857142] [0:174.10204999999999] [0:5.9563857000000002] [-38.057142857142857:106.49919285714284] [0.0046231474387763176:2] [0.01:2.0095890410958903] [0:499.99000000000001] [0:5421.5] [0:25] [3.2628894698500002:1029.8900000000001] [-162.25:499.99000000000001] [-278.02790279027903:549.4000000000002] [0:35599] [0:0] [0:5] [0.99999999999999978:1.0000000000000002] [-3.637978807091713e-12:3.637978807091713e-12] [0:35599] [1:327053] [1:25257] [1:480274] [0:3746614.800000058] [0.00015684121787205678:5] [0.00011058277120424638:12.415073775989267] [0:420.99000000000001] none [1:140791] [1:10698] [1:240111] [0:2094288.6500000104] [0.00015933715742511153:5] [0.00012997140629061605:12.116431226765801] [0:182] none [0:85497] [1:184569] [0:1] [0:1113] [0:2499] [0:1] [0:37718] [1:79202] [0:1] [0:421] [0:1022] [0:1]
tree_sizes=4190 5658 4202 6704 7363

Tree=0
num_leaves=37
num_cat=0
split_feature=58 35 35 38 98 136 74 69 19 74 23 1 5 58 48 48 1 136 38 98 143 82 42 1 38 1 35 1 6 1 1 1 16 23 23 19
split_gain=0.173751 0.0476348 0.0303181 0.0314074 0.0214278 0.171213 0.0131842 0.0126017 0.118804 0.00767638 0.0053896 0.010102 0.00526867 0.00440283 0.00307653 0.0105107 0.014722 0.0084648 0.0261905 0.00353282 0.00489265 0.00145408 0.00102955 0.0010273 0.000864356 0.000630373 0.000266967 0.00020266 0.000154765 8.67362e-19 6.50521e-19 2.1684e-19 2.1684e-19 2.1684e-19 2.1684e-19 6.77626e-21
threshold=4.035042740353501 2.5932143000000005 3.6622143000000005 0.025464255480105915 0.01053424223208624 3.9850000000000008 -0.58313348774906504 0.12062500000000001 0.2142857142857143 -0.23858740371148454 1.3333333333333337 0.10714285714285715 21.503142850000007 5.4750000000000005 0.019642857142857146 0.018214285714285714 66.857142857142875 161.39000000000001 0.5277777777777779 0.014936528121723225 2.5000000000000004 11.426071428571431 0.041683333333333357 1.7500000000000002 0.38750000000000007 753.67857142857156 2.7892857000000011 1003.8928571428573 1.8501964000000004 2183.428571428572 1003.8928571428573 34.964285714285722 300.00000000000006 0.014301172441675189 0.006252198038372867 1.642857142857143
decision_type=8 10 10 10 8 8 8 8 10 8 10 8 10 8 8 8 10 10 8 8 8 10 10 8 10 10 10 10 10 10 10 10 8 10 8 10
left_child=-1 4 3 -3 5 -2 -4 8 31 -7 13 35 28 -9 15 17 24 23 -19 20 25 22 -21 -15 -17 -16 -5 -22 30 33 32 -6 -8 34 -11 -12
right_child=1 2 6 26 7 9 12 10 -10 29 11 -13 -14 14 19 16 -18 18 -20 21 27 -23 -24 -25 -26 -27 -28 -29 -30 -31 -32 -33 -34 -35 -36 -37
leaf_value=0.0072888461868548561 0.0094695451845265965 0.0081501936441295188 0.0067437832950139826 0.0066167991983643627 0.0062596563180073546 0.006644271710234002 0.0062596563191293182 0.0069013621950311755 0.010217989457403157 0.0062596563204849152 0.0062596563181610745 0.0095931563027365115 0.0065091644610291138 0.0065145680867458285 0.0065027188258203559 0.0062596563186244937 0.0082596564110031696 0.0062596563181610745 0.011259656163328701 0.0062816245556767559 0.0062596563188256514 0.0065096563246180884 0.0064465722138626917 0.0062964210255345475 0.0072123230604091851 0.0066798180686929755 0.0062596563212505337 0.0063340057639093049 0.0063295863882721886 0.0062596563163026852 0.0062596563153612421 0.0062596563189922308 0.0062596563227428088 0.0062596563178342118 0.0062596563207008024 0.0062596563181610753
leaf_weight=84.285713419318199 7.7142858505249015 9.5714282989501935 90 0.999999999999999 13.000000447034841 29.714286610484123 9.0000000149011594 4.8571429252624512 3.4285714030265799 10.99999988079071 0.85714289546012878 0.57142859697341797 201.57143497467041 9.7142860740423185 13.714285582303999 3.4285715669393535 2.8571429252624512 1.5714286416769025 0.57142859697341863 1547.1428874582052 23.714285731315613 11.428571850061415 15.285714790225027 77.71428769826889 0.42857143282890309 19.428571701049805 5.1428572237491608 38.428569793701172 20.428571701049805 25.142857700586319 20.285713672637939 13.285714492201803 3.9999999850988379 12.714285448193548 19.999999806284904 0.1428571492433548
leaf_count=25 14 8 15 30 3878 61 31 44 3 3 351 29 10 853 231 1418 2 774 496 324010 1103 94 707 23880 331 1 97 1 5 2 2 21 239 10 1112 3
internal_value=0.0063874 0.00636407 0.00657474 0.00743389 0.00632421 0.00660016 0.00653564 0.00630793 0.00671639 0.0063756 0.00630108 0.00747184 0.00646226 0.00630004 0.00629838 0.00640831 0.00717153 0.0063511 0.00759299 0.00629204 0.0064103 0.00628488 0.00628324 0.00632066 0.00636551 0.00660654 0.0063178 0.00630563 0.00628625 0.00625966 0.00625966 0.00625966 0.00625966 0.00625966 0.00625966 0.00625966
internal_weight=0 2268.86 361 15.7143 1907.86 106.286 345.286 1801.57 29.7143 98.5714 1771.86 1.57143 255.286 1770.29 1765.43 96.2857 6.71429 89.5714 2.14286 1669.14 95.2857 1573.86 1562.43 87.4286 3.85714 33.1429 6.14286 62.1429 53.7143 68.8571 33.2857 26.2857 13 43.7143 31 1
internal_count=359894 359869 437 135 359432 1202 302 358230 3902 1188 354328 383 287 353945 353901 27754 1751 26003 1270 326147 1336 324811 324717 24733 1749 232 127 1104 277 1127 272 3899 270 1125 1115 354
is_linear=0
shrinkage=1


Tree=1
num_leaves=49
num_cat=0
split_feature=58 19 19 39 8 159 159 46 74 63 146 34 19 61 46 146 159 58 23 1 99 16 23 146 119 115 39 34 1 1 46 159 1 1 91 1 8 1 2 1 16 39 1 1 23 1 9 39
split_gain=0.16687 0.0413424 0.0322362 0.0134036 0.0112494 0.0573528 0.232828 0.0102265 0.00844635 0.00830427 0.019726 0.0167264 0.0850829 0.00784366 0.00679347 0.0123813 0.0147219 0.00549136 0.00528783 0.00970198 0.00171424 0.00100768 0.012417 0.000913551 0.000727675 0.00811688 0.000619992 0.000321654 0.000112714 8.57674e-05 3.44762e-05 1.43182e-05 1.18394e-05 1.52962e-08 1.37976e-08 4.5322e-09 3.7268e-09 1.05029e-09 1.03313e-09 9.88786e-10 3.75095e-09 6.42498e-10 4.33681e-19 1.0842e-19 1.0842e-19 2.71051e-20 6.77626e-21 6.77626e-21
threshold=4.035042740353501 2.5000000000000004 3.5000000000000004 1.1100000000000003 0.010301697998787145 41.500000000000007 40.500000000000007 1036.3928571428573 -0.23858740371148454 0.11464285714285717 0.0036656911198363882 0.10714285714285715 0.35714285714285715 23.107142857142861 0.10714285714285715 0.024394967032551815 31.500000000000004 5.4750000000000005 1.3333333333333337 0.10714285714285715 0.60083333333333344 4.2142857142857153 0.039270764485569515 0.025560738809724485 8.7350000000000012 9.9914285714285747 0.10062500000000003 0.25000000000000006 258.21428571428578 753.67857142857156 74.178571428571445 179.50000000000003 383.57142857142867 0.96428571428571441 154.54166666666671 0.96428571428571441 0.043574224238976215 569.17857142857156 1.892857142857143 88.000000000000014 35.785714285714292 0.26015957446808519 514.46428571428578 452.14285714285717 0.011124001031193608 29.535714285714288 0.32506906077348069 0.20719211822660108
decision_type=8 10 10 10 8 10 8 10 8 8 8 10 10 10 8 8 8 8 10 8 10 8 10 8 10 10 10 10 10 10 8 8 8 8 10 10 8 10 10 8 8 10 8 10 10 8 10 10
left_child=-1 3 -3 4 5 6 32 27 -7 10 -6 13 17 21 15 16 -11 -13 20 46 24 22 -12 31 26 -26 -16 41 -23 -15 -10 -22 38 -17 39 -18 -19 -25 44 40 -32 42 43 -4 45 -2 -20 -35
right_child=1 2 7 -5 9 8 -8 -9 30 14 11 12 -14 29 18 33 35 36 19 -21 23 28 -24 37 25 -27 -28 -29 -30 -31 34 -33 -34 47 -36 -37 -38 -39 -40 -41 -42 -43 -44 -45 -46 -47 -48 -49
leaf_value=0.00088341292471006913 -0.00012563249223530309 0.00056514402724808558 -0.00012563249098319933 0.0018743675244191583 0.0015790973701300106 0.00025927144100145095 0.0049086678040915687 0.00015639351647716603 -9.1839578383115096e-05 0.0047748071055945503 0.0018272630035061463 0.00077105610796753433 0.0039623065652093174 0.00021017087847118553 -9.2094482598193534e-05 -0.00013029135879689309 -0.00012592841890215394 -0.00012558800223025436 -0.00012519312812083372 0.0031416368197663075 9.5161568730107706e-05 -0.00012563113085789309 -0.00012576350080478578 -0.00012563249133267011 0.0048743676450386207 -0.00012563249349560609 -0.0001193086586622402 -5.3833903526134943e-05 -5.7139340121733129e-05 0.00028656537954855835 -0.00012665292524116232 0.00012621713673577665 -8.9017108447413205e-05 -0.00012592841890215464 -0.0001251931269823453 -0.00013029135879689296 -0.00012649781501164795 -0.00012519313067381981 -0.0001251931312451174 -0.00012562467064630841 -0.00012563248966821644 -0.00012545560571280393 -0.0001256324935730741 -0.00012563248830182213 -0.00012563249495649317 -0.00012563249025892477 -0.00012519312812083299 -0.00012592841890215472
leaf_weight=84.285713419318199 1.2857143282890318 66.28571292757988 10.000000044703485 1.4285714626312245 3.2857143580913544 29.142858028411865 4.8571429252624503 228.00000762939453 13.857142865657805 0.57142859697341886 1.4285714477300668 3.4285714626312256 2.5714285373687735 8.4285718500614184 949.00002957880497 0.42857144773006439 0.14285714924335491 11.285714253783224 0.85714289546012878 0.57142859697341797 12.714285612106325 122.57142977416515 14.714286208152769 5.5714287310838682 0.1428571492433538 1.4285714924335478 517.42857228219509 58.857141494750977 10.428571224212645 19.428571701049805 1.8571428954601286 11.142857551574705 5.5714287757873562 0.57142859697341941 46.142857551574707 0.28571429848670959 2.142857223749167 3.5714285373687744 3.1428570747375488 48.142856776714325 6.4285715967416746 10.999999999999998 15.428571701049803 6.9999999999999991 2.1428570747375488 3.285714313387869 0.1428571492433548 0.71428574621677399
leaf_count=25 82 47 74 13 67 6 5 2 25 39 29 3 1 231 283021 93 99 20 328 28 108 28565 200 1198 66 572 39832 5 2 1 27 56 1 3184 9 3 130 1 1 35 68 6 1 1 2 21 23 1538
internal_value=0 -2.28681e-05 0.000162634 -6.21596e-05 -6.36383e-05 9.36039e-05 0.00108989 8.18537e-05 -4.52305e-05 -7.89344e-05 4.22435e-05 1.65362e-05 0.000573588 -4.46091e-05 -9.50117e-05 0.000904657 0.00267325 5.66646e-05 -9.68175e-05 0.00106275 -9.80315e-05 -0.000102149 4.70707e-05 4.4523e-05 -0.000101236 0.000328913 -0.000101697 -8.42992e-05 -0.000120261 0.000263451 -0.000121449 0.000109667 -0.000112321 -0.000127019 -0.00012545 -0.000128837 -0.000125733 -0.000125461 -0.000125492 -0.000125659 -0.000125861 -0.000125588 -0.000125632 -0.000125632 -0.000125632 -0.000125632 -0.000125193 -0.000125928
internal_weight=0 2268.86 396.571 1872.29 1870.86 165.857 20.2857 330.286 145.571 1705 199.714 196.429 19.4286 177 1505.29 2.71429 1 16.8571 1502.57 1.57143 1501 149.143 16.1429 33 1468 1.57143 1466.43 102.286 133 27.8571 116.429 23.8571 15.4286 1.71429 102.571 0.428571 13.4286 9.14286 9.85714 56.4286 8.28571 43.4286 32.4286 17 6.71429 4.57143 1 1.28571
internal_count=359894 359869 136 359733 359720 282 112 89 170 359438 29249 29182 154 29028 330189 4956 141 153 325233 379 324854 28796 229 1363 323491 638 322853 87 28567 232 164 164 107 4815 139 102 150 1199 106 130 95 82 76 75 105 103 351 4722
is_linear=0
shrinkage=0.02


Tree=2
num_leaves=36
num_cat=0
split_feature=58 19 148 98 141 29 69 2 67 98 146 69 23 2 58 3 140 23 38 31 61 3 31 3 23 98 38 19 2 48 93 148 3 19 2
split_gain=0.160262 0.0397052 0.032735 0.0192915 0.158314 0.0141489 0.0089424 0.0921686 0.00714292 0.00631982 0.00519054 0.0203171 0.00500364 0.00931778 0.00270354 0.00341669 0.00270401 0.00637424 0.00263284 0.000279435 1.13684e-06 3.23658e-07 2.36954e-08 3.32259e-09 1.24977e-09 1.1398e-09 7.90255e-10 5.61239e-10 1.28809e-09 4.3675e-10 4.73348e-13 2.13015e-13 6.18592e-14 8.67362e-19 9.48677e-20
threshold=4.035042740353501 2.5000000000000004 0.15444610582855489 0.01053424223208624 3.9850000000000008 -65.934999999999988 0.10585714285714286 2.9285714285714288 -1.0843749999999999 0.020409538015273475 0.0036656911198363882 0.23535714285714288 1.3333333333333337 0.17857142857142858 5.4750000000000005 0.38178571428571434 -6.6613381477509383e-16 0.022284295468653018 0.90000000000000013 1047.464285714286 2.1785714285714293 0.28857142857142865 0.60714285714285732 0.56500000000000006 0.010235098857161585 0.015674479089113239 0.007479469220613575 4.3571428571428585 4.6785714285714297 1.0000000180025095e-35 0.12416666666666668 4.4863483026416882 0.51750000000000018 6.6428571428571432 2.6785714285714293
decision_type=8 10 8 8 8 8 8 10 8 10 8 8 10 8 8 10 8 8 10 10 8 10 8 10 8 8 8 10 10 8 10 10 10 8 10
left_child=-1 3 -3 4 -2 -5 7 25 -6 19 11 -8 14 -14 15 21 17 -16 -18 27 -13 -12 -22 29 -24 -7 -27 28 -4 -10 31 -28 34 -29 -31
right_child=1 2 9 5 8 6 10 -9 23 -11 12 20 13 -15 16 -17 18 -19 -20 -21 22 -23 24 -25 -26 26 30 33 -30 32 -32 -33 -34 -35 -36
leaf_value=0.00086574468107425146 0.0029593672425659986 0.00047320554341464144 -0.00012268401287143522 0.0020204762382061252 0.0002466822922258785 -0.00012335187250039415 0.0018032250570481998 0.0038830606657009742 -0.00012268050451894071 0.00011771858714396278 -0.00013564107429942895 -0.00015721443729137905 -0.00012268926050599231 0.0030788042137561357 0.00010660483339691049 0.00075563493365411998 -0.00010271373806455589 -9.4009921397912802e-05 0.0003029588196656139 -5.2757225886009879e-05 -0.00012844947194358208 -0.0001233512326550875 -0.00012311992543334425 -0.00012271168358227557 -0.00012374524615435008 -0.00012335634123727444 -0.00012268017749911692 -0.0001231198385295969 -0.00012311984385762894 -0.0001233512340850576 -0.00012266317462532103 -0.00012266904428776901 -0.00012335633426053977 -0.00012311984601957098 -0.00012335124317762258
leaf_weight=84.285713419318199 7.7142858505249015 99.571428298950195 4.4285712242126447 1.2857143133878706 29.714286610484123 1.1428571492433548 2.8571429252624512 2.5714285373687735 0.4285714328289032 201.42857818305492 1.4285714626312258 0.4285714328289032 1.0000000447034836 0.57142859697341797 89.571429461240768 3.4285714626312256 1405.4285976290703 216.42857719957829 6.428571715950965 58.857141494750977 0.4285714328289032 2.1428570747375488 1.571428596973419 66.571428447961807 6.8571428805589623 0.71428573131561279 18.28571470081808 9.8571428954601288 7 1.4285714924335473 0.71428573131561179 0.71428574621677299 1.714285731315613 15.428571701049805 0.71428573131561268
leaf_count=25 14 8 64 33 70 12 33 1 5 11 48 16 351 28 113 1 277055 67035 10326 4 36 1 2 11 588 5 2704 35 1 1111 32 100 1 13 1
internal_value=0 -2.24107e-05 0.000159382 -6.09164e-05 0.000198197 -7.68225e-05 -7.83522e-05 0.000303916 -1.3597e-05 5.41698e-05 -8.36606e-05 0.000328393 -8.65588e-05 0.00104149 -8.75865e-05 0.000304664 -8.91849e-05 -3.52866e-05 -0.000100867 -7.97672e-05 -0.000125401 -0.000128267 -0.000123862 -0.000122746 -0.000123629 -0.000122737 -0.000122703 -0.000123067 -0.000122951 -0.000123286 -0.000122679 -0.00012268 -0.000123354 -0.00012312 -0.000123351
internal_weight=0 2268.86 396.571 1872.29 108.286 1764 1762.71 24.1429 100.571 297 1738.57 12.1429 1726.43 1.57143 1724.86 7 1717.86 306 1411.86 95.5714 9.28571 3.57143 8.85714 70.8571 8.42857 21.5714 20.4286 36.7143 11.4286 4.28571 19.7143 19 3.85714 25.2857 2.14286
internal_count=359894 359869 136 359733 1213 358520 358487 2854 1199 128 355633 675 354958 379 354579 50 354529 67148 287381 117 642 49 626 1129 590 2853 2841 113 65 1118 2836 2804 1113 48 1112
is_linear=0
shrinkage=0.02


Tree=3
num_leaves=58
num_cat=0
split_feature=28 35 74 35 98 142 98 22 32 147 54 63 19 18 23 23 98 151 55 142 23 32 18 13 13 54 154 147 18 4 4 4 18 13 165 18 154 61 54 32 23 35 47 4 18 61 4 4 47 47 18 4 4 4 4 4 18
split_gain=0.158771 0.0520246 0.0213992 0.0421848 0.0187422 0.08822 0.175554 0.0114397 0.00697416 0.00695348 0.00691592 0.0406706 0.0741464 0.0197517 0.00480017 0.0089488 0.00286527 0.00447601 0.00283405 0.00636374 0.00393491 0.0013329 0.0219713 0.00126917 0.000928872 0.000787023 0.00970487 0.0105655 0.000585514 0.000198224 0.00019077 0.000142804 0.000108876 9.49802e-05 2.94133e-05 5.21146e-07 1.315e-07 1.23001e-07 8.32565e-08 2.59899e-07 7.31097e-08 3.29612e-08 2.51084e-08 5.87618e-09 5.37609e-09 5.17628e-09 1.97764e-09 1.42391e-09 8.86238e-10 3.76126e-10 3.42156e-11 1.06272e-10 6.36009e-12 1.43966e-10 1.35525e-20 6.77626e-21 6.77626e-21
threshold=3.5792511922180004 3.2114286000000001 -0.44775430468062039 3.5851178500000005 0.01053424223208624 93.500000000000014 0.0096638369575223447 -72.207142857142841 12.392857142857144 0.0089304261380497383 0.1303846153846154 0.02464285714285715 0.2142857142857143 0.4964285714285715 1.3333333333333337 1.7500000000000002 0.014936528121723225 2.5000000000000004 0.15961875000000003 174.50000000000003 0.01773280625308837 0.10714285714285715 1.0857142857142861 113.36000000000001 5.4700000000000015 0.11833333333333335 0.04748853647303819 0.031263963360142991 3.1742857142857148 0.10714285714285715 2.535714285714286 6.4285714285714288 0.012142857142857144 3.6864375000000007 6.5000000000000009 1.0000000180025095e-35 0.043513323983169712 1.0000000180025095e-35 0.20011627906976751 1.0000000180025095e-35 0.15075757575757578 2.1410714500000005 0.10714285714285715 -1.0000000180025095e-35 0.4107142857142857 1.5357142857142858 0.60714285714285732 1.392857142857143 0.67857142857142871 1.0000000180025095e-35 1.7264285714285716 1.0000000180025095e-35 0.8928571428571429 -1.0000000180025095e-35 -1.0000000180025095e-35 0.82142857142857151 0.093571428571428583
decision_type=8 10 10 10 8 10 8 8 10 8 8 10 10 10 10 10 8 8 10 10 8 8 10 10 8 10 10 10 10 10 10 10 8 8 8 8 10 10 10 10 10 10 10 10 10 10 8 10 8 8 10 8 10 10 10 10 10
left_child=-1 4 3 -3 5 6 52 -6 32 -4 11 25 13 41 16 -16 17 28 21 20 -20 22 -18 -21 -23 35 29 -28 34 42 44 36 -7 -5 -12 -9 46 40 39 49 -37 47 -27 -29 -19 -39 -11 -13 -40 -34 51 -50 53 -2 -51 56 -17
right_child=1 2 9 33 7 8 -8 10 -10 31 14 12 -14 -15 15 55 18 30 19 23 -22 24 -24 -25 -26 26 27 43 -30 -31 -32 -33 38 -35 -36 37 -38 45 48 -41 -42 -43 -44 -45 -46 -47 -48 -49 50 54 -52 -53 -54 -55 -56 -57 -58
leaf_value=0.0011258256239681356 -0.00012088420842546671 0.0017067663657278479 0.00015415494628013819 0.00033982049017209552 0.0031940438529447258 -0.00024673636041912169 0.0047513068458429958 -0.00016012348217337547 0.00024556492842727352 -0.00012038162546511169 0.00012326123365282994 -0.00012114057450702645 0.0036170542261281676 0.0017671605225286361 0.0030172279990958585 -0.00012023547708866831 -5.1285886034424732e-05 -0.000121322631559759 0.00080441269183470032 -0.00012937221475054444 -0.00012129534988179663 5.1610735838954583e-05 0.0031680815600546048 0.00012574706816072704 -0.00010229694332488477 -0.00012297808247270853 0.0043182716338011464 -0.00012105709914049021 0.00027870198868720688 -2.44712815490458e-05 -5.0198851163099125e-05 -5.4529834254240369e-05 -0.00012022689486317909 0.00029788504033987853 4.9932555496919719e-05 -0.0001223978431458206 -0.00012352367653473535 -0.00012094746169148636 -0.00012045087710432633 -0.00013584112291753042 -0.00012725112706522555 -0.00012517120440035616 -0.0001208610746205821 -0.00012602499355636478 -0.00012073529376215573 -0.00012031828168410698 -0.00012075267598928705 -0.00012020991269743622 -0.00012023503333330154 -0.00012088420842546775 -0.00012023442004234417 -0.0001203527176831331 -0.00012022627403064644 -0.00012023503390734917 -0.00012088421257712318 -0.00012023547708866763 -0.00012023547708866763
leaf_weight=49.857141256332397 0.14285714924335513 9.5714282989501935 233.00000722706318 33.714286804199219 0.4285714328289032 2.8571429252624512 4.8571429252624494 0.1428571492433548 29.428572326898575 8.5714284181594831 11.285714149475094 8.2857143729925138 3.4285714030265799 2.8571429252624503 0.57142859697341797 0.71428574621677399 79.142859786748886 13.714286059141159 6.4285714626312256 26.000000134110451 2.5714285820722562 15.85714331269264 0.8571428656578054 11.142857551574705 1448.1428853422403 3.0000001192092887 0.4285714328289022 0.28571429848670959 19.428571701049805 29.285715103149414 38.428569793701172 20.428571701049805 0.4285714328289032 60.142856031656265 2.7142857313156137 36.142857760190964 8.2857142835855466 11.142857298254969 10.142857030034065 0.57142858207225788 1.2857143282890309 0.85714289546012956 8.8571431785821897 0.1428571492433548 11.428571105003357 9.8571431636810285 17.428571060299877 0.71428573131561357 10 1.1428571939468382 34.142857551574707 4.4285712242126438 4.2857141494750977 3.1428570747375488 0.71428573131561268 0.1428571492433548 0.1428571492433548
leaf_count=11 557 37 17 2 2 11 144 14 5 18 42 526 2 2 24 333 47806 1129 2 432 793 42 1 1 294954 2285 176 201 1 6 2 1 5 219 209 6311 26 2124 44 29 35 3 461 11 4 356 42 2 8 312 3 61 1 18 5 3 23
internal_value=0 -1.49568e-05 0.000195205 0.000441935 -5.79469e-05 0.000200151 0.00178358 -7.31375e-05 -9.52712e-06 0.000106509 -7.3913e-05 7.49823e-05 0.00100685 0.000302977 -8.42038e-05 0.00102066 -8.52329e-05 2.02953e-05 -9.16702e-05 6.27795e-05 0.000539925 -9.6286e-05 -1.67927e-05 -5.28364e-05 -0.00010063 -7.45934e-05 -8.52335e-06 0.00209778 0.000207649 -5.24046e-05 -7.82231e-05 -9.63887e-05 -0.000126044 0.000312949 0.000109044 -0.00012197 -0.00012133 -0.000121877 -0.000120443 -0.000123777 -0.000122565 -0.000121424 -0.000121397 -0.000122713 -0.000121056 -0.000120652 -0.00012063 -0.000121067 -0.000120281 -0.000120761 -0.000120245 -0.000120271 -0.000120242 -0.000120263 -0.000120884 -0.000120235 -0.000120235
internal_weight=0 2303.29 391.143 103.429 1912.14 106.286 12.4286 1805.86 93.8571 287.714 1805.43 116.714 16.1429 12.7143 1688.71 1.57143 1687.14 97 1590.14 46.1429 9 1544 80 37.1429 1464 100.571 42 0.857143 33.4286 41.1429 63.5714 54.7143 64.4286 93.8571 14 58.5714 34.2857 58.4286 61.5714 2.85714 37.4286 9.85714 11.8571 0.428571 25.1429 21 26 9 58.7143 2.28571 48.5714 14.4286 7.57143 3.28571 1.85714 1 0.857143
internal_count=359894 359883 362 258 359521 1203 720 358318 483 104 358316 12515 535 533 345801 383 345418 1387 344031 1228 795 342803 47807 433 294996 11980 3140 388 252 2752 1135 87 478 221 251 8840 86 8826 467 351 6346 531 2746 212 1133 2480 60 528 116 322 72 69 576 575 317 359 356
is_linear=0
shrinkage=0.02


Tree=4
num_leaves=63
num_cat=0
split_feature=41 7 35 29 98 83 3 33 74 63 17 140 144 3 6 3 3 38 144 33 99 99 106 106 3 16 98 101 3 17 167 144 57 3 17 3 3 41 5 92 33 17 140 16 16 140 7 3 38 63 3 5 3 163 3 92 33 5 3 33 7 3
split_gain=0.147295 0.0785056 0.0453831 0.0191022 0.0168985 0.0738896 0.180801 0.0115675 0.0068758 0.00483644 0.00912304 0.00301781 0.00733227 0.0133679 0.0058503 0.00341094 0.0939753 0.00241927 0.015966 0.0141208 0.0015807 0.00100569 0.000776113 0.00404514 0.000460466 0.000459798 0.000294803 0.00010512 6.40883e-05 1.4058e-05 8.43673e-07 7.9907e-07 5.63532e-07 5.03323e-07 2.92957e-07 2.91777e-07 1.39947e-07 1.28107e-07 7.75316e-08 7.53243e-08 8.39201e-08 6.23006e-08 4.37786e-08 2.97123e-08 2.09975e-08 1.17098e-08 9.91139e-09 2.96456e-08 9.43997e-09 4.20076e-09 7.73994e-10 7.65056e-10 4.50361e-10 7.64959e-10 4.25687e-10 3.33448e-10 2.30288e-10 7.24354e-11 7.05326e-11 6.74159e-11 5.4083e-11 2.21623e-11
threshold=5.0827083333333336 -4.6717857142857122 8.5710714500000016 -65.934999999999988 0.01053424223208624 0.017063806511055237 1.0378571428571433 0.12392857142857142 -0.23858740371148454 0.11464285714285717 1.5000000000000002 -2.6645352591003753e-15 16.500000000000004 0.64821428571428574 0.60714285000000012 0.087500000000000022 0.08607142857142859 0.90000000000000013 3.5000000000000004 0.0067857142857142873 0.60083333333333344 0.76047619047619064 5.8214285714285738 4.0357142857142865 0.46750000000000008 0.35714285714285715 0.019614212628918513 2.2335059213913842 29.842500000000005 1.7857142857142858 2.5000000000000004 1.0000000180025095e-35 1.3916666666666668 1.0000000180025095e-35 5.2857142857142874 0.012500000000000002 0.28857142857142865 14.368589743589746 3.5842857000000006 0.95833333333333337 0.020357142857142862 0.78571428571428581 -1.3322676295501877e-15 0.78571428571428581 2.0714285714285716 -1.3322676295501877e-15 1.0000000180025095e-35 9.9425000000000026 0.035821214713430284 0.01035714285714286 0.0060714285714285722 0.044867900000000009 1.4182142857142861 0.25073099415204686 0.026428571428571437 1.6250000000000002 0.03392857142857144 0.32170715000000005 0.0089285714285714298 0.017500000000000005 4.0946428571428575 0.21678571428571433
decision_type=10 8 10 8 8 10 8 8 8 8 10 8 10 10 10 8 8 10 8 8 10 10 8 10 10 8 10 8 10 10 10 10 10 8 8 10 10 10 10 10 8 10 8 10 8 8 8 10 10 10 10 10 8 8 10 8 10 8 8 10 10 8
left_child=2 -2 3 7 5 8 -7 -1 -5 10 30 12 14 56 15 16 -11 20 19 50 22 26 23 -13 29 -24 -22 46 -23 32 33 58 37 -6 -17 -32 -34 49 43 40 -35 -41 -20 45 -44 54 52 55 -40 -3 -19 -47 53 -10 -39 -48 59 -51 -9 -14 -50 -59
right_child=1 24 -4 4 9 6 -8 31 27 11 -12 17 13 -15 -16 34 -18 18 42 -21 21 28 25 -25 -26 -27 -28 -29 -30 -31 35 -33 36 39 -36 -37 -38 38 48 41 -42 -43 44 -45 -46 51 47 -49 60 57 -52 -53 -54 -55 -56 -57 -58 61 -60 -61 -62 -63
leaf_value=0.0030298394491622216 0.0012520763749265297 -0.00011958430151427097 0.00019981582903441479 0.00024240224917458018 -0.00015692101090009352 -0.00011860545433351346 0.0046562809150880796 -0.00016215418206210998 -0.00011783726266461604 -5.4621833293192665e-05 0.00013812745597392435 -9.0254510734687663e-05 -0.00011986446613120434 0.0031047199358073849 0.00086134215195973708 -0.00012246855496196688 0.005431678963127122 -0.00012702107094506512 -0.00012088468922072506 0.0046742770221407486 0.00012200630625941881 -0.0001202149352352626 -3.5923320696516538e-05 0.00029475695515307113 4.5499845927113377e-05 -0.00010653220318326278 -0.00013140689285236331 -0.00024180162121530482 -4.9194875690887442e-05 -0.00017817263126524707 -0.0001520242061264892 -0.00011861150554069066 -0.00013469978269962303 -0.000120575647794609 -0.00011986073079355799 -0.00011901965182000382 -0.00012684191297386205 -0.00012209538057392539 -0.00012388007355582857 -0.00011903037279653884 -0.00011897730931472872 -0.00012329312092402688 -0.00013211126989560093 -0.00012272455826457449 -0.0001284240108795557 -0.00011804178353305374 -0.0001184665253978285 -0.00012526401689958458 -0.00012741513895028926 -0.00011822896847135203 -0.0001288240613103328 -0.00011923681644409184 -0.00011782936272740685 -0.00011806439584336496 -0.00012363935268047278 -0.00011782235348897809 -0.00011937598358214443 -0.0001183450458611542 -0.00016160990553230396 -0.00012034040454184606 -0.00012716394812165824 -0.00011848886813905683
leaf_weight=1.2857142984867094 56.999998092651367 1.5714285671711019 319.1428644657135 29.28571517765522 0.1428571492433548 9.1428568065166456 4.8571429252624503 0.1428571492433548 13.285714223980902 43.571430221199989 114.00000037252903 108.00000350177288 0.71428574621677332 0.85714286565780629 2.9999999999999991 31.428571730852127 1.2857142686843861 0.1428571492433548 0.28571429848670959 0.57142859697341897 22.428571701049808 5.8571429848670951 38.000001639127731 12.142857462167738 9.1428570151329023 1262.8571661710739 2.0000000894069663 2.8571429252624503 38.428569793701172 2.1428570747375479 0.4285714328289022 0.28571429848670959 1.5714286118745797 15.571428984403608 38.142857909202576 0.1428571492433548 2.1428570747375488 0.1428571492433548 0.42857144773006428 2.2857142537832251 84.142858415842056 3.4285715371370316 0.71428574621677399 3.1428572535514832 4.5714287757873526 0.85714289546012856 1.285714343190193 0.28571429848670948 0.57142858207225777 1.5714286267757414 0.28571429848670959 0.28571429848670959 40.571428775787354 10.714285612106325 0.1428571492433548 0.42857143282890264 0.42857144773006439 0.8571428656578064 0.28571429848670993 0.1428571492433548 0.85714288055896759 0.85714288055896781
leaf_count=8 10 84 15 59 80 6 109 29 14 7561 38 42836 576 2 1 39 3 233 731 470 93 431 12073 1623 4 226067 614 27 1 1 206 15 47 1987 24904 4 1 147 8 419 26289 3 65 22 9806 423 738 1 33 6 22 452 5 33 14 214 21 2 37 14 74 44
internal_value=0 0.000835094 -2.12808e-05 -5.74529e-05 -5.94579e-05 0.000178241 0.00153799 0.00189614 -1.46035e-05 -7.40505e-05 1.38934e-05 -8.60319e-05 1.0655e-05 0.00117004 -1.05015e-05 -3.33589e-05 0.000102629 -9.37583e-05 0.000289142 0.00261606 -9.54474e-05 -1.76079e-06 -9.99777e-05 -5.13413e-05 -6.91226e-05 -0.00010447 0.000101259 -0.000123011 -5.85879e-05 -0.000130255 -0.000119537 -0.000144519 -0.000123409 -0.000119406 -0.000121039 -0.000143773 -0.000130166 -0.000121185 -0.000123037 -0.000119355 -0.000119227 -0.000121588 -0.00012851 -0.000121637 -0.000128922 -0.000119246 -0.000117913 -0.0001193 -0.000126483 -0.000118734 -0.000128223 -0.000118341 -0.00011787 -0.000117939 -0.000122867 -0.000118305 -0.000119755 -0.000118327 -0.000161791 -0.000119944 -0.000127264 -0.000118417
internal_weight=0 83.2857 2269.86 1950.71 1948.71 112.714 14 2 98.7143 1836 220.143 1615.86 119.571 2.14286 117.429 114.429 44.8571 1496.29 6.57143 1 1489.71 68.7143 1421 120.143 26.2857 1300.86 24.4286 69.4286 44.2857 17.1429 106.143 0.714286 15 105.571 69.5714 0.571429 3.71429 11.2857 6.42857 105.429 99.7143 5.71429 5.57143 4.57143 5.28571 1.42857 66.5714 2 1.85714 4.85714 0.428571 1.14286 64.5714 24 0.285714 1.71429 1.28571 3.28571 0.428571 0.857143 1.42857 1.71429
internal_count=359894 1372 358522 358507 358418 1206 115 89 1091 357212 29026 328186 33121 613 32508 32507 7564 295065 11327 725 283738 1139 282599 44459 1362 238140 707 1032 432 1358 28988 81 1357 28778 24943 210 48 1309 1173 28698 28276 422 10602 1058 9871 1036 1005 953 115 136 255 875 52 47 161 952 611 52 66 590 107 46
is_linear=0
shrinkage=0.02


end of trees

feature_importances:
sem_impressions_w2=19
sem_adspend_w2=19
sem_ctr_w1=13
sem_qty_w2=11
sem_ctr_v9=10
sem_qty_w1=9
sem_adspend_w1=8
sem_gmv_revenue_adjustment_seller_v2=7
sem_ctr_v2=7
sem_impressions_w1=6
sem_ordersize_seller_v3=6
sem_clicks_w2=5
sem_adspend_v2=5
sem_mpc_seller_v4=5
sem_gmv_revenue_adjustment_seller_w2=4
sem_clicks_w1=4
sem_cpc_v2=4
sem_impressions_v4=4
sem_adspend_v4=4
uber_price_change_value_w1=4
site_atcpv_w2=4
bc_visits_w2=4
sem_margin_seller_w2=3
sem_ordersize_seller_w2=3
sem_clicks_v2=3
sem_impressions_v3=3
sem_clicks_v3=3
sem_adspend_v3=3
sem_cpc_v3=3
sem_cpc_v4=3
sem_cpc_v9=3
site_total_orders_w2=3
sem_orders_seller_w2=2
sem_ctr_w2=2
sem_mpc_seller_w1=2
sem_impressions_v2=2
sem_qty_v2=2
sem_roas_seller_v2=2
sem_clicks_v9=2
sem_impressions_v12=2
uber_curr_item_price_w1=2
site_total_page_views_w2=2
site_convrt_w2=2
site_rpv_w2=2
site_atcpv_w1=2
sem_cpc_w2=1
sem_margin_seller_w1=1
sem_ordersize_seller_w1=1
sem_convrt_seller_v2=1
sem_rpc_seller_v3=1
sem_convrt_seller_v3=1
sem_margin_seller_v4=1
sem_margin_seller_v5=1
sem_ctr_v5=1
sem_impressions_v9=1
sem_adspend_v9=1
sem_roas_seller_v9=1
sem_rpc_seller_v12=1
sem_mpc_seller_v12=1
uber_avg_margin_w1=1
site_total_add_to_carts_w2=1
site_total_add_to_carts_w1=1
bc_sem_bounce_rate_w2=1
bc_visits_w1=1
bc_sem_bounces_w1=1

parameters:
[boosting: gbdt]
[objective: regression]
[metric: rmse]
[tree_learner: serial]
[device_type: cpu]
[data: ]
[valid: ]
[num_iterations: 4000]
[learning_rate: 0.02]
[num_leaves: 63]
[num_threads: -1]
[deterministic: 0]
[force_col_wise: 0]
[force_row_wise: 0]
[histogram_pool_size: -1]
[max_depth: 10]
[min_data_in_leaf: 20]
[min_sum_hessian_in_leaf: 0.001]
[bagging_fraction: 0.9]
[pos_bagging_fraction: 1]
[neg_bagging_fraction: 1]
[bagging_freq: 10]
[bagging_seed: 400]
[feature_fraction: 0.33]
[feature_fraction_bynode: 1]
[feature_fraction_seed: 30056]
[extra_trees: 0]
[extra_seed: 12879]
[early_stopping_round: 200]
[first_metric_only: 0]
[max_delta_step: 0]
[lambda_l1: 0]
[lambda_l2: 0]
[linear_lambda: 0]
[min_gain_to_split: 0]
[drop_rate: 0.1]
[max_drop: 50]
[skip_drop: 0.5]
[xgboost_dart_mode: 0]
[uniform_drop: 0]
[drop_seed: 17869]
[top_rate: 0.2]
[other_rate: 0.1]
[min_data_per_group: 100]
[max_cat_threshold: 32]
[cat_l2: 10]
[cat_smooth: 10]
[max_cat_to_onehot: 4]
[top_k: 20]
[monotone_constraints: ]
[monotone_constraints_method: basic]
[monotone_penalty: 0]
[feature_contri: ]
[forcedsplits_filename: ]
[refit_decay_rate: 0.9]
[cegb_tradeoff: 1]
[cegb_penalty_split: 0]
[cegb_penalty_feature_lazy: ]
[cegb_penalty_feature_coupled: ]
[path_smooth: 0]
[interaction_constraints: ]
[verbosity: -1]
[saved_feature_importance_type: 0]
[linear_tree: 0]
[max_bin: 255]
[max_bin_by_feature: ]
[min_data_in_bin: 3]
[bin_construct_sample_cnt: 200000]
[data_random_seed: 175]
[is_enable_sparse: 1]
[enable_bundle: 1]
[use_missing: 1]
[zero_as_missing: 0]
[feature_pre_filter: 1]
[pre_partition: 0]
[two_round: 0]
[header: 0]
[label_column: ]
[weight_column: ]
[group_column: ]
[ignore_column: ]
[categorical_feature: ]
[forcedbins_filename: ]
[precise_float_parser: 0]
[objective_seed: 16083]
[num_class: 1]
[is_unbalance: 0]
[scale_pos_weight: 1]
[sigmoid: 1]
[boost_from_average: 1]
[reg_sqrt: 0]
[alpha: 0.9]
[fair_c: 1]
[poisson_max_delta_step: 0.7]
[tweedie_variance_power: 1.5]
[lambdarank_truncation_level: 30]
[lambdarank_norm: 1]
[label_gain: ]
[eval_at: ]
[multi_error_top_k: 1]
[auc_mu_weights: ]
[num_machines: 1]
[local_listen_port: 12400]
[time_out: 120]
[machine_list_filename: ]
[machines: ]
[gpu_platform_id: -1]
[gpu_device_id: -1]
[gpu_use_dp: 0]
[num_gpu: 1]

end of parameters

pandas_categorical:[]
