tree
version=v3
num_class=1
num_tree_per_iteration=1
label_index=0
max_feature_idx=169
objective=regression
feature_names=is_mobile sem_impressions_w2 sem_clicks_w2 sem_adspend_w2 sem_qty_w2 sem_gmv_revenue_adjustment_seller_w2 sem_orders_seller_w2 sem_margin_seller_w2 sem_ctr_w2 sem_cpc_w2 sem_rpc_seller_w2 sem_roas_seller_w2 sem_convrt_seller_w2 sem_ordersize_seller_w2 sem_mpc_seller_w2 sem_mpo_seller_w2 sem_impressions_w1 sem_clicks_w1 sem_adspend_w1 sem_qty_w1 sem_gmv_revenue_adjustment_seller_w1 sem_orders_seller_w1 sem_margin_seller_w1 sem_ctr_w1 sem_cpc_w1 sem_rpc_seller_w1 sem_roas_seller_w1 sem_convrt_seller_w1 sem_ordersize_seller_w1 sem_mpc_seller_w1 sem_mpo_seller_w1 sem_impressions_v2 sem_clicks_v2 sem_adspend_v2 sem_qty_v2 sem_gmv_revenue_adjustment_seller_v2 sem_orders_seller_v2 sem_margin_seller_v2 sem_ctr_v2 sem_cpc_v2 sem_rpc_seller_v2 sem_roas_seller_v2 sem_convrt_seller_v2 sem_ordersize_seller_v2 sem_mpc_seller_v2 sem_mpo_seller_v2 sem_impressions_v3 sem_clicks_v3 sem_adspend_v3 sem_qty_v3 sem_gmv_revenue_adjustment_seller_v3 sem_orders_seller_v3 sem_margin_seller_v3 sem_ctr_v3 sem_cpc_v3 sem_rpc_seller_v3 sem_roas_seller_v3 sem_convrt_seller_v3 sem_ordersize_seller_v3 sem_mpc_seller_v3 sem_mpo_seller_v3 sem_impressions_v4 sem_clicks_v4 sem_adspend_v4 sem_qty_v4 sem_gmv_revenue_adjustment_seller_v4 sem_orders_seller_v4 sem_margin_seller_v4 sem_ctr_v4 sem_cpc_v4 sem_rpc_seller_v4 sem_roas_seller_v4 sem_convrt_seller_v4 sem_ordersize_seller_v4 sem_mpc_seller_v4 sem_mpo_seller_v4 sem_impressions_v5 sem_clicks_v5 sem_adspend_v5 sem_qty_v5 sem_gmv_revenue_adjustment_seller_v5 sem_orders_seller_v5 sem_margin_seller_v5 sem_ctr_v5 sem_cpc_v5 sem_rpc_seller_v5 sem_roas_seller_v5 sem_convrt_seller_v5 sem_ordersize_seller_v5 sem_mpc_seller_v5 sem_mpo_seller_v5 sem_impressions_v9 sem_clicks_v9 sem_adspend_v9 sem_qty_v9 sem_gmv_revenue_adjustment_seller_v9 sem_orders_seller_v9 sem_margin_seller_v9 sem_ctr_v9 sem_cpc_v9 sem_rpc_seller_v9 sem_roas_seller_v9 sem_convrt_seller_v9 sem_ordersize_seller_v9 sem_mpc_seller_v9 sem_mpo_seller_v9 sem_impressions_v12 sem_clicks_v12 sem_adspend_v12 sem_qty_v12 sem_gmv_revenue_adjustment_seller_v12 sem_orders_seller_v12 sem_margin_seller_v12 sem_ctr_v12 sem_cpc_v12 sem_rpc_seller_v12 sem_roas_seller_v12 sem_convrt_seller_v12 sem_ordersize_seller_v12 sem_mpc_seller_v12 sem_mpo_seller_v12 sem_impressions_v18 sem_clicks_v18 sem_adspend_v18 sem_qty_v18 sem_gmv_revenue_adjustment_seller_v18 sem_orders_seller_v18 sem_margin_seller_v18 sem_ctr_v18 sem_cpc_v18 sem_rpc_seller_v18 sem_roas_seller_v18 sem_convrt_seller_v18 sem_ordersize_seller_v18 sem_mpc_seller_v18 sem_mpo_seller_v18 uber_curr_item_price_w1 uber_num_appr_reviews_w1 uber_avg_overall_rating_w1 uber_price_change_ratio_w1 uber_price_change_value_w1 uber_avg_margin_w1 site_total_page_views_w2 site_total_add_to_carts_w2 site_total_orders_w2 site_total_revenue_w2 site_atcpv_w2 site_convrt_w2 site_rpv_w2 site_mpv_w2 site_total_page_views_w1 site_total_add_to_carts_w1 site_total_orders_w1 site_total_revenue_w1 site_atcpv_w1 site_convrt_w1 site_rpv_w1 site_mpv_w1 bc_bounces_w2 bc_visits_w2 bc_bounce_rate_w2 bc_sem_bounces_w2 bc_sem_visits_w2 bc_sem_bounce_rate_w2 bc_bounces_w1 bc_visits_w1 bc_bounce_rate_w1 bc_sem_bounces_w1 bc_sem_visits_w1 bc_sem_bounce_rate_w1
feature_infos=[0:1] [0:6785.2142857142835] [0:103.78571428571428] [0:39.510000000000012] [-20.571428571428573:12.5] [0:151.01571430000001] [0:5.3571429000000004] [-99.246428571428581:151.01571428571432] [0.001865671641791045:2] [0.01:1.5600000000000001] [0:1057.1099999999999] [0:35998] [0:75] [1.53:4228.4399999999996] [-581.82999999999981:1057.1099999999999] [-726.80195941217619:4228.4399999999996] [0:6744.5714285714284] [0:108.85714285714286] [0:42.315714285714272] [-2.8571428571428568:15.285714285714285] [0:302.031429] [0:10.714286] [-71.285714285714292:302.03142857142848] [0.0018726591760299626:2] [0.01:1.5600000000000001] [0:1057.1099999999999] [0:11242] [0:75] [1.53:4228.4399999999996] [-461.29000000000002:1057.1099999999999] [-726.80195941217619:4228.4399999999996] [0:7598.8571428571431] [0:199.78571428571428] [0:78.837142857142879] [-20.571428571428573:35.928571428571431] [0:147.92788569999999] [0:8.5405856999999994] [-232.04325:105.08217142857143] [0.0016129032258064516:2] [0.01:1.3300000000000001] [0:986.89999999999998] [0:35998] [0:43] [0.96999999999999997:1198.99] [-581.82999999999981:986.89999999999998] [-5727.884223155369:1198.99] [0:21825] [0:603.35714285714289] [0:401.15999999999991] [-20.571428571428573:105] [0:331.89882139999997] [0:11.4001929] [-520.55146428571436:176.19596428571427] [0.0014321518080916578:2] [0.01:1.4399999999999999] [0:986.89999999999998] [0:59999] [0:32] [0.96999999999999997:1259.96] [-398.99000000000001:986.89999999999998] [-7753.420000000001:1259.96] [0:22747.571428571428] [0:593.5] [0:406.78142857142859] [-2.1428571428571428:116.21428571428572] [0:274.92004289999994] [0:9.0709856999999996] [-456.43307142857162:147.1619] [0.0012254901960784314:2] [0.01:1.76] [0:622.47500000000002] [0:59999] [0:30] [1.3972509340820001:1259.96] [-567.84000000000003:622.47500000000002] [-2607.492997198879:1259.96] [0:23378] [0:414.5] [0:184.8692857142857] [-3.3571428571428568:87.285714285714306] [0:308.57071430000002] [0:11.558578600000001] [-483.21702142857146:285.92214285714283] [0.0011961722488038275:2] [0.01:1.71] [0:1149.99] [0:17999] [0:4.9000000000000004] [1.3972509340820001:4319.9899999999998] [-567.84000000000003:1149.99] [-5014.2161716171613:4002.9099999999999] [0:31064.583333333328] [0:1061.8333333333333] [0:355.04333333333329] [-8.1666666666666661:146.25] [0:214.125] [0:8.2013917000000003] [-676.09107499999982:187.46000000000001] [0.00056116722783389455:2] [0.010000000000000002:3.8566666666666669] [0:1379.9400000000001] [0:33598] [0:21] [0.96999999999999997:1229.95] [-1508.22:1379.9400000000001] [-2714.9700000000007:1229.95] [0:20023.571428571428] [0:705.42857142857133] [0:284.34642857142865] [-6.8571428571428577:99.571428571428569] [0:226.56780000000001] [0:5.8244142999999999] [-452.05108571428565:64.419607142857132] [0.00055731005015790451:2] [0.01:1.99] [0:599] [0:20994] [0:26] [0.95999999999999996:1253.0054005400541] [-774.75:599] [-4499.4244120940648:1253.0054005400541] [0:4534.7857142857147] [0:209.64285714285717] [0:50.815000000000012] [-2.3571428571428572:39.214285714285715] [0:52.600521400000012] [0:5.9563857000000002] [-210.45987857142865:22.171949999999999] [0.0025673940949935809:2] [0.01:2.0095890410958903] [0:324.88] [0:32488] [0:6] [3.2628894698500002:694.96000000000004] [-327.12:173.74000000000001] [-1653.7098666666668:694.96000000000004] [0:7940094] [0:0] [0:5] [0.99999999999999978:1.0000000000000002] [-3.637978807091713e-12:3.637978807091713e-12] [0:7940094] [1:327053] [1:25257] [1:1166033] [0:7940889.9100004826] [6.4779426054285166e-05:5] [3.7661095335296729e-05:11.872890240067091] [0:420.99000000000001] none [1:140791] [1:10698] [1:613930] [0:4259391.0300001223] [0.00014245014245014244:4] [5.156446589526226e-05:12.275502799087706] [0:354.98750000000001] none [0:85497] [1:184569] [0:1] [0:1113] [0:2499] [0:1] [0:37718] [1:79202] [0:1] [0:421] [0:1022] [0:1]
tree_sizes=3570 5730

Tree=0
num_leaves=31
num_cat=0
split_feature=136 47 13 15 5 69 19 110 108 58 136 1 38 143 69 165 69 136 74 37 136 93 74 20 1 1 1 106 5 136
split_gain=0.0335973 0.263998 0.0276408 0.0949251 0.0218826 0.011921 0.0970015 0.00885199 0.0190476 0.00699135 0.00353653 0.00266134 0.00248526 0.0326748 0.00243973 0.0195003 0.00659341 0.00372866 0.00174758 0.00160366 0.00108761 0.000949961 0.000740488 8.67362e-19 2.1684e-19 5.42101e-20 5.42101e-20 5.42101e-20 2.71051e-20 1.35525e-20
threshold=3.7550000000000003 2.035714285714286 37.996925192519505 -58.099999999999994 0.13373930000000003 0.10775000000000003 0.35714285714285715 9.2853571500000012 0.43107142857142855 3.4518901890185005 611.4100000000002 2382.3571428571436 0.90000000000000013 1.5000000000000002 0.23500000000000004 422.50000000000006 0.20031250000000003 6.6950000000000012 -1.2840092165898618 -3.1850000000000001 20.735000000000003 0.081250000000000031 -1.8868250000000002 3.2455070000000004 50.464285714285715 8.1785714285714288 24.500000000000004 20.178571428571434 0.40412500000000007 26.995000000000001
decision_type=8 10 10 10 10 8 10 10 8 8 10 10 10 8 8 10 8 8 8 8 10 10 8 10 10 10 10 10 10 8
left_child=1 24 5 -4 -5 6 21 9 29 -7 12 25 14 -14 15 17 -17 -11 22 -6 -20 -2 -16 26 -1 27 -21 -12 -15 -9
right_child=2 -3 3 4 19 7 -8 8 -10 10 11 -13 13 28 18 16 -18 -19 20 23 -22 -23 -24 -25 -26 -27 -28 -29 -30 -31
leaf_value=0.0056116230503899973 0.0056116230503934278 0.01056402266798669 0.007405127466827064 0.0065174274074709816 0.0058680333166466724 0.0063487450261959563 0.0097782896507780798 0.0056116230499041291 0.0096116232417888768 0.005848983045694145 0.0056116230494774981 0.0059797212228461247 0.010611622952115256 0.0056116230495897694 0.0056116230504245313 0.0056116230499041291 0.0076116229914493768 0.0056480265317500064 0.0056309839533381419 0.0056116230499041291 0.0056664767008366744 0.0065642897627321405 0.0059744484400135181 0.0056116230487939052 0.0056116230477826099 0.0056116230499041291 0.0056116230535084646 0.0056116230494411687 0.0056116230540342532 0.0056116230459222387
leaf_weight=21.428572192788128 18.142857462167747 5.0000000745058051 16.142856702208519 13.142857551574705 11.142857551574707 5.8571428060531616 2.5714285373687735 0.57142859697341886 0.71428573131561224 46.428572192788124 8.0000003278255409 23.285715103149414 0.57142859697341919 5.4285716563463202 2.9999999850988388 0.85714289546012878 2.8571429252624507 180.57142920792103 1164.1428801268339 1.5714286416769008 491.00001285970211 0.4285714328289022 8.9999999999999982 69.571428120136261 9.5714285373687726 1.857142940163613 7.2857141494750977 2.0000000000000009 0.71428573131561268 0.85714286565780651
leaf_count=4973 2676 12 16 7 1 16 1 9 65 597 4588 1 1228 11501 380 144 73 10920 206691 186 115278 58 64 164 5 24 12 54 66 90
internal_value=0.00572615 0.00629946 0.00568323 0.00597941 0.00575534 0.00566535 0.00613769 0.00566022 0.00694496 0.0056588 0.00565672 0.00585553 0.00565305 0.00603715 0.00565169 0.00571265 0.00715008 0.00568913 0.00564326 0.00564352 0.00564151 0.00563361 0.00588374 0.00561162 0.00561162 0.00561162 0.00561162 0.00561162 0.00561162 0.00561162
internal_weight=0 36 2087.71 118.857 102.714 1968.86 21.1429 1947.71 2.14286 1945.57 1939.71 35.1429 1904.57 6.71429 1897.86 230.714 3.71429 227 1667.14 89.5714 1655.14 18.5714 12 78.4286 31 11.8571 8.85714 10 6.14286 1.42857
internal_count=359900 4990 354910 386 370 354524 2735 351789 164 351625 351609 4667 346942 12795 334147 11734 217 11517 322413 363 321969 2734 444 362 4978 4666 198 4642 11567 99
is_linear=0
shrinkage=1


Tree=1
num_leaves=49
num_cat=0
split_feature=46 61 46 15 19 39 118 146 2 159 9 72 113 46 23 23 46 146 154 58 1 118 107 86 34 99 146 16 16 154 74 159 1 51 1 118 107 1 50 1 159 146 99 146 2 91 1 1
split_gain=0.0238308 0.153873 0.129041 0.0449788 0.0322417 0.0232156 0.021605 0.0154425 0.00974639 0.00709001 0.0169145 0.00675276 0.00585424 0.00577048 0.00544243 0.0634584 0.00640126 0.0205824 0.00579146 0.00432838 0.00332606 0.00170418 0.0071423 0.000668273 0.00251493 0.00065361 0.000885092 0.000431035 0.0361796 0.00150477 0.00030067 0.000221721 0.000133745 4.51741e-07 1.19989e-08 1.54432e-09 1.29174e-09 9.68089e-10 7.06896e-10 6.14265e-10 2.9448e-10 2.79216e-10 2.66544e-10 2.15101e-10 7.37635e-11 5.35496e-11 4.14927e-11 1.35525e-20
threshold=168.6428571428572 113.3214285714286 116.14285714285715 -400.89050389922016 2.0714285714285716 1.0950000000000004 23.190301882547001 0.0036674871436193353 1.892857142857143 1071.5000000000002 0.55934782608695655 0.051493472444003256 0.099382716049382744 162.71428571428575 0.046356639231439088 0.04658914728682171 0.10714285714285715 0.02439644376108225 0.015596231093813874 2.7560000000000002 738.28571428571433 8.9902000000000015 0.10714285714285715 1.1270316711559387 1.0000000180025095e-35 0.73765625000000024 0.014495141226750713 53.071428571428577 51.142857142857146 0.0067170492358017047 0.094728482523877264 1.0000000180025095e-35 1340.0000000000002 0.48764645000000001 335.21428571428572 6.9797906976745008 5.4642857142857153 2382.3571428571436 1.8558928500000003 0.3928571428571429 255.50000000000003 0.0526264690853347 0.22215432649420161 0.044466913829906758 0.75000000000000011 3.7916666666666674 14.607142857142859 57.357142857142861
decision_type=8 10 8 8 10 10 10 8 10 10 10 10 10 10 10 10 10 8 8 8 10 8 10 10 10 10 8 8 8 8 10 10 10 8 10 8 10 10 10 10 10 10 8 10 10 10 8 10
left_child=1 3 33 -1 6 9 7 8 40 11 12 21 32 14 16 -16 17 -9 -17 -18 34 22 -2 25 37 27 -27 28 29 -23 31 -29 35 42 -13 -11 38 44 43 41 -5 -28 -3 -37 47 -24 -44 -25
right_child=5 2 -4 4 -6 -7 -8 13 -10 10 -12 20 -14 -15 15 18 19 -19 -20 -21 -22 23 45 24 -26 26 39 30 -30 -31 -32 -33 -34 -35 -36 36 -38 -39 -40 -41 -42 -43 46 -45 -46 -47 -48 -49
leaf_value=0.0018518975603667393 0.004887380083469413 -0.00011223246074546291 0.004886778314158801 -0.00011261968020746017 0.00064279449453020696 0.0032200040596723151 0.0031543698066505473 0.00380776741982173 0.0018477675474222286 -0.00011223246470072592 0.000775455808366201 -0.00011332953077307373 0.001220780373316279 0.00030318209366683268 0.0026098893683742558 0.00062253075029456676 0.001473025063323375 -0.00011246170144672723 -9.8708794648813959e-05 -8.5260725989799331e-05 0.00021934925841534352 0.0002742709863262949 -0.00011261968020746011 -0.00011261968140681869 0.00037447533520866793 0.00014054487947325015 -0.00011281327804378441 -6.8415872705492793e-05 0.0019700333992699421 -9.6280946030534258e-05 -6.9231861557128308e-05 -0.00010700083905342126 -4.2689610875541704e-05 -0.00012697489714940055 -0.00011223246169582193 -0.00011263836133186216 -0.00011332953773455899 -0.00011223245520535962 -0.00011332953773455899 -0.00011332953466021489 -0.00011332953080952627 -0.00011332953773455881 -0.00011261968020746011 -0.0001124111774202311 -0.00011296053144884679 -0.00011223246074546265 -0.00011296053144884674 -0.00011261968418670444
leaf_weight=5.4285712242126465 0.1428571492433548 0.85714289546012878 4.8571429252624494 0.28571429848670948 31.428571760654449 0.8571428656578054 0.85714288055896659 0.71428574621677399 2.8571429252624512 3.7142857909202576 13.142857551574705 6.5714287757873562 1.4285714626312245 19.428571701049805 3.8571428358554831 4.8571429401636124 0.71428573131561279 2.1428572237491603 53.57142998278141 397.14286142587662 43.428572654724121 4.4285715520381927 0.28571429848670959 0.85714286565780784 5.8571429252624503 11.285714149475098 1.5714286267757427 64.285716816782951 3.4285714179277411 431.85715858638287 111.00000095367432 812.14286866784096 20.428571701049805 2.1428570747375488 10.142857074737547 16.285714700818076 1.1428571939468373 12.857142448425293 0.57142859697341819 8.5714286118745786 1.2857142984867094 0.57142859697341908 0.28571429848670959 1.8571429401636113 0.28571429848670948 0.28571429848670959 0.28571429848670959 1.4285714626312256
leaf_count=1 65 132 169 52 14 6 78 275 2 19 1 364 224 4 4 35 6 7555 440 40693 4 72 97 545 26 27 435 94003 3 36915 50 174120 1 9 3 2140 32 1 29 26 55 56 20 831 3 18 239 1
internal_value=0 8.3915e-05 0.00276477 4.08403e-05 2.19024e-05 -7.06059e-05 -1.81082e-05 -2.36935e-05 0.00115194 -7.238e-05 0.000143573 -8.06402e-05 -3.92356e-05 -3.44856e-05 -4.86549e-05 0.000125269 -7.5689e-05 0.000867596 -3.87525e-05 -8.24631e-05 0.00012708 -8.91321e-05 0.000887535 -8.96066e-05 2.16425e-05 -9.12407e-05 1.69416e-05 -9.29083e-05 -7.64373e-05 -9.25196e-05 -0.000100243 -0.000104171 -8.01452e-05 -0.000121167 -0.000112664 -0.000112607 -0.000112677 -0.000112303 -0.000112637 -0.000113254 -0.0001132 -0.000112951 -0.000112456 -0.000112615 -0.000112658 -0.000112426 -0.00011279 -0.00011262
internal_weight=0 533 8.42857 524.571 519.143 1590.71 487.714 486.857 4.42857 1589.86 58.5714 1531.29 45.4286 482.429 463 62.2857 400.714 2.85714 58.4286 397.857 60.1429 1471.14 0.714286 1470.43 21.2857 1449.14 22 1427.14 439.714 436.286 987.429 876.429 44 3.57143 16.7143 23.5714 19.8571 15.4286 18.7143 10.7143 1.57143 2.14286 1.42857 18.1429 2.57143 0.571429 0.571429 2.28571
internal_count=359900 49783 569 49214 49213 310117 49199 49121 109 310111 3277 306834 3276 49012 49008 479 48529 7830 475 40699 371 306463 180 306283 576 305707 544 305163 36990 36987 268173 268123 3052 400 367 3051 3032 550 3000 517 107 491 391 2971 549 115 259 546
is_linear=0
shrinkage=0.02


end of trees

feature_importances:
sem_impressions_w2=11
uber_curr_item_price_w1=5
site_atcpv_w2=5
sem_impressions_v3=4
sem_cpc_v4=3
sem_mpc_seller_v4=3
sem_ordersize_seller_v12=3
bc_visits_w2=3
sem_clicks_w2=2
sem_gmv_revenue_adjustment_seller_w2=2
sem_mpo_seller_w2=2
sem_impressions_w1=2
sem_qty_w1=2
sem_ctr_w1=2
sem_ordersize_seller_v3=2
sem_cpc_v9=2
sem_clicks_v12=2
site_atcpv_w1=2
sem_cpc_w2=1
sem_ordersize_seller_w2=1
sem_gmv_revenue_adjustment_seller_w1=1
sem_qty_v2=1
sem_margin_seller_v2=1
sem_ctr_v2=1
sem_cpc_v2=1
sem_clicks_v3=1
sem_gmv_revenue_adjustment_seller_v3=1
sem_orders_seller_v3=1
sem_impressions_v4=1
sem_convrt_seller_v4=1
sem_roas_seller_v5=1
sem_impressions_v9=1
sem_adspend_v9=1
sem_impressions_v12=1
sem_adspend_v12=1
sem_gmv_revenue_adjustment_seller_v12=1
sem_ctr_v12=1
site_total_add_to_carts_w2=1
bc_visits_w1=1

parameters:
[boosting: gbdt]
[objective: regression]
[metric: rmse]
[tree_learner: serial]
[device_type: cpu]
[data: ]
[valid: ]
[num_iterations: 4000]
[learning_rate: 0.02]
[num_leaves: 63]
[num_threads: -1]
[deterministic: 0]
[force_col_wise: 0]
[force_row_wise: 0]
[histogram_pool_size: -1]
[max_depth: 10]
[min_data_in_leaf: 20]
[min_sum_hessian_in_leaf: 0.001]
[bagging_fraction: 0.9]
[pos_bagging_fraction: 1]
[neg_bagging_fraction: 1]
[bagging_freq: 10]
[bagging_seed: 400]
[feature_fraction: 0.33]
[feature_fraction_bynode: 1]
[feature_fraction_seed: 30056]
[extra_trees: 0]
[extra_seed: 12879]
[early_stopping_round: 200]
[first_metric_only: 0]
[max_delta_step: 0]
[lambda_l1: 0]
[lambda_l2: 0]
[linear_lambda: 0]
[min_gain_to_split: 0]
[drop_rate: 0.1]
[max_drop: 50]
[skip_drop: 0.5]
[xgboost_dart_mode: 0]
[uniform_drop: 0]
[drop_seed: 17869]
[top_rate: 0.2]
[other_rate: 0.1]
[min_data_per_group: 100]
[max_cat_threshold: 32]
[cat_l2: 10]
[cat_smooth: 10]
[max_cat_to_onehot: 4]
[top_k: 20]
[monotone_constraints: ]
[monotone_constraints_method: basic]
[monotone_penalty: 0]
[feature_contri: ]
[forcedsplits_filename: ]
[refit_decay_rate: 0.9]
[cegb_tradeoff: 1]
[cegb_penalty_split: 0]
[cegb_penalty_feature_lazy: ]
[cegb_penalty_feature_coupled: ]
[path_smooth: 0]
[interaction_constraints: ]
[verbosity: -1]
[saved_feature_importance_type: 0]
[linear_tree: 0]
[max_bin: 255]
[max_bin_by_feature: ]
[min_data_in_bin: 3]
[bin_construct_sample_cnt: 200000]
[data_random_seed: 175]
[is_enable_sparse: 1]
[enable_bundle: 1]
[use_missing: 1]
[zero_as_missing: 0]
[feature_pre_filter: 1]
[pre_partition: 0]
[two_round: 0]
[header: 0]
[label_column: ]
[weight_column: ]
[group_column: ]
[ignore_column: ]
[categorical_feature: ]
[forcedbins_filename: ]
[precise_float_parser: 0]
[objective_seed: 16083]
[num_class: 1]
[is_unbalance: 0]
[scale_pos_weight: 1]
[sigmoid: 1]
[boost_from_average: 1]
[reg_sqrt: 0]
[alpha: 0.9]
[fair_c: 1]
[poisson_max_delta_step: 0.7]
[tweedie_variance_power: 1.5]
[lambdarank_truncation_level: 30]
[lambdarank_norm: 1]
[label_gain: ]
[eval_at: ]
[multi_error_top_k: 1]
[auc_mu_weights: ]
[num_machines: 1]
[local_listen_port: 12400]
[time_out: 120]
[machine_list_filename: ]
[machines: ]
[gpu_platform_id: -1]
[gpu_device_id: -1]
[gpu_use_dp: 0]
[num_gpu: 1]

end of parameters

pandas_categorical:[]
