tree
version=v3
num_class=1
num_tree_per_iteration=1
label_index=0
max_feature_idx=169
objective=regression
feature_names=is_mobile sem_impressions_w2 sem_clicks_w2 sem_adspend_w2 sem_qty_w2 sem_gmv_revenue_adjustment_seller_w2 sem_orders_seller_w2 sem_margin_seller_w2 sem_ctr_w2 sem_cpc_w2 sem_rpc_seller_w2 sem_roas_seller_w2 sem_convrt_seller_w2 sem_ordersize_seller_w2 sem_mpc_seller_w2 sem_mpo_seller_w2 sem_impressions_w1 sem_clicks_w1 sem_adspend_w1 sem_qty_w1 sem_gmv_revenue_adjustment_seller_w1 sem_orders_seller_w1 sem_margin_seller_w1 sem_ctr_w1 sem_cpc_w1 sem_rpc_seller_w1 sem_roas_seller_w1 sem_convrt_seller_w1 sem_ordersize_seller_w1 sem_mpc_seller_w1 sem_mpo_seller_w1 sem_impressions_v2 sem_clicks_v2 sem_adspend_v2 sem_qty_v2 sem_gmv_revenue_adjustment_seller_v2 sem_orders_seller_v2 sem_margin_seller_v2 sem_ctr_v2 sem_cpc_v2 sem_rpc_seller_v2 sem_roas_seller_v2 sem_convrt_seller_v2 sem_ordersize_seller_v2 sem_mpc_seller_v2 sem_mpo_seller_v2 sem_impressions_v3 sem_clicks_v3 sem_adspend_v3 sem_qty_v3 sem_gmv_revenue_adjustment_seller_v3 sem_orders_seller_v3 sem_margin_seller_v3 sem_ctr_v3 sem_cpc_v3 sem_rpc_seller_v3 sem_roas_seller_v3 sem_convrt_seller_v3 sem_ordersize_seller_v3 sem_mpc_seller_v3 sem_mpo_seller_v3 sem_impressions_v4 sem_clicks_v4 sem_adspend_v4 sem_qty_v4 sem_gmv_revenue_adjustment_seller_v4 sem_orders_seller_v4 sem_margin_seller_v4 sem_ctr_v4 sem_cpc_v4 sem_rpc_seller_v4 sem_roas_seller_v4 sem_convrt_seller_v4 sem_ordersize_seller_v4 sem_mpc_seller_v4 sem_mpo_seller_v4 sem_impressions_v5 sem_clicks_v5 sem_adspend_v5 sem_qty_v5 sem_gmv_revenue_adjustment_seller_v5 sem_orders_seller_v5 sem_margin_seller_v5 sem_ctr_v5 sem_cpc_v5 sem_rpc_seller_v5 sem_roas_seller_v5 sem_convrt_seller_v5 sem_ordersize_seller_v5 sem_mpc_seller_v5 sem_mpo_seller_v5 sem_impressions_v9 sem_clicks_v9 sem_adspend_v9 sem_qty_v9 sem_gmv_revenue_adjustment_seller_v9 sem_orders_seller_v9 sem_margin_seller_v9 sem_ctr_v9 sem_cpc_v9 sem_rpc_seller_v9 sem_roas_seller_v9 sem_convrt_seller_v9 sem_ordersize_seller_v9 sem_mpc_seller_v9 sem_mpo_seller_v9 sem_impressions_v12 sem_clicks_v12 sem_adspend_v12 sem_qty_v12 sem_gmv_revenue_adjustment_seller_v12 sem_orders_seller_v12 sem_margin_seller_v12 sem_ctr_v12 sem_cpc_v12 sem_rpc_seller_v12 sem_roas_seller_v12 sem_convrt_seller_v12 sem_ordersize_seller_v12 sem_mpc_seller_v12 sem_mpo_seller_v12 sem_impressions_v18 sem_clicks_v18 sem_adspend_v18 sem_qty_v18 sem_gmv_revenue_adjustment_seller_v18 sem_orders_seller_v18 sem_margin_seller_v18 sem_ctr_v18 sem_cpc_v18 sem_rpc_seller_v18 sem_roas_seller_v18 sem_convrt_seller_v18 sem_ordersize_seller_v18 sem_mpc_seller_v18 sem_mpo_seller_v18 uber_curr_item_price_w1 uber_num_appr_reviews_w1 uber_avg_overall_rating_w1 uber_price_change_ratio_w1 uber_price_change_value_w1 uber_avg_margin_w1 site_total_page_views_w2 site_total_add_to_carts_w2 site_total_orders_w2 site_total_revenue_w2 site_atcpv_w2 site_convrt_w2 site_rpv_w2 site_mpv_w2 site_total_page_views_w1 site_total_add_to_carts_w1 site_total_orders_w1 site_total_revenue_w1 site_atcpv_w1 site_convrt_w1 site_rpv_w1 site_mpv_w1 bc_bounces_w2 bc_visits_w2 bc_bounce_rate_w2 bc_sem_bounces_w2 bc_sem_visits_w2 bc_sem_bounce_rate_w2 bc_bounces_w1 bc_visits_w1 bc_bounce_rate_w1 bc_sem_bounces_w1 bc_sem_visits_w1 bc_sem_bounce_rate_w1
feature_infos=[0:1] [0:8820.1428571428569] [0:61.642857142857139] [0:76.372142857142862] [-2.2857142857142856:12.5] [0:199.9428571] [0:6] [-99.246428571428581:199.94285714285712] [0.001865671641791045:2] [0.01:1.3300000000000001] [0:1399.5999999999999] [0:54676] [0:75] [0.17000000000000001:3499] [-581.82999999999981:1399.5999999999999] [-1759.0207020702067:3498.9999999999995] [0:10146.142857142857] [0:69] [0:86.49857142857141] [-4.5714285714285712:15.285714285714285] [0:107] [0:12] [-164.69571428571427:107] [0.0019243104554201411:2] [0.01:1.2536024844720497] [0:749] [0:8763.1566666666677] [0:75] [0.17000000000000001:924.67999999999995] [-1152.8699999999999:749] [-1410.4608460846084:924.67999999999995] [0:9227.8571428571431] [0:90.214285714285722] [0:50.075000000000003] [-20.571428571428573:11.428571428571427] [0:199.9428571] [0:8.5405856999999994] [-94.81107142857141:199.94285714285712] [0.00069613644274277764:2] [0.01:1.3300000000000001] [0:1399.5999999999999] [0:54676] [0:43] [0.96999999999999997:3499] [-581.82999999999981:1399.5999999999999] [-5727.884223155369:3498.9999999999995] [0:22102] [0:180.57142857142856] [0:138.78357142857143] [-20.571428571428573:21.428571428571427] [0:149.45016430000001] [0:11.4001929] [-221.52628571428573:89.997142857142862] [0.00078911027816137304:2] [0.01:1.8999999999999999] [0:1184.95] [0:15558.000000000002] [0:23.5] [0.96999999999999997:1259.96] [-489.25999999999999:1184.95] [-7753.420000000001:1259.96] [0:15216.785714285714] [0:346.64285714285722] [0:158.97285714285712] [-6.7142857142857135:49.642857142857139] [0:187.93115] [0:9.0709856999999996] [-254.76626428571427:112.23879285714285] [0.0011369019422074846:2] [0.01:1.8999999999999999] [0:1184.95] [0:15558.000000000002] [0:50] [1.3972509340820001:1259.96] [-535.21000000000004:1184.95] [-8188.7346938775509:1259.96] [0:23378] [0:414.5] [0:170.93357142857144] [-5.6428571428571423:87.285714285714306] [0:180.45697139999999] [0:11.558578600000001] [-483.21702142857146:95.54285714285713] [0.00092843326885880078:2] [0.01:1.71] [0:1149.99] [0:8276] [0:50] [0:1244.95] [-535.21000000000004:1149.99] [-3290.0900000000001:1244.95] [0:50352.916666666657] [0:1567.916666666667] [0:819.79750000000001] [-8.1666666666666661:215.58333333333329] [0:150.03999999999999] [0:5.25] [-1252.4245416666668:150.03999999999999] [0.00097925754473426516:2] [0.010000000000000002:4.0449999999999999] [0:1800.48] [0:180048] [0:25.5] [0.96999999999999997:1800.48] [-1508.22:1800.48] [-5007.5157421289359:1800.48] [0:33826.571428571428] [0:405.14285714285722] [0:374.94357142857137] [-1.1428571428571428:65.142857142857139] [0:183.54607139999999] [0:6.7931429000000003] [-298.19857142857148:123.5] [0.00047862156987874921:2] [0.01:1.3411111111111111] [0:576.33333333333314] [0:20994] [0:16] [0.95999999999999996:1729] [-774.75:576.33333333333337] [-2916.3769507803117:1729] [0:18705.785714285714] [0:39.071428571428569] [0:47.362857142857145] [-2.3571428571428572:13.642857142857142] [0:73.563571400000001] [0:1.7857143] [-54.609285714285718:39.242857142857147] [0.00010691879135943424:2] [0.010000000000000002:3.4004102564102565] [0:173.74000000000001] [0:10082] [0:25] [3.2628894698500002:1029.8900000000001] [-381.47859999999997:173.74000000000001] [-2669.5493351994405:694.96000000000004] [0:35599] [0:0] [0:5] [0.99999999999999978:1.0000000000000002] [-3.637978807091713e-12:3.637978807091713e-12] [0:35599] [1:247515] [1:15897] [1:480274] [0:3746614.800000058] [6.4779426054285166e-05:5] [4.2027401866016636e-05:11.872890240067091] [0:420.99000000000001] none [1:108400] [1:8534] [1:240111] [0:2094288.6500000104] [0.00014245014245014244:4] [0.00010602767322271112:12.275502799087706] [0:711.47000000000003] none [0:34061] [1:79786] [0:1] [0:388] [0:1277] [0:1] [0:21907] [1:46692] [0:1] [0:208] [0:718] [0:1]
tree_sizes=6728 5580 6596 6018 5627 6745 6951 6983 5899 6056 6527 6924 6789 6374 5130 6918 6889 6284 4431 6630 6983 6908 4735 6837 6976 6982 6976 7048

Tree=0
num_leaves=63
num_cat=0
split_feature=30 1 136 98 108 136 160 93 38 47 1 136 71 106 48 1 136 82 143 143 1 16 93 143 143 1 136 93 23 80 48 165 35 1 136 1 38 23 47 1 1 93 143 160 26 165 143 165 160 98 1 23 106 1 93 1 106 1 160 13 1 139
split_gain=10486.5 7916.75 13268 3050.45 2788.64 1503.33 1111.16 2990.27 1091.2 932.89 932.166 845.02 661.79 412.315 296.536 223.408 164.49 163.182 155.084 145.187 131.662 111.139 99.1456 111.785 70.1878 62.4484 61.1075 49.1571 49.0028 47.3139 89.3407 39.5106 32.8309 31.3296 22.5244 18.893 15.0831 14.3444 12.954 12.1597 11.4978 10.3029 9.42212 13.162 8.07261 7.71862 6.40139 5.0588 4.19204 3.45319 2.75049 2.39104 2.32926 2.09532 1.92653 0.893589 0.638578 0.356801 0.314008 0.251523 0.212859 0.152257
threshold=33.495000000000012 3.8928571428571432 74.570000000000007 0.015040052715175776 0.026071428571428575 36.995000000000012 0.60030487804878063 0.0037500000000000012 0.0091897689397351622 0.10714285714285715 714.60714285714289 32.995000000000012 1.2980129108932288 1.8214285714285714 0.042142857142857149 246.25000000000003 12.355000000000002 -11.761428571428569 18.500000000000004 91.500000000000014 25.857142857142861 1.0714285714285716 1.0000000180025095e-35 2.5000000000000004 7.5000000000000009 38.321428571428577 18.985000000000003 0.036250000000000011 0.033924461184348199 1.2819035500000002 0.12607142857142858 36.500000000000007 1.0000000180025095e-35 388.85714285714295 8.8650000000000002 6.3928571428571441 0.025389389297044859 0.015222908850143459 0.53571428571428581 0.25000000000000006 10.750000000000002 0.022916666666666672 1.5000000000000002 0.49962742175856939 0.64054788040457467 168.50000000000003 22.500000000000004 2.5000000000000004 0.25425042701353312 0.014443613364778677 3.3214285714285716 0.03531490334649761 4.1785714285714297 0.46428571428571436 0.0037500000000000012 1.1071428571428574 56.321428571428577 0.96428571428571441 0.48646817549256577 6.495000000000001 1.3214285714285718 1.0000000180025095e-35
decision_type=10 10 10 8 10 8 8 10 10 10 10 10 8 10 10 10 10 8 10 10 8 8 10 8 10 8 10 10 8 8 10 8 8 8 10 8 8 10 10 10 8 10 8 10 8 8 8 8 10 10 10 10 8 10 10 10 10 10 10 10 10 10
left_child=1 2 3 -1 13 16 9 -8 11 21 -2 20 -13 50 25 40 19 -16 26 34 28 53 23 -23 29 51 47 -6 52 37 35 32 -28 -32 54 -31 44 -19 -37 -33 -14 -24 43 -36 59 -44 60 56 -30 -39 -4 61 -3 -7 58 -49 -18 -56 -5 -26 -20 -10
right_child=10 8 4 5 27 6 7 -9 14 -11 -12 12 15 -15 17 -17 18 24 46 -21 -22 22 41 -25 36 -27 31 -29 48 30 33 39 -34 -35 42 38 -38 49 -40 -41 -42 -43 45 -45 -46 -47 -48 55 -50 -51 -52 -53 -54 -55 57 -57 -58 -59 -60 -61 -62 -63
leaf_value=19.845063829866525 23.235001533304462 16.565463855563038 19.125263844654665 16.470087733885805 21.844413952540375 17.3673165497577 21.105463906267751 16.68546385193817 16.754263859782149 18.724863908535802 20.28546393538473 16.863239571116111 17.655363929866844 17.839463854650177 16.601329177010484 18.654550250084622 16.765263847160853 16.531463210346033 16.585263845074689 18.417906510508146 17.423063853374796 17.180197189506416 17.444663837001226 16.788178131325068 16.426955528229058 17.101109551192817 17.825016013012092 21.147010398711164 16.631940047080811 16.396542119321577 17.114174016563421 16.773842613370466 17.014186900511302 16.664455208067192 16.633560016599926 16.730172288336544 16.461054693826711 16.439278258907343 16.480006187008033 16.985263878453321 17.443063857915405 17.204463873947201 16.546991969420983 16.945263857171589 16.404339385263462 16.709463866124089 16.489972122964808 16.666163848840213 16.55141930899709 16.473150017703816 19.277263885546265 16.62352512190094 16.45783826547844 17.480063814741847 16.500363844855642 16.725238365996773 16.825063840297368 16.545063844469702 16.440697217511008 16.434223254505113 16.615163845815275 16.725063842383534
leaf_weight=0.14285700023174286 0.061229001730679466 0.085713997483253479 0.071428999304771312 0.45237100124359031 0.047614000737667084 0.12244299799203873 0.10714299976825703 0.14285700023174286 0.14285700023174186 0.14285700023174275 0.14285700023174286 1.5101989721879363 0.14285700023174286 0.14285700023174286 2.7391711175441742 0.078000001609325409 0.14285700023174364 1.3809570521116254 0.14285700023174286 0.016785999760031589 0.071428999304770868 0.42857100069522858 0.14285700023174275 0.90612700209021635 3.4285709857940674 0.28851400036364694 0.020414000377058983 0.26785698533058167 1.6666709557175639 0.32857099175453186 0.16071400046348572 0.45662899967283022 0.92857100069522824 0.10084299743175507 0.22448600083589554 0.17307200282812374 3.4023859985172775 2.1224429607391357 0.15872900187969208 0.14285700023174286 0.35714301466941845 0.14285700023174286 0.64524200186133363 0.071428999304771423 11.064299747347834 0.14285700023174286 0.35065698623657215 0.28571400046348572 0.30612800084054459 2.7820290196686983 0.14285700023174286 0.094314001500606537 1.3061290383338926 0.14285700023174286 0.14285700023174286 0.15965699963271618 0.14285700023174286 0.14285700023174286 0.21428599953651428 4.2857140302658081 0.28571400046348572 0.14285700023174386
leaf_count=2146 184 25 40637 28729 1797 4791 36023 7657 389 3764 2 18 197 678 9 11 9851 53 446 1735 193 12746 6827 44414 37 82 6135 300 150 19 43 28722 22363 7 2428 36 73 29 9 1994 107 4925 14619 870 26 19639 2452 34581 254 19 78 207 491 449 6430 690 12 75 7532 9 18 724
internal_value=16.6586 16.6269 17.1907 16.9504 19.8821 16.8944 17.3217 18.5798 16.5062 17.1666 21.1704 16.7662 17.0835 18.6717 16.4624 17.659 16.704 16.4537 16.7969 16.5655 16.5734 17.0486 16.9864 16.9141 16.4399 16.8793 16.8802 21.2523 16.5553 16.4941 16.6279 16.9513 17.0316 16.9408 16.5502 16.504 16.4223 16.4745 16.6105 16.8242 17.5037 17.3246 16.6126 16.7088 16.4153 16.5764 16.5533 16.7295 16.6194 16.4585 19.2266 16.7108 16.4645 17.428 16.4793 16.6873 16.7952 16.5227 16.4606 16.431 16.6052 16.7397
internal_weight=0 46.5263 8.20599 7.53338 0.672614 7.39052 2.27857 0.25 38.3203 2.02857 0.204086 5.52427 2.0882 0.357143 32.796 0.578 5.11195 32.1275 3.05878 2.05317 3.43607 1.88571 1.62041 1.3347 29.3883 0.668542 2.27956 0.315471 3.36464 7.20736 0.921929 1.54847 0.948985 0.261557 2.03639 0.660372 22.181 6.28543 0.331801 0.599486 0.5 0.285714 1.08401 0.295915 18.7786 0.788099 0.779228 0.731085 1.9728 4.90447 0.214286 0.380028 1.39184 0.2653 0.952371 0.445371 0.285714 0.285714 0.666657 7.71429 0.428571 0.285714
internal_count=359956 359770 356553 313063 43490 310917 121596 43680 3217 77916 186 1446 333 41393 1771 315 189321 369 107264 82057 1113 74152 68912 57160 360 1402 104348 2097 920 215 114 59214 28498 50 80322 64 145 101 45 30716 304 11752 37556 3298 72 34258 2916 45134 404 48 40715 1320 516 5240 42766 35271 9863 6505 36261 46 464 1113
is_linear=0
shrinkage=1


Tree=1
num_leaves=51
num_cat=0
split_feature=15 8 91 154 63 113 113 8 39 1 91 146 169 23 146 159 159 113 159 1 146 9 55 15 1 46 8 1 19 8 1 1 1 1 1 1 1 113 9 9 2 9 1 1 1 1 1 159 1 1
split_gain=9877.46 7913.35 12449.1 4325.18 2945.52 2833.69 1209.03 1067.61 1012.02 706.344 379.178 347.235 336.597 323.307 672.065 261.527 409.618 179.828 146.83 145.763 111.862 102.311 91.6499 74.2431 52.3324 50.6945 49.3146 47.0993 45.7718 23.7555 16.3286 13.3017 13.1509 12.766 10.6654 10.0468 6.63999 4.33181 3.8359 2.23702 2.12516 2.04843 1.52208 1.55769 1.34094 0.896629 0.436769 0.219092 0.061176 0.0414593
threshold=33.995000000000012 0.083801498127340834 3.8750000000000004 0.011375961348846384 0.016071428571428573 0.36931818181818193 0.013179607434427655 0.019344934340341569 0.79750000000000021 25.857142857142861 11.04166666666667 0.016395931757876871 0.98076923076923095 0.48076923076923089 0.081696829675266328 110.50000000000001 25.500000000000004 0.19782608695652179 13.500000000000002 714.60714285714289 0.00951241186201956 0.41172897196261687 0.15665371485943777 5.2850000000000001 3.3214285714285716 6.8928571428571441 0.033917478334228091 3203.1428571428578 5.2142857142857153 0.013713693608979656 0.10714285714285715 645.53571428571433 388.85714285714295 1.0000000180025095e-35 1.3214285714285718 11.035714285714288 900.46428571428589 0.071112515802781301 0.32121212121212123 0.33627450980392165 1.392857142857143 0.19348484848484854 44.107142857142868 553.46428571428589 1.1071428571428574 1.2500000000000002 553.46428571428589 843.50000000000011 14.928571428571431 10.607142857142859
decision_type=10 8 10 8 8 10 8 10 8 8 10 8 10 10 10 10 10 10 10 10 8 10 10 10 10 10 8 10 10 10 10 8 8 8 8 10 10 8 10 10 10 10 10 10 10 10 10 10 10 10
left_child=1 6 3 -3 24 13 -1 -2 12 18 -4 -11 22 15 21 16 17 -6 34 -9 -18 -15 23 25 -5 35 39 -14 29 -27 -16 42 -25 -17 44 41 46 -35 47 48 -37 -8 -13 -44 -10 -46 -24 49 -20 -28
right_child=7 2 10 4 5 -7 8 19 9 11 -12 31 27 14 30 33 20 -19 26 -21 -22 -23 36 32 -26 28 38 -29 -30 -31 -32 -33 -34 37 -36 40 -38 -39 -40 -41 -42 -43 43 -45 45 -47 -48 -49 -50 -51
leaf_value=1.5552911129147908 6.4448376752665721 4.3578908256950504 4.3986065093428284 2.0249027059745841 0.081247402211914538 5.0820617330680804 -0.0039979259351050006 1.6377165182836004 0.3075162443290575 0.21784856232511335 3.1226986208678205 0.76873875089485699 0.43377781783213903 0.69450636335440463 1.7240845081205354 0.059723151347802761 -0.20111394572546526 0.60255614833923898 -0.19284236603775548 3.5542907723408952 0.61845229064774043 -0.093339837994711128 -0.21685462001084688 0.29751651903400772 2.5662546220281492 -0.12101935580558984 -0.042603283143340873 0.10226855671336128 -0.10806056985748591 -0.20869889038397835 2.4172947848959896 0.96737344047457741 0.0043965695883797394 -0.082508278473558946 0.45531624952239586 0.12392127301766186 -0.24792371217069606 -0.17029414301508289 -0.107428383792962 -0.091309278291370546 -0.042870511689695495 -0.099794181856937739 0.74913876006331659 0.60693538402814218 0.065053070420957287 0.21951625805481059 -0.22704743774351166 -0.026162606920566912 -0.2015374584645836 -0.072106056352173806
leaf_weight=0.16667100042104721 0.061229001730679466 0.10714299976825714 0.26785698533058155 0.14285700023174286 3.5960830058902498 0.047614000737666973 0.14285700023174364 0.017857000231742859 0.071428999304771423 1.2142849862575529 0.14285700023174286 0.35714301466941833 0.28571400046348472 0.12244299799203862 0.0167859997600317 0.14285700023174286 0.071428999304771423 0.28571400046348561 0.71428602933883645 0.14285700023174286 0.98854200169444062 0.14285700023174286 3.3002859912812719 0.14285700023174286 0.14285700023174286 1.3911570524796832 0.28571400046348627 0.42857098579406738 2.6971571147441855 11.084343032911418 0.071428999304771423 0.14285700023174186 0.10714299976825792 0.33162800129503012 0.14285700023174275 0.21158600319176912 9.6642997264862061 0.69827098771929719 0.28571400046348561 0.085713997483253368 0.035714000463485718 0.23809999972581863 0.071428999304771423 0.054186001420021057 0.01679999940097332 0.14285700023174286 3.4285709857940674 1.6666709557175636 0.59184300899505615 0.020414000377058983
leaf_count=109 16 3800 4632 9961 227197 17162 4789 370 813 36 6884 74 208 12402 688 48 1566 8799 478 1 32476 368 69 61 2 105 1326 1 7 295 645 4 2 2756 1601 347 5 17577 145 75 33 1392 70 1 299 98 2 60 69 32
internal_value=0 -0.0317493 0.571914 0.3708 0.30799 0.220834 -0.144493 4.19752 -0.151753 0.0904377 3.95481 0.415063 -0.194586 0.185048 0.773117 0.151049 0.214768 0.119618 -0.0579801 3.34134 0.563224 0.270272 -0.204041 -0.17007 2.29558 -0.17548 -0.096646 0.234872 -0.18277 -0.198922 2.28539 0.797844 0.171894 -0.117451 0.319469 0.000567925 -0.237303 -0.142027 -0.0389383 -0.190287 0.0998339 -0.0638711 0.747678 0.687797 0.235488 0.203263 -0.222048 -0.0290191 -0.196782 -0.0445707
internal_weight=0 46.5084 7.31922 6.90851 6.80137 6.51565 39.1892 0.221943 39.0226 5.8642 0.410714 1.8399 33.1584 6.46804 0.353515 6.11452 4.94177 3.8818 4.0243 0.160714 1.05997 0.2653 32.4441 16.0509 0.285714 15.8009 3.65036 0.714285 15.1727 12.4755 0.088215 0.625615 0.25 1.17276 0.373943 0.628257 16.3932 1.0299 2.25851 1.39184 0.2473 0.380957 0.482758 0.125615 0.231086 0.159657 6.72886 1.9728 1.30613 0.306128
internal_count=359956 359569 346963 335447 331647 321684 12606 387 12497 5181 11516 185 7316 304522 14103 290419 270038 235996 4996 371 34042 12770 7107 7031 9963 6968 2185 209 407 400 1333 149 63 20381 2811 6561 76 20333 1563 622 380 6181 145 71 1210 397 71 1418 547 1358
is_linear=0
shrinkage=0.02


Tree=2
num_leaves=60
num_cat=0
split_feature=48 141 97 2 148 2 93 144 142 9 141 0 48 38 2 143 148 144 141 141 111 3 143 61 98 31 69 93 140 0 2 0 2 16 38 2 31 142 9 26 114 146 9 2 2 0 0 11 2 2 2 2 2 2 0 2 2 2 0
split_gain=7429.57 12204.6 3810.6 3802.46 3423.32 3087.43 2377.72 2149.22 3069.28 1093.72 827.635 798.455 757.703 569.22 350.145 322.803 295.244 123.437 110.096 118.69 105.724 98.273 79.098 75.3913 96.1584 64.9867 55.0542 45.341 36.6729 96.7402 35.2865 30.5139 29.0628 27.7877 27.4078 24.9368 24.2481 18.7071 15.7918 7.48214 5.85939 4.95718 4.00703 2.53695 1.54789 1.24515 1.18406 0.955917 0.69253 0.449737 0.364732 0.330554 0.324581 0.184114 0.159598 0.0956572 0.0808205 0.00253876 9.45499e-09
threshold=0.050357142857142871 74.570000000000007 -2.7297916666666668 13.607142857142858 5.6135752688172058 30.678571428571434 0.12291666666666669 1.5000000000000002 163.50000000000003 0.20542929292929293 37.795000000000009 1.0000000180025095e-35 0.014642857142857145 0.0091897689397351622 2.0714285714285716 10.500000000000002 2.9930952380952394 6.5000000000000009 8.3950000000000014 8.8650000000000002 1.0000000180025095e-35 0.019642857142857146 1.5000000000000002 4.1071428571428585 0.90000000000000013 0.3928571428571429 0.20350675675675678 0.036250000000000011 -4.2632564145606017e-14 1.0000000180025095e-35 0.3928571428571429 1.0000000180025095e-35 0.3928571428571429 3218.928571428572 0.025389389297044859 7.0000000000000009 0.10714285714285715 15.500000000000002 0.23550000000000001 0.64054788040457467 0.14414285714285718 0.031243989776293151 0.20928571428571427 0.25000000000000006 7.0000000000000009 1.0000000180025095e-35 1.0000000180025095e-35 0.85263661491297205 0.10714285714285715 5.8214285714285721 1.0000000180025095e-35 1.0000000180025095e-35 1.892857142857143 3.6428571428571432 1.0000000180025095e-35 0.17857142857142858 0.46428571428571436 0.25000000000000006 1.0000000180025095e-35
decision_type=10 10 8 10 10 10 10 8 10 10 10 2 10 10 10 8 10 10 10 10 8 8 8 10 10 8 8 10 10 2 10 2 10 10 10 10 10 10 10 8 10 10 10 10 10 2 2 10 8 10 8 10 10 10 2 10 10 10 2
left_child=1 3 5 6 9 -2 7 8 12 20 15 -8 21 33 32 16 23 22 36 -20 -3 31 44 24 -9 -21 42 -6 29 -28 37 -1 43 53 39 -22 40 51 50 -19 -17 48 52 -11 -15 -36 -38 -41 -39 -40 -30 -12 -24 -4 -23 -33 58 -43 -18
right_child=2 4 13 -5 27 -7 11 10 -10 14 30 -13 -14 17 -16 18 56 34 19 25 35 54 26 -25 -26 -27 28 -29 38 -31 -32 55 -34 -35 45 -37 46 41 49 47 -42 57 -44 -45 -46 -47 -48 -49 -50 -51 -52 -53 -54 -55 -56 -57 -58 -59 -60
leaf_value=0.79262968042773341 6.3159414201781816 1.1448416314182992 0.45817826715028204 3.4832049622346397 4.9804207307463946 0.94802598234624225 0.94568694116211338 -0.021808828886034307 4.2707327385923168 2.3689489746467767 0.74271952916162132 3.0602447926461651 1.9844046758877094 0.17441108954268436 4.9945197842101541 -0.18108913726805489 0.75793766352270753 -0.2186915701547251 1.6896028690904425 1.1306827469370597 -0.032558561008648464 0.059722062467899448 -0.20067826141740941 0.42510227682966678 0.3285099495972183 -0.00028227617798652605 1.6049622359837474 4.310634208257432 0.058528688571186462 0.0078634632289607473 0.75336398655810743 0.42306514539367768 0.41539737041046854 0.16804507730313362 -0.17465335045706462 0.59479669922759604 0.08511817935886222 0.31166742888799759 -0.12631030648047559 -0.24201755289020926 -0.099824335896429792 0.522541687045884 -0.25302137672114788 2.5149294975440974 0.29156617663701917 -0.19298645019531246 -0.042013100371088394 -0.25915556834057768 0.41493943394634097 -0.11276847957118984 0.013334624669251385 0.68061627035768724 -0.17207548195486458 0.37022564758185328 0.024665773996812794 0.44620992386437491 0.73415599687827482 0.51877113636830285 0.7579449400650059
leaf_weight=0.14285700023174286 0.061229001730680466 0.14285700023174286 0.14285700023174164 0.14285700023174364 0.047614000737667084 0.14285700023174286 0.14285700023174364 1.1664289971813562 0.10714299976825714 0.071428999304771423 0.047614000737665974 0.14285700023174286 0.14285700023174286 0.065929003059864044 0.023814000189304352 2.0646280404180208 0.14285700023174275 7.7142850160598755 0.016785999760031589 0.020414000377058983 0.047614000737667861 0.081629000604152679 1.7142859697341921 0.28571400046348561 0.42857100069522847 4.5543689448386431 0.017857000231740083 0.26785698533058167 0.14285700023174286 0.10084299743175507 0.35714301466941833 0.14285700023174286 0.0027999999001622191 1.3571419715881348 2.7238150127232066 0.054186001420021057 0.16327100060880173 0.028571000322699547 1.5396860539913175 9.5571567416191137 0.42857100069522847 0.14285700023174286 0.7367279827594756 0.14285700023174286 0.14285700023174286 3.25 0.035714000463485718 1.5071430057287223 0.28571400046348572 2.7034571170806885 0.14285700023174452 0.12244299799203873 0.17488600499927986 0.010200000368058681 0.14285700023174286 0.14285700023174286 0.071428999304771423 0.14285700023174286 0.14285700023174286
leaf_count=1331 193 6483 2495 3 1315 4 1771 44084 1711 2321 19363 1963 1070 413 3 68968 1556 31 3348 14144 32806 5961 301 402 810 102018 295 68 40 288 52 1799 30 3 292 1 5321 829 61 249 8551 2722 12 35 3 247 6557 8 4508 10 1386 5342 7 7 4973 54 5 27 1306
internal_value=0 0.399564 -0.166165 0.23976 2.78965 2.55848 0.200617 0.15604 1.09282 1.73577 0.0765974 2.00297 0.665021 -0.182643 2.69236 0.0159316 0.226021 -0.200423 -0.0486163 0.0109239 0.793879 0.376404 -0.129239 0.125914 0.0723206 0.00476442 -0.140256 4.41173 -0.0988958 0.248128 0.58905 0.553968 2.43982 0.196856 -0.221941 0.301369 -0.150163 0.512843 -0.107991 -0.233811 -0.16712 0.460363 -0.213459 2.46627 0.254572 -0.184627 0.0623005 -0.244352 0.405551 -0.117682 0.0359317 0.698004 -0.19803 0.452317 0.0374132 0.434638 0.753184 0.520656 0.757941
internal_weight=0 12.7815 33.9489 11.9804 0.801028 0.204086 11.8376 11.5519 0.903057 0.485557 10.6488 0.285714 0.795914 33.7448 0.2409 9.52161 2.23786 32.2346 7.28375 4.59157 0.244657 0.653057 7.48224 1.88071 1.595 4.57478 7.27346 0.315471 4.64756 0.1187 1.1272 0.428571 0.217086 1.5102 24.7524 0.1018 2.69218 0.770056 4.52886 18.7786 2.4932 0.599999 2.6259 0.214286 0.208786 5.97382 0.198985 11.0643 0.314285 4.24314 0.285714 0.170057 1.88917 0.153057 0.224486 0.285714 0.357143 0.285714 0.285714
internal_count=359956 353611 6345 310549 43062 197 310546 306812 16899 41679 289913 3734 15188 6148 2389 257070 48163 3643 208907 119510 39290 14118 2816 45296 44894 116162 2400 1383 2080 583 32843 3184 2386 2505 827 32807 89397 32791 1497 288 77519 8086 320 2356 416 539 11878 257 5337 71 1426 24705 308 2502 10934 1853 2867 2749 2862
is_linear=0
shrinkage=0.02


Tree=3
num_leaves=55
num_cat=0
split_feature=47 155 104 4 91 18 63 137 98 147 153 4 23 107 23 18 142 18 147 32 147 18 12 4 98 155 54 12 4 151 84 23 137 107 98 4 154 4 23 23 23 57 147 23 4 4 4 4 18 18 147 18 4 18
split_gain=6970.02 5846.38 3662.73 2965.17 2939.88 11362.3 2954.13 1598.88 420.62 406.754 1308.7 1170.39 770.707 392.831 370.398 369.761 259.853 224.702 195.9 144.636 130.83 125.017 113.754 91.1695 74.0923 70.7573 69.873 57.9868 48.2698 46.6328 74.8726 89.2894 38.5768 31.3043 29.0592 27.3919 27.0224 24.5584 17.6487 14.7342 12.8433 12.4636 8.94932 6.6285 3.871 3.64177 15.6706 3.50836 1.83795 1.24247 0.792712 0.052729 0.0104767 0.00348507
threshold=0.3928571428571429 0.011435109512912718 -0.86995243128964039 2.4285714285714293 3.8750000000000004 0.65142857142857158 0.016071428571428573 inf 0.0069710709061663262 0.047643195209118132 2000.6650000000016 0.96428571428571441 0.48076923076923089 1.0000000180025095e-35 0.01693958755786816 0.055000000000000007 260.50000000000006 0.02928571428571429 0.31494654703049946 0.10714285714285715 0.0087988269794721415 0.025000000000000005 0.0033298407784166503 0.10714285714285715 0.020462102629770103 0.14105429057276764 0.26985294117647068 0.028588888888888903 -1.0000000180025095e-35 2.5000000000000004 0.36333333333333345 0.034591537039051455 inf 1.0000000180025095e-35 0.083651399491094167 1.0000000180025095e-35 0.10967256932843301 -1.0000000180025095e-35 0.021312934934680308 0.071946169772256749 0.01550696556245946 0.035218253968253961 0.041693004635482513 0.016304468221793936 1.0000000180025095e-35 5.6071428571428577 0.60714285714285732 -1.0000000180025095e-35 0.053571428571428582 0.33000000000000002 0.02564924918998043 0.2921428571428572 0.10714285714285715 1.8200000000000001
decision_type=10 8 8 10 10 8 8 8 8 8 10 10 10 10 8 8 8 10 10 10 10 10 10 10 10 10 10 8 10 10 8 10 8 10 8 10 10 10 10 8 10 10 10 8 8 8 10 10 10 10 10 10 8 8
left_child=1 7 3 -2 6 15 28 47 -4 10 12 -12 16 -7 22 48 32 18 21 35 -18 25 51 -9 29 -16 34 45 -3 30 40 44 42 -20 -19 -10 -36 -15 -22 -23 53 43 -8 -31 -32 46 49 -1 -6 -26 52 -11 -45 -21
right_child=2 4 8 -5 5 13 9 23 19 14 11 -13 -14 37 17 -17 20 26 33 24 38 39 -24 -25 27 -27 -28 -29 -30 41 31 -33 -34 -35 36 -37 -38 -39 -40 -41 -42 -43 -44 50 -46 -47 -48 -49 -50 -51 -52 -53 -54 -55
leaf_value=1.1219448228225499 6.1896226042350442 1.9447165449858843 0.16468417322732273 0.92906544934786373 -0.18536373354842467 2.9990398594091547 0.33923016947418655 4.1853181692695758 0.44901469713426695 0.73829667905596141 4.8808123001080519 0.58290076260304213 2.3215700699214632 4.2244215924516979 0.12356431596020657 0.92677320500916838 0.41660023796880036 0.21513157388292772 1.6558108060272663 -0.12005261730863727 -0.12874459722995199 0.39198079064065094 0.0065640079023732232 3.4135408149247319 -0.24761817514410112 -0.14143474349901775 1.1080691877675177 0.28573486245029756 2.4646310998541496 -0.21512522377059223 0.19663399100312987 1.57286298058259 0.77677709883548707 0.74278603325283343 -0.1315906421957003 0.057358116552141042 -0.025717078326012666 4.8946290681516134 0.038839797800905095 0.66700392314211598 -0.18909864449194883 -0.18785587801971446 0.47836347337095902 -0.25563022824052184 0.0077061937131789543 -0.11526253662949819 0.0017220164690274278 0.40708944056434271 -0.10677919438788257 -0.17904987996783728 -0.23717720374830414 0.719472838221764 -0.25204954078325736 -0.11675350639946599
leaf_weight=0.14285700023174286 0.061229001730680466 0.14285700023174286 1.3571419715881345 0.14285700023174286 0.71428602933883667 0.14285700023174364 0.32527100108564022 0.10714299976825714 0.14285700023174186 0.35714301466941833 0.047614000737666973 0.054186001420021057 0.071428999304771312 0.26785698533058167 3.0550700016319654 0.14285700023174264 0.28571400046348561 0.14285700023174286 0.016785999760031589 1.2381000518798828 0.66324198525398947 0.21428599953651428 0.10714299976825714 0.14285700023174286 0.32857099175453186 0.46428500115871418 0.020414000377058872 0.1428570002317423 0.14285700023174286 7.8571420162916183 0.076129003427922726 0.017857000231742859 0.14285700023174286 0.14285700023174286 1.8146270122379067 0.14285700023174286 2.0578139573335648 0.023814000189304352 0.40477100014686584 0.12244299799203862 4.6938719749450684 3.4658720009028903 0.42857100069522858 0.54285699129104614 0.10084299743176117 2.4534571170806889 0.1619000006467104 0.0027999999001622191 0.14285700023174286 0.15584300458431244 9.5571567416191101 0.071428999304771423 0.82142901420593684 0.14285700023174253
leaf_count=2790 118 9702 56 3 177 7247 11734 2976 938 221 944 1 645 2348 273650 53 1476 40 3459 16 7577 244 5 15 67 5657 45 641 269 33 118 17 9186 677 9518 16 804 98 521 2618 16 101 1386 37 415 1 9 601 3 20 194 26 177 250
internal_value=0 0.379607 -0.163863 2.50732 0.305198 1.15806 0.196894 2.77385 -0.180185 0.144795 0.373606 2.59312 0.276292 3.85829 0.0802152 -0.0152608 0.211375 0.0463331 0.152252 -0.194792 0.036463 0.12383 0.58944 3.7443 -0.198822 0.0886048 -0.0590616 -0.108232 2.20467 -0.209124 -0.160948 0.224983 0.475435 0.838788 -0.0649954 0.253186 -0.0753295 4.27914 -0.065231 0.491986 -0.173325 -0.222703 0.41833 -0.229134 0.0889783 -0.126389 -0.168626 1.1082 -0.172266 -0.225559 -0.239213 0.735159 -0.253474 -0.119711
internal_weight=0 13.1267 33.6037 0.204086 12.7311 1.43453 11.2965 0.395657 33.3996 11.0108 2.42365 0.1018 2.32185 0.434528 8.58715 1 2.25043 8.05144 4.01573 32.0425 1.35373 3.85608 0.535715 0.25 31.7567 3.51936 4.03571 3.24263 0.285714 28.5141 6.26966 0.194829 0.896699 0.159643 4.0153 0.285714 3.87244 0.291671 1.06801 0.336729 6.07483 22.2445 0.753842 18.7786 0.176972 3.09977 0.646314 0.145657 0.857143 0.484414 10.9214 0.428572 1.36429 1.38096
internal_count=359956 356713 3243 121 350331 9926 340405 6382 3122 330434 33470 945 32525 9693 296964 233 31880 296712 286305 3066 9574 282169 252 2991 2112 279307 10407 738 9971 1374 832 550 22306 4136 10362 954 10322 2446 8098 2862 282 542 13120 441 533 97 96 3391 180 87 408 247 214 266
is_linear=0
shrinkage=0.02


Tree=4
num_leaves=51
num_cat=0
split_feature=30 3 92 93 144 63 38 33 92 16 3 140 163 106 144 140 92 144 45 152 93 108 63 3 41 144 106 152 144 3 16 17 140 78 93 3 38 64 3 63 3 3 163 106 3 3 144 140 52 3
split_gain=8921.5 6170.27 9041.57 2379.84 2442.98 2307.85 1104.86 1317.1 833.94 1706.75 793.053 767.147 680.173 1975.32 494.749 384.471 291.976 289.739 253.392 233.192 145.756 155.987 118.896 108.044 85.7692 82.7227 78.9707 67.3103 71.459 54.1869 53.607 55.6796 43.3919 40.9976 20.8602 19.6586 18.1568 17.1249 16.2375 15.8496 15.796 15.1769 12.0378 10.2745 7.90192 7.5543 6.47877 2.66871 0.779942 0.0899957
threshold=33.495000000000012 0.01892857142857143 0.45833333333333343 0.12291666666666669 1.5000000000000002 0.016071428571428573 0.0091897689397351622 0.12892857142857148 1.0000000180025095e-35 0.92857142857142871 2.1621428571428574 -1.0000000180025095e-35 1.0000000180025095e-35 0.60714285714285732 3.5000000000000004 -5.3290705182007506e-15 2.2083333333333335 81.500000000000014 3.5832921568627456 1.5000000000000002 0.0020833333333333337 0.0039285714285714297 0.13035714285714289 0.0067857142857142873 0.34270833333333339 14.500000000000002 2.8214285714285716 12.500000000000002 7.5000000000000009 0.029642857142857148 4.2142857142857153 0.35714285714285715 -1.3322676295501877e-15 1.0000000180025095e-35 0.01041666666666667 0.018214285714285714 0.012183558795471776 -1.0000000180025095e-35 0.015357142857142859 0.036071428571428581 19.039642857142855 0.14892857142857144 0.1652298850574713 1.392857142857143 0.038928571428571437 0.59357142857142864 16.500000000000004 1.332267629550188e-15 -5.2839285714285706 0.13464285714285718
decision_type=10 10 10 10 8 8 10 8 10 10 8 10 8 8 8 8 10 8 8 10 8 8 8 8 10 10 10 8 10 10 8 10 10 8 8 10 10 10 10 8 10 10 10 8 10 10 8 10 10 10
left_child=1 2 3 4 8 -3 7 -7 9 11 -2 -1 13 -6 18 -9 17 27 -8 -15 33 -22 45 -21 30 26 -23 28 -17 47 31 44 37 -14 -31 -11 -34 48 -13 -38 -24 -29 -26 -25 -16 -20 -27 -19 -32 -46
right_child=10 5 -4 -5 12 6 14 15 -10 35 -12 38 20 19 24 16 -18 29 22 23 21 25 40 43 42 46 -28 41 -30 34 32 -33 36 -35 -36 -37 39 -39 -40 -41 -42 -43 -44 -45 49 -47 -48 -49 -50 -51
leaf_value=4.1016118699710127 3.3452700253291447 2.4153383336613659 4.1399330580635434 2.939058987452849 4.7831959820004588 4.7967366870225421 -0.12682498877521045 0.72353074013426832 0.021701173394599666 0.42944610555304397 6.0658301396900161 1.9058222915245986 0.32534979400688591 1.0995059023334823 -0.10464361266973615 0.20396623822826621 0.67413609574911404 -0.18393141730526055 0.40826822987156069 1.6226945416150873 0.72793033795553896 0.065932438196723633 1.5414056675647692 0.25343228526415784 -0.23332692225000251 -0.050045679704256836 0.35639105059008308 0.35622773472372815 -0.14440063887598803 0.21082895108371413 0.060401121480393442 1.085907729265474 -0.11627245330305266 0.74030760289146069 -0.039005366163775326 0.76124154751275963 0.051824671996122139 -0.11284578147339482 2.2751385777337791 -0.19987708371427598 0.91048416439352309 0.6473491342699963 -0.20270984635850692 -0.10533455960877158 0.066307737866318314 0.23727075247561671 -0.1546575134301155 -0.093327329351470284 0.003549559238529394 0.088757151763575168
leaf_weight=0.10714299976825714 0.14285700023174286 0.14285700023174286 0.26785698533058155 0.14285700023174275 0.047614000737667084 0.023814000189304352 0.41541500389575958 0.35714301466941833 0.14285700023174286 0.14285700023174286 0.061229001730679466 0.14285700023174286 0.28571400046348572 0.14285700023174286 0.14285700023174286 1.7244849726557729 0.28571400046348561 1.448986038565635 0.28571400046348572 0.0167859997600317 0.14285700023174286 2.9632279984652992 0.017857000231742637 0.038771000690758228 9.6642997264862078 0.42857100069522858 0.42857100069522847 0.16667100042104732 0.27278499864041816 0.14285700023174286 0.14285700023173964 0.020414000377058983 1.3837570520117877 0.14285700023174286 2.081627956591547 0.14285700023174286 0.10164300352334976 2.6058431155979633 0.071428999304771423 6.4691429883241653 0.14285700023174286 0.12561500072479248 10.964285016059874 0.18095700070261955 0.14285700023174286 0.1619000006467104 0.52922798693180073 0.14285700023174275 0.29761400073766708 0.14285700023174286
leaf_count=7679 183 119 5695 959 1355 38 19 343 2747 533 3 7247 5 9416 282 779 14 2781 55 660 4970 272035 903 399 122 751 6742 442 264 9 1928 35 19 3308 2266 16 59 94 164 3496 2 25 39 9100 136 5 10972 597 134 12
internal_value=0 -0.0292791 0.541818 0.387388 0.32761 -0.122166 -0.131257 0.101491 1.39657 1.72007 4.16148 2.71982 0.1777 0.943411 -0.178876 0.0849236 0.0492402 0.0199993 0.253942 0.461489 0.111261 0.0776423 0.51396 0.0761196 -0.192689 0.0562844 0.102633 0.197871 0.156387 -0.0867124 -0.148793 0.0654159 -0.157536 0.463669 -0.0229609 0.595344 -0.182117 -0.09335 2.02893 -0.195984 0.980586 0.481342 -0.217054 -0.0420302 0.0168071 0.346419 -0.107849 -0.1758 0.0219881 0.0775324
internal_weight=0 46.5263 6.50872 6.24087 6.09801 40.0176 39.8747 6.77255 0.75 0.607143 0.204086 0.321429 5.34801 0.426985 33.1022 6.74874 6.3916 6.10588 1.02374 0.379371 4.92103 4.49245 0.608328 0.236514 32.0784 4.3496 3.3918 2.28956 1.99727 3.81633 11.4498 0.448985 11.0009 0.428571 2.22448 0.285714 7.95454 3.04631 0.214286 6.57079 0.160714 0.292286 20.6286 0.219728 0.428571 0.447614 0.957799 1.59184 0.440471 0.285714
internal_count=359956 359770 344753 339058 338099 15017 14898 7558 18386 15639 186 15090 319713 20930 7340 7520 7177 7163 984 19575 298783 295470 965 10159 6356 290500 278777 1510 1043 5653 6195 465 5730 3313 2275 549 3574 2156 7411 3555 905 467 161 9499 430 60 11723 3378 2062 148
is_linear=0
shrinkage=0.02


Tree=5
num_leaves=61
num_cat=0
split_feature=7 153 150 154 93 141 19 141 141 163 7 108 148 3 141 93 7 148 141 3 108 141 17 148 164 163 93 146 0 3 160 169 150 3 3 98 3 93 3 150 153 69 3 93 160 93 160 108 5 3 3 64 3 0 3 0 3 0 3 0
split_gain=6770.11 14331.9 4072.23 3632.91 2474.05 1791.5 1575.64 2678.56 1233.04 519.516 416.841 411.766 341.593 310.139 308.202 193.214 142.21 124.888 125.945 113.317 111.5 63.979 56.1676 127.751 52.4934 44.5724 40.165 29.0394 28.4896 25.4709 24.1369 21.7915 19.7143 17.3031 14.5827 13.0503 12.7016 11.951 11.3065 11.1146 9.39855 8.77323 8.19657 8.10181 6.26079 5.31364 4.82838 2.60316 2.35195 2.24735 2.12931 1.99337 1.25901 1.05488 0.764944 0.0717047 0.037234 0.0262732 0.00432156 0.00409499
threshold=2.6482142857142859 2000.6650000000016 4459.0000000000009 0.011375961348846384 0.12291666666666669 12.505000000000001 1.0000000180025095e-35 87.995000000000019 52.445000000000007 0.97619047619047639 -19.587199999999999 0.031785714285714299 1.8202884503720649 0.099642857142857158 29.005000000000006 2.6991666666666672 1.1621428571428571 0.35272768920652381 21.995000000000001 0.075357142857142873 0.023928571428571431 12.695000000000002 6.2142857142857162 4.6015131578947379 1.5000000000000002 0.18544973544973545 0.036250000000000011 0.07145791759596197 1.0000000180025095e-35 0.098928571428571435 0.30561620572537612 1.0000000180025095e-35 1.5000000000000002 0.060000000000000012 0.046785714285714299 0.20294117647058826 0.01892857142857143 0.022916666666666672 0.037500000000000006 467.50000000000006 159.98000000000005 0.20350675675675678 0.035357142857142872 1.739166666666667 0.36374777183600721 0.042916666666666679 0.23811978399607267 0.040357142857142862 4.5678571500000009 0.060000000000000012 0.074642857142857136 -1.0000000180025095e-35 3.4271428571428575 1.0000000180025095e-35 5.5264285714285721 1.0000000180025095e-35 0.014642857142857145 1.0000000180025095e-35 1.4214285714285717 1.0000000180025095e-35
decision_type=8 10 8 8 10 10 10 8 10 10 8 8 10 8 10 8 10 10 8 8 10 8 8 10 8 10 10 8 2 10 10 8 8 8 10 8 10 10 10 10 8 8 10 10 8 10 8 10 10 10 10 10 10 2 10 2 10 2 10 2
left_child=2 3 5 -2 8 9 7 14 12 10 -1 26 17 29 21 -8 22 18 27 30 -10 -7 23 31 42 48 -3 59 -11 49 38 53 -20 -18 56 -29 -32 57 55 54 52 -33 -23 -21 45 47 -34 -19 58 -9 -38 -42 -26 -12 -36 -16 -24 -14 -17 -5
right_child=1 11 -4 4 -6 6 15 13 20 28 16 -13 37 -15 19 25 33 44 32 43 -22 24 34 -25 40 -27 -28 35 -30 -31 36 41 46 -35 39 -37 50 -39 -40 -41 51 -43 -44 -45 -46 -47 -48 -49 -50 -51 -52 -53 -54 -55 -56 -57 -58 -59 -60 -61
leaf_value=0.89227445039730913 4.0195796610546273 4.6875321184424434 3.2783645553950254 -0.19458046550886479 2.8802778771313515 0.69213639499499435 0.155043084831617 2.2296358061791035 1.8677057602448039 0.7460166845190207 0.086982009228983193 5.944513561816982 0.72550144148761453 4.7008017930949446 0.29260403026865139 -0.2504296466527316 0.054962639394328987 -0.1467276478462953 0.72407522059985407 0.71856562134454105 1.0775157909625395 0.42085718210683803 0.0070463164477328243 1.5902405826063031 -0.039825487790790974 -0.072156145212862954 4.0571344253853612 -0.057240797953806065 0.4001028479172396 0.40127309139553358 0.65234520024039844 -0.19519397578581252 0.28120997324050312 0.41252977051985595 -0.23855445296397915 0.10060132254410105 0.40558944982031597 0.49539577829117948 -0.031464042037709791 -0.19865565294533177 0.047913597012239219 -0.14928681831584675 0.20661236171466318 0.89475501699128335 0.021267148925348624 0.048600337247019648 0.40358117792179388 -0.076977581344514073 -0.16190087177926779 2.3670317058432575 0.49474910062833893 0.16595368365190172 -0.11209298953757058 -0.034543485571566251 -0.22471184347864398 0.31468552058830457 0.036811269085062062 0.71337171250439302 -0.24652008113198243 -0.2004454264184593
leaf_weight=0.14285700023174286 0.10714299976825714 0.047614000737667084 0.14285700023174186 0.14285700023174286 0.14285700023174275 0.071428999304770202 1.573227973654866 0.071428999304771423 0.14285700023174275 0.14285700023174186 0.14285700023174286 0.061229001730680355 0.14285700023174275 0.023814000189304241 0.09999999962747097 0.14285700023174275 0.081629000604152679 0.85304198786616259 0.047614000737666973 0.38775701541453578 0.14285700023174286 0.14285700023174275 0.095242999494088987 0.016785999760032477 0.29670000076293945 4.2391710728406906 0.26785698533058167 0.28571400046348572 0.28571400046348572 0.0027999999001622191 0.12244299799203873 2.1986999660730362 0.65305700059980154 0.16071400046348472 1.9438720345497138 0.78571400046348594 0.42857100069522858 0.14285700023174286 0.047614000737667084 10.964285016059874 0.43347099982202064 6.8622561041265673 0.14285700023174286 0.14285700023174286 0.14285700023174297 0.071428999304771534 0.16071400046348572 0.28571400046348572 0.15872900187969208 0.14285700023174286 0.14285700023174286 0.065929003059864044 0.14285700023174286 0.035714000463485718 8.9437137097120285 0.14285700023174286 0.020414000377058983 0.14285700023174286 0.54285699129104614 0.071428999304771423
leaf_count=16 3676 640 15557 4162 4997 167 44 6431 41842 364 489 3534 5027 91 1711 399 105 16248 9237 117 2454 8099 8700 311 1107 25 52 6942 411 1 4199 79 18890 14 229 81904 822 765 194 21 4881 15013 336 1 8851 627 64928 856 15 97 3 139 3 485 5 3092 2856 4191 5 3499
internal_value=0 0.697362 -0.0925943 0.381262 0.291798 -0.10413 0.13387 0.510158 0.204056 -0.176254 -0.185632 4.44359 0.111801 2.53415 0.336707 -0.0386464 -0.190526 0.0465436 0.141381 0.530408 1.47261 0.110298 -0.194272 -0.152948 0.0763627 -0.0985876 4.15228 0.0160024 0.515407 2.29647 0.403411 -0.156115 0.328521 0.29209 -0.211684 0.0585101 0.467489 0.644756 0.250343 -0.212869 0.00413312 -0.160426 0.313735 0.766001 -0.10395 -0.118731 0.305377 -0.129227 -0.231276 2.32123 0.427879 0.0634968 -0.0633126 0.062677 -0.227183 0.305593 0.0123 0.719437 -0.247335 -0.196535
internal_weight=0 4.84113 41.8893 4.46443 4.35728 41.7464 9.7088 3.05196 4.21443 32.0376 31.609 0.3767 3.92871 0.2409 2.81106 6.65684 31.4662 3.50014 2.1471 1.51496 0.285714 1.2961 31.2238 9.25631 1.22467 5.08361 0.315471 1.28571 0.428571 0.217086 0.984342 9.23953 0.861385 0.242343 21.9675 1.07143 0.693871 0.428571 0.290471 21.8519 0.938957 9.06096 0.285714 0.530614 1.35304 1.21018 0.813771 1.13876 0.844443 0.214286 0.571428 0.4994 0.439557 0.178571 10.8876 0.242857 0.115657 0.285714 0.685714 0.214286
internal_count=359956 283322 76634 279096 275420 61077 31979 31491 270423 29098 28323 4226 226127 6620 24871 488 28307 216144 189562 10139 44296 14732 28188 16377 14565 444 692 96507 775 6529 10021 16066 93055 119 11811 88846 5024 9983 4997 255 6130 15092 8435 118 26582 17731 83818 17104 419 6528 825 5020 1110 974 234 4803 11556 9218 404 7661
is_linear=0
shrinkage=0.02


Tree=6
num_leaves=63
num_cat=0
split_feature=14 145 150 141 63 150 151 144 78 141 151 141 140 106 141 56 91 150 99 91 141 46 9 46 56 78 46 140 3 144 91 141 140 141 99 144 14 22 5 150 141 9 3 5 91 91 9 54 150 3 106 3 106 99 3 3 69 140 46 91 3 106
split_gain=6302.56 13921.8 3912.9 2273.62 2103.28 1695.42 2553.18 1385.32 1343.04 848.356 687.872 629.322 456.466 395.46 264.561 258.224 190.807 153.462 134.257 113.354 109.448 107.085 97.8977 79.1781 66.3312 63.8214 47.3128 118.777 43.4259 41.6006 38.5744 34.2667 31.3099 28.754 26.3062 24.6139 24.5929 22.908 20.5625 12.5678 12.548 11.7696 10.6049 9.76976 8.23717 7.99177 7.77691 5.2451 3.95111 3.66861 2.02581 1.83677 1.54599 1.07911 0.855882 0.699391 0.615676 0.119321 0.118762 0.0637877 0.0255164 0.00982313
threshold=2.6722916666666672 3924.420000000001 4459.0000000000009 43.995000000000012 0.016071428571428573 22.500000000000004 1.5000000000000002 3.5000000000000004 0.016071428571428573 12.505000000000001 3.5000000000000004 185.00500000000002 -1.0000000180025095e-35 2.2500000000000004 47.995000000000012 0.39454294019729408 11.04166666666667 7.5000000000000009 0.13505102040816327 0.20833333333333334 36.995000000000012 0.60714285714285732 0.25958333333333344 0.46428571428571436 0.22460064778443942 1.0000000180025095e-35 8.3928571428571441 -1.3322676295501877e-15 0.036071428571428581 15.500000000000002 3.8750000000000004 6.5450000000000008 -1.0000000180025095e-35 3.7450000000000006 0.20025000000000007 2.5000000000000004 -1.1108333333333331 -0.90214285714285702 2.5803571500000007 467.50000000000006 34.005000000000003 0.55281250000000015 0.31750000000000006 1.1689286000000001 3.541666666666667 1.0000000180025095e-35 0.1353571428571429 0.14985294117647061 2.5000000000000004 19.039642857142855 5.1785714285714297 0.80035714285714288 2.8928571428571428 0.19831761006289314 0.13464285714285718 0.08607142857142859 0.18022727272727276 1.0000000180025095e-35 0.8928571428571429 1.0000000180025095e-35 1.4214285714285717 0.32142857142857145
decision_type=8 10 8 8 8 10 8 8 8 10 10 10 10 8 10 10 10 10 8 10 8 10 10 10 8 8 10 8 8 10 10 8 10 8 8 10 8 10 10 10 10 10 10 8 10 10 8 10 8 10 10 10 8 10 10 10 8 8 10 10 10 10
left_child=2 3 4 20 -1 17 16 11 -9 26 14 15 19 30 23 22 -7 61 51 -8 25 -14 43 28 36 -2 27 -10 -11 31 -3 -27 38 -28 53 45 -20 54 49 56 48 -26 55 47 -25 -19 -39 57 -36 -24 59 -12 -22 58 -29 -16 -35 -6 -33 -31 -49 -5
right_child=1 13 -4 5 7 6 12 8 9 10 18 -13 21 -15 42 -17 -18 35 24 -21 52 -23 32 44 41 29 33 37 -30 50 -32 34 -34 39 40 -37 -38 46 -40 -41 -42 -43 -44 -45 -46 -47 -48 60 -50 -51 -52 -53 -54 -55 -56 -57 -58 -59 -60 -61 -62 -63
leaf_value=2.3196909221901105 0.31321859636375132 4.5937814520384546 3.2127971681566581 0.70959369816150353 0.41244002511324845 3.9391880749542936 -0.085741951237778252 4.6067859414482681 1.5584358618561276 0.28891665851248766 0.41843990140368342 2.1850430633528042 1.0559654764784341 5.8256230289116937 0.63929831414964866 0.090928020509888172 2.8226722287988366 0.23239315107972938 -0.2423878800682876 0.71099141532815235 0.3924419840218536 1.8303517304892105 0.73109636818552504 0.073496963951377808 -0.023049600112709449 -0.19260474712614006 -0.15888712632306715 0.012053970311152287 0.76087270106262117 -0.15394422632975563 3.9759917995404503 -0.09620426722892908 0.48485413797538007 -0.2364854261722526 0.15355765886090283 -0.19490772632982689 -0.10720401212575814 -0.16986609372151995 1.5023270244491023 -0.19468253887745626 0.29644960436408768 0.079350017835404241 0.8768599300029114 -0.091273620639543529 -0.10404184758009466 0.020841807073370577 -0.10451277822001774 0.28772875099117651 0.073912641770324153 0.87442896405965354 -0.065134111702225411 0.55519491051629988 0.48548786472807431 -0.015987700390456897 0.085242364872074233 0.69468881102220803 -0.22293303392862768 0.39133393574814407 -0.07041537520036259 -0.13950410128026358 0.26702415184107492 0.69910428225974119
leaf_weight=0.14285700023174286 0.28571400046348572 0.047614000737667084 0.14285700023174186 0.047614000737666862 0.14285700023174241 0.10714299976825714 0.14285700023174286 0.023814000189304352 0.0167859997600317 0.51679999940097332 0.14285700023174286 0.071428999304771312 0.14285700023174286 0.061229001730680355 0.12244299799203862 1.3439859896898267 0.14285700023174286 0.14285700023174286 0.685713991522789 0.14285700023174286 0.14285700023174286 0.14285700023174286 0.14285700023174286 0.32612900342792273 2.0952419564127926 0.21428599953651439 5.52381503582001 0.1156569998711382 0.091842999681829296 0.38875698670744885 0.26785698533058167 0.14285700023174286 0.14285700023174286 1.5581569969654081 0.35714299976825681 0.14285700023174286 2.5038711177185182 1.8146280404180286 0.017857000231742859 10.964285016059874 0.14285700023174275 0.57142798602581013 0.14285700023174286 0.019043000414968203 0.15384300053119659 0.14285700023174286 1.2166699990630152 0.028571000322699547 0.82397200074046861 0.14285700023174286 0.14285700023174286 0.054186001420021057 0.14285700023174275 0.14285700023174286 0.14285700023174286 0.35714301466941833 9.614299740642311 0.42857100069522902 0.14285700023174286 0.17857100069522858 0.14285700023174286 0.14285700023174286
leaf_count=288 98 491 15360 63043 3302 6016 18773 47 1644 16028 98 318 6028 3887 8884 17 261 13583 9 4471 1397 945 469 268 1308 13405 6 9375 632 4355 20 14222 358 25 15993 1145 135 7147 4 33 4430 15 19 17 28 3582 6036 146 91251 1 341 1 7633 1100 24 73 128 3060 634 920 2 6627
internal_value=0 0.655585 -0.09153 0.358403 -0.102899 1.01976 1.61541 -0.111262 -0.141372 -0.144292 0.0426408 0.333492 0.877892 4.35472 0.396715 0.281675 3.30118 0.229372 -0.0574438 0.312625 0.065133 1.44316 0.493836 0.208665 -0.074721 0.0290821 -0.191161 -0.119661 0.360134 -0.00124336 4.06923 0.0461325 0.729014 -0.199708 0.0753232 0.0194424 -0.136267 -0.128223 0.843913 -0.209895 0.119409 -0.00110687 0.725603 0.356036 0.0165913 0.126617 -0.143635 0.367502 0.0979955 0.802763 -0.132449 0.456047 0.438965 -0.0608691 0.0524985 0.680547 -0.224823 0.39661 -0.0833098 -0.149399 0.270475 0.701726
internal_weight=0 5.06561 41.6648 4.68891 41.5219 1.44047 0.821428 41.3791 38.7553 38.7315 7.76436 2.62374 0.571428 0.3767 1.71106 2.55231 0.25 0.619042 6.0533 0.285714 3.24844 0.285714 1.20833 1.08862 5.85626 2.96273 30.9672 3.3066 0.608643 2.67701 0.315471 1.96683 0.446428 27.6606 1.75254 0.428571 3.18959 3.28981 0.303571 22.1367 1.32397 2.66667 0.622443 0.761899 0.479972 0.285714 3.0313 0.742856 1.18112 0.285714 0.710185 0.197043 0.285714 0.428571 0.258514 0.479586 11.1725 0.571428 0.285714 0.567328 0.171428 0.190471
internal_count=359956 284651 75305 280253 59945 124474 36494 59657 51963 51916 27498 7694 30217 4398 25932 7376 6277 87980 1566 23244 155779 6973 7359 16956 1467 146749 24418 24226 16660 146651 511 141035 832 192 127630 18310 144 22582 474 186 111674 1323 8976 6527 296 17165 13183 6510 107244 470 5616 99 9030 15956 9399 8957 153 6362 14856 5275 148 69670
is_linear=0
shrinkage=0.02


Tree=7
num_leaves=63
num_cat=0
split_feature=7 145 158 147 31 61 146 94 53 8 143 1 1 108 152 145 147 31 8 24 143 151 7 39 7 24 8 140 140 158 17 94 0 94 140 24 158 24 164 140 0 17 108 1 53 1 8 24 1 158 140 0 0 108 39 1 1 17 53 0 94 7
split_gain=6244.85 13219.2 3756.1 3350.85 1402 1651.88 1267.17 1042.21 936.373 534.54 468.621 564.525 508.497 379.799 243.842 313.258 215.309 171.691 95.957 117.976 93.7401 86.4739 84.0065 61.1719 60.2272 56.6491 56.4967 46.2701 41.6409 39.474 38.2897 37.0469 37.0232 33.2798 48.946 32.7103 31.9926 29.9436 20.2022 18.4175 17.3633 14.6273 11.0232 10.0813 6.41198 5.93863 5.56504 5.53022 3.54743 2.98059 3.25672 2.90094 2.65796 2.49571 2.3902 1.79086 1.76403 1.67417 0.814149 0.741736 0.736547 0.553742
threshold=2.6482142857142859 3924.420000000001 2548.0000000000005 0.0062129346948801645 5.1071428571428585 1.3214285714285718 0.014495141226750713 -1.0000000180025095e-35 0.22401433691756273 0.0091116645911166472 10.500000000000002 0.3928571428571429 25.857142857142861 0.031785714285714299 3.5000000000000004 69.625000000000014 0.0036563193497500079 1.0000000180025095e-35 0.91666666666666685 0.41250000000000003 21.500000000000004 2.5000000000000004 1.0000000180025095e-35 0.23775000000000002 1.1621428571428571 0.33875000000000005 0.033917478334228091 1.0000000180025095e-35 1.0000000180025095e-35 368.50000000000006 6.2142857142857162 -1.0000000180025095e-35 1.0000000180025095e-35 1.0000000180025095e-35 6.6613381477509402e-16 0.21050000000000002 317.50000000000006 0.17775000000000005 2.5000000000000004 1.332267629550188e-15 1.0000000180025095e-35 31.642857142857146 0.039642857142857153 442.92857142857144 0.062696540880503152 0.96428571428571441 0.014311315924219149 0.2990000000000001 1.6785714285714286 1.0000000180025095e-35 -1.3322676295501877e-15 1.0000000180025095e-35 1.0000000180025095e-35 0.040357142857142862 0.19000000000000009 13.428571428571431 553.46428571428589 0.50000000000000011 0.017866531470632416 1.0000000180025095e-35 -1.0000000180025095e-35 -2.8667857142857138
decision_type=8 10 10 8 10 8 8 10 8 10 8 10 8 8 8 8 8 10 10 10 10 8 8 10 10 10 8 8 8 8 8 10 2 8 10 10 8 10 8 10 2 10 10 10 10 10 10 8 10 10 8 2 2 10 10 10 10 10 8 2 10 8
left_child=2 3 4 -2 5 -1 7 -5 -8 36 11 -7 18 31 15 28 -11 21 23 37 33 25 30 26 -24 57 -12 -17 60 -28 35 -3 47 49 38 44 -6 -20 -35 -36 -14 46 -29 54 -18 -19 61 -23 -47 51 -51 -16 -30 -22 -37 -27 -42 -13 -48 -50 -10 -32
right_child=1 13 -4 6 9 10 8 -9 14 16 12 17 40 -15 20 27 22 45 19 -21 53 32 24 -25 -26 55 29 42 52 -31 41 -33 -34 34 39 43 -38 -39 -40 -41 56 -43 -44 -45 -46 48 58 -49 59 50 -52 -53 -54 -55 -56 -57 -58 -59 -60 -61 -62 -63
leaf_value=2.2732970236375856 3.8604043561797603 4.5019059271499593 3.1485414277356218 -0.19258441241183921 0.29253725047745038 2.1413421914046595 1.7937447145714618 2.7662188109257677 0.11460430068313211 -0.0098220578106909436 -0.17594328242842011 0.39130288805504748 0.68079504121045442 5.7091105683334602 0.094712964084276124 1.0348461469216863 -0.063364400805620974 0.28197417305068267 1.5272671701851683 -0.082979485386989751 -0.14641110137689251 0.69867496309235311 -0.094224301953640774 1.0346007854423807 0.39619358658711668 0.052385132281598058 -0.036240396758327277 0.69094687779904373 -0.1910095858222568 0.30261346988532478 -0.2034557500543184 3.8964718553139011 0.38197354305129061 0.29832806882370611 -0.18683675584290257 -0.18956099972712107 0.08480141102618699 0.62651235020327134 0.040911220029767201 0.10178737292148488 0.41007111005133662 -0.17316720633286672 0.4757780867387591 -0.10916263685815118 0.10805008767330446 -0.097474749845388439 -0.21884353431148995 0.85932272873256366 0.056647827556795177 -0.094280180882991477 0.029000046590901843 -0.015667946632987515 -0.069007068030141672 -0.073929269213393628 -0.16115268841128241 -0.078508020192034483 0.54409097446594645 0.47515704386713681 -0.23360191472754241 -0.0066405110008698519 0.29052059091447974 -0.1918769451915483
leaf_weight=0.14285700023174286 0.10714299976825714 0.047614000737667084 0.14285700023174186 0.071428999304771423 0.96258498635142919 0.071428999304771312 0.14285700023174286 0.14285700023174286 0.010200000368058681 2.9828711152076721 1.3061290383338926 0.28571400046348572 0.35714301466941734 0.061229001730680355 0.28571400046348572 0.14285700023174264 0.15000000037252892 0.028571000322699436 0.016785999760031589 0.14285700023174286 0.56732798740267742 0.21428599953651428 0.26587200164795177 0.020414000377058872 0.16071400046348572 0.081629000604152679 3.6766689587384467 0.28571400046348572 0.14285700023174286 0.14285700023174275 3.5714279860258102 0.26785698533058167 0.14285700023174286 0.83332800120115258 0.14285700023174286 2.0428569614887238 0.42857098579406749 0.12244299799203873 0.14285700023174286 0.23214299976825714 0.14285700023174286 4.7500000447034827 0.14285700023174286 1.2381000518798826 0.2087860032916069 0.14285700023174286 9.5571567416191101 0.14285700023174264 0.14285700023174286 0.14285700023174286 0.21428599953651428 0.14285700023174286 0.14285700023174286 0.28571400046348572 2.8201290182769299 0.085713997483253479 0.054186001420021057 0.14285700023174286 1.7724429965019197 0.15384300053119659 0.14285700023174286 3.0742279859259822
leaf_count=457 4028 509 20 5867 235 9254 23338 1566 3528 34 1167 1898 15 3650 14123 3408 229 2709 11094 173 6042 537 29 3200 27 160 32533 3833 2611 5944 6 209 1152 45872 2630 13 22 1824 98965 27460 90 5 259 4 34 1237 93 160 248 2208 15038 14753 2086 546 114 15 1 171 699 839 793 192
internal_value=0 0.669764 -0.0889296 0.366183 -0.100008 0.142537 0.280262 1.77995 0.202694 -0.155394 0.102579 0.402592 0.0205608 4.26762 0.145873 0.414515 -0.17178 0.323184 -0.0383562 0.320805 0.0551082 0.460138 -0.188095 -0.0580439 0.090538 0.297404 -0.0623956 0.723129 0.0125958 -0.0235667 -0.192167 3.98785 0.654088 0.125863 0.18605 -0.149201 0.22854 0.735111 0.260657 -0.00816457 0.597642 -0.204381 0.619224 -0.160114 0.0363857 0.00256826 -0.212629 0.762934 -0.015593 0.0223596 -0.020312 0.0579193 -0.130008 -0.122134 -0.173087 -0.0146591 0.446926 0.419254 -0.221152 0.023832 0.278797 -0.198099
internal_weight=0 4.84113 41.8893 4.46443 41.7464 7.76067 4.35728 0.214286 4.143 33.9857 7.61781 1.63547 5.98234 0.3767 4.00014 1.0102 32.5946 1.56404 5.42815 0.282086 2.98994 1.09591 29.6117 5.14607 0.426586 0.595914 5.12565 0.571428 0.438771 3.81953 29.1851 0.315471 0.5 2.1369 1.35119 6.45987 1.39116 0.139229 0.976185 0.375 0.554186 22.7253 0.428571 6.10109 0.358786 0.468128 17.9753 0.357143 0.439557 0.785714 0.357143 0.428571 0.285714 0.853042 4.86299 0.167343 0.197043 0.428571 11.3296 0.2967 0.153057 6.64566
internal_count=359956 283322 76634 278954 76614 74878 274926 7433 267493 1736 74421 18380 56041 4368 244155 16518 1479 9126 55935 13091 227637 4093 1445 42844 56 2244 39644 7500 9018 38477 1389 718 1849 221049 174927 394 257 12918 144837 30090 106 995 4092 131 263 5033 990 697 2324 46122 17246 28876 4697 6588 127 175 91 2069 792 1087 4321 198
is_linear=0
shrinkage=0.02


Tree=8
num_leaves=54
num_cat=0
split_feature=30 1 145 154 141 98 141 113 1 17 9 141 141 1 142 63 95 145 141 113 1 166 141 1 9 145 30 141 1 92 17 7 17 17 166 5 150 9 1 7 1 7 92 1 1 145 113 25 1 9 1 1 1
split_gain=7590.08 5740.3 9618.13 3271.24 2517.69 2379.75 718.259 747.089 674.7 460.467 425.227 322.205 231.832 231.687 201.59 194.151 150.805 142.719 104.955 84.8852 303.261 75.3337 74.9162 66.7722 52.1121 46.7484 45.0555 44.9525 39.521 35.5798 33.1776 28.1776 18.7053 18.3918 14.2274 13.9454 11.37 8.07667 6.60251 5.14686 4.99152 3.35738 2.29335 2.17209 1.99079 1.27029 1.06297 0.465745 0.287345 0.202232 0.132262 0.0489868 0.0486246
threshold=33.495000000000012 3.8928571428571432 3924.420000000001 0.011375961348846384 52.445000000000007 0.015040052715175776 12.505000000000001 0.013179607434427655 714.60714285714289 1.3571428571428574 0.21071428571428574 21.995000000000001 56.975000000000001 1.0000000180025095e-35 836.50000000000011 0.03392857142857144 1.0000000180025095e-35 37.975000000000001 22.345000000000002 0.024410105664574567 13.678571428571431 0.35011111111111115 30.995000000000001 3.6785714285714288 0.24407004830917872 77.725000000000009 1.4508343362710752 7.995000000000001 1.0000000180025095e-35 0.45833333333333343 5.3571428571428585 1.1621428571428571 1.0714285714285716 1.5000000000000002 0.04776161961790705 9.0020928500000021 467.50000000000006 0.32121212121212123 0.75000000000000011 -0.44464285714285678 1203.1071428571431 -7.4128571428571419 1.0000000180025095e-35 10.035714285714286 3.3214285714285716 390.15500000000014 0.071112515802781301 0.31282916038210162 9.8928571428571441 0.22350877192982457 14.928571428571431 900.46428571428589 44.107142857142868
decision_type=10 10 10 8 10 8 10 8 10 10 10 8 10 10 10 8 8 10 10 10 8 10 10 10 10 8 8 8 10 10 8 10 8 10 10 10 10 10 10 10 10 8 10 8 10 8 8 8 10 10 10 10 10
left_child=1 2 3 -1 5 -5 15 -8 -2 21 12 23 -6 29 17 24 35 18 -13 25 37 43 -19 27 39 31 -18 42 -14 -4 33 40 52 45 -29 -11 47 -21 -30 -3 -17 -38 -7 48 -12 -27 -16 -32 -9 -43 -47 -49 -23
right_child=8 6 13 4 10 11 7 9 -10 16 44 14 28 -15 46 19 26 22 -20 20 -22 32 -24 -25 -26 30 -28 34 38 -31 36 -33 -34 -35 -36 -37 41 -39 -40 -41 -42 49 -44 -45 -46 50 -48 51 -50 -51 -52 -53 -54
leaf_value=3.7831961052787144 5.5949282074417583 0.081376518193284883 4.4118678887241041 2.7108943919825998 1.7578697588633463 -0.18224048078041971 1.3660301535931445 0.05653299276873585 3.0855706312243769 0.063429611202993452 2.0985152995116656 -0.0013428673749457819 1.0141491906046165 1.4967217245168423 -0.082548525493609456 -0.16762400000688332 -0.13561859065175483 0.68558564604677064 0.32364906624410955 -0.22624346293287748 0.85713682872306596 0.6671791414543583 0.35760351320008182 0.39636517519454023 0.38447056531202473 -0.15662114872517641 -0.013632829522564711 0.060162540681421066 0.61398208995838066 3.818542691645284 -0.22754358881634265 0.25375979962805595 0.4018189213183902 -0.083105204059634674 -0.037671965410825674 0.17784340755625114 -0.16998530461237976 -0.090116901108239222 0.27633469042414549 -0.092209077775522202 0.012960687312623414 -0.19784008991639987 -0.11451508093640798 0.15900367517056754 2.2278311846358823 -0.16807590891350915 -0.1472699457832059 -0.21950475356964713 -0.028557868120625135 -0.19132328665196613 -0.17792513827194029 -0.21405971384822647 0.64910275728540068
leaf_weight=0.10714299976825714 0.061229001730679466 0.14285700023174286 0.047614000737666973 0.14285700023174286 0.14285700023174275 0.66665700078010459 0.16667100042104721 0.023814000189304352 0.14285700023174286 0.78751398809254169 0.071428999304771423 0.68708500079810686 0.14285700023174286 0.0167859997600317 0.14285700023174286 0.15584300458431244 3.2979001104831696 0.42857100069522835 0.94302800111472607 0.32857099175453186 0.14285700023174186 0.35714301466941833 0.7959140008315444 0.14285700023174275 0.28571400046348572 2.6489860136061907 1.9140429561957715 0.95557100139558349 0.12244299799203873 0.26785698533058167 1.2295860052108762 0.14285700023174286 0.14565700013190508 1.2916710525751112 1.5738130025565622 0.92857098579406738 3.25 0.3714279979467392 0.028571000322699547 0.13095699995756149 0.10084299743175507 3.4285709857940656 0.28571400046348572 0.065929003059863045 0.14285700023174286 0.714286029338837 0.35065698623657215 0.71428602933885166 0.047614000737667084 4.2857140302658081 2.306128978729248 8.8428707122802734 0.071428999304771423
leaf_count=4230 184 7 4102 1905 3362 29571 28 443 2 41 2682 62444 42292 633 656 296 10 20380 55899 99 45 302 3415 73 12 171 83 72936 6333 274 12 3 238 85 34385 2 4 8 1835 52 3 64 5998 210 26 421 3122 403 5 14 140 1 15
internal_value=0 -0.0270061 0.453055 0.3124 0.264519 0.1556 -0.129808 0.0413845 3.83842 0.0124852 1.45501 0.103247 1.09696 3.78627 0.244704 -0.173603 -0.0372773 0.309231 0.186666 -0.180498 0.0173683 0.496975 0.472398 -0.0274198 0.195519 -0.186227 -0.0908203 -0.0448077 0.775685 3.90809 -0.189216 0.028621 0.59762 -0.151213 -0.00071126 0.125339 -0.201379 -0.154013 0.550101 -0.00164425 -0.0966786 -0.187036 -0.161923 0.0762209 2.18473 -0.16673 -0.128535 -0.215957 -0.000188689 -0.19422 -0.175596 -0.214467 0.664166
internal_weight=0 46.5263 8.20599 7.87374 7.76659 7.11558 38.3203 7.80629 0.204086 7.63961 0.651014 6.97272 0.436728 0.332257 3.34811 30.514 6.92803 2.8546 1.63011 29.9545 0.842856 0.711586 1.22449 3.62461 0.559528 29.1116 5.21194 3.48176 0.293871 0.315471 28.7121 0.399543 0.574229 6.96107 2.52938 1.71608 21.751 0.699999 0.151014 0.273814 0.256686 10.9643 0.952371 0.137357 0.214286 5.6694 0.493514 10.7867 0.071428 7.71429 3.02042 9.55716 0.428572
internal_count=359956 359770 356553 351544 347314 290784 3217 1377 186 1349 56530 288879 53822 5009 145916 1840 136 142138 118343 1769 152 1213 23795 142963 71 1617 93 142890 50460 4376 1315 302 555 817 107321 43 498 107 8168 59 299 82 35569 658 2708 732 3778 416 448 78 561 404 317
is_linear=0
shrinkage=0.02


Tree=9
num_leaves=55
num_cat=0
split_feature=15 1 145 147 136 98 10 136 107 147 2 136 136 136 1 144 145 92 136 1 136 1 15 144 136 1 16 92 37 6 144 46 164 46 1 16 1 1 92 136 6 158 148 92 46 1 106 1 27 1 1 1 1 1
split_gain=7172.66 5526.88 9237.25 3141.7 2417.99 2285.51 768.012 696.021 717.504 535.948 456.119 408.388 309.446 222.652 222.512 202.218 158.418 140.612 100.799 64.1281 56.8731 54.5091 48.3772 44.2811 43.1724 37.956 37.7017 34.1709 29.6529 27.0617 18.3574 17.9645 13.664 11.6792 6.34105 5.79522 5.66535 4.79385 4.21522 3.53615 3.45251 3.10039 2.23229 2.20254 2.11409 1.91196 1.02088 0.484599 0.447301 0.378027 0.275967 0.047047 0.0466991 0.00678746
threshold=33.995000000000012 3.8928571428571432 3924.420000000001 0.0062129346948801645 52.445000000000007 0.015040052715175776 2.0241195652173918 12.505000000000001 0.10714285714285715 0.0029339860316440086 0.75000000000000011 99.995000000000019 21.995000000000001 56.975000000000001 1.0000000180025095e-35 7.5000000000000009 37.975000000000001 2.2083333333333335 22.345000000000002 3.6785714285714288 31.725000000000005 10.035714285714286 1.4508343362710752 3.5000000000000004 7.995000000000001 1.0000000180025095e-35 683.78571428571433 0.45833333333333343 -15.569999999999997 0.13126070000000004 12.500000000000002 3.3928571428571428 1.0000000180025095e-35 157.10714285714289 0.75000000000000011 14.357142857142858 25.857142857142861 1203.1071428571431 0.12500000000000003 3.7450000000000006 1.6119821500000002 34.500000000000007 0.41123918741808657 1.0000000180025095e-35 8.3928571428571441 3.3214285714285716 4.0357142857142865 246.25000000000003 0.087125000000000008 485.25000000000006 9.8928571428571441 900.46428571428589 44.107142857142868 13.428571428571431
decision_type=10 10 10 8 10 8 8 10 8 8 10 10 8 10 10 10 10 8 10 10 10 8 8 8 8 10 8 10 10 8 8 10 10 10 10 10 8 10 10 10 8 10 10 10 10 10 10 10 8 10 10 10 10 10
left_child=1 2 3 -1 5 -5 -2 9 -9 -3 21 13 19 -6 27 16 18 28 -14 24 -18 50 -19 29 43 -15 30 -4 -12 37 35 52 -26 39 -27 -25 -24 -11 46 42 48 -38 -32 -7 -41 -13 -17 53 -28 -43 -10 -50 -23 -37
right_child=6 7 14 4 11 12 -8 8 10 23 17 45 15 25 -16 38 20 22 -20 -21 -22 31 36 26 32 34 40 -29 -30 -31 33 -33 -34 -35 -36 47 41 -39 -40 44 -42 49 -44 -45 -46 -47 -48 -49 51 -51 -52 -53 -54 -55
leaf_value=3.7075323469505905 2.8507668357790137 0.5311854738408327 4.3236304828793424 2.6566765415270188 1.722712443794802 -0.17859566887595976 5.4830298426597412 1.3387095253449339 0.055402334164823389 -0.16427151755896349 0.19400639422437965 2.0565450309052413 -0.0013160127101915593 0.99386626286863011 1.4667873099112911 -0.14432454741147749 0.67187390330758845 -0.13290621956166032 0.31717608720726986 0.38843788303938509 0.38121569076885536 0.65383555755715816 -0.022739962599998838 0.07974898432466257 0.058959288107231576 0.60170247074650318 -0.22299270494056178 3.7421718378123781 0.026659641133758325 0.24868459495704986 -0.16981519899464889 0.39378254811971036 -0.036918526394229427 -0.1053172829102739 0.27080798743640971 -0.067377893609465833 0.18026554895076657 0.012701473329945428 0.038418009817004467 -0.15534909235406966 -0.19122748641260415 0.055787526633802931 -0.14820266210806099 -0.11222478090316497 -0.19219013539647056 2.1832745796352002 -0.080897551478980659 -0.15166721602719285 -0.21511465502688659 0.0060906679814108694 -0.027986711196353209 -0.2097785109435269 0.63612069546401251 -0.075135518445302113
leaf_weight=0.10714299976825714 0.16071400046348572 0.42857100069522858 0.047614000737666973 0.14285700023174286 0.14285700023174275 0.66665700078010459 0.061229001730679466 0.16667100042104721 0.023814000189304352 0.15584300458431244 0.98275698721408822 0.071428999304771423 0.68708500079810686 0.14285700023174286 0.0167859997600317 0.35065698623657215 0.42857100069522835 3.2979001104831696 0.94302800111472607 0.14285700023174275 0.72448500152677298 0.35714301466941734 1.6428569555282593 0.14285700023174286 0.95557100139558349 0.12244299799203873 1.2295860052108762 0.26785698533058167 0.74431398697197437 0.14285700023174286 5.5561289787292427 0.14565700013190508 1.5738130025565622 1.2381000518798835 0.028571000322699547 0.095242999494075775 0.076129003427922393 0.10084299743175507 0.071428999304771423 0.77041403017938037 4.7857140302658161 0.14285700023174286 2.9142860136926174 0.28571400046348572 3.2571419775485992 0.14285700023174286 0.14285700023174286 0.035714000463485718 0.71428602933883389 0.10714299976825714 0.047614000737667084 8.8428707122802734 0.071428999304771423 0.085713997483253479
leaf_count=4636 22 38 4102 1883 3498 29666 365 46 793 321 10 31829 62505 16376 631 10098 12585 15 55870 76 2641 236 21 93 72572 3318 9 274 37 6 302 86 34905 11 886 38 40 1 1077 214 3 54 155 6016 24 65 863 6 537 6 6 1 12 76
internal_value=0 -0.0270391 0.443994 0.306152 0.259229 0.152488 3.57695 -0.127954 0.0405568 -0.171089 0.0122355 1.42591 0.101182 1.07503 3.71054 0.23981 0.309838 -0.0347185 0.182933 -0.0268714 0.489248 0.520856 -0.0860706 -0.181099 -0.0439116 0.760171 -0.183915 3.82993 0.121885 0.0280486 -0.160218 0.585668 -0.000697036 -0.163911 0.539099 -0.01914 -0.00762466 -0.094745 -0.105181 -0.169715 -0.205366 0.0685178 -0.162379 -0.158684 -0.185143 2.14103 -0.125964 -0.0843402 -0.211638 0.0344888 -0.000184915 -0.210177 0.650883 -0.0710525
internal_weight=0 46.5084 8.20599 7.87374 7.76659 7.11558 0.221943 38.3025 7.80629 30.4962 7.63961 0.651014 6.97272 0.436728 0.332257 3.34811 2.78317 6.99396 1.63011 3.62461 1.15306 0.645657 5.26689 30.0676 3.48176 0.293871 29.6681 0.315471 1.72707 0.399543 14.0956 0.574229 2.52938 13.7361 0.151014 0.359528 1.96899 0.256686 0.564943 12.498 15.5725 0.326129 8.47041 0.952371 4.02756 0.214286 0.493514 0.216671 10.7867 0.25 0.071428 9.55716 0.428572 0.180957
internal_count=359956 359569 356372 351365 346729 290757 387 3197 1362 1835 1316 55972 288874 24078 5007 145639 133601 183 118375 143235 15226 1133 136 1797 143159 20580 1469 4376 47 328 919 334 107477 706 4204 213 121 322 12038 695 550 100 457 35682 238 31894 10961 120 547 60 799 538 248 114
is_linear=0
shrinkage=0.02


Tree=10
num_leaves=59
num_cat=0
split_feature=48 15 97 6 144 144 47 99 18 0 144 150 144 15 51 0 16 16 18 150 150 16 15 6 109 97 0 99 18 16 165 99 96 18 16 163 144 68 63 47 6 160 15 16 30 6 18 0 0 15 16 0 109 14 14 6 6 0
split_gain=5861.16 3889.97 2823.85 2212.39 2032.04 8070.03 2302.37 1876.86 1184.7 588.579 508.968 1011.51 1991.44 431.849 317.721 280.482 273.663 273.496 212.022 135.196 121.39 153.254 119.205 117.863 130.149 112.033 72.6211 58.8523 52.8029 71.8517 37.0133 36.4618 32.8177 30.5002 30.4133 22.3422 20.234 15.1866 11.4604 8.83206 6.58673 6.50127 4.50094 4.38491 4.26583 2.40401 2.00141 1.905 1.73357 0.869114 0.794692 0.712108 0.258929 0.182162 0.0924185 0.0344945 0.0218461 0.00621072
threshold=0.050357142857142871 33.995000000000012 -2.7297916666666668 0.061564250000000008 25.500000000000004 21.500000000000004 0.10714285714285715 0.73236111111111113 0.0092857142857142878 1.0000000180025095e-35 7.5000000000000009 52.500000000000007 1.5000000000000002 37.865000000000002 1.0102035500000002 1.0000000180025095e-35 51.714285714285715 352.71428571428572 1.7264285714285716 94.500000000000014 19.500000000000004 2.2142857142857149 5.2850000000000001 1.0000000180025095e-35 -1.0000000180025095e-35 -0.76916666666666644 1.0000000180025095e-35 0.21983870967741939 0.02928571428571429 0.2142857142857143 507.50000000000006 0.32872727272727281 1.0000000180025095e-35 0.06785714285714288 15.214285714285715 0.97619047619047639 6.5000000000000009 0.011309173855988359 1.2350000000000003 0.10714285714285715 1.0000000180025095e-35 0.30007898894154822 -121.07983015745613 2.0714285714285716 -17.586867425230245 0.11160715000000002 0.14928571428571433 1.0000000180025095e-35 1.0000000180025095e-35 -6.0777021351067537 88.714285714285737 1.0000000180025095e-35 -1.0000000180025095e-35 -6.214999999999999 -0.3812454545454545 1.0000000180025095e-35 1.0000000180025095e-35 1.0000000180025095e-35
decision_type=10 10 8 10 8 10 10 10 8 2 8 8 10 10 10 2 10 10 8 10 10 8 10 8 10 8 2 10 10 8 10 10 8 10 10 10 10 8 8 8 8 10 8 10 10 10 10 2 2 8 10 2 10 8 10 8 8 2
left_child=1 4 3 -2 5 10 7 8 -6 -9 11 23 15 14 22 -13 20 -8 50 34 28 43 25 35 31 -4 -3 37 29 -10 -23 39 -7 -30 40 46 42 45 44 -25 -14 52 -29 -22 -39 -27 51 -38 -21 -40 -18 -1 57 -43 -44 -55 -54 -12
right_child=2 26 13 -5 6 32 17 9 16 -11 41 12 19 -15 -16 -17 18 -19 -20 48 21 30 -24 24 -26 27 -28 36 33 -31 -32 -33 -34 -35 -36 -37 47 38 49 -41 -42 53 54 -45 -46 -47 -48 -49 -50 -51 -52 -53 56 55 -56 -57 -58 -59
leaf_value=0.26539183186006915 0.82937041115488341 2.3291303999980517 0.38595765023175455 5.3733693704107202 1.8571312753527547 3.667328247247446 2.139609050658414 0.78804145334328279 0.58966839095556234 2.6035430961457822 -0.03675619755186469 3.6333817498568943 1.2092085501277703 -0.70094884704581772 0.14226868877877458 2.0154141623304018 0.64075884213355405 4.4547046439572373 -0.25157845580214749 0.45148615136104719 1.4374515693944327 -0.143315578318924 0.37318704084639381 -0.29496479726063052 0.64415403780818326 0.33464389650008453 2.9668438967844799 0.011984189792584039 -0.12439319989598369 0.094764776333814138 -0.026739328220450883 0.26993380078024454 4.2371576569054934 0.097203028140381315 -0.0265474416689927 0.67535177899254684 -0.15140521939240753 -0.1863624999830967 -0.22215903667979792 -0.05751243689842335 0.97398888554058793 0.078154002969237593 -0.12478862397332888 1.0010923126151972 -0.16002435162741452 0.012447444454410313 0.45087752534142123 -0.18069356331537634 0.36615744430644337 -0.20511204848737793 0.582272791546257 0.370113396608792 -0.073632808771785921 0.05467177902175737 -0.10183573041339938 0.037649647367622302 -0.060861037339113251 -0.048175057617996266
leaf_weight=0.028571000322699547 0.14285700023174286 0.14285700023174364 0.14285700023174286 0.061229001730680466 0.14285700023174286 0.26785698533058167 0.14285700023174364 0.14285700023174364 0.12244299799203873 0.14285700023174286 0.28571400046348649 0.10714299976825703 0.071428999304771423 0.59524297714233299 1.3571419715881337 0.071428999304771423 0.35714301466941833 0.023814000189304352 0.14285700023174364 0.14285700023174286 0.0167859997600317 2.4329710267484188 0.16071400046348472 0.071428999304771423 0.14285700023174286 0.010200000368058681 0.14285700023174286 0.14285700023174286 0.71428500115871407 2.8169690035283446 1.9727989565581081 0.14285700023174286 0.047614000737666973 0.38095699995756149 0.010986000299453735 0.14285700023174286 2.5714290142059326 9.1488699205219728 1.3642860054969785 0.51020000129938148 0.14285700023174286 0.14285700023174286 0.071428999304769536 0.020414000377058983 3.3642859999090424 0.10084299743175507 0.14285700023174286 1.3571430444717409 0.28571400046348572 9.7158857434988146 0.12561500072479248 0.28571400046348572 0.085713997483253479 0.14285700023174286 3.977271169424057 0.071428999304771423 0.14285700023174286 0.020414000377058983
leaf_count=2944 188 219 44 4 4292 219 5917 461 4098 21 2761 2274 1096 13 39 1991 67 1 7 3979 1640 29457 24 3088 4674 370 153 1 7005 235088 3068 631 1081 1455 37 200 195 3157 4 15315 4650 14 1277 46 9 2 63 117 3568 885 42 3635 108 752 51 4042 1241 2326
internal_value=0 0.339171 -0.152925 2.19264 0.289218 0.701788 0.140028 0.0992802 0.0499464 1.69579 0.40016 0.55744 1.11433 -0.166972 -0.157479 2.98619 0.0215862 2.47039 0.425254 0.603105 -0.00820282 -0.0803221 -0.170141 0.241519 0.092434 -0.172873 2.64799 -0.175381 0.0712151 0.11538 -0.0911155 -0.0163564 3.75333 -0.0473156 0.999778 0.457032 -0.128912 -0.1913 -0.192398 -0.0866736 1.0524 -0.00541197 -0.0983477 1.19799 -0.179281 0.0420432 0.388807 -0.161523 0.3946 -0.207211 0.625541 0.360593 -0.0495437 0.0606602 -0.102241 0.0489977 -0.0656504 -0.0375177
internal_weight=0 13.4913 34.2845 0.204086 13.2056 3.50707 9.69848 9.53181 9.2461 0.285714 3.1916 2.29976 0.832415 34.0805 33.4852 0.178572 9.10324 0.166671 0.625615 0.653843 8.47762 4.44297 32.1281 1.46734 0.867343 31.9674 0.285714 31.8245 4.03465 2.93941 4.40577 0.724486 0.315471 1.09524 0.225272 0.599999 8.12013 23.7044 23.5933 0.581629 0.214286 0.891842 4.19156 0.0372 12.5132 0.111043 0.457142 3.92857 0.428571 11.0802 0.482758 0.314285 0.534699 0.357143 4.0487 0.214286 0.228571 0.306128
internal_count=360106 353726 6380 192 353354 60689 292665 286747 286265 482 59389 48145 17595 6188 6175 4265 281973 5918 116 13330 281857 34211 6136 30550 23708 6112 372 6068 247646 239186 32525 19034 1300 8460 5783 6842 1641 4427 4055 18403 5746 11244 1329 1686 3166 372 6642 312 7547 889 109 6579 6436 4808 1328 4794 1349 5087
is_linear=0
shrinkage=0.02


Tree=11
num_leaves=63
num_cat=0
split_feature=48 136 30 97 108 3 93 136 156 0 136 0 136 142 32 68 3 166 136 7 136 97 151 3 0 136 99 156 3 151 19 92 158 146 146 108 152 156 136 136 146 0 146 166 0 166 3 60 46 3 13 3 114 4 3 3 166 92 54 152 3 3
split_gain=5629.06 10996 2720.21 2712.03 2224.54 2124.78 1712.43 810.24 1658.79 1313.52 600.463 565.271 435.944 414.748 346.138 305.14 288.723 172.994 119.372 114.485 111.278 107.597 90.4162 85.5805 76.1476 73.3981 56.5217 39.778 64.2469 38.0352 37.6365 31.5181 30.9539 27.7697 22.7357 19.7718 16.876 12.6274 11.1276 11.0459 8.97134 8.69369 6.77432 6.39832 6.16 5.95673 5.82017 5.56874 5.27631 4.55047 4.33421 4.06599 3.9516 3.11808 2.86445 2.64466 1.98381 1.78959 1.74172 0.867826 0.425667 0.123916
threshold=0.050357142857142871 74.570000000000007 33.495000000000012 -2.7297916666666668 0.026071428571428575 19.039642857142855 0.12291666666666669 26.995000000000001 2.6784391913152934 1.0000000180025095e-35 99.995000000000019 1.0000000180025095e-35 37.795000000000009 3886.0000000000005 0.67857142857142871 0.0065906200516415081 0.80035714285714288 0.50020806362123182 35.625000000000007 1.1621428571428571 12.355000000000002 -0.76916666666666644 3.5000000000000004 0.037500000000000006 1.0000000180025095e-35 38.055000000000007 0.21983870967741939 4.9990454545454552 0.05964285714285715 1.5000000000000002 -1.0000000180025095e-35 0.45833333333333343 4.5000000000000009 0.40833333333333338 0.057699467323443505 0.0060714285714285722 2.5000000000000004 0.30529513888888887 31.995000000000001 8.8650000000000002 0.031243989776293151 1.0000000180025095e-35 0.023261623342456843 0.39785901182222733 1.0000000180025095e-35 inf 19.039642857142855 -27.848305468046807 0.25000000000000006 0.01892857142857143 30.165000000000003 0.19857142857142862 0.16015873015873019 1.0000000180025095e-35 0.015357142857142859 19.039642857142855 0.32053038285915009 1.0000000180025095e-35 0.25537234042553197 6.5000000000000009 0.016785714285714289 0.2303571428571429
decision_type=10 10 10 8 10 10 10 8 10 2 10 2 10 8 10 8 10 8 8 10 10 8 8 10 2 8 10 10 10 8 10 10 10 10 10 10 10 8 10 10 10 2 8 10 2 8 10 10 8 8 10 10 8 8 10 10 8 10 8 10 10 10
left_child=1 2 6 5 10 -2 7 20 12 -10 23 -8 17 15 16 46 32 18 38 21 27 -17 41 -3 49 -14 37 33 -29 -20 -26 -6 54 39 48 40 50 47 -9 43 -27 -22 59 -1 -34 -41 -5 53 -24 -19 -28 -43 -50 -23 -12 58 -44 -37 -38 -39 -36 -62
right_child=3 4 -4 13 31 -7 11 8 9 -11 14 -13 25 -15 -16 19 -18 24 29 -21 22 26 34 -25 30 35 36 28 -30 -31 -32 -33 44 -35 60 57 55 42 -40 45 -42 51 56 -45 -46 -47 -48 -49 52 -51 -52 -53 -54 -55 -56 -57 -58 -59 -60 -61 61 -63
leaf_value=-0.1405140615411539 5.2659019331608015 0.95450911450551035 2.9075068319284219 0.078458224134199728 4.1524145598493671 0.81278296554771534 0.77228066299563314 0.041380371373616873 3.5607140507729276 0.63127095304658354 1.8199887326247131 2.5514721594547254 1.18502442986039 -0.68692988548563461 4.3656105430687342 0.37823850724070979 0.51641499840086436 0.66184471403949763 0.21993661188711067 0.36572329053509145 0.61175279372001212 -0.15358231897365435 0.39646481015917956 -0.02456066627411306 0.016515538684957122 0.62054005175948601 -0.10048970860369244 1.4087025720947577 0.050105243135327521 -0.12182062813095085 0.30686790061219499 3.5939817278754407 2.2825479789184557 0.26446277984920558 -0.059643814506166293 0.34660986751443468 -0.14837711322436761 -0.21675575591730081 0.27725278854370061 -0.10165393066810802 0.44185995347226675 0.37326685978292568 -0.18549723656732883 -0.21815847422982226 2.0968168402720586 0.03581526636515301 0.16756102702409842 -0.16113265608559829 0.1390681331986918 0.98107047804207403 0.011744506163625539 -0.026016492869522279 0.055814507098051643 -0.024244312979104767 1.9751058710729774 -0.17707969429773221 -0.16234904476948595 0.44245642966897158 -0.096325782147457809 -0.20152570934233321 -0.036021074852526307 -0.021750376942408032
leaf_weight=1.6513560321181966 0.061229001730680466 0.14285700023174175 0.14285700023174364 0.42857098579406738 0.047614000737667084 0.14285700023174286 0.14285700023174364 0.09524299949407744 0.10714299976825703 0.14285700023174286 0.14285700023174286 0.14285700023174286 0.07142899930477109 0.59524297714233299 0.023814000189304352 0.14285700023174286 0.054186001420021057 0.14285700023174286 0.14285700023174286 0.16071400046348472 0.071428999304771423 0.12030000239610672 0.020414000377058983 0.047614000737667084 0.23809999972581863 0.52720001339912426 3.7629861682653414 0.016785999760031589 0.081629000604152679 1.4771989937871692 0.71428500115871429 0.26785698533058167 0.14285700023174286 0.071428999304771312 0.14285700023174297 0.17142800055444241 2.5714290142059326 1.7724429965019197 0.5 1.073813002556562 0.14285700023174286 0.14285700023174286 6.6857129633426782 0.57142899930477131 0.14285700023174286 0.14285700023174297 0.92857098579406738 3.4132709950208664 0.28571400046348572 0.020414000377058761 0.14285700023174275 0.010986000299453735 1.1298990007489926 0.19608599692583117 0.071428999304771423 1.3571430444717405 1.9022579723969109 0.14285700023174286 0.28571400046348605 9.6142997406423092 0.28571400046348561 1.6428569555282593
leaf_count=34400 191 9557 122 145 1911 1 1742 4956 3338 2986 21689 1925 837 703 16 35 4 2346 6779 32 5126 24 3823 91 21749 25006 1141 1231 7 40055 2317 121 4032 756 4102 3649 65 515 2660 17318 3360 4396 1263 7815 3769 19469 1 36 5702 23672 2 4 58304 181 1854 1 1744 435 227 73 293 2
internal_value=0 0.332388 0.163622 -0.149867 2.26416 2.14879 0.131661 0.0951628 0.302145 1.88675 1.68365 1.66188 0.211838 -0.163632 2.00458 -0.15433 1.90312 0.0995913 -0.0026932 -0.166738 -0.0355533 -0.169415 0.0410107 0.709761 0.302692 0.565978 -0.171874 -0.114736 0.281832 -0.0916844 0.234279 3.67827 2.0534 -0.125852 0.0160649 0.521057 -0.126334 -0.187474 0.239512 -0.133958 0.582445 0.429414 -0.193781 -0.160475 2.18968 -0.0855128 0.139423 -0.153692 0.0772213 0.701758 -0.0963847 0.344754 0.0726176 -0.0734227 1.87169 -0.154091 -0.18037 0.390177 -0.143172 -0.203896 -0.0263321 -0.0238646
internal_weight=0 13.4913 12.4073 34.2845 1.08394 0.204086 12.2645 11.9788 4.63673 0.25 0.768471 0.285714 4.38673 34.0805 0.578 33.4852 0.554186 3.33095 2.2153 32.1281 7.34203 31.9674 3.73273 0.190471 1.11566 1.05577 31.8245 3.6093 0.098415 1.62006 0.952385 0.315471 0.5 3.51088 3.50745 0.984342 8.12013 23.7044 0.595243 3.43946 0.670057 0.225272 19.9747 2.22279 0.285714 1.21667 1.35714 3.72966 1.43603 0.163271 3.90584 0.153843 1.41561 0.316386 0.214286 4.21429 8.58797 0.314285 2.85714 11.3867 2.07143 1.92857
internal_count=360106 353726 310682 6380 43044 192 310560 306893 144145 6324 41012 3667 137821 6188 31364 5485 31348 104534 54450 5339 162748 5307 81752 9648 50084 33287 5272 80996 1238 46834 24066 2032 31344 79758 72226 32450 1436 3836 7616 79002 28366 9526 3595 42215 7801 36787 146 241 67829 26018 1143 4400 64006 205 23543 293 3007 4084 292 588 4397 295
is_linear=0
shrinkage=0.02


Tree=12
num_leaves=61
num_cat=0
split_feature=46 30 143 153 98 68 154 14 14 14 99 144 153 153 14 14 142 158 106 98 106 158 158 142 94 68 151 158 154 14 99 14 94 99 14 142 94 158 142 106 99 62 14 14 94 99 106 38 142 108 106 142 14 142 14 32 76 14 98 94
split_gain=5118.47 3664.15 1853.11 7870.55 2476.63 1434 1165.83 1688.31 1005.39 3347.15 350.095 312.722 517.986 239.392 161.29 157.958 153.361 661.18 363.429 93.8843 93.3415 95.2172 251.016 132.57 91.4997 88.4235 82.7451 69.0507 71.9113 66.9833 38.2855 37.1704 30.27 29.4807 24.2738 22.3776 19.9782 19.7114 18.1621 14.3291 13.4217 12.3429 10.4675 8.26052 9.68631 4.95013 4.84162 4.83206 1.67154 1.45211 1.06129 0.821071 0.707255 0.476849 0.465536 0.37624 0.0663884 0.0341844 0.00983798 0.00470163
threshold=24.535714285714288 33.495000000000012 34.500000000000007 2000.6650000000016 0.015040052715175776 0.055815160955347873 0.011375961348846384 -1.0000000180025095e-35 0.091750000000000012 0.36926000000000009 0.44514705882352951 4.5000000000000009 49.955000000000005 128.84500000000003 -1.0000000180025095e-35 -1.0000000180025095e-35 16.500000000000004 3.5000000000000004 2.8214285714285716 0.05277081592871067 0.32142857142857145 6.5000000000000009 51.500000000000007 70.500000000000014 -1.0000000180025095e-35 0.0105960450788037 2.5000000000000004 1.5000000000000002 0.016273403776383043 0.16386496544391285 0.32872727272727281 -1.0000000180025095e-35 -1.0000000180025095e-35 0.21983870967741939 9.6750000000000025 1110.5000000000002 -1.0000000180025095e-35 3.5000000000000004 208.50000000000003 32.214285714285715 0.070263157894736847 4.5357142857142865 1.8303181818181822 -1.0000000180025095e-35 -1.0000000180025095e-35 0.16869288389513112 0.60714285714285732 0.018878891063918456 99.500000000000014 0.020357142857142862 0.17857142857142858 19.500000000000004 -1.0000000180025095e-35 27.500000000000004 -0.23156037151702782 4.8214285714285721 1.0000000180025095e-35 -1.0000000180025095e-35 0.90000000000000013 -1.0000000180025095e-35
decision_type=10 10 8 10 8 8 8 10 8 8 10 8 10 8 10 10 8 10 10 8 10 8 8 10 10 8 10 10 8 8 10 8 10 10 10 10 10 8 8 8 8 8 10 10 10 10 8 10 8 10 10 10 10 10 8 8 8 10 10 10
left_child=1 2 3 4 14 -4 7 -6 10 -10 25 12 15 26 -1 30 17 37 -19 52 21 36 23 50 -9 -2 -14 56 -29 -3 -8 -24 -5 41 -17 -25 51 40 -33 45 58 47 -15 46 -45 49 -42 55 -47 59 -23 -18 -13 -53 -49 -27 -21 -51 -7 -22
right_child=8 29 5 32 6 16 11 24 9 -11 -12 19 13 42 -16 34 20 18 -20 27 39 22 31 35 -26 33 -28 28 -30 -31 -32 38 -34 -35 -36 -37 -38 -39 -40 -41 43 -43 -44 44 -46 48 -48 54 -50 57 -52 53 -54 -55 -56 -57 -58 -59 -60 -61
leaf_value=2.5004426361569085 -0.31059269239785198 2.8493567113116134 2.0548805915862123 4.06936634075781 3.4894996985498778 -0.090764985103219134 -0.10706915422938741 -0.069723744208488189 0.031664919388189897 5.1605839194185217 0.015179380067645427 0.43360728638899304 0.50104516567027813 1.9356037349596162 4.2782981239640403 0.41316425469525203 -0.11963243030567038 1.7835889312693127 0.35698259231200097 0.28073080433851222 -0.13613533664862126 0.061709639050748617 0.50608669491284441 0.63423607982538355 0.75683503371398009 -0.17583025555538073 1.0107209420541257 0.59951774051588402 -0.046072004512068804 2.2368969552530964 0.25899006474516117 -0.24218370536428777 3.522102087621314 -0.12525133188834592 0.049103138272620965 1.3805285291749045 0.090614656078545977 0.27571204293827356 -0.008783524017104305 0.38853550052495267 0.010147431341974364 -0.19978221549838676 1.39422515548286 0.00090120455029318153 0.17652866583199081 -0.21043760039103768 0.14290114938291798 -0.15128159933431648 -0.15593081653785429 -0.07397687549070453 0.13880208044855782 -0.20481458846594888 0.370673740433759 -0.16434277571500544 -0.16408329267055394 -0.18525546365464851 0.25917352158194618 -0.085959146011810927 -0.098187433757752421 -0.12851812848026492
leaf_weight=0.14285700023174286 2.0952430218458176 0.14285700023174286 0.14285700023174286 0.047614000737666973 0.10714299976825714 0.14285700023174286 0.57142899930477165 0.085713997483253479 0.30158600211143494 0.061229001730679466 3.9534560889005652 0.14285700023174286 0.31428500078618526 0.071428999304771312 0.023814000189304352 0.71428500115871429 0.14285700023174397 0.14285700023174275 0.14285700023174286 0.28571400046348572 0.35065698623657215 0.14285700023174319 0.054186001420021057 0.37755701504647732 0.14285700023174286 2.9387709861621261 0.21428599953651428 0.071428999304771423 2.0421710032969718 0.14285700023174364 0.14285700023174286 0.14285700023174364 0.26785698533058167 3.9523860663175574 0.081629000604152679 0.0167859997600317 0.14285700023174286 0.14285700023174275 2.0059559568762779 0.020414000377058872 0.14285700023174286 10.921442747116098 0.017857000231742859 1.0406139977276323 0.14285700023174297 0.32857099175453153 0.47618500143288867 3.3698859978467226 0.71428602933883678 0.14285700023174286 0.14285700023174286 0.14285700023174286 0.14285700023174286 0.62994300946593285 1.7142859697341917 3.9999989718198758 0.0714289993047722 0.28571400046348572 0.14285700023174286 0.035714000463485718
leaf_count=836 39 2 3736 262 3373 1462 23777 572 6 2068 19 1903 2509 2959 47 7139 2513 8795 252 8 6427 8251 45 3043 61 44 1540 2075 36230 178 783 785 64 53 339 606 2119 17390 93034 727 6985 56 8 34643 674 279 54685 13 541 4201 186 3849 160 5585 74 13 10614 245 741 483
internal_value=0 0.300694 0.255517 0.534303 0.354492 0.0680357 0.277866 1.41793 -0.149843 0.897226 -0.161374 0.199509 0.38164 0.869472 2.75446 0.182056 0.0339888 0.164432 1.07029 0.0588997 -0.0224223 0.0328684 0.0924311 0.428315 0.446876 -0.185449 0.707671 0.0192077 -0.0242543 2.54313 -0.0338574 -0.0112547 3.6047 -0.175701 0.375826 0.666004 -0.129362 0.0484282 -0.0243004 -0.138454 0.0328796 -0.184391 1.82733 0.0530666 0.0221012 -0.144245 0.112265 -0.17041 -0.173104 -0.107314 0.100256 -0.163681 0.402141 -0.171824 -0.155598 -0.181264 0.276419 -0.0819651 -0.0944762 -0.135431
internal_weight=0 14.4675 14.1818 5.70237 5.3869 8.47944 5.22023 0.335714 33.3083 0.362815 32.9455 4.88451 2.12806 0.617857 0.166671 1.5102 8.33658 2.5168 0.285714 2.75646 5.81978 3.94157 2.88306 0.680057 0.228571 28.992 0.528571 2.47074 2.1136 0.285714 0.714286 2.203 0.315471 26.8968 0.795914 0.394343 1.05851 2.23108 2.14881 1.87821 2.08823 22.9444 0.089286 1.80251 1.18347 1.8578 0.619042 12.0229 1.04286 0.814942 0.285714 0.915657 0.285714 0.7728 5.08417 6.93877 0.357143 0.428571 0.285714 0.386371
internal_count=360106 357721 357541 95259 94933 262282 94050 4006 2385 2074 311 90044 39054 7016 883 32038 258546 125627 9047 50990 132919 120016 105950 12086 633 292 4049 48927 38305 180 24560 93864 326 253 7478 3649 14066 116580 93819 12903 99190 200 2967 96987 35317 12176 61670 144 820 11356 8437 11947 2063 9434 87 57 10622 4446 2203 6910
is_linear=0
shrinkage=0.02


Tree=13
num_leaves=58
num_cat=0
split_feature=47 141 155 104 148 4 146 158 141 24 38 15 146 16 141 158 16 146 141 4 141 0 14 16 16 45 158 148 4 141 96 0 146 141 107 16 4 4 0 165 24 17 141 155 141 141 24 165 16 96 16 0 45 4 4 16 16
split_gain=5104.54 10199.6 5393.46 2527.56 2052.39 1945.53 918.613 1284.46 723.331 631.501 396.968 370.521 276.907 253.452 155.869 140.129 110.979 71.4042 68.0364 65.1328 64.2766 60.2382 58.3803 58.065 55.633 45.3763 37.3748 36.4317 59.2593 33.6222 29.0713 26.7678 25.4006 21.6325 18.7867 17.4121 17.0741 11.2579 10.1221 9.4378 8.73116 8.48206 6.4957 4.36262 3.63262 3.37887 3.20803 2.07874 1.83439 1.68043 1.62662 1.0746 0.955999 0.677816 0.473913 0.318888 0.019394
threshold=0.32142857142857145 74.570000000000007 0.011435109512912718 -0.86995243128964039 5.6135752688172058 2.4285714285714293 0.016198431814687646 17.500000000000004 37.795000000000009 0.19928571428571432 0.0091897689397351622 37.865000000000002 0.031583002189603443 352.71428571428572 12.155000000000003 3.5000000000000004 21.642857142857149 0.13890072533757555 38.055000000000007 -1.0000000180025095e-35 12.695000000000002 1.0000000180025095e-35 0.16386496544391285 2.2142857142857149 35.642857142857146 -83.981793381456825 4.5000000000000009 4.6015131578947379 0.10714285714285715 26.995000000000001 1.0000000180025095e-35 1.0000000180025095e-35 0.40833333333333338 3.7450000000000006 1.0000000180025095e-35 3218.928571428572 0.96428571428571441 -1.0000000180025095e-35 1.0000000180025095e-35 764.50000000000011 0.26125000000000004 31.642857142857146 11.185 0.021285937828432633 31.995000000000001 16.515000000000004 0.2303571428571429 1.5000000000000002 21.214285714285719 1.0000000180025095e-35 2.3571428571428572 1.0000000180025095e-35 4.3799745454545462 -1.0000000180025095e-35 -1.0000000180025095e-35 51.714285714285715 886.5
decision_type=10 10 8 8 10 10 8 10 10 10 10 10 10 10 8 10 8 10 8 10 8 2 10 8 10 8 10 10 10 8 8 2 10 8 10 10 10 10 2 8 10 10 8 10 10 10 8 8 10 8 10 2 8 10 10 10 10
left_child=1 2 21 5 9 -2 7 -4 14 12 35 22 -3 38 27 17 48 29 -10 -14 -17 -1 25 31 51 -12 -25 32 -29 47 -6 -22 39 46 40 56 -21 -19 -11 42 54 43 -8 52 -31 -45 -27 -16 -9 -36 -40 -18 -35 -51 -20 -56 -5
right_child=3 4 6 10 30 -7 8 16 18 13 11 -13 19 -15 15 20 24 37 34 36 23 -23 -24 26 -26 33 -28 28 -30 44 -32 -33 -34 41 49 -37 -38 -39 50 -41 -42 -43 -44 45 -46 -47 -48 -49 -50 53 -52 -53 -54 -55 55 -57 -58
leaf_value=3.4197098541148141 5.0573720292028241 1.7479170511728901 2.4504339650135414 0.36326024559790632 3.4516599889027084 0.79622375826524849 -0.14814112624265097 0.64034453426425897 1.1411095356042225 2.1921590375103723 -0.08763670908489711 -0.66697947232869914 0.91520450411291931 4.1927321454660422 0.10985790611028161 0.58752741774883233 -0.068329265012901291 0.60862468448063145 0.65945464329644166 -0.023148013431511804 0.94876431736205247 2.7923695023172401 0.10567596707016134 -0.16587702925894765 0.3468563854095893 -0.16006639669009745 -0.0092595296363770299 1.3529179358659458 0.048121073462637755 0.18421964950561084 3.9879789498489377 0.19911512197126635 0.2539900561570706 -0.1931557684789042 0.42493515000723081 0.13633126069653093 0.49596497157459524 0.35753821306020178 1.8968917323577674 0.032240936162214122 0.42300185950285774 -0.15774251370404987 -0.080194837764712035 -0.17858795591689688 0.27169902324676459 -0.10124425756125333 -0.12787482891665128 0.04585917887112869 0.74169835707231724 0.34984293579275211 2.0137829477109994 -0.17336507897433773 -0.20813799067101266 0.24313089190848661 0.56544620942129287 0.60284813802979886 0.33471460396829605
leaf_weight=0.10714299976825714 0.061229001730680466 0.14285700023174175 0.14285700023174286 0.14285700023174164 0.26785698533058167 0.14285700023174286 2.6537410337477878 0.14285700023174286 0.071428999304770202 0.14285700023174286 2.6971571147441864 0.59524297714233299 0.14285700023174286 0.023814000189304352 0.28571400046348672 0.071428999304771312 0.085713997483253479 0.14285700023174275 0.047614000737667195 0.047614000737667084 0.020414000377058983 0.14285700023174286 0.3194430023431768 0.7347000092267989 0.3061280008405447 1.8345859721302984 3.5759419426321983 0.016785999760031589 0.081629000604152679 0.30612800084054481 0.047614000737667084 0.28571400046348572 0.071428999304771312 9.0061417073011398 0.14285700023174286 1.3571419715881348 0.054186001420021057 0.14285700023174286 0.071428999304771423 0.14285700023174275 0.14285700023174286 4.6071430444717398 0.71428500115871418 7.1285709999501696 0.5 0.23332899995148171 3.8095290660858252 0.70132800005376339 0.14285700023174286 0.14285700023174286 0.14285700023174286 0.071428999304771423 2.1010139882564589 0.028571000322699547 0.12244299799203873 0.35714301466941833 0.010200000368058681
leaf_count=2570 132 35944 3890 1138 192 2 31501 379 857 952 37 10 3573 4 10614 435 2701 4012 20812 1039 2097 2398 22 5489 24 5 45866 1357 19 51671 1210 1489 689 33 485 3 7 1971 315 42085 467 3 3823 459 8776 257 58 53050 2 4283 162 2386 1791 131 6414 11 4
internal_value=0 0.312405 0.152805 -0.144421 2.17432 2.07464 0.0941459 0.712501 0.0462065 1.61672 -0.157803 -0.172607 1.04827 2.19496 -0.00420787 0.0527644 0.381018 0.189437 0.545102 0.639735 -0.00784029 3.06123 -0.163335 -0.0170516 0.189829 -0.16607 -0.0359532 -0.108952 0.270672 0.142649 3.53261 0.249105 -0.119382 -0.173436 0.501853 0.159137 0.253165 0.483081 2.06175 -0.126978 0.561692 -0.18202 -0.133731 -0.188076 0.238479 -0.176137 -0.138339 0.0643846 0.691021 0.374275 1.97482 -0.116073 -0.19599 0.332058 0.599274 0.593299 0.361358
internal_weight=0 13.7294 12.6454 34.0464 1.08394 0.204086 12.3954 0.891842 11.5036 0.768471 33.8424 32.3322 0.387514 0.380957 10.4478 6.76708 0.748985 2.07888 1.05577 0.244657 4.6882 0.25 31.7369 4.61677 0.463271 31.4175 4.31064 3.68073 0.098415 1.79317 0.315471 0.306128 3.58231 28.7203 0.984342 1.5102 0.1018 0.285714 0.357143 3.51088 0.670057 23.0762 3.36803 18.4691 0.806128 7.3619 5.64412 0.987042 0.285714 0.314285 0.214286 0.157143 11.1072 0.171428 0.5272 0.479586 0.153057
internal_count=360106 356152 312754 3954 43398 134 307786 9382 298404 41996 3820 2675 40563 1433 264944 185470 5492 130094 33460 4619 55376 4968 2665 54941 5111 2643 51355 79474 1376 124111 1402 3586 78098 2606 32603 1145 1046 5983 1429 77409 27704 2543 35324 2540 60447 716 63 63664 381 4899 477 5087 1824 4414 27237 6425 1142
is_linear=0
shrinkage=0.02


Tree=14
num_leaves=47
num_cat=0
split_feature=30 62 30 113 159 159 163 163 113 1 159 148 69 1 0 151 13 1 101 1 156 148 164 0 13 45 167 1 28 1 0 1 69 95 77 1 164 1 0 1 1 1 1 137 1 0
split_gain=4622.75 3979.13 2234.83 1622.05 1432.56 6780.6 1968.05 1115.81 926.726 844.795 624.102 444.808 425.668 369.41 520.165 397.286 367.182 205.015 92.6554 84.3594 82.5324 75.3407 72.5275 57.7613 43.0893 47.8983 41.249 31.9527 25.0809 20.2721 12.9565 10.3023 7.09154 5.65962 5.17895 4.72344 2.79043 2.63172 2.11709 2.06316 1.56221 1.25953 0.466811 0.187576 0.165507 0.0105475
threshold=53.040000000000013 0.17857142857142858 33.495000000000012 0.36931818181818193 122.50000000000001 105.50000000000001 inf inf 0.012515664160401004 0.17857142857142858 38.500000000000007 0.14990622961513375 0.96833333333333349 0.10714285714285715 1.0000000180025095e-35 1.5000000000000002 38.045000000000009 73.214285714285737 6.7677741540970251 0.10714285714285715 1.317652456239413 1.0197036192647484 46.500000000000007 1.0000000180025095e-35 4.9450000000000012 5.2768876960658275 3.5000000000000004 44.107142857142868 11.995000000000003 324.82142857142861 1.0000000180025095e-35 23.607142857142861 0.26724578015644301 1.0000000180025095e-35 0.10714285714285715 25.857142857142861 156.50000000000003 4.2500000000000009 1.0000000180025095e-35 0.75000000000000011 3.3214285714285716 69.607142857142875 18.107142857142861 inf 265.50000000000006 1.0000000180025095e-35
decision_type=10 10 10 10 8 8 8 8 8 8 10 10 10 8 2 8 10 8 10 8 10 10 10 2 8 10 8 10 10 10 2 10 8 8 8 10 8 8 2 10 10 10 8 8 10 2
left_child=1 2 3 4 5 7 27 10 -9 -2 40 17 16 14 -10 -15 18 23 21 -13 30 24 31 35 -3 28 36 -7 32 33 -12 37 -26 38 -23 -6 -24 -21 -19 -22 -1 -25 -28 -8 -33 -36
right_child=9 12 -4 -5 11 6 43 8 13 -11 20 19 -14 15 -16 -17 -18 29 -20 22 39 34 26 41 25 -27 42 -29 -30 -31 -32 44 -34 -35 45 -37 -38 -39 -40 -41 -42 -43 -44 -45 -46 -47
leaf_value=1.8589538416348981 2.1483158006840593 -0.18665311129029555 2.7365222404448368 3.9082195390978764 0.7268643578873818 -0.14143667334122281 3.3826269486299578 4.1088777668655494 0.21605214092139929 4.9562245200865052 0.62753761954635701 1.3258595714672508 0.24372885351466081 0.43214072434408662 1.7129588062798859 0.040028610134020842 -0.6536398264861033 0.087393834820194416 0.35599505203468335 -0.15124351550360554 0.03717567824389504 -0.059206512672250293 -0.014109418336845245 0.26476383416618055 -0.1632867099548114 0.22618589333377562 0.37382765906639814 0.57577681865868502 -0.085832101715112435 -0.2343772104870229 0.89690046209589458 -0.1951122033697183 -0.13442611883933533 0.39996672126889371 0.080133973493817817 0.59079120517641626 -0.08127714165402164 -0.10262501406306859 -0.021490122375461298 0.23826828700471864 1.9735072193292198 0.33749651271501591 0.48604564838308711 3.3513156783947937 -0.20976267698212087 0.073858848425946824
