tree
version=v3
num_class=1
num_tree_per_iteration=1
label_index=0
max_feature_idx=169
objective=regression
feature_names=is_mobile sem_impressions_w2 sem_clicks_w2 sem_adspend_w2 sem_qty_w2 sem_gmv_revenue_adjustment_brand_w2 sem_orders_brand_w2 sem_margin_brand_w2 sem_ctr_w2 sem_cpc_w2 sem_rpc_brand_w2 sem_roas_brand_w2 sem_convrt_brand_w2 sem_ordersize_brand_w2 sem_mpc_brand_w2 sem_mpo_brand_w2 sem_impressions_w1 sem_clicks_w1 sem_adspend_w1 sem_qty_w1 sem_gmv_revenue_adjustment_brand_w1 sem_orders_brand_w1 sem_margin_brand_w1 sem_ctr_w1 sem_cpc_w1 sem_rpc_brand_w1 sem_roas_brand_w1 sem_convrt_brand_w1 sem_ordersize_brand_w1 sem_mpc_brand_w1 sem_mpo_brand_w1 sem_impressions_v2 sem_clicks_v2 sem_adspend_v2 sem_qty_v2 sem_gmv_revenue_adjustment_brand_v2 sem_orders_brand_v2 sem_margin_brand_v2 sem_ctr_v2 sem_cpc_v2 sem_rpc_brand_v2 sem_roas_brand_v2 sem_convrt_brand_v2 sem_ordersize_brand_v2 sem_mpc_brand_v2 sem_mpo_brand_v2 sem_impressions_v3 sem_clicks_v3 sem_adspend_v3 sem_qty_v3 sem_gmv_revenue_adjustment_brand_v3 sem_orders_brand_v3 sem_margin_brand_v3 sem_ctr_v3 sem_cpc_v3 sem_rpc_brand_v3 sem_roas_brand_v3 sem_convrt_brand_v3 sem_ordersize_brand_v3 sem_mpc_brand_v3 sem_mpo_brand_v3 sem_impressions_v4 sem_clicks_v4 sem_adspend_v4 sem_qty_v4 sem_gmv_revenue_adjustment_brand_v4 sem_orders_brand_v4 sem_margin_brand_v4 sem_ctr_v4 sem_cpc_v4 sem_rpc_brand_v4 sem_roas_brand_v4 sem_convrt_brand_v4 sem_ordersize_brand_v4 sem_mpc_brand_v4 sem_mpo_brand_v4 sem_impressions_v5 sem_clicks_v5 sem_adspend_v5 sem_qty_v5 sem_gmv_revenue_adjustment_brand_v5 sem_orders_brand_v5 sem_margin_brand_v5 sem_ctr_v5 sem_cpc_v5 sem_rpc_brand_v5 sem_roas_brand_v5 sem_convrt_brand_v5 sem_ordersize_brand_v5 sem_mpc_brand_v5 sem_mpo_brand_v5 sem_impressions_v9 sem_clicks_v9 sem_adspend_v9 sem_qty_v9 sem_gmv_revenue_adjustment_brand_v9 sem_orders_brand_v9 sem_margin_brand_v9 sem_ctr_v9 sem_cpc_v9 sem_rpc_brand_v9 sem_roas_brand_v9 sem_convrt_brand_v9 sem_ordersize_brand_v9 sem_mpc_brand_v9 sem_mpo_brand_v9 sem_impressions_v12 sem_clicks_v12 sem_adspend_v12 sem_qty_v12 sem_gmv_revenue_adjustment_brand_v12 sem_orders_brand_v12 sem_margin_brand_v12 sem_ctr_v12 sem_cpc_v12 sem_rpc_brand_v12 sem_roas_brand_v12 sem_convrt_brand_v12 sem_ordersize_brand_v12 sem_mpc_brand_v12 sem_mpo_brand_v12 sem_impressions_v18 sem_clicks_v18 sem_adspend_v18 sem_qty_v18 sem_gmv_revenue_adjustment_brand_v18 sem_orders_brand_v18 sem_margin_brand_v18 sem_ctr_v18 sem_cpc_v18 sem_rpc_brand_v18 sem_roas_brand_v18 sem_convrt_brand_v18 sem_ordersize_brand_v18 sem_mpc_brand_v18 sem_mpo_brand_v18 uber_curr_item_price_w1 uber_num_appr_reviews_w1 uber_avg_overall_rating_w1 uber_price_change_ratio_w1 uber_price_change_value_w1 uber_avg_margin_w1 site_total_page_views_w2 site_total_add_to_carts_w2 site_total_orders_w2 site_total_revenue_w2 site_atcpv_w2 site_convrt_w2 site_rpv_w2 site_mpv_w2 site_total_page_views_w1 site_total_add_to_carts_w1 site_total_orders_w1 site_total_revenue_w1 site_atcpv_w1 site_convrt_w1 site_rpv_w1 site_mpv_w1 bc_bounces_w2 bc_visits_w2 bc_bounce_rate_w2 bc_sem_bounces_w2 bc_sem_visits_w2 bc_sem_bounce_rate_w2 bc_bounces_w1 bc_visits_w1 bc_bounce_rate_w1 bc_sem_bounces_w1 bc_sem_visits_w1 bc_sem_bounce_rate_w1
feature_infos=[0:1] [0:8820.1428571428569] [0:61.642857142857139] [0:76.372142857142862] [-20.571428571428573:7.7857142857142865] [0:302.03142860000003] [0:1.3214286] [-280.18428571428569:302.03142857142848] [0.001865671641791045:2] [0.010000000000000002:1.4199999999999999] [0:2114.2199999999998] [0:26694] [0:14] [1.74:4228.4399999999996] [-1307.5266666666666:2114.2199999999998] [-1673.4982505248424:4228.4399999999996] [0:10146.142857142857] [0:69] [0:86.49857142857141] [-3.5714285714285721:13.428571428571427] [0:604.06285700000001] [0:2.1428569999999998] [-560.36857142857139:604.0628571428573] [0.0018726591760299626:2] [0.01:1.4199999999999999] [0:2114.2199999999998] [0:26694] [0:14] [1.98:4228.4399999999996] [-3922.5799999999999:2114.2199999999998] [-1673.4982505248424:4228.4399999999996] [0:11126.571428571433] [0:176.07142857142861] [0:55.597142857142856] [-20.571428571428573:35.928571428571431] [0:66] [0:0.85714290000000004] [-256.31928571428568:64.920000000000002] [0.00069613644274277764:2] [0.01:1.2234729493891796] [0:908.88] [0:25536] [0:6] [1.74:2870.37037037037] [-581.82999999999981:908.88] [-979.39135654261702:2870.3703703703704] [0:22102] [0:532.35714285714289] [0:216.15857142857143] [-4.5714285714285712:105] [0:279.9353643] [0:2.9294785999999999] [-628.18000000000018:145.82089285714287] [0.00078911027816137304:2] [0.01:1.8999999999999999] [0:1184.95] [0:25536] [0:6] [2.440144014401:2870.37037037037] [-304.98000000000002:1184.95] [-6101.9411764705883:2870.3703703703704] [0:28695.857142857134] [0:593.5] [0:302.50999999999993] [-6.4285714285714288:116.21428571428572] [0:365.21528569999998] [0:2.9892929000000001] [-626.52357142857159:166.2252428571428] [0.0011369019422074846:2] [0.01:1.8999999999999999] [0:1184.95] [0:19592.25] [0:5] [1.1200000000000001:1259.96] [-304.98000000000002:1184.95] [-6101.9411764705883:1259.96] [0:25327.785714285717] [0:400.28571428571433] [0:275.45642857142855] [-3.8571428571428568:69.785714285714292] [0:335.22957139999994] [0:1.7673071] [-446.17785714285714:152.40997142857142] [0.00092843326885880078:2] [0.01:1.4739999999999998] [0:1149.99] [0:5979] [0:5] [1.1200000000000001:1149.99] [-200.93000000000001:1149.99] [-3290.0900000000001:1149.99] [0:18871.583333333328] [0:310.08333333333331] [0:182.71333333333337] [-4:46.833333333333343] [0:330.88055000000003] [0:1.8166667000000001] [-208.30583333333331:223.82138333333333] [0.00092336103416435823:2] [0.01:3.8566666666666669] [0:1519.1600000000001] [0:30051] [0:4] [0.96999999999999997:1519.1600000000001] [-452.75:1519.1600000000001] [-1037.7531123443828:1519.1600000000001] [0:12937.5] [0:184.21428571428569] [0:146.42714285714285] [-1.5714285714285714:24.928571428571431] [0:173.78163569999995] [0:1.4535714] [-98.242857142857147:123.5] [0.0011723329425556855:2] [0.01:1.474] [0:576.33333333333314] [0:20994] [0:4] [1.78:1729] [-567.08000000000004:576.33333333333337] [-912.28999999999996:1729] [0:2478.2142857142858] [0:57.142857142857139] [0:22.67642857142857] [-2.3571428571428572:8.3571428571428577] [0:107.03928569999999] [0:0.95357139999999996] [-33.338671428571431:99.222857142857137] [0.0025673940949935809:2] [0.01:1.0880000000000001] [0:1498.55] [0:14985.499999999998] [0:3] [3.8296780214649999:1498.55] [-327.12:1389.1199999999999] [-573.55999999999972:1389.1199999999999] [0:35599] [0:0] [0:5] [0.99999999999999978:1.0000000000000002] [-3.637978807091713e-12:3.637978807091713e-12] [0:35599] [1:206067] [1:12527] [1:1166033] [0:7940889.9100004826] [0.00015684121787205678:4] [9.0350560173473079e-05:12.415073775989267] [0:506.2475] none [1:107743] [1:6701] [1:613930] [0:4259391.0300001223] [0.00015933715742511153:4] [0.00010833062506770663:12.275502799087706] [0:711.47000000000003] none [0:40639] [1:62526] [0:1] [0:483] [0:1293] [0:1] [0:20119] [1:36222] [0:1] [0:293] [0:718] [0:1]
tree_sizes=5537 5077 6954 4344 4134 6983 6960 4097 6411 6939 5360 6978 4930 6954 6943 6914 6990 6953 5635 7003 6987 6938 4340 6964 6974 7010 6979 7024 6944 5880 6373 6942 5083 6562 6968 6991 6993 5947 6997 6857 4476 6982 5868 6095 6958 6980 6965 6983 6971 4796 4694 6976 6977 6937 7046 7032 6965 7038 7035 5570 7005 6990 6991 4153 4110 4245 6929 6994 6798 7038 7023 7016 6958 6985 6198 4842 7044 4915 4822 3474 7068 7027 7068 5606 7003 6987 6938 7062 5281 5041 4081 5613 5816 7003 5056 7090 7032 7088 6696 6602 7063 7033 7030 3523 7095 3424 6586 7063 3639 3732 7052 4440 7093 5712 3537 7146 6550 3649 6082 7107 7043 7072 7085 7025 7103 7096 3853 6407 4625 4090 7054 7076 6842 7081 7079 7032 4125 7124 7122 3685 4543 5868 7136 7136 7119 4885 5766 7042 7094 6975 7139 2997 5547 4252 7083 7076 6312 7049 7140 7143 5328 7162 7101 7127 7110 7180 7129 7120 7149 7177 6437 7128 7177 6326 7140 7145 7098 7163 7144 7148 7160 7177 6506 7190 7181 7160 7192 7204 3572 7207 6068 7171 7197 7179 7225 5187 7208 7209 6828 6080 7250 7280 7150 5492 7193 4976 7149 7251 7217 7235 7238 6554 7208 7253 7196 7252 7142 7270 7014 7269 7254 7248 7254 5762 7248 7305 7267 7249 7274 7297 7213 7261 5683 5210 7293

Tree=0
num_leaves=51
num_cat=0
split_feature=136 165 13 160 38 23 1 1 1 93 38 136 106 1 38 1 35 98 136 1 1 48 143 136 106 160 136 47 1 93 1 1 5 1 165 165 37 160 165 1 1 106 1 106 1 5 143 93 1 1
split_gain=36850.3 6729.31 3755.45 3396.44 2633.54 1990.03 1970.93 1941.68 1745.92 1364.75 1171.2 1167.43 446.829 470.86 414.495 400.724 346.721 332.583 311.662 271.565 247.969 205.446 198.699 172.553 153.901 104.329 97.4069 105.411 70.1923 65.1922 46.698 41.4571 34.6028 28.7144 28.537 17.4836 17.0444 11.2233 8.92471 5.78571 5.28285 4.20627 1.34521 0.111086 0.0867231 0.0787517 0.0130339 0.011905 0.00034995 0.000257112
threshold=48.005000000000003 13.500000000000002 81.465000000000018 0.20837952697708792 0.47727272727272729 0.0094805632536888642 3.8214285714285716 0.17857142857142858 0.10714285714285715 1.0000000180025095e-35 0.91666666666666685 20.305000000000003 0.17857142857142858 3.2500000000000004 0.044543650793650802 2396.3928571428573 1.0000000180025095e-35 0.011637580776225674 36.705000000000005 44.714285714285722 1.0000000180025095e-35 0.19750000000000004 17.500000000000004 42.995000000000012 0.53571428571428581 0.18521097699370684 11.535000000000002 0.17857142857142858 0.82142857142857151 3.8795833333333336 0.25000000000000006 32.607142857142868 11.529285750000001 1079.5000000000002 33.500000000000007 1.5000000000000002 -1.0000000180025095e-35 1.0000000180025095e-35 2.5000000000000004 0.82142857142857151 600.857142857143 0.32142857142857145 53.642857142857146 0.25000000000000006 17.892857142857146 13.808439250000001 1.5000000000000002 0.032083333333333346 1.0000000180025095e-35 1079.5000000000002
decision_type=10 10 10 10 10 8 10 8 8 10 10 8 10 10 10 10 8 8 10 8 10 8 10 10 8 10 10 8 8 8 10 10 10 10 10 10 10 8 10 10 10 10 8 10 10 10 8 10 10 10
left_child=2 6 4 7 5 40 12 32 -7 14 -6 26 13 25 28 45 -9 49 21 -4 -12 22 -19 41 -23 47 35 44 -5 37 -18 -16 -3 -30 -31 46 38 -29 -37 -25 -1 -20 -38 -14 -28 -11 -10 -2 -27 -13
right_child=1 3 19 9 10 8 -8 16 11 15 20 17 43 -15 31 -17 30 18 23 -21 -22 24 -24 39 -26 48 27 29 33 34 -32 -33 -34 -35 -36 36 42 -39 -40 -41 -42 -43 -44 -45 -46 -47 -48 -49 -50 -51
leaf_value=48.968085811476428 48.505085726682914 49.685085848297234 48.656185771307335 47.545085800228783 49.685185717171365 48.920485809348548 56.848068081610435 52.737286123024234 47.279304005997439 50.885085940088466 47.285085764850663 48.183485862232821 47.843485772788519 47.749285787986224 49.837085740651133 49.907619067600812 51.816485757611652 47.803595444026108 48.5056857145115 49.52818583889907 48.463485841371174 47.829785783240197 47.447325276796626 47.764285787464686 47.351063677104904 49.284685763640674 47.743259106470269 47.325085785712311 48.785285784231121 47.402740494369276 51.454885665152837 49.199685833164054 50.125285682009043 48.38428571862125 47.241569561864722 47.131886161916732 47.140203423235022 47.142324769643317 47.036113171440142 47.584285785378519 49.140085781018428 48.288628039250412 47.205085756506001 47.865085808660119 47.784709909139998 50.864085705499257 47.269285821364861 48.485085735837799 49.283285863713992 48.184685790760824
leaf_weight=0.14285700023174286 0.014286000281571787 0.14285700023174286 0.28571400046348572 0.028571000322699547 0.28571400046348472 0.28571400046348572 0.010986000299453735 0.14285700023174286 0.081629000604172552 0.14285700023174286 0.14285700023174286 0.14285700023174286 0.28571400046348572 0.14285700023174286 0.14285700023174286 0.42857100069522858 0.28571400046348605 1.1071420013904574 0.14285700023174275 0.28571400046348472 0.14285700023174286 0.28571400046348572 1.4414000138640402 0.14285700023174286 4.4890980049967748 0.14285700023174286 0.1326570063829422 0.14285700023174319 0.14285700023174264 0.7857140004634855 0.28571400046348572 0.057142999023199081 0.14285700023174286 0.14285700023174286 0.99708500504493713 0.50000000000000078 1.2142850160598753 2.2714270353317261 1.7562289852648971 0.14285700023174286 0.14285700023174286 0.047614000737667084 0.14285700023174275 0.14285700023174286 0.023814000189304352 0.14285700023174286 0.14285700023174286 0.071428999304771423 0.14285700023174286 0.14285700023174286
leaf_count=99 27002 209 60 254 8024 6829 262 802 1550 1371 4397 840 641 63 799 4 2797 13404 9629 8 6617 11089 1241 5141 100969 12340 6417 1338 4506 39446 289 4 1 2 2829 3380 2507 9018 16479 216 4 969 1984 4756 8 3 41801 1576 5981 1
internal_value=47.8421 49.8315 47.4968 50.4332 47.4444 47.3992 48.4258 51.2986 47.3706 49.7288 48.7797 47.3434 48.3276 48.7251 48.9432 50.2944 51.856 47.5139 47.4893 49.0922 47.8743 47.4571 47.6021 47.9851 47.3797 49.1004 47.1751 47.2399 48.4903 47.2209 51.6357 49.655 49.9052 48.5848 47.3126 47.1017 47.091 47.1531 47.0573 47.6743 49.0541 48.4514 47.147 47.8507 47.7496 50.8746 47.2729 48.4884 49.284 48.1841
internal_weight=0 3.18241 17.9909 2.22857 17.4195 16.8481 0.953843 0.999999 16.5624 1.22857 0.571428 16.2767 0.942857 0.514286 0.514285 0.714285 0.714285 8.08525 7.79954 0.571428 0.285714 7.32335 2.54854 0.476185 4.77481 0.371429 8.19141 4.35355 0.314285 4.19708 0.571428 0.2 0.285714 0.285714 1.7828 3.83786 3.61337 2.41428 2.25623 0.285714 0.285714 0.190471 1.35714 0.428571 0.156471 0.285714 0.224486 0.085715 0.285714 0.285714
internal_count=359956 63662 296294 11041 296226 277188 52621 4098 277085 6943 19038 270256 52359 46962 5565 1378 3888 143499 142658 68 11014 126703 14645 15955 112058 46899 126757 59056 4762 52631 3086 803 210 4508 42275 67701 24350 10356 19859 5357 103 10598 4491 5397 6425 1374 43351 28578 18321 841
is_linear=0
shrinkage=1


Tree=1
num_leaves=46
num_cat=0
split_feature=15 9 1 146 46 39 107 99 61 169 159 46 159 34 1 146 61 113 1 2 1 113 19 63 9 1 113 91 99 58 9 159 113 73 1 1 86 8 159 2 1 1 9 1 1
split_gain=8090.25 5561.62 4997.45 6010.04 4105.82 5098.09 2782.84 10190.6 2332.66 3411.88 2086.52 1624.78 1074.54 1014.23 779.589 648.322 475.235 636.475 616.008 679.832 280.938 217.427 211.029 168.435 165.337 105.252 96.0828 87.3904 79.5378 67.7254 47.7567 46.795 31.2069 28.8548 27.6875 20.2458 19.3083 14.8731 14.2053 13.9484 5.27616 3.39458 3.38936 0.335625 0.244464
threshold=57.050000000000004 0.60117647058823553 0.32142857142857145 0.047627129602689687 0.10714285714285715 0.20759615384615387 0.25000000000000006 0.075357142857142886 2.535714285714286 0.49576271186440685 5.5000000000000009 386.03571428571428 16.500000000000004 0.32142857142857145 600.857142857143 0.058830831240142545 8.2500000000000018 0.015039543880448007 2.6071428571428577 0.25000000000000006 2396.3928571428573 0.16904761904761909 1.0000000180025095e-35 0.025357142857142863 0.12690476190476194 1079.5000000000002 0.91666666666666685 1.6250000000000002 0.32913194444444455 26.985000000000003 0.13961538461538467 1.5000000000000002 0.20526315789473687 8.9735549335200009 0.10714285714285715 17.892857142857146 4.0646524785368916 0.018074559915564097 43.500000000000007 0.17857142857142858 8.5357142857142865 0.3928571428571429 0.22500000000000006 2396.3928571428573 0.25000000000000006
decision_type=10 10 8 8 8 10 8 8 8 10 10 8 8 8 10 8 10 8 10 10 10 8 8 10 10 10 10 8 10 10 10 10 8 8 10 10 10 10 8 10 10 8 10 10 10
left_child=1 2 3 -1 5 -4 7 -6 9 12 31 -2 -8 25 21 -12 17 -10 28 -20 -15 27 34 35 -13 -3 32 -9 -19 33 -24 -5 -23 -18 -17 -14 -35 -26 -29 44 -11 -25 -31 -39 -33
right_child=11 13 4 10 6 -7 8 14 16 40 15 24 23 20 -16 22 29 18 19 -21 -22 26 30 41 37 -27 -28 38 -30 42 -32 39 -34 36 -36 -37 -38 43 -40 -41 -42 -43 -44 -45 -46
leaf_value=3.5405021919853437 0.89874231111516978 1.1034382392519937 4.7972542401556941 -0.28722124641870522 3.8948703360007944 -0.54590172432981843 1.4137062644708049 -0.076285700666038819 0.92429430734691265 1.9550581805243683 -0.81022130088562194 2.9615182689089203 -0.65012462181341979 2.9820984667628596 1.271998206732859 1.4123342690824772 -0.41102129963676454 -0.56940251043889467 0.40831682996060148 -0.33632704869237168 1.8958475539354334 0.22714012529442468 1.0567903292916985 -0.19607190634038496 2.0092363771622828 0.33570631641630888 -0.5584548279117526 -0.47120177999805818 -0.27253757781875249 -0.54738128854951451 0.60893036601445427 -0.80283773467135211 -0.060978328608691838 -0.71945231184912761 1.806098414191498 -0.05627006680618149 -0.57578140999904859 2.2374942992943079 -0.68578475450631915 -0.52920073547429014 1.8061961468330237 -0.075933677140541417 -0.36512127135880434 2.2808475377676483 -0.76583771871219275
leaf_weight=0.28571400046348538 0.62857099995017052 0.14285700023174286 0.14285700023174286 0.14285700023174286 0.28571400046348572 0.14285700023174286 0.14285700023174253 0.14285700023174286 0.14285700023174286 0.14285700023174275 0.071428999304771423 0.14285700023174175 0.64285701513290405 0.14285700023174186 0.14285700023174275 0.14285700023174286 0.14285700023174286 5.3943000063300275 0.5824140012264255 3.1046700086444616 0.28571400046348572 0.19047100096940994 0.28571400046348572 0.14285700023174286 0.14285700023174286 0.14285700023174286 0.14285700023174286 0.17142800055444241 0.38690000027418125 0.047614000737666973 0.14285700023174286 0.14285700023174286 0.71428500115871452 2.9476130306720738 0.14285700023174286 0.023814000189304352 0.42857100069522847 0.14285700023174286 0.44047100096940994 0.12244299799203873 0.28571400046348572 0.27551400661468506 0.28571400046348572 0.14285700023174286 0.14285700023174286
leaf_count=3538 30 241 6194 18912 717 1622 9537 1115 992 471 701 89 7367 319 2 927 47 221578 2625 1301 2 2711 2109 3 5 2 9997 10354 8045 268 1289 9301 15000 3773 1971 21 280 109 11062 64 8 3435 10 1 1811
internal_value=0 -0.0903669 -0.154639 0.907569 -0.252355 2.12568 -0.291513 0.36788 -0.388806 0.319413 0.344803 1.60042 -0.216834 1.64259 -0.150163 1.00651 -0.475941 -0.400713 -0.420704 -0.218703 2.25793 -0.262885 1.18819 -0.431512 2.37227 0.719572 -0.0764323 -0.521683 -0.549535 -0.663626 0.907504 -0.598759 -0.000323069 -0.689434 1.60922 -0.628912 -0.701215 2.17586 -0.625668 -0.707799 1.85582 -0.116956 -0.391156 2.25917 -0.784338
internal_weight=0 19.9734 19.2591 1.62244 17.6366 0.285714 17.3509 2.23094 15.12 1.65647 1.33673 1.2 1.2279 0.714285 1.94523 0.785714 13.4635 9.61114 9.46828 3.68708 0.428571 1.80237 0.714285 1.08504 0.571428 0.285714 1.04761 0.754756 5.7812 3.85237 0.428571 0.551014 0.904756 3.51904 0.285714 0.666671 3.37618 0.428571 0.611899 0.408157 0.428571 0.418371 0.333328 0.285714 0.285714
internal_count=359956 359722 359158 40623 318535 7816 310719 50958 259761 20842 37085 234 20363 564 50241 6997 238919 234541 233549 3926 321 50239 6296 10826 204 243 27708 22531 229623 4378 3398 30088 17711 4100 2898 7388 4053 115 21416 11176 479 3438 278 110 11112
is_linear=0
shrinkage=0.02


Tree=2
num_leaves=63
num_cat=0
split_feature=141 148 9 148 23 145 145 141 141 146 141 3 114 2 98 31 141 146 141 0 19 3 2 25 142 114 2 69 148 29 141 2 41 142 159 141 114 141 66 111 2 140 141 31 142 0 23 141 2 19 2 148 142 2 111 9 2 0 2 93 148 3
split_gain=34038.1 6268.65 3758.06 3678.67 2903.14 2288.49 2279.06 1412.36 1317.16 1185.15 813.582 615.553 448.546 391.822 339.188 346.628 353.871 326.067 192.469 186.202 183.78 140.979 140.711 125.023 123.502 88.1884 84.3296 79.5745 77.4733 117.265 72.0224 71.3016 56.4622 56.3509 53.0987 34.4021 28.2639 26.9556 26.642 26.166 26.1483 23.5925 21.6369 18.6445 12.4597 11.6332 11.5125 11.5399 9.02266 8.58774 6.17544 5.41994 5.41789 11.3831 3.90325 3.56057 2.31985 2.16932 2.14201 1.97686 1.8119 1.39151
threshold=48.005000000000003 4.3993060039648819 0.80500000000000016 1.3350573770491805 0.0094805632536888642 699.5400000000003 129.99500000000003 78.960000000000022 2201.9850000000001 0.083288288288288298 19.995000000000001 0.47607142857142865 0.1481666666666667 7.2142857142857153 0.011637580776225674 0.10714285714285715 36.705000000000005 0.015535351873183041 20.305000000000003 1.0000000180025095e-35 1.0000000180025095e-35 0.018214285714285714 5.6071428571428577 0.14520162162162162 34.500000000000007 0.22258333333333336 25.678571428571431 0.35014705882352953 0.54449066067104823 -0.53860840649108788 15.905000000000003 8.0000000000000018 0.40301776729685745 5.5000000000000009 87.500000000000014 182.04500000000004 0.14448328267477203 10.115 0.1457571 1.0000000180025095e-35 0.17857142857142858 -1.0000000180025095e-35 10.455000000000002 56.607142857142861 893.50000000000011 1.0000000180025095e-35 0.014962686567164181 14.985000000000001 0.10714285714285715 0.78571428571428581 0.17857142857142858 3.5083105028371064 6.5000000000000009 1.0000000180025095e-35 1.0000000180025095e-35 0.27875000000000011 0.25000000000000006 1.0000000180025095e-35 21.464285714285719 0.022916666666666672 0.18780193236714976 0.05964285714285715
decision_type=10 10 8 10 8 8 8 8 10 8 8 10 10 10 8 8 10 8 8 2 10 10 10 8 8 8 10 8 10 8 8 10 8 8 8 10 10 10 8 8 8 10 10 8 10 2 10 8 10 10 10 10 8 10 8 10 10 2 10 10 10 10
left_child=3 2 6 4 22 11 56 31 23 20 25 18 24 19 -12 -16 17 26 40 -3 -7 54 -1 32 -4 30 44 49 34 -30 33 -8 -9 36 -19 -34 57 43 -39 -26 48 51 -40 50 -17 -11 47 -44 -5 -20 -27 -29 53 -45 -18 -48 -2 -6 -41 -43 -54 -50
right_child=1 13 12 5 10 9 7 8 -10 45 14 -13 -14 -15 15 16 21 28 27 -21 -22 -23 -24 -25 39 37 -28 41 29 -31 -32 -33 35 -35 -36 -37 -38 38 42 58 -42 59 46 52 -46 -47 55 -49 61 -51 -52 -53 60 -55 -56 -57 -58 -59 -60 -61 -62 -63
leaf_value=1.0813694878184077 -0.28167764145876378 3.8169728812155461 1.3854321578734219 -0.64374334709054382 -0.54728573602652764 1.7700723200268351 3.4696922229137779 1.8772727889410143 8.8176546066632611 -0.20281994803155085 0.32767808727073333 0.77980140338381931 0.0096058598696084282 2.9022880156829309 0.59675177071047369 -0.04224928916547234 0.43302689885821222 -0.47151703895293556 -0.35365192196784451 4.7013090912656024 1.1488321806752082 -0.24129765282485821 1.9690517056951427 2.2139874627762972 0.90580841852968363 -0.53498367315390527 -0.42849470390385536 0.039114884968415954 -0.36949067456814022 -0.65796815408135534 -0.089250626500420802 2.9224564547029304 1.3636144212022894 -0.68070993434735416 -0.25656703730935809 1.769976456588831 -0.14763526874129379 -0.45298312021985693 -0.3114496886316635 0.63980525834625745 -0.16062117204500095 -0.17997614470722806 -0.66604744783224323 -0.54999764993550737 0.13926968603846626 -0.51541995765531867 -0.78494151753065611 -0.55456816965441846 -0.43666677201797849 -0.19858520903004645 -0.67497207802079529 0.15598339037428974 -0.79921435743903968 -0.76865097015522155 0.64211987707065787 -0.69221838319965157 -0.084259155472567335 -0.43706678157261253 0.51333936443533268 -0.074759988321649762 -0.75528305512968785 -0.54017981465780052
leaf_weight=0.14285700023174286 0.028571000322699547 0.28571400046348561 0.14285700023174275 0.28571400046348572 0.14285700023174253 0.28571400046348494 0.28571400046348538 0.42857100069522858 0.010986000299453846 0.14285700023174297 0.28571400046348572 0.28571400046348561 0.42857100069522858 0.14285700023174286 0.14285700023174286 0.28571400046348649 0.047614000737667084 1.6521999984979632 0.28571400046348572 0.14285700023174286 0.57142800092697144 0.14285700023174286 0.14285700023174286 0.2857140004634855 0.14285700023174286 0.14285700023174275 0.19047100096940994 0.35714299976825781 0.80952901393175125 1.8556850031018259 0.15647100657224666 0.14285700023174286 0.19999999925494194 0.57142800092697144 0.63689900189638127 0.14285700023174286 0.14285700023174286 0.28280000388622284 0.0714289993047722 0.085714999586343765 0.0714289993047722 0.14285700023174197 1.0612280033528805 0.14285700023174563 0.32142800092697144 0.071428999304771423 0.19047099351882901 0.57142800092697155 0.14285700023174286 0.28571400046348572 1.0714280158281324 0.28571400046348572 0.72221499681472778 0.28571400046348572 0.14285700023174275 1.2714280337095261 0.14285700023174286 0.14285700023174286 0.14285700023174286 0.14285700023174286 0.78231399320065975 0.081629000604152679
leaf_count=91 482 1181 19200 944 417 6707 4101 171 158 495 740 5 5565 1 4592 5360 2376 66630 994 987 35 609 2 4004 2231 11482 4 5466 18 11203 3247 2 2175 9787 35433 1683 1106 6385 1548 21679 3036 2081 25251 8230 955 427 6837 23323 184 2 385 2070 24517 4237 12715 791 40 1035 2 153 4386 3
internal_value=0 1.91198 1.49672 -0.331914 -0.470936 0.256402 2.06717 2.31736 1.92819 1.02333 -0.510913 -0.0906971 0.487467 3.80939 -0.346143 -0.377054 -0.399915 -0.43663 -0.210177 4.11175 1.35591 0.233639 1.52521 1.8566 0.885684 -0.649355 -0.0613353 -0.0904244 -0.49705 -0.570346 -0.488257 3.28728 1.72423 -0.55069 -0.411711 1.53293 -0.377329 -0.677599 -0.638976 0.693473 -0.519016 0.0238489 -0.655589 -0.719921 0.053849 -0.30702 -0.663533 -0.62703 -0.569192 -0.276119 -0.658503 0.0910564 -0.758501 -0.695767 0.589851 -0.704299 -0.117162 -0.492176 0.560764 -0.127368 -0.776371 -0.474307
internal_weight=0 3.18241 2.61098 17.9909 14.5522 3.43877 1.66813 1.4967 1.06813 1.07143 14.2665 2.36734 0.942857 0.571428 6.51383 6.22811 6.08525 5.75193 2.08163 0.428571 0.857142 0.333328 0.285714 1.05714 0.514286 7.75264 0.797613 1.5 4.95431 2.66521 1.15647 0.428571 0.771428 0.999999 2.2891 0.342857 0.428571 6.59617 3.44878 0.371429 0.581629 0.928571 3.16598 3.14739 0.607142 0.214286 3.09456 1.63266 0.5102 0.571428 1.21429 0.642857 1.9331 0.428571 0.190471 1.4619 0.171428 0.285714 0.228572 0.285714 1.50453 0.224486
internal_count=359956 63662 61493 296294 273692 22602 12816 12294 8191 7664 273599 14938 48677 2169 140635 139895 135303 119603 14933 2168 6742 15700 93 8033 43112 132964 6319 10766 113284 11221 15592 4103 4029 12345 102063 3858 2558 117372 64135 23912 4167 9770 57750 53237 6315 922 56202 48574 1131 996 11867 7536 41370 12467 15091 7628 522 1452 21681 2234 28903 187
is_linear=0
shrinkage=0.02


Tree=3
num_leaves=39
num_cat=0
split_feature=28 153 4 4 23 154 32 153 47 23 13 153 18 18 4 54 4 108 107 147 98 147 4 13 142 107 162 4 54 23 4 18 4 4 4 18 4 12
split_gain=10453.6 7121.25 3621.22 3258.92 3004.71 6665.89 3393.3 5487.19 3532.78 1618.4 1590.35 1196.1 1125.73 1031.67 757.12 616.82 515.452 435.485 400.184 395.688 290.073 226.885 124.08 108.332 89.3897 58.2746 49.8536 20.3055 16.9462 12.115 10.2314 4.91938 4.79346 3.17683 1.9711 1.23931 0.322335 0.0622298
threshold=79.760000000000005 3044.3249999999994 1.6785714285714286 -1.0000000180025095e-35 0.24264705882352941 0.06257458233890216 0.25000000000000006 358.20999999999998 0.10714285714285715 0.0094805632536888642 78.335022222222008 139.82000000000005 0.0092857142857142878 0.073571428571428579 0.10714285714285715 0.10519230769230771 -1.0000000180025095e-35 0.040357142857142862 0.25000000000000006 0.014502769347876168 0.031774075943687259 0.076225833359007636 1.0000000180025095e-35 162.60000000000002 29.500000000000004 0.10714285714285715 5.5000000000000009 0.3928571428571429 0.085227272727272749 1.4166666666666667 0.32142857142857145 0.082142857142857142 0.32142857142857145 -1.0000000180025095e-35 1.0000000180025095e-35 0.01785714285714286 1.4642857142857146 1.0000000180025095e-35
decision_type=10 10 10 8 10 8 8 8 8 8 10 10 10 10 10 8 10 8 8 8 8 10 10 8 8 10 8 10 10 10 10 10 10 10 10 10 10 8
left_child=1 3 -3 -1 6 -6 7 21 -9 32 15 12 -7 24 22 16 -11 18 -17 -19 -2 28 -13 36 -10 26 29 34 37 -14 -18 -15 -8 -30 -23 -35 -22 -5
right_child=20 2 -4 4 5 11 9 8 13 10 -12 14 25 31 -16 17 30 19 -20 -21 23 27 -24 -25 -26 -27 -28 -29 33 -31 -32 -33 -34 35 -36 -37 -38 -39
leaf_value=2.8640072615218934 1.7062314426527392 3.7406332740549648 -0.76248286142723387 -0.64278211852385359 3.4002983090279391 1.3568153194580448 1.0597421354461101 4.6072833473679742 0.58481670592306456 1.3577234853427542 0.74869051306812995 1.734576946149091 -0.72975961388540489 1.8784116234418435 -0.42793341922072897 -0.2204990131692291 -0.053359653670333192 -0.18833148606359687 0.88769223146705667 -0.5133697618827715 2.1484646693934777 0.051322946528157491 1.0126778604003253 2.8442423034345259 -0.12270189614634193 -0.17637660946298767 -0.27634546928325759 -0.18817876052821977 -0.52428401838286198 -0.50918637136948597 -0.51685207081520435 1.7346708068690249 1.2235816964503092 -0.42058823078436436 0.15638562795276939 -0.27604408362272331 2.1909508644596771 -0.6609768698987587
leaf_weight=0.14285700023174286 0.57142800092697144 0.28571400046348472 0.095242999494075775 0.35714301466941833 0.28571400046348572 0.14285700023174175 0.14285700023174286 0.14285700023174286 0.14285700023174319 0.14285700023174286 0.48571399971842844 0.14285700023174275 0.53400100022554398 0.14285700023174286 0.14285700023174286 1.488084003329277 0.023814000189304352 1.7278830036520956 0.14285700023174253 11.265754049643883 0.14285700023174286 0.14285700023174286 0.28571400046348572 0.14285700023174186 0.14285700023174286 0.14285700023174286 0.14285700023174286 0.14285700023174286 0.14285700023174286 0.12244299799203873 0.095242999494075775 0.28571400046348572 0.14285700023174286 0.13994300365447998 0.14285700023174286 0.028571000322699547 0.14285700023174286 0.095242999494075553
leaf_count=306 8 3774 4 2810 1522 2996 102 19762 29506 1922 21 143 13802 14 4 45531 204 9901 919 209208 48 2007 10 43 8751 49 3040 12 2390 273 13 63 7 165 84 40 2 500
internal_value=0 -0.093699 2.61481 -0.145831 -0.167714 0.579062 -0.24962 0.515641 1.73619 -0.349786 -0.377507 0.0924371 -0.297584 1.16197 0.833 -0.414252 0.547749 -0.431481 -0.123431 -0.470146 2.00123 -0.361789 1.25331 2.39455 0.231057 -0.548436 -0.614933 0.00650994 -0.568455 -0.688617 -0.424143 1.78258 1.14166 -0.454901 0.103854 -0.396081 2.16971 -0.646613
internal_weight=0 20.1734 0.380957 19.7924 19.6495 1.94216 17.7074 2.04947 0.857142 15.6579 15.3722 1.65644 1.08501 0.714285 0.571428 14.8865 0.261914 14.6246 1.63094 12.9936 0.999999 1.19233 0.428571 0.428571 0.285714 0.942158 0.799301 0.428571 0.763757 0.656444 0.119057 0.428571 0.285714 0.311371 0.285714 0.168514 0.285714 0.452386
internal_count=359956 359855 3778 356077 355771 21839 333932 66104 58096 267828 267719 20317 20160 38334 157 267698 2139 265559 46450 219109 101 8008 153 93 38257 17164 17115 2103 5905 14075 217 77 109 2595 2091 205 50 3310
is_linear=0
shrinkage=0.02


Tree=4
num_leaves=37
num_cat=0
split_feature=5 140 38 144 140 3 15 108 98 33 16 163 152 71 3 3 144 3 16 36 98 38 3 106 3 106 3 3 106 106 3 106 3 140 3 3
split_gain=8336.06 5538.87 5504.08 3807.09 3669.85 2946.89 2670.03 2945.3 8575.78 996.412 961.065 1875.59 801.993 1493.99 955.412 755.606 684.336 494.719 475.125 301.068 276.236 226.527 210.963 120.086 119.167 82.9085 73.1944 71.1984 70.0402 52.9791 52.4487 43.5867 37.7431 27.5825 1.04513 0.0206757
threshold=13.808439250000001 1.0658141036401504e-14 0.47727272727272729 3.5000000000000004 -5.3290705182007506e-15 0.018214285714285714 73.097500000000011 0.036071428571428581 0.12605932203389833 0.0096428571428571457 0.35714285714285715 1.0000000180025095e-35 2.5000000000000004 1.0000000180025095e-35 0.060714285714285728 6.1124999999999998 12.500000000000002 0.47607142857142865 1.642857142857143 0.09761785000000002 0.0078390405522355214 0.043573191570153796 0.0096428571428571457 0.3928571428571429 0.015357142857142859 0.17857142857142858 16.063571428571432 0.41071428571428581 1.392857142857143 0.3928571428571429 0.0089285714285714298 0.25000000000000006 0.0039285714285714297 -1.0000000180025095e-35 0.037500000000000006 0.016071428571428577
decision_type=10 10 10 8 8 10 10 8 10 10 8 8 10 8 8 10 10 10 10 10 8 10 10 8 10 10 10 10 8 8 10 10 10 10 10 10
left_child=1 2 4 -4 15 31 7 8 16 -5 11 24 13 14 -12 28 23 27 -15 26 -14 -22 -11 25 -9 -6 -2 -8 -1 -18 -25 -3 -30 35 -35 -13
right_child=19 5 3 9 6 -7 17 10 -10 22 12 33 20 18 -16 -17 29 -19 -20 -21 21 -23 -24 30 -26 -27 -28 -29 32 -31 -32 -33 -34 34 -36 -37
leaf_value=-0.46618920342021553 2.7873573665759501 0.63302030929678177 4.51513748815968 1.6999774548186284 -0.5319300287859392 3.3322924122749398 2.1054954187302748 0.99242430586260955 3.6658208061753697 -0.51379832065831488 1.8408433028534119 -0.76999131535724563 0.32357708811260388 -0.54107970151624363 0.1286292875986938 2.8067271216320369 0.42877638447335309 0.66218731234296901 -0.1749914192663018 1.6721068291538561 -0.63968278437838311 -0.40446089841436789 0.57312036512887765 -0.60305168754552296 1.6998853297876761 0.0067536623402740959 2.1471317937646681 1.2701853805088918 0.86993840285945812 1.1991099503690925 -0.18912792105699755 0.027935747380481084 1.3296790237500367 -0.4193747701959224 -0.49900265796179361 -0.75681273678620176
leaf_weight=0.011900000274181366 0.14285700023174186 0.071428999304770424 0.14285700023174286 0.28571400046348472 0.14285700023174286 0.28571400046348572 0.14285700023174186 0.28571400046348572 0.28571400046348561 0.14285700023174286 0.14285700023174286 0.071428999304771423 0.14285700023174286 3.7705130018294071 1.4897990077733991 0.14285700023174286 0.047614000737667084 0.42857100069522858 2.2728839963674545 0.57142800092697144 5.1039840299636126 2.411371037364006 0.14285700023174286 0.42857100069522835 0.14285700023174286 0.57142800092697144 0.14285700023174286 0.057142999023199081 0.14285700023174286 0.14285700023174275 0.17142800055444241 0.14285700023174286 0.14285700023174286 0.14285700023174286 0.12244299799203873 0.14285700023174286
leaf_count=1628 63 6337 1782 9027 14178 445 75 396 1422 5752 472 3640 97 202679 23737 1 733 8 5487 8 22407 3585 5673 17767 102 8491 1 1 9584 2319 414 706 2335 7606 144 854
internal_value=0 -0.0763742 -0.12883 1.59488 -0.193285 2.00258 -0.235875 -0.280539 0.489308 0.864819 -0.365402 0.266765 -0.402842 -0.258372 0.278448 1.6111 -0.11383 1.04548 -0.403396 1.93715 -0.547649 -0.56421 0.029661 -0.276198 1.22824 -0.100983 2.46724 1.86683 1.03719 1.00654 -0.484788 0.229632 1.09981 -0.59244 -0.456125 -0.761206
internal_weight=0 20.3162 19.8162 0.714285 19.1019 0.5 18.6615 18.0329 1.79047 0.571428 16.2424 0.908157 15.3343 7.67605 1.63266 0.440471 1.50476 0.628571 6.0434 0.857142 7.65821 7.51536 0.285714 1.31428 0.428571 0.714285 0.285714 0.2 0.297614 0.190471 0.599999 0.214286 0.285714 0.479586 0.2653 0.214286
internal_count=359956 359884 352396 22234 330162 7488 316614 316530 45324 20452 271206 12742 258464 232375 24209 13548 43902 84 208166 72 26089 25992 11425 40850 498 22669 64 76 13547 3052 18181 7043 11919 12244 7750 4494
is_linear=0
shrinkage=0.02


Tree=5
num_leaves=63
num_cat=0
split_feature=141 148 148 169 108 153 5 151 141 141 141 18 155 3 3 146 98 32 146 0 108 19 93 154 160 160 141 3 7 0 3 3 141 3 0 5 3 146 148 146 108 168 93 34 5 141 150 108 141 3 19 3 3 148 0 155 93 3 141 32 160 3
split_gain=30297.2 5526.31 3298.74 3023.68 2870.22 2060.41 1919.49 1427.79 1340.6 1103.15 593.01 558.331 481.19 347.092 264.968 251.159 238.703 226.986 213.772 203.181 199.621 165.3 164.946 160.542 111.434 81.3502 78.5748 73.1335 72.8923 69.0398 63.162 52.78 49.9575 41.076 32.3516 29.407 28.6577 25.3916 23.7924 22.957 48.9293 20.2596 22.2344 20.021 13.4024 13.1514 13.1034 12.7138 9.96962 9.02904 5.4006 5.26074 5.0054 4.91119 4.43352 4.42787 3.3533 2.89715 2.83718 2.7189 2.46092 1.71175
threshold=48.005000000000003 4.3993060039648819 1.3350573770491805 0.50042735042735054 0.0060714285714285722 101.94500000000001 29.392142850000003 3.5000000000000004 2201.9850000000001 35.695000000000007 19.995000000000001 0.53785714285714292 0.030310207714281622 0.79250000000000009 0.013928571428571429 0.021742495104405703 0.011637580776225674 1.2500000000000002 0.027587875955536269 1.0000000180025095e-35 0.023928571428571434 1.0000000180025095e-35 0.036250000000000011 0.19098277608915912 0.33899205677335692 0.24590746501683622 19.675000000000004 0.023214285714285719 5.6007142857142851 1.0000000180025095e-35 6.1124999999999998 16.063571428571432 32.005000000000003 1.4149999999999998 1.0000000180025095e-35 0.23003570000000004 0.0053571428571428581 0.40588235294117653 1.0001926384588919 0.054748295831573889 0.020357142857142862 1.0000000180025095e-35 3.8795833333333336 0.17857142857142858 2.5296428500000006 29.995000000000001 186.50000000000003 0.021071428571428578 11.535000000000002 0.013214285714285717 0.78571428571428581 0.0089285714285714298 28.22785714285715 3.5083105028371064 1.0000000180025095e-35 0.06367413749685219 0.022916666666666672 0.060357142857142866 6.9750000000000005 0.53571428571428581 0.23537961696306428 0.05964285714285715
decision_type=10 10 10 8 10 8 10 8 10 10 8 10 10 10 10 10 8 8 10 2 8 10 10 10 10 10 10 10 10 2 10 10 10 10 2 10 8 10 10 10 10 8 8 8 10 8 8 8 8 8 10 10 10 10 2 10 10 10 10 8 10 10
left_child=2 4 6 21 5 31 9 19 14 10 25 23 16 22 29 -11 -12 18 27 30 51 -4 -3 24 49 26 39 -18 34 -9 -7 -2 36 54 -16 -20 -19 41 45 40 46 48 52 44 50 -14 -1 -42 59 -5 -26 -6 -43 -51 -17 -47 -45 -36 -41 -27 -40 -25
right_child=1 13 3 11 20 7 -8 8 -10 15 12 -13 38 -15 28 33 17 32 35 -21 -22 -23 -24 61 43 37 -28 -29 -30 -31 -32 -33 -34 -35 57 -37 -38 -39 60 58 47 42 -44 56 -46 55 -48 -49 -50 53 -52 -53 -54 -55 -56 -57 -58 -59 -60 -61 -62 -63
leaf_value=-0.50313705647129137 -0.068806754500456452 4.4248346636283493 1.6659778443055626 -0.14364152932323632 0.013547436063660396 3.2656464946018811 1.8621038907909264 0.62035988174865875 8.6550690260390315 -0.22270446838735336 0.32036910093917975 0.73598780678485187 -0.53612143551440983 2.7316102406067375 1.244781657878381 0.4202008467692443 0.56165794180455653 -0.66720661674254189 -0.27013061187143211 0.66937917305645134 0.85253958940732677 1.0767993853324458 3.5925042351749972 -0.60780744199601544 -0.3301160293485792 -0.66380908005249806 -0.084343759111093403 0.058710420838486266 2.0837873568199936 1.3155409690923188 2.7505925364747443 0.47485503398309731 -0.24497636852468582 1.0359746785507049 1.6658875884781426 -0.64425750504622581 -0.42111789564131058 -0.28413170366071006 -0.56997714324582083 -0.76245074490940046 -0.14040764283108717 -0.64176142192201002 -0.49224787265967379 -0.17473672549963859 -0.39560125288197917 -0.66992806592488563 -0.6282476599750686 -0.40723642952502681 -0.62741248304599972 0.04393882355748889 -0.17950880210235265 -0.26674066048504769 -0.76418861390109083 0.15518723484195318 0.64304473227257675 -0.75518375391392567 -0.056061152161615613 1.7698877584310304 -0.64176374929404911 -0.73001535994568489 -0.48280967600197489 -0.50395943285810463
leaf_weight=0.71137100458145286 0.14285700023174286 0.14285700023174275 0.28571400046348572 0.071428999304771423 0.42857100069522858 0.28571400046348572 0.14285700023174364 0.071428999304771645 0.010986000299453624 0.14285700023174364 0.28571400046348572 0.28571400046348561 0.2380999997258183 0.14285700023174286 0.057142999023199081 0.047614000737667084 0.14285700023174264 0.21428599953651428 0.71428601443767548 0.014286000281572342 0.14285700023174275 0.57142800092697144 0.28571400046348572 0.28571400046348561 0.14285700023174286 0.28571400046348572 0.15647100657224644 0.60714200139045715 0.28571400046348572 0.28571400046348572 0.14285700023174286 0.14285700023174286 0.64285700023174275 0.14285700023174286 0.14285700023174286 0.095242999494075775 1.6224270015954982 0.071428999304771312 0.20329999923706044 0.095228999853134044 0.14285700023174286 2.0571420490741734 0.42857100069522891 0.2857140004634855 0.35714299976825714 0.6761850044131279 0.63265700265765201 0.14285700023174275 0.57142800092697132 0.35714299976825747 0.28571400046348572 0.028571000322699547 0.14285700023174275 0.28571400046348572 0.14285700023174286 0.38095699995756149 0.14285700023174286 0.42857100069522858 0.42857100069522858 1.8854849841445691 0.35714299976825714 0.081629000604152679
leaf_count=23262 1153 2026 5916 1182 5282 2393 2 19845 649 15957 608 12 901 5 2296 1207 15358 2014 3509 2454 2998 32 138 2198 1183 3959 3739 1063 23 22623 1 1 5641 1 1583 47 84807 127 891 1226 125 1600 9513 4190 19 3720 52185 3039 16121 5251 2 106 1 2130 1066 2382 474 86 4831 13263 1527 13
internal_value=0 1.80384 -0.313156 0.243952 1.41395 1.77615 -0.444804 2.03667 1.69857 -0.467675 -0.500026 -0.0977719 -0.353893 3.58536 1.63846 0.478915 -0.238296 -0.277815 -0.0887635 3.01575 0.199961 1.27319 3.86995 -0.201529 -0.128539 -0.616525 -0.517081 0.15451 1.81891 1.1765 3.09396 0.203024 -0.396718 0.779614 1.69851 -0.314148 -0.449829 -0.658733 -0.623299 -0.548522 -0.511503 -0.663714 -0.624038 -0.245138 -0.305116 -0.670406 -0.562029 -0.273822 -0.701741 0.06968 -0.229711 -0.00397034 -0.649711 0.0933825 0.587338 -0.700651 -0.135178 1.74389 -0.663705 -0.721303 -0.51443 -0.584731
internal_weight=0 3.18241 17.9909 3.43877 2.61098 2.01099 14.5522 1.72527 1.28241 14.4093 13.9331 2.58163 6.1805 0.571428 1.27143 0.476185 4.32481 4.0391 1.55953 0.442857 0.599999 0.857142 0.428571 2.29591 1.92857 7.75264 2.31001 0.749999 0.914285 0.357143 0.428571 0.285714 2.47957 0.333328 0.628571 0.809529 1.83671 5.44263 1.85569 2.15354 1.62974 5.3712 2.62857 1.21429 0.785714 1.29524 1.34403 0.285714 2.74263 0.714286 0.428571 0.457142 2.2 0.642857 0.190471 1.05714 0.428571 0.571428 0.5238 2.1712 0.560443 0.367343
internal_count=359956 63662 296294 22602 61493 53107 273692 51953 47105 273690 255459 16654 122468 2169 46456 18231 113047 112439 19977 4848 8386 5948 2164 16642 14431 132991 88407 16421 3988 42468 2394 1154 92462 2274 3965 3556 86821 44584 9421 84668 78611 44457 11114 5868 1204 7003 75447 3164 33343 8563 1185 5388 1601 7381 2273 6102 4664 1669 6057 17222 2418 2211
is_linear=0
shrinkage=0.02


Tree=6
num_leaves=63
num_cat=0
split_feature=141 159 163 141 68 141 68 144 22 3 14 151 3 22 141 106 150 37 145 144 151 3 3 166 37 63 141 46 3 3 3 91 144 3 3 69 14 3 151 141 37 144 144 9 3 151 37 150 3 3 141 166 3 150 3 3 3 98 166 3 46 91
split_gain=29097.4 5174.26 4174.25 2509.98 2095.14 1754.71 1537.91 1017.21 1009.49 779.653 664.758 630.371 498.261 497.175 495.837 361.869 379.073 272.077 239.964 507.884 300.958 121.638 109.955 101.944 90.579 77.3286 76.0972 83.9869 61.4152 54.3029 53.9884 51.7407 45.6292 39.1683 36.6447 33.7092 31.0705 24.4637 24.395 30.7901 29.6381 24.3451 19.7319 18.4387 18.227 13.6394 13.4627 23.7155 25.2873 11.9993 11.721 9.94368 8.1605 6.82502 6.0477 5.41411 4.45458 3.3612 3.24915 2.78242 2.73233 2.65379
threshold=48.005000000000003 18.500000000000004 inf 34.995000000000012 0.017403259873271435 2201.9850000000001 0.083651399491094167 586.50000000000011 8.0685714285714294 0.15035714285714288 7.4962500000000007 6.5000000000000009 0.0067857142857142873 -5.8357142857142845 20.305000000000003 0.17857142857142858 23.500000000000004 -1.0000000180025095e-35 29.975000000000005 8.5000000000000018 32.500000000000007 0.0275 0.018214285714285714 0.35301087259548375 -1.0000000180025095e-35 0.1921428571428572 11.535000000000002 1.1071428571428574 28.22785714285715 0.074642857142857136 0.0096428571428571457 1002.6250000000001 40.500000000000007 5.0753571428571442 0.018214285714285714 0.17050000000000004 1.6432000000000002 16.063571428571432 12.500000000000002 13.985000000000001 -1.0000000180025095e-35 4.5000000000000009 1.5000000000000002 0.19348484848484854 0.026428571428571437 1.0000000180025095e-35 -1.0000000180025095e-35 4.5000000000000009 0.020357142857142862 0.037500000000000006 12.985000000000001 1.0000000180025095e-35 0.10607142857142859 2.5000000000000004 0.26357142857142862 0.4657142857142858 0.079642857142857168 0.11583184257602865 0.333134447096261 0.060357142857142866 11.964285714285715 2.3750000000000004
decision_type=10 10 8 8 8 10 10 10 10 10 10 8 8 10 10 10 8 10 8 8 8 8 10 10 10 10 10 8 10 10 8 8 10 10 10 8 10 10 10 8 10 8 10 8 10 10 10 10 8 10 10 8 8 8 8 10 10 10 10 10 8 10
left_child=3 5 8 7 13 15 10 14 11 -8 18 30 -9 28 26 16 45 34 42 21 25 44 -22 24 49 32 46 -28 -5 -18 -3 51 -21 55 -4 -25 59 -32 39 50 -41 56 -6 60 -20 -2 47 48 -1 -16 -33 -29 -26 -50 -48 -23 -37 -45 61 -13 -43 -53
right_child=1 2 17 4 6 -7 9 12 -10 -11 -12 36 -14 -15 23 -17 29 -19 19 20 22 33 -24 35 52 -27 27 31 -30 -31 37 38 -34 -35 -36 41 -38 -39 -40 40 -42 43 -44 57 -46 -47 54 -49 53 -51 -52 58 -54 -55 -56 -57 -58 -59 -60 -61 -62 -63
leaf_value=-0.68910767053883004 1.2892301937702724 -0.26140584560639168 3.5206541878555639 -0.51217496580546451 -0.49821800858686061 8.4819675066251321 1.6326583568470117 0.95103987276064228 2.3641954898997777 -0.1769121863412321 0.72126802928682876 1.6325698367085824 -0.71933586470908861 1.2897726967151542 -0.25343211543781913 0.013276487432787656 0.60795266275151083 4.3363380237615932 0.6301838109242176 -0.32857391002728187 0.51577055367806557 0.032839109736249372 -0.21825039003455682 -0.17591862956506224 0.13408433341053652 -0.6647503845213999 -0.082656882233728871 -0.45307056837868387 0.31722526750106772 -0.067430615989137285 0.83548884835470394 -0.45535470170922532 -0.53930017402231778 -0.30229870936294473 3.2003335860721696 -0.16557179530427171 1.2198860397411466 0.46535794465217101 -0.60436924238114298 -0.13865590393651325 -0.4270583018773989 -0.49018253108896148 -0.71808831960723274 -0.36169796695953238 0.31069817568030395 0.65599157624414917 -0.63078332258836234 -0.72692102078053056 -0.27844906424694127 -0.48060024749876712 -0.62072981341030231 -0.57050500726454556 -0.047587656205489388 -0.50290624816109142 -0.52851424292406679 0.1666890449548652 -0.32351370208588071 -0.45457998162788399 -0.6412987589919511 1.7344899836802776 -0.58191852254481424 -0.66688061536849919
leaf_weight=0.42857100069522858 0.28571400046348516 0.028571000322699547 0.28571400046348605 0.047614000737667084 0.28571400046348572 0.010986000299453735 0.28571400046348561 0.28571400046348572 0.57142800092697144 0.14285700023174286 0.28571400046348561 0.14285700023174264 0.095242999494076552 0.57142800092697144 0.38690000027418259 0.42857100069522858 0.071428999304771423 0.14285700023174286 0.14285700023174286 1.5416570156812675 0.19047100096940939 0.7857140004634855 0.14285700023174286 0.28571400046348572 0.32142800092697144 0.48571400344371785 0.15647100657224655 0.14285700023174319 0.14285700023174286 0.14285700023174286 0.14285700023174286 0.42857100069522824 0.56044299900531758 0.14285700023174286 0.28571400046348572 0.14285700023174286 0.057142999023199081 0.14285700023174286 0.42857100069522847 0.21428599953651439 0.4256570041179657 0.23809999972581863 0.38095699995756149 0.57142800092697121 0.14285700023174286 0.014286000281572342 1.2142850160598753 1.7562289852648971 0.071428999304773977 0.12244299799203873 0.28571400046348572 0.57142800092697177 0.14285700023174286 0.22448600083589554 0.28571400046348561 0.14285700023174286 0.14285700023174286 0.21428599953651428 1.5571420341730116 0.42857100069522858 0.28571400046348572 0.14285700023174286
leaf_count=5183 20826 250 5247 985 3649 711 5752 236 20 7 334 3609 2073 35 28821 4910 21097 1523 2485 12665 63257 13024 2632 306 4096 110 7085 1365 1 14 2910 9040 1898 3 182 1605 19 2 942 26100 5502 52 1755 5966 24 2299 8883 16179 7256 147 6046 5851 3043 29561 6088 12 7 719 2320 43 2023 1171
internal_value=0 1.76777 2.29536 -0.306893 0.0102068 0.535086 -0.122349 -0.48288 1.70088 1.02947 -0.216723 1.29887 0.533429 0.994808 -0.517483 0.44249 0.800168 3.55566 -0.270919 -0.215921 -0.364451 0.103778 0.201185 -0.28999 -0.123865 -0.437309 -0.595402 -0.537614 0.109892 0.157698 0.567531 -0.554575 -0.384756 0.00600074 3.36049 -0.37598 1.66454 0.650423 -0.472858 -0.431239 -0.330486 -0.411811 -0.623859 -0.448306 0.470441 1.25908 -0.658603 -0.687204 -0.590924 -0.308042 -0.521505 -0.614919 0.0781852 -0.448726 -0.611304 0.0534314 -0.244543 -0.387029 -0.625098 1.70901 -0.54022 -0.58978
internal_weight=0 3.18241 2.22857 17.9909 6.42114 0.953843 5.65924 11.5698 1.51428 0.428571 5.23067 0.942856 0.380957 0.761899 11.1889 0.942857 0.514286 0.714285 4.94496 4.27828 2.92114 1.35714 0.333328 2.85458 0.973628 2.58781 8.33427 4.35355 0.190471 0.214286 0.314285 4.19708 2.1021 1.07143 0.571428 1.88096 0.628571 0.285714 1.7828 1.35423 0.639943 1.59524 0.666671 1.30953 0.285714 0.3 3.98071 2.48071 0.724486 0.509343 0.714285 2.41428 0.464285 0.295915 1.5 0.928571 0.285714 0.785714 2.27143 0.571428 0.523814 0.714285
internal_count=359956 63662 13805 296294 108628 49857 107607 187666 6853 5759 101848 6833 2309 1021 185357 49146 44236 6952 101514 96110 80562 15548 65889 46785 36107 14673 138572 65422 986 21111 3162 58337 14563 13039 5429 10678 3671 2912 47630 46688 31602 10372 5404 8760 2509 23125 73150 58179 42000 28968 15086 10707 7139 36817 14971 13036 1612 6685 9342 3652 2075 7022
is_linear=0
shrinkage=0.02


Tree=7
num_leaves=37
num_cat=0
split_feature=145 140 140 31 0 1 7 146 53 147 146 1 53 138 24 8 1 0 145 152 53 1 1 5 1 145 7 1 1 24 24 1 0 94 1 1
split_gain=9345.09 5247.33 5304.97 5384.01 3371.8 3192.34 3129.33 2609.83 1417.73 983.083 1260.87 881.886 838.445 644.738 1052.02 504.615 478.53 454.245 435.229 381.86 967.132 189.776 186.88 160.223 132.916 123.237 117.678 67.4225 66.5463 57.4658 44.4084 44.3809 43.7484 38.5368 14.4206 5.49123
threshold=2662.0450000000023 -5.3290705182007506e-15 1.0658141036401504e-14 0.17857142857142858 1.0000000180025095e-35 0.82142857142857151 5.6007142857142851 0.047627129602689687 0.018095826387235055 0.015485204861906717 0.038913797757543452 8.5357142857142865 0.0084907666742364465 4.9791500000000015 0.25971428571428573 0.012522571754419313 0.75000000000000011 1.0000000180025095e-35 119.84500000000001 4.5000000000000009 0.21825396825396828 1.0000000180025095e-35 1.0000000180025095e-35 2.9729750000000004 732.03571428571433 2358.3499999999995 -7.7535714285714281 2396.3928571428573 255.85714285714289 0.12516666666666668 0.13100000000000003 2396.3928571428573 1.0000000180025095e-35 -1.0000000180025095e-35 9.1785714285714288 600.857142857143
decision_type=10 8 10 8 2 8 10 8 10 8 8 10 8 10 10 8 10 2 8 10 10 10 10 10 10 10 8 10 10 10 8 10 2 10 8 10
left_child=1 15 3 4 11 16 9 -4 24 10 18 22 -11 19 30 -1 -2 -7 26 20 -14 32 -3 29 35 -21 -5 -19 -12 -20 -15 -23 -17 -9 -28 -8
right_child=5 2 7 6 -6 17 8 33 -10 12 28 -13 13 14 -16 21 -18 27 23 25 -22 31 -24 -25 -26 -27 34 -29 -30 -31 -32 -33 -34 -35 -36 -37
leaf_value=2.6482969021184921 0.93201905794853956 -0.48288933804013462 3.136326983778297 -0.63420856126836145 4.2496112526051988 3.4502410239897463 1.9744257993478875 0.02684055266256654 0.20766852245434284 1.1277963644617184 1.5999184559961541 1.6000051069310575 -0.38337124820329221 -0.40780490303053318 1.7339388801739239 -0.44337444926745806 -0.70494914340968673 2.6296940545663303 -0.11696910460985648 -0.58067461635159068 1.275901103695823 1.2509900947859252 0.54010939638807343 1.1954882622028427 1.1395866327331046 0.25557274694729076 -0.023264881055757698 2.0152295777258393 0.98945974906985046 0.21727154389255379 0.01604780607846985 1.6827308479393486 0.81877903667383012 0.59579364554515379 -0.26936773251947782 1.7990663370109161
leaf_weight=0.14285700023174286 0.28571400046348572 0.14285700023174286 0.28571400046348472 0.52379899471998215 0.14285700023174286 0.28571400046348472 0.14285700023174175 0.14285700023174286 0.78571400046348572 0.14285700023174286 0.14285700023174275 0.28571400046348572 8.5563260167837285 0.26667100004851818 0.14285700023174286 0.011900000274181366 0.095242999494075775 0.14285700023174286 0.311228007078171 5.372484052553772 0.14285700023174364 0.14285700023174286 0.14285700023174286 0.057142999023199081 0.14285700023174286 0.071428000926971325 0.14285700023174286 0.14285700023174286 0.14285700023174286 0.60714200139045715 0.15714300051331598 0.28571400046348572 0.14285700023174286 0.071428999304771423 0.28571400046348572 0.14285700023174286
leaf_count=16 537 5614 928 12 8840 3102 75 5248 14 405 2041 1 260273 498 112 5811 21 2925 5400 14708 11657 3062 5901 11 2 386 1039 1 2 247 8702 1 5383 1218 5762 1
internal_value=0 -0.0863514 -0.148533 -0.202061 1.50137 1.94091 -0.26862 1.88497 0.712383 -0.33842 0.0547759 0.814308 -0.397021 -0.411829 0.249664 1.58295 0.522761 2.88635 -0.12898 -0.438333 -0.356123 1.32204 0.02861 0.167937 1.63769 -0.569702 -0.433113 2.32246 1.29469 0.104 -0.250648 1.53882 0.721726 0.216492 -0.187333 1.88675
internal_weight=0 20.221 19.4948 18.9948 0.714285 0.952385 18.2805 0.5 1.21429 17.0662 2.2136 0.571428 14.8526 14.7098 0.566671 0.726185 0.380957 0.571428 1.92788 14.1431 8.69918 0.583328 0.285714 0.975513 0.428571 5.44391 0.95237 0.285714 0.285714 0.91837 0.423814 0.428571 0.154757 0.214286 0.428571 0.285714
internal_count=359956 353370 339097 331703 20356 6586 311347 7394 92 311255 14514 11516 296741 296336 9312 14273 558 6028 12471 287024 271930 14257 11515 5658 78 15094 6813 2926 2043 5647 9200 3063 11194 6466 6801 76
is_linear=0
shrinkage=0.02


Tree=8
num_leaves=58
num_cat=0
split_feature=141 165 162 7 33 1 1 141 54 9 59 141 92 111 142 141 98 33 9 32 154 113 1 166 114 7 1 142 9 1 141 5 7 150 154 1 141 92 98 166 1 1 1 1 32 1 154 113 1 1 1 1 1 92 5 113 1
split_gain=26898.5 4743.73 3847.92 2381.71 1743.86 1690.71 1225.53 1184.88 1131.9 892.593 653.235 603.294 479.816 331.06 351.377 289.269 280.236 266.331 265.537 250.956 154.9 143.49 120.506 73.9602 73.6076 62.3424 56.9463 46.4725 43.1104 33.7999 32.9206 32.1421 28.6584 27.9846 23.5664 21.9383 17.8042 15.5233 8.76048 8.4689 7.01237 4.67686 4.47416 4.44507 3.53219 2.56642 2.00525 1.8785 0.711335 0.599626 0.197306 0.106425 0.104239 0.102458 0.0593491 0.0374418 0.00730647
threshold=48.005000000000003 13.500000000000002 1.0000000180025095e-35 10.712857142857143 0.01035714285714286 3.8214285714285716 0.10714285714285715 20.305000000000003 0.18026315789473688 0.80500000000000016 -0.82838696660950273 35.695000000000007 2.041666666666667 1.0000000180025095e-35 34.500000000000007 42.995000000000012 0.011637580776225674 0.3446428571428572 0.13045454545454546 1.0000000180025095e-35 0.018873669937719769 0.19677419354838713 0.82142857142857151 0.26670386904761911 0.19341666666666671 3.0150000000000001 3.2500000000000004 5.5000000000000009 0.090520833333333356 0.25000000000000006 36.705000000000005 2.5296428500000006 2.9683321428571436 1.0000000180025095e-35 0.49025974025974034 1079.5000000000002 11.535000000000002 9.8750000000000018 0.015114340303325187 0.051341960220464895 3.6785714285714288 5.0357142857142865 0.82142857142857151 23.214285714285719 0.53571428571428581 3.3214285714285716 0.026321867023216244 0.035740898445816481 732.03571428571433 2396.3928571428573 2396.3928571428573 1.0000000180025095e-35 17.892857142857146 1.0000000180025095e-35 13.808439250000001 0.4529914529914531 1079.5000000000002
decision_type=10 10 10 10 8 10 8 8 8 8 8 10 8 8 8 10 8 8 8 10 10 10 10 10 10 8 10 8 8 10 10 10 10 10 10 10 10 8 8 8 10 10 10 10 8 10 8 8 10 10 10 10 10 10 10 10 10
left_child=3 5 19 4 8 13 -6 23 -1 12 -9 16 54 55 51 30 56 20 -14 29 -18 -19 -10 24 27 32 53 33 40 -3 -13 43 45 -8 36 -11 38 46 48 -30 -29 -32 -17 -24 -40 -20 -38 -35 -25 -47 -39 -15 -26 -16 -4 -2 -12
right_child=1 2 9 -5 6 -7 7 10 22 35 11 15 18 14 26 42 17 21 25 -21 -22 -23 31 34 52 -27 -28 28 39 -31 41 -33 -34 47 -36 -37 37 50 44 -41 -42 -43 -44 -45 -46 49 -48 -49 -50 -51 -52 -53 -54 -55 -56 -57 -58
leaf_value=1.5680050101330179 0.01376358393073261 3.3812361714664463 2.5953308839673999 0.90033352322825477 0.91337869281131334 8.3199956595919495 -0.12715895354224482 1.1052404184804487 0.52930720245215768 0.80240347863782546 0.30013877793100446 0.96967055809389036 -0.24802161870517037 1.2503830041834865 0.64255082507377115 -0.047929286528560149 0.051087592040649277 -0.46223899718630124 1.5679200948871019 4.164619102321236 -0.28039393076999369 0.0014653470840790023 -0.097845169240628083 -0.59999016581983822 -0.08671472753432953 1.9549311414418538 -0.058414579537165195 -0.37386985732502698 -0.71323117135887371 3.073600251841786 0.3963699552611446 -0.38637798737473744 1.1715785620468961 -0.38231720947105968 -0.26521265900896279 0.45189740951547364 -0.56030457169422765 -0.46719270142779806 -0.62838410171471115 -0.5780552087333185 -0.13032815349224469 0.62524757819753063 -0.20621795977060806 0.05992818378192611 -0.69199268616653964 1.6992602147226572 -0.61794534410040014 -0.46778825458239598 -0.54533114995340692 1.6490762389914337 -0.43395242146867569 1.2259702715278809 -0.041270243575225705 0.5838777566126182 2.5771002749460519 0.026303742861013998 0.30653535929126935
leaf_weight=0.28571400046348572 0.28571400046348572 0.28571400046348605 0.14285700023174286 0.64285700023174186 0.28571400046348572 0.010986000299453735 0.14285700023175962 0.14285700023174286 0.14285700023174286 0.14285700023174275 0.14285700023174286 0.14285700023174275 0.028571000322699547 0.1428570002317423 0.014286000281572342 0.14285700023174286 0.82142800092697177 4.0605270043015462 0.14285700023174286 0.14285700023174286 1.7985420152544973 0.28571400046348561 0.14285700023174286 0.28571400046348572 0.13265700638294209 0.2857140004634855 0.14285700023174286 0.13994300365447998 0.2040860019624241 0.28571400046348572 0.047614000737667084 0.14285700023174286 0.057142999023199081 0.14285700023174286 0.071428999304771312 0.14285700023174286 0.28571400046348572 0.14285700023174319 0.42857100069522858 2.0237990170717239 0.071428999304771423 0.14285700023174286 0.14285700023174286 0.14285700023174286 1.8854849841445691 0.14285700023174286 1.5571420341730116 0.3673430010676384 0.14285700023174286 0.28571400046348572 0.14285700023174286 0.14285700023174286 0.023814000189304352 0.071428999304771423 0.14285700023174286 0.14285700023174286 0.14285700023174286
leaf_count=7527 5184 3490 130 27 9156 262 10424 268 14755 5128 747 1692 476 18204 12487 5051 9113 97789 343 1025 3968 10090 2729 107 4902 20 11 1348 8721 333 10246 5 1 74 142 3 205 11970 1844 53106 76 63 159 20 13659 89 2264 14041 2 2 1 9569 2 4434 1 2470 1
internal_value=0 1.69965 2.20482 -0.295074 -0.339372 0.519371 -0.385087 -0.40798 0.54017 1.63405 -0.235079 -0.259405 1.86822 0.428479 0.770592 0.339898 -0.310563 -0.335742 1.65064 3.41486 -0.176466 -0.431756 0.0262531 -0.577134 -0.503008 1.70997 0.186114 -0.524422 -0.56454 3.22742 0.740166 -0.141432 1.59863 -0.374578 -0.625856 0.62715 -0.631145 -0.587742 -0.664829 -0.590438 -0.29157 0.568033 -0.127074 -0.0189585 -0.680212 1.64133 -0.609009 -0.443856 -0.58177 1.6658 -0.450573 1.23818 -0.0797983 0.593657 2.58622 0.0179436 0.303337
internal_weight=0 3.18241 2.22857 17.9909 17.3481 0.953843 16.4909 16.2052 0.857142 1.51428 8.01382 7.87097 1.22857 0.942857 0.514286 0.619042 7.25193 6.96621 0.942856 0.714285 2.61997 4.34624 0.571428 8.19141 3.24879 0.914285 0.228572 3.09231 2.43926 0.571428 0.333328 0.428571 0.628571 0.653057 4.94263 0.285714 4.8712 2.12857 2.74263 2.22789 0.211372 0.190471 0.285714 0.285714 2.31406 0.571428 1.84286 0.5102 0.428571 0.428571 0.285714 0.285714 0.156471 0.085715 0.285714 0.428571 0.285714
internal_count=359956 63662 11041 296294 296267 52621 271231 262075 25036 6193 139187 138919 1062 52359 44705 17211 121708 120960 931 4848 13081 107879 17509 122888 92694 455 16932 87790 63251 3823 12001 2754 435 24539 30194 5131 30052 14440 15612 61827 1424 10309 5210 2749 15503 434 2469 14115 109 91 11971 27773 4904 16921 131 7654 748
is_linear=0
shrinkage=0.02


Tree=9
num_leaves=63
num_cat=0
split_feature=136 148 148 106 163 13 145 158 136 1 155 136 1 147 147 1 136 1 144 1 147 1 1 106 92 154 145 158 1 106 136 20 1 1 144 154 106 1 10 147 106 148 154 136 147 106 1 37 1 37 92 164 37 1 1 92 93 1 1 1 147 92
split_gain=25833.3 4699.57 2837.85 2433.83 1702.5 1677.13 1451.23 1213.45 952.923 731.631 592.812 510.891 504.188 485.078 440.53 346.25 309.56 291.924 215.042 211.259 207.878 254.585 193.064 167.706 140.33 132.646 89.6909 78.9813 70.9404 63.9076 62.4698 52.0891 47.1378 44.6617 40.2268 38.322 33.7016 31.617 29.5698 24.3831 23.2049 21.6686 20.8921 24.0646 20.7902 20.7872 18.1247 17.3602 17.2923 14.4755 11.0141 10.9824 10.3866 9.9174 8.92074 5.65608 5.13592 5.07214 4.54924 4.49165 4.2792 3.52172
threshold=48.005000000000003 4.3993060039648819 1.3350573770491805 0.17857142857142858 0.50352112676056349 153.77000000000001 154.86500000000004 2.5000000000000004 35.695000000000007 3.8214285714285716 0.090987130045717957 19.995000000000001 3.2500000000000004 0.035749786992331729 0.034487798486024457 66.857142857142875 48.995000000000012 600.857142857143 1.5000000000000002 0.10714285714285715 0.014502769347876168 0.10714285714285715 0.25000000000000006 0.96428571428571441 0.45833333333333343 0.19098277608915912 119.98500000000001 11.500000000000002 600.857142857143 245.17857142857144 15.905000000000003 22.938571500000005 1.0000000180025095e-35 1079.5000000000002 21.500000000000004 0.11024233383870495 0.32142857142857145 255.85714285714289 1.6432000000000002 0.022563562859676069 0.25000000000000006 0.9940488029465937 0.49025974025974034 14.955000000000002 0.038477631155455431 55.607142857142861 9.1785714285714288 4.2844892857142858 0.10714285714285715 -1.0000000180025095e-35 1.0000000180025095e-35 315.50000000000006 -1.0000000180025095e-35 3.75 0.82142857142857151 1.0000000180025095e-35 0.03291666666666667 28.178571428571431 0.75000000000000011 5.0357142857142865 0.055543762323927055 1.0000000180025095e-35
decision_type=10 10 10 10 8 10 8 8 10 10 8 8 10 10 10 10 8 10 10 10 8 8 10 8 10 10 10 10 10 8 8 10 10 10 10 10 8 10 10 8 10 8 10 10 10 10 8 8 10 10 10 8 10 8 10 10 10 8 10 10 8 10
left_child=2 3 5 6 10 8 12 9 11 22 28 29 48 -6 20 -12 -9 24 -10 32 26 -22 -8 58 -3 27 46 53 -4 30 36 38 -18 -14 52 39 40 59 -21 -23 -1 50 43 49 56 -38 -13 54 -2 51 60 -31 -28 -15 -29 -48 -45 -51 -5 -20 -16 -49
right_child=1 17 4 23 13 -7 7 16 18 -11 15 14 33 25 41 -17 19 -19 37 31 21 35 -24 -25 -26 -27 34 47 -30 42 -32 -33 -34 -35 -36 -37 45 -39 -40 -41 -42 -43 -44 44 -46 -47 55 61 -50 57 -52 -53 -54 -55 -56 -57 -58 -59 -60 -61 -62 -63
leaf_value=-0.4850984028219098 1.2253753307483581 4.0813265921008579 1.5366449820282078 0.017584764433590784 0.68468264272417001 1.7450783985890634 0.62969977853215131 2.5434241701575866 -0.20209359556839965 8.1535957290384822 0.89511110026305252 -0.023821336269818527 -0.057246289782246773 -0.12772158408050358 -0.62337971626453537 -0.089520619292501311 0.57220018946414053 2.5255583228529459 0.38844256516909925 1.6324881258115795 0.51872106841670484 -0.48983695592408888 3.0121282895296022 0.78635536500527159 3.3136115922328218 -0.53959214093688079 0.29727031822668393 -0.15199605381094716 1.090961939907815 -0.66911259832392855 -0.078202372694909053 1.9158324772235085 1.2014508607567416 0.44285944330070159 -0.13195277217039042 -0.66568574777735945 -0.5969566153897824 0.95027710420735989 1.1481469257178478 -0.30721882973618114 -0.12461577697481213 -0.47575170178331927 -0.25990839715039921 -0.41742273140774111 -0.59400326760646671 -0.39997212049561709 -0.46905702847604885 -0.16163446271681264 1.5365616689567432 -0.59645066930281776 -0.51362827320537263 -0.53851291299410253 0.13153900658060247 0.12682385013299086 -0.33449026600789677 -0.2547356073153858 -0.52704314637021255 -0.498047477143718 -0.24306119217240971 0.61274260660639934 -0.70719188640716424 -0.046970698044251601
leaf_weight=0.14285700023174286 0.14285700023174286 0.14285700023174275 0.28571400046348572 0.42857100069522858 0.28571400046348561 0.14285700023174364 0.014286000281572453 0.14285700023174275 0.14285700023174364 0.010986000299453735 0.2857140004634855 0.14285700023174286 0.14285700023174286 0.071428999304771423 0.6761850044131279 0.28571499884128571 0.071428999304771534 0.14285700023174286 0.047614000737667084 0.42857100069522858 0.14285700023174286 0.33334299921989441 0.28571400046348572 0.14285700023174275 0.28571400046348572 0.36734300106763829 0.28571400046348572 0.14285700023174286 0.28571400046348572 2.6133709866553563 0.15647100657224666 0.28571400046348572 0.14285700023174286 0.14285700023174286 0.17857100069522858 0.14285799860954274 0.85714200139045649 0.14285700023174286 0.057142999023199081 2.3843420147895835 0.14285700023174286 0.56044299900531758 0.071428999304771312 0.42565700411796581 1.4142850339412689 0.28571400046348572 0.059514001011848228 0.42857100069522835 0.14285700023174286 0.78571401536464691 0.28571400046348561 0.28571400046348561 0.32142800092697144 0.42857100069522891 0.42857100069522858 0.28571400046348572 0.28571400046348572 0.2857140004634855 0.028571000322699547 0.14285700023174286 0.38095699995756127 0.14285700023174286
leaf_count=6691 1604 2101 3171 3535 1541 9 16543 445 17058 106 4708 717 49 1772 2838 8 26845 2 1147 4014 4362 3901 3493 3595 66 2155 2030 577 4 29643 4092 11 720 1 295 2831 7660 2 50 94772 885 2903 734 26302 1625 183 2967 2336 443 11386 1126 34652 445 5558 152 861 1270 7868 39 24 2413 620
internal_value=0 1.66566 -0.289173 1.30611 0.227553 -0.411278 1.63965 1.97815 -0.432657 3.08431 0.858299 -0.462725 0.786888 -0.086419 -0.327086 0.402794 1.67334 3.30853 0.447123 1.54724 -0.214449 -0.305252 2.89868 0.188214 3.56952 -0.196017 -0.000351988 -0.119194 1.3138 -0.570857 -0.457586 1.70155 0.9917 0.192807 0.131921 -0.346402 -0.49914 0.725362 1.57551 -0.329618 -0.304857 -0.58021 -0.599967 -0.603952 -0.549643 -0.54771 -0.213283 -0.210918 1.38097 -0.633026 -0.623805 -0.656242 0.20953 0.09046 -0.288867 -0.291683 -0.461451 -0.57021 0.00129461 0.556672 -0.653583 -0.132969
internal_weight=0 3.18241 17.9909 2.61098 3.43877 14.5522 2.01099 1.43956 14.4093 0.310986 1.14286 13.9331 0.571428 2.29591 6.1805 0.571429 1.12857 0.571428 0.476185 0.985714 4.2772 3.0034 0.3 0.599999 0.428571 2.0102 1.2738 1.64286 0.571428 7.75264 1.58504 0.771428 0.214286 0.285714 0.785713 2.86054 1.42857 0.333328 0.485714 2.71769 0.285714 1.9033 6.1676 6.09617 2.12566 1.14286 0.488085 1.14286 0.285714 3.97051 1.34286 2.89908 0.607142 0.5 0.571428 0.345228 0.711371 1.07143 0.457142 0.190471 1.05714 0.571428
internal_count=359956 63662 296294 61493 22602 273692 54324 52227 273683 20142 7891 255452 2097 14711 122461 4716 32085 2169 18231 31640 113181 105866 20036 7169 2167 13170 7315 11015 3175 132991 19511 4075 27565 50 2770 101504 15419 1173 4064 98673 7576 9280 113480 112746 29197 7843 4545 3685 2047 83549 6377 64295 2475 7330 729 3828 27572 19254 3574 1171 5251 2956
is_linear=0
shrinkage=0.02


Tree=10
num_leaves=48
num_cat=0
split_feature=30 31 24 0 16 24 150 109 98 163 144 14 150 34 144 160 16 31 47 24 150 144 15 150 159 150 0 63 6 69 160 160 0 160 150 98 0 98 144 159 0 16 6 18 6 15 16
split_gain=8726.67 3933.57 3870.53 2985.6 2567.68 4813.99 1540.01 1788.87 6625.09 1420.75 1191.2 1005.09 3022.68 952.243 884.664 877.375 779.743 757.134 746.179 708.608 423.434 420.952 378.543 348.938 288.904 239.728 196.781 174.948 164.591 158.436 155.599 122.853 94.0868 82.4761 77.082 62.9013 47.7431 42.2026 35.5088 33.6442 20.0522 17.0493 15.7452 9.37489 7.46405 6.66722 1.92523
threshold=76.875000000000014 0.17857142857142858 0.61250000000000016 1.0000000180025095e-35 0.6428571428571429 0.25971428571428573 354.50000000000006 -1.0000000180025095e-35 0.12605932203389833 1.0000000180025095e-35 2.5000000000000004 0.80315656565656579 88.500000000000014 0.32142857142857145 28.500000000000004 0.66627450980392167 16.928571428571434 3.1071428571428581 0.10714285714285715 0.25971428571428573 219.50000000000003 1.0000000180025095e-35 120.00000000000001 51.500000000000007 170.50000000000003 3.5000000000000004 1.0000000180025095e-35 0.03392857142857144 1.0000000180025095e-35 0.46977272727272734 0.13339598997493737 0.17949544278902965 1.0000000180025095e-35 0.058910289779628679 980.50000000000011 0.48333333333333339 1.0000000180025095e-35 0.23669467787114848 6.5000000000000009 418.50000000000006 1.0000000180025095e-35 7.3571428571428585 0.062753550000000019 0.075000000000000025 0.013839300000000001 118.0861004380008 61.285714285714285
decision_type=10 8 10 2 8 10 8 10 10 8 8 8 10 8 8 10 10 8 10 10 8 10 10 10 10 10 2 8 8 8 10 8 2 10 10 10 2 10 10 8 2 10 10 10 10 8 10
left_child=1 3 4 16 5 9 7 10 20 32 11 23 18 -4 45 39 28 19 -13 36 21 25 27 41 33 -9 -15 46 -1 -26 34 -23 -3 -19 37 38 -12 -29 -32 42 -36 -6 43 -11 -25 -2 -8
right_child=14 2 13 -5 6 -7 22 8 -10 15 17 12 -14 26 -16 -17 -18 24 -20 -21 -22 31 -24 44 29 -27 -28 30 -30 -31 35 -33 -34 -35 40 -37 -38 -39 -40 -41 -42 -43 -44 -45 -46 -47 -48
leaf_value=0.50834665505924304 1.8775158076518577 0.87720887024691852 0.55324435632484836 3.9997000762805826 0.17520945371968702 2.9518857290795926 -0.038880792275723039 -0.47539643543304322 3.2473392482359555 -0.64319051742553612 -0.35804400103242962 -0.38077779539863438 3.8589011640075883 2.4925559324211997 3.421608049617626 1.1774218488821884 1.5059120717064807 -0.2249361036264948 0.84761530623175774 1.6326252452416816 1.0613164053588915 -0.57414784417000631 1.1251840072306041 -0.69293122704441057 -0.28636116724772365 0.42209207976116697 1.5834448982895586 -0.46154085830927521 -0.45170948780380893 0.13047414828751808 -0.40558319688947159 -0.15258246628969846 1.5058304943240048 -0.47854740542431068 0.38067370685546897 -1.0046743982014694 0.16171113900313136 -0.15246022910206752 -0.59835346781581422 -0.22697222720293872 -0.093249206657660053 -0.011894294518722663 -0.37196062030436672 -0.4479316267150894 -0.53130010719756871 1.7101767638600229 0.15535729898421405
leaf_weight=0.14285700023174286 0.28571400046348572 0.28571400046348572 0.42857100069522858 0.14285700023174286 0.42857098579406716 0.28571400046348561 0.023814000189304352 0.14285700023174319 0.28571400046348561 0.49999999999999978 0.13994300365447998 0.36734300106763873 0.10714299976825714 0.14285700023174186 0.20408600196242233 0.14285700023174286 0.28571400046348572 0.5714289993047873 0.42857100069522858 0.14285700023174286 0.14285700023174275 0.44047100096940961 0.05714299902319897 0.19047099351882935 1.1428570151329038 0.71428500115871429 0.28571400046348572 1.0076570026576508 0.14285700023174286 0.53571400046348561 0.42857100069522891 0.74285600148141395 0.14285700023174286 5.0095550063997507 0.047614000737666973 0.14285700023174275 0.14285700023174286 0.21428599953651417 3.5342550277709961 0.14285700023174286 0.14285700023174286 0.35714299976825714 0.14285700023174286 0.12244299799203873 0.28571400046348572 0.14285700023174286 0.14285700023174286
leaf_count=6214 26 403 31 9436 3043 2539 7671 7954 1251 10058 10375 14275 2179 276 36 3984 1 27961 1258 67 1320 2736 5 884 480 12403 10 86196 6067 3129 10434 7236 368 76846 529 759 13071 14898 9677 3141 463 114 248 10 5 32 7
internal_value=0 -0.0455702 -0.0959623 1.41363 -0.152848 0.575168 -0.224005 -0.0979223 0.383455 0.116214 -0.218584 0.195801 0.705206 1.21986 2.33783 -0.27954 0.767115 -0.335318 0.280668 0.484493 0.0086815 -0.0650154 -0.494514 -0.168747 -0.383387 0.272511 1.88648 -0.510795 0.0283186 -0.153329 -0.530078 -0.309502 1.08675 -0.452581 -0.349006 -0.592369 -0.0954886 -0.407339 -0.577506 -0.508726 0.0252222 0.0901622 -0.56132 -0.60478 -0.595952 1.82174 0.127605
internal_weight=0 21.3978 20.6836 0.714285 19.8264 1.7653 18.0611 12.3192 2.46904 1.47958 9.85017 2.16496 0.903057 0.857142 0.632657 1.05101 0.571428 7.68521 0.795914 0.425657 2.18333 2.04047 5.74191 1.2619 7.25956 0.857142 0.428571 5.68477 0.285714 1.67857 5.5181 1.18333 0.428571 5.58098 1.41241 4.10568 0.2828 1.22194 3.96283 0.908157 0.190471 0.785714 0.7653 0.622443 0.476185 0.428571 0.166671
internal_count=360106 360012 338294 21718 337977 20751 317226 186587 32900 18212 153687 21758 17712 317 94 17441 12282 131929 15533 23513 31649 30329 130639 4046 108416 20357 286 130634 12281 3609 122956 9972 771 104807 102086 20870 23446 101094 20111 13457 992 3157 10316 10068 889 58 7678
is_linear=0
shrinkage=0.02


Tree=11
num_leaves=63
num_cat=0
split_feature=136 13 142 136 156 146 152 68 146 46 151 3 3 136 13 156 3 146 3 32 136 4 3 142 99 3 0 136 166 7 136 142 32 93 142 152 142 7 113 146 3 146 3 142 46 0 3 166 3 7 136 3 3 32 3 166 93 0 166 0 142 3
split_gain=23539.1 5199.09 3420.25 2540.38 2788.68 2424.82 2059.46 1790.13 1326.38 1645.44 992.965 739.455 656.583 611.639 551.644 457.748 872.905 423.996 409.5 302.572 220.32 186.151 173.833 155.895 145.292 115.279 113.762 108.62 132.237 82.2696 77.1622 74.8464 69.2166 48.9346 47.0905 45.776 43.0814 42.1326 40.4287 38.8048 30.9113 30.5988 29.9414 23.9038 22.9076 22.2511 17.3803 17.2692 13.9259 12.4734 11.3921 9.6481 9.64784 9.21455 7.22217 6.99941 5.93807 4.97739 3.52291 2.8268 2.50653 2.11763
threshold=48.005000000000003 309.46500000000009 11.500000000000002 29.955000000000002 2.0108097345132747 0.024392998617133229 13.500000000000002 0.017403259873271435 0.022731187173143774 0.60714285714285732 2.5000000000000004 0.045357142857142867 0.017500000000000005 122.02500000000002 126.09182540872952 4.9988194444444458 0.0067857142857142873 0.016951296918959722 5.0753571428571442 1.0000000180025095e-35 20.305000000000003 -1.0000000180025095e-35 0.47607142857142865 4.5000000000000009 0.55574652777777789 1.4149999999999998 1.0000000180025095e-35 34.995000000000012 0.27639318885448921 1.7978571428571433 11.535000000000002 527.50000000000011 0.10714285714285715 0.012083333333333337 1.0000000180025095e-35 3.5000000000000004 29.500000000000004 5.6007142857142851 0.4529914529914531 0.0098603189007000266 0.060357142857142866 0.022087121492103387 0.018214285714285714 2.5000000000000004 9.3928571428571441 1.0000000180025095e-35 0.15035714285714288 0.43343881856540084 0.0025000000000000005 2.4985714285714291 7.995000000000001 16.063571428571432 0.0060714285714285722 0.32142857142857145 0.22964285714285718 0.3573504983388705 0.022916666666666672 1.0000000180025095e-35 0.5818926974664681 1.0000000180025095e-35 1.5000000000000002 0.074642857142857136
decision_type=10 10 10 8 10 8 8 8 8 10 10 8 8 10 8 10 8 10 10 10 10 10 10 8 10 10 2 10 10 10 10 8 8 8 10 8 8 10 10 8 10 10 10 10 8 2 10 10 8 10 10 10 10 8 10 8 10 2 8 2 10 10
left_child=1 3 13 15 7 -6 10 18 -8 12 61 -7 -10 34 -12 20 -17 23 25 26 30 -16 46 52 27 -5 42 28 32 39 33 -30 -19 -1 -2 51 -25 -23 44 -22 -11 -29 -14 -35 57 -40 -13 50 -41 -46 -45 -32 -9 -38 -18 -50 -43 -37 -49 -15 -57 -4
right_child=2 -3 6 4 5 11 8 17 9 40 14 22 19 59 21 16 54 24 -20 -21 29 37 -24 36 -26 -27 -28 41 31 -31 35 -33 -34 43 -36 38 53 -39 45 48 -42 56 -44 47 49 -47 -48 58 55 -51 -52 -53 -54 -55 -56 60 -58 -59 -60 -61 -62 -63
leaf_value=-0.98458086083706042 0.56380538806667568 5.5616532624808839 -0.23514832153644316 1.6759732766480557 3.781723176331242 1.4757937288013023 0.74986713171612518 -0.43617941057712933 8.0000946208782597 1.1839155954471878 0.61715014210771513 0.10722026383515669 3.1823924365683274 1.2796910473599967 2.4427048084321807 0.85966472622061463 -0.44839153932996284 -0.09138422552858394 0.097561554001365056 3.9197061762260192 -0.032263287330273206 1.5264219964088031 0.65403671712368561 0.49817972329320392 0.28558112046025619 0.98014837846072211 2.4066147608039952 0.37306022570811037 -0.2396026313183458 0.15847691622306884 -0.19697256769414581 -0.54735015851285773 -0.54819796863391934 -0.24513928911096067 0.014826712906360598 -0.35088314690776951 -0.023107023062862969 1.8399655115260012 -0.46588849804593885 -0.56590383761460861 1.5999726628984163 -0.19187159461871001 2.8928480038168369 -0.60793972544334673 -0.55539902806639407 -0.11289264148186037 -0.16295953330827737 -0.63853823910099972 -0.4464221938222066 -0.36452139054138982 -0.49855619450624938 -0.40916227659392868 -0.2239925955235173 0.15215053928368608 -0.66170185348427335 -0.094626469608952338 -0.04297963559084482 -0.038103177431378379 -0.70256021705569494 1.1538733558284389 -0.33403512607544789 -0.046530412994886174
leaf_weight=0.14285700023174286 0.071428999304770868 0.061229001730679466 0.028571000322699436 0.14285700023174286 0.10714299976825681 0.28571400046348572 0.15714300051331531 0.14285700023174075 0.010986000299453735 0.14285700023174286 0.19999999925494194 0.28571400046348583 0.28571400046348572 0.14285700023174286 0.14285700023174264 0.28571400046348572 0.081629000604153457 0.14285700023174286 0.19047100096940994 0.14285700023174286 0.14285700023174341 0.42857100069522858 0.28571400046348572 0.14285700023174275 0.14285700023174275 0.28571400046348572 0.14285700023174286 0.047614000737666973 1.8571430146694186 0.14285700023174275 0.21428599953651428 0.38095699995756138 1.8616280034184458 0.07142899930477753 0.5 0.13994300365447998 0.14285700023174286 0.28571400046348572 0.14285700023174275 0.14285700023174286 0.14285700023174286 0.42857100069522858 0.28571400046348572 0.95691399835050128 3.3071400374174131 0.14285700023174286 0.14285700023174286 1.7380849868059161 0.26529999822378125 0.14285700023174275 0.6326570026576519 0.14285700023174286 0.21428599953651428 0.74999898672103893 0.28571400046348572 0.01785700023174297 0.14285700023174286 0.023814000189304352 0.42857100069522847 0.14285700023174286 0.85714200139045715 0.14285700023174286
leaf_count=4164 10290 11 2084 997 856 1294 3206 16933 2332 1357 32 5775 5171 7943 2728 216 1797 2195 4 1143 333 574 9 21705 263 3 4431 342 12978 43 4307 2523 12027 37223 12889 4913 3900 15 2089 435 36 2706 236 11597 49559 1131 19 4030 9407 11 11072 1 4915 32443 2 13437 170 3219 5750 9267 9542 26
internal_value=0 -0.256703 1.55363 -0.275884 -0.010601 0.92225 1.92233 -0.157799 2.47368 2.70845 1.33399 0.615877 3.14174 0.461227 1.56296 -0.482126 0.0305624 -0.257174 0.869164 3.07947 -0.516305 1.78365 0.271911 0.0514558 -0.343072 1.21209 2.91142 -0.361545 -0.397656 -0.299103 -0.557724 -0.291986 -0.515641 -0.621143 0.0834494 -0.498568 0.175705 1.65184 -0.518417 -0.344943 1.39194 -0.11406 3.03762 -0.607579 -0.536525 -0.289391 0.0171603 -0.614471 -0.379755 -0.547495 -0.564405 -0.281848 -0.308867 0.124109 -0.614301 -0.356434 -0.154649 -0.305398 -0.651202 1.21678 -0.329149 -0.0779664
internal_weight=0 18.6338 3.3967 18.5726 8.12352 1.10714 2.53956 7.01638 1.31099 1.15384 1.22857 0.999999 0.868128 0.857143 1.05714 10.4491 0.653057 6.39734 0.619042 0.857142 9.79599 0.857142 0.714285 1.39286 5.00448 0.428571 0.714285 4.86163 4.24259 1.56887 8.22712 2.2381 2.00449 3.97051 0.571429 4.25661 1.03571 0.714285 3.89947 1.42601 0.285714 0.619042 0.571428 3.82766 3.61375 0.285714 0.428571 3.75623 1.28316 3.45 1.58957 0.357143 0.357143 0.892856 0.367343 1.1403 0.571428 0.163757 2.16666 0.285714 0.874999 0.171428
internal_count=360106 296346 63760 296335 122057 7953 23371 114104 17912 14706 5459 7097 13313 40389 3349 174278 2015 113100 1004 10981 172263 3317 5803 79896 33204 1000 9838 32941 29723 33197 139066 15501 14222 73836 23179 65230 58048 589 60922 33154 1393 3218 5407 69672 57702 3220 5794 32449 32821 49570 22669 4308 21848 36343 1799 32386 2876 8132 9780 17210 22979 2110
is_linear=0
shrinkage=0.02


Tree=12
num_leaves=44
num_cat=0
split_feature=28 38 143 84 153 142 158 146 14 144 153 144 34 108 20 144 46 144 153 142 14 99 46 154 14 38 142 114 14 142 14 28 151 106 142 14 76 14 14 14 14 106 14
split_gain=9564.42 3741.62 2753.33 1868.79 1972.25 5736.77 1950 3978.65 1354.67 1160.94 3588.93 1148.72 773.853 736.342 718.644 614.079 535.36 498.259 851.681 459.895 443.763 439.449 1128.87 287.285 151.445 127.752 110.334 91.5457 68.4571 63.1616 26.168 22.2004 20.8806 14.4751 22.8523 13.1062 12.9402 6.44347 1.10217 0.878598 0.497864 0.361763 0.00276831
threshold=113.21000000000002 0.47727272727272729 1.5000000000000002 0.63826380368098168 2835.6099999999997 267.50000000000006 1.0000000180025095e-35 0.047321857434020072 9.7993000000000023 2.5000000000000004 238.05500000000004 602.50000000000011 0.32142857142857145 0.032500000000000008 1.0000000180025095e-35 15.500000000000002 0.67857142857142871 14.500000000000002 365.21000000000015 74.500000000000014 7.4962500000000007 0.34017605633802822 2.2500000000000004 0.055571639966544427 -1.0000000180025095e-35 0.05486978774650008 3845.0000000000005 0.18500000000000005 -1.0000000180025095e-35 4.5000000000000009 1.0000000180025095e-35 8.5450000000000017 30.500000000000004 1.0000000180025095e-35 1.5000000000000002 5.1150000000000011 1.0000000180025095e-35 -1.0000000180025095e-35 2.9912500000000004 6.6666500000000006 1.6432000000000002 0.53571428571428581 5.2462500000000007
decision_type=10 10 8 10 10 8 8 10 10 8 10 8 8 10 8 8 8 10 10 10 10 8 8 8 10 10 10 10 10 8 8 8 10 10 10 10 8 10 8 10 10 10 10
left_child=1 3 -3 4 6 -6 7 13 19 10 16 -7 28 29 -4 35 -8 18 21 -9 23 27 -23 -18 -16 26 31 -11 -5 33 -13 -19 38 34 -1 -2 -31 -28 -27 -34 -20 -35 -32
right_child=15 2 14 12 5 11 9 8 -10 17 -12 30 -14 -15 24 -17 20 25 40 -21 -22 22 -24 -25 -26 32 37 -29 -30 36 42 -33 39 41 -36 -37 -38 -39 -40 -41 -42 -43 -44
leaf_value=-0.085944755825511102 1.521247551494622 3.8413120473609443 1.4462779370042895 0.2814431043965796 3.1187447213515118 0.84247139164184093 1.1602371927483583 2.834991081124572 -0.43942370153354787 -0.53405538464860847 3.706088613113987 -0.96488926898808136 2.3938505039808713 1.2540972451048329 -0.43270419405670163 2.6837281799429995 -0.50113877756926317 -0.31728311267448067 1.0204870589469686 1.4451853875431462 0.64095596408917699 1.5679732336730647 -0.2295725659564781 -0.021505436921941096 0.48821613416792098 -0.29999948888965866 0.36559901718809146 -0.15540110635569832 0.90060375482516219 -0.18595018593463919 -0.64846775900333653 -0.57131617206232999 -0.089556536678789794 -0.45657071873900207 -0.37985261009086757 1.7128130751621071 0.0043982416344015059 -0.037341112005557425 -0.36803704527738623 -0.15970034330968449 1.0903373349091454 -0.50158043870164692 -0.64453051125534289
leaf_weight=0.14285799860955983 0.28571400046348572 0.14285700023174186 0.28571400046348572 0.14285700023174286 0.2857140004634845 0.28571400046348572 0.14285700023174286 0.28571400046348561 0.081629000604152679 2.4067410007119183 0.10714299976825703 0.14285700023174286 0.14285700023174186 0.14285700023174275 0.14285700023174286 0.34694300219416518 0.79046999476850033 0.14285700023174286 0.14285700023174364 0.14285700023174286 0.28571400046348561 0.14285700023174286 6.4211550243198872 1.3571419864892975 0.14285700023174286 0.14285700023174286 0.047614000737666973 0.28571400046348561 0.14285700023174286 0.28571400046348572 0.28571400046348583 3.7444560322910547 0.14285700023174286 0.14285700023174286 0.40815699845552444 0.28571400046348572 0.28571400046348583 0.023814000189304352 0.28571400046348561 0.14285700023174286 0.057142999023199081 0.14285700023174286 0.095242999494075775
leaf_count=10840 9 2315 228 238 18 1222 1602 7651 109 38102 949 428 1318 780 8309 31 8608 11 1883 141 189 20173 180813 14391 11837 710 952 1338 30 10 2172 12612 304 2042 13210 31 12965 67 651 5 13 792 7
internal_value=0 -0.0649452 1.35788 -0.114769 -0.142814 0.682288 -0.190693 0.389901 1.92196 -0.261873 0.119493 -0.177633 1.19197 -0.114062 0.737017 2.02001 -0.029673 -0.334298 -0.250809 2.37172 -0.0995309 -0.278709 -0.190451 -0.198044 0.027756 -0.503249 -0.547668 -0.493874 0.591023 -0.252861 -0.734048 -0.561981 -0.257066 -0.363554 -0.303653 1.61703 -0.090776 0.231259 -0.345358 -0.124628 1.04044 -0.479076 -0.647483
internal_weight=0 21.1121 0.714285 20.3978 19.9693 1.09524 18.874 2.06121 0.5102 16.8128 2.68333 0.809528 0.428571 1.55101 0.571428 0.918371 2.57618 14.1295 9.45647 0.428571 2.43333 9.25647 6.56401 2.14761 0.285714 4.67303 3.95874 2.69246 0.285714 1.40816 0.523814 3.88731 0.714285 0.836729 0.551015 0.571428 0.571428 0.071428 0.428571 0.285714 0.2 0.285714 0.380957
internal_count=360106 360035 22689 337346 335760 3847 331913 48540 7901 283373 25739 3829 1586 40639 20374 71 24790 257634 242322 7792 23188 240426 200986 22999 20146 15312 13642 39440 268 39859 2607 12623 1670 26884 24050 40 12975 1019 1361 309 1896 2834 2179
is_linear=0
shrinkage=0.02


Tree=13
num_leaves=63
num_cat=0
split_feature=141 15 148 24 141 156 146 38 155 141 141 16 16 12 155 146 4 141 47 31 141 5 96 5 158 148 17 141 26 155 155 24 107 4 0 148 158 148 146 141 107 141 146 141 4 37 165 24 16 31 0 5 155 12 0 146 4 4 4 0 16 107
split_gain=21799 4891.85 4128.71 2375.93 2355.35 2576.3 2235.51 1974.31 1438.58 989.881 1000.47 680.856 644.86 579.046 481.282 336.65 261.255 242.168 285.551 190.883 175.317 159.455 119.387 105.882 81.5692 78.6237 76.6205 76.0567 71.6677 54.7756 50.7763 49.98 45.2479 44.4996 40.6701 40.0359 39.1354 36.4803 23.6255 22.4725 21.0551 35.959 17.0742 16.9601 16.3453 12.912 11.8999 11.5908 9.4813 9.0344 6.83513 6.64858 4.64565 4.28243 3.621 3.14299 3.08589 2.4648 2.3083 2.18859 2.16023 1.84253
threshold=48.005000000000003 309.46500000000009 4.3993060039648819 0.81500000000000006 29.955000000000002 2.0108097345132747 0.024392998617133229 0.010800546912563018 0.03844464294634279 2201.9850000000001 78.960000000000022 17.357142857142858 0.2142857142857143 1.0000000180025095e-35 0.033362624487404811 0.022087121492103387 0.96428571428571441 99.50500000000001 0.17857142857142858 0.10714285714285715 25.945000000000004 10.712857150000001 1.0000000180025095e-35 29.392142850000003 1.5000000000000002 1.1757124400147656 0.92857142857142871 11.535000000000002 0.6398197209316564 0.0074129025167600842 0.086559274059274063 0.21960526315789478 0.17857142857142858 -1.0000000180025095e-35 1.0000000180025095e-35 1.0001926384588919 24.500000000000004 0.78866534513898079 0.32802329564919497 38.085000000000008 0.10714285714285715 13.985000000000001 0.020837012834098674 22.355000000000004 0.25000000000000006 -0.21714285714285717 1.5000000000000002 0.10708333333333332 78.857142857142875 6.2500000000000009 1.0000000180025095e-35 5.0171428500000017 0.062466648879402356 0.054983660130719009 1.0000000180025095e-35 0.083370702541106137 0.17857142857142858 0.32142857142857145 3.1071428571428581 1.0000000180025095e-35 2.3571428571428572 1.0000000180025095e-35
decision_type=10 10 10 8 8 10 8 8 10 10 8 8 8 8 10 8 10 10 8 8 10 10 8 10 8 10 10 10 10 8 10 10 8 8 2 10 8 10 10 8 10 10 10 10 10 10 10 8 8 8 2 10 8 8 2 10 10 10 10 2 10 10
left_child=1 4 3 8 12 7 -7 23 9 10 33 -8 13 -1 15 29 22 18 -5 -17 27 44 -4 57 -20 36 47 32 31 58 37 -12 -14 -2 -19 52 -21 40 45 -27 43 -42 49 -29 61 46 -34 59 -47 -31 -15 -37 -16 -32 -40 -39 -26 -6 -9 -22 -33 -13
right_child=2 -3 16 17 5 6 11 14 -10 -11 28 21 20 50 35 19 -18 34 24 25 26 -23 -24 -25 56 39 -28 30 -30 42 53 60 38 -35 -36 51 -38 55 54 -41 41 -43 -44 -45 -46 48 -48 -49 -50 -51 -52 -53 -54 -55 -56 -57 -58 -59 -60 -61 -62 -63
leaf_value=0.82562199051191176 2.3459735259447267 5.39674575285341 3.0563699337360988 1.1370324996289154 0.88259164234458842 3.6319668550932325 1.4173524129779835 -0.23921541302592952 -0.070910379494118089 7.8446846015906679 1.1162853520970191 0.054716731697633796 -0.94559147826773826 -0.3498702395156903 -0.5779206555069647 0.4784517821113643 2.3048080566844154 1.2290153375868058 0.016037313193082787 -0.39837338377121279 -0.43928702819691123 0.62813683279108479 3.764485646196257 1.6081975589578701 0.56697919526513918 -0.18721714293284056 -0.057707700030245779 -0.49534685840184489 1.7592008320459027 -0.022214772528257206 -0.5506067362305983 1.4162817599010058 -0.44533259983781892 2.7782911954151039 0.75178057386425279 -0.47053872344427561 -0.24271610048904399 -0.3109374337316741 -0.43063522750287753 0.015020277700670881 -0.46577152262169003 -0.096120437530226574 0.29130079495017708 -0.28184505922579528 -0.15650632509475512 -0.57952800435388474 -0.63374303838608914 -0.33018615785945193 -0.46709246538870225 0.15132107197906383 -0.54551469906396544 -0.33274095853632901 -0.66524779761109643 -0.63549842385045086 -0.23564505324793419 -0.18982878886602525 0.41518581833615353 1.0000773591575414 -0.45192382675732939 -0.54999434545071257 1.5060863526828894 0.15629518854286611
leaf_weight=0.28571400046348572 0.14285700023174286 0.061229001730679466 0.28571400046348572 0.14285700023174286 0.14285700023174286 0.10714299976825681 0.28571400046348572 0.035714000463485718 0.17142800055444229 0.010986000299453624 0.19999999925494194 0.14285700023174297 0.14285700023174286 0.14285700023174286 0.6761850044131279 0.14285700023174286 0.14285700023174286 0.14285700023174286 0.49999999999999978 1.3511859998106968 0.14285700023174286 0.28571400046348572 0.14285700023174275 0.14285700023174286 0.085714999586343765 0.57142800092697132 0.42857100069522858 2.0123840048909201 0.28571400046348572 0.14285700023174286 1.4142850339412687 0.14285700023174286 0.14285700023174941 0.28571400046348538 0.14285700023174286 0.27472899854183186 1.2381000146269796 0.14285700023174275 0.081629000604152568 0.35714299976825714 0.28571400046348561 0.16667100042104721 0.3333280012011528 0.16071400046348561 0.14285700023174286 0.99999900162220001 2.1847999859601259 0.42857100069522924 0.42857100069522835 0.74999898672103682 0.14285700023174286 0.28571400046348572 0.38095699995756127 0.28571400046348561 0.071428999304771423 0.21428599953651428 0.14285700023174286 0.14285700023174286 0.047614000737667084 0.14285700023174286 0.42857100069522858 0.14285700023174286
leaf_count=4385 3 10 331 3328 286 856 675 1193 103 81 3016 4931 9292 133 3185 3143 3 14594 5690 57288 77 5 1835 1 16391 432 14 62440 40 1289 622 908 31177 2124 15064 3980 29900 3165 456 3256 779 2552 609 11646 12 296 17130 11185 14225 7088 65 3 2446 2465 465 1374 23 2 3 335 226 1475
internal_value=0 -0.247075 1.49506 1.18147 -0.265682 -0.010242 0.886382 -0.151724 1.66452 1.8633 1.81907 0.592212 -0.464271 0.188965 -0.237294 -0.139771 3.04551 0.485103 0.319432 -0.238219 -0.502061 0.262156 3.29241 1.16362 0.159119 -0.267322 -0.26912 -0.532539 1.48861 0.135436 -0.477639 1.3884 -0.595981 2.63419 0.990398 -0.536943 -0.323944 -0.427918 -0.583205 -0.109433 -0.453716 -0.329582 0.169156 -0.479557 0.0181685 -0.59313 -0.62218 -0.395968 -0.545797 0.123555 -0.447692 -0.400289 -0.60939 -0.564874 -0.339637 -0.238272 0.472109 0.941335 -0.360758 -0.494641 1.48364 0.105506
internal_weight=0 18.6338 3.3967 2.82527 18.5726 8.12352 1.10714 7.01638 1.66813 1.4967 1.48571 0.999999 10.4491 0.571428 6.58781 4.97023 0.571428 1.15714 0.871429 3.66071 9.87762 0.714285 0.428571 0.428571 0.728572 3.51786 1.14286 8.73477 1.05714 1.30951 4.68263 0.771428 4.05214 0.428571 0.285714 1.61759 2.58929 2.98263 3.90928 0.928571 2.62548 0.452385 1.22618 2.1731 0.428571 3.75623 2.32766 0.714285 1.42857 0.892856 0.285714 0.560443 1.05714 1.7 0.153058 0.357143 0.228572 0.285714 0.083328 0.285714 0.571428 0.285714
internal_count=360106 296346 63760 61591 296336 122058 7954 114104 6501 6398 6317 7098 174278 4583 113815 104201 2169 55090 25432 94019 169695 6423 2166 289 22104 90876 11611 158084 4190 10182 85043 4150 73041 2127 29658 9614 87188 81956 63749 3688 77417 3331 8986 74086 6418 62828 48307 11597 14521 8377 198 3983 5631 3087 921 4539 16414 288 1196 412 1134 6406
is_linear=0
shrinkage=0.02


Tree=14
num_leaves=63
num_cat=0
split_feature=28 148 1 156 19 148 1 151 0 40 163 156 62 107 69 1 151 1 1 35 1 163 163 159 1 151 159 151 95 163 0 164 1 0 69 17 167 17 106 0 0 164 1 0 156 148 163 0 12 1 1 0 1 95 159 19 1 1 151 1 0 0
split_gain=8821.04 4679.74 5614.2 4278.02 2282.43 2252.95 1811.14 3037.2 1642.5 1352.63 992.824 663.777 1324.17 858.64 598.217 576.825 566.727 401.379 418.369 352.121 320.171 303.998 266.181 187.448 174.899 147.631 139.787 214.714 114.66 96.4254 79.7769 76.485 80.4162 74.1011 57.5174 54.3224 53.0574 47.1786 42.007 39.815 39.0596 34.5281 27.468 24.9924 24.1679 33.3353 30.0316 19.0902 16.9013 15.7053 12.1153 6.86184 6.37317 5.87312 5.76481 4.97755 3.38587 3.03973 2.59516 1.42077 1.13585 0.182233
threshold=113.21000000000002 1.3350573770491805 0.3928571428571429 20.485000000000003 -0.92857142857142849 1.4551808015649625 0.32142857142857145 1.0000000180025095e-35 1.0000000180025095e-35 12.890000000000002 0.49267629211132041 1.8782012168622348 0.17857142857142858 0.10714285714285715 0.70150000000000012 1.0000000180025095e-35 15.500000000000002 0.10714285714285715 1.0000000180025095e-35 5.2282143000000021 66.857142857142875 0.16794871794871799 0.97500000000000009 267.50000000000006 2.6071428571428577 223.50000000000003 59.500000000000007 1.5000000000000002 1.0000000180025095e-35 0.05634920634920635 1.0000000180025095e-35 1.0000000180025095e-35 0.75000000000000011 1.0000000180025095e-35 0.35014705882352953 0.2142857142857143 3.5000000000000004 0.2142857142857143 0.17857142857142858 1.0000000180025095e-35 1.0000000180025095e-35 1.0000000180025095e-35 3.3214285714285716 1.0000000180025095e-35 0.81191222924187734 0.79746653543307089 0.50352112676056349 1.0000000180025095e-35 0.43930000000000008 17.607142857142861 2396.3928571428573 1.0000000180025095e-35 1.3214285714285718 1.0000000180025095e-35 138.50000000000003 0.50000000000000011 600.857142857143 23.214285714285719 1.5000000000000002 11.035714285714288 1.0000000180025095e-35 1.0000000180025095e-35
decision_type=10 10 10 8 8 8 8 10 2 8 10 8 8 10 10 10 8 8 10 8 10 8 10 10 10 10 8 8 8 10 2 8 10 2 8 8 10 8 10 2 2 10 10 2 10 8 8 2 10 10 10 2 10 8 10 8 10 10 8 10 2 2
left_child=1 4 3 5 -1 -3 7 17 -9 10 19 14 20 22 21 47 50 18 -6 34 42 23 31 37 29 35 27 -15 -5 -25 -17 38 -33 -20 55 52 44 59 -14 -12 -29 51 -13 -28 46 -46 -23 53 58 -26 56 -19 -11 -7 -39 -4 -2 -36 -37 -8 -38 -43
right_child=16 2 9 28 6 15 11 8 -10 25 39 12 13 26 -16 30 -18 41 33 -21 -22 36 -24 24 49 -27 43 40 -30 -31 -32 32 -34 -35 57 48 60 54 -40 -41 -42 61 -44 -45 45 -47 -48 -49 -50 -51 -52 -53 -54 -55 -56 -57 -58 -59 -60 -61 -62 -63
leaf_value=2.2990541141722285 1.7137321224816353 3.5593276390442554 -0.28086209919691951 2.9952424389309096 -0.53460439173123231 -0.039312425165362173 -0.32936709011718551 2.7227253821879622 -0.66806329128975084 -0.34287280935761433 1.389005273928539 1.1142918362848835 -0.27919798197712192 0.020958300593586714 0.86493981884370952 0.80910951331760295 2.5775373235284622 -0.4125405754319017 0.46888276182330879 0.68734612597004396 0.150772176112767 -0.4281005661236823 0.16606593281881987 -0.57780681630181818 0.10366146607344905 -0.72408551981642433 0.26998824133294885 1.2044350441865244 3.6891959973593358 0.025923374856270755 1.3879561166921133 -0.44523036539320404 -0.232364661824079 1.1130616333354848 0.16105299577937487 -0.039590147920547311 -0.18386632441049305 -0.56075089021952917 0.0039895304262420181 0.98007581330953586 0.73674496772754927 -0.63550363091741457 1.5064920588577873 -0.10412092828902819 -0.25489128526622135 -0.50388233150757433 -0.56597122184490767 0.15316929612074445 -0.42202252470527435 0.34275851256877571 1.4607008449279706 -0.20850714996425734 -0.50648005506640037 -0.22066700316502316 -0.44719565022392521 -0.13627395764522401 1.5760335063076643 0.051893748778812927 -0.14045163482272854 -0.25826470628731313 -0.034671880675575417 -0.60355827507978899
leaf_weight=0.14285700023174286 0.14285700023174286 0.10714299976825714 0.28571400046348572 0.28571400046348572 0.14285700023174286 0.14285700023174286 0.13994300365447998 0.28571400046348572 0.071428999304771423 0.14285700023174286 0.28571400046348561 0.14285700023174286 0.78571499884129881 0.14285700023174286 0.14285700023174364 0.28571400046348572 0.34694300219416518 0.1224429979920385 0.14285700023174286 0.34285699948668458 0.14285700023174286 0.74999900162220001 0.42857098579406727 0.23809999972581852 0.17857100069522858 0.42857100069522847 0.14285700023174286 0.14285700023174275 0.14285700023174175 0.19047100096940994 0.14285700023174286 2.9745990000665192 0.93241300247609604 0.14285700023174286 0.14285700023174286 0.14285700023174286 0.14285700023174275 0.34694300219416641 0.28571400046348572 0.14285700023174286 0.14285700023174286 0.14285700023174286 0.14285700023174286 0.14285700023174286 0.28571400046348572 0.86997099965810754 4.0156260263174737 0.14285700023174286 0.081629000604152679 0.28571400046348572 0.28571400046348572 0.14285700023174286 0.28571400046348572 0.14285700023174286 0.36904300004243851 0.14285700023174286 0.14285700023174286 0.35714299976825714 0.35714299976825736 0.57142901420593262 0.023814000189304352 0.14285700023174286
leaf_count=16 38 1377 35 1067 216 1498 309 2708 1985 580 81 20234 31865 721 68 1039 30 5095 6259 16 14 3218 2977 1858 77 24 2154 2836 5567 955 640 181620 9289 6814 1531 111 484 4540 2583 97 3748 3665 79 2796 2601 4403 11092 6981 71 41 1 8034 157 6872 2369 23 2 32 421 4 468 3620
internal_value=0 -0.0623693 0.5072 1.56395 -0.218039 0.825017 -0.239914 0.465699 2.04456 0.0382567 0.420211 -0.302375 -0.150868 -0.226112 -0.418425 0.483228 1.93992 -0.109932 0.349113 0.139598 0.923852 -0.44023 -0.312206 -0.245431 -0.0181399 -0.413046 0.425601 0.654046 3.22656 -0.309489 1.00206 -0.353378 -0.39443 0.790972 -0.0626478 -0.281089 -0.51447 -0.387608 -0.203681 1.2527 0.97059 -0.466972 1.31039 0.0829337 -0.524376 -0.442326 -0.544274 -0.0356034 -0.155196 0.250798 1.55279 -0.302674 -0.451944 -0.12999 -0.502221 -0.232666 1.64488 0.0830821 -0.111634 -0.272252 -0.162549 -0.619531
internal_weight=0 21.1121 4.53163 1.39286 16.5805 0.964285 16.4376 1.33673 0.357143 3.13877 1.7 15.1009 6.54987 6.1213 8.55105 0.857142 0.918371 0.979585 0.428571 1.27143 0.428571 8.4082 5.40701 2.32021 0.892856 1.43877 0.714285 0.428571 0.428571 0.428571 0.428571 4.97844 3.90701 0.285714 0.928571 1.0102 6.08798 1.42736 1.07143 0.428571 0.285714 0.551014 0.285714 0.285714 5.92131 1.15569 4.76563 0.428571 0.581629 0.464285 0.571428 0.2653 0.428571 0.285714 0.715986 0.428571 0.285714 0.5 0.5 0.711372 0.166671 0.285714
internal_count=360106 360035 28220 25041 331815 18407 331799 38396 4693 3179 1815 293403 260916 240589 32487 17030 71 33703 13289 1637 20327 32419 228334 10153 2931 1364 12255 7305 6634 2813 1679 225357 190909 13073 1621 1340 22266 7222 34448 178 6584 20414 20313 4950 21314 7004 14310 15351 603 118 41 13129 737 8370 6909 58 40 1563 532 313 952 7285
is_linear=0
shrinkage=0.02


Tree=15
num_leaves=63
num_cat=0
split_feature=141 13 165 141 154 154 38 1 1 169 38 1 24 11 13 141 1 165 155 24 14 1 32 142 4 141 1 142 141 154 11 141 142 142 36 34 50 161 152 1 154 141 1 1 24 167 1 1 141 141 141 1 141 1 1 1 1 141 107 154 107 1
split_gain=20116.8 4602.92 3676.9 2180.66 2531.84 1909.98 1482.05 1423.41 1265.97 1102.78 824.414 715.879 546.556 468.959 468.754 433.786 412.873 323.997 262.379 238.512 197.397 193.595 189.131 173.431 161.255 160.061 148.175 90.6418 77.6909 75.6378 70.5578 50.0616 49.9782 42.3501 38.935 36.5342 34.3707 33.5026 25.7292 25.4731 25.2153 19.1141 18.513 14.8699 12.7612 12.1508 11.9052 7.81123 4.63979 4.27087 9.18373 4.08064 4.01801 2.40971 2.27345 2.15863 2.10344 2.05155 1.69829 1.68501 11.4288 1.43186
threshold=48.005000000000003 309.46500000000009 13.500000000000002 29.955000000000002 0.014709372120941399 0.060452338359315114 0.47727272727272729 3.8214285714285716 3.3214285714285716 inf 0.01031992843145608 0.10714285714285715 0.81500000000000006 39.783141957364343 141.97699969997004 122.02500000000002 1.0000000180025095e-35 8.5000000000000018 0.018879062618342213 0.19750000000000004 -0.82552741466957136 0.10714285714285715 1.0000000180025095e-35 27.500000000000004 -1.0000000180025095e-35 25.945000000000004 600.857142857143 61.500000000000007 11.535000000000002 0.031261918382913818 16.172477407550044 36.705000000000005 1484.5000000000002 1750.5000000000002 0.090560700000000008 1.0000000180025095e-35 1.0000000180025095e-35 1.5000000000000002 3.5000000000000004 0.25000000000000006 0.045444008934968604 14.995000000000003 1079.5000000000002 18.178571428571434 0.10708333333333332 1.5000000000000002 1.4642857142857146 2396.3928571428573 10.115 22.745000000000001 19.995000000000001 10.607142857142859 4.745000000000001 3.3214285714285716 600.857142857143 1687.8571428571433 11.25 8.8650000000000002 1.0000000180025095e-35 0.075997985857562747 0.10714285714285715 1.0000000180025095e-35
decision_type=10 10 10 8 8 8 10 10 10 8 8 8 8 10 10 10 10 8 10 10 10 8 10 10 10 10 10 10 10 8 10 10 8 8 10 8 8 8 8 10 10 10 10 8 8 8 10 10 10 8 8 10 10 10 10 10 10 10 10 10 10 10
left_child=1 3 7 11 8 12 10 15 -5 26 54 16 19 55 18 17 -1 59 20 -4 31 -8 39 58 -21 28 53 -22 33 -25 35 -12 37 40 -26 -27 -19 38 47 -11 45 -40 -14 -34 56 52 48 -30 -42 50 -45 -48 -13 -7 -6 -10 -37 -47 -20 -2 -61 -17
right_child=2 -3 5 4 6 9 21 -9 13 22 14 25 42 -15 -16 61 -18 36 23 24 27 -23 -24 29 34 30 -28 -29 32 -31 -32 -33 43 -35 -36 44 -38 -39 41 -41 46 -43 -44 49 -46 57 51 -49 -50 -51 -52 -53 -54 -55 -56 -57 -58 -59 -60 60 -62 -63
