tree
version=v3
num_class=1
num_tree_per_iteration=1
label_index=0
max_feature_idx=169
objective=regression
feature_names=is_mobile sem_impressions_w2 sem_clicks_w2 sem_adspend_w2 sem_qty_w2 sem_gmv_revenue_adjustment_brand_w2 sem_orders_brand_w2 sem_margin_brand_w2 sem_ctr_w2 sem_cpc_w2 sem_rpc_brand_w2 sem_roas_brand_w2 sem_convrt_brand_w2 sem_ordersize_brand_w2 sem_mpc_brand_w2 sem_mpo_brand_w2 sem_impressions_w1 sem_clicks_w1 sem_adspend_w1 sem_qty_w1 sem_gmv_revenue_adjustment_brand_w1 sem_orders_brand_w1 sem_margin_brand_w1 sem_ctr_w1 sem_cpc_w1 sem_rpc_brand_w1 sem_roas_brand_w1 sem_convrt_brand_w1 sem_ordersize_brand_w1 sem_mpc_brand_w1 sem_mpo_brand_w1 sem_impressions_v2 sem_clicks_v2 sem_adspend_v2 sem_qty_v2 sem_gmv_revenue_adjustment_brand_v2 sem_orders_brand_v2 sem_margin_brand_v2 sem_ctr_v2 sem_cpc_v2 sem_rpc_brand_v2 sem_roas_brand_v2 sem_convrt_brand_v2 sem_ordersize_brand_v2 sem_mpc_brand_v2 sem_mpo_brand_v2 sem_impressions_v3 sem_clicks_v3 sem_adspend_v3 sem_qty_v3 sem_gmv_revenue_adjustment_brand_v3 sem_orders_brand_v3 sem_margin_brand_v3 sem_ctr_v3 sem_cpc_v3 sem_rpc_brand_v3 sem_roas_brand_v3 sem_convrt_brand_v3 sem_ordersize_brand_v3 sem_mpc_brand_v3 sem_mpo_brand_v3 sem_impressions_v4 sem_clicks_v4 sem_adspend_v4 sem_qty_v4 sem_gmv_revenue_adjustment_brand_v4 sem_orders_brand_v4 sem_margin_brand_v4 sem_ctr_v4 sem_cpc_v4 sem_rpc_brand_v4 sem_roas_brand_v4 sem_convrt_brand_v4 sem_ordersize_brand_v4 sem_mpc_brand_v4 sem_mpo_brand_v4 sem_impressions_v5 sem_clicks_v5 sem_adspend_v5 sem_qty_v5 sem_gmv_revenue_adjustment_brand_v5 sem_orders_brand_v5 sem_margin_brand_v5 sem_ctr_v5 sem_cpc_v5 sem_rpc_brand_v5 sem_roas_brand_v5 sem_convrt_brand_v5 sem_ordersize_brand_v5 sem_mpc_brand_v5 sem_mpo_brand_v5 sem_impressions_v9 sem_clicks_v9 sem_adspend_v9 sem_qty_v9 sem_gmv_revenue_adjustment_brand_v9 sem_orders_brand_v9 sem_margin_brand_v9 sem_ctr_v9 sem_cpc_v9 sem_rpc_brand_v9 sem_roas_brand_v9 sem_convrt_brand_v9 sem_ordersize_brand_v9 sem_mpc_brand_v9 sem_mpo_brand_v9 sem_impressions_v12 sem_clicks_v12 sem_adspend_v12 sem_qty_v12 sem_gmv_revenue_adjustment_brand_v12 sem_orders_brand_v12 sem_margin_brand_v12 sem_ctr_v12 sem_cpc_v12 sem_rpc_brand_v12 sem_roas_brand_v12 sem_convrt_brand_v12 sem_ordersize_brand_v12 sem_mpc_brand_v12 sem_mpo_brand_v12 sem_impressions_v18 sem_clicks_v18 sem_adspend_v18 sem_qty_v18 sem_gmv_revenue_adjustment_brand_v18 sem_orders_brand_v18 sem_margin_brand_v18 sem_ctr_v18 sem_cpc_v18 sem_rpc_brand_v18 sem_roas_brand_v18 sem_convrt_brand_v18 sem_ordersize_brand_v18 sem_mpc_brand_v18 sem_mpo_brand_v18 uber_curr_item_price_w1 uber_num_appr_reviews_w1 uber_avg_overall_rating_w1 uber_price_change_ratio_w1 uber_price_change_value_w1 uber_avg_margin_w1 site_total_page_views_w2 site_total_add_to_carts_w2 site_total_orders_w2 site_total_revenue_w2 site_atcpv_w2 site_convrt_w2 site_rpv_w2 site_mpv_w2 site_total_page_views_w1 site_total_add_to_carts_w1 site_total_orders_w1 site_total_revenue_w1 site_atcpv_w1 site_convrt_w1 site_rpv_w1 site_mpv_w1 bc_bounces_w2 bc_visits_w2 bc_bounce_rate_w2 bc_sem_bounces_w2 bc_sem_visits_w2 bc_sem_bounce_rate_w2 bc_bounces_w1 bc_visits_w1 bc_bounce_rate_w1 bc_sem_bounces_w1 bc_sem_visits_w1 bc_sem_bounce_rate_w1
feature_infos=[0:1] [0:3526.5] [0:50.642857142857139] [0:33.460714285714289] [-20.571428571428573:12.5] [0:302.03142860000003] [0:1] [-280.18428571428569:302.03142857142848] [0.001865671641791045:2] [0.010000000000000002:1.26] [0:2114.2199999999998] [0:54676] [0:14] [1.48:4228.4399999999996] [-1307.5266666666666:2114.2199999999998] [-1673.4982505248424:4228.4399999999996] [0:3204.4285714285716] [0:57] [0:39.291428571428568] [-4.5714285714285712:15.285714285714285] [0:604.06285700000001] [0:2] [-560.36857142857139:604.0628571428573] [0.0018726591760299626:2] [0.01:1.3899999999999999] [0:2114.2199999999998] [0:26694] [0:14] [2.96:4228.4399999999996] [-3922.5799999999999:2114.2199999999998] [-1673.4982505248424:4228.4399999999996] [0:11126.571428571433] [0:114] [0:55.597142857142856] [-20.571428571428573:10.214285714285714] [0:199.9428571] [0:0.60509999999999997] [-69.894285714285715:199.94285714285712] [0.00069613644274277764:2] [0.01:1.46] [0:1399.5999999999999] [0:54676] [0:5] [1.48:3499] [-489.25999999999999:1399.5999999999999] [-738.92999999999995:3498.9999999999995] [0:22102] [0:208] [0:185.71071428571429] [-3.1428571428571432:15.214285714285715] [0:340.1364286000001] [0:2.0747786000000001] [-74.910714285714292:184.43357142857135] [0.00078911027816137304:2] [0.01:1.46] [0:1599.99] [0:19592.25] [0:3] [2.4700000000000002:2870.37037037037] [-489.25999999999999:1599.99] [-2392.9709705372616:2870.3703703703704] [0:28695.857142857134] [0:292.35714285714283] [0:302.50999999999993] [-6.7142857142857135:22.928571428571431] [0:231.32976429999999] [0:2.5212070999999998] [-126.79428571428568:114.285] [0.0011369019422074846:2] [0.01:1.76] [0:1599.99] [0:19592.25] [0:5] [1.1200000000000001:1599.99] [-567.84000000000003:1599.99] [-4283.3522530329292:1599.99] [0:25327.785714285717] [0:414.5] [0:275.45642857142855] [-5.6428571428571423:87.285714285714306] [0:318.64999999999998] [0:2.9017786000000001] [-491.14392857142883:156.91428571428577] [0.00092843326885880078:2] [0.01:1.71] [0:405.23000000000002] [0:16791] [0:5] [1.1200000000000001:1099.895005249738] [-567.84000000000003:405.23000000000002] [-2053.4506866416973:1029.3835308234586] [0:50352.916666666657] [0:1567.916666666667] [0:819.79750000000001] [-3.25:215.58333333333329] [0:330.88055000000003] [0:1.7749999999999999] [-1276.5016666666668:223.82138333333333] [0.00056116722783389455:2] [0.010000000000000002:4.0449999999999999] [0:1379.9400000000001] [0:30051] [0:14] [0.96999999999999997:1149.795079507951] [-452.75:1379.9400000000001] [-1233.02:1029.9503999999999] [0:20023.571428571428] [0:705.42857142857133] [0:374.94357142857137] [-2.1428571428571428:99.571428571428569] [0:180.23168570000001] [0:1.4535714] [-507.63928571428568:71.893828571428571] [0.00055731005015790451:2] [0.01:1.7533333333333332] [0:736.78999999999996] [0:44936] [0:4] [2.3300000000000001:990] [-774.75:736.78999999999996] [-2963.7347893915758:990] [0:4534.7857142857147] [0:209.64285714285717] [0:50.815000000000012] [-2.3571428571428572:39.214285714285715] [0:139.7056786] [0:0.82970710000000003] [-239.26714285714286:72.102821428571431] [0.0027379257474537291:2] [0.01:3.4004102564102565] [0:694.96000000000004] [0:32488] [0:2] [4.0750000000000002:797.25] [-322.37:694.96000000000004] [-764.53000000000031:797.25] [0:39999.989999999998] [0:0] [0:5] [0.99999999999999978:1.0000000000000002] [-3.637978807091713e-12:1.8189894035458565e-12] [0:39999.989999999998] [1:327053] [1:25257] [1:480274] [0:3746614.800000058] [6.4779426054285166e-05:5] [3.7661095335296729e-05:12.415073775989267] [0:274.29599999999999] none [1:140791] [1:10698] [1:240111] [0:2094288.6500000104] [0.00014245014245014244:5] [5.156446589526226e-05:12.116431226765801] [0:711.47000000000003] none [0:85497] [1:184569] [0:1] [0:1113] [0:2499] [0:1] [0:37718] [1:79202] [0:1] [0:421] [0:1022] [0:1]
tree_sizes=6755 4627 6921 3895 5008 6988 6903 4972 6933 6952 6950 6968 5014 6966 5628 6932 6961 6969 6190 6984 7009 7001 4505 6973 7023 7006 7027 7015 6971 5566 6925 6894 6944 5772 6949 6985 6991 6947 6995 6937 5103 6943 4771 5737 7020 7005 6930 6993 6999 6963 6975 6949

Tree=0
num_leaves=63
num_cat=0
split_feature=136 48 99 136 136 1 23 38 98 160 19 69 5 165 165 1 143 160 136 98 136 5 160 23 93 35 136 143 23 143 136 1 1 38 165 1 23 161 1 165 80 1 1 93 136 136 19 1 1 1 47 38 35 1 136 106 1 1 1 5 93 13
split_gain=38603.1 17046.8 8936.32 7833.41 4112.64 3042.92 2569.4 2796.26 2431.66 2035.66 1305.16 947.791 736.548 465.46 1418.41 3039.62 430.929 241.342 205.656 190.622 185.684 164.419 132.765 123.131 114.105 110.617 84.4132 80.8459 71.4151 74.6317 66.7276 46.698 44.3077 37.9712 34.8335 30.8828 29.7163 18.782 18.7567 18.6398 17.3436 14.4707 13.8544 10.8784 9.92827 9.14235 8.87468 7.46771 7.15715 6.09552 6.04822 5.67759 5.43662 5.28285 4.52261 3.88547 3.60005 3.216 3.18215 2.62442 2.27969 1.44047
threshold=74.955000000000013 0.015357142857142859 0.45000000000000012 79.995000000000019 29.955000000000002 15.392857142857144 0.0090293913823325609 0.47727272727272729 0.016135884013484258 0.66711349419124233 -1.0000000180025095e-35 0.10550000000000001 11.529285750000001 96.500000000000014 60.500000000000007 10.607142857142859 15.500000000000002 0.16420098918895262 24.995000000000001 0.10027932960893857 37.905000000000008 27.481071450000005 0.33327712197863973 0.033939443804508806 0.032083333333333346 1.0000000180025095e-35 98.565000000000012 54.500000000000007 0.018657317348442389 4.5000000000000009 12.385000000000003 0.25000000000000006 3.3214285714285716 0.10072463768115943 6.5000000000000009 681.78571428571433 0.014787885414388803 3.5000000000000004 3.6785714285714288 134.50000000000003 1.0000000180025095e-35 0.60714285714285732 16.892857142857146 0.079583333333333353 21.995000000000001 9.8250000000000011 0.6428571428571429 750.60714285714289 42.785714285714292 24.964285714285719 0.17857142857142858 0.12310606060606064 1.1500000000000001 587.32142857142867 9.9850000000000012 0.17857142857142858 924.107142857143 1.0357142857142858 0.10714285714285715 0.13764285000000004 0.013750000000000004 28.995000000000001
decision_type=10 8 10 10 8 10 8 10 8 8 10 8 10 8 10 10 8 10 8 8 10 10 10 10 10 8 10 8 8 10 10 10 10 8 8 10 10 8 10 10 8 8 10 10 10 10 10 10 10 10 10 10 8 10 10 10 10 10 8 10 8 8
left_child=2 5 4 31 18 -2 21 11 10 12 35 -8 16 14 19 -16 26 24 28 -13 -21 53 40 46 27 -18 57 -15 36 30 45 -3 -25 39 38 -4 47 49 55 50 -20 -24 -28 -38 60 59 -19 -1 -42 51 61 -35 -43 -6 -47 -32 -41 -5 -27 -30 -36 -31
right_child=1 3 8 9 6 -7 7 -9 -10 -11 -12 13 -14 17 15 -17 25 23 22 20 -22 -23 41 32 -26 58 42 -29 29 33 34 -33 -34 37 44 -37 43 -39 -40 56 48 52 -44 -45 -46 54 -48 -49 -50 -51 -52 -53 -54 -55 -56 -57 -58 -59 -60 -61 -62 -63
leaf_value=50.579329011716652 55.924729322200498 55.003928956787917 53.592328959392553 51.586728942309946 52.155529010652693 60.052729125266524 52.472128962816939 52.872628916347622 56.982266849806834 50.57342900430033 51.864829067990932 51.515528977274066 53.33222901318738 51.040962301614059 54.852728962781974 51.223449444400636 53.024528939827398 50.286077119859932 50.46900613483281 50.715864959909709 51.081681497012603 53.07252915178173 50.354328977816472 50.232719947385441 51.672528922324254 52.470729062890257 51.972728983407386 50.592384125168998 50.217341067818346 50.652528991147065 50.488365147111182 54.642328864329102 50.688415831570552 50.327867431250503 50.292328965508105 54.072529139264731 50.233417436674976 50.972153130257674 50.868328968177842 50.437429026830912 51.172529028698023 50.472528997405561 52.382729005010127 50.315300286844455 50.841737016992212 50.466747188452693 50.490707110167129 50.402228987110334 50.972328986369746 50.482128959687699 50.710228984189705 50.442428979370668 50.614995662493691 52.327528980194685 50.31265399204672 50.584529002412353 50.53782898840376 51.452528941079109 52.358379003316195 50.312328975938925 50.379848986586708 50.579195675198434
leaf_weight=0.14285700023174319 0.14285700023174286 0.28571400046348561 0.085713997483253479 0.14285700023174286 0.14285700023174286 0.14285700023174286 0.14285700023174286 0.28571400046348561 0.061229001730679466 0.28571400046348583 0.28571400046348572 0.14285700023174286 0.28571400046348583 0.34184200130403042 0.10714299976825703 0.66667098551988602 0.14285700023174286 0.77142800390720345 0.020414000377058983 3.5714269876480067 0.65714300051331509 0.14285700023174286 0.14285700023174286 0.095242999494075775 0.071428999304771423 0.14285700023174286 0.14285700023174286 0.30329900048673186 0.62698599696160107 0.14285700023174286 0.40815699845552411 0.28571400046348572 0.82142901420593262 0.43878601677715778 0.14285700023174286 0.14285700023174286 1.095227986574173 0.023814000189304463 0.071428999304771423 0.28571400046348572 0.14285700023174353 0.14285700023174286 0.04285699874162674 1.5928560346364975 0.017857000231742859 0.081629000604152568 0.095242999494075775 0.28571400046348572 0.14285700023174286 0.28571400046348572 0.28571400046348572 0.28571400046348572 0.42857100069522858 0.14285700023174286 1.1428560018539426 0.28571400046348572 0.28571400046348572 0.14285700023174286 0.34285699948668413 0.14285700023174286 0.71428500115871441 0.42857100069522835
leaf_count=109 2535 2301 462 1031 58 4 1097 7606 3228 16217 12 5060 54 1335 4498 72 2636 12137 635 56733 15195 1 947 548 1383 369 7089 34034 48440 13 22767 330 55 10501 2798 1 74 909 141 458 8731 611 44 9 7457 2546 12 9 2 8 332 1430 2717 5 22965 2142 5 81 11080 182 35077 639
internal_value=51.0946 53.3878 50.7598 52.8017 50.6844 57.9887 51.0095 50.9294 53.2146 52.1106 52.766 50.8581 52.4275 50.8279 50.9367 51.726 52.1925 50.604 50.4143 50.797 50.7727 52.5185 50.6837 50.4795 50.9141 52.5353 51.7354 50.8301 50.3845 50.4243 50.3667 54.8231 50.6411 50.5093 50.4612 53.8925 50.3066 50.417 50.5597 50.5761 51.0322 50.5344 52.0673 50.2819 50.375 50.289 50.3086 50.4613 51.0724 50.4039 50.6351 50.373 50.5794 52.2415 50.3229 50.528 50.4876 51.5196 52.3914 50.235 50.3653 50.5975
internal_weight=0 2.52857 19.3121 2.24286 18.7366 0.285714 8.5023 8.07372 0.575514 1.67143 0.514285 7.78801 1.38571 7.64515 5.14524 0.773814 1.1 2.49991 10.2343 4.37143 4.22857 0.428571 1.02041 1.78334 0.71657 0.628571 0.471428 0.645141 9.21388 6.09723 3.63463 0.571428 0.916672 2.4626 1.6403 0.228571 3.11666 1.03403 0.7653 1.42857 0.306128 0.714285 0.185714 2.68808 0.874999 1.99433 0.866671 0.428571 0.285714 1.01021 0.857142 0.7245 0.571428 0.285714 1.22449 0.693871 0.571428 0.285714 0.485714 0.769843 0.857142 0.571428
internal_count=359957 43771 316186 41232 312483 2539 139829 139765 3703 38601 475 132159 22384 131062 81558 4570 22330 49504 172654 76988 71928 64 13643 12752 36752 14085 8245 35369 159011 158810 144515 2631 603 14295 70382 463 201 12848 25050 1447 9368 4275 7133 83 45332 74133 12149 118 8733 11939 984 11931 3328 63 25511 24909 463 1112 11449 48622 37875 652
is_linear=0
shrinkage=1


Tree=1
num_leaves=42
num_cat=0
split_feature=39 1 15 99 46 39 107 99 16 159 8 1 1 58 107 169 8 8 154 8 1 159 9 146 1 146 9 39 1 91 159 1 1 1 159 1 159 91 1 1 1
split_gain=9685.2 19248.7 9939.42 5005.09 3822.72 5096.94 2829.68 9563.25 2927.96 7849.07 1463.59 1078.36 1058.5 1057.46 1027.7 913.175 886.939 752.171 831.506 328.3 256.228 402.859 245.68 167.656 167.058 133.108 48.4163 33.3043 29.8204 29.6598 14.5298 10.0484 9.86209 9.48627 3.77997 2.7056 0.7734 0.601743 0.25515 0.104403 0.00297544
threshold=0.070625000000000021 15.392857142857144 58.016250000000007 0.66025000000000011 0.10714285714285715 0.20954545454545456 0.25000000000000006 0.075500000000000025 0.6428571428571429 5.5000000000000009 0.083801498127340834 0.25000000000000006 277.03571428571433 111.54832350184051 0.10714285714285715 0.97222222222222232 0.083801498127340834 0.016967929299251439 0.015695768641881783 0.011661906704746363 587.32142857142867 3.5000000000000004 0.20037037037037042 0.16152751423149908 10.607142857142859 0.031839601720301015 0.17741666666666669 0.36071428571428582 924.107142857143 11.375000000000002 26.500000000000004 12.678571428571431 587.32142857142867 0.25000000000000006 13.500000000000002 109.25000000000001 1.5000000000000002 2.3750000000000004 0.25000000000000006 750.60714285714289 238.50000000000003
decision_type=8 10 10 10 8 10 8 8 8 10 10 10 10 10 10 10 10 8 8 10 10 8 10 10 10 8 8 8 10 8 8 10 10 10 10 10 10 10 10 10 10
left_child=1 10 3 4 5 -2 7 -6 9 26 24 -11 15 22 23 17 35 19 -19 -10 21 -16 32 30 -1 -23 33 28 -14 -5 34 -12 -4 -8 -9 -17 -28 -32 -38 40 -24
right_child=2 -3 13 29 6 -7 8 14 12 11 31 -13 27 -15 20 16 -18 18 -20 -21 -22 25 39 -25 -26 -27 36 -29 -30 -31 37 -33 -34 -35 -36 -37 38 -39 -40 -41 -42
leaf_value=1.7424473611112354 4.7335053209193694 8.7789456085764126 2.173355384093683 2.4477533952844288 3.8311214167644683 -0.6090485931374946 -0.59194674754279075 -0.63398213262562009 1.0396893867729387 1.3485854833606892 -0.51158391529503588 3.4767532727490136 -0.74809164874128997 3.2796723257421423 1.1928323638404581 -0.37376831561052681 1.8913093948025788 0.32498748819622914 -0.44386451312026898 0.0098052126615878008 1.2082494210110699 0.48226535784868524 1.2672324664501666 0.099282703577594361 0.77524000651161307 -0.25401836295429064 -0.84454680837148199 -0.79603526337975494 -0.55631441463627984 2.9183495475265335 -0.72819696648711585 -0.27436828587465029 1.9383495037170624 -0.35204766135205545 -0.53110394096320745 -0.58696832952992584 -0.76865307300918606 -0.78624661741439994 -0.8064531080776135 1.2487035248150762 1.2726324007864336
leaf_weight=0.28571400046348572 0.14285700023174286 0.14285700023174286 0.14285700023174186 0.085713997483253479 0.28571400046348572 0.14285700023174286 0.12244299799203873 0.28571400046348594 0.14285700023174264 0.14285700023174286 0.14285700023174286 0.28571400046348572 0.74999899417161919 0.20408600196242332 0.14285700023174286 0.035714000463486495 0.14285700023174286 0.59184200130403042 11.408023025840539 0.92857098579406738 0.14285700023174286 0.14285700023174286 0.057142999023199081 0.14285700023174286 0.095242999494075775 0.31428500078618526 0.14285700023174264 1.8904710263013833 0.57142800092697144 0.14285700023174186 0.14285700023174286 0.14285700023174286 0.14285700023174286 0.14285700023174286 0.28571400046348572 0.071428999304771423 0.14285700023174286 0.14285700023174286 0.14285700023174286 0.14285700023174286 0.14285700023174286
leaf_count=4535 5692 87 144 786 683 1603 9234 12186 263 3856 7892 1014 38 3 1754 3546 340 5801 256779 391 1 1983 66 805 41 7678 3238 22 11 355 22615 2 2 1485 2738 2 1430 531 317 3 5
internal_value=0 2.11671 -0.112601 -0.200879 -0.234561 2.06223 -0.267899 0.439537 -0.34918 0.639298 0.689094 2.76736 -0.416288 2.02884 -0.116461 -0.33771 0.859646 -0.36061 -0.405944 0.147123 0.447021 0.265776 1.62271 -0.535048 1.50064 -0.0239295 -0.675106 -0.742191 -0.665161 2.74188 -0.640769 -0.392976 2.05585 -0.462767 -0.582543 -0.515902 -0.806551 -0.757222 -0.787553 1.26176 1.27109
internal_weight=0 0.809528 21.0311 20.1985 19.9699 0.285714 19.6842 2.02857 17.6556 1.12244 0.666671 0.428571 16.5332 0.832657 1.74286 13.3213 0.25 13.0713 11.9999 1.07143 0.742856 0.599999 0.628571 0.999999 0.380957 0.457142 0.693871 3.2119 1.32143 0.228571 0.857142 0.285714 0.285714 0.2653 0.571428 0.107143 0.428571 0.285714 0.285714 0.342857 0.2
internal_count=359957 12557 347400 347177 346036 7295 338741 50974 287767 20574 12470 4870 267193 223 50291 267122 3888 263234 262580 654 11416 11415 220 38875 4576 9661 15704 71 49 1141 38070 7894 146 10719 14924 3548 4985 23146 1747 74 71
is_linear=0
shrinkage=0.02


Tree=2
num_leaves=63
num_cat=0
split_feature=141 141 99 148 9 23 156 146 146 142 93 141 2 17 0 141 141 143 144 148 148 93 0 3 141 9 17 2 3 9 9 142 48 2 16 31 2 142 114 93 16 142 0 142 0 143 0 141 111 2 2 16 2 2 0 0 143 140 2 2 0 3
split_gain=35696.5 15993.4 8411.19 6861.02 3850.39 3476.09 3029.42 4504.72 2398.45 1754.56 1099.12 1049.45 1017.21 548.762 378.274 339.584 300.345 300.31 326.264 259.695 248.036 186.202 165.609 151.655 134.221 121.696 110.887 107.732 106.904 103.124 81.4388 94.4921 65.6218 57.8681 47.5243 42.8377 39.0232 36.5655 36.0799 33.8254 30.1527 29.049 28.4853 14.5514 13.6428 13.3055 12.7297 11.4693 11.1776 9.17121 8.04487 6.98311 4.8288 4.5671 4.25181 3.63265 3.34726 3.22851 3.22787 2.65488 2.27991 2.26314
threshold=52.580000000000005 369.99500000000006 0.45000000000000012 6.6637634408602162 0.25523869346733674 0.0090293913823325609 1.984845631891434 0.041641894569956407 0.021285657327195624 2.5000000000000004 1.395 25.905000000000005 0.32142857142857145 0.35714285714285715 1.0000000180025095e-35 22.985000000000003 37.905000000000008 1.5000000000000002 1.5000000000000002 1.0212793235133664 1.9988194444444447 0.036250000000000011 1.0000000180025095e-35 1.4149999999999998 38.225000000000001 0.12535714285714289 0.92857142857142871 1.0357142857142858 0.013928571428571429 0.21483333333333335 0.19708333333333336 1707.5000000000002 0.014642857142857145 0.3928571428571429 4.2142857142857153 7.9642857142857153 37.464285714285715 8.5000000000000018 0.09343137254901962 0.017083333333333336 1.0714285714285716 49.500000000000007 1.0000000180025095e-35 2.5000000000000004 1.0000000180025095e-35 16.500000000000004 1.0000000180025095e-35 31.795000000000005 1.0000000180025095e-35 0.32142857142857145 0.10714285714285715 38.357142857142868 0.25000000000000006 0.25000000000000006 1.0000000180025095e-35 1.0000000180025095e-35 3.5000000000000004 -1.0000000180025095e-35 8.3571428571428594 0.53571428571428581 1.0000000180025095e-35 0.0096428571428571457
decision_type=10 8 10 10 10 8 10 10 10 8 8 10 10 8 2 8 10 8 8 10 10 10 2 10 8 8 10 10 10 8 10 10 10 10 8 8 10 8 8 10 10 10 2 10 2 10 2 8 8 10 10 10 10 10 2 2 8 10 10 10 2 10
left_child=2 3 5 4 9 23 11 12 10 55 42 17 -8 28 -6 50 25 18 52 30 32 -5 -10 -1 -18 40 34 39 -11 35 31 38 37 43 -21 -27 45 -15 -19 56 -13 46 -4 -26 -30 -32 -20 57 -39 -42 -9 -37 -7 -45 -36 -2 -17 -31 -43 -34 -22 -33
right_child=1 -3 8 21 14 6 7 15 22 13 -12 16 -14 20 -16 27 24 19 41 26 60 -23 -24 -25 33 29 -28 -29 44 47 36 61 59 -35 54 51 -38 48 -40 -41 49 58 -44 53 -46 -47 -48 -49 -50 -51 -52 -53 -54 -55 -56 -57 -58 -59 -60 -61 -62 -63
leaf_value=1.8995824896101043 -0.26536731908248945 8.6033665148251188 2.8599825993006354 4.6388355028923867 3.4072183675114798 0.048626686107867398 3.6764456065127127 -0.73837578104700297 1.2237293635288891 1.3216136775630083 5.7042989747831516 -0.34500670545472362 1.470623225752469 1.1689757192339416 2.1467619584955306 0.10552850947395132 0.60764361965838565 -0.51328043445630445 -0.74584003943657051 -0.384458290670457 0.35962668083589444 3.7544990258132493 0.26070739548497462 1.1014899951194139 0.067243659616243304 0.066790217159709453 -0.62500992158562574 -0.37099740551260596 2.1298882577197591 -0.46040629099639346 -0.80478670650700468 -0.36629295130105749 1.3588347268391558 0.11966824974117621 -0.034713370684865123 -0.27641956067019285 -0.53453029116286932 0.86942270295799806 -0.68227444375585 0.42136670696093398 -0.76428152730706322 -0.87451653733634549 2.3987981716114111 -0.28725478360161832 1.853483124127514 -0.73360687957397541 -0.41884001109422064 -0.34999001874523183 0.58052956361101493 -0.59224091203943852 -0.56857325193381658 -0.11096929781053813 -0.085639979509690212 -0.14875632355620874 -0.21288931158924912 -0.50189129392380383 -0.013040030057460175 -0.6056400068509149 -0.6691441574881547 1.2501774391231655 0.47262006738102869 -0.19085406064486649
leaf_weight=0.14285700023174286 0.028571000322699658 0.14285700023174275 0.14285700023174286 0.14285700023174275 0.28571400046348561 0.42857098579406738 0.10714299976825614 0.14285700023174253 0.14285700023174286 0.14285700023174286 0.061229001730679466 0.14285700023174286 0.38095699995756149 0.14285700023174264 0.14285700023174286 0.28571400046348572 0.14285700023174253 0.57142800092697144 0.071428999304771423 0.71428601443767548 0.14285700023174286 0.28571400046348572 0.14285700023174286 0.28571400046348572 0.071428999304771534 0.32142800092697144 0.70329900085926045 0.21428599953651428 0.14285700023174286 0.42857100069522902 2.5809409916400909 0.035714000463485607 0.14285700023174286 0.42857098579406738 0.21428599953651495 0.35714299976825714 0.28571400046348561 0.14285700023174286 4.3693390041589861 0.14285700023174286 0.23809999972581863 0.21428599953651428 0.085713997483253479 0.28571400046348572 0.14285700023174286 1.771428048610687 0.14285700023174286 0.57142800092697155 0.085714999586343765 0.25851400010287762 0.51020000129938126 0.14285700023174286 0.14285700023174286 0.14285700023174286 0.071428999304771423 0.28571400046348572 0.14285700023174297 0.071428999304770646 0.035714000463485718 0.24285699799656868 0.14285700023174286 0.16667100042104721
leaf_count=86 3134 8367 2231 1037 1281 5773 3757 3203 853 2192 122 2908 44 5860 240 2062 838 8166 6325 756 1253 64 130 8 9260 958 33 18 305 7134 9844 2605 3089 47 4668 920 4 5141 182889 550 413 3971 197 9432 386 225 6069 10004 20775 25 206 5 65 58 4205 4261 3673 6581 1 23 1101 126
internal_value=0 2.08531 -0.338525 1.73299 1.28467 -0.41268 -0.454946 0.294553 2.04254 0.876098 3.32453 -0.544514 1.95482 1.16583 2.98707 -0.268691 -0.243765 -0.631079 -0.304908 -0.660494 0.918233 4.04928 0.742218 1.36752 0.0369339 -0.362529 -0.432588 0.0114339 1.76833 -0.281943 -0.700182 -0.645379 1.10771 -0.0508675 -0.297258 -0.113346 -0.760953 0.917967 -0.662729 0.154846 -0.601067 -0.698714 2.68704 -0.197041 1.99169 -0.775816 -0.527841 -0.4112 0.761087 -0.674725 -0.605718 -0.229148 0.01506 -0.241089 -0.0792575 -0.480389 0.0660057 -0.481154 -0.845178 1.29042 0.416123 -0.221813
internal_weight=0 2.78571 19.055 2.64286 2.21428 18.4794 18.0509 1.92687 0.575514 1.78571 0.2898 16.124 0.4881 1.47143 0.428571 1.43877 3.60375 12.5202 1.03571 11.4845 1.04286 0.428571 0.285714 0.428571 1.07143 2.53233 1.7033 0.785714 0.428571 1.89286 9.78124 5.14315 0.757143 0.928571 1 0.821428 4.63808 0.371429 4.94077 0.571428 0.639471 0.464286 0.228571 0.5 0.285714 4.35237 0.214286 1.07143 0.228572 0.496614 0.653057 0.5 0.571428 0.428571 0.285715 0.314285 0.428571 0.5 0.25 0.385714 0.285714 0.202385
internal_count=359957 58509 301448 50142 49041 297915 297821 13513 3533 47520 2550 284308 3801 40125 1521 9712 48583 235725 22204 213521 37242 1101 983 94 19635 28948 9662 6303 2883 25602 203859 193786 34888 18797 9629 1883 10073 31776 191055 6285 3346 16366 2428 18750 691 10069 12394 23719 25916 438 3409 925 5838 9490 8873 7395 5735 13715 3972 3112 2354 2731
is_linear=0
shrinkage=0.02


Tree=3
num_leaves=35
num_cat=0
split_feature=22 54 18 153 4 32 54 23 154 18 4 4 37 23 32 154 18 98 13 4 137 165 60 22 18 4 18 4 4 18 142 4 4 12
split_gain=9539.33 5198.59 21314.8 3247.49 7615.69 2226.35 6671.18 2018.65 5437.83 2123.81 1958.26 1692.6 1481.13 1480.54 1529.44 4035.25 1084.32 1040.14 707.358 371.729 106.575 90.0355 75.2169 44.4159 13.3339 10.3266 6.28095 4.87273 3.82767 2.15279 0.742774 0.370528 0.100193 0.0128376
threshold=8.3635714285714311 0.07029411764705884 0.073571428571428579 2969.4000000000005 0.3928571428571429 0.10714285714285715 0.19000000000000009 0.19677419354838713 0.062575301204819286 0.044285714285714296 -1.0000000180025095e-35 1.0000000180025095e-35 6.1505178571428578 0.0090293913823325609 1.0357142857142858 0.011375961348846384 0.012142857142857144 0.014947716507283942 134.58500000000001 0.96428571428571441 inf 3.5000000000000004 24.012500000000003 -14.784285714285714 0.075000000000000025 0.46428571428571436 0.11642857142857145 0.32142857142857145 0.10714285714285715 0.03785714285714286 1.5000000000000002 -1.0000000180025095e-35 0.10714285714285715 0.013072453861927551
decision_type=10 8 10 10 10 8 8 10 8 10 10 10 10 8 10 8 10 8 10 10 8 8 10 10 10 8 10 10 10 10 10 10 10 10
left_child=1 2 -1 5 -5 6 10 12 9 -9 -3 -2 13 27 15 -15 -10 -17 19 -13 28 24 23 -16 30 -24 -22 -7 31 -23 -18 -8 -26 -14
right_child=11 3 -4 4 -6 7 20 8 16 -11 -12 18 33 14 22 17 21 -19 -20 -21 26 29 25 -25 32 -27 -28 -29 -30 -31 -32 -33 -34 -35
leaf_value=8.4312993874707072 3.6390556608409121 4.5460589210084912 -0.70948791490730034 3.6794088476954818 -0.6401228526240027 0.99686580047023543 -0.58322214180057086 3.3390738826684561 1.2951814040117584 0.35243411918112366 1.678185879565083 1.199254813642382 1.2277245624076696 3.6029166516578721 -0.48955259799993062 1.0412404658931289 -0.81156017265515301 -0.32065133982343841 2.0175693754923518 -0.56780899376845317 -0.20032487842093052 -0.33810657401591987 -0.2728632933175642 -0.74874406628561996 -0.56646232592741141 -0.51333966484304261 -0.01277922922683287 1.1620545926340993 -0.48998076243267735 -0.22830852414177374 -0.75570630181315612 -0.62267108140829663 -0.59506798931987503 1.2168842261532604
leaf_weight=0.14285700023174286 0.20408600196242233 0.14285700023174286 0.35714301466941833 0.28571400046348472 0.38095699995756149 0.14285700023174286 0.14285700023174286 0.28571400046348572 0.14285700023174175 0.14285700023174286 0.28571400046348572 0.14285700023174286 0.1857139989733686 0.10714299976825714 0.28571400046348516 0.22857099771499634 0.14285700023174286 12.061091996729397 0.42857100069522858 0.071428999304771423 0.14285700023174286 0.14285700023174286 0.14285700023174286 3.5547550246119499 0.12244299799203873 0.14285700023174275 0.14285700023174286 0.14285700023174286 0.14285700023174286 0.14285700023174286 0.28571400046348572 0.28571400046348572 0.081629000604152679 0.057142999023199081
leaf_count=4431 30 11290 8 3770 18 104 7371 1509 6155 205 185 59 50 3719 332 2164 3530 268578 43 3 8318 4848 17 132 394 24 10 6 308 1271 6047 24980 12 36
internal_value=0 -0.112738 1.90216 -0.161897 1.21109 -0.208062 0.596754 -0.263871 0.442138 2.34353 2.63414 2.05222 -0.325554 -0.34796 -0.372643 -0.26163 -0.325738 -0.295322 1.54846 0.610231 -0.421942 -0.577884 -0.70617 -0.729461 -0.710965 -0.393101 -0.106552 1.07946 -0.579636 -0.283208 -0.774324 -0.609521 -0.577905 1.22517
internal_weight=0 20.9937 0.5 20.4937 0.666671 19.8271 1.28571 18.5413 1.48979 0.428571 0.428571 0.846943 17.0516 16.8087 16.523 12.3968 1.06121 12.2897 0.642857 0.214286 0.857142 0.918357 4.12618 3.84047 0.632643 0.285714 0.285714 0.285714 0.571428 0.285714 0.428571 0.428571 0.204072 0.242857
internal_count=359957 359822 4439 355383 3788 351595 52462 299133 23971 1714 11475 135 275162 275076 274966 274461 22257 270742 105 62 40987 16102 505 464 9983 41 8328 110 32659 6119 9577 32351 406 86
is_linear=0
shrinkage=0.02


Tree=4
num_leaves=45
num_cat=0
split_feature=22 38 140 92 144 108 98 33 33 15 99 43 108 3 63 16 140 144 6 140 152 140 3 3 33 3 140 38 106 106 140 3 5 108 106 140 15 140 3 3 3 3 3 3
split_gain=9161.57 5322.04 3564.73 4991.52 3374.23 2113.49 8633.68 2307.02 24032.6 1625.58 1562.28 1536.04 1296.23 1169.39 1092.56 1793.71 1064.19 1130.96 679.347 451.531 390.484 389.467 351.529 159.146 117.387 41.9621 40.3666 30.3436 24.1804 19.6067 16.5756 13.1721 13.0335 10.1519 2.95717 2.72391 1.41874 0.255331 0.0532306 0.0488294 0.0310943 0.00806172 0.0519102 0.00436309
threshold=8.3635714285714311 0.47727272727272729 1.0658141036401504e-14 0.45833333333333343 10.500000000000002 0.036071428571428581 0.12579113924050636 0.024285714285714289 0.019642857142857146 156.61717248258728 0.73100000000000009 85.310000000000016 0.03107142857142858 0.044285714285714296 0.016071428571428573 11.214285714285715 -5.3290705182007506e-15 14.500000000000002 0.22142855000000003 -1.0000000180025095e-35 2.5000000000000004 -1.0000000180025095e-35 0.08607142857142859 0.016785714285714293 0.0089285714285714298 0.060357142857142866 2.6645352591003761e-15 0.10413545718173199 1.8214285714285714 32.892857142857146 -1.0000000180025095e-35 0.067500000000000018 27.481071450000005 0.018214285714285714 0.75000000000000011 1.0000000180025095e-35 28.995000000000001 1.0000000180025095e-35 0.01892857142857143 19.512857142857147 1.580357142857143 1.3135714285714288 0.10892857142857144 0.63392857142857151
decision_type=10 10 10 8 10 8 10 8 8 8 10 10 10 10 8 10 8 8 10 10 8 10 10 10 10 10 10 10 10 10 10 10 10 10 8 8 8 8 10 10 10 10 8 10
left_child=1 2 5 23 -3 6 12 8 21 18 11 14 20 -6 15 25 22 -18 32 29 28 24 -16 -4 -7 -9 30 36 -1 40 34 -26 39 -28 -22 -32 -23 -29 -35 -2 -14 42 -13 -38
right_child=9 4 3 -5 13 7 -8 10 -10 -11 -12 41 19 -15 16 -17 17 -19 -20 -21 26 27 -24 -25 31 -27 33 37 -30 -31 35 -33 -34 38 -36 -37 43 -39 -40 -41 -42 -43 -44 -45
leaf_value=0.10159950624654995 2.0469391468900722 4.4551376571390486 0.57002912474112688 3.2722923142252127 -0.57155771098086794 0.7367357675041406 3.6058207081256315 1.3380710800105593 8.2626731967792022 3.5662744317360722 2.329997522673573 1.2216646903107049 1.1520092258545398 1.6446221940172705 1.2692778480293634 -0.6170901184751767 -0.25042501376780996 -0.61482218091090757 0.59802618686845577 -0.24859512352754434 -0.56732288018812005 -0.40546008535959616 0.12368791643324774 -0.48544043368859507 -0.1963183908661022 1.8228265841212912 -0.45700998156768907 -0.69529817049464604 0.46958067568995132 0.85844727390955311 -0.72201881491035924 0.038890161449325208 1.8212394968129013 -0.25364695693749506 -0.47632796636184432 -0.61505881680459251 -0.48018116253819598 -0.66366117932347568 -0.22374236033466513 2.0634753229148042 1.1388134500458928 1.197621663818522 1.1925465299476976 -0.48512417112766565
leaf_weight=0.14285700023174286 0.14285700023174286 0.14285700023174186 0.071428999304771423 0.28571400046348472 0.14285700023174286 0.095242999494075664 0.28571400046348561 0.14285700023174286 0.14285700023174275 0.20408600196242233 0.085713997483254256 0.04285699874162674 0.14285700023174286 0.28571400046348572 0.14285700023174286 0.30952800065279007 5.6496539991348982 8.5821670331060975 0.21428599953651428 0.14285700023174275 0.28571400046348572 0.14285700023174286 0.42857098579406738 0.28571400046348572 0.14285700023174286 0.14285700023174286 0.14285700023174286 0.35714301466941845 0.14285700023174286 0.14285700023174286 0.2857140004634855 0.28571400046348572 0.14285700023174286 0.028571000322699547 0.28571400046348616 0.1428570002317433 0.14285700023174275 0.14285700023174275 0.14285700023174286 0.14285700023174286 0.14285700023174286 0.14285700023174286 0.057142999023199859 0.14285700023174286
leaf_count=2267 82 22132 1257 5719 573 6011 1429 8959 3411 44 658 31 1013 3 9754 24 36954 190210 6 968 13038 26 24 16 7922 11 1901 9028 685 12 15706 11 2 382 6229 3671 6237 3499 1 1 1 4 44 1
internal_value=0 -0.110483 -0.163749 1.30194 1.79321 -0.211386 0.337536 -0.28925 0.435459 2.01118 -0.362759 -0.377515 -0.0925016 0.905896 -0.402405 0.437721 -0.436187 -0.470166 1.51749 0.725169 -0.384527 -0.334428 0.410085 -0.274345 0.101629 1.58045 -0.530204 -0.580411 0.28559 1.04976 -0.592343 -0.0395127 1.97722 -0.332492 -0.521825 -0.686365 -0.456922 -0.686259 -0.228726 2.05521 1.14541 1.20067 1.20503 -0.482653
internal_weight=0 20.9937 20.4223 0.642857 0.571428 19.7794 2.45714 17.3223 1.59524 0.846943 15.7271 15.6413 2.17143 0.428571 15.3985 0.595242 14.8032 14.2318 0.642857 0.571428 1.6 1.45239 0.571428 0.357143 0.523814 0.285714 1.31428 0.928571 0.285714 0.428571 0.999999 0.428571 0.428571 0.314285 0.571428 0.428571 0.428571 0.5 0.171428 0.285714 0.285714 0.242857 0.1 0.285714
internal_count=359957 359822 337114 6992 22708 330122 47303 282819 36146 135 246673 246015 45874 576 245936 8994 236942 227164 91 1994 43880 32735 9778 1273 13944 8970 40928 18791 2952 1026 38644 7933 85 2284 19267 19377 6264 12527 383 83 1014 79 75 6238
is_linear=0
shrinkage=0.02


Tree=5
num_leaves=63
num_cat=0
split_feature=141 141 53 160 164 141 154 148 148 160 3 148 93 19 160 3 141 146 148 40 0 155 3 3 93 141 160 32 3 141 146 160 146 160 141 137 3 141 3 160 0 146 168 3 146 3 160 108 5 146 53 141 146 151 0 108 108 0 0 146 26 3
split_gain=31899.2 14127.4 7661.36 6450.35 2710.42 2611.5 3722.74 1880.72 1613.73 1396.88 1333.84 1213.05 1032.49 1031.59 587.175 559.391 510.254 461.578 254.318 202.634 164.946 163.021 160.589 151.981 149.52 129.617 73.8692 67.1813 59.7165 52.8172 51.2408 48.0184 44.5048 37.4158 42.5339 35.7004 31.949 35.2321 17.409 13.2098 12.6561 12.4911 11.9724 10.3828 10.0493 9.93186 7.44196 5.93715 5.8723 5.36964 4.46278 4.44994 4.49539 4.38792 3.35064 3.08729 2.31005 2.26751 1.87638 1.71893 1.36255 1.01653
threshold=52.580000000000005 369.99500000000006 0.014091598939052239 0.19822446353058601 163.50000000000003 24.995000000000001 0.011375961348846384 6.6637634408602162 2.6354888507718708 0.66711349419124233 0.018214285714285714 3.0367532694594028 0.12291666666666669 1.0000000180025095e-35 0.38472342264477105 0.026428571428571437 37.905000000000008 0.01640690193544914 1.3804039991282557 0.24327811675751718 1.0000000180025095e-35 0.024407765629380438 0.013928571428571429 0.15107142857142861 0.03291666666666667 38.225000000000001 0.33327712197863973 0.25000000000000006 7.035000000000001 47.995000000000012 0.048203528399311545 0.30787458986511124 0.031592012136351454 0.28557621502209135 12.385000000000003 inf 11.958928571428576 21.995000000000001 0.075357142857142873 0.13641711229946527 1.0000000180025095e-35 0.022738636363636367 1.0000000180025095e-35 0.013214285714285717 0.015199218505060908 19.512857142857147 0.45446721952746055 0.032500000000000008 1.3967857000000004 0.016668871835582608 0.051414221517314306 5.9850000000000012 0.015875486765897728 6.5000000000000009 1.0000000180025095e-35 0.0075000000000000015 0.011071428571428574 1.0000000180025095e-35 1.0000000180025095e-35 0.054655822663302621 20.630030959752325 0.10750000000000001
decision_type=10 8 8 8 10 8 8 10 10 8 10 10 10 10 10 10 10 8 10 8 2 10 10 10 8 8 10 8 10 10 10 8 10 10 10 8 10 10 8 8 2 8 8 8 10 10 8 10 10 8 10 10 8 8 2 10 10 2 2 10 10 10
left_child=2 3 4 7 13 27 -7 10 12 14 22 -10 16 -1 32 -14 17 28 21 45 -9 -19 41 26 -11 -18 -13 30 44 -27 53 33 -5 34 48 -20 37 42 -31 49 -28 -2 51 -35 -8 -16 -39 -43 59 -36 60 -33 -53 -4 -26 -44 -48 -51 -34 -29 -32 -21
right_child=1 -3 5 9 -6 6 8 20 11 24 -12 23 15 -15 19 -17 25 18 35 61 -22 -23 -24 -25 54 29 40 31 -30 38 50 36 58 43 39 -37 -38 46 -40 -41 -42 47 55 -45 -46 -47 56 -49 -50 57 -52 52 -54 -55 -56 -57 -58 -59 -60 -61 -62 -63
leaf_value=-0.63862720352444557 0.61414249091685669 8.097419583307337 -0.5853229930496282 0.84127830573389328 3.4949490926342652 3.5358668751898943 -0.081273044426649246 3.5337044328182365 1.6117296860499482 0.55862853156521597 3.2068466922451204 0.10405487197155365 2.2833975010122032 1.2615245420060182 1.7863700390874115 0.23967693654231184 0.60691222702144121 -0.46128250109689056 -0.28962791271612215 1.2438923284528469 4.3660348612715847 -0.70428779075178571 2.0060003853145969 -0.35130595967174805 -0.24857400110919353 -0.26646249790470733 0.42436090398103543 -0.7795142621536495 -0.42267798661328715 -0.13435966792848242 -0.47299961583277805 -0.82680709888868198 0.35768190808128825 -0.19721000792945365 -0.67913411232807053 -0.018879129499783008 -0.50515829452284611 -0.61945451592582923 0.11598471271946148 -0.088569725688855461 0.72200109220631581 1.3113096931241299 -0.65585071577470788 -0.46680140369674489 0.061815543139457682 2.0222057123151687 -0.20659446261273601 1.1289691561599513 -0.57815814244884245 -0.56045321878041576 -0.34573846525664764 -0.78869882606264285 -0.7285776414677787 -0.67253387354213279 -0.47573162367967775 -0.71461198585431707 -0.44786977659575378 -0.47423823019804362 0.46018906284372502 -0.71910063678931169 -0.39735087964696808 1.1766570209712643
leaf_weight=0.14285700023174286 0.014286000281572342 0.14285700023174275 0.42857100069522858 0.14285700023174241 0.20408600196242332 0.10714299976825714 0.2857140004634855 0.28571400046348572 0.2857140004634855 0.071428999304771423 0.28571400046348572 0.42857100069522858 0.085713997483253368 0.57142800092697144 0.14285700023174286 0.14285700023174286 0.14285700023174253 2.8452420160174334 0.42857100069522847 0.14285700023174286 0.14285700023174286 1.8046700041741131 0.14285700023174286 0.21428599953651428 0.028571000322699658 0.28571400046348583 0.14285700023174286 0.4898000024259187 0.14285700023174286 0.14285700023174286 0.28571400046348572 0.41269999742507968 0.14285700023174286 0.071428999304771423 0.14285700023174286 0.35714299976825714 0.28571400046348561 0.14285700023174275 0.49999998509883881 0.023814000189304463 0.095242999494075775 0.14285700023174264 0.46428500115871441 0.28571400046348561 0.62755598686635494 0.14285700023174286 0.017857000231742859 0.14285700023174286 0.081629000604152679 0.83672799915075258 0.28571400046348572 0.88094298541545868 1.1428560018539431 0.50000001490116097 0.28571400046348572 1.5571420341730118 0.14285700023174286 0.14285700023174286 0.14285700023174286 0.3061280008405447 0.14285700023174286 0.24285699799656868
leaf_count=1212 1344 8367 1938 5263 55 2415 4285 215 1128 3360 940 3271 1942 13 1869 40 834 88923 1038 6174 167 9322 444 14 9015 13564 1274 13832 2 1078 3178 2624 1224 144 365 5045 3 829 3927 5579 1142 9361 49437 1493 731 1 5683 360 16 6315 1746 784 22212 24838 9324 8300 632 5735 1066 4501 9 15
internal_value=0 1.9714 -0.319892 1.64026 1.46227 -0.410134 -0.17007 2.75986 -0.214393 0.768276 2.14145 0.47931 -0.318262 0.881494 1.13142 1.00607 -0.358286 -0.425023 -0.49936 1.50059 3.81115 -0.555595 1.45409 0.112041 -0.267356 0.0460766 0.260973 -0.650054 -0.0424292 -0.0402058 -0.534319 -0.675651 0.55305 -0.601615 -0.634921 -0.16656 -0.710577 -0.722903 0.0603527 -0.554696 0.543421 1.19128 -0.7371 -0.412883 0.0170507 1.90429 -0.514423 1.22014 -0.73971 -0.564585 -0.406965 -0.766953 -0.754748 -0.632283 -0.455081 -0.701116 -0.421062 -0.54788 0.408935 -0.756278 -0.447783 1.20156
internal_weight=0 2.78571 19.055 2.64286 0.918371 18.1366 9.06557 1.15714 8.95842 1.48571 0.728571 1.16667 7.79175 0.714285 1.1 0.228571 7.56318 6.49175 5.43563 0.671428 0.428571 4.64991 0.442857 0.880957 0.385714 1.07143 0.666671 9.07102 1.05613 0.928571 1.64286 7.42817 0.428571 2.38096 2.02381 0.785714 5.04721 4.7615 0.642857 1.14626 0.2381 0.3 4.45793 0.357143 0.91327 0.285714 0.303571 0.285714 0.877557 1.12244 0.714285 2.4365 2.0238 0.928571 0.314285 2.02143 0.160714 0.979585 0.285714 0.795928 0.428571 0.385714
internal_count=359957 58509 301448 50142 1280 300168 139975 12831 137560 37311 12449 6829 130731 1225 15612 1982 128749 109346 104328 8059 382 98245 11509 5701 21699 19403 5687 160193 5018 18569 31709 128484 7553 37980 36343 6083 90504 90501 5005 17994 2416 11065 83357 1637 5016 1870 7144 9721 18349 12415 4933 25620 22996 26776 18339 57737 6315 12050 2290 18333 3187 6189
is_linear=0
shrinkage=0.02


Tree=6
num_leaves=63
num_cat=0
split_feature=141 141 99 166 141 166 97 68 3 3 3 68 3 144 150 144 145 140 141 3 150 40 37 3 141 141 141 3 54 9 9 144 151 141 40 99 141 3 106 106 3 3 166 144 3 163 9 106 3 144 3 140 3 46 91 106 5 3 106 3 140 69
split_gain=30636 13567.9 7194.62 5202.23 2982.69 2375.68 2083.49 1779.57 1624.93 1367.21 995.305 779.531 1503.33 858.053 2528.04 1346.64 723.536 538.785 376.573 214.035 181.684 166.876 158.414 145.672 145.557 137.288 95.6265 79.8684 73.0016 71.7629 71.6137 67.3339 64.7397 50.5698 49.9632 46.5413 38.4421 36.9642 32.8218 30.6965 26.8786 25.856 25.2272 19.7164 16.5046 13.2912 11.8793 10.3459 9.53856 9.33748 8.86791 8.47359 7.90281 7.23734 6.1381 5.70204 5.46267 4.30979 4.23627 3.87506 3.82595 3.53372
threshold=52.580000000000005 369.99500000000006 0.45000000000000012 0.20014947683109122 24.995000000000001 0.19052498048399688 -3.6149999999999993 0.010591358647895751 0.018214285714285714 0.060357142857142866 6.0714285714285721 0.083651399491094167 0.045357142857142867 8.5000000000000018 75.500000000000014 2.5000000000000004 29.965000000000003 2.1316282072803012e-14 47.995000000000012 0.013928571428571429 3.5000000000000004 0.93201964285714289 -1.0000000180025095e-35 5.1100000000000003 28.525000000000002 34.795000000000009 38.225000000000001 1.580357142857143 0.14522727272727279 0.18366666666666667 0.13937500000000003 17.500000000000004 1.5000000000000002 31.005000000000006 1.0000000180025095e-35 0.39521604938271609 21.995000000000001 0.05392857142857143 32.892857142857146 0.10714285714285715 11.958928571428576 0.016071428571428577 0.21057289240801122 2.5000000000000004 6.0714285714285721 0.55684754521963831 0.17516666666666672 55.821428571428577 19.512857142857147 1.5000000000000002 1.4149999999999998 2.6645352591003761e-15 0.59678571428571436 0.25000000000000006 0.12500000000000003 0.25000000000000006 0.92059645000000012 0.02250000000000001 0.75000000000000011 0.15250000000000005 1.332267629550188e-15 0.26683333333333342
decision_type=10 8 10 8 8 10 10 8 10 10 8 10 8 8 8 10 8 8 10 10 8 10 10 10 10 8 8 10 10 8 10 10 10 10 8 10 10 8 10 8 10 10 10 10 10 8 10 10 10 10 10 10 10 8 8 10 10 10 8 8 10 8
left_child=2 3 4 5 29 8 -4 27 19 17 23 13 -13 14 16 -16 43 20 24 38 -5 48 -7 -8 28 33 -27 -6 30 32 -15 34 46 -18 -26 36 40 -14 55 -22 42 -17 47 58 -12 61 -1 54 -11 -34 -43 -38 -33 -51 -31 -2 -30 -41 -9 -39 -47 -44
right_child=1 -3 6 9 7 22 10 11 -10 21 44 12 37 18 15 41 25 -19 -20 -21 39 -23 -24 -25 31 26 -28 -29 56 35 -32 52 49 -35 -36 -37 51 59 -40 57 -42 50 45 -45 -46 60 -48 -49 -50 53 -52 -53 -54 -55 -56 -57 -58 -59 -60 -61 -62 -63
leaf_value=-0.77418791816518262 1.2850834325043783 7.9354712557281681 5.3762078554833934 1.2190144311482711 1.7595842190406004 3.4630303815459422 0.23488339747767928 -0.52664448865026969 3.1427097797625438 1.7506426169433371 2.2377296355513634 1.5794951377238908 -0.55608788218927152 -0.58562859628190456 3.4651495519276176 0.1153780597486203 0.087445062679337091 -0.46621701056569143 0.11366501074031007 1.9658803348836529 -0.24360253861103881 1.1531238758395632 4.2787142174519683 1.1380787195455087 0.060890384661761381 0.59477401986508294 0.05324392905421229 1.0908067626364915 -0.76653390554477696 -0.51752597979069359 -0.3447441003941904 -0.78131583404251959 -0.19326579909248029 -0.33922996520996024 -0.30045557475506046 -0.3041018565717975 -0.57337332177180811 -0.23572539021970382 0.8244528037061909 0.490562277265011 -0.49505511594850815 0.70756105133736635 -0.64410474826260877 -0.8260648248544793 2.5887771893750204 -0.76359423836771878 -0.58833403752974922 -0.46475345758321085 1.981761622101482 -0.086798337182097576 0.95670649676523856 -0.41264034845837622 -0.52367231964142669 -0.44015834321853631 -0.65502280991269923 1.1063897116200649 -0.66288424491882203 0.35052826591422637 -0.65435354233834009 -0.088414979037694949 -0.70444431301607036 -0.69879279277917061
leaf_weight=0.2857140004634855 0.14285700023174264 0.14285700023174275 0.061229001730679466 0.14285700023174219 0.14285700023174286 0.28571400046348572 0.14285700023174286 0.14285700023174286 0.28571400046348572 0.14285700023174286 0.085713997483253479 0.28571400046348572 0.14285700023174286 1.1641840022057248 0.10714299976825703 0.020414000377058983 0.14285700023174408 0.28571400046348616 0.4999999850988387 0.14285700023174286 0.028571000322699547 0.24285699799656868 0.14285700023174286 0.14285700023174286 0.17857100069522858 0.14285700023174253 1.4999989867210388 0.14285700023174286 0.34285700321197499 0.14285700023174286 0.85714301466941822 0.095242999494075664 0.071428999304771423 0.5 1.0714280009269712 0.14285700023174275 0.71428500115871418 0.14285700023174286 0.14285700023174286 0.22857199981808662 0.28571400046348561 0.095242999494075775 0.67857101559638977 0.28571400046348572 0.14285700023174286 1.8650709837675097 0.26529999822378159 0.14285700023174275 0.14285700023174286 0.023814000189304352 0.14285700023174286 0.16071400046348572 0.095242999494075775 0.87755600176751614 1.4285710044205275 0.14285700023174286 0.5 0.14285700023174286 0.38095699995756149 0.14285700023174364 0.57142800092697132 1.557142034173012
leaf_count=23530 9352 8367 91 5954 428 480 137 478 873 147 3302 143 4 60673 2694 4514 1086 1440 4359 409 876 16 145 1 6086 559 9725 3 4395 4512 6056 778 554 441 23758 940 8104 13 113 28651 3 301 607 429 2 20797 967 147 1 19 6 2483 2 2387 84130 1053 13 632 4432 7528 5509 4322
internal_value=0 1.93197 -0.313494 1.60746 -0.382077 2.51911 1.88865 -0.128695 1.9112 0.74379 1.47344 -0.178136 0.455752 -0.232914 0.00718346 1.57985 -0.178604 0.236774 -0.405861 1.29545 0.606769 1.53857 3.73492 0.686481 -0.466206 0.0033734 0.100333 1.4252 -0.548683 -0.63688 -0.483482 -0.302214 -0.511491 -0.244413 -0.248835 -0.661726 -0.668495 -0.293409 1.07198 0.388111 -0.684841 0.798478 -0.693331 -0.69242 2.45713 -0.717409 -0.684704 -0.627709 1.8662 -0.41338 0.857045 -0.543851 -0.652494 -0.430823 -0.642523 1.19574 -0.705047 0.436703 -0.619524 -0.16207 -0.749722 -0.682194
internal_weight=0 2.78571 19.055 2.64286 18.4794 1.28571 0.575514 9.26557 0.857142 1.35714 0.514285 8.97985 0.714285 8.26557 3.4609 0.365657 3.09524 0.828571 4.80467 0.571428 0.542857 0.528571 0.428571 0.285714 4.30467 2.28571 1.64286 0.285714 2.86418 9.21388 2.02133 1.44049 1.52381 0.642857 1.25 7.69007 7.54721 0.428571 0.428571 0.4 6.67221 0.258514 6.3865 0.809528 0.228571 4.67221 0.551014 1.71429 0.285714 0.972799 0.2381 0.874999 0.190486 0.90137 1.57143 0.285714 0.842857 0.371429 0.523814 0.285714 2.4365 2.23571
internal_count=359957 58509 301448 50142 297915 12425 3533 138904 11800 37717 3442 138473 7688 130785 24665 7515 17150 37553 106120 10927 36113 164 625 138 101761 11811 10284 431 71137 159011 66729 30624 27457 1527 29844 131554 130614 7545 10518 30159 120027 4821 120024 5339 3304 31235 24497 88789 148 2960 307 10587 780 2406 88642 10405 4408 29283 4910 7541 26306 4929
is_linear=0
shrinkage=0.02


Tree=7
num_leaves=45
num_cat=0
split_feature=39 1 145 1 143 1 31 84 7 140 0 5 53 152 145 143 138 1 1 69 7 140 94 145 146 158 1 0 145 1 108 146 108 5 1 1 1 1 0 24 24 1 0 0
split_gain=7636.99 15081.2 7158.24 7230.71 3356.42 5502.62 6191.03 3673.95 2111.03 2155.01 1401.29 1146.44 786.382 817.916 1488.44 2138.3 828.465 947.5 780.948 696.852 543.281 448.165 443.132 421.406 350.654 1016.43 131.761 130.391 124.197 66.0369 56.3592 31.2414 26.1623 14.0729 8.74557 8.46572 7.93505 6.31111 5.64164 5.17522 4.82995 2.90543 2.22933 2.17536
threshold=0.070625000000000021 15.392857142857144 1760.2650000000003 258.1785714285715 1.5000000000000002 0.32142857142857145 0.10714285714285715 0.63046052631578964 2.9660714285714289 -1.0658141036401501e-14 1.0000000180025095e-35 2.5019393000000005 0.0085561595197569534 2.5000000000000004 236.30500000000009 5.5000000000000009 4.9750000000000005 3.3928571428571428 238.50000000000003 0.10550000000000001 -1.0000000180025095e-35 -5.3290705182007506e-15 1.0000000180025095e-35 45.985000000000007 0.01993111206405954 8.5000000000000018 44.821428571428577 1.0000000180025095e-35 29.985000000000003 32.785714285714292 0.0039285714285714297 0.043467879240895319 0.031785714285714299 1.1417857500000002 12.678571428571431 2544.1428571428573 9.1071428571428594 1.4642857142857146 1.0000000180025095e-35 0.2303571428571429 0.1702577319587629 518.39285714285722 1.0000000180025095e-35 1.0000000180025095e-35
decision_type=8 10 10 8 8 8 8 10 10 8 2 10 8 8 10 10 10 8 10 8 10 8 8 8 10 10 8 2 8 10 8 10 8 10 10 10 10 10 2 10 10 10 2 2
left_child=1 11 4 18 5 -2 -7 8 9 32 22 27 -11 14 23 -16 21 -18 33 -8 -9 -15 -5 -14 25 -21 36 -1 37 -10 -30 -32 -6 -4 -13 -12 -27 42 -22 40 -35 -28 -26 -34
right_child=2 -3 3 10 7 6 19 20 29 12 35 34 13 16 15 -17 17 -19 -20 24 38 -23 -24 -25 28 26 41 -29 30 -31 31 -33 43 39 -36 -37 -38 -39 -40 -41 -42 -43 -44 -45
leaf_value=1.5479051975853426 3.0798554079281035 7.7767619908310426 -0.085062365057167924 3.3937697151686268 0.80796369155596126 4.1931396767550169 1.2593817505028351 2.5370018538702159 1.9265627068236675 1.0689906207080346 1.7243925907358939 -0.45231437541638231 -0.65308659635188182 0.11662115860581862 3.3958467673910691 0.17437438212932072 1.7156297646044707 -0.34465399312787726 1.1270736502697176 2.1929750116868276 1.1153171611763428 -0.54156218996663863 5.268683723294588 -0.11568951700651367 -0.55349450016652202 0.056774488931366163 -0.82342386042486637 0.69340983731976436 0.096421545449547466 1.1220999990416518 0.59204838548588667 -0.35169156704889054 1.0842619467608621 -0.76568949533292596 -0.23101087507201018 1.9421264964710825 -0.079295873535029718 -0.80692107653188327 0.93757239486798671 -0.53221842018714594 -0.54812952238219215 -0.60249083124226954 -0.68451474819314206 1.1946341425253002
leaf_weight=0.28571400046348572 0.28571400046348572 0.14285700023174286 0.023814000189304352 0.28571400046348572 0.14285700023174286 0.14285700023174286 0.14285700023174286 0.14285700023174186 0.14285700023174186 0.14285700023174286 0.14285700023174286 0.14285700023174286 0.92857099324464798 0.42857098579406738 0.10714299976825703 0.35714200139045715 0.14285700023174286 0.23809999972581941 0.14285700023174286 0.085713997483255144 0.14285700023174286 12.016850065439952 0.061229001730679355 1.5714270025491721 0.081629000604152679 0.42857098579406738 0.071428999304771423 0.095242999494075775 0.14285700023174286 0.057142999023199081 0.01428600028157212 0.78571400046348572 0.14285700023174286 0.095242999494075775 0.14285700023174286 0.14285700023174286 0.28571400046348572 0.14285700023174286 0.14285700023174286 0.28571400046348572 0.071428999304771423 0.035714000463485718 0.14285700023174286 0.14285700023174286
leaf_count=3655 3825 87 967 729 991 322 285 1376 171 362 3369 59 6810 4535 1016 1744 1152 6543 1 2451 47 267782 3063 7514 2616 466 4006 8755 267 23 4952 10623 3275 42 1 2 49 148 15 7 5 4 2345 3500
internal_value=0 1.87967 -0.0999238 1.36683 -0.192745 0.450328 0.150177 -0.298296 -0.345605 -0.370569 2.87048 0.61602 -0.408213 -0.421577 -0.12216 0.917793 -0.490775 0.427942 -0.169866 -0.0945333 1.52996 -0.518897 3.72466 -0.315294 -0.181762 0.1205 -0.0957573 1.33427 -0.391039 1.69672 -0.269496 -0.334839 1.02895 -0.558939 -0.341663 1.83326 0.00234634 -0.703003 1.02644 -0.583884 -0.672452 -0.74978 -0.636872 1.13945
internal_weight=0 0.809528 21.0311 1.25171 19.7794 2.78877 2.50306 16.9907 16.5621 16.3621 0.632657 0.666671 15.9335 15.7907 2.96428 0.464285 12.8264 0.380957 0.619057 2.3602 0.428571 12.4454 0.346943 2.5 2.21734 0.907142 0.821428 0.380957 1.3102 0.2 0.942857 0.8 0.428571 0.4762 0.285714 0.285714 0.714285 0.367343 0.285714 0.452386 0.166672 0.107143 0.224486 0.285714
internal_count=359957 12557 347400 8185 339215 32359 28534 306856 305418 305224 7163 12470 297458 297096 17084 2760 280012 7695 1022 28212 1438 272317 3792 14324 27927 6976 4525 12410 20951 194 15842 15575 7766 1021 60 3371 515 5109 62 54 47 4010 4961 6775
is_linear=0
shrinkage=0.02


Tree=8
num_leaves=63
num_cat=0
split_feature=141 33 5 154 141 154 1 166 33 142 93 141 1 145 141 40 141 145 150 1 1 113 1 9 33 139 33 9 92 154 1 141 1 7 166 1 113 1 142 1 162 9 166 1 1 166 1 1 1 54 92 1 111 1 142 1 1 25 1 32 17 1
split_gain=28332.5 12781.2 4914.44 3578.04 3304.02 5254.27 2202.46 2197.49 2017.57 1535.27 1464.64 802.364 471.077 446.085 433.986 398.225 279.712 224.923 502.633 125.228 122.929 109.236 108.429 100.317 109.857 89.0942 76.5488 58.2952 55.9305 54.9477 52.0857 43.371 33.7999 28.3403 27.4757 26.8228 22.3927 19.8764 17.9931 16.1823 11.1393 10.6032 10.2771 8.79807 8.59483 7.51551 6.23811 5.97019 5.53806 4.18213 3.75736 3.33478 3.09053 2.82825 2.21858 1.80019 1.65627 1.46248 1.41525 1.186 1.0969 1.0109
threshold=52.580000000000005 0.024285714285714289 23.495357150000004 0.060305602994598091 35.595000000000006 0.011375961348846384 15.392857142857144 0.24780051084909316 0.0039285714285714297 2.5000000000000004 0.017083333333333336 38.225000000000001 0.17857142857142858 106.41500000000002 24.995000000000001 0.24327811675751718 47.995000000000012 40.370000000000012 119.50000000000001 10.607142857142859 587.32142857142867 0.077135571610709747 681.78571428571433 0.12535714285714289 0.16821428571428573 1.0000000180025095e-35 0.085357142857142881 0.07961538461538463 1.0000000180025095e-35 0.024099927045040843 16.892857142857146 20.985000000000003 0.25000000000000006 -26.984999999999996 0.04771390627964333 0.53571428571428581 0.075550975107023952 5.1071428571428585 2.5000000000000004 3.3214285714285716 1.0000000180025095e-35 0.21483333333333335 0.37519968051118219 2544.1428571428573 5.7500000000000009 0.36374306444728993 0.10714285714285715 42.785714285714292 17.500000000000004 0.10527777777777779 0.12500000000000003 14.535714285714288 1.0000000180025095e-35 0.82142857142857151 24.500000000000004 0.10714285714285715 1.0357142857142858 4.0557692307692319 0.75000000000000011 2.3928571428571432 0.2142857142857143 1.6785714285714286
decision_type=10 8 10 10 8 8 10 10 8 8 10 8 8 10 8 8 10 10 10 10 10 8 10 8 8 10 8 8 10 10 10 10 10 8 10 10 10 8 10 8 10 8 10 10 10 8 10 10 10 8 10 8 8 10 8 8 10 10 10 10 10 10
left_child=2 6 4 9 14 22 -2 12 19 52 11 37 -5 -12 26 43 17 25 -19 -7 48 36 -6 35 47 -13 29 -28 49 51 56 33 -14 -29 38 -16 -17 -10 -35 -18 -36 60 -43 -11 58 53 54 -25 -15 -23 -44 -1 -3 -31 -33 -51 -9 -55 -37 -48 -26 -47
right_child=1 3 -4 7 5 8 -8 30 10 15 13 16 32 20 23 21 39 18 -20 -21 -22 28 -24 24 41 -27 27 31 -30 45 -32 46 -34 34 40 44 -38 -39 -40 -41 -42 42 50 -45 -46 61 59 -49 -50 55 -52 -53 -54 57 -56 -57 -58 -59 -60 -61 -62 -63
leaf_value=-0.6460359500585553 4.1092770594591057 -0.22789923605536719 2.0571196303372328 1.8880314793900883 3.3279296825073108 1.5169471817532303 7.6212266335216299 0.5802074386373679 0.58519228231732012 1.6813171960152886 2.1491156049135332 -0.63261596377248563 3.3258943956333971 0.41712258021850401 -0.29298196479367472 0.79180442707085974 -0.13042356756894241 0.033286371536007775 -0.48579366476208158 0.67954164257598204 1.0476108042884378 1.2341940994710339 2.4862617900898871 0.070329486319106821 -0.3073361678549682 -0.24626196532773376 -0.1530911652774436 -0.47320753134644761 0.54847595680750683 -0.52448836238265206 1.1614669596807472 -0.41982831908013235 3.018258476008731 -0.65723165325105615 -0.72499747522244984 -0.65084471831613511 0.43768655605612772 0.91882094563548811 -0.50172337419591639 0.11093982669531763 -0.66364568088493958 -0.28720631504291816 -0.39654951704766744 1.9032839131358459 -0.52411151698884795 -0.2871885687356287 -0.51781085305448815 -0.08506076841162806 0.24101697188819951 1.1707414489936312 -0.55040409352710673 -0.56391607317889825 -0.44606142231993717 -0.44131433796972924 -0.18337852553857864 1.0862383914375999 0.35434895130067423 -0.36976944647062931 -0.75037571443802564 -0.58476670472873671 -0.21971057177496342 -0.36242855016459069
leaf_weight=0.64285701513290405 0.14285700023174286 0.028571000322699547 0.34694300219416518 0.14285700023174286 0.10714299976825714 0.28571400046348572 0.14285700023174286 0.014286000281572342 0.14285700023174286 0.14285700023174286 0.085713997483253368 1.4523850008845323 0.28571400046348561 0.14285700023174286 0.14285700023174286 0.14285700023174286 0.14285700023174286 1.2142849862575533 1.9356130193918941 0.095242999494075775 0.14285700023174286 0.14285700023174286 0.14285700023174286 0.32142800092697144 0.071428999304771423 0.28571400046348605 0.095242999494075775 0.28571400046348572 0.071428999304771423 0.14285700023174253 0.04285699874162674 0.14285700023174275 0.28571400046348572 0.71428500115872118 2.7426269855350256 0.14285700023174286 0.14285700023174286 0.14285700023174186 0.51020000129938126 0.4999999850988387 2.0826560370624065 0.42857100069522969 0.57142800092697144 0.14285700023174286 0.25851400010287762 0.14285700023174297 0.40815699845552444 0.14285700023174286 0.14285700023174286 0.14285700023174286 0.071428999304771423 0.28571400046348605 0.28571400046348538 0.57142800092697144 0.017857000231742859 0.3428569994866848 0.14285700023174286 0.14285700023174286 0.095242999494075775 0.14285700023174286 0.28571400046348572 0.14285700023174286
leaf_count=16207 9003 925 9 105 2217 1833 13 1327 963 1518 8661 56154 1227 2197 2297 2355 1018 11070 10205 5 5 140 4 3885 729 11241 4128 3 7471 3214 6 5130 162 56604 26726 315 107 3468 17486 3695 9377 15931 3763 4 41 1172 1130 2 22 561 305 11119 6315 673 7539 27195 75 2 605 7 145 146
internal_value=0 1.85796 -0.301444 1.39998 -0.345184 5.91156e-05 5.86525 2.39643 -0.105982 0.825454 -0.191043 -0.281498 2.91527 0.832005 -0.549805 1.13486 -0.334887 -0.386467 -0.285688 1.30759 0.568583 0.944295 2.84698 -0.317915 -0.244749 -0.569106 -0.613537 -0.644581 1.0788 -0.506491 0.543435 -0.651224 3.17208 -0.667854 -0.677046 -0.534489 0.614745 0.752007 -0.592437 0.0573036 -0.698517 -0.331611 -0.363069 1.7923 -0.603962 -0.413642 -0.503192 0.0225171 0.32907 1.13907 -0.413645 -0.620768 -0.426229 -0.443253 -0.393556 1.11109 0.374882 -0.427005 -0.690658 -0.53517 -0.237236 -0.324809
internal_weight=0 2.78571 19.055 2.5 18.708 6.96181 0.285714 0.914285 6.71181 1.58571 6.33085 5.81657 0.714285 0.514285 11.7462 1.27143 5.53085 4.888 3.1499 0.380957 0.428571 0.985714 0.25 2.53233 1.89286 1.7381 9.21388 7.14245 0.7 2.07143 0.2 7.04721 0.571428 6.33548 6.04977 0.639471 0.285714 0.285714 1.22449 0.642857 4.82528 1.42857 1.07143 0.285714 0.496614 1.14286 0.711728 0.464285 0.285714 0.628571 0.642857 0.928571 0.314285 0.857142 0.160714 0.485714 0.157143 0.714285 0.2381 0.551014 0.357143 0.285714
internal_count=359957 58509 301448 49493 301439 112758 9016 2902 110537 46591 108699 97814 1494 10885 188681 39351 93383 88670 21275 1838 2224 37829 2221 28018 24760 67395 160663 128130 35367 32533 1408 124002 1389 110196 110193 3258 2462 4431 74090 4713 36103 20873 19999 1522 961 5207 13806 3887 2219 27896 4068 27326 7240 3889 12669 27756 1402 675 920 1137 874 1318
is_linear=0
shrinkage=0.02


Tree=9
num_leaves=63
num_cat=0
split_feature=136 136 53 147 151 158 136 154 98 148 148 93 16 13 1 136 147 46 148 1 136 92 1 1 10 136 1 148 1 106 136 1 16 53 106 93 147 106 136 151 155 164 1 136 158 163 6 136 1 13 154 1 92 1 92 1 106 1 1 136 1 1
split_gain=27210.6 12008.7 6521.06 5114.08 2553.61 2351.93 2251.89 3165.1 1411.76 1387.57 1023.07 891.152 870.806 514.509 468.302 440.994 394.843 267.862 260.343 194.177 193.566 140.33 130.664 128.277 115.188 114.746 68.458 56.0434 48.6537 46.5941 43.7651 41.7955 34.327 29.739 27.2015 25.4285 25.3571 24.0954 23.2594 21.467 17.4963 17.016 15.5415 14.9617 14.5174 11.3409 11.3051 9.96636 8.00274 7.62649 4.95814 4.58826 3.18902 3.13467 3.02631 2.8493 2.669 2.54754 2.02444 1.83196 1.62169 1.3929
threshold=52.580000000000005 369.99500000000006 0.014091598939052239 0.072982836851450003 1.5000000000000002 499.50000000000006 24.995000000000001 0.011375961348846384 0.034492562604505804 2.6354888507718708 3.0367532694594028 0.12291666666666669 947.35714285714289 134.58500000000001 17.500000000000004 37.905000000000008 0.016135230963774765 0.60714285714285732 1.0073863636363638 0.25000000000000006 98.565000000000012 0.45833333333333343 12.678571428571431 23.214285714285719 5.0933333333333346 38.225000000000001 3.3928571428571428 0.93230034296913289 10.607142857142859 247.42857142857147 47.995000000000012 6.3928571428571441 5.3571428571428585 0.041415043773450073 0.10714285714285715 0.017083333333333336 0.015033827052601445 32.892857142857146 11.695000000000002 2.5000000000000004 0.033357522980164499 249.00000000000003 3.3214285714285716 11.995000000000003 1.0000000180025095e-35 0.16740412979351035 0.070700000000000013 19.995000000000001 18.250000000000004 12.960000000000003 0.032967775367451095 587.32142857142867 1.0000000180025095e-35 16.892857142857146 1.0000000180025095e-35 0.82142857142857151 0.17857142857142858 258.1785714285715 1.0000000180025095e-35 7.9850000000000012 924.107142857143 3.6785714285714288
decision_type=10 8 8 10 8 10 8 8 8 10 10 10 10 10 10 10 8 10 8 10 10 10 10 10 10 8 8 10 10 8 10 8 8 10 8 10 8 10 10 8 10 8 8 8 8 8 10 8 8 8 10 10 10 10 10 10 10 10 10 10 10 10
left_child=2 3 5 4 19 12 27 -8 -6 11 -11 15 24 17 -13 16 32 20 40 -2 34 -5 28 -20 51 -17 -19 29 35 39 -27 46 -9 38 -10 -12 60 58 49 -4 -18 48 -32 -33 -40 -34 61 -46 -41 -31 -38 -1 -36 -28 -43 -48 -50 -45 -22 -51 -35 -29
right_child=1 -3 6 21 8 -7 7 9 13 10 22 14 -14 -15 -16 25 18 26 23 -21 37 -23 -24 -25 -26 30 53 31 -30 33 42 43 45 36 52 -37 50 -39 44 41 -42 54 -44 57 47 -47 55 -49 56 59 -52 -53 -54 -55 -56 -57 -58 -59 -60 -61 -62 -63
leaf_value=0.90044453873908026 0.56860326650006754 7.4688021649381806 -0.65095989685723665 4.0270913847553897 -0.43714018118965686 3.2422678779150345 3.2613712383930982 0.054915986554196564 -0.2233412571756026 1.4866082728319467 0.10066791968669399 2.1061331682013993 -0.58886840483818725 1.8577445743812038 0.23619662978014475 0.57348846470902792 -0.56460904775866527 1.6476907586348066 -0.42490225065108372 2.9578930821841336 1.0408518978517751 3.2593763848873527 -0.32026736223869834 -0.13458224427705645 1.6487623463135428 -0.24133672251642269 1.2095103323041156 -0.28144480670693395 0.66595080972446241 -0.5910305521102126 -0.12781509404795233 -0.66251767181382493 -0.096904068353761016 -0.35517997916129884 0.38809738758988466 0.40878012460869784 -0.64082598107755018 0.77596833452400638 -0.49201591453012666 -0.080299299713005048 -0.69286167661280229 -0.55447225614847062 0.10872102703812778 -0.53192777572812 -0.65444273468003744 -0.29745858227223071 -0.53239015233487963 -0.17971095569538328 -0.53090747432113605 -0.75745966541153542 -0.5435349788791457 1.0392634753980132 0.53750644568217298 1.0914423047851844 -0.68465420412765976 -0.39840791424110772 -0.43620877042394252 -0.43750100422750526 1.147326603992014 -0.71852590556845375 -0.45047678145683029 -0.17327692661695687
leaf_weight=0.14285700023174286 0.014286000281572342 0.14285700023174275 0.42857100069522858 0.14285700023174275 0.28571400046348572 0.20408600196242332 0.10714299976825714 0.60714198648929596 0.028571000322699547 0.2857140004634855 0.42857100069522858 0.085713997483253368 0.14285700023174286 0.28571400046348561 0.14285700023174286 0.14285700023174253 0.639471000060439 0.14285700023174286 2.7032990157604186 0.28571400046348572 0.14285700023174286 0.28571400046348572 0.21428599953651428 0.78571400046348561 0.14285700023174286 0.28571400046348583 0.14285700023174286 0.14285700023174286 0.095242999494075775 0.16327100060880184 0.14285700023174286 0.42857100069522824 0.3061280008405447 0.14285700023174286 0.28571400046348594 0.14285700023174286 0.78571401536464669 0.14285700023174286 0.26529999822378192 0.023814000189304352 1.2714280039072035 0.14285700023174297 0.49999998509883881 0.57142800092697155 1.8785700350999828 0.17857100069522835 0.081629000604152679 0.01785700023174297 0.14285700023174253 0.76984299719334615 0.28571400046348572 0.28571400046348572 0.071428999304771423 0.24285699799656868 0.14285700023174286 0.28571400046348572 0.71428500115871429 0.14285700023174286 0.14285700023174286 1.2993139885365961 0.14285700023174286 0.071428999304771423
leaf_count=1224 2910 8367 1827 812 1334 37 2415 435 572 1128 5065 1958 7 54 24 834 6330 142 90546 594 17374 11 29 93 4 13564 2203 2377 12 119 1056 4118 2245 424 16062 595 15706 100 10326 541 5563 11751 3949 4508 35375 4134 255 11453 1578 23449 1772 8 3184 35 711 48 5426 2 4755 28360 1 66
internal_value=0 1.8208 -0.295415 1.5155 1.12845 1.34878 -0.378671 -0.155747 0.859574 -0.196616 0.446641 -0.292932 0.807773 1.08707 0.937422 -0.330115 -0.392159 0.923094 -0.462296 2.84412 0.695514 3.51528 0.109357 -0.359523 1.15693 0.0458032 1.27369 -0.601461 0.24745 -0.625546 -0.0353791 -0.498854 -0.045282 -0.652073 0.370475 0.177696 -0.570239 0.988049 -0.677348 -0.52991 -0.649943 -0.485443 0.0561575 -0.569096 -0.630587 -0.170792 -0.360836 -0.649973 -0.441944 -0.722628 -0.614882 0.99299 0.417979 1.13517 -0.619563 -0.428181 -0.451992 -0.513042 1.09409 -0.733011 -0.402828 -0.245389
internal_weight=0 2.78571 19.055 2.64286 2.21428 0.918371 18.1366 9.06557 1.91428 8.95842 1.16667 7.79175 0.714285 1.62857 0.228571 7.56318 6.49175 1.34286 5.39991 0.3 0.814285 0.428571 0.880957 3.48901 0.571428 1.07143 0.528571 9.07102 0.666671 7.34654 0.928571 1.72449 1.09184 5.7513 0.385714 0.571428 1.35714 0.428571 4.39416 1.59524 1.9109 1.16667 0.642857 1.14286 2.16173 0.484699 0.581629 1.89643 0.880956 2.23243 1.07143 0.428571 0.357143 0.385714 0.285714 0.367343 0.857142 0.714285 0.285714 2.06916 0.285714 0.214286
internal_count=359957 58509 301448 50142 49319 1280 300168 139975 45815 137560 6829 130731 1243 44481 1982 128749 109346 44427 102532 3504 42047 823 5701 90639 1236 19403 2380 160193 5672 148819 18569 11374 6814 126985 19818 5660 17903 22229 109082 21834 11893 20007 5005 8628 57154 6379 2746 46828 7545 51928 17478 1232 19246 2238 12462 303 7004 4510 22129 51809 425 2443
is_linear=0
shrinkage=0.02


Tree=10
num_leaves=63
num_cat=0
split_feature=43 160 160 18 163 109 48 18 6 144 18 99 15 0 99 6 144 160 0 144 121 16 69 150 159 159 24 162 150 150 150 98 96 6 99 24 6 6 109 16 99 99 16 18 16 15 24 31 150 6 16 16 24 165 0 150 98 6 47 0 0 144
split_gain=6590.14 4769.67 9766.32 6245.68 5970.91 15966.5 3476.09 17536.2 1693.94 1488.55 1482.2 1139.3 869.589 978.86 811.319 1397.89 1998.54 786.807 756.227 459.946 437.345 400.005 275.943 224.209 378.911 232.755 203.54 184.411 279.268 231.261 402.154 148.061 134.773 128.216 92.2473 78.6809 62.5146 71.2426 59.9319 52.8382 39.7709 230.331 38.081 36.7356 34.6243 32.7122 26.946 26.1567 22.3316 18.689 14.2028 14.1209 11.9869 11.0447 8.54013 5.07947 4.72621 2.77959 2.39583 1.56836 1.48236 1.4093
threshold=85.310000000000016 0.22022316287466157 0.18754689844922465 0.03785714285714286 0.99333333333333351 -1.0000000180025095e-35 0.015357142857142859 0.06785714285714288 1.0000000180025095e-35 14.500000000000002 0.036428571428571428 0.73100000000000009 156.61717248258728 1.0000000180025095e-35 0.17851648351648355 0.037946450000000014 1.5000000000000002 0.1852499352499353 1.0000000180025095e-35 8.5000000000000018 70.785714285714292 1.9285714285714286 0.37288888888888899 192.50000000000003 101.50000000000001 138.50000000000003 0.11513157894736843 3.5000000000000004 47.500000000000007 3.5000000000000004 16.500000000000004 0.11583184257602865 1.0000000180025095e-35 0.070700000000000013 0.055000000000000014 0.09366666666666669 0.1517857 0.13944285000000003 -1.0000000180025095e-35 33.214285714285722 0.86250000000000016 0.38978260869565223 0.2142857142857143 0.059285714285714296 1.3571428571428574 -170.14999999999995 0.11333333333333336 0.82142857142857151 1.5000000000000002 0.20521430000000004 58.428571428571438 51.642857142857146 0.19750000000000004 59.500000000000007 1.0000000180025095e-35 7.5000000000000009 0.066715578381022281 0.070700000000000013 0.25000000000000006 1.0000000180025095e-35 1.0000000180025095e-35 1.5000000000000002
decision_type=10 8 8 8 10 10 8 10 8 8 10 10 8 2 8 8 10 8 2 8 10 10 8 8 8 8 8 10 8 10 10 10 8 10 8 8 10 10 10 8 10 10 8 10 8 8 8 10 10 10 8 10 10 8 2 10 10 10 8 2 2 10
left_child=1 2 3 10 6 18 7 -3 -4 14 21 17 36 -14 46 20 -17 27 49 31 22 33 39 24 38 51 -24 28 29 48 -31 -18 -10 -1 59 -29 37 -2 42 -16 41 45 43 -11 -44 -36 -8 60 -5 -6 58 -26 57 -52 -49 -40 -48 -27 -30 -25 -37 -58
right_child=12 4 8 11 5 -7 9 -9 32 23 -12 -13 13 -15 15 16 19 -19 -20 -21 -22 -23 26 34 25 52 -28 35 50 30 -32 -33 -34 -35 40 47 -38 -39 55 -41 -42 -43 44 -45 -46 -47 56 54 -50 -51 53 -53 -54 -55 -56 -57 61 -59 -60 -61 -62 -63
leaf_value=1.0792853258865562 1.059585932864191 7.3194261002770853 1.4568760539694916 -0.25509376384252902 0.053874953617604117 8.2869863100055632 -0.42028049944033269 -0.58579886442705553 3.1941889800229801 -0.24489043082863141 2.8987351938375427 2.0640105671443028 5.057322187498384 1.1164088120498286 -0.34835835416149558 3.1961436640893055 0.24954485832907974 1.1853200348681485 1.6147369674947272 1.0184781992143268 0.88243563060740959 -0.29269139435975539 0.33924632432213614 -0.93583229989951333 0.33949999848752904 -0.27862429541092587 -0.1839216904366007 -0.55884548814604618 -0.59934302285595176 0.97796098609305415 -0.20483596469972934 -0.36691418442625917 3.9465495410385372 1.813115938287482 -0.41411433079332216 0.34630580991614751 1.7219251753238789 1.5517494816663102 -0.2156397969702826 -0.58390066268063101 -0.93815979207613587 0.52675629740905761 -0.70359751582705643 -0.64269325525235832 -0.54734397410603941 -0.63680510669585222 -0.73159511611845218 0.05368018233438282 -0.49988662502538006 -0.21026944172460582 -0.6000492362185742 0.10989551930759334 -0.56220067839987853 -0.45340208497553508 -0.15378628348828735 -0.36170079579879694 -0.56328454941607331 -0.38667200307583982 -0.67468066779446179 -1.0295490243998788 0.21948006587747615 -0.63351670094756618
leaf_weight=0.28571400046348572 0.19999999925494194 0.14285700023174286 0.28571400046348572 0.21428599953652205 0.42857098579406816 0.11688599735498428 0.28571400046348572 0.52381401509046555 0.28571400046348572 0.26529999822378159 0.28571400046348572 0.085713997483253368 0.061229001730679466 0.04285699874162674 1.1428570151329038 0.10714299976825703 0.57142800092697144 0.14285700023174275 0.14285700023174286 0.2857140004634855 0.14285700023174275 0.071428999304771423 0.38095799833536148 0.14285700023174286 0.14285700023174253 0.14285700023174297 1.3571420013904578 0.091842999681830406 0.27472800016403198 0.1571430005133152 0.42857100069522858 0.21428599953651428 0.14285700023174275 0.14285700023174286 0.28571400046348572 0.047614000737666973 0.28571400046348572 0.28571400046348572 0.14285700023174275 0.57142800092697132 0.14285700023174275 0.071428999304771312 0.78571400046348572 0.14285700023174286 2.0402559991925941 3.4488120283931516 0.19047099351882912 0.17857100069522858 0.48978599905967712 0.14285700023174286 0.39455700293183305 0.42857098579406738 0.14285700023174286 0.42857100069522858 0.14285700023174286 0.28571400046348572 0.14285700023174286 0.28571400046348572 0.43810000270605087 0.14285700023174286 0.16327100060880184 0.57142800092697144
leaf_count=8670 54 16426 2028 11530 2391 1266 84 34 1361 2919 185 188 78 55 70 7397 11765 552 2338 2381 2 877 1368 656 1131 10157 4339 8 19 16759 9444 500 5959 204 4 1882 5 1 6607 116 110 2707 8022 94 57987 110866 944 137 10492 2 7699 7 452 16795 240 5863 691 22 388 2019 1517 1243
internal_value=0 -0.0511664 0.478385 0.130961 -0.217342 1.43455 -0.304957 1.10817 2.64974 -0.367744 1.7496 -0.214777 1.71871 3.43467 -0.122493 -0.00600733 0.591742 -0.269143 0.313218 0.331302 -0.201958 1.09295 -0.246829 -0.529551 -0.436053 -0.118123 -0.0692534 -0.329371 -0.398094 -0.181121 0.1125 0.0814194 3.44498 1.3239 -0.635657 -0.0182423 1.48718 1.34909 -0.535256 -0.426872 -0.610547 -0.59825 -0.564706 -0.384123 -0.590788 -0.619768 -0.589604 0.0750311 -0.425383 -0.0121611 -0.580292 0.167297 -0.403542 -0.523696 -0.0385272 -0.313014 -0.643075 -0.350656 -0.645645 -0.982691 0.248115 -0.61947
internal_weight=0 21.6807 5.17847 4.46418 16.5022 0.831171 15.671 0.666671 0.714285 15.0044 0.785714 3.67847 0.875514 0.104086 5.96428 4.77381 1.17857 3.59276 0.714285 1.07143 3.59524 0.5 3.45239 9.04008 4.80555 1.14286 1.7381 3.4499 2.82574 1.28979 0.585714 0.785714 0.428571 0.428571 4.23453 0.624156 0.771428 0.485714 3.6627 1.71429 3.94881 3.80596 3.23413 0.408157 2.82597 3.73453 1.19047 0.532313 0.704072 0.571428 1.53596 0.571428 0.571428 0.823128 0.321428 0.428571 0.904756 0.428571 0.712828 0.285714 0.210885 0.714285
internal_count=360107 359914 96934 87586 262980 5997 256983 16460 9348 240523 9936 77650 193 133 30900 27938 22043 77462 4731 14646 5895 9751 5893 209623 93261 11769 5707 76910 73126 48225 26203 12265 7320 8874 116362 3784 60 55 81492 186 113687 113577 69022 3013 66009 110870 2962 3776 22022 2393 24901 1138 10631 24494 377 12470 2878 10179 407 2675 3399 1934
is_linear=0
shrinkage=0.02


Tree=11
num_leaves=63
num_cat=0
split_feature=136 46 156 108 3 136 136 92 146 0 93 136 3 108 136 5 3 46 156 146 136 5 3 151 0 156 146 40 166 0 3 142 99 136 32 92 3 136 146 158 99 3 142 3 4 158 3 3 152 0 0 136 146 3 3 136 136 146 108 0 161 142
split_gain=21699.9 11901.8 10714.5 9736.68 7188.35 5749.62 2190.96 2087.31 2036.55 1951.03 1784.21 1013.8 1006.3 905.404 816.59 767.437 754.677 577.44 377.514 345.845 194.869 153.759 127.401 120.076 109.175 106.923 104.146 124.761 99.0163 95.0668 79.3837 64.5405 72.2995 56.7239 54.7778 51.2345 47.8124 47.485 44.58 37.8546 30.8986 29.9414 27.2899 26.0916 24.9904 24.0799 23.7091 19.4203 17.0581 16.6455 16.4538 15.8441 15.7555 15.7332 14.4661 14.0599 10.2238 7.7179 7.08329 6.76368 6.38103 6.00352
threshold=74.955000000000013 1.6785714285714286 1.7770000000000004 0.060357142857142866 5.1100000000000003 76.720000000000013 24.995000000000001 0.45833333333333343 0.041641894569956407 1.0000000180025095e-35 0.074583333333333349 35.595000000000006 2.9417857142857149 0.024285714285714289 8.4950000000000028 1.0000000180025095e-35 0.016071428571428577 0.60714285714285732 3.5163553113553121 0.01640690193544914 9.8250000000000011 11.529285750000001 1.580357142857143 2.5000000000000004 1.0000000180025095e-35 0.60736152985909209 0.047626048361126279 3.7450000000000006 0.3749154262516915 1.0000000180025095e-35 0.060714285714285728 496.50000000000006 0.055000000000000014 15.485000000000001 0.8928571428571429 1.0000000180025095e-35 7.035000000000001 31.795000000000005 0.036113340467273068 19.500000000000004 0.86250000000000016 0.018214285714285714 1.0000000180025095e-35 0.77571428571428591 6.8214285714285721 1.0000000180025095e-35 11.958928571428576 0.045357142857142867 4.5000000000000009 1.0000000180025095e-35 1.0000000180025095e-35 49.955000000000005 0.068996032956972861 1.4149999999999998 0.15107142857142861 7.8150000000000004 21.995000000000001 0.015199218505060908 0.025357142857142863 1.0000000180025095e-35 1.0000000180025095e-35 425.50000000000006
decision_type=10 8 10 10 10 10 8 8 10 2 10 10 10 8 8 8 10 10 10 8 10 10 10 10 2 8 8 10 10 2 8 8 8 10 8 10 10 10 10 8 10 10 10 10 10 10 10 8 10 2 2 10 10 10 10 10 10 10 10 2 8 10
left_child=2 9 6 8 12 41 31 -7 16 -2 11 19 -5 29 -10 50 -4 23 21 36 35 30 43 28 -18 -21 38 37 42 -9 -15 33 -33 34 39 54 57 -28 -27 -1 46 -3 -13 -17 -23 -36 47 -34 -40 -29 -12 -30 61 -19 -16 -47 60 -8 -44 -22 -49 -35
right_child=1 5 3 4 -6 7 10 13 14 -11 15 17 -14 18 20 22 24 53 -20 25 59 44 -24 -25 -26 26 27 49 51 -31 -32 32 40 52 45 -37 -38 -39 48 -41 -42 -43 58 -45 -46 55 -48 56 -50 -51 -52 -53 -54 -55 -56 -57 -58 -59 -60 -61 -62 -63
leaf_value=-0.58945883115741082 7.1730375569092182 3.1303052111036851 3.1322206127885637 8.1212467404584991 1.0107135945232266 -0.46461568156688537 -0.061169526467571879 -0.31345999064772168 1.0576996300499892 3.8676186837323008 -0.076465261029786666 0.51622117279601332 4.956175612913861 1.5824422041122159 0.0404262621113591 2.0227302222865635 1.4277385088574852 1.1616135941164243 0.33271001654224053 -0.63706804777021642 -0.45436355611139678 1.7852392377112583 0.98550371332091591 0.50127448734254598 0.64584687880647351 -0.064333708939799519 -0.55809657835614723 -0.22571159962828577 -0.27511653472196734 0.41617996758308456 1.0305376687210566 -0.9630368549148598 -0.066977333828492427 -0.44674603390645617 -0.4655291102893549 0.39561362186241866 -0.37847916719472446 -0.30616082362666541 -0.28702318806460342 -0.35924911841289531 -0.91939659356432235 2.840760511323118 0.11739956177425778 1.5813485865347767 1.5207145614605435 -0.73031598433463918 -0.44489637446488439 -0.69695030253225176 -0.49303659577130154 0.07959910591155378 0.22708309433709403 -0.078453031418842731 -0.28998014949420936 0.86478694469816819 -0.20606405088739566 -0.62705612224236174 -0.16338062840724413 0.055292425271295943 -0.20613831504251301 -0.63040384288217388 -0.62686298322852563 -0.53649426775846665
leaf_weight=0.5714280009269711 0.14285700023174286 0.28571400046348561 0.10714299976825659 0.11688599735498417 0.14285700023174286 0.46428500115871429 0.35714299976825692 0.14285700023174286 0.28571400046348538 0.14285700023174286 0.14285700023174286 0.071428999304771201 0.061229001730680466 0.14285700023174286 0.28571400046348583 0.085713997483253368 0.28571400046348572 0.14285700023174275 0.14285700023174275 0.79524300247430801 0.22448600083589554 0.28571400046348572 0.14285700023174286 0.19047100096940983 0.095242999494075775 0.35714299976825703 1.8461560010910023 0.14285700023174275 0.42857100069522858 0.14285700023174286 0.38571399822831132 0.28571400046348572 0.023814000189304352 0.97958499938249566 0.28571400046349449 0.14285700023174286 0.14285700023174286 0.35714299976825703 1.1428570151329038 0.57142800092697155 0.14285700023174275 0.28571400046348572 0.51428598538041115 0.14285700023174286 0.28571400046348572 0.76984299719333682 0.28571400046348561 0.68027199432254182 0.18708599917590607 0.14285700023174286 0.14285700023174286 0.26529999822378159 0.21428599953651417 0.14285700023174286 0.14285700023174286 1.6751689966768024 0.017857000231742748 0.62755598686635494 0.028571000322699547 0.14285700023174286 2.1999990493059158 0.42857100069522858
leaf_count=15442 2450 711 4320 556 1 6893 5653 1833 1259 2022 63 11528 1 7831 4133 3413 140 2002 1133 6374 2518 39 4 1710 117 8870 71357 151 3982 2357 18505 1395 2603 29076 18349 878 2 7251 2991 2622 54 43 14101 1 1 8499 3 1896 994 72 114 3266 3487 3 13 21466 3815 762 368 2047 46375 192
internal_value=0 1.64837 -0.21873 1.15606 4.35274 1.21696 -0.376924 0.709837 0.556939 5.52033 -0.146649 -0.230112 7.03322 1.06656 0.121498 0.854588 1.64932 0.189203 1.29994 -0.35279 -0.163434 1.42556 1.45403 0.0321082 1.23226 -0.424516 -0.384041 -0.466269 -0.0362036 0.05136 1.1797 -0.592275 -0.657642 -0.549028 -0.590611 0.0676005 -0.036553 -0.517259 -0.262727 -0.474354 -0.631599 2.98553 0.148726 1.74687 1.65298 -0.639267 -0.618782 -0.635785 -0.316004 -0.0730562 0.0753089 -0.199923 -0.449748 1.0132 -0.0417372 -0.659569 -0.640459 0.0130525 0.100372 -0.522824 -0.643416 -0.474061
internal_weight=0 2.85 19.7062 2.03356 0.320972 2.56428 17.6726 1.99286 1.71259 0.285714 8.54038 7.88324 0.178115 1.52857 1.22449 0.657142 0.4881 1.78434 1.24286 6.0989 0.938771 1.1 0.371428 1.49863 0.380957 4.97134 4.1761 2.48901 1.30816 0.285714 0.528571 9.13225 3.63623 5.49602 3.87358 0.571428 1.12756 2.2033 1.68709 1.14286 3.35051 0.571428 0.614286 0.228571 0.571428 2.73073 3.20766 2.92194 1.32994 0.285714 0.285714 0.693871 1.62244 0.285714 0.428571 2.44501 2.89813 0.984699 0.542857 0.367343 2.88027 1.40816
internal_count=360107 43818 316289 15983 558 39346 300306 38592 15425 4472 145032 141437 557 31699 10848 3595 4577 36960 27509 104477 9589 26376 3418 34955 257 98060 91686 78831 33245 4190 26336 155274 56141 99133 66378 5024 6417 78608 12855 18064 54746 754 25997 3414 40 48314 54692 54689 3985 223 177 7248 32755 2005 4146 29965 52086 6415 14469 4565 48271 29268
is_linear=0
shrinkage=0.02


Tree=12
num_leaves=45
num_cat=0
split_feature=20 153 143 153 33 46 158 14 14 14 33 37 38 154 68 146 14 62 32 14 45 144 99 114 106 98 37 158 14 143 99 33 77 28 142 14 142 14 14 14 32 14 14 14
split_gain=6999.09 5059.41 4400.83 17611.4 9479.72 11143 3038.58 3103.15 2478.73 1873.77 1435.52 996.059 994.299 2566.16 1355.5 914.262 781.465 624.081 758.647 536.062 454.557 433.191 404.852 454.531 275.91 273.004 259.256 207.478 188.232 124.302 91.9447 63.7143 44.2026 23.292 23.083 17.5932 13.586 12.7864 9.57218 9.5584 9.49619 1.50625 1.2837 0.00242425
threshold=19.288471500000004 2745.1750000000006 10.500000000000002 689.75500000000022 0.024285714285714289 1.0000000180025095e-35 1.0000000180025095e-35 1.0000000180025095e-35 -1.0000000180025095e-35 -1.0000000180025095e-35 0.0039285714285714297 6.1505178571428578 0.015805815540823887 0.011375961348846384 0.22649572649572655 0.043467879240895319 17.657500000000002 0.10714285714285715 0.25000000000000006 5.2591666666666681 155.72000000000003 4.5000000000000009 0.36930081300813017 0.22775000000000004 0.32142857142857145 0.25543478260869573 8.1123214285714305 30.500000000000004 80.998333333333349 1.5000000000000002 0.055000000000000014 0.0089285714285714298 0.17857142857142858 23.685000000000002 902.50000000000011 -0.086652581867892861 3.5000000000000004 -0.57765183018781696 9.8000000000000025 -1.0000000180025095e-35 0.46428571428571436 -1.0000000180025095e-35 2.2483333333333371 1.6233340000000007
decision_type=10 10 8 10 8 10 10 8 10 10 8 10 10 8 8 10 10 8 8 10 8 8 8 10 10 8 10 10 10 10 8 10 8 10 10 8 8 10 10 10 10 10 10 10
left_child=1 2 3 4 5 31 7 -6 -3 -7 16 17 13 -8 37 -9 -4 18 -12 -10 -2 -16 30 25 -25 39 29 -27 -22 35 41 -1 -31 36 -26 -14 -32 -15 -17 -24 -20 -19 -33 -13
right_child=20 8 10 -5 6 9 12 15 19 -11 11 43 26 14 21 38 -18 22 40 -21 28 -23 23 24 34 27 -28 -29 -30 32 33 42 -34 -35 -36 -37 -38 -39 -40 -41 -42 -43 -44 -45
leaf_value=0.63292992520944047 1.3802053140663486 3.067698909280105 1.39918375470208 7.9588216881594889 2.783945269053167 3.790266235289514 3.069576449759333 1.9822756667963606 1.0365455867134641 7.029576720321729 1.5507933840625885 1.019176079702325 -0.54059125657249252 1.1383813970022361 -0.018800620607978817 -0.25708282626493723 -0.4124885576476629 -0.89785489076789105 -0.065637787402215028 -0.69603351059846974 2.6877082729331581 -0.49481746671851762 0.50589676602929212 0.97986492709740558 -0.1403803140741737 -0.51037185314061406 1.0734698789273875 -0.29734964437205497 1.7411489322331195 -0.3038804060218801 -0.50907497018609793 -0.0067791281521556238 -0.56737719938302289 -0.39759829877445008 0.26954960804035394 -0.069766381894760698 -0.60795437652569173 0.90664245046740721 -0.50265735881852525 0.22254143044763411 -0.49702552349433066 -0.98969733818950045 0.07800712863322469 1.0143019049159274
leaf_weight=0.095242999494075775 0.57142800092697144 0.28571400046348472 0.28571400046348572 0.11688599735498506 0.28571400046348572 0.14285700023174286 0.10714299976825714 0.085713997483249815 0.28571400046348572 0.14285700023174286 0.14285700023174286 0.14285700023174364 0.035714000463485718 0.14285700023174286 1.8571419864892957 0.28571400046348572 0.14285700023174286 0.14285700023174286 0.023814000189304352 0.095242999494075775 0.20408600196242233 1.3000009991228592 0.071428999304771423 0.14285700023174275 0.28571400046348572 3.7777120023965853 0.042856998741626628 3.5451409947127104 0.14285700023174286 0.28571400046348572 0.71428500115871552 0.14285700023174286 2.342854999005795 0.28571400046348561 0.068028001114726067 0.28571400046348649 2.505556046962738 0.28571400046348572 0.081629000604152679 0.14285700023174286 0.14285700023174286 0.14285700023174286 0.14285700023174286 0.057142999023199081
leaf_count=4550 6 3509 4106 486 1552 6150 2822 749 629 432 1066 48 18 4434 24212 5496 16 5229 14578 11 25 24198 3342 3904 5012 187946 15 12028 28 136 6812 3896 1742 13 434 978 28832 88 96 89 33 147 193 21
internal_value=0 -0.0557439 -0.110272 0.251009 0.139661 2.42421 -0.0654768 1.15169 1.65951 5.40992 -0.342614 -0.382151 -0.199974 0.0195976 -0.0715373 0.122336 0.795293 -0.405225 0.481297 0.603384 1.72691 -0.214808 -0.42843 -0.348038 0.238037 -0.386653 -0.470902 -0.407244 2.29795 -0.493338 -0.59878 0.184949 -0.538736 -0.570662 -0.0615468 -0.12208 -0.586019 0.983889 -0.311653 0.316994 -0.435389 -0.943776 0.035614 1.01778
internal_weight=0 21.6378 20.9711 8.20804 8.09115 0.666671 7.42448 0.738771 0.666671 0.285714 12.7631 12.3345 6.68571 3.69286 3.58571 0.453057 0.428571 12.1345 0.309528 0.380957 0.918371 3.15714 11.825 8.03374 0.496599 7.53714 2.99285 7.32285 0.346943 2.95 3.79127 0.380957 2.62857 3.50556 0.353742 0.321428 3.21984 0.428571 0.367343 0.214286 0.166671 0.285714 0.285714 0.2
internal_count=360107 360048 355899 82243 81757 15221 66536 7893 4149 6582 273656 269534 58643 55754 52932 6341 4122 269465 15677 640 59 48410 253788 212755 9350 203405 2889 199974 53 2874 41033 8639 1878 35657 5446 996 35644 4522 5592 3431 14611 5376 4089 69
is_linear=0
shrinkage=0.02


Tree=13
num_leaves=63
num_cat=0
split_feature=141 141 156 155 148 148 24 141 38 4 96 4 0 4 141 146 158 24 47 0 141 141 16 0 148 148 5 5 141 141 146 155 141 38 141 16 104 96 148 4 4 96 47 47 4 24 0 0 16 5 4 38 158 4 0 141 4 107 146 4 158 141
split_gain=20036.5 10581.7 9896 10474.1 6320.39 4783.02 3400.27 2038.4 1733.96 1210.03 1058.99 901.869 675.39 640.287 580.529 588.339 777.645 482.241 379.779 378.71 200.014 177.786 176.285 119.388 112.772 112.342 109.955 95.5854 85.9743 82.923 79.8785 70.459 98.0028 58.7849 90.7261 56.1477 54.4998 46.7006 45.7329 45.1066 44.4025 33.0386 27.9058 22.133 17.6387 16.0303 15.5196 14.2396 13.9846 13.2538 11.4678 11.1798 10.25 9.25322 8.41654 8.16414 8.089 7.97439 7.48808 7.15403 6.03166 21.7169
threshold=74.955000000000013 369.99500000000006 1.7770000000000004 0.024407765629380438 1.6138830173534133 6.6637634408602162 0.25583333333333341 24.995000000000001 0.010666742519057913 0.10714285714285715 1.0000000180025095e-35 -1.0000000180025095e-35 1.0000000180025095e-35 0.25000000000000006 36.715000000000011 0.01640690193544914 1.0000000180025095e-35 0.19750000000000004 0.10714285714285715 1.0000000180025095e-35 79.995000000000019 19.375000000000004 32.357142857142868 1.0000000180025095e-35 1.823387779083431 0.93230034296913289 11.529285750000001 27.481071450000005 47.995000000000012 345.27000000000004 0.034885425402084926 0.018188710455579297 31.795000000000005 0.03778684344722081 11.525 43.21428571428573 -1.0000000180025095e-35 1.0000000180025095e-35 1.1127429467084642 1.0000000180025095e-35 5.3571428571428585 1.0000000180025095e-35 0.17857142857142858 0.25000000000000006 1.0000000180025095e-35 0.060000000000000012 1.0000000180025095e-35 1.0000000180025095e-35 6.6428571428571432 23.868571400000004 1.0000000180025095e-35 0.013932429415818234 1.0000000180025095e-35 0.3928571428571429 1.0000000180025095e-35 20.985000000000003 1.0000000180025095e-35 1.9642857142857146 0.015199218505060908 0.10714285714285715 1.0000000180025095e-35 18.305000000000003
decision_type=10 8 10 10 8 10 10 8 8 8 8 10 2 10 10 8 8 10 10 2 10 8 10 2 10 8 10 10 8 10 8 8 10 10 10 10 10 8 10 10 10 8 8 10 8 8 2 2 8 10 10 8 8 10 2 10 8 10 10 10 10 10
left_child=2 5 7 4 13 6 10 33 27 19 -2 -6 -8 -4 15 16 -10 20 25 39 -12 59 24 -7 31 -16 -19 -9 -27 -22 46 54 -33 34 38 -21 45 -23 51 -5 58 -30 -35 -44 -38 -36 -24 -39 -43 -14 -26 -1 -46 -32 -17 57 -57 -47 -18 -11 61 -54
right_child=1 -3 3 9 11 23 12 8 14 21 17 -13 49 -15 18 22 40 26 -20 35 29 37 30 -25 50 28 -28 -29 41 -31 53 32 -34 42 36 -37 44 47 -40 -41 -42 48 43 -45 52 55 -48 -49 -50 -51 -52 -53 60 -55 -56 56 -58 -59 -60 -61 -62 -63
leaf_value=-0.54010153571967434 -0.44438127548752876 6.8889853781762342 3.0081848281942825 1.3712000422239679 7.7996452282875479 3.0063449738191457 2.7282665025272235 0.88850957408757891 1.9426302113167944 -0.61741968761561583 -0.29729445097935264 4.8032980216943262 1.4817232429304279 0.96289516261183383 0.49018338142394785 -0.31511000535308847 -0.058754670342427852 1.0070582253995342 1.1156137637216106 0.62027130868173519 0.3701175856274091 0.3880773604092444 -0.028560664967807733 3.7144609533083757 -0.1769693639419572 -0.26197706310644547 1.7063259375667128 1.5221173987070473 0.49577880467355334 0.96026759651196769 -0.41885323955218634 -0.5634551218166558 -0.31807924298270929 -0.56362256716615977 -0.1704207034539737 -0.0066435451823104045 -0.064325028525515096 -0.19599578636463871 -0.92490059686213433 1.0158147177038468 -0.36295760151981016 -0.071970494352625286 -0.3406124382769069 -0.5224146479633649 -0.44735527832512967 -0.54081178299172838 0.21809060651169024 0.08639061492936552 0.1051998110443981 1.7041659393775037 0.07644698622745337 -0.67297334710606282 -0.58878938092125011 -0.21525036844275275 -0.14347689171063419 -0.49293833648172575 -0.36975112015390416 -0.41880546420761944 0.055960210800564465 -0.43637076281543907 -0.60567716224681722 -0.8908012509894877
leaf_weight=0.28571400046348572 0.46428500115871429 0.14285700023174275 0.10714299976825714 0.28571400046348572 0.11688599735498373 0.28571400046348561 0.28571400046348561 0.28571400046348572 0.085713997483253146 0.14285700023174264 0.14285700023174308 0.061229001730680466 0.42857100069522858 0.14285700023174286 0.19047100096940994 0.57142901420593262 0.35714299976825714 0.24285699799656868 0.14285700023174275 0.095242999494075775 0.28571400046348572 0.14285700023174286 0.35714299976825714 0.14285700023174286 0.14285700023174275 0.42857100069522824 0.14285700023174286 0.14285700023174286 0.071428999304771423 0.14285700023174286 0.23809999972581852 2.4951420035213201 0.88095699995756138 0.78571401536464691 0.071428999304771423 0.14285700023174286 0.023814000189304352 0.14285700023174286 0.28571400046348561 0.28571400046348572 0.14285700023174286 0.26529999822378159 0.71428500115871407 0.42857100069522858 0.14285700023174364 0.85714200139045738 0.14285700023174286 0.14285700023174286 0.54285698570311081 0.14285700023174286 0.14285700023174286 2.2324279863387444 0.28571400046348583 0.14285700023174286 0.14285700023174286 0.40815699845552444 0.44642800092697132 0.28571400046348572 0.62755598686635494 0.22448600083589554 1.7357130348682404 0.14285700023174286
leaf_count=155 6190 8396 220 1400 757 511 535 314 42 3385 2138 119 130 3 2040 1768 5937 458 1384 1460 24431 1619 14 408 2489 14948 6 1 2919 614 73 86407 9641 11591 1306 21 294 3741 1332 133 1 1788 17569 767 1619 41679 56 3062 12660 1 70 56789 4070 7 1675 1497 9457 48 798 63 4690 2411
internal_value=0 1.58392 -0.210188 1.11105 3.89062 1.30397 0.939383 -0.36222 -0.140107 0.369836 0.339427 6.76962 1.93431 1.83945 -0.20561 -0.29083 0.106154 0.719632 0.130303 0.914275 0.350802 -0.183915 -0.382449 3.24238 -0.434413 0.0363783 1.26605 1.09971 -0.0296968 0.566834 -0.124323 -0.461246 -0.499427 -0.569938 -0.596193 0.24413 -0.539533 0.0928241 -0.685105 1.19351 -0.0334499 0.0834798 -0.471869 -0.408788 -0.605848 -0.464818 0.0419111 -0.0548026 0.0470387 1.53733 -0.0502612 -0.657897 -0.611437 -0.342503 -0.280783 -0.475345 -0.428586 -0.51031 0.014354 -0.506779 -0.622268 -0.68946
internal_weight=0 2.85 19.7062 2.03356 0.428115 2.70714 2.27857 17.6726 8.54038 1.60544 1.42143 0.178115 0.857142 0.25 8.11181 6.47033 1.21327 0.957142 1.64148 0.809528 0.571428 0.795914 5.25706 0.428571 4.3761 1.49863 0.385714 0.428571 1.30816 0.428571 0.880957 4.09039 3.3761 9.13225 7.20368 0.2381 4.39983 0.428571 2.80386 0.571428 1.12756 0.879586 1.92857 1.14286 2.33096 2.06887 0.5 0.285714 0.808157 0.571428 0.285714 2.51814 2.30714 0.380957 0.714286 1.99744 0.854585 1.14286 0.984699 0.367343 2.16428 0.428571
internal_count=360107 43818 316289 15983 1099 35422 34503 300306 145032 14884 33837 876 666 223 144717 108978 6778 27647 35739 3014 27183 11870 102200 919 102050 34355 464 315 32315 25045 150 99491 96048 155274 125347 1481 67071 8422 58276 1533 6736 17367 29927 18336 13084 53987 70 6803 14448 131 2559 56944 12790 80 3443 52681 10954 41727 6735 3448 11171 6481
is_linear=0
shrinkage=0.02


Tree=14
num_leaves=51
num_cat=0
split_feature=148 13 106 156 164 1 159 164 156 0 17 159 1 13 1 167 164 69 0 30 159 163 107 148 0 148 0 163 106 151 1 50 106 6 1 1 40 6 163 164 164 106 163 137 0 1 17 0 1 1
split_gain=14195.6 7535.22 7332.62 3256.92 7758.05 8312.51 4839.61 7401.28 2088.62 1949.64 991.35 952.401 880.615 683.044 986.989 621.222 662.384 543.703 383.333 353.782 318.72 299.981 255.944 241.703 222.396 189.107 158.365 138.703 122.853 212.02 96.2643 87.9736 76.6756 76.6149 73.4746 69.3172 56.9592 48.5394 48.4231 37.8864 20.5055 14.0549 13.9097 13.4195 6.79679 5.45459 1.7855 0.283697 0.235891 0.0490999
threshold=10.970896057347673 82.518750000000011 2.2500000000000004 1.7283641975308643 103.50000000000001 15.607142857142859 14.500000000000002 4.5000000000000009 2.6865332506022352 1.0000000180025095e-35 1.0714285714285716 18.500000000000004 5.3214285714285721 157.78000000000003 0.17857142857142858 1.0000000180025095e-35 25.500000000000004 0.70110169491525431 1.0000000180025095e-35 -31.921666666666667 22.500000000000004 0.16740412979351035 0.10714285714285715 6.6637634408602162 1.0000000180025095e-35 1.9988194444444447 1.0000000180025095e-35 0.03509852216748769 2.8214285714285716 1.0000000180025095e-35 3.75 1.0000000180025095e-35 0.10714285714285715 1.0000000180025095e-35 23.214285714285719 1.4642857142857146 2.1391100000000005 0.072989300000000021 0.25112612612612617 1.0000000180025095e-35 4.5000000000000009 0.32142857142857145 1.0000000180025095e-35 inf 1.0000000180025095e-35 29.178571428571434 0.2142857142857143 1.0000000180025095e-35 750.60714285714289 1.392857142857143
decision_type=10 10 8 8 10 8 10 10 8 2 8 10 10 8 8 8 8 10 2 8 10 8 10 10 2 10 2 8 10 10 8 8 8 8 10 8 10 10 8 8 10 10 8 8 2 8 10 2 10 10
left_child=1 3 9 17 6 -6 22 11 12 -2 15 31 -9 26 -15 16 -10 19 -14 -1 30 25 23 34 -13 27 48 33 29 32 47 -8 -24 -22 39 46 38 42 -37 43 -41 -29 -12 -5 -30 -38 -23 -21 -3 -48
right_child=2 13 -4 4 5 -7 7 8 10 -11 37 24 18 14 -16 -17 -18 -19 -20 20 21 35 28 -25 -26 -27 -28 41 44 -31 -32 -33 -34 -35 -36 36 45 -39 -40 40 -42 -43 -44 -45 -46 -47 49 -49 -50 -51
leaf_value=0.26200193575217773 2.9462180369586912 0.97728665239097678 7.6436527414632671 -0.33522301441626434 6.7512053181343257 -0.071557133113262936 1.0933014817714508 2.948021181475708 -0.0098142329613313019 0.08466280329835088 -0.47956778279691015 2.6737012472448192 1.3437760226874531 1.6721993547284004 4.7072318743541341 1.4901430702147644 0.89858646141631215 0.81158814395077483 0.074918044500186243 -0.1181958722937612 -0.33895161953789654 -0.2520626462727365 -0.19391211347798543 0.38031582655251356 3.6401718624161639 0.40083003484624874 1.506970241174191 -0.057821636718789017 -0.19777753786884167 -0.29134858131937402 0.53578062142882543 1.9037776115409486 0.94106226460890963 -0.60266383964447057 -0.006510674748051247 -0.95140536880730486 -0.21094535907117962 -0.27388715789376966 -0.57822623605923396 -0.48525246214091988 -0.72926908822400283 0.25696100090204899 -0.64298922538757164 -0.61981708218950593 -0.39287250164832815 -0.38571865920946014 -0.34695104428708262 -0.16701228471191809 0.9436372927382316 -0.33036913953322461
leaf_weight=0.28571400046348572 0.28571400046348572 0.19999999925494194 0.11688599735498328 0.91835799813271268 0.14285700023174286 0.14285700023174364 0.14285700023174286 0.10714299976825714 2.0428559705615053 0.14285700023174286 0.35714200139045715 0.28571400046348572 0.28571400046348572 0.14285700023174286 0.061229001730679355 0.14285700023174275 0.38095699995756138 0.14285700023174364 0.14285700023174286 0.14285700023174286 1.7857140153646469 0.14285700023174286 0.028571000322699547 0.14285700023174275 0.14285700023174286 0.14285700023174275 0.57142800092697144 0.3418420013040312 0.14285700023174286 0.14285700023174286 0.14285700023173831 0.085713997483253368 0.14285700023174275 0.58504300191998493 0.14285700023174275 0.14285700023174286 0.14285700023174286 0.28571400046348572 5.2665680404752475 3.8529979996383195 0.14285700023174275 0.068028001114726067 0.50000000000000022 0.071428999304771423 0.14285700023174286 0.14285700023174275 0.14285700023174286 0.071428999304771423 0.14285700023174286 0.14285700023174286
leaf_count=10 163 49 1911 36788 249 1930 1112 3599 2040 104 5513 8473 16 11 63 203 319 82 55 581 1733 2429 422 782 7475 203 35 983 1194 334 3852 5369 4718 8106 39 1392 20 6 17411 201682 2732 324 21964 9897 2729 74 216 707 1 7
internal_value=0 -0.0628136 3.20338 -0.148431 0.0870277 3.33982 0.000765181 0.464658 0.158914 1.99237 -0.00966989 2.43981 1.32626 1.5366 2.58276 0.2085 0.132961 -0.41326 0.920823 -0.431317 -0.452381 -0.475514 -0.38657 -0.43112 2.99586 -0.308837 1.30308 -0.345296 0.00482899 0.277697 0.133631 1.39723 0.751902 -0.404029 -0.453723 -0.555087 -0.573545 -0.499645 -0.588081 -0.466537 -0.493976 -0.00557572 -0.574897 -0.355761 -0.295325 -0.298332 -0.309794 -0.134468 0.963266 -0.33866
internal_weight=0 22.0107 0.545457 20.8924 11.0595 0.285714 10.7737 4.90238 4.24524 0.428571 3.70953 0.657142 0.535714 1.11837 0.204086 2.56667 2.42381 9.83291 0.428571 9.69005 9.40434 9.04719 5.87135 5.27136 0.428571 2.92348 0.914285 2.78063 0.599999 0.314285 0.357143 0.228571 0.171428 2.37076 5.1285 6.12371 5.69514 1.14286 5.40943 4.98564 3.99585 0.40987 0.857142 0.989787 0.285714 0.285714 0.428571 0.214286 0.342857 0.285714
internal_count=360107 357929 2178 357770 319640 2179 317461 56144 33715 267 30045 22429 3670 159 74 2562 2359 38130 71 38048 38038 32898 261317 251920 15948 11349 85 11146 9397 5474 5140 6481 5140 9839 251138 21549 18897 27483 18803 251099 204414 1307 27477 46685 3923 94 2652 1288 50 223
is_linear=0
shrinkage=0.02


Tree=15
num_leaves=63
num_cat=0
split_feature=141 141 141 108 108 141 38 154 1 1 155 38 99 1 141 50 108 141 99 1 1 161 1 155 154 24 24 1 24 4 38 141 141 108 1 99 95 24 99 1 63 32 24 154 61 154 24 24 1 141 141 1 107 1 1 1 1 1 107 14 1 24
split_gain=18501.1 9757.1 5154.34 7698.05 9031.76 4077.34 2834.98 2674.71 2256.97 1526.79 1503.94 1358.84 1019.45 847.065 694.867 501.345 431.776 363.105 338.953 311.913 179.709 168.808 148.886 139.088 127.113 108.949 100.164 88.2749 83.5052 77.7379 60.8569 77.7986 58.4345 50.0524 45.518 44.4861 43.6893 39.5153 31.4734 25.4731 23.6718 19.4377 19.2963 16.7616 15.741 15.2012 15.1117 14.1877 13.6106 9.73724 9.21166 7.99474 7.89835 7.28575 7.14093 6.79634 6.31535 4.37507 4.3642 4.04021 3.55056 3.13667
