tree
version=v3
num_class=1
num_tree_per_iteration=1
label_index=0
max_feature_idx=169
objective=regression
feature_names=is_mobile sem_impressions_w2 sem_clicks_w2 sem_adspend_w2 sem_qty_w2 sem_gmv_revenue_adjustment_brand_w2 sem_orders_brand_w2 sem_margin_brand_w2 sem_ctr_w2 sem_cpc_w2 sem_rpc_brand_w2 sem_roas_brand_w2 sem_convrt_brand_w2 sem_ordersize_brand_w2 sem_mpc_brand_w2 sem_mpo_brand_w2 sem_impressions_w1 sem_clicks_w1 sem_adspend_w1 sem_qty_w1 sem_gmv_revenue_adjustment_brand_w1 sem_orders_brand_w1 sem_margin_brand_w1 sem_ctr_w1 sem_cpc_w1 sem_rpc_brand_w1 sem_roas_brand_w1 sem_convrt_brand_w1 sem_ordersize_brand_w1 sem_mpc_brand_w1 sem_mpo_brand_w1 sem_impressions_v2 sem_clicks_v2 sem_adspend_v2 sem_qty_v2 sem_gmv_revenue_adjustment_brand_v2 sem_orders_brand_v2 sem_margin_brand_v2 sem_ctr_v2 sem_cpc_v2 sem_rpc_brand_v2 sem_roas_brand_v2 sem_convrt_brand_v2 sem_ordersize_brand_v2 sem_mpc_brand_v2 sem_mpo_brand_v2 sem_impressions_v3 sem_clicks_v3 sem_adspend_v3 sem_qty_v3 sem_gmv_revenue_adjustment_brand_v3 sem_orders_brand_v3 sem_margin_brand_v3 sem_ctr_v3 sem_cpc_v3 sem_rpc_brand_v3 sem_roas_brand_v3 sem_convrt_brand_v3 sem_ordersize_brand_v3 sem_mpc_brand_v3 sem_mpo_brand_v3 sem_impressions_v4 sem_clicks_v4 sem_adspend_v4 sem_qty_v4 sem_gmv_revenue_adjustment_brand_v4 sem_orders_brand_v4 sem_margin_brand_v4 sem_ctr_v4 sem_cpc_v4 sem_rpc_brand_v4 sem_roas_brand_v4 sem_convrt_brand_v4 sem_ordersize_brand_v4 sem_mpc_brand_v4 sem_mpo_brand_v4 sem_impressions_v5 sem_clicks_v5 sem_adspend_v5 sem_qty_v5 sem_gmv_revenue_adjustment_brand_v5 sem_orders_brand_v5 sem_margin_brand_v5 sem_ctr_v5 sem_cpc_v5 sem_rpc_brand_v5 sem_roas_brand_v5 sem_convrt_brand_v5 sem_ordersize_brand_v5 sem_mpc_brand_v5 sem_mpo_brand_v5 sem_impressions_v9 sem_clicks_v9 sem_adspend_v9 sem_qty_v9 sem_gmv_revenue_adjustment_brand_v9 sem_orders_brand_v9 sem_margin_brand_v9 sem_ctr_v9 sem_cpc_v9 sem_rpc_brand_v9 sem_roas_brand_v9 sem_convrt_brand_v9 sem_ordersize_brand_v9 sem_mpc_brand_v9 sem_mpo_brand_v9 sem_impressions_v12 sem_clicks_v12 sem_adspend_v12 sem_qty_v12 sem_gmv_revenue_adjustment_brand_v12 sem_orders_brand_v12 sem_margin_brand_v12 sem_ctr_v12 sem_cpc_v12 sem_rpc_brand_v12 sem_roas_brand_v12 sem_convrt_brand_v12 sem_ordersize_brand_v12 sem_mpc_brand_v12 sem_mpo_brand_v12 sem_impressions_v18 sem_clicks_v18 sem_adspend_v18 sem_qty_v18 sem_gmv_revenue_adjustment_brand_v18 sem_orders_brand_v18 sem_margin_brand_v18 sem_ctr_v18 sem_cpc_v18 sem_rpc_brand_v18 sem_roas_brand_v18 sem_convrt_brand_v18 sem_ordersize_brand_v18 sem_mpc_brand_v18 sem_mpo_brand_v18 uber_curr_item_price_w1 uber_num_appr_reviews_w1 uber_avg_overall_rating_w1 uber_price_change_ratio_w1 uber_price_change_value_w1 uber_avg_margin_w1 site_total_page_views_w2 site_total_add_to_carts_w2 site_total_orders_w2 site_total_revenue_w2 site_atcpv_w2 site_convrt_w2 site_rpv_w2 site_mpv_w2 site_total_page_views_w1 site_total_add_to_carts_w1 site_total_orders_w1 site_total_revenue_w1 site_atcpv_w1 site_convrt_w1 site_rpv_w1 site_mpv_w1 bc_bounces_w2 bc_visits_w2 bc_bounce_rate_w2 bc_sem_bounces_w2 bc_sem_visits_w2 bc_sem_bounce_rate_w2 bc_bounces_w1 bc_visits_w1 bc_bounce_rate_w1 bc_sem_bounces_w1 bc_sem_visits_w1 bc_sem_bounce_rate_w1
feature_infos=[0:1] [0:21357.857142857141] [0:1015.8571428571428] [0:288.61357142857145] [-5.5:67.571428571428569] [0:2514.9815714000001] [0:4.6569642999999985] [-220.93857142857144:1655.803714285714] [0.00024593187687010698:3] [0.01:3.71] [0:2114.2199999999998] [0:60674] [0:6] [0:4228.4399999999996] [-1163.2:2114.2199999999998] [-1549.3:4228.4399999999996] [0:26769] [0:681.28571428571422] [0:343.64285714285722] [-10.714285714285714:58.428571428571431] [0:819.47768600000029] [0:2.619529] [-318.4628571428571:604.0628571428573] [0.00044547398431931583:3] [0.010000000000000002:3.71] [0:2114.2199999999998] [0:60674] [0:6] [0:4228.4399999999996] [-1163.2:2114.2199999999998] [-1882.1700000000001:4228.4399999999996] [0:17140] [0:675.21428571428578] [0:209.64571428571429] [-6.0714285714285712:41.5] [0:2105.2427286000002] [0:3.8634571000000002] [-256.31928571428568:1475.9613000000006] [7.5912852045851369e-05:2] [0.01:1.5036802030456855] [0:524.23424999999997] [0:13499] [0:6] [1.96:1834.911620581029] [-698.02575000000002:418.14859999999999] [-4622.8263979193753:855.03540354035431] [0:22102] [0:532.35714285714289] [0:216.15857142857143] [-4.5714285714285712:105] [0:2464.7322929000002] [0:6.9180286000000004] [-628.18000000000018:421.58943571428568] [0.0016339869281045752:2] [0.01:1.4697931034482756] [0:284.98329999999999] [0:18598] [0:6] [1.2:1256] [-276.24000000000001:284.98329999999999] [-4090.1149425287358:1252.8499999999999] [0:25553.142857142866] [0:610.21428571428578] [0:292.95928571428567] [-4.5714285714285712:116.21428571428572] [0:3787.4738714] [0:10.73565] [-626.52357142857159:570.2349571428573] [0.0013502350997585462:2] [0.01:1.3799999999999999] [0:951.99000000000001] [0:18598] [0:2] [1.2:1701.04] [-330:951.99000000000001] [-1150.9999999999998:1701.04] [0:27275.142857142866] [0:672.28571428571422] [0:309.21428571428572] [-1.7857142857142858:113] [0:2024.5415786000001] [0:7.3045429000000004] [-446.17785714285714:520.83051428571434] [0.0014925373134328358:2] [0.01:1.5] [0:1701.04] [0:9998] [0:5] [1.96:1701.04] [-330:1701.04] [-3843.542682926829:1701.04] [0:50352.916666666657] [0:1567.916666666667] [0:819.79750000000001] [-3.25:215.58333333333329] [0:1256.2604249999999] [0:14.262283300000002] [-1276.5016666666668:172.14792499999993] [0.00056116722783389455:2] [0.01:4.0449999999999999] [0:476.88] [0:5810.0000000000009] [0:3] [2.0499999999999998:953.75999999999999] [-332.63999999999999:476.88] [-769.36000000000001:953.75999999999999] [0:30754] [0:730.71428571428578] [0:460.23500000000001] [-6.8571428571428577:70.714285714285708] [0:1445.5224000000001] [0:9.7498786000000006] [-312.69714285714286:1443.7859714285714] [0.0010449320794148381:2] [0.01:1.3411111111111111] [0:171.97999999999999] [0:4518] [0:2.25] [1.8700000000000001:949] [-210.41:171.97999999999999] [-2916.3769507803117:949] [0:3831.9285714285716] [0:81.357142857142861] [0:47.362857142857145] [-0.5:7.9285714285714288] [0:77.210521400000005] [0:0.39309290000000002] [-119.12285714285713:7.883571428571428] [0.0048780487804878049:2] [0.01:3.4004102564102565] [0:55.979999999999997] [0:2400] [0:1.6666666666666667] [6.7999999999999998:196.41802191412398] [-92:55.979999999999997] [-358.36000000000001:99.989999999999995] [0:169248.29999999999] [0:0] [0:5] [0.99999999999999978:1.0000000000000002] [-2.9103830456733704e-11:7.2759576141834259e-12] [0:169248.29999999999] [1:327053] [1:25257] [1:377136] [0:1314711.1499999936] [0.00024125452352231601:4] [4.2027401866016636e-05:32.279069767441861] [0:933.90697674418595] none [1:140791] [1:12089] [1:209088] [0:687269.18000000133] [0.00031123560535325237:3] [5.9708621925005973e-05:13.558734939759034] [0:416.05000000000001] none [0:85497] [1:184569] [0:1] [0:1113] [0:2499] [0:1] [0:37718] [1:79202] [0:1] [0:421] [0:1022] [0:1]
tree_sizes=6694 6788 6863 6807 6288 6812 6826 6749 6809 6815 6764 6822 6798 6849 6753 6799 6815 6802 6811 6847 6814 6892 5275 6817 6862 6851 6830 6829 6836 6814 6760 6866 6856 6788 6838 6849 6825 6825 6883 6809 6811 6869 6819 6857 6830 6827 6859 6845 6883 6847 6813 6882 6882 6816 6292 6858 6874 6870 6832 6834 6841 6851 6853 6856 6833 6781 6790 6851 6880 6916 6887 6887 6857 6873 6827 6886 6858 6882 6889 6847 6873 6897 6898 6923 6870 6824 6849 6905 6910 6864 6864 6846 6887 6875 6864 6902 6895 6927 6849 6884 6912 6896 6899 6883 6950 6945 6925 6904 6940 6902 6929 6932 6936 6924 6400 6987 6939 6926 6928 6933 6909 6938 6918 5526 6938 6911 6915 4642 6592 6878 6908 6953 6947 6986 6967 6957 6933 6945 6997 6896 6936 6924 6963 6997 7016 6953 6938 6923 6974 6904 6950 6905 6914 6942 6920 6946 6967 6918 6999 6946 6956 6979 6929 6986 6981 6974 6994 6924 6972 6961 6963 6979 6946 6978 6971 6982 6986 6981 6971 6992 6979 6944 6928 6984 6998 6958 6977 6997 6944 6978 6996 6939 7000 6975 7039 6924 6958 6959 6986 6964 6952 7023 6936 7026 7037 6946 6952 6992 6985 6960 7012 6965 6974 7007 6953 6988 6928 6995 6985 6974 7006 6947 7005 6960 7029 7032 6946 7030 7018 6988 7006 7016 7004 7027 6992 7000 7041 6998 6969 6979 7005 6993 7040 7034 7017 7008 7008 6976 7003 7010 7026 7042 7018 6998 7017 7043 6947 7011 6803 7013 7077 7039 6897 7031 7025 7058 6980 7026 6998 7027 6995 7043 7012 7030 7051 7002 7028 7045 7067 7050 7016 7039 7030 7008 6965 7085 7063 6999 7060 7029 7030 7093 7050 7022 7011 6964 6993 7044 7111 7008 7058 7017 7031 7055 7079 7087 7031 7047 7068 7034 7105 7128 7053 7090 7031 7052 7031 7035 7076 7037 7091 7049 7084 7066 7099 6972 7102 7110 7040 7066 7050 5336 7073 7130 7046 7076 7090 7038 4458 7032 7018 7041 7083 6844 7048 7028 7019 7104 7068 7025 7073 7064

Tree=0
num_leaves=63
num_cat=0
split_feature=13 136 13 136 136 15 13 98 23 165 161 69 165 165 160 160 38 59 47 5 160 165 42 38 38 35 23 13 38 136 1 23 136 5 38 136 58 161 160 1 23 143 30 1 23 136 1 23 47 48 71 143 82 1 165 139 136 136 13 13 1 23
split_gain=265846 104365 53233.6 35546.2 28914.5 15680.8 10720.6 9220.08 7198.5 8403.57 6192 6058.37 4901.9 24042.6 11306.8 8042.38 5041.98 4326.98 4021.55 3743.05 3164.83 3426.12 2487.51 2386.08 2079.77 1973.22 1896.53 1478.02 1380.92 1366.63 1345.37 1009.8 1552.19 915.797 836.642 825.015 636.906 609.846 523.868 454.819 429.457 1745.48 370.996 364.587 2237.28 354.62 319.353 304.318 268.983 253.189 253.165 247.097 239.838 234.357 226.539 213.751 194.679 209.872 177.393 147.606 178.766 174.633
threshold=99.015000000000015 99.895000000000024 259.98847532623353 305.99500000000006 30.665000000000003 179.97500000000002 46.335000000000008 0.01724377727686922 0.12034482758620692 1.5000000000000002 140.00000000000003 0.61090909090909107 10.500000000000002 11.500000000000002 0.76933041052212048 0.055610779765849348 0.079156223893066008 -0.2565550440440883 0.25000000000000006 19.884117850000006 0.69250801282051289 6.5000000000000009 0.034638304093567253 0.93750000000000011 0.027063649014868536 1.0000000180025095e-35 0.017950645793614568 24.475000000000005 0.0096308434330942393 14.995000000000003 1.3214285714285718 0.099450549450549472 218.01500000000001 14.098571450000003 0.0098491685705599883 59.995000000000012 14.244000000000002 1.0000000180025095e-35 0.3673569085670419 78.285714285714292 0.94444444444444453 91.500000000000014 305.52136363636373 0.60714285714285732 0.25462962962962971 103.99500000000002 25.250000000000004 0.46862745098039221 38.250000000000007 0.0053571428571428581 44.685064935064936 44.500000000000007 -1.0000000180025095e-35 153.07142857142858 1063.0000000000002 1.0000000180025095e-35 93.995000000000019 89.995000000000019 32.995000000000012 19.950997599760004 25.250000000000004 0.34313725490196084
decision_type=10 10 8 10 8 8 8 8 8 8 10 8 10 10 8 10 10 8 8 10 10 10 10 10 10 8 10 10 8 10 10 10 8 10 8 10 8 8 8 10 10 10 10 10 8 8 10 10 8 8 8 8 10 10 10 10 10 10 10 8 10 10
left_child=1 4 5 8 29 22 27 39 17 -10 12 -7 35 -14 15 -15 -17 -3 26 -4 21 -20 28 30 38 53 -19 -6 -2 40 -11 32 -23 45 -29 37 -31 43 -13 -5 49 -42 -21 55 -45 -30 -27 -39 58 -1 -24 54 -35 -9 -51 -8 57 -37 -36 -38 61 -61
right_child=2 3 19 7 6 11 10 25 9 23 -12 24 13 14 -16 16 -18 18 20 42 -22 31 50 -25 -26 46 -28 34 33 36 -32 -33 -34 52 48 56 59 47 -40 -41 41 -43 -44 44 -46 -47 -48 -49 -50 51 -52 -53 -54 -55 -56 -57 -58 -59 -60 60 -62 -63
leaf_value=57.079944683050414 58.29291980656248 65.184941448333618 61.632343889270103 58.284044637468078 56.509219156979 62.669449106093097 56.486687518270664 66.184244733608551 64.877444493991703 58.645548342916683 62.643450911464051 59.97348790356854 65.699244630864797 60.773844472671058 61.433344871702289 57.330894367715437 58.401718713203643 61.788088237093142 61.523844763691095 64.155770310689633 56.671311343768039 58.371196905626853 58.523934279791007 62.056244930542526 60.917328452016541 63.971259914459274 59.127185715925059 58.45904458853672 60.784244721091689 56.404105076532595 60.354044725702039 57.224677675358414 60.503244684688035 59.078169409293565 56.729655237084167 57.432244641330598 56.592705915828745 56.768101603021655 58.987044717044462 60.238644772995386 56.491702928694423 58.239444683624107 63.312710737735962 56.860604908429401 62.489444984836005 59.703346478955076 62.821547527867601 57.712911349998713 57.160613441664601 56.521679655634799 57.900034615344921 56.416317791748135 59.305569396174064 65.038644606102181 57.321044665516204 56.911084786834721 58.103244634620097 56.604244677282175 56.971225948814379 56.658737142126846 56.820129430991187 56.872310171182512
leaf_weight=0.28571400046348572 0.60622799396514893 0.038956999778747559 0.36071400344371696 0.071428999304771423 6.0380970370024425 0.54761400818824768 1.9999980032443958 0.14285700023174286 0.14285700023174253 0.51972899585962307 0.090356998145579293 0.87437099218368497 0.14285700023174541 0.28571400046349182 0.28571400046348472 26.641953000798825 1.8831550013273943 0.1948000006377697 0.1428570002317423 0.9047570154070852 0.42857100069522847 3.1123969592154035 0.48061400279402733 0.14285700023174286 1.2032999992370603 0.20168599858880032 0.23809999972581863 0.14285700023174286 0.1428570002317392 2.6428559720516205 0.28571400046348572 0.28571400046348561 0.14285700023174275 3.2677990049123764 2.6149569898843765 0.85714200139045693 2.6349130198359489 0.19999999925494183 0.28571400046348583 0.14285700023174286 1.1428560018539418 0.28571400046348561 0.27142899855971336 2.4761840179562573 0.028571000322699436 0.80869900342077017 0.18554299976676702 0.42857100069522858 1.3531699925661085 19.381163030862812 0.56715700030326732 13.529537118971346 4.2918290346860886 0.14285700023174286 0.14285700023174186 0.62244299799204217 0.14285700023174286 0.14285700023174286 2.2727290391921997 8.5767209953628569 8.5699400529265386 1.8643009960651387
leaf_count=378 9 23 56 77 964 13 31613 684 5080 13085 9 57 1785 1497 1169 32036 1999 27 2404 45 768 1401 15 126 14 9259 140 5 79 13 245 323 464 29 65 12037 516 9018 25 20 23785 66 82 14197 719 212 50 4371 796 21763 38 69681 14 29 9 22551 1381 769 58 46072 526 25206
internal_value=57.3513 57.0287 59.8936 59.4774 56.8795 59.4798 57.2406 63.2001 58.8954 60.3553 57.4144 60.774 57.4013 57.5145 57.4743 57.435 57.4016 58.5479 58.491 63.4146 58.298 58.4872 59.1091 59.6741 60.3348 64.3506 60.3246 56.7335 59.2152 56.5821 59.2516 58.3647 58.4648 59.2809 56.9457 56.9218 56.6972 56.8243 59.7305 59.5871 56.5017 56.8413 63.9612 56.7522 56.9248 59.8656 63.4204 57.4123 56.9111 56.4871 58.1862 56.482 59.2073 65.6114 56.5275 56.5874 57.4126 57.314 56.842 56.733 56.7524 56.6969
internal_weight=0 114.269 14.6131 6.56264 107.707 13.0762 48.6502 0.887229 5.67541 1.09116 36.2284 2.911 36.138 29.2394 29.0965 28.8108 28.5251 4.58425 4.5453 1.5369 4.1124 3.68382 10.1652 0.9483 2.36338 0.672943 0.4329 12.4218 9.11741 59.0566 0.805443 3.54097 3.25525 8.51118 6.38371 6.89862 24.2887 5.75577 1.16008 0.214286 34.7678 1.42857 1.17619 5.1272 2.50476 0.951556 0.387229 0.628571 6.24086 33.3393 1.04777 33.0536 7.55963 0.285714 19.524 2.62244 1.14286 0.999999 4.88769 21.6459 19.011 10.441
internal_count=359947 359259 688 34205 325054 505 137039 10119 24086 18536 135151 109 135142 38486 36701 35532 34035 5550 5527 183 5360 4592 396 13456 96 10022 167 1888 343 188015 13330 2188 1865 334 924 96656 72333 82469 82 97 115682 23851 127 69080 14916 291 9309 13389 919 91831 53 91453 43 713 21772 54164 14187 12806 123 72320 71804 71278
is_linear=0
shrinkage=1


Tree=1
num_leaves=63
num_cat=0
split_feature=15 58 154 15 146 34 20 23 20 8 94 55 39 15 9 8 146 1 46 1 1 154 19 58 9 146 34 159 8 9 39 146 169 9 20 9 159 58 1 146 169 1 9 15 39 9 34 113 1 19 2 9 19 9 8 39 107 169 19 20 9 8
split_gain=200238 34037 26321.6 12819 11938 26201.6 15056.9 11918.5 22067.5 9702.15 8976.52 7614.06 17775.6 6273.09 5609.38 5144.37 6185.57 5115.81 4840.31 4298.9 3907.28 3487.86 3243.78 2963.97 2875.31 2872.38 2735.91 2627.06 2462.06 2305.3 2413.06 26359.8 2129.55 2077.53 7793.54 6683.66 2494.65 1554.23 1481.35 1467.78 1464.34 1326.53 1296.86 1268.73 1176.55 858.339 828.9 746.472 592.371 490.182 457.546 441.894 416.744 398.582 346.443 270.546 268.605 263.106 249.902 218.668 185.103 183.008
threshold=99.015000000000015 218.33000000000001 0.012348220321323109 179.97500000000002 0.01640690193544914 1.0000000180025095e-35 20.032143000000001 0.017331937554048521 20.972143000000006 0.021751747457669893 0.54166666666666685 4.0630769230769239 0.78071428571428581 25.975000000000005 0.10679487179487181 0.0094914012600963455 0.049388468928698824 137.96428571428575 0.10714285714285715 2489.928571428572 27.107142857142861 0.017552417629439456 -0.64285714285714268 26.975594237695002 0.010312500000000002 0.014567527897147508 -1.0000000180025095e-35 75.500000000000014 0.025007444907683151 0.04055555555555556 0.069888888888888903 0.015077744992635185 0.14424410540915397 0.19720779220779225 28.267857500000005 0.20017241379310349 8279.5000000000018 24.420000000000005 191.14285714285717 0.018875842247365378 0.48861985472154973 8.7500000000000018 0.055000000000000014 -219.71499999999997 0.17901587301587304 0.38000000000000012 0.10714285714285715 0.015167948465128511 238.25000000000003 0.2142857142857143 1.892857142857143 0.23377976190476196 -1.0000000180025095e-35 0.059677419354838716 0.46862745098039221 0.16000000000000006 0.10714285714285715 0.15047169811320757 5.9285714285714297 2.7600000000000002 0.026944444444444448 0.017247328716594085
decision_type=10 10 8 10 8 8 10 8 8 8 10 8 10 8 8 8 10 10 8 10 10 8 10 8 8 10 8 8 10 10 8 8 10 10 8 10 10 10 10 8 10 10 10 10 8 8 10 8 10 8 10 10 10 10 10 8 8 8 10 10 10 10
left_child=2 3 4 32 6 -6 10 8 9 11 22 14 15 37 17 16 21 61 20 28 -15 -13 -1 -16 -24 26 -26 -25 -5 47 31 -31 46 36 35 -35 42 43 45 -7 53 -42 -32 -9 -29 -17 51 -20 -41 -28 -11 -2 -30 -33 56 -54 -49 59 -40 -45 -56 -4
right_child=1 -3 7 19 5 39 -8 13 -10 50 -12 12 -14 18 23 38 -18 -19 29 -21 -22 -23 24 27 25 -27 49 44 52 30 33 40 -34 34 -36 -37 -38 -39 58 48 41 -43 -44 57 -46 -47 -48 54 -50 -51 -52 -53 55 -55 60 -57 -58 -59 -60 -61 -62 -63
leaf_value=2.8531821698428002 1.9470415902108684 5.9578909650992005 5.364700089497906 2.2113594157920695 6.9170185403298632 -0.40904717711287908 1.7218910376717094 0.30869215313157317 3.3849755109080362 4.430333326344682 4.1956281612838611 3.4595120881877213 7.5336272113475209 4.6108754224874255 -0.84944884397391984 -0.25210974856883595 5.4418631431459561 -0.63479313330560372 0.72708906285415398 5.4086362844039773 -0.066817855191175141 0.24745446293724715 2.6133820494502387 -0.76388029648795919 2.3531822428585465 1.1642090809169299 -0.27450082598073022 -0.49141816708621633 2.7541968967884212 8.6563151760863182 0.5151350500671934 0.30667736304269594 1.9537625541168575 1.5843345150247838 7.8978028345504514 -0.26463189832487921 0.57841264913816215 -0.30035595228867634 0.35618679645975798 4.0529822766557384 1.6318655475227735 -0.72852634685136219 -0.48937175608003686 -0.76888207674506537 0.089830199035269662 1.4125495063676723 0.59644639162169899 -0.19044490277481735 1.1731820947408647 -0.64363102007682915 2.8296270010621511 0.9950612414465233 3.4947372125176761 -0.57171279452508994 -0.11501760646700838 4.1793532326320761 -0.82042825015687115 -0.81995440623455906 0.89527957666560998 -0.41962628793100726 -0.93133372782706214 3.9784381531976818
leaf_weight=0.14285700023174186 0.45238499343395033 1.112415026873349 0.051943000406025841 0.90294200181961137 0.38095699995756149 0.42857199907302856 2.8514710068702698 0.42857100069523468 0.78571400046348472 0.14285700023174186 0.19768499955534924 0.17714300006628036 0.14285700023174275 0.14285700023174286 3.7904830034822226 2.6944409720599656 0.15125699993222952 0.14285700023174286 0.14285700023174286 0.35305699706077565 0.14285700023174286 0.57142800092697932 0.14285700023174186 2.547612011432645 0.14285700023174286 0.52381400018930424 3.0506689995527276 1.7592849805951116 0.25714299082756076 0.14285700023174286 0.52379900217056885 0.23809999972581941 4.8739990359172225 0.80952800065279618 0.047614000737666085 23.011819992214441 0.93651402741670509 3.2850580215454093 0.69047099351882912 0.035714000463484719 0.28571400046348561 0.14285700023174286 27.761051080655307 1.6230130046606066 6.6904669757932425 0.12987099587917317 0.71001400053501129 0.28571400046348572 0.14285700023174286 2.7237980291247359 0.14285700023174286 0.3428569994866848 1.2032999992370605 1.5636139959096906 0.49999999999999989 0.28571400046348494 5.1576550044119349 17.585236141458157 0.68537098169326782 1.2846280112862585 0.14285700023174286 0.14285700023174286
leaf_count=585 199 10 86 38 178 224 5 29 7 101 47 62 8 1560 38 1975 90 27 476 6 1 506 158 345 7 216 2493 119 10 120 7908 558 49 7474 1362 69545 24 37 46 566 81 26 188848 197 326 229 16 6369 8 133 7 63 16 983 6272 189 50359 3859 5 96 4561 9
internal_value=0 2.65009 -0.232474 2.25786 0.710497 2.80551 0.498745 -0.326785 0.0951933 -0.0299554 -0.00493676 -0.0812946 0.575503 -0.431759 -0.308956 0.380597 1.75295 2.23991 -0.325123 3.33554 2.27203 1.00756 -0.128381 -0.367155 -0.193073 -0.255317 -0.380977 -0.200922 3.05925 -0.337151 -0.296179 0.32778 1.75069 -0.32407 -0.185641 -0.201798 -0.437144 -0.704788 0.0865896 0.225712 -0.20569 0.845068 -0.47077 -0.768291 -0.0311889 -0.175563 1.09314 -0.701963 1.74914 -0.448618 3.62998 1.53661 3.4977 -0.455632 -0.735506 3.6261 -0.787361 -0.790814 0.624734 -0.614577 -0.296421 4.34808
internal_weight=0 10.4938 118.389 9.38141 10.7641 0.9881 9.77601 107.625 21.4398 20.6541 6.92454 20.3683 5.24284 86.1848 15.1255 5.09998 0.899828 0.337657 61.9783 3.00216 0.285714 0.748571 6.72685 14.7878 6.584 6.44114 5.91732 10.9974 2.6491 61.6926 55.4635 2.37314 6.37926 53.0903 23.869 23.8213 29.2214 24.2065 4.20015 0.607143 2.23028 0.428571 28.2849 20.9214 8.44975 2.82431 1.50526 6.22908 0.178571 5.77447 0.285714 0.795242 1.74616 1.80171 6.08623 1.48901 5.44337 20.4929 1.37584 2.90764 0.642857 0.1948
internal_count=359947 596 359351 586 4620 976 3644 354731 3986 3979 3639 3871 2921 350745 950 2913 658 122 346527 259 1561 568 3592 828 3007 2849 2633 790 253 344966 276929 1768 327 275161 78381 77019 196780 4218 2255 798 1648 107 196756 4181 445 2204 278 68037 574 2626 108 262 215 1541 67561 205 56728 4152 51 293 10833 95
is_linear=0
shrinkage=0.02


Tree=2
num_leaves=63
num_cat=0
split_feature=141 58 141 141 29 144 142 31 3 31 145 146 98 48 2 143 2 140 148 146 144 140 0 156 145 146 148 48 89 38 142 159 9 144 141 48 140 23 2 23 58 0 148 2 23 142 2 156 48 143 141 2 3 16 144 2 2 144 143 83 70 23
split_gain=211971 99349.9 47041.3 42039.1 24209 17921.4 11065.8 10431.4 32029.1 18276.4 9936.61 9770 8733.62 7165.8 6895.71 6386.36 6059.95 5629.61 5114.31 4390.32 4099.31 4027.91 4128.98 3753.38 3365.08 3337.73 2871.92 2663.91 2529.19 2140.65 2001.2 2540.45 1763.97 1757.15 1664.38 1181.77 974.903 833.648 623.108 622.724 593.892 582.106 487.938 483.625 404.177 1680.94 373.741 310.639 247.63 212.889 208.911 208.601 203.63 215.944 194.313 179.585 166.576 165.841 197.433 153.245 143.631 128.213
threshold=99.895000000000024 218.33000000000001 34.995000000000012 305.99500000000006 1.5962500000000002 23.500000000000004 1.5000000000000002 2.6071428571428577 0.06785714285714288 0.32142857142857145 1.0000000180025095e-35 0.11113621529346791 0.062781531531531543 0.013928571428571429 11.321428571428573 3434.5000000000005 0.32142857142857145 1.0658141036401504e-14 0.92356396271967589 0.052641475821935436 5.5000000000000009 1.0658141036401504e-14 1.0000000180025095e-35 6.62765403788634 5129.7399999999989 0.025008934953538245 0.17169622271277901 0.038214285714285721 7.7391666666666685 0.005509683686479268 7.5000000000000009 67.500000000000014 0.34055555555555561 1.0000000180025095e-35 14.995000000000003 3.1175000000000006 1.0000000180025095e-35 0.012586537395244209 0.46428571428571436 0.013398841440061281 14.244000000000002 1.0000000180025095e-35 0.79694244543834281 1.892857142857143 0.94444444444444453 1121.5000000000002 0.96428571428571441 0.038146117677541287 0.0053571428571428581 33.500000000000007 29.545000000000005 2.7500000000000004 0.0060714285714285722 533.357142857143 11.500000000000002 0.10714285714285715 0.17857142857142858 28.500000000000004 33.500000000000007 0.060292895720814303 0.094495757161923113 0.34313725490196084
decision_type=10 10 8 8 10 8 8 8 8 8 8 10 8 8 10 10 10 10 8 10 10 10 2 10 10 10 8 10 10 8 8 10 10 10 10 8 8 10 10 10 8 2 8 10 10 10 10 8 8 8 10 10 10 10 10 8 10 8 10 10 8 10
left_child=1 2 34 6 7 16 -2 8 27 -10 -9 13 37 -8 56 18 -6 26 25 35 38 23 -23 -20 49 29 41 42 30 -12 -28 -32 46 -19 44 -18 -27 -5 -14 -22 -36 -15 -4 -39 47 -46 -11 55 -49 -7 59 -40 -52 -54 -44 -1 -13 58 -50 61 -59 -42
right_child=3 -3 4 12 5 24 11 10 9 32 15 14 20 17 -16 -17 19 33 21 -21 39 22 -24 -25 -26 36 28 -29 -30 -31 31 -33 -34 -35 40 -37 -38 43 51 -41 50 -43 54 -45 45 -47 -48 48 57 -51 52 -53 53 -55 -56 -57 -58 60 -60 -61 -62 -63
leaf_value=-0.94564615247088768 7.3439644701125237 6.2939874948146217 -0.87471264162449802 4.3875876381967869 -0.27576982351196799 -0.14475970574703662 4.1884310640625255 6.3144624936019378 -0.41420638746922528 8.1863076877983172 2.3061186353854461 1.6321818434623205 6.5147415040775067 7.5930855735244913 6.5091851180106612 5.5150187829807491 1.51056793528182 -0.65854027373887336 -0.03975437898865624 3.4248423718933538 5.5664232122780453 3.3594156235582648 -0.51737446966490941 2.2662924671410813 1.9275519160327015 0.79094307541321263 4.0989107237314526 1.5992281858367938 0.17385204077601019 -0.16438695937568643 0.86012642469453793 1.8234828413700803 3.9562748619541792 0.84528489853468414 -0.88707554997970961 2.5140079760524299 -0.70066287940609373 0.91941173071389493 8.4831890114197108 4.3105021596497846 -0.65194495915013306 3.0490956517777534 0.14165709077057986 2.7593461501030836 -0.83492364793843654 0.88019859453001104 6.9334248909274656 -0.26076138125378612 -0.81292786142605533 -0.57241728654496016 0.14207818509661355 7.4721703888406168 -0.5382382839769736 -0.10845886928004549 -0.4615819848249994 -0.36665894901630774 2.5980118558823042 -0.80076639313348097 -0.35400898886585558 -0.47219215142197984 -0.92697404564811337 -0.47092046915492325
leaf_weight=0.28571400046348538 0.14285700023174364 0.90554402396082778 0.73809999972581863 0.10928600281476974 0.35714299976825747 0.78571398556232452 0.42857100069522858 0.095242999494075775 0.19047100096940994 0.14285700023174275 0.14285700023174286 0.14285700023174364 0.21008599828928598 0.038956999778747559 0.28571400046348572 0.079370997846125557 1.2278989814221857 0.42857100069522935 23.78592702746392 1.2032999992370603 0.35305699706077576 0.28571400046348472 0.17857100069522858 0.28571400046348472 0.28571400046348561 0.17857100069522591 0.14285700023173298 0.28571400046348561 0.42430000007152635 7.814479976892474 1.2316280007362372 9.8671550406143052 0.071428999304771423 1.1309419721364973 2.7857129722833633 0.76008500158786807 9.488252080976963 0.071428999304771423 0.14285700023174286 0.28571400046348572 14.311919049825532 0.015870999544858932 0.40952800028026126 0.28571400046348572 1.1428560018539418 0.28571400046348561 0.28571400046348572 0.28571400046348572 13.47442301176488 1.1428570002317422 0.21428599953651328 0.19047100096940994 4.0565709993243217 0.52857101522386063 0.44642800092697144 0.85714198648929607 0.14285700023174286 4.98191112652421 0.38571400009095747 2.8154690042138091 13.068653024733072 1.7571579962968815
leaf_count=157 3642 28 929 152 1217 140 310 582 741 917 17 955 9715 57 1 14 42 1801 99487 43 36 763 1167 1433 36 716 5906 157 28 6252 9428 1889 85 240 15 56 7674 89 104 70 42835 77 4173 12 23727 125 3 374 12149 530 5296 21 9359 10 348 156 60 1880 82 835 77037 23767
internal_value=0 -0.303961 -0.357352 2.15108 0.0934525 1.31381 1.80526 -0.0631575 1.17397 4.85777 -0.138267 1.74985 5.17657 1.64304 4.31214 -0.152817 2.19486 1.5609 -0.163487 2.47136 6.09093 0.0232052 1.86834 -0.0123832 -0.0980914 -0.423395 1.7111 -0.179146 1.68964 -0.120034 1.74685 1.71658 6.86608 0.432018 -0.730345 1.89422 -0.673109 2.85908 7.36781 5.00467 -0.610847 6.27774 -0.497897 2.39136 -0.821322 -0.491899 7.35105 -0.835438 -0.84694 -0.398186 -0.578357 7.90547 -0.460531 -0.488694 -0.172965 -0.511406 2.1151 -0.852188 -0.800157 -0.608302 -0.892141 -0.63215
internal_weight=0 112.811 111.905 16.0718 50.6677 5.76271 14.4231 44.9049 2.57024 0.690471 42.3347 14.2803 1.64861 13.7089 0.571428 42.2395 3.54843 13.2803 42.1601 3.19128 1.18218 24.5359 0.464285 24.0716 2.21428 17.6242 11.7208 1.87977 11.6659 7.95734 11.2416 11.0988 0.5 1.55951 61.2375 1.98798 9.66682 0.466429 0.543414 0.638771 26.4697 0.054828 1.59406 0.357143 34.7678 1.42857 0.428571 33.3393 32.1964 1.92857 23.684 0.333328 4.79943 4.58514 0.855956 1.14286 0.285714 31.9107 13.8601 18.8845 18.0506 16.0691
internal_count=359947 325354 325326 34593 127522 2064 24394 125458 7353 1746 118105 20752 10199 19736 1016 117523 1358 19426 117509 141 9946 102850 1930 100920 706 14659 17385 5607 17251 6269 17223 11317 1005 2041 197804 98 8390 253 9840 106 82117 134 5450 101 115687 23852 920 91835 91522 670 82102 125 14665 9369 4521 313 1015 91148 12231 67437 78917 66602
is_linear=0
shrinkage=0.02


Tree=3
num_leaves=63
num_cat=0
split_feature=13 13 147 153 165 153 13 13 13 153 151 54 147 147 107 107 32 142 151 61 23 142 84 18 151 107 147 142 154 18 18 32 142 54 23 147 91 32 155 162 153 12 147 32 4 142 4 23 84 28 13 154 4 18 22 18 18 32 13 23 165 162
split_gain=236157 47536.6 21923.5 20494.5 33060 17026.3 12051.7 8839.44 7016.94 6505.13 8997.79 22947.2 6458.75 10504.8 5369.99 5235.22 4999.31 18541.8 4424.37 4414.53 4294.97 4477.87 3494.46 3423.66 3019.04 5661.21 2874.14 2752.04 2355.01 2234.94 5304.84 5039.65 6525.98 2228.87 2212.47 5087.72 2119.09 4206.76 1761.76 1481.25 1467.66 1846.13 1338.65 1276.43 1253.18 918.363 885.11 845.145 840.873 812.696 787.417 750.791 908.215 701.187 643.222 630.79 590.312 576.876 564.131 555.261 551.336 594.808
threshold=99.015000000000015 259.98847532623353 0.011637580776225674 86.260000000000005 59.500000000000007 311.93000000000006 177.49000000000004 24.475000000000005 44.982199219922002 297.98000000000008 11.500000000000002 0.071000000000000021 0.021712670119620043 0.020006455777921244 0.10714285714285715 0.3928571428571429 0.10714285714285715 144.50000000000003 1677.5000000000002 311.50000000000006 0.15419580419580423 20.500000000000004 0.20982142857142863 2.2692857142857146 6.5000000000000009 1.1785714285714286 0.031227836879432629 982.50000000000011 0.017245753074756384 0.027857142857142858 0.02928571428571429 0.10714285714285715 1.5000000000000002 0.18007812500000003 0.34313725490196084 0.030308597642788353 0.45833333333333343 0.32142857142857145 0.026103179753406879 9.5000000000000018 559.9100000000002 0.0032473810728745004 0.024198685021573869 2.4642857142857149 9.7857142857142865 5.5000000000000009 1.0000000180025095e-35 0.36931818181818193 0.84021327014218028 133.97965082793402 194.64000000000001 0.094328453783264599 1.0000000180025095e-35 0.030714285714285718 1.0000000180025095e-35 0.86857142857142866 0.61214285714285721 0.46428571428571436 77.591666666666512 0.0086243476564405227 43.500000000000007 1.0000000180025095e-35
decision_type=10 8 8 8 8 10 10 8 8 8 8 8 8 8 8 8 8 10 10 8 10 10 8 10 8 10 8 10 10 8 10 8 8 8 10 10 8 8 8 10 10 10 8 8 10 10 10 8 10 8 8 10 10 10 8 10 10 8 10 10 10 10
left_child=2 6 3 58 5 28 39 -4 -6 34 11 -11 13 57 59 -8 17 -14 22 -17 38 -22 -16 -3 25 -24 40 56 -5 51 31 -31 -33 -19 48 53 37 -32 -18 44 60 42 -42 -26 54 -38 -7 -37 -9 -41 -21 -28 -53 -36 -2 -30 -15 -13 -1 -10 61 -12
right_child=1 23 7 4 8 46 15 9 14 10 26 12 16 27 18 19 20 33 -20 50 21 -23 24 -25 43 -27 29 -29 55 30 36 32 -34 -35 35 47 45 -39 -40 49 41 -43 -44 -45 -46 -47 -48 -49 -50 -51 -52 52 -54 -55 -56 -57 -58 -59 -60 -61 -62 -63
leaf_value=-0.64542829051942963 0.77059845856475551 4.018905581736802 -0.77313513140533618 0.10060508369325474 -0.60409523039458879 5.1232032807859387 1.6122718136901864 -0.62024877918006271 7.4412237641332881 8.3135251457420125 -0.55994904082359032 -0.34559748224960607 8.0225814806365285 6.114572755044283 -0.26485929874719327 5.0033167873722268 0.72907404744675308 1.5672437102396521 5.4047183688717917 3.2951852683986504 -0.24980569272506054 2.2099365065357937 1.2127814408622508 6.2462040836793458 0.8603138107578796 6.1881733158239722 -0.67135086098009966 1.8056939986571232 3.0558801501752648 4.4348891093964617 3.8151007403693771 3.1713534212213266 -0.23052145246614841 -0.66718946376488619 3.581115712147247 1.375761646504543 -0.77815797537000564 -0.45150364067115589 -0.48406950140158195 1.5307015098404333 1.0974594281029273 -0.093811916395939401 0.1201120025118522 0.064725460967984955 -0.73069802756261137 -0.3525508272275234 6.9410081606240919 -0.60018996150506565 0.91856666719863866 1.9370738588410223 2.5290096314656689 -0.83020210214581791 0.86259463599086417 1.5995382065930828 1.6389929611550798 1.4833991174063113 4.2964008882471552 0.67759546128573078 0.62846073905928812 4.2585443270334222 -0.50674468035168363 0.23370454240401675
leaf_weight=5.2202959721907973 0.63445700332522426 0.36071400344371696 21.489748174324632 0.2142859995365114 1.8737990166991947 0.14285700023174286 0.86438499391078949 24.903187077026821 0.038956999778747559 0.14285700023174286 0.57142899930476931 0.28571400046348572 0.14285700023174286 0.14285700023174275 1.3333269804716108 0.54761400818824768 0.52381400018930435 0.28571400046348572 0.079370997846126445 1.4073860011994836 0.61428599804639794 0.57142800092697144 2.3138409815728669 1.1761860139667986 1.6609699875116346 0.095242999494075664 10.689094007015228 0.14285700023174286 0.35714299976825714 0.14285700023174286 0.14285700023174286 0.28571400046348805 1.0714280009269714 0.47618500143289566 0.14285700023174186 0.095242999494075442 2.3403699994087281 0.26190000027418137 5.5760109871625847 3.9186290353536606 1.1756839919835327 3.7410150468349457 1.0714280009269717 1.568255012854934 0.14285700023174275 15.191375976428388 0.42857100069522858 0.95238500088453304 0.14285700023174186 3.9556270195171237 0.86712798476219211 0.22790000215172845 0.28571400046348572 0.14285700023174286 0.73809899389743572 0.14285700023174286 0.14285700023174286 0.96428500115871407 0.14285700023174275 0.050156999379396439 2.412700030952692 1.1142849773168564
leaf_count=3200 54 167 3759 1653 43 195 12 26668 81 161 1943 235 1158 229 71 17 110 46 2 30 8977 6190 1344 16 349 28 157276 7 1510 7009 51 4979 34739 196 1257 9 45082 825 11753 17 642 53 307 1313 1 26438 6 5976 19 23 80 300 20 364 271 10 2 1491 5 129 524 525
internal_value=0 2.39616 -0.304013 0.391074 0.913124 3.91336 2.00509 -0.414421 0.485182 -0.31446 -0.18201 0.355162 0.239961 1.37015 0.771043 2.97411 0.00833298 1.4105 0.709382 3.39122 -0.165796 0.935611 0.655927 5.72345 0.873671 1.40948 -0.314065 4.07222 1.8548 -0.410466 -0.280785 0.861779 0.485662 0.170728 -0.569211 0.224633 -0.376336 1.05437 -0.379892 1.62464 -0.0212338 0.178354 0.631458 0.473941 1.05203 -0.409367 6.48656 -0.42055 -0.611472 1.73484 3.00309 -0.635461 0.11147 2.59033 1.23758 2.6066 5.20549 0.443723 -0.611496 5.64988 -0.312848 -0.0353308
internal_weight=0 14.6131 114.269 15.6628 10.2996 1.28571 13.0762 98.6066 9.01392 77.1169 50.7375 10.0117 9.86886 1.67857 7.14012 3.68651 8.19029 0.904756 7.05101 2.82213 7.28554 1.18571 6.97164 1.5369 5.63831 2.40908 40.7258 0.428571 0.714286 30.6392 19.4365 1.5 1.35714 0.761899 26.3794 1.33334 17.9365 0.404757 6.09982 9.38967 10.0865 5.98813 2.24711 3.22923 1.51541 17.5317 0.571428 1.04763 25.046 7.87426 2.27451 11.2027 0.513614 0.285714 1.37256 0.5 0.285714 1.25 5.36315 0.089114 4.09841 1.68571
internal_count=359947 688 359259 9939 6734 3374 505 349320 3360 345561 311268 30555 30394 1964 3317 139 28430 1400 3107 127 27030 15167 3105 183 3034 1372 280713 238 3173 276719 119123 46727 39718 242 34293 7606 72396 876 11863 366 3994 1002 949 1662 326 71520 201 5985 26687 40 110 157596 320 1621 325 1520 231 1726 3205 210 2992 2468
is_linear=0
shrinkage=0.02


Tree=4
num_leaves=59
num_cat=0
split_feature=15 43 140 167 140 16 73 43 20 15 140 140 38 93 33 33 140 29 33 30 41 144 92 73 22 12 144 45 7 7 140 22 43 3 5 63 41 152 22 55 15 140 33 45 7 52 7 15 3 115 5 3 7 140 3 7 12 3
split_gain=177621 31536.1 26149.8 23429.4 19569.1 17979 12508.1 11149.7 12391.7 11035.2 10611.4 7651.1 8056.74 6159.75 5988.82 27029.5 3924.58 3866.79 3246.18 2718.2 2122.45 1946.38 1448.88 1130.49 927.392 742.652 513.225 481.399 309.975 308.608 232.632 228.278 212.291 169.817 162.758 126.591 248.58 110.893 106.705 102.773 92.2148 84.8965 77.0894 74.7916 53.9657 34.9038 29.5018 20.1485 17.4058 12.977 10.058 8.8207 8.25408 5.47336 4.92923 2.34309 2.08029 0.134921
threshold=99.015000000000015 216.34500000000003 1.0658141036401504e-14 45.000000000000007 -4.2632564145606017e-14 3.6428571428571432 74.800000000000011 33.114597010074512 37.949285500000009 179.97500000000002 8.526512829121206e-14 -5.3290705182007506e-15 0.93750000000000011 0.0012500000000000002 0.0275 0.026785714285714291 2.1316282072803012e-14 0.93764166666666671 0.76392857142857162 46.540000000000013 28.975514069264076 24.500000000000004 0.29166666666666669 180.25159782080803 -1.0000000180025095e-35 0.013847744014732951 5.5000000000000009 19.995000000000001 49.131310714285711 1.8900000000000003 4.263256414560603e-14 -9.5964285714285698 12.095000000000001 5.0610714285714291 1.0484535500000003 0.64750000000000008 20.506575498234486 3.5000000000000004 -23.209285714285709 1.988519480519481 -105.3618957617411 -1.0000000180025095e-35 0.11821428571428573 102.46500000000002 9.5600000000000023 -18.822857142857142 5.960357142857144 22.985000000000003 7.9153571428571423 0.3612301513358967 6.3728571500000015 31.166785714285712 8.7164285714285743 2.1316282072803012e-14 1.7357142857142855 -1.0000000180025095e-35 0.025643589743589702 0.053571428571428582
decision_type=10 10 10 10 8 10 10 8 10 8 8 10 10 8 8 10 10 8 10 8 10 8 10 8 10 10 8 8 8 8 8 10 10 10 8 10 10 10 10 10 8 10 8 8 10 10 8 8 10 8 8 10 8 8 10 10 10 10
left_child=2 9 3 4 -1 16 7 27 11 20 21 14 13 -13 15 -9 -4 -11 48 -16 26 50 25 31 -3 -19 29 32 41 -2 -18 -8 40 52 45 36 44 42 -36 47 -6 54 -29 -22 -28 -34 -43 -39 57 -42 -7 56 -31 -23 -27 -55 -33 -12
right_child=1 24 5 -5 6 10 23 8 -10 17 18 12 -14 -15 19 -17 30 22 -20 -21 43 53 -24 -25 -26 28 35 37 -30 33 -32 51 34 -35 38 -37 -38 39 -40 -41 49 46 -44 -45 -46 -47 -48 -49 -50 -51 -52 -53 -54 55 -56 -57 -58 -59
leaf_value=7.0946912262485755 0.52515673615784608 6.241772736129418 3.2480287173081002 1.773839732406008 -0.65008416761783794 0.85846135644939681 1.5881181089655614 0.25244328830528434 1.8303931505434903 5.0844326642511941 6.9763992717986758 3.7387987843083859 4.3461913966361223 -0.41921745618518502 -0.45644032788516437 6.6559362868626391 7.133658245132855 2.3554891532203941 2.6567299473420567 0.00659825281581754 0.53335752170264616 -0.49997600573512191 1.8021934529110197 3.1505236536149375 5.086403071393276 3.3330082816417321 2.6483500299511871 -0.62690723065710308 2.6120631731419972 1.7930009050825209 5.9922814494796697 0.92386337331044577 -0.98148018283264604 1.3228998909796379 -0.44416248586073787 1.8373233277609238 1.5279983815848692 -0.73507481921186424 -0.71230031446720632 -0.43083185555870041 -0.83685605755181713 3.8771777905660092 -0.066581984315517734 0.90694859628499358 2.2146002606649784 -0.8216761397762814 3.4707173475333986 -0.60267792247039875 7.4654787632479236 -0.91058484838290132 0.73614796024345008 1.1389053697057558 2.0001741387941032 -0.69790138303328164 3.2519474662664996 -0.59869961429944663 1.0279194127112652 6.8907127112555786
leaf_weight=0.14285700023174286 0.14285700023174408 0.57142901420593262 0.28571400046348516 2.2153000161051741 0.66667100787162781 0.69047097861766782 0.72652798891067494 3.4178549945354466 1.1428570300340641 0.35305699706077398 0.05882899835705746 0.14285700023174286 0.14285700023174186 58.950481058564037 6.8155130352824926 0.28571400046348561 0.14285700023174275 0.46712799370288971 0.14285700023174286 19.813999990001328 0.42430000007152557 0.17857100069522869 0.435814008116722 0.15872799977660079 0.54098601266741642 0.57142901420593328 0.17142800055444229 0.14285700023174286 0.2571429908275612 0.14285700023174286 0.14285700023174297 0.16632800363004197 0.857143014669416 0.57142798602581024 0.64285700023174541 3.7795860469341278 0.19999999925494194 0.92857100069522858 7.7548961471766207 1.1874009966850279 1.1666709929704664 0.14285700023174031 0.31428500078618826 0.43318500090390433 0.34694300219416618 1.5095279961824415 0.14285700023174353 0.91071300208568595 0.047614000737667084 5.2608269881457117 0.44047099351882946 0.21428599953651428 0.16667099297046517 0.14285700023174264 0.63187098503112793 0.28571400046348572 0.14285700023174286 0.00839999970048666
leaf_count=2904 5 3 2677 28 15 89 34 5516 14 12 199 610 2175 255331 1210 46 1337 11 12 82634 8 190 6 71 37 81 82 125 17 68 3022 104 60 4 61 10 3 19 144 19 31 12 24 34 44 116 93 34 1 210 4 3 65 7 1 184 8 83
internal_value=0 2.49594 -0.218952 -0.263206 -0.302928 1.77757 -0.312242 -0.335787 -0.239018 2.11839 0.881983 -0.265423 -0.397697 -0.409166 -0.00710869 0.746445 4.9055 3.11829 4.66935 -0.111911 1.64783 0.320443 2.85625 1.56059 5.6799 3.06381 1.79159 -0.747085 3.25329 1.38744 6.56297 1.3587 -0.789038 1.52727 -0.733059 1.88358 2.12695 -0.532027 -0.691774 -0.57588 -0.873979 3.36403 -0.241684 0.722089 2.35804 -0.879553 3.67395 -0.669519 7.1729 -0.897202 0.810824 1.04029 1.90456 -0.593005 3.29044 -0.631767 0.971942 6.96569
internal_weight=0 10.4938 118.389 115.821 113.606 2.56721 113.463 112.055 90.7121 9.38141 1.99578 89.5693 59.2362 59.0933 30.3331 3.70357 0.571428 3.00216 0.2577 26.6295 6.37926 1.73808 2.6491 1.40873 1.11242 2.21328 5.52177 21.3424 1.74616 1.02381 0.285714 1.25 17.8586 0.880956 10.7644 4.49796 0.718371 3.48383 8.39775 3.02668 7.09417 1.48901 0.457142 0.857485 0.518371 2.36667 0.285714 1.83928 0.114843 6.4275 1.13094 0.523471 0.309528 0.607142 1.2033 0.428571 0.309185 0.067229
internal_count=359947 596 359351 351546 351518 7805 348614 348394 347536 556 769 347522 258116 255941 89406 5562 7036 233 295 83844 323 474 221 220 40 215 281 858 204 142 4359 149 637 137 381 139 129 221 205 72 256 187 149 42 126 176 105 53 283 241 93 115 133 381 82 191 112 282
is_linear=0
shrinkage=0.02


Tree=5
num_leaves=63
num_cat=0
split_feature=141 75 28 141 141 155 148 28 150 148 98 148 146 32 151 155 160 146 53 160 163 141 108 141 154 44 146 148 3 69 93 163 141 28 5 32 3 28 69 141 34 137 148 160 69 0 155 155 32 3 148 105 3 6 3 76 154 154 3 17 169 3
split_gain=190883 83975.2 67927.4 37650.3 25092.2 22516.5 17587 14779.5 10396.3 9315.65 7883.7 6567.05 3900.01 3739.81 18585.5 4278.8 5310.16 3593.29 3518.87 3223.19 3197.27 2911.53 2724.72 2675.19 2275.81 2194.94 1981.02 2446.77 1794.62 1746.64 1744.71 1319.09 1233.22 1194.22 1051.18 1050.58 1000.77 898.63 882.304 874.682 862.814 803.843 748.29 670.769 565.891 561 423.28 403.028 440.095 402.626 374.465 371.575 332.149 314.939 304.739 242.319 265.697 1593.09 209.995 180.677 171.813 170.19
threshold=99.895000000000024 219.99094959495955 116.93686342208352 305.99500000000006 30.665000000000003 0.0050826003280763626 0.99902380952380976 258.15500000000003 1.5000000000000002 1.0000000180025095e-35 0.062781531531531543 0.95627689873417732 0.050707082250092857 0.10714285714285715 1.5000000000000002 0.030785026062233458 0.72255689424364133 0.051116117226853816 0.083138839018551777 0.99479166666666685 0.11189358372456963 68.605000000000018 0.026785714285714291 162.98500000000004 0.010996568768233144 -0.47380952380952374 0.025008934953538245 0.81543913713405258 0.015357142857142859 0.18000000000000002 0.67791666666666683 0.12347560975609757 14.995000000000003 244.09181754549704 1.0000000180025095e-35 0.10714285714285715 0.68857142857142872 290.20217535876805 0.70003875968992257 45.085000000000008 1.0000000180025095e-35 inf 1.1979361128063475 0.47729051074121503 0.80083333333333351 1.0000000180025095e-35 0.027058182101409773 0.018192160512979626 1.0000000180025095e-35 0.81392857142857145 0.6635183030046552 33.190000000000005 0.21321428571428572 0.20521430000000004 0.068928571428571436 0.10714285714285715 0.094328453783264599 0.10729043683589139 0.053571428571428582 0.78571428571428581 0.24283374283374293 1.7357142857142855
decision_type=10 10 10 8 8 8 10 10 8 8 8 8 8 8 8 8 8 10 10 10 8 10 8 10 8 8 10 10 10 8 8 10 10 10 8 8 8 8 10 10 8 8 8 10 8 2 8 8 10 10 10 8 10 8 10 8 10 10 10 10 10 10
left_child=1 2 4 7 32 6 17 8 -2 -7 42 26 33 14 -13 16 -15 30 19 22 43 -17 45 24 44 -25 27 39 -27 -16 -6 -32 47 53 -20 -8 -26 -22 46 -11 -33 -29 -5 58 -24 -10 -28 48 52 -44 -49 -34 -1 -4 -39 -52 -57 -58 -12 -53 61 -61
right_child=3 -3 12 10 5 9 35 -9 18 11 20 13 -14 15 29 21 -18 -19 34 -21 37 -23 23 25 36 28 38 41 -30 -31 31 40 51 -35 -36 -37 -38 54 -40 -41 -42 -43 49 -45 -46 -47 -48 50 -50 -51 55 59 -54 -55 -56 56 57 -59 -60 60 -62 -63
leaf_value=1.4885708370816244 6.9909851443172197 6.0369258864621491 1.9032131966571408 4.1507714083857268 -0.4175394141711315 6.0642776610325075 3.8109829542763349 6.2174692048197109 7.3007839165224038 -0.48776758199890685 5.8724355961856576 7.8570811322991867 3.2246330596793418 0.31082090877394708 1.530849917038442 -0.26616864277371222 4.2103408886915119 5.2611473111551605 1.644390444125543 -0.58672563002432832 4.0444538822533067 0.60343894976770163 2.6697866677598077 -0.68394337272950501 1.3406257195351836 4.0387439995385153 -0.55635867249174364 2.2356086734798577 1.7764052773031096 -0.28838577546593896 0.53122687154712833 1.2248949009372518 -0.83134689374844983 2.5725256086836086 4.070579472911712 6.522817486357245 0.68075735223498934 6.8368715716756485 0.90857964627199683 0.0149262917090124 2.6279303306681578 0.55099531253992273 0.91645881032284182 7.9457879906909863 1.6750435613371863 2.839932352800854 -0.80323983010262756 -0.85862485259022847 -0.68651792614097018 2.5952595872043331 0.11089418753848244 -0.63432834219418643 -0.25006373650238389 1.3863513166969268 5.282108833172499 -0.79612236053341245 0.85372706770469653 -0.71061320320240895 6.9416960296775567 -0.42281488717234317 -0.64968623339307119 -0.61886857500902337
leaf_weight=0.047614000737666973 0.14285700023174186 0.83332902193069358 0.79932799562811863 0.10928600281476974 0.32142800092697144 0.095242999494075775 0.071428999304771423 0.28571400046348649 0.038956999778747559 5.0140399783849743 0.14285700023174286 0.14285700023174286 1.2032999992370599 6.2878250349313021 0.28571400046348572 18.662060992792259 0.14285700023174275 0.079370997846126445 0.095242999494076552 0.28571400046348649 0.28571400046348572 1.6785700023174275 0.28571400046348572 0.14285700023174286 1.5138849914073893 0.14285700023174275 5.8679680451750755 0.14285700023174275 7.6993270199745893 0.80832700245082356 0.5999990012496712 0.42857100069522858 2.4285709708929062 0.67845700308680523 0.28571400046348572 0.28571400046348561 2.3409559726715088 0.058828998357056461 0.14285700023174364 1.9126839935779569 0.29670000076293945 0.54761399328708649 0.071428999304771423 0.19047100096940994 1.1474710302427409 0.015870999544858932 5.2750540375709498 20.30629109218717 4.3214259967207909 0.28571400046348572 0.14285700023174286 9.8061070046387666 0.57142800092697144 1.1499989777803421 0.35305699706077576 6.1537400297820533 0.28571400046348605 2.9387710317969322 0.15125699993222952 6.6302410103380662 3.0071560181677333 2.416656032204628
leaf_count=873 4839 10 56 17 103 662 6 41 290 5491 503 612 102 2556 92 99792 29 22 172 1140 11 11086 25 19 8071 4851 2803 163 2981 4837 382 59 223 32 340 104 1078 9022 6 675 244 357 216 96 130 417 7042 104661 326 20 27 71315 18 4 250 6397 315 3069 64 660 107 36
internal_value=0 -0.288462 -0.335535 2.04126 -0.428248 -0.0941052 1.94058 1.71398 1.62297 -0.184278 4.90447 -0.196964 2.28164 -0.00256219 1.07261 -0.0522379 0.397448 1.10469 1.56817 1.51512 5.7732 -0.194406 1.56018 1.5418 1.19289 1.77286 -0.485004 -0.235787 1.81762 0.186716 0.904348 1.22496 -0.705999 1.84983 3.46401 5.98045 0.939903 4.90632 -0.653208 -0.348958 1.79886 0.899538 2.70263 7.02114 1.87335 6.00951 -0.673231 -0.782388 -0.615074 2.2595 -0.810101 -0.596653 -0.116336 1.59829 5.50417 -0.70661 -0.719063 -0.572001 6.42234 -0.570579 -0.518719 -0.475186
internal_weight=0 112.811 111.977 16.0718 108.146 49.0897 2.08321 14.4231 14.1374 47.0065 1.64861 46.9113 3.83108 28.0082 1.2369 26.7713 6.43068 1.72607 13.9946 13.6136 1.18218 20.3406 13.3279 13.2731 5.28803 7.98504 18.9031 7.61719 7.84218 1.09404 1.6467 1.32527 59.0566 2.62778 0.380957 0.357143 3.85484 0.6976 11.2859 6.92672 0.725271 0.690471 0.466429 0.484585 1.43319 0.054828 11.143 34.7678 4.94047 0.357143 29.8274 24.2887 0.619042 1.94933 0.411886 9.52108 9.37823 3.22449 0.294114 21.8602 12.0541 9.0469
internal_count=359947 325354 325344 34593 325150 137123 920 24394 24353 136203 10199 135541 194 119004 5541 113463 2585 810 19514 19002 9946 110878 17862 17155 9304 7851 16537 6686 7832 4929 788 685 188027 92 512 110 9149 9283 9851 6166 303 520 253 663 155 707 9845 115686 1217 236 114469 72341 891 60 9272 9808 9781 3384 567 72118 803 696
is_linear=0
shrinkage=0.02


Tree=6
num_leaves=63
num_cat=0
split_feature=141 37 141 141 29 144 150 72 145 98 140 145 144 5 9 150 150 3 22 81 166 144 46 166 3 46 63 161 150 9 150 140 159 141 144 141 144 163 14 141 144 163 3 9 3 145 141 62 105 22 169 140 91 62 141 3 54 141 159 3 151 3
split_gain=183324 89295.6 36159.3 33953.4 11432.9 11837.5 9646.97 9610.88 8642.24 7571.5 6616.79 6205.94 25107.7 5871.34 7437.19 11500.7 5414.48 4932.39 4325.79 3902.13 10159.6 3641.3 3270.55 2926.92 2742.72 2700.15 2376.93 2112.87 2034.19 2020.49 1897.98 1701.02 1587.93 1514.24 1492.75 1407.48 1352.01 1252 1251.47 1151.26 990.353 767.47 646.102 624.773 606.462 581.235 580.794 472.089 421.85 363.085 349.077 1007.89 613.597 272.94 258.882 253.116 241.383 222.807 221.02 211.262 195.937 190.193
threshold=99.895000000000024 15.150278571428574 305.99500000000006 34.995000000000012 1.5962500000000002 23.500000000000004 1.5000000000000002 0.016807909604519802 1.0000000180025095e-35 0.062781531531531543 1.0658141036401504e-14 262.91500000000008 1.5000000000000002 1.0000000180025095e-35 0.24000000000000005 19.500000000000004 13367.000000000002 0.81392857142857145 6.5692857142857148 1.0000000180025095e-35 0.28239784463403689 5.5000000000000009 5.2500000000000009 0.82766870153440031 0.011785714285714287 402.03571428571439 1.0139285714285717 3.5000000000000004 1869.5000000000002 0.19720779220779225 4.5000000000000009 1.0000000180025095e-35 67.500000000000014 14.995000000000003 1.0000000180025095e-35 89.00500000000001 2.5000000000000004 0.97826086956521752 13.027500000000002 189.99500000000003 18.500000000000004 0.25245098039215691 0.63214285714285723 0.16666666666666671 0.057500000000000002 148.93000000000004 636.22000000000014 0.3928571428571429 33.190000000000005 -1.0000000180025095e-35 0.16843971631205676 -1.3322676295501877e-15 3.6250000000000004 0.10714285714285715 61.995000000000012 31.166785714285712 0.071000000000000021 29.545000000000005 71.500000000000014 1.2207142857142861 19.500000000000004 0.0060714285714285722
decision_type=10 10 8 8 10 8 8 8 8 8 10 8 8 8 8 10 10 10 10 8 8 10 8 10 10 8 8 10 8 10 8 8 10 10 10 8 10 10 10 8 8 8 10 10 8 8 10 8 8 10 8 10 10 8 8 10 8 10 10 10 8 10
left_child=1 3 6 33 8 18 -2 -3 -5 42 19 23 17 14 16 -16 -14 -13 -6 20 38 43 29 31 -25 -20 41 49 60 -21 -28 45 39 50 -12 47 -34 55 -8 -32 -37 59 -4 -11 -27 54 -23 -15 -35 -22 51 52 -1 -45 -10 -33 -53 -50 -47 -24 -7 -59
right_child=2 7 9 4 5 28 10 -9 11 21 34 12 13 35 15 -17 -18 -19 25 22 27 46 26 24 -26 44 30 -29 -30 -31 32 37 36 48 -36 40 -38 -39 -40 -41 -42 -43 -44 53 -46 58 -48 -49 57 -51 -52 56 -54 -55 -56 -57 -58 61 -60 -61 -62 -63
leaf_value=0.83665249430711486 6.8511655161989315 4.8195170473220479 0.89812966215424195 5.9429922119477299 -0.25207698230947273 -0.12325006424909019 6.093120173201716 2.2887855526803631 -0.33851552925849598 7.9967229190533766 -0.6067489164895401 6.3923614997896401 -0.086091203160058444 1.1380999483569862 3.4094386520077276 0.52204191864534655 5.1559246052400072 1.8408728095662203 1.365495550134374 4.0979843696834015 2.1711589364356971 3.9635646337096326 0.73230420782401084 -0.40440398536721889 3.5146847528796914 3.2018553147244933 3.9579690394391949 2.8978896852945253 2.1070092065575117 1.692180883825352 1.3041050627591755 -0.67838008962185825 2.6617195011476986 -0.81399219840742931 0.7793249517225691 0.2040895957692648 1.6631233805310583 0.041535202431921485 3.8004798303864424 -0.15250059377461289 -0.50860696688702145 1.5455192834811049 2.9651158726545193 5.7549871299286925 2.3394880294420255 2.2055376424667688 5.1764663410099629 -0.033733411915465326 -0.5711075741311763 1.0734765955348915 -0.79774334103648392 0.10867630245256742 -0.65783695298704203 6.844889907570165 0.33097612999976611 0.16969138636175909 -0.72299870116433884 0.16287967934333253 0.41044281064795535 0.13662775870345609 -0.53352776718579287 -0.44647631633761914
leaf_weight=0.28571400046348561 0.14285700023174364 1.1802720241248605 0.071428999304771423 0.095242999494075775 0.35714299976825747 0.78571398556232452 0.28571400046348561 1.2214279770851129 1.2071409877389665 0.14285700023174175 0.42857100069522935 0.28571400046348572 11.293976021930582 0.14285700023174286 0.61904200166463752 5.0787820033729076 0.079370997846127334 0.14285700023174286 1.0850419811904428 0.33765700086951256 0.14285700023174275 0.28571400046348572 0.54285699129104614 0.14285700023174364 0.14285700023174286 0.57142901420593273 0.14285700023173653 0.46752800047397614 0.14285700023174275 0.23809999972581863 0.90305700153112378 9.6439660135656542 0.58729900047183026 2.4857139699161053 1.1309419721364973 0.85714200139045715 7.0818710522726178 1.1142849773168571 0.14285700023174286 0.28571400046348583 8.6547830533236247 0.36667099408805348 0.39500000327825546 0.14285700023174286 0.76008500158786785 0.028571000322697215 0.35305699706077576 3.6778840348124482 19.098831051494933 0.77142800018191349 28.053559146821499 0.14285700023174286 0.17857100069522858 0.25769999902695417 0.28571400046348583 0.14285700023174364 6.1071400046348572 0.21428599953651328 0.69047100096940994 0.42430000007152557 1.1428570002317422 4.6708560157567263
leaf_count=604 4843 19 223 630 930 125 185 25 2072 5244 1742 342 72237 519 11657 3876 32 9 51 492 188 80 39 260 158 329 4849 18 47 59 6723 16794 780 246 281 671 845 1021 3 3127 8741 50 30 30 45 498 26 4782 67245 163 111441 33 32 4566 829 1 3577 5270 324 7 530 9352
internal_value=0 -0.282693 2.00043 -0.365683 0.0257176 0.948138 1.67971 3.53247 -0.0751082 4.80638 1.62797 -0.088067 0.068103 0.000342407 0.245961 0.835744 -0.0495088 4.8752 1.80244 1.77871 2.63863 5.65774 1.63602 -0.447437 1.55514 2.10608 1.55429 1.80424 -0.195799 3.10308 1.67105 -0.49107 1.63417 -0.679963 0.398417 -0.314148 1.7396 -0.593678 5.32891 0.954019 -0.444384 0.766369 2.64858 6.86117 2.70958 0.0146218 4.63395 0.0100813 -0.565982 1.24499 -0.76674 -0.637202 0.261849 6.45618 -0.210383 -0.666001 -0.703989 -0.540278 0.481771 0.470976 -0.366378 -0.419747
internal_weight=0 112.811 16.0718 110.409 49.1715 4.84513 14.4231 2.4017 44.3264 1.64861 14.2803 44.2311 30.8324 30.4038 17.0712 5.69782 11.3733 0.428571 2.7737 12.7208 1.81038 1.18218 10.9104 13.3987 0.285714 2.41656 10.3346 1.38181 2.07143 0.575757 9.0008 13.113 8.85794 61.2375 1.55951 13.3327 7.66917 10.9011 0.428571 1.18877 9.51193 1.33383 0.466429 0.543414 1.33151 2.2119 0.638771 3.82074 26.4697 0.914285 34.7678 6.71428 0.464285 0.400557 1.49285 9.78682 6.25 23.984 0.719042 0.967157 1.92857 4.88514
internal_count=359947 325354 34593 325310 127510 2057 24394 44 125453 10199 19551 124823 102866 102515 87802 15533 72269 351 1355 17528 557 9946 16971 21957 418 425 16420 369 702 551 16324 21539 11475 197800 2023 14713 1625 17816 188 9850 9412 96 253 9840 374 3723 106 5301 82113 351 115687 4246 636 4596 2901 16795 3610 81867 822 46 655 14622
is_linear=0
shrinkage=0.02


Tree=7
num_leaves=63
num_cat=0
split_feature=147 145 43 140 152 145 5 164 143 1 145 147 17 140 31 146 147 145 29 43 145 143 39 0 24 140 31 43 31 68 152 145 72 7 7 5 49 44 1 138 152 24 114 43 137 158 76 145 152 8 1 8 24 7 31 147 145 1 8 1 75 152
split_gain=105996 64952.8 38067.7 31262.7 27356 16209.7 15307 11835.7 12522.7 10520.5 9757.35 8963.65 8138.43 8100.05 7205.38 6861.59 6586.83 7152.09 4815.24 4761.38 4268.91 5886.98 3389.8 20747 3375.26 3350.67 9575.98 3152.43 2911.89 2894.2 2652.17 2563.62 2537 2308.41 4558.21 2194.23 1829.47 1599.11 1498.84 1485.91 1300.92 1241.06 1119.43 959.014 859.064 1690.18 790.194 730.961 3106.95 1277.29 652.279 623.991 523.863 453.016 388.301 348.584 291.195 285.856 277.998 241.845 232.406 228.731
threshold=0.011637580776225674 245.92000000000004 158.16244031830254 1.0658141036401504e-14 2.5000000000000004 781.54500000000041 34.567589300000009 14.500000000000002 131.50000000000003 1.1785714285714286 1.0000000180025095e-35 0.0018034397075468017 1.5000000000000002 4.263256414560603e-14 0.10714285714285715 0.049388468928698824 0.032802709032217235 47019.594999999979 1.5962500000000002 99.350000000000009 909.91500000000008 22.500000000000004 0.069888888888888903 1.0000000180025095e-35 0.25973684210526327 -5.3290705182007506e-15 1.1071428571428574 50.942500000000003 0.17857142857142858 0.018186906851894259 1.0000000180025095e-35 2596.9349999999986 0.0072554702767709508 33.169285714285728 15.853214285714289 6.1246428500000016 0.60714285714285732 -0.47380952380952374 10.464285714285717 4.9800000000000013 6.5000000000000009 0.1402631578947369 0.36674679487179496 16.648333333333504 inf 604.50000000000011 1.0000000180025095e-35 299.99500000000006 2.5000000000000004 0.94444444444444453 699.53571428571445 0.058017765310892942 0.51026315789473686 -0.39035714285714285 1164.7857142857144 0.0049342238741772919 456.59000000000009 10.607142857142859 0.019610995523611379 588.82142857142867 10.215000000000002 5.5000000000000009
decision_type=8 10 10 10 10 10 10 10 10 8 8 10 10 10 8 10 10 10 10 8 10 10 8 2 10 10 8 8 8 8 10 8 8 8 8 10 8 8 10 10 10 10 10 8 8 10 10 10 8 10 10 10 10 10 8 8 10 10 8 10 8 8
left_child=1 10 3 14 6 40 7 12 30 24 -1 -7 56 51 -2 19 17 20 35 -13 22 31 23 -16 -5 26 -24 -23 -18 -4 36 57 -29 34 -31 52 -9 -32 -15 -27 -6 -39 44 -30 45 -21 -43 60 -49 -50 -20 -11 53 -12 -46 58 -3 -22 -55 -40 -45 -62
right_child=2 4 29 9 5 11 -8 8 -10 13 18 15 -14 38 16 -17 28 -19 50 42 21 27 25 -25 -26 39 -28 32 43 33 37 -33 -34 -35 -36 -37 -38 41 59 -41 -42 46 -44 47 54 -47 -48 48 49 -51 -52 -53 -54 55 -56 -57 -58 -59 -60 -61 61 -63
leaf_value=5.8770590823594278 4.095896232501353 2.9809068414889004 1.5345575505526485 6.1770148339866733 0.40100119306597337 5.192226987795201 5.6378285458814821 7.0968101715140701 5.9712577163318654 -0.53880512833465855 -0.72779479444361539 0.14537664213899767 6.4020309786410339 6.5632364667485268 7.8367885247592257 3.3981003715731006 1.3703604849819353 1.7768972112710111 0.5966674562799793 3.0878098722746659 1.8137012797496197 -0.57512606491751783 3.4837932940445824 -0.51245405623945173 3.1028105623767819 -0.57031490135560969 -0.21498177125266107 0.89417742962874869 -0.81602604879612473 5.6452233512738941 -0.70343068733596381 4.1156932340777921 -0.02822461978602258 1.773865307191923 2.0140395763746151 0.67627372958592602 2.5855915650509855 2.9147794302323629 3.6394738484136187 -0.12745616433611606 -0.48244247020077696 1.0106590007077787 2.9694127426175037 0.12109648396766735 1.3473420392072546 1.6106600078998881 1.7460502201782426 2.448626979261733 -0.52520871007646441 0.81991945109670195 2.2304712057612672 0.97274052461407623 0.21770279015805866 0.51550611696819626 0.5878707158048867 -0.53147511923372648 3.7566659545898289 0.92820516642609729 -0.26761517271936264 2.4757162778524973 -0.60369027695124944 -0.77686082687993518
leaf_weight=0.10364299919456244 0.14285700023174286 0.85714301466942078 1.8571430146694181 0.2857140004634845 1.2857130020856851 0.28957099467515757 0.76190001517534245 0.038956999778747559 0.28571400046348561 0.46428500115871441 2.9904679935425511 1.0118989795446394 0.42857100069522847 0.058828998357057571 0.14285700023174286 0.77472798526287068 0.30357100069522858 0.685713991522788 0.14285700023174364 0.33765700086951245 0.20408600196242332 3.182029128074646 0.28571400046348572 0.71428500115871429 0.28571400046348572 24.990173039957885 13.951147019863125 1.5666709952056408 6.6655980180948973 0.26190000772476119 0.14285700023174286 0.14285700023174186 4.9969840338453633 0.42857098579406749 0.29295700788497936 0.69047097861766804 0.46712799370288927 0.21785700321197587 0.14285700023174286 3.4487839844077817 1.3849140405654905 1.3157419934868815 0.23837200179696072 0.14285700023174286 1.4994129762053487 3.7616720646619797 1.0515840016305444 0.14285700023174286 24.135604042094208 0.28571400046348472 0.30952799320220947 0.14285700023174286 0.38571400009095658 0.21428599953651395 0.32822799682617176 2.9285699799656859 0.25 0.51082799583673477 1.1785699874162674 0.14285700023174286 6.10066800378263 6.1032100114971364
leaf_count=363 2851 429 16 4431 411 29 13 61 6 869 1181 13 13 860 522 15 333 28 89 306 397 26 2229 1507 1159 217329 67461 156 189 35 18 53 1034 10 12 16 219 413 78 6267 147 248 21 36 97 74 54 401 10680 726 2 181 132 151 243 3864 315 73 1147 3 17933 11972
internal_value=0 1.15196 -0.284089 -0.348708 1.8875 1.297 2.99515 2.59689 1.95769 2.49482 -0.223855 1.7358 4.06192 1.20682 -0.392524 1.60993 -0.39902 -0.252849 -0.29538 1.41691 -0.278559 0.0812976 -0.36621 0.879086 4.63991 -0.391222 -0.140752 -0.0585104 -0.58164 1.99912 1.60311 1.66975 0.191942 2.87641 3.72801 -0.403779 2.93285 1.35643 3.65617 -0.51661 -0.0571285 1.47026 1.6256 -0.595239 1.57156 1.73233 1.33733 -0.555368 -0.492268 -0.509472 1.71454 -0.183147 -0.500659 -0.538554 1.21095 -0.407597 3.15608 1.18099 -0.147135 3.0576 -0.680905 -0.690294
internal_weight=0 25.6737 103.209 100.368 16.7296 10.9122 5.81745 5.05555 3.51984 1.52311 8.94411 8.24154 1.53571 0.951685 98.8451 7.95197 98.7022 54.8221 8.84046 7.17724 54.1364 10.6035 43.533 0.857142 0.571428 42.6758 14.2369 9.74568 43.8801 2.84057 3.23412 0.857771 6.56366 0.983428 0.554857 8.38808 0.506085 2.72804 0.344543 28.439 2.67063 2.58518 6.16534 43.5765 5.92697 4.09933 2.36733 36.9109 24.5642 24.4213 0.452385 0.607142 7.69761 7.31189 1.82764 4.32143 1.10714 0.714914 1.39286 0.285714 12.3467 12.2039
internal_count=359947 10090 349857 349784 3145 1356 1789 1776 1019 7581 6945 798 757 1991 342203 769 339352 297082 6582 754 297054 1739 295315 2029 5590 293286 69690 1216 42270 73 1013 523 1190 57 47 6491 280 733 941 223596 558 715 741 41937 720 380 302 41748 11807 11406 91 1050 6475 6343 340 5162 744 470 1298 81 29941 29905
is_linear=0
shrinkage=0.02


Tree=8
num_leaves=63
num_cat=0
split_feature=141 73 28 141 141 155 142 28 142 145 98 28 9 142 165 166 30 54 162 145 63 166 32 32 5 145 141 142 142 151 76 9 141 9 151 1 155 165 165 27 155 17 92 65 1 154 169 1 78 63 5 145 40 63 1 155 98 97 73 73 29 32
split_gain=170083 74222.9 54316.7 33258.9 22459.2 20123.6 15587.8 13054.9 9226.18 8248.24 6961.52 4269.21 4371.32 10276.6 14380 5778.05 3943.76 3876.45 3389.71 3362.62 2863.94 2721.75 2305.2 2804.57 2076.68 1997.88 2271.69 1944.44 1928.89 1860.31 1801.13 1521.52 1131.97 1124.24 959.229 883.802 700.348 588.924 584.818 561.036 385.023 378.959 362.935 361.329 341.787 284.85 616.514 922.017 288.811 282.007 237.458 234.455 220.402 209.336 193.199 166.299 164.801 150.541 151.394 140.952 140.29 116.424
threshold=99.895000000000024 219.99094959495955 116.93686342208352 305.99500000000006 30.665000000000003 0.0050826003280763626 898.50000000000011 258.15500000000003 1.5000000000000002 1.0000000180025095e-35 0.062781531531531543 22.991149614961504 0.24973684210526317 24.500000000000004 2.5000000000000004 0.81866537717601562 177.49000000000004 0.19000000000000009 6.5000000000000009 2208.3650000000016 0.31285714285714294 0.99404761904761907 8.0357142857142865 10.178571428571429 19.884117850000006 909.91500000000008 34.025000000000013 21527.000000000004 7.5000000000000009 10.500000000000002 71.214285714285737 0.22751750700280116 14.995000000000003 0.15994505494505498 13.500000000000002 21.464285714285719 0.010358861943158477 141.50000000000003 80.500000000000014 0.0024366645297623506 0.011407591998157199 1.642857142857143 1.0416666666666667 5.1437500000000016 78.285714285714292 0.083385222083852226 1.0000000180025095e-35 2.1071428571428577 0.0053571428571428581 0.58750000000000013 12.785357150000001 1914.7700000000032 4.276315789473685 0.025357142857142863 17.035714285714288 0.028175416133162618 0.19139194139194141 3.0795833333333342 9.9950000000000028 29.855791730637005 -5.7933884648006773 1.7500000000000002
decision_type=10 10 10 8 8 8 10 10 8 8 8 8 10 8 10 10 10 8 10 10 8 10 8 8 8 10 10 10 8 10 8 10 10 10 10 10 8 10 10 10 8 8 8 10 10 10 8 10 8 10 8 10 10 8 10 8 10 10 8 10 8 10
left_child=1 2 4 7 32 6 35 8 -2 -7 36 -11 25 14 -14 -15 50 20 42 37 31 22 24 -24 38 26 -13 34 -25 -27 -30 52 40 -18 -20 -6 -5 53 -19 -21 41 54 -8 56 -38 48 47 -47 -42 -40 -4 -22 -10 -12 -1 59 57 58 -34 -50 -60 -43
right_child=3 -3 16 10 5 9 18 -9 17 11 19 12 13 15 -16 -17 33 21 27 39 51 -23 23 28 -26 29 -28 -29 30 -31 -32 -33 43 -35 -36 -37 44 -39 49 -41 45 61 -44 -45 -46 46 -48 -49 55 -51 -52 -53 -54 -55 -56 -57 -58 -59 60 -61 -62 -63
leaf_value=1.4861605131126661 6.590601748977857 4.7659535225374006 1.8457036712257358 3.9498153076068903 3.649189032107659 5.7065913642479327 -0.49613591613033808 5.8518327008603297 1.6058982721761541 -0.74859437983764643 5.5163469838387575 -0.50874731394869477 -0.78168474539163368 -0.010758843483348102 4.5900954644703118 4.0333793854179296 1.9115052844937848 1.3417960252542001 2.5041877189364521 4.9836119057348416 3.6030411134722953 -0.55208004279975054 6.9548740953807178 3.8813586647964047 1.8315049185027346 0.72690997162654314 -0.030995007862823339 4.6426663476124146 -0.68882072554511264 -0.12711907692505683 1.5759247810744055 3.6493371013638982 0.11867455528967304 3.082425075247317 1.0848984940081681 6.1364734116750528 0.88271618408103536 7.4869548416295038 0.70660148391692645 3.7915203373411557 0.11700695037045508 -0.39720725227209619 0.39978074108534406 -0.80554276513901946 2.429485801093997 0.80352106207476515 -0.71730775258833457 -0.60334213657317959 -0.72063304880948265 0.13571727281989188 1.3133233443322982 5.0258211965379216 0.78373741334939473 6.5086741696135162 0.015105697096611534 -0.81629346279738768 -0.74168171219611145 -0.11588058510325373 -0.2616206929375115 -0.086969175144056415 -0.54493857136604407 -0.72697460781158951
leaf_weight=0.047614000737666751 0.14285700023174186 1.1576000154018391 0.45238499343395155 0.10928600281476974 0.071428999304771756 0.095242999494075775 0.28571400046348572 0.28571400046348649 0.43809999525547028 4.82381203584373 0.14285700023174286 14.169446056708699 0.34285699948668202 13.094749944284557 0.47618500143289566 0.14285700023174364 0.435814008116722 0.52381400018930513 0.28571400046348572 0.35305699706077576 0.42857100069522835 0.28571400046348649 0.038956999778747559 0.14285700023173475 0.92244301736354817 1.1904850080609302 5.5367239899933329 0.090356998145580292 0.14285700023174286 7.1341690458357334 8.3880260381847602 0.14285700023174286 0.14285700023174286 1.3257580026984213 0.57142800092697144 0.28571400046348572 0.071428999304771423 0.19047100096940994 1.8784129628911617 0.28571400046348572 0.14285700023174286 0.88095597922801971 0.49285600148141362 2.214284971356391 0.28571400046348572 0.28571400046348572 3.8673410341143599 0.53571400046348572 8.2144271433353389 0.42430000007152546 1.292855978012085 0.05194300040602684 0.1857139989733696 0.21008599828928598 0.14285700023174286 19.674176000058658 1.4761839881539334 0.35714301466941734 0.72527201473712921 0.14285700023174364 19.372990047093499 0.8333279937505722
leaf_count=379 3638 16 79 34 378 662 30 41 179 815 94 67365 7850 7945 3478 156 45 892 105 108 270 2253 6 5300 115 703 43864 12 291 3360 11188 7 2 53 103 74 191 93 150 6 105 119 218 65 28 370 9200 71 1692 38 16 18 8 9645 43 103672 2007 24 436 3 69807 32
internal_value=0 -0.272298 -0.324534 1.92683 -0.403969 -0.0878428 1.83569 1.61924 1.5337 -0.173089 4.61789 -0.185026 -0.120434 0.167397 2.34143 0.0328845 2.12515 1.48208 1.04874 5.43423 2.54625 1.37796 1.42221 1.60064 1.00753 -0.264773 -0.374516 1.85216 1.57659 -0.00498682 1.538 1.78751 -0.666743 2.79274 1.55799 5.63901 2.54883 6.5907 0.738619 4.4504 -0.739929 -0.463477 0.0710037 -0.561982 2.12013 -0.755952 -0.611614 -0.113999 -0.779973 0.60141 1.45132 3.75684 1.36113 6.10702 0.38284 -0.784544 -0.53755 -0.522921 -0.530103 -0.709801 -0.534715 -0.55751
internal_weight=0 112.811 111.653 16.0718 108.146 49.0897 2.08321 14.4231 14.1374 47.0065 1.64861 46.9113 42.0875 14.0566 0.819042 13.2376 3.50681 13.9946 1.72607 1.18218 1.24718 12.7474 12.4617 8.7127 3.74897 28.0308 19.7062 0.947499 8.67374 8.32465 8.53088 0.766671 59.0566 1.76157 0.857142 0.357143 0.466429 0.543414 2.82653 0.638771 34.7678 1.90475 0.77857 24.2887 0.357143 32.8631 4.68877 0.821428 28.1743 2.30271 1.74524 0.480514 0.623814 0.352943 0.190471 28.0315 22.0744 20.5983 20.2411 8.35728 20.0983 1.71428
internal_count=359947 325354 325338 34593 325145 137118 920 24394 24353 136198 10199 135536 134721 19429 11328 8101 193 20715 468 9946 482 20233 17980 16785 1195 115292 111229 220 16779 4063 11479 194 188027 98 208 452 253 9832 1080 114 115686 573 248 72341 219 115113 9641 441 105472 188 95 288 187 9739 422 105367 72276 70269 70245 1695 70243 151
is_linear=0
shrinkage=0.02


Tree=9
num_leaves=63
num_cat=0
split_feature=13 136 13 136 136 155 158 15 145 98 148 16 147 148 46 59 1 161 163 1 1 2 136 151 27 147 148 158 144 42 148 155 37 136 154 154 136 145 147 148 1 37 46 19 144 2 148 147 158 1 13 13 6 58 155 37 2 148 2 16 1 155
split_gain=186084 77193.8 38170 25181.4 21292 21645.1 13750 11060.9 7934.69 6750.83 5683.82 4974.24 4114.77 4428.08 3587.92 3564.05 3460.64 3099.69 2940.39 5262.93 3200.09 2880.8 2682.68 3276.76 2510.14 2483.74 2714.77 1851.16 1843.08 1759.84 1698.14 1377.79 1293.29 1271.96 1167.92 3102.53 1087.14 1034.24 928.529 1217.33 921.769 912.624 848.803 846.688 813.038 718.143 699.101 650.205 614.642 563.867 527.021 492.974 530.269 472.512 371.339 404.815 362.882 344.79 311.242 310.927 306.874 275.396
threshold=99.015000000000015 99.895000000000024 259.98847532623353 305.99500000000006 30.665000000000003 0.0050826003280763626 16.500000000000004 179.97500000000002 1.0000000180025095e-35 0.01724377727686922 0.95627689873417732 3.6428571428571432 0.024198685021573869 4.1257539405024515 5.2500000000000009 -0.2565550440440883 0.32142857142857145 4.5000000000000009 0.50609756097560987 0.25000000000000006 0.75000000000000011 7.5000000000000009 68.605000000000018 7.5000000000000009 0.0086963097398669014 0.0095313801196154155 0.67832525532283205 1.5000000000000002 1.0000000180025095e-35 0.034638304093567253 1.0602866502866506 0.010938933429061467 -1.0000000180025095e-35 218.01500000000001 0.075988763230745229 0.066040492705358236 14.995000000000003 409.17500000000001 0.032802709032217235 0.42446698113207554 1.3214285714285718 -14.433571428571426 2.7500000000000004 1.0000000180025095e-35 6.5000000000000009 10.142857142857144 0.12796874298521588 0.012151723032266777 6.5000000000000009 22.607142857142861 59.960000000000008 144.94500000000002 0.19166785000000003 14.244000000000002 0.018192160512979626 -70.321071428571415 0.10714285714285715 0.6635183030046552 3.8214285714285716 3.3571428571428572 12.678571428571431 0.039955654101995572
decision_type=10 10 8 8 8 8 8 10 8 8 8 10 8 8 8 8 10 10 8 8 8 10 10 8 10 10 10 10 10 10 10 8 10 8 8 8 10 8 8 10 10 8 10 10 10 10 8 10 8 10 8 8 10 8 8 10 10 10 10 10 10 10
left_child=1 4 7 11 36 6 42 29 -7 -5 25 18 13 16 43 -16 -12 37 -3 -20 56 -4 34 27 -9 26 46 -24 -17 41 -18 -26 -11 50 35 -14 54 -8 39 -27 -22 -2 -6 -13 -28 -19 -10 -41 -36 -39 -30 -43 -53 -38 55 60 -21 -56 -33 -42 -1 -52
right_child=2 3 21 9 5 8 17 24 10 32 12 14 22 -15 15 28 30 45 19 20 40 -23 23 -25 31 38 44 -29 33 -31 -32 58 -34 -35 48 -37 53 49 -40 47 59 51 -44 -45 -46 -47 -48 -49 -50 -51 61 52 -54 -55 57 -57 -58 -59 -60 -61 -62 -63
leaf_value=1.4564373569294711 0.82799502834898409 1.1184278967924051 3.5449451501990716 1.8778049649212145 6.013744178427145 5.5924592485867111 0.083969069832114107 4.0836336264999185 -0.65401067657926104 5.200732496732047 3.4588657960892748 3.8632044185920318 -0.15901136107223621 3.9527117710066886 6.8157767407700334 -0.43325806502339381 -0.10717092817041328 2.5138058444848341 6.4587897887664525 -0.35249239827678353 3.8728245490676745 5.5880470605474102 2.9489524146886334 0.0081323756294650624 3.0006275057058076 -0.71377926570197958 2.4916417429445898 0.7891092143635885 -0.36612616852601049 0.68902927515317947 0.61042825367713804 1.6212656300309634 6.9745826163445965 2.7506427379408822 -0.52712423084993565 1.0330114418280172 -0.80319772011423896 2.3807983898146636 -0.77763281869240475 0.59915171992926031 2.0253463080257501 1.4486594080134116 3.5762051553357277 1.5622294432759329 0.77133250950691035 4.8561081648869031 -0.017377403977319718 -0.31224626807847061 -0.21046357027791643 1.0043558191633193 0.94174814316252009 2.2110067458051677 1.6501828846851703 -0.51991871982419968 -0.79829297056003623 -0.63304908811202321 1.3191145611756767 -0.65242628864661689 2.3282259730577866 3.1681029096676925 -0.21473815869475318 0.28809259254043762
leaf_weight=0.047614000737666973 0.64285700023174286 0.58095699548721313 0.36071400344371696 0.21428599953651428 0.28571400046348538 0.095242999494075775 0.49285600148141384 0.54761400818824713 0.96189899742603302 0.38722899835556734 0.14285700023174275 0.1948000006377697 9.1726950258016569 0.14285700023174275 0.038956999778747559 0.47142799943685609 2.2960710190236568 0.15384300053119671 0.14285700023174164 0.14285700023174297 0.28571400046348572 1.1761860139667986 0.28571400046348572 1.3214270025491703 1.3461569994688032 4.0554409921169263 0.17857100069522847 0.35714299976825714 0.14285700023174286 1.0477710030972947 3.0999969951808453 0.43581400811672233 0.28571400046348572 0.14285700023174275 4.3986250180751165 0.96529999747872253 2.6428559720516205 0.14285700023174264 5.4750540405511847 0.33332799375057209 0.28571400046348572 4.0099280374124646 0.071428999304771423 0.095242999494075775 0.28571400046348572 0.079370997846126556 2.4404689893126523 5.1616120338439941 5.539810974150897 0.71428500115871429 2.6409689597785486 0.8278989959508144 3.6367280036211014 21.645875064190481 20.30629109218717 4.3214259967207909 0.081629000604152679 9.5210820622742158 0.58141398429870605 0.14285700023174286 0.57142800092697144 0.28571400046348561
leaf_count=832 5 2076 161 97 107 661 457 19 663 9323 940 104 9741 265 22 1446 231 77 8280 5116 4562 22 441 10082 9 3696 215 939 3 53 1427 77 699 169 68251 1350 13 221 5518 529 724 218 2 5 44 6 2097 3761 25272 46 455 112 8 72320 104659 328 909 9806 4 156 57 59
internal_value=0 -0.269868 2.12701 1.83604 -0.398182 -0.0883624 1.98145 1.77657 -0.174344 4.9694 -0.186126 1.3462 -0.00381529 0.476092 0.965081 0.798155 0.386425 1.18181 2.26607 2.88249 2.33827 5.10853 -0.127528 0.577884 2.86355 -0.453652 -0.00159977 1.74904 0.734518 1.4653 0.305084 2.58085 5.95386 0.905892 -0.196546 -0.0455116 -0.653408 0.813997 -0.569984 -0.450942 2.99289 1.5545 5.52623 3.10762 1.43299 3.31097 -0.197363 -0.25696 -0.350614 1.23376 0.820037 1.60962 1.75418 -0.550742 -0.72513 -0.564529 0.255348 -0.751731 2.02534 2.40627 -0.0861987 0.877936
internal_weight=0 114.269 14.6131 6.56264 107.707 48.6502 1.94036 13.0762 46.7098 0.887229 46.6146 5.67541 27.7225 5.68178 4.01282 3.72278 5.53893 1.58321 1.66258 1.08163 0.938771 1.5369 22.0407 1.96428 2.911 18.8921 3.86665 0.642857 3.68382 10.1652 5.39607 2.36338 0.672943 3.2124 20.0764 10.138 59.0566 1.35 15.0254 9.55038 0.714285 9.11741 0.357143 0.290043 0.464285 0.233214 3.40237 5.49494 9.93844 0.857142 3.06954 8.47456 4.46463 24.2887 34.7678 4.94047 0.224486 29.8274 1.01723 0.428571 0.619042 2.92668
internal_count=359947 359259 688 34205 325054 137039 916 505 136123 10119 135462 24086 118939 2863 2263 2154 2598 807 21823 19747 11467 183 116076 11462 109 16523 3019 1380 2132 396 1658 90 10022 686 104614 11091 188015 724 13504 7986 5442 343 109 109 259 83 2760 4290 93523 267 517 338 120 72333 115682 1217 6025 114465 81 880 889 514
is_linear=0
shrinkage=0.02


Tree=10
num_leaves=63
num_cat=0
split_feature=15 167 43 24 144 69 15 43 31 163 144 160 14 167 34 99 43 16 24 165 150 159 18 32 14 162 43 31 96 159 0 68 36 12 6 49 6 70 43 43 31 16 12 0 15 144 14 98 150 63 144 6 144 16 83 0 98 14 6 6 56 83
split_gain=118404 23443.8 23015.2 16816.6 29626.2 15803.1 8129.12 7989.79 5843.29 6046.35 12261.5 20161.6 17550.5 9198.5 5189.97 4507.76 4226.81 2922.37 2813.44 4167.28 21483.3 6036.11 3722.08 2212.95 2197.63 2094.44 1472.84 1485.27 1223.32 1155.75 1011.19 987.936 851.518 796.474 563.836 438.801 341.216 312.047 270.123 250.292 223.213 180.573 168.208 135.337 112.123 100.872 74.1867 72.8543 59.2526 44.0705 42.6193 53.3064 32.1386 29.0353 20.6666 19.3253 14.574 14.3655 13.5096 12.01 13.0547 10.161
threshold=99.015000000000015 40.500000000000007 216.34500000000003 0.57837662337662343 5.5000000000000009 0.62053191489361714 179.97500000000002 33.114597010074512 0.10714285714285715 0.32630676572734874 3.5000000000000004 0.67752546689303916 -1.8293450250536862 1.0000000180025095e-35 -1.0000000180025095e-35 0.011000000000000001 97.468200065452024 4186.6428571428578 0.24983009708737866 10.500000000000002 16.500000000000004 17.500000000000004 0.036428571428571428 23.178571428571434 -0.086338753563099238 7.5000000000000009 88.235000000000014 0.17857142857142858 0.075695850000000009 1037.5000000000002 1.0000000180025095e-35 0.022743188184364656 0.071964300000000023 0.0087337909992372016 0.069550000000000015 1.0000000180025095e-35 0.14114285000000001 4.9194064687638477 28.045000000000005 12.095000000000001 19.250000000000004 604.71428571428589 0.0016476558330544503 1.0000000180025095e-35 24.550000000000001 2.5000000000000004 13.540000000000001 0.0621778350515464 407.50000000000006 3.2560714285714289 72.500000000000014 0.14114285000000001 6.5000000000000009 1091.4285714285718 0.071340821340821356 1.0000000180025095e-35 0.083568788428048491 0.41877118644067796 0.40099645 0.28066785000000005 2.2503202487452527 0.027325452046361231
decision_type=10 10 10 10 8 8 10 8 8 8 8 8 8 8 10 8 10 10 10 10 8 10 10 8 10 10 10 8 10 10 2 10 8 8 10 8 10 10 10 10 10 10 10 2 10 10 10 10 10 8 8 10 10 10 8 2 10 10 10 10 10 10
left_child=1 3 6 7 5 -5 31 37 -9 10 12 15 -10 14 -14 -12 -17 28 26 22 21 -21 -20 43 -22 35 27 30 33 -29 -11 34 -25 -8 53 41 47 39 56 59 -15 -6 49 57 50 -24 -35 52 55 -41 54 -52 -36 -2 -44 -46 -37 -7 -28 60 61 -1
right_child=2 -3 -4 4 25 23 17 8 9 18 11 -13 13 40 -16 16 -18 -19 19 20 24 -23 45 32 -26 -27 58 29 -30 -31 -32 -33 -34 46 36 38 -38 -39 -40 42 -42 -43 44 -45 48 -47 -48 -49 -50 -51 51 -53 -54 -55 -56 -57 -58 -59 -60 -61 -62 -63
leaf_value=-0.78017186373683223 0.83141362660502582 1.8394722869185902 5.0781730644889267 5.0567028271358847 -0.30541867210366197 0.05121715998910184 2.0400422311433783 3.8644610649181836 5.893468942380216 1.463189555908738 3.399759177325119 7.3908221981687436 1.6321190064634103 6.6460992047277889 -0.069219061183570935 -0.20711859211869701 1.3045756290408768 4.4963417181953877 4.888984648336228 7.4496129215370415 -0.65612077814259362 2.7025253447274018 -0.76105875647027532 2.6767641206571144 0.04764874316652519 0.59340987045158022 1.0746955078551965 -0.42420662093856043 1.5888403450024198 0.13625759437866158 -0.21946375346290217 0.52427311813018851 1.4273153567830021 2.940614948790647 1.6868566217178456 -0.70509985929938779 1.4440157577595687 -0.37241529181323529 -0.2704451334665629 -0.84628812003153675 4.9981673068418493 0.22457308029597428 -0.71924653246532 0.85644144311775283 -0.32822449551583943 -0.2187721314688432 3.4199551203398597 2.3333921840380913 -0.49031942682566587 -0.5754066013133885 -0.4123208834156265 -0.61562612804277961 1.9671884037292768 0.4044575914540654 -0.62545640834639216 0.0007465444507968105 -0.52441867001750064 0.3165317596141658 0.81330527838821076 -0.84287302593222191 -0.84601659203238699 -0.68705756964999898
leaf_weight=1.7310849931091068 0.11499999929219473 2.3306860178709021 1.1124150268733499 0.75324200093746185 0.42857199907302856 0.19047100096940994 0.46712799370288904 0.14285700023174286 0.28571400046348572 0.28571400046348572 0.14285700023174286 0.14285700023174186 1.0798280006274592 0.047614000737666973 2.1357119884341955 25.187874162569656 0.76224198937415977 0.35305699706077565 0.047614000737670081 0.14285700023174008 2.1700559929013226 0.42857100069522858 3.4684839881956582 0.44444200024008751 9.7445239499211329 1.3404709845781324 0.1857139989733686 41.830415986012667 0.435814008116722 1.5254000239074219 0.28571400046348572 0.48144299909472454 0.4285710006952288 1.3461569994688032 0.30952799320220981 1.071428015828132 2.2857130020856857 1.3588289972394694 1.3571419864892957 1.5095280110836027 0.10622899979352951 0.64285700023174286 1.5999990012496708 0.17142800055444241 0.14285700023174264 0.14285700023174275 0.14285700023174297 0.14285700023174286 0.99999900162220001 0.28571400046348383 0.71428500115871463 1.8571420013904569 0.34694300219416618 0.14285700023174286 2.2773420140147214 0.14285700023174286 0.21428599953651417 0.14285700023174286 0.13775700330734253 1.8630860000848768 0.85714200139045704 0.64285700768232334
leaf_count=147 56 31 39 37 103 57 10 2897 88 980 154 367 4707 142 763 20925 43 3 3370 62 152 220 32031 6 5535 32 60 280605 4 791 969 20 352 26 175 2738 19 19 11 79 13 18 29 6 46 351 191 10 8 135 56 16 35 1 164 29 61 5 1 7 70 21
internal_value=0 -0.14613 2.41785 -0.186868 0.749556 2.72738 1.96737 -0.250103 -0.177246 -0.183641 0.0490067 -0.102187 1.13426 0.73069 0.502117 -0.143211 -0.162715 2.79779 -0.298782 -0.072793 0.101149 3.8893 -0.666362 1.45392 -0.080532 -0.0842669 -0.381235 -0.391136 2.54708 -0.404488 0.621863 1.37132 2.0634 2.76056 1.49331 -0.328838 1.5684 -0.662325 -0.467249 -0.689263 5.5082 0.0125762 -0.628769 0.399782 -0.588287 -0.739607 2.9866 1.92408 -0.417746 -0.803177 -0.622288 -0.559152 1.83501 0.594873 -0.664159 -0.163739 -0.674986 0.164925 0.963377 -0.802432 -0.779113 -0.754957
internal_weight=0 115.929 7.68177 113.598 7.18577 2.13101 6.56935 106.412 90.4295 90.2866 29.8909 26.2358 3.6551 3.36938 3.21554 26.093 25.9501 2.74501 60.3957 16.145 12.486 0.571428 3.65895 1.37777 11.9146 5.05476 44.2507 43.9272 2.39196 43.3558 0.571428 3.82434 0.873013 1.95614 3.3429 3.71429 3.08504 15.9827 2.64286 14.6239 0.153843 1.07143 9.52972 0.504756 7.73448 3.61134 1.48901 0.799328 1.28571 1.79524 6.44877 2.57143 0.656471 0.257857 3.87734 0.285714 1.28571 0.333328 0.323471 5.09417 3.23108 2.37394
internal_count=360098 359509 589 359478 3426 463 550 356052 355226 352329 27202 21489 5713 5625 5470 21122 20968 234 325127 41721 5969 282 35752 426 5687 2963 283406 283345 231 281396 1949 316 358 227 296 2931 239 826 2810 807 155 121 562 68 348 32382 217 220 83 214 265 72 210 57 193 75 2799 62 61 245 238 168
is_linear=0
shrinkage=0.02


Tree=11
num_leaves=63
num_cat=0
split_feature=13 136 13 136 136 13 142 30 40 92 136 3 142 152 4 11 60 142 136 142 3 79 151 68 69 158 142 68 146 136 166 3 32 136 30 136 48 14 4 136 161 3 13 146 32 166 136 146 151 146 152 54 14 108 5 151 151 0 161 0 78 136
split_gain=163952 75833.7 36846.3 22035.8 21840.3 8862.88 8721.74 7678.7 5463.55 5125.33 4731.2 5732.51 17865.3 6504.81 16244.7 4359.75 4200.86 3420.73 2753.15 2724.45 2499.3 2292.64 2257.16 2132.24 2123.39 1922.67 4195.67 2094.96 1651.07 1637.37 1452.78 1440.39 1273.38 1258.42 1097.01 1016.39 1005.17 949.634 1043.36 821.747 729.314 603.393 511.767 506.947 479.885 457.148 440.396 575.279 531.818 427.187 421.167 413.949 376.907 342.812 331.683 325.195 1225.93 322.446 278.001 275.576 235.604 231.364
threshold=99.015000000000015 128.16500000000005 259.98847532623353 241.41000000000003 32.995000000000012 37.695161339677504 1.5000000000000002 177.49000000000004 0.068684787210338674 0.20833333333333334 66.810000000000016 0.086785714285714313 26.500000000000004 1.5000000000000002 0.3928571428571429 7.4438611111111124 219.48094959495953 2522.5000000000005 189.99500000000003 21527.000000000004 0.41607142857142865 0.10714285714285715 1.5000000000000002 0.023686436904443855 0.57766666666666688 26.500000000000004 52.500000000000007 0.083430007733952052 0.13348694316436255 14.605000000000002 0.49974670719351572 0.018214285714285714 0.17857142857142858 14.805000000000001 197.97250000000005 136.02000000000001 0.015357142857142859 8.6975000000000016 1.0000000180025095e-35 99.895000000000024 1.0000000180025095e-35 1.3660714285714286 24.475000000000005 0.013166739785737536 0.25000000000000006 0.42433051444679359 34.025000000000013 0.02005815182020269 2.5000000000000004 0.020884699496586362 2.5000000000000004 0.69607142857142879 0.19226071428571448 0.035357142857142865 22.330560700000003 58.500000000000007 52.500000000000007 1.0000000180025095e-35 1.0000000180025095e-35 1.0000000180025095e-35 0.0053571428571428581 39.995000000000012
decision_type=10 10 8 10 8 8 10 8 8 10 10 10 10 8 10 8 10 8 10 8 8 8 8 10 10 8 8 10 8 10 10 10 8 10 8 8 10 10 10 10 10 8 10 10 10 10 10 10 10 10 10 10 10 10 10 8 10 2 10 2 8 10
left_child=1 4 7 6 29 42 -3 35 20 30 11 24 -13 14 32 -4 23 22 28 21 36 -15 31 34 25 46 -27 -28 49 55 40 -12 -14 -31 -9 52 -8 -35 -39 45 50 -41 -6 -20 -11 53 47 -7 -48 -10 -5 54 -2 -24 -37 56 60 -58 -43 -46 -1 -44
right_child=2 3 15 9 5 10 8 16 18 44 17 12 13 19 -16 -17 -18 -19 43 -21 -22 -23 39 -25 -26 26 27 -29 -30 33 -32 -33 -34 37 -36 51 -38 38 -40 41 -42 58 61 -45 59 -47 48 -49 -50 -51 -52 -53 -54 -55 -56 -57 57 -59 -60 -61 -62 -63
leaf_value=0.1318577139745172 1.220731658935545 6.3380979873622039 5.5287012578171835 5.8190065606226389 -0.7040866648478169 -0.30271848363437653 3.3317639617351276 2.9096136447226648 1.7479231260843437 4.3892658963719136 0.37632040401498812 7.3006203106276484 2.1420830583961239 0.43004911610340352 5.7755996383007506 3.1309418097760489 4.4777829193716903 6.57832684098579 -0.56958283069803683 1.7816754955558052 4.1742878688571192 -0.085590153214379031 -0.04592845004446687 1.0938563266203554 2.168842592722978 3.3981724905603659 -0.20397924481905375 1.0742714878348942 2.6886831805374021 0.83293211171702719 6.9406034631941376 2.835922745567907 0.10839142908526885 -0.52225076236303525 2.0580209158206779 1.8665590734534838 1.3711126718352937 1.153494975628903 -0.40679301383791167 1.1856220547326515 3.734759168458917 -0.35466127518274265 -0.44825493319078263 0.42041621440089122 2.348008287497672 0.52117116409444197 -0.39040082873403437 -0.66316253587888396 0.24077633029243514 0.89871001159106201 4.6286333116642826 1.8471815287705888 0.45686580047973602 2.1697287093976296 1.3626500105705588 -0.79623485289355322 0.80464158283153253 -0.69772707691363134 0.61049904736890082 0.82655281850347195 -0.68314890723914989 0.143235123905402
leaf_weight=0.14285700023174286 0.49999999999999978 0.1428570002317423 1.2915720157325254 0.30510000046342589 5.5809550359845144 2.8846249859780126 0.14285700023174286 1.4073860011994836 0.28571400046348561 0.034285999834537506 0.14285700023174286 0.14285700023174541 0.14285799860954285 4.8142669498920441 0.28571400046348583 0.39642800390720379 0.40475700795650471 0.038956999778747448 0.42857100069522847 0.37607099860906501 0.30158500000834465 12.163066070526847 1.2499990016221993 0.48571399971842755 0.14285700023174186 0.14285700023174186 5.0042659975588322 0.57142800092697132 0.28571400046348649 0.28571400046348827 0.20168599858880043 0.28571400046348572 0.89285600185394265 25.035158061888072 1.0613990025594824 0.59524199366569508 0.39048599451780319 0.28571400046348472 0.42857100069522858 0.92578499764203992 0.14285700023174286 0.14285700023174297 3.5662569999694829 0.39999999105930328 0.14285700023174286 1.4642850011587141 2.1152990143746142 4.5886260084807873 0.71428500115871418 1.3880849778652189 0.1948000006377697 1.142857030034065 0.53468599915504456 0.028571000322699436 4.2749409824609756 9.9550230037421006 0.28571400046348472 0.071428999304771423 0.72618499398231506 0.071428999304771423 20.746292019262917 0.28571400046348561
leaf_count=41 9 2904 18 8190 965 38586 523 33 515 157 1346 387 15 291 17 167 4 1962 2022 10 165 1525 6553 26 193 5474 19866 451 4755 949 4630 515 256 81750 128 162 157 258 664 5135 428 485 476 964 20 4158 28656 20222 1290 1612 84 5 121 104 18 89726 88 42 43 42 19668 72
internal_value=0 -0.226936 2.22464 2.2166 -0.338255 -0.0302554 1.49099 1.78006 1.29986 4.71664 0.09983 0.0175404 0.254828 0.20093 1.55359 4.96559 2.56695 0.674961 0.874847 0.0979271 2.71912 0.0606298 0.628652 2.30517 -0.258699 -0.280345 0.0137369 -0.072977 1.28353 -0.604193 5.45969 2.01606 0.388902 -0.487088 2.54349 1.40499 1.89628 -0.501735 0.217322 0.497616 4.995 0.830331 -0.581701 -0.091652 2.19236 0.2799 -0.443574 -0.524034 -0.23107 1.04367 5.35514 1.50462 0.825995 0.00358275 1.42424 -0.701908 -0.657711 0.504166 0.451842 1.84085 -0.677575 -0.404382
internal_weight=0 111.515 12.095 4.85888 106.657 49.4201 3.76587 10.407 3.62301 1.09301 39.9871 34.9819 18.8177 18.6748 1.32143 1.688 3.35926 5.00521 2.78808 17.3534 0.834928 16.9773 4.96625 2.9545 16.1642 16.0214 5.71855 5.57569 1.95951 57.2365 0.844443 0.428571 1.03571 26.0352 2.46879 7.04773 0.533343 25.7494 0.714285 4.53768 0.642757 1.79483 9.43293 0.828571 0.248572 2.74286 10.3028 7.47325 2.82958 1.6738 0.4999 6.01304 1.03469 1.27857 4.87018 31.2013 21.2463 0.357143 0.869042 0.214286 20.8891 3.85197
internal_count=360098 359407 691 27168 332239 139053 13617 506 10713 13551 137540 117239 2501 2114 288 185 191 20301 9868 1826 845 1816 18339 187 114738 114545 25791 20317 6882 193186 13332 1861 271 83621 161 315 680 82672 922 16478 8702 5663 1513 2986 219 10815 88754 58808 29946 2127 8274 185 130 6657 180 109565 19839 130 528 62 19709 548
is_linear=0
shrinkage=0.02


Tree=12
num_leaves=63
num_cat=0
split_feature=28 45 28 154 158 114 98 34 153 152 151 33 33 33 76 38 30 62 158 99 46 153 32 152 153 146 68 38 14 152 146 38 32 154 153 144 142 69 14 82 14 146 152 143 153 144 70 14 32 143 14 152 158 34 32 153 20 55 30 142 82 32
split_gain=106990 66077.9 16859.1 8294.63 19959 11379.3 6878.22 6624.09 6252.76 15152 7001.99 7722.3 12452.2 15333.3 6661.75 5642.46 5554.86 5082.74 4895.07 4511.02 3782.55 3406.29 2520.14 2133.69 7270.82 1893.56 1850.05 1767.26 1573.2 1273.52 1232.79 1182.27 1175.2 991.152 935.574 1907.54 2623.32 928.635 927.98 916.133 876.362 1312.26 1361.85 1294.47 751.725 638.099 605.972 518.931 496.001 463.214 462.729 437.808 397.834 359.21 353.768 284.926 268.588 233.128 213.997 212.179 208.069 201.52
threshold=98.985000000000014 214.98000000000005 258.15500000000003 0.011375961348846384 19.500000000000004 0.3202941176470589 0.005689015876538416 0.10714285714285715 303.05000000000013 3.5000000000000004 10.500000000000002 0.038214285714285721 0.023214285714285719 0.037500000000000006 3.75 0.93750000000000011 177.49000000000004 0.17857142857142858 6655.0000000000009 0.011000000000000001 0.25000000000000006 199.95500000000001 29.250000000000004 3.5000000000000004 83.430000000000007 0.047631889864899579 0.014050789845556329 0.47222222222222227 0.79425000000000023 1.5000000000000002 0.15914507322991595 0.052297637003519373 0.75000000000000011 0.012348220321323109 55.935000000000009 1.5000000000000002 74.500000000000014 0.7220162955792192 8.6975000000000016 7.4528571428571437 -1.0000000180025095e-35 0.022070861217254146 2.5000000000000004 10.500000000000002 146.50500000000005 30.500000000000004 0.94203188602442334 0.79425000000000023 2.6785714285714293 2.5000000000000004 13.540000000000001 1.5000000000000002 3.5000000000000004 6.142857142857145 1.5357142857142858 15.495000000000003 19.707857000000001 0.75200096899224811 129.43145064506453 426.50000000000006 0.71398928571428588 0.82142857142857151
decision_type=10 10 8 8 10 10 8 10 8 8 8 8 8 10 8 10 8 8 10 8 10 10 10 10 10 8 8 10 10 10 8 10 8 8 8 8 10 10 10 10 10 10 8 10 10 10 10 10 8 8 10 10 8 10 8 10 10 8 10 10 8 8
left_child=1 3 16 4 -1 21 -5 28 23 17 11 12 27 -14 20 18 39 -10 19 -12 -13 40 -7 24 34 -16 -23 -11 -4 31 33 49 -19 -25 55 36 -36 -18 -32 53 -6 42 43 -42 52 -28 54 -47 -3 -26 -30 -37 -31 56 -35 59 58 -57 -2 -8 -48 -34
right_child=2 48 7 6 5 22 8 -9 9 10 15 14 13 -15 25 -17 37 32 -20 -21 -22 26 -24 30 29 -27 45 -29 50 44 38 -33 61 46 35 51 -38 -39 -40 -41 41 -43 -44 -45 -46 47 60 -49 -50 -51 -52 -53 -54 -55 -56 57 -58 -59 -60 -61 -62 -63
leaf_value=5.6600876668970663 1.3515623902481775 4.4598588396339531 5.9194792307973056 3.7494143473504837 -0.59150864955701454 5.6840255920227118 -0.77801613201464481 1.9950843677808616 6.0618457279154789 -0.4486993291207404 3.2651287252250767 5.1529828973092391 7.1294010005871318 1.1479554528729801 0.18154561533989946 3.7036860630954238 2.7539463702227738 4.7596105123426087 4.6865631758956052 -0.29371754031514918 1.1671670708089095 2.2266427687783876 2.3614072724325461 1.4281418904462617 -0.25137806717053623 -0.41967539174169866 0.92076148004803371 1.4124402796253324 4.695194515344487 2.1263340417481764 -0.39879429531563254 3.4659819310197362 1.2419650461026699 -0.53627201331669971 3.3302090514302982 0.25773093945995912 -0.30593463769986673 1.7466827444526771 1.1304249986778891 0.65130835838830092 0.19987012476158891 3.7968235000579011 -0.47938932819846436 2.3046198011864067 0.47618370897367501 -0.35666750159417299 0.089409032321053086 1.0352167165207791 5.3678345857948297 0.95828373968953606 3.2889373045980612 -0.52758553087832449 -0.26555609520085938 1.9271425604604386 -0.70728182796869388 -0.60209204249343362 1.4449746029959725 -0.40062671295924629 0.55305957275292006 -0.30672409823089264 -0.42307925252360223 1.993135391772848
leaf_weight=0.28571400046348561 0.28571400046348561 0.41574300825595856 0.44871400296687969 0.17142800055444241 1.9857119992375367 0.13419999927282322 3.043183002620935 0.4036710113286972 0.14285700023174286 0.71428500115871429 0.14285700023174286 0.14285700023174286 0.2857140004634855 0.42857098579406738 5.2559389844536781 0.14285700023174186 1.693100001662968 0.05194300040602684 0.079370997846125557 52.268847094848752 0.28571400046348572 0.30158500000834465 0.28571400046348572 0.095242999494075775 0.14285700023174286 3.484684001654383 0.61175600159913279 0.28571400046348572 0.27142899855971336 0.028571000322699658 0.35714299976825969 0.071428999304771312 0.28571400046348572 7.7672960325144231 0.14285700023174286 0.35714299976826014 0.17857100069522858 0.46712799370288838 0.28571400046348572 0.63348600268363942 0.64285700023174286 0.035714000463485607 1.2539699971675884 0.14285700023174286 1.6538420021533964 0.42857199907302856 0.57142800092697144 0.14285700023174286 0.57142901420593162 1.1142849922180165 0.14285700023174286 1.3857140000909565 1.0511840023100376 0.57142800092697132 12.83393901772798 4.8384529985487461 5.3038550019264221 4.3748410046100599 0.25324299931526184 0.43697098549455393 0.71137100458145031 0.28571400046348572
leaf_count=1105 151 37 10 106 462 66 7262 10 57 1597 595 308 322 9 10611 2512 101 152 22 280965 173 20 4 121 765 17210 401 332 19 281 198 125 2 1632 498 378 198 3 19 7 450 102 1025 63 1015 158 34 5 16 999 119 1810 1289 3 9852 935 126 11966 34 126 66 1059
internal_value=0 -0.166351 1.94645 -0.211699 0.496216 0.248907 -0.25349 4.1098 -0.259981 -0.136487 -0.170211 0.291577 1.52367 3.54053 0.0612237 -0.265698 1.64886 2.65916 -0.276501 -0.284017 2.49577 0.00855532 3.42328 -0.451541 -0.294203 -0.0581473 0.828299 0.0830548 5.09897 0.455077 -0.582434 0.963036 1.87937 -0.607684 -0.500447 -0.105568 1.31013 2.53614 0.280858 1.37689 -0.291149 -0.00376848 -0.0703152 0.582552 0.2082 0.471872 -0.616544 -0.00869706 4.98544 0.820822 4.21028 -0.36666 -0.202265 1.44855 -0.642806 -0.564665 1.40175 -0.506428 0.976365 -0.71884 -0.194789 1.61755
internal_weight=0 113.136 10.4746 112.149 6.25151 5.96579 105.897 1.26667 105.726 64.2836 63.5174 10.8835 1.71428 0.714285 9.16919 52.6339 9.20795 0.766228 52.4911 52.4117 0.428571 5.54588 0.419914 41.442 18.8199 8.74062 1.48477 0.999999 0.863 4.06217 22.6221 1.32857 0.623371 21.9793 14.7577 2.06429 0.321428 2.16023 0.642857 7.04773 4.06111 2.0754 2.03968 0.785714 2.7336 1.18319 21.884 0.571429 0.987172 1.25714 0.414286 1.74286 1.07976 6.41424 20.6012 12.6934 5.84281 9.21329 0.538957 3.48015 1.2828 0.571428
internal_count=360098 359515 583 359462 3861 2756 355601 158 355495 315926 314656 30562 2260 331 28302 284094 425 1270 281582 281560 481 2686 70 39569 27647 27821 584 1929 148 4474 11922 1889 1213 11705 23173 2884 696 104 217 321 2102 1640 1538 513 2585 564 11584 163 53 1764 138 2188 1570 314 11484 20289 311 12901 185 7388 100 1061
is_linear=0
shrinkage=0.02


Tree=13
num_leaves=63
num_cat=0
split_feature=141 15 141 141 155 38 45 148 146 141 148 26 155 31 158 31 47 158 96 16 155 148 16 141 16 24 158 87 156 141 141 17 146 141 47 146 0 4 148 12 4 24 141 5 14 148 146 16 15 24 155 148 155 31 148 24 16 16 38 148 148 16
split_gain=133600 91470.6 32468.3 20847.1 15348.9 15821 13136.5 6846.62 6554.03 13525.7 6520.21 4366.74 4333.2 4291.74 6064.77 8146.72 3929.99 3586.12 3554.24 3041.75 2822.91 2614.47 2589.67 2488.32 2276.63 2259.38 2255.55 2054.86 1967.57 1953.01 1542.4 1468.82 1231.35 1206.36 1119.92 1224.18 1003.01 941.862 1064.98 886.098 959.683 754.449 751.486 718.076 661.209 577.46 570.595 541.475 483.131 453.519 407.121 415.114 337.395 418.723 340.968 335.534 1239.68 265.893 244.566 229.403 344.981 478.732
threshold=99.895000000000024 164.74500000000003 269.99500000000006 32.995000000000012 0.0050826003280763626 0.052297637003519373 214.98000000000005 1.0000000180025095e-35 0.094894235066289301 205.99500000000003 0.92356396271967589 5.1929519148091821 0.014566895982620266 1.6071428571428574 5.5000000000000009 0.17857142857142858 0.25000000000000006 287.50000000000006 1.0000000180025095e-35 3.6428571428571432 0.0089596836534459202 0.7092705895687077 16.785714285714288 66.810000000000016 30.500000000000004 0.21522727272727274 5.5000000000000009 1.0000000180025095e-35 0.42357966101694916 77.315000000000012 14.605000000000002 11.500000000000002 0.052641475821935436 14.805000000000001 1.7500000000000002 0.093395638629283503 1.0000000180025095e-35 -1.0000000180025095e-35 0.31544128135759969 0.48810000000000003 1.0000000180025095e-35 0.75250000000000006 43.995000000000012 8.3107143000000008 -1.0000000180025095e-35 0.4178216054763923 0.026668578529777272 3.3571428571428572 122.575 0.095227272727272744 0.026103179753406879 0.45547440065014227 0.018192160512979626 0.32142857142857145 0.6635183030046552 0.090277777777777804 1.0714285714285716 25.214285714285719 0.01378374840995026 0.39873199922158803 0.42446698113207554 50.642857142857146
decision_type=10 10 10 8 8 10 10 8 8 10 8 8 8 8 8 8 8 10 8 10 8 10 10 10 10 10 8 8 10 10 10 10 10 10 10 8 2 8 10 10 10 10 10 10 10 10 10 10 10 8 10 8 8 10 10 8 10 10 10 10 8 10
left_child=1 3 8 30 5 37 32 -6 16 19 20 18 43 14 15 -14 25 34 24 47 28 -20 -16 26 -4 -2 -15 -19 -9 -25 52 -29 -3 -32 35 49 -11 -5 -39 59 -41 -23 50 -12 -30 -40 -7 -10 -13 -18 51 -22 53 57 -54 56 -56 -1 -51 -35 61 -61
right_child=2 6 11 4 7 46 -8 10 9 36 12 48 13 23 22 -17 17 27 21 -21 42 41 -24 29 -26 -27 -28 31 44 -31 33 -33 -34 39 -36 -37 -38 38 45 40 -42 -43 -44 -45 -46 -47 -48 -49 -50 58 -52 -53 54 -55 55 -57 -58 -59 -60 60 -62 -63
