tree
version=v3
num_class=1
num_tree_per_iteration=1
label_index=0
max_feature_idx=169
objective=regression
feature_names=is_mobile sem_impressions_w2 sem_clicks_w2 sem_adspend_w2 sem_qty_w2 sem_gmv_revenue_adjustment_seller_w2 sem_orders_seller_w2 sem_margin_seller_w2 sem_ctr_w2 sem_cpc_w2 sem_rpc_seller_w2 sem_roas_seller_w2 sem_convrt_seller_w2 sem_ordersize_seller_w2 sem_mpc_seller_w2 sem_mpo_seller_w2 sem_impressions_w1 sem_clicks_w1 sem_adspend_w1 sem_qty_w1 sem_gmv_revenue_adjustment_seller_w1 sem_orders_seller_w1 sem_margin_seller_w1 sem_ctr_w1 sem_cpc_w1 sem_rpc_seller_w1 sem_roas_seller_w1 sem_convrt_seller_w1 sem_ordersize_seller_w1 sem_mpc_seller_w1 sem_mpo_seller_w1 sem_impressions_v2 sem_clicks_v2 sem_adspend_v2 sem_qty_v2 sem_gmv_revenue_adjustment_seller_v2 sem_orders_seller_v2 sem_margin_seller_v2 sem_ctr_v2 sem_cpc_v2 sem_rpc_seller_v2 sem_roas_seller_v2 sem_convrt_seller_v2 sem_ordersize_seller_v2 sem_mpc_seller_v2 sem_mpo_seller_v2 sem_impressions_v3 sem_clicks_v3 sem_adspend_v3 sem_qty_v3 sem_gmv_revenue_adjustment_seller_v3 sem_orders_seller_v3 sem_margin_seller_v3 sem_ctr_v3 sem_cpc_v3 sem_rpc_seller_v3 sem_roas_seller_v3 sem_convrt_seller_v3 sem_ordersize_seller_v3 sem_mpc_seller_v3 sem_mpo_seller_v3 sem_impressions_v4 sem_clicks_v4 sem_adspend_v4 sem_qty_v4 sem_gmv_revenue_adjustment_seller_v4 sem_orders_seller_v4 sem_margin_seller_v4 sem_ctr_v4 sem_cpc_v4 sem_rpc_seller_v4 sem_roas_seller_v4 sem_convrt_seller_v4 sem_ordersize_seller_v4 sem_mpc_seller_v4 sem_mpo_seller_v4 sem_impressions_v5 sem_clicks_v5 sem_adspend_v5 sem_qty_v5 sem_gmv_revenue_adjustment_seller_v5 sem_orders_seller_v5 sem_margin_seller_v5 sem_ctr_v5 sem_cpc_v5 sem_rpc_seller_v5 sem_roas_seller_v5 sem_convrt_seller_v5 sem_ordersize_seller_v5 sem_mpc_seller_v5 sem_mpo_seller_v5 sem_impressions_v9 sem_clicks_v9 sem_adspend_v9 sem_qty_v9 sem_gmv_revenue_adjustment_seller_v9 sem_orders_seller_v9 sem_margin_seller_v9 sem_ctr_v9 sem_cpc_v9 sem_rpc_seller_v9 sem_roas_seller_v9 sem_convrt_seller_v9 sem_ordersize_seller_v9 sem_mpc_seller_v9 sem_mpo_seller_v9 sem_impressions_v12 sem_clicks_v12 sem_adspend_v12 sem_qty_v12 sem_gmv_revenue_adjustment_seller_v12 sem_orders_seller_v12 sem_margin_seller_v12 sem_ctr_v12 sem_cpc_v12 sem_rpc_seller_v12 sem_roas_seller_v12 sem_convrt_seller_v12 sem_ordersize_seller_v12 sem_mpc_seller_v12 sem_mpo_seller_v12 sem_impressions_v18 sem_clicks_v18 sem_adspend_v18 sem_qty_v18 sem_gmv_revenue_adjustment_seller_v18 sem_orders_seller_v18 sem_margin_seller_v18 sem_ctr_v18 sem_cpc_v18 sem_rpc_seller_v18 sem_roas_seller_v18 sem_convrt_seller_v18 sem_ordersize_seller_v18 sem_mpc_seller_v18 sem_mpo_seller_v18 uber_curr_item_price_w1 uber_num_appr_reviews_w1 uber_avg_overall_rating_w1 uber_price_change_ratio_w1 uber_price_change_value_w1 uber_avg_margin_w1 site_total_page_views_w2 site_total_add_to_carts_w2 site_total_orders_w2 site_total_revenue_w2 site_atcpv_w2 site_convrt_w2 site_rpv_w2 site_mpv_w2 site_total_page_views_w1 site_total_add_to_carts_w1 site_total_orders_w1 site_total_revenue_w1 site_atcpv_w1 site_convrt_w1 site_rpv_w1 site_mpv_w1 bc_bounces_w2 bc_visits_w2 bc_bounce_rate_w2 bc_sem_bounces_w2 bc_sem_visits_w2 bc_sem_bounce_rate_w2 bc_bounces_w1 bc_visits_w1 bc_bounce_rate_w1 bc_sem_bounces_w1 bc_sem_visits_w1 bc_sem_bounce_rate_w1
feature_infos=[0:1] [0:50897.142857142855] [0:804.14285714285711] [0:609.70928571428578] [-5.5:189.71428571428569] [0:697.9345857000003] [0:44.7639286] [-525.2397000000002:117.76662142857144] [0.00081400081400081396:3] [0.010000000000000002:3.71] [0:1006.15] [0:60674] [0:96] [0:1835.003600360036] [-1163.2:1006.15] [-2712.493670886076:1835.003600360036] [0:53982.285714285732] [0:782.14285714285711] [0:591.05857142857144] [-10:159.57142857142858] [0:624.78620000000001] [0:39.481929000000001] [-510.75665714285736:349.21714285714279] [0.00086655112651646421:3] [0.01:3.71] [0:1006.15] [0:60674] [0:96] [0:1616.9300000000001] [-1163.2:1006.15] [-2712.493670886076:1616.9300000000001] [0:44892.857142857145] [0:1244.9285714285713] [0:967.87928571428608] [-3.5:193.35714285714286] [0:1402.5222214000007] [0:57.281807100000002] [-256.39420714285734:409.85714285714278] [0.0007674597083653107:2] [0.01:1.6067233174711082] [0:1912.6666666666665] [0:60632.000000000007] [0:38.5] [1.079931972789:2869] [-814.5222:1912.666666666667] [-9766.7444444444445:2869] [0:53193.214285714275] [0:1984.7142857142856] [0:1605.4721428571427] [-4.5714285714285712:278.07142857142856] [0:2236.4803857000002] [0:79.433449999999993] [-520.55146428571436:409.85714285714278] [0.0016835016835016836:2] [0.01:1.8999999999999999] [0:5738] [0:28115] [0:38] [1.8066666666669999:2869] [-489.25999999999999:5738] [-9766.7444444444445:2869] [0:56834.357142857145] [0:2020.5] [0:1671.4021428571432] [-9.3571428571428577:329.07142857142856] [0:2943.4088357000001] [0:88.255314299999995] [-456.43307142857162:556.41143571428563] [0.0013502350997585462:2] [0.01:1.8999999999999999] [0:585.60000000000002] [0:10599] [0:28.5] [1.8066666666669999:1459.98] [-294:281.79000000000002] [-7202.4019607843129:1290.3533333333332] [0:73038.642857142855] [0:1237.2142857142858] [0:1042.0628571428572] [-3.3571428571428568:186.85714285714286] [0:2350.2252070999998] [0:66.388942900000004] [-851.34582857142868:566.42663571428568] [0.00071306332002281792:2] [0.01:1.6477782909930716] [0:283.99599999999998] [0:8276] [0:20] [0.88:709.99000000000001] [-325.69070000000005:283.99599999999998] [-4851.485148514852:709.9899999999999] [0:50352.916666666657] [0:1567.916666666667] [0:819.79750000000001] [-3:215.58333333333329] [0:1164.4261582999998] [0:16.761500000000002] [-1252.4245416666668:969.92615833333332] [0.00056116722783389455:2] [0.01:1.5638983050847457] [0:476.88] [0:14967.5] [0:25] [0.96999999999999997:953.75999999999999] [-1508.22:476.88] [-3393.6558935361213:953.75999999999999] [0:30754] [0:730.71428571428578] [0:460.23500000000001] [-4.7142857142857144:70.714285714285708] [0:1062.3132714000001] [0:25.898021400000001] [-298.19857142857148:457.13541428571432] [0.00059020263623844188:2] [0.01:1.3607142857142858] [0:253.88] [0:5999] [0:12.666666666666664] [1.1642298537910001:798] [-409.38:253.88] [-2916.3769507803117:798] [0:2611.2142857142858] [0:69.857142857142861] [0:40.445] [-0.5:9.1428571428571423] [0:174.34262140000001] [0:3.2390786] [-32.972142857142856:55.219764285714291] [0.0070781426953567374:2] [0.01:2.0095890410958903] [0:133.31999999999999] [0:2906.25] [0:6] [3.8766260281160001:132.730531452619] [-182.00999999999999:133.31999999999999] [-116.91:109.98999999999999] [0:169248.29999999999] [0:0] [0:5] [0.99999999999999978:1.0000000000000002] [-2.9103830456733704e-11:3.637978807091713e-12] [0:169248.29999999999] [1:327053] [1:25257] [1:282624] [0:1314711.1499999936] [9.5011876484560565e-05:5] [7.096728408203818e-05:32.279069767441861] [0:933.90697674418595] none [1:140791] [1:10698] [1:114986] [0:687269.18000000133] [0.0003714710252600297:5] [5.9708621925005973e-05:13.558734939759034] [0:416.05000000000001] none [0:85497] [1:184569] [0:1] [0:1113] [0:2499] [0:1] [0:37718] [1:79202] [0:1] [0:421] [0:1022] [0:1]
tree_sizes=6706

Tree=0
num_leaves=63
num_cat=0
split_feature=13 37 136 1 26 136 165 165 160 160 161 143 38 136 58 165 47 143 108 23 136 160 1 136 1 136 80 15 143 93 165 136 25 13 35 13 26 38 23 1 99 16 143 1 1 114 143 1 168 1 23 80 5 35 136 15 13 136 165 1 47 47
split_gain=44040.6 41379 15379.9 23349.3 21750.4 21536.1 12027 9330.05 7903.96 10937.7 4386.23 4096.35 3624.76 5349.28 3595.3 3160.33 2873.27 2588.42 2549.31 9495.04 2127.34 1929.98 1479.36 1298.72 1249.72 1122.03 1036.08 934.663 844.164 822.387 741.905 739.69 657.759 1339.94 590.124 400.838 427.716 392.759 950.567 378.876 359.616 344.15 329.143 311.632 301.048 298.373 263.192 253.699 191.055 190.609 413.704 204.294 176.915 166.728 155.834 150.678 562.754 177.016 145.02 120.148 96.0622 84.4535
threshold=442.00000000000006 21.135832142857147 59.995000000000012 3.3928571428571428 30.654088050314471 100.00500000000001 1.5000000000000002 2751.0000000000005 0.16086113919784298 0.15721897228859413 1.0000000180025095e-35 1.5000000000000002 0.006327294167315714 43.995000000000012 190.74416666666653 497.50000000000006 0.10714285714285715 29.500000000000004 0.17678571428571432 0.011721618012649043 14.985000000000001 0.36002880460873748 39.000000000000007 190.44500000000002 0.67857142857142871 100.00500000000001 1.0000000180025095e-35 39.275000000000006 1.5000000000000002 0.0062500000000000021 273.50000000000006 161.99500000000003 8.8600000000000012 17.920000000000005 1.0000000180025095e-35 14.950323766188502 1.3145956289990757 0.3257575757575758 0.31503759398496245 1.2500000000000002 0.36038461538461541 5.6428571428571432 2.5000000000000004 1.6785714285714286 2132.6071428571436 0.020833333333333339 7.5000000000000009 2.7500000000000004 6.5000000000000009 14.892857142857144 0.045558322955583236 1.0000000180025095e-35 13.0290607 0.63214285000000003 4.995000000000001 -12.493243275987401 10.748162816281502 59.005000000000003 20.500000000000004 1.1071428571428574 1.5357142857142858 0.46428571428571436
decision_type=10 10 8 10 10 10 10 10 10 8 10 8 10 8 10 10 8 10 8 8 10 10 10 8 8 8 8 10 8 8 10 10 10 8 8 10 8 10 10 10 10 10 10 10 10 8 8 10 10 10 8 8 10 10 10 10 10 10 10 10 10 8
left_child=1 2 12 5 7 10 -7 8 9 15 25 24 13 20 18 29 -15 28 19 -10 49 -20 52 31 -8 26 -4 35 -12 -5 37 42 40 -34 47 45 53 41 -39 -30 44 -27 -13 -33 48 -14 -18 -19 -22 54 51 -51 -6 -37 -1 56 57 -47 -28 -26 -38 -48
right_child=-2 -3 3 4 22 6 11 -9 14 -11 17 23 27 16 -16 -17 46 34 21 -21 32 -23 -24 -25 59 30 58 -29 39 -31 -32 43 33 -35 -36 36 60 38 -40 -41 -42 -43 -44 -45 -46 55 61 -49 -50 50 -52 -53 -54 -55 -56 -57 -58 -59 -60 -61 -62 -63
leaf_value=15.544446704361279 19.301725239264012 18.270533423925478 15.774587155875652 15.561897160026154 20.80198724084514 24.115187341273078 18.555787259641463 16.13914637362431 18.488717625584684 22.041787215206135 16.596587124374562 18.116887189953143 16.040337158749537 19.421987121933729 17.382273873523307 15.80076290391764 16.175922256562362 16.651487100602719 15.853911238510884 15.841587952713033 15.968493801187931 15.657507082715263 18.074319368188451 16.067354473952275 21.293987243765731 15.84588663681944 17.08623953463179 16.268428854911438 19.201987207466487 17.044628801872118 17.381987126106072 18.817866411245127 17.609987231666008 15.841787155564724 15.862278102028801 15.596445975901267 16.514668163106414 19.20236519854123 16.150087169383568 18.050437204864011 15.561150838944037 16.766573758452981 17.307253662279635 17.931687172137298 15.536997506546211 15.593315986895512 17.270039641628259 17.802093569886257 16.425626313058558 16.429987154327126 16.357520477220493 15.654557756042058 19.939986944818362 15.823797773224999 15.654960404264438 15.559879068653508 16.303005151566801 16.297787163469291 16.501680243752432 20.354265328095828 16.035463197239313 16.603234468680945
leaf_weight=7.935714125633246 1.4036430120468129 2.5957139842212191 0.42857100069522858 0.16189999878406525 0.14285700023174186 0.1428570002317423 0.14285700023174286 27.935858026146889 0.60714200139045704 0.14285700023174275 0.14285700023174286 0.28571400046348572 0.57142798602581024 0.14285700023174286 0.51587101444601913 1.8365010395646097 0.69694301672279835 0.28571400046348572 24.338110045995563 5.0523710250854492 9.136409002589053 112.61409894004464 0.18181400001049042 0.17142800055444252 0.14285700023174286 4.8120530135929585 0.75450000166892806 0.8142009861767282 0.14285700023174264 1.973870963789522 0.14285700023174275 0.35714299976825714 0.28571400046348572 0.42857098579406816 0.39285700023174286 3.2998719662427893 0.24782799975946534 0.047614000737666973 0.28571400046348572 0.57142800092697144 0.99999998509883958 0.16807099990546692 0.6761849969625473 0.28571400046348572 0.63491398096084672 111.64050858700648 0.079370997846126556 0.10475700348615646 0.38095699995756227 0.14285799860954285 0.42857100069522847 2.7918429840356112 0.28571400046348572 2.1186289638280869 14.301677027717231 71.309301167726517 0.44987199828028579 0.14285700023174186 0.21904200129210949 0.08791399747133255 0.51514200121164322 1.7765290401875971
leaf_count=10263 52 27 295 10 96 14304 1790 41 133 105 421 3921 71 154 16 36 2789 200 3114 734 91708 4032 24 7274 643 63463 15275 87 2988 1449 398 1423 186 961 2054 35 178 1155 231 719 554 625 1163 109 3 15247 39 28 216 18 47 419 9 82 93865 384 19 119 1073 466 27 12581
internal_value=15.7571 15.7532 15.7375 15.8726 15.8172 16.7756 18.4958 15.8041 15.7405 16.6047 16.3116 18.1224 15.6285 15.8013 15.7156 16.4091 16.6618 17.2406 15.7096 16.1256 15.7393 15.6924 19.586 17.722 20.0259 16.0894 16.594 15.5922 18.0001 16.9322 15.9597 17.8988 15.9607 16.5491 16.4096 15.5894 15.7478 15.9214 16.5861 18.2807 15.923 15.877 17.5477 18.424 15.9587 15.584 16.5073 16.9602 15.9868 15.6367 15.7771 15.6923 20.2273 15.6853 15.6155 15.5826 15.5971 15.5942 16.9547 20.936 16.1911 16.6318
internal_weight=0 420.449 417.853 186.581 175.789 10.7916 2.29267 175.179 147.243 4.11513 8.49889 2.14981 231.273 40.1629 143.128 3.97227 2.6957 1.64047 142.612 5.65951 37.4672 136.952 0.610385 1.77618 0.373628 6.85842 1.40211 191.11 0.857142 2.13577 5.45631 1.60476 11.8666 0.714285 0.783328 190.295 6.18147 5.31345 0.333328 0.714285 11.1523 4.98012 0.961899 0.642857 10.1523 184.114 2.55284 0.390471 9.51737 25.6007 3.36327 2.9347 0.428571 5.4185 22.2374 183.543 112.233 111.783 0.973542 0.230771 0.76297 1.8559
internal_count=359948 359896 359869 129817 9799 120018 31093 9670 9629 1600 88925 16789 230052 213803 8029 1495 15563 6410 8013 867 198240 7146 129 13890 2899 82515 16643 16249 4128 1459 65872 6616 93628 1147 2282 16162 322 65474 1386 3707 92481 64088 5084 1532 91927 15840 15409 228 91924 104612 484 437 105 117 104128 15769 15385 15366 16348 1109 205 12620
is_linear=0
shrinkage=1


end of trees

feature_importances:
sem_impressions_w2=9
uber_curr_item_price_w1=9
site_total_add_to_carts_w2=5
bc_visits_w1=5
sem_ordersize_seller_w2=4
sem_ctr_w1=3
sem_clicks_v3=3
bc_bounce_rate_w2=3
sem_mpo_seller_w2=2
sem_roas_seller_w1=2
sem_gmv_revenue_adjustment_seller_v2=2
sem_ctr_v2=2
sem_gmv_revenue_adjustment_seller_v5=2
sem_gmv_revenue_adjustment_seller_w2=1
sem_impressions_w1=1
sem_rpc_seller_w1=1
sem_margin_seller_v2=1
sem_ordersize_seller_v3=1
sem_adspend_v9=1
sem_cpc_v9=1
sem_adspend_v12=1
sem_cpc_v12=1
bc_sem_bounces_w2=1
bc_sem_visits_w1=1

parameters:
[boosting: gbdt]
[objective: regression]
[metric: rmse]
[tree_learner: serial]
[device_type: cpu]
[data: ]
[valid: ]
[num_iterations: 4000]
[learning_rate: 0.02]
[num_leaves: 63]
[num_threads: -1]
[deterministic: 0]
[force_col_wise: 0]
[force_row_wise: 0]
[histogram_pool_size: -1]
[max_depth: 10]
[min_data_in_leaf: 20]
[min_sum_hessian_in_leaf: 0.001]
[bagging_fraction: 0.9]
[pos_bagging_fraction: 1]
[neg_bagging_fraction: 1]
[bagging_freq: 10]
[bagging_seed: 400]
[feature_fraction: 0.33]
[feature_fraction_bynode: 1]
[feature_fraction_seed: 30056]
[extra_trees: 0]
[extra_seed: 12879]
[early_stopping_round: 200]
[first_metric_only: 0]
[max_delta_step: 0]
[lambda_l1: 0]
[lambda_l2: 0]
[linear_lambda: 0]
[min_gain_to_split: 0]
[drop_rate: 0.1]
[max_drop: 50]
[skip_drop: 0.5]
[xgboost_dart_mode: 0]
[uniform_drop: 0]
[drop_seed: 17869]
[top_rate: 0.2]
[other_rate: 0.1]
[min_data_per_group: 100]
[max_cat_threshold: 32]
[cat_l2: 10]
[cat_smooth: 10]
[max_cat_to_onehot: 4]
[top_k: 20]
[monotone_constraints: ]
[monotone_constraints_method: basic]
[monotone_penalty: 0]
[feature_contri: ]
[forcedsplits_filename: ]
[refit_decay_rate: 0.9]
[cegb_tradeoff: 1]
[cegb_penalty_split: 0]
[cegb_penalty_feature_lazy: ]
[cegb_penalty_feature_coupled: ]
[path_smooth: 0]
[interaction_constraints: ]
[verbosity: -1]
[saved_feature_importance_type: 0]
[linear_tree: 0]
[max_bin: 255]
[max_bin_by_feature: ]
[min_data_in_bin: 3]
[bin_construct_sample_cnt: 200000]
[data_random_seed: 175]
[is_enable_sparse: 1]
[enable_bundle: 1]
[use_missing: 1]
[zero_as_missing: 0]
[feature_pre_filter: 1]
[pre_partition: 0]
[two_round: 0]
[header: 0]
[label_column: ]
[weight_column: ]
[group_column: ]
[ignore_column: ]
[categorical_feature: ]
[forcedbins_filename: ]
[precise_float_parser: 0]
[objective_seed: 16083]
[num_class: 1]
[is_unbalance: 0]
[scale_pos_weight: 1]
[sigmoid: 1]
[boost_from_average: 1]
[reg_sqrt: 0]
[alpha: 0.9]
[fair_c: 1]
[poisson_max_delta_step: 0.7]
[tweedie_variance_power: 1.5]
[lambdarank_truncation_level: 30]
[lambdarank_norm: 1]
[label_gain: ]
[eval_at: ]
[multi_error_top_k: 1]
[auc_mu_weights: ]
[num_machines: 1]
[local_listen_port: 12400]
[time_out: 120]
[machine_list_filename: ]
[machines: ]
[gpu_platform_id: -1]
[gpu_device_id: -1]
[gpu_use_dp: 0]
[num_gpu: 1]

end of parameters

pandas_categorical:[]
