tree
version=v3
num_class=1
num_tree_per_iteration=1
label_index=0
max_feature_idx=169
objective=regression
feature_names=is_mobile sem_impressions_w2 sem_clicks_w2 sem_adspend_w2 sem_qty_w2 sem_gmv_revenue_adjustment_brand_w2 sem_orders_brand_w2 sem_margin_brand_w2 sem_ctr_w2 sem_cpc_w2 sem_rpc_brand_w2 sem_roas_brand_w2 sem_convrt_brand_w2 sem_ordersize_brand_w2 sem_mpc_brand_w2 sem_mpo_brand_w2 sem_impressions_w1 sem_clicks_w1 sem_adspend_w1 sem_qty_w1 sem_gmv_revenue_adjustment_brand_w1 sem_orders_brand_w1 sem_margin_brand_w1 sem_ctr_w1 sem_cpc_w1 sem_rpc_brand_w1 sem_roas_brand_w1 sem_convrt_brand_w1 sem_ordersize_brand_w1 sem_mpc_brand_w1 sem_mpo_brand_w1 sem_impressions_v2 sem_clicks_v2 sem_adspend_v2 sem_qty_v2 sem_gmv_revenue_adjustment_brand_v2 sem_orders_brand_v2 sem_margin_brand_v2 sem_ctr_v2 sem_cpc_v2 sem_rpc_brand_v2 sem_roas_brand_v2 sem_convrt_brand_v2 sem_ordersize_brand_v2 sem_mpc_brand_v2 sem_mpo_brand_v2 sem_impressions_v3 sem_clicks_v3 sem_adspend_v3 sem_qty_v3 sem_gmv_revenue_adjustment_brand_v3 sem_orders_brand_v3 sem_margin_brand_v3 sem_ctr_v3 sem_cpc_v3 sem_rpc_brand_v3 sem_roas_brand_v3 sem_convrt_brand_v3 sem_ordersize_brand_v3 sem_mpc_brand_v3 sem_mpo_brand_v3 sem_impressions_v4 sem_clicks_v4 sem_adspend_v4 sem_qty_v4 sem_gmv_revenue_adjustment_brand_v4 sem_orders_brand_v4 sem_margin_brand_v4 sem_ctr_v4 sem_cpc_v4 sem_rpc_brand_v4 sem_roas_brand_v4 sem_convrt_brand_v4 sem_ordersize_brand_v4 sem_mpc_brand_v4 sem_mpo_brand_v4 sem_impressions_v5 sem_clicks_v5 sem_adspend_v5 sem_qty_v5 sem_gmv_revenue_adjustment_brand_v5 sem_orders_brand_v5 sem_margin_brand_v5 sem_ctr_v5 sem_cpc_v5 sem_rpc_brand_v5 sem_roas_brand_v5 sem_convrt_brand_v5 sem_ordersize_brand_v5 sem_mpc_brand_v5 sem_mpo_brand_v5 sem_impressions_v9 sem_clicks_v9 sem_adspend_v9 sem_qty_v9 sem_gmv_revenue_adjustment_brand_v9 sem_orders_brand_v9 sem_margin_brand_v9 sem_ctr_v9 sem_cpc_v9 sem_rpc_brand_v9 sem_roas_brand_v9 sem_convrt_brand_v9 sem_ordersize_brand_v9 sem_mpc_brand_v9 sem_mpo_brand_v9 sem_impressions_v12 sem_clicks_v12 sem_adspend_v12 sem_qty_v12 sem_gmv_revenue_adjustment_brand_v12 sem_orders_brand_v12 sem_margin_brand_v12 sem_ctr_v12 sem_cpc_v12 sem_rpc_brand_v12 sem_roas_brand_v12 sem_convrt_brand_v12 sem_ordersize_brand_v12 sem_mpc_brand_v12 sem_mpo_brand_v12 sem_impressions_v18 sem_clicks_v18 sem_adspend_v18 sem_qty_v18 sem_gmv_revenue_adjustment_brand_v18 sem_orders_brand_v18 sem_margin_brand_v18 sem_ctr_v18 sem_cpc_v18 sem_rpc_brand_v18 sem_roas_brand_v18 sem_convrt_brand_v18 sem_ordersize_brand_v18 sem_mpc_brand_v18 sem_mpo_brand_v18 uber_curr_item_price_w1 uber_num_appr_reviews_w1 uber_avg_overall_rating_w1 uber_price_change_ratio_w1 uber_price_change_value_w1 uber_avg_margin_w1 site_total_page_views_w2 site_total_add_to_carts_w2 site_total_orders_w2 site_total_revenue_w2 site_atcpv_w2 site_convrt_w2 site_rpv_w2 site_mpv_w2 site_total_page_views_w1 site_total_add_to_carts_w1 site_total_orders_w1 site_total_revenue_w1 site_atcpv_w1 site_convrt_w1 site_rpv_w1 site_mpv_w1 bc_bounces_w2 bc_visits_w2 bc_bounce_rate_w2 bc_sem_bounces_w2 bc_sem_visits_w2 bc_sem_bounce_rate_w2 bc_bounces_w1 bc_visits_w1 bc_bounce_rate_w1 bc_sem_bounces_w1 bc_sem_visits_w1 bc_sem_bounce_rate_w1
feature_infos=[0:1] [0:50897.142857142855] [0:804.14285714285711] [0:609.70928571428578] [-5.5:189.71428571428569] [0:976.07393569999999] [0:5.0129214000000015] [-247.10035000000028:161.37137857142858] [0.00056915196357427446:2] [0.010000000000000002:2.29] [0:1791.53] [0:39532] [0:14] [0:1736.9100000000001] [-685.52999999999997:1791.53] [-1885.793041391722:1736.9100000000001] [0:53982.285714285732] [0:782.14285714285711] [0:591.05857142857144] [-10.714285714285714:159.57142857142858] [0:763.67562899999996] [0:4.9558429999999998] [-371.86722857142883:255.93285714285716] [0.00056915196357427446:2] [0.01:2.6899999999999999] [0:1791.53] [0:39532] [0:14] [0:1736.9100000000001] [-1139.4000000000001:1791.53] [-1771.7499999999998:1736.9100000000001] [0:44892.857142857145] [0:1244.9285714285713] [0:967.87928571428608] [-11.285714285714285:193.35714285714286] [0:2271.9787857000001] [0:11.529514300000001] [-145.82714285714286:613.06235714285708] [0.0007674597083653107:2] [0.01:1.6067233174711082] [0:467.49000000000001] [0:13499] [0:3] [1.96:1048.790041991602] [-593.44000000000005:467.49000000000001] [-2918.9410112359551:1048.7900419916018] [0:53193.214285714275] [0:1984.7142857142856] [0:1605.4721428571427] [-9.5714285714285712:278.07142857142856] [0:4511.8805713999991] [0:25.154357099999999] [-241.36357142857148:2037.7141428571435] [0.0016339869281045752:2] [0.01:1.6117622377622376] [0:585.60000000000002] [0:18598] [0:3] [1.2:1256] [-489.25999999999999:459] [-2918.9410112359551:1252.8499999999999] [0:56834.357142857145] [0:2020.5] [0:1671.4021428571432] [-9.3571428571428577:329.07142857142856] [0:4574.8678286000004] [0:25.995585699999999] [-377.82880714285693:2339.3178285714284] [0.0013742556115437471:2] [0.01:1.73] [0:585.60000000000002] [0:18598] [0:3] [1.2:1256] [-268.75999999999999:297.5] [-1000.3002099370192:1256] [0:73038.642857142855] [0:1237.2142857142858] [0:1042.0628571428572] [-3.3571428571428568:186.85714285714286] [0:2311.0210499999998] [0:11.6280286] [-850.84618571428564:1270.69605] [0.0018165304268846505:2] [0.01:1.6477782909930716] [0:297.5] [0:8276] [0:8] [2.4399999999999999:923.92442598361606] [-452.82000000000005:297.5] [-3343:923.92442598361606] [0:20721.833333333328] [0:335.5] [0:202.13249999999999] [-3.6666666666666665:56.5] [0:712.19614999999999] [0:4.5347166999999997] [-265.86083333333335:618.10281666666674] [0.0014749262536873154:2] [0.01:2.04] [0:321.37] [0:5152] [0:3] [2.6000000000000001:889.08880888088811] [-1508.22:321.37] [-2397.9706058788238:889.08880888088811] [0:21105.571428571428] [0:666.07142857142856] [0:218.12642857142859] [-4.7142857142857144:93.928571428571431] [0:603.9675857000002] [0:10.947142899999999] [-369.55741428571434:72.738978571428575] [0.00090415913200723324:2] [0.01:1.3411111111111111] [0:255.97999999999999] [0:19199] [0:3.3334000000000001] [1.8700000000000001:1050.1159339120688] [-241.52000000000001:249.09] [-5010.0515021459223:1050.1159339120695] [0:4501.9285714285716] [0:133.57142857142858] [0:37.367142857142859] [-0.5714285714285714:24.428571428571431] [0:163.40110000000001] [0:3.0162143000000001] [-114.87461428571423:8.4109499999999997] [0.0043668122270742356:2] [0.01:1.0116666666666667] [0:44.950000000000003] [0:611.00000000000011] [0:1] [6.7999999999999998:104.478545123516] [-182.00999999999999:44.950000000000003] [-189.94899489949:69.579999999999998] [0.01:169248.29999999999] [0:0] [0:5] [0.99999999999999978:1.0000000000000002] [-2.9103830456733704e-11:3.637978807091713e-12] [0.01:169248.29999999999] [1:327053] [1:25257] [1:263472] [0:1898479.8600000159] [0.00028951939779965256:4] [4.2027401866016636e-05:32.279069767441861] [0:933.90697674418595] none [1:140791] [1:12089] [1:136995] [0:982923.60999999871] [0.0003714710252600297:4] [5.9708621925005973e-05:8.146453089244849] [0:1666.1199999999999] none [0:85497] [1:184569] [0:1] [0:1113] [0:2499] [0:1] [0:37718] [1:79202] [0:1] [0:421] [0:1022] [0:1]
tree_sizes=6666 6833 6849 6835 6817 6832 6830 6860 6811 6880 6912 6844

Tree=0
num_leaves=63
num_cat=0
split_feature=25 6 5 40 15 1 143 160 143 143 38 19 1 136 143 165 5 13 98 42 16 168 25 160 38 136 69 69 143 47 136 1 19 143 30 19 13 80 136 136 143 23 82 19 143 165 23 99 15 50 82 160 143 80 41 93 13 136 48 23 23 143
split_gain=2018.22 3494.21 19508.5 1100.15 917.018 411.054 496.506 940.815 2955.16 3356.23 518.404 1760.28 1254.88 462.244 325.985 273.031 2231.59 265.747 244.984 177.02 206.95 1171.47 5538.82 1586.18 236.817 166.032 378.505 204.172 158.12 184.895 154.077 137.583 1310.1 4437.9 127.533 127.3 134.059 113.893 113.464 392.079 3561.33 9432.71 111.977 165.242 111.951 525.291 581.661 520.228 81.9633 81.9266 80.0799 66.8808 61.8264 58.7282 58.7015 58.5579 57.401 82.0711 94.602 54.1017 51.3531 386.576
threshold=1.8506333333333336 0.020571400000000004 2.6653571500000006 1.5626416666666667 207.86500000000004 164.85714285714286 6.5000000000000009 0.72735317779565578 11.500000000000002 7.5000000000000009 0.079077644606565925 0.78571428571428581 44.857142857142868 335.18000000000006 119.50000000000001 28.500000000000004 3.7105357500000005 139.97000000000003 0.0084083027095404848 0.016663333333333353 1.7857142857142858 1.0000000180025095e-35 10.962500000000002 0.0444704657819412 0.27922077922077926 140.05500000000004 0.6164721663313214 0.23006944444444449 4.5000000000000009 0.25000000000000006 146.55500000000004 0.10714285714285715 1.0000000180025095e-35 112.50000000000001 -271.55108944357767 0.78571428571428581 24.990198079231501 8.2396429000000015 74.995000000000019 77.415000000000006 1.5000000000000002 0.23669467787114848 6.2773214285714305 17.928571428571431 2.5000000000000004 29.500000000000004 0.013107595389791683 0.38000000000000012 40.991999699970009 7.1310714500000003 2.5710714285714293 0.24988888888888888 92.500000000000014 7.1417857500000004 9.7184244574644207 0.16375000000000003 188.47000000000003 140.05500000000004 0.058928571428571434 0.030850600968075275 0.94444444444444453 4.5000000000000009
decision_type=10 8 8 10 10 8 10 8 10 10 10 10 8 10 10 10 8 10 8 10 10 10 10 8 10 10 10 8 10 8 10 10 8 10 8 10 8 8 10 10 8 10 10 10 10 10 8 10 8 10 10 10 8 10 10 8 8 8 8 10 10 10
left_child=3 2 -2 5 15 6 38 10 9 -9 25 12 13 18 19 16 28 -16 -12 20 21 24 -23 -24 35 31 27 52 -5 -30 -29 32 -8 -34 -33 -3 -37 -17 53 40 41 -40 54 48 -41 46 -46 -48 -44 56 -36 -21 -27 60 -7 -53 57 -22 -59 -55 -1 -62
right_child=1 14 -4 4 -6 42 7 8 -10 -11 11 -13 -14 -15 17 37 -18 -19 -20 51 49 22 23 -25 -26 26 -28 30 29 -31 -32 34 33 -35 50 36 -38 -39 39 44 -42 -43 43 -45 45 -47 47 -49 -50 -51 -52 55 -54 59 -56 -57 -58 58 -60 -61 61 -63
leaf_value=0.39241387175361375 0.3884466158062963 0.40124930027258265 3.0976243500257854 0.39142518731216236 0.48134418008102159 0.3908133290515366 0.41083861518859993 2.2447133153169001 0.42902335785948392 0.38844661571668171 0.57289106740713636 0.77169312619687525 0.87774298044362475 0.7112999713236362 0.43050717008004752 0.39133940605403389 1.4042751750589701 0.48092649684997624 0.41145903376212484 0.45819682758395369 0.39494011324796829 4.7244467955438738 2.0084465698211034 0.38844661571668171 0.7516132886592205 0.42577728139933779 0.56513461742226745 0.55510217390849803 0.65195249109666631 0.42917994806813159 0.3982696476331728 0.5217132803507023 4.4588466029493423 0.38844661571668171 0.39910393496233415 0.49701804489375218 0.98824662992344825 0.41137174934664594 0.38844661571668171 0.39543667361957247 0.3884466157964353 3.934846405181156 0.40254131855136988 0.39101689334666023 0.72039863062564269 0.39147439336360551 0.42655461509457909 0.66823947116349991 0.42687894388609188 0.42082482473790761 0.44389440465152524 0.44732773557938771 0.48702106633269004 0.55509662085463984 0.43828771031321034 0.41295252214587141 0.38844661580372458 0.45405542064896903 0.40983506772798772 0.38844661596853403 0.4000513626864266 0.64103609142920204
leaf_weight=3793.4286710321903 6.1428572237491599 21.285715162754069 1.285714343190193 12.000000357627874 78.285712778568268 10423.428558811545 7.1428574472665778 0.85714289546012767 6.1428572684526443 0.71428574621677399 3.8571429252624512 6.1428572088479987 2.4285714924335471 2.1428572088479987 198.14286448061466 134.85714463889599 0.999999999999999 53.000001102685928 149.71428892016411 37.71428607404232 133.57143040001392 0.14285714924335424 0.28571429848670926 1.5714286416769028 0.85714289546012778 10.714285850524901 7.1428571492433539 2.5714286714792243 2.4285715073347092 3.8571429252624503 98.000001415610313 3.4285714626312256 0.14285714924335469 0.42857144773006439 1462.2857346683741 1.0000000298023222 0.2857142984867086 717.71426977217197 1.0000000447034834 519.28572994470596 10.571428924798962 0.4285714477300645 124.85714149475098 325.28572082519531 3.5714286714792243 102.85714422166348 32.571429669857025 4.0000000596046439 99.428570196032524 121.14285349845886 16.142857372760773 32.142857313156128 17.142856597900394 1.7142857313156119 10.428571701049803 51.71428556740284 94.714286401867867 22.714285731315613 130.71428388357162 1.4285714626312256 140.00000591576099 2.7142858207225791
leaf_count=193540 277 3616 21 353 23 45852 1679 16 61 29 5 27 5 17 101 122 118 16 1593 18 589 76 12 166 37 39 7 26 22 40 841 3 91 17 17898 80 57 262 34 32668 598 46 9 2 15 712 1241 6 39 8 70 8 12 62 5 46 73 34 324 6 55685 493
internal_value=0.396374 0.425358 0.857343 0.394818 0.415774 0.393673 0.397697 0.406615 0.62701 1.40096 0.405665 0.439523 0.42662 0.419584 0.421796 0.409886 0.484301 0.441147 0.415514 0.414317 0.40931 0.464976 0.929589 0.637677 0.425314 0.402243 0.423432 0.415551 0.43399 0.515251 0.40228 0.400314 0.484558 1.40605 0.399876 0.412923 0.60618 0.408203 0.394224 0.401805 0.515104 1.45237 0.391324 0.400123 0.399752 0.415421 0.47678 0.452989 0.41333 0.406495 0.399593 0.436077 0.463466 0.392926 0.390861 0.426129 0.401947 0.406403 0.416382 0.479347 0.392857 0.404635
internal_weight=0 908.429 7.42857 18344.3 950.143 17394.1 6410.71 1797.14 7.71429 1.57143 1789.43 164.286 158.143 155.714 901 871.857 19.2857 251.143 153.571 649.857 528.286 25.4286 2 1.85714 23.4286 1625.14 135.571 128.429 18.2857 6.28571 100.571 1489.57 7.71429 0.571429 1481.86 22.5714 1.28571 852.571 4613.57 674.286 12 1.42857 10983.4 549.571 662.286 143 40.1429 36.5714 224.286 502.857 1478.43 121.571 27.8571 3939.29 10433.9 83.8571 381.714 287 153.429 3.14286 3936.14 142.714
internal_count=359948 5559 298 354389 940 353449 307542 22436 106 45 22330 1647 1620 1615 5261 917 533 117 1598 5144 5072 4044 254 178 3790 20683 925 918 415 62 867 19758 1787 108 17971 3753 137 384 285106 35320 678 80 45907 50 34642 1974 1262 1247 48 1028 17968 72 51 249786 45857 54 1020 947 358 68 249718 56178
is_linear=0
shrinkage=1


Tree=1
num_leaves=63
num_cat=0
split_feature=70 146 15 16 39 146 113 51 50 57 159 15 146 15 8 8 16 20 146 15 39 20 154 154 19 19 1 159 146 159 159 146 39 169 23 2 64 71 15 61 154 23 9 9 9 8 8 146 99 169 20 119 113 15 107 57 2 20 19 61 91 2
split_gain=1204.96 859.601 1964.24 6751.89 18378.5 1033.83 856.924 631.445 1059.87 539.876 506.903 486.792 483.048 596.973 1470.93 1567.61 217.437 239.137 207.739 293.63 205.752 188.781 187.737 187.469 4407.48 7306.11 157.554 998.749 4547.18 266.392 2381.23 1365.72 129.341 205.339 144.198 132.024 317.534 129.132 126.339 115.633 670.676 1361.54 107.025 127.11 101.696 94.4056 1968.08 3294.82 599.597 334.579 90.1838 83.8888 72.5093 52.777 52.6753 51.4266 49.4387 48.8407 69.9058 92.2875 47.0143 44.387
threshold=1.53678172839699 0.037048921213849825 145.9086676000467 48.928571428571431 0.16027777777777782 0.038136532752076367 0.009061730922108031 0.046132150000000011 1.4426785500000003 0.083327884615384609 9358.0000000000018 17.635622954396684 0.10296389410553101 19.350000000000005 0.16580756013745707 0.46862745098039221 278.50000000000006 120.24221450000002 0.014569002790770802 273.49500000000006 0.78166666666666684 16.9264285 0.083385222083852226 0.010996568768233144 0.6428571428571429 0.92857142857142871 0.10714285714285715 256.50000000000006 0.081223290598290615 32.500000000000007 35.500000000000007 0.047420815603543567 0.42125000000000007 0.25158227848101272 0.015570263161084648 0.75000000000000011 -1.0000000180025095e-35 69.299925146198845 33.494137543122854 0.53571428571428581 0.12531407035175882 0.040817852260521433 0.33052631578947378 0.60083333333333344 0.14506097560975614 0.048577400215749737 0.048787026744262087 0.076101221043021819 0.7535448916408668 0.4701754385964913 12.181428500000001 3.9926250000000003 0.47222222222222227 24.985000000000003 4.0714285714285721 0.19375000000000003 4.5357142857142865 12.181428500000001 7.2142857142857153 171.10714285714289 114.25000000000001 0.10714285714285715
decision_type=10 10 10 10 8 10 8 10 8 8 10 10 10 10 10 10 10 10 10 10 8 10 8 8 8 8 8 8 8 8 10 8 10 8 10 8 8 10 10 8 10 10 8 10 10 10 10 10 10 10 10 10 10 10 10 10 8 10 10 10 8 8
left_child=1 10 11 4 -4 -6 -2 8 20 -10 16 26 21 14 -14 -16 17 18 19 -1 -8 60 -15 24 42 -26 27 29 -29 52 31 -31 35 34 -34 36 -25 50 53 40 -28 -42 56 -44 -11 51 47 -47 49 -48 -9 54 -3 -24 55 -41 -20 -18 59 -59 -13 -32
right_child=6 2 3 -5 5 -7 7 37 9 44 -12 12 13 22 15 -17 57 -19 23 -21 -22 -23 38 32 25 -27 39 28 -30 30 61 -33 33 -35 -36 -37 -38 -39 -40 45 41 -43 43 -45 -46 46 48 -49 -50 -51 -52 -53 -54 -55 -56 -57 -58 58 -60 -61 -62 -63
leaf_value=-0.0041457967859076482 0.10574154457075245 -0.0039170163914030555 2.8741199890114841 0.038112559287888301 0.55657254735853168 -0.0080864134820012555 0.0055340251303710461 0.0026519712875475942 0.32140869324123716 0.19096887071509627 0.031868922095419416 -0.0059268111485291678 -0.0079303484050492132 0.22957967547759164 2.2965430305953389 0.3840150571558093 -0.0063283895026312077 0.10157833837367571 -0.0079483972791464918 0.15147292971901341 0.075932900694706207 0.058166951628603629 -0.0095146568429623473 0.3209768482553676 2.04451612869578 0.012089130635183279 0.0034654111068616049 -0.0081539274459811548 3.9812231191445986 -0.0082167723081958185 0.0028076920473677556 2.3867792206952325 0.093562231906758261 0.0020236423389794552 0.024870876155516735 -0.0038111729410732517 0.0064578283121396012 -0.0057793571019287369 0.012087644672018189 -0.0014264855782271646 0.86381792975285965 0.062387806770195946 0.1966530769330688 -0.0079722633518377762 0.0097079524055650856 1.574584839673024 0.0018124760696321617 0.0061041595367717916 0.46431990334079104 0.048348885268905448 0.016794840982834288 0.081718452715786788 0.31689897294049085 0.089947707974404822 0.012223135087320525 0.083499200819828479 0.056622621438537982 0.010921716411654426 -0.0059894605841542686 -0.0040831610615561214 0.01626057667031082 0.19168322853669964
leaf_weight=3275.5715167373419 42.999998569488525 20.571429461240779 1.2857142984867096 39.571428492665291 2.1428571939468375 3.2857143580913544 38.857143402099609 226.71428623795509 8.8571429252624494 1.8571428358554829 160.71429240703583 49.285714387893677 1.1428571641445149 2.857142835855484 0.28571429848670948 0.42857144773006439 7795.1428526937962 9.1428575515747053 61.000000715255737 4.8571429848670951 29.000000566244125 40.714285835623741 2.2857143878936759 1.2857143282890318 1.1428571939468375 1.85714291036129 26.714286491274837 0.57142859697341919 0.1428571492433538 0.1428571492433548 3.8571429848670959 0.2857142984867086 21.285714268684387 76.714286297559738 28.714286237955093 897.57143311202526 949.71431019902229 151.57142743468285 14.000000298023222 1626.2857250720263 1.1428571939468373 3.2857143878936768 2.4285713881254187 2.428571417927742 3.7142857164144516 0.85714289546012823 707.2857351154089 1.4285714924335478 1.1428571939468373 67.714287266135216 881.85712046921253 5.0000001043081275 0.2857142984867086 32.142857849597931 124.42857345938683 2.8571429401636115 5.1428570747375479 290.57142871618271 951.85713624954224 376.28571534156799 169.85714437067509 0.57142859697341908
leaf_count=262491 4 7131 13 10 2 124 89 345 11 76 59 81 14 21 30 40 595 5 574 36 81 35 240 24 3 166 504 237 36 17 958 49 20 121 29 5228 24580 105 391 11972 98 33 52 7 16 29 40463 21 14 1422 24 49 23 199 33 40 2 31 9 12 794 30
internal_value=0 -0.00150621 0.00835075 0.137614 0.724036 0.214805 0.0178554 0.0150403 0.0687187 0.22438 -0.00345855 0.00629301 0.0298542 0.0847954 0.437053 1.14903 -0.0038434 -0.000619213 -0.000794528 -0.00391538 0.0356203 0.0186183 0.0720395 0.00420123 0.0354543 0.786347 0.00345067 0.0520337 0.789721 0.0315424 0.164938 1.58845 0.0030304 0.0225778 0.0541138 0.00169048 0.00688305 0.0115351 0.0627451 0.00295071 0.0412546 0.269208 0.0037264 0.0943404 0.0701283 0.00248051 0.00827933 0.594284 0.00655356 0.00587851 0.0139025 -8.63226e-05 0.000477723 0.0833444 -0.000319575 -0.00127755 -0.00292776 -0.00567193 -0.00251064 0.00245495 0.0112706 0.0271787
internal_weight=0 17867.3 2953.86 46.2857 6.71429 5.42857 1385.43 1342.43 82.2857 14.4286 14913.4 2907.57 313 53.1429 1.85714 0.714286 14752.7 5338.86 5329.71 3280.43 67.8571 259.857 51.2857 2049.29 74 3 2594.57 26.4286 0.714286 25.7143 4.85714 0.428571 1975.29 126.714 50 1848.57 951 1260.14 48.4286 2568.14 31.1429 4.42857 71 4.85714 5.57143 2537 778.429 2.28571 776.143 775 1108.57 1758.57 20.8571 34.4286 1753.57 1629.14 66.1429 9413.86 1618.71 666.857 219.143 4.42857
internal_count=359948 359197 65153 149 139 126 751 747 273 103 294044 65004 1845 935 84 70 293985 293338 293333 262527 170 910 851 30806 804 169 63159 8481 273 8208 1054 66 30002 170 49 29832 24604 474 830 54678 635 131 635 59 92 54043 41949 50 41899 41885 369 12094 7154 439 12045 12012 576 647 52 43 875 988
is_linear=0
shrinkage=0.02


Tree=2
num_leaves=63
num_cat=0
split_feature=148 11 38 0 31 31 148 146 70 16 98 19 148 146 98 146 141 23 144 0 23 16 143 38 16 19 3 148 156 11 16 5 31 156 156 148 31 144 98 140 156 61 146 114 0 159 89 143 48 141 144 145 148 3 140 146 3 141 3 41 58 146
split_gain=2709.17 1057.37 2885.6 14823.7 24344.4 798.98 639.479 2764.67 624.85 467.331 542.522 509.636 5178.46 337.363 286.694 365.968 292.332 397.643 1031.22 1092.47 1289.97 497.715 274.447 232.464 186.807 899.836 4367.19 272.965 2249.42 184.227 356.526 1284.6 183.074 179.012 164.987 366.282 558.507 1504.87 164.468 147.872 201.731 157.203 495.43 146.101 140.382 137.14 135.163 130.499 126.211 6727.56 124.822 123.975 118.234 130.436 275.317 9431.25 19579.9 138.591 4683.73 117.575 113.078 112.92
threshold=0.93594873076709473 1.7210601476802598 0.23904761904761909 1.0000000180025095e-35 0.25000000000000006 2802.428571428572 4.3723328580481633 0.038893390959841533 2.1184687500000003 210.50000000000003 0.0058832969116904615 0.78571428571428581 1.1040566006436416 0.11113621529346791 0.0084083027095404848 0.042958289342953503 140.05500000000004 0.091206179441473578 2.5000000000000004 1.0000000180025095e-35 0.19836065573770498 134.14285714285717 209.50000000000003 0.34408602150537643 0.2142857142857143 1.0000000180025095e-35 0.0067857142857142864 1.1654982884039369 2.5790333285755076 147.65476190476193 0.50000000000000011 11.441189300000001 5.8214285714285738 0.33194909740751727 2.3071153846153849 2.1712045454545459 0.67857142857142871 4.5000000000000009 0.016990666174781278 -1.0658141036401501e-14 0.9354502688172045 3.4642857142857149 0.11776085208393391 0.33900000000000002 1.0000000180025095e-35 288.50000000000006 23.16083333333334 19.500000000000004 0.015357142857142859 394.99500000000006 110.50000000000001 259.98500000000007 0.75707617986333942 0.020357142857142862 1.0658141036401504e-14 0.047420815603543567 0.018214285714285714 259.99500000000006 0.019642857142857146 2.3535333553390365 205.07295342500305 0.066705024932873044
decision_type=10 10 10 2 8 10 10 10 10 8 8 10 8 10 8 10 10 10 10 2 10 10 10 10 10 8 8 10 10 10 10 10 8 8 10 8 8 8 8 8 10 8 10 10 2 8 10 10 8 10 10 8 10 8 10 10 10 10 8 10 10 8
left_child=8 9 5 23 -5 6 13 -8 44 11 -11 14 -13 29 15 -2 24 21 -19 20 -20 38 32 -4 25 27 -27 28 -16 47 31 -31 -9 -10 35 -15 -37 -38 -18 40 51 42 -41 -29 48 -32 -43 -3 49 50 -1 -26 53 54 57 -56 -57 -50 -59 -14 -35 -42
right_child=1 2 3 4 -6 -7 7 22 33 10 -12 12 59 34 16 -17 17 18 19 -21 -22 -23 -24 -25 39 26 -28 43 -30 30 45 -33 -34 60 -36 36 37 -39 -40 41 61 46 -44 -45 -46 -47 -48 -49 52 -51 -52 -53 -54 -55 55 56 -58 58 -60 -61 -62 -63
leaf_value=0.0026403345892732533 -0.0087987866600580458 0.0055053499696609285 0.35093717537356128 -0.0099351391208332019 6.2958118473375393 0.12799014498246944 0.36628033476057759 0.11658197166341241 0.046311847343350115 0.14901776018077847 -0.0022190331433438537 1.0138732895545612 -8.6243710188655328e-05 0.076417361525860081 -0.0083225421074220908 0.40446282158054098 0.12989933582135285 -0.0081555623047084164 0.73516016134976725 -0.0083469197688484775 0.13341442168314266 0.092697426687751522 0.1247926267061903 -0.0071230905472744622 0.31915115391167059 3.9015986033559473 -0.0080257066849303092 -0.0083296243583230144 1.5567216495648251 -0.0080946524249917284 -0.0084034223314339417 1.5786677036284882 0.0096809990138537316 0.012784643203180329 0.0087727739369687762 0.10727706713274314 0.021625838728584069 1.5894098715747946 -0.0011252061637258399 0.021907552831298142 -0.00014249133700426568 0.0053260373811636931 0.22575327637710291 0.63546104451442265 -0.0055497742662866875 0.097407553852850937 0.15932949399456064 0.022678740381672918 0.0032839235067291905 1.9571102959315345 0.29956487291371686 0.097009605526789278 0.014220834364989717 -0.0043085750275262853 -0.0078289001352032702 -0.0079125933909746475 9.0604665139108338 -0.0079120521981281226 2.6015742474090566 0.11190806240014617 -0.0077170880472893916 0.13848035743374909
leaf_weight=63.285715982317924 1.714285746216774 246.42857222259045 0.85714289546012778 0.571428582072258 0.42857144773006417 32.285713195800781 11.571428775787352 7.1428572833538055 57.571428999304771 9.5714285373687744 1085.0000056773424 2.2857143729925156 20.857143029570587 33.000000715255737 2.5714286863803859 1.714285746216774 4.0000000447034836 10.714286148548128 3.0000001192092878 3.2857144176959991 2.7142857909202576 34.857142478227615 11.857143193483351 4.7142857611179352 1.7142857760190962 0.1428571492433538 0.57142859697341919 10.857143297791477 0.42857144773006428 0.71428574621677643 7.7142859399318722 0.28571429848670959 62.285714387893677 773.57141000032425 11.714285790920256 1.8571428656578064 0.57142859697341919 0.4285714477300635 91.285716220736504 103.2857162207365 10.857143104076384 850.85715888440609 5.0000001043081275 0.14285714924335557 11827.428627803922 13.428571805357931 2.2857143133878699 628.14286188781261 478.85716240108013 0.71428574621677299 0.571428582072257 2.4285714626312283 182.99999979138374 2377.5714689940214 11.285714522004124 0.28571429848671037 0.1428571492433548 7.4285717457532874 0.28571429848670948 4.5714286565780631 124.99999895691872 3.0000000596046439
leaf_count=2285 25 528 36 35 19 2 39 52 38 12 5322 28 199 224 472 17 28 757 55 179 118 13 21 90 52 113 54 2692 12 202 250 11 1045 304 485 3 47 12 694 367 112 21332 34 25 189006 50 6 243 74095 21 11 17 2522 53037 1114 86 7 1160 62 10 11 50
internal_value=0 0.0162481 0.0325778 0.450397 2.69253 0.0300104 0.0269604 0.0770408 -0.00355143 0.00850674 -0.00089655 0.0172653 0.102013 0.0220357 0.0152184 0.197832 0.0146711 0.0407111 0.124417 0.282242 0.449331 0.0280311 0.0358661 0.0479631 0.0107458 0.0814783 0.773899 0.0461507 0.215255 0.0192822 0.0762541 0.445266 0.020679 0.0121231 0.0739373 0.0952261 0.312467 0.693533 0.00437507 0.00968318 0.0664781 0.00861986 0.03132 3.12935e-05 -0.00455386 0.0588008 0.00573864 0.0178398 -0.000782641 0.0268882 0.00529738 0.18893 -0.00136676 -0.00235865 0.00694541 0.102758 3.01488 0.00463871 0.0887356 0.0200476 0.00993265 0.0298686
internal_weight=0 3345.71 1076 6.57143 1 1069.43 1037.14 92.8571 15907 2269.71 1094.57 1175.14 27.7143 944.286 1147.43 3.42857 1144 149.857 19.7143 9 5.71429 130.143 81.2857 5.57143 994.143 14.7143 0.714286 14 3 896.714 22.1429 1 69.4286 956.143 47.5714 35.8571 2.85714 1 95.2857 979.429 18 961.429 108.286 11 14950.9 21.1429 853.143 874.571 3123.43 64.5714 63.8571 4.14286 3058.86 2875.86 498.286 11.7143 0.428571 486.571 7.71429 25.4286 898.571 13.8571
internal_count=359948 36189 3394 180 54 3214 3212 1157 323759 32795 5334 27461 237 2055 27224 42 27182 1844 1109 352 173 735 1118 126 25338 3368 167 3201 484 1284 513 213 1097 353 771 286 62 59 722 21970 231 21739 401 2717 323406 300 21338 771 134400 2317 2296 69 132083 129561 76524 1207 93 75317 1222 209 315 162
is_linear=0
shrinkage=0.02


Tree=3
num_leaves=63
num_cat=0
split_feature=13 12 155 61 12 165 154 151 74 147 153 165 19 98 155 18 74 23 147 77 155 23 32 4 98 23 23 151 22 23 18 23 13 165 60 154 23 142 18 142 23 32 142 82 74 22 32 154 18 18 162 23 147 108 84 107 107 64 84 54 153 154
split_gain=1370.16 1710.86 4261.6 1276.81 919.095 785.125 551.114 743.306 447.278 300.766 258.501 551.213 4044.97 965.857 569.358 499.227 297.642 380.534 255.985 283.444 459.92 324.924 369.521 255.963 202.959 200.052 1050.7 586.168 2915.8 2470.94 2626.91 175.832 171.819 161.146 148.753 147.269 1544.06 3891.79 8462.46 184.016 147.153 296.228 1026.09 275.421 120.866 120.22 113.853 1264.16 6544.9 113.523 232.862 604.671 792.6 112.174 110.357 110.335 98.2762 90.3707 170.327 75.8901 63.8474 59.4685
threshold=87.415000000000006 0.045715778474399206 0.010322597831588483 0.67857142857142871 0.0032473810728745004 2079.0000000000005 0.062027407957640515 1652.5000000000002 2.1780555555555559 0.02175227380263919 178.52000000000001 59.500000000000007 0.78571428571428581 0.010772440526894069 0.0082587788602544159 0.1435714285714286 19.997508333333336 0.036410984848484852 0.11782335814956228 0.3928571428571429 0.17247155316813959 0.03288171791834215 0.32142857142857145 0.53571428571428581 0.0058832969116904615 0.15419580419580423 0.15894736842105264 8.5000000000000018 0.89785714285714302 0.51666666666666672 0.053571428571428582 0.0087234618517500074 145.90866760004653 163.50000000000003 86.495000000000019 0.062543853494246446 0.19836065573770498 21.500000000000004 0.036428571428571428 136.50000000000003 0.047654531261088644 0.17857142857142858 366.50000000000006 2.9162500000000002 2.8344336917562725 3.4278571428571429 0.10714285714285715 0.066706396503774357 0.11785714285714287 0.64785714285714302 11.500000000000002 0.12414383561643837 0.010427540013917885 0.0039285714285714297 0.99625000000000019 3.3928571428571428 4.3214285714285721 -1.0000000180025095e-35 0.23014705882352945 0.050555555555555569 96.900000000000006 0.076101221043021819
decision_type=10 10 8 8 10 8 10 10 10 8 10 10 10 8 10 10 10 10 10 8 10 10 8 8 8 10 10 8 8 8 10 8 10 10 8 10 10 10 10 8 8 8 10 10 10 10 8 10 10 8 10 10 10 8 10 10 10 8 8 8 10 10
left_child=6 4 -3 -4 -2 9 7 10 33 32 16 12 13 -12 15 -15 49 -18 35 20 21 22 -20 24 -13 -21 -27 -28 29 -29 -31 -16 -5 -6 -35 36 -8 38 -38 -39 55 42 -42 -43 46 -33 47 48 -37 50 57 60 -53 -48 -11 -26 -57 58 -1 -49 -52 -46
right_child=1 2 3 5 8 -7 18 -9 -10 54 11 23 -14 14 31 -17 17 -19 19 25 -22 -23 -24 -25 40 26 27 28 -30 30 -32 45 -34 34 -36 44 37 39 -40 -41 41 43 -44 -45 61 -47 53 59 -50 -51 51 52 -54 -55 -56 56 -58 -59 -60 -61 -62 -63
leaf_value=0.22541739116421203 -0.0037058632293574512 0.8080417750866481 0.42849256879747671 0.052445020650691093 -0.0020105941709398301 0.36528412831993329 0.0071148873478350362 0.54202057620791 0.044495947129246538 0.00073246361143256325 0.60355943160936498 0.071475868999830119 0.78538017552533146 -0.0080585956642171205 0.12920698565441613 0.24540523876458559 0.43022794079237109 0.014123189459507563 0.40454976422538586 0.0073921452396217488 0.0070827761792644581 0.087867751835627603 0.1138658123174604 -0.0043389140972315545 0.0015347461624369908 0.9125956127377326 0.0060728688297715036 0.0021502346703097686 1.5808660849541663 3.8235666473105323 -0.011883986210048731 -0.0012379768997644329 0.14848450579510164 0.012145330663000662 0.027709806705962299 -0.008248556471183853 -0.0079049283954284733 -0.0079550905465523378 4.435711790291422 0.45180846719137274 0.38894289147834071 0.0073190257058964956 0.035474854954297766 0.17214456474136625 0.082472328189966609 0.21903447945261839 0.067264484223430551 0.10131014411528616 2.3580822437741311 -0.0065711895214404905 -0.0077821089791544496 0.93588760298992979 0.086613684420048326 0.0017343353567328616 0.14798763745586516 0.070261722297059501 0.01003758164438872 -0.00284686572471289 -0.0086787587690423922 -0.0034704638656533238 0.079124076092370349 0.025378050312117182
leaf_weight=2.0000000447034836 1060.9999989718199 3.2857143878936768 3.8571429699659348 19.285714626312256 177.14285770058632 3.1428571939468375 33.142857789993286 1.0000000447034825 261.14285376667976 40.714285969734192 1.1428571492433548 18.714285835623741 2.8571429550647727 5.1428571939468366 4.4285715818405142 7.8571428954601288 1.4285714626312249 2.2857143729925156 3.4285714626312256 117.85714477300644 18.000000104308128 13.285714492201803 3.571428611874583 2472.714268669486 1266.857150182128 0.57142859697341819 27.142858266830444 6.0000001639127722 0.57142859697341908 0.14285714924335469 0.1428571492433548 111.28571689128876 12.142857611179354 585.71426820755005 423.00000378489494 2.5714286863803859 0.42857144773006384 1.8571429401636126 0.28571429848670959 0.42857143282890309 3.7142858505249015 191.57143349945545 28.428572401404381 4.1428572833538047 10.000000074505804 1.0000000447034825 10.571428388357161 3.0000000596046448 0.57142859697341908 6662.4285794347525 8.0000002682208997 0.71428574621677299 1.1428571939468382 901.57144631445408 2.1428570747375479 17.571428060531616 28.285714313387871 4588.8572615534067 3.2857143729925156 35.28571529686451 5.8571430295705786 27.000000059604645
leaf_count=7 43 33 7 39 57 18 513 10 16 449 5 28 15 85 11 7 51 17 9 2564 83 22 34 2134 2380 5 4394 480 28 111 9 2404 53 5 44 103 40 296 10 35 48 5500 648 75 15 38 126 41 4 45134 86 39 20 28268 1 8 47 261633 50 1424 29 60
internal_value=0 0.0134167 0.101892 0.0733486 0.0104333 0.055657 -0.0022132 -0.00323454 0.0208007 0.0425574 -0.00326985 0.000987565 0.0409375 0.0246833 0.0195831 0.145134 -0.00484268 0.174163 0.0107422 0.0320211 0.0806715 0.145969 0.256242 -0.000337307 0.00600844 0.0198015 0.0621061 0.0478122 0.21303 0.0886816 1.90584 0.00559887 0.0895512 0.0155826 0.0186722 0.00678962 0.0464442 0.480939 1.76954 0.0782506 0.00521317 0.0200495 0.0763201 0.010808 0.00534275 0.000723737 0.00396661 0.0363937 0.421993 -0.00490166 -0.00248877 0.0743694 0.413257 0.00249381 0.00809522 0.00263791 0.0331141 -0.00275166 0.0798982 0.00473996 0.0289514 0.0408089
internal_weight=0 2592.57 84.5714 81.2857 2508 77.4286 16660.1 15442.7 1447 74.2857 15441.7 4165.71 133.714 130.857 129.714 13 11276 3.71429 1217.43 190.714 38.2857 20.2857 7 4032 1559.29 152.429 34.5714 34 6.85714 6.28571 0.285714 116.714 31.4286 1185.86 1008.71 1026.71 36.1429 3 0.714286 2.28571 1540.57 227.857 32.1429 195.714 990.571 112.286 953.571 41.4286 3.14286 11272.3 4609.86 15.7143 1.85714 912.143 42.8571 1312.71 45.8571 4594.14 5.28571 38.2857 13.8571 37
internal_count=359948 765 600 567 165 560 359183 320509 122 542 320499 13433 2565 2550 2545 92 307066 68 38674 7739 148 65 43 10868 8734 7591 5027 5022 628 600 120 2453 92 106 49 30935 894 381 50 331 8706 6271 696 5575 30041 2442 29966 1572 107 306998 261864 174 59 28394 450 2435 55 261690 57 1465 115 75
is_linear=0
shrinkage=0.02


Tree=4
num_leaves=63
num_cat=0
split_feature=44 29 6 52 7 16 6 3 74 16 5 3 144 16 163 7 144 12 144 15 15 16 140 152 29 98 3 16 140 144 169 21 17 63 163 78 106 38 22 64 98 33 7 38 83 152 15 45 17 33 33 16 3 52 52 140 16 3 83 12 101 6
split_gain=1293.28 958.02 10676 13726.2 37743.3 62907.1 866.697 751.806 518.074 354.109 757.331 573.944 343.706 336.248 328.582 763.677 323.069 252.474 353.827 798.055 252.429 238.835 2218.21 224.632 221.528 184.568 165.151 508.868 188.917 155.909 149.095 140.015 139.547 139.309 131.515 129.911 123.181 124.993 1819.52 133.855 109.159 112.896 97.8774 135.54 93.0946 64.6657 55.432 102.669 53.1126 51.7385 1327 1669.13 51.6356 179.42 450.716 47.1662 145.323 892.675 46.6285 40.8732 37.4208 35.3972
threshold=1.5370117647058825 12.437500000000002 0.018778550000000001 -1.0000000180025095e-35 -1.0000000180025095e-35 11.357142857142858 0.021703600000000003 15.95857142857143 0.91753080630354977 0.35714285714285715 9.8285714000000031 0.021071428571428578 499.50000000000006 210.50000000000003 0.66260162601626027 13.819285714285718 302.00000000000006 0.033341666666666651 3.5000000000000004 68.785454545454556 139.90500000000003 0.2142857142857143 -1.3322676295501877e-15 177.50000000000003 -0.33210937499999998 0.0080863826364168685 0.21892857142857144 134.14285714285717 5.3290705182007522e-15 13.500000000000002 1.0000000180025095e-35 0.13523600000000005 7.6428571428571432 2.2489285714285718 0.82575757575757591 0.17464285714285718 352.21428571428578 0.081799933087989288 -3.9185714285714277 -1.0000000180025095e-35 0.019104967550556389 0.0089285714285714298 1.7530000000000003 0.015630552594171999 0.029833630015062309 16.500000000000004 28.035000000000004 25.033295185539803 10.928571428571431 0.024285714285714289 0.023214285714285719 9.5000000000000018 0.42392857142857149 0.69830357142857158 0.52309642857142868 1.0658141036401504e-14 0.6428571428571429 0.018214285714285714 0.02112352720547343 0.0072735928903935512 26.436470588235299 0.1589286
decision_type=10 10 10 10 10 10 10 10 10 10 8 10 10 8 10 8 8 10 8 8 10 8 8 10 8 8 10 8 10 10 8 10 10 10 10 8 10 10 10 8 8 8 10 10 10 8 10 10 10 8 10 10 10 10 10 10 10 8 10 10 10 10
left_child=1 8 3 4 -3 -6 -4 14 12 10 29 -12 13 16 17 -16 23 31 19 -19 21 22 -14 36 -23 -10 27 28 30 -8 35 52 34 61 40 -27 37 39 -39 -1 -11 -42 59 -44 45 46 47 -20 -47 50 -18 -52 53 54 -2 -51 57 -57 -38 -15 -32 -28
right_child=7 2 6 -5 5 -7 9 -9 25 32 11 -13 20 42 15 -17 49 18 44 -21 -22 24 -24 -25 -26 26 33 -29 -30 -31 60 -33 -34 -35 -36 -37 58 38 -40 -41 41 -43 43 -45 -46 48 -48 -49 -50 55 51 -53 -54 -55 -56 56 -58 -59 -60 -61 -62 -63
leaf_value=0.14423664722590121 0.68019633409620395 -0.0079079037119159541 0.58228479643383035 -0.0080957951916909437 18.76108863885306 -0.008030934868860121 0.038694529030086161 0.12454041622939713 0.053399827384446916 0.14502789004732411 1.5441247249785885 -0.0084750079300250445 1.8677589430916717 -0.0058119708204447465 0.00061816587149063904 0.19490452464444519 -0.0059545360985709585 -0.010412407515512621 0.018766662978144791 0.2800232199521101 0.17439971446990968 0.03070246368831776 -0.0082883292456718098 0.28604437238955066 0.00018170956854780725 0.350289338218152 -0.0050057522708682311 0.42162339158956075 0.1970676963031581 0.54054382291985181 0.0052167175578779106 0.029046062749447307 0.09462893062998666 0.013700217676613004 0.10669469066050458 0.046346432224034145 0.019677433243939516 0.35426253160666593 0.010183139084923305 0.0037180557354962139 0.19712796943062663 -0.0033546330213890686 -0.0032861303473877257 0.01300744666699765 -0.0082409030917341315 -0.0041139748282946302 0.040813722758539263 0.12602012325987513 0.035223435535017868 -0.0044052962201600885 -0.0076728314010714284 0.44692013989378587 -0.0054752054693261634 0.011090423223146828 -0.0077365810302609944 -0.0076426233264722341 -0.0018152675991505664 0.34418722292241943 0.064845119443076721 -0.0013202000480383475 0.084921689976665049 0.0086161428675572381
leaf_weight=2.7142857909202576 0.57142859697342174 0.4285714328289032 1.1428571939468373 0.85714288055896759 0.14285714924335369 0.1428571492433548 1.8571429401636121 32.285713195800781 40.571429014205933 2.1428570747375488 0.28571429848670948 0.1428571492433548 0.28571429848670959 8698.9999992102385 18.428571626543999 14.428571701049803 214.71429188549519 7.7142857760190964 5.8571430295705786 7.4285714626312238 3.9999999999999991 168.42857825756073 2.1428572386503215 1.1428571790456761 218.5714303702116 1.0000000447034834 274.28571328520775 1.4285714626312245 2.7142857760190955 0.28571429848670948 28.142857670784 93.000000551342964 9.1428575515747053 734.57140626013279 5.4285713881254187 1.2857143282890322 18.428571298718452 6.2857144474983206 279.57143475115299 2758.000044375658 1.1428571939468382 66.42857252061367 767.28571206331253 278.28571236133575 21.142857298254967 20.714285537600517 55.571429237723351 9.1428569257259351 40.714285850524902 3007.5715186595917 7.0000001788139325 6.0000001788139343 159.71428719162941 29.428571790456772 1.142857179045677 15.000000387430193 83.857145234942436 3.571428731083869 18.142856657505035 893.5714263767004 2.5714285522699347 105.7142858505249
leaf_count=32 48 4 3 4 42 2 963 1 13 5 63 18 11 50948 50 5 5625 158 49 39 2 57 222 19 2763 12 65 177 17 33 256 8 1 11 43 46 64 104 2714 51831 23 1377 57 30 40 134 56 10 3 235044 127 23 32 251 13 2460 2837 776 16 98 5 8
internal_value=0 -0.000967621 0.0642841 1.69825 3.74587 9.37653 0.0351061 0.0310895 -0.00128108 0.0279064 0.259105 1.02659 -0.00215241 -0.00257862 0.0248686 0.0859352 0.0010352 0.0204309 0.039841 0.132065 0.0163292 0.0147056 0.212423 0.00570168 0.0134648 0.0114741 0.00999719 0.0514844 0.0366789 0.105608 0.0234867 0.00892362 0.0208529 0.00861464 0.0118763 0.179321 0.00559776 0.00515977 0.0177491 0.00385621 0.00449291 3.61933e-05 -0.0047602 0.00105051 0.0307218 0.0369626 0.0500228 0.0841402 0.0219585 -0.00327697 0.00592535 0.202139 -0.000881557 0.0226767 0.221574 -0.00395076 0.0093956 0.060017 0.0420848 -0.00539355 0.0118897 -0.0012162
internal_weight=0 18735.4 89.5714 1.57143 0.714286 0.285714 88 517.286 18645.9 86.8571 2.57143 0.428571 17453.6 17060.1 485 32.8571 6422 452.143 168.286 15.1429 393.429 389.429 2.42857 3084.29 387 1192.29 1151.71 37.1429 35.7143 2.14286 33 283.857 84.2857 1114.57 75.1429 2.28571 3083.14 3046.57 285.857 2760.71 69.7143 67.5714 10638.1 1045.57 153.143 132 70.5714 15 61.4286 3337.71 227.714 13 190.857 31.1429 1.71429 3110 102.429 18.5714 36.5714 9592.57 30.7143 380
internal_count=359948 359051 2581 52 48 44 2529 897 356470 2526 1077 81 355860 352805 896 55 301672 841 489 197 3055 3053 233 54780 2820 610 597 513 336 996 319 352 1449 84 1448 58 54761 54681 2818 51863 1405 1400 51133 87 292 252 115 59 137 246892 5775 150 344 312 61 241117 6073 3236 80 51046 261 73
is_linear=0
shrinkage=0.02


Tree=5
num_leaves=63
num_cat=0
split_feature=148 14 6 28 75 85 160 160 0 141 3 3 83 146 168 150 53 141 141 150 148 155 146 69 69 153 32 53 155 146 164 76 141 160 150 146 151 154 18 148 3 0 75 148 3 141 32 141 160 18 7 28 53 32 168 151 75 19 141 148 3 14
split_gain=2465.52 1161.38 3869.31 12627.3 648.842 548.542 488.55 3283.71 385.546 539.316 562.859 965.9 423.849 380.371 365.723 351.766 287.934 428.893 985.273 1186.75 284.135 3212.83 284.134 282.705 546.64 1187.87 290.375 492.522 263.951 608.005 244.157 210.477 185.997 290.894 159.334 370.161 1158.77 160.194 156.08 352.635 702.575 150.466 505.591 142.512 139.119 299.048 7937.84 1119.72 3503.43 277.283 117.289 115.578 113.24 105.65 101.518 840.349 97.7771 96.6107 81.5622 247.54 142.662 81.486
threshold=0.93594873076709473 1.2036458333333335 0.021703600000000003 179.11301609517153 213.99261231530792 1.8294309708737866 0.79321143186235699 0.80076335877862614 1.0000000180025095e-35 140.05500000000004 0.016785714285714293 0.013928571428571429 0.019621463478417214 0.018874211042471691 37.500000000000007 733.50000000000011 0.043576218822997524 156.99500000000003 210.32500000000002 190.50000000000003 1.0058088687284061 0.0079760797130837939 0.10296389410553101 0.2502272727272728 0.23006944444444449 811.24000000000012 0.10714285714285715 0.075265217839118354 0.050891579672513391 0.10517395182872437 482.00000000000006 113.35714285714288 149.99500000000003 0.40002346316283438 16.500000000000004 0.15891053391053392 6.5000000000000009 0.10964145932345541 0.015000000000000003 2.4364745011086479 0.016071428571428577 1.0000000180025095e-35 115.73792910797212 0.75707617986333942 0.087500000000000036 259.99500000000006 0.32142857142857145 278.03000000000003 0.63673020527859248 0.17357142857142863 10.378082142857147 499.94668457448853 0.031259771732332714 0.32142857142857145 4.5000000000000009 4.5000000000000009 30.515000000000004 8.071428571428573 54.955000000000005 0.96713971050975467 0.0039285714285714297 19.992500000000003
decision_type=10 10 10 10 10 10 10 10 2 10 8 10 8 10 10 10 8 10 10 10 10 8 10 8 8 8 8 10 10 8 8 8 10 10 8 8 10 10 8 10 10 2 10 10 8 10 10 10 10 10 10 10 8 10 10 8 10 10 10 10 10 10
left_child=5 6 3 13 16 41 8 -8 9 23 11 15 -12 -3 20 -11 31 22 19 -19 21 -10 30 24 26 -26 27 -2 32 -30 53 -4 33 -14 -24 37 -37 -36 -13 -40 -41 42 43 44 45 49 47 48 -47 54 -7 -46 -28 -18 -1 -56 -45 58 -25 -60 -61 -43
right_child=1 2 4 -5 -6 50 7 -9 14 10 12 38 28 -15 -16 -17 17 18 -20 -21 -22 -23 34 57 25 -27 52 -29 29 -31 -32 -33 -34 -35 35 36 -38 -39 39 40 -42 61 -44 56 51 46 -48 -49 -50 -51 -52 -53 -54 -55 55 -57 -58 -59 59 60 -62 -63
leaf_value=0.0010072120272131778 -0.0080946992621615584 0.30734774169261431 -0.0038461366057143775 2.0843532656896402 0.089684876265491389 0.009845029872298865 2.3078003805368934 -0.008098110865140961 0.53825223742618145 -0.011248097123493925 0.099544555426193407 0.93068135903641236 -0.0096144508076859043 -0.0086386849085501299 0.030173629280248637 0.32805042493268199 0.00072814149151847779 0.85159290931561549 0.066118877041678556 0.074312523628161292 0.0010798144642497759 -0.0024426013716828329 0.0039649260666838179 0.0066807761984064998 -0.0087023481837530357 0.51088373764687767 0.073030683642445401 0.45388579899732229 0.034047306848790225 0.71381467262738862 0.16269316107016737 0.030747981676192568 0.00012030515947291619 0.2518237205193114 0.13330799400753526 0.078485355307987364 0.9338297169185299 0.042032924205686259 -0.0096170468054541519 1.9758204339822794 -0.0077168834485016168 -0.005315570886720653 0.34299823745344926 0.014115350525981491 -0.0051770459814619689 -0.0076012575456930681 2.4019528650364488 -0.0082911216250923792 2.5496878819307054 0.23764706473797559 0.034469197815003606 0.10649868610070469 0.0052729816773013265 0.038905669374630344 0.57262462438155182 0.01533083462097825 0.16578085366986844 0.11660819732538663 0.23862486408563993 0.15127062141002617 0.017413343639353866 0.098931900897939018
leaf_weight=1007.7143230885267 2.0000000298023228 2.285714387893675 137.28571484982967 1.5714286416769025 75.857141017913818 749.14283941686153 0.28571429848670904 1.7142857909202573 4.8571429550647736 3.1428572833538047 43.571429371833801 0.71428573131561246 3.7142857909202567 4.5714285969734192 212.85714936256409 2.0000000298023224 72.571429535746574 1.5714285969734167 12.285714730620384 1.571428596973419 1741.0000176876783 46.285715147852898 8.7142860740423185 493.57143524289131 4.0000001490116119 3.1428572386503211 13.142857372760771 1.7142857760190962 2.000000074505806 0.71428574621677343 4.7142857462167731 144.2857128828764 58.571428835391998 3.1428572237491608 12.857143148779867 2.4285715073347087 0.85714289546012867 19.142856910824776 0.28571429848670971 0.1428571492433548 0.1428571492433548 11913.000055342913 1.7142857611179341 208.28571432828903 1881.8571661412716 0.85714289546013478 0.57142859697341819 25.285715341567993 0.28571429848670959 1.9999999999999989 86.285713672637939 3.7142856866121283 39.571429654955864 48.285714447498322 1.142857179045677 20.428571790456775 1.7142857611179341 3.4285714626312247 2.1428571492433539 3.2857144176959983 103.71428509056568 2.9999999701976767
leaf_count=104832 14 1 51 11 6 294 56 161 27 308 23 1 45 93 88 24 1027 32 59 8 15403 891 1437 13654 38 25 28 26 49 27 9 59 475 7 41 48 28 109 15 33 11 188773 10 2582 23140 179 5 3107 62 18 4 2 293 45 43 447 5 3 22 327 1051 256
internal_value=0 0.0155017 0.0420436 0.467271 0.0354362 -0.00338656 0.0102704 0.322745 0.0100466 0.0219009 0.0612985 0.243278 0.0508265 0.0966901 0.0053885 0.120701 0.0266162 0.0459995 0.146955 0.462953 0.00244471 0.0489083 0.0368139 0.0149509 0.0550753 0.219916 0.0342095 0.205127 0.0196755 0.212933 0.0214891 0.0138809 0.0116582 0.110211 0.0805494 0.099463 0.301619 0.0787059 0.733586 0.487217 0.984052 -0.00426097 -0.000377719 -0.000564362 -0.00169986 0.00410358 0.0698098 0.0193851 0.631721 0.00238333 0.0123883 -0.00495706 0.0221665 0.0159811 0.00192619 0.0448563 0.0153534 0.0107427 0.0101405 0.0257862 0.0215238 -0.00528933
internal_weight=0 3345.71 550.857 8.42857 542.429 15907 2794.86 2 2792.86 787.857 118.143 6.42857 111.714 6.85714 2005 5.14286 466.571 185 15.4286 3.14286 1792.14 51.1429 169.571 669.714 63.5714 7.14286 56.4286 3.71429 68.1429 2.71429 125.571 281.571 65.4286 6.85714 44 35.2857 3.28571 32 1.28571 0.571429 0.285714 15071.6 3155.57 3153.86 2943.86 1058.29 27 26.4286 1.14286 1031.29 835.429 1885.57 52.7143 120.857 1029.29 21.5714 210 606.143 602.714 109.143 107 11916
internal_count=359948 36189 3064 105 2959 323759 33125 217 32908 16499 1018 392 626 94 16409 332 2953 2843 99 40 16321 918 2744 15481 424 63 361 40 603 76 1081 110 527 52 1663 226 76 150 60 59 44 323461 134432 134422 131835 108693 3353 3348 241 105340 298 23142 321 1072 105322 490 2587 15057 15054 1400 1378 189029
is_linear=0
shrinkage=0.02


Tree=6
num_leaves=63
num_cat=0
split_feature=14 145 3 159 29 166 144 150 145 70 141 3 3 144 3 78 150 144 22 98 166 163 37 141 3 3 145 98 3 141 54 166 3 73 169 150 3 78 63 108 151 159 166 78 73 3 46 5 108 78 141 166 145 166 169 141 29 37 5 159 14 56
split_gain=1851.86 717.269 693.861 567.786 2370.54 461.932 2293.57 57054.2 538.269 448.319 440.664 751.922 1983.52 1115.93 471.956 447.414 405.514 676.097 370.396 363.177 278.321 513.317 1480.07 263.776 206.737 686.497 164.026 168.866 162.295 184.912 1218.93 1570.3 356.301 238.535 159.289 1478.62 3368.92 137.888 136.179 134.337 345.994 129.16 1294.29 219.544 112.484 111.938 103.516 284.392 177.473 225.914 96.4534 138.462 1184.4 96.1422 94.2295 226.699 91.7646 88.9037 88.78 95.8597 531.806 77.3715
threshold=1.2036458333333335 349.96500000000009 15.95857142857143 115.50000000000001 -2.5537587613767125 0.17079298933692857 1.5000000000000002 59.500000000000007 50964.16000000004 1.616205548466825 259.99500000000006 0.023214285714285719 0.021071428571428578 5.5000000000000009 0.79392857142857143 0.018214285714285714 15.500000000000002 2.5000000000000004 0.52714285714285725 0.0084083027095404848 0.44862368024132732 0.65615763546798045 10.04589285714286 7.9150000000000009 0.045357142857142867 0.041785714285714294 1271.350000000001 0.025017385257301811 0.10928571428571431 55.765000000000008 0.070625000000000021 0.615444245676804 0.10821428571428574 119.98500000000001 0.9772727272727274 4.5000000000000009 0.0082142857142857174 0.59571428571428575 0.046785714285714299 0.14321428571428571 1.0000000180025095e-35 18.500000000000004 1.0000000180025095e-35 0.011785714285714287 58.163683618362008 0.0067857142857142864 181.67857142857147 20.198571450000006 0.12250000000000001 0.26178571428571434 61.845000000000006 0.091139824642362741 498.22000000000003 0.15794736842105264 0.45368782161234994 129.89500000000001 9.9538166666666683 4.6746428571428575 18.688571400000004 76.500000000000014 3.9495833333333334 25.686484593837537
decision_type=10 10 10 10 8 8 8 10 10 8 10 8 8 10 10 8 10 8 10 8 8 8 10 10 8 8 10 8 8 10 8 8 8 8 10 8 10 8 8 10 10 10 10 8 10 8 8 10 10 8 10 10 8 8 10 8 10 10 10 10 8 10
left_child=1 28 5 4 -3 6 7 18 20 24 15 12 13 -12 -13 -6 17 -17 -2 -11 21 37 26 -21 25 54 27 -23 29 -1 31 -31 33 -32 41 36 -36 -7 -25 40 -40 43 -43 -35 -18 -42 47 48 -26 -50 57 52 -52 -37 -5 -56 -22 -8 59 60 -39 -30
right_child=2 3 -4 9 10 8 50 -9 -10 19 11 14 -14 -15 -16 16 44 -19 -20 23 56 22 -24 38 46 -27 -28 -29 61 30 32 -33 -34 34 35 53 -38 58 39 -41 45 42 -44 -45 -46 -47 -48 -49 49 -51 51 -53 -54 -55 55 -57 -58 -59 -60 -61 -62 -63
leaf_value=-0.002671137770330402 0.30120080555077777 0.48535888320094506 0.1202559128569177 0.010963033544061139 0.22131203988898171 -0.0016092609177376768 -0.0053391546527788011 9.1682465804406466 0.20776027673926034 0.063816171536451249 -0.0088607585939425668 -0.0089106405800390646 1.9854125089013883 0.91206774253683598 0.17376563847510873 -0.0081396959932780975 0.0076179786199267619 0.87999306559593704 0.0038964876211551305 0.0004643830809194168 -0.0044496964625846784 0.1945807302659584 0.23783324266407377 0.091869688149017484 -0.0013077068373799207 0.41497146438602467 0.099206092449824659 0.014063063403154458 -0.0059821318386179025 -0.0078213222032177225 0.58428913648623904 0.85120689055482401 0.25678901536082532 0.55167365983097094 2.6523366886823032 0.17690919898495672 -0.0075012872926315255 -0.0082148389653020799 0.38324839403485078 0.030616441764573385 0.055028767137622288 0.34535289488281445 0.0096178477447180361 -0.0029566229312579032 0.17749638669540754 0.010187115649759989 -0.0035568663636155809 0.056848912053530376 0.063899714922945189 -0.0055552767181917461 1.003633306460082 0.037461378332646428 -0.0083725029078345614 -0.0077990452445926822 0.02257848964261271 0.23509466357705983 0.038636255899833383 0.18675411517160789 0.034624370513310895 0.0093421922201609459 0.39229304046984809 0.016141054341708833
leaf_weight=2967.8572449237108 2.285714387893675 4.5714287459850311 32.285713195800781 43.571428999304771 4.1428571790456772 105.99999982118607 26.571429386734966 0.28571429848671037 6.1428572386503211 48.714286297559738 2.0000000894069707 14.142857596278192 0.28571429848670948 0.71428573131561268 9.4285714626312238 0.85714289546012878 198.71428687870502 0.57142859697341808 6.2857145369052887 932.28571572899818 184.71428604424 2.1428570747375488 17.142857432365417 9.0000001639127714 707.00000013411045 1.8571429103612889 12.428571343421934 63.428572222590446 8376.1428792476654 1.8571429103612902 0.28571429848670959 1.5714286416769025 2.2857143431901923 0.28571429848670959 0.28571429848670682 1.2857142686843861 0.57142859697341919 5.8571431040763846 1.0000000298023213 166.2857211381197 22.714286580681801 4.714285895228385 178.57143448293209 346.85715594887733 1.5714286118745793 1132.4285553693771 3054.9999922513962 39.428571701049805 39.571428179740906 35.571428567171097 0.57142859697341919 17.714286044239998 2.4285713732242615 9.1428574770689011 7.7142859697341892 2.7142857760190973 22.142857417464256 1.0000000298023213 168.71428373456001 135.57142779231071 1.7142857909202573 63.714286968111992
leaf_count=246535 47 38 1 495 31 61 1311 15 14 44 204 157 16 7 3 77 3315 40 1055 7782 773 5 12 26 513 10 32 1127 45385 29 33 14 15 7 25 32 48 19 23 119 1084 369 5688 38361 10 2747 274 2 18 22 19 40 87 311 90 34 791 8 31 247 83 137
internal_value=0 -0.00140656 0.0293926 0.00395086 0.0343359 0.0256467 0.0803969 0.376244 0.0213373 0.00279771 0.0254651 0.102116 0.400339 0.233489 0.0641599 0.0155713 0.0113458 0.347113 0.0831776 0.0097858 0.0197465 0.0276434 0.06957 0.00862309 -0.00131158 0.036891 0.0325891 0.0199623 -0.00431118 -0.000700669 0.00997656 0.3859 0.00760854 0.0065577 0.00625299 0.080604 0.879111 0.018097 0.0143359 0.0138083 0.0113908 0.00467105 0.0182533 -0.00250014 0.00895083 0.0110689 -0.00186203 0.00444017 0.00179819 0.0310208 0.026129 0.0587408 0.184391 0.0149732 0.0238883 0.0778909 0.000162405 0.00162796 0.0247952 0.01321 0.0824662 -0.00581512
internal_weight=0 18437.3 815.429 6481.86 237 783.143 57.1429 8.85714 726 6244.86 232.429 26.5714 3 2.71429 23.5714 205.857 201.714 1.42857 8.57143 2312.43 719.857 513 95.1429 2263.71 3932.43 55.8571 78 65.5714 11955.4 3515.57 547.714 3.42857 544.286 542 541.714 11.2857 0.857143 417.857 1331.43 1322.43 1156.14 530.429 183.286 347.143 200.286 1155.14 3876.57 821.571 782.143 75.1429 48.2857 20.7143 3 10.4286 54 10.4286 206.857 27.5714 311.857 143.143 7.57143 8439.86
internal_count=359948 354170 5778 17181 3898 5777 2582 1117 3195 13283 3860 387 227 211 160 3473 3442 117 1102 11825 3181 1617 1176 11781 1458 629 1164 1132 336989 291467 44932 43 44889 44874 44841 416 73 441 3999 3973 3854 44425 6057 38368 3325 3831 829 555 553 40 1465 146 106 343 619 124 1564 1319 380 349 102 45522
is_linear=0
shrinkage=0.02


Tree=7
num_leaves=63
num_cat=0
split_feature=11 31 31 143 44 69 0 145 164 43 164 31 1 146 8 151 151 24 75 147 145 1 138 164 39 146 138 145 20 29 1 5 145 8 31 147 145 24 8 31 147 39 146 145 147 51 108 143 24 140 158 24 17 145 158 158 145 1 140 114 1 5
split_gain=1419.43 1164.14 11850.8 19930.9 730.629 767.071 449.704 445.644 405.788 1283.54 354.186 474.948 1515.04 480.37 1370.94 932.679 464.147 1096.6 338.314 336.191 520.923 437.352 288.598 1153.71 286.557 323.723 802.471 1009.05 233.328 209.899 369.909 1056.57 210.739 199.407 896.223 233.811 531.928 913.313 175.964 173.242 5257.33 1198.98 3989.48 184.939 231.842 148.073 135.748 311.201 125.756 165.057 3216.45 24113.6 117.004 115.029 114.153 2236.85 433.274 131.697 757.788 97.5719 304.085 94.2575
threshold=1.4728724887402471 0.53571428571428581 0.3928571428571429 10.500000000000002 1.5370117647058825 0.60041666666666671 1.0000000180025095e-35 227.13000000000005 11.500000000000002 162.44500000000002 28.500000000000004 0.17857142857142858 8.6071428571428594 0.11776085208393391 0.027789720072609155 2.5000000000000004 52.500000000000007 0.11022727272727274 35.995000000000012 0.010159074181203882 242.67500000000007 78.928571428571445 4.9762000000000013 27.500000000000004 0.39833333333333343 0.11113621529346791 4.7965500000000008 39.805000000000007 5.7078570000000015 23.125000000000004 0.17857142857142858 11.441189300000001 93004.200000000026 0.049667415532355409 61.214285714285722 0.02175227380263919 2396.0650000000005 0.099782608695652211 0.051355311355311364 2.6785714285714293 0.0027459959985120098 0.32954545454545464 0.016669687084692523 33005.365000000013 0.022126100397710232 0.055357150000000015 0.0060714285714285722 115.50000000000001 0.28040816326530621 1.0658141036401504e-14 1.0000000180025095e-35 0.25989583333333338 0.78571428571428581 267.11500000000007 218.50000000000003 224.50000000000003 190.12500000000003 0.10714285714285715 -1.0658141036401501e-14 0.6625000000000002 663.17857142857144 2.1757143000000005
decision_type=10 8 8 10 10 10 2 10 10 10 10 8 10 10 8 8 10 8 10 10 8 10 10 10 8 10 10 8 10 10 10 10 10 10 10 10 8 10 10 8 8 10 10 10 10 10 8 10 8 10 10 10 8 10 8 8 10 10 10 8 10 10
left_child=6 2 -2 -4 24 8 7 48 9 -6 11 12 -9 16 -15 -16 19 -18 33 20 -13 -22 -21 -24 -3 29 61 -28 -10 32 31 -31 53 59 35 36 38 -38 -35 40 -8 -42 -43 -41 -45 -20 47 -37 49 54 51 -51 -32 -26 -1 -56 57 58 -57 60 -12 -27
right_child=1 4 3 -5 5 -7 39 10 28 -11 18 13 -14 14 15 -17 17 -19 45 22 21 -23 23 -25 25 26 27 -29 -30 30 52 -33 -34 34 -36 46 37 -39 -40 43 41 42 -44 44 -46 -47 -48 -49 -50 50 -52 -53 -54 -55 55 56 -58 -59 -60 -61 -62 -63
leaf_value=0.0014110797566106936 -0.0096593875901142563 0.0011269655127578685 4.8130888333094655 -0.0090232256988235643 0.038082851755708406 0.10429763675695963 0.96599799575198608 -0.011358966405925611 -0.0011656599450552815 0.4752896235728381 0.0089344062066774622 0.45186317621783095 1.0849660080679402 0.81921724471968926 0.8623931976082968 0.026026602062882077 1.2306870341490548 -0.0083606429100854286 0.084150895625681663 0.010180019761336454 0.0078055511250396496 0.14274609163208465 0.060586013336908488 0.89382636418756345 -0.0059425424896221513 0.0037858730702580515 -0.0093895617400305467 1.363039196941491 0.032679978006567703 -0.013422529469913333 -2.6059214917599588e-05 1.476137724691428 0.033868207813686491 0.23529707508920972 0.73583107332393949 0.56253502751635243 0.51119214212849573 0.035876658861463552 0.017424128389538603 -0.0048120207405978584 -0.00079967968431362353 -0.0078998468465762573 1.5572462481019165 0.091818522631915089 -0.008013707338941101 0.010228920903508408 0.0014326472947765909 -0.009095199521100536 -0.0053212318156167036 -0.0075507302187056468 -0.0077716386071226308 8.7767323957353707 0.099959681186202784 0.011355494523519532 0.71355398334680642 1.1118945578383816 0.63841830290474133 -0.00755288678756935 -0.0078350075624812072 -0.0013560132930290345 0.13898817642769348 0.076681070107481666
leaf_weight=984.57145962119102 11.714285776019095 1361.5714278072119 0.57142859697341808 0.85714289546012878 14.714285939931871 56.571427404880524 2.2857143729925156 1.7142857760190966 126.99999974668026 3.2857143878936759 71.142857313156128 1.4285714924335478 0.71428573131561268 1.1428571939468355 0.57142859697341919 8.000000134110449 0.42857144773006317 0.8571428805589677 31.857143521308899 231.28571633994579 23.428572028875351 16.285714328289032 9.5714288800954783 0.71428573131561357 184.14285533130169 9.5714289247989637 0.42857144773006439 0.42857144773006339 227.28571592271328 0.57142859697342174 8.0000002980232257 0.28571429848670959 148.42857801914215 1.5714286118745828 0.71428573131561179 0.57142858207225788 2.7142857760190955 4.0000001490116119 26.285714954137802 12131.42863945663 313.0000077188015 2.7142858058214183 0.85714288055896748 17.857142344117165 19.428571507334709 16.428571477532387 74.285716667771339 1.1428571939468382 1359.2857459485531 1.000000044703486 16.000000357627869 0.14285714924335469 11.285714626312254 932.28569178283215 1.8571428954601277 0.28571429848670948 0.42857144773006339 43.428572162985802 1.5714286416769017 695.28571656346321 7.9999999403953543 27.428572401404381
leaf_count=81591 310 522 39 13 133 14 35 79 150 8 384 33 1 3 55 256 33 47 20 4221 515 10 381 4 2247 1331 26 29 40 321 562 40 5 13 4 45 57 65 500 192961 10568 91 16 22 260 45 2781 50 51108 279 1023 45 8 446 14 173 16 2598 1401 1506 2 393
internal_value=0 0.0122334 0.200067 1.91982 0.0114404 0.0356808 -0.00249115 0.003696 0.0252539 0.11789 0.0134898 0.0325484 0.31109 0.0302453 0.168541 0.0817844 0.0255149 0.404655 0.00744692 0.0237906 0.0766382 0.0631409 0.01479 0.11845 0.00756785 0.0141972 0.0718391 0.676825 0.0205474 0.0124991 0.0765528 0.483098 0.011479 0.00463645 0.0296701 0.0251083 0.0682294 0.228025 0.0297144 -0.00429401 0.0102586 0.00335798 0.367735 -0.00467533 0.0397987 0.0589999 0.00549315 0.181448 -0.00130605 0.00389538 0.0654454 1.09048 0.0584841 0.00850237 0.0028731 0.0331321 0.00548994 -0.000499916 0.164431 0.0010391 0.0220806 0.057824
internal_weight=0 3126.43 13.1429 1.42857 3113.29 428.857 16126.3 3638.71 372.286 18 1230.14 296.143 2.42857 293.714 9.71429 8.57143 284 1.28571 934 282.714 41.1429 39.7143 241.571 10.2857 2684.43 1322.86 37.8571 0.857143 354.286 1285 20.1429 0.857143 1264.86 885.714 111.286 110.571 34.5714 6.71429 27.8571 12487.6 318.857 316.571 3.57143 12168.7 37.2857 48.2857 76 1.71429 2408.57 1049.29 17.1429 1.14286 19.2857 1116.43 1032.14 47.5714 45.7143 45.2857 1.85714 774.429 79.1429 37
internal_count=359948 6637 362 52 6275 345 353311 149358 331 141 11110 5638 80 5558 314 311 5244 80 5472 5164 558 525 4606 385 5930 5408 1779 55 190 3629 931 361 2698 5407 3515 3511 635 122 513 203953 10710 10675 107 193243 282 65 2876 95 138248 87140 1347 324 570 2693 85793 4202 4188 4172 1574 1892 386 1724
is_linear=0
shrinkage=0.02


Tree=8
num_leaves=63
num_cat=0
split_feature=10 32 154 154 145 1 141 1 28 41 32 155 70 145 154 76 154 142 33 33 169 142 169 154 33 59 9 1 142 162 41 155 155 1 165 150 165 151 92 64 84 41 54 30 154 166 1 141 141 141 9 9 9 25 145 9 145 151 162 154 154 1
split_gain=2190.69 645.174 511.873 1374.59 510.521 631.539 459.33 494.663 658.812 932.231 473.818 9703.67 327.737 324.428 308.675 1538.91 307.112 624.729 295.03 4622.35 340.292 1984.65 1885.26 334.071 234.392 812.287 166.476 159.992 142.727 135.313 133.248 170.516 5735.04 130.913 124.43 2426.91 5170.75 120.553 119.411 109.824 238.093 107.994 107.81 102.918 101.392 345.954 3291.24 127.808 539.222 5183.23 121.872 5064.16 98.5968 95.4224 94.7025 295.131 83.9682 83.1356 798.943 218.6 1554.26 143.146
threshold=1.358266666666667 53.571428571428577 0.024703093461014885 0.025357215758318029 227.13000000000005 164.85714285714286 146.55500000000004 111.07142857142858 219.97190605662846 144.79528535980151 0.17857142857142858 0.023278392413637394 1.616205548466825 9684.4450000000052 0.12531407035175882 0.53571428571428581 0.13343075010917402 22.500000000000004 0.0275 0.026428571428571437 0.48504464285714294 482.50000000000006 0.50806451612903236 0.0056116793470045861 0.66535714285714287 2.6236019718309862 0.18500000000000005 0.8928571428571429 4899.5000000000009 88.500000000000014 17.347304864253395 0.2501056635672021 0.26660244059087995 26.107142857142861 141.50000000000003 239.50000000000003 143.50000000000003 9.5000000000000018 0.62500000000000011 -1.0000000180025095e-35 0.19000000000000009 5.8330669809288018 0.69821428571428579 28.800000000000001 0.048791717198939953 0.8190909090909092 0.10714285714285715 59.995000000000012 77.415000000000006 74.995000000000019 0.32000000000000012 0.32504966887417225 0.18010638297872344 24.988750000000003 190.12500000000003 0.095131578947368442 89.985000000000014 4.5000000000000009 11.500000000000002 0.069009912178742097 0.070751765442030948 51.678571428571438
decision_type=10 10 10 10 10 8 10 10 8 8 8 8 10 10 10 8 8 8 8 8 10 10 8 8 10 8 10 10 8 8 10 10 10 8 10 10 8 8 8 8 8 8 10 8 10 8 10 10 10 10 10 10 10 10 10 8 10 8 8 8 10 10
left_child=4 2 13 -4 33 14 10 8 37 -10 11 -5 -7 42 18 -16 17 -17 19 20 23 22 -22 -6 57 38 -11 28 -23 30 31 41 -33 34 39 36 -36 -8 -26 40 -1 -12 -2 -32 -41 47 -47 50 49 -49 -46 -52 -14 -13 -37 -56 -50 58 59 61 -61 -20
right_child=1 -3 3 6 5 12 7 -9 9 26 29 53 52 -15 15 16 -18 -19 24 -21 21 27 -24 -25 25 -27 -28 -29 -30 -31 43 32 -34 -35 35 54 -38 -39 -40 44 -42 -43 -44 -45 45 46 -48 48 56 -51 51 -53 -54 -55 55 -57 -58 -59 -60 60 -62 -63
leaf_value=0.34691478571081907 -0.0057401119672520493 0.11522065219061962 0.27992950273474004 1.6335890732118805 0.26189012415671042 -0.0027835913997525446 0.20124720382502076 0.055208181085786054 0.063287274717914274 0.87747039794921866 0.022800749769810405 0.0063574223181116279 -0.0030661810826101074 0.034335176388346884 0.80283289181442974 0.84514534033185118 0.029373627497837083 -0.0085822644097587383 -0.00069728363661103693 0.87797728891109961 0.84926983034933534 0.033656504745069211 0.082236571543420053 0.010599004778850214 0.070419348760401845 0.24508793929408174 0.52411944907369645 -0.0024087091065983055 0.35223926544189427 0.16626313734786574 0.073285486826083407 4.0783171928681199 0.020009252772517298 -0.0059592597678077702 2.3226186095497643 -0.0013466399534144584 -0.0074644878429403309 0.055999870336307093 -0.0058620195585335471 -0.0033322740034364253 -0.010543536984076448 -0.0018824676283140521 0.018459172032329843 0.028663291797229259 -0.0019193260579823616 2.2616695537416804 -0.0076512917410820752 0.02805322607563129 -0.0079949065927115235 1.6535125942323903 1.5549837709595227 0.0052416191258948322 0.012854596266069527 0.15494839620320994 -0.0098068745906307285 0.46856515601731086 0.059393328478735415 0.0047998961742052896 0.4482621870788831 1.2943611184793209 0.045584438442288315 0.031518066834912817
leaf_weight=1.1428571641445158 275.00000135600567 32.428570345044136 9.2857144325971586 1.5714286267757414 2.1428571939468384 4661.9999865591526 3.4285714030265808 54.285715043544769 1.7142857313156128 0.99999999999999922 149.85714271664619 25.000000566244132 192.42857198417187 165.71429252624512 1.1428571939468384 0.57142859697341886 20.000000327825553 0.8571428954601289 141.85714629292488 2.5714286863803855 2.4285714626312256 1.2857143282890349 2.714285776019099 169.71428866684437 11.714285880327223 7.4285714626312247 1.1428571939468384 23.000000417232513 0.99999999999999989 2.5714285969734183 26.142857044935226 0.1428571492433538 5.5714287906885147 7439.1428765654564 0.57142859697341797 50.571429580450058 1.1428571939468384 6.8571430146694166 27.428571447730064 3021.1429602652788 2.142857208848 134.57143007218838 100.57142466306686 98.857143089175224 438.14287211000919 0.28571429848670904 2.4285715073347092 9.2857145816087687 38.714287146925926 0.85714289546012956 0.85714288055896659 52.714287415146828 812.8571215569973 1.8571429252624501 1.8571429252624505 0.71428574621677388 9.1428574472665769 903.00001196563244 1.7142857611179341 0.42857144773006339 5.7142858505249023 90.285712778568268
leaf_count=3 2278 3 19 23 17 3970 49 10 6 30 96 262 72 8 3 2 503 85 3080 21 18 55 36 1543 16 10 14 164 5 8 11 6 1028 43707 7 670 53 9 118 254840 57 2222 8 98 27175 29 163 580 2336 62 15 1730 26 33 47 35 430 11599 16 16 364 49
internal_value=0 0.0273403 0.0246647 0.0387581 -0.00175684 0.00243572 0.034406 0.082655 0.188006 0.410915 0.0270057 0.106012 -0.000550206 0.0110252 0.0143779 0.0877472 0.0496093 0.332909 0.0131903 0.0353587 0.0246475 0.0862951 0.444447 0.0137323 0.00937267 0.0533541 0.689017 0.0134507 0.173036 0.0216287 0.0207328 0.0132956 0.121467 -0.00443967 -0.00132698 0.0285661 0.76923 0.104416 0.0169667 -0.00178544 0.11379 0.0111224 0.000740031 0.0379957 -0.00189171 0.00598651 0.231225 0.00487437 0.0329534 0.165416 0.00156231 0.0300375 0.00980709 0.0166323 0.00467373 0.123074 0.00487926 0.00758065 0.0180432 0.0149481 0.132708 0.011832
internal_weight=0 1097.57 1065.14 523.857 18155.1 7084.29 514.571 68.4286 14.1429 3.85714 446.143 28.4286 5667.29 541.286 1417 22.5714 21.4286 1.42857 1394.43 204.857 202.286 30.4286 5.14286 171.857 1189.57 46.5714 2.14286 25.2857 2.28571 417.714 415.143 290.143 5.71429 11070.9 3631.71 54.8571 1.71429 10.2857 39.1429 3576.86 3.28571 284.429 375.571 125 3573.57 552.429 2.71429 549.714 58 10.1429 491.714 53.5714 1005.29 26.8571 53.1429 2.57143 47.8571 1143 240 238.286 6.14286 232.143
internal_count=359948 6221 6218 3924 353727 21788 3905 118 108 50 3787 318 4068 2294 17720 593 590 87 17127 1859 1838 278 54 1560 15268 144 44 224 60 3469 3461 3352 1034 331939 288232 812 60 58 134 287420 60 2318 2286 109 287360 32520 192 32328 3408 642 28920 1745 98 295 752 82 2766 15124 3525 3509 380 3129
is_linear=0
shrinkage=0.02


Tree=9
num_leaves=63
num_cat=0
split_feature=148 10 6 20 73 85 147 148 148 98 13 16 98 136 147 144 16 16 13 10 155 1 147 145 19 13 15 67 147 147 163 59 154 1 90 2 57 158 136 163 154 148 10 15 10 10 163 158 136 163 1 154 154 158 148 10 53 53 19 1 53 154
split_gain=2160.24 1173.36 3700.85 11581.5 815.199 474.763 340.166 1136.56 2077.94 344.197 310.492 229.543 517.934 240.607 267.766 639.47 213.356 251.559 207.251 302.187 1867.48 205.345 946.361 2365.67 735.81 160.497 133.618 130.513 190.501 1121.96 152.502 128.31 144.917 363.662 112.257 103.228 207.586 175.896 2527.71 122.567 270.584 415.831 93.9967 92.6422 92.1992 922.276 84.8743 421.777 2755.16 291.298 119.926 88.4576 181.518 1673.67 72.3608 73.6987 70.991 153.249 69.9625 66.6731 55.1298 53.5364
threshold=0.93594873076709473 1.358266666666667 0.021703600000000003 3.6258070000000004 213.99261231530804 1.8294309708737866 0.0027459959985120098 1.4964629338915059 1.2794998446722587 0.0058832969116904615 99.990049504950505 210.50000000000003 0.0084083027095404848 125.02000000000002 0.10940228463329454 2.5000000000000004 134.14285714285717 1.642857142857143 355.81764176417659 40.167500000000011 0.026160900660438701 0.10714285714285715 0.020414116638487367 201.04500000000004 1.0000000180025095e-35 250.16127840624702 99.065000000000012 6.7578571428571443 0.22293526785714288 0.24967757120070741 0.57793522267206487 8.1916666666666682 0.0073665074886042981 133.28571428571431 99.805000000000021 0.53571428571428581 0.95455000000000012 221.50000000000003 394.99500000000006 0.039230769230769243 0.010217130330393027 0.14458480159338136 0.75483055555555567 -269.48304921968781 41.120000000000005 154.89500000000004 0.098780487804878067 1.5000000000000002 233.36000000000004 0.11024305555555557 0.60714285714285732 0.053778662672463139 0.066706396503774357 1.0000000180025095e-35 0.72169540229885076 1.4856500000000004 0.044249506612173868 0.055658818669971091 4.3571428571428585 555.17857142857144 0.035737366898504347 0.027013995673590665
decision_type=10 10 10 10 10 10 10 8 8 8 8 8 8 10 10 8 10 10 10 8 8 8 10 10 8 10 10 8 10 10 10 10 10 8 10 8 10 10 10 8 10 8 10 8 8 10 10 10 10 10 10 10 10 10 10 10 8 10 10 10 8 8
left_child=5 6 3 10 18 31 7 8 -2 -8 -3 12 -11 21 16 -16 17 -15 19 25 44 22 23 -14 -24 27 60 56 30 -30 -29 35 33 -33 43 36 37 46 39 40 -39 -42 61 -23 -21 -46 51 48 -48 -49 -51 -1 53 -53 -37 -56 59 -58 -54 -4 -7 -13
right_child=1 2 4 -5 -6 26 9 -9 -10 11 -12 42 13 14 15 -17 -18 -19 -20 20 -22 34 24 -25 -26 -27 -28 28 29 -31 -32 32 -34 -35 -36 54 -38 38 -40 -41 41 -43 -44 -45 45 -47 47 49 -50 50 -52 52 58 -55 55 -57 57 -59 -60 -61 -62 -63
leaf_value=-0.0038348784155988816 0.57313426234703513 -0.0085716425843885245 9.8067892822004487e-05 2.0031009052797737 0.10591400473687325 -0.0010805985304438615 0.11827630357732857 -0.0073858591808787753 -0.0072706883771350437 0.34699746186234121 0.28007238566551879 -0.0060112497910698197 2.2164360772176352 0.097427867494304432 -0.010457387322602233 0.82824241750348737 0.073028057624436329 0.01001354273751359 -0.0094377594706359612 0.85992103576660106 -0.012534781562904119 0.11141096004435458 -0.00080098118693730589 -0.012443817297645607 0.60730395496768086 0.064262149430051776 0.038978777812044209 0.026845573728591882 0.98763617106459722 0.054750653995022568 0.076997479241615541 0.031996877816594417 0.015064593616940026 0.39757274824207406 0.1102016455469022 -0.0054193798186495867 0.43915992219031202 -0.011719588526770321 0.82241308103537014 0.0033611256891416027 0.50226938400767263 0.061753326967022154 0.012585726939338345 0.0072708972635610091 -0.024372055881477818 1.4425899623666669 0.010931553749105725 0.29151425928558744 1.7305849505699413 0.043952555107496329 -0.00089224141107393661 0.6049080305960165 -0.0014201084884896637 0.018768831873110896 -0.0014017901707148112 0.017650072640706213 0.098078955311873259 0.011796103610517625 0.31172122642153982 0.026483630825982502 0.011969433614525628 0.0027835056431482447
leaf_weight=2684.0000956952572 4.4285715520381927 4.2857142984867096 130.14285719394684 1.5714286416769025 55.142856121063232 164.71428480744362 11.142857134342192 22.00000025331974 5.5714287757873517 1.8571428954601286 2.285714387893675 505.28572088479996 0.2857142984867086 14.857143417000769 1.0000000447034834 0.57142859697341819 39.428571164608002 115.85714536905289 60.285715311765671 0.99999999999999967 6.0000001937150946 3.4285714626312256 11.142857626080513 0.57142859697341919 0.85714289546012601 44.857143953442574 65.285713195800781 313.5714358240366 0.571428582072257 5.2857145071029663 26.285714611411095 4.5714287012815467 50.428572356700897 1.4285714626312254 4.2857144176959983 10846.000001594424 0.42857144773006339 5.285714402794838 1.5714286267757405 70.000000983476639 1.2857143282890318 2.5714286714792256 240.71428298950195 1004.2857326120138 0.4285714477300645 0.28571429848670959 2.8571429550647731 1.4285714924335469 0.42857144773006428 27.428572550415993 183.0000051856041 2.0000000894069663 254.42858064174652 75.857145294547081 765.42857210338116 90.857141852378845 11.714285835623739 27.714285746216774 0.2857142984867086 54.285712242126465 605.42855508625507 612.4285718947649
leaf_count=248894 35 89 75 15 5 88 26 22 8 29 4 782 69 1146 100 16 16 860 56 1 452 1 2874 102 150 8 2 1406 24 940 58 81 66 60 12 42612 16 58 24 951 13 98 24 22107 40 13 450 25 25 3231 3701 197 18788 3009 1116 29 29 59 17 3 208 4533
internal_value=0 0.0145117 0.0366275 0.460669 0.031946 -0.00316854 0.0081686 0.072974 0.249766 0.00736105 0.0918263 0.00687768 0.0132577 0.0127397 0.0346497 0.294524 0.0322496 0.0199492 0.0259691 0.0294001 0.153797 0.00906869 0.0884938 0.730516 0.0426351 0.0278382 0.0115072 0.0249696 0.0326735 0.145764 0.0307245 -0.00398203 0.0261201 0.119039 0.00805962 -0.00409515 -0.000978427 -0.00103537 0.0281272 0.0123562 0.0812244 0.208592 0.00124914 0.00762522 0.735959 0.562413 -0.00176373 0.0103728 0.235234 0.00688542 0.00495311 -0.00262931 0.00710017 0.0338256 -0.00497748 0.000619729 0.0130721 0.0374309 -0.00106886 0.00786454 0.00917836 -0.00119234
internal_weight=0 3345.71 745.714 8.14286 737.571 15907 2600 32 10 2568 6.57143 2556.86 1198.43 1196.57 171.714 1.57143 170.143 130.714 682.429 622.143 7.71429 1024.86 12.8571 0.857143 12 614.429 835.429 569.571 345.714 5.85714 339.857 15071.6 56.4286 6 1012 15015.1 3312.86 3312.43 80.7143 79.1429 9.14286 3.85714 1358.43 1007.71 1.71429 0.714286 3231.71 215.143 3.28571 211.857 210.429 3016.57 332.571 77.8571 11702.3 856.286 223.857 39.4286 254.714 184.429 770.143 1117.71
internal_count=359948 36189 3277 108 3169 323759 32912 65 43 32847 93 32821 27482 27453 2138 116 2022 2006 3164 3108 506 25315 3195 171 3024 2602 298 2594 2428 964 1464 323461 207 141 22120 323254 279497 279481 1144 1120 169 111 5339 22108 54 53 278337 7432 475 6957 6932 270905 22011 3206 43757 1145 166 88 18805 78 296 5315
is_linear=0
shrinkage=0.02


Tree=10
num_leaves=63
num_cat=0
split_feature=14 31 33 6 6 33 159 0 15 150 160 69 48 144 144 117 36 144 63 68 70 162 160 85 162 162 48 31 43 144 6 68 33 31 33 18 24 165 159 159 87 51 144 31 31 32 98 31 57 132 43 33 109 109 16 16 163 150 68 83 99 24
split_gain=1829.25 1698.72 26455.9 29244.5 57861.5 860.262 700.512 413.732 398.76 387.112 331.523 533.817 298.012 293.826 4792.28 269.845 257.681 520.477 134.883 321.366 277.552 200.322 292.128 152.584 152.348 248.084 134.106 1384.48 125.676 120.589 102.982 120.346 99.9406 97.9559 116.289 93.5621 208.31 1815.53 6929.2 1474.39 89.1366 147.599 84.4026 77.4918 1974.21 4260.85 569.289 71.4223 68.5557 66.6537 66.5497 60.367 57.9841 45.3033 43.1737 43.0175 60.1666 360.666 42.5989 75.8853 42.5046 35.6811
threshold=1.2036458333333335 0.53571428571428581 0.022500000000000006 0.14012145000000001 0.032600000000000004 8.117142857142861 2495.5000000000005 1.0000000180025095e-35 99.065000000000012 4936.0000000000009 0.42863469568518292 0.60041666666666671 0.01035714285714286 600.50000000000011 581.00000000000011 0.0047196274420717513 0.089882150000000008 29.500000000000004 0.089642857142857163 0.023284687222295302 19.996333333333336 1.5000000000000002 0.29415733904897995 14.588333333333335 13.500000000000002 17.500000000000004 0.015357142857142859 6.1785714285714288 65.073602279544019 148.50000000000003 0.064778550000000018 0.019620128753255691 0.0096428571428571457 10.535714285714286 0.16607142857142862 0.040714285714285724 0.25989583333333338 13.500000000000002 27.500000000000004 30.500000000000004 0.19722222222222222 1.0000000180025095e-35 22.500000000000004 2.6071428571428577 2.535714285714286 0.17857142857142858 0.0084083027095404848 0.46428571428571436 0.033058442622950802 0.027419673969294452 28.390000000000004 0.01035714285714286 1.0000000180025095e-35 1.0000000180025095e-35 2777.7857142857147 66.214285714285737 0.072299651567944254 4.5000000000000009 0.46428571428571436 0.47727272727272729 0.55516666666666681 0.079714285714285724
decision_type=10 8 10 10 10 10 10 2 10 10 8 10 8 8 8 8 10 10 10 8 10 10 10 10 10 10 8 10 10 8 10 10 8 8 10 8 10 10 10 10 10 8 10 8 8 8 8 8 10 10 10 10 10 10 10 10 10 10 10 10 10 10
left_child=6 2 47 4 -4 9 7 13 15 10 11 12 -3 14 18 29 30 -18 19 21 23 -1 -23 32 52 -26 27 -15 61 -8 -14 -32 -21 34 42 36 58 -38 -39 -40 43 -42 -12 44 46 -46 -9 -2 49 55 -50 -31 54 -48 -20 56 60 -58 -28 -60 -45 -17
right_child=1 5 3 -5 -6 -7 8 40 -10 -11 33 -13 16 26 -16 28 17 -19 24 20 -22 22 -24 -25 25 -27 35 -29 -30 51 31 -33 -34 -35 -36 -37 37 38 39 -41 41 -43 -44 48 45 -47 53 -49 50 -51 -52 -53 -54 -55 -56 -57 57 -59 59 -61 -62 -63
leaf_value=-0.0081660424444442489 -0.015673102838798685 0.14967203067797261 17.991819264062269 -0.057532947024720102 -0.0088548929011123944 0.11629581846914804 0.056725298489474149 0.34779389811738981 0.073034243331711157 0.11759702831691511 -0.00090116942847456416 0.15039226093713043 -0.015290592330058051 -0.0087392899268510724 3.6716502264894446 0.031175545808838245 0.10480024309009178 0.020566529782777673 -0.0041881984418804885 0.041405513401742686 0.19448722953589223 0.19120406886950667 0.044920486131053039 0.14095186051046169 0.057808951450736064 -0.0044778260917038119 6.0761165842612012e-05 0.46984057886398406 0.01191135016861862 0.027997326372764739 0.0250713803888187 -0.004355447817321648 0.0089717965552810214 -0.0061272877402232953 0.13244991100250564 -0.0059693724526853073 -0.0018531242353929296 2.8471064328454041 0.99479692167527745 -0.007774744038974375 -0.006179550710220646 0.11222258306804207 0.10374274873473339 -0.0034418318760508449 0.0019697004788074512 1.161197045934538 -0.0054640758283716062 0.19447632242100013 -6.4300529207580106e-05 0.11523159982960225 0.021693671085864757 0.0014674129160307209 0.021476318142842173 0.027529343548673719 0.016910465513181969 -0.0052341975637040716 0.21482460298672618 0.0040050848642968727 0.23525656399722347 -0.0076877097411815224 0.092275595469015481 -0.0030163273644340533
leaf_weight=8.1428572982549685 6.8571429848670959 7.5714286863803864 0.14285714924335469 0.28571429848670959 0.1428571492433548 40.857141643762589 50.857143953442574 1.8571428805589674 42.285715103149414 16.571429133415222 18.142857342958457 13.999999910593031 42.000000327825546 22.142857775092128 0.1428571492433538 12.571428760886191 42.285714522004128 95.857142493128777 610.14285714924335 39.28571555018425 3.2857144027948371 9.5714286267757434 12.714285790920256 3.5714286416769019 48.142857298254967 54.571428701281548 372.14287227392197 2.7142857760190955 637.99998271465302 159.4285781532526 234.57142813503742 72.857142999768257 1163.1428774744272 187.57142828404903 4.1428571045398703 1265.857175424695 32.000001341104507 0.42857144773006339 0.71428573131561268 3.2857144176959991 10.571428686380386 6.9999998062849054 3.7142857760190955 2434.4286481142044 4.0000001043081284 1.8571429252624501 276.28572206199169 0.7142857462167721 260.4285746961832 1.8571428656578053 71.714286938309669 43.71428607404232 41.714285522699356 17.714285537600517 41.428569793701172 9407.9999957978725 3.2857144176959983 268.28572006523609 0.85714289546012823 1.285714343190193 1.8571428954601277 422.57142440974712
leaf_count=45 259 27 5 2 37 5 35 15 3 27 108 11 893 1808 23 359 36 31 591 945 37 24 21 24 14 28 61901 14 20 130 2895 97 30249 1369 5 47627 5575 31 12 230 33 25 11 184574 45 18 10549 12 195 27 47 39 11 52 1 1870 484 6206 31 30 55 216
internal_value=0 0.0299585 0.317333 4.46697 8.99148 0.026959 -0.00117264 -0.00231302 0.0125729 0.0220218 0.0198303 0.0286034 0.0251599 0.00353981 0.00866642 0.0106464 0.0232263 0.0463506 0.00840936 0.0125346 0.0109193 0.0767283 0.107747 0.0104192 0.00198464 0.0247164 -0.00259448 0.0435194 0.00625895 0.0291835 0.0140844 0.0180976 0.0100315 -0.00108443 0.0352962 -0.00327817 0.00501635 0.0506721 0.430209 0.171256 -0.00402603 0.0409888 0.0168815 -0.00408806 0.00592715 0.36953 -0.00127116 0.00415232 -0.00433077 -0.00457648 0.00463355 0.0222884 -0.0013832 -0.00347613 -0.00284669 -0.00459485 -0.00237352 0.00655577 0.000572761 0.08949 -0.00336887 -0.00202851
internal_weight=0 788.286 8.14286 0.571429 0.285714 780.143 17875.9 16506.4 1369.43 739.286 722.714 509.143 495.143 3737.29 2035.86 1327.14 487.571 138.143 2035.71 1239.71 1209.29 30.4286 22.2857 1206 796 102.714 1701.43 24.8571 1073.14 254 349.429 307.429 1202.43 213.571 26 1676.57 410.714 36.4286 4.42857 4 12769.1 17.5714 21.8571 12751.6 301.714 5.85714 295.857 7.57143 12449.9 12117.7 332.143 203.143 693.286 294 651.571 12115.9 2707.86 271.571 374.286 2.14286 2436.29 435.143
internal_count=360099 5830 315 44 42 5515 354269 353467 802 5510 5483 3990 3979 149272 32013 799 3952 67 31990 31345 31255 90 45 31218 645 42 117259 1822 595 204 3885 2992 31194 1493 124 115437 67810 5848 273 242 204195 58 119 204137 10679 63 10616 271 193458 193216 242 169 603 10601 592 193189 191319 6690 61962 61 184629 575
is_linear=0
shrinkage=0.02


Tree=11
num_leaves=63
num_cat=0
split_feature=14 156 152 28 3 14 69 151 142 151 156 166 146 136 158 158 151 3 152 48 32 19 136 69 136 152 30 27 67 0 156 92 0 90 71 142 54 136 99 156 46 151 152 72 136 113 156 3 136 3 161 3 40 113 146 90 99 136 28 166 146 113
split_gain=1756.81 1012.07 825.991 5670.17 20754 83495.7 1481.74 638.25 576.892 476.246 389.933 774.977 2608.39 374.763 367.379 327.844 1071.23 2044.41 2028.42 321.712 307.169 1830.02 475.37 350.066 856.555 708.583 306.873 294.733 230.733 186.704 188.09 723.785 167.299 243.187 237.263 320.229 226.227 2391.22 159.216 391.11 151.405 121.261 118.24 107.495 99.458 108.151 97.7353 97.2243 211.958 1179.69 152.703 92.4792 88.9841 83.7723 80.9132 76.9714 75.6488 73.2712 65.1562 69.643 64.9532 54.9699
threshold=1.2036458333333335 0.99961481481481496 2.5000000000000004 179.11301609517153 0.2732142857142858 9.2956625000000006 0.16071428571428573 52.500000000000007 1163.5000000000002 99.500000000000014 1.1108035851374167 0.78619047619047622 0.076937087136522544 221.99500000000003 30.500000000000004 11.500000000000002 6.5000000000000009 0.047500000000000014 13.500000000000002 0.01035714285714286 0.25000000000000006 0.78571428571428581 360.10500000000008 0.2502272727272728 149.99500000000003 12.500000000000002 468.07845184518459 0.091699915824915809 5.154585714285715 1.0000000180025095e-35 23.996142857142861 1.0000000180025095e-35 1.0000000180025095e-35 99.805000000000021 61.119370879120872 517.50000000000011 0.080444444444444457 394.99500000000006 0.088819444444444451 2.0486349924585223 0.32142857142857145 6.5000000000000009 37.500000000000007 0.17760750000000003 16.955000000000002 0.11579628322747591 1.1245707364341089 0.020357142857142862 56.995000000000012 0.018214285714285714 2.5000000000000004 3.5842857142857145 4.5602603658536589 0.0070984971593414216 0.014569002790770802 99.805000000000021 0.71050000000000002 22.385000000000002 190.36450045004503 0.30776869605072193 0.066705024932873044 0.10300618921308578
decision_type=10 10 10 10 10 8 8 10 10 10 10 8 8 10 10 10 8 10 10 8 8 10 10 8 8 8 10 10 10 2 8 10 2 10 10 10 8 10 8 8 8 10 10 10 10 8 10 8 10 8 10 8 10 8 10 10 10 8 8 10 10 10
left_child=7 19 3 6 5 -5 -3 10 -9 15 32 20 57 42 -8 16 -4 18 -18 -2 21 22 23 24 60 -26 29 -11 46 30 44 -32 33 34 36 -36 37 41 39 -25 -31 -1 -10 51 55 -46 -17 48 50 -50 -38 -42 58 -49 -55 -22 -21 -13 59 -48 -12 -44
right_child=1 2 9 4 -6 -7 14 8 13 27 11 12 -14 -15 -16 28 17 -19 -20 56 26 -23 -24 38 25 -27 -28 -29 -30 40 31 -33 -34 -35 35 -37 47 -39 -40 -41 43 -43 61 -45 45 -47 52 53 49 -51 -52 -53 -54 54 -56 -57 -58 -59 -60 -61 -62 -63
leaf_value=-0.0051837105453036714 0.18638900112558893 0.84062660217285057 0.030545484052253578 17.631981938839751 -0.010835461668198106 -0.02353845456319003 -0.00052807872604794797 0.099455519027435338 0.011563716228125239 0.13885313240266395 -0.0074399886037112431 0.27516516292160043 2.1719279844197041 0.031769911055471389 0.098886062261079641 0.057358600482942113 2.2676566954011235 0.03373615257487849 0.32179491993708198 -0.0057931115317287271 0.0013435316526190805 0.40233647190986022 0.35082917358323706 0.0041229358315467831 0.042976460493499527 0.38903553064602342 0.094917170176795532 0.040585658570761962 0.055605167168026402 0.14443924413388179 -0.010409820967970345 0.81149817653753442 -0.0047151104475714172 0.059139782143399149 0.0074972970577644946 0.36039043435381141 0.00092202728420163853 0.81132926445664166 -0.0026873420372922185 0.34401683308493275 0.0030903294051496757 0.072699287534177079 -0.0007998736761511019 0.070541925648020296 -0.011805650871439616 0.027921106696922701 -0.0096651417033226678 0.098492469717503042 0.012765467531834461 0.30476730699863536 0.093202732569761595 -0.006973752615807567 0.030893965839834916 -0.0055242588975685895 0.0015702377077676224 0.13072766175865635 0.10033707490621546 -0.0087333082228910133 -0.009712742245626722 0.023561372452823508 0.081409982584230919 0.069877053762218116
leaf_weight=29.285714864730835 3.5714287310838699 1 7.4285716861486435 0.14285714924335391 1.7142857611179352 0.4285714477300645 22.571429222822189 28.857143729925156 607.1428397744894 27.000000342726707 18.571428760886196 0.57142858207225766 0.2857142984867086 248.71429352462292 43.57142736017704 23.142857775092125 0.42857144773006295 1.2857143282890318 0.42857144773006439 262.28571453690529 190.28571766614914 5.1428571492433539 1.7142857611179341 5 4.2857144474983215 5.2857144176959974 14.428571701049803 22.28571517765522 81.714284613728523 2.8571429401636124 1.7142857909202569 0.57142859697341908 10920.571504279971 28.000000551342964 2.5714286565780631 1.714285761117935 462.57144743204117 1.5714285969734181 130.85714535415173 1.8571428954601286 767.42858242988586 11.000000163912771 728.00000037252903 8.2857140600681287 32.000000491738319 191.14285744726658 34.000000387430191 3.2857143729925156 55.857144996523857 6.142857387661933 7.2857145369052878 696.85714188218117 91.571428447961807 1537.5714607983828 1105.2857227623463 1.8571428805589665 2.7142856717109671 1.0000000447034836 63.142856702208519 97.857141450047493 4.0000000745058051 4.4285715520381919
leaf_count=504 19 3 234 1 5 83 1908 75 162 15 77 30 47 53 22 40 39 4 11 2866 6078 37 28 35 36 11 1 31 12 33 184 4 192273 31 68 8 69734 9 1750 34 8570 57 2780 15 187 3484 185 17 8351 1033 361 1217 79 43716 12863 7 4 96 47 222 34 179
internal_value=0 0.0293594 0.0456501 0.109861 1.08946 4.39034 0.0765132 -0.00114919 0.0108337 0.0357495 -0.00234105 0.00573226 0.414106 0.00922353 0.0649607 0.0285386 0.144184 0.538132 1.29473 -0.00216491 0.00536837 0.0305941 0.0194511 0.0161066 0.0755373 0.234084 0.00303132 0.0944191 0.0257108 0.00233096 0.0141376 0.195067 -0.00352931 0.000452566 -5.71024e-05 0.148655 -0.000255041 0.0459379 0.00223539 0.0961775 -0.00101051 0.0160822 0.00503741 -0.00129271 0.0131417 0.0222241 0.0178235 -0.000863445 0.00693934 0.0416965 0.00235295 -0.00169919 0.0146307 -0.00243175 -0.00255723 0.00259408 -0.00470606 0.0945025 0.00699356 0.0149938 0.00830558 -0.000372531
internal_weight=0 788.286 519.714 69.4286 2.28571 0.571429 67.1429 17875.9 1617.14 450.286 16258.7 2086 1.85714 1588.29 66.1429 401 9.57143 2.14286 0.857143 268.571 2084.14 176.714 171.571 169.857 32.1429 9.57143 1907.43 49.2857 391.429 1893 417.571 2.28571 14172.7 3252.14 3224.14 4.28571 3219.86 41.8571 137.714 6.85714 1475.43 40.2857 1339.57 1472.57 415.286 223.143 309.714 3178 531.857 62 469.857 1464.29 286.571 2646.14 2642.86 192.143 265 1.57143 195 131.857 22.5714 732.429
internal_count=360099 5830 2941 2022 89 84 1933 354269 3249 919 351020 21995 173 3174 1930 873 288 54 50 2889 21822 2042 2005 1977 158 47 19780 46 585 19779 9944 188 329025 136752 136721 76 136645 570 1819 69 9835 561 3121 9802 9756 3671 573 136075 79479 9384 70095 9787 533 56596 56579 6085 2870 126 454 407 111 2959
is_linear=0
shrinkage=0.02


end of trees

feature_importances:
sem_adspend_w2=29
site_atcpv_w2=23
site_atcpv_w1=21
sem_impressions_w2=19
sem_impressions_w1=19
uber_avg_margin_w1=19
site_total_revenue_w2=18
sem_ctr_w1=17
uber_curr_item_price_w1=16
site_total_orders_w2=16
site_rpv_w2=16
sem_impressions_v2=15
sem_mpo_brand_w2=14
sem_qty_w1=14
site_total_add_to_carts_w2=14
sem_ctr_v9=13
site_total_add_to_carts_w1=13
site_convrt_w2=12
sem_adspend_v2=11
bc_visits_w2=11
sem_clicks_v2=10
is_mobile=9
sem_orders_brand_w2=9
site_total_page_views_w1=9
site_convrt_w1=9
site_rpv_w1=9
bc_bounce_rate_w2=9
bc_bounce_rate_w1=9
sem_gmv_revenue_adjustment_brand_w2=8
sem_cpc_w2=8
sem_ordersize_brand_w2=8
sem_adspend_w1=8
sem_cpc_v4=8
site_total_page_views_w2=8
bc_bounces_w2=8
bc_sem_bounce_rate_w2=8
bc_visits_w1=8
sem_ctr_w2=7
sem_rpc_brand_w2=7
sem_mpc_brand_w2=7
uber_price_change_value_w1=7
bc_sem_bounce_rate_w1=7
sem_gmv_revenue_adjustment_brand_w1=6
sem_cpc_w1=6
sem_ctr_v2=6
sem_ctr_v3=6
site_total_orders_w1=6
bc_sem_visits_w2=6
sem_ordersize_brand_w1=5
sem_mpc_brand_w1=5
sem_cpc_v2=5
sem_roas_brand_v2=5
sem_adspend_v3=5
sem_rpc_brand_v4=5
sem_adspend_v5=5
sem_cpc_v9=5
sem_ctr_v12=5
sem_clicks_w2=4
sem_margin_brand_w2=4
sem_convrt_brand_w2=4
sem_margin_brand_w1=4
sem_cpc_v3=4
sem_convrt_brand_v3=4
sem_impressions_v4=4
sem_qty_v4=4
sem_mpc_brand_v4=4
sem_mpo_brand_v4=4
sem_ctr_v5=4
sem_adspend_v12=4
bc_bounces_w1=4
sem_roas_brand_w2=3
sem_clicks_w1=3
sem_rpc_brand_w1=3
sem_mpo_brand_w1=3
sem_ordersize_brand_v2=3
sem_orders_brand_v3=3
sem_margin_brand_v3=3
sem_adspend_v4=3
sem_ctr_v4=3
sem_ordersize_brand_v4=3
sem_margin_brand_v5=3
sem_cpc_v5=3
sem_rpc_brand_v5=3
sem_mpo_brand_v5=3
sem_clicks_v12=3
site_total_revenue_w1=3
bc_sem_visits_w1=3
sem_margin_brand_v2=2
sem_rpc_brand_v2=2
sem_mpc_brand_v2=2
sem_impressions_v3=2
sem_gmv_revenue_adjustment_brand_v3=2
sem_mpc_brand_v3=2
sem_margin_brand_v4=2
sem_roas_brand_v4=2
sem_impressions_v5=2
sem_gmv_revenue_adjustment_brand_v5=2
sem_clicks_v9=2
sem_qty_v12=2
sem_cpc_v12=2
uber_avg_overall_rating_w1=2
sem_qty_w2=1
sem_orders_brand_w1=1
sem_convrt_brand_w1=1
sem_orders_brand_v2=1
sem_convrt_brand_v2=1
sem_mpo_brand_v2=1
sem_clicks_v3=1
sem_roas_brand_v3=1
sem_ordersize_brand_v3=1
sem_mpo_brand_v3=1
sem_convrt_brand_v4=1
sem_clicks_v5=1
sem_convrt_brand_v5=1
sem_mpc_brand_v5=1
sem_impressions_v9=1
sem_adspend_v9=1
sem_roas_brand_v9=1
sem_impressions_v12=1
sem_convrt_brand_v12=1
sem_mpc_brand_v12=1
sem_convrt_brand_v18=1
bc_sem_bounces_w2=1

parameters:
[boosting: gbdt]
[objective: regression]
[metric: rmse]
[tree_learner: serial]
[device_type: cpu]
[data: ]
[valid: ]
[num_iterations: 4000]
[learning_rate: 0.02]
[num_leaves: 63]
[num_threads: -1]
[deterministic: 0]
[force_col_wise: 0]
[force_row_wise: 0]
[histogram_pool_size: -1]
[max_depth: 10]
[min_data_in_leaf: 20]
[min_sum_hessian_in_leaf: 0.001]
[bagging_fraction: 0.9]
[pos_bagging_fraction: 1]
[neg_bagging_fraction: 1]
[bagging_freq: 10]
[bagging_seed: 400]
[feature_fraction: 0.33]
[feature_fraction_bynode: 1]
[feature_fraction_seed: 30056]
[extra_trees: 0]
[extra_seed: 12879]
[early_stopping_round: 200]
[first_metric_only: 0]
[max_delta_step: 0]
[lambda_l1: 0]
[lambda_l2: 0]
[linear_lambda: 0]
[min_gain_to_split: 0]
[drop_rate: 0.1]
[max_drop: 50]
[skip_drop: 0.5]
[xgboost_dart_mode: 0]
[uniform_drop: 0]
[drop_seed: 17869]
[top_rate: 0.2]
[other_rate: 0.1]
[min_data_per_group: 100]
[max_cat_threshold: 32]
[cat_l2: 10]
[cat_smooth: 10]
[max_cat_to_onehot: 4]
[top_k: 20]
[monotone_constraints: ]
[monotone_constraints_method: basic]
[monotone_penalty: 0]
[feature_contri: ]
[forcedsplits_filename: ]
[refit_decay_rate: 0.9]
[cegb_tradeoff: 1]
[cegb_penalty_split: 0]
[cegb_penalty_feature_lazy: ]
[cegb_penalty_feature_coupled: ]
[path_smooth: 0]
[interaction_constraints: ]
[verbosity: -1]
[saved_feature_importance_type: 0]
[linear_tree: 0]
[max_bin: 255]
[max_bin_by_feature: ]
[min_data_in_bin: 3]
[bin_construct_sample_cnt: 200000]
[data_random_seed: 175]
[is_enable_sparse: 1]
[enable_bundle: 1]
[use_missing: 1]
[zero_as_missing: 0]
[feature_pre_filter: 1]
[pre_partition: 0]
[two_round: 0]
[header: 0]
[label_column: ]
[weight_column: ]
[group_column: ]
[ignore_column: ]
[categorical_feature: ]
[forcedbins_filename: ]
[precise_float_parser: 0]
[objective_seed: 16083]
[num_class: 1]
[is_unbalance: 0]
[scale_pos_weight: 1]
[sigmoid: 1]
[boost_from_average: 1]
[reg_sqrt: 0]
[alpha: 0.9]
[fair_c: 1]
[poisson_max_delta_step: 0.7]
[tweedie_variance_power: 1.5]
[lambdarank_truncation_level: 30]
[lambdarank_norm: 1]
[label_gain: ]
[eval_at: ]
[multi_error_top_k: 1]
[auc_mu_weights: ]
[num_machines: 1]
[local_listen_port: 12400]
[time_out: 120]
[machine_list_filename: ]
[machines: ]
[gpu_platform_id: -1]
[gpu_device_id: -1]
[gpu_use_dp: 0]
[num_gpu: 1]

end of parameters

pandas_categorical:[]
