tree
version=v3
num_class=1
num_tree_per_iteration=1
label_index=0
max_feature_idx=169
objective=regression
feature_names=is_mobile sem_impressions_w2 sem_clicks_w2 sem_adspend_w2 sem_qty_w2 sem_gmv_revenue_adjustment_seller_w2 sem_orders_seller_w2 sem_margin_seller_w2 sem_ctr_w2 sem_cpc_w2 sem_rpc_seller_w2 sem_roas_seller_w2 sem_convrt_seller_w2 sem_ordersize_seller_w2 sem_mpc_seller_w2 sem_mpo_seller_w2 sem_impressions_w1 sem_clicks_w1 sem_adspend_w1 sem_qty_w1 sem_gmv_revenue_adjustment_seller_w1 sem_orders_seller_w1 sem_margin_seller_w1 sem_ctr_w1 sem_cpc_w1 sem_rpc_seller_w1 sem_roas_seller_w1 sem_convrt_seller_w1 sem_ordersize_seller_w1 sem_mpc_seller_w1 sem_mpo_seller_w1 sem_impressions_v2 sem_clicks_v2 sem_adspend_v2 sem_qty_v2 sem_gmv_revenue_adjustment_seller_v2 sem_orders_seller_v2 sem_margin_seller_v2 sem_ctr_v2 sem_cpc_v2 sem_rpc_seller_v2 sem_roas_seller_v2 sem_convrt_seller_v2 sem_ordersize_seller_v2 sem_mpc_seller_v2 sem_mpo_seller_v2 sem_impressions_v3 sem_clicks_v3 sem_adspend_v3 sem_qty_v3 sem_gmv_revenue_adjustment_seller_v3 sem_orders_seller_v3 sem_margin_seller_v3 sem_ctr_v3 sem_cpc_v3 sem_rpc_seller_v3 sem_roas_seller_v3 sem_convrt_seller_v3 sem_ordersize_seller_v3 sem_mpc_seller_v3 sem_mpo_seller_v3 sem_impressions_v4 sem_clicks_v4 sem_adspend_v4 sem_qty_v4 sem_gmv_revenue_adjustment_seller_v4 sem_orders_seller_v4 sem_margin_seller_v4 sem_ctr_v4 sem_cpc_v4 sem_rpc_seller_v4 sem_roas_seller_v4 sem_convrt_seller_v4 sem_ordersize_seller_v4 sem_mpc_seller_v4 sem_mpo_seller_v4 sem_impressions_v5 sem_clicks_v5 sem_adspend_v5 sem_qty_v5 sem_gmv_revenue_adjustment_seller_v5 sem_orders_seller_v5 sem_margin_seller_v5 sem_ctr_v5 sem_cpc_v5 sem_rpc_seller_v5 sem_roas_seller_v5 sem_convrt_seller_v5 sem_ordersize_seller_v5 sem_mpc_seller_v5 sem_mpo_seller_v5 sem_impressions_v9 sem_clicks_v9 sem_adspend_v9 sem_qty_v9 sem_gmv_revenue_adjustment_seller_v9 sem_orders_seller_v9 sem_margin_seller_v9 sem_ctr_v9 sem_cpc_v9 sem_rpc_seller_v9 sem_roas_seller_v9 sem_convrt_seller_v9 sem_ordersize_seller_v9 sem_mpc_seller_v9 sem_mpo_seller_v9 sem_impressions_v12 sem_clicks_v12 sem_adspend_v12 sem_qty_v12 sem_gmv_revenue_adjustment_seller_v12 sem_orders_seller_v12 sem_margin_seller_v12 sem_ctr_v12 sem_cpc_v12 sem_rpc_seller_v12 sem_roas_seller_v12 sem_convrt_seller_v12 sem_ordersize_seller_v12 sem_mpc_seller_v12 sem_mpo_seller_v12 sem_impressions_v18 sem_clicks_v18 sem_adspend_v18 sem_qty_v18 sem_gmv_revenue_adjustment_seller_v18 sem_orders_seller_v18 sem_margin_seller_v18 sem_ctr_v18 sem_cpc_v18 sem_rpc_seller_v18 sem_roas_seller_v18 sem_convrt_seller_v18 sem_ordersize_seller_v18 sem_mpc_seller_v18 sem_mpo_seller_v18 uber_curr_item_price_w1 uber_num_appr_reviews_w1 uber_avg_overall_rating_w1 uber_price_change_ratio_w1 uber_price_change_value_w1 uber_avg_margin_w1 site_total_page_views_w2 site_total_add_to_carts_w2 site_total_orders_w2 site_total_revenue_w2 site_atcpv_w2 site_convrt_w2 site_rpv_w2 site_mpv_w2 site_total_page_views_w1 site_total_add_to_carts_w1 site_total_orders_w1 site_total_revenue_w1 site_atcpv_w1 site_convrt_w1 site_rpv_w1 site_mpv_w1 bc_bounces_w2 bc_visits_w2 bc_bounce_rate_w2 bc_sem_bounces_w2 bc_sem_visits_w2 bc_sem_bounce_rate_w2 bc_bounces_w1 bc_visits_w1 bc_bounce_rate_w1 bc_sem_bounces_w1 bc_sem_visits_w1 bc_sem_bounce_rate_w1
feature_infos=[0:1] [0:8820.1428571428569] [0:61.642857142857139] [0:76.372142857142862] [-2.2857142857142856:12.5] [0:199.9428571] [0:6] [-99.246428571428581:199.94285714285712] [0.001865671641791045:2] [0.01:1.3300000000000001] [0:1399.5999999999999] [0:54676] [0:75] [0.17000000000000001:3499] [-581.82999999999981:1399.5999999999999] [-1759.0207020702067:3498.9999999999995] [0:10146.142857142857] [0:69] [0:86.49857142857141] [-4.5714285714285712:15.285714285714285] [0:107] [0:12] [-164.69571428571427:107] [0.0019243104554201411:2] [0.01:1.2536024844720497] [0:749] [0:8763.1566666666677] [0:75] [0.17000000000000001:924.67999999999995] [-1152.8699999999999:749] [-1410.4608460846084:924.67999999999995] [0:9227.8571428571431] [0:90.214285714285722] [0:50.075000000000003] [-20.571428571428573:11.428571428571427] [0:199.9428571] [0:8.5405856999999994] [-94.81107142857141:199.94285714285712] [0.00069613644274277764:2] [0.01:1.3300000000000001] [0:1399.5999999999999] [0:54676] [0:43] [0.96999999999999997:3499] [-581.82999999999981:1399.5999999999999] [-5727.884223155369:3498.9999999999995] [0:22102] [0:180.57142857142856] [0:138.78357142857143] [-20.571428571428573:21.428571428571427] [0:149.45016430000001] [0:11.4001929] [-221.52628571428573:89.997142857142862] [0.00078911027816137304:2] [0.01:1.8999999999999999] [0:1184.95] [0:15558.000000000002] [0:23.5] [0.96999999999999997:1259.96] [-489.25999999999999:1184.95] [-7753.420000000001:1259.96] [0:15216.785714285714] [0:346.64285714285722] [0:158.97285714285712] [-6.7142857142857135:49.642857142857139] [0:187.93115] [0:9.0709856999999996] [-254.76626428571427:112.23879285714285] [0.0011369019422074846:2] [0.01:1.8999999999999999] [0:1184.95] [0:15558.000000000002] [0:50] [1.3972509340820001:1259.96] [-535.21000000000004:1184.95] [-8188.7346938775509:1259.96] [0:23378] [0:414.5] [0:170.93357142857144] [-5.6428571428571423:87.285714285714306] [0:180.45697139999999] [0:11.558578600000001] [-483.21702142857146:95.54285714285713] [0.00092843326885880078:2] [0.01:1.71] [0:1149.99] [0:8276] [0:50] [0:1244.95] [-535.21000000000004:1149.99] [-3290.0900000000001:1244.95] [0:50352.916666666657] [0:1567.916666666667] [0:819.79750000000001] [-8.1666666666666661:215.58333333333329] [0:150.03999999999999] [0:5.25] [-1252.4245416666668:150.03999999999999] [0.00097925754473426516:2] [0.010000000000000002:4.0449999999999999] [0:1800.48] [0:180048] [0:25.5] [0.96999999999999997:1800.48] [-1508.22:1800.48] [-5007.5157421289359:1800.48] [0:33826.571428571428] [0:405.14285714285722] [0:374.94357142857137] [-1.1428571428571428:65.142857142857139] [0:183.54607139999999] [0:6.7931429000000003] [-298.19857142857148:123.5] [0.00047862156987874921:2] [0.01:1.3411111111111111] [0:576.33333333333314] [0:20994] [0:16] [0.95999999999999996:1729] [-774.75:576.33333333333337] [-2916.3769507803117:1729] [0:18705.785714285714] [0:39.071428571428569] [0:47.362857142857145] [-2.3571428571428572:13.642857142857142] [0:73.563571400000001] [0:1.7857143] [-54.609285714285718:39.242857142857147] [0.00010691879135943424:2] [0.010000000000000002:3.4004102564102565] [0:173.74000000000001] [0:10082] [0:25] [3.2628894698500002:1029.8900000000001] [-381.47859999999997:173.74000000000001] [-2669.5493351994405:694.96000000000004] [0:35599] [0:0] [0:5] [0.99999999999999978:1.0000000000000002] [-3.637978807091713e-12:3.637978807091713e-12] [0:35599] [1:247515] [1:15897] [1:480274] [0:3746614.800000058] [6.4779426054285166e-05:5] [4.2027401866016636e-05:11.872890240067091] [0:420.99000000000001] none [1:108400] [1:8534] [1:240111] [0:2094288.6500000104] [0.00014245014245014244:4] [0.00010602767322271112:12.275502799087706] [0:711.47000000000003] none [0:34061] [1:79786] [0:1] [0:388] [0:1277] [0:1] [0:21907] [1:46692] [0:1] [0:208] [0:718] [0:1]
tree_sizes=6719

Tree=0
num_leaves=63
num_cat=0
split_feature=99 114 143 143 160 80 160 136 47 40 5 42 114 106 59 69 48 106 99 48 160 160 16 114 99 69 1 16 98 23 136 93 167 160 160 99 98 48 47 136 38 82 167 5 98 1 16 1 48 136 160 93 143 1 1 1 1 16 1 1 1 1
split_gain=163.963 5645.67 113.452 424.168 87.8629 571.862 424.992 61.7381 94.0507 57.7944 42.5829 31.4563 98.9572 210.552 43.0918 109.904 890.983 37.5259 33.5613 33.3625 99.7426 1446.93 31.6593 26.4436 59.3869 21.1628 15.8848 14.0291 10.3921 8.57146 6.66982 15.3129 6.20418 5.94106 40.0229 8.92516 10.2002 5.04132 5.4723 2.46563 29.6178 2.8816 2.1145 4.15158 5.53176 2.04303 2.12161 0.798993 0.60901 0.541366 0.487431 0.360804 0.0620971 0.0720022 8.88178e-16 2.22045e-16 1.11022e-16 2.22045e-16 1.11022e-16 1.11022e-16 1.11022e-16 1.11022e-16
threshold=0.075441176470588248 0.21947368421052635 869.50000000000011 1013.0000000000001 0.038512101395536978 1.0000000180025095e-35 0.025668298746729025 2.4650000000000003 0.8928571428571429 3.0140739898989906 15.759285700000001 0.011444505494505501 0.85375000000000012 12.750000000000002 -1.0000000180025095e-35 0.1055 0.014642857142857145 153.67857142857147 0.73236111111111113 0.025357142857142863 0.63650013650013659 0.64293886891140917 487.28571428571439 0.18690476190476193 0.27833333333333338 0.23348484848484849 714.60714285714289 2.2142857142857149 0.022738588489258731 0.32666666666666672 633.94500000000005 0.042083333333333341 11.500000000000002 0.88847429519071319 0.90035460992907812 0.06982142857142859 0.05577777777777778 0.024285714285714289 0.17857142857142858 3.7450000000000006 0.01430276167746335 -12.262499999999998 1.5000000000000002 3.9907143000000009 0.14434523809523811 0.53571428571428581 0.92857142857142871 553.46428571428589 0.12607142857142858 739.97000000000014 0.59992841803865438 0.32750000000000007 91.500000000000014 27.000000000000004 2212.1071428571436 0.60714285714285732 91.964285714285722 19.071428571428573 91.964285714285722 9.7500000000000018 0.3928571428571429 1.1071428571428574
decision_type=8 10 10 10 8 8 8 8 10 10 10 8 10 10 10 8 10 10 10 8 10 8 10 8 10 10 10 8 10 10 10 8 10 10 10 10 8 8 8 8 10 8 10 8 8 8 10 10 8 8 10 10 10 10 10 10 10 10 10 10 10 8
left_child=1 4 7 -4 5 -1 -7 8 29 11 56 19 14 -14 18 16 -16 22 23 20 26 -22 -17 24 -13 27 37 -23 -20 45 39 -32 -25 42 -35 -36 -37 50 -39 40 -21 -41 52 47 51 46 -2 -44 -43 -33 -9 -45 55 -54 -42 -6 57 -11 59 -47 -51 -57
right_child=2 -3 3 -5 33 6 -8 9 -10 10 -12 12 13 -15 15 17 -18 -19 28 30 21 25 -24 32 -26 -27 -28 -29 -30 -31 31 49 -34 34 35 36 -38 38 -40 41 54 48 43 44 -46 58 -48 -49 -50 60 -52 -53 53 -55 -56 61 -58 -59 -60 -61 -62 -63
leaf_value=1.6348291855716166 0.28222929255003776 2.0903093740130196 0.72091682045897998 0.28222929238376621 0.28222929253437262 0.28222929254586659 1.4014292612367321 0.2828176525903866 0.39710451228323851 0.28222929254698959 0.34287230455272666 0.29727121998269818 0.94717929870943229 0.28222929253022488 0.28222929254394147 0.28544737277512988 1.4819292976924245 0.44218930184181016 0.32678119110657561 0.33464499861371877 1.7581292132341495 0.35899004244097005 0.3062969027412103 0.28620359294616432 0.50197928889899823 0.35980929415471846 0.30154636457205231 0.28222929249392109 0.28222929254123197 0.44059529692617977 0.3465125763159595 0.29031886296994197 0.31261329149140477 0.64222930871779571 0.2822292925500377 0.28222929255003776 0.52122928170199134 0.2822292925500377 0.35369595658490205 0.28522886669643432 0.28222929244722783 0.2839813978371164 0.2822292924793563 0.32717929245094468 0.45712928609336489 0.2822292925478363 0.39122929108972326 0.29709825316827332 0.28254439832356049 0.28222929236706124 0.28967232508646612 0.28222929255003776 0.28222929253784518 0.28779852341061868 0.28222929276132291 0.28222929254013129 0.2822292925500377 0.28222929235484939 0.2822292925500377 0.28222929259057861 0.28222929254394147 0.282229292532094
leaf_weight=0.1428571492433548 0.1428571492433548 0.71428573131561179 1.1428571939468373 3.8571429699659348 14.571429118514066 2.71428582072258 0.14285714924335469 65.857144445180893 5.1428570747375488 3.7142858654260662 12.714285373687742 71.000002294778824 0.2857142984867086 0.571428582072258 1.8571429252624514 53.571429327130318 0.28571429848670948 0.71428573131561179 11.285714149475096 4.8571429252624503 0.28571429848670682 1.142857179045677 63.857143759727478 953.00002337992191 0.571428582072257 2.8571429252624512 29.285715103149414 5.7142859399318695 2.5714286565780631 0.14285714924335469 1.9999999999999998 23.285715103149421 3.5714286863803855 0.14285714924335424 2.0000000894069676 0.1428571492433548 0.14285714924335469 0.85714289546012878 0.85714286565780529 235.57143360376358 4.0000000298023215 138.28571680188179 2.4285715073347092 0.1428571492433548 0.1428571492433538 5.1428573578596097 0.1428571492433548 3.5714285373687744 803.00000159442425 1.9999999999999993 4.4285715222358695 0.1428571492433548 1.8571429103612891 1.8571428060531616 34.428569793701172 1.142857179045677 0.28571429848670948 3.2857143729925156 0.28571429848670948 1.9999999999999998 1.8571429252624509 7.5714287310838682
leaf_count=16 181 92 55 281 8218 1097 23 19053 17 1177 20 32708 81 40 1658 15663 73 46 112 3 32 23 5 227355 101 44 1 3108 427 84 18 82 185 20 542 6 81 231 21 99 317 6043 50 167 91 1558 8 1 37361 250 394 2 193 1 1 71 2 8 1 8 211 139
internal_value=0.287989 0.328349 0.287325 0.382501 0.29596 0.399934 0.338189 0.287139 0.330613 0.286917 0.320781 0.286648 0.289063 0.503879 0.288905 0.300239 0.442189 0.297664 0.287596 0.284584 0.295077 0.355336 0.296785 0.28718 0.298906 0.314078 0.289127 0.295023 0.318514 0.28709 0.283649 0.293105 0.286302 0.287261 0.317465 0.297167 0.401729 0.284076 0.317963 0.283423 0.288111 0.283251 0.285067 0.295375 0.355513 0.284248 0.336729 0.29108 0.282756 0.289169 0.28325 0.304704 0.282612 0.285014 0.282229 0.282229 0.282229 0.282229 0.282229 0.282229 0.282229 0.282229
internal_weight=0 39.5714 2561.71 5 38.8571 3 2.85714 2556.71 13 2543.71 20 2523.71 1163.14 0.857143 1162.29 120.286 2.14286 118.143 1042 1360.57 111.286 10 117.429 1028.14 71.5714 9.71429 101.286 6.85714 13.8571 7.85714 1249.29 29.1429 956.571 35.8571 2.42857 2.28571 0.285714 72 1.71429 1220.14 43.2857 1176.86 33.4286 6.42857 0.428571 7.71429 0.285714 6 941.286 27.1429 70.2857 0.285714 27 3.71429 38.4286 23.2857 7.28571 7 7.42857 7.14286 3.85714 8.71429
internal_count=359956 10810 349146 336 10718 1136 1120 348810 1857 346953 1207 345746 278454 121 278333 17445 1731 15714 260888 67292 22907 3207 15668 260349 32809 3175 19700 3131 539 1840 44385 561 227540 9582 649 629 87 19699 252 43824 321 43503 8933 311 260 1756 189 51 43404 543 19447 169 8622 194 318 8428 1187 1185 1567 1566 461 210
is_linear=0
shrinkage=1


end of trees

feature_importances:
sem_impressions_w2=11
bc_bounce_rate_w2=7
sem_impressions_w1=4
sem_adspend_v3=4
sem_cpc_v9=4
uber_curr_item_price_w1=4
sem_ctr_v9=3
sem_cpc_v12=3
site_total_add_to_carts_w2=3
sem_gmv_revenue_adjustment_seller_w2=2
sem_clicks_v3=2
sem_cpc_v4=2
sem_adspend_v9=2
sem_impressions_v12=2
bc_sem_bounces_w1=2
sem_ctr_w1=1
sem_ctr_v2=1
sem_rpc_seller_v2=1
sem_convrt_seller_v2=1
sem_mpc_seller_v3=1
sem_gmv_revenue_adjustment_seller_v5=1
sem_margin_seller_v5=1

parameters:
[boosting: gbdt]
[objective: regression]
[metric: rmse]
[tree_learner: serial]
[device_type: cpu]
[data: ]
[valid: ]
[num_iterations: 4000]
[learning_rate: 0.02]
[num_leaves: 63]
[num_threads: -1]
[deterministic: 0]
[force_col_wise: 0]
[force_row_wise: 0]
[histogram_pool_size: -1]
[max_depth: 10]
[min_data_in_leaf: 20]
[min_sum_hessian_in_leaf: 0.001]
[bagging_fraction: 0.9]
[pos_bagging_fraction: 1]
[neg_bagging_fraction: 1]
[bagging_freq: 10]
[bagging_seed: 400]
[feature_fraction: 0.33]
[feature_fraction_bynode: 1]
[feature_fraction_seed: 30056]
[extra_trees: 0]
[extra_seed: 12879]
[early_stopping_round: 200]
[first_metric_only: 0]
[max_delta_step: 0]
[lambda_l1: 0]
[lambda_l2: 0]
[linear_lambda: 0]
[min_gain_to_split: 0]
[drop_rate: 0.1]
[max_drop: 50]
[skip_drop: 0.5]
[xgboost_dart_mode: 0]
[uniform_drop: 0]
[drop_seed: 17869]
[top_rate: 0.2]
[other_rate: 0.1]
[min_data_per_group: 100]
[max_cat_threshold: 32]
[cat_l2: 10]
[cat_smooth: 10]
[max_cat_to_onehot: 4]
[top_k: 20]
[monotone_constraints: ]
[monotone_constraints_method: basic]
[monotone_penalty: 0]
[feature_contri: ]
[forcedsplits_filename: ]
[refit_decay_rate: 0.9]
[cegb_tradeoff: 1]
[cegb_penalty_split: 0]
[cegb_penalty_feature_lazy: ]
[cegb_penalty_feature_coupled: ]
[path_smooth: 0]
[interaction_constraints: ]
[verbosity: -1]
[saved_feature_importance_type: 0]
[linear_tree: 0]
[max_bin: 255]
[max_bin_by_feature: ]
[min_data_in_bin: 3]
[bin_construct_sample_cnt: 200000]
[data_random_seed: 175]
[is_enable_sparse: 1]
[enable_bundle: 1]
[use_missing: 1]
[zero_as_missing: 0]
[feature_pre_filter: 1]
[pre_partition: 0]
[two_round: 0]
[header: 0]
[label_column: ]
[weight_column: ]
[group_column: ]
[ignore_column: ]
[categorical_feature: ]
[forcedbins_filename: ]
[precise_float_parser: 0]
[objective_seed: 16083]
[num_class: 1]
[is_unbalance: 0]
[scale_pos_weight: 1]
[sigmoid: 1]
[boost_from_average: 1]
[reg_sqrt: 0]
[alpha: 0.9]
[fair_c: 1]
[poisson_max_delta_step: 0.7]
[tweedie_variance_power: 1.5]
[lambdarank_truncation_level: 30]
[lambdarank_norm: 1]
[label_gain: ]
[eval_at: ]
[multi_error_top_k: 1]
[auc_mu_weights: ]
[num_machines: 1]
[local_listen_port: 12400]
[time_out: 120]
[machine_list_filename: ]
[machines: ]
[gpu_platform_id: -1]
[gpu_device_id: -1]
[gpu_use_dp: 0]
[num_gpu: 1]

end of parameters

pandas_categorical:[]
