tree
version=v3
num_class=1
num_tree_per_iteration=1
label_index=0
max_feature_idx=169
objective=regression
feature_names=is_mobile sem_impressions_w2 sem_clicks_w2 sem_adspend_w2 sem_qty_w2 sem_gmv_revenue_adjustment_seller_w2 sem_orders_seller_w2 sem_margin_seller_w2 sem_ctr_w2 sem_cpc_w2 sem_rpc_seller_w2 sem_roas_seller_w2 sem_convrt_seller_w2 sem_ordersize_seller_w2 sem_mpc_seller_w2 sem_mpo_seller_w2 sem_impressions_w1 sem_clicks_w1 sem_adspend_w1 sem_qty_w1 sem_gmv_revenue_adjustment_seller_w1 sem_orders_seller_w1 sem_margin_seller_w1 sem_ctr_w1 sem_cpc_w1 sem_rpc_seller_w1 sem_roas_seller_w1 sem_convrt_seller_w1 sem_ordersize_seller_w1 sem_mpc_seller_w1 sem_mpo_seller_w1 sem_impressions_v2 sem_clicks_v2 sem_adspend_v2 sem_qty_v2 sem_gmv_revenue_adjustment_seller_v2 sem_orders_seller_v2 sem_margin_seller_v2 sem_ctr_v2 sem_cpc_v2 sem_rpc_seller_v2 sem_roas_seller_v2 sem_convrt_seller_v2 sem_ordersize_seller_v2 sem_mpc_seller_v2 sem_mpo_seller_v2 sem_impressions_v3 sem_clicks_v3 sem_adspend_v3 sem_qty_v3 sem_gmv_revenue_adjustment_seller_v3 sem_orders_seller_v3 sem_margin_seller_v3 sem_ctr_v3 sem_cpc_v3 sem_rpc_seller_v3 sem_roas_seller_v3 sem_convrt_seller_v3 sem_ordersize_seller_v3 sem_mpc_seller_v3 sem_mpo_seller_v3 sem_impressions_v4 sem_clicks_v4 sem_adspend_v4 sem_qty_v4 sem_gmv_revenue_adjustment_seller_v4 sem_orders_seller_v4 sem_margin_seller_v4 sem_ctr_v4 sem_cpc_v4 sem_rpc_seller_v4 sem_roas_seller_v4 sem_convrt_seller_v4 sem_ordersize_seller_v4 sem_mpc_seller_v4 sem_mpo_seller_v4 sem_impressions_v5 sem_clicks_v5 sem_adspend_v5 sem_qty_v5 sem_gmv_revenue_adjustment_seller_v5 sem_orders_seller_v5 sem_margin_seller_v5 sem_ctr_v5 sem_cpc_v5 sem_rpc_seller_v5 sem_roas_seller_v5 sem_convrt_seller_v5 sem_ordersize_seller_v5 sem_mpc_seller_v5 sem_mpo_seller_v5 sem_impressions_v9 sem_clicks_v9 sem_adspend_v9 sem_qty_v9 sem_gmv_revenue_adjustment_seller_v9 sem_orders_seller_v9 sem_margin_seller_v9 sem_ctr_v9 sem_cpc_v9 sem_rpc_seller_v9 sem_roas_seller_v9 sem_convrt_seller_v9 sem_ordersize_seller_v9 sem_mpc_seller_v9 sem_mpo_seller_v9 sem_impressions_v12 sem_clicks_v12 sem_adspend_v12 sem_qty_v12 sem_gmv_revenue_adjustment_seller_v12 sem_orders_seller_v12 sem_margin_seller_v12 sem_ctr_v12 sem_cpc_v12 sem_rpc_seller_v12 sem_roas_seller_v12 sem_convrt_seller_v12 sem_ordersize_seller_v12 sem_mpc_seller_v12 sem_mpo_seller_v12 sem_impressions_v18 sem_clicks_v18 sem_adspend_v18 sem_qty_v18 sem_gmv_revenue_adjustment_seller_v18 sem_orders_seller_v18 sem_margin_seller_v18 sem_ctr_v18 sem_cpc_v18 sem_rpc_seller_v18 sem_roas_seller_v18 sem_convrt_seller_v18 sem_ordersize_seller_v18 sem_mpc_seller_v18 sem_mpo_seller_v18 uber_curr_item_price_w1 uber_num_appr_reviews_w1 uber_avg_overall_rating_w1 uber_price_change_ratio_w1 uber_price_change_value_w1 uber_avg_margin_w1 site_total_page_views_w2 site_total_add_to_carts_w2 site_total_orders_w2 site_total_revenue_w2 site_atcpv_w2 site_convrt_w2 site_rpv_w2 site_mpv_w2 site_total_page_views_w1 site_total_add_to_carts_w1 site_total_orders_w1 site_total_revenue_w1 site_atcpv_w1 site_convrt_w1 site_rpv_w1 site_mpv_w1 bc_bounces_w2 bc_visits_w2 bc_bounce_rate_w2 bc_sem_bounces_w2 bc_sem_visits_w2 bc_sem_bounce_rate_w2 bc_bounces_w1 bc_visits_w1 bc_bounce_rate_w1 bc_sem_bounces_w1 bc_sem_visits_w1 bc_sem_bounce_rate_w1
feature_infos=[0:1] [0:3526.5] [0:50.642857142857139] [0:33.460714285714289] [-20.571428571428573:12.5] [0:199.9428571] [0:4.1904785999999996] [-280.18428571428569:199.94285714285712] [0.001865671641791045:2] [0.010000000000000002:1.26] [0:1399.5999999999999] [0:54676] [0:58.666699999999999] [1.48:4228.4399999999996] [-1307.5266666666666:1399.5999999999999] [-1759.0207020702067:4228.4399999999996] [0:3204.4285714285716] [0:57] [0:39.291428571428568] [-4.5714285714285712:15.285714285714285] [0:302.031429] [0:8.3809570000000004] [-560.36857142857139:302.03142857142848] [0.0018726591760299626:2] [0.01:1.3899999999999999] [0:1057.1099999999999] [0:47880.68] [0:58.666699999999999] [1.53:4228.4399999999996] [-3922.5799999999999:1057.1099999999999] [-1410.4608460846084:4228.4399999999996] [0:11126.571428571433] [0:114] [0:55.597142857142856] [-20.571428571428573:11.428571428571427] [0:199.9428571] [0:8.5405856999999994] [-69.894285714285715:199.94285714285712] [0.00069613644274277764:2] [0.01:1.46] [0:1399.5999999999999] [0:54676] [0:38.5] [1.48:3499] [-489.25999999999999:1399.5999999999999] [-5727.884223155369:3498.9999999999995] [0:22102] [0:208] [0:185.71071428571429] [-3.1428571428571432:15.214285714285715] [0:331.89882139999997] [0:11.4001929] [-74.910714285714292:176.19596428571427] [0.00078911027816137304:2] [0.01:1.46] [0:1599.99] [0:28115] [0:49] [2.237410071942:1599.99] [-489.25999999999999:1599.99] [-4805.2400000000016:1599.99] [0:28695.857142857134] [0:292.35714285714283] [0:302.50999999999993] [-6.7142857142857135:22.928571428571431] [0:250.6686] [0:8.5497143000000015] [-127.13537142857142:114.285] [0.0011369019422074846:2] [0.01:1.76] [0:1599.99] [0:26123] [0:49] [1.22:1599.99] [-567.84000000000003:1599.99] [-8188.7346938775509:6526.5172413793116] [0:25327.785714285717] [0:414.5] [0:275.45642857142855] [-5.6428571428571423:87.285714285714306] [0:361.41633569999999] [0:7.8888999999999996] [-483.21702142857146:199.68062142857136] [0.00092843326885880078:2] [0.01:1.71] [0:622.47500000000002] [0:16791] [0:32] [1.22:1244.95] [-567.84000000000003:622.47500000000002] [-3042.1273617914626:1244.95] [0:50352.916666666657] [0:1567.916666666667] [0:819.79750000000001] [-3.25:215.58333333333329] [0:300.41939170000001] [0:8.2013917000000003] [-1252.4245416666668:193.36022500000004] [0.00056116722783389455:2] [0.010000000000000002:4.0449999999999999] [0:1379.9400000000001] [0:30051] [0:25.5] [0.96999999999999997:968.52999999999997] [-452.75:1379.9400000000001] [-3299.0373386601109:964.96000000000004] [0:33826.571428571428] [0:705.42857142857133] [0:374.94357142857137] [-2.1428571428571428:99.571428571428569] [0:183.54607139999999] [0:7.7049285999999997] [-452.05108571428565:81.42714285714284] [0.00055731005015790451:2] [0.01:1.7533333333333332] [0:1139.98] [0:113998] [0:26] [0.99279927992799999:1253.0054005400541] [-774.75:1139.98] [-4499.4244120940648:1253.0054005400541] [0:4534.7857142857147] [0:209.64285714285717] [0:50.815000000000012] [-0.7857142857142857:39.214285714285715] [0:174.10204999999999] [0:4.2538714000000004] [-210.45987857142865:106.49919285714284] [0.0027379257474537291:2] [0.01:3.4004102564102565] [0:324.88] [0:32488] [0:23] [3.8504073643000001:1029.8900000000001] [-327.12:173.74000000000001] [-764.53000000000031:694.96000000000004] [0:39999.989999999998] [0:0] [0:5] [0.99999999999999978:1.0000000000000002] [-3.637978807091713e-12:1.8189894035458565e-12] [0:39999.989999999998] [1:327053] [1:25257] [1:480274] [0:3746614.800000058] [6.4779426054285166e-05:5] [3.7661095335296729e-05:12.415073775989267] [0:274.29599999999999] none [1:140791] [1:10698] [1:240111] [0:2094288.6500000104] [0.00014245014245014244:5] [5.156446589526226e-05:12.116431226765801] [0:246.17352941176469] none [0:85497] [1:184569] [0:1] [0:1113] [0:2499] [0:1] [0:37718] [1:79202] [0:1] [0:421] [0:1022] [0:1]
tree_sizes=5512

Tree=0
num_leaves=51
num_cat=0
split_feature=25 38 136 1 99 114 143 13 94 94 160 165 136 136 106 40 110 98 136 47 59 37 1 1 165 165 160 160 136 114 136 23 1 1 160 160 23 1 1 1 1 1 23 37 136 167 106 1 1 136
split_gain=1233.26 224.755 2193.18 611.534 180.708 5623.09 142.114 438.483 97.1678 544.502 68.196 4165.02 25568.9 136.047 1642.67 66.8425 43.1673 42.4724 41.3107 116.099 37.2077 45.2068 32.9944 26.9575 20.2943 426.124 21.1761 28.662 10.1235 9.24246 10.6786 6.55926 3.48746 1.36389 1.2602 22.4184 0.0559751 0.0771452 4.44089e-16 4.44089e-16 2.22045e-16 4.44089e-16 1.66533e-16 1.11022e-16 1.11022e-16 1.66533e-16 6.93889e-17 2.77556e-17 1.38778e-17 1.38778e-17
threshold=119.82335000000002 0.91666666666666685 160.99500000000003 1.0000000180025095e-35 0.075441176470588248 0.21950000000000003 858.00000000000011 42.957205220522006 0.20833333333333334 0.45833333333333343 1.0000000180025095e-35 13.500000000000002 76.845000000000013 335.99500000000006 0.32142857142857145 3.0145239898989904 9.4353571000000027 0.015028076958482925 2.4050000000000007 0.8928571428571429 0.14061277056277058 -0.12607142857142845 587.32142857142867 3.9642857142857149 15.500000000000002 14.500000000000002 0.88480769230769241 0.90035460992907812 12.165000000000001 0.17033333333333336 12.375000000000002 1.2500000000000002 9.8928571428571441 0.53571428571428581 0.18521365331511377 0.12506684491978612 0.071796759941089847 27.142857142857146 9.3928571428571441 0.75000000000000011 0.75000000000000011 0.82142857142857151 0.0066669629761322733 -1.9382142857142857 7.9050000000000011 4.5000000000000009 0.82142857142857151 0.3928571428571429 0.53571428571428581 713.34500000000014
decision_type=10 10 10 10 8 10 10 8 8 10 8 10 8 10 8 10 10 8 8 10 10 8 10 10 8 10 10 10 8 8 10 10 10 8 10 8 10 10 10 10 8 8 8 10 10 10 10 10 8 10
left_child=1 4 32 -4 5 8 10 -8 24 -10 11 13 -13 17 -15 16 18 -6 19 33 23 -22 43 -20 25 26 34 -28 -29 30 -19 -31 44 -12 35 -1 38 -38 40 -36 -26 -42 -9 -17 45 -3 -11 49 -14 -16
right_child=-2 2 3 -5 6 -7 7 42 9 46 15 12 48 14 47 22 -18 29 20 -21 21 -23 -24 -25 36 -27 27 28 -30 31 -32 -33 -34 -35 39 -37 37 -39 -40 -41 41 -43 -44 -45 -46 -47 -48 -49 -50 -51
leaf_value=0.34050250649084607 1.4205025264052651 0.34050250658672149 1.8035025547770724 0.34050250658672154 0.38449750397950944 2.1485825978298578 0.77123098102049303 0.34050250628149659 1.6931024361161531 0.34050250658672154 0.37683583769481482 9.4797028685150639 0.34050250658672154 2.5805025467453335 0.34050250658672149 0.34050250633744533 0.50046251230720795 0.34050250658672149 0.34754342054573456 0.45537772938025045 0.371844355338948 0.34143500448691166 0.40114551750818733 0.34252368294889657 0.34050250658672154 1.4597025117812523 0.7005024925051232 0.45955250248741208 0.34050250658672154 0.34219091034616334 0.39046250601126103 0.41013600486944474 0.44043650509991294 0.34050250655256781 0.34050250658672149 0.60050251128058552 0.34050250658672149 0.34607173742160063 0.3405025063689065 0.34050250620321965 0.34050250617126121 0.34050250656968045 0.34050250658672154 0.34050250657994485 0.34050250658672149 0.34050250617126121 0.34050250617126121 0.34050250658672154 0.34050250658672154 0.34050250658672154
leaf_weight=1.8571429252624478 0.42857144773006339 1.7142857909202569 0.57142859697341908 0.1428571492433548 11.428571298718452 0.71428573131561179 1.285714343190193 2.4285714626312256 0.1428571492433538 0.28571429848670959 0.42857144773006439 0.14285714924335358 0.28571429848670959 0.1428571492433548 0.14285714924335369 0.71428573131561357 0.71428573131561179 3.2857144325971603 633.28573767840862 5.1428570747375479 43.428571939468384 35.571428596973419 12.714285373687744 1319.7142916768789 0.71428574621677399 0.14285714924335557 0.14285714924335446 0.57142859697341908 0.5714285969734193 104.71428985893726 3.5714286267757416 0.57142859697341819 0.14285714924335469 11.571428656578064 3.5714287310838699 0.14285714924335469 2.1428572386503211 1.8571428060531614 5.5714286565780631 1.8571428805589674 0.4285714328289032 13.857143431901934 1.1428571939468377 4.2857144623994827 4.1428573280572891 0.42857143282890309 0.4285714328289032 0.85714289546012878 0.5714285969734193 0.57142859697341919
leaf_count=906 29 3652 243 431 186 74 3 1 42 72 173 241 23 73 661 32 147 1586 279531 18 29 836 2 2763 70 75 18 95 278 44772 1680 167 1 1386 2243 181 85 1 23 64 5 6531 361 714 8729 4 19 149 158 393
internal_value=0.347452 0.347532 0.459541 1.5109 0.347173 0.392261 0.346456 0.454519 0.355671 0.565936 0.346216 0.360484 1.6461 0.350223 0.527169 0.345345 0.345011 0.347768 0.344957 0.375873 0.344696 0.358152 0.384029 0.344151 0.350279 0.376235 0.358473 0.433414 0.400028 0.344025 0.366523 0.34256 0.342723 0.3418 0.345503 0.359074 0.340923 0.343088 0.340503 0.340503 0.340503 0.340503 0.340503 0.340503 0.340503 0.340503 0.340503 0.340503 0.340503 0.340503
internal_weight=0 2240.86 7.14286 0.714286 2233.71 35 2198.71 4.85714 34.2857 0.857143 2193.86 126.286 1 125.286 1.71429 2067.57 2049.86 123.571 2049.14 17.1429 2032 79 17.7143 1953 33.4286 8.85714 8.71429 1.28571 1.14286 112.143 6.85714 105.286 6.42857 12 7.42857 2 24.5714 4 20.5714 5.42857 15 14.2857 3.57143 5 6.28571 2.14286 0.714286 1.57143 0.857143 0.714286
internal_count=359956 359927 13060 674 346867 10782 336085 365 10708 133 335720 50089 422 49667 1276 285631 284883 48391 284736 1577 283159 865 748 282294 10575 3860 3785 391 373 48205 3266 44939 12386 1559 3394 1087 6715 86 6629 2307 6606 6536 362 746 12385 3656 91 1203 181 1054
is_linear=0
shrinkage=1


end of trees

feature_importances:
sem_impressions_w2=12
uber_curr_item_price_w1=8
bc_bounce_rate_w2=5
sem_ctr_w1=3
bc_visits_w1=3
sem_margin_seller_v2=2
sem_qty_v9=2
sem_impressions_v12=2
sem_cpc_v12=2
sem_ordersize_seller_w2=1
sem_rpc_seller_w1=1
sem_ctr_v2=1
sem_rpc_seller_v2=1
sem_clicks_v3=1
sem_mpc_seller_v3=1
sem_ctr_v9=1
sem_cpc_v9=1
sem_gmv_revenue_adjustment_seller_v12=1
site_total_add_to_carts_w2=1
bc_sem_bounces_w1=1

parameters:
[boosting: gbdt]
[objective: regression]
[metric: rmse]
[tree_learner: serial]
[device_type: cpu]
[data: ]
[valid: ]
[num_iterations: 4000]
[learning_rate: 0.02]
[num_leaves: 63]
[num_threads: -1]
[deterministic: 0]
[force_col_wise: 0]
[force_row_wise: 0]
[histogram_pool_size: -1]
[max_depth: 10]
[min_data_in_leaf: 20]
[min_sum_hessian_in_leaf: 0.001]
[bagging_fraction: 0.9]
[pos_bagging_fraction: 1]
[neg_bagging_fraction: 1]
[bagging_freq: 10]
[bagging_seed: 400]
[feature_fraction: 0.33]
[feature_fraction_bynode: 1]
[feature_fraction_seed: 30056]
[extra_trees: 0]
[extra_seed: 12879]
[early_stopping_round: 200]
[first_metric_only: 0]
[max_delta_step: 0]
[lambda_l1: 0]
[lambda_l2: 0]
[linear_lambda: 0]
[min_gain_to_split: 0]
[drop_rate: 0.1]
[max_drop: 50]
[skip_drop: 0.5]
[xgboost_dart_mode: 0]
[uniform_drop: 0]
[drop_seed: 17869]
[top_rate: 0.2]
[other_rate: 0.1]
[min_data_per_group: 100]
[max_cat_threshold: 32]
[cat_l2: 10]
[cat_smooth: 10]
[max_cat_to_onehot: 4]
[top_k: 20]
[monotone_constraints: ]
[monotone_constraints_method: basic]
[monotone_penalty: 0]
[feature_contri: ]
[forcedsplits_filename: ]
[refit_decay_rate: 0.9]
[cegb_tradeoff: 1]
[cegb_penalty_split: 0]
[cegb_penalty_feature_lazy: ]
[cegb_penalty_feature_coupled: ]
[path_smooth: 0]
[interaction_constraints: ]
[verbosity: -1]
[saved_feature_importance_type: 0]
[linear_tree: 0]
[max_bin: 255]
[max_bin_by_feature: ]
[min_data_in_bin: 3]
[bin_construct_sample_cnt: 200000]
[data_random_seed: 175]
[is_enable_sparse: 1]
[enable_bundle: 1]
[use_missing: 1]
[zero_as_missing: 0]
[feature_pre_filter: 1]
[pre_partition: 0]
[two_round: 0]
[header: 0]
[label_column: ]
[weight_column: ]
[group_column: ]
[ignore_column: ]
[categorical_feature: ]
[forcedbins_filename: ]
[precise_float_parser: 0]
[objective_seed: 16083]
[num_class: 1]
[is_unbalance: 0]
[scale_pos_weight: 1]
[sigmoid: 1]
[boost_from_average: 1]
[reg_sqrt: 0]
[alpha: 0.9]
[fair_c: 1]
[poisson_max_delta_step: 0.7]
[tweedie_variance_power: 1.5]
[lambdarank_truncation_level: 30]
[lambdarank_norm: 1]
[label_gain: ]
[eval_at: ]
[multi_error_top_k: 1]
[auc_mu_weights: ]
[num_machines: 1]
[local_listen_port: 12400]
[time_out: 120]
[machine_list_filename: ]
[machines: ]
[gpu_platform_id: -1]
[gpu_device_id: -1]
[gpu_use_dp: 0]
[num_gpu: 1]

end of parameters

pandas_categorical:[]
