tree
version=v3
num_class=1
num_tree_per_iteration=1
label_index=0
max_feature_idx=169
objective=regression
feature_names=is_mobile sem_impressions_w2 sem_clicks_w2 sem_adspend_w2 sem_qty_w2 sem_gmv_revenue_adjustment_brand_w2 sem_orders_brand_w2 sem_margin_brand_w2 sem_ctr_w2 sem_cpc_w2 sem_rpc_brand_w2 sem_roas_brand_w2 sem_convrt_brand_w2 sem_ordersize_brand_w2 sem_mpc_brand_w2 sem_mpo_brand_w2 sem_impressions_w1 sem_clicks_w1 sem_adspend_w1 sem_qty_w1 sem_gmv_revenue_adjustment_brand_w1 sem_orders_brand_w1 sem_margin_brand_w1 sem_ctr_w1 sem_cpc_w1 sem_rpc_brand_w1 sem_roas_brand_w1 sem_convrt_brand_w1 sem_ordersize_brand_w1 sem_mpc_brand_w1 sem_mpo_brand_w1 sem_impressions_v2 sem_clicks_v2 sem_adspend_v2 sem_qty_v2 sem_gmv_revenue_adjustment_brand_v2 sem_orders_brand_v2 sem_margin_brand_v2 sem_ctr_v2 sem_cpc_v2 sem_rpc_brand_v2 sem_roas_brand_v2 sem_convrt_brand_v2 sem_ordersize_brand_v2 sem_mpc_brand_v2 sem_mpo_brand_v2 sem_impressions_v3 sem_clicks_v3 sem_adspend_v3 sem_qty_v3 sem_gmv_revenue_adjustment_brand_v3 sem_orders_brand_v3 sem_margin_brand_v3 sem_ctr_v3 sem_cpc_v3 sem_rpc_brand_v3 sem_roas_brand_v3 sem_convrt_brand_v3 sem_ordersize_brand_v3 sem_mpc_brand_v3 sem_mpo_brand_v3 sem_impressions_v4 sem_clicks_v4 sem_adspend_v4 sem_qty_v4 sem_gmv_revenue_adjustment_brand_v4 sem_orders_brand_v4 sem_margin_brand_v4 sem_ctr_v4 sem_cpc_v4 sem_rpc_brand_v4 sem_roas_brand_v4 sem_convrt_brand_v4 sem_ordersize_brand_v4 sem_mpc_brand_v4 sem_mpo_brand_v4 sem_impressions_v5 sem_clicks_v5 sem_adspend_v5 sem_qty_v5 sem_gmv_revenue_adjustment_brand_v5 sem_orders_brand_v5 sem_margin_brand_v5 sem_ctr_v5 sem_cpc_v5 sem_rpc_brand_v5 sem_roas_brand_v5 sem_convrt_brand_v5 sem_ordersize_brand_v5 sem_mpc_brand_v5 sem_mpo_brand_v5 sem_impressions_v9 sem_clicks_v9 sem_adspend_v9 sem_qty_v9 sem_gmv_revenue_adjustment_brand_v9 sem_orders_brand_v9 sem_margin_brand_v9 sem_ctr_v9 sem_cpc_v9 sem_rpc_brand_v9 sem_roas_brand_v9 sem_convrt_brand_v9 sem_ordersize_brand_v9 sem_mpc_brand_v9 sem_mpo_brand_v9 sem_impressions_v12 sem_clicks_v12 sem_adspend_v12 sem_qty_v12 sem_gmv_revenue_adjustment_brand_v12 sem_orders_brand_v12 sem_margin_brand_v12 sem_ctr_v12 sem_cpc_v12 sem_rpc_brand_v12 sem_roas_brand_v12 sem_convrt_brand_v12 sem_ordersize_brand_v12 sem_mpc_brand_v12 sem_mpo_brand_v12 sem_impressions_v18 sem_clicks_v18 sem_adspend_v18 sem_qty_v18 sem_gmv_revenue_adjustment_brand_v18 sem_orders_brand_v18 sem_margin_brand_v18 sem_ctr_v18 sem_cpc_v18 sem_rpc_brand_v18 sem_roas_brand_v18 sem_convrt_brand_v18 sem_ordersize_brand_v18 sem_mpc_brand_v18 sem_mpo_brand_v18 uber_curr_item_price_w1 uber_num_appr_reviews_w1 uber_avg_overall_rating_w1 uber_price_change_ratio_w1 uber_price_change_value_w1 uber_avg_margin_w1 site_total_page_views_w2 site_total_add_to_carts_w2 site_total_orders_w2 site_total_revenue_w2 site_atcpv_w2 site_convrt_w2 site_rpv_w2 site_mpv_w2 site_total_page_views_w1 site_total_add_to_carts_w1 site_total_orders_w1 site_total_revenue_w1 site_atcpv_w1 site_convrt_w1 site_rpv_w1 site_mpv_w1 bc_bounces_w2 bc_visits_w2 bc_bounce_rate_w2 bc_sem_bounces_w2 bc_sem_visits_w2 bc_sem_bounce_rate_w2 bc_bounces_w1 bc_visits_w1 bc_bounce_rate_w1 bc_sem_bounces_w1 bc_sem_visits_w1 bc_sem_bounce_rate_w1
feature_infos=[0:1] [0:27376.571428571428] [0:804.14285714285711] [0:609.70928571428578] [-14.285714285714285:189.71428571428569] [0:976.07393569999999] [0:5.0129214000000015] [-280.18428571428569:327.14285714285717] [0.00081766148814390845:3] [0.010000000000000002:2.29] [0:1178.73] [0:64226] [0:6] [0:4580] [-1307.5266666666666:1178.73] [-2061.1000000000008:4580] [0:27041.428571428569] [0:782.14285714285711] [0:591.05857142857144] [-28.571428571428569:159.57142857142858] [0:763.67562899999996] [0:4.9558429999999998] [-560.36857142857139:654.28571428571422] [0.00081766148814390845:3] [0.01:2.6899999999999999] [0:2290] [0:229000] [0:6] [0:4580] [-3922.5799999999999:2290] [-2061.1000000000008:4580] [0:35533.357142857145] [0:1244.9285714285713] [0:967.87928571428608] [-6.0714285714285712:193.35714285714286] [0:2271.9787857000001] [0:11.529514300000001] [-225.86071428571429:613.06235714285708] [0.0015096618357487927:2] [0.01:1.4733333333333334] [0:606.32000000000005] [0:60632.000000000007] [0:4] [2.2190909090909998:1834.911620581029] [-698.02575000000002:331.27999999999997] [-4622.8263979193753:1048.7900419916018] [0:53193.214285714275] [0:1984.7142857142856] [0:1605.4721428571427] [-2.1428571428571428:278.07142857142856] [0:4511.8805713999991] [0:25.154357099999999] [-657.37973571428586:2037.7141428571435] [0.0015873015873015873:2] [0.01:1.8999999999999999] [0:284.98329999999999] [0:8333] [0:2] [1.2:1048.790041991602] [-303.12:284.98329999999999] [-4090.1149425287358:1048.7900419916018] [0:56834.357142857145] [0:2020.5] [0:1671.4021428571432] [-9.3571428571428577:329.07142857142856] [0:4574.8678286000004] [0:35.9995786] [-763.06000000000029:2339.3178285714284] [0.0014955134596211367:2] [0.01:1.8999999999999999] [0:951.99000000000001] [0:3895] [0:2] [1.2:1043.7423644176049] [-268.75999999999999:951.99000000000001] [-3560.9466666666667:2627.6226622662266] [0:73038.642857142855] [0:1237.2142857142858] [0:1042.0628571428572] [-1.4285714285714286:186.85714285714286] [0:2311.0210499999998] [0:28.619807099999999] [-850.84618571428564:1270.69605] [0.00071306332002281792:2] [0.01:1.4739999999999998] [0:464.38] [0:1085] [0:8] [2.4399999999999999:888] [-452.82000000000005:464.38] [-3843.542682926829:888] [0:50352.916666666657] [0:1567.916666666667] [0:819.79750000000001] [-2.25:215.58333333333329] [0:815.10249999999996] [0:4.5172832999999999] [-1276.5016666666668:618.10281666666674] [0.00082850041425020708:2] [0.01:4.0449999999999999] [0:321.37] [0:5152] [0:3] [2.2400000000000002:889.08880888088811] [-1508.22:321.37] [-2460.0744297719089:889.08880888088811] [0:30754] [0:730.71428571428578] [0:460.23500000000001] [-1.2857142857142858:70.714285714285708] [0:1445.5224000000001] [0:5.9455429000000004] [-312.69714285714286:1443.7859714285714] [0.0012787723785166239:2] [0.01:1.3607142857142858] [0:255.97999999999999] [0:19199] [0:2] [1.1640000000000001:669] [-445.505:223] [-3246.5851851851858:669] [0:3073.2142857142858] [0:65.071428571428569] [0:47.362857142857145] [-0.071428571428571425:9.1428571428571423] [0:77.210521400000005] [0:0.60357139999999998] [-119.12285714285713:26.30910714285714] [0.0043668122270742356:2] [0.01:3.4004102564102565] [0:47.759999999999998] [0:1999.5] [0:1.6666666666666667] [6.7999999999999998:196.41802191412398] [-71.893333333333331:46.990000000000002] [-358.36000000000001:50.747412629368533] [0:35369.32] [0:0] [0:5] [0.99999999999999978:1.0000000000000002] [-3.637978807091713e-12:3.637978807091713e-12] [0:35369.32] [1:327053] [1:25257] [1:377136] [0:1898479.8600000159] [2.9403981299067889e-05:5] [9.5011876484560565e-05:10.930452764475405] [0:746.6633333333333] none [1:140791] [1:10698] [1:209088] [0:982923.60999999871] [7.8247261345852889e-05:5] [6.154224875376947e-05:11.142162562097029] [0:746.6633333333333] none [0:85497] [1:184569] [0:1] [0:1113] [0:2499] [0:1] [0:37718] [1:79202] [0:1] [0:421] [0:1022] [0:1]
tree_sizes=6638 6857 6857 6882 6833 6830 6845 6793

Tree=0
num_leaves=63
num_cat=0
split_feature=40 25 6 5 23 71 1 13 160 136 38 136 93 74 136 143 38 82 165 132 13 160 165 23 168 38 23 23 23 1 143 160 38 1 1 58 19 6 13 160 25 48 160 38 19 38 165 5 69 108 136 16 165 1 160 82 16 143 136 13 71 136
split_gain=1755.82 737.153 25086 38770.6 64617.7 645.549 389.612 1508.72 383.642 457.479 1649.29 1310.43 799.857 509.519 455.242 402.294 327.013 270.066 557.182 210.367 187.722 180.595 196.617 670.302 168.997 165.82 343.775 442.443 149.668 143.737 339.151 1963.55 6667.53 987.335 2937.8 185.751 131.475 173.541 134.976 131.262 137.957 122.091 95.7043 93.5672 2076.18 6593.74 94.0835 93.1251 82.322 81.6365 73.8702 101.78 627.617 1030.45 487.457 70.9133 80.5247 67.0443 59.3349 49.411 46.1456 43.6473
threshold=1.5695230263157895 15.440000000000003 0.027128550000000005 10.789107150000001 0.31789473684210529 5.7875707631286462 0.17857142857142858 137.71500000000003 0.4084806712616123 111.075 0.90000000000000013 162.32500000000002 0.0012500000000000002 19.745000000000001 69.955000000000013 97.500000000000014 0.015156578626167401 8.0197035714285736 275.50000000000006 0.024445111111111101 139.965 0.37897140110550354 22.500000000000004 0.023285938064827091 85.500000000000014 0.054769523047695244 0.013338579062981545 0.0077670195759056504 0.090850964891885627 82.928571428571431 4.5000000000000009 0.72735317779565578 0.057217261904761903 0.75000000000000011 0.10714285714285715 47.745000000000012 0.35714285714285715 0.10876790000000001 22.953571428571504 0.35302845173677783 3.2462500000000003 0.012500000000000002 0.39650071413997157 0.080229885057471279 0.6428571428571429 0.087228260869565213 96.500000000000014 8.996785700000002 0.37356236786469349 0.11321428571428571 100.00500000000001 3.7857142857142856 18.500000000000004 1.0357142857142858 0.42497800784950607 2.4389285714285722 126.64285714285715 127.50000000000001 10.255000000000001 49.992449744974508 705.56250000000011 26.495000000000001
decision_type=10 10 10 10 10 10 10 8 8 10 10 8 8 10 10 10 10 8 10 10 10 10 10 8 10 8 8 10 10 8 10 10 8 8 8 10 10 8 8 10 10 8 10 10 10 10 10 8 10 10 10 10 10 10 8 10 10 10 8 8 10 10
left_child=1 8 3 4 -3 21 7 36 9 13 12 -12 -11 20 -15 25 -17 18 -7 29 24 22 23 -2 43 42 27 -27 -28 30 50 35 -33 34 -34 47 58 38 -38 40 59 -8 -14 55 46 -46 -45 49 -23 -32 60 52 54 -54 -52 -1 -57 -31 -4 -24 -10 -59
right_child=5 2 6 -5 -6 17 41 -9 19 10 11 -13 15 14 -16 16 -18 -19 -20 -21 -22 48 39 -25 -26 26 28 -29 -30 57 31 32 33 -35 -36 -37 37 -39 -40 -41 -42 -43 -44 44 45 -47 -48 -49 -50 -51 51 -53 53 -55 -56 56 -58 61 -60 -61 -62 -63
leaf_value=0.41096803179949065 0.81086083379135854 19.427671045241425 0.71077191896799097 0.40507193035843991 0.40507193035843997 0.44703833373441265 0.65338626848706083 2.0250719162768407 0.40807888038088608 0.87909008876705996 1.8680719347393815 0.40507193035843991 0.40813604771914375 0.432971930365045 0.79978149199215687 0.41227031077629522 0.48592433701036625 0.453703802797782 0.57008723553611618 0.57242647629837629 0.43090958084402425 0.4080554013523327 0.43557284532122675 0.43712098629787022 0.50014078526106998 0.42975092425676542 0.41431301187778236 0.56394018556550096 0.44342896874981963 0.40709959518329181 0.41901675438553443 1.968971922246046 2.8046721011525788 0.42411300164176768 0.40507193035843991 0.58287862802280244 0.40507193035843997 0.40507193035843991 1.1149385760730803 0.49594626466121727 0.46303095004161343 0.4123462723230481 0.45816396563751088 0.40926657011256795 1.9032173666715804 0.44788621634570908 0.44238115013558454 0.56245039581990408 0.42724835989118382 0.46783354366001911 1.0000719278811219 0.40784453008291111 0.40507193028747412 0.81379452403557484 0.41383447001989626 0.46530278991173291 0.41956889359857202 0.41224470625178744 0.40507193035843991 0.4093498236510566 0.66227192924234302 0.42979736805127894
leaf_weight=5005.2857853919268 2.5714286863803837 0.1428571492433538 0.28571429848671037 0.42857144773006439 0.1428571492433548 32.571428552269936 0.85714289546012878 0.28571429848670904 1798.5714831799269 1.5714286118745804 0.57142859697341797 0.4285714477300645 291.42857228219509 2.8571429550647727 2.5714286118745804 35.285714402794838 76.142859056591988 187.00000406801701 26.857142999768257 3.1428572535514823 221.71428264677525 104.28571446239948 65.85714291036129 7.5714287757873544 8.7142858207225782 23.571428418159485 216.28571891784668 16.857143178582191 104.8571469783783 7619.5714333206415 440.28572003543377 1.4285714626312254 0.2857142984867066 8.0000003129243851 0.7142857462167741 2.8571429401636115 0.1428571492433548 0.4285714477300645 0.42857144773006406 16.142857536673546 53.00000011920929 43.428572446107864 16.142857208848 231.7142915725708 1.5714286267757405 6.000000074505806 40.285714969038963 1.8571428805589665 625.85712602734566 14.142857506871222 0.57142859697341819 107.14285980165005 5.5714287906885129 4.4285716116428375 79.428574442863464 17.285714760422707 141.14285755157471 215.71428905427456 2.2857143878936768 50.999999955296516 0.2857142984867086 76.857142806053162
leaf_count=155231 4 30 36 6 29 26 14 74 131096 32 38 61 394 49 6 84 21 39 21 21 20 280 112 330 25 36 4302 86 10433 27857 4769 12 22 90 78 38 26 40 91 29 27 1337 17 7145 8 168 549 4 28 93 56 1124 339 104 11788 156 15 78 755 134 6 29
internal_value=0.413339 0.41143 0.489004 4.20959 9.91637 0.436738 0.433803 0.62659 0.411205 0.415031 0.429361 1.24107 0.428323 0.413055 0.606724 0.427416 0.462601 0.465507 0.502647 0.408824 0.41287 0.429084 0.446123 0.531872 0.412136 0.421557 0.430739 0.485703 0.42382 0.408774 0.412991 0.428284 0.699654 0.498175 1.09067 0.42212 0.514712 0.7093 0.937472 0.441447 0.436267 0.417012 0.410762 0.411995 0.423264 0.749936 0.414171 0.421114 0.424507 0.420536 0.409393 0.421015 0.436695 0.586078 0.418022 0.411385 0.424559 0.40746 0.439039 0.424128 0.408119 0.416856
internal_weight=0 16892 48.8571 0.714286 0.285714 1172.71 48.1429 3.85714 16843.1 6462.29 783.143 1 782.143 5679.14 5.42857 780.571 111.429 246.429 59.4286 10380.9 5673.71 926.286 196.143 10.1429 5452 669.143 361.571 40.4286 321.143 10377.7 2465.57 469.571 10.4286 9 1 459.143 3.57143 1 0.571429 186 169.857 44.2857 307.571 5443.29 279.571 7.57143 272 456.286 730.143 454.429 1996 197.143 90 10 80 5163.71 158.429 7912.14 2.57143 116.857 1798.86 292.571
internal_count=359948 358918 2438 65 59 1030 2373 1022 356480 178876 15504 99 15405 163372 55 15373 105 86 47 177604 163317 944 636 334 163297 15268 14857 122 14735 177583 149619 5106 202 190 100 4904 948 157 117 302 273 1351 411 163272 7870 176 7694 4866 308 4862 144513 13411 12287 443 11844 155402 171 27964 791 246 131102 107
is_linear=0
shrinkage=1


Tree=1
num_leaves=63
num_cat=0
split_feature=55 169 146 15 1 1 1 20 2 146 76 76 1 15 46 159 46 1 39 64 99 146 86 9 9 74 16 1 159 146 159 159 1 51 99 146 74 124 169 159 159 63 1 23 1 169 124 159 15 86 146 76 2 15 76 9 34 76 169 146 39 34
split_gain=1293.09 718.543 538.182 642.117 1228.16 41985.8 476.087 681.889 600.113 352.895 231.989 214.89 219.076 224.579 381.339 235.54 262.295 2069.84 587.351 227.457 195.723 193.415 181.248 166.309 190.052 137.042 177.138 135.147 1055.7 4734.32 290.367 3598.15 133.777 132.673 131.294 674.907 103.356 78.3523 76.4063 361.14 1003.13 186.232 76.3501 677.693 1848.74 153.722 75.0507 74.0752 66.5833 68.4042 65.4202 211.535 63.0208 58.8055 49.6738 47.6941 42.6338 37.097 47.9371 34.6038 115.934 42.7369
threshold=1.4068833333333337 0.59174679487179505 0.037053578813292985 22.415000000000003 5.0357142857142865 4.5357142857142865 0.17857142857142858 19.702143000000003 0.10714285714285715 0.10542661000326904 103.28571428571429 1.0000000180025095e-35 90.821428571428584 242.19500000000002 0.8928571428571429 57.500000000000007 0.10714285714285715 1.0000000180025095e-35 0.1001339285714286 -1.0000000180025095e-35 0.76227272727272732 0.040822249952612626 182.92083333333332 0.14671940928270047 0.23908333333333337 2.8482119423472896 21.785714285714288 0.10714285714285715 257.50000000000006 0.061902882700041351 32.500000000000007 35.500000000000007 4.1785714285714297 0.068175000000000013 0.010454545454545456 0.0097134554237783884 -22.099999999999998 1.0714285714285716 0.48704318936877083 5.5000000000000009 4.5000000000000009 0.016071428571428573 27.750000000000004 0.0084445368337208327 19.035714285714288 0.12632978723404256 0.50000000000000011 542.50000000000011 22.96713873632714 2.11487771152018 0.038173543621302312 10.392857142857144 0.10714285714285715 199.99500000000003 10.392857142857144 0.30530000000000007 0.10714285714285715 7.5357142857142865 0.085144927536231887 0.10265191429574992 0.22279220779220785 -1.0000000180025095e-35
decision_type=10 10 10 10 10 8 10 8 10 10 8 8 10 10 8 10 8 10 8 8 8 10 10 10 10 10 8 8 8 8 8 10 8 10 8 10 8 10 10 10 8 8 8 8 8 10 10 10 10 8 10 8 8 10 10 10 10 8 10 10 10 10
left_child=2 10 11 25 5 6 7 23 -9 21 54 -1 13 15 -15 16 17 18 -13 -17 -3 -6 34 -5 -25 27 -27 28 30 -30 -4 -32 59 47 35 -21 -29 42 -18 40 -40 -41 43 44 -38 -45 -36 -12 57 -50 51 -44 -33 -35 -2 -23 -51 58 -14 -8 61 -61
right_child=1 20 3 4 9 -7 32 8 -10 -11 33 12 48 14 -16 19 38 -19 -20 22 -22 55 -24 24 -26 26 -28 36 29 -31 31 52 -34 53 46 -37 37 -39 39 41 -42 -43 50 45 -46 -47 -48 -49 49 56 -52 -53 -54 -55 -56 -57 -58 -59 -60 60 -62 -63
leaf_value=0.040144952043513982 0.0087473303203834084 0.0363993246348355 -0.0054166329908829011 -0.0081182848013213495 0.051380368122721114 6.3756515438315082 -0.0082962676185418457 1.579498563729286 -0.0081014388158273665 0.077365955137094253 0.022038068828131134 -0.0081419917281571174 -0.0050151232620242242 0.32528279757725592 -0.0082197578427737356 0.2116718083271151 -0.0044390976627445454 -0.0081769152604061358 1.4256385738117119 0.45729057675935847 0.077425857057719066 0.00025122641485305638 0.17813436135904728 0.65782213608225437 -0.0081014388158273942 0.1525955440514806 0.0062428993614541883 0.099980653884904153 -0.0084615540074607278 4.0621806426861591 2.3435066701394316 0.0031248355913031083 0.24792798995971679 0.013046446433666878 0.0047171428807162522 -0.0083146184480533385 -0.0082906299461826382 0.11872646873922041 0.0050335334683656073 0.18806996404811893 0.7515545612623733 -0.0025951304052302254 0.059136806568170261 0.0022577577225070858 1.090727506322158 0.02732922997457897 0.14974313769356876 0.057022746180640738 -0.0042364691653492366 0.012891741401913039 -0.0026861572705540854 -0.0029395608936944951 0.25831396870401585 0.03109934775801473 -0.0075224826721841829 0.023363114425523215 -0.0010864437466471296 -0.0065262682132996089 0.0082538798040671605 7.1808598958058499e-05 0.44348638220937198 0.13154317289580686
leaf_weight=44.857144251465797 112.28571450710297 110.57143214344978 21.142858088016517 1.00000004470349 44.142857104539871 0.42857144773006339 12.571428850293165 0.28571429848670948 0.1428571492433548 39.857143580913544 49.142855659127235 0.1428571492433548 356.99999843537807 2.2857143878936768 3.4285714924335471 2.1428571939468384 2831.85723541677 5.2857144474983215 0.57142859697341908 1.5714286118745802 80.28571543097496 163.28571590781212 2.4285714775323859 0.42857144773006428 0.28571429848670959 5.5714286267757389 8.1428571939468384 4.2857143729925156 0.57142859697341919 0.1428571492433538 0.2857142984867086 4.0000001341104507 0.999999999999999 819.71426804363728 1636.1428838521242 6.0000001490116119 2.1428572088479991 2.2857143878936759 2.5714286714792247 2.142857238650322 1.0000000447034834 46.857143998146057 29.571428179740906 1000.0000313520432 0.85714288055896748 108.42857429385185 1.4285714626312245 47.714286312460899 802.85713554918766 186.57142885029316 1337.2857131958008 85.285714253783226 0.42857144773006428 79.142854690551758 226.42857165634632 45.714285358786583 163.99999904632568 7356.1428779363632 156.71428373456001 4.2857144325971595 0.28571429848670948 1.2857143133878706
leaf_count=77 133 30 7215 285 19 12 474 48 14 24 94 136 89 2 77 32 266479 138 889 33 29 109 9 131 61 33 32 15 196 77 60 945 6 476 22787 129 46 2 440 11 76 1325 26 44565 26 2537 8 11 47 35 7656 156 35 6 124 25 14 962 28 345 15 32
internal_value=0 0.0173602 -0.00188507 0.00589767 0.0328715 0.176992 0.0538395 0.336755 1.0503 0.0220502 0.0121688 -0.00355745 -0.00370192 -0.000121573 0.125181 -0.000279281 -0.0037208 0.128378 1.13888 0.00575054 0.0536575 0.0133408 0.00548271 0.15837 0.391453 0.00264274 0.0656987 0.00230971 0.0471835 0.805667 0.0262309 0.168165 0.0226356 0.0170325 0.00522784 0.0883204 0.00184579 0.00168187 -0.00399559 0.0198949 0.214059 0.00574299 0.00157751 0.00552278 0.305715 0.0047103 0.00484366 0.0392724 -0.00550568 -0.00101803 -0.00144208 0.0130428 0.0278206 0.014636 -0.00212895 0.00530646 0.00635264 -0.0061634 -0.000967266 0.0104104 0.0505614 0.0304114
internal_weight=0 1525.29 16539.4 2925.43 315 22 21.5714 2.14286 0.428571 293 1334.43 13614 13569.1 4545.86 5.71429 4540.14 2890.43 6 0.714286 1649.71 190.857 253.143 1647.57 1.71429 0.714286 2610.43 13.7143 2596.71 26.5714 0.714286 25.8571 4.71429 19.4286 995.714 1645.14 7.57143 2570.14 2565.86 2884.43 52.5714 3.57143 49 2563.57 1111.43 3 1108.43 1637.57 96.8571 9023.29 1153.43 1452.14 114.857 4.42857 898.857 338.714 209 350.571 7869.86 513.714 18.4286 5.85714 5.57143
internal_count=359948 903 359045 65222 1600 1423 1411 539 62 177 844 293823 293746 292571 79 292492 269494 1163 1025 22998 59 153 22966 477 192 63622 65 63557 8528 273 8255 1040 872 587 22957 162 55029 55014 268331 1852 516 1336 55012 47174 72 47102 22795 105 1175 96 7838 182 980 482 257 134 49 1079 117 866 392 377
is_linear=0
shrinkage=0.02


Tree=2
num_leaves=63
num_cat=0
split_feature=148 38 25 141 61 41 89 0 67 25 29 29 31 5 89 23 143 142 144 143 132 156 69 156 9 70 67 146 3 141 48 159 31 3 114 2 69 48 3 3 148 143 144 156 148 2 23 145 156 145 98 141 70 38 31 29 148 140 23 146 141 19
split_gain=2129.39 1377.97 9666.88 2024.21 1466.46 1089.18 558.295 532.177 477.069 372.197 1297.05 262.539 3086.74 231.153 209.923 196.349 912.994 4546.74 276.323 3405.06 196.127 178.327 196.853 510.244 131.507 117.992 316.219 111.613 111.142 300.472 1105.77 4612.56 734.755 270.337 191.435 429.852 174.368 1111.2 2592.63 141.321 107.935 104.007 352.672 118.774 1047.57 3754.44 4963.13 102.078 367.903 1532.95 138.472 97.8552 87.4826 80.923 184.574 372.479 69.6314 117.49 61.1874 49.8488 507.569 48.3484
threshold=0.80533428165007115 0.3257575757575758 15.440000000000003 157.51500000000001 2.4642857142857149 4.1007698077647952 4.2964285714285726 1.0000000180025095e-35 125.99647142857144 129.07000000000002 114.25000000000001 -2.3463203883495143 3.6785714285714288 5.6842857000000011 23.117500000000003 0.92857142857142871 91.500000000000014 2968.5000000000005 1.5000000000000002 4.5000000000000009 0.024445111111111101 0.44304924242424248 0.2801111111111112 4.9940972222222237 0.11504863813229574 19.992500000000003 3.0521428571428575 0.045468146455579138 0.060714285714285728 97.185000000000016 0.015357142857142859 300.50000000000006 13.964285714285715 0.060357142857142866 0.065227272727272745 1.0000000180025095e-35 0.57685964145168367 0.13107142857142859 0.028928571428571432 0.0060714285714285722 1.3483433498824147 274.50000000000006 147.50000000000003 8.8956999669895858 6.2026666666666674 0.3928571428571429 0.013338579062981545 190.54000000000005 2.4880519314113436 239.94500000000002 0.010004170141784821 43.995000000000012 12.266666666666667 0.021168892054968007 118.39285714285715 2.6281250000000003 0.16466544117647056 2.1316282072803012e-14 0.076749826749826763 0.11113621529346791 183.04000000000005 -0.92857142857142849
decision_type=10 10 10 10 10 10 10 2 10 10 10 8 8 10 10 10 8 10 10 8 10 8 8 10 8 10 10 10 10 10 8 10 10 10 8 10 10 10 10 8 10 10 8 10 10 10 8 10 8 10 8 10 10 10 10 10 10 10 10 10 10 10
left_child=8 5 3 4 51 7 13 9 20 14 -11 12 -9 -7 15 21 18 -18 19 -17 25 27 23 -23 -24 28 -27 -2 29 36 31 32 -31 34 35 -32 47 38 -38 -36 -15 43 -43 52 45 46 -45 -1 50 -50 -49 -3 59 -42 55 -55 61 -58 -53 -13 -61 -30
right_child=1 2 -4 -5 -6 6 -8 11 -10 10 -12 41 -14 40 -16 16 17 -19 -20 -21 -22 22 24 -25 -26 26 -28 -29 56 30 33 -33 -34 -35 39 -37 37 -39 -40 -41 53 42 -44 44 -46 -47 -48 48 49 -51 -52 58 -54 54 -56 -57 57 -59 -60 60 -62 -63
leaf_value=-0.0045432835886868818 -0.0083827931207975121 -0.0014864685857622541 1.6738426726025448 1.116061462101573 0.79090957303614706 0.0097606533608021878 0.12469353989177911 0.58038901075430938 0.013538969986938288 1.5479086565416169 -0.0081012898290574037 -0.00082880468205305579 -0.0043462167250528407 0.018500030447885923 0.15089953094936395 0.041667299451899051 3.9809371313033792 -0.008247809842326783 -0.0083402289143772214 2.2966364406062763 0.15336230431440215 0.033833623822623414 0.037569237193170152 0.25761380676400025 0.010530204437744849 0.27046779599727083 0.0042500690615874873 0.084354772661901195 0.025260907591524929 -0.0088708616633896824 0.94168626390309618 1.6341112788791368 0.49469237864750881 0.28564080528877245 0.055124518538317568 -0.0084133244083825619 3.2917272622111073 -0.0081636181786208725 -0.0081305788548031686 0.0047131450921591243 0.038216797031400913 0.09572948684047429 0.0057567287737432396 2.6276913326520632 -0.0074564205647383811 0.035636585940970064 -0.0082873503139309287 0.31623631490455595 0.82416133889020959 0.023398441091157018 0.0042584827216686338 0.18326625550886605 0.096714433717775508 0.15856252180276884 0.041813829732419185 0.03378364476376531 -0.00425844295443058 0.019354704983420037 -0.0083386376497758402 0.012260633459656362 0.55104281047480552 -0.0071840829306391695
leaf_weight=2480.1429459154606 6.5714287757873562 25.000000610947623 1.5714285969734181 0.71428574621677299 1.0000000298023213 124.85714343190193 28.285713970661163 4.0000000298023224 604.99998092651367 0.28571429848670848 0.85714289546012878 2076.142875701189 37.142857387661934 69.428571760654449 4.8571429401636115 4.2857144773006439 0.1428571492433538 0.57142859697341919 9.0000003725290281 0.2857142984867086 3.1428572535514823 83.142858773469925 79.857145592570305 4.2857143431901923 726.57143230736256 2.2857143431901923 8.1428572386503202 24.71428656578064 18.428571119904518 6.1428573578596097 0.28571429848670959 0.85714289546012867 1.4285714626312254 1.4285714626312245 24.285715207457542 0.57142859697341919 0.14285714924335424 2.5714286267757416 0.28571429848670959 264.57143832743168 197.5714316368103 19.999999523162842 135.42857199907303 0.57142859697341797 35.428572490811348 4.8571428656578064 0.5714285969734193 0.57142859697341919 1.1428571939468373 5.8571430444717407 138.57143262028694 2.0000000298023219 3.7142857462167731 18.857143402099609 79.714287638664246 19.428571105003357 4604.9999958574772 85.857142329216003 1.0000000447034834 33.571429669857025 0.71428573131561179 5941.0000347793102
leaf_count=276071 115 788 30 24 11 341 25 20 3 11 86 13814 208 25 29 1243 46 73 1503 18 44 495 4378 58 11418 32 50 82 43 392 85 8 2 17 4676 28 166 108 4 25249 20 8 392 4 1172 5 178 33 64 91 5258 70 13 30 9 20 2003 6 40 3218 23 5472
internal_value=0 0.0129023 0.145097 0.0642495 0.0383428 0.0118241 0.038206 0.00751875 -0.00383851 0.0201917 0.380901 0.00242493 0.052503 0.0334078 0.0197552 0.0190771 0.092658 0.789589 0.0559774 0.182603 -0.00461196 0.0179409 0.0162981 0.0448032 0.0132078 -0.0046485 0.0625992 0.0648756 -0.00470014 -0.00124978 0.0177283 0.243562 0.0861411 0.0111904 0.0098371 0.308287 -0.00341207 0.148977 1.09182 0.00895149 0.0410767 0.00153339 0.0173341 0.000394068 0.0339313 0.278316 1.3097 -0.00358614 0.0126572 0.154135 0.00553971 0.0114654 -0.000263125 0.0460438 0.0591488 0.0952419 -0.005649 -0.00382625 0.119398 -0.000433802 0.0234853 -0.00708375
internal_weight=0 3867 31.2857 29.7143 29 3835.71 538.143 3297.57 14197.7 945.429 1.14286 2352.14 41.1429 509.857 944.286 939.429 14.2857 0.714286 13.5714 4.57143 13592.7 925.143 893.857 87.4286 806.429 13589.6 10.4286 31.2857 13579.1 2928.86 299.571 8.42857 7.57143 291.143 289.714 0.857143 2629.29 3 0.428571 288.857 385 2311 155.429 2155.57 41.4286 6 1.14286 2626.29 146.143 7 139.143 28 2114.14 315.571 118 38.2857 10650.3 4690.86 3 2110.43 34.2857 5959.43
internal_count=359948 40043 963 933 909 39080 470 38610 319905 19555 97 19055 228 445 19458 19429 2883 119 2764 1261 319902 16546 16349 553 15796 319858 82 197 319776 312252 30457 402 394 30055 30038 113 281795 278 170 29925 104 18827 400 18427 1359 187 182 281517 5446 155 5291 898 17068 79 59 50 7524 2009 110 17055 3241 5515
is_linear=0
shrinkage=0.02


Tree=3
num_leaves=63
num_cat=0
split_feature=55 12 153 165 13 4 12 147 153 12 151 47 37 63 37 32 151 142 154 23 154 35 18 13 82 142 23 162 23 18 23 74 165 165 23 147 142 47 18 165 61 63 147 12 32 155 147 12 72 151 147 32 47 154 162 91 154 162 18 162 151 54
split_gain=1196.86 535.77 520.197 1134.15 8534.75 26291.9 25826.6 2977.21 1514.7 470.876 734.694 438.136 415.571 313.576 221.168 241.218 386.735 368.019 685.877 204.839 5221.43 200.799 182.868 406.228 176.411 156.5 538.37 154.783 1310.78 507.352 134.1 122.197 103.146 2660.4 2814.42 120.978 308.557 102.172 98.1387 607.613 91.2464 389.532 72.4188 474.1 2197.54 85.0833 60.6834 57.925 49.6146 48.0071 47.859 46.3389 72.224 55.1001 43.2003 605.237 45.3505 42.4815 36.3579 35.5827 35.5601 34.9046
threshold=1.4068833333333337 0.013712060166532352 199.01000000000002 59.500000000000007 176.99000000000004 0.10714285714285715 0.19659375000000004 0.0030165981145124309 4117.0950000000021 0.94445000000000012 6.5000000000000009 2.3928571428571432 10.288717857142858 1.350357142857143 2.8550000000000004 0.17857142857142858 229.50000000000003 365.50000000000006 0.051909529899358868 0.92857142857142871 0.06242772093495854 2.8460714500000006 0.11071428571428572 270.83000000000004 5.5421428571428573 153.50000000000003 0.0084445368337208327 11.500000000000002 0.12403846153846156 0.019285714285714288 0.30217391304347829 -9.6515127118644042 141.50000000000003 143.50000000000003 0.032985166648532981 0.0012500078125488288 1679.5000000000002 2.1785714285714293 0.10928571428571431 40.500000000000007 0.53571428571428581 0.01892857142857143 0.066635831020659911 1.0208500000000003 0.10714285714285715 0.024396317170343022 0.018190090164612458 0.0051050226372382507 0.039461354775828454 25.500000000000004 0.028577179664136188 1.7500000000000002 0.96428571428571441 0.013424777755576192 3.5000000000000004 0.37500000000000006 0.12521777003484322 7.5000000000000009 2.5150000000000001 6.5000000000000009 4.5000000000000009 0.060000000000000012
decision_type=10 10 10 10 10 10 10 10 8 10 8 10 10 10 10 8 10 10 10 10 8 10 10 10 8 10 8 10 10 8 8 8 10 10 8 8 8 10 10 10 10 10 10 8 8 8 10 10 8 10 10 10 10 8 10 8 10 10 10 10 10 8
left_child=2 24 22 4 7 6 -6 -4 9 21 -11 13 -3 14 15 16 17 18 -5 31 -21 25 23 27 47 26 -9 32 -29 -30 -19 -17 38 34 -34 36 -35 -33 42 -40 41 50 54 45 -45 -44 -24 -2 -13 -16 -26 52 53 -48 56 -56 -1 60 59 61 -42 -55
right_child=1 12 3 11 5 -7 -8 8 -10 10 -12 48 -14 -15 49 19 -18 30 -20 20 -22 -23 46 -25 40 -27 -28 28 29 -31 -32 37 33 35 -36 -37 -38 -39 39 -41 57 -43 43 44 -46 -47 51 -49 -50 -51 -52 -53 -54 58 55 -57 -58 -59 -60 -61 -62 -63
leaf_value=-0.0027971138728992411 -0.0069179545739892325 0.012949211396037196 0.50513412421184423 0.30108396916277441 9.2321847636393493 -0.029386789307483913 0.7283900030676993 0.4198035472752798 0.70773567424099726 0.062349976159429589 0.83594026920466369 -0.0041557751301897023 0.055018009656925965 0.080756549162713631 0.018977701974776429 0.086225916238544031 0.18986912523056262 0.010060778579306283 0.0074888700994356697 -0.0082287809147766518 3.9013184901482418 0.21449843890217601 -0.006417400974930201 0.2270778282785032 -0.00036596765805630604 -0.0027740297897631016 0.027713396251959184 -0.0054117362429616667 1.1551530893823601 0.2448373537334983 0.12571405397554203 0.0025401178105009582 1.6123419844057274 0.63279422183757894 -0.0083963627061247968 -0.0026355392890691854 -0.0086172861478945751 0.034785825069296179 0.0030483425447339119 0.42249038914421727 -0.0028688113100648061 0.33068848694492742 0.13140713970485191 1.3748045688209851 0.031002232044187568 0.0046618840674094251 0.020444380536121975 0.012834457781086578 0.0061159145065823933 0.042899155980190729 0.055567900807724682 -0.0052703006011513278 0.038357420514010969 0.033241354350274817 0.37105537107772046 0.0018034861611807723 0.010588999821801082 0.011484377245198464 0.03241979227652738 0.039912115802435338 0.027585571806304006 -0.0035512760885767127
leaf_weight=2931.1429596096277 258.00000114738941 163.42857019603252 5.2857142984867087 5.2857144474983206 0.28571429848670882 1.5714285969734192 0.28571429848670959 1.4285714626312245 1.2857143282890309 1.5714286118745802 0.71428574621677343 2585.4285647422075 220.85714682936668 24.000000849366188 59.142857059836388 7.1428570449352264 5.8571429997682563 125.28571607172489 8.0000001788139325 3.1428572684526443 0.14285714924335424 1.9999999701976765 7112.7143172472715 3.1428572833538047 11.142857283353811 104.28571605682373 72.000001490116119 7.5714287459850294 0.57142859697341886 0.4285714477300645 4.1428572237491599 1614.7142986357212 0.85714289546012756 0.42857144773006428 0.8571428805589677 54.571429744362831 1.0000000447034836 40.285714030265808 11.428571745753286 1.5714286267757405 17.571428701281548 1.8571429103612889 2.1428571939468384 0.57142859697341919 3.2857144325971599 186.85714961588383 53.999998658895493 77.142856270074844 202.85714465379715 77.571429952979088 13.571428939700125 588.85714322328568 22.000000014901161 10.571428537368773 1.8571429103612898 40.428572535514832 104.85714706778526 641.1428387016058 12.714285731315611 8.0000001192092878 120.57142746448517 423.28571976721287
leaf_count=301767 296 83 25 56 5 28 50 5 18 47 25 296 22 25 29 15 47 688 37 461 118 9 6513 55 171 1940 1631 137 41 17 430 10348 9 32 34 1234 49 12 141 19 93 36 33 234 1780 15883 47 5 24 20 84 118 25 4 22 1373 11772 48 5 15 65 1297
internal_value=0 0.0167022 -0.00181313 0.00361124 0.0514356 1.30653 4.98029 0.0371732 0.0236779 0.0188454 0.304097 0.00169631 0.037127 0.00890424 0.00802023 0.00617147 0.0305895 0.0240525 0.124296 0.00399315 0.161752 0.0152174 -0.00413244 -0.000195672 0.00982314 0.0129747 0.0353416 -0.000408865 0.0844717 0.765018 0.0137627 0.00368129 -0.000626572 0.0258786 0.801973 0.00212063 0.183806 0.00332504 -0.00109236 0.0537501 0.0148946 0.0513406 -0.00131032 0.0105786 0.230084 0.00609891 -0.00573618 -0.00237136 -0.00340848 0.0325507 0.0303492 -0.00140777 0.00287908 0.00134434 -0.00205517 0.0180206 -0.00233479 0.0136519 -0.000924617 -0.00188409 0.0237118 -0.00265478
internal_weight=0 1525.29 16539.4 4953.71 190.714 2.14286 0.571429 188.571 183.286 182 2.28571 4763 384.286 1974.71 1950.71 1814 148.571 142.714 13.2857 1665.43 3.28571 179.714 11585.7 3353.57 1141 177.714 73.4286 3350.43 8.57143 1 129.429 1662.14 3341.86 57.7143 1.71429 56 1.42857 1655 3284.14 13 805.857 26.5714 3271.14 192.857 3.85714 189 8232.14 335.143 2788.29 136.714 24.7143 1119.43 530.571 508.571 3078.29 42.2857 3036 779.286 454.571 441.857 138.143 433.857
internal_count=359948 903 359045 16389 3783 83 55 3700 3675 3657 72 12606 105 12286 12261 12212 1258 1211 93 10954 579 3585 342656 334632 798 3576 1636 334577 195 58 1118 10375 334382 1358 43 1315 81 10360 333024 160 497 291 332864 17930 2014 15916 8024 301 320 49 255 1511 1393 1368 314934 1395 313539 206 1321 1316 158 1301
is_linear=0
shrinkage=0.02


Tree=4
num_leaves=63
num_cat=0
split_feature=44 88 29 6 55 16 5 3 33 29 3 38 144 33 169 144 33 52 16 38 169 20 78 130 7 167 163 38 152 57 144 3 73 22 63 44 78 3 152 12 15 7 36 83 152 140 3 16 78 30 71 74 38 63 98 78 43 17 33 88 16 5
split_gain=1626.26 885.183 664.042 16371.9 410.829 380.42 741.689 542.343 298.86 495.632 4771.18 500.318 1517.61 524.887 289.996 273.181 1171.77 1857.06 318.004 403.659 634.441 239.176 201.21 185.141 177.906 165.08 457.15 179.867 159.324 149.997 149.778 157.708 195.99 144.809 140.97 179.248 139.251 134.789 92.2889 83.2364 82.6215 98.4951 75.7029 73.5371 60.724 165.801 132.846 59.3966 234.19 54.68 44.4983 40.3896 114.799 335.249 43.364 39.5156 38.5331 92.7985 461.089 34.5669 31.702 26.3505
threshold=1.5392728758169938 161.87857142857152 14.995625000000002 0.023496400000000004 1.1574583333333337 0.35714285714285715 9.7903178500000028 0.021071428571428578 0.033214285714285731 -2.3463203883495143 0.15607142857142861 0.69047619047619058 3.5000000000000004 0.013214285714285717 inf 1.0000000180025095e-35 0.023928571428571431 -1.0000000180025095e-35 0.92857142857142871 0.12414383561643837 0.35355392156862753 17.993571500000005 0.0010714285714285717 1.7685835776330079 -0.72071428571428553 4.5000000000000009 0.20900537634408603 0.48076923076923089 13.500000000000002 0.011682498089311053 1082.5000000000002 0.081071428571428586 38.927500000000009 7.4185714285714299 0.019642857142857146 3.4650000000000003 0.035357142857142865 0.15357142857142861 23.500000000000004 0.0080429098946120017 153.36500000000004 10.704285714285717 0.20535715000000002 0.016780615555761567 1.5000000000000002 -1.0000000180025095e-35 0.01035714285714286 3.7857142857142856 0.1075 5.5150000000000032 50.79266992179587 9.1510750000000005 0.02610031389835037 0.034642857142857149 0.012220820235828871 0.55071428571428582 33.125000000000007 0.2142857142857143 0.086785714285714313 16.032903225806503 194.71428571428575 8.2121428500000011
decision_type=10 10 10 10 10 10 8 10 8 10 10 8 8 10 8 10 10 10 10 10 8 10 8 10 8 10 8 10 10 10 8 8 10 8 8 10 8 10 8 10 8 8 8 8 8 10 10 10 10 8 10 10 10 10 10 8 8 10 8 8 8 10
left_child=2 21 4 -4 8 6 28 -8 9 10 11 37 13 -13 15 16 -11 -18 19 20 -17 34 38 24 39 27 -27 -20 44 -6 31 32 -26 50 35 -2 -7 -1 -10 -24 41 42 49 -33 45 -5 -47 48 -32 -36 60 54 55 -54 -31 -53 57 58 -42 -38 -16 -41
right_child=1 -3 3 5 29 36 7 -9 22 14 -12 12 -14 -15 33 18 17 -19 25 -21 -22 -23 23 -25 30 26 -28 -29 -30 51 47 43 -34 -35 40 -37 59 -39 -40 61 56 -43 -44 -45 -46 46 -48 -49 -50 -51 -52 52 53 -55 -56 -57 -58 -59 -60 -61 -62 -63
leaf_value=-0.0032961813552377377 0.0064160953117855411 0.17298105601681518 2.6055876470927104 -0.0084813741677385087 -0.0077893403906489243 0.27846824886791749 1.500231599499358 -0.0090196048161563479 0.053735203180192058 -0.0031635021608161147 0.9369555179961766 -0.0080895268281015124 -0.0085424778228089301 1.3473084801148534 -0.0045863177989452454 -0.0089326200459823191 -0.0081346798938627032 0.57136403624938237 0.0033170450978291703 0.012361889806447065 0.5000500125521794 0.042900200054043734 -0.0064388184702248528 0.15037454942446096 0.0073992307684725544 0.2420581763971936 0.0045478431054841893 0.10845486481737858 0.56052668926745375 0.01255968611760888 -0.0017516462220374298 -0.0048345545853111767 0.16929206514978215 0.23726289749145507 0.037981139818578327 0.12927946710971364 0.13472293341820382 0.20520987676527605 -0.0086231783844061237 -0.0020598417666595464 -0.0085132572719488694 0.11188311984599271 0.086457984982079211 0.00083126965896425018 -0.010093195701197969 -0.0088656564563963786 0.73809643306896877 -0.0066820423695075825 0.20748138447672862 0.0083710703601252295 0.094068367527865071 -0.0084604320341117017 -0.0033964302292359321 0.23559396825050719 -0.0010382663723406374 0.026933568729680529 -0.0079889831237633241 0.0078049536744322894 0.90250854987612616 -0.0056317707072763021 0.040115242030274917 0.0064066394452476786
leaf_weight=35.000000700354576 9.4285714924335497 17.714285522699356 1.0000000298023213 0.71428574621677399 174.28571449220181 0.71428574621677399 0.28571429848670948 0.1428571492433548 36.285715997219086 20.42857210338116 2.4285714924335471 0.1428571492433548 1.8571429252624505 0.57142859697341919 494.14286947250366 1.7142857760190964 4.5714287012815458 4.2857143878936768 212.57143221795559 5.0000001639127731 2.2857143282890302 258.42857567965984 5774.0000199973583 3.1428572535514823 1013.7143186479807 4.571428656578064 11.142857462167738 6.7142858505249015 0.28571429848670948 922.42854785919189 1487.0000606030226 1309.5714216977358 3.0000000894069663 0.999999999999999 31.857143640518188 9.5714288204908353 0.71428573131561279 1.2857142686843861 12.857142671942709 369.71428117156029 1.0000000447034834 4.5714285075664511 6.142857000231742 3051.285723850131 1.7142857909202576 0.1428571492433548 0.28571429848670959 2081.5714608877897 2.1428572237491599 115.00000071525574 1.8571428358554829 17.857143223285675 6.0000001490116102 3.8571429550647736 104.42857231199741 42.999999850988388 79.571428313851357 6.4285716563463211 0.28571429848670948 40.42857226729393 6.4285714626312247 244.14286094903946
leaf_count=8721 12 17 47 178 24 7 62 20 42 275 3 138 2100 61 7507 94 27 15 1079 194 37 22 2634 47 48926 9 59 44 13 221 257758 240 93 3 3 29 1 1 116 326 100 7 17 10876 470 130 104 14091 679 452 7 28 31 15 186 86 208 19 10 1202 4 21
internal_value=0 0.0339404 -0.00129817 0.0742387 -0.00149883 0.0185172 0.216652 0.997148 -0.00235782 0.00942206 0.0769469 0.0231964 0.292783 1.07623 0.00583283 0.0224194 0.0801377 0.272268 0.0154918 0.132163 0.281915 0.0292245 -0.002984 -0.00311344 -0.0031449 0.0110235 0.0736418 0.00653625 0.110221 0.00944668 -0.00132488 0.000783593 0.00787692 -0.00317116 0.0158302 0.0683097 0.00161148 0.00409183 0.0374205 -0.00569442 0.011758 0.0204048 0.0176715 -0.000870185 0.0651901 0.178115 0.489109 -0.00450029 -0.00145056 0.0147943 -0.0036497 0.0121836 0.0268037 0.0901216 0.0111768 0.016548 -0.00385142 0.0388268 0.193936 -0.00319506 -0.00401224 0.00130744
internal_weight=0 540 17524.7 46.4286 17478.3 45.4286 3.57143 0.428571 16206.4 818 41.2857 38.8571 2.57143 0.714286 776.714 273.286 29.2857 8.85714 244 9 4 522.286 15388.4 15339.3 15336.1 235 15.7143 219.286 3.14286 1271.86 8948.29 5377.57 1016.71 503.429 263.857 19 41.8571 36.2857 49.1429 6387.86 244.857 157.571 153 4360.86 2.85714 1.14286 0.428571 3570.71 1489.14 146.857 502.429 1097.57 70.7143 9.85714 1026.86 60.8571 87.2857 7.71429 1.28571 41.1429 500.571 613.857
internal_count=359948 896 359052 2234 356818 2187 977 82 356227 20378 11024 11021 2299 199 9354 1833 317 42 1516 325 131 879 335849 335691 335644 1191 68 1123 895 591 332663 60135 49019 7521 857 41 1210 8722 158 2981 816 479 472 11116 882 412 234 272528 258437 455 7518 567 160 46 407 114 337 129 110 1203 7511 347
is_linear=0
shrinkage=0.02


Tree=5
num_leaves=63
num_cat=0
split_feature=148 14 6 26 160 151 53 148 85 163 7 82 93 155 151 154 141 18 169 151 163 155 155 160 168 44 0 69 141 160 5 19 130 146 154 76 32 53 141 3 75 155 160 19 72 40 148 148 85 3 141 169 150 69 93 154 141 3 150 69 53 3
split_gain=1933.81 1209.12 1590.08 21603.9 1092.71 2530.5 765.048 1604.4 537.652 863.78 459.833 426.068 280.623 439.101 1133.56 318.762 278.164 571.489 701.747 850.279 1337.37 475.116 2141.26 568.133 258.407 253.028 211.365 215.895 349.022 187.759 1368.73 182.267 180.984 171.933 126.604 122.921 117.283 113.704 2403.74 5637.17 626.704 104.043 226.751 91.7684 89.8255 89.4504 77.4287 92.793 76.4278 74.5763 173.485 686.47 2642.73 906.783 479.876 457.19 569.416 270.215 151.337 144.233 1087.8 2483.53
threshold=0.80533428165007115 1.5649999999999984 0.020700000000000003 95.377846790890288 0.78600782778864986 2.5000000000000004 0.64583333333333337 3.6856022408963591 6.9883333333333342 0.66091954022988519 5.4324214285714287 174.54995357142855 0.011250000000000001 0.0056657678479712387 2.5000000000000004 0.028586286308595204 111.075 0.015000000000000003 0.48704318936877083 19.500000000000004 1.0000000180025095e-35 0.01667484461890743 0.016958139367686975 0.045528575658868829 85.500000000000014 1.5392728758169938 1.0000000180025095e-35 0.23341666666666669 1.0000000180025095e-35 0.062615313653136537 11.426428550000002 0.78571428571428581 1.7685835776330079 0.10542661000326904 0.10519881611118261 111.57142857142858 0.10714285714285715 0.12565789473684211 389.99500000000006 0.040357142857142862 119.73815296754591 0.27630473296126951 0.60024813895781648 0.6428571428571429 0.07142678571428572 3.262 1.7062504418522455 1.6570742753623191 23.117500000000003 0.06500000000000003 97.185000000000016 0.89181286549707617 4.5000000000000009 0.19958333333333339 0.0012500000000000002 0.31009615384615391 162.32500000000002 0.045357142857142867 38.500000000000007 0.57685964145168367 0.0045913769387658301 0.028928571428571432
decision_type=10 8 8 10 8 10 10 8 10 10 8 10 10 8 10 10 10 10 10 8 8 10 10 10 10 10 2 8 10 10 10 10 10 10 8 8 10 10 10 8 10 10 8 10 10 10 10 8 10 10 10 10 10 10 8 10 10 10 10 10 10 10
left_child=11 4 3 10 12 -6 8 -8 25 -10 -3 32 13 14 -2 -16 24 18 19 -18 -21 -19 -23 -24 26 29 27 28 -15 30 31 -4 37 35 -35 -27 -20 49 40 -40 -39 46 43 -43 -14 -28 47 -31 -29 50 59 54 -53 -54 57 58 -57 -52 -56 -1 61 -61
right_child=1 2 6 -5 5 -7 7 -9 9 -11 -12 -13 44 16 15 -17 17 21 36 20 -22 22 23 -25 -26 33 45 48 -30 41 -32 -33 -34 34 -36 -37 -38 38 39 -41 -42 42 -44 -45 -46 -47 -48 -49 -50 -51 51 52 53 -55 55 56 -58 -59 -60 60 -62 -63
leaf_value=-0.0036559651806390113 0.23944649790495842 -0.0086781829121073944 0.032555041238071257 3.6400419283201142 -0.0083009456524870528 1.0144114226243151 -0.0081095845815663085 1.3203623372154383 -0.010196015458683802 0.22372509678439406 0.30847874216085336 0.012767387099065454 -0.0017033672593707134 0.12974869664743024 -9.9711922449938816e-05 0.058896152299419267 -0.010490958854468846 0.0063486861575397097 0.6703537665202085 1.4686946085182222 -0.0092658181444189944 1.0611023034102585 0.3242571403693586 0.04273451411692604 0.15168679440749039 -0.0014027447335980057 0.00036095245841564143 0.011743434913429773 0.011580855836082687 0.016108458470188842 1.4702270422774339 0.54931611943321712 0.14736705260988886 0.13777564833925346 0.046923835382470247 0.040200824892343501 0.36404293060302695 0.00098611783416857417 2.3791699681057059 -0.0082569056498704406 0.42126613375506083 -0.0085262808229201667 0.87832947619276058 0.15177079983304018 0.032734979174727175 0.078717170977866319 -0.004872014747761071 0.12238168276963947 0.14027711130902376 -0.0054373411861044444 -0.010475027331336095 1.7537991355151326 -0.010096891534019291 0.96567073948166238 -0.0026251332040429505 0.60486521877950927 -0.008687930754889021 0.46595014605640983 0.033555880510077261 3.2217990960866518 -0.0084974591558809268 -0.0078769917245063627
leaf_weight=2570.1429484337568 11.000000134110449 9.1428571045398677 6.1428574025630942 0.71428573131561357 3.0000001192092887 1.4285714626312254 1.0000000298023222 0.57142859697341819 11.142857238650322 14.571428447961807 2.2857143878936759 604.99998092651367 1113.1428638100624 16.857143312692642 74.428570955991745 72.142859816551208 5.4285716116428375 189.7142870426178 1.0000000298023224 0.42857144773006439 0.57142859697341719 0.85714288055896659 3.0000000447034827 64.857143566012383 4.8571429699659339 31.857142791152 1158.2857267707586 513.42857712507248 24.571429088711739 79.285713762044907 0.28571429848670948 0.28571429848670948 3.1428572535514823 11.857143118977545 12.714285507798197 262.28571908175945 1 216.42857681214809 0.57142859697341797 1.285714328289032 1.4285714626312245 2.8571429848670951 0.14285714924335469 2.8571429252624512 31.142857894301414 5.8571427017450324 114.71428714692593 3.4285714626312247 1.8571428805589665 10494.857169151306 0.7142857462167741 0.42857144773006339 3.4285715669393544 0.42857144773006428 235.00000888109207 1.1428571939468377 1.2857143282890318 1.4285714626312256 57.571430340409279 0.14285714924335424 3.000000074505806 0.28571429848670959
leaf_count=277111 29 353 1343 23 198 26 79 29 55 5 6 5 1786 54 167 62 423 908 38 31 104 6 62 645 9 38 13501 13187 112 2643 26 18 37 11 87 188 2 5735 16 77 7 764 47 9 36 19 2806 96 12 6612 61 39 228 11 27377 134 203 1 2021 79 149 2
internal_value=0 0.0122985 0.0392468 0.265653 0.00765738 0.321606 0.0343022 0.474971 0.0330532 0.122359 0.0547532 -0.00365498 0.00723535 0.0114936 0.0436337 0.0289382 0.00895202 0.0279549 0.190019 0.0882303 0.624146 0.0226692 0.0677287 0.0551808 0.0060135 0.0287098 0.00560234 0.0157382 0.0596629 0.0116648 0.115722 0.0555222 -0.00438592 0.0399406 0.0907651 0.035695 0.517198 -0.00442102 0.0098498 0.726336 0.00374205 0.00822793 0.091298 0.0716223 -0.000766094 0.000755185 0.00576348 0.0205136 0.0122067 -0.00465554 -0.00180165 0.0125538 0.263869 0.0983217 0.0089291 0.00676291 0.280043 0.307142 0.00449447 -0.00348303 0.12615 1.06868
internal_weight=0 3867 568.143 12.1429 3298.86 4.42857 556 1.57143 554.429 25.7143 11.4286 14197.7 3294.43 2150.14 157.571 146.571 1992.57 266.857 8.42857 6.42857 1 258.429 68.7143 67.8571 1725.71 528.714 1720.86 556.714 41.4286 210 6.71429 6.42857 13592.7 318.714 24.5714 294.143 2 13589.6 219.714 1.85714 217.857 203.286 5.85714 5.71429 1144.29 1164.14 197.429 82.7143 515.286 13369.9 2875 301.429 4.28571 3.85714 297.143 295 2.42857 2.14286 292.571 2573.57 3.42857 0.428571
internal_count=359948 40043 8626 382 31417 224 8244 108 8136 60 359 319905 31193 29371 258 229 29113 2219 598 558 135 1621 713 707 26894 8076 26885 13365 166 7752 1387 1361 319900 324 98 226 40 319863 5835 93 5742 6365 820 773 1822 13520 5545 2739 13199 314028 307416 30075 278 239 29797 29735 337 62 29398 277341 230 81
is_linear=0
shrinkage=0.02


Tree=6
num_leaves=63
num_cat=0
split_feature=14 145 70 166 37 166 37 29 151 22 145 78 141 166 145 14 22 163 3 166 14 68 3 141 54 159 169 150 141 99 74 106 3 69 46 63 141 3 141 150 159 63 14 161 163 141 145 46 46 150 150 144 74 46 150 159 166 161 150 163 166 63
split_gain=1557.8 549.798 534.461 466.144 2080.19 8854.12 562.515 429.836 4107.69 6612.14 1263.6 406.677 362.777 707.18 1304.48 268.035 1166.44 246.465 240.768 411.834 199.425 190.069 138.777 323.287 1396 3657.73 595.182 2581.46 890.384 489.99 244.528 182.732 413.988 180.011 706.097 2685.78 133.402 327.497 520.895 1966.61 368.776 131.292 136.504 128.29 1722.7 125.6 134.952 138.619 525.99 124.224 895.361 230.43 86.8693 110.333 84.0961 156.663 112.82 261.491 78.3042 118.55 77.3959 74.2937
threshold=1.5649999999999984 275.99500000000006 2.1066321428571433 0.17144671585823157 1.0000000180025095e-35 0.14980515246629975 9.8525000000000009 -1.6932613636363623 2.5000000000000004 -4.0857142857142845 283.21000000000009 0.019642857142857146 639.97000000000014 0.22231374702544393 3762.5300000000002 80.295000000000016 11.71214285714286 0.50274725274725285 0.51535714285714296 0.62551369863013706 -0.70948708206686917 0.064552051153100101 0.060714285714285728 97.185000000000016 0.071000000000000021 292.50000000000006 0.89181286549707617 4.5000000000000009 108.99500000000002 0.010454545454545456 45.980000000000011 32.392857142857146 0.013214285714285717 0.50687500000000008 0.46428571428571436 0.085357142857142881 7.9150000000000009 0.027142857142857153 8.5750000000000011 566.50000000000011 36.500000000000007 0.020357142857142862 2.9977500000000004 2.5000000000000004 0.27681992337164757 146.20500000000001 8162.6149999999998 3.4642857142857149 2.4642857142857149 37.500000000000007 44.500000000000007 1.5000000000000002 -1.1024074074074071 4.5357142857142865 989.50000000000011 1134.5000000000002 0.12518656716417911 5.5000000000000009 141.50000000000003 inf 0.31115327851570745 0.03678571428571429
decision_type=10 10 8 8 8 10 10 10 8 10 10 8 10 8 10 8 8 8 8 10 10 10 10 10 8 8 10 10 10 8 10 10 10 10 10 10 10 10 10 8 10 8 10 10 10 8 10 8 10 10 10 10 10 10 10 8 10 8 10 8 10 8
left_child=1 22 18 4 5 -2 41 8 9 -4 -10 -6 21 14 -14 -13 -17 -8 19 45 -12 36 23 30 25 -25 29 -28 -29 -26 33 49 -33 43 35 -35 54 38 39 -38 -40 42 -5 -1 -45 52 47 48 -47 51 -51 -31 53 -3 55 60 57 -56 59 -49 -9 -36
right_child=3 2 7 6 11 -7 17 12 10 -11 20 15 13 -15 -16 16 -18 -19 -20 -21 -22 -23 -24 24 26 -27 27 28 -30 31 -32 32 -34 34 61 -37 37 -39 40 -41 -42 -43 -44 44 -46 46 -48 58 -50 50 -52 -53 -54 -55 56 -57 -58 -59 -60 -61 -62 -63
leaf_value=-0.0034634484934981634 -0.0093868592839969726 0.17903170839433519 0.012606699149317689 0.0033008042437031892 0.3023091753285001 1.8087274092722965 0.029087649612206477 -0.001208044758406721 0.73596419972288019 1.9765527604571222 -0.0055358413399031253 0.020982274283471741 -0.0090376432526814137 0.046979758511268489 1.0542340089474802 1.4408224987616023 -0.0081757988851160236 0.066075643802767259 -0.0029617900392585389 0.18792413675382924 0.052400869405397447 0.078611441940626484 -0.0057495523130400693 -0.0097773835874383503 0.32315201869153909 1.5517884072855317 1.7187230738574879 0.95136784075542813 -0.011395128341217387 0.00012594709399371671 0.58218137388610658 0.92227240254257314 -0.010130722461012473 3.1573631782518299 0.32890591104749128 -0.0091663945093872403 1.907088172491425 0.0088393513352979618 0.1991006449085144 -0.0088998491808839394 0.031863179474480613 0.0053833542149131003 0.09854864793117156 1.1319751233469639 0.012924815514081178 -0.0024638104812499451 0.074011460659155523 0.10243634755728226 0.22815151629621785 0.21287051426568082 -0.00025908142423522001 0.20844531283275378 -0.0022987214912911914 -0.0089454468397182456 0.0046682746473821228 0.18365923685359817 -0.0064657548276057745 0.19064891337202367 0.0022465542032017501 -0.0087475655239503489 0.012892524265221037 -0.0086099677629776824
leaf_weight=2730.0000975579023 4.2857144325971603 2.4285714626312247 1.7142857760190964 11.428571417927744 2.2857143878936768 1.4285714775323866 174.5714285671711 289.85714799165726 1.0000000298023213 1.1428571939468384 51.285714983940125 45.285715386271477 1.0000000298023195 7.7142857164144525 0.85714289546012867 0.28571429848670848 1.0000000447034834 122.71428918838501 3728.1428571343422 5.4285714775323859 44.285715609788895 15.142857372760771 7560.7143208682537 2.0000000596046452 2.0000000596046448 0.85714289546012867 0.42857144773006339 0.42857144773006428 3.7142858654260635 240.42858047783375 0.2857142984867086 0.2857142984867086 0.57142859697341919 0.14285714924335424 0.28571429848670959 0.42857144773006439 0.28571429848670837 1333.4285573810339 5.5714287906885138 0.8571428954601289 98.857145994901657 385.57142804563046 12.714285984635351 0.57142859697341819 14.857143372297285 12.857143193483354 19.999999567866325 8.2857144176959974 5.7142857611179343 9.4285718351602537 48.142858773469925 2.1428572386503211 160.00000198185444 2.5714286863803864 14.00000035762787 2.0000000745058051 429.28571701049805 3.8571429252624503 91.285714864730835 7.1428572684526435 336.42857159674168 3.0000000745058064
leaf_count=294511 69 13 281 12 5 8 38 3815 38 17 2924 2336 40 72 6 6 149 27 757 21 301 33 7493 61 64 11 41 21 246 28446 22 49 19 164 3 47 55 1222 555 57 3633 3021 34 19 559 77 37 24 16 399 1869 121 631 58 319 21 1904 12 205 29 2606 299
internal_value=0 -0.00146726 0.00302721 0.0277597 0.0840796 0.445142 0.0234125 0.0100294 0.0508223 0.798185 0.028711 0.0418501 0.00843202 0.131329 0.481703 0.0290669 0.313824 0.0443556 -0.00154165 0.0152283 0.0213108 0.00796701 -0.00429513 -0.000701513 0.0186456 0.458692 0.0145578 0.241062 0.088201 0.0111405 -0.00288581 0.00906731 0.30067 -0.00294661 0.133588 0.782466 0.00754156 0.011524 0.045433 0.470097 0.0407856 0.00821638 0.0534609 -0.00313843 0.0543711 0.0122069 0.0257674 0.0180659 0.0684948 0.00823455 0.0346455 0.00196622 0.000266626 0.0823577 0.00221273 0.00693088 -0.0044168 0.0448401 0.0092898 0.0509623 0.00636651 0.0207392
internal_weight=0 17303.1 6682.43 761.571 54.5714 5.71429 707 2638.57 99.4286 2.85714 96.5714 48.8571 2539.14 9.57143 1.85714 46.5714 1.28571 297.286 4043.86 315.714 95.5714 2529.57 10620.7 3060 310.429 2.85714 307.571 4.57143 4.14286 303 2749.57 301 0.857143 2749.29 3.85714 0.571429 2514.43 1439 105.571 1.14286 104.429 409.714 24.1429 2745.43 15.4286 310.286 145.286 125.286 18.5714 300.143 57.5714 242.571 165 5 1075.43 628.286 447.143 17.8571 106.714 15.4286 626.286 3.28571
internal_count=359948 354243 19779 5705 2573 77 3132 17911 3561 298 3263 2496 14350 118 46 2491 155 65 1868 1111 3225 14232 334464 326971 31347 72 31275 308 267 30967 295624 30903 68 295602 513 211 14199 5522 4300 112 4188 3067 46 295089 578 1090 388 351 93 30835 2268 28567 702 71 8677 6442 2235 331 258 53 6421 302
is_linear=0
shrinkage=0.02


Tree=7
num_leaves=63
num_cat=0
split_feature=44 145 31 31 29 26 143 86 0 151 24 138 147 8 1 145 29 7 1 16 78 20 158 31 151 146 146 1 147 158 8 146 69 69 39 16 158 1 145 158 61 61 53 75 89 72 151 7 146 37 158 146 143 1 140 164 146 16 24 143 8 1
split_gain=1451.59 628.915 1268.85 5123.43 4828.45 34038.2 1876.13 451.176 373.099 366.159 336.377 330.51 969.041 556.842 322.912 1042.72 634.613 720.396 595.009 434.791 234.009 233.736 218.517 294.593 218.083 208.88 181.354 1474.96 192.313 176.915 1569.24 1128.13 173.199 507.195 133.736 119.261 425.894 4615.41 201.346 218.294 116.484 425.227 137.562 93.4393 78.7221 75.563 72.0142 69.0254 67.9506 66.6939 65.9128 174.819 1153.14 1067.71 155.701 679.267 1299.93 112.553 123.119 531.867 98.3221 83.7052
threshold=1.5392728758169938 229.99500000000003 2.6071428571428577 2.535714285714286 14.756500000000001 98.02192982456144 1.5000000000000002 13.421546471598628 1.0000000180025095e-35 107.50000000000001 0.31519230769230772 4.8945000000000007 0.027400801801929425 0.0063273817097134468 3.1071428571428581 235.98000000000005 77.040000000000006 10.704285714285717 0.82142857142857151 6.0714285714285721 0.055357142857142862 17.993571500000005 10.500000000000002 3.2500000000000004 30.500000000000004 0.11102961876398336 0.076937087136522544 0.10714285714285715 0.0030165981145124309 5.5000000000000009 0.015597836730389721 0.051097059040382357 0.2003571428571429 0.14029411764705887 0.5067543859649124 28.928571428571431 221.50000000000003 15.321428571428573 190.54000000000005 318.50000000000006 7.4642857142857153 7.1785714285714288 0.020853099304237829 35.985000000000007 -6.7569117647058805 0.028174603174603203 229.50000000000003 -1.0000000180025095e-35 0.017863163471727197 3.3692857142857151 15.500000000000002 0.095341390352236349 6.5000000000000009 0.17857142857142858 -1.0658141036401501e-14 7.5000000000000009 0.014989623986163781 28.500000000000004 0.25525862068965527 25.500000000000004 0.22048611111111113 0.60714285714285732
decision_type=10 10 8 8 8 8 10 10 2 10 10 10 10 10 8 10 10 10 10 10 8 10 10 8 10 10 10 8 10 10 10 8 8 8 10 10 10 10 10 10 8 10 8 10 8 8 10 10 10 8 10 10 10 8 8 8 8 10 10 8 10 10
left_child=1 35 3 4 11 -6 -7 21 14 29 24 13 -13 -3 15 18 19 -18 -4 26 -11 22 23 -2 -8 40 28 -28 -17 30 31 -10 33 -15 -27 36 50 38 -38 -40 41 42 -16 -42 -31 -46 -34 -44 -24 -25 -1 54 53 -53 55 56 -52 58 -56 -60 -57 -62
right_child=7 2 8 -5 5 6 10 -9 9 20 -12 12 -14 32 25 16 17 -19 -20 -21 -22 -23 48 49 -26 34 27 -29 -30 44 -32 -33 46 -35 -36 -37 37 -39 39 -41 43 -43 47 -45 45 -47 -48 -49 -50 -51 51 52 -54 -55 57 60 -58 -59 59 -61 61 -63
leaf_value=-0.0032853416327712774 0.013179474291487057 0.41126857539967121 1.109335687637224 1.0288935821325023 6.0295453706090232 1.2792357635839668 0.0021675689820062631 0.10706499505909367 1.0001724724439436 0.052504189990981741 0.61000775948132036 0.52891192244935215 -0.010265622705512307 0.003310744280037704 0.089125713201352 0.18045820502833806 1.4120059526560029 -0.0082440301070795616 -0.0084835549376805607 0.42226110185941496 0.0088761702383947337 0.041176919079624195 -0.0078279269502278502 0.14778393997345526 0.79534961005972082 0.010975873519004805 1.2552252460915536 0.061868792030786386 0.018192142734169602 0.03778126927695917 0.0025260114785553849 -0.013041112588855855 0.0046135403716592712 0.29922685061867288 0.079604113069816893 -0.0059751629897183038 -0.0082402665402314841 1.5310353652173334 -0.0097298294426576646 0.62861269117636231 0.0023739466648553843 0.16092946776760875 0.054658250777589901 0.019885897231696658 -0.0044251887158627823 0.0011940538156576296 0.057234693744922599 -0.0012565203735858158 0.016293373828873987 0.2962629758002025 1.2229120136985752 1.4839388748484368 0.01996477469224785 0.1633615760624112 -0.0038328160144840973 -0.0088092320971305035 -0.0085851610463537498 0.077041324622285967 0.0011422878993503441 0.11095819137317481 -0.0097527829668171487 0.36000178158275203
leaf_weight=2834.2858175486326 6.7142859101295471 1.4285714626312245 0.57142859697341819 2.1428572237491599 0.42857144773006339 0.57142859697341908 4.7142858058214188 30.285714015364647 1.1428571641445158 52.142858281731606 0.42857144773006428 2.0000000447034827 4.0000001639127731 7.8571429699659348 8.8571429550647718 3.0000001043081275 0.2857142984867086 0.28571429848670959 0.28571429848670959 1.1428571641445149 864.57141400873661 254.42857567965984 62.999999359250069 2.5714286416769028 0.14285714924335469 20.000000223517418 0.42857144773006162 12.4285718947649 111.71428969502449 19.142857432365417 19.857143431901932 0.71428573131561535 133.00000296533108 3.2857143580913526 26.285715162754059 6698.7143055647612 11.571428701281542 0.85714289546012956 0.42857144773006517 0.42857144773006439 916.4285713583231 8.7142857909202558 10.142857402563093 140.5714251101017 3432.2857092767954 1327.4285855144262 11.28571444749832 68.285715073347092 180.71428769826889 2.285714387893675 0.57142859697341919 0.42857144773006317 11.000000312924383 0.57142858207225811 585.85715834796429 8.0000003129243833 0.8571428954601259 7.7142857313156119 123.8571459800005 20.571429282426834 0.42857144773006506 0.57142859697341919
leaf_count=312743 400 2 77 14 5 18 524 30 37 16 3 21 84 40 16 71 23 54 20 13 634 22 84 29 153 95 134 912 6264 18 781 30 1047 27 4 3236 348 9 22 22 2536 6 235 31 897 7535 22 124 320 11 11 14 241 45 17526 241 37 15 1435 502 76 6
internal_value=0 -0.0012256 0.00330183 0.0570867 0.044775 0.588693 0.190582 0.0320668 0.00199447 -0.000224678 0.0728893 0.0237816 0.16946 0.0182092 0.0115381 0.0414601 0.0368506 0.701881 0.736729 0.0338981 0.0113577 0.0276107 0.01409 0.0990093 0.0254965 0.008291 0.030419 0.101647 0.0224357 -0.00243645 0.0545216 0.610475 0.0145966 0.0905681 0.0499499 -0.00439626 -0.00146482 0.111563 0.0136688 0.309441 0.00661866 0.0277122 0.0144123 0.00470288 -0.00269526 -0.00285805 0.00872945 0.00597472 0.010058 0.217656 -0.00188256 0.00334592 0.079078 0.729323 0.00213166 0.0788708 0.484014 0.00104727 0.000244516 0.0167837 0.0145624 0.201536
internal_weight=0 17524.7 7218 171.286 169.143 6.28571 5.85714 540 7046.71 5717.29 5.28571 162.857 6 156.857 1329.43 130.143 129.286 0.571429 0.857143 128.714 916.714 509.714 255.286 11.5714 4.85714 1199.29 127.571 12.8571 114.714 4800.57 21.7143 1.85714 155.429 11.1429 46.2857 10306.7 3608 13.2857 12.4286 0.857143 1153 96 87.2857 1057 4778.86 4759.71 144.286 78.4286 243.714 4.85714 3594.71 760.429 12 1 748.429 10.4286 1.42857 738 730.286 144.429 9 1
internal_count=359948 359052 22523 1960 1946 703 698 896 20563 9948 680 1243 105 1138 10615 7568 7471 77 97 7394 650 866 844 440 677 3047 7381 1046 6335 9298 848 67 1136 67 99 336529 333293 401 392 44 2948 381 375 2567 8450 8432 1069 359 404 40 332892 20149 300 59 19849 371 48 19478 19463 1937 323 82
is_linear=0
shrinkage=0.02


end of trees

feature_importances:
sem_impressions_w2=20
sem_adspend_w2=17
site_atcpv_w2=16
uber_avg_margin_w1=15
sem_ctr_w1=14
sem_ctr_v2=12
site_total_add_to_carts_w1=11
bc_visits_w2=11
sem_impressions_w1=10
bc_bounce_rate_w2=10
sem_cpc_v4=9
site_total_add_to_carts_w2=9
site_total_revenue_w2=9
bc_sem_bounce_rate_w1=9
sem_mpc_brand_w1=8
sem_adspend_v4=8
site_rpv_w2=8
site_total_page_views_w1=8
bc_visits_w1=8
sem_mpc_brand_v4=7
site_convrt_w2=7
site_atcpv_w1=7
sem_gmv_revenue_adjustment_brand_w2=6
sem_convrt_brand_w2=6
sem_ordersize_brand_w2=6
sem_impressions_v2=6
sem_impressions_v3=6
sem_impressions_v5=6
sem_adspend_v5=6
uber_curr_item_price_w1=6
site_total_orders_w2=6
bc_sem_bounce_rate_w2=6
bc_bounce_rate_w1=6
sem_margin_brand_w2=5
sem_mpc_brand_w2=5
sem_mpo_brand_w2=5
sem_adspend_w1=5
sem_qty_w1=5
sem_margin_brand_v2=5
site_convrt_w1=5
bc_bounces_w2=5
sem_clicks_w2=4
sem_orders_brand_w2=4
sem_cpc_w2=4
sem_rpc_brand_w1=4
sem_clicks_v2=4
sem_adspend_v2=4
sem_mpc_brand_v2=4
sem_ctr_v3=4
sem_impressions_v4=4
sem_margin_brand_v5=4
site_total_page_views_w2=4
site_rpv_w1=4
bc_sem_visits_w2=4
is_mobile=3
sem_ctr_w2=3
sem_gmv_revenue_adjustment_brand_w1=3
sem_margin_brand_w1=3
sem_cpc_v2=3
sem_clicks_v3=3
sem_adspend_v3=3
sem_rpc_brand_v3=3
sem_rpc_brand_v4=3
sem_roas_brand_v4=3
sem_convrt_brand_v4=3
sem_roas_brand_v5=3
sem_mpc_brand_v5=3
sem_adspend_v9=3
sem_cpc_v9=3
uber_price_change_value_w1=3
site_total_orders_w1=3
sem_cpc_w1=2
sem_roas_brand_w1=2
sem_qty_v2=2
sem_rpc_brand_v2=2
sem_cpc_v3=2
sem_margin_brand_v4=2
sem_mpo_brand_v4=2
sem_rpc_brand_v5=2
sem_ordersize_brand_v5=2
sem_ctr_v9=2
sem_qty_v18=2
sem_rpc_brand_v18=2
sem_convrt_brand_v18=2
site_total_revenue_w1=2
bc_sem_bounces_w2=2
bc_sem_visits_w1=2
sem_qty_w2=1
sem_clicks_w1=1
sem_mpo_brand_w1=1
sem_gmv_revenue_adjustment_brand_v2=1
sem_orders_brand_v2=1
sem_roas_brand_v2=1
sem_ordersize_brand_v2=1
sem_orders_brand_v3=1
sem_margin_brand_v3=1
sem_convrt_brand_v3=1
sem_ordersize_brand_v3=1
sem_qty_v4=1
sem_ctr_v4=1
sem_ordersize_brand_v4=1
sem_ctr_v5=1
sem_impressions_v9=1
sem_impressions_v12=1
sem_adspend_v12=1
sem_cpc_v12=1
uber_avg_overall_rating_w1=1
bc_bounces_w1=1
bc_sem_bounces_w1=1

parameters:
[boosting: gbdt]
[objective: regression]
[metric: rmse]
[tree_learner: serial]
[device_type: cpu]
[data: ]
[valid: ]
[num_iterations: 4000]
[learning_rate: 0.02]
[num_leaves: 63]
[num_threads: -1]
[deterministic: 0]
[force_col_wise: 0]
[force_row_wise: 0]
[histogram_pool_size: -1]
[max_depth: 10]
[min_data_in_leaf: 20]
[min_sum_hessian_in_leaf: 0.001]
[bagging_fraction: 0.9]
[pos_bagging_fraction: 1]
[neg_bagging_fraction: 1]
[bagging_freq: 10]
[bagging_seed: 400]
[feature_fraction: 0.33]
[feature_fraction_bynode: 1]
[feature_fraction_seed: 30056]
[extra_trees: 0]
[extra_seed: 12879]
[early_stopping_round: 200]
[first_metric_only: 0]
[max_delta_step: 0]
[lambda_l1: 0]
[lambda_l2: 0]
[linear_lambda: 0]
[min_gain_to_split: 0]
[drop_rate: 0.1]
[max_drop: 50]
[skip_drop: 0.5]
[xgboost_dart_mode: 0]
[uniform_drop: 0]
[drop_seed: 17869]
[top_rate: 0.2]
[other_rate: 0.1]
[min_data_per_group: 100]
[max_cat_threshold: 32]
[cat_l2: 10]
[cat_smooth: 10]
[max_cat_to_onehot: 4]
[top_k: 20]
[monotone_constraints: ]
[monotone_constraints_method: basic]
[monotone_penalty: 0]
[feature_contri: ]
[forcedsplits_filename: ]
[refit_decay_rate: 0.9]
[cegb_tradeoff: 1]
[cegb_penalty_split: 0]
[cegb_penalty_feature_lazy: ]
[cegb_penalty_feature_coupled: ]
[path_smooth: 0]
[interaction_constraints: ]
[verbosity: -1]
[saved_feature_importance_type: 0]
[linear_tree: 0]
[max_bin: 255]
[max_bin_by_feature: ]
[min_data_in_bin: 3]
[bin_construct_sample_cnt: 200000]
[data_random_seed: 175]
[is_enable_sparse: 1]
[enable_bundle: 1]
[use_missing: 1]
[zero_as_missing: 0]
[feature_pre_filter: 1]
[pre_partition: 0]
[two_round: 0]
[header: 0]
[label_column: ]
[weight_column: ]
[group_column: ]
[ignore_column: ]
[categorical_feature: ]
[forcedbins_filename: ]
[precise_float_parser: 0]
[objective_seed: 16083]
[num_class: 1]
[is_unbalance: 0]
[scale_pos_weight: 1]
[sigmoid: 1]
[boost_from_average: 1]
[reg_sqrt: 0]
[alpha: 0.9]
[fair_c: 1]
[poisson_max_delta_step: 0.7]
[tweedie_variance_power: 1.5]
[lambdarank_truncation_level: 30]
[lambdarank_norm: 1]
[label_gain: ]
[eval_at: ]
[multi_error_top_k: 1]
[auc_mu_weights: ]
[num_machines: 1]
[local_listen_port: 12400]
[time_out: 120]
[machine_list_filename: ]
[machines: ]
[gpu_platform_id: -1]
[gpu_device_id: -1]
[gpu_use_dp: 0]
[num_gpu: 1]

end of parameters

pandas_categorical:[]
