tree
version=v3
num_class=1
num_tree_per_iteration=1
label_index=0
max_feature_idx=173
objective=regression
feature_names=is_mobile sem_impressions_w2 sem_clicks_w2 sem_adspend_w2 sem_qty_w2 sem_gmv_revenue_adjustment_seller_w2 sem_orders_seller_w2 sem_margin_seller_w2 sem_ctr_w2 sem_cpc_w2 sem_rpc_seller_w2 sem_roas_seller_w2 sem_convrt_seller_w2 sem_ordersize_seller_w2 sem_mpc_seller_w2 sem_mpo_seller_w2 sem_impressions_w1 sem_clicks_w1 sem_adspend_w1 sem_qty_w1 sem_gmv_revenue_adjustment_seller_w1 sem_orders_seller_w1 sem_margin_seller_w1 sem_ctr_w1 sem_cpc_w1 sem_rpc_seller_w1 sem_roas_seller_w1 sem_convrt_seller_w1 sem_ordersize_seller_w1 sem_mpc_seller_w1 sem_mpo_seller_w1 sem_impressions_v2 sem_clicks_v2 sem_adspend_v2 sem_qty_v2 sem_gmv_revenue_adjustment_seller_v2 sem_orders_seller_v2 sem_margin_seller_v2 sem_ctr_v2 sem_cpc_v2 sem_rpc_seller_v2 sem_roas_seller_v2 sem_convrt_seller_v2 sem_ordersize_seller_v2 sem_mpc_seller_v2 sem_mpo_seller_v2 sem_impressions_v3 sem_clicks_v3 sem_adspend_v3 sem_qty_v3 sem_gmv_revenue_adjustment_seller_v3 sem_orders_seller_v3 sem_margin_seller_v3 sem_ctr_v3 sem_cpc_v3 sem_rpc_seller_v3 sem_roas_seller_v3 sem_convrt_seller_v3 sem_ordersize_seller_v3 sem_mpc_seller_v3 sem_mpo_seller_v3 sem_impressions_v4 sem_clicks_v4 sem_adspend_v4 sem_qty_v4 sem_gmv_revenue_adjustment_seller_v4 sem_orders_seller_v4 sem_margin_seller_v4 sem_ctr_v4 sem_cpc_v4 sem_rpc_seller_v4 sem_roas_seller_v4 sem_convrt_seller_v4 sem_ordersize_seller_v4 sem_mpc_seller_v4 sem_mpo_seller_v4 sem_impressions_v5 sem_clicks_v5 sem_adspend_v5 sem_qty_v5 sem_gmv_revenue_adjustment_seller_v5 sem_orders_seller_v5 sem_margin_seller_v5 sem_ctr_v5 sem_cpc_v5 sem_rpc_seller_v5 sem_roas_seller_v5 sem_convrt_seller_v5 sem_ordersize_seller_v5 sem_mpc_seller_v5 sem_mpo_seller_v5 sem_impressions_v9 sem_clicks_v9 sem_adspend_v9 sem_qty_v9 sem_gmv_revenue_adjustment_seller_v9 sem_orders_seller_v9 sem_margin_seller_v9 sem_ctr_v9 sem_cpc_v9 sem_rpc_seller_v9 sem_roas_seller_v9 sem_convrt_seller_v9 sem_ordersize_seller_v9 sem_mpc_seller_v9 sem_mpo_seller_v9 sem_impressions_v12 sem_clicks_v12 sem_adspend_v12 sem_qty_v12 sem_gmv_revenue_adjustment_seller_v12 sem_orders_seller_v12 sem_margin_seller_v12 sem_ctr_v12 sem_cpc_v12 sem_rpc_seller_v12 sem_roas_seller_v12 sem_convrt_seller_v12 sem_ordersize_seller_v12 sem_mpc_seller_v12 sem_mpo_seller_v12 sem_impressions_v18 sem_clicks_v18 sem_adspend_v18 sem_qty_v18 sem_gmv_revenue_adjustment_seller_v18 sem_orders_seller_v18 sem_margin_seller_v18 sem_ctr_v18 sem_cpc_v18 sem_rpc_seller_v18 sem_roas_seller_v18 sem_convrt_seller_v18 sem_ordersize_seller_v18 sem_mpc_seller_v18 sem_mpo_seller_v18 uber_curr_item_price_w1 uber_num_appr_reviews_w1 uber_avg_overall_rating_w1 uber_price_change_ratio_w1 uber_price_change_value_w1 uber_avg_margin_w1 site_total_page_views_w2 site_total_add_to_carts_w2 site_total_orders_w2 site_total_revenue_w2 site_atcpv_w2 site_convrt_w2 site_rpv_w2 site_mpv_w2 site_total_page_views_w1 site_total_add_to_carts_w1 site_total_orders_w1 site_total_revenue_w1 site_atcpv_w1 site_convrt_w1 site_rpv_w1 site_mpv_w1 bc_bounces_w2 bc_visits_w2 bc_bounce_rate_w2 bc_sem_bounces_w2 bc_sem_visits_w2 bc_sem_bounce_rate_w2 bc_bounces_w1 bc_visits_w1 bc_bounce_rate_w1 bc_sem_bounces_w1 bc_sem_visits_w1 bc_sem_bounce_rate_w1 seller_weight_price_cart_w1 seller_weight_price_cart_w2 seller_weight_price_orders_w1 seller_weight_price_orders_w2
feature_infos=[0:1] [0:27376.571428571428] [0:804.14285714285711] [0:609.70928571428578] [-5.3571428571428568:189.71428571428569] [0:697.9345857000003] [0:44.7639286] [-525.2397000000002:117.76662142857144] [0.00024593187687010698:2] [0.010000000000000002:3.71] [0:1006.15] [0:60632.000000000007] [0:96] [0:1616.9300000000001] [-1307.5266666666666:1099] [-9370.6410923276999:1759.692446043166] [0:27041.428571428569] [0:782.14285714285711] [0:591.05857142857144] [-10.714285714285714:159.57142857142858] [0:624.78620000000001] [0:39.481929000000001] [-560.36857142857139:235.53324285714282] [0.00044547398431931583:2] [0.010000000000000002:3.71] [0:1006.15] [0:47880.68] [0:96] [0:1616.9300000000001] [-3922.5799999999999:1006.15] [-2712.493670886076:1616.9300000000001] [0:44892.857142857145] [0:1244.9285714285713] [0:967.87928571428608] [-11.285714285714285:193.35714285714286] [0:1402.5222214000007] [0:57.281807100000002] [-275.27571428571429:409.85714285714278] [7.5912852045851369e-05:2] [0.01:1.4733333333333334] [0:1912.6666666666665] [0:60632.000000000007] [0:35] [1.2232888835560001:2869] [-833.20000000000005:1912.666666666667] [-5727.884223155369:2869] [0:92066.571428571449] [0:1984.7142857142856] [0:1605.4721428571427] [-9.5714285714285712:278.07142857142856] [0:2236.4803857000002] [0:79.433449999999993] [-1243.3930357142854:409.85714285714278] [0.0015723270440251573:2] [0.01:1.8999999999999999] [0:5738] [0:11250.980392156864] [0:24.75] [1.9201960097999999:2869] [-276.24000000000001:5738] [-12497.309569961948:2869] [0:86380] [0:2020.5] [0:1671.4021428571432] [-15.571428571428573:329.07142857142856] [0:2051.3895286000002] [0:88.255314299999995] [-1713.7667357142859:831.47157857142872] [0.0012254901960784314:2] [0.01:1.8999999999999999] [0:786.65999999999997] [0:3891] [0:28.5] [2.4216000000000002:1179.931003449828] [-292.77999999999997:786.65999999999997] [-3988.7506940865492:1179.9310034498276] [0:73038.642857142855] [0:1237.2142857142858] [0:1042.0628571428572] [-25.428571428571431:186.85714285714286] [0:1374.2034643] [0:66.388942900000004] [-851.34582857142868:672.58338571428578] [0.00095877277085330761:2] [0.01:1.71] [0:786.65999999999997] [0:3420.2608695652175] [0:20] [0.88:1179.931003449828] [-413.68000000000001:786.65999999999997] [-3343:1179.9310034498276] [0:50352.916666666657] [0:1567.916666666667] [0:819.79750000000001] [-1.9166666666666667:215.58333333333329] [0:652.60760829999981] [0:13.0645167] [-1252.4245416666668:92.79583333333332] [0.0013908205841446453:2] [0.01:1.6033333333333335] [0:299.94] [0:14967.5] [0:3.3400500000000002] [1.6096866096869999:774.21782178217802] [-332.63999999999999:229.99000000000001] [-9760.2459999999992:774.21782178217836] [0:30754] [0:730.71428571428578] [0:460.23500000000001] [-1.2857142857142858:70.714285714285708] [0:1062.3132714000001] [0:25.898021400000001] [-298.19857142857148:457.13541428571432] [0.0010449320794148381:2] [0.01:1.29] [0:441.80000000000001] [0:44180] [0:42] [1.1642298537910001:1049.99008] [-236.34999999999999:441.80000000000001] [-2087.3900000000008:1049.99008] [0:3831.9285714285716] [0:81.357142857142861] [0:33.917857142857144] [-0.5714285714285714:7.9285714285714288] [0:174.34262140000001] [0:3.2390786] [-32.972142857142856:55.219764285714291] [0.0071428571428571435:2] [0.01:0.90477477477477475] [0:90.180000000000007] [0:1803.5999999999999] [0:5] [2.4500000000000002:304.997599939998] [-38.200000000000003:44.370000000000012] [-1653.7098666666668:74.928715500293592] [0:98945] [0:0] [0:5] [0.99999999999999978:1.0000000000000002] [-7.2759576141834259e-12:1.8189894035458565e-12] [0:98945] [1:327053] [1:25257] [1:377136] [0:1077133.0800000068] [0.00024125452352231601:4] [0.00012943308309603936:13.24] [0:833.05999999999995] none [1:140791] [1:10698] [1:209088] [0:532627.50000000268] [0.00025793139025019347:4] [0.00032878513891172121:13.558734939759034] [0:1666.1199999999999] none [0:85497] [1:184569] [0:1] [0:1113] [0:2499] [0:1] [0:37718] [1:79202] [0:1] [0:421] [0:1022] [0:1] [0.00071334212368297071:28629.5] [0.0006120198352703647:28629.5] [3.4820251413786459e-05:5500.090909090909] [2.6086632353086531e-05:5056.666666666667]
tree_sizes=6887 7159 7171 6595 7150 7143 7184 7105 7178 7172 7148 7262 7161 7144 7183 7195 7187 7178 7144 7214 7155 7205 7220 7189 7162 7221 7195 7169 7203 7221 7172 7188 7209 7121 7163 7154 7146 7178 7181 7208 5988 7185 7123 7214 7184 7205 7216 7218 7150 7235 7185 7176 7219 7161 7243 7242 7162 7202 7211 7198 7226 7207 7211 7199 6822 7264 7196 7210 7225 7247 7196 7188 7187 7220

Tree=0
num_leaves=63
num_cat=0
split_feature=21 15 22 94 44 43 107 46 156 46 164 164 9 22 21 172 67 78 89 46 120 78 46 19 136 65 136 55 156 53 34 53 54 161 120 156 156 136 156 9 89 136 11 34 44 78 167 2 33 9 33 1 12 1 44 53 55 19 11 1 164 164
split_gain=1.4071 0.826416 0.933223 0.535164 0.347186 0.28864 0.922516 0.127086 0.13284 0.241017 0.0946131 0.207262 0.554507 0.0923908 0.388014 0.075803 0.0791939 0.0948808 0.070593 0.0483765 0.0497903 0.0480193 0.0408445 0.478413 0.0484423 0.0401905 0.0373351 0.0272284 0.0243832 0.11331 0.172518 0.0231558 0.0218625 0.0190146 0.0162768 0.0139186 0.0585402 0.0121147 0.0283733 0.0361924 0.0241798 0.011796 0.00946767 0.00856926 0.00703706 0.00678326 0.00777042 0.00558924 0.00431618 0.0152575 0.0042998 0.0132488 0.0038412 0.0186535 0.00377161 0.00690738 0.00375513 0.00366863 0.00319207 0.00294148 0.00968396 0.0192474
threshold=0.57313600000000009 6.9903495349534968 12.51714285714286 2.6250000000000004 -0.66689967627779778 9.8190131973605013 0.32142857142857145 474.00000000000006 1.4964365079365083 145.39285714285717 13.500000000000002 14.500000000000002 0.72124087591240882 -5.5685714285714267 0.38970700000000008 2.2789762767767505 -2.4461464285714283 3.9807142857142872 -1.4723653690596559 795.71428571428589 1.0000000180025095e-35 2.8289285714285719 2.2500000000000004 -0.21428571428571425 79.205000000000013 0.61255000000000015 25.955000000000002 0.15917806739969395 0.3976839285714287 0.0099520657384158887 1.0000000180025095e-35 0.069337606837606855 0.14906390977443612 7.5000000000000009 1.0000000180025095e-35 2.4778804347826093 2.5513888888888894 11.365 0.42431996091537966 0.35053571428571434 6.9762499999999994 11.985000000000001 0.38288259564537291 2.1785714285714293 0.24475 0.079642857142857168 1.0000000180025095e-35 14.964285714285715 0.0010714285714285717 1.0000000180025095e-35 0.0039285714285714297 6.7500000000000009 0.071412500000000018 28.750000000000004 -18.044999999999998 0.19701492537313436 0.67334687500000012 -2.7857142857142851 0.43924347797694846 0.8928571428571429 86.500000000000014 101.50000000000001
decision_type=10 10 8 8 8 8 8 10 8 8 10 10 10 10 10 8 8 8 10 10 8 10 8 8 8 10 8 8 10 8 10 8 8 10 8 10 8 10 10 10 10 10 10 8 10 10 10 10 8 10 8 8 10 10 8 10 8 8 10 8 8 10
left_child=5 3 -3 27 -5 6 -1 8 56 -10 28 12 35 42 21 52 17 18 47 20 26 31 23 -22 -24 -20 -18 -2 33 30 -30 44 -33 48 -31 45 -37 50 39 -39 41 -40 -8 -19 -15 46 -12 -17 49 -7 51 -36 59 -54 55 -50 -6 -56 -34 60 -13 -62
right_child=1 2 -4 4 7 10 13 -9 9 -11 11 15 -14 14 -16 16 19 43 25 -21 22 -23 24 -25 -26 -27 -28 -29 29 34 -32 32 58 -35 37 36 -38 38 40 -41 -42 -43 -44 -45 -46 -47 -48 -49 54 -51 -52 -53 53 -55 57 -57 -58 -59 -60 -61 61 -63
leaf_value=0.014882062091724936 0.013011758399204376 0.015215203868950323 0.013112384772167548 0.013883034701707844 0.012830511806089942 0.017775285205057303 0.012795917970470567 0.013407019852879775 0.014334022388799026 0.012808771242154897 0.012788209410162553 0.012775285336704436 0.015603568120986963 0.012795558893924409 0.014540920391309152 0.012775285335989555 0.012775285334416879 0.012807132466778235 0.013513912549936532 0.012815090018579499 0.017623770126048412 0.013486582417635168 0.013008088292080864 0.013022358634809409 0.012887560745119752 0.014207436088787044 0.014127033922105032 0.012832180917301169 0.012775285341800963 0.01527528530894613 0.017169239793208717 0.014117868655989553 0.013184173340649476 0.014154595690219034 0.012775285335912144 0.015517220793698381 0.012850996452094407 0.012775285336560057 0.013701211241776777 0.015182674196556513 0.016040713736493049 0.012911383456747617 0.012966846520109661 0.013094062593568424 0.013031697110209899 0.013261396432748571 0.013248683719358691 0.013149459252021132 0.012775285338896792 0.013082977638850716 0.012793318849243875 0.01527528546582764 0.012775285341628336 0.014775285341542422 0.013330840893596209 0.014313746955031402 0.012951109515209988 0.012796297790522776 0.01277528533767204 0.012786525457611225 0.016775285283064784 0.013288105877354536
leaf_weight=120.28571453690529 793.00000281631947 189.42856861650944 152.28571176528931 523.28572535514832 265.57142889499664 0.28571429848671037 358.14285361766815 1455.9999679625034 79.857145071029663 86.142859533429146 88.428573101758957 18.428572162985805 42.428569838404655 251.71428494155407 76.714286401867867 34.714285910129547 12.142857566475866 134.57142612338066 103.85714155435562 1190.714284107089 9.4285717010498047 68.285714834928513 2343.142869412899 218.28571839630604 3096.7142912000418 49.285714820027351 25.000000402331352 588.28571701049805 8.2857143580913526 1.1428571492433546 6.2857142686843863 10.285714104771612 35.714285373687744 4.1428570747375479 3.285714402794838 4.4285715371370316 12.857143044471742 4.8571430593729001 7.7142858803272238 5.1428571939468384 0.999999999999999 387.2857228666544 203.14285916090012 60.285713419318199 63.142857074737549 20.571428850293159 17.571428909897804 29.571428298950195 3.1428572535514832 9.2857143580913526 349.57143732905388 1.1428571939468382 10.142857193946837 2.2857142984867087 5.1428570747375488 1.8571428805589674 168.99999497830868 3682.428676918149 9.7142859101295453 1507.0000150948763 0.71428573131561179 5.5714288055896759
leaf_count=38 26 16 25 10 27 170 21 16 17 90 1105 2565 9 64 4 45 35 88 35 91 18 24 8160 842 7131 35 46 28 42 13 4 13 19 18 101 9 137 174 248 12 10 13145 34 42 39 25 130 2 240 381 13953 22 108 3 13 17 40 305010 80 4252 87 497
internal_value=0.013036 0.0133344 0.0142781 0.013253 0.0134231 0.0129232 0.0132209 0.013306 0.0130612 0.0135425 0.0128969 0.0129341 0.0135943 0.0130353 0.0132286 0.0129202 0.0129471 0.0132164 0.0135036 0.012931 0.0129552 0.0129992 0.0129505 0.0132129 0.0129395 0.0137371 0.0136851 0.0129353 0.0128217 0.0129237 0.0146707 0.0129094 0.0132853 0.0128004 0.0128903 0.0130017 0.0135341 0.0128867 0.0129612 0.0140134 0.0129347 0.0129268 0.0128578 0.0128959 0.0128429 0.012929 0.0128645 0.0129474 0.0127989 0.013223 0.0128012 0.0134204 0.0127929 0.0131431 0.0127978 0.0133467 0.0128774 0.012797 0.0130967 0.0127901 0.0130065 0.0136844
internal_weight=0 4302.86 341.714 3961.14 2579.86 14717.3 1197.14 2056.57 600.571 166 13520.1 9038.14 186.286 1076.86 515.571 8851.86 7307.71 412.286 217.429 6895.43 5704.71 438.857 5667.57 227.714 5439.86 153.143 37.1429 1381.29 4482 775.714 14.5714 370.571 55.7143 3706.29 761.143 143.857 17.2857 760 406 10 396 395 561.286 194.857 314.857 126.571 106 64.2857 3702.14 9.57143 354 4.42857 1544.14 12.4286 3692.57 5 434.571 3687.57 45.4286 1531.71 24.7143 6.28571
internal_count=359701 295 41 254 200 359406 336 190 174 107 359070 25497 1415 298 243 24082 16570 247 117 16323 16232 239 16151 860 15291 70 81 54 333573 27724 46 215 112 305849 27678 1406 146 27665 13589 186 13403 13393 55 130 103 1260 1235 47 305831 551 14076 123 7512 111 305280 257 67 305023 99 7401 3149 584
is_linear=0
shrinkage=1


Tree=1
num_leaves=63
num_cat=0
split_feature=12 52 96 138 11 150 64 138 15 99 7 63 74 82 31 65 11 49 171 107 138 11 107 8 31 0 8 8 171 1 8 92 91 99 38 49 89 31 53 7 115 8 164 64 162 68 8 63 88 162 83 107 12 43 119 119 42 12 50 83 8 31
split_gain=1.34993 0.781253 0.489385 0.30374 0.414537 0.371607 0.345736 0.247821 0.951164 0.24407 0.813178 0.208472 0.19275 0.224178 0.227454 0.116176 0.109438 0.1078 0.102147 0.100462 0.139379 0.0883582 0.0638197 0.0689235 0.258285 0.224016 0.308154 0.232605 0.136992 0.100404 0.0660441 0.21969 0.0668751 0.0359161 0.0303904 0.0282831 0.0248388 0.0372095 0.0259312 0.0719382 0.0363172 0.0431478 0.0320532 0.0233337 0.0222347 0.0203276 0.0466814 0.0148144 0.0147524 0.0140452 0.0133913 0.00603587 0.00475385 0.00351684 0.00296386 0.0109929 0.00269852 0.00266849 0.00773489 0.00242234 0.0267701 0.00213616
threshold=0.013798370581149001 21.362885714285721 0.014520850000000002 2.7071500000000008 2.665586751610459 661.50000000000011 0.60714285714285732 1.0000000180025095e-35 -21.3231044117647 0.13971830985915498 -9.8024999999999984 0.013214285714285717 -0.6637551501035196 -7.8346392857142861 891.67857142857156 11.463571400000001 1.0643382221518636 -0.39285714285714279 35.454238450139691 0.17857142857142858 4.6070000000000002 0.27968979154937418 13.857142857142859 0.019610995523611379 1.7500000000000002 1.0000000180025095e-35 0.0081708519839162452 0.016675936225435669 35.454238450139691 122.28571428571431 0.014612359961041274 0.12500000000000003 187.45833333333334 0.70085714285714296 0.022240280133157469 -0.10714285714285712 1.5509963293650795 152.42857142857147 0.025005556378722777 -30.13938928571428 16.953350000000004 0.047639514258425442 292.50000000000006 0.25000000000000006 17.500000000000004 0.036410984848484852 0.01379536906973583 0.054642857142857153 6.0682118055555012 119.00000000000001 0.15587044534412958 0.46428571428571436 0.0085814102564102518 9.8190131973605013 -0.660428092145949 -0.82772727272727253 0.10027173913043481 0.18431483516483518 0.35657145000000007 0.021855864536878041 0.029235267656320289 47.321428571428577
decision_type=10 10 8 8 10 10 8 8 8 8 10 8 8 10 10 8 10 8 8 8 8 10 10 8 10 2 10 10 10 10 10 8 10 10 8 10 10 10 10 8 10 8 10 10 10 8 8 8 10 10 8 10 10 8 8 8 8 10 10 10 10 10
left_child=7 2 9 4 -4 11 16 8 -1 10 -2 -5 13 -9 45 -8 -7 -13 52 20 -19 -21 23 24 25 26 -20 -27 -28 -29 33 -32 -33 35 -17 -26 38 50 40 -40 49 -42 -41 47 -23 48 -47 -11 -15 -25 -38 -12 53 -14 55 -55 -22 -49 -59 60 -36 -50
right_child=1 -3 3 5 -6 6 15 12 -10 43 51 17 18 14 -16 34 -18 19 22 21 56 44 -24 36 30 27 28 29 -30 -31 31 32 -34 -35 59 -37 37 -39 39 42 41 -43 -44 -45 -46 46 -48 57 61 -51 -52 -53 -54 54 -56 -57 -58 58 -60 -61 -62 -63
leaf_value=0.0046283427904674898 0.0048310529772993532 0.0020172163310570018 0.0031813739046431594 0.00180878107161094 -0.00018025970496388235 0.0011244440935176078 4.2216540713464329e-05 -0.00021761473162747785 -0.00025777451773149488 4.7730784775168283e-05 -0.00026082409839870357 0.0016926439452198243 0.00027990661276112663 -0.0002328409529223027 0.0010663816521714049 0.00070762805491095639 0.00062870899941426582 0.0014451186990643611 0.0024480935676968415 0.0009391515761907654 -0.00025844583180643986 -0.00013071629955664033 0.00070736966790200021 -0.00020858854562911717 6.8433482598245817e-05 -0.00022096665245043004 0.002367548995512538 1.8897364033118051e-05 -9.6142427960081891e-06 0.0012841753200810847 0.0013370750937875583 -0.00011965329414455306 0.00028987922762655161 0.00011961445628702692 -0.00011182518436979877 -0.00019708465142145989 -0.00025886576674256283 0.0016501272222164628 0.00071085906092169932 -0.00015804648204172594 0.0054317450523376446 -0.00025691175136249535 0.00016790800338594141 -4.617409726404714e-05 0.0010491846868467762 0.0024883425233831503 -0.00025881892442025791 -0.00024744486057543897 0.00036955148757182371 0.00082326466791966661 0.0016108640084192586 0.0003004752629844603 -0.00010921294322774347 -0.00025598208382827535 -0.00023702820846284494 0.0017398382606544898 0.00014374295195136816 -0.00025892864227677138 0.00019127740954580106 0.00039582947011043923 0.00038117856620433372 9.6799743963111879e-05
leaf_weight=21.142856895923615 17.285715103149414 97.999998390674591 34.428570345044136 25.571428790688515 25.571428596973419 269.00000190734863 518.42857702076435 252.2857138812542 64.714287221431732 81.428572073578835 43.857143312692642 14.571428298950195 5.2857141494750977 85.285713061690331 174.28571343421936 115.85714441537857 527.28572168946266 41.857143133878708 44.571427047252655 32.285713195800781 34.285714596509933 1025.7142923921347 38.00000174343586 3056.857176810503 171.57142734527588 241.85714529454708 11.42857153713703 37.14285796880722 64.000000566244125 77.285715371370316 48.571427777409554 817.71428899466991 198.14286136627197 170.42857056856155 48.428572148084641 2480.4285686761141 14.42857179045677 7.4285714626312247 42.285714834928513 1249.8571584522724 0.99999999999999944 1.142857179045677 133.57142658531666 594.71428030729294 6.4285712242126456 4.1428570747375462 6.1428572833538064 710.28571979701519 19.142857432365417 5.2857142835855475 1.71428574621678 9.2857143282890302 122.71428176760674 4.8571429252624512 3901.0000938624144 1.4285714626312254 8.2857141643762571 49.142856508493423 22.142857074737549 572.14283967018127 487.99998724460602 28.714285418391228
leaf_count=2 3 6 2 29 114 10 13 223 2197 29 121 1 23 117 9 17 56 27 24 1 20 5641 36 100926 130 751 38 324 153 7 27 393 16 19 28 539 131 6 5 4806 2 74 54 25 4 1 63 90 40 25 29 19 12 162 241626 8 97 145 2 6 183 14
internal_value=0 0.000247733 0.000215115 0.000336991 0.00174868 0.000314272 0.00045091 -0.000125654 0.000945462 -8.70076e-05 0.00106291 2.24763e-05 -0.000132456 0.000227489 0.00058093 0.000293163 0.000796177 -1.67856e-05 -0.000148299 -3.8467e-05 0.0006256 -9.11396e-05 -0.000110508 -0.000114009 -5.73264e-05 0.000382261 0.00112965 0.000130536 0.000350562 0.000873473 -0.000111192 2.30536e-05 -3.9774e-05 -0.000161821 0.000399414 -0.000179907 -0.000168802 0.000478737 -0.000172201 -0.000101738 -0.000204986 0.00239779 -0.000126575 -0.000142565 -0.000123367 -8.96084e-06 0.000847677 -0.000208991 -7.51388e-05 -0.000206807 -6.03104e-05 -0.000162748 -0.000231787 -0.000235632 -0.000236329 0.000197613 -0.000180167 -0.000235737 -0.000119085 0.000367203 0.00033667 0.0002059
internal_weight=0 5414.29 5316.29 3788.14 60 3728.14 2539.14 13605.9 85.8571 1528.14 70.4286 1189 13520 570 317.714 1742.86 796.286 1163.43 12950 1148.86 84.4286 1064.43 8914.71 8876.71 4363.14 476.286 120 356.286 75.4286 114.429 3886.86 1064.43 1015.86 2822.43 1224.43 2652 4513.57 23.5714 4490 1425.71 3064.29 2.14286 1383.43 1457.71 1032.14 143.429 10.2857 863 133.143 3062.14 16.1429 53.1429 4035.29 3912.57 3907.29 6.28571 42.5714 781.571 71.2857 1108.57 536.429 47.8571
internal_count=359701 6689 6683 6249 116 6133 313 353012 2199 434 143 5820 350813 467 244 247 66 5791 350346 5790 144 5646 108515 108479 2421 1297 215 1082 191 331 1124 436 409 688 234 669 106058 166 105892 4865 101027 76 4860 291 5645 235 64 266 171 100951 160 140 241831 241819 241796 170 117 237 147 217 211 54
is_linear=0
shrinkage=0.02


Tree=2
num_leaves=63
num_cat=0
split_feature=13 143 102 143 109 7 143 19 36 143 60 57 65 4 162 109 162 171 46 54 104 7 17 143 145 17 60 134 58 75 77 60 54 143 168 7 145 68 117 82 29 145 17 143 54 136 13 136 145 4 55 17 36 11 26 17 136 136 136 68 46 170
split_gain=1.45477 1.34483 0.640383 0.444733 0.471231 0.515039 0.404851 0.346582 0.339197 0.248485 0.220497 0.140842 0.183282 0.185474 0.129298 0.177164 0.0848157 0.0807965 0.0705155 0.0561177 0.0558817 0.0546137 0.0528584 0.0484323 0.59637 0.189915 0.0483962 0.048279 0.041471 0.0326709 0.030528 0.0290017 0.0268822 0.0229584 0.0354359 0.0222943 0.0241132 0.0445525 0.0224036 0.0213808 0.0203655 0.024649 0.019351 0.0191868 0.0189884 0.0131159 0.010721 0.00907049 0.00803925 0.00781046 0.00770074 0.00948604 0.00731738 0.00680857 0.0367256 0.0131531 0.00817886 0.00873522 0.00673052 0.00485648 0.0310388 0.0108125
threshold=15.660000000000002 464.00000000000006 0.0051675000000000011 2.5000000000000004 -1.0000000180025095e-35 4.640714285714286 27.500000000000004 -0.21428571428571425 1.9166642500000004 49.500000000000007 -117.06523913250876 0.0078518939393939519 1.9851535500000002 0.10714285714285715 6.5000000000000009 -1.0000000180025095e-35 1.5000000000000002 35.454238450139691 1.392857142857143 0.40642872395932034 0.10998032407407411 -6.9310714285714274 46.714285714285722 2.5000000000000004 730.70500000000004 11.500000000000002 19.960000000000004 -1.4151822357167292 8.576896551724003 -164.43148381490329 0.32142857142857145 60.170000000000009 0.6312500000000002 48.500000000000007 3.5000000000000004 -0.27428571428571419 45.005000000000003 0.0056237392048830194 0.70835000000000015 3.2689964285714299 0.06906078431372549 2704.6549999999966 0.2142857142857143 5.5000000000000009 0.13041666666666671 36.795000000000009 4.2710000000000008 245.99500000000003 239.98500000000004 0.96428571428571441 1.5990660326086958 28.214285714285719 0.14030710000000005 43.970000000000006 52.626160990712073 0.50000000000000011 12.695000000000002 12.505000000000001 59.995000000000012 0.27922077922077926 9.8928571428571441 23.595874424220266
decision_type=8 10 8 10 10 10 10 10 10 10 8 10 8 10 10 10 10 8 8 10 10 10 10 8 10 10 10 8 8 8 10 10 10 8 10 10 10 8 10 10 10 10 8 8 8 10 10 10 10 10 8 10 10 10 8 10 8 10 10 10 10 10
left_child=1 2 10 4 5 7 18 -4 44 14 -1 17 13 32 15 -8 -15 53 -5 22 23 -22 40 24 25 52 47 -25 -20 -29 -30 39 -13 50 -35 42 37 -37 -38 49 -11 -42 43 -31 -9 -23 -46 -14 -47 -28 -12 -52 -19 59 55 -55 57 -56 -50 -2 61 -61
right_child=11 -3 3 6 -6 -7 9 8 -10 19 33 12 26 16 -16 -17 -18 20 28 -21 21 45 -24 27 -26 -27 31 29 30 35 -32 -33 -34 34 -36 36 38 -39 -40 -41 41 -43 -44 -45 46 48 -48 -49 58 -51 51 -53 -54 54 56 -57 -58 -59 -60 60 -62 -63
leaf_value=0.00059837388697735476 -0.00023113483606565695 0.0033983819737533729 0.0043203076345963909 0.00071900619043237192 0.0031178893995784541 0.00307619389452523 -0.00014695043081137623 0.00083317213663342319 0.00087165775405871463 -0.00023544764383523028 -0.00022829378194665867 -0.00017624259277905472 -0.00018391165668422662 0.0011633874326172561 0.0014042371537964422 0.0010564963523238041 0.00043840685301471449 -0.00021233086254736659 0.00029389649229232819 0.00041601941586798729 0.00052366907763269643 -0.0002077345438412947 0.00038425070544126512 0.00048461612062350819 0.0021899868922840467 0.00051790330799403024 -0.00018614635410398609 0.00031462371480426589 -0.00018625919411877694 0.0013606736695833371 2.3958190263202478e-05 -0.00015004083646517807 0.00072645184419943662 0.00030125602989763598 -0.00018916152578465461 0.0011087689937604661 -9.8311184731145638e-05 -0.00020271158142970116 0.0013254120589098251 0.00061577247839842797 -0.00026029393735803438 0.00054999316262075381 -0.00022077213433959814 -2.1770712856678905e-05 0.00010916145244782596 -0.00025354615534542983 -0.00025353262650196695 7.549785258271226e-05 0.00048320079082224762 0.00019946115295044875 -0.00019271278754549108 0.00011344556144303728 0.00085597424349485819 -0.00025243702457878171 -0.00025265567505036105 0.0037424526812445454 -0.00025492376754517135 0.003244386580092309 1.3290633906460445e-05 -0.00025115095189576973 0.0047486215942224002 0.003014254283143631
leaf_weight=163.28571748733521 4001.4286637306213 53.857141762971878 9.7142859995365125 52.142857670783997 34.42857152223587 34.857141777873039 76.428571179509163 7.7142858654260635 371.71429443359375 132.428571164608 1108.0000026375055 172.99999916553497 819.28571873903275 102.71428646147251 141.28571128845215 136.00000333786011 173.71428743004799 970.14287658035755 139.14285483956337 1120.1428287029266 104.28571629524231 98.428572222590446 174.14285659790039 47.571428149938583 47.285712674260139 168.42857217788696 24.571428403258324 58.714284554123878 509.85714589059353 5.9999999403953552 603.28571875393391 107.99999713897705 14.285714149475096 96.428570806980133 151.57142761349678 10.428571179509163 2608.5714502334595 1602.8571793437004 4.4285714775323859 49.571429237723351 26.14285683631897 35.285714760422707 1961.9999777972698 12.142857223749163 41.142856553196907 14.571428477764128 157.00000268220901 57.714284896850586 28.285714104771614 144.99999618530273 117.14285703003407 61.857141494750977 2.5714285373687735 0.42857144773006695 0.57142859697342163 1.4285714626312254 16.142857551574707 0.57142859697341919 21.428571239113808 7.5714288651943171 0.57142859697341997 0.42857144773006428
leaf_count=7 241861 20 41 20 38 18 53 11 2 56 98 298 346 20 10 7 33 17216 10 9 62 129 2 7 122 9 174 27 509 55 33 101 13 36 17 8 14270 63497 24 23 32 32 14722 501 100 45 1755 8 14 4 78 3 5 81 140 8 1569 3 36 1164 1 108
internal_value=0 0.000253344 0.000222554 0.000366757 0.000840216 0.000714173 0.000267954 0.00057398 0.00051097 0.000458879 -0.00010035 -0.000131324 4.07057e-05 0.000378556 0.000935362 0.000623514 0.000707792 -0.000155644 -1.63084e-06 0.000345624 -0.00011795 0.000166375 0.000131349 -0.00012807 -1.09434e-05 -0.000102144 -8.94002e-05 -0.00015012 -3.16368e-05 -0.00015494 -7.23285e-05 0.0001182 -0.000107387 -0.000174677 1.52502e-06 -0.000159382 -0.000133436 -0.000194234 -9.58982e-05 0.000250397 -9.5833e-05 0.00020515 -0.00021476 0.000435416 -0.000140321 -6.26194e-05 -0.000178222 -0.00016684 0.000159568 0.000143585 -0.00020863 -8.69135e-05 -0.000209507 -0.00022832 0.000147968 0.00282056 -0.000139169 0.00149587 0.000280653 -0.000230116 0.000245437 -7.62185e-05
internal_weight=0 5555 5501.14 3802.86 656.571 622.143 3146.29 587.286 577.571 1841.86 1698.29 13465.1 1667.86 463.714 353.714 212.429 276.429 11797.3 1304.43 1488.14 7768.14 267 368 7501.14 1188.43 1141.14 1204.14 6312.71 1252.29 6265.14 1113.14 327.143 187.286 1535 248 6206.43 4226.29 1613.29 2613 219.143 193.857 61.4286 1980.14 18.1429 205.857 162.714 198.143 877 64.2857 169.571 1287 179 972.714 4029.14 19.1429 1.85714 17.2857 1.14286 49.7143 4010 8.57143 8
internal_count=359701 2997 2977 2738 1965 1927 773 1909 1868 201 239 356704 1020 364 70 60 53 355684 572 131 110749 286 122 110463 17352 17230 656 93111 552 93104 542 302 311 232 53 93077 77799 63505 14294 201 120 64 15278 556 1866 224 1855 354 95 178 179 81 17221 244935 1801 89 1712 143 50 243134 1273 1272
is_linear=0
shrinkage=0.02


Tree=3
num_leaves=58
num_cat=0
split_feature=21 6 95 156 40 21 45 58 148 156 148 75 44 43 79 160 170 144 2 68 19 156 138 31 108 44 147 48 138 12 138 16 2 61 7 7 12 39 7 156 75 19 170 170 2 108 147 6 51 16 61 2 147 156 2 170 16
split_gain=1.24579 1.00874 0.599078 0.675776 0.658119 0.716445 0.32856 0.297442 0.179316 0.319921 0.193202 0.179321 0.191482 0.105426 0.106711 0.0953462 0.0820273 0.0792268 0.123322 0.0618594 0.403954 0.0465937 0.0453419 0.0442289 0.0427497 0.0382697 0.0846171 0.0187099 0.0142919 0.0131969 0.0320252 0.0263891 0.0226268 0.0108552 0.00956792 0.00983493 0.0131095 0.00606826 0.015968 0.00406185 0.00316923 0.00295182 0.00199159 0.00306159 0.000517511 0.000444202 0.000381268 0.00014462 1.64114e-05 1.83793e-06 5.69375e-07 3.54963e-07 1.87361e-07 1.42635e-08 2.17683e-08 7.08005e-09 2.30052e-09
threshold=0.57313600000000009 2.8928571500000007 0.2657500000000001 1.4964365079365083 0.41043533313234853 1.1946715000000003 -762.29499999999996 28.186250947384504 8.0016145833333354 inf 9.1030154965212002 -27.956551724137935 -1.1114906249999998 5.6688300000000016 1.0000000180025095e-35 0.52811420788948882 32.815645304735263 762.50000000000011 10.107142857142859 0.067088607594936719 -0.21428571428571425 0.052611336032388677 4.0061000000000009 718.07142857142867 0.26321428571428579 0.074009842995169078 0.010208423795049935 7.9464285714285721 3.7930000000000006 0.071412500000000018 3.7930000000000006 15.785714285714288 0.8928571428571429 458.92857142857144 1.7844392857142861 1.8551714285714287 0.041667708333333352 0.026666666666666668 -0.34078571428571425 0.65931032967032976 -75.688611111111086 2.785714285714286 123.30000000000001 132.71738547704595 34.000000000000007 0.11464285714285717 4.1031692659809025 0.98325000000000007 0.50902140000000007 0.50000000000000011 6.1785714285714288 4.9642857142857153 0.020006455777921244 10.639549180327871 0.32142857142857145 29.250000493867063 0.2142857142857143
decision_type=10 10 8 8 8 10 8 8 10 8 10 8 8 8 10 10 8 10 8 10 8 8 8 8 8 10 10 8 10 10 10 10 8 8 10 10 10 8 10 10 8 10 10 8 10 10 10 10 10 8 10 8 10 10 8 10 10
left_child=1 6 28 7 -5 -6 -1 -4 11 34 -11 12 -8 14 25 23 29 19 24 21 -21 -18 -9 48 -19 27 -27 -13 -2 37 32 -32 -31 -25 40 -36 -37 38 -15 -39 -10 47 45 -44 -17 46 -42 -24 51 -12 52 -14 -51 -38 -55 -54 -45
right_child=2 -3 3 4 5 -7 8 22 9 10 49 13 15 16 -16 44 17 18 -20 20 -22 -23 41 33 -26 26 -28 -29 -30 30 31 -33 -34 -35 35 36 53 39 -40 -41 42 -43 43 56 -46 -47 -48 -49 -50 50 -52 -53 55 54 -56 -57 -58
leaf_value=0.0011343867001605979 -2.3303775788269498e-05 0.0047224643933100243 0.00042483394315028254 0.00063807355014060003 0.0035692010699053117 0.00086717202591551175 0.0017154166055220403 0.00010719686384399216 0.0004506332675615945 0.0024354487786402567 -0.00029555390664694252 -0.00021134600755046948 -0.00025063072150195085 0.0025628015566527291 0.00096681042264664871 -0.00026091370106342318 0.00015126597703857909 0.00085725736145422695 0.0024782309479017403 0.0040432152272997452 1.3870560369193065e-05 -0.00013802462927709527 -0.00022250445140707765 0.00084894053896530962 -0.00021783548683801051 -0.00025903490451731294 0.0012632223006612221 0.00019588090062792968 -0.00017391210559854122 -0.0002094219868871981 -0.00025278942298310049 0.0030369194779015485 0.0012184658497571947 0.00047220496656258013 0.003179498843275062 0.002236591477546475 -0.00024823680944407523 -0.00023402076501500898 -1.6602696644729667e-05 -0.00017573596254255363 -0.0002424327575439627 -0.00013604492791681206 0.0014645908125736525 -0.00024744799418607204 -0.00018170320603893593 1.5142013930122335e-05 -4.5583700371444109e-05 -0.00025883537227527572 -0.0002877087857129511 -0.00025325880398870728 -0.00026077273861139149 -0.00025714135465430192 -0.00024651600110086767 -0.00025059668615485484 -0.00025865984622791939 -0.00024833369798681141 -0.00025018935021097854
leaf_weight=84.142856582999229 389.14285212755203 17.285715103149414 1564.4285349845886 588.57144126296043 71.714283034205437 86.71428593993187 36.142857864499092 450.28572431206703 3 42.285712689161301 0.42857144773006162 142.71428535878658 11.571428775787359 1.0000000298023248 61.714286401867867 66.999999642372131 228.42857310175896 24.000000640749931 11.142857551574705 10.142857432365417 529.71429248154163 8878.7143430262804 81.571429878473282 65.28571517765522 38.571429550647736 29.428571879863739 28.999999672174454 66.000000357627869 715.28571675717831 39.571429669857025 1.5714286267757405 2.5714286118745804 4.9999999999999991 57.57142661511898 0.57142859697341819 1.1428571939468382 1.0000000298023226 3470.5715096145868 24.000000298023224 554.71429216861725 78.71428756415844 260.42856875061989 0.71428573131561157 0.1428571492433548 64.999998092651367 2.9999999403953543 4.1428572833538047 94.714284956455231 7.857142746448516 6.7142858356237394 3.2857143580913553 4.7142858505249015 1.2857143431901934 2.142857208848 0.14285714924335469 2.571428656578064 0.85714289546012878
leaf_count=20 18 4 17 41 34 62 32 23 2 113 234 38 90 129 13 38 560 237 32 38 2422 113793 28 21 688 16 27 26 36 3143 175 7 6 22 12 4 40 216808 506 16955 2058 23 8 66 2 12 174 13 4 32 4 11 202 316 3 177 86
internal_value=0 -0.000106119 0.000280753 0.000419427 0.000946065 0.00209027 -0.000111797 0.000258949 -0.000118971 0.000564061 0.0017561 -0.000126156 0.000345698 -0.000136666 0.000217245 0.000168259 -0.000145088 -0.000113447 0.00053974 -0.000118438 8.9574e-05 -0.000130769 -3.36259e-05 0.000518614 0.000194529 4.4083e-05 0.000496511 -8.2572e-05 -0.000120846 -0.000220124 0.000107098 0.0017891 -4.92423e-05 0.000672401 -0.000141542 0.000710156 0.000391531 -0.000224059 8.65735e-05 -0.000225989 -0.00018856 -0.000178825 -0.000210457 0.000464531 -0.000221909 -0.000223934 -0.00023259 -0.000242024 -0.000263969 -0.000254762 -0.000253501 -0.000252515 -0.000251241 -0.000250229 -0.000251101 -0.000247728 -0.000249798
internal_weight=0 14717.3 4302.86 3198.43 747 158.429 14700 2451.43 14615.9 152.143 56.5714 14463.7 315.143 14148.6 328.857 279 13819.7 9720.71 73.7143 9647 539.857 9107.14 887 147 62.5714 267.143 58.4286 208.714 1104.43 4099 48.7143 4.14286 44.5714 122.857 95.5714 5 4.42857 4050.29 25 4025.29 90.5714 436.714 87.5714 1.71429 132 85.8571 82.8571 176.286 24.1429 14.2857 13.8571 16.2857 10.5714 3.28571 2.28571 3.85714 1
internal_count=359701 359406 295 241 137 96 359402 104 359382 3543 762 355839 220 355619 120 188 355499 117770 957 116813 2460 114353 87 148 925 107 43 64 54 237729 3331 182 3149 43 2781 375 363 234398 635 233763 2406 64 2404 160 40 2244 2232 41 105 649 415 101 411 359 319 379 152
is_linear=0
shrinkage=0.02


Tree=4
num_leaves=63
num_cat=0
split_feature=13 152 95 18 15 44 21 164 18 168 68 148 154 51 62 145 13 58 154 35 37 63 155 164 103 102 10 83 154 124 79 156 147 23 154 18 152 9 24 18 155 9 155 103 18 63 63 111 81 63 83 53 164 69 83 154 81 15 145 58 13 168
split_gain=1.34416 0.84144 0.634249 0.581548 0.33079 0.330991 0.360746 0.21369 0.193548 0.187965 0.266198 0.180778 0.447734 0.134001 0.170681 0.27406 0.129485 0.120046 0.108451 0.11699 0.102602 0.117528 0.0980037 0.0770631 0.0701369 0.0580009 0.0625946 0.0533834 0.0526728 0.048394 0.0454919 0.0354179 0.0650125 0.0256027 0.0248276 0.0248127 0.0244227 0.0361434 0.276725 0.0607707 0.0268714 0.0691637 0.0241831 0.02269 0.0251455 0.0338613 0.0700095 0.0198295 0.0154206 0.0153909 0.0333635 0.0151722 0.0139361 0.013819 0.0131572 0.0127958 0.0125813 0.0116261 0.0109439 0.0105022 0.0101827 0.00919835
threshold=15.660000000000002 224.50000000000003 0.2657500000000001 2.2878571428571433 -609.16985298529846 -0.66689967627779778 0.38970700000000008 107.50000000000001 3.7342857142857149 8.5000000000000018 0.055684754521963829 8.0016145833333354 0.013342234089897645 0.061078550000000009 6.8214285714285738 53.510000000000012 5.4850000000000012 29.965000000000003 0.014502313487055947 7.7317464500000002 -0.39871428571428563 0.070357142857142882 0.003603615302703686 250.50000000000003 24.790707954170504 0.0096189652241900521 1.2225017676767678 0.0064309346567411095 0.057148264301935765 0.78571428571428592 0.17857142857142858 0.13928419031363348 0.0029368638951181658 0.023282918631755845 0.02703122102066894 9.0078571428571443 1.5000000000000002 0.53005905511811024 0.54142857142857148 6.1592857142857147 0.0071710299645690962 0.56048780487804895 0.0077599669207825007 7.1937857142855011 1.1235714285714289 0.042500000000000017 0.059285714285714289 0.21785715000000003 0.25255000000000005 0.076071428571428581 0.0080322580645161307 0.0084800606993818504 977.00000000000011 0.78296255235279644 0.047635255599857373 0.0030349642620293277 0.10459290000000002 14.980400000000001 472.1599999999998 54.125000000000007 25.325000000000006 1.0000000180025095e-35
decision_type=8 10 8 10 10 10 10 10 10 10 10 10 8 10 8 8 10 10 10 10 10 10 8 10 10 8 10 8 8 10 10 10 10 10 8 10 10 10 8 10 10 10 10 8 8 10 10 10 10 8 8 10 10 10 10 8 10 10 10 8 8 8
left_child=1 2 17 33 -4 6 55 8 -8 10 16 13 -13 24 15 22 18 34 -7 -20 -12 -22 -15 27 29 59 -27 -17 51 36 -29 32 -18 -3 -1 -36 37 49 39 54 56 -42 -32 -38 45 47 -47 -45 53 50 -2 -16 60 -46 -39 -6 -40 -57 -52 -26 -14 -59
right_child=11 3 4 -5 5 9 7 -9 -10 -11 20 12 52 14 28 23 31 -19 19 -21 21 -23 -24 -25 25 26 -28 30 -30 -31 42 -33 -34 -35 35 -37 43 38 40 -41 41 -43 -44 44 48 46 -48 -49 -50 -51 58 -53 -54 -55 -56 57 -58 61 -60 -61 -62 -63
leaf_value=-0.00020227368029755895 0.0009304720351140678 0.00085395564010115458 0.0021728490815566734 0.0036877355008214647 0.0017218084967897285 -6.1760832813756303e-05 -7.280207911613988e-05 0.00078928136779159706 0.0023843634545670715 0.00044493815035956744 0.0017097209727306784 0.0022371141550680753 0.0019957691625410172 0.0027138037824807836 7.4040677926801341e-05 0.00064736401482995225 -0.00010545092807483334 0.00036229164002591274 0.00090533378972546083 0.00016697167267004407 0.00153769821077791 -0.00012150322816671632 0.00093319774057263607 0.00056279399583222063 0.0012014342909789245 -9.3626728706501324e-05 0.001447486593083087 -0.00012722852734801683 0.00018653140059976384 0.00046275541646107257 0.00017059657944441543 -0.0001987061479315468 0.00038195748971900617 -0.00028920014661212103 -0.00023169734242960342 8.4254116824728964e-05 0.00077075083291678931 -0.00025213579313518585 -0.00020923319341278657 0.001240421804444487 0.0020154981579687294 -0.00024758381829112556 0.0010283176555447996 -0.00012709930107313049 -0.0001961840287815037 0.00067646573742900795 -3.7741402873152336e-05 0.00093975418510495524 0.00034480110918454606 -0.00022172233048279506 -0.00015473126912250311 -0.00019206161362400891 0.0019199701494923165 0.00012809772182393957 0.0017525876114459311 -0.00020983496269897192 0.00079688139092184767 0.00032961549824246769 0.00029184789056343357 0.00058357087549591171 -0.00019317214254275253 0.0025445163249969462
leaf_weight=1149.2857123315334 11.857142642140387 13.71428608894348 39.999999478459358 47.571427345275879 1.4285714626312256 210.85714234411716 16.000000312924385 518.42858242988586 64.571428298950195 1155.9999713003635 50.285713672637939 44.857141315937042 0.85714289546012878 21.714284896850586 93.857143402099609 50.714286804199219 387.42858116328716 203.71428918838501 161.99999776482582 182.57142639160156 28.142857387661934 43.428571596741676 28.714286476373672 147.00000061094761 15.285714149475098 160.0000002682209 11.285714223980902 345.99999864399433 197.14285725355148 48.571428149938583 35.999998331069946 522.57142996788025 152.57143044471741 18.285714581608772 152.28571507334709 286.42856788635254 11.142857104539871 15.714286223053934 872.85713839530945 71.714286804199219 7.857142940163615 17.285714507102966 20.714285865426064 1566.7143153250217 1977.2857042104006 66.714285895228386 310.00000071525574 7.0000000894069663 22.000000312924385 5418.2858382165432 652.42857910692692 986.85714171826839 1.2857143431901921 54 1.4285714626312245 143.42857211828232 4.9999999403953543 3.0000000596046439 22.714286044239998 39.285712733864784 103.00000229477882 0.99999999999999989
leaf_count=87 21 7 4 3 3 30 137 9 2 12 4 17 119 1 15 8 65 7 41 5 26 17 45 25 3 347 15 317 196 23 17 165 89 70 134 6 29 249 3717 1 22 111 38 26663 4391 136 601 23 3 310817 5056 255 4 8 7 1974 2 86 49 67 3286 14
internal_value=0 0.000243539 0.000213866 0.00228542 0.000363987 0.00034413 0.000719228 0.000938202 0.00189642 0.00024726 0.000115918 -0.000126217 0.00056422 -0.000133995 2.01648e-05 0.00028379 4.80275e-05 -9.47794e-05 0.000295494 0.000514112 0.00101736 0.000530917 0.00169992 0.000164853 -0.000160108 0.00018882 7.91452e-06 3.58422e-05 -0.000114109 -0.000167169 -4.11675e-05 -8.13282e-05 3.22613e-05 0.000200724 -0.000153414 -2.54184e-05 -0.000169922 -0.000192223 -8.02458e-05 0.000984699 -0.000185039 0.000459629 0.00048387 -0.0001305 -0.000133009 -8.1582e-05 8.87412e-05 -0.000122354 -0.000181859 -0.000210415 -0.000121236 -0.000168951 -0.000149487 -0.000187563 -8.50755e-05 -0.000161922 -0.000203503 -0.000180175 -0.000139707 0.000756637 -0.000175107 0.000883341
internal_weight=0 5555 5475.43 79.5714 3683.71 3643.71 747.857 599 80.5714 2895.86 1739.86 13465.1 150 13315.1 1928.71 650.857 1618 1791.71 555.429 344.571 121.857 71.5714 50.4286 600.429 11386.4 225.857 171.286 453.429 1277.86 11160.6 402.714 1062.57 540 32 1588 438.714 11112 7097.14 991.857 88.8571 903 25.1429 56.7143 4014.86 4003.71 1950.43 376.714 1573.71 2053.29 6105.29 687 1080.71 105.143 2031.29 17.1429 148.857 877.857 147.429 675.143 54.5714 103.857 4
internal_count=359701 2997 2917 80 2683 2679 2225 148 139 454 442 356704 3426 353278 917 451 395 234 76 46 47 43 46 405 352361 432 362 380 466 351929 372 319 154 77 227 140 351906 320052 4109 257 3852 133 55 31854 31825 27423 737 26686 4402 315943 5126 270 3409 4399 256 2077 3719 2074 5105 70 3405 100
is_linear=0
shrinkage=0.02


Tree=5
num_leaves=63
num_cat=0
split_feature=13 52 102 143 45 143 8 4 2 143 59 55 55 74 162 106 10 69 69 171 2 8 31 143 150 101 8 48 147 147 58 58 74 109 77 117 98 69 154 143 147 55 8 31 147 161 106 151 48 143 98 16 106 45 2 98 147 29 16 55 55 151
split_gain=1.29093 1.29633 0.584165 0.392679 0.694027 0.381695 0.307234 0.39348 0.264261 0.224347 0.167955 0.124387 0.403972 0.151613 0.121612 0.162649 0.0934017 0.0892062 0.0786344 0.0768434 0.0701978 0.0616027 0.227068 0.352799 0.204592 0.0925522 0.0647106 0.0530366 0.0434071 0.205398 0.0373121 0.0351373 0.0349872 0.0340929 0.0283774 0.0233319 0.0378892 0.0227551 0.0220514 0.0216837 0.0386874 0.0209429 0.153529 0.0166876 0.0164411 0.015554 0.019204 0.0169885 0.0161116 0.0241962 0.0153793 0.0388345 0.0152606 0.0138153 0.0150143 0.0137674 0.0121128 0.0118 0.0117994 0.0103062 0.00851787 0.00771758
threshold=15.660000000000002 21.362885714285721 0.0051675000000000011 2.5000000000000004 -762.29499999999996 27.500000000000004 0.020836779137721913 1.0000000180025095e-35 4.8928571428571432 49.500000000000007 -1.1215782508335468 0.33013939024390249 0.34054082167832173 -2.0575583333333332 6.5000000000000009 0.67857142857142871 2.7900625000000003 0.11062500000000001 0.41960000000000003 35.454238450139691 177.21428571428575 0.019610995523611379 1.7500000000000002 2.5000000000000004 75.500000000000014 0.35970838250539106 0.011642014410157704 0.028928571428571432 0.018529523105230265 0.021293388637928432 8.576896551724003 19.985000000000003 -1.9978787878787878 5.2857142857142865 0.32142857142857145 0.70835000000000015 0.066838487972508617 0.16055555555555559 0.085125655257477659 48.500000000000007 0.039192476489028218 0.17676118899134732 0.029235267656320289 0.60714285714285732 0.0099822375279590998 1.0000000180025095e-35 18.464285714285719 7.5000000000000009 1.0000000180025095e-35 19.500000000000004 0.0084366192902819246 3.2142857142857149 46.750000000000007 73.785000000000011 4.4642857142857153 0.0066347442456493886 0.1538824946094535 -66.844999999999985 176.57142857142858 0.3452835532150777 1.5990660326086958 9.5000000000000018
decision_type=8 10 8 10 8 10 10 10 10 10 8 10 10 8 10 10 10 8 8 8 10 8 10 8 10 10 10 8 10 10 8 8 8 10 10 10 10 10 10 8 8 10 10 10 8 10 10 10 10 8 8 10 8 10 10 8 10 8 8 10 8 10
left_child=1 2 10 4 -4 27 37 8 -8 14 -1 19 -13 44 15 -7 38 -9 -11 -2 -19 22 23 24 -21 32 -26 -5 43 -30 -29 -23 -24 35 -32 50 -37 -6 55 60 -41 42 -20 -25 -14 46 47 -34 49 -47 51 -33 -31 57 -55 -15 -54 -52 -40 -57 -12 -61
right_child=11 -3 3 5 6 9 7 17 -10 18 39 12 13 16 -16 -17 -18 20 41 21 -22 31 25 28 26 -27 -28 30 29 52 34 33 45 -35 -36 36 -38 -39 58 40 -42 -43 -44 -45 -46 48 -48 -49 -50 -51 53 -53 56 54 -56 59 -58 -59 -60 61 -62 -63
leaf_value=0.00050829416468493903 -0.00021522774584620117 0.0039991079143049018 0.0044118449345144292 0.00059163981348439533 0.00021743912189107017 -0.00014445859330092928 -0.00027073334043546492 0.0021527828889734606 0.0032340947145093292 4.4331073151479889e-05 -0.00021159853973671134 0.0024769766478906171 0.0010464036846718244 0.00021347871206604747 0.0013509322879674019 0.0010086356118831591 0.00051505832145874242 -0.00013893968375716618 0.0012094402707454729 -0.000184778135369384 0.00076097293723853109 0.00014481576576346662 0.00032382418021779615 -0.00016986735192444903 0.0021136176639208848 0.00024912222337225716 0.0011621557755327758 0.00027797243190433871 0.0026617130667159028 0.0010443593549485453 -0.00018015239658420798 0.0037176018302363077 -0.00014613182255437563 0.0016409059339369287 2.3084136998308305e-05 -0.00025242318584905456 0.0034549232585846298 -0.0002471513061278726 4.0079950723001742e-05 -0.00016567900575902153 0.00036552691134531093 0.00032822670933165134 0.0003460823816314504 0.00079207739642481287 0.0020137045747762885 -0.00024748122324422923 0.00025790039823969001 4.0346404997400338e-05 -0.0002037978026814679 0.0004524735667438469 0.00099319485096846147 -0.00025936090174929365 -0.00024947072695700545 -0.00024602610481357757 0.00096086285807330495 0.00033712209431062233 0.00069788615716068593 -0.00018061808171197281 0.0008757404596358865 -0.00019904044792370298 -5.2763519079009413e-05 -8.0621428709297188e-05
leaf_weight=166.85714471340179 4008.0000929236412 36.428569793701172 20.571428298950195 57.285714864730835 74.857142806053162 76.428571179509163 10.714286059141157 17 43.714284896850586 296.14285477995872 1135.2857175022364 27.142856121063232 17.571429401636124 55.714287400245667 141.28571128845215 136.00000333786011 117.00000047683716 38.4285718947649 99.571431994438171 36.285715147852898 354.71429443359375 144.57142680883408 64.142856389284134 249.28571648895741 46.428569734096527 266.8571430593729 74.428572624921799 139.14285483956337 13.285714298486708 4.5714287012815475 504.71428869664669 1.428571432828903 1177.8571457415819 4.1428571343421927 603.28571875393391 2.7142857760190955 1.8571428656578062 96.571430444717407 12.714286133646967 163.85714137554169 82.428571283817291 628.99998345971107 477.42855836451054 7.4285715073347083 11.714285567402841 41.142856851220131 57.428571403026581 234.2857141494751 1585.4285731315613 37.999999940395355 3.4285715222358704 3.1428572237491608 53.857143819332123 7.714285776019099 8.8571431636810285 20.285715103149414 6.0000001341104499 4029.1429143697023 14.428571701049803 322.28571094572544 153.28571362793446 694.57141934335232
leaf_count=11 244957 1 1 34 28 53 603 2 2 28 98 5 6 10 10 7 24 1311 19 211 1 60 18 781 16 36 34 10 19 34 495 57 619 8 33 42 7 17 67 15 41 6 91 10 42 25 27 96 259 40 165 11 182 40 3 3 50 107936 20 544 80 240
internal_value=0 0.000238668 0.000213845 0.000351242 0.000796301 0.000258777 0.000679356 0.000946381 0.00254417 0.000443051 -9.43272e-05 -0.000123693 6.27809e-05 1.10325e-05 0.000896207 0.00059377 -2.26399e-05 0.000734344 0.000336345 -0.000143508 0.000673009 -0.000108297 -5.16466e-05 0.000350614 0.00113225 -0.000108712 0.00152767 -3.39518e-06 -1.66642e-05 0.000397462 -3.07273e-05 -0.000161578 -0.000138569 -0.000172481 -6.94938e-05 -0.000174333 0.00125369 -4.42802e-05 -7.88102e-05 -0.000159839 1.21086e-05 0.000408051 0.00049507 -0.000142031 0.00143332 -0.000148032 -0.000100614 -0.000115194 -0.000189896 8.85982e-05 -0.000175943 0.00098344 -6.94451e-05 -0.000177252 0.000399035 -9.27959e-05 -0.000154509 -0.00017962 0.000484299 -0.000109249 -0.000192704 -0.000118154
internal_weight=0 5555 5518.57 3816.86 656.571 3160.29 636 464.571 54.4286 1855.86 1701.71 13465.1 1293.43 1266.29 353.714 212.429 1237 410.143 1502.14 12171.7 393.143 8163.71 3956.71 491.571 157.143 3465.14 120.857 1304.43 334.429 77.7143 1247.14 4207 3198.29 4062.43 1108 4058.29 4.57143 171.429 1120 1534.86 246.286 1206 577 256.714 29.2857 3134.14 1469.57 1412.14 1664.57 79.1429 4053.71 4.57143 64.4286 4049.14 16.5714 1092.86 59.8571 4032.57 27.1429 1037.14 1288.57 1016.86
internal_count=359701 2997 2996 2751 1965 786 1964 1919 605 214 245 356704 961 956 70 60 908 1314 144 355743 1312 110786 2457 1337 261 1120 50 572 1076 285 538 108329 1084 108269 528 108261 49 45 884 234 56 116 110 791 48 1066 742 715 324 65 108212 68 266 108144 43 797 232 108101 87 787 178 784
is_linear=0
shrinkage=0.02


Tree=6
num_leaves=63
num_cat=0
split_feature=28 70 96 42 35 45 12 34 141 9 148 9 34 148 46 28 166 171 28 159 143 18 140 145 148 166 50 122 158 67 116 28 143 96 147 14 14 96 148 78 152 141 166 168 68 145 152 162 148 148 143 12 12 148 12 158 9 69 63 147 39 106
split_gain=1.2115 0.992833 0.54813 0.406588 0.319088 0.302295 0.25239 0.738523 0.191947 0.192152 0.171655 0.379711 0.16589 0.164933 0.0936929 0.0968892 0.0848709 0.0745047 0.0693413 0.0487785 0.081966 0.238065 0.0399199 0.039417 0.0994789 0.0981638 0.0933536 0.0457742 0.0351248 0.0279199 0.0235455 0.0202536 0.0239896 0.0174033 0.0156648 0.0136834 0.0133427 0.0161958 0.00994245 0.00825696 0.00762374 0.0126969 0.0237947 0.0378112 0.0127735 0.0137335 0.0105698 0.0183887 0.00759569 0.0223544 0.0255935 0.00674582 0.00626801 0.00619053 0.00584765 0.0275743 0.00524616 0.00477597 0.00464286 0.00458645 0.0043287 0.0140105
threshold=15.990799579958002 5.4719318181818197 0.014520850000000002 0.011110555555555552 7.2506785999999996 -762.29499999999996 0.24865591397849462 4.2857142857142865 25.495000000000001 0.18500000000000005 8.0016145833333354 0.72124087591240882 0.32142857142857145 1.0318064516129035 9.7500000000000018 5.5550892544625006 0.38780278466526802 35.454238450139691 6.8198297585120011 61.500000000000007 1.5000000000000002 3.7342857142857149 -6.6613381477509383e-16 219.62499999999994 1.3117436412315933 0.18524434978109103 0.63724285000000014 0.53571428571428581 161.50000000000003 0.34892857142857153 1.4670026137863899 5.6789666666665006 38.500000000000007 0.087179150000000025 0.0042598557365149947 7.955000000000001 -44.844999999999992 1.0000000180025095e-35 20.234019021751596 0.058214285714285725 6.5000000000000009 16.955000000000002 0.091121992761337048 1.5000000000000002 0.16397849462365593 1616.5399999999984 10.500000000000002 8.5000000000000018 1.8637017178035946 2.2353174186778593 6.5000000000000009 0.0075886363636363504 0.028621210191082803 0.095178125000000016 0.27523333333333339 23.500000000000004 0.17677083333333338 0.2050409836065574 0.011785714285714288 0.0056048587659362813 0.026666666666666668 26.035714285714288
decision_type=8 10 8 8 10 8 10 10 10 10 10 10 10 10 10 10 10 8 10 10 8 10 8 8 8 8 10 10 10 10 10 10 8 8 8 10 8 8 10 10 10 10 10 8 10 8 10 10 10 10 10 8 10 10 10 8 10 8 8 8 8 10
left_child=1 2 31 13 8 -2 10 29 12 -10 17 35 33 14 15 -4 18 40 -15 36 21 57 -16 24 26 -26 -22 30 -17 38 -25 -1 34 -5 -33 -12 37 -19 54 -24 60 44 43 -43 52 -46 47 -44 -38 50 -50 -35 53 -42 55 -8 -40 -21 -51 -53 61 -7
right_child=5 -3 3 4 -6 6 7 -9 9 -11 11 -13 -14 16 22 28 -18 19 -20 20 23 -23 39 27 25 -27 -28 -29 -30 -31 -32 32 -34 51 -36 -37 48 -39 56 -41 41 42 46 -45 45 -47 -48 -49 49 58 -52 59 -54 -55 -56 -57 -58 -59 -60 -61 -62 -63
leaf_value=-0.00023234385742116934 0.0010794688879901305 0.0032584910726300145 0.001567566228883357 0.0024972291290760013 0.00035970785913560344 -5.8761010420964834e-05 -0.00024337770880303251 0.0046106033272891398 0.0028352795045747899 0.0011022830073015315 -0.0001857709311608479 0.0020148104840568225 0.00085950994471780567 0.0014399384628173196 8.3198057217129742e-05 -0.00016848364741612397 6.8435993748788788e-05 0.0026816477546642765 0.00041531586625075719 2.2096827521779797e-06 -0.00010603511882485514 0.0008879005637549846 -9.2560461807177793e-05 -0.0001380136412870088 0.0038930969621485748 -0.00024367034536881133 0.00023971600512154908 0.00050762230068364823 0.00052190823520474551 0.00048495080665042137 0.00018767397117286502 -4.0808796150955824e-05 0.00012803502520189811 0.00091323976161642763 -0.00021722847144375627 0.001891080230893913 -0.00020416487842452898 -0.00026069545333974728 0.0030802981668577416 -0.00023502932063507165 0.00074233566684525957 -0.00023824410345010938 0.00019941677181961891 0.0047614968674705794 -0.00023927058932838156 0.0036826578245800225 -0.00013930818877083787 0.0021801577754289327 7.072278883478351e-05 0.00049256166356907575 0.0013954406711160232 0.00049665846307318578 0.00022602682917049341 -0.00019154599446173735 -0.00024944462802075506 0.0046137115531990659 -0.00023887898403574515 -0.00022909066274937311 -0.00021529432074037574 -0.00022356179157546638 -0.000220461855553685 0.002211036248011757
leaf_weight=412.7142881155014 84.142856582999229 43.285712867975235 26.000000387430191 1 1714.7142530977726 22.571428820490841 2.5714286714792247 17.285715103149414 34.8571417927742 96.285714566707611 97.285716488957405 47.714284166693687 443.00000804662704 60.571427419781685 379.85715115070343 52.285714894533157 62.999999910593033 1.4285714328289032 46.857144564390182 44.571428745985031 1383.8571456521749 131.85714387893677 285.14285886287689 4901.4285704344511 5.1428570747375462 4.1428572088480005 403.4285680949688 45.142856612801552 67.571429014205933 52.000000774860382 90.428571969270706 482.8571386039257 203.42857261002064 2.2857143580913535 345.28571185469627 1.2857143431901921 1941.7143318802118 1.5714286416769028 0.57142859697341819 379.0000102519989 2.8571428358554831 1.2857143282890313 10.428571477532385 1.1428571939468382 0.71428574621677399 0.71428574621677288 28.14285746216774 2.2857143282890311 20.57142919301987 3.8571429550647736 8.1428574174642545 3.7142857611179352 15.285714268684385 453.4285686314106 50.428572371602058 0.57142859697341908 0.28571429848670959 179.57143077254295 94.857145443558693 74.00000162422657 3646.5715178102255 1.1428571939468373
leaf_count=38 20 9 27 4 19 606 139 3 64 39 2877 20 14 21 12 75 25 9 26 33 3725 8 34 10387 17 53 73 32 6 10 199 12 39 5 93 16 89469 283 99 25 49 81 245 44 32 9 275 11 549 23 90 9 33 6275 2702 32 67 706 2983 2171 234641 9
internal_value=0 0.000242106 0.000216873 0.000344959 0.000503156 -0.000115645 -0.000122975 0.000776292 0.000878606 0.00156291 -0.000131159 0.00055025 0.000707345 6.93523e-05 -1.39951e-05 0.000460817 0.000651247 -0.000138571 0.000993029 -0.000106921 -8.228e-05 0.000213585 -8.03311e-05 -9.76933e-05 -1.72646e-05 0.00204746 -2.79917e-05 -0.00012638 0.000220736 0.000153538 -0.000132114 -0.000113936 -6.65632e-05 -0.000124867 -0.000114365 -0.000158682 -0.000192416 0.00114042 -0.000163088 -0.000173862 -0.000208588 -0.000136628 0.000191234 0.00211458 -0.000166632 0.00172169 7.69099e-05 0.000555505 -0.000194348 -4.47669e-05 0.000446389 -0.000157643 -0.000172352 -0.000185698 -0.00019728 0.000639729 0.00197391 -0.000183096 -0.000187636 -0.00018914 -0.00021871 5.06268e-05
internal_weight=0 5217.71 5174.43 3730.14 2369.86 13802.4 13718.3 123.714 655.143 131.143 13594.6 146.286 524 1360.29 1189.86 145.857 170.429 13448.3 107.429 9261.71 7189.57 356 1044 6833.57 1796.57 9.28571 1787.29 5037 119.857 106.429 4991.86 1444.29 1031.57 81 828.143 98.5714 2072.14 3 54.4286 664.143 4186.57 516.286 43.2857 2.42857 473 1.42857 40.8571 12.7143 2069.14 127.429 28.7143 80 471.571 456.286 53.5714 3.14286 0.857143 224.143 98.7143 77.7143 3670.29 23.7143
internal_count=359701 2767 2758 2576 2325 356934 356914 3052 2306 103 353862 2913 2203 251 179 108 72 350949 47 108639 15233 747 71 14486 3868 70 3798 10618 81 3049 10586 182 144 2189 105 2893 93406 292 3039 59 242310 7054 656 125 6398 41 531 256 93114 3645 639 2185 6357 6324 2873 171 166 739 3006 2180 235256 615
is_linear=0
shrinkage=0.02


Tree=7
num_leaves=63
num_cat=0
split_feature=12 52 43 36 166 11 97 120 17 47 43 43 12 108 99 88 9 36 170 166 166 137 19 163 97 105 2 7 124 43 145 145 54 60 18 57 62 29 89 166 12 154 38 99 145 166 2 141 38 54 54 54 170 154 46 38 2 163 154 29 62 76
split_gain=1.06334 0.630506 0.387451 0.348096 0.205803 0.299554 0.200098 0.17818 0.167605 0.140042 0.115088 0.106199 0.314225 0.518275 0.275852 0.103395 0.0931484 0.171877 0.22579 0.20132 0.139913 0.10184 0.0828831 0.0673131 0.141509 0.0585019 0.0425451 0.0411718 0.0409761 0.0362626 0.0327403 0.0650754 0.0735076 0.0314542 0.0282253 0.0261914 0.0256663 0.0249479 0.023802 0.0234507 0.0199739 0.0160218 0.0383525 0.0289522 0.0156244 0.0229971 0.0450449 0.0146067 0.0145548 0.026378 0.0563432 0.0139345 0.0124225 0.0121382 0.0110393 0.0105278 0.00874429 0.00836841 0.0080145 0.00794987 0.0079638 0.0354864
threshold=0.013798370581149001 21.362885714285721 4.9555763471480008 3.3213607000000009 0.42433051444679359 0.43924347797694846 1.247916666666667 8.9516046790641877 24.785714285714288 3.1785714285714293 8.0443750000000005 19.975000000000005 0.00069638663053295019 0.082500000000000018 0.39973684210526322 33.470000000000006 0.53005905511811024 2.6557035500000006 32.815645304735263 0.44906606710480806 0.31589889484626338 inf 1.2142857142857146 0.18350168350168355 1.0000000180025095e-35 89.979323432343236 2.2500000000000004 3.5744642857142863 1.6785714285714286 18.148923274482005 65.985000000000014 68.965000000000018 0.26952380952380961 -16.815657622429921 1.0192857142857144 0.023811904761904753 0.17857142857142858 -9.4414285714285686 0.986698595505618 0.4375764058679707 0.027778472222222253 0.028990176303600779 0.024422196187027376 0.13535714285714287 143.64000000000004 0.54587542087542096 8.1785714285714288 412.99500000000006 0.019636402927081437 0.56659113300492636 0.53547522522522528 0.065833333333333355 0.051450226596176686 0.0030349642620293277 2.535714285714286 0.023263772822055617 26.464285714285715 inf 0.75350467289719636 -266.93999999999994 0.32142857142857145 44.357142857142868
decision_type=10 10 8 8 10 10 10 8 10 8 8 8 10 8 10 10 10 8 10 8 10 8 10 8 8 10 8 10 10 10 10 10 10 8 8 10 10 10 8 10 8 8 8 10 8 10 10 10 10 8 8 8 8 8 10 10 10 8 10 8 8 10
left_child=7 2 9 4 5 -4 8 10 47 -2 -1 12 13 -9 29 22 25 27 -19 20 26 -22 37 -24 -25 28 -20 48 30 54 59 32 39 -6 36 -14 -33 40 56 -32 -7 -40 -43 -44 45 46 -35 52 57 50 -50 -39 -5 -54 -15 -51 -12 -18 -55 -13 61 -61
right_child=1 -3 3 6 33 15 -8 11 -10 -11 38 16 35 14 -16 -17 17 18 19 -21 21 -23 23 24 -26 -27 -28 -29 -30 -31 31 34 -34 44 -36 -37 -38 51 41 -41 -42 42 43 -45 -46 -47 -48 -49 49 55 -52 -53 53 58 -56 -57 -58 -59 -60 60 -62 -63
leaf_value=0.0015944450325935733 0.00084576345769578429 0.0018095289253122837 0.0016390670966366073 0.0017129427835658414 1.2035501335673404e-05 0.0015939733386039739 0.0016645284001282534 0.0025019595001691598 0.00042362211996476839 0.0002052215192484962 -0.00011511470104763412 0.0021585581131082342 -0.00020311327829145568 0.00019934721452712957 0.0016977643465069289 0.00074192110617619185 -0.00019455320337181251 -0.00021142984376852267 -0.00023808914370840304 -0.0002391442972999862 0.0010847278095630316 0.002315699011008125 0.00010487502308437369 -1.6720442648906525e-05 0.0012758508341405325 0.00099395549360793635 0.0019648946821689607 0.00031649903952930472 0.00043545417081971471 0.00030737577672681929 -0.00017806054976384376 -0.00012138327835514178 0.0035249522523328886 -0.00025136835212548195 -0.00018599843941786962 -1.0372250228102619e-05 4.9142737618776014e-05 0.00029431366400881466 0.00051022364632764643 0.00058764820158767198 -0.00023057753020717719 0.0051878100633621161 -0.00025369282570642047 0.0029774559365962341 -0.00019642671591423258 -0.00015468053458467327 0.00053894141101520248 0.0021192509664929972 -1.252537332257035e-05 0.00029793322903535471 0.0022040234899960683 -0.00017836400920804744 0.0016810421691884465 -0.00017483074221652173 -0.000181928296361023 -0.00022569122263252752 0.00023341239692262227 -3.9052016794212103e-05 0.0016192013419031499 -0.00015288548920165687 -0.00020869468438361965 0.00097935308655924791
leaf_weight=30.285715103149414 447.71429559588432 97.999998390674591 57.571428775787354 1.4285714477300633 603.28571820259094 5.9999999999999973 46.285713732242584 45.85714328289032 1275.1428260803223 196.42856968939304 40.142857536673546 0.571428582072258 793.28570438921452 37.142856791615486 46.571427822113037 106.14285664260387 816.00000052154064 143.71428699791431 28.428571954369545 52.714285731315613 76.571429803967476 41.428569793701172 297.71428422629833 66.428568497300148 69.142857775092125 17.428571343421936 3.9999999999999991 83.285712718963623 45.142856597900391 137.9999977350235 24.142857581377029 1631.285747602582 2.9999999701976767 52.142857134342194 2311.8571329563856 437.57142785191536 450.57142923772335 26.714285686612129 45.857144698500633 47.428572058677673 4.0000000447034845 1 3.1428572684526435 1.7142857313156126 1115.857149168849 247.57143345475197 64.57142972946167 1.1428571939468373 13.857143163681028 21.142857313156128 6.8571429997682598 377.14285726845264 1.4285714626312256 251.42857548594475 166.71428433060646 56.142858058214188 101.85714530944824 166.71428456902504 1.0000000447034825 586.14286436140537 5077.0001214593649 11.285714045166968
leaf_count=2 25 6 5 42 14 3 14 25 8 34 80 31 48 77 10 17 82 2971 531 539 67 13 29 10 34 72 3 5 12 25 364 29231 9 82 5190 20 1128 11 43 108 207 4 108 10 211 81 6 21 52 11 6 459 4 5008 133 215 2 46 358 5088 306587 64
internal_value=0 0.000219902 0.000190599 0.000127202 3.92713e-06 0.000238091 0.000368953 -0.000111488 0.000329799 0.000650433 0.000447923 -0.000120852 2.86022e-05 0.000491133 0.000253739 0.000153483 -0.000142092 4.47186e-06 0.000395248 0.000824444 0.00119715 0.00151691 7.97543e-05 0.000273095 0.000642505 -0.000163789 3.36445e-05 -0.000111974 -0.00016577 5.70184e-05 -0.000168446 -0.000127951 0.000457914 -0.000109687 -0.000137895 -0.000134594 -8.44767e-05 -0.000122663 0.000268673 0.000329355 0.000864153 0.000636035 0.00162105 0.000886713 -0.000159299 -4.55723e-05 0.000185865 -0.000136754 -0.000144995 8.7428e-05 0.000721229 -0.000147097 -0.000146854 -0.00015732 -0.00011246 -8.24446e-05 0.000134885 -0.000168173 -0.000167724 -0.000200329 -0.000200567 -0.000131497
internal_weight=0 5414.29 5316.29 4672.14 3094.29 1010.86 1577.86 13605.9 1531.57 644.143 224 13381.9 1665.14 434.286 388.429 953.286 11716.7 1510.86 346.857 203.143 150.429 118 847.143 433.286 135.571 10205.9 32.4286 1164 10188.4 341.857 10143.3 4468.29 74.5714 2083.43 4393.71 1230.86 2081.86 413.857 193.714 71.5714 10 51.7143 5.85714 4.85714 1480.14 364.286 116.714 256.429 1080.71 98 20.7143 403.857 255.286 253.857 203.857 77.2857 142 982.714 252.429 5675 5674.43 597.429
internal_count=359701 6689 6683 6624 1169 775 5455 353012 5441 59 249 352763 338 270 245 770 352425 4541 4124 1153 614 80 753 73 44 347884 534 417 347812 235 347800 36030 481 394 35549 68 30359 680 247 472 210 165 122 118 380 169 88 5433 412 284 58 470 5412 5370 210 226 82 128 5366 311770 311739 5152
is_linear=0
shrinkage=0.02


Tree=8
num_leaves=63
num_cat=0
split_feature=28 152 94 42 138 17 48 42 4 138 4 105 114 48 148 146 145 43 147 61 169 57 145 145 103 5 75 77 148 77 127 145 27 171 166 146 56 61 23 31 143 29 28 40 143 5 152 59 48 31 152 23 17 29 23 23 78 57 75 43 171 171
split_gain=1.11803 0.889942 0.444844 0.369664 0.489914 0.359438 0.241953 0.224853 0.712552 0.197968 0.787887 0.165776 0.174251 0.177994 0.158595 0.279797 0.157847 0.132981 0.141158 0.120844 0.118689 0.0743842 0.151252 0.233559 0.0622579 0.058122 0.0547047 0.0442232 0.065651 0.0716856 0.0427073 0.0390273 0.0379104 0.0327102 0.0297025 0.0734518 0.0325566 0.0282315 0.020447 0.0163635 0.00978115 0.0226692 0.0088463 0.0081615 0.00643655 0.0051102 0.00490081 0.0214564 0.00352252 0.00335057 0.0125223 0.0127033 0.00332943 0.00329386 0.0110307 0.00319079 0.0122049 0.00292561 0.00292059 0.00265169 0.00122033 0.00363533
threshold=15.990799579958002 224.50000000000003 0.12500000000000003 0.013056328320802 2.7071500000000008 14.357142857142858 0.32357142857142868 0.41428571428571437 5.6428571428571432 1.0000000180025095e-35 7.9642857142857153 54.70145257919291 0.2770833333333334 0.51750000000000018 8.0016145833333354 0.021618546874519574 859.81499999999994 6.8873217948845005 0.021293388637928432 607.25000000000011 0.32658380112269453 0.0078518939393939519 53.510000000000012 47.390000000000008 24.790707954170504 4.2846428500000018 -16.288500183634017 7.2500000000000009 0.24947781385281384 5.8214285714285738 -1.1175428571428569 2476.8450000000007 0.048004262672811056 35.454238450139691 0.52187585452556751 0.0080893694592025934 0.6797960609961361 98.357142857142875 0.025009382036527399 71.250000000000014 9.5000000000000018 -1.0000000180025095e-35 25.465000000000003 0.031948336572966508 15.500000000000002 1.7851178500000002 4.5000000000000009 -2.1132824267782424 0.016071428571428573 96.500000000000014 16.500000000000004 0.028419625800651761 5.7857142857142865 7.8850000000000007 0.050869021434424476 0.14174107142857145 0.020357142857142862 0.031961331133113308 -75.688611111111086 33.120000000000012 120.83798930590348 137.26195849781345
decision_type=8 10 8 8 8 10 8 10 10 8 10 10 10 8 10 10 10 10 8 8 10 10 8 10 10 10 10 8 8 10 8 10 10 8 8 8 10 10 10 10 8 10 8 10 8 10 10 8 8 10 10 8 10 10 10 10 10 10 8 8 10 10
left_child=1 2 32 17 -5 39 -6 9 37 10 -2 12 13 -8 21 16 -16 18 19 -4 -15 24 23 -23 30 26 43 28 -24 38 -11 40 44 46 35 -35 -36 55 -30 -3 41 -20 45 48 -1 -17 -32 -48 -26 50 52 -52 -29 58 -55 -9 -57 -51 -44 -59 -60 -62
right_child=7 5 3 4 6 -7 11 8 -10 14 -12 -13 -14 20 15 42 -18 -19 31 -21 -22 22 27 -25 25 -27 -28 49 29 -31 33 -33 -34 34 36 -37 -38 -39 -40 -41 -42 -43 53 -45 -46 -47 47 -49 -50 57 51 -53 -54 54 -56 56 -58 59 60 -61 61 -63
leaf_value=-6.7876902496005729e-05 -0.00023193021148062081 -0.00030673009032110196 0.00089696632182804665 0.0028095776364020319 0.0015300022966916313 0.0034567265571002533 0.00069051750128700992 -0.00020476389535917922 0.0045014759961525784 0.00043765482314858987 0.0042519795133270097 0.0016393149959669597 0.00099388640569773716 -0.00011921112663532501 0.0022693849341051142 -0.0002895760814196868 -0.0002781615330828092 -0.00015684478224164541 0.00090888168390010078 0.00018126442282230597 0.00031176633951745364 0.0001208055395396299 0.00090955742036514424 0.0017845076934064213 0.00029889015795054788 0.00083163378313272915 0.0010500835351449566 -0.00023611832352944919 -0.00014528590760133186 0.00069955541257599228 -0.00021185780612185208 0.00047000010332098657 -0.00022269385814927757 0.00014262778540255022 -0.00019907792511558424 -0.0001292120129738859 0.00068305358582915459 0.00047125299664499632 0.00021949608319830755 0.00080722725141917713 -0.00021784233172441169 -0.00015890904718007044 0.00044174010554949426 7.9962752913206192e-05 3.7624906442537638e-05 0.0029863079419892402 0.0020007377984507203 -0.0001529967828823991 -0.00023883422688146546 -0.00021930132450777011 0.0010344605913038968 -0.00027876615084927665 0.00029853697528161167 0.0020768658819705597 -0.00023214034394680253 -0.00025049398196085677 0.0030919814337141498 -0.00017191400144111349 -0.00020587292705253363 -6.2780449191481488e-05 0.0014489178908129233 -0.00023000506879313368
leaf_weight=444.8571368008852 65.857144415378571 8.5714287310838699 170.99999721348286 35.285713240504265 77.999999523162842 47.571427345275879 416.00000873208046 55.142857566475868 17.285715103149414 48.428571000695229 20.571428298950195 42.142856597900391 167.00000444054604 318.71428692340851 41.428569793701172 0.28571429848670959 12.714285865426062 632.28572535514832 10.714285925030707 210.57143208384514 1290.7142497897148 130.14285466074944 35.142857581377029 45.571428403258324 5.1428573280572891 44.142855480313301 18.57142847776413 39.285714954137802 331.99999979138374 53.71428656578064 3534.857231169939 45.285713672637939 549.42857313156128 432.85714739561081 2314.1428633332253 4880.0000436455011 16.857142925262451 51.428572177886963 75.428570240736008 13.714286088943481 223.14285950362682 30.85714302957058 3 63.857142835855484 481.85715162754059 0.57142859697341919 1.8571429103612898 499.00000269711018 92.857142940163612 327.85714067518711 7.8571427762508366 4.7142857313156137 5.2857141494750968 1.1428571939468373 3.0000001043081284 1.8571429401636117 0.57142858207225788 304.57142958045006 85.000002041459084 125.85714036226273 0.71428573131561224 1.8571429252624509
leaf_count=26 2226 64 27 31 23 2 3 394 2 30 1 1 8 2156 26 98 60 24 22 33 56 70 17 13 35 10 33 237 204 15 232738 4 130 1099 45184 61291 7 13 115 2 82 58 2 14 15 11 18 9182 349 62 12 40 2 4 371 81 6 40 2526 24 16 256
internal_value=0 0.000232584 0.000202157 0.000320039 0.000470729 0.00247481 0.000435043 -0.00011109 0.000728962 -0.000118847 0.000835314 0.000396822 0.000372939 0.00032174 -0.000124915 0.000522431 0.00167115 5.27916e-05 0.000244457 0.000502004 0.00022642 -0.000132127 1.25123e-06 0.000552286 -0.000148725 0.000181137 2.19889e-05 -7.25641e-05 7.62906e-05 1.27888e-05 -0.000155041 -7.2552e-05 -9.10617e-05 -0.000157498 -0.000133179 -0.000107064 -0.000192699 0.0001307 -7.77526e-05 0.000378782 -0.000165369 0.000116295 -0.000128337 -9.59743e-05 -1.30199e-05 0.00189435 -0.000203562 -0.000145011 -0.000210615 -0.00016316 -1.54766e-05 0.000542001 -0.000172714 -0.000146642 0.000404827 -0.000173517 0.000535971 -0.000174289 -0.000171866 -0.000140003 -0.000192887 0.000236362
internal_weight=0 5217.71 5147.86 3671.71 2347.86 69.8571 2312.57 13802.4 126.286 13676.1 86.4286 2234.57 2192.43 2025.43 13589.7 149.714 54.1429 1323.86 691.571 381.571 1609.43 13440 1487.43 175.714 11952.6 224.571 180.429 1311.71 496.286 461.143 11728 310 1476.14 11679.6 7643.86 5312.86 2331 109 407.429 22.2857 264.714 41.5714 95.5714 161.857 926.714 0.857143 4035.71 500.857 98 815.429 57.1429 12.5714 44.5714 94.7143 4.14286 57.5714 2.42857 758.286 90.5714 430.429 87.5714 2.57143
internal_count=359701 2767 2699 2528 2278 68 2247 356934 496 356438 2227 2224 2223 2215 354211 3370 86 250 226 60 2212 350841 851 83 349990 441 431 768 351 334 349549 166 171 349519 107581 62390 45191 494 319 66 162 80 3284 398 41 109 241938 9200 384 417 291 52 239 3175 375 481 87 126 2800 64 2798 272
is_linear=0
shrinkage=0.02


Tree=9
num_leaves=63
num_cat=0
split_feature=13 52 96 146 45 35 143 2 143 46 71 171 162 107 53 146 142 142 164 160 6 143 18 153 2 67 85 52 105 85 128 58 108 19 160 146 114 27 16 2 58 93 19 67 19 140 33 161 113 53 2 27 16 172 172 146 76 52 2 15 105 5
split_gain=1.10286 1.14103 0.525919 0.357631 0.602944 0.276453 0.237391 0.234354 0.228425 0.183881 0.111166 0.100498 0.0996748 0.139674 0.0718541 0.122296 0.0648965 0.202172 0.241895 0.117853 0.0599895 0.0539841 0.231904 0.0431578 0.334628 0.0427063 0.0800674 0.0645846 0.0444458 0.0564126 0.0375846 0.0319328 0.030655 0.0266807 0.02142 0.0197755 0.0255192 0.0188046 0.168926 0.0162604 0.0137311 0.00680761 0.00654347 0.00641801 0.0159528 0.0122499 0.00637568 0.00944502 0.0093981 0.00731739 0.00814629 0.00613429 0.0153632 0.0123043 0.030471 0.0109725 0.00584415 0.00505392 0.0044492 0.0438166 0.0037249 0.00369307
threshold=15.660000000000002 21.362885714285721 0.014520850000000002 0.0027874577996371461 -762.29499999999996 6.9642857000000014 27.500000000000004 12.428571428571431 49.500000000000007 2.2500000000000004 5.6619393939393952 35.454238450139691 6.5000000000000009 1.0000000180025095e-35 0.015989080252117711 0.047060681505703993 87.500000000000014 93.500000000000014 13.500000000000002 0.3818515633693112 4.7121178500000012 1.5000000000000002 3.7342857142857149 11.965000000000002 14.750000000000002 -2.4461464285714283 0.087031547619047619 -4.443632142857143 56.236666666666672 1.0000000180025095e-35 0.019982955928901879 8.576896551724003 0.020357142857142862 17.285714285714288 0.48003847210772194 0.0027874577996371461 0.24535714285714286 0.67682500000000012 185.6428571428572 5.3928571428571432 16.985000000000003 0.12625000000000003 -0.21428571428571425 0.13001071428571434 0.35714285714285715 -6.6613381477509383e-16 0.0046428571428571439 4.5000000000000009 0.016323706249962048 0.30384615384615393 1.0000000180025095e-35 0.071414285714285722 79.214285714285737 21.316312116991558 21.869526344285887 0.95000000000000007 1.2500000000000002 -7.9116535714285705 27.535714285714288 -11.897499999999999 -1.0000000180025095e-35 3.9328571000000005
decision_type=8 10 8 10 8 8 10 10 10 8 10 8 10 10 10 10 10 10 10 10 10 8 10 8 10 8 8 8 10 8 10 8 8 8 10 10 10 10 8 8 10 10 8 8 10 8 8 8 8 10 10 10 8 10 10 10 8 8 10 10 10 10
left_child=1 2 10 4 -4 -6 9 -7 12 -5 35 42 13 -8 15 -10 57 18 41 -20 21 22 56 24 -23 26 27 -25 30 -30 -27 -11 39 -16 -28 -1 43 40 -39 -33 -34 -18 61 -37 45 -45 47 48 -44 -50 -51 -48 53 55 -55 -53 -19 -13 59 -17 -58 -2
right_child=11 -3 3 6 5 7 8 -9 14 31 -12 16 -14 -15 33 58 17 20 19 -21 -22 23 -24 25 -26 28 34 -29 29 -31 -32 32 37 -35 -36 36 -38 38 -40 -41 -42 -43 46 44 -46 -47 51 -49 49 50 -52 52 -54 54 -56 -57 60 -59 -60 -61 -62 -63
leaf_value=3.7186600939760897e-05 -0.00022494238153938394 0.0037486309537086166 0.004166939644905456 0.0010413354874579785 0.00049736276396319858 -0.00025205074077352106 -0.00013835624483363678 0.002529939583057193 0.00035514361079445439 0.00026152007145118151 0.00042370190666490159 0.00047232003128487631 0.0012623233840231304 0.00095103339532812288 0.00015182284450683648 0.0022072724608663725 -0.00012803357650906938 8.1434046292042905e-05 0.0021809613747667289 -0.00023496652559012348 0.0005586284105894995 -0.00022472360228528975 0.00084292116162897448 0.00084921060782988667 0.0025355484310783248 -0.00011346730774749206 0.00011297609340952326 -7.3030109023131327e-05 0.0011855876440323592 -8.3139615072669437e-05 0.00045591838528347936 0.00020845062094269768 -0.00014249806579112338 0.00033237640726135567 -0.00019425827750451527 -0.00021304663238300961 9.9768574915582247e-05 -0.00026909877631653732 0.0043915681029714467 0.0013019388718478212 1.8523204944722233e-05 0.00065092746348934872 0.001518235620484939 0.00055271579268181554 -0.00019188530354249657 -3.1296517520581212e-05 -0.00020091422941450183 0.0016819099084875604 -0.00012223012965299496 0.0045535627952115474 -0.00022237867752632372 -0.00023159129141240079 0.0025152543187141421 0.0032129968417680533 -0.00022488757195453764 0.00228068938621032 -0.00021814560593293983 -0.00019360322020517818 0.001542678444988005 0.00064226988300522146 0.00035810081488916263 0.00079777264159749505
leaf_weight=230.85713887214661 2.1428572237491608 36.428569793701172 20.571428298950195 68.571429461240768 451.00001068413258 15.857143253087996 71.999999955296516 51.285713195800781 209.28571435809135 137.85714057087898 156.57142961025238 4.5714285373687744 141.28571128845215 136.00000333786011 773.57141646742821 11.142857551574709 59.000001236796379 31.571428433060646 44.714284181594849 9.8571427762508375 61 92.000000864267349 131.85714387893677 83.142854958772659 21.714284896850586 6331.4285806268454 158.5714289098978 47.85714353621006 24.142857119441032 33.428570792078972 46.714285224676132 12.857142806053163 675.71429020166397 567.5714111328125 212.28571680188179 1009.7142845541239 134.00000256299973 19.142857581377033 3.7142856121063224 9.4285717010498029 308.57143557071686 4.8571429550647727 1.5714286267757414 22.285714462399483 188.99999971687794 40.428571447730064 4114.2858024537563 1.4285714626312245 26.14285758137704 0.2857142984867086 0.28571429848670959 26.285714864730842 0.999999999999999 1.5714286118745793 3.0000001341104507 0.71428574621677299 243.00000357627869 1636.0000440627337 30.285715103149414 19.999999538064003 4.5714285671710959 4.1428570747375488
leaf_count=22 403 1 1 38 68 721 52 2 55 10 13 19 10 7 42 4 610 33 6 110 1 405 8 27 1 18676 102 35 17 37 107 47 805 1 34 87 11 827 1 2 14 14 23 11 35 65 241267 136 1483 119 18 1521 1 24 240 64 1200 89944 1 44 12 7
internal_value=0 0.000220633 0.000197344 0.000332224 0.000808932 0.000675612 0.000251896 0.00187292 0.000388706 3.47951e-05 -8.5277e-05 -0.000114293 0.000852389 0.000573937 0.000288227 0.000585445 -7.76147e-05 -5.31119e-05 0.000766806 0.00174458 -6.60187e-05 -7.11248e-05 0.000151688 -8.4112e-05 0.000302363 -9.04467e-05 8.72505e-05 0.000512296 -0.000104304 0.000448907 -0.000109297 -2.43335e-05 -6.26139e-05 0.000228233 -6.28907e-05 -0.000134279 -0.000162646 -7.88488e-05 0.00048826 0.00067108 -9.20182e-05 -6.87837e-05 -0.000195688 -0.000190522 -0.000100169 0.000176234 -0.000196658 9.52594e-05 1.51255e-05 -7.32928e-05 0.00216559 -0.00019875 7.46393e-05 -2.66527e-06 0.000956885 -0.000165129 -0.000174826 -0.000191748 0.00137008 0.00120222 -0.000207505 0.00044912
internal_weight=0 5555 5518.57 3735.71 538.714 518.143 3197 67.1429 1961.14 1235.86 1782.86 13465.1 349.286 208 1611.86 270.714 9282.29 7641.71 118.429 54.5714 7523.29 7462.29 411 7051.29 113.714 6937.57 501.857 131 6435.71 57.5714 6378.14 1167.29 1029.43 1341.14 370.857 1626.29 1395.43 1007.14 22.8571 22.2857 984.286 63.8571 4182.86 1261.43 251.714 62.7143 4176.57 29.7143 28.2857 26.7143 0.571429 4146.86 32.5714 31.5714 4.57143 27 279.143 1640.57 61.4286 31.1429 247.571 6.28571
internal_count=359701 2997 2996 2752 792 791 1960 723 216 1744 244 356704 69 59 147 104 111398 21435 740 116 20695 20694 1253 19441 406 19035 198 62 18837 54 18783 1706 1696 43 136 231 209 1647 828 49 819 624 245306 198 111 76 244896 1779 1643 1620 137 243117 1850 1849 264 1585 1245 89963 49 48 1212 410
is_linear=0
shrinkage=0.02


Tree=10
num_leaves=63
num_cat=0
split_feature=13 138 24 52 43 143 5 12 100 154 68 12 4 105 150 39 158 24 143 42 43 39 88 144 105 7 53 52 124 150 3 39 154 25 100 52 138 39 42 53 54 55 154 158 39 3 155 150 68 76 54 114 7 100 113 155 153 62 154 155 138 3
split_gain=1.11625 1.15093 1.52695 1.13123 0.301455 0.340327 0.277695 0.272243 0.2399 0.190313 0.177864 0.170228 0.156101 0.0990863 0.0783102 0.0744157 0.0633988 0.128302 0.374655 0.161548 0.116404 0.165407 0.0852889 0.0814628 0.055453 0.0535716 0.0447247 0.0394247 0.0385309 0.0329796 0.269358 0.031987 0.0284089 0.0217181 0.0202816 0.034556 0.0200477 0.0329939 0.0181472 0.0179453 0.0175977 0.0271843 0.0557751 0.0201277 0.0175665 0.0136738 0.0257551 0.0526291 0.018884 0.0117797 0.0117077 0.0106559 0.0104549 0.00828993 0.00775504 0.00704689 0.0107937 0.00592029 0.013598 0.00562351 0.00555504 0.0121849
threshold=25.991249624962503 2.7071500000000008 0.22500000000000006 21.362885714285721 4.9555763471480008 27.500000000000004 8.270892850000001 0.018520370370370354 0.24640961996068564 0.013001098684395867 0.017544938474583952 0.020119047619047602 -0.10714285714285712 40.125000000000007 49.500000000000007 0.14690476190476195 231.50000000000003 0.52516666666666678 2.5000000000000004 0.025227000000000003 18.770911341134006 0.25414285714285717 31.418544711007005 1.5000000000000002 79.870000000000019 -12.927857142857142 0.0081766640815125833 -7.9116535714285705 0.78571428571428592 51.500000000000007 0.73928571428571443 0.17704365079365084 0.0057323019899582035 0.094553866883116913 1.0000000180025095e-35 1.5017857142857145 3.9961000000000007 0.17816666666666672 0.068528015230842468 0.054339845495754331 0.15032258064516132 0.054839715375586857 0.015170694284618338 646.50000000000011 0.063484848484848491 1.2932142857142861 0.014067046909556513 163.50000000000003 0.013413822264605864 2.4642857142857149 0.80078947368421072 0.22878571428571434 -45.22107142857142 40.960000000000008 0.013197149201505958 0.037744601662187134 53128.000000000044 0.32142857142857145 0.014191590062290508 0.03844209380104225 4.9827500000000002 0.056785714285714294
decision_type=8 8 10 10 8 10 10 10 8 8 8 10 10 10 10 10 8 10 8 8 8 10 8 10 10 10 8 8 10 10 8 8 8 10 8 10 10 8 10 10 8 10 8 10 8 10 8 10 8 8 8 10 8 10 10 10 8 8 10 10 10 8
left_child=1 2 11 4 6 12 25 14 27 -9 -10 -1 -6 55 52 44 17 20 19 -19 21 -16 -20 -21 28 -3 -14 -7 29 30 -22 -27 -31 -17 51 39 -18 40 57 -36 -38 42 -42 -44 -12 46 47 -24 -48 -46 -29 -28 -2 -54 -52 -11 59 58 -39 -57 -61 -62
right_child=7 3 -4 -5 5 8 -8 9 10 13 15 -13 26 -15 16 33 36 18 22 23 24 -23 45 -25 -26 31 34 50 -30 32 -32 -33 -34 -35 35 -37 37 38 -40 -41 41 -43 43 -45 49 -47 48 -49 -50 -51 54 -53 53 -55 -56 56 -58 -59 -60 60 61 -63
leaf_value=0.0036426389084987564 0.0029276203818358873 -0.00022436754729455039 0.00034734556701991121 0.00367365816185109 0.0015044471208757655 0.00015797334922380423 0.00083055036754928159 0.00093547561396832742 0.0008493813948120489 -0.00017701235945539261 0.00041984191489209151 0.0020923352009300793 0.00031187883071668649 0.0014301992759625601 -0.0001491028982706725 0.00024633077528326685 -0.00019776416083549565 -6.8431938227121465e-05 0.00049745975008192497 0.0010135976049360897 -0.00011643469311241762 0.00094902165978675852 0.0020135820940778257 0.0020762295831251248 0.00096572517348695957 1.4403449543637008e-05 -0.00018549633980370189 -0.00018148502911088005 0.00047324601048789303 0.00017617581056502776 0.004872121181598534 0.00062497968589730554 -0.00012922564616800266 0.00040282148082208986 -8.517336156085609e-05 0.00041878588975017336 -0.00017844513749345556 0.00058870592451625839 0.00030376743212431548 0.00020863381424896519 0.0030241113317309993 0.00015628363818520272 4.3757136224077413e-07 0.001776613084154871 0.00032392331542895921 -0.000197087562179264 0.0011344359677933809 -0.0002254245861011653 -0.00014822835666366494 -0.00026219065705772028 0.00022055389516155105 2.4187476194666589e-05 -0.00019711910024085167 0.00100774036007884 -9.9446720345763232e-05 0.0010988473985344171 0.0020375979153395632 -0.00016556892351501381 -0.0002350921267797087 -5.0370172583023529e-05 -0.00023275533840574458 0.0028457385018891218
leaf_weight=82.000000298023224 0.4285714328289032 151.28571438789368 222.85713759064674 36.428569793701172 25.142857268452644 283.14285564422607 448.57143834233284 166.57143515348434 268.71428975462914 146.28571479022503 21.28571429848671 43.28571330010891 112.71428537368774 18.285714134573936 116.85714174807072 601.14284226298332 1865.285728380084 41.285713642835617 99.285713583230972 86.571429550647736 39.85714402794838 103.42857190966606 7.5714286267757442 43.285712733864784 19.285714283585548 68.285713672637939 936.14285136759281 429.8571465909481 44.999999463558197 125.42857253551483 4.8571429252624503 68.999999269843102 4252.4286117255688 865.42855609953403 1510.1428589373827 60.285713568329811 47.285713642835617 13.714285746216772 35.714286327362061 88.000000953674316 4.1428570598363876 117.71428373456001 11.428571790456774 3.2857143580913535 15.428571581840513 400.28571571409702 4.8571429252624512 9.4285715818405134 83.857143759727478 123.57142850756645 53.57142898440361 108.14285677671432 3498.7143912315369 2.2857142239809027 69.714285954833031 1.9999999999999989 1.1428571939468373 884.42856280505657 19.285714104771614 35.000000610947609 1.2857143431901925 0.85714286565780629
leaf_count=4 4 12 25 1 25 6 11 57 21 1154 18 63 13 8 100 27 2332 20 12 66 838 18 29 25 48 21 208 39 6 557 96 19 35815 27 3664 10 74 14 3 69 17 37 67 25 4 60 4 61 387 195 25 20 311599 40 31 4 4 582 34 1037 55 5
internal_value=0 0.000220823 0.00134046 0.000159399 0.000139109 8.88292e-05 0.0005192 -9.98467e-05 0.000248208 0.00043342 0.000372695 0.00310702 -6.44495e-05 2.51942e-05 -0.00011637 0.000293958 -8.35339e-05 -4.3084e-05 0.000195117 0.00102134 -8.23745e-05 0.000366489 -3.84947e-05 0.00136781 -0.000104412 3.52202e-05 -7.84604e-05 -3.3961e-05 -0.000109031 -0.000114956 0.000425453 0.00032128 -0.000120476 0.000338676 -9.47391e-05 -5.12638e-05 -0.000157414 -9.12185e-05 -0.000138537 -6.89952e-05 0.000154086 0.00026922 0.000974215 0.000397059 -0.0001152 -0.000143658 5.86522e-05 0.00077178 -7.8002e-05 -0.000197134 -0.000132208 -0.000163782 -0.00019595 -0.000196332 3.96034e-05 -0.000112509 0.000121715 -0.000155755 0.000107266 6.57767e-05 1.01498e-05 0.000998642
internal_weight=0 6694.14 348.143 6346 6309.57 5572.43 737.143 12358.7 2731.86 371.429 1895.57 125.286 2840.57 204.857 11987.3 1626.86 8485.86 5483.57 776.429 171.143 4707.14 220.286 605.286 129.857 4486.86 288.571 2815.43 836.286 4467.57 4422.57 44.7143 137.286 4377.86 1466.57 2702.71 1658.43 3002.29 1137 953.143 1598.14 183.857 136.571 18.8571 14.7143 160.286 506 105.714 17 88.7143 139 553.143 1044.29 3501.43 3501 123.286 186.571 40.2857 917.429 33 39.1429 37.1429 2.14286
internal_count=359852 4558 92 4466 4465 4402 63 355294 393 2324 292 67 4009 2267 352970 271 41327 38142 664 111 37478 118 553 91 37360 52 3984 101 37312 37306 934 40 36372 54 3971 3743 3185 853 633 3733 220 146 109 92 217 541 481 90 391 199 95 228 311643 311639 56 2259 1105 630 48 1101 1097 60
is_linear=0
shrinkage=0.02


Tree=11
num_leaves=63
num_cat=0
split_feature=12 45 23 58 102 113 12 18 75 140 148 154 167 51 108 30 103 159 154 44 44 42 173 18 159 134 45 49 61 42 12 102 155 21 140 154 160 153 44 12 155 173 173 103 42 154 33 23 19 148 98 98 44 44 151 94 94 63 1 173 1 1
split_gain=0.975533 1.15311 0.518681 0.455856 0.366084 0.259654 0.245263 0.240888 0.194431 0.145903 0.142683 0.340808 0.138262 0.0576798 0.0574883 0.0565783 0.0552346 0.0528153 0.0560572 0.125766 0.260668 0.0752582 0.0472462 0.0744704 0.0444879 0.0418458 0.0392446 0.033142 0.0320409 0.0250979 0.0268766 0.0232572 0.0205277 0.0203851 0.0172429 0.015663 0.0506366 0.013104 0.0128166 0.0118387 0.0114345 0.00785815 0.0279009 0.00663244 0.00633668 0.00401288 0.00346283 0.00837351 0.00523495 0.0034882 0.0106887 0.0422268 0.00341186 0.00760813 0.00269707 0.00248113 0.00214737 0.00213815 0.0020936 0.00189914 0.00169275 0.00134274
threshold=0.013798370581149001 -530.77481349003563 0.017550019712201857 35.979521882038007 0.0051675000000000011 0.010775912120578744 0.014852941176470602 3.7342857142857149 -27.956551724137935 5.3290705182007522e-15 8.0016145833333354 0.013342234089897645 1.0000000180025095e-35 0.69472860000000014 0.0032142857142857151 -13.417138893055347 39.965000000000011 39.500000000000007 0.02501489868891538 0.14198050814281241 0.16061224659355269 0.15956714285714288 2.4852244742188816 6.1592857142857147 783.50000000000011 -1.4151822357167292 73.785000000000011 0.8928571428571429 114.03571428571429 0.010507032755298651 0.050106891025641059 0.17550686274509805 0.014937769623642587 0.38970700000000008 -1.3322676295501877e-15 0.0057323019899582035 0.28036137289537372 133.36000000000001 0.27562222222222227 0.047607142857142855 0.17663699143023551 31.506628236105279 34.6857773183619 162.07500000000002 0.0080831839904421023 0.037051641546909687 0.0010714285714285717 0.02921260511894953 -1.0000000180025095e-35 0.7685128850997871 0.17519181585677751 0.18465909090909097 -18.044999999999998 -18.906666666666663 26.500000000000004 0.79166666666666685 0.20833333333333334 0.043214285714285726 768.14285714285722 229.85947491056359 3571.6071428571436 11.607142857142859
decision_type=10 8 10 10 8 8 10 10 8 10 10 8 10 10 8 8 8 10 8 10 10 10 8 10 10 8 10 10 10 10 10 10 10 10 10 10 10 10 8 10 10 10 10 10 10 8 8 10 10 10 10 10 8 10 10 10 10 10 10 8 10 10
left_child=1 -1 5 4 38 -2 -6 9 12 13 17 -12 15 14 -8 -3 -7 43 25 21 -21 22 54 -24 -11 -19 37 -17 -16 30 34 35 55 57 -18 36 -27 -22 56 -40 -37 -13 -43 46 60 -44 47 48 -10 52 59 -52 53 -48 -20 -31 -4 -34 -41 -51 -29 -49
right_child=2 8 3 -5 6 16 7 -9 10 24 11 41 -14 -15 28 27 29 18 19 20 26 -23 23 -25 -26 31 -28 44 -30 32 -32 -33 33 -35 -36 40 -38 -39 39 58 -42 42 45 -45 -46 -47 49 61 -50 50 51 -53 -54 -55 -56 -57 -58 -59 -60 -61 -62 -63
leaf_value=0.0014242514874628425 0.00084775724698651846 0.0014948373067197988 -0.00021326284643711273 0.0011573440338585256 0.0023593734813370888 0.00017022709212655189 0.0018917593528339552 0.00050656047519956869 0.0044664342194899523 -0.00022774217044571718 0.0019540714886465537 -0.00020211159302278755 -0.00020233594069163507 0.0022748364337233365 -0.00011949326774710682 -6.468409484938264e-05 -5.6048629893655941e-05 0.00045476392967285889 -0.00020736382546091079 0.002284008579530537 -0.00018895024745129864 0.0020681730001768021 -7.8415746270360124e-05 0.00018078401398969438 0.0018948452261932545 0.00051361954118755526 0.00095086891730631414 0.00039235879723490942 0.00050230391137734203 -0.00021112003590205897 -0.00022115463630266102 0.00075842705573941731 -5.6841103822123303e-05 0.00021194865032664626 0.00014790507168200103 -0.00017330558332822766 -0.00011875716671676793 0.00023796042971992108 0.00068404624687045073 -0.00020230744641312303 0.00048093508695626661 0.0047783097723882 0.001427753980690144 0.00079441277166565378 0.00079367004555488659 -0.00022008812098097804 -0.0002719666215271589 -0.00022805281093203538 -0.00022257304919556621 -0.00016395390178707304 0.0047652545594647072 0.00010946200215705377 -0.00020308065121050012 0.0013982577483032364 -0.00012276565985932822 -0.00012723245771182446 -0.00011019522905013031 -0.00024929569377316914 1.9766961865678154e-05 7.1622280878381358e-05 0.00061067990652268497 0.00023786430705829338
leaf_weight=199.9999992698431 138.71428909897804 30.285715103149414 339.42857091128826 282.42856466770172 25.857143640518188 402.57142233848572 5.9999998062849045 1946.4285565912724 0.2857142984867086 4.8571429848670986 44.857141315937042 90.428573504090309 103.14285692572594 4.2857141494750968 486.71429114043713 28.571428298950195 310.14286389946938 45.571428060531616 842.85715860128403 27.142856121063232 65.714284837245941 6.5714286267757407 2762.5714531838894 528.142857670784 21.142857164144516 55.000000730156898 20.285714656114578 23.714286059141159 35.571429342031479 693.99999757111073 182.14285872876644 11.142857030034063 35.857142940163612 111.28571605682373 356.2857092320919 4000.5714379698038 640.28571537137032 51.142858549952507 10.428571447730063 20.571428805589676 10.714286074042318 0.57142859697341819 0.71428573131561279 2.7142856568098059 83.571428298950195 3.4285715669393539 3.0000000298023224 4.1428572833538038 0.14285714924335657 266.85715118050575 0.8571428656578054 8.5714288949966413 2988.0000926554203 1.7142857313156126 183.57142475247383 176.99999952316284 106.14285728335381 64.857143253087997 97.285713195800781 14.428571954369543 35.428569793701172 6.1428570747375488
leaf_count=24 9 1 97 20 9 17 22 25 310 194 17 2321 59 4 5567 64 14 6 7600 4 73 15 20098 24 4 320 17 65 15 252 99 39 71 3 26 11927 465 65 18 243 371 24 33 21 10 476 219 190 34 16097 9 577 289008 4 1501 8 4 22 2 1017 1 1
internal_value=0 -8.28157e-05 0.000227292 0.000388065 0.000318086 7.07639e-06 0.0004215 0.000401496 -0.000106014 3.53844e-05 -0.000118004 0.000516951 0.00039323 -3.60357e-05 -5.47826e-05 0.000697977 -4.28839e-05 -0.000125088 -0.000100593 -4.98743e-05 0.000493268 -7.05118e-05 -7.37672e-05 -3.68155e-05 0.00149832 -0.000148381 0.00013885 0.000557081 -7.71444e-05 -8.72998e-05 -5.85497e-06 -0.000154207 -0.000151115 2.53778e-05 5.2989e-05 -0.000156368 -6.87335e-05 -2.11158e-06 -0.000137994 3.81564e-05 -0.000171558 -0.000160611 0.000635451 -0.000193822 0.000681559 6.40226e-05 -0.000194636 0.000164332 0.00290343 -0.000195808 -0.000129667 0.000532716 -0.000202232 0.000335388 -0.000192234 -0.000194073 -0.00018871 -0.000180776 -1.89951e-05 -0.00015187 0.000523141 5.02032e-05
internal_weight=0 13192.9 5860 3387.14 3104.71 2472.86 2530.86 2505 12992.9 558.571 12688.1 140 304.714 532.571 528.286 201.571 2334.14 12548.1 9251.29 4488 164.286 4323.71 4317.14 3290.71 26 4763.29 137.143 171.286 522.286 1931.57 848.571 4717.71 1083 212 666.429 4706.57 695.286 116.857 573.857 128.286 4011.29 95.1429 4.71429 3296.86 142.714 4.14286 3294.14 10.7143 0.428571 3283.43 290.714 9.42857 2992.71 4.71429 1026.43 871 445.571 100.714 117.857 281.286 59.1429 10.2857
internal_count=359852 353107 6745 6224 6204 521 5840 5831 353083 5806 352883 2871 200 5608 5604 141 512 350012 42525 29397 159 29238 29223 20122 198 13128 155 140 5582 495 139 13122 356 96 40 13083 785 138 364 263 12298 2854 533 307487 76 509 307466 535 344 306931 17700 586 289231 223 9101 260 101 93 245 17114 66 191
is_linear=0
shrinkage=0.02


Tree=12
num_leaves=63
num_cat=0
split_feature=12 45 143 143 59 96 30 32 25 67 59 35 14 25 42 147 147 24 24 98 17 165 158 17 17 140 158 143 54 94 140 92 54 16 140 143 32 24 45 69 90 91 153 16 16 116 54 67 158 140 14 140 143 4 32 140 58 18 153 99 158 160
split_gain=0.936902 1.10744 0.481953 0.759391 0.378716 0.405441 0.255475 0.233674 0.290479 0.178337 0.146888 0.187185 0.119216 0.11688 0.102911 0.0638726 0.070593 0.06305 0.422725 0.0597246 0.0578128 0.0468581 0.0399426 0.0526729 0.117314 0.182314 0.0549944 0.0904248 0.0317919 0.0298914 0.0267368 0.171704 0.025521 0.0241214 0.0235185 0.0216877 0.0197046 0.0197708 0.0192598 0.0192147 0.0193851 0.0189217 0.0191013 0.0217447 0.0168379 0.0601746 0.0301493 0.015899 0.0139779 0.0116699 0.0100428 0.00914585 0.00878366 0.00713783 0.023558 0.0065613 0.00670487 0.00542187 0.00527019 0.032376 0.0144142 0.0074229
threshold=0.013798370581149001 -530.77481349003563 446.00000000000006 489.00000000000006 -3.3783205165691998 0.013354200000000002 -13.417138893055347 8.4642857142857171 0.3969166666666667 -2.4461464285714283 -0.6144664869029276 1.9401428500000002 0.33194166666666675 0.68951347517730499 0.014391376811594202 0.019622652686452226 0.027035332812837428 0.72166666666666679 0.73108757062146901 0.013872958593569282 26.071428571428577 24.500000000000004 231.50000000000003 11.214285714285715 17.500000000000004 -1.0000000180025095e-35 228.50000000000003 33.500000000000007 0.23690476190476195 1.0000000180025095e-35 -2.6645352591003753e-15 3.7916666666666674 0.28025000000000005 10.642857142857144 -6.6613381477509383e-16 18.500000000000004 0.67857142857142871 0.12680555555555559 9.0825000000000014 0.19490000000000005 -54.704999999999998 771.66666666666663 29.905000000000005 785.42857142857156 7.2142857142857153 120.48611940669953 0.17023809523809527 -1.6146428571428568 310.50000000000006 8.526512829121206e-14 -308.32999999999998 8.526512829121206e-14 843.00000000000011 6.6071428571428577 20.607142857142861 -4.2632564145606017e-14 18.982136676561506 0.032142857142857154 59.020000000000003 0.75241935483870981 49.500000000000007 0.040899966543994651
decision_type=10 8 8 8 8 8 10 8 10 10 8 10 10 10 10 8 10 10 10 8 10 10 10 10 10 10 10 8 10 8 8 10 8 10 8 8 8 10 8 8 8 8 8 10 8 10 10 8 10 10 8 10 8 10 10 8 8 8 10 10 8 10
left_child=1 -1 4 -4 -2 47 41 32 -9 14 11 20 -10 -11 29 -15 -17 21 -19 -13 33 50 23 26 25 -25 30 -28 -26 -8 31 -23 -5 36 38 -32 37 57 -24 -31 -41 -7 43 -43 45 46 -36 -6 51 -14 -12 55 -34 54 -21 -20 -57 -3 -52 60 61 -60
right_child=2 10 3 7 5 6 9 8 12 13 17 19 49 15 -16 16 -18 18 48 53 -22 22 34 24 28 -27 27 -29 -30 39 35 -33 52 -35 44 -37 -38 -39 -40 40 -42 42 -44 -45 -46 -47 -48 -49 -50 -51 58 -53 -54 -55 -56 56 -58 -59 59 -61 -62 -63
leaf_value=0.0013957664896234914 0.0021836045002939235 -0.00025611854272256893 0.0032112845383331927 -0.00025993520221624189 -5.162974843214329e-05 0.00045842448873594736 0.00179809395001501 0.0026628450207025218 0.0009706808991699667 0.00054107914160699043 0.0028731296422766619 0.0013892536143864833 -8.0343691893387093e-05 -0.00022554326276645807 0.00030986217513947421 0.00064051324825402107 -0.00013102974461065 0.0017513593108442708 0.00036120346450093147 -0.00011636369180907187 0.00054351642757244269 1.172375708371042e-05 0.00020367160877812112 -0.00012976400964998276 -0.00018706803455272335 0.00060923726770097011 -0.00024743386849569162 0.0033993242067240693 4.1996908707547945e-05 0.00078627833361705137 -0.00015960697081544872 0.0036101967276917536 0.00041841386472144448 -0.00020826880111138942 -0.00011413347733127051 -5.5153988813119775e-05 -0.00023517605270712762 0.0030145847442365416 -0.00015286143587713605 0.00083462645024791067 -6.5933583318276447e-05 -0.00025006185703864973 -0.00015760277382549688 0.00080392865197052811 -0.00017951765789145827 0.0050549435615539554 0.0013353107647191694 -0.00018978551385716297 0.00012039974743445901 0.0019589490685336707 -0.00019370462598818823 0.00041052483698956945 6.243385833695486e-05 0.00070844990432291635 0.00083959662914276118 7.2141094710876118e-05 -0.00020152038800989015 0.0013702925655216711 0.00062868279482802315 0.0046827437125409972 0.0021491661452129715 -0.00013564849060832519
leaf_weight=199.9999992698431 37.000001072883606 1.5714286267757418 47.857141643762589 75.571429789066315 538.14285153150558 22.571428298950195 3.5714285373687744 34.285713195800781 167.71429233253002 1454.9999901950359 0.4285714328289032 52.857144474983215 62.857143476605415 127.99999865889549 861.5714086741209 124.28571636974812 76.714286908507347 55.285712733864784 9.4285714030265808 21.285713821649551 56.857141494750977 231.14286080002785 125.57142639160156 247.28571535646915 611.28571166098118 290.28571479022503 6.4285714030265808 4.714285880327223 401.57143017649651 11.142857551574707 2413.7143131047487 5.4285713732242575 48.428571939468384 227.42857201397419 39.57142998278141 1185.7142985016108 4.1428571343421918 2.2857143580913544 117.14285476505756 9.7142854481935483 605.85715232789516 13.857142895460131 576.99999503791332 18.000000476837158 2860.4285780191422 0.999999999999999 6.7142857611179343 874.85714684426785 100.14285743236542 1.1428571939468373 3312.4286729097366 11.571428179740904 64.857143372297287 46.285713195800781 20 39.999999970197678 341.99999812245369 1.7142857313156126 5.2857144325971595 0.57142859697341819 1.1428571939468373 132.14286097884178
leaf_count=24 8 111 6 40 18 10 8 18 133 38 27 9 1461 34 30 16 57 60 29 33 3 2254 4 33 34 24 22 27 20 1 21532 23 6 122 1536 11083 186 16 238 4 3738 92 522 2 1193 6 114 373 7 2 307481 36 128 1 9 5 1004 55 476 11 6 5253
internal_value=0 -8.11594e-05 0.000222746 0.000814846 0.000167185 0.000153162 0.000258155 0.000562709 0.000944674 0.000329156 -0.000103894 0.000257666 0.000690444 0.000464101 0.000167786 0.000123663 0.000346044 -0.000116401 9.13348e-05 0.000858359 -2.92541e-05 -0.000126068 -0.000100953 -6.79237e-05 3.04928e-05 0.000269293 -0.000107586 0.00129543 -9.62498e-05 -2.64251e-05 -0.000111662 9.42974e-05 2.47213e-05 -0.000166581 -0.000157542 -0.000125198 0.000809404 0.00158614 3.15956e-05 -3.68224e-05 -5.17219e-05 -0.000110201 -0.000131281 0.000345466 -0.00017333 0.000200995 9.61254e-05 -0.000137169 -9.10699e-05 -4.39277e-05 -0.000188259 -0.000143619 0.000214612 0.000537917 0.000346731 -0.00016 -0.000172865 0.000592444 -0.000188639 -6.80588e-05 -8.76498e-05 -0.000106251
internal_weight=0 13192.9 5860 502.714 5357.29 5320.29 3907.29 454.857 266 3275.86 12992.9 434.429 231.714 1784 1491.86 329 201 12558.4 558.429 140.429 294 12000 8548 5397.57 1550.43 537.571 3847.14 11.1429 1012.86 630.286 3836 236.571 188.857 237.143 3150.43 3599.43 9.71429 5.57143 242.714 626.714 615.571 631.429 608.857 31.8571 2907.71 47.2857 46.2857 1413 503.143 64 3452 403 113.286 87.5714 41.2857 391.429 382 3.28571 3451.57 139.143 138.571 137.429
