tree
version=v3
num_class=1
num_tree_per_iteration=1
label_index=0
max_feature_idx=173
objective=regression
feature_names=is_mobile sem_impressions_w2 sem_clicks_w2 sem_adspend_w2 sem_qty_w2 sem_gmv_revenue_adjustment_brand_w2 sem_orders_brand_w2 sem_margin_brand_w2 sem_ctr_w2 sem_cpc_w2 sem_rpc_brand_w2 sem_roas_brand_w2 sem_convrt_brand_w2 sem_ordersize_brand_w2 sem_mpc_brand_w2 sem_mpo_brand_w2 sem_impressions_w1 sem_clicks_w1 sem_adspend_w1 sem_qty_w1 sem_gmv_revenue_adjustment_brand_w1 sem_orders_brand_w1 sem_margin_brand_w1 sem_ctr_w1 sem_cpc_w1 sem_rpc_brand_w1 sem_roas_brand_w1 sem_convrt_brand_w1 sem_ordersize_brand_w1 sem_mpc_brand_w1 sem_mpo_brand_w1 sem_impressions_v2 sem_clicks_v2 sem_adspend_v2 sem_qty_v2 sem_gmv_revenue_adjustment_brand_v2 sem_orders_brand_v2 sem_margin_brand_v2 sem_ctr_v2 sem_cpc_v2 sem_rpc_brand_v2 sem_roas_brand_v2 sem_convrt_brand_v2 sem_ordersize_brand_v2 sem_mpc_brand_v2 sem_mpo_brand_v2 sem_impressions_v3 sem_clicks_v3 sem_adspend_v3 sem_qty_v3 sem_gmv_revenue_adjustment_brand_v3 sem_orders_brand_v3 sem_margin_brand_v3 sem_ctr_v3 sem_cpc_v3 sem_rpc_brand_v3 sem_roas_brand_v3 sem_convrt_brand_v3 sem_ordersize_brand_v3 sem_mpc_brand_v3 sem_mpo_brand_v3 sem_impressions_v4 sem_clicks_v4 sem_adspend_v4 sem_qty_v4 sem_gmv_revenue_adjustment_brand_v4 sem_orders_brand_v4 sem_margin_brand_v4 sem_ctr_v4 sem_cpc_v4 sem_rpc_brand_v4 sem_roas_brand_v4 sem_convrt_brand_v4 sem_ordersize_brand_v4 sem_mpc_brand_v4 sem_mpo_brand_v4 sem_impressions_v5 sem_clicks_v5 sem_adspend_v5 sem_qty_v5 sem_gmv_revenue_adjustment_brand_v5 sem_orders_brand_v5 sem_margin_brand_v5 sem_ctr_v5 sem_cpc_v5 sem_rpc_brand_v5 sem_roas_brand_v5 sem_convrt_brand_v5 sem_ordersize_brand_v5 sem_mpc_brand_v5 sem_mpo_brand_v5 sem_impressions_v9 sem_clicks_v9 sem_adspend_v9 sem_qty_v9 sem_gmv_revenue_adjustment_brand_v9 sem_orders_brand_v9 sem_margin_brand_v9 sem_ctr_v9 sem_cpc_v9 sem_rpc_brand_v9 sem_roas_brand_v9 sem_convrt_brand_v9 sem_ordersize_brand_v9 sem_mpc_brand_v9 sem_mpo_brand_v9 sem_impressions_v12 sem_clicks_v12 sem_adspend_v12 sem_qty_v12 sem_gmv_revenue_adjustment_brand_v12 sem_orders_brand_v12 sem_margin_brand_v12 sem_ctr_v12 sem_cpc_v12 sem_rpc_brand_v12 sem_roas_brand_v12 sem_convrt_brand_v12 sem_ordersize_brand_v12 sem_mpc_brand_v12 sem_mpo_brand_v12 sem_impressions_v18 sem_clicks_v18 sem_adspend_v18 sem_qty_v18 sem_gmv_revenue_adjustment_brand_v18 sem_orders_brand_v18 sem_margin_brand_v18 sem_ctr_v18 sem_cpc_v18 sem_rpc_brand_v18 sem_roas_brand_v18 sem_convrt_brand_v18 sem_ordersize_brand_v18 sem_mpc_brand_v18 sem_mpo_brand_v18 uber_curr_item_price_w1 uber_num_appr_reviews_w1 uber_avg_overall_rating_w1 uber_price_change_ratio_w1 uber_price_change_value_w1 uber_avg_margin_w1 site_total_page_views_w2 site_total_add_to_carts_w2 site_total_orders_w2 site_total_revenue_w2 site_atcpv_w2 site_convrt_w2 site_rpv_w2 site_mpv_w2 site_total_page_views_w1 site_total_add_to_carts_w1 site_total_orders_w1 site_total_revenue_w1 site_atcpv_w1 site_convrt_w1 site_rpv_w1 site_mpv_w1 bc_bounces_w2 bc_visits_w2 bc_bounce_rate_w2 bc_sem_bounces_w2 bc_sem_visits_w2 bc_sem_bounce_rate_w2 bc_bounces_w1 bc_visits_w1 bc_bounce_rate_w1 bc_sem_bounces_w1 bc_sem_visits_w1 bc_sem_bounce_rate_w1 brand_weight_price_cart_w1 brand_weight_price_cart_w2 brand_weight_price_orders_w1 brand_weight_price_orders_w2
feature_infos=[0:1] [0:27376.571428571428] [0:804.14285714285711] [0:609.70928571428578] [-14.285714285714285:189.71428571428569] [0:976.07393569999999] [0:5.0129214000000015] [-247.10035000000028:302.03142857142848] [0.00024593187687010698:2] [0.010000000000000002:3.71] [0:2114.2199999999998] [0:60674] [0:6] [0:4228.4399999999996] [-754.6400000000001:2114.2199999999998] [-1575.8248350329941:4228.4399999999996] [0:27041.428571428569] [0:782.14285714285711] [0:591.05857142857144] [-28.571428571428569:159.57142857142858] [0:763.67562899999996] [0:4.0002139999999997] [-371.86722857142883:604.0628571428573] [0.00044547398431931583:2] [0.010000000000000002:3.71] [0:2114.2199999999998] [0:60674] [0:6] [0:4228.4399999999996] [-423.30000000000001:2114.2199999999998] [-1882.1700000000001:4228.4399999999996] [0:44892.857142857145] [0:1244.9285714285713] [0:967.87928571428608] [-11.285714285714285:193.35714285714286] [0:2271.9787857000001] [0:11.529514300000001] [-256.31928571428568:613.06235714285708] [7.5912852045851369e-05:2] [0.01:1.4733333333333334] [0:747.99000000000001] [0:60632.000000000007] [0:4] [2.3199999999999998:2870.37037037037] [-833.20000000000005:747.99000000000001] [-2041.5799999999999:2870.3703703703704] [0:53193.214285714275] [0:1984.7142857142856] [0:1605.4721428571427] [-9.5714285714285712:278.07142857142856] [0:4511.8805713999991] [0:25.154357099999999] [-657.37973571428586:2037.7141428571435] [0.00071428571428571429:2] [0.010000000000000002:1.8999999999999999] [0:294.5] [0:3233] [0:3] [1.3200000000000001:2870.37037037037] [-268.75999999999999:294.5] [-2764.1800000000012:2870.3703703703704] [0:56834.357142857145] [0:2020.5] [0:1671.4021428571432] [-6.4285714285714288:329.07142857142856] [0:4574.8678286000004] [0:35.9995786] [-763.06000000000029:2339.3178285714284] [0.0014970059880239526:2] [0.01:1.8999999999999999] [0:786.65999999999997] [0:3420.2608695652175] [0:2] [1.3200000000000001:1256] [-268.75999999999999:786.65999999999997] [-3560.9466666666667:2627.6226622662266] [0:41428.928571428572] [0:1237.2142857142858] [0:1042.0628571428572] [-4.1428571428571432:186.85714285714286] [0:2311.0210499999998] [0:28.619807099999999] [-519.60857142857139:1270.69605] [0.0012109869543678097:2] [0.01:1.3300000000000001] [0:786.65999999999997] [0:3420.2608695652175] [0:8] [3.6427619917870002:2025.192519251925] [-452.82000000000005:786.65999999999997] [-3343:2025.1925192519248] [0:50352.916666666657] [0:1567.916666666667] [0:819.79750000000001] [-2.25:215.58333333333329] [0:815.10249999999996] [0:4.5347166999999997] [-1276.5016666666668:552.95999999999981] [0.0013908205841446453:2] [0.01:1.6033333333333335] [0:299.94] [0:4999] [0:4] [2.3799999999999999:599] [-1508.22:229.99000000000001] [-1233.02:599] [0:30754] [0:730.71428571428578] [0:460.23500000000001] [-1.2857142857142858:70.714285714285708] [0:948.88614289999998] [0:5.2774286000000004] [-312.69714285714286:343.70828571428581] [0.0010449320794148381:2] [0.01:1.1899999999999999] [0:441.80000000000001] [0:44180] [0:2.25] [1.1640000000000001:1319.48] [-445.505:441.80000000000001] [-5010.0515021459223:1319.48] [0.071428571428571425:3831.9285714285716] [0.071428571428571425:81.357142857142861] [0.00071428571428571429:40.445] [-0.5714285714285714:7.9285714285714288] [0:77.210521400000005] [0:0.40476430000000002] [-25.59714285714286:15.712857142857144] [0.0053619302949061655:2] [0.01:2.0095890410958903] [0:44.990000000000002] [0:4499] [0:1] [4.4400000000000004:304.997599939998] [-38.200000000000003:20.989999999999998] [-358.36000000000001:109.98999999999999] [0:169248.29999999999] [0:0] [0:5] [0.99999999999999978:1.0000000000000002] [-2.9103830456733704e-11:3.637978807091713e-12] [0:169248.29999999999] [1:303996] [1:23800] [1:282624] [0:931023.50999999698] [0.00024125452352231601:4] [0.00010399334442595674:13.24] [0:746.6633333333333] none [1:112387] [1:12089] [1:114986] [0:492460.61999999773] [0.00025793139025019347:4] [5.9708621925005973e-05:13.558734939759034] [0:746.6633333333333] none [0:34061] [1:79786] [0:1] [0:408] [0:893] [0:1] [0:21907] [1:46692] [0:1] [0:191] [0:426] [0:1] [0.040975608476778363:58649.990234375] [0.02591439629343233:27838.21685791016] [0.033421021335706264:6561.6666666666679] [0.0024748953815284637:6561.6666666666679]
tree_sizes=6698 6819 6778 6824 6821 6813 6813 6832 6846 6840 6783 6853 6754 6749 6815 6844 6796 6822 6805 6816 6836 6825 6810 6833 6745 6786 6803 6836 6883 6861 6813 6843 6824 6808 6794 6829 6819 6852 6848 6813 6845 6800 6831 6842 6873 6852 6854 6846 6831 6855 6893 6842 6876 6824 6832 6853 6850 6847 6846 6871 6843 6884 6852 6872 6843 6874 6794 6869 6851 6870 6860 6891 6876 6919 6869 6873 6871 6837 6872 6873 6894 6901 6864 6867 6858 6896 6903 6898 6893 6915 6917 6889 6899 6850 6884 6929 6868 6896 6905 6848 6899 6891 6852 6860 6868 6880 6945 6916 6891 6897 6860 6920 6905 6917 6895 6920 6931 6905 6890 6908 6953 6943 6924 6971 6885 6900 6930 6946 6932 6965 6943 6953 6929 6910 6924 6963 6941 6949 6893 6965 6943 6994 6931 6896 6935 6930 6926 6907 6961 6921 6944 6955 6877 6938 6975 6915 6997 6947 6948 6999 6979 6945 6985 6937 6954 6926 6937 6977 6944 6962 6967 6930 6963 6967 6961 6962

Tree=0
num_leaves=63
num_cat=0
split_feature=172 136 136 15 108 38 136 43 136 136 155 136 136 136 15 172 172 9 9 136 136 15 1 76 43 38 38 22 9 156 43 172 172 1 164 2 9 136 1 90 172 43 136 136 1 156 9 155 156 9 9 31 156 1 1 1 168 9 38 172 155 15
split_gain=300638 84510 51428.1 37400.4 32157.3 26107.3 18945.9 21196.1 13295.3 12953.2 11229 10166.8 7907.53 4830.19 4562.23 4729.61 4227.48 5323.63 17171.9 3695.39 3409.6 3227.98 3201.34 3100.81 3309.39 2938.83 2784.05 2253.84 2200.53 2018.1 1990.82 1820.13 1693.69 1592.22 1354.28 1556.42 1250.98 1134.07 1105.81 1088.7 1039.61 893.858 1283.25 1235.57 801.109 779.371 1368.34 719.812 653.104 1034.17 2100.92 649.31 600.156 518.337 493.371 637.697 478.28 452.239 433.276 397.541 384.57 370.246
threshold=54.129429571969183 99.995000000000019 160.49500000000003 85.694225251076062 0.38892857142857151 0.035735569555593392 216.42000000000004 189.40000000000003 30.725000000000005 299.30500000000006 0.01177024743010723 249.99500000000003 471.75500000000005 122.18500000000002 514.01575607560767 115.76784116571601 14.447438949491923 0.72124087591240882 0.74051282051282064 168.53000000000003 88.725000000000009 179.47000000000003 10.821428571428575 72.107142857142875 123.67000000000002 0.056778218153399583 0.0056514919228912944 5.6248214285714289 0.11333333333333336 4.7408333333333337 184.29300000000003 43.408968516758513 2.0517404628170262 0.10714285714285715 4.5000000000000009 0.25000000000000006 0.53005905511811024 44.965000000000011 2.2500000000000004 40.841557351569797 28.160579049127147 16.836666666666506 14.625000000000002 14.955000000000002 21.535714285714292 5.1077951807228921 0.10990765171503959 0.0065466623807993148 0.41651086956521743 0.24000000000000005 0.25013333333333337 38.107142857142868 1.1999000000000002 4059.178571428572 2218.2500000000005 206.60714285714286 1.0000000180025095e-35 0.070294117647058854 0.069875042215467767 125.41024049329936 0.0041848964801334846 114.17900000000002
decision_type=10 10 8 10 10 10 10 10 8 8 10 8 10 10 10 10 8 10 10 8 8 8 10 8 8 10 8 8 10 10 10 10 10 8 10 10 10 10 8 10 8 8 10 10 10 10 10 8 8 8 8 8 8 10 10 10 10 8 10 8 8 10
left_child=1 3 13 8 5 6 7 14 41 23 25 -8 22 37 15 19 20 26 -19 -4 47 61 -13 36 -25 -7 -18 -21 -12 31 32 33 -26 -28 -34 -36 -3 -2 -33 48 -31 -1 45 -44 -27 60 -47 -10 -22 -50 -51 -39 -53 -14 55 -24 -17 -54 -49 -15 -43 -5
right_child=2 9 4 21 -6 10 11 -9 16 -11 28 12 53 59 -16 56 17 18 -20 27 39 -23 54 24 30 44 29 -29 -30 40 -32 38 34 -35 35 -37 -38 51 -40 -41 -42 42 43 -45 -46 46 -48 58 49 50 -52 52 57 -55 -56 -57 -58 -59 -60 -61 -62 -63
leaf_value=57.614917913522078 57.922816804915236 59.532353354755408 61.235243701288582 59.72514367908132 65.364908373999967 62.31409842526606 65.33095379241054 61.516362922117459 59.386643671101744 66.199743925603357 59.165052741278764 58.206409672271462 64.794788725719144 60.108483567535046 66.793343714073728 60.983325745645033 61.015177442066474 66.345343665083163 58.338576351115769 58.502563825821483 57.65403822125635 62.198151875095895 61.422027940345664 59.441765665025599 62.579543434749723 67.10284373470887 59.088068434064461 59.934693714192228 62.525943845612886 58.416436135401227 62.120011606349621 62.564944005471482 62.277743702592375 58.190360081009842 59.556895163087717 60.507421871237867 57.965143729149275 60.047343831767705 58.983400876271133 58.41727044244071 59.63210370923138 58.178843689230519 59.210543737139275 57.886767220337276 65.605143341122627 59.400543736096203 57.802343701208578 58.453167444163064 57.830898916123871 60.830589387807699 58.131227240464732 57.81034460350611 57.765343729754271 63.30414365310854 60.51614441925922 63.096521755388913 60.205133471572005 58.960095677564667 58.107966077556576 58.565143742889262 57.653325006113377 60.65461040637193
leaf_weight=14.64313920214772 1.0593419969081912 0.71001400053501129 0.28571400046348072 0.28571400046348572 0.80952800065279085 0.082414999604225825 0.4805140011012542 5.1773431003093719 0.28571400046348572 0.14285700023174275 0.095242999494075775 0.14285700023174286 0.26902899518609047 1.0214279964566226 0.035714000463485607 0.39285700023174319 0.15872799977660179 0.14285700023174186 0.42857199907302856 1.904755994677545 4.3625840321183205 0.69388701766729244 0.54285699129104614 1.4118989780545232 0.14285700023174186 0.28571400046348572 0.83672799915076446 0.57142798602580902 0.42857100069522858 0.46428498625755188 0.30158500000834454 0.035714000463484497 0.14285700023174275 14.24366301856935 0.88638599216938052 3.0952430441975594 0.28571400046348572 0.14285700023174286 0.99999900162220012 1.5659140050411213 0.71428498625755321 0.57142800092697144 0.28571400046348827 21.882317084353417 0.28571400046348572 0.28571400046348461 0.85714200139045715 5.6353110205382135 10.475181035697464 0.11904300004243973 3.6991969887167215 0.28571499884128571 0.14285700023174253 0.14285700023174286 0.17857100069522858 0.10928600281476974 1.6129839830100534 1.1224580034613609 1.9603130444884298 0.071428999304771534 22.067701982334263 0.42857100069522858
leaf_count=291 3935 288 165 113 78 130 1092 23 72 6073 76 3294 2791 1637 5 2292 31 15 200 3881 3563 58 111 14 6054 760 11445 604 80 379 15 2752 6143 49511 956 188 14 440 490 39 681 132 2250 74493 10 822 560 15582 28481 620 12684 369 1013 2 6 20 548 5260 684 1097 104471 64
internal_value=58.5361 58.1275 60.9284 57.9885 61.4971 61.2567 60.9744 60.6286 57.9458 60.2381 64.0968 62.8242 61.9548 58.8826 59.6717 59.6184 58.2016 58.4407 60.3403 59.0816 58.0483 61.2266 60.972 60.116 60.2881 65.8448 58.3785 58.8331 61.9148 58.3543 60.5496 58.2959 60.4386 58.2402 60.3645 60.2958 59.0827 58.4361 59.1069 57.9107 59.1532 57.751 57.7944 57.9038 66.354 57.6923 58.2019 58.4011 57.8682 57.9336 58.2154 58.7571 58.6383 64.2778 61.4476 61.7026 60.3575 58.8252 58.3641 60.0076 57.6666 60.2828
internal_weight=0 115.249 17.68 108.129 13.834 13.0244 11.8468 9.9808 106.721 7.11941 1.17766 1.86597 1.38546 3.84609 4.80345 4.76774 46.1281 18.0248 0.571429 2.7619 28.1033 1.40817 0.973571 6.97656 5.98083 0.653843 17.4534 2.47618 0.523814 17.2947 4.56893 16.1161 4.26734 15.0804 4.12449 3.98163 0.995728 2.75323 1.03571 20.2219 1.17857 60.5932 45.95 22.168 0.571428 23.782 1.14286 7.88134 18.656 14.2934 3.81824 1.69389 1.55103 0.411886 0.830714 0.652143 2.00584 1.26532 7.59562 1.09286 22.6391 0.714285
internal_count=359947 330228 29719 310483 15968 15890 14834 7518 310248 19745 1056 7316 6224 13751 7495 7490 127229 65504 215 4650 61725 235 3431 13672 13370 900 65289 4485 156 65258 13356 64198 13341 60956 7287 1144 302 11017 3242 45387 1060 183019 182728 76743 770 105985 1382 16338 45348 41785 13304 7082 6642 2793 137 131 2840 6273 16266 2734 104603 177
is_linear=0
shrinkage=1


Tree=1
num_leaves=63
num_cat=0
split_feature=171 15 107 145 38 1 171 8 150 83 48 15 15 91 145 150 164 8 38 43 165 38 43 43 145 164 8 12 171 145 171 1 1 171 8 89 121 8 48 164 47 138 1 31 48 138 63 7 145 7 145 50 1 0 1 145 1 8 150 171 15 42
split_gain=297645 78138 36389.7 23735.9 24900.9 22009.2 16328.2 21697.3 15765.9 13777.2 13343.8 8421.72 6202.13 6068.57 5848.35 4918.91 14125 4703.91 4557.95 3731.05 3595.4 4096 2924.88 2174.83 2120.89 2086.31 5045.07 2471.07 3190.88 2027.86 1832.05 2045.54 3068.69 1739.02 1555.01 1310.81 1307.04 1291.67 1205.35 1066.71 1288.55 1037.61 769.384 704.035 696.995 695.492 1717.1 677.911 645.806 550.224 544.033 499.388 443.806 443.281 3553.63 378.899 361.991 332.237 299.424 324.583 275.883 272.104
threshold=64.064322265079042 85.694225251076062 1.1785714285714286 270.13000000000005 0.035735569555593392 321.96428571428578 17.186439993281571 0.007994362280532628 214.50000000000003 0.017345932842301477 1.1860714285714289 66.125000000000014 179.47000000000003 0.37500000000000006 2013.9750000000006 2.5000000000000004 1.0000000180025095e-35 0.022263527467988441 0.017490871581519202 263.90573524852761 8.5000000000000018 0.028578349944629013 16.836666666666506 136.77000000000004 640.97500000000025 4.5000000000000009 0.88194444444444453 0.0097501426024955515 36.13307034063061 277.65000000000009 31.651350472043845 1.1071428571428574 1.4642857142857146 129.99411753979987 0.011858396831327179 0.23273063226744187 51.464285714285722 0.37980769230769235 0.74285714285714299 9.5000000000000018 0.60714285714285732 3.6220500000000002 21.535714285714292 189.39285714285714 0.0039285714285714297 4.9762000000000013 0.016071428571428573 1.7132142857142858 662.95500000000004 -1.0000000180025095e-35 27687.069999999996 4.3498214500000012 321.96428571428578 1.0000000180025095e-35 1.0357142857142858 125.47500000000001 149.39285714285717 0.045548849490758207 2.5000000000000004 2.8693968207495808 128.99339183187089 0.0035218253968254004
decision_type=10 10 10 8 10 10 8 8 8 8 8 8 8 8 8 10 10 10 8 8 10 10 8 8 10 10 10 8 10 10 10 10 10 8 10 8 10 8 8 10 10 8 10 10 8 10 8 8 8 10 8 8 10 2 8 10 10 10 8 10 10 10
left_child=1 6 3 33 5 9 22 -8 42 -5 -7 56 23 -9 -12 16 -13 -10 29 -4 -17 -22 -1 -3 36 30 27 28 -27 -15 53 -32 -33 39 38 -31 45 41 -26 -2 -41 52 -6 -37 -43 47 -47 58 -46 -35 -21 -29 -36 54 -20 -48 -11 -14 -24 -60 -25 -49
right_child=2 12 19 4 8 10 7 13 17 11 14 15 57 18 -16 20 -18 -19 25 50 21 -23 24 60 34 26 -28 51 -30 35 31 32 -34 49 37 43 -38 -39 -40 40 -42 44 -44 -45 48 46 55 61 -50 -51 -52 -53 -54 -55 -56 -57 -58 -59 59 -61 -62 -63
leaf_value=-0.89833751146567109 0.76976550844026581 0.71877582700705722 3.2945469613275509 7.5104052948527231 8.3954429902833816 4.8007168526727417 7.2658281984675366 3.9626089366495147 -0.26865630030590271 -0.60623489888005977 1.6012996502558343 -0.9386563326414159 4.315882642860946 -0.66194527273873194 2.9940625750629812 -0.77682112525426195 7.2810597965746489 4.0254483359751685 -0.57373822030835087 6.4522607219406876 1.7468446086695451 -0.1936804787927342 -0.9381117871117689 1.8546695437349967 0.92556834715160052 -0.13661849304562093 3.6174388761580691 -0.66353480362411932 0.75068320829246138 1.8120749492780968 -0.27113485086620887 3.6668451297077862 -0.15504734372873102 0.16279806416437359 0.66098915288259297 0.078015272653131393 0.66572125857061637 0.84718919458502584 -0.23121580574378353 -0.53362495273044164 1.4810532669807714 0.83559278942222148 6.9276971172646471 0.88818976587816068 0.77206710649275434 1.7416514809526265 -0.67911626549172288 -0.57830826198058849 -0.57819912749730518 1.5865734581949735 7.8123019585643885 -0.3125359531251336 -0.193264974538777 -0.8132765603719545 4.9364031757053883 -0.20163364054253258 0.22507341682790036 3.3878580779006837 -0.85420450462279418 -0.69068851621776917 2.3360657458961716 -0.12655819772778809
leaf_weight=16.785995233803988 0.5119000002741817 0.71001400053501129 0.15384300053119659 0.14285700023174286 0.2857140004634845 1.3259129971265791 0.15872799977660434 0.14285700023174286 0.14285700023174297 0.7857140004634855 1.7265269756317136 0.14285700023174808 0.20408600196242233 0.42857100069522891 3.9999000877141953 0.28571400046348561 0.20168599858880043 0.35714299976825714 2.7979550082236622 0.66667100042104721 4.0189299993216991 0.48791399598121632 2.6513690035790196 2.8571430444717412 0.54285699129104614 8.148421969264751 0.14285700023174186 2.7138559818267822 2.0238130018115035 0.44444200024008751 1.6462559979408977 0.14285700023174275 0.20408600196242332 0.14285700023174286 0.28571400046348538 0.6599570065736774 0.28571400046348472 0.28571400046348472 1.0714280158281351 1.1428559869527815 0.14285700023174275 0.14285700023174286 0.28571400046348572 1.2261849790811536 0.14285700023174286 0.14285700023174286 1.8226269930601118 1.1428570002317422 17.267083076760187 0.45238499343395222 0.14285700023174186 4.0277710333466521 1.6373430043458939 3.7142699956893921 0.047614000737666973 1.0464270021766422 0.28571400046348572 0.63265801593661308 5.8172959960065773 29.380666077136993 0.57142800092697132 0.9999990016221999
leaf_count=321 1837 30 19 146 1352 38 179 3989 132 110 33 7751 26 278 32 11485 3986 349 32685 97 7891 65 53850 143 172 8928 1175 384 2794 55 25281 810 1891 153 294 59 31 935 644 418 28 31 20 15 94 67 3735 19625 4528 1069 52 1734 3 59567 9607 507 6 79 10594 77553 59 126
internal_value=0 -0.407853 2.36907 2.15315 2.45818 2.22365 -0.518618 -0.108135 5.39217 1.36967 2.99276 1.22837 2.04378 -0.149187 2.57414 1.56477 3.87294 2.79856 -0.169893 6.14968 1.39884 1.53676 -0.663105 1.72626 -0.602043 -0.253103 -0.125274 -0.156886 0.0399143 0.602447 -0.508024 0.0229953 1.41865 0.307902 -0.439045 0.834955 -0.682529 -0.487799 0.157791 -0.00235572 -0.309772 -0.507384 7.66157 0.604711 -0.555703 -0.691487 -0.398406 -0.71356 -0.56712 1.24487 6.69227 -0.453831 -0.066346 -0.669373 -0.481539 -0.504965 -0.384553 3.61421 -0.733152 -0.717713 1.9349 -0.367492
internal_weight=0 115.097 17.8314 16.868 14.4752 13.4037 110.122 28.6705 1.07143 6.35139 7.05234 6.20853 4.97533 28.5118 5.72643 5.1371 0.344543 0.5 28.3689 0.963371 4.79256 4.50684 81.4517 4.13859 64.6657 25.6098 17.0567 16.9139 10.1722 2.75915 8.55304 1.9932 0.346943 2.39285 21.3759 2.33058 43.2898 19.7616 1.61429 1.79761 1.28571 19.4759 0.571428 1.88614 17.5528 43.0041 3.01191 39.9922 17.4099 0.595242 0.809528 6.74163 1.92306 6.55984 2.84557 2.86905 1.07143 0.836744 37.8493 35.198 3.42857 2.14286
internal_count=359947 322878 37069 36901 33396 31543 322541 149431 1853 31440 103 31294 337 149252 65 31178 11737 481 145263 168 19441 7956 173110 232 172789 144856 15015 13840 11722 407 129841 27982 2701 3505 6701 129 166088 5885 816 2283 446 4950 1372 74 4653 166057 4309 161748 4622 1222 149 2118 297 101859 42292 4242 116 105 141997 88147 202 19751
is_linear=0
shrinkage=0.02


Tree=2
num_leaves=63
num_cat=0
split_feature=170 136 136 13 13 17 136 145 170 136 37 13 171 13 136 145 143 136 77 143 136 136 4 13 136 136 143 54 170 170 58 13 4 99 5 54 99 11 4 145 170 36 4 13 13 136 136 11 145 17 136 145 65 14 81 68 17 13 13 143 36 145
split_gain=302514 95511.1 39544.9 30769.1 26868.4 16574.3 14668 14644 14243.2 10547 9279.67 7428.39 5248.1 3943.3 3455.75 3396.27 12522 5686.45 3052.09 3047.25 2741.49 9506.14 2555.45 2405.35 2361.56 2246.44 2130.49 1974.58 2110.98 1915.45 1626.28 1516.35 1503.37 1366.56 1317.92 1302.82 1196.74 1183.76 995.716 989.752 958.066 893.392 989.047 1221.1 847.949 1140.07 1134.82 792.469 788.232 4092.15 837.653 762.181 756.931 738.353 741.727 725.331 712.838 557.379 537.53 534.203 458.283 430.941
threshold=87.530042246597219 99.995000000000019 160.49500000000003 169.05000000000004 268.79592592592604 5.7857142857142865 30.725000000000005 3573.905000000002 252.36573005927278 299.30500000000006 17.344285714285718 186.65768168295801 17.186439993281571 45.990500899820006 34.995000000000012 333.99000000000018 4.5000000000000009 99.635000000000005 0.96428571428571441 1.5000000000000002 216.42000000000004 227.43500000000003 1.0000000180025095e-35 159.97445330296151 99.635000000000005 316.98500000000007 16.500000000000004 0.25312876506024101 91.407972374240643 39.630120552010219 113.95392593862502 104.94500000000001 1.0000000180025095e-35 0.21050295857988169 14.957857150000002 0.78045040485829975 0.21509259259259264 172.17241379310346 12.928571428571431 29.825000000000003 133.4534528944628 1.0000000180025095e-35 12.928571428571431 560.76426642664262 17.495028571428502 14.625000000000002 14.955000000000002 66.016981132075486 60.170000000000009 0.2142857142857143 56.245000000000012 539.90500000000009 1.0000000180025095e-35 -0.43592444854946005 0.060057150000000011 0.011180754658722878 2.2142857142857149 31.976003179445005 19.990949594959503 19.500000000000004 1.0000000180025095e-35 350.73000000000008
decision_type=10 10 8 10 10 8 8 8 8 10 8 10 8 8 10 10 10 10 8 8 10 10 10 10 10 10 10 8 8 8 10 10 10 10 10 10 10 10 10 8 10 8 10 10 8 10 10 10 8 10 10 10 8 10 10 10 10 10 8 8 8 10
left_child=1 3 24 6 5 7 44 8 27 18 34 31 14 57 33 39 17 -17 53 -20 23 -22 -11 35 -2 -12 36 56 -29 38 59 60 -26 37 -9 61 -18 58 -23 -15 -30 -6 43 -43 -1 -46 -47 -5 49 -41 -50 -42 -28 -3 -55 -35 -4 -14 -8 -16 -7 -21
right_child=2 9 4 47 41 11 12 10 -10 22 25 -13 13 15 30 16 26 -19 19 20 21 29 -24 -25 32 -27 52 28 40 -31 -32 -33 -34 55 -36 -37 -38 -39 -40 48 51 42 -44 -45 45 46 -48 -49 50 -51 -52 -53 -54 54 -56 -57 -58 -59 -60 -61 -62 -63
leaf_value=-0.87424903250533104 -0.29371679529728062 -0.74568910660102661 2.5451966546341369 3.6505880360265781 6.5036878723345142 1.2596713435348827 -0.85515811796995267 8.0370414610968517 6.632620586149927 3.5772675561446441 2.6436452890835436 2.8617564401759719 -0.6483360449320632 -0.97743873429887118 0.060370556698557322 7.5077766606365604 0.64628994091322844 0.22280711862684283 3.7384324204172383 1.3613488747406206 7.2209596628590367 3.651082136370277 7.3601971675933422 2.4338915405084642 1.226340555531394 6.2043642311792553 0.56667337019279629 3.4280001874207597 0.6639170599347779 -0.35799910524397888 2.0288142813825014 1.7899702977128804 -0.95533436786237735 0.74953012157406551 6.2362313661525048 1.7915818123537441 2.0410347334940244 1.1682037381775745 1.9071034831925879 3.5450900185261607 1.1522632038836835 3.5487463989613133 6.3363569577919643 5.810634798692158 -0.8083382747929635 0.64776941121444132 -0.62117840541457436 2.2173240260522324 -0.31394161474328802 -0.23942482875978199 0.28268747965573554 2.4127964779477495 -0.045588432741628659 1.2622084702248482 0.15837102739450087 -0.27777688067655265 4.5762037444636512 -0.22628531223915718 -0.60136301741479392 -0.2867712474653254 0.16809250443342613 0.81621021627399137
leaf_weight=17.203181207180023 1.1205719970166659 0.14285700023174286 0.10714299976825714 0.63265801593661208 0.60714200139045715 0.28571400046348572 4.32381203584373 0.42857100069522858 0.38095699995756138 0.14285700023174364 0.29670000076293701 4.3215570598840714 3.4722269847989082 0.57142800092697144 3.296425012871623 0.14285700023174275 1.7738129869103434 0.061229001730680466 0.28571400046348572 0.79115699976682385 0.14285700023174319 0.1428570002317423 0.14285700023174286 0.71428500115871418 1.0928569957613943 0.093114998191595078 1.0091560073196888 0.35714299976825725 0.28571400046348572 0.14285700023174297 0.14285700023174275 2.2442129850387573 0.14285700023174275 0.31428500078618471 0.26190000772476196 1.0158710293471811 0.28571400046348561 0.14285700023174186 1.5714290142059326 0.14285700023174286 0.28571400046348572 0.17491400241851873 0.28571400046348572 0.2101999968290329 22.392571968957782 0.28571400046348827 21.140260096173733 0.20408600196242332 4.4487979784607905 0.57142800092697144 1.1938709989190099 0.58417100831866264 4.045642014592886 0.57142800092697121 0.42430000007152557 2.1944850087165833 0.1948000006377697 1.9571420010179279 14.642092021182192 3.8372990638017646 0.33332799375057343 2.1737989708781242
leaf_count=2075 6393 200 90 20 13 611 494 535 437 4777 6149 11 331 1303 2671 282 922 3 1250 9839 362 632 69 37 4046 4192 162 186 689 1124 2 9 134 1260 1 4 60 341 1 1712 557 50 1 21 104582 2237 74719 61 46111 445 12268 343 1517 117 7 274 10 290 48867 11339 2331 371
internal_value=0 -0.363234 2.73568 -0.519663 3.2103 2.87586 -0.548834 4.05484 3.11689 1.69197 5.9612 2.3383 -0.289486 -0.0375563 -0.461044 0.137229 0.437685 5.32217 1.55907 1.71568 1.62935 2.24944 5.46873 1.36521 0.371181 3.49419 0.297565 2.37883 2.08408 1.86702 -0.084049 1.54824 0.974124 -0.587943 7.35398 1.17346 0.83978 -0.645561 2.05243 -0.18014 1.66874 5.94785 5.44477 4.78331 -0.755263 -0.708549 -0.604257 3.30101 -0.108471 0.517478 -0.187707 1.99877 0.0766455 0.598929 0.791841 -0.149081 3.85551 -0.496198 -0.659223 -0.12636 0.671902 0.961673
internal_weight=0 118.834 14.095 110.429 11.7387 10.4607 109.592 3.27593 2.19564 8.40513 1.08029 7.18481 48.5703 19.6762 28.8941 14.2468 7.31841 0.204086 8.11941 6.98083 6.69511 2 0.285714 4.69511 2.35629 0.389815 7.11433 1.81469 1.51274 1.85714 7.27658 2.86325 1.23571 21.6175 0.690471 3.98083 2.05953 19.1088 1.71429 6.92838 1.1556 1.27797 0.670828 0.385114 61.0217 43.8185 21.426 0.836744 6.35695 0.714285 5.64267 0.869885 5.0548 1.13859 0.995728 2.50877 0.301943 5.42937 18.9659 7.13372 0.619042 2.96496
internal_count=359947 333138 26809 314348 16236 16151 314267 13189 2312 18790 10877 2962 130654 65406 65248 64785 2946 285 13944 13620 12370 2119 4846 10251 10573 10341 2661 1875 1775 1757 14012 2951 4180 51236 536 10214 982 49702 633 61839 1589 85 72 71 183613 181538 76956 81 60536 2157 58379 900 1679 324 124 1534 100 621 49361 14010 2942 10210
is_linear=0
shrinkage=0.02


Tree=3
num_leaves=63
num_cat=0
split_feature=170 136 136 108 147 136 150 136 38 136 38 45 160 148 144 43 170 147 156 160 160 148 136 147 44 31 160 156 43 160 48 136 136 156 150 148 160 148 136 19 160 2 7 2 147 31 2 2 136 43 3 170 159 159 144 38 160 3 136 150 170 147
split_gain=290534 91728.9 37979 23353.3 28069.9 18184.9 10666.7 10655.1 9999.52 10695.1 9487.31 9390.12 9244.16 8533.14 13622.8 5725.29 5587.71 4028.4 7395.34 3687.53 3686.66 2995.56 2699.04 2640.66 2524.77 2454.26 2369.1 2037.51 1880.08 1845.49 1559.59 1535.62 1375.13 1273.99 1236.7 1139.95 1064.1 1007.64 924.251 905.432 901.67 868.77 860.433 792.708 717.187 1031.97 711.154 710.34 682.01 1061.06 677.05 809.112 590.533 539.973 1291.85 520.071 441.169 411.685 393.13 472.896 405.321 377.367
threshold=87.530042246597219 99.995000000000019 160.49500000000003 0.38892857142857151 0.0029962563628365469 30.995000000000001 1.5000000000000002 299.30500000000006 0.056778218153399583 216.42000000000004 0.32291666666666669 210.75000000000003 0.33936762778505908 8.0650689655172432 2.5000000000000004 153.31000000000003 91.407972374240643 0.03446790816478066 2.6054138746229731 0.48337937384898716 0.33338998413777482 0.81739130434782614 34.995000000000012 0.0079405497515092158 -0.52275614463805054 0.67857142857142871 0.4869980708418688 1.2736608904556803 184.29300000000003 0.56769851246595449 0.01035714285714286 189.99500000000003 99.635000000000005 0.25706299602342325 10.500000000000002 1.1191521049314301 0.28322433652588502 1.936740514075888 264.99500000000006 0.2142857142857143 0.63182720953326721 8.5000000000000018 13.459642857142859 0.53571428571428581 0.010071340422294729 1.392857142857143 131.21428571428575 0.96428571428571441 14.995000000000003 14.537500000000001 0.015357142857142859 45.041930102476272 665.50000000000011 398.50000000000006 226.50000000000003 0.073282613560080576 0.23084646277417367 0.015357142857142859 83.015000000000015 54.500000000000007 11.435308015647058 0.015509642554102926
decision_type=10 10 8 10 10 8 8 10 10 10 10 10 10 10 10 10 8 8 10 10 10 8 10 8 8 8 10 10 10 10 8 10 10 8 10 8 10 10 10 10 10 8 10 10 8 8 10 10 10 8 10 8 8 10 8 10 8 10 10 10 8 10
left_child=1 5 26 4 8 37 -3 20 9 39 13 16 -12 15 -15 17 31 18 21 27 41 33 35 -23 -22 -9 32 36 30 55 -26 44 -2 -7 -32 -19 -18 48 57 -4 53 50 -36 -16 -6 -46 -11 -10 -1 -50 -8 -52 -37 54 -39 -20 -34 -29 60 -60 -24 -40
right_child=2 6 3 -5 11 10 7 25 47 46 12 -13 -14 14 43 -17 19 22 29 -21 24 23 58 -25 28 -27 -28 38 -30 -31 34 -33 56 -35 42 52 -38 40 61 -41 -42 -43 -44 -45 45 -47 -48 -49 49 -51 51 -53 -54 -55 -56 -57 -58 -59 59 -61 -62 -63
leaf_value=-0.83693125709965732 -0.073461466713105467 7.076540725949922 2.566833253892181 6.4238133841281693 3.344376829002413 -0.77322627499078023 1.6162410207915467 3.5057221890000254 8.0667934846157117 6.1380083294312033 3.3709180651941995 5.1844492725331977 -0.49958637809188011 7.3576208710759641 -0.25307555944424848 3.0436954347862555 0.27141576069320211 -0.82201873291707928 1.2800967456039885 4.4846797968615064 0.44496362732722355 2.0002139987697816 0.10486168997735726 0.040206754799731716 3.8085881682545768 7.2129931174298507 -0.54330105787537719 0.78093347314807848 3.3787280803905158 2.8349141767509161 3.518739589386449 2.6197076769129173 0.4860453402108903 -0.28239312955257118 1.2850301414837231 -0.54037672912289891 1.4448759252269374 -0.53767314188299042 4.8390451974220081 0.71751526942137944 0.35596620176834992 2.2716523915634945 1.8520760694053677 1.1219644439647785 3.7022492077323053 7.8660447293524065 4.5556009379813176 6.6564906392227305 -0.89552248574493065 -0.60324132684501042 0.75119806880633189 -0.23395319213266916 -0.087813121090338953 -0.79831675158079496 0.84641213997623188 0.1871780157742646 1.427408781703366 1.8884724239901087 0.51958967398440825 -0.56530159091981946 -0.28659402273266826 2.6527371045813743
leaf_weight=29.14418407343328 0.48980000242590671 0.14285700023174008 0.40934300050139316 0.80952800065279085 0.77472798526287079 2.7261980008333921 0.26190000027418214 0.14285700023174286 0.28571400046348561 0.55474299564957619 0.57142901420593151 0.47610001266002733 0.43451300263404846 0.14285700023174186 0.27551500126719475 0.20408600196242233 0.47618499398231573 6.4020410366356373 0.64852800220250972 0.19480000063776959 0.57142798602581024 0.28571400046348572 1.3273850083351124 7.2994980514049592 0.14285700023174286 0.14285700023174275 0.77362899482250203 0.14285700023174364 0.30158500000834454 0.28571400046348572 0.14285700023174275 3.3932570815086365 0.26190000027418103 9.4383510351181013 1.7673420011997221 11.199093978852037 0.88095597922801971 4.8248259797692299 0.034285999834537395 0.14285700023174286 0.42857100069522935 0.14285700023174275 2.7142860442399979 0.42857098579406738 0.071428999304771423 0.035714000463481166 0.14285700023174286 0.28571400046348572 7.1380840986967087 16.343206073623154 1.5028709843754764 0.42857100069522869 1.2857129871845252 2.9999990463256836 0.28571400046348205 0.23809999972581863 0.83095699548721325 2.2276420146226883 0.64285700023174275 0.21428500115871429 5.2137120291590691 0.39999999105930328
leaf_count=108652 4354 4438 4946 80 65 2309 3183 123 739 7597 1495 17 1121 738 519 27 681 6500 719 315 21 225 7022 3522 41 3477 3067 463 12 83 2712 62 1896 8237 1340 55604 310 4832 193 45 260 1398 15 12 10 124 1 2 29 69294 913 1117 8067 856 630 29 1256 409 4198 136 29232 177
internal_value=0 -0.355969 2.68097 3.14609 2.90331 -0.50927 1.65813 1.56445 5.16996 4.16789 -0.223295 2.45007 1.69907 -0.263366 1.72645 -0.298912 2.29926 -0.313363 -0.10628 1.79519 1.42852 -0.197892 -0.478194 0.114035 1.70524 5.35936 0.363757 1.66931 1.84731 1.43706 1.75043 2.81294 0.807142 -0.392394 1.68685 -0.605036 1.03314 -0.739605 1.97712 2.08841 -0.538082 0.760425 1.62846 0.583899 3.55648 5.09017 5.81396 7.36164 -0.772305 -0.692092 0.661995 0.532601 -0.493771 -0.585324 -0.460293 0.986598 1.20181 1.82173 -0.15438 0.248367 -0.207156 2.82534
internal_weight=0 118.834 14.095 11.7387 10.9292 110.429 8.40513 8.26227 1.82123 1.2498 49.2642 9.10795 1.00594 48.2582 0.846943 47.4113 8.63185 47.2072 20.9221 4.35673 7.97655 19.7498 26.2851 7.58521 5.64036 0.285714 2.35629 4.16193 5.06893 1.17234 4.76734 4.27513 1.58266 12.1645 4.62449 18.8868 1.35714 61.1646 2.80479 0.5522 8.53911 2.3362 4.48163 0.704086 0.881871 0.107143 0.6976 0.571428 52.6255 23.4813 2.19334 1.93144 12.4848 8.11054 5.11054 0.886628 1.09286 2.3705 7.39824 0.857142 6.5411 0.434286
internal_count=359947 333138 26809 16236 16156 314348 18790 14352 13330 12589 129795 2826 2616 127179 1269 125910 2809 125883 15124 2548 10752 14293 110759 3747 4141 3600 10573 2233 4120 831 4108 261 7506 10546 4067 70171 991 184553 1242 4991 6578 6611 1355 531 199 134 7598 741 177975 69323 5213 2030 63671 6318 5462 748 3152 872 40588 4334 36254 370
is_linear=0
shrinkage=0.02


Tree=4
num_leaves=63
num_cat=0
split_feature=13 13 13 147 156 148 155 13 148 145 148 148 54 0 21 147 147 18 154 18 23 1 13 145 156 147 32 53 43 154 154 23 145 147 167 145 32 148 148 147 145 0 155 35 156 23 9 154 1 1 148 72 147 156 13 13 2 83 155 13 77 13
split_gain=261892 38118.1 18315.6 17502.9 56251.3 19121.7 18839.2 11693.7 10255.2 8711.32 7575.49 7009.86 5856.53 19162.7 4379.43 3869.01 3330.87 3323.39 4568.54 3429.19 4528.71 10239.6 3218.01 3116.14 3031.42 3111.62 2842.01 2456.44 2403.38 2213.28 2043.43 2017.99 1732.05 2245.4 1478.47 1474.54 1352.67 1284.19 1282.01 1096.55 800.823 639.173 618.804 612.329 519.713 819.716 517.153 527.71 493.303 487.995 446.722 442.828 420.212 469.715 380.841 363.318 323.871 306.974 289.163 267.964 300.248 193.2
threshold=99.365000000000023 253.84770627062701 45.032747815702002 0.022168713528365799 1.432277777777778 8.0650689655172432 0.0075347642347965253 175.60500000000005 4.5045579414587298 1.0000000180025095e-35 1.4128127787689562 0.80949163449163464 0.070833333333333345 1.0000000180025095e-35 0.041835500000000005 0.011250865257079129 0.015078291690470915 0.027857142857142858 0.30901856763925734 0.02928571428571429 0.32666666666666672 0.17857142857142858 19.907500000000002 6847.8349999999982 7.0120865704772486 0.24987257900101942 2.7500000000000004 0.018883656538747944 153.31000000000003 0.074143283700144363 0.023814775138109947 0.94444444444444453 119.42000000000003 0.01214083565897567 2.5000000000000004 5064.4650000000029 81.285714285714292 1.3783762886597939 0.57675000000000021 0.028584607274644177 476.0800000000001 1.0000000180025095e-35 0.026137222058002434 18.674760700000004 0.59525307125307136 0.012348451453174862 0.050357142857142871 0.0050890914741531131 123.89285714285715 1.8214285714285714 2.1489985380116967 1.0000000180025095e-35 0.043509812582823257 0.48825256325538818 109.85500000000002 268.79592592592604 11.107142857142858 0.025737459752935326 0.011024347755631181 159.97445330296151 0.32142857142857145 64.48878445137801
decision_type=10 8 8 8 10 10 10 8 10 8 8 10 8 2 10 8 10 10 10 10 10 10 10 8 10 10 8 10 8 10 8 10 8 10 10 10 8 8 10 8 8 2 8 8 10 8 10 10 10 8 10 8 10 8 8 8 10 10 8 10 10 10
left_child=2 7 22 4 5 9 -6 28 15 -4 52 32 13 -12 -9 48 37 30 19 20 41 -22 -1 -10 29 -26 -16 43 34 -21 -14 42 46 38 54 39 -28 40 -34 -32 -13 -19 -17 -3 -24 -46 -11 -48 -8 -15 61 -41 53 -5 -2 -45 -47 -35 -55 60 -30 -18
right_child=1 27 3 10 6 -7 8 14 23 11 12 16 17 49 26 31 50 18 -20 24 21 -23 44 -25 25 -27 36 -29 59 -31 35 -33 33 57 -36 -37 -38 -39 -40 51 -42 -43 -44 55 45 56 47 -49 -50 -51 -52 -53 -54 58 -56 -57 -58 -59 -60 -61 -62 -63
leaf_value=-0.83279201530344316 0.80962409945810954 6.1933381514292867 5.901948659731671 -0.83145318136221447 6.5597512495047114 7.2104686245530525 3.0037850482550361 4.0073737240163805 3.7810018586985534 1.4859118495587726 8.1479575060777236 1.6942513278351035 1.8236184588437661 0.83010407353896709 1.6279538511271303 1.1671974983732374 -0.15316169710077041 0.60273561079116766 3.4483646106783885 -0.14876413500770189 0.37708814598479407 6.935009975517767 -0.64825860201046948 7.3668387147514647 1.2641161297796879 -0.75228138689477475 3.4618177122296356 3.3845559656099358 1.2643729244617474 -0.66169713455144175 1.1098890608931564 3.4174899079177141 0.042623271763820754 -0.40924433499524154 1.5099265404703377 0.82948389851183979 2.5945242509905859 3.6282041648317009 1.1669076004122112 -0.13696233248383136 0.74349553776881561 -0.86273252312956528 0.23927204269129992 3.9705597889200401 0.64055478628234486 -0.49934360179086557 -0.3306523143998259 -0.70543352652960911 5.0776882416217282 -0.55298699182195232 1.2483599766071845 -0.6927074281503558 -0.84057240242028297 0.74419982480510671 0.018663651361854744 5.5431733087667974 -0.27568136897735124 -0.83119563197673241 -0.53696300308780209 2.1275888551965059 1.8265750915052135 0.2754296754326227
leaf_weight=23.586521258577704 0.57142798602581024 0.89285600185394287 0.095242999494075775 3.0405119881033897 0.46285700052976553 0.14285700023174186 0.39285700023174286 0.97618602216243555 0.30158500000834465 0.047614000737666973 0.14285700023174286 0.42857100069522858 0.14285700023174286 0.14285700023174286 1.0684709958732126 1.12857099622488 2.1373420059680948 0.20408600196242943 0.14285700023174186 18.934661014005549 0.28571400046348572 0.14285700023174286 5.5762990377843407 0.14285700023174275 1.0714279860258091 0.42857100069522847 0.91758498549461365 0.17491400241851796 0.42857100069522891 4.0921539850533 0.14285700023174286 0.14285700023174275 3.2148970123380551 2.5237990356981759 1.2265279889106748 0.28571400046348649 3.3289720714092255 0.071428999304770868 0.46428500115871418 0.61428499966859818 2.0468119792640214 0.28571400046348572 0.38571400009095747 0.075000002980232239 0.28571400046348294 10.087596967816351 2.0535699725151062 5.6031670048832893 0.05194300040602684 0.35714299976825714 0.10714299976825703 8.6409800071269185 7.3494540001265696 0.071428999304771423 0.42430000007152591 0.27142899855971225 3.4841280728578576 0.94898501597344864 5.2397830188274366 1.0238129943609235 3.3510150611400604 0.52381400018930424
leaf_count=3072 12 24 541 3371 258 72 747 36 274 2489 359 567 2003 135 16 807 749 1484 2024 75013 2861 1066 988 31 522 249 7 15 224 4455 488 95 1809 1523 9 1413 84 637 510 4040 390 1875 545 19 20 1280 1373 5618 17 329 210 209670 14749 6 35 129 9 98 8421 53 14 8
internal_value=0 2.48133 -0.346668 -0.158334 0.295346 -0.0810332 2.84806 2.14979 2.17339 -0.13243 -0.363607 -0.160922 -0.203941 1.68791 2.77609 1.58976 0.462404 -0.238282 -0.118218 -0.138242 1.06163 2.56306 -0.67578 4.9336 -0.183169 0.688003 2.54995 5.60327 1.58897 -0.239919 -0.550922 1.14521 -0.383929 -0.159793 1.04512 -0.585951 2.78193 0.984392 0.184499 -0.628982 0.908103 -0.252113 0.930839 5.91642 -0.485216 -0.419606 -0.591994 -0.604916 3.24597 -0.157819 -0.0178203 -0.655822 -0.730277 -0.633217 0.47258 5.20271 -0.441925 -0.524548 -0.519733 1.84057 1.76283 -0.0687991
internal_weight=0 14.7311 118.198 75.1775 23.4188 20.4095 3.00924 13.3169 2.54638 20.2667 51.7588 20.1714 36.0576 0.642857 6.29121 2.10194 5.31511 35.4147 25.588 25.4452 0.918371 0.428571 43.0203 0.444442 24.5268 1.5 5.31503 1.4142 7.02566 23.0268 9.82669 1.65714 14.8563 7.15197 2.22226 9.68384 4.24656 2.54681 3.67918 9.39812 2.47538 0.4898 1.51428 1.23929 19.4337 13.8574 7.70435 7.65674 0.4448 0.5 2.7683 9.25527 15.7012 8.35172 0.995728 0.346429 13.5717 3.47278 5.31121 4.8034 3.77959 2.66116
internal_count=359947 677 359270 353901 19368 16594 2774 490 2516 16522 334533 15981 307986 823 143 2211 2561 307163 89549 87525 7286 3927 5369 305 80239 771 107 187 347 79468 217614 1447 13420 3940 56 215611 91 1594 2319 214198 957 3359 1352 172 2297 1309 9480 6991 764 464 967 213710 26547 11798 47 148 1289 1621 8427 291 238 757
is_linear=0
shrinkage=0.02


Tree=5
num_leaves=63
num_cat=0
split_feature=170 13 13 31 171 8 143 13 161 173 69 0 13 147 113 160 171 158 150 147 16 160 13 8 20 84 150 147 13 61 2 31 154 13 172 31 122 171 2 171 150 173 2 13 0 10 0 0 2 31 13 147 8 58 8 13 13 16 2 4 40 40
split_gain=269095 73884.3 31883.1 20328.8 15910.5 18388.9 14539.9 12377.5 11855.6 8169.98 6815.09 11155.6 6116.21 5587.18 4793.64 4298.36 13473.4 4408.85 3872.14 3597.86 3918.36 3263.43 3259.03 2969.24 2875.98 2092.57 2026.48 1984.05 1935.64 1715.84 1692.53 3563.07 1677.36 1540.13 1113.83 1076.71 1037.8 947.211 733.695 730.761 723.868 2334.55 654.108 603.346 544.719 530.538 399.176 305.298 251.53 233.244 175.383 167.396 155.181 144.401 112.461 111.428 124.292 86.6963 71.9506 70.3152 69.2644 64.5503
threshold=87.530042246597219 94.129657965796511 268.79592592592604 6.3214285714285738 17.186439993281571 0.007994362280532628 13.500000000000002 186.65768168295801 26.500000000000004 6.0159048364587893 0.61414423076923086 1.0000000180025095e-35 153.94904432444602 0.032280717651322947 0.030742977159359412 0.79329085457271376 70.221196807653641 16.500000000000004 2.5000000000000004 0.032811353070712014 0.92857142857142871 0.70605516001935453 19.990949594959503 0.018664245820704906 18.563571500000005 0.20045454545454547 21.500000000000004 0.0088724596229286679 45.990500899820006 0.53571428571428581 659.50000000000011 116.57142857142858 0.30901856763925734 45.032747815702002 101.20288126141419 1.0000000180025095e-35 1.0357142857142858 17.013259500161901 0.96428571428571441 104.03663643838841 8.5000000000000018 17.8644234767327 0.53571428571428581 128.99339183187104 1.0000000180025095e-35 1.2037583333333337 1.0000000180025095e-35 1.0000000180025095e-35 1.9642857142857146 7.8928571428571441 62.540000000000006 0.16230090664052929 0.12220009955201594 26.920000000000005 0.057864526587122329 11.155151878797001 11.920000000000002 421.21428571428584 0.17857142857142858 0.32142857142857145 0.43748060045180542 0.029318195876288651
decision_type=10 10 10 8 8 8 10 10 8 8 10 2 8 10 10 10 10 10 10 8 8 10 8 10 10 8 8 8 8 8 10 10 10 10 10 8 10 10 10 10 8 10 10 10 2 10 2 2 8 10 10 10 10 10 10 8 10 10 10 10 8 8
left_child=1 4 3 6 22 -6 38 8 13 54 15 -12 24 14 18 19 17 -17 -5 20 -11 25 53 -8 43 -20 46 -14 -22 42 31 -9 -31 35 45 -24 37 40 -2 -28 51 -42 -21 48 -19 -4 -15 -29 59 -39 -35 -37 -23 55 -7 61 -57 -16 -41 -3 -52 -1
right_child=2 12 34 7 5 9 23 30 -10 10 11 -13 27 26 57 16 -18 44 21 29 28 52 33 -25 -26 -27 39 47 -30 32 -32 -33 -34 50 -36 36 -38 49 -40 58 41 -43 -44 -45 -46 -47 -48 -49 -50 -51 60 -53 -54 -55 -56 56 -58 -59 -60 -61 -62 -63
leaf_value=-0.73668134794328799 7.8254654238549106 1.7214578076850262 5.4607983804096403 6.683892020087451 6.711886403711171 3.7353917603379747 -0.24347958077686724 2.1899817633304886 7.2195022181666735 3.3599875998373627 6.9375382068017108 -0.17748437363912201 3.2146047224556433 2.4338891105438716 5.783909846746079 -0.63613505491736977 6.7963097332827589 3.3491400777158686 -0.12348750515383505 -0.27908644837554086 -0.57389429539491921 4.0711346263590196 0.73284371741458942 3.442463097016816 1.6684648428678173 1.5155184988295829 0.49673962878253825 2.0723163260693402 0.14627148075437565 -0.45659238462519647 2.5438498189835053 4.017232596442371 0.97597981980944526 -0.22577931321162145 6.0063307392223537 -0.83347301252911654 0.63786037946709129 0.63066993735560484 6.392165500448451 -0.037712169285236477 -0.55768143736553089 5.1610169073623675 1.0742428751911599 0.018290385527070682 1.3011027122069923 4.0405439488316972 0.93876688267857877 1.0486654356208995 0.74492923343249073 -0.15469670202146682 0.18519750162091672 -0.50612980971779242 3.1389241085635695 -0.45072860378250162 4.8577369632444416 -0.44210752280359772 -0.78948975227487805 4.6110695818516199 -0.71178518466362262 1.0939502289096239 -0.1292404261175929 -0.88245752116200271
leaf_weight=1.3809560015797615 0.28571400046348572 0.14285700023174253 0.21019999682903179 0.058828998357053908 0.15872799977660434 0.14285700023174541 0.14285700023174286 0.69295699894428242 0.14285700023174275 0.14285700023174008 0.14285700023174186 0.23015699908137321 1.0612290166318414 0.14285700023174253 0.095242999494075664 0.6666710004210461 0.14285700023174286 0.14285700023174286 0.3333279937505722 0.21428599953651428 1.7932140305638311 0.14285700023174275 0.25714299082756042 0.22527199983596802 3.2142860442399979 4.7771689854562283 0.35714299976825725 0.6326570026576509 8.9129660427570325 17.027818925678748 3.071829080581665 1.1116279959678648 0.3333280012011518 2.026229009032249 0.85714200139045715 4.9926389958709469 0.28571400046348472 0.28571400046348472 0.28571400046348572 0.071428999304771423 48.159759142901748 0.028571000322698548 0.42857098579406738 0.42430000007152546 0.081629000604152679 0.21062800288200378 0.14285700023174286 0.14285700023174286 1.1547559797763824 0.32142800092697144 0.80952798575162888 0.71428500115871418 0.14285700023174286 0.42857100069522758 0.047614000737667084 0.42857100069523468 10.649111108854411 0.034285999834537506 0.55934299528598785 0.14285700023174286 0.42857201397418954 10.112012144178149
leaf_count=86 1562 118 2 6009 195 151 35 48 2657 3602 116 36 33 330 761 24675 1072 343 45 1170 109 473 86 118 38 12855 195 118 6271 118093 1 7 2912 192 52 92205 40 1124 4 343 73922 1081 10 27 426 43 419 58 14 11 20 1916 789 9 432 86 1142 5 56 9 119 1071
internal_value=0 -0.342516 2.58022 2.27986 -0.466484 -0.0778292 5.11186 2.05584 1.51701 -0.113222 -0.139213 2.54743 1.66364 1.39822 1.67084 -0.172744 1.09424 0.180174 1.58055 -0.218149 0.0695541 1.52491 -0.612795 2.01209 1.30597 1.40862 0.202876 2.65269 0.0256485 -0.391517 2.82944 3.31557 -0.429087 -0.533272 5.59261 -0.558303 -0.564363 -0.570665 7.10882 -0.226152 -0.579515 -0.554291 0.623132 0.681142 2.60442 4.74995 1.68633 1.88375 0.876389 0.214888 -0.111186 -0.792502 3.60503 -0.814408 4.01596 -0.821314 -0.77605 5.47346 -0.635453 1.4077 0.0763539 -0.864942
internal_weight=0 118.834 14.095 12.817 111.918 30.6093 0.939557 11.8775 7.00105 30.4505 30.2601 0.373014 6.9158 6.8582 5.58457 29.8871 1.03401 0.891157 5.45504 28.853 10.849 5.39621 81.3088 0.368129 5.07906 5.1105 1.27363 1.83674 10.7062 18.004 4.87641 1.80458 17.3611 58.3096 1.27797 55.0453 54.7881 54.5024 0.571428 0.987915 53.8953 48.1883 0.642857 1.86477 0.224486 0.420828 0.285714 0.775514 1.44047 0.607142 3.26433 5.70692 0.285714 22.9992 0.190471 22.5707 11.0777 0.129529 0.630772 0.285714 1.2381 11.493
internal_count=359947 333138 26809 26712 332723 159613 1719 24993 24937 159418 158835 152 415 22280 20937 158683 26516 25444 20171 132167 9982 14162 173110 153 206 12900 1343 209 6380 122185 56 55 121005 170716 97 170385 170299 170259 1566 594 169124 75003 1180 168 769 45 749 176 141 1135 331 94121 1262 2394 583 2385 1228 766 399 127 139 1157
is_linear=0
shrinkage=0.02


Tree=6
num_leaves=63
num_cat=0
split_feature=171 28 141 141 141 171 145 34 141 166 143 148 147 166 141 28 28 18 166 171 147 141 147 148 1 46 1 1 147 171 158 159 9 143 18 162 69 158 1 1 148 152 147 9 1 159 152 106 1 116 141 143 147 96 62 1 168 166 141 148 9 148
split_gain=244061 58154.5 48507.1 28343.9 27620.9 24525.7 13390 12849.8 11358.5 10709 10044.6 7876.09 12090.9 6372.93 6050.89 5585.93 5054.4 4447.25 3750.68 2999.65 2873.99 2722.1 2688.48 2386.57 3085.77 2244.41 1941.29 1827.67 1782.24 1687.1 1672.52 1662.95 1351.38 1210.92 1145.95 1077.28 1056.68 1019.58 967.99 1674.39 939.309 882.788 773.872 701.223 690.685 644.872 916.385 1059.17 638.404 633.344 630.914 828.722 592.232 591.182 570.234 524.805 507.603 459.113 450.382 448.234 421.275 407.493
threshold=64.064322265079042 99.015000000000015 160.49500000000003 216.42000000000004 99.995000000000019 296.88542018748853 2499.9950000000003 1.0000000180025095e-35 30.725000000000005 0.47637648809523819 38.500000000000007 8.0650689655172432 0.15136181893818632 0.36851709565885521 93.995000000000019 31.985000000000003 179.47000000000003 0.075000000000000025 0.24632273415531045 11.930985872440926 0.037056938722709813 88.725000000000009 0.0033772378049893247 0.81739130434782614 0.32142857142857145 128.89285714285717 78.571428571428584 673.71428571428589 0.028170653724442118 114.94334935896062 17.500000000000004 156.50000000000003 0.14989361702127665 13.500000000000002 0.056428571428571432 18.500000000000004 0.45000000000000012 1448.0000000000002 4059.178571428572 947.32142857142878 1.936740514075888 5.5000000000000009 0.010071340422294729 0.80916763517626877 20.464285714285719 544.50000000000011 99.500000000000014 1.1785714285714286 321.96428571428578 1.6379373571768541 14.995000000000003 89.500000000000014 0.0043181005951178596 0.069979200000000005 0.17857142857142858 123.89285714285715 1.5000000000000002 0.81905259491466398 64.995000000000019 0.67067419477796852 0.11674242424242427 6.0506399235912118
decision_type=10 10 8 10 10 10 8 8 8 10 8 10 10 10 10 8 8 10 10 8 10 8 10 10 10 10 10 10 10 10 10 10 10 10 10 8 10 10 10 10 10 10 10 10 10 10 10 10 10 10 10 10 10 8 10 10 8 10 10 10 10 10
left_child=1 4 14 5 8 6 15 27 40 22 13 19 -13 48 61 -4 37 28 -12 21 23 58 -9 42 -25 -26 -15 -5 34 38 41 33 -33 60 -6 49 52 -3 39 -20 50 -16 57 -32 -14 46 -42 -48 -8 -23 -1 -52 -19 -24 -22 -11 -34 -21 59 -10 -17 -2
right_child=2 16 3 7 17 -7 10 9 11 55 18 12 44 26 30 31 -18 36 29 20 54 35 53 24 25 -27 -28 -29 -30 -31 43 32 56 -35 -36 -37 -38 -39 -40 -41 45 -43 -44 -45 -46 -47 47 -49 -50 -51 51 -53 -54 -55 -56 -57 -58 -59 -60 -61 -62 -63
leaf_value=-0.793883140806105 -0.42837250710301744 1.0238268053368291 -0.62321228820490515 7.2341295368474405 3.4377831385255373 6.006274317545115 7.5094236959723251 -0.048885601830553592 -0.49081761619284614 6.6282484772303336 0.55978700746090704 6.9320213861082927 -0.23075065352974938 1.0276921042110101 0.8889697745153976 0.74332529847017559 3.267431353839787 1.5812558444164757 3.0748393282198259 0.0035796289845828862 -0.56006234197948124 -0.66397269991177366 4.0329367930543416 3.2821574363790189 0.11518863267012534 1.3198315004050576 3.8892749139195866 5.5820612370685092 0.88253102674452333 1.8656372663610128 1.4987115894543346 -0.1831319986260514 2.2448999828962553 3.4186635476259686 1.9752152263038334 -0.18902369957975423 -0.3531985647481779 1.7591965716566977 2.4929726358322233 7.5040463699227598 -0.50466968026602166 -0.60863141937444132 -0.45929486090672328 3.0110169145186525 1.0527579820834587 -0.78159140408604677 0.72105220303680795 -0.594236668356111 5.8473256860052674 0.28610118461816386 -0.56309309856089174 -0.81465206083059716 0.75760729291213824 2.4490639464949453 -0.22654586181629924 5.2711823173658177 1.1754948045596632 -0.81978173085117034 0.25096504083287491 -0.035728490047070564 1.9382741280389422 0.48413274373821552
leaf_weight=29.14418407343328 2.2634279839694531 1.0671570003032687 0.64285700023174286 0.42857100069522858 0.42857100069522791 0.66667100042104799 0.14285700023174286 0.17857100069522769 1.2642850186675811 0.20168599858880043 0.46335699409246078 0.14285700023174186 0.27551500126719475 0.14285700023174286 0.59352900087833393 0.14285700023174353 0.83674401789903541 0.42381399869918901 0.77472798526287112 5.2224239911884087 5.3255259878933412 15.875404028221968 0.10928600281476974 0.14285700023174186 4.0510560311377048 0.73015600070357312 0.28205700218677521 0.71428500115871429 0.28571400046348572 1.501114025712013 0.86667099595069863 0.28571400046348561 0.202384993433952 0.21428599953651428 0.42857100069522858 2.3516290187835684 0.30158500000834454 2.571429044008255 3.071829080581665 0.035714000463485718 5.1105399802327138 0.21428599953651428 2.5722700320184231 0.14285700023174286 0.42857098579406738 2.4285710453987122 0.57142800092697132 0.42857100069522858 0.26190000772476196 0.28571400046348649 14.59660709416494 8.1703980769962055 1.9833269715309141 0.685713991522789 3.334556020796299 0.26214299723505974 1.4463129751384258 0.28571400046348561 1.2857139855623243 2.7460270300507545 0.67857100069522858 0.21428599953651417
leaf_count=108208 10432 150 17 860 13365 771 1202 5754 7911 2915 2395 307 867 614 5608 583 103 729 1339 49779 4958 37821 82 1106 1935 27 18 9 351 1173 601 363 122 110 660 2473 41 6 1 2 4969 25 2845 2 5 657 807 53 3 105 67346 174 134 857 97 19 143 12363 1674 852 832 217
internal_value=0 -0.369264 2.1453 2.73289 -0.459687 2.28876 2.04789 4.61874 -0.519711 3.36023 2.57864 -0.284055 1.6269 4.63798 0.293453 1.06713 1.86584 1.20424 2.28641 -0.319647 -0.14936 -0.474597 2.16869 0.0386204 0.385697 0.299154 2.9272 6.20159 2.25051 2.43503 1.16997 1.43299 1.08671 2.07974 2.7065 -0.588978 0.762802 1.54352 2.65519 3.27002 -0.700282 0.491707 -0.172882 1.71272 0.55051 -0.505899 -0.396328 0.157357 6.43396 -0.647176 -0.732257 -0.65337 0.902623 2.66679 -0.431642 5.86127 1.30677 -0.0391292 -0.0747684 -0.179199 1.73046 -0.349454
internal_weight=0 115.097 17.8314 13.5363 110.622 10.9561 10.2894 2.58026 106.771 1.4374 6.67641 46.3203 0.846943 0.829671 4.29506 3.61298 4.47533 3.85158 5.84674 45.4733 21.6646 23.8088 0.973571 13.0045 4.92407 4.78121 0.424914 1.14286 1.14286 5.38339 1.81734 2.97013 1.93441 1.03571 0.857142 18.5127 2.70873 3.63859 3.88227 0.810442 60.4503 0.807815 8.08041 1.00953 0.704086 8.53911 6.11054 0.999999 0.404757 16.1611 51.9112 22.767 2.40714 0.795 8.66008 0.463829 1.6487 5.50814 5.29603 4.01031 0.821428 2.47771
internal_count=359947 322878 37069 20184 322619 9688 8917 10496 307339 9627 6747 125125 1179 1837 16885 2170 259 15280 4910 123946 73110 50836 6693 68055 3068 1962 632 869 14376 2515 6236 2153 628 1525 14025 40399 904 156 1342 1341 182214 5633 64987 603 872 6486 5829 860 1205 37926 175728 67520 863 939 5055 2934 265 62142 10437 8763 1415 10649
is_linear=0
shrinkage=0.02


Tree=7
num_leaves=63
num_cat=0
split_feature=170 141 141 108 38 141 141 29 12 166 141 88 170 9 170 9 9 2 141 166 166 9 5 170 154 38 18 99 141 2 166 145 154 141 43 99 43 47 7 9 154 99 54 2 141 43 97 154 154 145 141 11 52 38 141 154 9 40 2 2 2 2
split_gain=248241 78661.8 32537.4 19745.5 22662 15814 9532.05 9468.59 11665.3 9052.65 9007.63 8513.77 5506.9 5474.83 4162.22 4489.01 12378 3533.34 3500.78 2752.93 2507.18 2437.93 2336.94 2537.22 2164.41 2100.96 2035.43 1999.51 1943.54 1477.61 1349.69 1331.74 1328.21 1324.75 1258.37 1256.82 1251.68 1023.13 998.68 1570.91 936.166 808.432 743.635 677.507 666.386 1030.17 649.42 640.756 636.724 599.776 596.801 590.008 531.748 484.134 467.941 446.583 417.886 400.029 377.986 373.298 353.149 320.944
threshold=87.530042246597219 99.995000000000019 160.49500000000003 0.38892857142857151 0.056778218153399583 30.995000000000001 216.42000000000004 7.4962500000000007 0.11952500000000001 0.99519230769230782 299.30500000000006 219.49100060006003 91.407972374240643 0.33020833333333338 16.722760875146474 0.72124087591240882 0.74051282051282064 0.25000000000000006 34.995000000000012 0.48004332201053518 0.49181667202400087 0.16000000000000006 12.140357150000002 1.5455100254014849 0.30901856763925734 0.10990338164251208 0.024285714285714289 0.16434276349836122 99.635000000000005 0.25000000000000006 0.24632273415531045 233.80500000000004 0.06897787743486726 227.43500000000003 153.31000000000003 0.21050295857988169 158.38908674803852 10.250000000000002 -1.0000000180025095e-35 0.17508620689655177 0.054586420786229085 0.23022727272727275 0.05050000000000001 0.96428571428571441 14.455000000000002 14.537500000000001 1.0000000180025095e-35 0.032686706523405391 0.033354728284124953 386.93000000000006 14.955000000000002 1.5963033759067093 1.0000000180025095e-35 0.029473814842392667 93.995000000000019 0.049334729761623793 0.18014285714285719 0.74149889380530987 0.25000000000000006 0.75000000000000011 53.571428571428577 0.17857142857142858
decision_type=10 10 8 10 10 8 10 10 10 10 10 10 8 10 8 10 10 10 10 8 10 10 10 10 10 10 8 10 10 10 10 8 10 10 10 10 10 10 10 10 10 8 8 10 10 8 8 10 8 10 10 10 8 10 10 8 10 8 8 10 10 10
left_child=1 5 28 4 6 44 11 14 -9 10 22 12 38 20 18 21 -17 -6 35 30 60 37 23 -3 33 -12 29 31 -2 -23 56 -28 -30 48 52 42 46 54 -4 -40 -10 -29 -7 -19 -1 -46 -24 -37 49 -25 59 -15 -20 -32 55 -16 -14 -44 -59 -47 -8 -34
right_child=2 9 3 -5 17 7 13 8 40 -11 25 -13 19 51 15 16 -18 43 34 -21 -22 26 36 24 -26 -27 27 41 32 -31 53 -33 61 -35 -36 47 -38 -39 39 -41 -42 -43 57 -45 45 50 -48 -49 -50 -51 -52 -53 -54 -55 -56 -57 -58 58 -60 -61 -62 -63
leaf_value=-0.75054511453545247 -0.26975297460112024 3.5919282534598818 2.4431133579655979 5.9226646985910767 3.3162263409370496 0.82843614317806369 2.6931226911571042 3.0625610771615062 1.0744055035540585 6.5278184068773362 6.6541050014649681 5.0286650603182874 0.28837248594436898 4.2487357684186211 -0.25691828863170058 6.793380958386126 -0.4168642582779622 7.5215209141656683 0.13664292096440031 3.4632876640598886 5.6780485951768593 3.2165142128833377 1.6006374645043162 -0.16875279120273548 3.2911221364912655 3.2240321494661646 -0.37172865428551422 1.2705872651539243 1.2984747282863072 -0.15660872216916494 1.634981645456844 0.12977124475271215 0.34152395154824194 -0.52577846329148015 1.8222794415462289 0.54591638759674066 1.9702472883289723 1.32183624629718 7.3539653677573096 3.0542176903970817 -0.33413549800100351 0.17183342684566311 -0.72161528545735398 6.1441969606458384 -0.82825891988541844 0.60363551323977682 0.83109944610546094 -0.28208687928034376 1.2571788168113103 0.81643993457872555 -0.56716775382515261 5.5934186454568628 -0.21917632893637751 0.44622544492937066 0.74748427631625836 -0.56535644193166668 1.4873531999338547 -0.65318418873959261 -0.4024390698413492 -0.64850460901571072 1.6833287023194834 -0.88229750981826705
leaf_weight=31.144184088334441 1.1205719970166659 0.14285700023173964 3.0718290805816655 0.80952800065279085 0.14285700023174364 0.14285700023174286 0.61785699427127905 0.77551501616835539 0.23265700228512276 0.14285700023174364 0.14285700023174275 0.40110000967979509 0.47618499398231584 0.17714300006628036 3.833342045545578 0.14285700023174186 0.28571499884128571 0.28571400046348572 2.838096996769309 0.28571400046348561 0.11077199876308441 0.14285700023174008 1.0000000298023222 0.28571400046348605 0.14285700023174275 0.14285700023174286 3.0618979930877686 0.71428500115871429 0.87857099622488 0.081629000604152679 3.3640979938209061 6.8711249493062478 0.21428599953651428 0.28571400046348561 0.14285700023174275 0.45714200101792757 2.2857140153646469 0.14285700023174275 0.035714000463477613 0.70329998433589935 1.0000009983777998 0.42857100069522924 8.3456390500068647 0.28571400046348572 7.1380840986967087 0.28571400046349182 0.7814429998397826 2.0516280084848404 1.2197280004620563 1.8325269706547258 22.453745085280389 0.49591399729251862 4.1170550659298888 0.14285700023174275 0.14285700023174275 3.6805559992790284 0.15384300053119659 4.9940809868276235 4.6380830220878133 0.14285700023174286 0.17857100069522858 0.14285700023174286
leaf_count=105363 6393 3189 90 80 823 184 5349 45 715 3556 3681 19 1454 1110 4507 21 229 124 600 2423 2141 1225 7 411 127 138 2038 164 3641 18 1279 16434 497 1040 1 973 19 54 226 194 848 344 4128 5 37 3149 52 483 6358 212 75982 16 12799 33 907 40268 868 34990 7820 22 2 42
internal_value=0 -0.328974 2.47823 2.90875 2.68551 -0.470936 2.44468 -0.204254 1.14079 1.53616 1.44986 2.18331 2.0447 3.8728 -0.261412 -0.0377543 1.98655 6.12953 -0.418935 1.56457 2.85883 -0.0831762 1.32487 0.975705 0.876477 4.93907 0.104545 0.0663318 0.333434 1.98996 1.43344 -0.0248183 0.880417 0.781284 -0.0358171 -0.550755 1.6605 -0.355154 2.60192 3.26201 -0.0682816 0.858555 -0.608841 6.83286 -0.685732 -0.618493 1.26307 -0.13121 0.893163 0.683555 -0.553057 5.23951 -0.0739819 1.58656 -0.386443 -0.408002 0.581145 -0.620262 -0.532445 0.186255 2.46671 -0.148004
internal_weight=0 118.834 14.095 11.7387 10.9292 110.429 10.2149 49.2642 2.00817 8.40513 8.26227 8.63464 8.23354 1.58026 47.256 19.5285 0.428572 0.714285 27.7274 4.4227 0.9072 19.1 7.97655 3.9094 3.76654 0.285714 11.3004 11.0759 2.35629 0.224486 4.13698 9.93302 1.23571 3.62368 7.09801 20.6294 4.06716 7.79961 3.81084 0.739014 1.23266 1.14286 18.1207 0.571428 61.1646 30.0204 1.78144 2.50877 3.33797 2.11824 22.8823 0.673057 6.95515 3.50695 7.65676 7.5139 0.630028 17.9778 9.63216 0.428571 0.796428 0.357143
internal_count=359947 333138 26809 16236 16156 314348 15204 129795 1608 18790 15234 6586 6567 8618 128187 66209 250 952 61978 6057 7492 65959 11415 11337 8148 3819 20223 18980 10573 1243 3634 18472 4180 8021 13400 48578 78 45736 510 420 1563 508 47122 129 184553 79190 59 1456 6981 623 79153 1126 13399 1312 45682 44775 2322 46938 42810 3171 5351 539
is_linear=0
shrinkage=0.02


Tree=8
num_leaves=63
num_cat=0
split_feature=171 28 147 148 29 171 23 28 166 148 48 142 166 18 43 143 4 28 148 147 146 146 142 18 148 28 4 148 78 147 147 147 17 153 147 146 148 27 142 114 148 18 127 142 171 171 138 146 147 148 4 171 148 138 160 148 171 23 168 147 23 30
split_gain=225165 53636.9 29583.4 24107.7 14604.6 14183.7 16295.6 13764.3 12064.4 9761.61 9291.46 8276.52 7738.36 7236.32 6600.62 6003.15 5675.2 4728.23 4380.36 3581.79 6642.96 3542.74 3376.85 2817.02 2695.88 2626.96 2179.06 2122.34 1912.31 1793.88 1594.93 1470.9 1326.41 1244.92 1206.82 1205.73 1056.44 962.921 925.636 871.125 862.991 830.828 801.619 798.781 747.616 740.434 649.273 635.711 589.283 582.584 534.775 489.869 488.345 430.189 1552.25 428.922 412.457 403.509 395.324 407.548 388.557 375.032
threshold=64.064322265079042 99.015000000000015 0.022326967387451258 3.1180749354005184 -1.485222222222222 17.186439993281571 0.0083950241352993959 265.36500000000007 0.34493775476479022 1.1839001177394028 0.015357142857142859 15.500000000000002 0.39868415357312914 1.7928571428571434 85.932500000000019 19.500000000000004 0.3928571428571429 179.47000000000003 3.831920289855073 0.028584607274644177 0.04548903297006484 0.0097959248952435799 384.50000000000006 1.2778571428571432 0.57086565752128682 21.810000000000006 -1.0000000180025095e-35 0.88402381782270256 0.018214285714285714 0.035101111557519764 0.0084447613953764784 0.011033469679262437 4.0714285714285721 659.90500000000009 0.016264571539424726 0.0091012632014909941 1.5626924279938621 0.0094474153297683019 6732.5000000000009 0.33535714285714291 1.9074166666666668 0.19428571428571431 -2.9210714285714281 inf 135.25234775612179 21.577524079394049 2.3166500000000005 0.013429259683881025 0.05885445660914209 6.0506399235912118 1.0000000180025095e-35 21.436066388082917 1.3953914227365558 4.9762000000000013 0.57160928887684115 0.28365191500190867 51.867064158416646 0.018410557118485129 3.5000000000000004 0.0067629937629937647 0.0077588152249592037 125.9918254087296
decision_type=10 10 10 10 8 8 8 10 10 10 8 10 10 8 10 8 10 8 8 8 8 8 10 10 8 8 10 10 8 10 8 10 10 8 8 8 10 10 10 8 8 10 10 8 10 10 8 10 10 10 10 8 10 10 8 10 10 10 10 8 10 8
left_child=1 5 3 4 16 25 60 8 9 23 -10 -12 22 30 19 -14 -2 38 52 20 24 26 -13 35 51 -1 -21 34 -23 39 -11 57 -5 -16 42 -6 -33 -9 61 -29 -31 -32 55 45 -20 -30 -42 -37 -48 -46 -28 -8 -4 -36 -55 -27 -53 -26 59 -57 -7 -3
right_child=2 17 18 32 7 6 14 37 10 13 11 12 15 -15 33 -17 -18 -19 44 21 -22 28 -24 -25 31 27 50 29 43 40 41 36 -34 -35 53 47 -38 -39 -40 -41 46 -43 -44 -45 49 -47 48 -49 -50 -51 -52 56 -54 54 -56 58 -58 -59 -60 -61 -62 -63
leaf_value=-0.77462815376636485 -0.16523957451717391 1.209334392902006 -0.60513057676867821 4.0784252119384785 1.7546690527689655 3.3589007071964923 0.33230626858055518 4.2046354430523545 7.5333762040168368 3.1292630879022343 6.3700844886890708 6.497121415456335 1.1460268183661544 6.521022516913801 1.8344224384264347 2.5008988206126697 5.8141890780727206 3.1474709980682132 0.50361862248004496 -0.37827619171894589 3.1558677709570624 0.71789612763261801 2.2942264426061914 1.2770764780748882 1.7593358820006915 -0.56785893907924301 3.5200896883906045 0.61466609925092486 -0.56364604364732462 -0.62881027267586198 1.1837315702222615 0.0097933626325640167 5.9369871294359928 0.71027864900563908 -0.70467453946684122 -0.48755940688599603 0.79012273898326746 5.7370294246222091 1.6856118569392025 -0.13321928635502775 0.59156279496412167 1.9892924191742429 0.61577383722136669 1.0760715642093839 1.1180119184672577 -0.30131639151480477 0.12691468942649325 0.25441022780907463 -0.41193092303454204 2.3952107500898796 1.5853265796254774 -0.47075010453568056 0.083172963833313601 -0.55245641060008999 1.6033719430255817 0.5477271684664512 0.11301994133496371 0.83880938828332607 -0.55720176977934499 -0.24812594591093043 6.6575133605806833 0.35848853516538981
leaf_weight=20.230723252519965 0.071428999304771423 0.78571400046348572 1.2857140004634855 0.19480000063777048 0.15384300053119659 0.015870999544861486 0.42857100069522847 0.38511399924755174 0.14285700023174286 0.36071400344371796 0.20168599858880032 0.23809999972581852 1.8693839907646177 0.14285700023174275 0.58729900047183037 4.3567570671439171 0.57142800092697144 0.83674401789903541 0.28571499884128515 0.14285700023174286 0.28571400046348472 0.61904198676347733 0.11264299973845482 1.2009559795260427 0.28571400046348383 6.0603100247681105 0.14285700023174286 0.73809999041259289 8.1801369711756902 6.9795670080929995 0.80714299529791 2.5578150302171712 0.72618500888347626 1.1976129785180081 24.023297022562478 0.85714198648929318 0.95238500088453282 0.28571400046348572 2.571429044008255 3.9940560199320343 0.28571400046348572 1.4011150151491163 0.28571400046348649 0.14285700023174186 0.28571400046348572 9.0821669548749906 0.87499900162220079 1.0016989968717096 11.241610037162898 0.28571400046348572 0.095242999494075775 3.1686410531401639 0.60695699602365483 2.0607129931449886 0.14285700023174275 0.28571400046348572 0.57142800092697132 0.57142800092697144 1.6530580297112463 2.5952280163764958 0.14285700023174286 0.28144299983978294
leaf_count=2309 105 98 674 742 335 166 854 12 133 255 7537 418 1683 194 13 1987 149 103 894 45 1282 525 120 34 184 4195 404 185 67288 8550 623 1542 19 51 142054 14678 618 38 9 1707 157 37 31 20228 153 52861 673 4809 8244 517 20 2582 923 2583 671 192 201 567 141 1455 41 49
internal_value=0 -0.354677 2.06059 2.40843 2.20451 -0.441518 -0.0630913 2.06444 1.91861 1.2562 2.48569 2.37931 2.25693 2.13989 -0.0980563 2.0941 5.1498 1.79186 0.152783 -0.175297 0.156044 -0.33411 5.14734 0.510509 0.0556349 -0.577044 1.57451 -0.511752 -0.374451 -0.365676 1.89626 0.402885 5.54388 1.08016 -0.60668 0.0531024 0.221512 4.8573 1.48011 -0.0165676 -0.450912 1.69485 -0.429595 -0.413302 1.33895 -0.425627 -0.350797 -0.0877241 -0.373018 1.75661 2.74616 -0.308167 -0.3844 -0.680143 -0.412694 -0.457787 -0.381559 1.14565 -0.310661 -0.169198 6.32769 0.984939
internal_weight=0 115.097 17.8314 15.0816 14.1606 110.622 29.1705 13.5177 12.8469 5.92547 6.92143 6.77857 6.57688 2.71183 29.0118 6.22614 0.642857 4.47533 2.74981 27.2269 8.8217 18.4052 0.350743 3.21364 8.53598 81.4517 0.380957 61.2209 18.0242 24.114 2.56897 4.36734 0.920985 1.78491 37.1069 2.01268 3.5102 0.670828 3.63859 4.73216 19.3819 2.20826 10.88 17.4052 0.857143 17.2623 12.4023 1.85884 12.1166 0.571428 0.2381 4.16864 1.89267 26.2269 2.20357 10.5943 3.74007 0.857142 4.534 2.88094 0.158728 1.06716
internal_count=359947 322878 37069 33908 33147 322619 149472 32893 32843 20965 11878 11745 4208 1109 149265 3670 254 259 3161 149201 7830 141371 538 19856 6548 173147 469 170838 140902 19516 915 2911 761 64 151322 19822 2160 50 156 1892 17624 660 6014 140377 1564 120149 9074 19487 8917 670 424 3637 1597 145308 3254 5983 2783 751 1788 1647 207 147
is_linear=0
shrinkage=0.02


Tree=9
num_leaves=63
num_cat=0
split_feature=171 13 13 13 53 140 18 164 171 164 162 160 13 53 93 153 46 171 172 0 2 153 13 45 45 142 53 153 140 140 13 164 160 17 153 153 15 160 171 18 16 171 143 160 33 143 45 162 121 16 50 172 50 0 18 18 19 33 172 146 13 2
split_gain=216248 57143.5 34047.7 19674.2 10495.3 9482.17 14147.8 13829.6 9381.56 8503.95 7596.26 7423.45 6357.67 5162.09 4615.93 4614.42 3801.4 3781.88 9759.69 3622.81 3173.03 3125.27 2821.9 2716.7 2680.72 2404.58 2291.78 1789.03 1775.54 1598.12 2053.83 1904.6 2887.58 1472.58 1433.01 1277.66 1215.66 1188.69 1169.93 1153.48 1089.28 801.007 2224.15 2107.72 904.122 882.404 776.996 771.597 753.086 695.573 725.811 642.311 625.706 589.445 470.042 437.83 430.64 388.788 366.162 332.79 317.732 375.253
threshold=64.064322265079042 86.840000000000018 253.84770627062701 94.129657965796511 0.12632978723404256 2.1316282072803012e-14 0.10214285714285716 11.500000000000002 17.186439993281571 40.500000000000007 4.5000000000000009 0.33338998413777482 175.60500000000005 0.015471896843381955 0.0012500000000000002 291.93000000000001 19.250000000000004 44.931582089549842 19.559434055951389 1.0000000180025095e-35 12.571428571428573 933.85500000000013 19.990949594959503 320.45793866841592 101.17541666666666 52.500000000000007 0.0059220879414717134 547.26000000000022 -5.3290705182007506e-15 -5.3290705182007506e-15 31.400000000000002 14.500000000000002 0.79329085457271376 1.2142857142857146 139.99500000000003 633.14999999999941 99.015000000000015 0.53868321879849268 21.577524079394049 0.033571428571428585 0.35714285714285715 33.925430587504863 4.5000000000000009 0.37213673719181684 0.032500000000000008 3.5000000000000004 25.410000000000004 1.0000000180025095e-35 70.464285714285737 0.35714285714285715 2.6392857000000003 17.24121183223939 1.9310714500000004 1.0000000180025095e-35 0.012142857142857144 0.015000000000000003 13.285714285714286 0.085357142857142881 93.559999193464037 0.066689855072463791 186.65768168295801 10.250000000000002
decision_type=10 10 10 8 10 10 10 8 8 10 8 8 8 8 8 8 10 10 8 2 10 10 8 8 8 10 8 8 8 10 8 8 10 10 10 8 10 10 10 10 8 10 8 10 10 8 10 10 10 10 10 8 10 2 10 10 8 10 10 10 8 10
left_child=1 8 3 57 5 6 25 11 22 16 20 15 24 -12 -10 -8 33 26 19 -19 -11 55 -1 -4 -3 39 -16 40 -24 30 -28 38 -33 -9 46 -29 -26 49 -32 -5 -27 44 43 -43 -31 -46 48 -39 -30 54 51 -51 -49 -23 -36 -20 -44 -2 -42 -37 -14 -62
right_child=2 12 23 4 -6 -7 7 9 14 10 13 -13 60 -15 17 -17 -18 18 21 -21 -22 53 28 -25 36 27 29 35 34 41 31 32 -34 -35 37 59 -38 47 -40 -41 58 42 56 -45 45 -47 -48 52 -50 50 -52 -53 -54 -55 -56 -57 -58 -59 -60 -61 61 -63
leaf_value=-0.75286480708313952 -0.61846708359157676 0.64448986402501041 3.1865139634658664 -0.6433228096757525 7.3827087867480898 6.2426827232590973 2.8784190580432103 2.7642939318372659 3.4496877397459293 4.9401774405346162 3.359044517592388 1.616718790533521 2.8631681008867269 1.8584843219299385 2.1639201503427969 6.3198807297946562 -0.33399682861445351 6.5243630506444426 1.0261692373951978 0.15422485655981399 1.7914321131297677 3.0964341750903195 0.35663168297783399 5.4959236531901761 0.53955556695992068 1.5425417850956225 -0.57571628633367078 2.8080439755163447 -0.61972641292260311 -0.5793719377096721 -0.67641571146265422 0.21006625645365645 3.0890665758767621 1.005767331516908 -0.57217848682339056 1.3877581401731807 1.672077476346463 -0.54979367727304029 0.10546714661327991 0.62745362193520804 -0.28886937212319991 0.25601943304094604 -0.43833185736839519 3.2313260486549695 1.38556915854511 -0.24961383266360596 -0.054204921769564866 0.6911935894064436 0.83576402181669263 -0.53245111728742789 -0.27337889114426867 0.81453180571840678 -0.14639932537302658 1.2795970531255298 0.83287630264032009 -0.12104409046792917 2.8751280496691258 0.094285588221764541 0.63020493062216831 -0.033279235985086898 5.080666795854353 3.2092544934160943
leaf_weight=22.999221256002784 1.0714280009269712 2.079055979847908 0.24991400539875031 0.57142800092697432 0.14285700023174364 0.20168599858880121 0.21428599953651428 0.28571400046348638 0.14285700023174286 0.55194300785660466 1.0604419857263563 0.28571400046348583 0.63265801593661308 6.7802710607647905 0.15872799977660179 0.57142800092696844 0.78571398556232452 0.1428570002317423 0.14285700023174364 0.047614000737667084 0.16667099297046661 0.14285700023174275 0.97142799198627472 1.1030559986829747 0.42857100069522891 0.28571400046348538 2.555555984377861 0.28571400046348572 30.712875984609134 7.8654090110212547 1.7404700070619665 5.678398024290801 0.14285700023174275 0.57142800092697144 0.14285700023174897 0.85475699603557609 3.2857140451669693 0.57142800092697088 1.3664849847555158 0.57143000140786171 0.42857100069522869 0.28571400046348572 1.3724419996142394 0.14285700023174286 0.13809999823570251 2.9916269853711133 1.0285700019448984 0.80158500000834443 0.14285700023174186 16.168795067351319 6.6977570801973334 0.14285700023174186 0.64285801351070404 0.14285700023174286 0.28571400046348572 1.9421850014477966 0.015870999544858821 0.42857100069522847 0.2912140004336834 0.071428999304771423 0.061229001730679466 0.14285700023174286
leaf_count=2394 305 32 19 17775 648 3074 100 235 308 104 24 352 14 121 35 586 43 336 4596 479 10 42 3187 106 90 424 221 135 156892 92551 14104 7489 594 100 1844 4641 145 202 7407 6122 1082 1811 10741 837 177 573 142 367 20 7225 79 96 12 73 634 6266 752 20 823 220 97 14
internal_value=0 -0.347584 2.01937 1.76895 1.98765 1.9357 1.87634 2.21584 -0.457761 1.98884 2.24181 4.37741 1.4549 2.06143 -0.135926 5.3813 0.670841 -0.154886 0.576304 4.93195 4.20988 0.226363 -0.565259 5.06934 1.21953 0.737294 -0.231467 1.12139 -0.491262 -0.247117 -0.0757855 0.0673117 0.280719 1.59194 -0.505627 1.63885 1.5414 -0.393723 -0.332532 -0.00793348 0.497712 -0.400685 -0.0116617 1.24779 -0.464969 -0.177461 -0.594962 0.0723106 -0.612988 -0.433806 -0.448675 -0.520654 0.318418 2.18802 0.364525 -0.0424426 -0.400453 -0.414824 0.082974 1.27817 3.08452 3.77071
internal_weight=0 115.097 17.8314 16.4784 14.9784 14.8356 14.6339 11.2736 108.467 10.2022 8.55933 1.07143 6.63009 7.84071 27.1586 0.785714 1.64286 27.0157 2.56123 0.190471 0.718614 2.37076 81.3088 1.35297 5.79334 3.36026 24.4545 2.2174 58.3096 24.2958 11.4838 8.92821 5.82126 0.857142 57.3382 1.2119 3.71429 25.4539 3.10695 1.14286 1.0055 12.812 1.81688 0.428571 10.9951 3.12973 31.8843 2.01587 30.8557 23.438 23.0094 16.3117 1.44444 0.285714 0.428571 2.08504 1.38831 1.5 0.719785 0.926186 0.836744 0.204086
internal_count=359947 322878 37069 36944 36619 35971 32897 1675 322486 637 259 1038 392 145 149392 686 378 149084 11792 815 114 10977 173094 125 267 31222 137292 7325 170700 137257 29815 29594 8083 335 167513 4996 235 10459 21511 23897 2329 107442 14141 2648 93301 750 157054 581 156912 9878 7400 7321 379 115 2478 10862 11493 325 1905 4861 125 111
is_linear=0
shrinkage=0.02


Tree=10
num_leaves=63
num_cat=0
split_feature=13 172 13 166 172 144 26 13 158 24 144 3 35 24 172 155 13 113 158 13 155 54 158 53 153 143 54 62 153 24 7 166 154 166 143 13 172 154 155 143 3 150 3 155 39 3 138 155 82 24 24 4 166 43 3 158 153 7 3 24 73 100
split_gain=200550 50025.1 30568.7 20869.7 13644.4 13414.3 10853.1 8453.64 7447.43 7070.52 17291.1 8838 5875.22 4864.33 4653.61 4177.76 3839.46 3835.06 2843.43 2567.75 2386.25 2174.03 2109.26 2040.84 1873.86 3186.56 2472.03 1787.33 1668.61 1452.83 1442.69 1370.98 1342.09 1257.34 1129.28 1110.84 1150.84 3974.49 1019.05 955.095 962.952 857.307 806.93 794.526 788.841 768.8 738.008 642.018 587.063 585.813 575.12 560.435 536.821 486.08 360.422 350.583 492.564 216.003 212.179 182.781 165.189 130.981
threshold=99.365000000000023 44.992500305175788 199.46000000000001 0.72733201581027684 115.76784116571601 80.500000000000014 6.2054436870547791 159.97445330296151 6736.0000000000009 0.72166666666666679 2.5000000000000004 16.234642857142862 1.0000000180025095e-35 0.21750000000000005 48.554393062059134 0.028177644297155486 17.805000000000003 0.030742977159359412 43.500000000000007 62.540000000000006 0.01177024743010723 0.17517857142857146 174.50000000000003 0.019057707828894273 179.97500000000002 15.500000000000002 0.178452380952381 4.6071428571428585 314.7700000000001 0.34018518518518526 18.89357142857143 0.34493775476479022 0.011257075272450791 0.60883500557413617 8.5000000000000018 17.974575521224004 28.816818027785331 0.30901856763925734 0.051985586667667602 6.5000000000000009 0.0053571428571428581 9.5000000000000018 0.49392857142857144 0.027475809733874253 0.16000000000000006 0.3764285714285715 4.9762000000000013 0.052613719572089372 7.7047607142857162 0.14343137254901964 0.57117241379310357 1.0000000180025095e-35 0.36739439962031334 85.932500000000019 16.234642857142862 227.50000000000003 2611.0949999999998 2.5000000000000004 0.039642857142857153 0.22000000000000006 29.792943344467002 1.0000000180025095e-35
decision_type=10 10 10 10 10 8 10 10 10 10 8 10 8 10 10 8 8 10 10 10 10 10 8 8 10 10 10 8 10 10 10 10 8 10 10 8 10 10 10 8 8 8 10 10 8 10 10 10 8 10 10 8 10 10 10 10 10 10 10 8 10 8
left_child=1 8 7 4 14 17 52 30 9 16 11 -11 -7 58 -3 18 60 21 20 24 29 31 50 -8 35 26 43 -9 -28 -16 34 47 -17 38 54 -18 41 -38 -27 40 -34 -37 -15 -26 -29 -25 -14 59 -36 -33 -20 -42 -4 -21 -2 -24 -57 -12 -5 -6 -1 -41
right_child=2 3 6 13 5 12 23 27 -10 10 57 -13 46 42 15 32 19 -19 22 53 -22 -23 55 45 25 33 28 44 -30 -31 -32 49 39 -35 48 36 37 -39 -40 61 51 -43 -44 -45 -46 -47 -48 -49 -50 -51 -52 -53 -54 -55 -56 56 -58 -59 -60 -61 -62 -63
leaf_value=-0.74038182026324806 0.5130458994816981 3.9564221400065471 5.7397273656168943 6.1450065928017583 1.0149630418337541 6.789260165697776 3.8574009744620685 1.5481485313263756 5.6914783945735454 6.3290403611317689 -0.48356822693175433 0.44301726828644983 1.8098432958044459 1.1695906639421934 0.070967369151319723 3.771955442549439 0.51446108682293801 5.2009067643649249 -0.10502076707342591 0.063677559242662135 2.9223153743415522 -0.31679249796213216 1.8112942175719731 3.5452486337968288 0.34642350331507182 -0.27903566151126941 0.067135978780280395 2.8715597960454153 1.1117497300560855 3.2599789841241438 1.7072338875931119 4.5464676182748223 1.3218446910916879 0.68971556222850083 1.4485558851753013 -0.68681210667606496 -0.28479521191240231 3.1666994048484982 -0.5176725603452661 0.056038772069002166 0.26232789927684852 -0.48338728405552772 3.6622888125978221 -0.51471453774781051 2.2792600000941143 1.9406710525581183 3.8061611409901777 2.3726104772821217 1.0101424061331601 2.2165923298474297 1.2351822405637742 -0.74301020416145802 4.9273038339153246 0.70190690295884983 -0.71730852215991392 0.55179117387527876 1.8417188720716831 0.034407237934850447 7.2350545255638634 -0.032613649805080067 -0.057398266876993793 -0.39678948408637704
leaf_weight=16.779380170628432 0.28571400046348738 0.1428570002317392 0.66300000995397501 0.14285700023174364 0.9900419935584065 0.28571400046348572 0.45400000736117363 1.1428559869527815 0.079370997846125557 0.28571400046348572 0.90475700050592311 0.15872799977660179 0.15384300053119693 0.081629000604152679 0.28571400046348605 0.035714000463485718 0.42857100069522858 0.095242999494075664 1.2380990013480189 1.3928570300340646 0.42857100069522858 0.35714299976825703 0.32652799785137165 0.14285700023174264 0.57142800092697088 13.931241111829882 1.166671007871628 1.2032999992370605 1.2857129871845243 0.071428999304771423 2.06529900431633 0.051943000406026729 0.28571400046348538 0.42857100069522758 1.9265280179679392 10.644204976037143 2.0272129848599429 0.14285700023174275 14.72173701552674 0.28571499884128571 0.99150100350379955 37.417300000786781 0.14285700023174286 1.7142840027809141 3.5616290830075741 0.72867099940776825 0.14285700023174286 0.14285700023174275 3.3395710038021207 0.25549999997019768 0.14285700023174275 0.28571400046348561 0.63877099752426147 0.72618499398231495 0.14285700023174286 0.35714299976825714 0.17714300006628036 0.50000001490116119 0.14285700023174286 0.071428999304771534 0.14285700023174186 2.4164860099554066
leaf_count=2721 208 1559 30 3520 874 534 19 20 25 62 861 3 6943 1274 400 167 27 157 524 308 808 135 44 170 681 3087 99 13 95 31 13 332 649 129 24 181325 16582 373 6041 513 3597 110663 6 2236 77 15 339 200 45 213 14 500 26 12 1 113 70 12 57 595 4 9923
internal_value=0 -0.301325 2.0682 1.01326 0.812301 2.07657 4.04396 1.68841 -0.432571 -0.437184 0.788615 4.22691 4.74225 4.95902 0.381372 0.311681 -0.45908 1.28614 0.880842 -0.405238 1.91616 1.08663 0.517976 2.77009 -0.422486 -0.307202 0.173763 2.25847 0.614796 0.708773 1.25441 1.41818 -0.0889672 -0.385563 1.09018 -0.499448 -0.508098 -0.0575813 -0.401646 -0.121297 0.272232 -0.52844 2.75588 -0.29943 2.42884 2.20369 2.77104 1.11387 1.17053 2.61023 0.0336204 0.037433 5.34108 0.282396 0.102928 1.295 0.979468 -0.299203 6.69003 0.944469 -0.734616 -0.34891
internal_weight=0 115.978 16.2951 10.528 10.0178 2.54657 2.6273 13.6678 105.45 105.37 1.8492 0.444442 0.582414 0.5102 7.47119 7.32833 103.521 1.96416 3.02748 86.5988 0.785714 1.86891 2.24177 1.32553 84.4798 33.8196 4.7381 5.90779 2.45238 0.357143 7.75997 1.51177 4.30084 29.0815 5.69467 50.6601 50.2316 2.17007 28.653 4.26513 1.56293 48.0615 0.224486 2.28571 4.76493 0.871528 0.2967 1.20433 5.2661 0.307443 1.38096 1.27722 1.30177 2.11904 0.428571 0.860814 0.534286 1.40476 0.285714 1.06147 16.9222 2.7022
internal_count=360098 359437 661 34091 29234 10322 260 401 325346 325321 938 65 7816 4857 18912 17353 324383 2506 2004 321658 1239 2349 765 204 321338 12368 3111 110 194 431 291 2214 15349 9257 278 308970 308943 16955 9128 15182 4746 291988 1280 2917 90 185 7282 1669 69 545 538 4097 56 320 209 227 183 873 3577 1469 2725 10436
is_linear=0
shrinkage=0.02


Tree=11
num_leaves=63
num_cat=0
split_feature=173 45 30 20 173 145 160 18 24 107 162 140 45 162 155 0 148 155 73 173 23 154 31 154 1 148 155 154 1 31 155 140 154 30 148 23 151 159 108 45 94 140 23 155 148 31 160 30 33 159 30 155 61 18 168 23 1 0 30 23 148 155
split_gain=173692 29205.5 28382.5 18500.9 16514.5 16839.8 9664.3 10624 8197.84 7276.52 7142.04 6974.35 6662.85 4974.4 5953.82 4890.65 4750.73 5665.23 5215.84 4355.22 15176.3 3932.49 3480.35 3437.72 3364.87 3008.26 2970.51 2543.73 2538.5 2423.42 2238.64 2115.74 2687.06 1831.72 1691.65 1639.3 1513.99 1485.15 1475.09 1405.84 1379.37 1231.64 1100.41 1082.98 1836.57 1007.98 957.755 952.691 871.59 853.783 845.227 752.133 740.421 725.468 505.665 453.909 439.427 345.778 331.979 324.241 307.801 511.181
threshold=35.131625230238896 210.75000000000003 77.580000000000013 27.987621500000003 126.36422536496828 1856.6650000000006 0.63656256216431284 0.027857142857142858 0.21750000000000005 1.0000000180025095e-35 355.00000000000006 -4.2632564145606017e-14 85.410000000000011 25.500000000000004 0.0033277962347729793 1.0000000180025095e-35 1.936740514075888 0.028177644297155486 119.22094108633451 16.747895846625635 0.0089793483051849639 0.04301370510117921 19.821428571428573 0.049334729761623793 1576.9642857142862 1.2700264550264553 0.010427540013917885 0.30901856763925734 1.0357142857142858 0.17857142857142858 0.02565931453235305 -5.3290705182007506e-15 0.12917130144605118 179.47000000000003 3.1180749354005184 0.46606334841628966 8.5000000000000018 126.50000000000001 2.2899999999999996 113.53528571428573 -1.0000000180025095e-35 -2.1316282072803006e-14 0.16580756013745707 0.02441316706400147 0.4558044603743529 689.607142857143 0.56769851246595449 139.19500000000002 0.083571428571428588 108.50000000000001 79.988025348732563 0.56510902506115568 0.10714285714285715 0.10357142857142858 1.0000000180025095e-35 0.01875586303939963 45.892857142857146 1.0000000180025095e-35 105.41986919859239 0.0077588152249592037 0.68042219004121651 0.05797543706023095
decision_type=10 10 10 10 10 8 10 10 10 10 10 8 10 10 10 2 10 8 10 8 10 10 8 10 10 10 8 10 10 8 8 10 10 8 8 10 8 8 10 8 10 8 10 10 10 8 8 8 8 10 10 10 10 10 10 10 8 2 8 10 10 8
left_child=2 3 10 4 6 22 11 -8 -9 13 12 15 19 14 57 -2 18 34 26 25 59 -7 -6 33 27 38 40 31 -10 -27 52 32 -22 50 37 -29 54 -18 43 -14 -13 -28 -36 44 48 -3 51 -16 -1 -33 -4 -32 -31 -19 -24 -38 -46 -5 -52 -21 -45 -62
right_child=1 45 23 9 5 21 7 8 28 -11 -12 16 39 -15 47 -17 17 53 -20 20 24 -23 36 -25 -26 29 41 35 -30 30 46 49 -34 -35 42 -37 55 -39 -40 -41 -42 -43 -44 60 56 -47 -48 -49 -50 -51 58 -53 -54 -55 -56 -57 -58 -59 -60 -61 61 -63
leaf_value=-0.31695008292214571 6.1376237729309482 4.4027776855754821 2.6335801286975755 5.3975761896015078 5.0968886450985238 3.690527834685966 -0.58461554958286255 6.5562297664194231 0.29278470630924225 1.3077514440584355 5.577648817069754 0.52750454031233163 0.50871878001360904 2.0749903822269427 1.5357490755501824 0.90429836910948613 2.5326507949829069 0.59284026049653338 1.8940156840878439 3.2540250717130483 -0.18605078772089964 6.6534748128475387 2.224013015838489 0.12676425013691239 1.0946816752908697 1.4597124518990534 1.6116065856462789 3.1033654487950368 3.8772936811845722 0.05463569178391689 -0.35472574690881054 -0.58347412816122912 1.089561428517126 2.9395390777808208 6.9010798230584509 0.073499327368362247 -0.11116917854789714 1.1348314427821538 0.45576185854737822 1.8593318379240602 2.3936590601567502 -0.26716146245725952 2.9760593371983499 -0.76943994081411182 -0.43094756925467453 5.7566509055278834 0.64232297613835698 2.8309161486534737 -0.64561301637353818 -0.16778197561450622 0.87108341568281245 -0.7548402455155947 1.0152701786622682 -0.2738402333010011 1.3602706205626396 0.86515407629792407 -0.13541753693010322 4.4617114795629043 1.645059541852363 6.2672952280756435 -0.48997544330652504 -0.7414621204633719
leaf_weight=3.7443410009145737 0.14285700023174286 0.48708601295948029 0.28571400046348561 0.28571400046348383 0.095242999494075775 0.48051400110125486 0.28571400046348649 0.28571400046348572 0.17687200009822845 3.6260570287704468 0.079370997846125557 1.4999990016221998 1.0690419934689996 4.2575441002845764 0.32142800092697144 0.14285700023174286 0.49999999999999967 0.85884400084614687 0.61224199831485737 0.015870999544861486 8.7789649795740914 0.28571400046348572 0.39285700023174264 0.42430099844932545 0.73015598580241103 0.30952800065279007 0.14285700023174286 0.14285700023174186 0.14285700023174286 0.73214200139045693 15.276808105409158 9.059637011960147 0.71428498625755388 0.69388701766729344 0.035714000463485607 0.14285700023174286 0.28571499884128648 0.77575699239969265 0.54285699129104514 0.43318500090390344 0.17714300006628025 6.0683700330555457 0.14285700023174286 11.446180971339347 3.4717970043420765 0.40110000222921272 0.35714299976825614 0.77472798526287057 23.383898172527555 2.5277839973568907 0.32142800092697144 2.1428560167551032 0.57142800092697144 0.70219999551773071 0.87488498911261559 0.57142800092697144 4.7881280556321153 0.35305699706077576 0.71428498625755288 0.14285700023174286 5.9194960035383701 7.1236399929039163
leaf_count=7953 245 35 11 27 237 8610 4384 708 1160 9 11 759 27 10 18 409 148 2249 33 21976 22638 924 957 136 15 245 546 1119 250 394 11896 80399 753 41 234 1396 115 198 44 38 118 23493 86 8527 4441 10 1019 61 138162 1592 58 2277 45 138 416 367 868 22 49 73 2437 4482
internal_value=0 1.44953 -0.369299 1.32437 0.900751 2.23891 0.58591 2.59422 4.09434 2.01492 -0.419488 0.434261 -0.424084 2.44283 3.34552 3.52096 0.357679 1.03973 0.115741 -0.443546 -0.19614 4.79536 1.35661 1.76297 -0.240406 -0.512535 -0.022277 -0.28603 1.89437 -0.295783 -0.324262 -0.311435 -0.090072 2.10746 1.93787 1.58843 1.18896 1.68267 -0.582094 0.898184 0.724611 -0.22395 3.76106 -0.591504 -0.520747 5.01418 -0.382925 2.45113 -0.60025 -0.492791 1.67053 -0.403945 0.475736 0.202984 1.62793 0.539712 -0.259634 4.88031 1.40486 5.966 -0.69375 -0.627327
internal_weight=0 26.1859 106.087 25.2977 15.6792 2.98636 12.6929 0.891157 0.605443 9.61853 103.647 11.8017 103.568 5.99247 1.73493 0.285714 11.516 3.01537 8.50061 102.066 22.2553 0.766228 2.22013 2.43962 22.0965 79.8102 7.88837 21.3664 0.319729 19.3899 19.0804 21.0807 9.49325 2.01531 1.45433 0.285714 2.12488 1.27576 60.4203 1.50223 1.67714 6.21123 0.178571 59.8775 35.3882 0.888186 17.7768 1.09616 27.1282 11.5874 1.32143 17.4197 1.30357 1.56104 1.26774 0.857143 8.25993 0.638771 1.03571 0.158728 24.4893 13.0431
internal_count=360098 46976 313122 46931 46784 11626 35158 6502 2118 147 312827 28656 312816 138 128 654 28002 3053 24949 312751 129961 9534 2092 295 107912 182790 24916 107897 1410 15876 15631 105382 23391 159 666 2515 1855 346 166914 65 877 24039 320 166870 151424 45 15192 79 146115 81991 118 14173 439 2387 1373 482 5309 49 107 22049 15446 6919
is_linear=0
shrinkage=0.02


Tree=12
num_leaves=63
num_cat=0
split_feature=173 45 30 147 173 24 54 158 4 158 45 32 18 17 62 4 153 99 173 173 24 24 30 30 76 16 24 16 42 160 140 158 18 160 173 173 147 16 45 32 58 173 173 143 45 147 153 32 18 153 4 147 47 46 147 4 4 91 173 32 153 14
split_gain=166814 28049 27258.6 22513 12118.3 10030.7 9116.46 8168.35 7406.31 6859.22 6399 6348.99 5404.86 6379.46 6561.71 6243.48 5533.63 5250 4911.7 4371.8 9586.76 4866.81 3676.23 3222.98 3168.91 2897.28 3446.44 2698.71 2040 1950.96 1829.46 1552.4 2644.36 1595.73 1541.38 3147.99 1662.36 1491.43 1350.16 1291.06 1261.55 1250.64 1211.63 1165.95 1148.29 1032.94 1025.54 968.06 925.3 610.14 503.043 484.495 467.326 572.727 398.57 356.675 337.668 305.154 502.865 300.911 300.371 292.576
threshold=35.131625230238896 210.75000000000003 77.580000000000013 0.012399897495034918 126.36422536496828 0.18014285714285719 0.11031250000000002 311.50000000000006 -1.0000000180025095e-35 6736.0000000000009 85.410000000000011 0.10714285714285715 0.02928571428571429 2.6428571428571437 2.3928571428571432 0.25000000000000006 1235.6250000000002 0.011666666666666669 65.210833231608106 16.747895846625635 0.67066666666666686 0.74166666666666681 79.988025348732563 179.47000000000003 0.46428571428571436 0.92857142857142871 0.12690476190476194 1.642857142857143 0.0035218253968254004 0.49096352749047362 -5.3290705182007506e-15 2.5000000000000004 0.040714285714285724 0.15874896562100357 32.246835947502412 33.579200172424322 0.037056938722709813 15.071428571428573 113.53528571428573 0.10714285714285715 36.191505751712008 87.550068421947287 225.35216999584603 4.5000000000000009 23.704013439846406 0.035101111557519764 98.755000000000024 11.964285714285715 0.010714285714285716 193.13000000000002 109.75 0.030308597642788353 9.4642857142857171 469.39285714285717 0.0062571184510250575 1.0000000180025095e-35 26.285714285714288 0.45833333333333343 149.97000122070315 15.821428571428573 257.7050000000001 -0.82981708007701882
decision_type=10 10 10 10 10 10 8 10 10 10 10 8 8 10 8 10 8 8 10 8 8 10 10 8 10 10 10 10 8 10 8 10 8 8 10 10 8 10 8 8 10 10 8 10 8 10 10 8 10 10 10 10 8 8 10 10 10 10 10 8 8 8
left_child=2 3 9 5 22 6 8 42 -2 10 17 37 -13 31 15 -15 -16 -1 54 30 24 -22 27 29 34 -20 48 39 43 51 -19 -14 -33 -34 36 -36 -21 -7 -12 -5 44 52 57 -26 61 60 -46 -3 -27 -28 -18 -4 -29 -54 -8 -24 -23 58 -6 -31 -43 -32
right_child=1 47 23 4 7 11 18 -9 -10 -11 38 12 13 14 16 -17 50 19 25 20 21 56 55 -25 28 26 49 41 -30 59 40 32 33 -35 35 -37 -38 -39 -40 -41 -42 45 -44 -45 46 -47 -48 -49 -50 -51 -52 -53 53 -55 -56 -57 -58 -59 -60 -61 -62 -63
leaf_value=3.3967008933269716 -0.70006343147903505 4.3147222762604018 1.0591935454416155 2.9165380222804265 2.2806779743049099 6.6836101120989682 -0.47543118754186409 4.4243221458233863 6.9199950966717143 5.4660959176269204 0.49854439807954676 5.8909818335740667 -0.34441916972490716 5.5313734219772419 1.2150354015466693 2.4779141407645819 2.6343945804306701 0.35334999758940672 -0.73672417283832059 -0.050844701262978353 6.1419491098909136 -0.43822532882418336 2.2241967611879314 2.8807482099132482 -0.20431562099575842 1.5793744405818959 0.22080268314152512 -0.42163161390421872 -0.17491449958033622 1.5754278056273006 -0.42447684529772811 3.7997479036913568 2.7341190085163065 0.72400310108378496 2.438744055533455 -0.42946848036430452 -0.50014340658120537 3.1441262921873872 1.8221452350968215 0.78536385721841684 -0.27399570337178303 0.52107310223427095 -0.13534851176837437 0.97128696219132904 -0.57656469328757753 -0.45329122179441406 -0.39803171884759608 5.6415176173165982 3.4995267012272335 1.1952601750546388 2.2199783067380663 0.12422896698847405 1.194474058594724 -0.11101931762374821 0.37878798632018262 1.2473118950730708 2.7868715611596291 1.9197225505276858 0.93519811987876711 2.3248952298558758 1.2504929811934828 -0.70336593355319355
leaf_weight=0.14285700023174286 0.071428999304771423 0.48708601295948029 0.46428500115871407 0.14285700023174286 0.14285700023174241 0.14285700023174286 0.92857098579407338 0.42857100069522847 0.17857100069522858 0.079370997846125557 1.0690419934689996 0.14285700023173831 0.30952899903059128 0.42857100069522835 2.4408130049705505 0.71428500115871429 1.8940429985523204 0.97142799198627472 0.28571400046348605 4.4272260349243879 0.14285700023174186 0.071428999304771423 0.25714299082756031 0.69388701766729299 0.42857100069522891 0.14285700023174319 0.28571400046348605 2.5593430399894714 2.0476129725575438 0.42857098579406738 1.6476130317896602 0.14285700023174253 0.17857100069522847 1.3693850003182888 0.23809999972581763 0.42857100069522858 12.8677329812199 0.071428999304771423 0.43318500090390344 0.5571429952979069 7.5436711162328711 0.57142800092697144 0.21428599953651439 1.5872979722917078 29.069289980456233 0.35714299976825714 23.094617053400725 0.40110000222921272 0.33765700086951256 2.559014018625021 3.071829080581665 0.42430099844932556 0.14285700023174286 2.2755150012671952 0.28571400046348572 0.35714299976825714 0.015870999544858932 0.43581400811672211 0.5 0.42857100069522858 0.37337099760770776 17.340767143294219
leaf_count=772 98 36 94 225 349 241 11878 28 92 25 27 1668 7127 48 39 22 63 3582 10213 5288 21907 341 37 74 168 583 1755 142 246 10 82 1165 477 2052 1726 1887 98012 33 38 3439 194 66 466 127 164727 88 13198 9 1968 114 1 78 3 1200 472 96 1 45 489 39 149 479
internal_value=0 1.42053 -0.361913 1.29789 0.516396 1.75339 1.01887 2.03144 4.74282 -0.411098 -0.415602 2.09517 2.02686 1.97454 2.21243 3.62296 1.99478 -0.434675 0.825928 -0.440045 -0.192218 3.86844 0.172939 1.72771 -0.234651 1.19596 1.36202 0.0423924 0.26972 1.26941 -0.509276 0.957779 1.19617 0.955889 -0.348755 0.594907 -0.38513 5.50378 0.88022 1.2203 -0.519924 -0.0889098 1.23828 0.721355 -0.545998 0.462973 -0.497522 4.9139 2.92866 1.09739 2.37804 0.612747 -0.233257 -0.0339018 -0.274439 1.65624 0.148092 1.51117 1.23419 1.95016 0.809329 -0.679167
internal_weight=0 26.1859 106.087 25.2977 9.31547 15.9823 5.07524 1.72153 0.25 103.647 103.568 10.907 10.6927 10.5499 8.54954 1.14286 7.40669 102.066 4.82524 101.923 22.2553 0.230157 7.59394 2.43962 22.0251 3.61096 3.32524 6.97966 4.06348 1.74573 79.6674 2.00034 1.69081 1.54796 17.9616 0.666671 17.295 0.214286 1.50223 0.7 78.696 6.27966 1.29296 2.01587 71.1523 1.30194 52.1639 0.888186 0.480514 2.84473 4.96587 0.888586 4.97772 2.41837 1.21428 0.614286 0.0873 1.07867 0.642857 0.857142 0.944799 18.9884
internal_count=360098 46976 313122 46931 6822 40109 27173 1377 190 312827 312802 12936 12662 10994 173 70 103 312737 26983 311965 129703 22249 5445 295 107454 14633 4420 5312 541 221 182262 10821 3694 2529 106913 3613 103300 274 65 3664 178680 1648 1349 295 178486 303 177925 45 2551 1869 64 172 1345 1203 12350 133 342 883 838 49 215 561
is_linear=0
shrinkage=0.02


Tree=13
num_leaves=63
num_cat=0
split_feature=13 172 13 166 173 28 31 153 13 9 100 9 164 99 31 172 9 13 8 9 153 31 172 49 9 28 61 20 20 147 16 8 8 173 146 147 166 146 8 40 19 146 8 172 16 61 8 9 8 9 31 4 8 20 85 68 45 146 16 8 92 60
split_gain=177602 44425.6 27311.4 18457.3 14307.5 8960.42 8501.78 8584.7 7555.95 6891.79 12847 9602.71 6645.14 5059.27 4869.75 4419.54 4318.62 3316.51 3065.09 2579.12 2477.92 2774.05 3023.99 2692.82 2259.67 1864.82 1602.84 1593.53 1591.51 1464.15 1271.48 1107.83 1050.12 1041.2 3583.28 1191.11 968.17 847.482 805.173 725.355 721.763 689.408 687.521 618.585 585.052 973.526 546.529 483.54 460.65 421.681 364.713 311.843 311.726 301.886 296.105 237.705 227.958 203.455 196.001 189.094 171.021 151.538
threshold=99.365000000000023 44.992500305175788 199.46000000000001 0.72733201581027684 126.36422536496828 265.36500000000007 19.821428571428573 980.28500000000008 159.97445330296151 0.72124087591240882 1.3977087197580647 0.77142857142857157 8658.0000000000018 0.011666666666666669 1.7500000000000002 48.554393062059134 0.21750000000000005 17.805000000000003 0.01042572463768116 0.16000000000000006 200.01500000000004 0.17857142857142858 13.78999999843232 1.0000000180025095e-35 0.11333333333333336 17.845000000000002 240.64285714285717 18.563571500000005 42.856428500000007 0.028584607274644177 1251.5000000000002 0.37980769230769235 0.019627104279825881 31.678913005884148 0.12408446939321037 0.021751918158567776 0.36851709565885521 0.014502931118710309 0.018333821390811165 0.14389729620661823 1.0714285714285716 0.052631861438989729 0.21498599439775914 96.840833536783876 4.2142857142857153 2.4642857142857149 0.048422623276964623 0.41020000000000006 0.090454545454545468 0.33550000000000008 55.964285714285722 -1.0000000180025095e-35 0.037092069781520014 68.236693000000017 0.097277659574468114 0.014134452102687045 397.80525948702569 0.022227671516538618 21.642857142857149 0.018664245820704906 0.20833333333333334 29.700000000000006
decision_type=10 10 10 10 10 8 8 10 10 10 8 10 10 8 8 10 10 8 10 8 10 8 8 8 10 8 8 10 8 8 10 8 10 10 10 8 8 10 10 8 10 10 10 10 10 10 10 10 10 10 8 10 10 8 8 8 8 10 10 10 8 10
left_child=1 9 8 4 14 30 46 19 27 12 55 -12 13 -1 24 -16 58 61 57 48 25 51 31 -24 -3 -19 -10 39 36 32 -4 -23 43 35 -35 -27 56 -34 -21 -2 53 -28 -18 -20 45 -31 59 -30 -8 -40 -9 -22 -26 -29 -41 -11 -7 -17 -5 -6 -46 -15
right_child=2 3 5 16 6 28 7 50 26 10 11 -13 -14 17 15 18 42 20 29 38 21 22 23 -25 52 33 41 40 47 44 -32 -33 37 34 -36 -37 -38 -39 49 54 -42 -43 -44 -45 60 -47 -48 -49 -50 -51 -52 -53 -54 -55 -56 -57 -58 -59 -60 -61 -62 -63
