tree
version=v3
num_class=1
num_tree_per_iteration=1
label_index=0
max_feature_idx=173
objective=regression
feature_names=is_mobile sem_impressions_w2 sem_clicks_w2 sem_adspend_w2 sem_qty_w2 sem_gmv_revenue_adjustment_seller_w2 sem_orders_seller_w2 sem_margin_seller_w2 sem_ctr_w2 sem_cpc_w2 sem_rpc_seller_w2 sem_roas_seller_w2 sem_convrt_seller_w2 sem_ordersize_seller_w2 sem_mpc_seller_w2 sem_mpo_seller_w2 sem_impressions_w1 sem_clicks_w1 sem_adspend_w1 sem_qty_w1 sem_gmv_revenue_adjustment_seller_w1 sem_orders_seller_w1 sem_margin_seller_w1 sem_ctr_w1 sem_cpc_w1 sem_rpc_seller_w1 sem_roas_seller_w1 sem_convrt_seller_w1 sem_ordersize_seller_w1 sem_mpc_seller_w1 sem_mpo_seller_w1 sem_impressions_v2 sem_clicks_v2 sem_adspend_v2 sem_qty_v2 sem_gmv_revenue_adjustment_seller_v2 sem_orders_seller_v2 sem_margin_seller_v2 sem_ctr_v2 sem_cpc_v2 sem_rpc_seller_v2 sem_roas_seller_v2 sem_convrt_seller_v2 sem_ordersize_seller_v2 sem_mpc_seller_v2 sem_mpo_seller_v2 sem_impressions_v3 sem_clicks_v3 sem_adspend_v3 sem_qty_v3 sem_gmv_revenue_adjustment_seller_v3 sem_orders_seller_v3 sem_margin_seller_v3 sem_ctr_v3 sem_cpc_v3 sem_rpc_seller_v3 sem_roas_seller_v3 sem_convrt_seller_v3 sem_ordersize_seller_v3 sem_mpc_seller_v3 sem_mpo_seller_v3 sem_impressions_v4 sem_clicks_v4 sem_adspend_v4 sem_qty_v4 sem_gmv_revenue_adjustment_seller_v4 sem_orders_seller_v4 sem_margin_seller_v4 sem_ctr_v4 sem_cpc_v4 sem_rpc_seller_v4 sem_roas_seller_v4 sem_convrt_seller_v4 sem_ordersize_seller_v4 sem_mpc_seller_v4 sem_mpo_seller_v4 sem_impressions_v5 sem_clicks_v5 sem_adspend_v5 sem_qty_v5 sem_gmv_revenue_adjustment_seller_v5 sem_orders_seller_v5 sem_margin_seller_v5 sem_ctr_v5 sem_cpc_v5 sem_rpc_seller_v5 sem_roas_seller_v5 sem_convrt_seller_v5 sem_ordersize_seller_v5 sem_mpc_seller_v5 sem_mpo_seller_v5 sem_impressions_v9 sem_clicks_v9 sem_adspend_v9 sem_qty_v9 sem_gmv_revenue_adjustment_seller_v9 sem_orders_seller_v9 sem_margin_seller_v9 sem_ctr_v9 sem_cpc_v9 sem_rpc_seller_v9 sem_roas_seller_v9 sem_convrt_seller_v9 sem_ordersize_seller_v9 sem_mpc_seller_v9 sem_mpo_seller_v9 sem_impressions_v12 sem_clicks_v12 sem_adspend_v12 sem_qty_v12 sem_gmv_revenue_adjustment_seller_v12 sem_orders_seller_v12 sem_margin_seller_v12 sem_ctr_v12 sem_cpc_v12 sem_rpc_seller_v12 sem_roas_seller_v12 sem_convrt_seller_v12 sem_ordersize_seller_v12 sem_mpc_seller_v12 sem_mpo_seller_v12 sem_impressions_v18 sem_clicks_v18 sem_adspend_v18 sem_qty_v18 sem_gmv_revenue_adjustment_seller_v18 sem_orders_seller_v18 sem_margin_seller_v18 sem_ctr_v18 sem_cpc_v18 sem_rpc_seller_v18 sem_roas_seller_v18 sem_convrt_seller_v18 sem_ordersize_seller_v18 sem_mpc_seller_v18 sem_mpo_seller_v18 uber_curr_item_price_w1 uber_num_appr_reviews_w1 uber_avg_overall_rating_w1 uber_price_change_ratio_w1 uber_price_change_value_w1 uber_avg_margin_w1 site_total_page_views_w2 site_total_add_to_carts_w2 site_total_orders_w2 site_total_revenue_w2 site_atcpv_w2 site_convrt_w2 site_rpv_w2 site_mpv_w2 site_total_page_views_w1 site_total_add_to_carts_w1 site_total_orders_w1 site_total_revenue_w1 site_atcpv_w1 site_convrt_w1 site_rpv_w1 site_mpv_w1 bc_bounces_w2 bc_visits_w2 bc_bounce_rate_w2 bc_sem_bounces_w2 bc_sem_visits_w2 bc_sem_bounce_rate_w2 bc_bounces_w1 bc_visits_w1 bc_bounce_rate_w1 bc_sem_bounces_w1 bc_sem_visits_w1 bc_sem_bounce_rate_w1 seller_weight_price_cart_w1 seller_weight_price_cart_w2 seller_weight_price_orders_w1 seller_weight_price_orders_w2
feature_infos=[0:1] [0:50897.142857142855] [0:804.14285714285711] [0:609.70928571428578] [-14.285714285714285:189.71428571428569] [0:697.9345857000003] [0:44.7639286] [-525.2397000000002:135.62928571428571] [0.00024593187687010698:2] [0.010000000000000002:3.71] [0:1169.99] [0:64226] [0:96] [0:1835.003600360036] [-971.33000000000004:1169.99] [-9370.6410923276999:1835.003600360036] [0:53982.285714285732] [0:782.14285714285711] [0:591.05857142857144] [-28.571428571428569:159.57142857142858] [0:624.78620000000001] [0:39.481929000000001] [-510.75665714285736:349.21714285714279] [0.00044547398431931583:2] [0.01:3.71] [0:1006.15] [0:64226] [0:96] [0:1006.15] [-971.33000000000004:1006.15] [-2583.9392000000007:1195.2972136222909] [0:44892.857142857145] [0:1244.9285714285713] [0:967.87928571428608] [-11.285714285714285:193.35714285714286] [0:1402.5222214000007] [0:57.281807100000002] [-256.39420714285734:130.60440714285716] [7.5912852045851369e-05:2] [0.01:1.6067233174711082] [0:1169.99] [0:19899] [0:38] [1.2232888835560001:1835.003600360036] [-833.20000000000005:1169.99] [-9766.7444444444445:1169.99] [0:53193.214285714275] [0:1984.7142857142856] [0:1605.4721428571427] [-9.5714285714285712:278.07142857142856] [0:2236.4803857000002] [0:79.433449999999993] [-660.75320714285738:256.41437142857137] [0.0010395010395010396:2] [0.01:1.6117622377622376] [0:519] [0:8333] [0:23.5] [1.9201960097999999:1135.54] [-210.50999999999999:519] [-9766.7444444444445:987.55481481481479] [0:56834.357142857145] [0:2020.5] [0:1671.4021428571432] [-15.571428571428573:329.07142857142856] [0:2943.4088357000001] [0:88.255314299999995] [-763.06000000000029:831.47157857142872] [0.0011636927851047323:2] [0.01:1.76] [0:850.51999999999998] [0:3335.3725490196075] [0:23.5] [2.9715466666669998:1701.04] [-339.89999999999998:850.51999999999998] [-7202.4019607843129:1701.04] [0:73038.642857142855] [0:1237.2142857142858] [0:1042.0628571428572] [-25.428571428571431:186.85714285714286] [0:1778.26055] [0:66.388942900000004] [-851.34582857142868:672.58338571428578] [0.0012512512512512512:2] [0.01:1.71] [0:1701.04] [0:9998] [0:6] [2.578546846354:1701.04] [-413.68000000000001:1701.04] [-2101.3498950314906:1701.04] [0:36607.916666666657] [0:1061.8333333333333] [0:355.04333333333329] [-2.25:146.25] [0:1196.8598582999996] [0:20.053225000000001] [-676.09107499999982:112.74735833333335] [0.00041450777202072539:2] [0.01:1.7966666666666669] [0:324.07999999999998] [0:18900] [0:9.5999999999999996] [2.1526076303820001:895.01406475923397] [-827:324.07999999999998] [-9760.2459999999992:724.28911564625867] [0:21105.571428571428] [0:705.42857142857133] [0:290.21642857142848] [-0.2857142857142857:99.571428571428569] [0:751.10228570000004] [0:12.6251786] [-452.05108571428565:234.79156428571432] [0.00016524373450839988:2] [0.01:1.6699999999999999] [0:959.99000000000001] [0:26848.82] [0:42] [2.162945368171:959.99000000000001] [-649:959.99000000000001] [-17704.969696969696:959.99000000000001] [0:4534.7857142857147] [0:209.64285714285717] [0:50.815000000000012] [-0.5714285714285714:39.214285714285715] [0:258.19252140000003] [0:5.9064500000000004] [-210.45987857142865:150.22537857142856] [0.008717310087173101:2] [0.01:2.0095890410958903] [0:22.495000000000001] [0:2249.5] [0:1] [4.9937760847339998:139.99000000000001] [-14.443333333333333:13.449999999999999] [-1653.7098666666668:139.99000000000001] [0.01:52102.730000000003] [0:0] [0:5] [0.99999999999999978:1.0000000000000002] [-7.2759576141834259e-12:7.2759576141834259e-12] [0.01:52102.730000000003] [1:327053] [1:25257] [1:282624] [0:793726.05999999552] [0.000319642000958926:5] [0.00015465511908444171:10.930452764475405] [0:746.6633333333333] none [1:140791] [1:10698] [1:114986] [0:492460.61999999773] [0.00031123560535325237:5] [0.00027693159789531985:11.142162562097029] [0:746.6633333333333] none [0:85497] [1:184569] [0:1] [0:1113] [0:2499] [0:1] [0:37718] [1:79202] [0:1] [0:421] [0:1022] [0:1] [0.00071334212368297071:28629.5] [0.0006120198352703647:28629.5] [3.4820251413786459e-05:5500.090909090909] [2.6086632353086531e-05:5056.666666666667]
tree_sizes=6676 6779 6802 6828 6761 6381 6789 6790 6857 6806

Tree=0
num_leaves=63
num_cat=0
split_feature=22 37 136 2 11 168 9 21 22 136 136 9 76 15 22 155 1 136 76 76 136 136 76 55 9 136 136 172 110 164 1 46 136 136 1 9 161 164 107 168 164 43 11 22 54 1 9 38 1 156 107 15 161 2 9 94 164 9 155 155 1 9
split_gain=49688.8 19652.8 14503.9 21730.3 11200.2 11123.8 10990.1 10557.8 22619.8 9357.11 9175.95 9119.32 7512.17 6558.5 4600.8 4139.54 3519.42 3497.83 3488.17 3404.36 2942.97 2796.41 2548.29 2339.46 2210.94 7344.82 2209.04 2044.63 2018.35 1918.42 1870.82 1600.36 1520.86 1421.34 1334.42 1396.27 1226.04 1143.87 1110.2 1006.34 964.626 916.218 2689.94 913.447 654.017 630.191 603.021 584.737 525.224 523.014 432.602 387.439 379.332 378.301 363.132 356.204 346.631 308.125 299.737 248.323 201.438 164.867
threshold=60.489285714285714 19.720285714285719 32.795000000000009 3.0357142857142865 224.52636054421768 1.0000000180025095e-35 0.5505000000000001 2.3792000000000004 -50.092142857142854 59.995000000000012 39.995000000000012 0.25937500000000008 52.464285714285722 302.99000000000007 1.7478571428571432 0.0016598070491523279 644.607142857143 589.99500000000012 72.785714285714292 0.46428571428571436 80.215000000000018 169.99500000000003 0.60714285714285732 1.1209517241379312 0.079705882352941196 30.755000000000006 14.465000000000002 5.6478016677636491 2.8789286000000005 91.500000000000014 7.4642857142857153 399.96428571428584 279.00500000000005 96.995000000000019 7.9642857142857153 0.26011194029850754 1.0000000180025095e-35 18.500000000000004 0.46428571428571436 46.500000000000007 7.5000000000000009 45.125170298263008 1.9185304596369253 17.535357142857148 0.3133763440860215 551.14285714285722 0.059677419354838716 0.010975596167207198 41.035714285714292 2.8549404761904769 1.1071428571428574 139.99500000000003 1.0000000180025095e-35 1.5357142857142858 0.26979166666666671 1.0000000180025095e-35 10.500000000000002 0.17714285714285719 0.003988039856541897 0.050052192066805855 4.4642857142857153 0.37000000000000011
decision_type=10 8 10 10 10 8 8 8 10 10 8 10 8 10 10 8 10 10 10 8 10 10 8 10 10 8 8 10 10 10 10 10 10 10 10 10 10 10 8 10 10 10 8 8 10 10 10 10 10 10 10 10 8 10 10 8 8 8 8 8 10 10
left_child=1 4 13 9 6 -5 24 8 -8 18 50 22 16 15 28 -3 45 20 54 -17 -13 40 60 49 25 59 58 56 -14 34 -6 38 33 48 35 -28 -31 -23 -27 41 -22 43 44 47 -43 -12 -40 -29 -24 -9 -10 -35 -48 -36 55 -4 61 -38 -21 -1 -11 -26
right_child=-2 2 3 5 30 -7 7 23 10 11 12 17 14 -15 -16 19 -18 -19 -20 26 21 37 32 -25 27 31 29 39 -30 36 -32 -33 -34 51 53 -37 57 -39 46 -41 -42 42 -44 -45 -46 -47 52 -49 -50 -51 -52 -53 -54 -55 -56 -57 -58 -59 -60 -61 -62 -63
leaf_value=15.126471000940116 20.306598043829197 18.479620105642312 16.404156953812514 14.897498757609243 19.217620110023283 15.759237388633068 21.18691515942195 14.998477261550173 14.946120210061473 15.052220100034029 16.692520142577873 19.393989240814484 15.39879990879386 21.629158252774587 16.609666761026336 17.24772005295624 20.859620078522155 21.319420113381966 18.699620020109563 15.560920082454613 15.448987646115199 19.256209460205511 16.259221725453138 15.213193500762644 16.36382004188059 15.409419898509334 15.192076415675793 14.978656807039451 16.378535521557893 16.526970126832552 15.598820080319317 22.720412355711627 15.349320101605606 17.323927619198763 14.961976703859685 15.800826233365441 15.14445769568669 15.071820117264547 14.839220095423054 15.259255183645235 17.150309895942478 15.323105205172912 14.898381413680447 15.451690173173937 15.962827572390163 18.319420284447485 18.479998309315931 14.866928302649667 19.498990118888244 14.835854870611172 15.710128214885673 14.806079879709127 16.658624132470269 15.35524983951934 15.164775009837747 15.553476939022669 15.401177933411743 15.675011905545912 14.909229740747648 14.788740556424376 15.919420167622281 15.516420120996504
leaf_weight=1.1377430111169813 0.7109140008687963 0.14285700023174286 0.22222799807786942 12.035714000463487 0.28571400046348472 11.932158289942889 0.28571499884128826 20.147785410284996 7.0161419180221882 0.42857100069522858 0.28571400046348572 0.43877099454402901 6.0772689487785065 0.061229001730679466 2.0555290430784225 0.28571400046348572 0.14285700023174286 0.14285700023174275 0.14285700023174275 0.28571400046348572 0.19047100096940994 0.3061280008405447 1.0265999995172035 18.946943685412407 0.2571429908275592 0.39285700023174286 10.592431999044498 20.152969121932983 0.97618598490953434 0.57142800092697088 0.071428999304771423 0.015870999544858821 0.28571400046348561 1.4777129990980027 12.694598982110618 1.7571419999003399 0.72245601564645734 0.028571000322699547 0.071428999304771312 2.8874979671090832 0.44415599666535854 1.3311869781464314 9.3102859351783991 1.1020289883017529 1.2297989847138522 0.14285700023174286 0.047614000737666751 266.61249964358285 0.020414000377058872 13.02448534965515 0.30952899903058995 0.024856999516487011 1.161141999065876 1.0600850041955698 0.9000989943742751 1.7269120030105147 1.5584430247545242 1.1114710122346878 23.656652143225077 3.7121129860170177 0.14285700023174286 0.14285700023174286
leaf_count=407 27 90 1750 13 185 40 4 3573 487 451 124 1282 444 9 20 1497 5 1066 34 62 2566 2690 13100 84 2684 217 129476 369 12 486 8 36 8695 18264 2380 15546 845 82 1077 14 214 34 54 1812 13 1 845 8365 21 109 19 98 204 130 3899 30023 1817 759 99181 2027 4 118
internal_value=15.02 15.0151 15.2903 15.6271 14.9537 15.3265 14.9504 15.178 15.6062 16.5332 15.5124 17.0662 15.9166 15.0873 15.777 15.0797 18.141 18.3375 15.6499 15.0705 18.035 17.4198 16.4875 15.0359 14.8996 15.2635 15.0586 14.8918 15.5344 15.1776 18.4939 16.3994 16.733 16.8881 15.1278 15.2787 15.7181 18.899 16.3394 14.8877 16.6397 14.8841 15.0563 14.877 15.6303 17.2348 16.6249 14.8748 16.3224 14.9346 14.9784 17.2823 16.7304 14.9923 15.497 15.6505 15.536 15.466 14.917 14.868 15.269 16.0612
internal_weight=0 465.751 84.8594 31.9176 380.892 23.9679 380.534 69.411 17.2918 7.94978 17.0061 4.95768 9.68041 52.9418 9.10898 52.8806 0.571428 1.55095 2.9921 52.7377 1.4081 0.969326 3.40673 52.1192 311.123 6.53877 52.452 304.585 7.05345 28.5096 0.357143 1.68891 2.8353 2.54958 26.1043 12.3496 2.40536 0.334699 1.67304 302.626 0.634627 299.739 11.8713 287.867 2.56099 0.428571 1.28018 286.765 1.04701 33.1723 7.32567 1.50257 1.20876 13.7547 2.84924 1.94914 1.95844 1.83393 23.9424 4.84986 0.571428 0.4
internal_count=359948 359921 334753 84292 25168 53 24975 4882 1116 84239 1112 48533 606 250461 476 250452 130 7900 35706 250362 6834 5552 40633 3766 20093 4813 248865 15280 456 149622 193 2379 40178 31483 147532 145022 2090 2772 2343 10661 2780 10647 101 10546 47 125 2126 8734 13121 3682 506 18362 1049 2510 35672 31773 4619 1604 99243 2434 455 2802
is_linear=0
shrinkage=1


Tree=1
num_leaves=63
num_cat=0
split_feature=15 107 171 31 150 31 164 164 111 8 99 165 162 83 47 64 164 1 164 1 99 43 83 145 91 1 138 8 138 138 165 145 42 162 145 11 11 138 8 15 171 99 50 8 165 145 150 145 1 171 145 7 26 8 171 1 0 150 78 145 164 0
split_gain=18039.8 42743.9 15823.8 13201.7 12556.3 11001.4 5810.45 4553.79 4997.1 4405.76 3868.91 3792 3872.93 3699.23 3805.39 3318.32 3150.05 17373.4 9084.04 5811.34 2321.77 2351.06 1981.54 1950.43 1918.6 2034.57 1597.02 1509.82 1430.72 1234.07 1852.66 1536.47 1227.99 1208.3 1237.31 1185.81 1762.04 1038.27 1023.61 986.451 970.515 930.19 2525.89 845.95 3024.39 830.425 651.425 493.629 351.086 264.554 262.245 460.269 198.68 198.139 170.707 169.679 160.799 444.727 146.6 141.872 116.127 110.339
threshold=13.990000000000006 0.10714285714285715 137.2519368814433 inf 1726.0000000000002 0.46428571428571436 79.500000000000014 2320.0000000000005 0.42261785000000002 0.024404424276800913 0.75478777589134127 363.50000000000006 3.5000000000000004 0.011149263666686785 5.3214285714285721 -1.0000000180025095e-35 18.500000000000004 247.1428571428572 16.500000000000004 52.892857142857146 0.091000000000000011 45.125170298263008 0.16058002148227712 446.35500000000008 29.250000000000004 453.50000000000006 4.7052500000000004 0.04770030879245897 4.4987500000000002 3.9836000000000005 209.50000000000003 5238.8300000000008 0.018432208226279553 2.5000000000000004 2330.4600000000014 7.3848148148148161 30.950254237288139 4.7052500000000004 0.062615313653136537 31.400000000000002 6.9777909649489169 0.41033333333333338 0.29237500000000005 0.088365434669443008 83.500000000000014 8.9850000000000012 72.500000000000014 2141.3499999999985 5.6071428571428577 35.467541184245796 1644.7649999999992 4.816178571428571 2.2358021405089676 0.16152751423149908 35.447348800225129 3.0357142857142865 1.0000000180025095e-35 1426.5000000000002 0.023214285714285719 1238.9350000000004 55.500000000000007 1.0000000180025095e-35
decision_type=10 8 10 8 8 8 10 10 10 10 10 10 10 10 8 8 8 10 8 10 8 10 10 10 10 10 8 8 10 10 8 8 10 10 10 10 10 8 10 10 8 10 10 8 8 8 10 10 8 8 10 8 10 10 10 10 2 10 10 10 8 2
left_child=2 -2 3 7 5 -3 10 8 15 -4 16 12 27 14 23 26 17 18 22 -20 24 41 46 -7 -17 -26 -1 -8 49 40 31 58 35 -23 -35 -6 -37 61 -24 -30 59 45 -43 60 -45 -22 -5 -14 -39 54 51 -15 -25 -32 -16 -49 57 -50 -31 -18 -42 -13
right_child=1 4 9 6 32 13 11 -9 -10 -11 -12 37 47 50 28 20 29 -19 19 -21 21 33 38 52 25 -27 -28 -29 39 30 53 -33 -34 34 -36 36 -38 48 -40 -41 43 42 -44 44 -46 -47 -48 55 56 -51 -52 -53 -54 -55 -56 -57 -58 -59 -60 -61 -62 -63
leaf_value=-0.033826685157815874 5.7767459740099625 4.1136475243327491 6.1734115436460595 0.20590152915427637 1.916512466590897 0.85075699634715263 1.4768105755196346 0.19913405900602132 1.3313446495198327 2.2082525557468586 3.414675955523387 -0.079385669053863059 3.4982075902805883 -0.12471580467047677 0.14550913598327922 0.15513737926770771 0.62447458346288676 6.1960281613581536 4.6518101451210798 0.65289503431271234 0.4657468673245726 -0.13183153526697908 2.1831456045918989 2.521521050739401 2.6627407189923225 0.39557968343262739 0.69229419932075043 -0.093552788119069585 1.8519834888412567 0.010755024682351549 2.1948227586740905 1.7474558871011521 1.357315077401986 1.4175395477785131 0.37831805468652846 6.4769550466397927 2.093968550969767 0.10937381489844972 0.49018362108323721 0.49893987185221539 -0.17681337503264749 0.59396666363207895 -0.069210727706760539 2.1480666119928404 -0.018884577063814471 -0.13331159415498106 0.021038723481291925 1.4999694189286488 0.64512722648353826 0.87441554584862602 -0.11934733164371426 0.45248626932992531 1.7744047130717733 0.58833051420978477 -0.1282063820944124 2.6533215882263357 0.56194770227352009 2.352228476744306 0.76689394589474402 1.4833834962054127 -0.076589415599762942 0.2099077681207569
leaf_weight=1.9999999701976774 0.61147099733352661 0.28571400046348572 0.14285700023174186 25.040824981639162 0.74581402540206854 1.4748710021376612 0.57142800092696855 22.018372684717178 0.97618598490953346 0.52041400037705898 0.14285700023174186 1.0952429994940758 0.28571400046348572 1.2912300219759343 1.6816269885748762 1.4571409802883866 0.1666719987988533 0.194800004363059 0.29591399431228538 0.28571400046348572 0.92857100069522858 1.0479000266641372 0.28571400046348472 0.34524299949407566 0.30158500000834454 0.33332899212837219 3.0734569877386093 0.42857100069522858 0.2857140004634855 2.3994700256735091 0.21915699541568745 0.23107199929654587 2.0301569849252701 0.65987198520451817 1.5000010281801222 0.061229001730680466 0.091542000416666269 0.68254201114177426 0.28571400046348572 0.87744298577308655 14.774943070951855 2.4380129966884843 39.800198658835143 0.29508500080555622 2.0298279970884323 288.97933678003028 10.962855047546325 0.079370997846126556 0.31428500078618427 0.14285700023174275 8.7952428758144361 0.9660429954528803 0.24230000376701355 0.035714000463485718 1.9898709747940302 0.14285700023174286 9.0460713431239128 0.075756996870040894 0.10714299976825703 0.14285700023174286 6.7310860138386479 1.0171139910817146
leaf_count=16 94 162 2298 222944 20 58 218 19 29 9087 162 422 409 69 1848 575 17191 9 1395 13 420 82 906 20 53 4 47 611 117 1608 733 417 41 36 34 11 83 1013 217 153 1305 312 106 1531 52058 22233 11803 194 91 552 12 19 28 629 457 39 286 152 62 786 3438 211
internal_value=0 0.563175 -0.0245748 -0.0291874 0.413555 0.219738 0.206372 -0.0796914 -0.0975643 3.06228 0.126968 0.579881 1.52618 0.158246 0.516576 -0.101637 0.119685 0.238824 0.207593 2.68742 -0.10927 -0.113413 0.168158 1.23895 0.554937 1.47248 0.406051 0.803798 0.217262 -0.0443234 0.338769 0.186932 1.62977 0.425443 0.695815 2.24534 3.85062 0.463214 1.33666 0.831297 -0.0918132 -0.118617 -0.0309318 -0.106266 0.256151 -0.131393 0.149612 2.94834 0.547407 0.0300167 -0.0699935 0.122309 2.21341 1.96971 -0.00283864 2.24139 0.579091 0.976694 0.0430755 1.02089 -0.145445 0.0599111
internal_weight=0 21.9184 444.544 443.88 21.3069 18.3782 78.3664 365.514 343.496 0.663271 64.6274 13.739 1.50794 18.0924 7.03993 342.519 64.4846 37.3515 37.1567 0.581628 337.446 335.354 36.5751 2.06241 2.09205 0.634914 5.07346 0.999999 4.97751 27.133 2.99256 2.73769 2.92874 3.20777 2.15987 0.898585 0.152771 12.231 0.571428 1.16316 24.1405 332.146 42.2382 23.8309 2.32491 289.908 36.0037 0.507942 10.1187 3.81435 11.0525 2.25727 0.587543 0.254871 3.6715 0.222228 9.43611 0.390042 2.50661 0.309529 21.506 2.11236
internal_count=359948 3744 356204 344819 3650 3495 320853 23966 23947 11385 317207 3646 1471 3333 3233 23918 317045 237287 237278 1408 23855 23223 235870 106 632 57 63 829 3127 79758 3449 2087 155 152 70 114 94 2175 1123 270 76309 23071 418 58332 53589 22653 234747 642 1542 2857 100 88 48 1362 2305 233 529 243 1670 17977 4743 633
is_linear=0
shrinkage=0.02


Tree=2
num_leaves=63
num_cat=0
split_feature=37 54 13 171 136 46 68 162 136 143 145 17 170 136 17 162 145 17 143 36 68 77 143 136 170 4 14 14 162 136 91 145 46 65 54 170 93 60 136 46 49 54 13 37 136 136 162 54 54 54 36 54 4 65 145 77 136 17 17 4 26 17
split_gain=28907.9 17950.2 14759.3 13770.1 10844.9 15442 8313.92 8537.58 8101.39 8534.06 7517.37 9267.21 4664.11 4231.29 4083.96 5463.25 3149.64 2938.62 2854.57 2648.06 2855.12 2168.35 1956.22 1682.34 1506.87 1344.4 1210.4 1566.46 1055.58 847.741 3064.28 1191.43 1097.53 796.256 4325.15 749.853 718.445 686.838 1309.14 1258.21 665.129 624.319 582.712 542.209 867.924 1304.1 534.335 491.646 405.165 390.527 290.175 222.678 221.152 217.025 205.455 202.223 179.08 159.937 155.789 130.548 121.619 173.854
threshold=19.720285714285719 0.54904545454545461 119.99500000000002 137.2519368814433 25.995000000000001 1232.5357142857144 0.013430447796909545 4.5000000000000009 419.99500000000006 19.500000000000004 1644.7649999999992 1.642857142857143 5.2073322562563797 589.99500000000012 0.2142857142857143 2.5000000000000004 1066.7050000000002 0.2142857142857143 8.5000000000000018 32.961892850000005 0.021017321594687291 4.6071428571428585 105.50000000000001 93.995000000000019 19.167230089652399 -0.39285714285714279 8.7758875000000014 8.9650000000000016 22.500000000000004 158.66000000000003 223.99999999999997 4091.4899999999957 1526.214285714286 12.739403600000001 0.11530000000000003 15.335777687903006 0.012083333333333337 48.757284302904687 34.005000000000003 206.14285714285714 0.17857142857142858 0.94125000000000003 127.48839183187103 1.0000000180025095e-35 14.665000000000001 14.875000000000002 1.0000000180025095e-35 0.22000000000000006 0.77051470588235305 0.80691287878787898 8.1907821500000022 0.34675492610837449 2.1071428571428577 1.3287500000000001 2999.8000000000006 0.10714285714285715 5.4350000000000014 6.2142857142857162 0.2142857142857143 1.0357142857142858 0.5953972972972974 1.0714285714285716
decision_type=10 8 10 10 8 8 8 10 8 8 8 8 8 10 8 10 8 8 8 8 8 10 10 10 10 10 10 8 8 8 10 10 10 8 10 8 8 10 8 10 10 10 8 8 10 8 8 8 8 10 10 10 10 10 10 8 10 10 10 10 10 10
left_child=1 19 3 4 26 6 7 40 9 10 23 -12 17 -5 15 46 -14 -11 -4 24 -21 -2 -17 -7 47 -26 43 -28 35 36 31 33 -32 51 -35 -16 -27 50 -39 -40 48 49 -20 55 56 -46 -10 -1 -6 52 54 -31 -8 -22 -38 -3 -45 -58 -47 -44 61 -57
right_child=21 2 18 13 5 8 41 -9 14 12 11 -13 16 -15 28 22 -18 -19 42 20 53 -23 -24 -25 25 29 27 -29 -30 30 32 -33 -34 34 -36 -37 37 38 39 -41 -42 -43 59 44 45 58 -48 -49 -50 -51 -52 -53 -54 -55 -56 60 57 -59 -60 -61 -62 -63
leaf_value=0.34427647297991193 2.2566028442935537 0.58866927371004496 0.91407022225905099 2.1640874443416855 0.8415525096244999 0.32188407128635804 0.25100947431066922 2.9696446268317893 0.10192454914707395 4.7406398037503195 1.5304410040492478 5.9121035313358457 -0.14967576785239833 6.0499431739179759 0.29094772739434832 2.3085913849189863 0.29632730785844319 1.0374589238614214 1.9718764961555755 3.5360433404878102 0.37035299858947551 1.2909187389410237 0.37803648305601295 1.0350477907127755 0.67643933952908886 0.1652417374719026 1.8149438858217062 0.17033119262050878 2.3051838820322561 -0.14393212771442573 1.5599002275568559 0.33790716281531297 0.35543797460435655 1.5022994297858554 -0.061967661978973763 -0.074341087322297897 -0.14452414017462209 -0.16048532944955604 1.7330602152643493 0.12304234641845586 1.3031903079627487 -0.22371656040239127 4.0313745311214566 -0.18586601380965131 1.390261708737319 0.20695114975046949 0.65968035941748138 1.3030776560863122 -0.067938200710109295 1.084718049110609 0.16289168723330608 0.04776468639304475 0.61228171045984847 1.4699699680699936 -0.19193981491047105 -0.15041014158855445 -0.075398666352340341 0.59647900051017155 0.029618049043963209 3.397274541941826 -0.21290432737795434 0.005005270947362782
leaf_weight=1.2727290242910383 1.8012719862163058 0.14782800013199449 0.2391429990530014 0.52041400037705798 0.62347101327031851 3.6510539911687374 0.90324199944734607 1.4839140251278875 3.5837690122425547 0.14285700023174186 1.8770969919860365 0.21521400474011887 7.5498581249266863 0.14285700023174286 2.3571410030126563 0.79172800481319405 39.312598003540188 0.21428599953651428 0.086571000516414642 0.14285700023174286 0.75204200018197198 1.9230139851570129 0.28571400046348572 2.0750989820808172 0.83659999072551627 2.9284000545740128 0.28571400046348461 1.2244849875569341 0.075756996870039894 44.359127800911665 0.58332801610231289 2.597142979502677 0.62884300947189331 0.77278599794953962 8.3096599914133531 48.470612051896751 151.78799395216629 1.4239149820059531 0.35714299976825703 0.42544299084693193 0.99999998509883881 0.40475699305534352 0.28571400046348472 7.6048431210219887 0.30612800084054193 2.5276399955619135 0.84999900124967087 0.25714299082755943 0.28571400046348594 0.57142800092697132 1.1483569741249073 2.563956029713153 2.7151290029287338 0.079370997846126556 48.14918626844883 20.296828508377079 17.786924088373784 0.14285700023174186 9.1730107949115318 0.23809999972581863 9.5571567267179471 3.3550139740109435
leaf_count=2818 27 63 212 9055 39 7952 297 17 40397 4184 7771 918 497 2019 15353 1997 64227 1837 8 286 2966 15 682 2141 1176 138 26 1411 3405 441 30 57 13 180 446 8167 3514 15 30 13 14 21 136 11700 944 49671 9496 1231 24 39 2 104 3 110 224 5727 87448 20 8020 5 92 77
internal_value=0 -0.011143 0.135882 0.124275 0.114329 0.231409 1.08087 1.83171 0.170529 0.343164 0.9552 1.98114 0.241826 3.00103 0.00210706 0.519267 0.224473 2.51873 2.76626 -0.11668 0.92412 1.75798 1.79665 0.580327 -0.120458 -0.124046 -0.0787984 0.481475 -0.0538847 -0.126563 -0.0602722 -0.0808601 0.935056 -0.10028 0.0711291 -0.0574008 -0.145791 -0.150271 0.200671 0.857794 0.947243 0.526369 3.49192 -0.0907328 -0.0385973 0.101641 0.208852 0.505433 0.555742 0.598832 -0.154122 -0.133457 0.522099 0.475328 -0.155943 -0.149409 -0.10454 -0.0700454 0.0679265 3.74314 -0.152694 -0.128364
internal_weight=0 462.738 193.362 192.512 191.849 119.44 7.98766 3.3931 111.453 55.0381 7.81846 2.09231 47.2196 0.663271 56.4147 5.51121 46.8625 0.357143 0.849528 269.376 0.97427 3.72429 1.07744 5.72615 268.402 266.872 72.4084 1.5102 50.9035 266.035 59.8148 58.6027 1.21217 56.0055 9.08245 50.8278 206.22 203.292 2.2065 0.782586 1.90918 4.59456 0.610385 70.8982 37.5414 12.0068 4.43377 1.52987 0.909185 4.1898 201.086 46.9231 3.61837 0.831413 199.937 33.3568 25.5346 17.9298 11.7007 0.523814 33.209 23.6518
internal_count=359948 359906 346112 345751 334677 169478 454 94 169024 89527 18782 8689 70745 11074 79497 52572 64724 6021 361 13794 3362 42 2679 10093 10432 6383 165199 1437 26925 5207 1271 1228 43 1171 626 23520 3936 3798 58 43 77 360 149 163762 157803 58635 49893 4049 63 339 3740 545 300 3076 3738 5959 99168 87468 57691 141 5896 5804
is_linear=0
shrinkage=0.02


Tree=3
num_leaves=63
num_cat=0
split_feature=40 19 156 136 136 82 39 147 170 38 100 138 170 136 2 136 160 6 3 3 159 160 2 45 148 148 147 159 39 2 136 16 136 16 92 3 144 136 136 82 91 136 160 16 170 93 38 138 150 3 170 2 156 93 159 68 150 144 136 159 16 3
split_gain=23095 44470.7 11820.1 10136.8 7658.02 6437.56 6354.04 19636.5 5590.87 7805.81 4845.49 4661.83 4127 3368.32 8941.69 10115.1 8048.14 8858.6 3519.29 6198.88 3468.01 3101.56 3034.81 2771.38 2732.81 2445.18 1936.95 1763.53 1699.39 1432.27 1358.85 1261.23 1184.53 5338.32 3535.4 1225.34 2412.6 1168.78 1124.48 1118.55 1004.19 956.527 897.591 878.33 807.053 737.144 838.985 671.252 666.302 630.704 597.436 587.76 584.254 408.24 404.092 392.936 374.384 354.293 351.51 349.201 1778.58 331.693
threshold=0.99053636363636366 -0.21428571428571425 1.2205167137476465 589.99500000000012 18.615000000000006 1.0000000180025095e-35 0.55683641975308662 0.003393669501122906 11.864592568916187 0.25543478260869573 0.30205685979923763 4.8007000000000009 114.07361858307492 14.995000000000003 0.25000000000000006 74.995000000000019 0.041841736694677882 0.0010321500000000003 0.018214285714285714 0.026071428571428575 60.500000000000007 0.44435336976320589 15.321428571428573 43.381778294457369 20.466153846153848 5.2747171027809214 0.016684064022268619 2609.5000000000005 0.60107142857142859 7.5357142857142865 108.99500000000002 3.7857142857142856 158.66000000000003 1.642857142857143 1.8750000000000002 0.066071428571428573 1.5000000000000002 25.475000000000005 83.27500000000002 3.4891428571428578 22.958333333333339 158.66000000000003 0.29990202482037892 39.071428571428577 32.816423250911512 0.0087499999999999991 0.0057398052566073662 4.5988000000000007 940.50000000000011 0.0039285714285714297 240.4335504166784 0.82142857142857151 1.8195324532453248 0.045416666666666682 3.5000000000000004 0.024413635780965937 69.500000000000014 5.5000000000000009 89.995000000000019 47.500000000000007 1.0714285714285716 0.012500000000000002
decision_type=8 8 10 10 8 8 10 8 10 8 8 8 10 8 8 10 8 10 10 10 8 8 8 10 8 10 8 8 8 10 10 10 8 10 10 10 10 8 10 8 8 10 10 10 10 8 10 10 10 10 10 8 10 10 10 10 10 10 10 10 10 10
left_child=6 -2 12 4 43 29 8 -8 9 55 52 25 13 -3 15 20 17 -16 54 31 59 37 27 32 50 44 49 40 -23 -6 -14 -20 45 41 35 36 -35 -12 -27 -24 -18 -34 -21 -4 -7 -10 -47 -46 -30 -22 61 -45 57 -37 -17 -1 -28 -9 -56 -15 -61 -13
right_child=1 2 3 -5 5 11 7 10 23 -11 21 24 30 14 16 18 22 -19 19 42 26 28 39 -25 -26 38 56 -29 48 -31 -32 -33 33 34 -36 53 -38 -39 -40 -41 -42 -43 -44 51 47 46 -48 -49 -50 -51 -52 -53 -54 -55 58 -57 -58 -59 -60 60 -62 -63
leaf_value=0.2947769227971837 5.6160786510599952 -0.096887108295015234 -0.054186652548057677 5.9289442890773323 2.9315270318435198 0.11351291663026652 1.62900644447573 -0.038061740463892935 0.16532539278274702 3.9507469710714616 -0.028879841015558561 0.12854492910140658 -0.092298583149985541 0.17711630780596807 5.953865387900243 1.464170887760063 0.94167256960708767 -0.2561915201139614 4.3503444877799149 0.77921951203283712 3.2742715337304951 -0.0076198428104249606 0.57985575735676398 0.46588620650779605 3.3256815734606051 4.3831014592734716 1.0662655909854584 1.4473127960960193 1.8303812852015851 6.3022835470962617 2.0945109526075361 0.033598921020546596 2.4474801756436908 1.4149358060717196 0.88469746822077555 -0.12992418108190359 -0.10225867980446823 0.77743613958373647 1.3440598274461644 0.18436704514370036 -0.068093216387297387 0.98880920956347551 1.9996816925588323 1.0753185755393013 1.2063864223114891 0.93068357878625063 -0.15375779880686324 1.9528950166878218 3.329329192091381 1.7724473891204826 2.3658746903891941 0.17355177257867496 -0.16524665265203187 0.084884678283085796 1.26359929954033 0.99142650197654381 0.1077630870957238 0.13400705358667173 0.23618780391290028 2.6418267876266492 0.20471697434670447 0.55979199974428751
leaf_weight=1.7013000249862673 0.61147099733352661 24.790108086541295 5.9991280343383613 0.14285700023174186 0.28571400046348572 0.22857099771499712 3.2934279963374138 18.169042470864955 2.9569710548967123 0.28571400046348516 1.1904699802398679 0.76428499817847928 0.14285700023174186 7.1487520039081538 0.194800004363059 0.28571400046348516 0.39797100052237511 0.17391400039196014 0.5164849981665609 0.43055600207298994 0.14285700023174286 0.12882899912074208 3.3222720175981522 3.1656859861686817 0.14285700023173653 0.15305699408054341 0.30952899903059072 0.31384199857711692 0.23638600017875422 0.061229001730680466 0.5561280008405447 0.028571000322699547 0.3333280012011518 0.63019999861717124 1.5137570165097702 47.457588939927518 1.2523999959230421 1.816057010553777 0.071428999304771423 20.581400677561764 38.943150941748172 0.39047099649906158 0.54761400073766708 0.48571499809622731 2.6238269805908208 0.28571400046348472 234.31670858152211 0.5901849977672099 0.23809999972581863 0.51538500469177961 0.0714289993047722 0.71428498625755321 11.519514452666042 3.8240850344300261 0.19327099993824959 0.39999999105930317 0.34432700113393366 6.4984848126769057 0.42857100069522858 0.14285700023174275 0.74148499220609665 10.719284347258508
leaf_count=5744 418 101589 5627 97 446 299 29 80 257 2974 57 7933 3428 112291 4028 10947 297 13 2842 1777 497 41 2070 28 389 139 19257 83 112 2 8234 305 810 528 25 690 331 130 171 22418 3618 971 1461 30 744 41 10622 401 2 3039 179 18 17 68 1359 481 5494 26 6024 1344 1160 5416
internal_value=0 0.235696 0.209217 0.617913 0.584797 0.832307 -0.0821577 0.144874 -0.11493 0.849119 0.0220528 0.771474 0.116107 0.105455 0.171715 0.678154 0.0784242 3.02472 1.82747 2.41487 0.379206 0.720778 0.0613322 -0.122701 0.576422 1.39368 1.33252 -0.045966 2.02947 3.5264 1.64758 4.12407 -0.129061 -0.0457842 -0.0683719 -0.0955088 0.405622 0.458166 3.41611 0.239334 -0.0578785 1.66056 1.46248 0.0446153 1.2618 -0.148482 -0.152437 1.34347 2.58256 2.09839 0.542433 0.538553 -0.0476487 -0.113906 0.841573 0.42739 0.561509 0.00726856 0.555511 0.223495 0.598409 0.53109
internal_weight=0 124.858 124.246 23.0539 22.911 15.7119 341.604 43.0903 298.514 2.38701 39.7969 15.3649 101.192 100.493 75.7033 11.776 63.9274 0.368714 2.43078 1.52323 9.34519 3.60984 63.5586 296.127 11.6979 3.66707 1.3121 39.655 0.603315 0.346943 0.698985 0.545056 292.961 55.4018 54.678 53.1643 1.8826 3.00653 0.224486 23.9037 39.3411 0.723799 0.97817 7.19913 3.44258 237.559 234.602 3.21401 0.474486 0.658242 11.555 1.2 36.187 51.2817 0.907556 2.1013 0.653856 24.6675 0.621842 8.03309 0.884342 11.4836
internal_count=359948 335884 335466 21891 21794 16119 24064 494 23570 9199 465 15671 313575 301913 200324 167797 32527 4041 24715 6385 143082 342 28486 14371 13917 1754 28287 3998 155 448 11662 3147 14343 3423 1642 1617 859 187 310 24488 3915 1781 3238 5675 1444 10920 10663 1145 114 3536 13528 48 123 758 18330 6225 24751 106 7383 114795 2504 13349
is_linear=0
shrinkage=0.02


Tree=4
num_leaves=63
num_cat=0
split_feature=37 54 155 13 1 13 37 147 0 32 102 156 155 148 148 147 44 78 83 1 77 164 1 148 13 147 156 44 9 69 9 0 168 2 18 168 18 152 43 10 13 1 156 91 73 1 9 51 152 145 9 9 1 1 23 1 148 9 23 53 10 9
split_gain=26688.2 16575.5 22436.8 13747.1 7346.88 6904.89 4028.14 7675.03 5263.4 3717.19 3707.4 3587.22 10080.2 6770.8 3210.77 2991.88 2987.24 2611.56 2135.39 2125.34 1984.73 1891.16 15150.6 3708.14 1729.03 1550.7 2769.47 1526.27 1455.86 5152.47 1475.27 1357.83 1069.75 1059.57 911.489 833.841 832.391 784.415 544.792 616.125 1448.5 534.33 524.916 447.635 439.296 423.947 364.33 344.022 344.186 783.912 203.003 167.802 158.46 120.413 101.801 74.9179 53.1952 28.7198 23.9033 17.9489 15.9853 14.2594
threshold=19.720285714285719 0.54904545454545461 0.0016598070491523279 119.99500000000002 3537.1428571428578 25.755000000000006 -50.591371428571414 0.003393669501122906 1.0000000180025095e-35 13.642857142857146 0.082381724629595213 2.1792912172573202 0.038482106129164965 4.7867083333333342 25.449646223950129 0.013702385243931749 3.9963500000000005 0.59464285714285725 0.0095617590589095799 2254.6428571428573 4.6071428571428585 8.5000000000000018 247.1428571428572 2.1640246153244092 17.950847584758503 0.0086517708996095184 0.585118699186992 -0.19064433177982104 0.085166666666666682 0.16944444444444448 0.049836065573770502 1.0000000180025095e-35 13.500000000000002 0.32142857142857145 0.063571428571428598 32.500000000000007 0.0078571428571428594 4.5000000000000009 45.125170298263008 2.0343416666666672 49.993725063747007 19.678571428571434 1.1107870370370372 1.0000000180025095e-35 41.096655013657006 31.821428571428573 0.17354166666666671 6.7576786000000011 65.500000000000014 4091.4899999999957 0.069705882352941215 0.11674242424242427 357.57142857142867 551.14285714285722 0.063878363936655982 1744.0714285714287 2.0277010489510494 0.57035984848484877 0.020411469837448914 0.028414242510299351 5.4225000000000003 0.21000000000000005
decision_type=10 8 8 10 10 10 10 8 2 8 10 10 10 8 8 10 8 10 10 10 10 8 10 10 8 8 8 8 10 8 8 2 8 10 10 10 10 8 10 8 10 8 8 8 10 10 10 10 10 10 8 10 10 10 10 10 10 10 8 10 10 10
left_child=1 16 4 5 31 6 11 8 19 18 32 21 13 34 24 53 28 44 55 -8 -2 22 23 -4 -14 26 -23 -11 29 41 -31 -3 37 -27 -13 38 -32 -9 43 40 -40 60 -34 -30 54 -15 -29 48 49 -45 -43 -17 59 -5 57 -7 61 -18 -52 -38 -1 -48
right_child=20 2 3 15 -6 9 7 10 -10 27 -12 12 14 45 -16 51 17 -19 -20 -21 -22 25 -24 -25 -26 33 -28 46 35 30 36 -33 42 -35 -36 -37 52 -39 39 -41 -42 50 -44 47 -46 -47 56 -49 -50 -51 58 -53 -54 -55 -56 -57 -58 -59 -60 -61 -62 -63
leaf_value=0.90218992686480193 2.1661815182038873 3.2087861244182112 0.19062691203591711 3.8717319996065496 7.3202396858521173 0.53667240313981335 5.6189550422129937 0.14397841055849162 0.85139603441941392 -0.019369906921572123 0.65256048979244485 2.4599109710447862 1.7395870791723413 5.8103652217160144 3.2591678351796207 1.9083112077658428 0.48363657907724195 3.4066920532042704 1.9778989653414096 2.0006168154189417 1.2422899578434252 0.15513653959517587 5.8347880879752916 1.6191815121968589 0.14309572007926336 0.15460564323398845 1.3076154941981206 0.14164495195653931 0.13260426685899138 7.4766746589885091 0.055167984399624052 -0.16844949190771721 0.48408390435123433 -0.084064260654707859 0.87358929504989746 0.20020349636584217 1.2812868239714856 -0.095672594819713325 0.64803633900176694 -0.096533428337339661 -0.13446297724243272 -0.2331709742156316 2.0267486225526481 -0.12926440250335833 1.4424672990747547 4.2954394599960528 0.53752950463745519 0.19767383056439763 -0.18623641647808242 0.4231604972221048 0.23652232180529123 0.88069256568245546 2.0027191162109297 3.2627426178623984 -0.098463776426212221 0.88065701949909414 0.74293043136596415 -0.070533758848555159 0.02528916599348896 1.4940719722998888 0.54817785430702648 0.4343239173248763
leaf_weight=0.17857100069522847 1.8012719862163058 0.14285700023174286 23.509223993169151 0.28571400046348472 0.21428599953651428 0.6067719850689175 0.14285700023174253 5.8836689852178097 1.2285709828138351 2.8210849612951279 2.9234569966793051 0.21428599953651428 0.28571400046348572 0.14285700023174186 0.14285700023174275 0.086571000516414642 0.73469900153577217 0.14285700023174275 0.98888502502813924 0.11904300004243851 1.9230139851570129 21.637984706088901 0.194800004363059 0.749999999999999 5.3975000595673919 10.616152095608411 0.86748500168323772 1.0039699878543604 2.4998290538787842 0.015870999544857711 0.17142800055444241 0.071428999304771423 0.55917099677026272 24.871757971588522 0.44737099669873714 3.1446419805288306 0.25627099629491568 76.448455287609249 1.7073569772765016 7.6285708844661722 2.1227290481328964 3.1428570002317429 0.10475700348615546 195.38013972854242 0.17881400138139725 0.15305699408054352 8.5157003402709908 1.2269279733300198 47.731715369969606 1.0329300239682186 0.28571400046348538 0.2391429990530014 0.25 0.23809999972581863 0.16019999887794256 0.43470001220703125 0.50000000000000078 0.039413999766111374 0.85714401304721843 0.41591399908065796 0.071428999304771423 0.57142800092697221
leaf_count=241 27 72 220021 160 1 189 52 2047 60 3 46 1095 775 395 243 86 2779 235 13 1 15 1311 3 3339 9699 89047 1517 1182 3 360 4036 62 37 1483 258 17 147 9585 32 15 14 21 2631 4555 59 8 93 4 106 39 4 108 4 5 603 1 239 4 127 384 5 245
internal_value=0 -0.010708 0.130575 0.120421 4.70164 0.109194 0.0737387 -0.0227583 1.40014 0.514749 -0.0474417 0.168266 0.610354 2.51202 0.297796 2.65899 -0.112123 0.86098 1.31227 3.97429 1.68914 0.131892 0.279402 0.234792 0.223357 0.0696919 0.199559 0.394019 -0.116681 0.201101 1.42279 2.08304 -0.0720986 -0.0126665 1.38734 -0.123516 1.33493 -0.0785465 -0.127441 0.00738209 0.214356 -0.0977372 0.727491 -0.133674 0.534267 5.02679 0.504131 -0.136387 -0.138066 -0.126359 -0.150166 1.15382 1.57283 3.59492 0.36045 0.680248 0.54209 0.455421 0.0780974 1.41295 0.801043 0.53104
internal_weight=0 462.738 193.362 192.933 0.428572 192.084 176.641 87.41 1.49047 15.4425 85.9195 89.231 6.78364 0.957571 5.82607 0.849528 269.376 1.25598 2.03036 0.2619 3.72429 82.4474 24.454 24.2592 5.68321 57.9934 22.5055 13.4122 268.12 5.6452 1.10948 0.214286 82.9961 35.4879 0.661657 262.475 1.09361 82.3321 259.33 11.4587 3.83009 4.53572 0.663928 247.872 1.11313 0.295914 10.5911 245.372 244.145 196.413 4.28572 0.325714 0.922185 0.523814 0.934313 1.04147 9.58713 0.774113 1.14286 0.672185 0.25 9.08713
internal_count=359948 359906 346112 345977 135 345618 343653 14459 113 1965 14346 329194 12473 1756 10717 359 13794 3680 203 53 42 316721 223363 223360 10474 93358 2828 1762 10114 5329 4931 134 14300 90530 1353 4785 4571 11632 4768 61 46 398 2668 4707 3445 403 1759 4704 4700 4594 152 194 535 165 3386 190 577 2783 131 531 246 338
is_linear=0
shrinkage=0.02


Tree=5
num_leaves=59
num_cat=0
split_feature=40 58 173 10 150 13 8 105 147 160 8 160 147 8 98 147 20 13 84 173 172 147 154 154 137 45 55 172 143 150 98 84 51 168 154 147 2 143 69 170 160 81 8 151 106 106 51 61 80 160 143 158 143 2 8 143 2 0
split_gain=21353.9 38164.2 11940.3 10725 7111.21 4887.71 4714.18 3676.07 3365.58 3063.09 13823.8 5791.19 4167.22 2996.24 2966.52 11604.3 2928.29 2808.55 2637.72 2382.17 5101.39 3012.66 2338.02 2288.09 1867.65 1846.61 1631.65 1554.55 1545.83 1498.65 1345.72 1236.52 846.431 823.562 1596.35 805.402 803.413 745.893 739.366 707.632 663.901 1064.47 480 476.512 424.161 261.649 257.148 240.477 166.766 106.327 94.9905 52.5496 19.541 17.8275 9.52007 6.74379 3.67999 0.321232
threshold=0.99053636363636366 107.52643465506601 82.4419091383118 36.985000000000007 12697.500000000002 53.085000000000001 0.0087861501832394804 78.80160086403454 0.0084210567786059867 0.153943278943279 0.016684064022268619 0.15154497733237896 0.012202567080615864 0.026333570412517788 0.012425329263802954 0.0040379582752464111 93.026900000000012 71.955000000000013 0.75364754098360665 0.91911116286860028 0.5315655382159824 0.01245671423607367 0.1306379520520114 0.13963643749365293 inf 43.381778294457369 0.26326189263157901 2.9392395244700142 2.5000000000000004 2.5000000000000004 0.017639650318565715 0.42406593406593412 6.7576786000000011 30.500000000000004 0.028573671578852929 0.152216622533527 0.3928571428571429 23.500000000000004 0.51678427853553488 36.755002468764907 0.60730974632843793 0.18626070000000003 0.032275426230077439 1.0000000180025095e-35 1.0000000180025095e-35 0.17857142857142858 3.0086393000000005 448.57142857142867 1.2417857500000002 0.3335456475583865 6.5000000000000009 3.5000000000000004 2.5000000000000004 2.8928571428571428 0.028572419327672811 18.500000000000004 0.25000000000000006 1.0000000180025095e-35
decision_type=8 10 10 10 10 10 8 10 10 8 8 10 8 8 8 8 10 8 10 8 10 10 10 10 8 10 8 8 8 10 10 10 10 8 10 10 10 10 10 10 10 8 10 10 8 10 10 8 10 8 10 10 10 10 10 10 10 2
left_child=3 2 4 5 7 14 -4 9 47 10 -2 12 42 35 15 -1 -6 -10 25 20 45 -22 24 -24 -21 27 37 43 -14 -8 46 -28 33 44 -35 38 -37 40 39 -11 41 48 -12 -16 -29 -15 -20 -7 -17 54 51 -31 56 -51 -45 57 -53 -52
right_child=1 -3 6 -5 16 8 29 -9 17 13 11 -13 28 19 18 26 -18 -19 30 22 21 -23 23 -25 -26 -27 31 32 -30 50 -32 -33 -34 34 -36 36 -38 -39 -40 -41 -42 -43 -44 49 -46 -47 -48 -49 -50 53 55 52 -54 -55 -56 -57 -58 -59
leaf_value=1.0896589802139867 5.7180924280455363 4.5209400687186205 5.6941579066005401 3.7942975732376785 1.3545029779819495 0.33459087452161568 -0.094265152152853388 3.3385582495242763 0.48481647413077256 -0.083082033822299894 2.0433929673929301 4.209530571102599 0.69644114769568577 0.094818174865916413 1.2597728749634778 0.30977500759913584 0.51077727859937772 2.0518992373459937 0.70725832660458321 0.082887005252992946 2.9460293075362523 0.72417595146905145 3.1939844357513865 0.59119289171257494 0.4535277330004579 0.72050881496340258 0.9329974611924311 0.12995218426858141 0.080028193273598683 2.9189583530836098 1.9364071928750783 0.082852509269647726 0.83131006289709874 1.2342138920639678 -0.013313365667655615 1.4329509164051919 0.096383033183312122 -0.16914649203018836 0.48327512078551166 1.0696636456754951 -0.029887614168271202 1.472740365415969 0.57466994827982643 0.58484160638432914 -0.13171257257209662 0.98224842862254846 -0.067346122148486495 0.013844267748569131 -0.1116550522489075 0.15348084394956388 2.3213045788914815 1.9183718569712866 1.6916007527299173 -0.12015309527899813 0.41015802161607701 2.4813901116421269 2.0734285855349661 2.2693590408215445
leaf_weight=3.99805698543787 0.19480000436305722 0.82235700264572997 0.14285700023174164 0.28571400046348472 2.0146849825978252 1.7241000309586523 0.14285700023174297 0.14285700023174186 0.9971429854631424 35.778340864460915 0.57142800092697144 0.1530569940805443 2.00519900303334 1.9058429999276993 0.25714299082755943 1.0959420036524532 8.9766863286495209 0.84524299949407555 0.42857100069522747 50.69295886810869 0.52381400018930424 0.45714200101792812 0.1428570002317423 2.4879119843244553 6.0916110035032025 1.0461279824376095 1.1261709900572889 2.4998290538787842 8.6358230172190762 0.020414000377058983 0.33332899957895279 1.7443279698491094 0.36978498846292396 0.5065420046448702 2.159170975908637 0.28571400046348472 0.48571398481726646 18.143957406282425 0.97024302184581657 0.21428599953651328 15.565470591187477 0.29285699874162729 0.10542800184339285 0.14285700023174241 283.72631238447502 0.14285700023174275 0.28571400046348572 2.0428569912910457 0.57142798602581035 0.28571400046348583 0.14285700023174286 0.14285700023174286 0.14285700023174286 0.14285700023174286 0.9870150238275528 0.14285700023174286 0.10714299976825714 0.071428999304771423
leaf_count=32 367 64 37 35 106 24 4748 50 23 4748 323 617 16312 25686 2706 109 2 26 52 153455 4600 1074 293 7285 27820 17 54 1 76590 4770 39 23 5 3365 26 143 26 33 23 383 31 35 1796 341 15433 1369 1 18 14 906 249 1611 660 28 687 259 72 346
internal_value=0 0.226635 0.198163 -0.0790036 0.179979 -0.0822459 2.31566 0.132333 0.503256 0.128237 0.434952 0.345233 0.292975 0.0925208 -0.092029 0.0640494 0.66543 1.20376 -0.114676 0.177546 0.724588 1.91061 0.149652 0.732531 0.122648 -0.118268 -0.0423447 -0.121283 0.196185 1.78718 0.887091 0.416386 -0.124944 -0.126168 0.223743 -0.0481843 0.591408 -0.0792608 -0.0615328 -0.076219 0.0137958 0.36067 1.81462 0.462115 -0.129427 0.156699 0.397417 0.160647 0.165346 0.330502 2.13606 1.92961 1.8782 0.0622695 0.432244 2.37495 1.98482 2.30399
internal_weight=0 124.858 124.035 341.604 122.979 341.319 1.05613 111.988 5.60934 111.845 11.6657 11.4709 11.3179 100.179 335.709 42.5382 10.9914 1.84239 293.171 62.445 3.02966 0.980956 59.4153 2.63077 56.7846 292.123 38.5402 291.077 10.641 0.913271 1.04761 2.8705 289.262 288.892 2.66571 37.7343 0.771428 35.6697 36.9629 35.9926 17.5257 1.96023 0.676856 1.81559 286.226 2.0487 0.714285 3.76696 1.66737 1.55844 0.770414 0.413271 0.392857 0.428571 1.12987 0.357143 0.25 0.214286
internal_count=359948 335884 335820 24064 323068 24029 12752 322960 91 322910 96005 95638 95021 226905 23938 331 108 49 23607 221582 32729 5674 188853 7578 181275 23515 299 23498 92902 12715 92 77 18830 18825 3391 5323 169 222 5154 5131 189 158 2119 4668 15434 27055 53 42 123 1962 7967 7113 2343 934 1028 854 1683 595
is_linear=0
shrinkage=0.02


Tree=6
num_leaves=63
num_cat=0
split_feature=37 39 147 158 171 14 140 28 63 141 158 141 113 140 141 1 162 145 9 141 77 171 162 46 145 45 141 72 34 158 78 44 141 68 158 9 166 141 40 18 148 1 1 147 1 152 9 1 145 1 9 166 9 12 152 145 39 1 44 1 148 141
split_gain=24620.3 21784.7 12834.1 19184 11447.5 10446.9 9375.69 8278.39 4406.31 3565.79 3253.77 3134.15 10212.7 7703.36 4732.83 3259.18 2553.54 2488.95 1961.86 6307.93 1881.4 1588.79 1496.91 1462.07 1252.83 961.602 703.888 1282.81 1186.07 1076.48 799.98 646.452 442 393.696 386.437 334.16 295.958 263.687 261.403 251.698 242.669 211.339 539.298 193.398 155.574 155.155 142.609 134.583 100.797 95.7879 94.4366 93.4004 84.7146 84.1838 82.5498 79.7783 70.0124 61.9533 37.6662 29.4345 29.0548 27.3028
threshold=19.720285714285719 0.55683641975308662 0.0026431738579625907 1520.5000000000002 137.2519368814433 35.600000000000009 -5.3290705182007506e-15 45.985000000000007 0.87035714285714316 589.99500000000012 150.50000000000003 296.42500000000001 0.0062133374498301959 1.0658141036401504e-14 14.465000000000002 11.035714285714288 2.5000000000000004 486.29000000000013 0.079705882352941196 30.755000000000006 4.6071428571428585 20.762089170420307 6.5000000000000009 399.96428571428584 433.78500000000014 -181.52900652147898 16.795000000000005 0.15587044534412958 -0.17857142857142852 1855.5000000000002 0.61071428571428588 -0.30012689125295494 1378.1250000000002 0.0067557392414218627 3.5000000000000004 0.20506410256410257 0.56010471204188494 88.905000000000015 2.0496076530612251 0.24714285714285719 0.96755952380952392 1744.0714285714287 19.678571428571434 0.0017905117304967267 5.4642857142857153 7.5000000000000009 0.37000000000000011 31.821428571428573 388.89999999999998 18.178571428571434 0.21000000000000005 0.32439620471535374 0.073333333333333348 0.045452272727272751 9.5000000000000018 350.21000000000009 0.19301282051282057 0.60714285714285732 0.31507812500000004 2254.6428571428573 1.0362389755766623 44.955000000000005
decision_type=10 8 8 8 10 10 8 10 8 10 8 10 8 10 8 10 10 10 10 8 10 10 10 10 8 8 8 10 10 8 8 8 8 8 8 8 10 10 10 10 8 10 10 8 10 8 10 10 8 10 10 8 10 10 10 10 10 10 10 10 10 10
left_child=1 5 3 17 6 18 10 11 -9 50 16 12 -8 14 -14 -15 37 22 19 36 -2 35 43 24 39 -23 38 28 -28 -30 -29 -10 33 -13 -26 51 52 44 48 -21 -36 42 -19 59 -4 -39 -37 -18 54 -42 -6 -20 53 60 -27 -24 -53 -47 -50 -3 -1 -33
right_child=20 2 4 -5 9 -7 7 8 31 -11 -12 32 13 15 -16 -17 47 41 21 23 -22 25 55 -25 34 26 27 30 29 -31 -32 61 -34 -35 40 46 -38 45 -40 -41 49 -43 -44 -45 -46 57 -48 -49 58 -51 -52 56 -54 -55 -56 -57 -58 -59 -60 -61 -62 -63
leaf_value=0.075526168688809417 2.0868388431084823 1.4960589658610526 1.2671407024696009 7.1520416675648448 1.768886577418457 3.718411381446757 5.4847830790350391 2.2821170179825283 1.1735102836530444 5.5802748125554595 0.18350890684993981 -0.015209156105050912 -0.10175142290612811 4.042245017743352 0.20794882153607661 0.34244035577034465 3.2717870952149282 3.0856899932209889 0.41605222844542916 0.037195363069454868 1.1873172460647499 0.58514011017248813 0.55121827321684647 7.3297754005017568 3.3358489153594877 -0.14474923387056485 0.6854007064804748 -0.0045099621518963585 -0.10680092815647443 0.7181143901493211 0.80022842507125258 0.66458526611328839 0.90517599702328921 -0.15691851982736746 1.9334097134205135 1.2345774590019969 -0.22809488619599258 1.2806735792730231 0.092531743423427848 1.0461456157528723 1.406865958762241 1.7248580692086557 0.62792249230631658 1.0724539353242859 -0.081076793055094645 1.5290172964954101 0.44645318735187267 4.1253398998644624 -0.17742193695462047 0.83594480050059017 2.3103291406674997 -0.11908834187565556 1.0580349359918226 0.72215346893068311 -0.028984031266995398 0.17882727376398774 0.32367000588611239 1.9983232059516736 -0.078394665736921165 1.9218764174850995 -0.17840458983738713 0.5126848714762603
leaf_weight=1.3877440094947804 1.8012719862163058 0.14285700023174286 0.12184299901127749 0.21428599953651417 0.28571400046348472 0.28571400046348472 0.14285700023174286 0.63419999927282333 0.64898601174354553 0.14285700023174286 0.50039998814463627 14.348770531825721 27.349580114707351 0.28571400046348472 70.918434468330815 0.14285700023174286 0.14285700023174297 0.14285700023174275 1.1298720240592948 0.32142899930477142 1.9230139851570129 0.77410000003874302 0.28571400046348561 0.015870999544858821 0.047614000737666751 55.238709931261837 0.76517099142074485 0.9550429955124855 171.78894466208294 0.63511300086974998 1.0238139927387226 0.49999999999999367 0.17857100069522758 17.29295743256808 0.35475700348615646 0.25714299082756031 3.4285709857940674 0.21428599953651428 1.6721000000834454 0.14285700023174286 0.66352799534797668 0.74581402540206909 0.047614000737667084 0.90475698560476414 0.047614000737667084 0.14285700023174286 0.14285700023174286 0.15305699408054352 68.910556946881115 0.14285700023174286 0.23469999991357327 0.28571400046348583 0.035714000463485607 0.076399999205022939 2.5789139941334716 1.1825419962406156 0.28571400046348572 0.52975700050592422 1.5714290142059315 0.11904300004243851 0.20714200101792801 8.8679433465003967
leaf_count=2835 27 165 4802 23 6767 81 80 20 4 1937 2185 8 99576 3924 202933 33 129 105 1863 1334 15 37 108 143 1434 1001 10 29 5581 213 15 369 647 4144 135 1383 715 256 82 9 1750 1 19 277 101 3120 267 4 1585 68 2064 2719 173 102 115 14 344 1152 17 2 415 482
internal_value=0 -0.010285 0.190217 1.33972 0.159962 -0.104205 0.147817 0.129285 0.665438 2.78138 1.56134 0.0855792 0.141158 0.133423 0.121754 2.80898 2.0712 0.99096 -0.107674 0.227732 1.62238 -0.115105 0.67622 1.28803 1.23072 -0.11887 -0.120656 -0.0944904 -0.100276 -0.103762 0.411843 0.563081 -0.087057 -0.0926567 1.56991 0.43296 -0.120965 1.61122 -0.15592 0.347641 1.4975 1.87671 2.4713 1.211 0.888319 1.74934 0.953105 3.71327 -0.159158 1.30572 2.01307 0.310667 0.0942092 0.073613 -0.139586 0.251292 0.102291 1.89865 -0.175214 1.68961 0.0425459 0.520792
internal_weight=0 462.738 147.612 3.78548 143.827 315.125 143.164 141.311 10.6511 0.663271 1.85267 130.66 98.8394 98.6966 98.268 0.428571 1.35227 3.5712 314.84 6.82448 3.72429 308.015 2.63491 1.68891 1.67304 305.914 305.14 175.168 173.189 172.424 1.97886 10.0169 31.8203 31.6417 1.20876 2.1013 5.13557 1.05636 129.972 0.464286 1.16114 0.936285 0.190471 1.16666 0.169457 0.8869 0.4 0.295914 128.3 0.806385 0.520414 1.7013 1.707 1.67129 57.8176 1.46826 0.571428 0.672614 70.482 0.2619 1.59489 9.36794
internal_count=359948 359906 335451 714 334737 24455 323969 312220 875 10768 11749 311345 306546 306466 302509 3957 9564 691 24374 9113 42 15261 566 4873 4730 8685 8648 5848 5804 5794 44 855 4799 4152 3387 6576 4240 9431 2800 1343 1953 125 124 444 4903 4528 1650 133 2718 1818 8831 4926 3525 3352 1116 122 3063 4272 1602 167 3250 851
is_linear=0
shrinkage=0.02


Tree=7
num_leaves=63
num_cat=0
split_feature=37 54 141 166 47 2 154 9 2 141 145 25 2 137 57 145 44 99 154 170 76 154 2 76 5 9 141 9 9 38 141 170 141 154 9 2 166 60 141 141 141 108 36 43 29 5 18 38 106 37 97 141 137 2 38 170 9 9 99 19 88 54
split_gain=23645.4 14767.5 11487.9 26025.8 19856.4 16265.6 11227.4 7519.78 7083.45 10661 5146.6 4821.82 4117.15 3065.58 2920.18 2788.26 2701.55 2690.06 2817.64 2359.73 2295.6 2172.98 2162.61 1806.9 1398.18 1335.41 5539.11 1261.68 1259.19 1204.46 1648.44 1184.82 1150.35 1142.69 1084.5 1059.2 929.475 889.214 865.128 760.156 1063.37 734.361 673.045 660.205 649.878 825.905 550.749 528.141 980.399 886.243 477.563 447.989 447.124 436.332 398.533 382.479 369.374 365.973 355.564 343.144 322.701 296.072
threshold=19.720285714285719 0.54904545454545461 48.995000000000012 0.17657451673248808 10.750000000000002 26.678571428571431 0.04049570005704007 0.25937500000000008 0.32142857142857145 93.995000000000019 966.2299999999999 1.0783228571428574 0.32142857142857145 inf 0.031865171530977961 216.78500000000005 3.9963500000000005 0.089027777777777775 0.0058922725920047625 5.2073322562563797 72.785714285714292 0.1306379520520114 76.321428571428598 483.21428571428572 16.511903550000003 0.085166666666666682 83.27500000000002 0.34672711571675308 0.059677419354838716 0.01891969446860375 14.665000000000001 19.167230089652399 210.99500000000003 0.062232298250435109 0.070263157894736847 0.3928571428571429 0.48015748031496069 43.322781388798624 14.875000000000002 116.05000000000001 77.295000000000016 0.011785714285714287 0.014985700000000003 38.696287964004505 8.0750000000000011 1.6665464500000002 0.19428571428571431 0.01122083489458056 260.1785714285715 1.0000000180025095e-35 -1.0000000180025095e-35 83.27500000000002 inf 0.75000000000000011 0.012529873081456635 32.818378988149853 0.086742424242424246 0.45887559241706172 0.017333333333333336 1.0000000180025095e-35 44.062190405209506 0.58212929528246959
decision_type=10 8 8 8 8 8 10 10 8 10 10 8 10 8 10 10 8 8 8 8 10 10 10 10 10 10 8 10 10 10 10 10 8 10 8 8 10 10 8 8 10 8 8 10 8 10 8 10 8 8 10 10 8 8 8 8 8 10 8 10 8 10
left_child=1 16 24 6 5 10 15 12 9 17 32 14 52 33 39 27 25 -6 -19 -11 -18 36 -7 -2 29 26 50 34 -28 30 -3 53 -5 -9 -4 38 -21 41 -32 40 -10 -33 -12 -37 58 -46 -20 48 49 -43 -1 -36 -8 -27 -34 -53 -13 -29 -40 -17 -41 -31
right_child=23 2 3 4 8 22 7 13 11 19 42 56 -14 -15 -16 59 20 18 46 21 -22 -23 -24 -25 -26 31 28 57 -30 61 35 37 54 -35 51 43 -38 -39 44 60 -42 47 -44 -45 45 -47 -48 -49 -50 -51 -52 55 -54 -55 -56 -57 -58 -59 -60 -61 -62 -63
leaf_value=-0.13316631582159488 2.0451020111840394 -0.095738823990191999 3.2691319731050386 1.1277813498970479 2.2236816863219806 7.0090005778662325 1.1310942978994438 5.5441891513676627 0.12564065842496225 4.4926482994472181 2.4652670727232202 1.797412515643106 3.5835179057013744 0.33593564978045931 0.21501276689297449 1.8714657071545568 0.5132846221078633 3.0239761025666811 0.16004250156548999 0.86891400446020839 3.2063513533106347 3.620552582930475 3.3869359576115325 1.1635708948079893 0.87645755623863064 1.209885911305455 7.1831795920461472 2.5220981600966406 1.5014620835479833 -0.14739833373802108 1.4001329095498378 0.14548252306560969 -0.20903546485421559 4.011516344797049 -0.0074915220381430178 -0.0058113178377116048 1.9140726040468097 0.040742110890958728 1.2117557797973855 -0.15223662345287961 1.4786350522051408 0.80658390255522294 1.6424439987158181 0.58492117339840788 1.6888124351267988 0.3006073332929306 1.4149663746766226 -0.14337293882845983 -0.086901501600289602 0.015513018147633645 0.76514279365539284 0.29837321506448589 -0.033508507178974176 0.29708311838501411 0.48991001838517217 1.5118443725764323 0.48523561605372101 0.49744513032568605 0.20405555447789667 -0.20504814335384527 -0.036603265829775959 0.20110880559658548
leaf_weight=4.4571430142968884 1.801271986216306 25.685223115608096 0.047614000737666307 1.1428569853305819 0.28571400046348572 0.21428599953651417 0.42857199907302834 0.33765700459480286 1.1205139756202687 0.14285700023174253 0.80952800065279007 0.086571000516411867 0.31428500078618526 0.071428999304771423 23.370528641156852 0.94404200464487065 1.1131270015612234 0.14285700023174286 6.7296950221061689 0.53571499884128548 0.14285700023174275 0.23077099770307552 0.095242999494075775 1.9230139851570127 0.64898601174354453 0.2571429908275592 0.015870999544858821 0.14285700023174275 0.92218499537557364 37.51706940960139 0.28571400046348649 3.8587570693343878 0.44371399283409119 0.45918499492108822 1.1262990012764929 12.383354795165356 0.93332700245082378 13.110328967683015 0.14285700023174286 12.595914483070374 0.29314199648797501 0.96047100424766541 0.78152802586555459 0.80601498484611589 0.28571400046348472 0.42857100069522858 0.14285700023174275 215.22987097827718 26.547455020248893 1.3809429854154589 0.24999999999999989 0.28571400046348583 0.19047100096940994 1.1298720240592957 1.2333279997110365 0.16327100060880184 9.7716573476791382 0.047614000737667084 7.1540070094633856 0.0329429991543293 41.328512575943023 1.0010850057005871
leaf_count=2531 26 100115 4355 52 427 103 2477 107 221 922 22 33 130 767 12 1964 3405 190 56609 8908 275 533 1 16 26 680 1976 1394 272 7335 885 113 32 388 15666 12971 9687 39 94 5 147 45 18 3 636 696 1428 3473 240 7 550 3150 4416 188 112 4366 14841 1050 86599 73 2056 90
internal_value=0 -0.0100793 0.123276 0.261738 0.195702 1.4626 1.73476 2.96552 0.134497 0.66447 1.15161 0.079782 1.71924 4.30517 0.0275558 0.940125 -0.105804 0.32139 0.243916 2.02384 0.819597 1.81636 5.89448 1.58993 -0.0483572 -0.110139 0.194214 0.476071 1.59759 -0.0553614 0.0123958 -0.116684 0.638449 4.66098 0.295341 0.141663 1.53294 -0.119782 0.318712 -0.0516116 0.406204 -0.128268 2.0611 0.0302889 0.280144 0.855889 0.186128 -0.132595 -0.0523001 0.340018 -0.0854564 0.205456 0.772762 0.46631 0.304982 0.739646 0.496759 2.01597 0.223784 1.80145 -0.0636134 -0.138341
internal_weight=0 462.738 193.362 107.023 102.431 4.72048 4.59195 1.8016 97.7106 9.14379 4.41096 88.5668 0.933328 0.868271 78.7086 2.79035 269.376 7.30112 7.01541 1.84267 1.25598 1.69981 0.309529 3.72429 86.3386 268.12 5.6452 1.81337 0.938056 85.6896 47.1715 262.475 2.8199 0.796842 1.6229 21.4862 1.46904 261.088 8.29686 55.3381 1.41366 247.977 1.59106 13.1894 8.01115 0.714285 6.87255 244.119 28.8889 2.34141 4.70714 1.57528 0.619043 1.38702 1.67704 0.448985 9.85823 0.190471 7.29686 0.976985 53.9244 38.5182
internal_count=359948 359906 346112 136662 96359 340 40303 8285 96019 78704 236 17315 7023 1262 2441 32018 13794 58654 58227 20050 3680 19128 104 42 209450 10114 5329 29981 2248 209424 201999 4785 196 495 27537 101884 18595 3917 88910 2429 368 3878 40 12974 88025 1332 58037 3765 292 52 3081 23182 6893 868 144 7516 14874 2444 86693 2037 2061 7425
is_linear=0
shrinkage=0.02


Tree=8
num_leaves=63
num_cat=0
split_feature=37 37 171 29 138 138 147 118 23 59 61 103 18 169 18 18 30 166 23 143 145 171 142 23 171 76 143 56 147 160 142 17 160 18 28 17 146 18 160 28 23 143 171 171 5 5 145 18 31 85 148 169 31 143 138 152 161 17 171 142 145 23
split_gain=22709 13963.3 10231.9 9472.73 3958.38 7657.03 6598.73 3492.29 3278.19 3046.02 2784.37 2491.89 2413.25 2009.52 2917.46 2394.71 1888.62 6225.75 1787.89 2216.91 7210.76 3000.75 3036.53 4529.19 2369.61 1735.35 1687.35 1681.88 1522.44 1521.68 7535.99 2061.37 1427.87 1244.14 1183.1 1134.44 1120.08 1087.81 962.607 922.652 848.387 704.689 703.716 784.41 689.26 601.642 508.825 666.992 476.047 462.942 379.558 711.299 353.111 333.527 307.27 290.149 325.702 274.077 212.109 205.98 190.548 181.046
threshold=19.720285714285719 -50.591371428571414 137.2519368814433 60.725000000000001 4.1980500000000012 4.3013000000000003 0.015386848923434291 6.7741666666665008 0.024394525145883375 1.8019908424908426 3.8214285714285716 5.0937645833335008 0.040714285714285724 0.33137254901960789 0.44285714285714289 0.080714285714285725 13.990000000000006 0.44471026049973422 0.017363623572921694 12.500000000000002 325.40000000000003 35.447348800225129 28.500000000000004 0.46862745098039221 0.75111382858142794 483.21428571428572 1.5000000000000002 5.4207043447351877 0.031245764434806183 0.57780146884624506 38.500000000000007 0.35714285714285715 0.23814024664686292 0.0092857142857142878 48.965000000000011 8.2142857142857171 0.0087297197066891468 0.0078571428571428594 0.44125150060024015 15.730984598460001 0.21498599439775914 10.500000000000002 7.7017199007958483 6.9741447551795934 2.1360714500000006 0.85660715000000009 130.02500000000003 0.073571428571428579 6.9642857142857153 1.0000000180025095e-35 1.9427272727272726 1.0000000180025095e-35 8.4642857142857171 4.5000000000000009 1.0000000180025095e-35 2.5000000000000004 1.5000000000000002 1.0000000180025095e-35 8.1727522689878871 15.500000000000002 747.4600000000006 0.0286123618501842
decision_type=10 10 10 10 10 8 10 8 10 10 10 8 8 10 10 10 10 10 8 8 8 10 10 10 8 10 8 10 8 10 8 10 8 8 10 10 8 10 8 10 10 8 10 10 8 10 8 10 10 8 10 8 8 8 10 10 8 10 8 8 10 10
left_child=1 2 4 7 18 6 35 -3 -4 11 52 -9 50 15 -15 40 33 32 44 20 41 24 23 -23 -22 -2 -24 -12 -17 39 57 -32 49 37 36 -6 -35 -13 -19 42 53 55 43 -21 46 -29 47 -1 -39 -18 -7 -52 -11 -14 -44 -20 -57 -31 -26 -59 -48 -33
right_child=25 3 8 -5 5 12 -8 9 -10 10 27 16 13 14 -16 28 17 38 19 29 21 22 26 -25 58 -27 -28 45 -30 30 31 61 -34 34 -36 -37 -38 48 -40 -41 -42 -43 54 -45 -46 -47 60 -49 -50 -51 51 -53 -54 -55 -56 56 -58 59 -60 -61 -62 -63
leaf_value=0.12423983341557994 2.004199986843707 1.0823196622753311 5.3577856530493309 3.5723729131964621 3.1422243209038379 -0.11552127269563331 0.66971240728199632 0.56303949707037082 1.9374601245299365 -0.12019039129249721 0.47526684496476296 0.13727028045519574 1.0601093171138167 0.35638415243769911 3.1001717387750314 0.49837881439626586 0.16328000544004248 1.850255501355839 0.17417296814161187 0.13634236135635375 2.9634966873269937 3.7323692156840895 -0.015628753016369453 0.48381659059855525 0.68631251011527494 1.140299502638036 1.5587339223655559 2.7493767632599782 0.0073956002358856457 0.94873975106422792 4.4027954189075711 1.3721302380073908 -0.098057705300460665 -0.017445937815794465 0.31932378187673421 5.4886877408960162 -0.1166312944237316 3.2037491814203389 0.74576355876505407 0.1677217143207437 -0.046708037397838888 1.2413137020402281 0.02277026457383895 1.0346654524018397 1.323792680373818 1.3927775416481203 -0.15676829377184076 1.9746152405098669 1.0855227904525473 0.72321947771279438 1.4732010392598918 0.06526674299902227 0.38383862764434834 1.8970121678682572 -0.12796999732871459 -0.078765666136468487 1.2858780699523511 0.010902565576961017 0.1246077444159945 0.5313650313073548 -0.013404120323989297 2.0457824541176373
leaf_weight=0.28571400046348572 1.801271986216306 1.0476149842143057 0.14285700023174186 0.28571400046348472 0.14285700023174286 3.8910829669330331 0.38685599900782108 2.3877429962158203 0.52041400037705898 2.0571430325508118 1.1386569887399676 1.0999990012496699 0.28571400046348572 0.34285699948668558 0.2829279899597168 9.2075413428246975 1.1631579995155334 0.84105702489614365 6.7826800057664496 2.7666700016707213 0.14285700023174208 0.51648499816656146 0.39840000029653311 0.25714299827814102 0.35714299976825703 1.9230139851570127 0.86035500094294526 0.15872799977660168 3.4813290275633326 0.1428570002317423 0.14285700023174275 0.28571400046348572 10.191813835408539 54.357514287345111 2.7060999870300284 0.19480000436306 280.81863610632718 0.047614000737666973 0.50524300895631324 20.578556656837463 0.14285700023174286 0.22030000388622184 10.573151049669834 0.45238599926233281 0.1407570019364347 0.74230001866817474 9.3571430146694166 0.10714299976825714 0.39047099649906158 1.1998710036277744 0.17750099860131741 0.75000001490116108 0.761900015175342 0.57142800092696688 11.074728105217217 3.3986559687182312 0.071428999304771312 3.4761829972267155 1.0884270034730434 0.33332800120115269 6.1428570002317437 0.36147099733352661
leaf_count=278 26 30 2066 26 790 9717 867 17 8735 205 12 3266 791 245 12 248 16 11 29617 47908 2424 2535 1214 1276 6451 16 1997 109 690 3829 1821 47 102 585 24 1 20186 384 42 830 782 904 120875 5814 19 10 1671 209 44 53 491 1324 31 1628 2944 5575 120 50402 13519 3586 316 185
internal_value=0 -0.00987772 0.198256 -0.0678699 0.181863 0.434704 2.45291 -0.0707461 2.67414 -0.0740963 0.423285 -0.0808901 0.358281 0.488599 1.5969 0.437933 -0.0852418 0.143245 0.119348 0.166476 0.388114 1.15749 1.6665 2.6526 0.506221 1.55813 1.06044 0.986146 0.363672 0.104235 0.445143 2.22836 0.004644 -0.0945996 -0.0971831 4.49594 -0.100546 0.47293 1.43576 0.0686597 1.38022 0.12212 -0.0133188 0.262587 -0.0695942 1.63176 -0.0819349 0.628889 1.31575 0.447599 -0.0288587 0.334711 0.016033 1.61804 -0.0543462 0.0980722 -0.0506755 0.0886942 0.263383 0.0564425 -0.0999512 1.74838
internal_weight=0 462.738 100.836 361.901 100.173 19.8578 0.724513 361.616 0.663271 360.568 4.85873 355.709 19.1332 14.3147 0.625785 13.6889 353.321 13.9011 80.3154 64.2818 14.0939 3.62081 2.03238 0.773628 1.58843 3.72429 1.25876 2.03969 12.6889 50.1879 4.74241 0.790042 12.5548 339.42 337.882 0.337657 335.176 1.53808 1.3463 45.4455 0.999999 10.4731 24.8669 3.21906 16.0336 0.901028 15.8929 0.392857 0.438085 2.36303 4.81858 0.927501 2.81904 0.857142 21.6479 10.2528 3.47008 3.95237 1.44557 3.80951 15.5 0.647185
internal_count=359948 359906 334753 25153 323952 17586 1658 25127 10801 25097 367 24730 15928 4396 257 4139 24713 224 306366 303873 65632 29416 7022 3811 22394 42 3211 131 938 238241 59870 2053 171 24489 20795 791 20771 3694 53 178371 3201 36216 177541 53722 2493 119 2474 487 428 69 11532 1815 236 2419 123819 35312 5695 57817 19970 53988 1987 232
is_linear=0
shrinkage=0.02


Tree=9
num_leaves=63
num_cat=0
split_feature=13 58 140 171 26 35 140 33 146 0 153 140 76 171 142 93 35 172 146 142 53 76 171 2 15 160 13 140 160 158 58 18 87 33 46 143 2 143 164 76 108 153 16 26 2 0 33 26 50 160 18 160 33 46 50 18 160 66 13 2 146 0
split_gain=14178.6 27965.2 14029.3 11005.3 6628.2 5327.68 6484.72 5010.93 3817.89 3393 3346.26 3202.57 22754.3 3094.86 2825.6 2386.4 2544.5 2126.83 2504.55 6142.11 1919.04 1777.47 1718.64 3128.23 1477.03 1412.13 1167.21 1758.94 4201.06 2612.2 1949.12 1566.24 1147.39 1330.35 1085.01 1045.19 13460 810.395 806.893 783.273 779.466 699.35 638.152 561.842 561.565 554.231 474.343 464.867 617.851 339.511 337.72 303.02 259.097 238.827 204.139 181.212 165.701 164.347 158.712 138.215 132.681 120.981
threshold=15.465000000000002 107.52643465506601 -5.3290705182007506e-15 137.2519368814433 24.46839683579854 63.985771400000012 1.0658141036401504e-14 0.023214285714285719 0.012659646136935787 1.0000000180025095e-35 935.95500000000004 8.526512829121206e-14 1540.8571428571431 35.447348800225129 707.50000000000011 0.7529166666666669 2.0288035500000006 1.2252911018055206 0.013614710189252815 38.500000000000007 0.019314345401301926 0.46428571428571436 36.486953794956214 0.17857142857142858 29.710000000000004 0.42114012653116173 7.7329629629630015 -5.3290705182007506e-15 0.23536006330783438 341.50000000000006 4.669252438061501 0.076428571428571443 0.25425696594427249 0.082500000000000018 21.035714285714288 16.500000000000004 4.1785714285714297 4.5000000000000009 71.500000000000014 0.3928571428571429 0.011785714285714287 1489.1400000000006 2.0714285714285716 1.6501812066587307 82.214285714285737 1.0000000180025095e-35 0.01035714285714286 3.2977065826330541 1.0000000180025095e-35 0.42863469568518292 0.005000000000000001 0.5717312348668282 0.052142857142857151 3.4642857142857149 1.0000000180025095e-35 0.075000000000000025 0.20837141986593541 0.019942850000000002 36.990974798740005 5.3214285714285721 0.012988635147016364 1.0000000180025095e-35
decision_type=10 10 8 10 8 8 10 8 10 2 10 10 8 10 10 8 8 8 10 10 8 8 10 10 8 10 8 10 10 8 8 8 10 8 10 8 10 8 10 10 8 10 10 10 10 2 8 10 8 8 10 10 8 8 8 10 10 10 10 10 8 2
left_child=2 4 10 5 8 11 17 -6 15 -8 25 26 -13 -9 -5 -2 58 18 19 50 43 39 35 -24 47 52 60 28 31 37 -29 46 40 -34 -26 36 -23 -30 -37 -19 -32 53 -21 57 61 -25 -28 -22 -49 -20 -7 -51 -1 -12 -33 -15 -54 -10 -17 -57 -4 -27
right_child=1 -3 3 14 7 6 9 13 20 -11 41 12 -14 55 -16 16 -18 21 49 42 24 22 23 45 34 44 27 30 29 -31 32 54 33 -35 -36 38 -38 -39 -40 -41 -42 -43 -44 -45 -46 -47 -48 48 -50 51 -52 -53 56 -55 -56 59 -58 -59 -60 -61 -62 -63
leaf_value=0.15117015193583941 -0.068205405462614999 3.3856340009235506 -0.11162014969022799 1.948321085614025 3.4990945579640611 0.83306667931690226 3.8065224313289363 0.13994538379035382 -0.18294625741309517 0.39506403378512872 3.0793798291451799 -0.080483068040142811 6.869169526212251 0.63052156775992774 5.2506300895245896 1.6205068345453952 0.47626037881941247 0.43091285036743993 0.087961897447105392 2.6775947981901598 0.13102625694480952 0.09818175436013972 0.17860282671355721 2.6651345539691231 0.43267064978628123 1.3224587930463532 2.318404662719443 0.6859031547155694 0.34462424820476029 0.62291398798562891 0.2129980177957157 0.86197564645065239 -0.10177233752772498 2.5409987450676548 1.7265080625704039 -0.058001809994601014 5.3789137589195652 -0.093795555837469333 0.22590091257145034 1.9118474020626468 -0.099400805868046088 1.9106747055053557 4.3147393770148792 0.071507239910983164 6.2106445233548957 1.1394305542386562 1.3194990190545597 1.0079215764004483 0.26593449947990322 1.099006491205613 -0.08210182189941391 0.17788876173715285 0.25059704946747607 4.1903383941472532 0.16506174251339686 1.6445106995788603 1.2598171771104856 -0.041234896901867407 1.1580113426576137 1.2228013900213131 -0.15939700937330034 1.8231326134698678
leaf_weight=0.37274200096726418 2.8299280256032944 1.1318860016763199 32.651183746755123 0.37755700014531512 0.29068500036373734 0.23809999972581797 0.28571400046348472 1.7428549882024515 9.0587300136685389 0.19704300165176392 0.14285700023174286 1.5630570081993935 0.21428599953651328 0.17857100069522891 0.14285700023174286 0.74581402540206887 10.140699332579969 0.28571400046348572 2.0772710004821424 0.28571400046348572 21.404243615455929 21.750390949659053 1.2605429962277401 0.28571400046348561 0.70305798389017826 0.28571499884128571 0.3333280012011528 1.2976139858365057 1.8651419728994367 2.6020289957523337 3.2516130413860083 0.28032899927347898 0.16327099502086639 0.14285700023174186 0.41071400046348572 35.940560188842937 0.194800004363059 17.604015982709832 4.5064970087259999 0.28571400046348572 182.72810924146324 0.125 0.14285700023174286 8.8255568891763669 0.010986000299453735 0.14285700023174286 0.44269999861717457 0.53462900966405869 2.7995289936661716 0.28571400046348561 0.5 0.28571400046348572 0.09522800147533439 0.16892799362540234 0.42002899199724208 0.37228500097990069 0.20551399979740381 5.1257569789886466 0.49297098815441132 1.8846999853849409 80.756271464750171 0.59522800147533417
leaf_count=488 28 14 43 9597 241 4807 2239 1969 37 3644 2 23 173 1023 216 26 126 1503 11889 2242 122 51011 31576 262 120 2099 419 32 1673 178 344 591 28 25 22 173514 23 3121 1928 118 14766 88 1090 20 1 839 645 21 119 2614 18343 1454 6596 46 590 149 1815 18 27 3 291 2877
internal_value=0 0.267972 -0.043226 -0.0516738 0.215724 -0.0555005 0.104236 0.960031 0.162984 2.4141 1.62671 -0.0892529 0.757404 0.783393 2.85483 0.451536 0.580789 0.0879491 0.546806 1.3189 0.0790721 0.0608705 0.0509678 0.680462 0.197321 1.19481 -0.0938897 -0.0660916 0.0968394 0.0277482 -0.0865445 1.12972 -0.0919251 1.1315 0.909785 0.0339258 0.145057 -0.051795 -0.0263702 1.17138 -0.0939389 3.17458 3.22331 -0.0537821 1.71679 2.15657 1.74856 0.165244 0.384911 0.206723 0.213118 0.638448 0.503533 3.68131 0.444012 1.24384 0.940254 -0.131737 1.43646 1.29236 -0.145642 1.66075
internal_weight=0 68.6726 397.789 395.787 67.5407 395.267 68.9509 4.4691 63.0716 0.482757 2.0022 326.316 1.77734 4.17841 0.520414 14.2094 11.3795 68.4682 3.81537 1.16667 48.8622 64.6528 64.0814 1.68911 25.8522 1.56541 324.538 211.131 23.5476 22.0712 187.583 1.47639 186.286 0.306128 1.11377 62.3922 21.9452 19.4692 40.4471 0.571428 185.98 0.436785 0.428571 23.01 0.891929 0.428571 0.776028 24.7384 3.33416 2.6487 0.7381 0.571428 0.673484 0.311785 0.700358 2.43556 0.300742 14.1845 1.23879 2.25698 113.407 0.880943
internal_count=359948 4085 355863 341851 4071 332038 309096 3385 686 5883 14012 22942 196 3144 9813 207 179 303213 42439 26482 479 260774 259153 32677 404 13876 22746 22412 7217 4972 15195 2245 15163 53 142 226476 51034 4794 175442 1621 15110 136 3332 75 4977 1101 1064 262 140 15957 23150 4068 8899 48 1181 1175 8411 55 53 152 334 4976
is_linear=0
shrinkage=0.02


end of trees

feature_importances:
uber_curr_item_price_w1=29
sem_impressions_w2=27
sem_cpc_w2=27
site_total_revenue_w2=21
sem_clicks_w2=20
uber_avg_margin_w1=17
seller_weight_price_cart_w2=16
bc_bounce_rate_w2=15
site_total_add_to_carts_w2=14
site_convrt_w2=14
sem_adspend_w1=13
sem_ordersize_seller_w2=11
sem_cpc_v3=11
bc_bounces_w1=11
seller_weight_price_cart_w1=11
sem_ctr_w2=10
sem_margin_seller_v2=10
sem_impressions_v5=10
sem_clicks_w1=9
uber_avg_overall_rating_w1=9
site_rpv_w2=9
is_mobile=8
bc_sem_visits_w2=8
sem_ctr_w1=7
sem_impressions_v3=7
site_total_page_views_w1=7
site_atcpv_w1=7
sem_ctr_v2=6
uber_price_change_value_w1=6
site_rpv_w1=6
bc_bounces_w2=6
sem_adspend_w2=5
sem_mpo_seller_w2=5
sem_impressions_w1=5
sem_roas_seller_w1=5
sem_mpc_seller_v2=5
sem_cpc_v9=5
site_total_page_views_w2=5
site_total_orders_w1=5
site_convrt_w1=5
bc_bounce_rate_w1=5
bc_sem_visits_w1=5
sem_gmv_revenue_adjustment_seller_w2=4
sem_roas_seller_w2=4
sem_margin_seller_w1=4
sem_impressions_v2=4
sem_adspend_v2=4
sem_cpc_v2=4
sem_ordersize_seller_v2=4
sem_ctr_v4=4
sem_clicks_v5=4
sem_impressions_v9=4
sem_adspend_v9=4
site_atcpv_w2=4
bc_visits_w2=4
seller_weight_price_orders_w1=4
sem_qty_w2=3
sem_rpc_seller_w2=3
sem_mpc_seller_w2=3
sem_ordersize_seller_w1=3
sem_orders_seller_v2=3
sem_rpc_seller_v2=3
sem_mpo_seller_v2=3
sem_gmv_revenue_adjustment_seller_v3=3
sem_orders_seller_v3=3
sem_ordersize_seller_v3=3
sem_adspend_v5=3
sem_ctr_v5=3
sem_impressions_v12=3
sem_clicks_v12=3
uber_num_appr_reviews_w1=3
bc_sem_bounces_w2=3
bc_visits_w1=3
sem_qty_w1=2
sem_mpc_seller_w1=2
sem_gmv_revenue_adjustment_seller_v2=2
sem_clicks_v3=2
sem_ctr_v3=2
sem_rpc_seller_v3=2
sem_mpo_seller_v3=2
sem_impressions_v4=2
sem_gmv_revenue_adjustment_seller_v4=2
sem_cpc_v4=2
sem_margin_seller_v5=2
sem_cpc_v5=2
sem_ctr_v9=2
sem_adspend_v12=2
site_total_orders_w2=2
site_total_revenue_w1=2
bc_sem_bounce_rate_w1=2
seller_weight_price_orders_w2=2
sem_orders_seller_w2=1
sem_margin_seller_w2=1
sem_convrt_seller_w2=1
sem_gmv_revenue_adjustment_seller_w1=1
sem_orders_seller_w1=1
sem_rpc_seller_w1=1
sem_mpo_seller_w1=1
sem_clicks_v2=1
sem_qty_v2=1
sem_convrt_seller_v2=1
sem_qty_v3=1
sem_roas_seller_v3=1
sem_convrt_seller_v3=1
sem_mpc_seller_v3=1
sem_adspend_v4=1
sem_qty_v4=1
sem_orders_seller_v4=1
sem_convrt_seller_v4=1
sem_ordersize_seller_v4=1
sem_gmv_revenue_adjustment_seller_v5=1
sem_orders_seller_v5=1
sem_rpc_seller_v5=1
sem_convrt_seller_v5=1
sem_ordersize_seller_v5=1
sem_clicks_v9=1
sem_qty_v9=1
sem_margin_seller_v9=1
sem_rpc_seller_v9=1
sem_convrt_seller_v9=1
sem_ordersize_seller_v9=1
sem_mpo_seller_v9=1
sem_gmv_revenue_adjustment_seller_v12=1
sem_orders_seller_v12=1
sem_ctr_v12=1
sem_ordersize_seller_v12=1
site_total_add_to_carts_w1=1

parameters:
[boosting: gbdt]
[objective: regression]
[metric: rmse]
[tree_learner: serial]
[device_type: cpu]
[data: ]
[valid: ]
[num_iterations: 4000]
[learning_rate: 0.02]
[num_leaves: 63]
[num_threads: -1]
[deterministic: 0]
[force_col_wise: 0]
[force_row_wise: 0]
[histogram_pool_size: -1]
[max_depth: 10]
[min_data_in_leaf: 20]
[min_sum_hessian_in_leaf: 0.001]
[bagging_fraction: 0.9]
[pos_bagging_fraction: 1]
[neg_bagging_fraction: 1]
[bagging_freq: 10]
[bagging_seed: 400]
[feature_fraction: 0.33]
[feature_fraction_bynode: 1]
[feature_fraction_seed: 30056]
[extra_trees: 0]
[extra_seed: 12879]
[early_stopping_round: 200]
[first_metric_only: 0]
[max_delta_step: 0]
[lambda_l1: 0]
[lambda_l2: 0]
[linear_lambda: 0]
[min_gain_to_split: 0]
[drop_rate: 0.1]
[max_drop: 50]
[skip_drop: 0.5]
[xgboost_dart_mode: 0]
[uniform_drop: 0]
[drop_seed: 17869]
[top_rate: 0.2]
[other_rate: 0.1]
[min_data_per_group: 100]
[max_cat_threshold: 32]
[cat_l2: 10]
[cat_smooth: 10]
[max_cat_to_onehot: 4]
[top_k: 20]
[monotone_constraints: ]
[monotone_constraints_method: basic]
[monotone_penalty: 0]
[feature_contri: ]
[forcedsplits_filename: ]
[refit_decay_rate: 0.9]
[cegb_tradeoff: 1]
[cegb_penalty_split: 0]
[cegb_penalty_feature_lazy: ]
[cegb_penalty_feature_coupled: ]
[path_smooth: 0]
[interaction_constraints: ]
[verbosity: -1]
[saved_feature_importance_type: 0]
[linear_tree: 0]
[max_bin: 255]
[max_bin_by_feature: ]
[min_data_in_bin: 3]
[bin_construct_sample_cnt: 200000]
[data_random_seed: 175]
[is_enable_sparse: 1]
[enable_bundle: 1]
[use_missing: 1]
[zero_as_missing: 0]
[feature_pre_filter: 1]
[pre_partition: 0]
[two_round: 0]
[header: 0]
[label_column: ]
[weight_column: ]
[group_column: ]
[ignore_column: ]
[categorical_feature: ]
[forcedbins_filename: ]
[precise_float_parser: 0]
[objective_seed: 16083]
[num_class: 1]
[is_unbalance: 0]
[scale_pos_weight: 1]
[sigmoid: 1]
[boost_from_average: 1]
[reg_sqrt: 0]
[alpha: 0.9]
[fair_c: 1]
[poisson_max_delta_step: 0.7]
[tweedie_variance_power: 1.5]
[lambdarank_truncation_level: 30]
[lambdarank_norm: 1]
[label_gain: ]
[eval_at: ]
[multi_error_top_k: 1]
[auc_mu_weights: ]
[num_machines: 1]
[local_listen_port: 12400]
[time_out: 120]
[machine_list_filename: ]
[machines: ]
[gpu_platform_id: -1]
[gpu_device_id: -1]
[gpu_use_dp: 0]
[num_gpu: 1]

end of parameters

pandas_categorical:[]
