tree
version=v3
num_class=1
num_tree_per_iteration=1
label_index=0
max_feature_idx=173
objective=regression
feature_names=is_mobile sem_impressions_w2 sem_clicks_w2 sem_adspend_w2 sem_qty_w2 sem_gmv_revenue_adjustment_seller_w2 sem_orders_seller_w2 sem_margin_seller_w2 sem_ctr_w2 sem_cpc_w2 sem_rpc_seller_w2 sem_roas_seller_w2 sem_convrt_seller_w2 sem_ordersize_seller_w2 sem_mpc_seller_w2 sem_mpo_seller_w2 sem_impressions_w1 sem_clicks_w1 sem_adspend_w1 sem_qty_w1 sem_gmv_revenue_adjustment_seller_w1 sem_orders_seller_w1 sem_margin_seller_w1 sem_ctr_w1 sem_cpc_w1 sem_rpc_seller_w1 sem_roas_seller_w1 sem_convrt_seller_w1 sem_ordersize_seller_w1 sem_mpc_seller_w1 sem_mpo_seller_w1 sem_impressions_v2 sem_clicks_v2 sem_adspend_v2 sem_qty_v2 sem_gmv_revenue_adjustment_seller_v2 sem_orders_seller_v2 sem_margin_seller_v2 sem_ctr_v2 sem_cpc_v2 sem_rpc_seller_v2 sem_roas_seller_v2 sem_convrt_seller_v2 sem_ordersize_seller_v2 sem_mpc_seller_v2 sem_mpo_seller_v2 sem_impressions_v3 sem_clicks_v3 sem_adspend_v3 sem_qty_v3 sem_gmv_revenue_adjustment_seller_v3 sem_orders_seller_v3 sem_margin_seller_v3 sem_ctr_v3 sem_cpc_v3 sem_rpc_seller_v3 sem_roas_seller_v3 sem_convrt_seller_v3 sem_ordersize_seller_v3 sem_mpc_seller_v3 sem_mpo_seller_v3 sem_impressions_v4 sem_clicks_v4 sem_adspend_v4 sem_qty_v4 sem_gmv_revenue_adjustment_seller_v4 sem_orders_seller_v4 sem_margin_seller_v4 sem_ctr_v4 sem_cpc_v4 sem_rpc_seller_v4 sem_roas_seller_v4 sem_convrt_seller_v4 sem_ordersize_seller_v4 sem_mpc_seller_v4 sem_mpo_seller_v4 sem_impressions_v5 sem_clicks_v5 sem_adspend_v5 sem_qty_v5 sem_gmv_revenue_adjustment_seller_v5 sem_orders_seller_v5 sem_margin_seller_v5 sem_ctr_v5 sem_cpc_v5 sem_rpc_seller_v5 sem_roas_seller_v5 sem_convrt_seller_v5 sem_ordersize_seller_v5 sem_mpc_seller_v5 sem_mpo_seller_v5 sem_impressions_v9 sem_clicks_v9 sem_adspend_v9 sem_qty_v9 sem_gmv_revenue_adjustment_seller_v9 sem_orders_seller_v9 sem_margin_seller_v9 sem_ctr_v9 sem_cpc_v9 sem_rpc_seller_v9 sem_roas_seller_v9 sem_convrt_seller_v9 sem_ordersize_seller_v9 sem_mpc_seller_v9 sem_mpo_seller_v9 sem_impressions_v12 sem_clicks_v12 sem_adspend_v12 sem_qty_v12 sem_gmv_revenue_adjustment_seller_v12 sem_orders_seller_v12 sem_margin_seller_v12 sem_ctr_v12 sem_cpc_v12 sem_rpc_seller_v12 sem_roas_seller_v12 sem_convrt_seller_v12 sem_ordersize_seller_v12 sem_mpc_seller_v12 sem_mpo_seller_v12 sem_impressions_v18 sem_clicks_v18 sem_adspend_v18 sem_qty_v18 sem_gmv_revenue_adjustment_seller_v18 sem_orders_seller_v18 sem_margin_seller_v18 sem_ctr_v18 sem_cpc_v18 sem_rpc_seller_v18 sem_roas_seller_v18 sem_convrt_seller_v18 sem_ordersize_seller_v18 sem_mpc_seller_v18 sem_mpo_seller_v18 uber_curr_item_price_w1 uber_num_appr_reviews_w1 uber_avg_overall_rating_w1 uber_price_change_ratio_w1 uber_price_change_value_w1 uber_avg_margin_w1 site_total_page_views_w2 site_total_add_to_carts_w2 site_total_orders_w2 site_total_revenue_w2 site_atcpv_w2 site_convrt_w2 site_rpv_w2 site_mpv_w2 site_total_page_views_w1 site_total_add_to_carts_w1 site_total_orders_w1 site_total_revenue_w1 site_atcpv_w1 site_convrt_w1 site_rpv_w1 site_mpv_w1 bc_bounces_w2 bc_visits_w2 bc_bounce_rate_w2 bc_sem_bounces_w2 bc_sem_visits_w2 bc_sem_bounce_rate_w2 bc_bounces_w1 bc_visits_w1 bc_bounce_rate_w1 bc_sem_bounces_w1 bc_sem_visits_w1 bc_sem_bounce_rate_w1 seller_weight_price_cart_w1 seller_weight_price_cart_w2 seller_weight_price_orders_w1 seller_weight_price_orders_w2
feature_infos=[0:1] [0:27842.357142857134] [0:1015.8571428571428] [0:288.61357142857145] [-5.5:67.571428571428569] [0:321.61224290000001] [0:13.857142899999999] [-537.56561428571433:151.01571428571432] [0.00081766148814390845:2] [0.010000000000000002:1.6399999999999999] [0:1057.1099999999999] [0:64226] [0:75] [0:4228.4399999999996] [-1307.5266666666666:1057.1099999999999] [-4049.6999999999998:4228.4399999999996] [0:26769] [0:681.28571428571422] [0:343.64285714285722] [-5.8571428571428577:58.428571428571431] [0:302.031429] [0:23.857143000000001] [-560.36857142857139:302.03142857142848] [0.00081766148814390845:2] [0.01:1.6399999999999999] [0:1057.1099999999999] [0:64226] [0:75] [0:4228.4399999999996] [-3922.5799999999999:1057.1099999999999] [-7605.8083832335342:4228.4399999999996] [0:23761.5] [0:675.21428571428578] [0:262.56642857142862] [-6.0714285714285712:41.5] [0:326.41523569999998] [0:8.8438570999999992] [-359.28142857142859:120.53834285714285] [0.0010395010395010396:2] [0.01:1.5036802030456855] [0:413.99400000000003] [0:19899] [0:38] [1.77:1263.99] [-593.44000000000005:413.99400000000003] [-5727.884223155369:1263.99] [0:22341.857142857134] [0:665.42857142857144] [0:401.15999999999991] [-2.1428571428571428:124.28571428571428] [0:524.70602139999983] [0:26.371571400000001] [-660.75320714285738:203.73173571428569] [0.0010395010395010396:2] [0.010000000000000002:1.4697931034482756] [0:331.99000000000001] [0:3698] [0:38] [2:1135.54] [-202.55000000000001:331.99000000000001] [-7753.420000000001:1000] [0:28695.857142857134] [0:628.21428571428578] [0:406.78142857142859] [-9.3571428571428577:152.78571428571428] [0:744.38847139999996] [0:24.5914143] [-763.06000000000029:428.22672857142851] [0.0012254901960784314:2] [0.01:1.4275423728813559] [0:850.51999999999998] [0:3891] [0:28.5] [0:1701.04] [-339.89999999999998:850.51999999999998] [-7202.4019607843129:1701.04] [0:28270.642857142866] [0:564.07142857142856] [0:320.06428571428575] [-4.1428571428571432:102.57142857142857] [0:615.30237139999997] [0:26.690550000000002] [-519.60857142857139:385.36162857142858] [0.00071306332002281792:2] [0.01:1.5] [0:1701.04] [0:9998] [0:8] [2.4216000000000002:1701.04] [-294:1701.04] [-4851.485148514852:1701.04] [0:50352.916666666657] [0:1567.916666666667] [0:819.79750000000001] [-2.9166666666666665:215.58333333333329] [0:1196.8598582999996] [0:24.469249999999999] [-1252.4245416666668:112.74735833333335] [0.00041450777202072539:2] [0.01:1.5638983050847457] [0:324.07999999999998] [0:28415.750000000004] [0:25] [0.96999999999999997:1003.96] [-332.63999999999999:324.07999999999998] [-3299.0373386601109:1003.96] [0:30754] [0:730.71428571428578] [0:460.23500000000001] [-0.42857142857142855:99.571428571428569] [0:1062.3132714000001] [0:25.898021400000001] [-452.05108571428565:457.13541428571432] [0.00016524373450839988:2] [0.01:1.2849999999999999] [0:959.99000000000001] [0:44180] [0:20] [2.6201620162020003:1049.99008] [-649:959.99000000000001] [-17704.969696969696:1049.99008] [0:4534.7857142857147] [0:209.64285714285717] [0:50.815000000000012] [-0.5714285714285714:39.214285714285715] [0:258.19252140000003] [0:5.9064500000000004] [-210.45987857142865:150.22537857142856] [0.0098135426889106956:2] [0.01:0.995] [0:90.180000000000007] [0:1803.5999999999999] [0:5] [2.4500000000000002:304.997599939998] [-182.00999999999999:44.370000000000012] [-160.23153078826968:139.99000000000001] [0:52102.730000000003] [0:0] [0:5] [0.99999999999999978:1.0000000000000002] [-3.637978807091713e-12:7.2759576141834259e-12] [0:52102.730000000003] [1:327053] [1:25257] [1:146252] [0:530412.11000000045] [2.9403981299067889e-05:5] [7.096728408203818e-05:32.279069767441861] [0:933.90697674418595] none [1:140791] [1:10698] [1:68413] [0:295945.92000000016] [7.8247261345852889e-05:5] [5.9708621925005973e-05:12.698083067092652] [0:1666.1199999999999] none [0:85497] [1:184569] [0:1] [0:1113] [0:2499] [0:1] [0:37718] [1:79202] [0:1] [0:421] [0:1022] [0:1] [0.00071334212368297071:28629.5] [0.0006120198352703647:28629.5] [3.4820251413786459e-05:5500.090909090909] [2.6086632353086531e-05:5056.666666666667]
tree_sizes=6663 6764 6831 6846 6815 6815 6828 6847 6821

Tree=0
num_leaves=63
num_cat=0
split_feature=172 136 136 55 15 164 1 136 155 15 161 9 164 161 1 1 136 155 44 9 136 155 136 9 65 136 9 1 31 9 16 70 44 136 172 9 33 136 70 1 164 11 1 15 9 33 136 1 11 136 155 155 9 94 19 9 38 55 136 15 15 9
split_gain=28076.8 21654.9 18462.6 16842 17008 14556.5 15925.2 10113.2 9407.33 5479.83 11049.4 5407.12 9704.29 5321.21 4901.13 4825.69 11100 3894.57 9389.21 3541 3360.68 3148.95 2944.75 2788.98 2685.47 2683.24 2793.17 2542.03 4390.67 2523.35 2403.25 2388.73 1907.71 1706.04 1658.11 1468.76 1427.12 1637.55 1386.32 1359.57 1277.87 1123.88 1043.52 802.708 787.608 784.994 778.062 767.676 733.093 697.496 666.669 577.219 570.809 536.459 535.716 494.569 522.006 479.096 471.474 471.437 1635.35 394.721
threshold=64.083750247955336 39.995000000000012 211.93500000000003 1.1223395604395605 179.16045340946036 1130.0000000000002 4194.5714285714294 119.99500000000002 0.014716195033413084 -1.0000000180025095e-35 7.5000000000000009 0.3104736842105264 17.500000000000004 2.5000000000000004 6.8928571428571441 7.7500000000000009 150.99500000000003 0.0050530583897621323 -0.1344200534759358 0.28039351851851863 179.00500000000002 0.052598902056465675 108.89500000000002 0.60012820512820531 0.49833215000000003 72.955000000000013 0.25981250000000006 749.64285714285722 21.464285714285719 0.45837662337662349 1.0714285714285716 0.93004023809523806 0.35892715311004791 14.985000000000001 4.6934660136347803 0.4900000000000001 0.03392857142857144 100.00500000000001 3.6166666666666667 5.6071428571428577 81.500000000000014 0.52829896284718425 1.0357142857142858 59.997625656414108 0.34516666666666679 0.03392857142857144 110.99500000000002 25.392857142857146 231.56875000000005 148.00500000000002 0.0040609178911261744 0.03573983241365216 0.29513578274760394 1.0000000180025095e-35 45.714285714285715 0.21000000000000005 0.016967145273309586 0.29228065599173558 58.995000000000012 17.765000000000004 19.950524475524478 0.66125
decision_type=10 8 10 8 10 8 10 8 8 10 10 10 8 10 10 8 10 8 10 8 8 10 10 10 10 10 10 8 8 10 8 10 8 10 10 10 10 10 10 10 10 8 10 10 10 10 10 10 10 10 8 10 10 10 10 10 8 8 10 10 10 10
left_child=1 32 22 5 7 9 -7 11 20 17 13 14 29 40 25 16 19 18 -3 49 -9 47 -2 48 45 -5 -27 28 -20 51 -22 34 43 50 52 -21 37 -36 53 -28 55 58 -18 54 -38 -17 -14 -4 -6 -10 -34 -13 -19 -32 61 56 -11 -33 -16 -35 -61 -1
right_child=2 3 21 4 23 6 -8 8 15 10 -12 12 46 -15 41 24 42 31 27 35 30 -23 -24 -25 -26 26 39 -29 -30 -31 38 57 33 59 36 -37 44 -39 -40 -41 -42 -43 -44 -45 -46 -47 -48 -49 -50 -51 -52 -53 -54 -55 -56 -57 -58 -59 -60 60 -62 -63
leaf_value=15.384313528898062 15.998019138394506 15.53360184178632 23.919945055655361 16.32146200338412 22.156282893404168 23.086678241491679 15.955843395502278 16.972713442380051 15.733642208747456 15.957511177741331 15.439444814037474 21.757957605826459 16.089230292001734 17.277716230750944 16.1173230714009 15.463847138518403 18.423644879092858 15.888661396193694 17.338061449943726 17.701644789596401 17.935544969329936 19.246545042241348 17.866913130085354 17.83104782449659 16.917968419446652 17.086619325272714 19.816344767305722 16.706076364237905 21.386744894728643 16.126630811216746 16.121705699348951 16.530469121854477 16.123894787014773 15.678386315679139 15.877000762649532 15.434344805065317 15.397595831764516 18.198544842804015 15.387782484581944 17.426744832143719 15.611452928196281 16.584619871253466 20.428001712370186 16.127268213096073 15.512337545367448 15.756386986565976 17.826718300517133 21.846544395530287 19.74474465920067 17.146744819626736 15.433546469479685 20.116688713053122 16.767802101157208 17.149083593094396 15.680632744215469 16.264177815824585 17.766706857470027 18.002399789273003 15.558903236922312 17.414744812533783 15.733022281459414 15.814818341232845
leaf_weight=206.31935612112284 0.69388600438833126 4.9294270686805248 0.14285700023174275 1.0081559997051948 0.061229001730679466 0.21428599953651328 0.30158600211143494 2.0932999807409969 6.3600809648632994 0.095915000885725021 8.0571418702602386 0.19480000436305966 0.50000000000000011 2.5017719864845276 0.90985703095793802 23.714328041765846 0.28571400046348561 1.1298710107803334 0.42857100069522858 0.57142800092697132 0.28571400046348294 0.14285700023174286 0.65612800046801567 0.49432900547981262 0.55182900279760261 0.98849900439381577 0.28571400046348572 1.1006569787859917 0.14285700023174253 0.047614000737667084 13.787273330613967 0.27662799786776304 0.57142800092697144 12.671849926235152 0.81428500078618427 0.14285700023174286 55.087086553685367 0.14285700023174286 1.0633719861507422 0.14285700023174286 1.4377559982240198 0.83657101541757573 0.16327100060880184 0.59172898530959983 42.306625969707966 4.3406560942530623 0.12987099587917328 0.14285700023174286 0.28571400046348572 0.14285700023174275 26.902809093706313 0.15305699408054352 0.39999999105930317 0.20634200051426965 2.4998290538787833 1.748686005361378 0.19047199934720804 0.13002900034189124 1.8036699574440715 0.28571400046348472 1.2142849862575529 0.85544299986213346
leaf_count=12104 6182 40 6031 23239 34 762 1 141 55631 17 13 1550 460 25 266 14652 10422 2412 63 6118 856 92 4145 2 72 10528 644 19 42 705 2224 52 84 88530 1042 1341 877 279 16 6 31 39 2131 15 214 243 32 62 115 415 103027 64 170 24 1 68 71 27 331 143 943 68
internal_value=15.5579 15.5365 18.0544 15.702 15.9716 15.5654 18.9179 15.9324 15.8392 15.5511 15.9227 16.6474 17.9892 16.5745 16.4172 15.6557 16.1013 15.5024 15.9729 15.9115 16.221 21.671 16.9063 18.7958 15.5363 17.1102 17.6713 17.268 18.3502 20.4447 16.1184 15.4714 15.4162 15.5398 15.4652 17.2482 15.455 16.2235 16.084 19.0198 16.0679 15.9437 19.1525 15.3917 15.4474 15.5091 16.4475 22.8832 20.1703 15.7647 15.4479 21.0358 16.1185 16.1369 15.3896 16.3904 17.1608 17.0011 15.7461 15.7181 16.0534 15.3861
internal_weight=0 434.9 1.77859 182.987 61.551 121.437 0.515872 60.7097 53.709 120.921 14.0317 7.00067 1.02534 5.9746 5.97532 36.273 7.66621 106.889 6.60151 7.21722 17.436 0.428571 1.35001 0.841272 28.6068 2.42523 1.41707 1.67208 0.571428 0.395471 15.3427 100.287 251.912 41.6461 99.8807 0.714285 98.3509 0.957142 15.057 0.428571 3.47283 3.5501 0.448985 210.266 97.3937 28.055 0.629871 0.285714 0.346943 6.50294 27.4742 0.347857 1.52987 13.9936 209.675 2.03507 0.286387 0.406657 2.71353 14.1718 1.5 207.175
internal_count=359953 343441 16512 138526 132301 6225 763 132150 94286 5462 225 37864 2811 212 35053 91025 76058 5237 164 63505 3261 6185 10327 151 14967 34417 11178 124 105 2319 3120 5073 204915 192727 4994 7459 2412 1321 2264 650 187 636 12553 12188 1091 14895 492 6093 149 56046 103111 1614 2582 2248 12173 156 88 79 597 89616 1086 12172
is_linear=0
shrinkage=1


Tree=1
num_leaves=63
num_cat=0
split_feature=171 67 55 15 1 8 7 68 1 15 171 0 92 1 38 99 164 1 164 171 47 99 88 164 38 52 56 1 107 42 7 52 171 0 0 0 91 68 8 8 138 38 8 88 1 31 145 145 91 1 165 119 91 1 8 53 8 38 7 11 62 47
split_gain=26238.9 16865.6 11319 16781.6 7192.62 5459.71 5039.85 8999.27 7164.08 4057.55 3582.26 11858.1 3389.33 2886.67 2572.12 2833.06 2655.18 16745.2 10566.5 2401.26 2334.45 2091.28 9695.72 12088.4 1941.05 1909.23 1548.96 1484.72 1343.24 1197.67 1089.75 1024.92 1004.62 704.062 666.401 644.221 633.927 542.064 1477.77 541.839 474.094 467.102 460.658 435.185 368.379 309.699 215.509 190.277 184.603 129.885 109.935 109.358 107.131 101.66 100.164 91.8294 82.8396 69.9333 63.1204 58.4498 44.1404 36.8757
threshold=69.81358361594819 18.294464285714291 1.4154486062717773 179.16045340946036 454.82142857142861 0.008476919471998752 1.9771428571428569 0.015395902703312829 2425.8571428571436 53.996175191240447 72.156091442691533 1.0000000180025095e-35 3.9583333333333335 2.3928571428571432 0.029118574931443025 0.089444444444444451 18.500000000000004 179.78571428571431 16.500000000000004 21.027565469908584 7.5357142857142865 0.44083333333333335 122.50695140243 180.50000000000003 0.0056514919228912944 -9.9204928571428557 9.3136363636363644 6.4642857142857153 0.82142857142857151 0.0054082891698067513 11.370710714285718 5.9064285714285729 35.383549774706893 1.0000000180025095e-35 1.0000000180025095e-35 1.0000000180025095e-35 0.29166666666666669 0.20294117647058826 0.0070075338398451368 0.016724746797822872 4.3030500000000007 0.0082285718584723267 0.027812939521800282 5.6682925562295017 24.250000000000004 75.607142857142875 340.25500000000005 367.48000000000008 0.29166666666666669 508.53571428571433 401.50000000000006 -1.0000000180025095e-35 0.54166666666666685 25.821428571428573 0.0070075338398451368 0.020680744898868401 0.11787864752200093 0.010630074337584989 -0.86892857142857138 1.2967658114441714 22.535714285714288 0.25000000000000006
decision_type=10 10 8 10 8 8 8 10 8 10 8 2 10 10 10 8 8 8 8 10 10 10 8 8 10 10 10 10 10 10 8 10 10 2 2 2 8 10 8 10 8 10 8 10 10 8 10 8 8 8 10 10 10 10 8 10 10 10 10 10 8 10
left_child=1 2 6 4 9 -2 19 8 12 14 11 -7 29 35 16 27 17 18 -4 34 31 24 43 25 40 -24 45 -16 32 59 60 -18 -17 -5 42 46 -26 41 -39 -15 -21 -38 53 -23 -11 -6 52 56 -47 -50 -51 -42 -12 -1 -10 -9 -41 -27 -36 -8 -3 -44
right_child=5 30 3 33 26 10 7 55 54 44 13 -13 -14 39 15 28 20 -19 -20 21 -22 22 23 -25 36 57 -28 -29 -30 -31 -32 -33 -34 -35 58 -37 37 38 -40 47 51 -43 61 -45 -46 48 -48 -49 49 50 -52 -53 -54 -55 -56 -57 -58 -59 -60 -61 -62 -63
leaf_value=1.8072387618571109 6.1628687016994306 1.9932792383441225 0.16120977228474431 6.4664122800906672 1.3221362109357824 8.1948013486219491 3.6144457472542597 -0.12411390237824584 -0.12992736858652829 2.8704336756148821 -0.042316612827972319 0.045832261305473534 0.99427271073584522 3.6148692553674939 2.3300890343780036 0.36129214879639565 -0.022834154363335371 6.0760535851252149 3.2829521980377052 1.4582526220261169 7.6578102916223338 -0.17349155016569523 1.2207450700682787 3.1076054049041817 0.15107259297423112 0.20623006008518027 0.11008818384240834 0.19165934479948754 2.0845437126173287 1.8920245730078948 1.3100618600713909 1.2936309339094698 -0.15708574887144525 4.1031049494151874 0.41722334623172808 2.4424618323198128 0.10638407162079563 2.1931887016243228 0.0066746930352914067 1.9792618560790936 0.53286169665616467 -0.15505476323441861 -0.064670930217799655 -0.034701334321236676 1.6064197284518142 0.052877659690427584 0.93943517403345578 2.5850562561388641 1.0549738764117305 0.40553312593901492 0.57889982894610892 -0.13340914427819478 0.87955897392526627 1.1857012536905958 0.27411547609771553 0.12640119355669871 0.84246173219670195 -0.013009944352666817 0.038974377512931743 3.0792842442314612 2.3132114861687239 0.55062678156287892
leaf_weight=0.14285700023174164 0.14285700023174164 0.26190000027418137 37.588821966433898 0.061229001730679466 0.21428599953651428 0.14285700023174275 0.14285700023174219 9.4785698559135163 1.740342974662781 0.1473280000500371 0.28571400046348572 0.14285700023174286 2.5331999659538269 0.14285700023174286 0.28571400046348572 1.5714280009269703 36.451024039182812 0.194800004363059 0.43877099454402824 0.23447099793702364 0.015870999544857933 15.727914452552794 0.85714298486709539 0.81090000271797169 2.8290140554308891 1.8128419648855927 3.6914860755205146 0.23809999227523804 0.10972800338640709 0.84104302525520325 1.8872999846935274 0.23809999972581763 30.922299635596573 0.28571400046348572 0.27272900938987721 0.071428999304771423 2.7653559856116763 0.14285700023174164 0.91920000687241565 0.25 0.88775600213557371 237.87793008750305 0.042856998741626851 21.241785592399538 0.24658500403165817 0.28571400046348572 0.20408600196242332 0.3061280008405447 0.21428599953651151 1.6536999884992827 12.692216351628304 0.1108429990708828 0.061229001730680466 0.39999999105930328 0.28571400046348561 0.62381400167942125 0.028571000322699547 0.85714301466941822 0.5 0.19048599898815155 0.50531500577926547 0.42857100069522858
leaf_count=51 50 39 213304 97 25 245 11 110 1 512 7854 466 8 177 207 8820 59130 29 1267 160 17 6 7 10 56 28 106 62 36 27 7 25 3388 50 84 12239 106 1 233 195 442 4214 635 65 23 4144 584 995 6 32328 296 103 248 51 2850 2378 3 76 1027 38 33 168
internal_value=0 -0.0208832 -0.0306435 0.127542 0.115561 2.41329 -0.0968605 0.250537 0.883396 0.0530242 2.08582 4.12032 1.406 1.65525 0.0456379 -0.101113 0.11052 0.227191 0.197229 -0.115905 -0.0109734 -0.120455 0.0112144 0.905716 -0.142586 0.399493 0.477239 1.35806 -0.124557 2.29412 1.56843 -0.0142907 -0.132016 4.52018 0.614961 0.655389 -0.146577 -0.150061 0.300782 2.51067 0.648934 -0.15205 0.952068 -0.0937465 2.07918 0.567233 0.423734 2.24089 0.556337 0.566216 0.558915 0.458907 0.120377 1.34926 -0.0729494 -0.108645 1.86267 0.135848 0.172475 3.30863 2.204 0.494691
internal_weight=0 434.9 432.245 127.547 127.2 1.77859 304.698 15.836 5.73364 108.449 1.63573 0.285714 3.70759 1.35001 108.055 33.1273 74.9274 38.2224 38.0276 288.862 36.705 287.075 41.3077 4.33803 245.767 3.52713 18.7517 0.523814 32.6035 1.17439 2.65451 36.6891 32.4937 0.346943 1.78701 0.622458 244.534 241.705 1.06206 0.727556 1.23307 240.643 1.01428 36.9697 0.393913 15.0602 0.551029 0.584699 14.8459 14.5602 14.3459 0.998599 0.346943 0.542857 2.02606 10.1024 0.278571 2.66998 0.772729 0.333343 0.767215 0.471428
internal_count=359953 336897 336818 323872 323725 23056 12946 5423 2935 286820 23006 711 84 22295 286285 12513 273772 214600 214571 7523 59172 5507 192 121 5315 111 36905 269 12244 76 79 59155 12208 147 2016 20925 4610 4554 234 1370 705 4320 905 71 535 36799 8686 1193 36774 32630 32624 545 8102 102 2851 2488 198 104 1111 49 72 803
is_linear=0
shrinkage=0.02


Tree=2
num_leaves=63
num_cat=0
split_feature=171 136 136 55 13 136 145 167 167 7 68 13 17 170 60 143 115 13 136 143 17 136 81 143 143 170 37 136 29 54 170 136 145 17 37 81 109 136 168 77 36 7 91 167 13 143 17 5 136 143 13 91 5 91 145 91 143 170 170 143 7 136
split_gain=25199.9 20164.7 17351 15649.6 14524.4 9399.5 9265.63 5865.58 22849.3 5526.98 12762.9 4902.44 10502.4 4715.86 4262.9 3734.04 3673.76 2995.99 2975.29 2904.49 2537.47 8241.92 2672.76 2312.16 2180.08 1752.82 1725.83 1693.09 1642.15 1602.72 1591.68 1467.52 1155.96 3178.47 1124.91 1082.05 2276.94 8660.86 1013.88 1005.05 896.56 882.698 880.651 768.09 736.466 716.056 708.08 676.985 673.854 657.945 1639.56 628.842 599.255 593.575 572.223 562.477 531.062 492.72 379.898 373.601 369.556 346.58
threshold=69.81358361594819 39.995000000000012 211.93500000000003 1.1223395604395605 119.77500000000002 119.99500000000002 926.67500000000007 8.5000000000000018 9.5000000000000018 1.0000000180025095e-35 0.01596858469679991 45.720000000000006 8.3571428571428594 32.815645304735263 54.125000000000007 1.5000000000000002 1.3791328664799256 108.23500000000001 108.89500000000002 5.5000000000000009 0.50000000000000011 150.99500000000003 1.0000000180025095e-35 26.500000000000004 67.500000000000014 32.815645304735263 -43.826107142857119 15.215000000000002 2.2269750000000004 0.8059736842105264 32.815645304735263 74.995000000000019 349.88000000000005 1.3571428571428574 -1.0000000180025095e-35 0.71938930000000012 1.0000000180025095e-35 119.99500000000002 2.5000000000000004 0.60714285714285732 1.5195750000000003 2.5921428571428575 472.00000000000006 1.0000000180025095e-35 59.995000000000012 1.0000000180025095e-35 0.35714285714285715 1.0000000180025095e-35 148.00500000000002 122.50000000000001 17.965000000000003 22.208333333333339 1.2599357000000002 0.29166666666666669 580.41999999999996 1.7083333333333337 73.500000000000014 12.077678219655175 56.995940680498549 105.50000000000001 0.41404642857142865 54.995000000000012
decision_type=10 8 10 8 10 8 10 8 8 8 10 8 10 10 10 8 10 10 10 8 8 10 8 8 8 10 10 10 10 10 10 10 10 10 10 10 8 10 10 8 8 10 8 10 10 10 10 8 10 8 8 10 10 8 10 8 8 8 10 8 8 10
left_child=1 26 18 7 5 11 20 9 -9 16 17 42 15 -6 23 30 25 24 61 -4 21 22 -7 -8 29 39 27 -1 -15 41 -13 -32 55 -34 43 36 37 -27 -38 -3 54 -11 -5 -25 53 -23 -21 -10 -24 50 52 57 -29 -28 -22 -17 -36 -42 -51 -52 -12 -2
right_child=2 3 19 4 13 6 14 8 47 10 60 12 -14 28 -16 32 -18 -19 -20 46 40 45 48 34 -26 35 44 49 -30 -31 31 -33 33 -35 56 -37 38 -39 -40 -41 51 -43 -44 -45 -46 -47 -48 -49 -50 58 59 -53 -54 -55 -56 -57 -58 -59 -60 -61 -62 -63
leaf_value=-0.10589520325323148 -0.012674982883888287 1.4586883394126933 3.542571934347122 0.75980665309803519 4.4297812312298976 2.1708429075252162 2.2911079182440592 7.3160476951759019 1.5751490982673368 0.18692859158192174 0.55875599888633776 1.1550434772359197 5.9545323724277157 0.60108225302397278 1.4681697648820291 0.038735475413951774 1.0737393345250017 3.2308482998011603 2.217573445369867 8.0309053109683468 0.11449781329185033 4.7445811529000892 0.16516591012060233 1.7132008986797811 3.5421567041352269 0.11895053842977051 0.13528496606205168 0.29537875783154599 2.2841728871678186 1.8653109648825892 -0.13005344791185613 4.1700488715361574 0.92301846753437788 3.4021694028580312 0.50269049216408601 -0.18451765601607942 -0.093033212488026595 3.4790268610605679 0.10778550827048865 0.30123498039436142 0.28062667784583434 1.0031054480469117 -0.063458031606477963 0.55139649975500304 0.54640002457803105 2.7421028810872401 6.0396112849407384 -0.046587783520629748 1.5538408533831913 0.0093936050161977907 0.21161479921954929 1.256475005504867 1.8599444972498287 -0.16390063717660103 0.6082416048048378 0.9151989451218242 -0.067416133198913361 -0.099962268413016336 1.2827280594782182 1.6668889139690279 -0.089212812156019186 0.90710470270733057
leaf_weight=24.77289308514446 0.42857100069522747 0.39999999105930328 0.14285700023174286 0.85714301466941833 0.34694300219416496 0.28571400046348572 0.29018500028178096 0.21428599953651306 0.11607100069522847 0.66391500178724561 0.36734300106763662 0.14285700023174286 0.19480000436305989 0.34118600189685822 2.1862849853932849 0.32857099175453186 1.1428569853305806 0.28572899848222721 0.65612800046801567 0.14285700023174275 5.3521290887147188 0.14285700023174275 6.4754959736019364 0.23214299976825437 0.14285700023174186 2.7591719981282954 2.6861570551991463 0.13491399586200714 0.72375700622797012 0.74581402540206898 0.035714000463485718 0.28571400046348572 0.76936900056898572 0.2829279899597168 1.0074290148913858 27.317913942039013 61.710769693367183 0.34524200111627568 12.014040949754415 1.2013000100851048 1.4571410026401377 2.6284289658069611 1.3203429710119965 11.676244333386421 0.59172898530959983 0.14285700023174286 0.14285700023174286 0.91168498992919933 0.14285700023174275 5.8690699378494156 5.821537003852427 0.14285700023174186 0.35714299976825714 211.65518510621041 1.1386569887399671 2.6966560296714301 1.8607140034437191 20.54855701001361 0.095242999494075664 0.071428999304771312 8.4690848812460882 0.26531500369310379
leaf_count=106481 5516 225 1658 14 100 258 971 4 106 616 15 1722 8 38 21 1323 16 18 5355 6316 1764 8088 59875 1291 509 163 195 175 134 5 1167 566 906 28 163 28 1440 78 205 1117 8479 26 216 1530 33 1932 237 650 402 62585 18566 198 44 12453 50 30342 154 5502 2954 28 920 3974
internal_value=0 -0.0204656 2.36503 0.139431 0.399628 0.352443 0.262096 0.00785405 1.37522 -0.00627578 0.378161 1.04607 1.40716 2.40469 0.64288 1.21212 -0.054121 1.24946 1.25202 5.87103 0.0787345 0.414654 0.276902 0.523125 1.11406 -0.0663101 -0.136457 -0.0105307 1.74495 1.02816 2.91158 3.69226 1.01861 1.58958 0.488405 -0.0764067 -0.037966 0.492625 -0.0603082 0.590363 -0.0055967 0.83852 0.260611 0.574045 -0.158206 3.74334 7.03526 0.136565 0.19514 0.180771 0.321863 -0.0661746 1.43097 -0.160151 0.201114 0.820006 0.132833 -0.074761 0.0297272 0.229254 -0.0622758 0.339013
internal_weight=0 434.9 1.77859 182.845 61.4081 59.9962 53.0821 121.437 1.24204 120.194 13.3032 6.9141 4.73661 1.41189 17.253 4.54181 106.891 4.46674 1.35001 0.428571 35.8291 7.18978 6.90407 15.0667 4.18101 105.748 252.055 37.1222 1.06494 4.03816 0.464285 0.321428 4.07752 1.0523 14.7765 104.147 76.8292 3.10441 73.7248 1.6013 28.6393 3.29234 2.17749 11.9084 214.933 0.285714 0.285714 1.02776 6.61835 12.3493 6.38502 22.1486 0.492057 214.341 6.49079 3.02523 2.86814 22.0057 5.96431 5.89297 8.83643 0.693886
internal_count=359953 336897 23056 133383 127242 126970 90678 6141 760 5381 2109 36292 36062 272 4130 36054 3272 1174 14845 8211 86548 70555 60535 4109 1156 3256 203514 190833 172 647 3455 1733 32599 934 3138 1914 1886 241 1645 1342 15993 642 230 2821 12681 10020 6553 756 60277 84352 18813 14179 219 12648 1814 31665 317 13981 65539 18594 935 9490
is_linear=0
shrinkage=0.02


Tree=3
num_leaves=63
num_cat=0
split_feature=170 136 136 160 159 7 2 170 7 136 138 68 114 7 82 136 31 148 79 16 136 144 136 82 61 58 160 39 159 170 136 3 159 2 138 136 45 6 2 2 156 2 91 144 147 2 6 61 139 144 91 16 136 148 136 136 147 136 61 41 136 144
split_gain=23074.3 19406.3 17647.1 17242.8 17678.9 21827.7 9073.77 7866.08 11962.2 6199.92 5967.78 9330.33 7205.81 5820.92 5819.34 4618.76 4309.13 3599.13 3519.06 3453.49 3067.8 2789.47 2474.18 2182.7 2134.04 1951.26 1905.09 1745.51 1741.97 1879.56 1618.94 1373.65 2004.29 1426.83 941.813 918.698 860.543 708.702 680.04 676.448 634.706 595.494 577.613 494.308 954.429 853.014 440.586 434.988 411.891 383.178 360.938 309.083 285.771 263.463 242.971 227.394 193.531 187.72 268.463 252.154 152.105 145.094
threshold=65.195061010770104 39.995000000000012 211.93500000000003 0.12521576524741085 4277.0000000000009 -9.6189285714285688 1.6785714285714286 11.288264494505256 13.122203571428573 260.75000000000006 3.9964500000000007 0.0047687504802838817 0.40029411764705886 3.7125000000000004 146.91599642857145 74.995000000000019 605.42857142857156 5.2678366974870157 -1.0000000180025095e-35 1.5000000000000002 108.89500000000002 3.5000000000000004 179.00500000000002 -1.0000000180025095e-35 5.9642857142857153 37.46422673198051 0.25015842839036762 0.60838331160365067 24.500000000000004 32.827486714110726 15.215000000000002 0.020357142857142862 7.5000000000000009 0.10714285714285715 4.8012500000000005 110.99500000000002 39.80760504201681 0.053214250000000012 0.17857142857142858 14.821428571428573 0.033256639194139202 49.714285714285722 0.29166666666666669 220.50000000000003 0.16480394605394608 0.10714285714285715 0.0049321500000000006 13.535714285714288 1.0000000180025095e-35 150.50000000000003 190.87499999999997 0.92857142857142871 54.995000000000012 2.6571766169154238 29.545000000000005 100.00500000000001 0.039613300952736789 14.655000000000003 1.0357142857142858 4.0493670676258846 6.9350000000000014 577.50000000000011
decision_type=10 8 10 8 8 10 8 8 10 10 10 10 10 10 10 10 8 10 8 8 10 8 8 10 8 10 8 8 10 8 10 8 10 8 8 10 10 10 10 10 8 10 8 10 10 10 10 8 10 10 10 8 10 10 10 10 10 10 8 8 10 10
left_child=1 27 20 6 7 -6 15 8 9 31 14 17 13 24 18 23 34 22 -9 26 52 -4 35 51 -13 -21 -20 36 29 -17 40 48 -33 -34 -7 -12 42 55 -23 -36 -29 43 -1 44 49 -46 -19 -18 -5 50 54 -3 -2 -49 -32 -30 -22 -44 -59 -60 -42 -62
right_child=2 3 21 4 5 16 -8 10 -10 -11 11 12 -14 -15 -16 28 47 46 19 25 56 38 -24 -25 -26 -27 -28 30 37 -31 41 32 33 -35 39 -37 -38 -39 -40 -41 60 -43 57 -45 45 -47 -48 53 -50 -51 -52 -53 -54 -55 -56 -57 -58 58 59 -61 61 -63
leaf_value=0.13257926867574032 0.094683165569187613 0.69101077073737216 3.471720308739827 0.027684231825106903 7.1697267839969285 1.3053691487905561 5.8354417563113756 0.62152640411285898 4.3411854504738727 4.6496891666825446 0.6565495595989207 0.83126748688402152 1.3017082209029109 1.4582413576349027 2.1357344014675652 4.1147953167295848 1.9507302216136753 4.3339076964655581 1.6334031824053039 -0.084782687229576423 2.3774969869783611 7.8702867881836225 3.877867255418769 2.127425982617444 -0.054123859525365844 0.31214115524555841 0.32481125581214038 0.5572466715503771 0.76136683619154766 1.3365394012352712 0.12722043220051141 5.9616904246112288 2.6034394888646024 0.56460981383728537 1.7430764012324684 1.2827236145094678 0.4409426543543144 2.6203036188261577 5.9188190806042495 3.4713136234583128 -0.17199412900831376 1.9965987576141373 -0.17547040884571413 -0.084501099267178456 0.36847822181444506 1.7792820193155836 1.8669187883804301 0.54504646308117011 1.1319425249121924 1.6335512344896943 -0.22792213858334098 -0.044295761586508942 0.88896256911370319 -0.071556500263651665 0.35541885230912279 1.5918946773351699 1.5956496168342138 0.15421315463467747 -0.14509724728046669 0.19085933718369383 -0.074250579113836243 1.7863463292761079
leaf_weight=2.6861570551991463 0.57142800092697033 0.3214280009269711 0.14285700023174286 2.4928550031036139 0.21428599953651328 2.0917989835143089 0.19480000436305989 3.1529139876365662 0.34694300219416607 0.14285700023174275 2.0034549925476348 1.1428560018539426 1.9942139983177174 1.1267710253596295 0.49432900547981162 0.30612800084054448 0.086571000516414642 0.15305699408054341 0.67898499965667602 118.57261435268447 0.48469999991357327 0.14285700023174275 0.11905699968338002 0.28571400046348561 23.067697065882395 5.1700731068849555 1.2913700025528669 0.57142800092697144 0.19047100096940994 0.14285700023174286 5.6299079975578827 0.02857100032269988 0.14285700023174319 3.5298700034618378 0.24761400371789966 1.7610429595224557 0.96114298328757186 0.23809999972581863 0.14285700023174286 0.14285700023174286 11.061028200201696 0.0714289993047722 143.5007571154274 2.5317429564893255 0.42857100069522935 0.28571400046348572 0.035714000463485718 9.284415356814856 0.1428570002317423 0.0714289993047722 0.85714298486709672 0.79232800286263239 0.26531500369310379 0.2857139930129059 2.7918280009180307 0.42857100069522858 0.17142800055444241 1.2603719867765901 64.811014018487185 0.90612798742949863 13.469864880666133 0.016785999760032477
leaf_count=188 6080 14006 626 24328 5644 25 2963 23 24 752 1783 253 27 12 2 3945 25 236 4245 16002 5208 7162 942 95 298 63 20819 334 198 1550 59879 4202 1740 8119 239 498 47 20 341 1 21745 1 6281 146 1068 277 22 8974 3553 42 86 6668 4225 26 22792 565 203 268 5403 217 84201 246
internal_value=0 -0.0201995 2.17633 0.136642 0.111984 0.842152 1.66644 0.0581631 0.723083 0.529364 0.0299275 0.277243 0.144174 0.0530684 -0.0301115 1.36627 0.730453 1.17034 -0.0384197 -0.0549713 1.14938 5.75361 1.03925 0.567964 -0.0123291 -0.0681989 0.775752 -0.134039 2.22164 3.23082 -0.00871656 0.436479 0.684962 0.643914 1.47368 0.949476 -0.156155 1.69301 6.89455 2.37537 -0.101682 0.175626 -0.158847 0.1653 0.228138 0.9328 3.86717 0.539405 0.0875356 0.174307 0.163074 0.167912 0.346534 0.526638 0.202869 1.33635 2.17322 -0.162567 -0.13492 -0.140465 -0.117021 -0.0719348
internal_weight=0 434.757 1.92144 182.845 179.944 12.3533 2.9004 167.591 6.82681 6.47987 160.764 31.4039 27.3315 25.3373 129.36 2.7056 12.139 4.07233 128.866 125.713 1.49287 0.428571 3.88355 1.39947 24.2106 123.743 1.97036 251.912 1.30613 0.448985 37.7869 6.33701 3.7013 3.67273 2.48227 3.7645 214.126 0.857142 0.285714 0.390471 25.1191 12.6678 213.164 12.5963 10.0646 0.714285 0.188771 9.6567 2.63571 9.35031 9.27888 1.11376 0.836743 9.57013 8.42174 0.619042 0.656128 210.478 66.9775 65.7171 24.5477 13.4867
internal_count=359953 336108 23845 132887 102877 14934 30010 87943 42718 42694 45225 4071 590 563 41154 27047 9290 3481 41152 41129 15716 8129 3223 20769 551 16065 25064 203221 6278 5495 190817 41942 14061 9859 265 2281 12404 783 7503 240 106526 84291 12357 84290 84144 1345 258 9025 27881 82799 82757 20674 10305 9000 82671 763 5411 12169 5888 5620 106192 84447
is_linear=0
shrinkage=0.02


Tree=4
num_leaves=63
num_cat=0
split_feature=44 15 69 156 23 155 156 9 37 155 0 25 164 1 148 25 148 164 156 1 9 9 154 1 2 154 91 147 1 155 164 164 155 23 1 13 1 23 23 145 1 18 51 152 88 54 147 148 145 13 164 1 53 164 18 1 72 156 1 145 78 78
split_gain=17767.9 19505.3 8972.39 7705.47 15236.7 10759.4 6991.6 4428.12 11394.5 18643.7 3806.27 3393.57 3193.4 14531.7 3434.99 3149.65 1976.35 1775.91 1476.07 1317.76 3300.59 17680.2 2756 6456.74 2349.46 1984.69 1238.94 1158.72 1147.8 1047.68 971.069 1528.52 892.853 823.421 807.79 766.489 746.527 3776.93 5145.55 739.701 738.585 693.468 689.786 678.445 604.696 571.807 2682.63 2697.47 1347.97 683.838 1587.41 485.497 473.809 469.511 446.049 727.527 439.388 434.431 386.95 384.608 376.968 1654.41
threshold=0.463506488917443 25.455000000000002 0.52484841628959289 0.93650143509458594 0.0098741057609106325 0.052702798945944027 2.7577702715148829 0.5508333333333334 -3.1814285714285719 0.0033185881316422244 1.0000000180025095e-35 0.087379166666666661 12.500000000000002 248.35714285714289 2.1450358680057389 2.6226666666666669 4.5017656663038421 117.50000000000001 0.9474437386569875 0.67857142857142871 0.19763888888888889 0.20754069767441863 0.062056380568839678 0.32142857142857145 0.25000000000000006 0.023824460775527277 71.791666666666686 0.0077569521746542721 0.3928571428571429 0.0015290662875953917 6.5000000000000009 5.5000000000000009 0.020415349238286865 0.025670980110232448 154.60714285714289 10.773333333333502 53.321428571428577 0.069136223967224325 0.062650966183574894 2709.9850000000019 17.107142857142861 0.025000000000000005 6.7576786000000011 3.5000000000000004 17.495000000000001 0.44550000000000001 0.010814988094740801 1.0682846129475139 15530.629999999988 19.615465491352001 127.50000000000001 0.3928571428571429 0.012506517205422318 35.500000000000007 0.075000000000000025 5.8214285714285738 1.0000000180025095e-35 3.3875676638176651 0.60714285714285732 149.70000000000005 0.016071428571428573 0.013214285714285717
decision_type=8 10 8 10 8 10 10 10 8 8 2 10 8 10 10 8 8 10 8 10 10 10 10 10 10 8 10 8 8 8 8 8 8 10 10 8 10 8 8 10 8 10 10 10 8 8 8 8 10 8 8 10 10 8 10 8 8 10 10 8 8 10
left_child=1 7 53 12 -5 6 15 29 44 -10 17 -11 13 14 19 18 32 -4 -6 20 24 -22 28 -24 25 58 36 -21 -23 34 31 59 -8 -18 -1 -20 37 38 39 54 -16 -37 45 -39 -9 60 47 49 51 -47 -51 -48 -38 -3 -14 -56 -43 -34 -2 -7 61 -31
right_child=3 2 10 4 5 30 16 8 9 11 -12 -13 26 -15 40 -17 33 -19 35 27 21 22 23 -25 -26 -27 -28 -29 -30 42 -32 -33 57 -35 -36 41 52 43 -40 -41 -42 56 -44 -45 -46 46 48 -49 -50 50 -52 -53 -54 -55 55 -57 -58 -59 -60 -61 -62 -63
leaf_value=2.1488649459771869 0.10491949671355651 0.50161241885466756 0.90538491112341124 5.9088150915234818 1.9346538213164446 0.14040591413414569 0.54829743254806862 -0.14475490605656938 4.2613904057096654 0.079318089231244462 3.4518828606022618 0.92736349201602097 -0.14129740116045905 5.7187331718428949 1.9783995875737856 1.1939421126792142 3.83932024510269 2.0328165017793647 -0.13857782399645788 1.6269527909458901 7.7128811592316282 0.096037855657798626 4.0043519897994768 0.14276315078069915 5.8424569365582864 0.057010766463723148 0.60926179293746996 0.0022330565430838359 1.0053769116439373 -0.11471705192499411 -0.038133918997166394 1.7436963896104356 2.6074441239052391 1.3419971745511674 -0.19484503043757567 1.792188713940877 -0.097713450010724817 0.2297072655601034 4.5005508159722272 1.9784345023049776 0.35990766218026277 -0.072834994237407316 0.84250137542572701 -0.19045939274184215 0.01582816098689652 0.068456701638365175 1.0347098953360765 2.2049971278728115 1.2709537163187805 0.40761944031048508 3.4404541298365139 -0.13271285528580773 0.12604214716180551 -0.17267578871577854 2.0137657243356539 0.50567038998416014 0.52507094146417121 1.6350208871096135 2.6545929136533135 0.88169738256551389 -0.14970118472186281 1.2340406935589969
leaf_weight=0.14285700023174286 0.028571000322699547 0.67335798591375318 0.95850101113319386 0.20408600196242233 0.28571400046348572 2.786784004420042 0.22190000116825104 18.630371622741222 0.56664299592375755 3.8054549209773523 0.52381400018930424 3.7448859810829163 0.34537099860608345 0.194800004363059 0.53571400046348472 3.3480139449238768 0.29591399431228538 1.3403570302762089 0.75198597833514214 0.17857100069522858 0.14285700023174186 2.493498995900155 0.28571400046348561 0.43980000540614128 0.028571000322700324 8.8777650215197408 1.2719709947705258 10.491663985885676 0.71428500115871418 2.5679710619151597 12.44638401735574 0.28571400046348561 0.2857140004634855 0.064285000786185265 0.09999999962747097 0.16865699738264162 29.151342854369432 2.1378280101343998 0.14732800005003799 0.14718599617481221 0.14285700023174286 0.51190000027418137 0.2912139892578115 5.4714280497282743 18.890997497364879 4.1495140492916107 0.14285700023174186 0.28571400046348561 0.27618500404059787 2.0572279728949074 0.071428999304771312 55.758227308280766 4.3503440665081134 1.06854297965765 0.14285700023174253 1.2264840099960566 12.418428326025603 0.51502799987792969 0.14285700023174286 0.31122900173067858 216.2171593545936 0.42381399124860752
leaf_count=36 2186 30 65 135 78 9134 394 6 15 359 44 20 4526 7 2717 1038 163 9 9 598 4939 29408 2086 910 211 131666 286 43560 6730 164 6710 529 298 505 15 2145 321 73917 559 104 420 59 7 3411 34 22 4501 108 107 566 42 9000 40 27 207 777 1992 580 101 2062 9146 112
internal_value=0 -0.0816498 1.21674 0.217861 0.460083 0.428034 0.750629 -0.099712 0.0830786 0.762524 1.91331 0.499939 0.0954986 0.277794 0.234538 0.642357 2.11963 1.56274 0.511724 0.194574 0.328541 0.801324 0.550297 1.66349 0.116249 0.0981693 -0.00592146 0.0294234 0.298523 -0.129244 0.0435411 0.343967 1.6709 3.39362 1.18381 0.482373 -0.0240683 0.131239 0.902503 0.617797 1.63766 0.51802 -0.130374 -0.0724132 -0.0639057 -0.131378 -0.0781405 0.30445 -0.122843 0.217958 0.509389 -0.129729 -0.0686578 0.0879804 0.501004 0.663003 0.5014 1.98199 2.22965 0.214877 -0.146616 0.0763469
internal_weight=0 332.687 4.56457 103.991 34.9017 34.6977 18.8675 328.123 45.6384 8.11698 2.82267 7.55034 69.0897 24.6975 24.5027 17.4847 1.38284 2.29886 14.1367 23.8242 13.1539 4.07616 3.9333 0.725514 9.07776 9.04919 44.3921 10.6702 3.20778 282.484 15.8301 3.38373 1.02264 0.360199 0.242857 13.851 43.1202 9.61848 2.00923 1.8619 0.678571 13.099 282.241 7.60926 37.5214 281.95 62.7412 6.56389 56.1773 6.27817 2.12866 55.9011 33.5017 1.7419 1.71471 1.36934 12.9303 0.800742 0.171428 3.09801 219.209 2.99179
internal_count=359953 24435 175 335518 25831 25696 7261 24260 434 394 118 379 309687 225539 225532 5321 1940 74 4283 222395 178237 44073 39134 2996 134164 133953 84148 44158 36138 23826 18435 11725 1272 668 51 4205 83862 83501 6173 5614 3137 4196 23775 77328 40 23768 14346 738 13608 630 608 13501 361 57 5510 984 2051 878 2287 11196 9422 276
is_linear=0
shrinkage=0.02


Tree=5
num_leaves=63
num_cat=0
split_feature=172 10 170 69 29 8 69 158 61 8 160 2 147 173 8 150 151 170 143 10 171 172 170 150 8 147 45 13 109 10 31 45 8 40 4 170 8 77 170 8 29 8 13 160 2 2 81 4 8 154 48 150 150 8 74 172 2 48 158 158 13 8
split_gain=22983.3 14374.2 10907.7 9990.47 10654.6 6346.5 6306.6 22064.2 10140.4 10150.1 5513.19 13017.5 3998.38 3629.6 3580.65 3533.57 3368.56 3628.88 4860.71 2672.83 2653.89 2161.23 2091.32 2699.26 1966.23 1926.38 1493.32 1720.21 1305.43 1221.6 1134.21 1000.22 991.847 987.924 970.451 861.992 898.721 751.328 676.381 546.13 488.121 789.696 459.467 438.577 373.471 364.536 362.015 294.789 282.228 743.294 1881.18 267.364 2406.74 266.048 258.056 251.587 243.368 233.911 231.575 230.599 192.409 158.18
threshold=64.083750247955336 2.0475000000000003 68.964060527937775 0.36386960644855387 39.992500000000007 0.013165773715726444 0.49953125000000004 3438.5000000000005 457.89285714285717 0.01357850179382188 0.12521576524741085 4.1785714285714297 0.0099119062953704432 4.6296837549810679 0.0096793743833278236 8375.5000000000018 6.5000000000000009 21.479068630874554 2.5000000000000004 9.1592833333333328 5.5133826830100707 4.6934660136347803 6.9024774781716465 40.500000000000007 0.43303571428571436 0.021293388637928432 24.991800000000001 27.995000000000001 2.4642857142857149 4.3443750000000003 692.96428571428578 23.983296488946689 0.01267253109043388 3.5893032646048115 -1.0000000180025095e-35 56.995940680498549 0.036405052805963976 0.60714285714285732 183.02000083923343 0.038498591966800062 8.6402333333333363 0.19722222222222227 25.315000000000005 0.22225875991084806 6.8928571428571441 37.392857142857146 0.14390710000000004 1.0000000180025095e-35 0.0090576623311056006 0.025010425354462056 0.51678571428571429 23.500000000000004 13.500000000000002 0.10566188197767147 1.0000000180025095e-35 0.073647249517735006 2.6785714285714293 0.073214285714285732 1.5000000000000002 10.500000000000002 19.615465491352001 0.035119617224880391
decision_type=10 10 8 10 10 8 8 10 8 8 8 10 10 8 10 10 8 8 10 10 10 10 8 8 10 8 10 10 10 10 8 10 10 8 10 8 10 8 10 10 8 10 10 8 10 8 8 10 8 10 10 10 8 10 8 8 10 10 10 8 10 8
left_child=1 6 -2 4 12 32 21 8 9 14 11 16 40 20 -8 28 17 -10 -19 29 53 37 23 -22 -24 -7 33 44 31 42 46 -15 -4 48 -17 36 -18 -1 58 -21 45 -42 -14 56 -28 -3 -11 -6 49 50 -23 52 57 55 -35 -12 -31 -50 -27 -55 -41 -53
right_child=2 3 5 -5 47 25 7 -9 10 30 13 -13 19 15 -16 34 35 18 -20 39 22 26 24 -25 -26 38 27 -29 -30 43 -32 -33 -34 54 -36 -37 -38 -39 -40 60 41 -43 -44 -45 -46 -47 -48 -49 51 -51 -52 61 -54 59 -56 -57 -58 -59 -60 -61 -62 -63
leaf_value=1.4080639200224823 7.5586238030760819 -0.10744687793861765 5.6822665678241506 1.5108513338128047 3.776585801709424 2.2662882100498623 1.0198970051685001 5.2851944816994614 0.025925394991138561 0.007312474708020579 0.023407477281291011 5.6043584457415818 -0.095052841261206319 -0.065409192458743728 2.47113711638745 1.0016417489945399 1.2052354767056914 3.8084360846664724 1.0100100381559505 1.4840183789422863 3.4989738302118489 1.7370163513580275 0.39220434205270138 0.80320363340521317 5.7256073839264197 0.11655607455855078 0.20144399016951847 0.67228264480623889 0.90219399860724236 1.708822525905213 0.58877158409069374 0.65454942160376539 3.3254994596311782 0.26157822585989726 3.332849701954872 1.2766747567476131 -0.01246812986396102 0.36396623772747277 1.8384016428139651 -0.211112848082364 2.2766747269229954 -0.074432427092978065 0.53584839121265793 0.21629160341545969 -0.21137797930999763 0.14214864375322553 0.41888774517470934 2.6638799178593344 0.62973475519032762 -0.11525578980941659 -0.024634656954387296 -0.14142397062439652 2.5791593361448411 -0.12251251851418297 0.94127716729848698 0.47838841312165548 1.0656076269399801 -0.17016767971918317 0.84547724144542358 0.30610623003922932 0.074909545442530534 -0.18134659303061867
leaf_weight=0.39999999105930328 0.14285700023174164 9.8020428866148031 0.14285700023174275 2.864628989249467 0.28571400046348472 0.46428599953651428 1.5333859967067813 0.31904300302266975 0.92618500441312823 4.2956699542701244 0.67857100069522802 0.19480000436305989 0.48469900153577405 166.46669725608081 1.2220140248537061 0.14285700023174286 0.25475600175559332 0.3191140005365013 1.1184140089899299 0.099443003535269692 0.28571400046348538 0.32079900056123622 0.85714200139045726 0.30952899903059006 0.028571000322699547 0.42857100069522858 1.3741430239751928 1.923570968210697 0.5634860023856153 0.28571400046348427 2.7502999901771545 0.77545801317319174 0.14285700023174286 0.75427099876105785 0.14285700023174186 0.23809999972581852 5.0142540170345455 0.88701400905847438 0.16327100060880184 1.371428996324539 0.095242999494074776 0.14285700023174286 9.7451283559203148 0.21428599953651439 2.4208860248327255 3.0748291015625009 1.0672279894351957 0.14285700023174286 0.15872799977660146 6.6206278726458549 0.99297099187970161 134.04711443232372 0.14285700023174275 1.3095280006527903 0.31747099757194408 1.7142840027809141 1.3333289623260498 1.8571429699659348 0.29388600401580334 0.81428500078618515 2.9959129448980093 56.401960222050548
leaf_count=999 879 790 108 37 199 1744 41 57 8999 275 5837 3 396 179478 44 8 4885 3747 2555 57 3439 57 6746 1131 2454 5204 65 27 22 494 404 65 5 2695 51 6816 63010 1495 5513 786 177 608 72 408 6 1 79 392 268 53 24 988 247 19098 196 11169 2 106 3059 9028 1173 1182
internal_value=0 -0.0193963 2.25877 0.382274 0.274772 1.79591 -0.0523105 0.0299799 0.0212937 0.614745 -0.0141157 0.497069 0.229509 -0.0377991 1.66352 -0.0550492 0.370666 1.00221 1.63123 0.436402 0.445657 -0.128575 1.18037 2.09716 0.564247 1.22279 -0.133647 0.185058 -0.058833 0.591158 0.258561 -0.0620709 4.50388 -0.142686 2.16725 0.0995983 0.0464077 0.688469 0.67581 0.0184633 -0.0312553 0.86604 0.505956 1.06658 -0.0618992 -0.0478467 0.0892168 3.40568 -0.145923 -0.0290248 0.405529 -0.150738 0.0705887 0.204753 0.462918 0.349364 1.17912 -0.107184 0.413072 0.041823 -0.014907 -0.153247
internal_weight=0 434.9 1.77859 32.9381 30.0735 1.63573 401.962 193.342 193.023 10.8686 182.155 8.06562 29.6449 174.089 2.7554 168.091 7.87082 2.36371 1.43753 16.5299 5.99762 208.62 1.48096 0.595243 0.885713 1.35001 207.333 5.7186 167.806 12.0632 8.1132 167.242 0.285714 201.614 0.285714 5.50711 5.26901 1.28701 0.885728 4.46678 13.115 0.2381 10.2298 1.83333 3.79503 12.8769 5.3629 0.428571 200.542 7.9344 1.31377 192.608 2.15873 4.51667 1.07174 2.39286 1.61904 2.01587 0.722457 2.12381 4.36734 190.449
internal_count=359953 343441 16512 5592 5555 15633 337849 329441 329384 843 328541 90015 4964 238526 85 179624 90012 15301 6302 3388 58902 8408 13770 4570 9200 15520 5914 98 179565 1372 758 179543 113 5816 59 74711 67895 2494 13776 2016 1576 785 468 904 71 791 354 591 2925 134 81 2791 621 45132 2891 17006 496 374 8263 28126 1959 2170
is_linear=0
shrinkage=0.02


Tree=6
num_leaves=63
num_cat=0
split_feature=171 141 166 141 148 159 166 159 14 67 162 162 141 171 141 28 89 106 62 9 143 12 141 143 116 147 12 148 39 141 68 152 148 9 9 147 39 14 145 1 45 70 1 1 141 148 34 1 106 143 12 14 143 141 9 141 113 152 143 159 14 147
split_gain=21455.7 17463.3 17070 14721.3 11069.6 9884.8 9088.4 10464.3 8809.79 7809.59 5071.12 16018.4 5002.88 4477.88 5438.69 4791.68 3982.5 3781.92 4592.14 4906.86 3624.6 2599.51 2552.21 2482.56 2062.19 1972.76 1802.09 1652.03 1585.69 1540.22 1478.72 1304.19 1438.35 1278.74 1159.61 1035.04 969.833 920.383 852.281 790.82 767.691 639.516 603.802 579.276 527.593 527.335 464.703 453.947 435.127 422.252 718.435 788.383 339.369 330.741 300.054 294.822 283.963 232.363 222.417 213.985 189.993 179.207
threshold=69.81358361594819 39.995000000000012 0.28535078153398769 211.93500000000003 1.4999642857142861 4277.0000000000009 0.17657451673248808 18.500000000000004 0.14823496503496505 24.204271428571435 216.50000000000003 18.500000000000004 77.40000000000002 24.736906641265271 260.75000000000006 280.46120575884805 -0.73831955501122659 479.89285714285728 0.60714285714285732 0.61150000000000015 116.50000000000001 0.0057281312753474515 108.89500000000002 5.5000000000000009 2.849595943160864 0.018190090164612458 0.0048544833274419509 2.6571766169154238 0.60838331160365067 14.985000000000001 0.0029275389139061963 141.50000000000003 0.58378783592644989 0.25981250000000006 0.27008179959100215 0.006024167683373746 0.21983870967741939 1.1917500000000003 3912.1649999999968 248.35714285714289 39.80760504201681 1.3219241666666668 25.392857142857146 2425.8571428571436 56.195000000000007 0.045023171241914219 1.5357142857142858 0.46428571428571436 1.0000000180025095e-35 122.50000000000001 0.49632352941176477 11.515000000000002 105.50000000000001 34.985000000000007 0.17721111111111118 32.995000000000012 0.038529014844804331 8.5000000000000018 14.500000000000002 27.500000000000004 -2.6613357142857144 0.039613300952736789
decision_type=10 8 10 10 8 8 8 10 8 10 10 8 8 10 10 10 8 8 8 10 10 8 10 8 10 10 10 10 8 10 8 8 8 10 8 8 10 10 8 10 10 10 10 10 10 8 10 8 8 8 10 10 8 8 10 10 8 8 8 10 8 10
left_child=1 28 4 22 8 9 7 47 31 13 11 -7 33 14 15 36 21 18 19 -18 30 -15 54 -5 -20 35 -10 38 40 45 -19 41 -33 -9 -29 -14 44 -28 -8 -35 48 46 -25 49 -4 -30 58 -6 -1 50 52 -52 -31 55 -2 -51 -13 -38 -3 -37 -50 -24
right_child=3 2 5 23 6 10 27 12 26 -11 -12 56 25 16 -16 -17 17 20 24 -21 -22 -23 61 42 -26 -27 37 34 29 43 -32 32 -34 39 -36 59 57 -39 -40 -41 -42 -43 -44 -45 -46 -47 -48 -49 60 53 51 -53 -54 -55 -56 -57 -58 -59 -60 -61 -62 -63
leaf_value=0.11183559666851148 -0.015767978923339469 0.097118816765078858 0.24379025837156174 3.2589894597573918 0.72471727722968537 6.8354007519911297 2.1690048195594089 0.54215892847156977 3.2661928360897305 2.0305478527534975 0.49638396823432912 1.2661653112971711 3.7010542245303419 1.8290601481976696 4.3967050197606463 6.0132714392490998 0.96501489893590386 1.613075918625452 0.14571915948686656 5.4198474825885716 0.64002581236428513 0.17208405891335893 2.2479116834584123 7.407451166797058 1.1251725364502143 1.2148603542885732 0.58966498994639382 0.15173739552229726 0.59149427975391322 0.17622568837445715 -0.068421220066894717 0.061422383283948778 1.4662852593010414 3.9609971464835043 2.0988056972093809 4.3502361884005394 1.6596769873627317 1.1786149943685507 0.85635882003642405 5.4922713629903379 0.41602973773497404 1.0136210821781586 5.5686211296560328 1.9576584467485716 1.0403331683735686 -0.11636563226411253 0.46051475422091925 -0.11956865030774863 0.12967973942466332 0.084336481955968934 1.6746460086298323 0.31834157142368807 1.5626195953327622 0.61909181880596109 0.84005043418028291 -0.22849676593673926 0.58843860377254287 0.85306897454889385 -0.16017534959788976 2.2797831407519844 -0.15486448188892182 1.495554661134513
leaf_weight=2.4998290538787842 0.42857100069522747 1.6683689951896665 4.842852007597684 0.14285700023174286 0.57142800092697421 0.21428599953651128 0.29018500028178096 0.035714000463486051 0.14285700023174186 0.76721500605344672 8.6177433431148529 0.39311300218105316 0.28571400046348572 0.76168502494692769 0.14285700023174275 0.061229001730680355 0.32142800092697144 0.20952899754047394 6.1351290047168732 0.14285700023174286 2.976356988772749 0.75324198603630077 0.48469999991357327 0.14285700023174275 0.9999999850988387 0.56135699898004521 1.5734289977699516 2.1131289601325993 0.42857100069522858 6.2748800031840801 131.61892455490306 0.69001400470733643 0.50475699454545864 0.43877099454402924 0.12987099587917317 0.020414000377058761 0.21428599953651428 3.2614429444074631 0.6218420006334785 0.19480000436306 0.96114298328757186 0.22222799807787019 0.14285700023174286 0.0714289993047722 0.35714299976825703 23.738151094876233 0.6115010082721718 0.45962800085544597 0.94285699725151062 4.6333549360278958 0.28571400046348561 0.42857100069522858 0.071428999304771312 0.36905699968338002 0.26531500369310379 1.6285719871520994 0.66667201370000839 0.42857100069522847 6.9102430325001425 0.91179999988526106 209.72174211218953 0.17142800055444241
leaf_count=2 6985 4608 38549 1658 17063 26 1104 555 1400 29 23 17 31 26 1263 10 97 3 808 7 49 23 5151 6505 34 1252 27 1100 481 19061 15357 1192 1024 94 451 809 190 253 25084 1 48 18 48 2 6020 102164 15 9500 659 57586 180 574 29 8316 2505 2664 96 647 2107 2421 11748 204
internal_value=0 -0.0188802 0.129921 2.18227 0.649492 0.0580475 1.33367 2.03853 0.358228 0.0178554 0.670502 1.84823 2.75024 0.00755863 0.540723 0.447423 -0.0148429 -0.0256943 0.408403 2.33573 -0.0501658 1.00519 1.15707 5.41169 0.282991 2.19578 1.05236 0.556302 -0.126823 -0.00763368 -0.0657486 0.032482 0.654937 4.22425 0.264474 2.6479 0.389097 0.986951 1.27401 4.43181 -0.147935 -0.0465304 6.48804 0.161249 0.298498 -0.103812 -0.0721662 0.348348 -0.150478 0.151877 0.259513 0.860863 0.19183 0.0372671 0.311464 0.00297631 0.839832 1.12194 -0.110137 2.32512 -0.153591 2.05134
internal_weight=0 434.9 182.845 1.77859 22.2195 160.625 6.63465 3.47963 15.5848 150.733 9.89181 1.27407 2.44857 149.966 6.04694 5.90408 143.919 142.404 7.59941 0.464285 134.805 1.51493 1.35001 0.428571 7.13513 1.77928 4.97773 3.15503 252.055 37.9297 131.828 10.6071 1.19477 0.669285 2.243 1.21793 5.84285 4.83487 0.912027 0.633571 214.126 9.41234 0.285714 13.763 5.2 24.1667 9.19011 1.03106 213.164 13.6916 7.06059 0.714285 6.34631 6.63098 0.693886 6.26193 1.05979 0.642857 8.57861 0.932214 210.665 0.656128
internal_count=359953 336897 133383 23056 70109 63274 59465 31726 10644 63112 162 139 5163 63083 46679 45416 16404 16355 946 104 15409 49 14845 8211 842 4513 1680 27739 203514 191057 15360 8964 2216 650 1551 3261 45406 280 26188 95 12457 6748 6553 88412 44569 102645 6730 26563 12409 88410 19844 754 19090 68566 9490 60250 113 837 6715 3230 12407 5355
is_linear=0
shrinkage=0.02


Tree=7
num_leaves=63
num_cat=0
split_feature=170 141 166 141 141 166 38 106 166 166 114 154 80 9 145 141 89 170 141 166 7 52 11 141 145 141 145 154 2 44 141 2 54 9 9 163 141 9 108 114 43 154 2 38 2 17 38 5 18 88 154 18 62 2 38 145 141 141 170 163 2 9
split_gain=19663.3 16807.1 16394 14966.5 10210.2 10363.9 9358.34 9225.79 8110.41 15953.9 5308.6 8998.72 5125.99 3952.95 3774.17 3611.53 3606.59 3743.53 5299.89 3550.21 3256.75 2892.48 2729.32 2624.65 2384.25 1472.28 1469.48 1469.4 1463.46 1428.15 1388.6 1107.47 991.559 991.514 846.926 777.722 753.909 717.031 663.411 634.715 608.835 593.669 579.892 576.74 562.72 454.623 453.403 452.945 447.398 443.732 438.156 1248.41 402.027 349.342 331.75 326.242 299.202 287.159 273.9 266.293 268.638 245.291
threshold=65.195061010770104 39.995000000000012 0.28535078153398769 211.93500000000003 59.995000000000012 0.038535788535788547 0.090730136005726575 479.89285714285728 0.84344362745098056 0.89498746867167933 0.40029411764705886 0.016971596796456805 58.488214250000006 0.29513578274760394 1258.4400000000007 83.995000000000019 -0.73831955501122659 32.815645304735263 260.75000000000006 0.16680042803638312 1.1987500000000002 0.30548928571428574 0.18417989470722682 108.89500000000002 600.04000000000008 119.99500000000002 6406.6099999999997 0.051053936176088256 0.10714285714285715 0.35892715311004791 14.985000000000001 0.32142857142857145 0.26732142857142865 0.20506410256410257 0.3104736842105264 0.23205128205128209 74.995000000000019 0.13000000000000006 0.25500000000000006 0.30083333333333345 69.917422062350013 0.023070586744392354 0.17857142857142858 0.0074019285557747104 0.10714285714285715 0.2142857142857143 0.016967145273309586 8.6099714500000015 0.55357142857142871 36.995000000000012 0.14320395669350708 0.060000000000000012 4.8928571428571432 15.107142857142859 0.09160839160839164 41.975000000000001 34.985000000000007 32.995000000000012 32.815645304735263 0.36157786885245907 0.32142857142857145 0.17721111111111118
decision_type=10 8 10 10 10 8 10 8 8 10 10 8 10 10 8 10 8 10 10 10 8 10 8 10 8 8 8 8 8 8 10 10 8 10 10 8 10 8 10 8 10 10 10 8 10 10 8 10 8 10 10 8 10 10 8 8 10 10 10 10 10 10
left_child=1 29 4 23 6 15 13 10 12 -10 26 -12 16 20 27 36 22 18 35 34 37 25 -9 61 -5 -19 39 41 -15 40 48 54 -23 -28 -16 -18 -6 55 59 45 49 -7 -26 -35 -11 -4 -39 -17 -31 -1 56 -52 -13 -22 -8 -3 57 -32 -57 60 -21 -2
right_child=3 2 7 24 5 14 31 8 9 44 11 52 -14 28 19 47 17 21 -20 38 53 32 -24 -25 42 -27 33 -29 -30 30 50 -33 -34 43 -36 -37 -38 46 -40 -41 -42 -43 -44 -45 -46 -47 -48 -49 -50 -51 51 -53 -54 -55 -56 58 -58 -59 -60 -61 -62 -63
leaf_value=-0.15182277041556907 0.087372488922726504 -0.12214579832647085 1.5736536936642802 3.1938097987362002 5.3824257085720495 -0.2245886050623776 2.1188252431346597 1.7924789262024248 6.6986928651249018 -0.10177606147399165 5.4859264288850627 1.1624660259944031 1.5796826746250829 2.1249051391379608 2.3265275090186659 1.0752223358994428 1.0930744972527979 0.10951864930575113 4.3087710101553185 1.8083605408378205 3.2008689793679359 0.10362763360894806 0.16409890717211256 2.0103148539926488 7.2593023677655406 -0.099218827731427151 0.50439827495553613 1.420284153294864 0.74144674407974598 -0.11301544005438925 0.1146034498516959 3.6270329638005454 0.48959885353550386 4.915211917925145 4.112619203908479 0.30743110049821482 3.7688761382505356 0.46836730378473718 -0.010256540845726213 0.43105511706913585 0.49485465569855247 0.43909666634915562 5.4572486429759337 1.5674813616451775 2.1900699507075747 -0.036001875972861919 -0.10537139463143 2.5650067951597881 0.42088620993619513 0.052034333751560531 0.21396030366133825 1.6411530857869447 0.29948458830757074 -0.0033948503798033169 -0.089645814963779019 0.3433817090246038 0.41908330239906366 -0.15153361039049157 0.97577219525644543 2.073579736407793 1.1226388082807521 0.82324942585612704
leaf_weight=205.3128970945254 0.57142800092697033 0.4261850006878376 0.071428999304771312 0.14285700023174286 0.19480000436305722 0.70475699007511172 0.28571400046348572 0.76168502494692769 0.21428599953651328 0.42857100069522858 0.20408600196242332 1.2857139855623234 0.81077200919389625 0.42857100069522913 0.27381400018930424 0.19047100096940994 0.57142899930477142 15.43071114644408 0.14285700023174275 0.24445700272917825 0.14285700023174186 6.3228160962462425 0.89609898626804363 0.65612800046801567 0.14285700023174275 108.9308713437058 9.2299853414297104 0.53571400046348605 1.0680999970063567 26.831380094401542 9.1272369429934752 0.28571400046348572 4.5988129675388318 0.023814000189304352 0.1734709944576025 4.2714240066707125 0.28571400046348572 0.58838699758052826 0.19047099351882923 1.9402430057525633 0.59172898530959983 2.2937419470399618 0.14285700023174286 0.15178500115871507 0.047614000737667084 4.0306000038981438 8.6604990493506175 0.14285700023174286 0.64285700023174186 4.361731080338358 1.7272699875757092 0.28571400046348561 0.25951399654149998 0.015042999759316444 0.030070999637246909 1.0465430095791788 1.059528000652789 1.9720999812707294 0.37110000103712071 0.13434199569746841 3.5060999467968941 0.26531500369310379
leaf_count=12050 7661 1649 1106 461 1767 372 67 37 726 15594 37 309 38 3395 7626 5389 3596 3992 659 1402 8948 59 55 5411 7305 4781 1821 632 1112 92644 70639 100 42 7 541 27929 683 101 23 121 12 463 363 189 1568 492 14941 30 10073 47 3809 549 8 3 2261 15184 10224 3174 2834 83 115 2644
internal_value=0 -0.0186388 0.127322 2.00905 0.636502 1.16242 0.28701 0.0568865 0.00440139 2.16678 0.494624 1.53884 -0.00605877 0.171978 0.945154 3.31335 -0.0151175 -0.026078 0.512128 1.32781 0.0435215 -0.0459129 0.912274 1.0633 5.30345 -0.0733188 0.376376 0.455479 1.1376 -0.124581 -0.0175795 2.72482 0.26615 0.532722 3.01923 0.400133 4.42301 0.0029234 1.14217 0.133004 -0.145774 0.283106 6.35828 2.02149 0.127387 -0.0079728 -0.0688718 1.71371 -0.100523 -0.147582 0.143219 0.41653 1.01753 2.8956 1.90852 0.363058 0.09797 0.0673169 0.508924 1.19867 1.16733 0.320705
internal_weight=0 434.757 182.845 1.92144 22.2195 8.87071 13.3488 160.625 143.428 0.690471 17.1972 1.74931 142.737 12.7473 8.05687 0.813842 141.927 140.269 4.98571 4.52265 11.2506 135.283 1.65778 1.49287 0.428571 124.362 15.4479 3.53421 1.49667 251.912 41.6461 0.601499 10.9216 9.40558 0.447285 4.84285 0.480514 11.0927 4.07537 6.04227 210.266 2.9985 0.285714 0.175599 0.476185 4.10203 9.24889 0.333328 27.4742 209.675 14.1718 2.01298 1.54523 0.1579 0.315785 1.84383 12.1589 11.0993 1.41764 3.8849 3.75056 0.836743
internal_count=359953 336108 132887 23845 69721 19126 50595 63166 59076 17888 4090 354 41188 48167 11257 7869 41150 41058 32184 9790 43660 8874 92 15716 8129 8773 3736 1467 4507 203221 191112 2428 101 2017 8167 31525 2450 34709 1623 1719 12109 835 7668 196 17162 1598 15042 5419 102717 12097 88395 4358 317 8951 2328 19667 84037 73813 18018 1600 1517 10305
is_linear=0
shrinkage=0.02


Tree=8
num_leaves=63
num_cat=0
split_feature=171 28 148 160 37 75 23 166 18 18 147 30 146 138 103 146 142 18 171 30 18 148 147 114 85 17 118 171 171 48 17 23 5 77 171 171 23 23 59 113 152 153 148 138 142 17 142 27 143 31 137 169 142 145 145 18 31 171 142 17 146 23
split_gain=19779.9 16189.2 11380 9781.49 7308.8 5903.22 5769.85 5551.85 11472.6 5338.34 4195.29 4110.03 4262.26 3703.62 2355.48 2249.88 6761.87 2195.26 2167.63 2034.31 1960.99 1637.74 1415.01 1335.61 2357.21 4968.51 1216.56 1092.4 2052.5 992.409 932.477 878.62 861.758 745.318 689.636 1499.56 682.883 5279.95 665.621 644.733 546.192 12207.8 452.982 443.998 428.175 358.231 351.951 344.756 288.795 268.552 267.605 264.122 256.227 240.574 232.406 226.742 201.293 185.008 182.122 180.751 164.419 154.03
threshold=69.81358361594819 48.995000000000012 1.2264510489510492 0.99720670391061461 2.1292857142857149 -70.523192935337974 0.013349534224382344 0.17657451673248808 2.7000000000000006 2.4071428571428579 0.039613300952736789 25.455000000000002 0.023265715662523351 4.7987000000000011 5.3307525258205013 0.047624893316030072 21.500000000000004 0.030714285714285718 15.917150828683168 17.480000000000004 0.010714285714285716 0.68245933521923663 0.013702385243931749 0.40029411764705886 1.0000000180025095e-35 8.071428571428573 34.989100044998004 10.756528680546475 10.62375426501676 0.50250000000000017 0.50000000000000011 0.012825589849191943 1.9266964500000003 0.60714285714285732 7.3016329048458575 6.6408251495089878 0.090326340326340349 0.065681622088006916 1.8714346590909094 0.015685044406721287 3.5000000000000004 577.61500000000035 1.7658814589665666 3.7081000000000004 3484.5000000000005 21.500000000000004 417.50000000000006 0.0075916666666666502 5.5000000000000009 47.321428571428577 inf 0.9772727272727274 45.500000000000007 340.25500000000005 119.99500000000002 0.049285714285714301 3.6071428571428581 56.493299412255702 1297.5000000000002 0.35714285714285715 0.017256268238937531 0.11035007610350077
decision_type=10 10 10 10 8 10 8 8 8 8 8 10 10 10 8 8 8 10 10 10 8 10 10 10 8 10 10 8 8 8 10 10 10 8 10 8 10 10 10 8 8 8 8 8 10 10 8 10 8 8 8 10 8 10 10 10 8 10 10 8 8 10
left_child=1 4 9 6 11 22 31 8 10 49 13 14 -13 21 -1 16 -12 53 33 26 -18 60 -4 38 25 -25 27 28 36 46 -23 -2 -21 -16 35 -17 37 -9 40 -31 41 -20 -41 -42 -22 -34 -29 -24 61 -3 -32 57 -38 -8 -35 -37 -40 -36 -56 -48 -6 -19
right_child=3 2 5 -5 7 -7 17 19 -10 -11 15 12 -14 -15 18 34 20 48 23 32 44 30 47 24 -26 -27 -28 29 -30 39 50 -33 45 54 51 55 52 -39 56 42 43 -43 -44 -45 -46 -47 59 -49 -50 -51 -52 -53 -54 -55 58 -57 -58 -59 -60 -61 -62 -63
leaf_value=0.52889936215166944 5.3481037128411133 0.28985208959777459 3.7433622524519667 7.1141159892941754 0.66620434396812533 1.1022229858338781 -0.01738160676609949 0.26544840358003219 5.274777225732775 0.57531416527941048 3.6934986368478548 1.8152234832856358 -0.026715776712995482 4.0102788838337684 1.3318549930718879 0.17109613257788422 2.5106829341613581 1.7001408386230401 -0.10196783080638719 1.6083300053791731 -0.068915577167076983 1.6811752997404579 -0.2715765305357703 -0.098828465956938741 -0.035923803159412286 1.6057499070940398 1.3190556725372384 1.7208290909773598 5.6000712539503112 0.55022084472918886 0.97549552994729283 3.129933506631009 0.19373980927089812 0.04307745167895053 0.0092805624499176214 1.2463555381569327 -0.010531910749824574 4.22259565403919 0.030639335946375926 -0.10421458243317359 -0.18285767339102127 2.2147790451096605 0.010093498426949492 -0.11670275855134836 1.5290752367936555 0.67283253926622022 1.3727477164872262 2.1917427766739102 2.2486274588390249 -0.10660120630845002 0.33868127163956074 1.2492064222546841 0.361886239862449 0.81691562372527204 1.0658010345961737 2.3731899303752813 0.47601446129404673 0.45960832629278087 0.40683619834218554 0.38190530866571948 0.085407000622978249 0.73445562444045931
leaf_weight=2.3877429962158203 0.14285700023174164 0.74830101430416107 0.48980000242590849 0.14285700023174275 0.24828500207513571 2.5820999890565872 0.42857100069522858 2.4132690038532014 0.194800004363059 12.413958333432673 0.28571400046348538 0.91724202595651094 1.1113999807275829 0.15305699408054341 0.39999999105930328 1.0238140001893066 0.14285700023174275 0.25 44.971867904998362 0.28571400046348516 1.0992420017719267 0.80357100069522891 0.024856999516487122 1.7035709992051127 17.142713475972418 1.1428569853305814 0.28571400046348472 0.095228999853133822 0.028571000322699436 0.76190001517534256 1.4761859625577924 0.14285700023174286 1.1714269872754814 0.57142800092697033 8.6665819671470619 0.14285700023174297 3.2976270020008087 0.14285700023174275 0.71428602933883667 23.032110957428813 50.92581495642662 0.92857098579406638 34.848878095392138 199.76024247147143 0.071428999304771534 1.3366000056266782 0.079370997846126445 0.26514200121164322 0.37755700014531612 7.885713875293737 0.32142899930477131 0.0714289993047722 0.95238499902188767 0.20408600196242332 0.21428599953651428 0.14285700023174286 0.94024198874831089 0.38095699995756227 0.77272900938987732 1.020414000377059 0.90791400521993704 0.089800002053380013
leaf_count=11 113 34 38 2833 1326 13 13509 19866 6606 31 120 27 59 692 432 14694 1068 539 2014 481 3918 2062 10 50 82 5 116 1064 1160 354 73 8 392 8918 59166 4587 35951 3199 76 13003 771 75 125503 9423 115 3 145 440 4027 352 75 84 11205 1023 1077 570 63 1099 319 471 3409 1004
internal_value=0 -0.0181304 0.482269 2.09531 -0.0478867 1.56278 1.65699 0.11618 0.450538 0.309683 0.391575 -0.091296 0.806109 0.960651 -0.0969397 0.206557 0.905065 1.11054 -0.101607 0.0388464 0.298535 0.836425 3.08781 -0.105689 0.052576 0.585569 0.0167841 0.0112034 0.250742 -0.0161568 1.11481 4.23902 0.56762 0.561731 0.099439 0.528624 0.228287 0.486606 -0.116297 -0.0277838 -0.118528 -0.0550998 -0.0353922 -0.130142 0.0285865 0.449062 0.554413 1.9806 1.86793 -0.072241 0.861628 0.037806 0.0729233 0.251751 0.364066 1.80977 0.283739 0.0282421 0.549901 0.453414 0.210129 1.44494
internal_weight=0 434.9 24.4099 1.77859 410.49 3.3619 1.63573 85.885 16.133 21.048 15.9382 324.605 2.02864 3.91044 322.576 12.0277 1.59924 1.35001 320.189 69.7521 1.31353 3.75738 0.779799 318.23 19.9891 2.84643 66.9583 66.6726 6.83471 59.8379 2.60119 0.285714 2.79374 1.95844 10.4285 1.30953 6.80614 2.55613 298.241 58.6429 296.586 45.9004 57.881 250.686 1.17067 2.50803 1.19501 0.289999 0.717357 8.63401 1.79761 9.11897 4.25001 0.632657 1.55844 0.285714 1.65453 9.04754 0.987015 1.09978 1.1562 0.3398
internal_count=359953 336897 918 23056 335979 501 20223 312577 99664 417 93058 23402 86 7637 23316 85421 5221 20102 23305 212913 5101 6945 488 12559 137 55 212037 211921 71381 140540 2210 121 876 10746 80200 19851 70221 23065 12422 138860 12283 2089 138506 10194 4033 395 1680 450 5570 386 148 60349 47156 14532 10314 5157 139 60265 1396 616 4735 1543
is_linear=0
shrinkage=0.02


end of trees

feature_importances:
uber_curr_item_price_w1=35
sem_impressions_w2=29
sem_cpc_w2=22
uber_avg_margin_w1=20
sem_clicks_w2=17
sem_ctr_w2=17
seller_weight_price_cart_w1=16
site_total_add_to_carts_w2=15
site_total_revenue_w2=15
seller_weight_price_cart_w2=15
site_rpv_w2=12
bc_bounces_w1=12
site_convrt_w2=11
sem_margin_seller_w2=10
sem_ordersize_seller_w2=10
sem_impressions_v9=10
sem_clicks_w1=9
sem_adspend_w1=9
sem_ctr_w1=9
sem_ctr_v2=9
site_convrt_w1=9
sem_mpo_seller_w2=8
bc_bounce_rate_w1=8
site_atcpv_w1=7
sem_impressions_v2=6
bc_visits_w2=6
is_mobile=5
sem_ctr_v4=5
uber_avg_overall_rating_w1=5
site_total_page_views_w2=5
site_rpv_w1=5
bc_bounce_rate_w2=5
seller_weight_price_orders_w1=5
sem_gmv_revenue_adjustment_seller_w2=4
sem_roas_seller_w2=4
sem_mpc_seller_w2=4
sem_margin_seller_v2=4
sem_mpc_seller_v2=4
sem_mpo_seller_v2=4
sem_rpc_seller_v3=4
sem_impressions_v4=4
sem_ordersize_seller_v5=4
sem_cpc_v12=4
site_total_orders_w2=4
site_total_page_views_w1=4
site_total_orders_w1=4
sem_rpc_seller_w2=3
sem_convrt_seller_w2=3
sem_impressions_w1=3
sem_mpc_seller_w1=3
sem_cpc_v2=3
sem_adspend_v3=3
sem_margin_seller_v3=3
sem_cpc_v3=3
sem_clicks_v4=3
sem_cpc_v4=3
sem_rpc_seller_v4=3
sem_clicks_v5=3
sem_orders_seller_v5=3
sem_impressions_v12=3
site_atcpv_w2=3
bc_bounces_w2=3
bc_sem_bounces_w1=3
sem_qty_w2=2
sem_orders_seller_w2=2
sem_rpc_seller_w1=2
sem_ordersize_seller_w1=2
sem_mpo_seller_w1=2
sem_adspend_v2=2
sem_clicks_v3=2
sem_ctr_v3=2
sem_margin_seller_v4=2
sem_adspend_v5=2
sem_margin_seller_v5=2
sem_mpc_seller_v5=2
sem_cpc_v9=2
sem_qty_v12=2
sem_ctr_v12=2
bc_sem_bounces_w2=2
bc_sem_visits_w2=2
bc_sem_bounce_rate_w2=2
sem_adspend_w2=1
sem_qty_w1=1
sem_convrt_seller_w1=1
sem_qty_v2=1
sem_orders_seller_v2=1
sem_rpc_seller_v2=1
sem_roas_seller_v2=1
sem_convrt_seller_v2=1
sem_ordersize_seller_v2=1
sem_orders_seller_v3=1
sem_roas_seller_v3=1
sem_ordersize_seller_v3=1
sem_mpc_seller_v3=1
sem_mpo_seller_v3=1
sem_gmv_revenue_adjustment_seller_v4=1
sem_convrt_seller_v4=1
sem_mpc_seller_v4=1
sem_mpo_seller_v4=1
sem_qty_v5=1
sem_gmv_revenue_adjustment_seller_v5=1
sem_rpc_seller_v5=1
sem_clicks_v9=1
sem_qty_v9=1
sem_ordersize_seller_v9=1
sem_clicks_v12=1
sem_adspend_v12=1
sem_rpc_seller_v12=1
sem_roas_seller_v12=1
sem_ordersize_seller_v12=1
sem_mpc_seller_v12=1
uber_num_appr_reviews_w1=1
uber_price_change_ratio_w1=1
site_total_add_to_carts_w1=1
site_total_revenue_w1=1
bc_visits_w1=1
bc_sem_visits_w1=1
bc_sem_bounce_rate_w1=1
seller_weight_price_orders_w2=1

parameters:
[boosting: gbdt]
[objective: regression]
[metric: rmse]
[tree_learner: serial]
[device_type: cpu]
[data: ]
[valid: ]
[num_iterations: 4000]
[learning_rate: 0.02]
[num_leaves: 63]
[num_threads: -1]
[deterministic: 0]
[force_col_wise: 0]
[force_row_wise: 0]
[histogram_pool_size: -1]
[max_depth: 10]
[min_data_in_leaf: 20]
[min_sum_hessian_in_leaf: 0.001]
[bagging_fraction: 0.9]
[pos_bagging_fraction: 1]
[neg_bagging_fraction: 1]
[bagging_freq: 10]
[bagging_seed: 400]
[feature_fraction: 0.33]
[feature_fraction_bynode: 1]
[feature_fraction_seed: 30056]
[extra_trees: 0]
[extra_seed: 12879]
[early_stopping_round: 200]
[first_metric_only: 0]
[max_delta_step: 0]
[lambda_l1: 0]
[lambda_l2: 0]
[linear_lambda: 0]
[min_gain_to_split: 0]
[drop_rate: 0.1]
[max_drop: 50]
[skip_drop: 0.5]
[xgboost_dart_mode: 0]
[uniform_drop: 0]
[drop_seed: 17869]
[top_rate: 0.2]
[other_rate: 0.1]
[min_data_per_group: 100]
[max_cat_threshold: 32]
[cat_l2: 10]
[cat_smooth: 10]
[max_cat_to_onehot: 4]
[top_k: 20]
[monotone_constraints: ]
[monotone_constraints_method: basic]
[monotone_penalty: 0]
[feature_contri: ]
[forcedsplits_filename: ]
[refit_decay_rate: 0.9]
[cegb_tradeoff: 1]
[cegb_penalty_split: 0]
[cegb_penalty_feature_lazy: ]
[cegb_penalty_feature_coupled: ]
[path_smooth: 0]
[interaction_constraints: ]
[verbosity: -1]
[saved_feature_importance_type: 0]
[linear_tree: 0]
[max_bin: 255]
[max_bin_by_feature: ]
[min_data_in_bin: 3]
[bin_construct_sample_cnt: 200000]
[data_random_seed: 175]
[is_enable_sparse: 1]
[enable_bundle: 1]
[use_missing: 1]
[zero_as_missing: 0]
[feature_pre_filter: 1]
[pre_partition: 0]
[two_round: 0]
[header: 0]
[label_column: ]
[weight_column: ]
[group_column: ]
[ignore_column: ]
[categorical_feature: ]
[forcedbins_filename: ]
[precise_float_parser: 0]
[objective_seed: 16083]
[num_class: 1]
[is_unbalance: 0]
[scale_pos_weight: 1]
[sigmoid: 1]
[boost_from_average: 1]
[reg_sqrt: 0]
[alpha: 0.9]
[fair_c: 1]
[poisson_max_delta_step: 0.7]
[tweedie_variance_power: 1.5]
[lambdarank_truncation_level: 30]
[lambdarank_norm: 1]
[label_gain: ]
[eval_at: ]
[multi_error_top_k: 1]
[auc_mu_weights: ]
[num_machines: 1]
[local_listen_port: 12400]
[time_out: 120]
[machine_list_filename: ]
[machines: ]
[gpu_platform_id: -1]
[gpu_device_id: -1]
[gpu_use_dp: 0]
[num_gpu: 1]

end of parameters

pandas_categorical:[]
